FANN_FLO_2.1
num_layers=3
learning_rate=0.700000
connection_rate=1.000000
network_type=0
learning_momentum=0.000000
training_algorithm=2
train_error_function=1
train_stop_function=0
cascade_output_change_fraction=0.010000
quickprop_decay=-0.000100
quickprop_mu=1.750000
rprop_increase_factor=1.001000
rprop_decrease_factor=0.500000
rprop_delta_min=0.000000
rprop_delta_max=50.000000
rprop_delta_zero=0.100000
cascade_output_stagnation_epochs=12
cascade_candidate_change_fraction=0.010000
cascade_candidate_stagnation_epochs=12
cascade_max_out_epochs=150
cascade_max_cand_epochs=150
cascade_num_candidate_groups=2
bit_fail_limit=3.49999999999999977796e-01
cascade_candidate_limit=1.00000000000000000000e+03
cascade_weight_multiplier=4.00000000000000022204e-01
cascade_activation_functions_count=10
cascade_activation_functions=3 5 7 8 10 11 14 15 16 17 
cascade_activation_steepnesses_count=4
cascade_activation_steepnesses=2.50000000000000000000e-01 5.00000000000000000000e-01 7.50000000000000000000e-01 1.00000000000000000000e+00 
layer_sizes=71 11 2 
scale_included=0
neurons (num_inputs, activation_function, activation_steepness)=(0, 0, 0.00000000000000000000e+00) (0, 0, 0.00000000000000000000e+00) (0, 0, 0.00000000000000000000e+00) (0, 0, 0.00000000000000000000e+00) (0, 0, 0.00000000000000000000e+00) (0, 0, 0.00000000000000000000e+00) (0, 0, 0.00000000000000000000e+00) (0, 0, 0.00000000000000000000e+00) (0, 0, 0.00000000000000000000e+00) (0, 0, 0.00000000000000000000e+00) (0, 0, 0.00000000000000000000e+00) (0, 0, 0.00000000000000000000e+00) (0, 0, 0.00000000000000000000e+00) (0, 0, 0.00000000000000000000e+00) (0, 0, 0.00000000000000000000e+00) (0, 0, 0.00000000000000000000e+00) (0, 0, 0.00000000000000000000e+00) (0, 0, 0.00000000000000000000e+00) (0, 0, 0.00000000000000000000e+00) (0, 0, 0.00000000000000000000e+00) (0, 0, 0.00000000000000000000e+00) (0, 0, 0.00000000000000000000e+00) (0, 0, 0.00000000000000000000e+00) (0, 0, 0.00000000000000000000e+00) (0, 0, 0.00000000000000000000e+00) (0, 0, 0.00000000000000000000e+00) (0, 0, 0.00000000000000000000e+00) (0, 0, 0.00000000000000000000e+00) (0, 0, 0.00000000000000000000e+00) (0, 0, 0.00000000000000000000e+00) (0, 0, 0.00000000000000000000e+00) (0, 0, 0.00000000000000000000e+00) (0, 0, 0.00000000000000000000e+00) (0, 0, 0.00000000000000000000e+00) (0, 0, 0.00000000000000000000e+00) (0, 0, 0.00000000000000000000e+00) (0, 0, 0.00000000000000000000e+00) (0, 0, 0.00000000000000000000e+00) (0, 0, 0.00000000000000000000e+00) (0, 0, 0.00000000000000000000e+00) (0, 0, 0.00000000000000000000e+00) (0, 0, 0.00000000000000000000e+00) (0, 0, 0.00000000000000000000e+00) (0, 0, 0.00000000000000000000e+00) (0, 0, 0.00000000000000000000e+00) (0, 0, 0.00000000000000000000e+00) (0, 0, 0.00000000000000000000e+00) (0, 0, 0.00000000000000000000e+00) (0, 0, 0.00000000000000000000e+00) (0, 0, 0.00000000000000000000e+00) (0, 0, 0.00000000000000000000e+00) (0, 0, 0.00000000000000000000e+00) (0, 0, 0.00000000000000000000e+00) (0, 0, 0.00000000000000000000e+00) (0, 0, 0.00000000000000000000e+00) (0, 0, 0.00000000000000000000e+00) (0, 0, 0.00000000000000000000e+00) (0, 0, 0.00000000000000000000e+00) (0, 0, 0.00000000000000000000e+00) (0, 0, 0.00000000000000000000e+00) (0, 0, 0.00000000000000000000e+00) (0, 0, 0.00000000000000000000e+00) (0, 0, 0.00000000000000000000e+00) (0, 0, 0.00000000000000000000e+00) (0, 0, 0.00000000000000000000e+00) (0, 0, 0.00000000000000000000e+00) (0, 0, 0.00000000000000000000e+00) (0, 0, 0.00000000000000000000e+00) (0, 0, 0.00000000000000000000e+00) (0, 0, 0.00000000000000000000e+00) (0, 0, 0.00000000000000000000e+00) (71, 4, 5.00000000000000000000e-01) (71, 4, 5.00000000000000000000e-01) (71, 4, 5.00000000000000000000e-01) (71, 4, 5.00000000000000000000e-01) (71, 4, 5.00000000000000000000e-01) (71, 4, 5.00000000000000000000e-01) (71, 4, 5.00000000000000000000e-01) (71, 4, 5.00000000000000000000e-01) (71, 4, 5.00000000000000000000e-01) (71, 4, 5.00000000000000000000e-01) (0, 4, 5.00000000000000000000e-01) (11, 4, 9.00000000000000022204e-01) (0, 4, 9.00000000000000022204e-01) 
connections (connected_to_neuron, weight)=(0, 1.50000000000000000000e+03) (1, -1.20385488944968663816e+01) (2, 1.50000000000000000000e+03) (3, -4.55564007110111468535e+00) (4, 1.34591242253089171754e+03) (5, 2.14771082444459828764e+01) (6, 1.16847123061225573792e+02) (7, -5.76722945917260005899e+01) (8, -1.50000000000000000000e+03) (9, 4.17111024492523014828e+01) (10, 1.32983702163865746115e+03) (11, 6.80858597426905198802e+00) (12, -1.50000000000000000000e+03) (13, 1.06305478225360907629e+01) (14, 1.50000000000000000000e+03) (15, 1.38851557574749708834e+01) (16, 2.62508299848718928970e+00) (17, -5.10404116002627539217e+00) (18, 6.60127041106080714172e+00) (19, 3.15613034078693921458e+01) (20, 2.58547550002955723869e+01) (21, 3.13252441222681063948e+01) (22, 1.50000000000000000000e+03) (23, -1.78966684184679039049e+01) (24, 1.50000000000000000000e+03) (25, -6.98932884279240340675e+00) (26, -7.83248506349069316457e+02) (27, -9.13295889107142544461e-01) (28, -2.02395499889490828593e+01) (29, -2.40896687242680513918e+01) (30, -8.04129196691959350574e+02) (31, -3.67619711690555872607e+00) (32, 8.10470974358701994333e+01) (33, -2.11743850032657441318e+01) (34, -4.60719141853719236224e+01) (35, 4.79347259701016614741e+00) (36, -1.25692083471984886955e+02) (37, 1.14648911926620300505e+01) (38, -1.50000000000000000000e+03) (39, -2.70545049286743903849e+01) (40, -8.74129184796020240356e+02) (41, -1.10849743785712835376e+01) (42, -3.97694651545600237341e+01) (43, -2.04371900291418100437e+01) (44, 1.43625163952713137405e+03) (45, 1.19923119680932757092e+01) (46, 1.15735695777830278530e+03) (47, 2.77906095201405314299e+01) (48, -2.20096408977200781010e+02) (49, 2.09995558419152992258e+01) (50, -1.72593661604629232897e+02) (51, 3.81524265606686938668e+01) (52, -1.12821324877364276063e+02) (53, -3.51428285033120868519e+00) (54, -2.30849091286982002202e+01) (55, -2.40676276050792594674e+01) (56, 2.24898983462495920094e+02) (57, 1.10845165835966810164e+01) (58, 1.33164298852946956231e+02) (59, 3.24330210252052975051e+00) (60, -3.98045972306689748166e+02) (61, -2.77919223435315432269e+00) (62, -1.36355292208978738699e+02) (63, -1.81864017496700576260e+01) (64, 1.50000000000000000000e+03) (65, -2.34473303148717846511e+01) (66, -4.44470008380877033005e+01) (67, 3.23522940232978797326e+01) (68, 1.50000000000000000000e+03) (69, 1.06489281276768004147e+01) (70, -2.24403580555154000820e+01) (0, -1.50000000000000000000e+03) (1, -4.47621350710862131450e+00) (2, -1.50000000000000000000e+03) (3, 1.12485906699463509284e+01) (4, -9.01531729154109058300e+01) (5, -5.23195116874197818646e+00) (6, 7.74056435596844352176e+01) (7, -3.77700629191297565512e+01) (8, 6.22237223866892691149e+02) (9, 1.85614722675734888924e+01) (10, -3.49833487714270404467e+02) (11, -2.49750698335249055049e+01) (12, 1.50000000000000000000e+03) (13, -6.56177656098104744586e+00) (14, -1.50000000000000000000e+03) (15, 2.58286556924526706780e+01) (16, 4.81994064643336450615e+00) (17, 3.12876257355915665670e+00) (18, 4.92372858351884232775e+01) (19, 6.91760667822113362035e+00) (20, 2.11950933398492473714e+01) (21, -3.45027982273184505857e+01) (22, -1.50000000000000000000e+03) (23, -1.77479239709925025181e+01) (24, -1.50000000000000000000e+03) (25, 1.42026891908611361259e+01) (26, 9.66787194631964780456e+02) (27, -1.94114417123281057798e+00) (28, -8.58562163273868463875e+02) (29, -2.50739568593450421474e+01) (30, 7.69363654124777127663e+01) (31, -3.54558636014371302281e+01) (32, 6.45745593053895049707e+02) (33, -4.16225374483072059206e+01) (34, 3.26667137818568846797e+02) (35, -2.88481522196977095973e+01) (36, -6.23418461576216742515e+00) (37, 2.32237382611940077481e+01) (38, -8.92865752236181009494e+01) (39, -9.73763101869795377752e+00) (40, 7.40143999762386215480e+01) (41, -9.79548259156261558189e+00) (42, -2.47081088766100236853e+02) (43, 2.70302675797733655827e+01) (44, 9.42810979557882319568e+02) (45, 1.42982103770333406345e+01) (46, -1.13801229096254701290e+03) (47, -9.40236560669101884002e+00) (48, -1.19745512112334745325e+03) (49, -1.63709545332140962159e+01) (50, -4.74551655600252075828e+01) (51, -5.81387837671771912085e+00) (52, 6.42389210499837304269e+01) (53, -1.29388491356545838329e+01) (54, -1.50000000000000000000e+03) (55, 2.20290867179238913920e+00) (56, -4.86518852536886925009e+02) (57, 1.12991545010619294231e+01) (58, -7.55300781677744225817e+02) (59, -9.23232450035385232567e-01) (60, 1.04979997971408351987e+03) (61, -1.26916928274791622755e+01) (62, -1.22812921455999980935e+03) (63, 1.48583076627753420951e+01) (64, -1.50000000000000000000e+03) (65, -1.83097676612631552473e+01) (66, 3.34703517035602757801e+01) (67, -1.70758464304102517417e+01) (68, -1.50000000000000000000e+03) (69, -9.28949681479109834470e+00) (70, 2.97812094395292596971e+01) (0, -1.50000000000000000000e+03) (1, -1.09334913492640080079e+01) (2, -1.50000000000000000000e+03) (3, -1.43817693969065119042e+00) (4, -1.50000000000000000000e+03) (5, -2.30883336033369310769e+01) (6, -1.50000000000000000000e+03) (7, -2.27008794237548627848e+00) (8, 7.61755626475800340813e+02) (9, -1.16757533066076435446e+00) (10, -1.50000000000000000000e+03) (11, 1.52826002605514617017e+01) (12, 1.50000000000000000000e+03) (13, -8.75008147700551752735e+00) (14, -1.50000000000000000000e+03) (15, -4.68012010460060423611e+00) (16, 3.99666416927607581755e+00) (17, 6.76389688468037686420e+00) (18, -2.95479282963306850718e+01) (19, -1.98587257003667225774e+01) (20, -2.06072214680407377330e+01) (21, 1.66779785927718249283e+00) (22, -1.50000000000000000000e+03) (23, -1.31717950537906336450e+01) (24, -1.50000000000000000000e+03) (25, -1.27458538459439996160e+01) (26, 5.09475613581722598155e+02) (27, 1.14353273707572160589e+01) (28, -1.75146356469243009712e+01) (29, 6.93416966442653670555e+00) (30, -3.53489716955354182915e+01) (31, -5.43970145388157977351e+00) (32, 3.41337754686706631446e+01) (33, 1.03695147406671459578e+01) (34, 2.70067189451932392785e+02) (35, -5.67460248946495160460e-01) (36, 8.92721536156582374133e+02) (37, -1.38526636304137973354e+01) (38, 1.50334078975996987992e+02) (39, 4.96720853486337343696e+00) (40, 2.03273455625340560005e+01) (41, -1.00921398518062517269e+01) (42, 2.59450248209478900208e+02) (43, 4.93341918533658763124e+00) (44, 1.50000000000000000000e+03) (45, -1.75307079421017206755e+01) (46, -4.69103170934865431718e+02) (47, 1.41993870486587567825e+01) (48, 4.65689994542973465741e+02) (49, 2.42586040794913699870e+01) (50, 6.14359874952877817122e+02) (51, -9.93895940550410550429e+00) (52, 4.58990534845770923766e+02) (53, 2.00015070673668731160e+01) (54, 7.63843966468028270356e+02) (55, 2.14322593691516694037e+01) (56, 1.96118962629092294492e+02) (57, 1.98499514753469141759e+00) (58, 9.80636460675204375548e+02) (59, -1.63811992414500799953e+01) (60, 5.00368881636907616439e+01) (61, 2.99049890539527396527e+01) (62, 3.73436628150339515742e+01) (63, -7.10461360497419747162e+00) (64, -1.50000000000000000000e+03) (65, -4.78966544975383534677e+00) (66, 3.75124109897270940905e+01) (67, -2.21362171815686927800e+01) (68, -1.50000000000000000000e+03) (69, 1.31006815936578515647e+01) (70, -4.26234127401388374068e+00) (0, -1.50000000000000000000e+03) (1, 3.45460659637555949075e+01) (2, -1.50000000000000000000e+03) (3, 1.36108684674554911709e+01) (4, -4.05589618797460616406e+02) (5, 1.37593651657839082247e+01) (6, -3.21528415704420282850e+01) (7, 3.03974705670875984254e+01) (8, 1.50000000000000000000e+03) (9, -1.36259299957144697224e+00) (10, -1.47552041945730661610e+03) (11, 3.17009925531060332560e+00) (12, 9.95814848925461575391e+01) (13, -1.59360064827496508144e+01) (14, -1.50000000000000000000e+03) (15, -3.55415148969267278289e+01) (16, -1.02981693400709382047e+01) (17, 1.54575881374586288075e+01) (18, 4.96291832885692798527e+01) (19, 2.04026512969151241350e+01) (20, 1.02990405079448592573e+01) (21, -2.22576218285438409694e+00) (22, -1.50000000000000000000e+03) (23, -1.62585625914777232026e+01) (24, -1.50000000000000000000e+03) (25, 1.38456353116319661467e+01) (26, 1.88740568995766494709e+02) (27, -8.34426340154394985404e+00) (28, -1.60035071727567668631e+02) (29, 2.11757247542028448350e+00) (30, 1.50000000000000000000e+03) (31, -2.13991988264254029417e+00) (32, -5.48157977329607547290e+02) (33, 3.86888000934675035936e+00) (34, 4.50482994522328453968e+02) (35, 1.03862642581824129451e+01) (36, 1.24936802280074246596e+02) (37, -5.26103583480874537059e+00) (38, 1.50000000000000000000e+03) (39, 3.12583902956053947264e+01) (40, 1.50000000000000000000e+03) (41, -1.50425155910180077257e+01) (42, -1.21815971065038493037e+01) (43, -4.33684087100891204614e+01) (44, 3.33294601754498742707e+01) (45, 9.63949692337277674881e+00) (46, -3.67016197923457639263e+02) (47, 1.50590959742715524428e+00) (48, -2.41362295596516780449e+01) (49, 2.28117953909545185809e+01) (50, 1.26211030081655479762e+02) (51, 6.74986551798474110342e+00) (52, 4.17660040595537509489e+02) (53, -1.39987543789916557557e+01) (54, -6.42684115583164867758e+01) (55, -1.04222078569308447271e+01) (56, -3.95240646660610579488e+01) (57, -1.60701407790894919003e+01) (58, -8.86046758644121268844e+02) (59, 2.63106676623694006878e+01) (60, 3.06209183927269634751e+02) (61, -1.04688871589576670829e+01) (62, 1.37298158240872993474e+02) (63, 6.90224867282333853780e+00) (64, -1.50000000000000000000e+03) (65, -1.14609035902933928952e+01) (66, 4.07665700987933092847e+01) (67, 9.21848549454769816691e+00) (68, -1.50000000000000000000e+03) (69, -1.04906285079231373913e+01) (70, -5.16103235076681987614e-01) (0, -1.50000000000000000000e+03) (1, -5.46564883425389336224e+00) (2, -1.50000000000000000000e+03) (3, 7.15045420817113175360e+00) (4, -1.50000000000000000000e+03) (5, 2.22509057511526222584e+01) (6, -2.04761780993547802154e+02) (7, 1.44185763069513708245e+01) (8, 1.50000000000000000000e+03) (9, 3.52036621212644433854e+01) (10, -1.50000000000000000000e+03) (11, 1.24300639481963308697e+01) (12, 1.50000000000000000000e+03) (13, -3.02070870933263755376e+01) (14, -1.50000000000000000000e+03) (15, -1.46089978275043606004e+01) (16, -2.42044090954381978520e+01) (17, 1.76198633001245603680e+01) (18, 1.63547853904049045326e+00) (19, 9.79408756028350602207e+00) (20, 5.05379862820807534973e+00) (21, 4.49239353843710702563e+01) (22, -1.50000000000000000000e+03) (23, -1.39584814712849469842e+00) (24, -1.50000000000000000000e+03) (25, 7.73116841019620415487e-01) (26, 1.50000000000000000000e+03) (27, -4.44681723812337850177e+01) (28, 1.54297708385453802293e+02) (29, 9.99419803197198852729e+00) (30, 1.50000000000000000000e+03) (31, 2.98371558376451950778e+01) (32, -1.01409902262590844657e+03) (33, 1.99900882467578604462e+01) (34, 1.50000000000000000000e+03) (35, 4.65975091764725668497e+00) (36, 1.06146536517751144402e+02) (37, 2.97264269594310484024e+01) (38, 1.50000000000000000000e+03) (39, 3.96555991945426313805e+01) (40, 1.50000000000000000000e+03) (41, -5.28494555472614067071e+01) (42, 1.50000000000000000000e+03) (43, -2.10764840695292292594e+01) (44, -1.50000000000000000000e+03) (45, -3.47943687593423760518e+01) (46, -1.50000000000000000000e+03) (47, 1.20396049666017397328e+01) (48, -4.48353957691877155867e+02) (49, -4.06530302070991353958e+01) (50, 1.50000000000000000000e+03) (51, -1.77146257287369444100e+01) (52, 1.50000000000000000000e+03) (53, 1.76860450554663539702e-01) (54, 2.53022231542399026694e+02) (55, 3.25210331214563765911e+01) (56, 4.53363623593961904135e+02) (57, -4.78168209166874262905e+01) (58, -4.79431397344127674387e+02) (59, 1.35538791320480491720e+01) (60, 1.47908060968309496275e+03) (61, -1.09109897861871907310e+01) (62, 1.37298158240872993474e+02) (63, 2.38576227459309553325e+00) (64, -1.50000000000000000000e+03) (65, 7.06045780573186387841e+00) (66, 1.80702028349993675249e+01) (67, 3.25974169782754898961e+01) (68, -1.50000000000000000000e+03) (69, -6.96276143295526583898e+00) (70, 2.18655529920466520366e+01) (0, -1.50000000000000000000e+03) (1, 7.77591300127115481189e+00) (2, -1.50000000000000000000e+03) (3, -4.58251436606539552798e+00) (4, -1.50000000000000000000e+03) (5, 1.25595701667611709951e+01) (6, -5.86507412235186961880e+02) (7, 7.32087941640214125982e+01) (8, 1.50000000000000000000e+03) (9, -2.93278751507481700855e+01) (10, -1.50000000000000000000e+03) (11, 3.89555195333765453825e+01) (12, 1.50000000000000000000e+03) (13, -4.34604112944195897228e+00) (14, -1.50000000000000000000e+03) (15, -1.16827498404853962199e+01) (16, -2.02281890883856050323e+01) (17, 1.41866299377953133387e+01) (18, 4.45665970544479606019e+00) (19, -7.80250610905551322816e+00) (20, 7.76284791615858882352e+00) (21, 5.92279364064544253665e+01) (22, -1.50000000000000000000e+03) (23, -1.60943389756462735818e+01) (24, -1.50000000000000000000e+03) (25, 2.49350337018418102275e+01) (26, 1.50000000000000000000e+03) (27, 2.29042026184776190689e+01) (28, 1.81276336943690097314e+02) (29, -3.04285274501147320336e+01) (30, 1.50000000000000000000e+03) (31, 8.64117281320062158301e-01) (32, -1.44663048887302920775e+03) (33, 1.60474001494387330524e+01) (34, 1.50000000000000000000e+03) (35, 1.79685951232592664439e+01) (36, 1.11744101095807565116e+02) (37, 4.31381439172360288126e+01) (38, 1.50000000000000000000e+03) (39, 7.34388831887569750734e+01) (40, 1.50000000000000000000e+03) (41, -6.85166417106845955232e+01) (42, 1.50000000000000000000e+03) (43, -1.18272834819375898263e+01) (44, -1.50000000000000000000e+03) (45, -7.73693810361387868113e+00) (46, -1.50000000000000000000e+03) (47, 1.36140975263426273756e+01) (48, -9.75329113888485267125e+02) (49, -5.34093982328219851752e+01) (50, 1.50000000000000000000e+03) (51, 1.53567807722478644195e+01) (52, 1.50000000000000000000e+03) (53, 2.52517788612777422941e+01) (54, 2.32347097002795777598e+02) (55, 2.44954484636651486085e+01) (56, 8.48538293561989462432e+02) (57, -8.10336021980163820899e+01) (58, -4.31414644382718570625e+00) (59, 2.00461408923773717561e+02) (60, 9.83773146516686438190e+02) (61, -9.10376614466429323613e+00) (62, 1.37298158240872993474e+02) (63, 2.33715653851352378467e+01) (64, -1.50000000000000000000e+03) (65, 2.79620410204516955943e+00) (66, 4.53198566512224161329e+01) (67, 3.44140984386780388604e+01) (68, -1.50000000000000000000e+03) (69, -7.33510439428351035396e-01) (70, 3.70692746926210929814e+01) (0, 1.50000000000000000000e+03) (1, -3.92430252865790718531e+00) (2, 1.50000000000000000000e+03) (3, -1.96030014624780584143e+01) (4, 1.50000000000000000000e+03) (5, -2.39557301314201218645e+01) (6, 1.50000000000000000000e+03) (7, -2.02928307713416611335e+00) (8, -5.06456881957058953958e+02) (9, -1.19427414775894380483e+01) (10, 1.50000000000000000000e+03) (11, -1.15959070465230400515e+01) (12, -1.50000000000000000000e+03) (13, -1.35847791904746735270e+01) (14, 1.50000000000000000000e+03) (15, 2.76904689510483379422e+01) (16, -1.75735109181224444796e+01) (17, -5.11560156190015469235e+00) (18, 8.05152787439168626804e+00) (19, -1.57887567631679615054e+00) (20, -2.66881538427090241328e+01) (21, -1.95577255131439642355e+01) (22, 1.50000000000000000000e+03) (23, 1.32451070339483685245e+01) (24, 1.50000000000000000000e+03) (25, 9.17258513192138913439e+00) (26, -4.80656836307966614186e+02) (27, -4.13336066722770834048e+00) (28, -1.16346049728775497556e+02) (29, -3.16375539940956596041e+00) (30, -1.28941362561398502606e+01) (31, -2.90746694072344613602e+00) (32, 5.80643852669938809186e+01) (33, 2.48270804333399937036e+01) (34, -1.54724052802720649424e+02) (35, -2.03678777346343018451e+01) (36, 3.49189689841219092159e+02) (37, -1.14719938446654623476e+01) (38, -1.04531317033630284641e+03) (39, 4.75918822300132937642e+00) (40, -5.15563002958151983535e+01) (41, 2.75906592453967540735e+01) (42, -9.77485770331748504702e+00) (43, 3.65173106727344176647e+00) (44, -7.79822213291339721764e+02) (45, -1.43771441204779684142e+01) (46, 1.50000000000000000000e+03) (47, -1.97752344334168039808e+00) (48, 3.20061126111252860937e+02) (49, -1.45333206201560578563e+01) (50, -7.71126179958408670245e+02) (51, 1.13441417235586481382e+01) (52, 4.14411571754654417532e+01) (53, 1.47668539527520703558e+01) (54, 1.01104209581054192313e+03) (55, 5.90998654883316110187e+00) (56, -2.24610120665770239157e+02) (57, 3.96946982039499900452e+01) (58, 7.00310984831903482473e+01) (59, 2.46033578023729315731e+00) (60, -1.18671623750313324308e+03) (61, 4.33502968381373143814e+00) (62, -1.36355292208978738699e+02) (63, -2.07768694412288397189e+01) (64, 1.50000000000000000000e+03) (65, -3.67063180598386551434e-01) (66, -3.21800496454534012969e+01) (67, 9.50157586516307084423e+00) (68, 1.50000000000000000000e+03) (69, 6.81152463173625211112e+00) (70, 1.03780214634487162328e+01) (0, 1.50000000000000000000e+03) (1, -2.75209033249321066705e+01) (2, 1.50000000000000000000e+03) (3, 1.10854231255397035483e+01) (4, 1.44320636662831680042e+03) (5, 2.10419304521709094047e+01) (6, 2.60677597372775380791e+02) (7, -1.89855745688554158335e+01) (8, -1.50000000000000000000e+03) (9, 1.47341215407658054914e+01) (10, 1.44468521196974984377e+03) (11, -1.93095632125398033452e+01) (12, -1.50000000000000000000e+03) (13, 4.73535690809441422999e+00) (14, 1.50000000000000000000e+03) (15, -4.60105467526838296521e+00) (16, -2.15696732993092581410e+01) (17, -2.27525060364626341425e+01) (18, 1.17163622862329308560e+01) (19, -3.26391685054612068484e+00) (20, -8.85308946629396764649e+00) (21, -4.34279191194088909356e+01) (22, 1.50000000000000000000e+03) (23, 2.99390133505333757569e+01) (24, 1.50000000000000000000e+03) (25, 2.02278155249373838842e+01) (26, -1.49999432822067728921e+03) (27, 9.89926588083381986394e+00) (28, -4.36278433464218693416e+01) (29, -2.91375223577971205202e+01) (30, -1.50000000000000000000e+03) (31, 3.60388995139514556332e-01) (32, 1.50000000000000000000e+03) (33, -2.19848696988030667399e+01) (34, -2.11776466760320289495e+02) (35, -2.63950413444563665166e+01) (36, -9.24749295488076512584e+01) (37, -1.10831692766998592958e+01) (38, -1.50000000000000000000e+03) (39, 3.57442980466565085607e+00) (40, -1.50000000000000000000e+03) (41, 3.38132640470714989078e+01) (42, -1.50000000000000000000e+03) (43, -4.12291091198394141770e+01) (44, 1.50000000000000000000e+03) (45, 1.71766984346702429320e+01) (46, 1.50000000000000000000e+03) (47, 2.13577368860444405385e+00) (48, 8.99241239019590352655e+02) (49, 1.10063829410185594071e+01) (50, -1.50000000000000000000e+03) (51, 3.15517782918658369340e+01) (52, -1.50000000000000000000e+03) (53, -1.24289947072063391431e+01) (54, -2.53099948719262727082e+02) (55, 1.76574807535982145623e+01) (56, -3.06284453847889608369e+02) (57, 3.64167879536725251910e+01) (58, 2.84174050280176189176e+01) (59, 2.60360674386665706947e+01) (60, -5.30057483312408749043e+02) (61, 2.05154774682816665177e+01) (62, -1.36355292208978738699e+02) (63, -3.18254016572788600570e+00) (64, 1.50000000000000000000e+03) (65, -4.29966575472458103491e+01) (66, -1.59117568500507218232e+01) (67, -1.00644301200911829852e+01) (68, 1.50000000000000000000e+03) (69, -1.52145038787986379702e+01) (70, -1.13797370826617605388e+01) (0, 1.50000000000000000000e+03) (1, 2.31542612919194219501e+01) (2, 1.50000000000000000000e+03) (3, -5.73882788909545471512e+00) (4, 3.16413989637100918628e+01) (5, 3.00969637026975895822e+01) (6, -2.67021425622696888524e+01) (7, -3.36120071443172951930e+00) (8, -4.15761277467862043977e+02) (9, 1.33799038789027839869e+01) (10, -8.18417845412854205733e+00) (11, -7.52949682991110647023e-01) (12, -1.50000000000000000000e+03) (13, 1.40974101827341318227e+01) (14, 1.50000000000000000000e+03) (15, -2.88812250133625809667e+01) (16, -2.92611214427644572567e+00) (17, -5.50442705792478448323e-01) (18, 8.36416648005963736523e+00) (19, -6.95106247717037462053e+00) (20, -2.71354400169744991445e+01) (21, 6.83333544062428410726e-01) (22, 1.50000000000000000000e+03) (23, -7.30297974420434226062e+00) (24, 1.50000000000000000000e+03) (25, 9.34421576736589720724e+00) (26, -1.38455213594751398887e+03) (27, -1.01472617497857182656e+01) (28, -5.62565560752507565212e+01) (29, 8.23042283251663242538e+00) (30, 1.60480651193918532726e+02) (31, -5.15989674382492768956e+00) (32, 1.42943415004078616448e+02) (33, -3.45329814465941069557e+01) (34, -4.39596972298445280103e+02) (35, 2.47813666105528760397e+01) (36, 3.83129334669796207891e+02) (37, -1.13096423619420232143e+01) (38, -1.44842783611329628002e+03) (39, 2.07530185634548267615e+01) (40, -9.15008414573547668169e+01) (41, -5.56959355696637814503e+00) (42, -2.14036144305945157384e+02) (43, 6.60677874057119218776e+00) (44, -1.12686399085699733291e+02) (45, -1.76564566920800802841e+00) (46, -5.30558057981170705375e+01) (47, 2.36751337313025906894e+01) (48, -7.26169879044290496495e+02) (49, -2.50808070270505245603e+00) (50, 7.68913957948393118613e+01) (51, -1.73044576873588695776e+01) (52, -2.62457728620704529021e+02) (53, -6.56596139139161483200e+00) (54, -2.62621240049089806234e+02) (55, 6.88225848072613732853e+00) (56, -4.79711683310135139635e+00) (57, -6.35813684406476831157e+00) (58, -1.60571122584483383378e+01) (59, 1.69562925670326265504e+01) (60, -2.69407525575733984624e+02) (61, 1.48621621183703460645e+01) (62, 1.50000000000000000000e+03) (63, -2.14669059776117734373e+01) (64, 1.50000000000000000000e+03) (65, 1.42826177131475287041e+01) (66, -3.89607785257044483274e+01) (67, 1.78697672688487365633e+01) (68, 1.50000000000000000000e+03) (69, 2.30164648543442069695e+01) (70, -1.02934703826245961267e+01) (0, 1.50000000000000000000e+03) (1, -8.60082605553614598648e-01) (2, 1.50000000000000000000e+03) (3, 1.19481715481560613057e+01) (4, 1.50000000000000000000e+03) (5, -1.52865434501012877888e+01) (6, 4.82149197480319799070e+02) (7, 3.36984422636646119287e+00) (8, -1.80036418413255688620e+02) (9, 6.52097340427151372921e+00) (10, 1.50000000000000000000e+03) (11, 7.14863735783482034947e+00) (12, -1.50000000000000000000e+03) (13, 3.04485593392444755523e+01) (14, 1.50000000000000000000e+03) (15, 1.40866309566967196076e+01) (16, -1.79293640641179692352e+01) (17, -9.89586418277445978298e-01) (18, -2.14321455634291844206e+01) (19, -1.17646643943657593923e+01) (20, -1.34904705423397039965e+01) (21, 4.37380006253746689282e+00) (22, 1.50000000000000000000e+03) (23, -2.61207818501186110893e+01) (24, 1.50000000000000000000e+03) (25, -2.23842992130841054177e+01) (26, -1.21485763345673058211e+03) (27, 3.10159954262213624077e+01) (28, 3.39090925412978037912e+02) (29, 6.30237757833439093957e+00) (30, -1.75434593961332048195e+01) (31, -3.29652312648256629046e+00) (32, -3.81436409436728851574e+01) (33, -2.00145117533922025643e+01) (34, 7.49237631315978358515e+00) (35, -1.12815569914674220797e+01) (36, 4.11541806998679192020e+02) (37, 4.61806385466824131925e+00) (38, 1.85977640135965287982e+02) (39, 8.82509538366504564522e+00) (40, 2.27111172405339409863e+01) (41, 5.73396956171058658214e+00) (42, -1.50000000000000000000e+03) (43, -7.97283790743178943927e+00) (44, -1.50000000000000000000e+03) (45, 2.75715469095408103328e+01) (46, 1.05181508857603258633e+01) (47, 3.62359391267681552051e+00) (48, -9.58825309977458459798e+02) (49, -3.08833218796059449929e+00) (50, -9.37830049363174111932e+01) (51, -6.37174072018440273979e+00) (52, -1.50000000000000000000e+03) (53, 1.34525567519707536235e+01) (54, 1.50000000000000000000e+03) (55, 9.57723723286822092859e+00) (56, -7.23387019190629189325e+02) (57, -1.07212594805014127530e+01) (58, 1.50000000000000000000e+03) (59, -1.07789820356775862820e+01) (60, -5.11391115746066475367e+02) (61, 1.40804616098602188856e+01) (62, 1.08431722803894649587e+03) (63, 1.89719288102250018824e+01) (64, 1.50000000000000000000e+03) (65, -3.03151572959974231480e+01) (66, -2.74920453198421306240e+01) (67, -1.09401291287938278174e+01) (68, 1.50000000000000000000e+03) (69, 4.16160045543928625023e+00) (70, 4.37856000668716771607e-01) (71, -1.84710545456865098402e+01) (72, 7.81596193182066478755e+00) (73, 7.30386752347728140933e+00) (74, 1.37600283385653199275e+01) (75, 9.03178845927791584813e+00) (76, 8.36783931052056040301e+00) (77, -1.60427473593639859928e+01) (78, -3.67686742411705447253e+00) (79, -9.57674086228387189124e+00) (80, -5.08573349853129474951e+00) (81, -3.22145667822299541783e+00) 
