FANN_FLO_2.1
num_layers=3
learning_rate=0.700000
connection_rate=1.000000
network_type=0
learning_momentum=0.000000
training_algorithm=2
train_error_function=1
train_stop_function=0
cascade_output_change_fraction=0.010000
quickprop_decay=-0.000100
quickprop_mu=1.750000
rprop_increase_factor=1.001000
rprop_decrease_factor=0.333300
rprop_delta_min=0.000000
rprop_delta_max=50.000000
rprop_delta_zero=0.100000
cascade_output_stagnation_epochs=12
cascade_candidate_change_fraction=0.010000
cascade_candidate_stagnation_epochs=12
cascade_max_out_epochs=150
cascade_max_cand_epochs=150
cascade_num_candidate_groups=2
bit_fail_limit=3.49999999999999977796e-01
cascade_candidate_limit=1.00000000000000000000e+03
cascade_weight_multiplier=4.00000000000000022204e-01
cascade_activation_functions_count=10
cascade_activation_functions=3 5 7 8 10 11 14 15 16 17 
cascade_activation_steepnesses_count=4
cascade_activation_steepnesses=2.50000000000000000000e-01 5.00000000000000000000e-01 7.50000000000000000000e-01 1.00000000000000000000e+00 
layer_sizes=71 11 2 
scale_included=0
neurons (num_inputs, activation_function, activation_steepness)=(0, 0, 0.00000000000000000000e+00) (0, 0, 0.00000000000000000000e+00) (0, 0, 0.00000000000000000000e+00) (0, 0, 0.00000000000000000000e+00) (0, 0, 0.00000000000000000000e+00) (0, 0, 0.00000000000000000000e+00) (0, 0, 0.00000000000000000000e+00) (0, 0, 0.00000000000000000000e+00) (0, 0, 0.00000000000000000000e+00) (0, 0, 0.00000000000000000000e+00) (0, 0, 0.00000000000000000000e+00) (0, 0, 0.00000000000000000000e+00) (0, 0, 0.00000000000000000000e+00) (0, 0, 0.00000000000000000000e+00) (0, 0, 0.00000000000000000000e+00) (0, 0, 0.00000000000000000000e+00) (0, 0, 0.00000000000000000000e+00) (0, 0, 0.00000000000000000000e+00) (0, 0, 0.00000000000000000000e+00) (0, 0, 0.00000000000000000000e+00) (0, 0, 0.00000000000000000000e+00) (0, 0, 0.00000000000000000000e+00) (0, 0, 0.00000000000000000000e+00) (0, 0, 0.00000000000000000000e+00) (0, 0, 0.00000000000000000000e+00) (0, 0, 0.00000000000000000000e+00) (0, 0, 0.00000000000000000000e+00) (0, 0, 0.00000000000000000000e+00) (0, 0, 0.00000000000000000000e+00) (0, 0, 0.00000000000000000000e+00) (0, 0, 0.00000000000000000000e+00) (0, 0, 0.00000000000000000000e+00) (0, 0, 0.00000000000000000000e+00) (0, 0, 0.00000000000000000000e+00) (0, 0, 0.00000000000000000000e+00) (0, 0, 0.00000000000000000000e+00) (0, 0, 0.00000000000000000000e+00) (0, 0, 0.00000000000000000000e+00) (0, 0, 0.00000000000000000000e+00) (0, 0, 0.00000000000000000000e+00) (0, 0, 0.00000000000000000000e+00) (0, 0, 0.00000000000000000000e+00) (0, 0, 0.00000000000000000000e+00) (0, 0, 0.00000000000000000000e+00) (0, 0, 0.00000000000000000000e+00) (0, 0, 0.00000000000000000000e+00) (0, 0, 0.00000000000000000000e+00) (0, 0, 0.00000000000000000000e+00) (0, 0, 0.00000000000000000000e+00) (0, 0, 0.00000000000000000000e+00) (0, 0, 0.00000000000000000000e+00) (0, 0, 0.00000000000000000000e+00) (0, 0, 0.00000000000000000000e+00) (0, 0, 0.00000000000000000000e+00) (0, 0, 0.00000000000000000000e+00) (0, 0, 0.00000000000000000000e+00) (0, 0, 0.00000000000000000000e+00) (0, 0, 0.00000000000000000000e+00) (0, 0, 0.00000000000000000000e+00) (0, 0, 0.00000000000000000000e+00) (0, 0, 0.00000000000000000000e+00) (0, 0, 0.00000000000000000000e+00) (0, 0, 0.00000000000000000000e+00) (0, 0, 0.00000000000000000000e+00) (0, 0, 0.00000000000000000000e+00) (0, 0, 0.00000000000000000000e+00) (0, 0, 0.00000000000000000000e+00) (0, 0, 0.00000000000000000000e+00) (0, 0, 0.00000000000000000000e+00) (0, 0, 0.00000000000000000000e+00) (0, 0, 0.00000000000000000000e+00) (71, 4, 5.00000000000000000000e-01) (71, 4, 5.00000000000000000000e-01) (71, 4, 5.00000000000000000000e-01) (71, 4, 5.00000000000000000000e-01) (71, 4, 5.00000000000000000000e-01) (71, 4, 5.00000000000000000000e-01) (71, 4, 5.00000000000000000000e-01) (71, 4, 5.00000000000000000000e-01) (71, 4, 5.00000000000000000000e-01) (71, 4, 5.00000000000000000000e-01) (0, 4, 5.00000000000000000000e-01) (11, 4, 9.00000000000000022204e-01) (0, 4, 9.00000000000000022204e-01) 
connections (connected_to_neuron, weight)=(0, 1.50000000000000000000e+03) (1, 4.96143851589016104953e+00) (2, 1.50000000000000000000e+03) (3, 7.62057528642756487613e+00) (4, -1.48173699462516509584e+02) (5, 1.13631599887103206470e+02) (6, -1.29018721109425882787e+02) (7, 1.38455298563020323677e+00) (8, -1.50000000000000000000e+03) (9, 1.50000000000000000000e+03) (10, -4.21434650441256906106e+02) (11, 9.14910391909110245479e+01) (12, -1.50000000000000000000e+03) (13, 1.50000000000000000000e+03) (14, 1.50000000000000000000e+03) (15, 3.63617164676246815702e+01) (16, 1.50000000000000000000e+03) (17, 1.21903159905105020755e+01) (18, 1.50000000000000000000e+03) (19, -2.56781714056833649806e+01) (20, 1.50000000000000000000e+03) (21, 7.46558699702773664875e-01) (22, 1.50000000000000000000e+03) (23, 8.97651067390340102747e+01) (24, 1.50000000000000000000e+03) (25, 2.06793004143769891812e+01) (26, -1.50000000000000000000e+03) (27, 2.47135439205030635890e+01) (28, -1.50000000000000000000e+03) (29, -3.75621832141550768824e+01) (30, -1.50000000000000000000e+03) (31, 3.51043382073972125568e+01) (32, -4.59146357458772570226e+02) (33, 1.60941477950613709424e+01) (34, -3.31456549212535094284e+02) (35, -4.08305404615807177038e+00) (36, -1.50000000000000000000e+03) (37, 3.49702822773556988523e+02) (38, -1.50000000000000000000e+03) (39, -1.38584624472535278272e+00) (40, -1.50000000000000000000e+03) (41, 1.11268698622174007085e+01) (42, 1.61339380242581889036e+01) (43, 1.50000000000000000000e+03) (44, -1.50000000000000000000e+03) (45, 4.22963749013940599752e+01) (46, 6.79073682794784531325e+02) (47, 1.22782751804586723665e+02) (48, -1.01170969627682168834e+02) (49, 1.50000000000000000000e+03) (50, 4.40508542820858934874e+01) (51, 1.68822466763914633248e+02) (52, -1.50000000000000000000e+03) (53, -2.26473947712102408047e+01) (54, -2.99490657972096485651e+01) (55, 1.14754689071554487612e+01) (56, 1.50000000000000000000e+03) (57, 4.00227416795943540251e+01) (58, 9.50264311997149491162e+01) (59, -7.94365095673171062174e+00) (60, -6.80127393969922422912e+02) (61, -1.52754708929913736171e+01) (62, -1.50000000000000000000e+03) (63, 1.45416797788960678872e+02) (64, 1.50000000000000000000e+03) (65, -1.41315194364655027925e+01) (66, -5.02001448753769636824e+01) (67, 4.02987377799908017550e+01) (68, 1.50000000000000000000e+03) (69, 1.14569465007656567934e+01) (70, 3.46273792758393739177e+01) (0, -1.50000000000000000000e+03) (1, -2.41870512011297620347e+01) (2, 1.50000000000000000000e+03) (3, -5.48352482100072169402e+00) (4, -1.06175351784858457904e+03) (5, 9.04078454344591975200e+00) (6, -6.20120886632482893219e+02) (7, -1.76808761746427975936e+01) (8, 1.53341925508499770103e+02) (9, 2.78973010880447809257e+01) (10, -8.56823701763558176481e+01) (11, 1.36263944161391403753e+00) (12, 1.50000000000000000000e+03) (13, 1.39893258092311096874e+01) (14, -1.50000000000000000000e+03) (15, 1.35575519761697158572e+01) (16, 2.26748372449538528883e+01) (17, 7.05250811280124079161e+00) (18, 3.59874061993216329824e+01) (19, -9.81211293316094579353e-01) (20, 4.95255205828552291791e+01) (21, -5.38392201835031247725e+00) (22, -1.50000000000000000000e+03) (23, 2.13582585525830381812e+01) (24, -1.50000000000000000000e+03) (25, -1.61291442356277556769e+01) (26, 1.50000000000000000000e+03) (27, -1.09411524842942462499e+01) (28, -3.22511546461979946798e+02) (29, 2.21123934036584435248e+00) (30, 2.42191037103699073896e+01) (31, -7.73789964910404393095e+00) (32, 1.28697982268631285763e+01) (33, 2.54076348119099755252e+01) (34, -9.42116321167976344952e+00) (35, 2.17750862663343376369e+01) (36, 1.11727370633117357102e+03) (37, -7.72352818298006615905e-02) (38, 8.32227144539216254771e+01) (39, 5.68621436335389862649e+00) (40, -3.03733766083096377031e+01) (41, -3.23552157384720402433e+01) (42, 7.22520582996618145444e+02) (43, 1.36236340367933657092e+01) (44, 8.36174371257624642340e+01) (45, -3.00042157990333357986e+01) (46, 3.78803572706537863723e+02) (47, -3.51942706485505718561e+00) (48, -1.37118701681019001626e+03) (49, -7.72131576179148382266e+00) (50, 1.32728358050114195521e+02) (51, -1.33026586547113385706e+01) (52, 1.50000000000000000000e+03) (53, 1.91939354892548941223e+01) (54, 1.57365898084674640245e+01) (55, -6.18799361976982353895e+00) (56, 5.24050705832187759370e+02) (57, -1.85120052565940156342e+01) (58, -2.00443945620039556843e+02) (59, -1.03863964148468355120e+01) (60, 4.76495752872356092666e+02) (61, -1.43397578379588512831e+01) (62, 1.50000000000000000000e+03) (63, -4.42857191861521659604e+00) (64, -7.00222486929283149948e+00) (65, 2.17074119053582776928e+01) (66, 2.78519066030072437457e+01) (67, -7.75917020370263799123e+00) (68, -1.50000000000000000000e+03) (69, 2.13712168840257668023e+01) (70, -2.83925440092635072986e+00) (0, -1.50000000000000000000e+03) (1, 3.06465679937601827021e+01) (2, 1.50000000000000000000e+03) (3, 6.94900836234977958838e+00) (4, 1.50482190588302557899e+02) (5, 1.46724268156170243316e+01) (6, 8.46305506640990330425e+01) (7, 5.70285718416604403558e+00) (8, 1.50000000000000000000e+03) (9, 7.72586344028854377086e+00) (10, 4.24082784082133343873e+02) (11, -5.81341523634238832585e+00) (12, 1.50000000000000000000e+03) (13, -1.57579988235915369188e+00) (14, -1.50000000000000000000e+03) (15, 2.28785105171377729505e+01) (16, -2.03482879033737340535e+01) (17, 3.10574366964810728575e+01) (18, 1.50541853816516468800e-01) (19, 3.22960259125603865726e+00) (20, -1.84797432033333564050e+01) (21, -6.82289536925377504417e+00) (22, -1.50000000000000000000e+03) (23, -3.35870977249884177240e+01) (24, -1.50000000000000000000e+03) (25, 1.39090507936654113053e+01) (26, -8.70708089762133681688e+02) (27, 1.51184145377962195766e+01) (28, 1.50000000000000000000e+03) (29, 2.90742792095197017943e+01) (30, 1.50000000000000000000e+03) (31, 5.43738835339228909760e+00) (32, 4.33581219945764132717e+02) (33, 4.66829826803844571970e+00) (34, -6.55580445903970939980e+02) (35, 1.70143380030251911705e+01) (36, 1.50000000000000000000e+03) (37, 4.54789754510198118709e+00) (38, 1.50000000000000000000e+03) (39, 2.53324340147732378625e+01) (40, 1.50000000000000000000e+03) (41, -7.18474879377315200912e+00) (42, 1.27536957224736653416e+02) (43, -1.89803442445957557538e+01) (44, 1.50000000000000000000e+03) (45, 1.87547521214708119430e+01) (46, 1.80803042606109869439e+02) (47, -4.76369346046663810768e+00) (48, 1.44177556969351968519e+02) (49, -2.67792085836546256417e+00) (50, -1.09918147394419793272e+03) (51, -3.56894084121284294042e+00) (52, -1.08777068497798700264e+03) (53, 1.55647717103015192919e+01) (54, 4.52480884771124465260e+02) (55, 7.53119749985148079219e+00) (56, -1.40263070058950847852e+03) (57, 1.24700199305797774230e+01) (58, 1.48161984635084102990e+01) (59, -2.09009864829167346656e+00) (60, 7.77715702256961662897e+02) (61, 7.38129476952179786053e+00) (62, 1.50000000000000000000e+03) (63, 2.93333625942113940255e+00) (64, -7.00222486929283149948e+00) (65, -1.61066300630812762051e+01) (66, 4.61608560735272419606e+01) (67, -1.17802397923912547384e+01) (68, -1.50000000000000000000e+03) (69, 2.11973036401383758687e+01) (70, -1.98192525934608418936e+01) (0, 1.50000000000000000000e+03) (1, 1.60694375123989914300e+01) (2, 1.50000000000000000000e+03) (3, 9.15046255858043089404e+00) (4, -1.60454518401725380272e+02) (5, 2.38961268064200531569e+01) (6, -3.78337386471093623186e+02) (7, -2.24324106212494882584e+01) (8, -1.50000000000000000000e+03) (9, -2.05412779440611270587e+00) (10, -4.21434650441256906106e+02) (11, -1.79558815581312529730e+01) (12, -1.50000000000000000000e+03) (13, 1.38059680289688504473e+01) (14, 1.50000000000000000000e+03) (15, 2.53776745747847343182e+01) (16, 1.46742002460616625115e+01) (17, -7.18930978516770302633e+00) (18, -4.55709842487424410251e+00) (19, 1.58336832226353152464e+01) (20, 5.75513990878778880500e+00) (21, 2.13374919755580343406e+01) (22, 1.50000000000000000000e+03) (23, 3.79709983696760833283e+00) (24, 1.32776012155307716966e+03) (25, -4.45591468783287254496e+01) (26, -1.50000000000000000000e+03) (27, -1.30202691489668449520e+01) (28, -8.36309222941332905066e+02) (29, 3.99126238707664748873e+00) (30, -9.06791430175852951834e+02) (31, 1.39580283419578456972e+01) (32, -7.47631311661011181968e+01) (33, -1.98588285120578333931e+01) (34, 1.44069777166883682185e+02) (35, 2.12629117192273504600e+01) (36, -5.93980594744420841380e+02) (37, 2.62706404690817834080e+01) (38, -1.50000000000000000000e+03) (39, 2.95831645934452991398e-01) (40, -1.50000000000000000000e+03) (41, -1.79828574069408304581e+01) (42, -8.25468355475517654440e+01) (43, -1.08321421101168091639e+01) (44, -1.50000000000000000000e+03) (45, 2.80564169647556838072e+01) (46, 2.49176005719826036966e+02) (47, -1.53950429603555871694e+01) (48, 2.14187708598492392298e+01) (49, -1.12308846908127275555e+01) (50, -1.99852122358263642354e+02) (51, 2.53547112138279651106e+00) (52, -1.73797844676479542159e+02) (53, 1.51889158167861442195e+01) (54, -6.66291260545687720196e+01) (55, 3.26419369329682051983e+00) (56, -3.58340374354698212755e+02) (57, -2.39894166618012327774e+01) (58, 2.54732016813041326486e+02) (59, 1.94184266546435857492e+01) (60, -1.79496617627937240513e+02) (61, 6.74335244080165763236e-01) (62, -1.50000000000000000000e+03) (63, -2.38471378580190780383e+01) (64, 1.50000000000000000000e+03) (65, 1.79409257837352917875e+01) (66, -5.49853011253770063149e+01) (67, 1.50431086013423342962e+01) (68, 1.50000000000000000000e+03) (69, -1.92024074994372107028e+01) (70, -1.58412090036143933247e+01) (0, -1.50000000000000000000e+03) (1, 1.19351130871445541004e+01) (2, 1.50000000000000000000e+03) (3, -1.52988262710542350931e+01) (4, 1.10220330694503516611e+02) (5, 6.16427628729141119379e+00) (6, 1.05354201626213324516e+02) (7, -9.82157997654432435297e+00) (8, 1.50000000000000000000e+03) (9, 1.25371283967396029979e+00) (10, 4.24082784082133343873e+02) (11, -4.75171916144178929642e+00) (12, 1.50000000000000000000e+03) (13, -1.96194848901734744118e+01) (14, -1.50000000000000000000e+03) (15, 2.79023046841185156097e+01) (16, -3.58106892509139456138e+01) (17, -3.06482903607839531901e+01) (18, 1.88455387761082384657e+01) (19, 2.50314752147214996114e+01) (20, -4.25217014898293399483e+01) (21, 1.68700047592864308399e+01) (22, -1.50000000000000000000e+03) (23, 1.40745439430307612838e+01) (24, -1.50000000000000000000e+03) (25, 2.52295569833061463783e+01) (26, 5.59009748428563284506e+02) (27, -2.21869565206634433707e+00) (28, 1.79706072832284831975e+02) (29, -2.04736592078552561702e+01) (30, 1.50000000000000000000e+03) (31, 1.76550834253684163500e+00) (32, 5.20878675215968996781e+02) (33, 1.15785075876877296963e+01) (34, 7.59342071644110383488e+00) (35, -1.13147168399757469537e+00) (36, 1.02701384757380697010e+03) (37, 9.58278325545829012810e+00) (38, 1.50000000000000000000e+03) (39, 6.90286564386841039465e+00) (40, 1.50000000000000000000e+03) (41, -1.29511284878905481577e+01) (42, 8.88541096853317355908e+01) (43, 3.61490008414642227663e+00) (44, 1.50000000000000000000e+03) (45, 1.73730140308583393960e+01) (46, -6.03123597735134282516e+01) (47, -2.72331284325204192598e+00) (48, 7.83563663959116354363e+01) (49, 1.41843210032399511533e+01) (50, 9.26151043245071832644e+02) (51, -5.28235248564504544788e+00) (52, 1.50000000000000000000e+03) (53, -2.93182118598934273734e+01) (54, 5.22757236850365529790e+01) (55, 2.15410228154244833831e+01) (56, -1.49665970504165420607e+03) (57, 2.00942656760026361340e+00) (58, -2.96906424408728568665e+01) (59, 5.18962994004988953378e+00) (60, 1.07065934777292704894e+03) (61, -1.36100198843584525576e+01) (62, 1.50000000000000000000e+03) (63, 1.49113560035893257805e+01) (64, -7.00222486929283149948e+00) (65, -1.11617192291235216572e+01) (66, 3.55967592650937305621e+01) (67, -2.19977897849515109385e+01) (68, -1.50000000000000000000e+03) (69, 1.21674555110918021228e+01) (70, 5.62441629791563624252e+00) (0, 1.50000000000000000000e+03) (1, -2.05757687733308785027e+01) (2, 1.50000000000000000000e+03) (3, 1.31512122809447582483e+01) (4, -2.00189508232957251721e+02) (5, 1.46243177451173895776e+01) (6, -1.65039496444074046622e+02) (7, 4.49514808768170792685e-01) (8, -1.19514896528483268412e+03) (9, 5.74577617330663592554e+00) (10, -1.39635894659898781356e+03) (11, -1.34764939718038547767e+01) (12, -1.50000000000000000000e+03) (13, 9.54246359127157006697e+00) (14, 1.50000000000000000000e+03) (15, 8.90322304485705728894e+00) (16, -1.77613477343088987936e+01) (17, 1.19166712388177309379e+01) (18, -6.21791910837443406734e+00) (19, 2.68609349679121978127e+00) (20, -2.40958551852782534297e+01) (21, -1.12383083859041335018e+01) (22, 1.50000000000000000000e+03) (23, 5.29431562371495711972e+00) (24, 1.50000000000000000000e+03) (25, -6.70557289229070629943e+00) (26, -1.50000000000000000000e+03) (27, 1.96145222748551724123e+01) (28, -3.34388889916408970748e+02) (29, -2.34322906798173811183e+01) (30, -1.75524349466726846458e+02) (31, 7.79898501573604741033e-01) (32, -1.71011515791152888255e+01) (33, -1.25901854722210799764e+01) (34, 4.90780768083957497083e+01) (35, -2.02413473356938027337e+01) (36, -8.14319000655407421618e+02) (37, -2.76277186495937208122e+01) (38, -3.82246199632924231082e+02) (39, 3.35324510976956968733e+00) (40, -5.60891934594556715865e+01) (41, -1.50798701726375945498e+01) (42, -1.79293204018672014399e+02) (43, 1.00430225727889173015e+01) (44, -1.50000000000000000000e+03) (45, -7.97383911341762896541e+00) (46, -1.17011934917789304222e+02) (47, 1.97056709483640908331e+01) (48, 9.16909311159229901023e+02) (49, -1.09541570156664214153e+01) (50, -7.74330792624308287486e+02) (51, 1.10980702841843719142e+01) (52, -1.50000000000000000000e+03) (53, 1.20720830214991643459e+01) (54, -7.87413297277307719924e+01) (55, 2.28554389380777074336e+01) (56, 6.12271243761777668624e+02) (57, -1.18501144599234766730e+01) (58, 7.42234009080114454093e+00) (59, 2.44133357179785086544e+01) (60, -8.16597262583861606799e+02) (61, 6.65591448402097451975e+00) (62, -1.50000000000000000000e+03) (63, 2.66157555896292059572e+01) (64, 1.50000000000000000000e+03) (65, 6.04466806816061374974e+00) (66, -3.31839448097641778190e+01) (67, -1.17774819922201565703e+01) (68, 1.50000000000000000000e+03) (69, 8.02498803496643553501e+00) (70, 8.30373675222769414006e+00) (0, -1.50000000000000000000e+03) (1, 2.39381709009128478272e+01) (2, 1.50000000000000000000e+03) (3, -9.36607177225113396446e+00) (4, -1.56610543874588046265e+01) (5, -3.72055926257067710594e+01) (6, 1.38415920063520907490e+01) (7, 1.44470557005896029779e+01) (8, 1.30348054154803617166e+03) (9, -5.34438304128039249008e+02) (10, -1.00955418719094538460e+02) (11, -5.59839856297923788020e+01) (12, 1.50000000000000000000e+03) (13, -5.56396176494091150744e+02) (14, -1.50000000000000000000e+03) (15, -4.92558801635317600187e+00) (16, -1.50000000000000000000e+03) (17, -1.84860992665415970748e+01) (18, -1.50000000000000000000e+03) (19, -9.36469116113406663260e+00) (20, -1.50000000000000000000e+03) (21, 2.71855767917987023452e+00) (22, -1.50000000000000000000e+03) (23, -3.03949410152116570316e+01) (24, -1.50000000000000000000e+03) (25, 6.35974512060995245122e+00) (26, 1.50000000000000000000e+03) (27, -2.98062662539814624552e+01) (28, 1.50000000000000000000e+03) (29, 4.27705961916683534696e+01) (30, 1.50000000000000000000e+03) (31, 9.27673544831307061997e+00) (32, 1.28081276949255652653e+02) (33, 1.53128516402875032298e+01) (34, 4.72955995667637125734e+01) (35, -1.53363609584844318157e+00) (36, 1.50000000000000000000e+03) (37, -1.21075942025102037292e+02) (38, 1.50000000000000000000e+03) (39, 2.29038862209790856639e+01) (40, 1.50000000000000000000e+03) (41, 2.14453773598347652296e+01) (42, -1.20479938485158257322e+02) (43, -1.50000000000000000000e+03) (44, 1.50000000000000000000e+03) (45, -3.79449436976558089896e+01) (46, -2.46576113332777623555e+02) (47, -2.88341402424219879208e+01) (48, 2.80538331642814249278e+01) (49, -5.39096142210381117366e+02) (50, -8.13597734115403738997e+01) (51, -7.20413142414059564089e+01) (52, 1.50000000000000000000e+03) (53, -3.42138749631056349187e+00) (54, 3.48212931898964142552e-02) (55, 1.75573934730138825344e+00) (56, -1.27189264588488276786e+03) (57, -1.11980953408418830719e+01) (58, -4.75895751618600471033e+01) (59, -1.89277529502790535787e+01) (60, 3.60032448844878047112e+02) (61, -2.38605910134085839047e+01) (62, 1.50000000000000000000e+03) (63, -5.20831064992936418889e+01) (64, -7.55726875613501420048e+02) (65, 2.52713632986564853411e+01) (66, -2.39052463227854943284e+01) (67, 2.90168894078770023270e+01) (68, -1.50000000000000000000e+03) (69, -1.71705560142948101543e+01) (70, -2.24838886973010261272e+01) (0, -1.50000000000000000000e+03) (1, 1.06915128362628255587e+01) (2, 1.50000000000000000000e+03) (3, -6.59335281762701619357e+00) (4, 6.65963458188524100478e+02) (5, 7.13905631514692196049e+00) (6, 1.87827639013392939660e+01) (7, 1.26031721355035819521e+00) (8, -1.06933340109769488890e+02) (9, 6.99705890477457348453e+00) (10, 7.28298990862631114851e+01) (11, -7.56806437644512008944e+00) (12, 9.16662004501481874286e+02) (13, 6.96168657063789808603e+00) (14, -1.50000000000000000000e+03) (15, -2.00496124890046623079e+01) (16, -5.19700918291495597146e+01) (17, 6.20712192981581534212e+00) (18, -7.54820199100567066353e+01) (19, 2.54092376858298116815e+01) (20, -1.06538340122163663892e+01) (21, 2.27083559291071885866e+01) (22, -1.50000000000000000000e+03) (23, 5.62855002739266208067e+00) (24, -1.50000000000000000000e+03) (25, 2.20701007800718826957e+01) (26, 1.50000000000000000000e+03) (27, 3.75784061008506853341e+01) (28, 4.43529824967847332573e+01) (29, 2.56268931797698273911e+00) (30, 1.33213727284894389413e+02) (31, 3.55684562915359236968e+00) (32, -7.96454384556117531702e+01) (33, -1.51702598583709740154e+01) (34, 3.27953766677281180364e+02) (35, -6.26848819402681556312e+00) (36, 1.08235736626824632367e+03) (37, -1.07309940194113409007e+01) (38, 1.39040937660907911777e+03) (39, -2.20870116084708678628e+00) (40, -1.03805884174885250104e+01) (41, -1.17413197705273599780e+01) (42, -1.97952911245396734330e+02) (43, -1.74366424704986080485e+01) (44, 1.50000000000000000000e+03) (45, -1.02558768519610445935e+01) (46, 2.87863328338773442283e+02) (47, -1.32451302686182224022e+01) (48, 1.50000000000000000000e+03) (49, 2.92751446104111359148e+01) (50, 1.58388617971196623557e+02) (51, 6.18780317232375942638e+00) (52, -6.89145028879473215966e+02) (53, -4.00433017314696204636e+00) (54, -8.21047460506355122334e+01) (55, -1.12731744990076947488e+01) (56, 7.93560522870586169120e+01) (57, 5.51683894030162136346e+00) (58, -6.13252777854167874239e+01) (59, -5.66252125423767260770e+00) (60, 6.62161107942763891288e+01) (61, 7.19952252826255634233e+00) (62, 1.50000000000000000000e+03) (63, -2.80501682858983381053e+00) (64, -7.00222486929283149948e+00) (65, -1.33179413910332264948e+01) (66, 5.02184026891278136873e+01) (67, 1.18656523062465311114e+01) (68, -1.50000000000000000000e+03) (69, -1.81256157551497558700e+01) (70, -1.61061544648137129343e+01) (0, -1.50000000000000000000e+03) (1, 1.05567361531554375631e+01) (2, 1.50000000000000000000e+03) (3, 1.10217417269302266902e+01) (4, 1.43022330263442995602e+02) (5, -1.86804543314866435821e+01) (6, 1.15685582088491599961e+02) (7, 3.03466131589330778695e+01) (8, 1.74263145762841077158e+02) (9, -4.50164088984811101568e+01) (10, 4.24082784082133343873e+02) (11, -1.12481718409714446238e+01) (12, 1.50000000000000000000e+03) (13, -2.82523136093518054679e+01) (14, -1.50000000000000000000e+03) (15, 5.20137469254400741647e+00) (16, 1.83753185747181113641e+01) (17, 1.94121923736049843967e+01) (18, -3.17337544936206050750e+01) (19, 1.69298652648489711403e+00) (20, -1.37002305539913109556e+01) (21, -9.85621395191984994710e+00) (22, -1.50000000000000000000e+03) (23, 2.54370131651586355304e+01) (24, -1.50000000000000000000e+03) (25, 4.24124232152768687598e+00) (26, -3.92589766019036829903e+01) (27, 4.40119801926513609658e+00) (28, 1.50000000000000000000e+03) (29, 2.04303423431064388183e+01) (30, 1.50000000000000000000e+03) (31, -1.36688777773776881652e+00) (32, 1.52401012972541224144e+02) (33, 1.00939400090677189326e+01) (34, -3.37713135211890005394e+02) (35, 9.78204413157314967009e+00) (36, 1.50000000000000000000e+03) (37, 2.82592032076597776680e-01) (38, 1.50000000000000000000e+03) (39, -6.63542332714841887054e+00) (40, 1.50000000000000000000e+03) (41, -3.75911456777248931260e+00) (42, -1.92883667010897585925e+00) (43, 1.34304752129672859695e+01) (44, 1.50000000000000000000e+03) (45, -1.47400357713644840629e+01) (46, 1.98441734056119230445e+02) (47, 1.09770307063619938504e+01) (48, 1.87467531484693068933e+02) (49, -2.09969090173650378972e+01) (50, 1.28008395852493123357e+02) (51, -1.63791009065162498359e+01) (52, 1.50000000000000000000e+03) (53, 1.89069029056800985700e+01) (54, 4.30357560705816410973e+01) (55, 4.03005809717967888872e+00) (56, 1.85209532417565512219e+01) (57, -9.96998881100218170559e+00) (58, -1.05598045183525314883e+02) (59, -1.55738375129193133972e+01) (60, 8.18451827769269925739e+02) (61, -1.52221704702857891789e+01) (62, 1.50000000000000000000e+03) (63, -2.02276523740535232321e+01) (64, -7.00222486929283149948e+00) (65, -1.06409512953146681014e+01) (66, 1.12692195074926132747e+02) (67, 2.46915446229781707643e+01) (68, -1.50000000000000000000e+03) (69, -9.12734538244915794003e-01) (70, 1.47721661120010274715e+01) (0, 1.50000000000000000000e+03) (1, -9.44850937749248842579e+00) (2, 1.50000000000000000000e+03) (3, 3.04489635756958376689e+00) (4, 6.29483633010672633645e+02) (5, -5.22268981440799251459e+00) (6, -9.81509677643512361556e+01) (7, -3.66467208486669493439e+00) (8, -2.08117396195169817474e+02) (9, 1.02760406512639654864e+01) (10, 1.62065652850764593040e+02) (11, -1.25665719799063975159e+01) (12, -1.50000000000000000000e+03) (13, -1.36381031501615730406e+01) (14, 1.50000000000000000000e+03) (15, 1.79491643507581848382e+01) (16, 5.77544523493755868060e+00) (17, -1.84999846817286126566e+01) (18, -1.65687581322340404810e+00) (19, -1.24134711819583518633e+01) (20, 7.34378265262137652769e+00) (21, -6.69904267387640306453e+00) (22, 1.50000000000000000000e+03) (23, -4.16831634990477262193e+00) (24, 1.50000000000000000000e+03) (25, 2.66436635924824045674e+01) (26, -3.16860886869599710280e+02) (27, 2.22186664146112704543e+01) (28, 8.09227851083140876653e+01) (29, 9.51019472872660642793e+00) (30, -4.33170280383306902650e+01) (31, 1.29842787781221447041e+00) (32, -3.65325973928600831186e+02) (33, 1.49971659989800354396e+01) (34, 1.97748226572218641195e+02) (35, 3.42491177194635625369e+01) (36, -4.01259875538477956525e+02) (37, -1.51302672697148157255e+01) (38, -1.01773500581811856591e+03) (39, 9.48974640989516160516e+00) (40, -5.23775006091729977697e+00) (41, 6.39462746495452427631e-01) (42, 3.84134861381303039707e+02) (43, -8.50622971910441805221e+00) (44, -1.50000000000000000000e+03) (45, -9.64311335301805705456e+00) (46, 3.43318211580298822128e+01) (47, -5.53797321120394947513e+00) (48, -6.86624031941760932796e+01) (49, -1.89923921298138580482e+01) (50, -3.73630508799213600923e+01) (51, 3.29838817758672409042e+00) (52, -1.13695007157497840922e+02) (53, 1.08820239317423883563e+00) (54, -1.29623895371179518321e+01) (55, -8.99281390034423111501e+00) (56, -1.89927906054206914632e+02) (57, 2.26754272152782077043e+00) (58, -2.72646186479466692276e+01) (59, -1.34630640472606959435e+01) (60, -1.55711785856260348737e+02) (61, -2.86649201931191655035e+01) (62, -1.50000000000000000000e+03) (63, -4.37859106552548560387e+00) (64, 1.50000000000000000000e+03) (65, -2.18195503158175707625e+00) (66, -5.28127261284287499166e+01) (67, 1.46255666694483306145e+01) (68, 1.50000000000000000000e+03) (69, 6.68062025660885439038e+00) (70, 1.08339788847312146203e+01) (71, -1.18667650378197642169e+01) (72, 3.96190175574086778099e+00) (73, 3.65068894878682748129e+00) (74, -2.63587964657933717660e+01) (75, 1.95781824330719693705e+01) (76, -2.17506824702651258008e+01) (77, 1.50000000000000000000e+03) (78, 7.94607552074972289802e+00) (79, 1.33770517485439555116e+01) (80, -6.75748375469595519149e+00) (81, 1.02410863275760677382e+00) 
