FANN_FLO_2.1
num_layers=3
learning_rate=0.700000
connection_rate=1.000000
network_type=0
learning_momentum=0.000000
training_algorithm=2
train_error_function=1
train_stop_function=0
cascade_output_change_fraction=0.010000
quickprop_decay=-0.000100
quickprop_mu=1.750000
rprop_increase_factor=1.001000
rprop_decrease_factor=0.500000
rprop_delta_min=0.000000
rprop_delta_max=50.000000
rprop_delta_zero=0.100000
cascade_output_stagnation_epochs=12
cascade_candidate_change_fraction=0.010000
cascade_candidate_stagnation_epochs=12
cascade_max_out_epochs=150
cascade_max_cand_epochs=150
cascade_num_candidate_groups=2
bit_fail_limit=3.49999999999999977796e-01
cascade_candidate_limit=1.00000000000000000000e+03
cascade_weight_multiplier=4.00000000000000022204e-01
cascade_activation_functions_count=10
cascade_activation_functions=3 5 7 8 10 11 14 15 16 17 
cascade_activation_steepnesses_count=4
cascade_activation_steepnesses=2.50000000000000000000e-01 5.00000000000000000000e-01 7.50000000000000000000e-01 1.00000000000000000000e+00 
layer_sizes=71 11 2 
scale_included=0
neurons (num_inputs, activation_function, activation_steepness)=(0, 0, 0.00000000000000000000e+00) (0, 0, 0.00000000000000000000e+00) (0, 0, 0.00000000000000000000e+00) (0, 0, 0.00000000000000000000e+00) (0, 0, 0.00000000000000000000e+00) (0, 0, 0.00000000000000000000e+00) (0, 0, 0.00000000000000000000e+00) (0, 0, 0.00000000000000000000e+00) (0, 0, 0.00000000000000000000e+00) (0, 0, 0.00000000000000000000e+00) (0, 0, 0.00000000000000000000e+00) (0, 0, 0.00000000000000000000e+00) (0, 0, 0.00000000000000000000e+00) (0, 0, 0.00000000000000000000e+00) (0, 0, 0.00000000000000000000e+00) (0, 0, 0.00000000000000000000e+00) (0, 0, 0.00000000000000000000e+00) (0, 0, 0.00000000000000000000e+00) (0, 0, 0.00000000000000000000e+00) (0, 0, 0.00000000000000000000e+00) (0, 0, 0.00000000000000000000e+00) (0, 0, 0.00000000000000000000e+00) (0, 0, 0.00000000000000000000e+00) (0, 0, 0.00000000000000000000e+00) (0, 0, 0.00000000000000000000e+00) (0, 0, 0.00000000000000000000e+00) (0, 0, 0.00000000000000000000e+00) (0, 0, 0.00000000000000000000e+00) (0, 0, 0.00000000000000000000e+00) (0, 0, 0.00000000000000000000e+00) (0, 0, 0.00000000000000000000e+00) (0, 0, 0.00000000000000000000e+00) (0, 0, 0.00000000000000000000e+00) (0, 0, 0.00000000000000000000e+00) (0, 0, 0.00000000000000000000e+00) (0, 0, 0.00000000000000000000e+00) (0, 0, 0.00000000000000000000e+00) (0, 0, 0.00000000000000000000e+00) (0, 0, 0.00000000000000000000e+00) (0, 0, 0.00000000000000000000e+00) (0, 0, 0.00000000000000000000e+00) (0, 0, 0.00000000000000000000e+00) (0, 0, 0.00000000000000000000e+00) (0, 0, 0.00000000000000000000e+00) (0, 0, 0.00000000000000000000e+00) (0, 0, 0.00000000000000000000e+00) (0, 0, 0.00000000000000000000e+00) (0, 0, 0.00000000000000000000e+00) (0, 0, 0.00000000000000000000e+00) (0, 0, 0.00000000000000000000e+00) (0, 0, 0.00000000000000000000e+00) (0, 0, 0.00000000000000000000e+00) (0, 0, 0.00000000000000000000e+00) (0, 0, 0.00000000000000000000e+00) (0, 0, 0.00000000000000000000e+00) (0, 0, 0.00000000000000000000e+00) (0, 0, 0.00000000000000000000e+00) (0, 0, 0.00000000000000000000e+00) (0, 0, 0.00000000000000000000e+00) (0, 0, 0.00000000000000000000e+00) (0, 0, 0.00000000000000000000e+00) (0, 0, 0.00000000000000000000e+00) (0, 0, 0.00000000000000000000e+00) (0, 0, 0.00000000000000000000e+00) (0, 0, 0.00000000000000000000e+00) (0, 0, 0.00000000000000000000e+00) (0, 0, 0.00000000000000000000e+00) (0, 0, 0.00000000000000000000e+00) (0, 0, 0.00000000000000000000e+00) (0, 0, 0.00000000000000000000e+00) (0, 0, 0.00000000000000000000e+00) (71, 4, 5.00000000000000000000e-01) (71, 4, 5.00000000000000000000e-01) (71, 4, 5.00000000000000000000e-01) (71, 4, 5.00000000000000000000e-01) (71, 4, 5.00000000000000000000e-01) (71, 4, 5.00000000000000000000e-01) (71, 4, 5.00000000000000000000e-01) (71, 4, 5.00000000000000000000e-01) (71, 4, 5.00000000000000000000e-01) (71, 4, 5.00000000000000000000e-01) (0, 4, 5.00000000000000000000e-01) (11, 4, 9.00000000000000022204e-01) (0, 4, 9.00000000000000022204e-01) 
connections (connected_to_neuron, weight)=(0, -1.50000000000000000000e+03) (1, 5.66117291927882160252e+00) (2, -1.50000000000000000000e+03) (3, 2.31872954485455595730e+00) (4, 1.16498822484379502384e+02) (5, 1.09479571837469560336e+01) (6, -7.07685594469469414491e+00) (7, 2.27833580841047655952e+01) (8, -6.46783688403210277329e+01) (9, 6.29954560562317489314e+00) (10, -9.45886383178037931430e+02) (11, -1.53759328908946155678e+01) (12, 1.50000000000000000000e+03) (13, -7.81523993590553889277e+00) (14, -1.50000000000000000000e+03) (15, 7.11003159414754559720e+00) (16, -3.59443312129661421750e+02) (17, 7.33106324617902260776e-01) (18, 3.91596915492688253835e+02) (19, -1.67525488609423902631e+01) (20, -4.22656998503611134765e+02) (21, -4.58833222064142010055e+00) (22, -1.50000000000000000000e+03) (23, 9.47473079165366094401e+00) (24, -1.50000000000000000000e+03) (25, 8.60507977513307409367e+00) (26, 1.50000000000000000000e+03) (27, 1.67987724594670773115e+01) (28, 1.50000000000000000000e+03) (29, -2.84998240903058359663e+01) (30, -3.61348602388956976483e+01) (31, -6.81414545347718458856e+00) (32, 7.32480083205839349603e+01) (33, 2.73157797443603129750e+01) (34, 1.50000000000000000000e+03) (35, -1.08251716318580193388e+01) (36, 1.08174447272871816494e+02) (37, -1.26999846651197110248e+01) (38, -3.04440665786286217553e+02) (39, 1.82896573398111677022e+01) (40, -4.21437792494583192138e+01) (41, -2.08501576446132474985e+01) (42, -1.50000000000000000000e+03) (43, -1.24934710269456106246e+00) (44, -2.53160571675937013936e+01) (45, -2.31007254767222214298e+00) (46, 4.18610095329467583269e+02) (47, -1.25910478689025691068e+01) (48, -3.37943766545518030853e+02) (49, 2.02775934977666238979e+01) (50, 3.41578971006936910726e+02) (51, 8.53578893861684129263e+00) (52, -2.48026481074221543111e+01) (53, 1.92891246379937397748e+00) (54, 1.50000000000000000000e+03) (55, 2.77692402287242572356e+01) (56, 7.06716668537615078094e+02) (57, 1.46409583110790819660e+01) (58, 1.42074497573660323724e+03) (59, 9.43012958166852488517e-01) (60, 1.28112190115586031425e+03) (61, -1.17802335227716685750e+01) (62, -1.50000000000000000000e+03) (63, 5.32006757187438861223e+00) (64, -1.50000000000000000000e+03) (65, 5.91763796923204044020e+00) (66, -3.27190351518263398134e+01) (67, -2.01977382473541844377e+01) (68, -1.50000000000000000000e+03) (69, 2.03093543993895835342e+01) (70, -5.12716988537632012424e+00) (0, 1.50000000000000000000e+03) (1, 2.12842336605248370063e+01) (2, 1.50000000000000000000e+03) (3, -1.81576615860768733057e+01) (4, -1.26290674055875842896e+03) (5, -1.50945978443540731462e+01) (6, 4.87616227700241040566e+01) (7, 1.19968519859109861159e+01) (8, 2.99756483784558895422e+02) (9, -1.25677006925870298204e+01) (10, 8.52630416999955741630e+02) (11, 8.94289236373180473905e-01) (12, -1.50000000000000000000e+03) (13, -1.52312432810364128954e+01) (14, 1.50000000000000000000e+03) (15, -3.03698899190740290166e+00) (16, 4.64657793691341467479e+01) (17, 1.91247857217850523170e+01) (18, -4.10107075956788094118e+01) (19, -2.44751008997151231483e+01) (20, -1.33828174874170190378e+03) (21, 1.68718989860811348080e+01) (22, 1.50000000000000000000e+03) (23, -2.58868131067385043309e+00) (24, 1.50000000000000000000e+03) (25, -1.15805440844147149448e+01) (26, -1.50000000000000000000e+03) (27, -9.19693698101488443797e+00) (28, 2.93876573339786489214e+02) (29, -3.28674905400427252999e+00) (30, -1.70403430720075107274e+02) (31, -1.45855287919091534121e+01) (32, -2.62092202291431384253e+01) (33, 8.03480704176670634808e+00) (34, -6.06274060706345210292e+01) (35, -1.74994228760925665256e+01) (36, -6.67131207279755358286e+02) (37, 1.93798877301911147697e+01) (38, -1.50000000000000000000e+03) (39, -5.60133674412765358852e+00) (40, -2.42730374162895486734e+02) (41, 9.70009317436744389340e+00) (42, -3.18348406700007785730e+02) (43, -2.33044892440411786083e+01) (44, -1.50000000000000000000e+03) (45, -1.63505105447277507835e+01) (46, -1.00167320956260411435e+02) (47, 2.39975256866113291210e+01) (48, 1.64349475681276913974e+02) (49, 1.75696377279665547633e+01) (50, 1.69278177168630719507e+02) (51, -1.04848373681283568715e+01) (52, -1.50000000000000000000e+03) (53, 5.51319887871599956242e+00) (54, -1.50000000000000000000e+03) (55, -1.69446070920528590875e+01) (56, -6.08711552198170551264e+01) (57, -2.95899367821170589110e+00) (58, -1.29520567870570198465e+03) (59, 9.94372827469300979430e+00) (60, -1.82002092967225451048e+02) (61, 1.80442683221653581427e+01) (62, 6.26824599325321855758e+02) (63, -2.28562685874198834313e+01) (64, 1.50000000000000000000e+03) (65, 5.43793120413451402939e-01) (66, 4.77046405553057084603e+01) (67, 9.43168832395657297241e+00) (68, 1.50000000000000000000e+03) (69, 4.49829957509950162375e+00) (70, -4.22344977125911694160e-02) (0, 1.50000000000000000000e+03) (1, 6.93328951391743331101e+00) (2, 1.50000000000000000000e+03) (3, 2.65311623757733343609e+01) (4, -4.54808544198908862199e+02) (5, -8.68357353818375976573e+00) (6, -6.37120975092195749312e+01) (7, 2.76017726222407127068e+01) (8, -5.88009172460674108152e+02) (9, 6.24356866227556306370e+00) (10, 3.99950521966798135054e+02) (11, -1.44491221687909519034e+01) (12, -1.32928691988032164772e+03) (13, -2.06922613897522786885e+01) (14, 1.50000000000000000000e+03) (15, 2.53276978493487909816e+01) (16, 2.64250979130133387685e+01) (17, -1.68081396366446078616e+01) (18, -5.65431612297088790342e+01) (19, -4.98012513341720719495e+00) (20, -4.61680409791110832884e+02) (21, -1.74369584014112604109e+01) (22, 1.50000000000000000000e+03) (23, -2.53395517823362936838e+00) (24, 1.50000000000000000000e+03) (25, 1.05425850917571004572e+01) (26, -9.78631592440762460683e+02) (27, -1.73004761848505594912e+01) (28, 8.33219999690296617700e+01) (29, 1.22111084508383633818e+01) (30, -1.45273834437687924037e+02) (31, -7.87370807909207215403e-01) (32, 9.04349386070794736270e+01) (33, -2.82282546540165988347e+01) (34, 3.48108747876803334975e+01) (35, -9.52579433310669188018e+00) (36, 5.13041909042578652134e+01) (37, -2.00260070825598468502e+01) (38, -1.03051067749553396879e+02) (39, 6.21337682477253938629e+00) (40, -2.67045241272102096275e+01) (41, 7.21941116597430010415e+00) (42, -1.29812969058451517412e+03) (43, -3.92601904717482375062e+00) (44, 7.31327619605977474748e+01) (45, 1.68048347431888167591e+01) (46, 1.18554401977727952300e+01) (47, -3.19587002182756130253e+00) (48, 4.33968405400682740947e+02) (49, -1.70128264634079009454e+01) (50, 8.59301703616795720109e+01) (51, -3.24974159995892009078e+00) (52, -9.95199731533459384991e+02) (53, -5.95143380095993634882e+00) (54, -4.05614354728295936070e+01) (55, 2.60057515754967489841e+01) (56, -6.88781603355593006199e+01) (57, -1.67423428058312069311e+01) (58, 4.67676421683905800819e+02) (59, -5.74775726470984427152e+00) (60, 3.07673670515811252812e+01) (61, -1.71650515640655108029e+01) (62, 1.50000000000000000000e+03) (63, -4.43944697197951931855e+00) (64, 1.50000000000000000000e+03) (65, 2.95665578574346454843e+00) (66, 1.59139807619862914123e+01) (67, 1.85762276669889665470e+01) (68, 1.50000000000000000000e+03) (69, 2.69460530418787413964e+01) (70, 1.09457781979236550285e+01) (0, -1.50000000000000000000e+03) (1, -1.30155948888903516547e+01) (2, -1.50000000000000000000e+03) (3, -8.05599898186605578587e+00) (4, 3.45877964674549787105e+02) (5, -5.51485965801879096659e+00) (6, -1.59850387665056654640e+01) (7, 2.96106385230037467693e+01) (8, -1.43066148511156328027e+01) (9, 1.30523808689763036739e+01) (10, -8.81947848455710754934e+02) (11, 2.22176740994289900755e+01) (12, 1.50000000000000000000e+03) (13, -4.51496687490435810730e+00) (14, -1.50000000000000000000e+03) (15, -1.71104577984096870580e+01) (16, 7.65680764098569142106e+01) (17, 1.76418682631455752130e+01) (18, 5.81343227441579529113e+02) (19, -1.86331973100338608162e+01) (20, 2.35985287300436652913e+02) (21, -3.45850179202117979926e+00) (22, -1.50000000000000000000e+03) (23, 1.15032572228068197262e+01) (24, -1.50000000000000000000e+03) (25, 1.30086080144698144068e+01) (26, 1.27651163279044521914e+03) (27, -1.50659051827906047549e+01) (28, -7.85221630450582665617e+02) (29, -1.70386326622756278937e+01) (30, 9.46983698571104497432e+01) (31, 4.25113713070687282425e+00) (32, -3.39831994004535875575e+00) (33, 5.94657946876150644844e-02) (34, 8.70652346617900434467e+02) (35, 4.62418423622031671272e+00) (36, -1.50000000000000000000e+03) (37, -5.36713026677379101415e+00) (38, 1.50000000000000000000e+03) (39, -1.10842003760745502206e+01) (40, -6.67309334430373723990e+01) (41, -3.07484599731940866363e+00) (42, -1.50000000000000000000e+03) (43, -1.83740000744473128691e+01) (44, 1.50000000000000000000e+03) (45, 2.25879298060085460520e+01) (46, -1.50000000000000000000e+03) (47, -1.78193635114441555345e+01) (48, -8.75895617843169844718e+01) (49, 1.21143263240800358460e+01) (50, 4.15043426386654687121e+02) (51, 2.35702430745185438354e+01) (52, 1.29742861438468025881e+03) (53, -1.47887608849005953715e+01) (54, 1.50000000000000000000e+03) (55, -1.00294464848905082732e+01) (56, 4.34421275330748130727e+02) (57, -7.18146815969444229921e+00) (58, 7.57082570741059441843e+01) (59, -1.16308491245172007655e-01) (60, 1.48272952418265481356e+03) (61, 7.79394219177174374380e+00) (62, -5.57540263058989467027e+02) (63, 1.43591677780420319266e+01) (64, -1.50000000000000000000e+03) (65, 1.88720432440431871157e+01) (66, -2.26629922746569469894e+01) (67, 1.14387393350689912097e+01) (68, -1.50000000000000000000e+03) (69, 1.91223182087617935565e+01) (70, -2.56423022020468538429e+00) (0, 1.50000000000000000000e+03) (1, -1.58621130803795420405e+01) (2, 1.50000000000000000000e+03) (3, -1.36092699893072008877e+01) (4, 3.36285755807378620830e+02) (5, 3.30920551455313294298e+00) (6, 8.03680746616443144603e+01) (7, 2.06249779132614250443e+01) (8, -1.26151810073736740492e+02) (9, 1.32260701713503223687e+01) (10, 8.44170448015210240555e+02) (11, -2.03229638462022030865e+01) (12, -1.50000000000000000000e+03) (13, -6.65057476537559555396e+00) (14, 1.50000000000000000000e+03) (15, -1.79589463226170487076e+01) (16, -6.80129080732713049429e+01) (17, -9.15678525088902617313e+00) (18, 1.10239590297192023627e+02) (19, 8.30612328676122047000e+00) (20, -1.34060011659195566835e+02) (21, 1.17265020759183258292e+00) (22, 1.50000000000000000000e+03) (23, 1.20455350253965498553e+01) (24, 1.50000000000000000000e+03) (25, -2.62971699124977886797e+00) (26, -1.50000000000000000000e+03) (27, 9.07332302273555324490e-01) (28, 4.89036909810383690456e+02) (29, 1.04781446733500853696e+01) (30, -1.24779741378523368667e+02) (31, -8.41806656458507163165e+00) (32, -3.96952657285841468138e+01) (33, 6.68052619244195611259e+00) (34, -1.50000000000000000000e+03) (35, -1.54893074769716356798e+01) (36, -5.68799953780974988149e+02) (37, -8.45894182370977243401e-01) (38, -1.50000000000000000000e+03) (39, -1.69226438119802082838e+01) (40, 9.28673704928141034998e+01) (41, 6.44672319256170744950e+00) (42, 1.50000000000000000000e+03) (43, -1.21105225319107354665e+01) (44, -1.50000000000000000000e+03) (45, 1.83012900136244986982e+01) (46, -1.44939933629153688344e+03) (47, 1.86141954050240449048e-01) (48, -5.65890581184702682549e+02) (49, -3.65595158523387553373e+00) (50, 4.96822458551931163129e+01) (51, 1.34410319234245747566e+01) (52, -1.50000000000000000000e+03) (53, -1.11160006384857350525e+01) (54, -1.50000000000000000000e+03) (55, -2.56971364664288230983e+01) (56, -2.29155102986897020401e+02) (57, 2.65856789235169195251e+01) (58, -1.49386068612417284385e+03) (59, -1.34814023351115945815e+01) (60, -1.49994188087216434724e+03) (61, -1.52085088043236478228e+01) (62, 6.26824599325321855758e+02) (63, -8.55222815220890097976e+00) (64, 1.50000000000000000000e+03) (65, -9.76718687279171504656e+00) (66, 7.59449808861450126329e+00) (67, 1.85447082795700914915e+01) (68, 1.50000000000000000000e+03) (69, -9.16770434872715078711e+00) (70, 5.55591796090422995746e+00) (0, 1.50000000000000000000e+03) (1, -1.33170987041620936253e+00) (2, 1.50000000000000000000e+03) (3, -2.59607392447812159730e+01) (4, -1.50000000000000000000e+03) (5, -1.37601038687814689609e+01) (6, 2.61722544791128512998e+01) (7, -1.78361842574388829163e+00) (8, 4.65652930025208377174e+02) (9, -9.04960498943093050173e+00) (10, -7.52009097591762497359e+02) (11, -1.00944756324690150251e+01) (12, -1.50000000000000000000e+03) (13, 1.00720541993648353696e+01) (14, 1.50000000000000000000e+03) (15, 2.34365587088698212881e+01) (16, 6.53648830736446200262e+01) (17, -3.32996692235197322418e+00) (18, -9.87992563409374611183e+02) (19, -1.46618389728778080183e+01) (20, -6.95846062147796374120e+02) (21, 5.74233796185638412091e-01) (22, 1.50000000000000000000e+03) (23, 1.71207459306099862850e+00) (24, 1.50000000000000000000e+03) (25, 4.63254633512402325124e+00) (26, -1.50000000000000000000e+03) (27, -1.22261411376612123547e+01) (28, 5.19466010600039794554e+02) (29, -1.63554809927514632761e+01) (30, -8.99976155737098935106e+01) (31, -3.71825811410345563601e+00) (32, -1.17042096998529032703e+01) (33, 8.23414832195461166009e+00) (34, -3.95799739919153466872e+02) (35, 1.22999836719027637599e+01) (36, -1.50188863731278559044e+02) (37, 3.04296060477838352654e+01) (38, -1.50000000000000000000e+03) (39, 1.36396324098305754546e+01) (40, -9.70651162458053420323e+01) (41, 1.05916046421785043918e+01) (42, 7.68100839959674090096e+02) (43, 2.00523143687412854774e+01) (44, -1.50000000000000000000e+03) (45, 4.27470622280438750096e+00) (46, -3.55321225244704521629e+02) (47, 1.00857332092101685816e+01) (48, 1.44203416480404666800e+03) (49, 2.36415067323936405330e+01) (50, 2.92652928092901277068e+02) (51, 1.98280178358412086936e+01) (52, -1.50000000000000000000e+03) (53, 1.14850967057662582960e+01) (54, -1.35672048994249666976e+03) (55, -2.64452776862262446400e+01) (56, -7.94369174578170031964e+02) (57, 3.75397616312700943553e+00) (58, 6.94385721558859131619e+02) (59, 1.43839372352912242548e+01) (60, -1.50000000000000000000e+03) (61, -1.28023003070634171507e+01) (62, 6.26824599325321855758e+02) (63, -6.99230787209527360204e+00) (64, 1.50000000000000000000e+03) (65, -1.22338798358407530031e+01) (66, 3.16930429501105130896e+01) (67, 2.50319522006676242754e+00) (68, 1.50000000000000000000e+03) (69, -4.55420797415497791150e+00) (70, -1.54569566817243213563e+01) (0, -1.50000000000000000000e+03) (1, -5.40490550326354068922e-01) (2, -1.50000000000000000000e+03) (3, -3.30034213770419952994e+01) (4, -7.27074982100012476849e+01) (5, -8.51842635683801177038e+02) (6, -1.07027759194736199788e+03) (7, -1.12331164852890008632e+01) (8, -1.49943828259917722789e+02) (9, -5.10576814328491138895e+02) (10, -1.50000000000000000000e+03) (11, -4.04453124675195070381e+01) (12, 1.50000000000000000000e+03) (13, -4.03531816489715353669e+01) (14, -1.50000000000000000000e+03) (15, 2.87421349932327707677e+00) (16, -7.88044758056351611231e+02) (17, -5.17379076422969035320e+01) (18, 1.50000000000000000000e+03) (19, -3.43092988136163086210e+01) (20, -1.45645036753788645001e+03) (21, 1.49132784919071106344e+01) (22, -1.50000000000000000000e+03) (23, -2.28006164865351692583e+01) (24, -1.50000000000000000000e+03) (25, 9.87950298312417274360e+00) (26, 1.50000000000000000000e+03) (27, -9.80473632375162225117e+01) (28, 1.50000000000000000000e+03) (29, -1.49957156377287242321e+03) (30, -5.32177883375804938737e+01) (31, -3.52904924769522690409e-02) (32, 6.67172115070171258822e+01) (33, -1.90692187959982931034e+02) (34, 1.50000000000000000000e+03) (35, 3.32532519139985671686e+00) (36, 1.54282286122794602079e+02) (37, -1.50000000000000000000e+03) (38, 1.50000000000000000000e+03) (39, -1.68180672373254225249e+01) (40, 1.50000000000000000000e+03) (41, -1.50000000000000000000e+03) (42, -1.50000000000000000000e+03) (43, -6.64467482877571740119e+01) (44, 1.50000000000000000000e+03) (45, -1.49997415551382027843e+03) (46, 4.18610095329467583269e+02) (47, -5.10966096683687425184e+01) (48, -3.85119951076136146639e+02) (49, -7.78978006692933622190e+00) (50, -5.73014324644012276622e+02) (51, -4.67256878027635735862e+01) (52, 1.50000000000000000000e+03) (53, -1.44866454869123071347e+01) (54, 1.50000000000000000000e+03) (55, 2.18969262610040971140e+00) (56, -1.50000000000000000000e+03) (57, -7.49358752099255639223e+02) (58, 1.34767643494049980291e+03) (59, -1.12999320695050720076e+01) (60, 1.49414393412422077745e+03) (61, -1.21668647799286699929e+00) (62, -5.57540263058989467027e+02) (63, 1.43162006538119594978e+01) (64, -1.50000000000000000000e+03) (65, -1.54276691187406829187e+01) (66, -3.98004456790556844226e+01) (67, 9.22614621485482420959e-03) (68, -1.50000000000000000000e+03) (69, 3.73978846388997965278e+00) (70, -2.71011213046500039070e+01) (0, 1.50000000000000000000e+03) (1, 1.90437941848648186749e+01) (2, 1.50000000000000000000e+03) (3, -1.79363584561160216424e+01) (4, -3.82745675527058040188e+01) (5, -2.94538595148621595854e+00) (6, 1.90100465095867377840e+02) (7, 1.23490638533820504819e+01) (8, -7.63451546006870557903e+02) (9, -1.02788858957161934882e+01) (10, 1.29582361136847544003e+03) (11, 1.85226741303090070012e+00) (12, -1.50000000000000000000e+03) (13, 1.31599114993219821201e+01) (14, 1.50000000000000000000e+03) (15, -2.06123488982685323379e+01) (16, 9.11899890415420941281e+02) (17, -5.00291163274283956497e+00) (18, -1.78540723117990651758e+01) (19, 6.22731350148605500294e+00) (20, 8.72515090513796508276e+02) (21, -5.78593925223265159730e+00) (22, 1.50000000000000000000e+03) (23, 1.09615916808378557334e+01) (24, 1.50000000000000000000e+03) (25, 4.52981998228572368959e+00) (26, -3.64878449470834880231e+02) (27, 9.56321472959678509085e-01) (28, 2.00412523868792561643e+02) (29, -2.47042555901772864502e+01) (30, -2.00823566975789802314e+01) (31, -2.06038036030842484081e+01) (32, 1.07753780416172688206e+02) (33, -2.45709442094245638089e+01) (34, 2.03822293430452532448e+01) (35, -5.77853230707151332979e+00) (36, -1.46320824646217579357e+03) (37, 1.81183828813572915806e+01) (38, -2.31819715455301547991e+02) (39, 1.11620758881196362466e+01) (40, 3.32940644070966911272e+01) (41, -1.41421566144885035854e+00) (42, 3.90029484250276539115e+02) (43, 3.54570328534273526699e+00) (44, 9.93755671086420306892e+02) (45, -8.17753359173351945799e+00) (46, -3.02905063306206557172e+02) (47, 8.49871216528737605245e+00) (48, -1.14475476291023528574e+03) (49, -3.05331739423000172451e+01) (50, -1.27110378753592996759e+02) (51, -1.21968501059938549957e+01) (52, -1.74775390922591036258e+01) (53, 1.39193107555195876301e+01) (54, -1.50000000000000000000e+03) (55, 1.14978620564886657718e+00) (56, -4.08648077844236070177e+02) (57, -8.98124510215418059289e-01) (58, 4.66667623731632772888e+02) (59, 7.89239202263070716015e+00) (60, -5.02644786260099920128e+02) (61, 1.55023567374251314277e+01) (62, 1.50000000000000000000e+03) (63, 9.73552950287634111248e+00) (64, 1.50000000000000000000e+03) (65, 4.64461923011186050836e-01) (66, 2.89300805833503744680e+01) (67, -1.76520558176912025772e+01) (68, 1.50000000000000000000e+03) (69, -2.74377284991833825245e+01) (70, 2.27550839003667277893e+01) (0, -1.50000000000000000000e+03) (1, 1.51344212063763929876e+01) (2, -1.50000000000000000000e+03) (3, 1.64737568665840541371e+01) (4, -4.55936726784918619160e+02) (5, 1.58419219181719057588e+01) (6, -1.47239790922207066615e+03) (7, 9.24046882781167511212e+00) (8, -5.74164088007119744361e+02) (9, -2.68046885597307138482e+00) (10, -4.90783371949877675888e+02) (11, -9.21441090566423959274e+00) (12, 1.48955266319659449437e+03) (13, -1.62166693779116997121e+01) (14, -1.50000000000000000000e+03) (15, 3.04990337600930727646e+00) (16, -5.98969621532264113739e+02) (17, 5.86784180363299934235e-01) (18, 7.78956480342350801038e+02) (19, 6.89820945619985792518e+00) (20, 4.93826052386264336747e+02) (21, -6.63828945582092355693e+00) (22, -1.50000000000000000000e+03) (23, -1.22007799303715973593e+01) (24, -1.50000000000000000000e+03) (25, 1.84242857689609529359e+01) (26, 1.85331671211720163228e+02) (27, -1.85180403485949618414e+01) (28, -5.37429150064054095282e+00) (29, -1.36906261727455955679e+01) (30, -3.79391193525624998983e+01) (31, -9.76087342580705197292e+00) (32, 1.21929628569139325123e+02) (33, -1.56999309202863823742e+01) (34, 3.69455227801124237885e+02) (35, -1.92852308551012043836e+01) (36, 1.24504887836133320889e+03) (37, -1.72311641872691168054e+00) (38, 4.27269650248796111214e+01) (39, -9.54761882396253369620e+00) (40, 8.58308133316499066723e+01) (41, 1.36972146515541925993e+01) (42, -1.24091667979959424883e+03) (43, 3.45738767157926929485e+01) (44, 7.66428070862376671357e+02) (45, -1.53198978369039711112e+01) (46, 5.25558528912293809299e+02) (47, 1.24015707787006110863e+01) (48, -1.50000000000000000000e+03) (49, 1.91370247022068973308e+01) (50, 6.98706796904261864256e+02) (51, -8.36546997856083884848e-01) (52, 9.15886073370858184717e+02) (53, 1.81930839192331461618e+01) (54, 1.50000000000000000000e+03) (55, -1.89643966842388111971e+00) (56, 1.52745905844277132246e+02) (57, -1.25392691697546823093e+01) (58, 1.42196048681538997016e+02) (59, -7.51450014076648642458e+00) (60, 5.57373139720340077474e+02) (61, 4.72888071601260673305e+00) (62, -1.50000000000000000000e+03) (63, -1.86710528185843038784e+01) (64, -1.50000000000000000000e+03) (65, -7.56147423160433618250e+00) (66, -9.00980131493789855313e+01) (67, -8.69787758222049056656e+00) (68, -1.50000000000000000000e+03) (69, 3.56970835336840224272e+01) (70, -8.01552584176032745233e+00) (0, 1.50000000000000000000e+03) (1, -6.10620531467575666795e-01) (2, 1.50000000000000000000e+03) (3, 1.20831909908197427939e+01) (4, 4.89825881827656985479e+02) (5, -3.14860310169830412974e+01) (6, 9.56898984860662608298e+02) (7, -3.64207356073910792915e+00) (8, -9.09157956263155568877e+01) (9, 1.90694256040138725439e+01) (10, 1.50000000000000000000e+03) (11, -2.19151599246190258441e+01) (12, -1.50000000000000000000e+03) (13, 1.67302605169706843924e+01) (14, 1.50000000000000000000e+03) (15, 7.00344710045251783725e+00) (16, 1.44007111582238831460e+01) (17, 3.34816932032715453005e+00) (18, -1.14725582795028895333e+01) (19, -2.50845820701899349103e+01) (20, -9.09603653264827016756e+02) (21, 9.10778617229916598319e+00) (22, 1.50000000000000000000e+03) (23, 1.73454290158403416910e+01) (24, 1.50000000000000000000e+03) (25, 1.69126554698321669434e+01) (26, -9.24117415652450290509e+02) (27, 4.14109819686482794054e+00) (28, -9.66175311126037286158e+01) (29, -2.16549726446268557822e+01) (30, -2.09547037132659781378e+01) (31, 7.20253508367194150708e+00) (32, 1.88166571148910399813e+01) (33, 2.22273993155858162751e+00) (34, -1.64238929031485341170e+01) (35, 2.46662051255815839568e+01) (36, -4.73331435907321385059e+00) (37, -5.39637880019299220891e+00) (38, 2.15929068307000420646e+02) (39, -2.76858873293219822642e+01) (40, -7.26310028265437424011e+00) (41, 9.24721120704717236549e+00) (42, -8.59607671021231567465e+02) (43, 2.97148073227896851733e+01) (44, 1.07226443370315632819e+03) (45, 9.08181808123943490330e+00) (46, 2.04175760386693326609e+02) (47, -7.52404056486872541143e+00) (48, 4.77605961140924193842e+02) (49, 2.00524655737509505116e+01) (50, -1.04715000826057451633e+01) (51, -7.51994293285134851601e+00) (52, -3.57705692092364643031e+02) (53, 3.18982991861276721224e+00) (54, 1.20277029494009592980e+01) (55, 6.13125893157186485638e+00) (56, 1.40719134563469083332e+02) (57, 2.63317758492864584241e+01) (58, -2.29268435697544902041e+02) (59, -1.02864723097534209728e+01) (60, 5.18923534405885860110e+01) (61, -3.28957013993376268246e+00) (62, 5.04546315551749700035e+01) (63, -2.23567909510998354961e+01) (64, 1.50000000000000000000e+03) (65, 1.71800387110292760440e+01) (66, -5.15755329803110740272e+01) (67, 2.29018463713933826398e+01) (68, 1.50000000000000000000e+03) (69, 2.77589238391449423526e-03) (70, -9.31718007226078981375e+00) (71, 1.40353282071588072455e+01) (72, -1.35219419857587936917e+01) (73, -1.34799253508422349768e+01) (74, 4.84982244345276836128e+00) (75, -1.11527669081395846007e+01) (76, -1.32898029809837936455e+01) (77, 1.50000000000000000000e+03) (78, -9.19291638401215926990e+00) (79, 5.44687386842721643632e+00) (80, -1.66233988391234355220e+01) (81, 1.76346231716683554680e+01) 
