FANN_FLO_2.1
num_layers=3
learning_rate=0.700000
connection_rate=1.000000
network_type=0
learning_momentum=0.000000
training_algorithm=2
train_error_function=1
train_stop_function=0
cascade_output_change_fraction=0.010000
quickprop_decay=-0.000100
quickprop_mu=1.750000
rprop_increase_factor=1.001000
rprop_decrease_factor=0.500000
rprop_delta_min=0.000000
rprop_delta_max=50.000000
rprop_delta_zero=0.100000
cascade_output_stagnation_epochs=12
cascade_candidate_change_fraction=0.010000
cascade_candidate_stagnation_epochs=12
cascade_max_out_epochs=150
cascade_max_cand_epochs=150
cascade_num_candidate_groups=2
bit_fail_limit=3.49999999999999977796e-01
cascade_candidate_limit=1.00000000000000000000e+03
cascade_weight_multiplier=4.00000000000000022204e-01
cascade_activation_functions_count=10
cascade_activation_functions=3 5 7 8 10 11 14 15 16 17 
cascade_activation_steepnesses_count=4
cascade_activation_steepnesses=2.50000000000000000000e-01 5.00000000000000000000e-01 7.50000000000000000000e-01 1.00000000000000000000e+00 
layer_sizes=71 11 2 
scale_included=0
neurons (num_inputs, activation_function, activation_steepness)=(0, 0, 0.00000000000000000000e+00) (0, 0, 0.00000000000000000000e+00) (0, 0, 0.00000000000000000000e+00) (0, 0, 0.00000000000000000000e+00) (0, 0, 0.00000000000000000000e+00) (0, 0, 0.00000000000000000000e+00) (0, 0, 0.00000000000000000000e+00) (0, 0, 0.00000000000000000000e+00) (0, 0, 0.00000000000000000000e+00) (0, 0, 0.00000000000000000000e+00) (0, 0, 0.00000000000000000000e+00) (0, 0, 0.00000000000000000000e+00) (0, 0, 0.00000000000000000000e+00) (0, 0, 0.00000000000000000000e+00) (0, 0, 0.00000000000000000000e+00) (0, 0, 0.00000000000000000000e+00) (0, 0, 0.00000000000000000000e+00) (0, 0, 0.00000000000000000000e+00) (0, 0, 0.00000000000000000000e+00) (0, 0, 0.00000000000000000000e+00) (0, 0, 0.00000000000000000000e+00) (0, 0, 0.00000000000000000000e+00) (0, 0, 0.00000000000000000000e+00) (0, 0, 0.00000000000000000000e+00) (0, 0, 0.00000000000000000000e+00) (0, 0, 0.00000000000000000000e+00) (0, 0, 0.00000000000000000000e+00) (0, 0, 0.00000000000000000000e+00) (0, 0, 0.00000000000000000000e+00) (0, 0, 0.00000000000000000000e+00) (0, 0, 0.00000000000000000000e+00) (0, 0, 0.00000000000000000000e+00) (0, 0, 0.00000000000000000000e+00) (0, 0, 0.00000000000000000000e+00) (0, 0, 0.00000000000000000000e+00) (0, 0, 0.00000000000000000000e+00) (0, 0, 0.00000000000000000000e+00) (0, 0, 0.00000000000000000000e+00) (0, 0, 0.00000000000000000000e+00) (0, 0, 0.00000000000000000000e+00) (0, 0, 0.00000000000000000000e+00) (0, 0, 0.00000000000000000000e+00) (0, 0, 0.00000000000000000000e+00) (0, 0, 0.00000000000000000000e+00) (0, 0, 0.00000000000000000000e+00) (0, 0, 0.00000000000000000000e+00) (0, 0, 0.00000000000000000000e+00) (0, 0, 0.00000000000000000000e+00) (0, 0, 0.00000000000000000000e+00) (0, 0, 0.00000000000000000000e+00) (0, 0, 0.00000000000000000000e+00) (0, 0, 0.00000000000000000000e+00) (0, 0, 0.00000000000000000000e+00) (0, 0, 0.00000000000000000000e+00) (0, 0, 0.00000000000000000000e+00) (0, 0, 0.00000000000000000000e+00) (0, 0, 0.00000000000000000000e+00) (0, 0, 0.00000000000000000000e+00) (0, 0, 0.00000000000000000000e+00) (0, 0, 0.00000000000000000000e+00) (0, 0, 0.00000000000000000000e+00) (0, 0, 0.00000000000000000000e+00) (0, 0, 0.00000000000000000000e+00) (0, 0, 0.00000000000000000000e+00) (0, 0, 0.00000000000000000000e+00) (0, 0, 0.00000000000000000000e+00) (0, 0, 0.00000000000000000000e+00) (0, 0, 0.00000000000000000000e+00) (0, 0, 0.00000000000000000000e+00) (0, 0, 0.00000000000000000000e+00) (0, 0, 0.00000000000000000000e+00) (71, 4, 5.00000000000000000000e-01) (71, 4, 5.00000000000000000000e-01) (71, 4, 5.00000000000000000000e-01) (71, 4, 5.00000000000000000000e-01) (71, 4, 5.00000000000000000000e-01) (71, 4, 5.00000000000000000000e-01) (71, 4, 5.00000000000000000000e-01) (71, 4, 5.00000000000000000000e-01) (71, 4, 5.00000000000000000000e-01) (71, 4, 5.00000000000000000000e-01) (0, 4, 5.00000000000000000000e-01) (11, 4, 9.00000000000000022204e-01) (0, 4, 9.00000000000000022204e-01) 
connections (connected_to_neuron, weight)=(0, -1.50000000000000000000e+03) (1, 5.73535207514859024513e+00) (2, 1.50000000000000000000e+03) (3, -4.12071948887983641185e+00) (4, -4.48188800091255288294e+01) (5, 3.99380997257678671541e-01) (6, 8.34842285875740657275e+01) (7, -2.50399361214043310042e+01) (8, 5.06184370648310959950e+02) (9, 8.15452982490875477595e+00) (10, -7.93451291951052297691e+01) (11, -2.56299483298750141458e+00) (12, 1.50000000000000000000e+03) (13, -7.77519789490877144544e+00) (14, -1.50000000000000000000e+03) (15, -6.50390074974693011001e+00) (16, 4.21861122513509556597e+00) (17, 3.20404815113190855058e+00) (18, 7.62593606348737012013e+01) (19, 4.73325286397497038138e+01) (20, -3.84839893779235296734e+02) (21, 1.24729225376991230689e+01) (22, -1.50000000000000000000e+03) (23, -2.10301301760012542275e+01) (24, -1.50000000000000000000e+03) (25, 2.36064700159633789056e+00) (26, -1.50000000000000000000e+03) (27, -6.98113416686439336445e-01) (28, 9.31640523285781227969e+02) (29, -3.76350113686268716862e+00) (30, -4.36791130985886809412e+02) (31, -1.63283573791747116388e+01) (32, -9.87164817361655053674e+01) (33, 3.34907427094707870197e+01) (34, 8.55152860383016957257e+01) (35, -1.11289567779226015176e+01) (36, -6.69091390723108020211e+02) (37, 2.22468417508563875984e+00) (38, 1.40003257574936742458e+03) (39, 5.02886013420774524718e+00) (40, 2.45823108514937558766e+02) (41, -1.81057252521014291347e+01) (42, 2.30434007091013143054e+02) (43, -2.15309460537174359729e+01) (44, -7.44710910000102444428e+02) (45, -3.25581816671432520138e+01) (46, -3.52529298785181808285e+01) (47, 7.33585377540475747082e+00) (48, -1.18585436189494930659e+03) (49, 8.15268194853806882350e+00) (50, 2.10979770276466673806e+01) (51, 1.30636517110784158291e+01) (52, -1.76687341048339341398e+01) (53, -1.57491787625732868605e+01) (54, -1.89006756236555617079e+02) (55, 2.14005303855882456077e+00) (56, 1.10966453919855752019e+02) (57, -4.13307584935621221689e+01) (58, 9.32103982422662085128e+01) (59, 9.53843398269629361153e+00) (60, 1.40421781688399596533e+03) (61, -4.93937787870704614335e+00) (62, 1.50000000000000000000e+03) (63, -1.76334307545496855596e+01) (64, -1.50000000000000000000e+03) (65, -1.39440228098950402824e+01) (66, 7.54763109135233065672e+01) (67, 7.78357054429241834725e+00) (68, -1.50000000000000000000e+03) (69, -2.31728823554874807655e+01) (70, 1.28623885547908454186e+01) (0, 1.50000000000000000000e+03) (1, 2.90061378713837214605e+01) (2, 1.50000000000000000000e+03) (3, -7.44345180500686698366e+00) (4, 4.67212146115350606124e+01) (5, 2.96734457567346794349e+01) (6, 7.48905889504789570310e+01) (7, 1.71054251908779058056e+01) (8, -7.99950666211237944481e+02) (9, -3.97028026233843522874e+00) (10, 5.74365492627780866997e+01) (11, 2.04196817059008814965e+01) (12, -1.50000000000000000000e+03) (13, 2.94725294353388722612e+00) (14, 1.50000000000000000000e+03) (15, -7.47774239395299833433e+00) (16, 4.27646876396554986854e+00) (17, -3.48853569440625719267e+01) (18, -1.69956467601267426915e+01) (19, -1.44369518541220624996e+01) (20, 1.11700230523547472394e+00) (21, 1.47743320197449161668e+01) (22, 1.50000000000000000000e+03) (23, -2.37792423319468149145e+01) (24, 1.50000000000000000000e+03) (25, -3.75238826644495615525e+00) (26, -8.87045764104552176832e+02) (27, 1.26212253014400999085e+00) (28, 1.50000000000000000000e+03) (29, 2.20215340983460983182e+01) (30, -1.84530435380401883094e+02) (31, -2.96001597998791332600e+01) (32, -1.56076548805102078177e+02) (33, -6.04961580674245880118e+00) (34, -1.93894742045793435636e+02) (35, -8.59761278837060238800e+00) (36, -3.60577745919531707841e+02) (37, 9.79676417252142606173e+00) (38, 1.34266010906138149039e+03) (39, 2.34953414169840701931e+00) (40, -1.57247946185012459352e+01) (41, -1.22356532576991501315e+01) (42, 8.12448954459517302951e+00) (43, 7.78546587585888083538e+00) (44, -5.04303360585105679093e+02) (45, 1.19677868978659649457e+01) (46, 1.50000000000000000000e+03) (47, 1.22514341921083786957e+01) (48, 7.25247372247068710749e+02) (49, -8.68049703151568508019e+00) (50, 1.38279673673038416837e+02) (51, 1.39912194165962966430e+00) (52, -2.77259660111364105717e+01) (53, -6.01542045032583594377e+00) (54, -9.27742030901759218153e-01) (55, -2.58384065062527916723e+01) (56, 3.62573175954233079210e+02) (57, -1.77670987623041298775e+01) (58, 7.71611508559038156818e+02) (59, -7.00619609907273677152e+00) (60, -1.24762287279206020685e+03) (61, 3.31082450564875259147e+01) (62, -1.50000000000000000000e+03) (63, -3.05255242405968623132e+01) (64, 1.50000000000000000000e+03) (65, 3.93609673258276338004e+00) (66, -5.15756155182768196710e+01) (67, -5.37272758051249166300e+00) (68, 1.50000000000000000000e+03) (69, -2.10406278670400510578e+01) (70, 2.16718620445755263404e+01) (0, -1.50000000000000000000e+03) (1, -1.02930390610966568943e+01) (2, 1.50000000000000000000e+03) (3, -2.03998976216739968947e+01) (4, -6.81933419274132575083e+01) (5, -4.44973783693014279805e+00) (6, -1.50000000000000000000e+03) (7, -1.19731935595231018254e+01) (8, 2.43334901836375394168e+02) (9, 4.31909991137339233092e+00) (10, -1.33812930989121514358e+03) (11, 2.06013299955405422281e+01) (12, 1.50000000000000000000e+03) (13, -2.47556503873149083006e+01) (14, -1.50000000000000000000e+03) (15, -1.08694258630331255233e+01) (16, 9.30383789124571869422e+00) (17, -1.07427824714788666682e+00) (18, 2.79935779751797797488e+00) (19, -2.05626469518074763698e+01) (20, 3.98730073426053763797e+01) (21, -3.09432966834585654325e+00) (22, -1.50000000000000000000e+03) (23, -7.24238451028121899000e-01) (24, -1.50000000000000000000e+03) (25, -1.30605031758011413956e+01) (26, 1.21349269877906135662e+03) (27, -1.21636740016594142588e+01) (28, -2.60323404598594549952e+02) (29, 8.58791267031948279964e+00) (30, 1.10275229975573040520e+02) (31, -2.68340949708469906909e+01) (32, 8.63883183791028386622e+02) (33, -2.39910622122767236419e+01) (34, -7.33171567652827775419e+02) (35, -1.25239656845855051870e+01) (36, 1.07666405307297372929e+03) (37, 6.39036902735826473076e+00) (38, -6.01582943998849714262e+02) (39, -6.18124371037028996767e-01) (40, -8.89965783447786691340e+01) (41, 3.68821925837887221178e+00) (42, 3.88217180067431613111e+01) (43, 1.66240383438323853227e+01) (44, -8.17857017187288647619e+02) (45, -2.25475160277563873024e+01) (46, -1.09761361930871970571e+02) (47, 5.63625722828430819611e-01) (48, 5.22340141193452723201e+02) (49, 2.26120244954753033539e+01) (50, 2.05253099987899560119e+02) (51, -1.48239176063800623950e+01) (52, 1.11798170737406530861e+03) (53, -2.51732569147508877805e+00) (54, -2.17762785457826197444e+02) (55, -3.10984462964408692187e+00) (56, -1.30188908638085592884e+02) (57, 1.29333540579756949285e+01) (58, -2.06012886416327987149e+01) (59, 5.47557664567595914207e+00) (60, 2.10446827747933511432e+01) (61, 2.25460901351696776374e+01) (62, 1.45069174315872919578e+03) (63, 2.23513520133047620675e+01) (64, -1.50000000000000000000e+03) (65, 2.74137806177139680130e+01) (66, 6.59828943657481659102e+01) (67, 2.28655339808787161360e+01) (68, -1.50000000000000000000e+03) (69, 2.31929181906279140435e+01) (70, -2.41166057096836361495e+00) (0, 1.50000000000000000000e+03) (1, 7.64383665439621928783e+00) (2, 1.50000000000000000000e+03) (3, 3.03800867909227285679e+01) (4, 1.15707227109309641833e+02) (5, -2.35424204060555659623e+01) (6, -1.50000000000000000000e+03) (7, 1.74013487030240625586e+01) (8, 6.95873770628476790989e+02) (9, 4.44594901513802440718e+01) (10, 8.23919490233171245563e+02) (11, -6.17186823126706496367e+00) (12, -1.50000000000000000000e+03) (13, 2.42042842138779946026e+02) (14, 1.50000000000000000000e+03) (15, 6.77967408686524564132e+00) (16, 2.00309724034097769163e+00) (17, 1.62801970744906654431e+01) (18, 1.09961365221048055218e+02) (19, 2.90429822285299543694e+00) (20, 3.70221044357011521697e+01) (21, 1.50000000000000000000e+03) (22, 1.50000000000000000000e+03) (23, 4.59814711115366208105e+01) (24, 1.50000000000000000000e+03) (25, -3.92131727586526279694e+00) (26, -2.43080493793073998177e+02) (27, 2.19024020062910480533e+01) (28, 1.50000000000000000000e+03) (29, 1.16968048964443713800e+01) (30, -1.97185130575876428338e+01) (31, 2.40189675198720244964e+01) (32, -1.05846378911129022526e+03) (33, -4.38424639728219656121e+00) (34, -1.50000000000000000000e+03) (35, 1.50000000000000000000e+03) (36, 1.50000000000000000000e+03) (37, -2.14867347739931666695e+01) (38, 1.30145948466442655445e+03) (39, -7.58657053091349120599e-01) (40, -1.14494461972831891217e+03) (41, -2.59034836785226083578e+01) (42, 1.50000000000000000000e+03) (43, 4.20353621833263986218e+01) (44, 5.21463582373843451023e+02) (45, 4.61832625830535370426e+00) (46, 1.50000000000000000000e+03) (47, 2.46425579918979096306e+01) (48, 1.50000000000000000000e+03) (49, 1.36754316399819686012e+02) (50, -1.50000000000000000000e+03) (51, 2.99092965247455083500e+02) (52, -5.41545546169262976832e+01) (53, 6.82961487624829146625e+01) (54, 1.50000000000000000000e+03) (55, -1.37444209019469685273e+01) (56, 1.50000000000000000000e+03) (57, -1.62847171291979293528e+01) (58, 1.10387151441072296620e+03) (59, 1.84226787749773102121e+01) (60, 4.62233477521983289193e+01) (61, 2.79105488299736208546e+01) (62, -1.50000000000000000000e+03) (63, 1.60473962269476935205e+01) (64, 1.50000000000000000000e+03) (65, 2.16011947048139028027e+01) (66, -5.99777940442015022882e+01) (67, 1.15906544574437866402e+01) (68, 1.50000000000000000000e+03) (69, 1.90541926174083151579e+01) (70, 2.45234450215135488804e+01) (0, -1.50000000000000000000e+03) (1, 2.51062756139031968416e+01) (2, 1.50000000000000000000e+03) (3, -3.22795979485578428125e+01) (4, -1.18294606614017510537e+02) (5, 8.02756158727733204472e-01) (6, 8.85022275951608094147e+02) (7, 1.51257176649587705697e+01) (8, -6.16740214666032215973e+02) (9, 5.66101003091899190878e+00) (10, -8.38255489431114710897e+02) (11, 4.37315891199783468579e+00) (12, 1.50000000000000000000e+03) (13, 1.28462773405194941034e+01) (14, -1.50000000000000000000e+03) (15, -2.83055336633282017544e+01) (16, 1.94919553749488621008e+01) (17, 7.91273590704456974976e+00) (18, 2.37549979786875589127e+01) (19, -1.58083191158565092849e+01) (20, -2.29794036407394202115e+01) (21, -8.86540168205524281575e+00) (22, -1.50000000000000000000e+03) (23, 1.03805382665777727880e+01) (24, -1.50000000000000000000e+03) (25, 1.38224376765882084328e+01) (26, 1.50000000000000000000e+03) (27, -6.83660249265803354746e+00) (28, -3.93231262579196823026e+02) (29, -1.96876875933945996167e+01) (30, -1.14501541886725188846e+01) (31, -1.64015484072323438625e+01) (32, -2.39243776731583267292e+02) (33, -2.09522491805150785638e+01) (34, 4.82452782829002302378e+01) (35, -6.07630905892234451926e-01) (36, -3.14585604237199220279e+02) (37, 2.62445303649391377121e+01) (38, 2.40010474138258075527e+02) (39, 1.21466491806658254404e+01) (40, 1.13461799850579768645e+03) (41, 4.38510793158105904865e+00) (42, -1.05189838408030865935e+02) (43, 2.12942608562316202381e+01) (44, 2.13589447740401311648e+02) (45, -2.27245813079400216239e+00) (46, -1.50000000000000000000e+03) (47, 2.44216623816253779466e+01) (48, 1.98433059980635107422e+02) (49, 4.18341501720669270981e+01) (50, 1.50000000000000000000e+03) (51, 1.72891735354895246246e+01) (52, -1.03768788438453455569e+02) (53, 1.55959466716647501272e+01) (54, 7.53942970171933666279e+02) (55, -2.80340612398911623870e+01) (56, 5.71318107435453441667e+01) (57, -2.18923728091420244368e+01) (58, 4.21606085268140304834e+01) (59, -1.23667405297560364374e+01) (60, 7.95412054074040156593e+02) (61, -1.01885733410793761777e+01) (62, 1.50000000000000000000e+03) (63, 5.50392060747379829877e+00) (64, -1.50000000000000000000e+03) (65, -1.98139453443329252025e+01) (66, 8.30417997288309521764e+01) (67, 2.34224579714945129183e+01) (68, -1.50000000000000000000e+03) (69, -1.53395235639695464158e+01) (70, 6.49157934331211716739e+00) (0, 1.50000000000000000000e+03) (1, 1.42225580918853715673e+01) (2, 1.50000000000000000000e+03) (3, -1.11631534010045196936e+01) (4, 9.93157632756263453189e+00) (5, 7.66019339123963938221e+00) (6, 1.50864179013766506188e+01) (7, -7.56341308854114391380e+00) (8, -1.22476416921325221665e+03) (9, 2.14966627558610703375e+01) (10, 1.23345457411841550766e+02) (11, 1.31461508426426956220e+01) (12, -1.50000000000000000000e+03) (13, 4.04829235690109783263e+01) (14, 1.50000000000000000000e+03) (15, -1.34208307784558495968e+01) (16, 5.78656274366765011052e+00) (17, -8.84740028846098347515e+00) (18, 3.50263357791628493487e+00) (19, 1.78224259448808020068e+00) (20, -2.35025604109535244390e+01) (21, -1.52301651697106557037e+01) (22, 1.50000000000000000000e+03) (23, 1.26386041704561158383e+01) (24, 1.50000000000000000000e+03) (25, -4.06899649920391581759e+00) (26, 1.50000000000000000000e+03) (27, 7.67229270320873268929e+00) (28, 1.01372089830935863120e+02) (29, -2.76664336428496682174e+01) (30, 1.14863532092637996129e+02) (31, -1.89448171695013520832e+01) (32, -1.48287144703379194510e+01) (33, 8.72271170623578484538e+00) (34, -2.31686576469944398582e+01) (35, -7.91809568386153372899e+00) (36, -1.38168312737643054788e+03) (37, -9.15247706972543895176e+00) (38, -3.36688453344288916469e+02) (39, -2.61054993096131084940e+01) (40, -9.11957328698047859916e+01) (41, 1.11043439138728921023e+01) (42, 3.70839935869212808939e+02) (43, -8.90045858686433533080e+00) (44, -1.09914267276334203416e+03) (45, 1.08739134350235833182e+01) (46, 1.50000000000000000000e+03) (47, -1.20789446357683694089e+01) (48, -3.60001999750750599105e+02) (49, 1.37324747930699562204e+01) (50, -1.15985730581056554911e+03) (51, 7.46464622717646575367e-01) (52, -8.02070063835699187393e+01) (53, 1.28046543001242660864e+01) (54, 2.32753990644712835945e+01) (55, -2.24766690765204701918e+00) (56, -5.37329202148495497227e+01) (57, -3.05032079309968970904e+01) (58, 7.01294365221604152794e+02) (59, 4.37352961603852818939e+00) (60, -9.79772977810143515853e+02) (61, -4.16576105293014649078e+01) (62, -1.50000000000000000000e+03) (63, 1.93804985659527524433e+01) (64, 1.50000000000000000000e+03) (65, 5.22268060508162701439e+00) (66, -7.83562751938749784131e+01) (67, 3.16819205509100996210e+01) (68, 1.50000000000000000000e+03) (69, 7.79957652227376030396e+00) (70, 1.19270287619487458386e+01) (0, 1.50000000000000000000e+03) (1, -3.26739733573694905999e+01) (2, 1.50000000000000000000e+03) (3, 7.79792724380160340303e+00) (4, 1.26739435677112993517e+02) (5, 1.29902890137998578979e+01) (6, 1.14657999847846303965e+03) (7, 6.36136369463593753792e-01) (8, 1.88004431682868556663e+02) (9, -5.97664061035274052358e+00) (10, 8.09536816969621554563e+02) (11, -2.47486694788666472533e+00) (12, -1.50000000000000000000e+03) (13, -2.49550671452563133101e+00) (14, 1.50000000000000000000e+03) (15, 7.00439462415664948480e+00) (16, 5.35898780292341569975e+01) (17, -2.96749407317053659483e+01) (18, 7.52134485077543679665e+00) (19, -1.57663243719766121842e+01) (20, -1.71322631831643912292e+00) (21, -3.05141447660785125606e+01) (22, 1.50000000000000000000e+03) (23, 1.09185075728480160961e+01) (24, 1.50000000000000000000e+03) (25, 9.25394530515567836915e+00) (26, -1.50000000000000000000e+03) (27, -4.57192433817784475991e+01) (28, -4.51512674874296777716e+01) (29, -7.86396969938536738454e+00) (30, -1.82577258108615069432e+02) (31, -2.64950503566750006357e+00) (32, -8.98876135339123436552e+01) (33, 6.53010798830448901953e+00) (34, -2.50009593760729643463e+02) (35, -5.89353023981881030124e+00) (36, -1.16412633118233384266e+03) (37, 1.16010058344478093062e+01) (38, 8.42235627938411994364e+02) (39, 3.75866059263308827099e+01) (40, 1.13445632635253588205e+02) (41, -7.75399329616792343245e+00) (42, 2.79919542937076698763e+02) (43, 9.20281526954307516064e+00) (44, -1.50000000000000000000e+03) (45, -2.61647583750390266832e-01) (46, 1.50000000000000000000e+03) (47, 2.56008434121569230513e+01) (48, -1.32443399649759021486e+03) (49, -6.56384354994573548936e+00) (50, 9.74550551783740047540e+02) (51, 1.54946111417125536036e+01) (52, 1.50000000000000000000e+03) (53, 3.28449937502810662693e+00) (54, -1.50000000000000000000e+03) (55, 1.96203980268538025200e+01) (56, 4.72630743967666660410e+02) (57, -1.27911991799828719252e+01) (58, 4.63519293681668571594e+01) (59, 9.55530841459808222282e+00) (60, -4.66647401821710658965e+01) (61, 9.07508016690083962885e+00) (62, -1.50000000000000000000e+03) (63, 2.60017808582822986807e+01) (64, 1.50000000000000000000e+03) (65, -3.80450531859695502135e+01) (66, -6.10182573129583687432e+01) (67, 3.52292570629531320847e+00) (68, 1.50000000000000000000e+03) (69, -1.84503830803686561524e+01) (70, 1.59458373619045943315e+01) (0, 1.50000000000000000000e+03) (1, 9.56758615075117546667e+00) (2, 1.50000000000000000000e+03) (3, -1.96855991956520277597e+01) (4, 4.43817177630182442272e+01) (5, 1.28347741696613937279e+01) (6, -1.69211097937666124835e+02) (7, 7.93786628325327736633e+00) (8, -1.88485486359610177942e+02) (9, -1.79789219997760629788e+00) (10, 7.58912429218465717895e+02) (11, 2.64977042774803734915e+01) (12, -1.50000000000000000000e+03) (13, -4.50655470452777873192e+00) (14, 1.50000000000000000000e+03) (15, -1.88611961433934016696e+00) (16, 9.03680606553792031832e+00) (17, 4.82158867032981497402e+00) (18, 3.67953507721201544811e+00) (19, -4.87878505884404578552e+00) (20, 5.26563008991960757044e+01) (21, -9.97130005900940918906e-01) (22, 1.50000000000000000000e+03) (23, 7.15609483049406147614e+00) (24, 1.50000000000000000000e+03) (25, -1.20962666763055093355e+01) (26, -1.48878753196096454303e+03) (27, 6.02922336155190734530e+01) (28, 1.05395730941034503303e+03) (29, -6.33592732133005576145e+00) (30, -2.67234365030081058023e+01) (31, -1.30244369478994794775e+01) (32, 4.59058418772252068152e+01) (33, -2.56561019651913539974e+01) (34, -3.81863501884104891815e+02) (35, -3.31765333071749495275e+01) (36, -4.42678824210893466784e+01) (37, 1.10688716143931458191e+01) (38, 1.48835702330348817668e+03) (39, -1.17914157608644760700e+01) (40, 1.36146080179884023664e+01) (41, 2.19255176149097330551e+01) (42, 2.77258335325047937658e+02) (43, -5.15032774567277140676e+00) (44, 1.50000000000000000000e+03) (45, -2.32319592462171691238e+01) (46, 1.50000000000000000000e+03) (47, 1.16534690549863508835e+01) (48, 1.90374717537944917467e+02) (49, 8.54854109846398024786e+00) (50, -4.55475051294097355026e+01) (51, -4.80328972257945263635e+00) (52, 1.37278894008877074384e+02) (53, 1.78925687186077020385e+01) (54, -2.07917822982338151405e+02) (55, -4.13772871501044825493e+00) (56, 5.75072152526968011443e+02) (57, -5.91835504559831004912e+00) (58, 3.63681566156212312535e+01) (59, -4.35310893358205053261e+00) (60, -3.55661620745978893865e+02) (61, 5.03213918698733575496e+00) (62, -1.50000000000000000000e+03) (63, 1.41841634358171173602e+01) (64, 1.50000000000000000000e+03) (65, 1.95029601478982321794e+01) (66, -5.81854716469694608350e+01) (67, 8.40966897405484914430e+00) (68, 1.50000000000000000000e+03) (69, -1.06070870575484121900e+01) (70, 2.80693763930046724653e+00) (0, 1.50000000000000000000e+03) (1, 1.07095464842319998411e+01) (2, 1.50000000000000000000e+03) (3, 1.85714468018535328042e+01) (4, 1.50000000000000000000e+03) (5, 2.47332160518035593100e+01) (6, 1.46766185455548065875e+03) (7, -3.93977268038473527056e+00) (8, -8.94079547584385522896e+02) (9, 1.00653383698180087791e+00) (10, 1.50000000000000000000e+03) (11, -8.05741197218672944302e+00) (12, -1.50000000000000000000e+03) (13, -1.24501026564871910551e+01) (14, 1.50000000000000000000e+03) (15, -9.76169774345792617964e+00) (16, -4.52877769118144044569e+01) (17, 9.32810969494455743956e-01) (18, -8.57446971408535176806e+01) (19, 1.90286042851527364972e-01) (20, -4.48480368381423488700e+00) (21, 8.60346389227855823378e+00) (22, 1.50000000000000000000e+03) (23, -2.99207646282766397405e+01) (24, 1.50000000000000000000e+03) (25, 1.37758521911690028361e+01) (26, -1.48877554170304233594e+03) (27, -1.48618607207250956748e+01) (28, 2.99512647496950762616e+02) (29, 3.52389440379812057813e+01) (30, -1.59912426502688767016e+01) (31, -2.12112309899965589821e+00) (32, -2.88137981428709167631e+02) (33, -4.71118559980161499823e+00) (34, -3.53581122790564165825e+02) (35, 3.41803647537905952447e+00) (36, -2.71156874155747935617e+01) (37, 1.47996801377047653148e+01) (38, 1.50000000000000000000e+03) (39, -1.68772096403472060544e+00) (40, -1.21002395130640934440e+03) (41, 2.86653248110601985843e+01) (42, -1.33337807007004403204e+03) (43, 1.33168358831669610964e+01) (44, 1.56388896434738342123e+02) (45, -4.37767479987574716915e+01) (46, 7.37506932309161982175e+01) (47, 1.57635365547732835267e+01) (48, 5.55969509368843887387e+02) (49, 1.66808599419547864962e+00) (50, -3.01568485494022354487e+02) (51, -8.31550724077940195400e+00) (52, 4.63752145225026666253e+01) (53, -2.72880613274163508208e+01) (54, -1.14801302081645917497e+03) (55, 4.09035617446607915326e+01) (56, -7.72553121182474683337e+02) (57, 1.92099950201048450538e+01) (58, 8.67388113989109228896e+02) (59, -5.33136315740134314467e+00) (60, -7.51127554652806566082e+02) (61, 9.07777078963883177209e+00) (62, 1.28350011102789017059e+03) (63, -2.99538848433459881093e+00) (64, 1.50000000000000000000e+03) (65, -9.08465821935568484946e+00) (66, -5.69475942780424588818e+01) (67, 3.23321046958751034950e+00) (68, 1.50000000000000000000e+03) (69, -2.60443641254395608087e+01) (70, -7.51594838933927178459e+00) (0, -1.50000000000000000000e+03) (1, 1.66615832364883225125e+01) (2, 1.50000000000000000000e+03) (3, 9.16179082301032954305e-01) (4, -1.42421719717883945577e+02) (5, 2.00629910795906063470e+01) (6, 1.50000000000000000000e+03) (7, 3.78219273403138833700e+00) (8, -7.11115544788716192670e+02) (9, -9.17268229474485385921e-01) (10, -8.37511310659141940960e+02) (11, -1.67247149606674234690e+01) (12, 1.50000000000000000000e+03) (13, -1.29197902123614802861e+01) (14, -1.50000000000000000000e+03) (15, 4.55579877849457215433e+00) (16, 1.42499717898277360462e+01) (17, -1.74373273221135320910e+01) (18, 2.70819057809635701517e+01) (19, 1.25912877521550665705e+01) (20, 2.90515169344278767483e+01) (21, 4.13254274675394750460e+00) (22, -1.50000000000000000000e+03) (23, -3.33745452501139396873e+01) (24, -1.50000000000000000000e+03) (25, 6.53133980307143069410e+00) (26, 1.50000000000000000000e+03) (27, 3.19154122951673926423e+01) (28, -2.80472190257753027254e+02) (29, -4.84735508389854408140e-01) (30, -2.80278138679444808190e+01) (31, -2.39500985426148567115e+01) (32, 1.50000000000000000000e+03) (33, 1.14812496024032775765e-01) (34, 1.50000000000000000000e+03) (35, -2.30545290918365992638e+01) (36, 4.40942124444003525241e+02) (37, 5.32331795699058485383e+00) (38, -6.97702988711296598012e+02) (39, 3.07994348236123194340e+01) (40, -3.11086623924129064278e+01) (41, -8.29710906350967469791e+00) (42, -1.43295505454619251395e+03) (43, -1.59918469548344752695e+01) (44, -4.53804331730188096117e+02) (45, -1.68654577287710272238e-01) (46, -1.50000000000000000000e+03) (47, -1.24081342541074004515e+01) (48, -7.68823080515921333244e+02) (49, 4.77979120882947938753e+00) (50, 1.50000000000000000000e+03) (51, -2.54880854256176405670e+01) (52, -1.50000000000000000000e+03) (53, -1.39678450802574065648e+01) (54, 2.44644607159833071819e+02) (55, 2.69619114061930496007e+01) (56, -6.17363516387029562793e+01) (57, 4.11045341451241164066e+00) (58, -3.85630070080988275549e+02) (59, 6.88299332438860922423e+00) (60, 1.02666691305491190178e+03) (61, -1.65675976963536015774e+01) (62, 1.50000000000000000000e+03) (63, 2.53117591863130630969e+00) (64, -1.50000000000000000000e+03) (65, 1.45227671646893452539e+00) (66, 7.11303922581279408632e+01) (67, 1.57512529129364975411e+00) (68, -1.50000000000000000000e+03) (69, 3.70912906180629775577e+01) (70, 1.22930717681914316586e+01) (71, 3.70308400090512357394e+00) (72, -9.88183152402325859498e+00) (73, 4.60318426996248586391e+00) (74, -4.44769895745915455620e+00) (75, 1.46401094686362611696e+01) (76, -2.66248390916956889640e+00) (77, -3.09908388583681704276e+00) (78, -2.44164193860333540442e+01) (79, -1.79887223320628830692e+00) (80, 1.41966508547172232113e+01) (81, 1.44267250232542831867e+01) 
