FANN_FLO_2.1
num_layers=3
learning_rate=0.700000
connection_rate=1.000000
network_type=0
learning_momentum=0.000000
training_algorithm=2
train_error_function=1
train_stop_function=0
cascade_output_change_fraction=0.010000
quickprop_decay=-0.000100
quickprop_mu=1.750000
rprop_increase_factor=1.001000
rprop_decrease_factor=0.333300
rprop_delta_min=0.000000
rprop_delta_max=50.000000
rprop_delta_zero=0.100000
cascade_output_stagnation_epochs=12
cascade_candidate_change_fraction=0.010000
cascade_candidate_stagnation_epochs=12
cascade_max_out_epochs=150
cascade_max_cand_epochs=150
cascade_num_candidate_groups=2
bit_fail_limit=3.49999999999999977796e-01
cascade_candidate_limit=1.00000000000000000000e+03
cascade_weight_multiplier=4.00000000000000022204e-01
cascade_activation_functions_count=10
cascade_activation_functions=3 5 7 8 10 11 14 15 16 17 
cascade_activation_steepnesses_count=4
cascade_activation_steepnesses=2.50000000000000000000e-01 5.00000000000000000000e-01 7.50000000000000000000e-01 1.00000000000000000000e+00 
layer_sizes=71 11 2 
scale_included=0
neurons (num_inputs, activation_function, activation_steepness)=(0, 0, 0.00000000000000000000e+00) (0, 0, 0.00000000000000000000e+00) (0, 0, 0.00000000000000000000e+00) (0, 0, 0.00000000000000000000e+00) (0, 0, 0.00000000000000000000e+00) (0, 0, 0.00000000000000000000e+00) (0, 0, 0.00000000000000000000e+00) (0, 0, 0.00000000000000000000e+00) (0, 0, 0.00000000000000000000e+00) (0, 0, 0.00000000000000000000e+00) (0, 0, 0.00000000000000000000e+00) (0, 0, 0.00000000000000000000e+00) (0, 0, 0.00000000000000000000e+00) (0, 0, 0.00000000000000000000e+00) (0, 0, 0.00000000000000000000e+00) (0, 0, 0.00000000000000000000e+00) (0, 0, 0.00000000000000000000e+00) (0, 0, 0.00000000000000000000e+00) (0, 0, 0.00000000000000000000e+00) (0, 0, 0.00000000000000000000e+00) (0, 0, 0.00000000000000000000e+00) (0, 0, 0.00000000000000000000e+00) (0, 0, 0.00000000000000000000e+00) (0, 0, 0.00000000000000000000e+00) (0, 0, 0.00000000000000000000e+00) (0, 0, 0.00000000000000000000e+00) (0, 0, 0.00000000000000000000e+00) (0, 0, 0.00000000000000000000e+00) (0, 0, 0.00000000000000000000e+00) (0, 0, 0.00000000000000000000e+00) (0, 0, 0.00000000000000000000e+00) (0, 0, 0.00000000000000000000e+00) (0, 0, 0.00000000000000000000e+00) (0, 0, 0.00000000000000000000e+00) (0, 0, 0.00000000000000000000e+00) (0, 0, 0.00000000000000000000e+00) (0, 0, 0.00000000000000000000e+00) (0, 0, 0.00000000000000000000e+00) (0, 0, 0.00000000000000000000e+00) (0, 0, 0.00000000000000000000e+00) (0, 0, 0.00000000000000000000e+00) (0, 0, 0.00000000000000000000e+00) (0, 0, 0.00000000000000000000e+00) (0, 0, 0.00000000000000000000e+00) (0, 0, 0.00000000000000000000e+00) (0, 0, 0.00000000000000000000e+00) (0, 0, 0.00000000000000000000e+00) (0, 0, 0.00000000000000000000e+00) (0, 0, 0.00000000000000000000e+00) (0, 0, 0.00000000000000000000e+00) (0, 0, 0.00000000000000000000e+00) (0, 0, 0.00000000000000000000e+00) (0, 0, 0.00000000000000000000e+00) (0, 0, 0.00000000000000000000e+00) (0, 0, 0.00000000000000000000e+00) (0, 0, 0.00000000000000000000e+00) (0, 0, 0.00000000000000000000e+00) (0, 0, 0.00000000000000000000e+00) (0, 0, 0.00000000000000000000e+00) (0, 0, 0.00000000000000000000e+00) (0, 0, 0.00000000000000000000e+00) (0, 0, 0.00000000000000000000e+00) (0, 0, 0.00000000000000000000e+00) (0, 0, 0.00000000000000000000e+00) (0, 0, 0.00000000000000000000e+00) (0, 0, 0.00000000000000000000e+00) (0, 0, 0.00000000000000000000e+00) (0, 0, 0.00000000000000000000e+00) (0, 0, 0.00000000000000000000e+00) (0, 0, 0.00000000000000000000e+00) (0, 0, 0.00000000000000000000e+00) (71, 4, 5.00000000000000000000e-01) (71, 4, 5.00000000000000000000e-01) (71, 4, 5.00000000000000000000e-01) (71, 4, 5.00000000000000000000e-01) (71, 4, 5.00000000000000000000e-01) (71, 4, 5.00000000000000000000e-01) (71, 4, 5.00000000000000000000e-01) (71, 4, 5.00000000000000000000e-01) (71, 4, 5.00000000000000000000e-01) (71, 4, 5.00000000000000000000e-01) (0, 4, 5.00000000000000000000e-01) (11, 4, 9.00000000000000022204e-01) (0, 4, 9.00000000000000022204e-01) 
connections (connected_to_neuron, weight)=(0, -1.50000000000000000000e+03) (1, 7.19330380258139179261e+00) (2, -1.50000000000000000000e+03) (3, -1.82773992209913309637e+01) (4, -4.11702577807047465086e+00) (5, -5.83750745399393089485e+00) (6, 6.92777255550126227490e+01) (7, 2.12373455573754377212e+01) (8, -3.60819660166968333215e+02) (9, -4.83784236624681707184e+00) (10, -1.50000000000000000000e+03) (11, 1.69760033546113717762e+01) (12, 1.50000000000000000000e+03) (13, -1.40864610418920097601e+01) (14, -1.50000000000000000000e+03) (15, -2.32867266806745770724e-01) (16, 4.79376424072527811404e+02) (17, -3.72037399916272946143e+01) (18, -3.43967225720225144414e+02) (19, 7.55428952287900017382e+01) (20, 1.36473133487402151331e+03) (21, 2.31109232539719968713e+01) (22, -1.50000000000000000000e+03) (23, -1.54784778319380951217e+01) (24, -1.50000000000000000000e+03) (25, -1.22051448467225558403e+01) (26, 1.50000000000000000000e+03) (27, 3.64044482203677119969e+01) (28, -2.37404208547787050065e+02) (29, -1.27359551956590122401e+00) (30, 1.43022295854527669690e+03) (31, 7.36143439446688052641e+00) (32, -5.68747833359087962890e+02) (33, 3.43150977597934243590e+01) (34, -2.35248643601711052042e+02) (35, 3.61560667602707468404e+01) (36, 1.50000000000000000000e+03) (37, -1.02481232833687609940e+01) (38, -4.30798079139390495129e+02) (39, 1.24379325529600919253e+01) (40, 3.13173244073599299497e+00) (41, -9.91889243041151225100e-01) (42, 1.32247041155216948027e+02) (43, -1.37200913895398146636e+00) (44, 1.54558670516962610719e+01) (45, 7.04032329570081127912e+00) (46, -1.58062683153759365950e+02) (47, -2.19489630250581591042e+01) (48, 1.50000000000000000000e+03) (49, 6.82103404765891041528e-01) (50, -7.52648776364673324224e+01) (51, 2.19026897945897154329e+01) (52, 1.50000000000000000000e+03) (53, 7.87253258892851359718e+00) (54, -1.50000000000000000000e+03) (55, -2.23916940430993953726e+01) (56, 1.50000000000000000000e+03) (57, -2.07156603724412979872e+00) (58, 3.71610994445205911063e+00) (59, -3.70148611829022797792e+01) (60, 1.50000000000000000000e+03) (61, -1.17485265472771267525e+01) (62, 1.50000000000000000000e+03) (63, 1.55071435694325021615e+01) (64, -1.50000000000000000000e+03) (65, 4.48091964647578677727e+00) (66, 7.74652360839032638751e+01) (67, -1.77111441514252465623e+00) (68, -1.50000000000000000000e+03) (69, -1.81873308213708533287e+01) (70, 1.02953334512638914333e+01) (0, 1.50000000000000000000e+03) (1, -1.69038748385515944506e+01) (2, 1.50000000000000000000e+03) (3, -2.33157004515366388375e+01) (4, -4.22416091383468250697e-01) (5, -2.37549514265086543219e+01) (6, -5.92509723434425339406e+01) (7, 6.03144945792339299828e+01) (8, 2.81271804365721720842e+02) (9, 1.35361521082863625054e+01) (10, 1.50000000000000000000e+03) (11, -1.98438013461676483473e+01) (12, -1.50000000000000000000e+03) (13, 1.47054462603049511671e+01) (14, 1.50000000000000000000e+03) (15, 1.49992456485255820553e+03) (16, -4.87785336821314956524e+02) (17, -9.89783799567274513720e+02) (18, 6.72155207600378048483e+02) (19, -3.88915154851149793558e+02) (20, 1.41236890265890019691e+03) (21, -1.23969001980022479614e+01) (22, 1.50000000000000000000e+03) (23, 1.50000000000000000000e+03) (24, 1.50000000000000000000e+03) (25, -2.25455292353624585644e+01) (26, -1.50000000000000000000e+03) (27, -5.41448427013903028637e+01) (28, -1.50000000000000000000e+03) (29, 4.40736589668763301120e+01) (30, 1.50000000000000000000e+03) (31, -3.94489844875039807448e+02) (32, 1.27821962751629052946e+03) (33, -1.46650641649278924206e+02) (34, 1.50000000000000000000e+03) (35, 1.67733717503201305021e+01) (36, -1.50000000000000000000e+03) (37, 3.43871459856443664194e+01) (38, 4.47093566774369492123e+02) (39, 2.86829654488427259196e+01) (40, 9.69822614045978470543e-01) (41, 1.50000000000000000000e+03) (42, -1.59856401638979519930e+02) (43, -8.07571064773430968842e+00) (44, -1.44616202383909211449e+01) (45, 1.32841889437964830734e+01) (46, 1.65532594375675699894e+02) (47, 2.83218655069326779028e+01) (48, -1.50000000000000000000e+03) (49, 1.25325796244096721921e+02) (50, 1.17876160685166883013e+03) (51, 3.04539148817662592705e+01) (52, -1.50000000000000000000e+03) (53, -1.47307649636544670813e+01) (54, 1.50000000000000000000e+03) (55, -4.56541583862127264837e+00) (56, -1.50000000000000000000e+03) (57, 1.11067589518828114592e+02) (58, 1.63101124440196116439e+02) (59, 1.50000000000000000000e+03) (60, -1.50000000000000000000e+03) (61, 1.69521684898979749789e+01) (62, -1.50000000000000000000e+03) (63, -1.79319698571825689726e+01) (64, 1.50000000000000000000e+03) (65, 3.48794783246938635557e+01) (66, -7.02315152915089271346e+01) (67, 2.37869203416768426607e+00) (68, 1.50000000000000000000e+03) (69, 1.04240972645780995975e+01) (70, 2.53112920034343957809e+01) (0, -1.50000000000000000000e+03) (1, -1.23815944390779169026e+01) (2, -1.50000000000000000000e+03) (3, -3.08370883154341868249e+01) (4, 7.05497641590510511378e+02) (5, -5.54336420641044291813e+00) (6, 1.02342997919500035664e+02) (7, 9.36730358140556940150e-01) (8, 4.67570181919113565527e+02) (9, -8.40313190994456427063e+00) (10, -1.50000000000000000000e+03) (11, -1.56434512126433116208e+01) (12, 1.50000000000000000000e+03) (13, 4.62768781001980222811e+00) (14, -1.50000000000000000000e+03) (15, 5.33334251470738340828e+00) (16, 1.95528413594982765744e+02) (17, 7.20910946998399104757e+00) (18, -1.61382720123446610216e+01) (19, -6.15599088386436310572e+00) (20, 1.50000000000000000000e+03) (21, 5.88704853766567648421e+00) (22, -1.50000000000000000000e+03) (23, 1.87712863940343837044e+01) (24, -1.50000000000000000000e+03) (25, 9.52958341893684313106e+00) (26, 2.42271637895707243615e+02) (27, 1.10950113459572232699e+01) (28, 2.03980874831104785017e+02) (29, -3.34803169727027327696e+00) (30, 1.57573166107118112222e+02) (31, -3.56853830020928919353e+00) (32, 1.50989079841773133239e+02) (33, -2.98567300778743600631e+01) (34, 4.72132007685291966936e+02) (35, -8.21995215926269784390e-01) (36, -3.10537599274234423774e+02) (37, 3.70079021327374846351e+00) (38, 1.33785254059009495187e+00) (39, 3.95628723844127572207e+00) (40, 1.97318333457012897725e+02) (41, 1.85506653202748306164e+00) (42, -1.14582768290782198051e+02) (43, -3.61843395920242061337e+00) (44, 1.50000000000000000000e+03) (45, -1.94903483579036524986e+01) (46, 6.61150745614392292282e+01) (47, 2.38563997521822734882e+00) (48, 1.50000000000000000000e+03) (49, 1.79196509416606524212e+01) (50, -5.84722084937631052526e+02) (51, -1.91518166553224773452e+01) (52, 1.50000000000000000000e+03) (53, 6.43016996060253109846e+00) (54, 1.19447564762215552037e+03) (55, 1.76943815764953207292e+01) (56, -2.99515703882835566674e+01) (57, 2.00603281710716387920e+01) (58, 2.03652885608216507762e+02) (59, 3.87158341662029759078e+00) (60, 5.33173544592722237212e+01) (61, 2.24405174741977546660e+01) (62, 1.50000000000000000000e+03) (63, -1.77831301170369648901e+01) (64, -1.50000000000000000000e+03) (65, -3.24837579399633682442e+01) (66, 4.11242898863933348252e+01) (67, 3.38386103698537110684e-01) (68, -1.50000000000000000000e+03) (69, -2.12734727353400421279e+00) (70, 2.45678226305089753012e+00) (0, -1.50000000000000000000e+03) (1, 2.03462232023745350773e+01) (2, -1.50000000000000000000e+03) (3, 4.97655690084886259683e+00) (4, -1.50000000000000000000e+03) (5, 9.41002219584211552217e+00) (6, -2.64382471385759799887e+02) (7, 1.89687464279520234811e+01) (8, -2.78445334798765372852e+02) (9, -1.19373097891953561245e+00) (10, -1.50000000000000000000e+03) (11, 2.60716798177215309806e+01) (12, 1.50000000000000000000e+03) (13, -1.13555089963574218359e+01) (14, -1.50000000000000000000e+03) (15, -6.93360898035547723595e+00) (16, 2.73754452793740938432e+02) (17, 1.71262334383466652277e+00) (18, -5.95828679517906323326e+00) (19, 5.35575992374358733628e+00) (20, 8.41877433070368397239e+02) (21, 1.38262558267607071905e+00) (22, -1.50000000000000000000e+03) (23, -6.35976377866741859890e+00) (24, -1.50000000000000000000e+03) (25, 6.39047665191628500025e+00) (26, 1.50000000000000000000e+03) (27, -1.73320929157849548119e+01) (28, -5.86705902802319769762e+02) (29, -2.48672878444298950384e+00) (30, -1.25495277244424315199e+02) (31, 1.07447866117220076632e+01) (32, 1.89633821486933811684e+02) (33, -3.82486089110526306101e+00) (34, 3.90693348734573248748e+02) (35, -3.70963023261556159582e+01) (36, 3.83349400801474047285e+01) (37, -2.28578187526951523978e+01) (38, -3.56134786707065984501e+02) (39, -5.37444450947726082291e+00) (40, -5.77953244772055114709e+01) (41, 4.99556152789925622670e+00) (42, -1.50000000000000000000e+03) (43, -6.09663976058588552576e+00) (44, -1.30406948239430130343e+03) (45, -7.53006412891232823625e+00) (46, 9.06598286806009127758e+02) (47, -3.31394578149546159551e+00) (48, -1.49560748791198602703e+03) (49, 5.21614223748410932302e-01) (50, 9.72593118960881497514e+02) (51, -6.68155165467251332956e+00) (52, -2.43142024262390691547e+02) (53, -1.63860413947992107353e+01) (54, 4.81506877120536103121e+02) (55, -5.17502595697049105894e+00) (56, 2.69083204065866823385e+01) (57, -1.73598696746510618993e+01) (58, -1.37409995885354959455e+02) (59, 6.54176959061481966273e+00) (60, 5.18869937704453604965e+02) (61, 1.51057692147766808866e+00) (62, 1.50000000000000000000e+03) (63, 1.71288411229547428150e+01) (64, -1.50000000000000000000e+03) (65, 3.64788180601512257439e+00) (66, 7.08116830748700039067e+01) (67, 9.01963127923046137369e+00) (68, -1.50000000000000000000e+03) (69, -9.19461978870607232750e+00) (70, 2.59618748212388217311e+00) (0, -1.50000000000000000000e+03) (1, -7.42665089271981582186e+00) (2, -1.50000000000000000000e+03) (3, -1.12059656967582874643e+01) (4, 1.41350513298783909022e+02) (5, -8.68529973706904634412e+00) (6, 9.15345701733854255622e+00) (7, 2.71357453884291643931e+00) (8, 2.06220189847432664010e+02) (9, -4.65940471837369685204e+00) (10, -2.17263526174586274919e+02) (11, -1.07250140800355198145e+00) (12, 1.50000000000000000000e+03) (13, -1.17089793079045438873e+01) (14, -1.50000000000000000000e+03) (15, -2.30498107872444641941e+01) (16, -1.48540367962613828468e+02) (17, 1.28368670710606789243e+01) (18, 3.37876829688944582131e+01) (19, -1.18283339803487379527e+01) (20, -7.93079847106047424177e+01) (21, 1.38349558735266375820e+00) (22, -1.50000000000000000000e+03) (23, 1.66948275198858944179e+01) (24, -1.50000000000000000000e+03) (25, 2.51729627463399054932e+01) (26, 1.49061424697633287906e+03) (27, -5.48529741615531030163e+00) (28, -7.35903987238421848360e+01) (29, 4.81304908623480631746e+00) (30, 7.34276778744729909931e+01) (31, -2.03035386254420409102e+01) (32, 4.44382737373158231975e+00) (33, 2.89190021687990466148e+01) (34, 1.25911896189361087295e+02) (35, 1.76054838480890403218e+01) (36, 3.95874344821469549061e+02) (37, -2.00217006118513207724e+00) (38, -1.96325575671221827179e+02) (39, -2.52194151064849663157e+01) (40, -6.06025659418987601157e+01) (41, -2.46611793795366329718e+00) (42, 5.49462895657463150201e+02) (43, 1.78324669864350155990e+01) (44, -1.50000000000000000000e+03) (45, -9.20647282877571448978e+00) (46, 4.44532029092933811398e+01) (47, -4.35395767799921529217e+00) (48, -1.50000000000000000000e+03) (49, 1.86422979988824302211e+01) (50, 3.02199834245289139290e+02) (51, 5.27851411502099310269e+00) (52, 1.50000000000000000000e+03) (53, -2.04505869604108925230e+00) (54, 4.16785323998033447879e+01) (55, -1.49487402901301291713e+00) (56, 4.25821985412248920966e+02) (57, 2.86835746168312910598e+00) (58, -2.20302458409270030870e+02) (59, 3.61876816931757383511e-01) (60, 2.95539238738475035007e+02) (61, -2.17686888969241962855e+01) (62, 1.50000000000000000000e+03) (63, 7.32819489800798251622e-01) (64, -1.50000000000000000000e+03) (65, 3.66717112549284518508e-01) (66, 5.45999840659282469346e+01) (67, 1.59707075869710024563e+01) (68, -1.50000000000000000000e+03) (69, 2.36509419834108420844e+01) (70, -8.38870972294238903544e+00) (0, 1.50000000000000000000e+03) (1, 2.23932185266801404566e+01) (2, 1.50000000000000000000e+03) (3, 2.20693293150622835697e+01) (4, -2.12858270410902896685e+01) (5, 1.35303383378963992811e+01) (6, -6.84901633987405915605e+01) (7, 1.15409400716718792523e+02) (8, 2.81271804365721720842e+02) (9, -8.98992630619380861390e+00) (10, 1.50000000000000000000e+03) (11, -1.54324802432697039123e+00) (12, -1.50000000000000000000e+03) (13, 5.46677353187257821787e+01) (14, 1.50000000000000000000e+03) (15, 1.49992456485255820553e+03) (16, -4.87785336821314956524e+02) (17, -1.01406070653443737228e+03) (18, 6.72155207600378048483e+02) (19, -4.11513613732878411611e+02) (20, 1.41236890265890019691e+03) (21, 1.38158674006825350489e+01) (22, 1.50000000000000000000e+03) (23, 1.50000000000000000000e+03) (24, 1.50000000000000000000e+03) (25, 1.85457230711098386422e+00) (26, -1.50000000000000000000e+03) (27, -2.65260139278919098160e+01) (28, -1.50000000000000000000e+03) (29, 1.54559705286000728108e+01) (30, 1.50000000000000000000e+03) (31, -4.18088599872643897015e+02) (32, 1.27821962751629052946e+03) (33, -1.52591402350932099807e+02) (34, 1.50000000000000000000e+03) (35, 1.17240994868485284286e+01) (36, -1.50000000000000000000e+03) (37, 4.14015218293622169199e+01) (38, 4.18146338819505160700e+02) (39, -4.27205837454928740726e+01) (40, -9.50843504205147027619e+00) (41, 1.50000000000000000000e+03) (42, -1.24216157155030970216e+02) (43, 1.96907545178617660042e+01) (44, -1.58052457838929036882e+01) (45, 1.45236227616624251624e+01) (46, 1.72583711319035785436e+02) (47, 8.44550447899495182469e+00) (48, -1.50000000000000000000e+03) (49, 8.50358226809868256169e+01) (50, 1.17876160685166883013e+03) (51, 7.85140658222245413356e+00) (52, -1.50000000000000000000e+03) (53, -7.16948852780252554595e+00) (54, 1.50000000000000000000e+03) (55, 2.44970011917132097778e+01) (56, -1.50000000000000000000e+03) (57, 2.85357849990365878057e+02) (58, 1.58961206112864573470e+02) (59, 1.50000000000000000000e+03) (60, -1.50000000000000000000e+03) (61, 3.51054158311149322458e+01) (62, -1.50000000000000000000e+03) (63, -8.16970418002361498111e+00) (64, 1.50000000000000000000e+03) (65, -7.41684023253298008171e+00) (66, -3.95944665701953155690e+01) (67, 2.07477831873103077953e+01) (68, 1.50000000000000000000e+03) (69, 7.30545061668588679993e+00) (70, 2.49807799304337088131e+01) (0, -1.50000000000000000000e+03) (1, 2.25967195467117285546e+01) (2, -1.50000000000000000000e+03) (3, -1.16620242845939134924e+01) (4, 7.41108154555417364406e+00) (5, 1.53158469403650840945e+01) (6, -5.07491822927150337819e+00) (7, -2.15915279291614901069e+01) (8, -2.01302915665307125437e+02) (9, -6.54029910466756714271e+00) (10, -1.50000000000000000000e+03) (11, 2.96515150206561273194e+01) (12, 1.50000000000000000000e+03) (13, -2.59557831429090626330e+01) (14, -1.50000000000000000000e+03) (15, -7.02871634858364213727e+00) (16, 1.16371240091681602280e+03) (17, 4.77780500200198190441e+01) (18, 1.02061119512549248611e+03) (19, 2.93281673014428108104e+01) (20, 1.50000000000000000000e+03) (21, -7.69018998767459494026e-01) (22, -1.50000000000000000000e+03) (23, -1.18153341040907626791e+01) (24, -1.50000000000000000000e+03) (25, 1.24174340461607162212e+01) (26, 1.50000000000000000000e+03) (27, 9.48716056629742965356e+00) (28, -1.43753047138136139438e+03) (29, -1.36277511619793365583e+01) (30, 1.50000000000000000000e+03) (31, 1.77276578145102092776e+00) (32, 8.36588872116484196795e+01) (33, 4.54079133843505999835e+01) (34, 2.95227896063111714398e+01) (35, 2.25195942644391671195e+01) (36, 1.50000000000000000000e+03) (37, -8.63983688850665565440e+00) (38, -4.21818444966176002708e+02) (39, -5.95818699386878058988e+00) (40, -1.16668079329725404847e+01) (41, 8.77604489569548640304e+00) (42, 5.12671831531483462641e+02) (43, 5.34313573491815940741e+00) (44, 3.04337270256035381522e+01) (45, -1.14015264488160710243e+01) (46, -1.63580715985937416690e+02) (47, -2.90612310564875038210e+01) (48, 1.50000000000000000000e+03) (49, -7.24002711974081680779e+00) (50, -6.09285121068383887177e+02) (51, -2.69012454063286021722e+01) (52, 1.16812634181434918901e+03) (53, -6.61390987352345582906e+00) (54, 7.54960833773591730278e+02) (55, -4.11766492407809394649e+01) (56, 1.50000000000000000000e+03) (57, -2.65106076632264597848e+00) (58, -2.21705031839601417687e+02) (59, -1.27010947107459220007e+01) (60, 1.50000000000000000000e+03) (61, 3.53301375226988696454e+01) (62, 1.50000000000000000000e+03) (63, 1.40810283591670089010e+01) (64, -1.50000000000000000000e+03) (65, -1.85697061512462582300e+01) (66, 7.60219396514081182659e+01) (67, -6.75348311198333917105e+00) (68, -1.50000000000000000000e+03) (69, 2.47923501270822050913e+01) (70, 1.02294375101951828810e+01) (0, -1.50000000000000000000e+03) (1, -2.52201893260270892938e+01) (2, -1.50000000000000000000e+03) (3, -2.02010096393377232005e+01) (4, 1.19014827798888163102e+01) (5, -3.25030838272276199064e+01) (6, 9.00791157260637476156e+01) (7, -1.44934130635927154174e+01) (8, -2.76651311723860885650e+02) (9, -2.37386376731581378863e+01) (10, -1.50000000000000000000e+03) (11, 1.93875216926382911709e+01) (12, 1.50000000000000000000e+03) (13, -3.56668074144340652154e+00) (14, -1.50000000000000000000e+03) (15, -1.49990151691013898017e+03) (16, 4.87989883194946230560e+02) (17, 1.01845207682415468753e+03) (18, -6.69331473830442632789e+02) (19, 4.02761190098747647426e+02) (20, -1.41075969913145740975e+03) (21, -1.82365946401996281701e+00) (22, -1.50000000000000000000e+03) (23, -1.50000000000000000000e+03) (24, -1.50000000000000000000e+03) (25, -2.44355512582372824681e+01) (26, 1.50000000000000000000e+03) (27, 6.02647716460739886202e+01) (28, 1.50000000000000000000e+03) (29, -9.87250414176360635565e+00) (30, -1.50000000000000000000e+03) (31, 3.86431652561007695112e+02) (32, -1.25665124123983719073e+03) (33, 1.75010836994406275835e+02) (34, -1.50000000000000000000e+03) (35, -2.73281122022529814330e+01) (36, 1.50000000000000000000e+03) (37, -5.43731399478101309342e+01) (38, -4.17281853324571159192e+02) (39, 7.92043118184645056346e+00) (40, -3.32222384381553492716e+00) (41, -1.50000000000000000000e+03) (42, 1.23140347648976785422e+02) (43, -1.39812033008153218105e+01) (44, 3.44290935989371291726e+01) (45, -1.31043008516356032089e+01) (46, -1.77505200238868326323e+02) (47, 1.16514309779633489228e+01) (48, 1.50000000000000000000e+03) (49, -9.92287481108323845547e+01) (50, -1.15190077177760781524e+03) (51, -2.19653303893005400482e+01) (52, 1.50000000000000000000e+03) (53, -1.63411844242017636475e+01) (54, -1.50000000000000000000e+03) (55, -2.84417235760482753903e+01) (56, 1.50000000000000000000e+03) (57, -7.29979870117740716751e+01) (58, -1.30981819391854344303e+02) (59, -1.50000000000000000000e+03) (60, 1.50000000000000000000e+03) (61, -2.83396716130535963885e+01) (62, 1.50000000000000000000e+03) (63, -2.62437082440596505251e+01) (64, -1.50000000000000000000e+03) (65, 1.74585834757716185095e+00) (66, 4.85136341017863870206e+01) (67, -3.59182243854448346454e+00) (68, -1.50000000000000000000e+03) (69, -6.62295652603088758070e+00) (70, -3.38534844936547116845e+01) (0, -1.50000000000000000000e+03) (1, 2.95306994624234553370e+00) (2, -1.50000000000000000000e+03) (3, -2.35808348073872542372e+00) (4, -2.00820806432682168463e+01) (5, 4.97974797332731533572e+00) (6, 3.77131895714132951980e+01) (7, 7.50874731865968847444e+00) (8, -2.76651311723860885650e+02) (9, -1.97581734965918478508e+01) (10, -1.50000000000000000000e+03) (11, -1.15374615197439407410e+01) (12, 1.50000000000000000000e+03) (13, -6.85954176651884761640e+00) (14, -1.50000000000000000000e+03) (15, -9.27485170308223558777e+01) (16, 4.87989883194946230560e+02) (17, 1.62084831553866621334e+02) (18, -6.69331473830442632789e+02) (19, 1.80638959541626860528e+02) (20, -1.41075969913145740975e+03) (21, -3.16112507650739296139e+01) (22, -1.50000000000000000000e+03) (23, -3.88631702289982115417e+02) (24, -1.50000000000000000000e+03) (25, -2.03312638609479812146e+01) (26, 1.50000000000000000000e+03) (27, 8.26099459943613965152e+01) (28, 1.50000000000000000000e+03) (29, 2.67549869511232856212e+01) (30, -1.50000000000000000000e+03) (31, 3.81153933567928902448e+02) (32, -1.25665124123983719073e+03) (33, 1.42565110641317488671e+02) (34, -1.50000000000000000000e+03) (35, 2.31986547522283963474e+01) (36, 1.50000000000000000000e+03) (37, -2.29510245331986837414e+01) (38, -4.15314034006538008725e+02) (39, -8.27578470755284811844e+00) (40, 2.74273496732840520451e+01) (41, -5.27251068983792720246e+02) (42, 1.20674582649587208039e+02) (43, -1.18545869155364709258e+01) (44, -6.91518669340667457845e+00) (45, -2.43235520353837060270e+01) (46, -4.82404109525719135831e+01) (47, 3.21951832966175501838e+01) (48, 1.50000000000000000000e+03) (49, -1.07797215835303177300e+02) (50, 4.42348265955469003075e+02) (51, -2.06031448590613983640e+01) (52, 1.50000000000000000000e+03) (53, -3.10700214941440258087e+01) (54, 2.16075113040146618459e+02) (55, 6.92900347868985289068e+00) (56, 1.50000000000000000000e+03) (57, -8.53470370022296378920e+02) (58, -2.66796636537085980478e+01) (59, -1.50000000000000000000e+03) (60, 1.50000000000000000000e+03) (61, -1.14137962304811637182e+02) (62, 1.50000000000000000000e+03) (63, -1.16678762643063560489e+01) (64, -1.50000000000000000000e+03) (65, 1.21450287602887421201e+01) (66, 4.13768857878825926377e+01) (67, -2.27193655636777869233e+01) (68, -1.50000000000000000000e+03) (69, -9.06901526218379139266e+00) (70, -5.29825243162471171132e+00) (0, -8.16726641162191071999e+02) (1, -9.64283054247252202629e+00) (2, -8.16726641162191071999e+02) (3, 1.90709606935907167724e+01) (4, 1.52238653122186970990e+01) (5, -1.83877169974309637723e+01) (6, 6.74050917353052483350e+01) (7, -3.91031092900888666009e+01) (8, -2.76688919064895628708e+02) (9, -2.03475445071835743249e+01) (10, -1.36838065309587068441e+03) (11, -2.46325770410189122117e+01) (12, 1.41676400912090616657e+03) (13, -1.42281631736405280719e+01) (14, -1.25002821822917940153e+03) (15, -1.49992366079857652039e+03) (16, 6.58293561153354289672e+02) (17, 1.03584592246017928119e+03) (18, -1.13914475009437637709e+03) (19, 3.32102324699194355162e+02) (20, -9.48231433215310971718e+02) (21, 9.04563213120057163508e+00) (22, -8.16726641162191071999e+02) (23, -1.10470070583726510449e+03) (24, -8.16726641162191071999e+02) (25, 2.97829982180013308479e+00) (26, 1.41676400912090616657e+03) (27, 2.86116681940224530933e+01) (28, 1.48389337511356552568e+03) (29, -8.31647693800089626848e+00) (30, -1.36838065309586977492e+03) (31, 3.43291795229123749778e+02) (32, -1.19994814612050504365e+03) (33, 1.30690960004726861143e+02) (34, -1.45617742182102347215e+03) (35, 1.12747571626721576621e+01) (36, 1.41676400912090616657e+03) (37, -5.35229137905523728591e+01) (38, -4.04238877390221887254e+02) (39, -9.12181406192504162789e+00) (40, 6.26809746714109472521e+00) (41, -1.10470070583726533187e+03) (42, 1.64453138202868927920e+02) (43, -1.37256443564122747603e+01) (44, 8.50576557325723996428e+01) (45, 5.08282369641931985882e+00) (46, -1.66974653918717393708e+02) (47, 4.71834763244888666378e+00) (48, 1.41676400912090616657e+03) (49, -7.77139099960022576852e+01) (50, -9.81597093819200608777e+02) (51, 6.63530262037933571406e+00) (52, 1.41676400912090616657e+03) (53, 2.71402691167834539954e+01) (54, -9.82940365886694053188e+02) (55, -3.45016747740943259259e+01) (56, 1.41676400912090616657e+03) (57, -9.26048680130559347390e+01) (58, -1.68582723998830573464e+02) (59, -1.10470070583726510449e+03) (60, 1.41676400912090616657e+03) (61, 5.64424468064357309771e+00) (62, 1.45161348432213458182e+03) (63, -1.66749726237839830389e+01) (64, -8.16726641162191071999e+02) (65, 1.99097547675188302208e+00) (66, 6.76811313438118133945e+01) (67, -3.06888883032799206774e+01) (68, -8.16726641162191071999e+02) (69, -1.73595401966763134283e+01) (70, -6.80872515926383226059e+00) (71, 7.00181220809682791639e+00) (72, -1.01132653774441205741e+01) (73, 4.36236560306305065637e+00) (74, 4.06751734609936210774e+00) (75, 3.73796161560178319405e+00) (76, -1.54406021253646152935e+00) (77, 1.90803550293337593757e+01) (78, 1.50000000000000000000e+03) (79, 1.50000000000000000000e+03) (80, -5.89276144993652195581e+00) (81, -1.73572343410708214151e+01) 
