FANN_FLO_2.1
num_layers=3
learning_rate=0.700000
connection_rate=1.000000
network_type=0
learning_momentum=0.000000
training_algorithm=2
train_error_function=1
train_stop_function=0
cascade_output_change_fraction=0.010000
quickprop_decay=-0.000100
quickprop_mu=1.750000
rprop_increase_factor=1.001000
rprop_decrease_factor=0.500000
rprop_delta_min=0.000000
rprop_delta_max=50.000000
rprop_delta_zero=0.100000
cascade_output_stagnation_epochs=12
cascade_candidate_change_fraction=0.010000
cascade_candidate_stagnation_epochs=12
cascade_max_out_epochs=150
cascade_max_cand_epochs=150
cascade_num_candidate_groups=2
bit_fail_limit=3.49999999999999977796e-01
cascade_candidate_limit=1.00000000000000000000e+03
cascade_weight_multiplier=4.00000000000000022204e-01
cascade_activation_functions_count=10
cascade_activation_functions=3 5 7 8 10 11 14 15 16 17 
cascade_activation_steepnesses_count=4
cascade_activation_steepnesses=2.50000000000000000000e-01 5.00000000000000000000e-01 7.50000000000000000000e-01 1.00000000000000000000e+00 
layer_sizes=71 31 2 
scale_included=0
neurons (num_inputs, activation_function, activation_steepness)=(0, 0, 0.00000000000000000000e+00) (0, 0, 0.00000000000000000000e+00) (0, 0, 0.00000000000000000000e+00) (0, 0, 0.00000000000000000000e+00) (0, 0, 0.00000000000000000000e+00) (0, 0, 0.00000000000000000000e+00) (0, 0, 0.00000000000000000000e+00) (0, 0, 0.00000000000000000000e+00) (0, 0, 0.00000000000000000000e+00) (0, 0, 0.00000000000000000000e+00) (0, 0, 0.00000000000000000000e+00) (0, 0, 0.00000000000000000000e+00) (0, 0, 0.00000000000000000000e+00) (0, 0, 0.00000000000000000000e+00) (0, 0, 0.00000000000000000000e+00) (0, 0, 0.00000000000000000000e+00) (0, 0, 0.00000000000000000000e+00) (0, 0, 0.00000000000000000000e+00) (0, 0, 0.00000000000000000000e+00) (0, 0, 0.00000000000000000000e+00) (0, 0, 0.00000000000000000000e+00) (0, 0, 0.00000000000000000000e+00) (0, 0, 0.00000000000000000000e+00) (0, 0, 0.00000000000000000000e+00) (0, 0, 0.00000000000000000000e+00) (0, 0, 0.00000000000000000000e+00) (0, 0, 0.00000000000000000000e+00) (0, 0, 0.00000000000000000000e+00) (0, 0, 0.00000000000000000000e+00) (0, 0, 0.00000000000000000000e+00) (0, 0, 0.00000000000000000000e+00) (0, 0, 0.00000000000000000000e+00) (0, 0, 0.00000000000000000000e+00) (0, 0, 0.00000000000000000000e+00) (0, 0, 0.00000000000000000000e+00) (0, 0, 0.00000000000000000000e+00) (0, 0, 0.00000000000000000000e+00) (0, 0, 0.00000000000000000000e+00) (0, 0, 0.00000000000000000000e+00) (0, 0, 0.00000000000000000000e+00) (0, 0, 0.00000000000000000000e+00) (0, 0, 0.00000000000000000000e+00) (0, 0, 0.00000000000000000000e+00) (0, 0, 0.00000000000000000000e+00) (0, 0, 0.00000000000000000000e+00) (0, 0, 0.00000000000000000000e+00) (0, 0, 0.00000000000000000000e+00) (0, 0, 0.00000000000000000000e+00) (0, 0, 0.00000000000000000000e+00) (0, 0, 0.00000000000000000000e+00) (0, 0, 0.00000000000000000000e+00) (0, 0, 0.00000000000000000000e+00) (0, 0, 0.00000000000000000000e+00) (0, 0, 0.00000000000000000000e+00) (0, 0, 0.00000000000000000000e+00) (0, 0, 0.00000000000000000000e+00) (0, 0, 0.00000000000000000000e+00) (0, 0, 0.00000000000000000000e+00) (0, 0, 0.00000000000000000000e+00) (0, 0, 0.00000000000000000000e+00) (0, 0, 0.00000000000000000000e+00) (0, 0, 0.00000000000000000000e+00) (0, 0, 0.00000000000000000000e+00) (0, 0, 0.00000000000000000000e+00) (0, 0, 0.00000000000000000000e+00) (0, 0, 0.00000000000000000000e+00) (0, 0, 0.00000000000000000000e+00) (0, 0, 0.00000000000000000000e+00) (0, 0, 0.00000000000000000000e+00) (0, 0, 0.00000000000000000000e+00) (0, 0, 0.00000000000000000000e+00) (71, 4, 5.00000000000000000000e-01) (71, 4, 5.00000000000000000000e-01) (71, 4, 5.00000000000000000000e-01) (71, 4, 5.00000000000000000000e-01) (71, 4, 5.00000000000000000000e-01) (71, 4, 5.00000000000000000000e-01) (71, 4, 5.00000000000000000000e-01) (71, 4, 5.00000000000000000000e-01) (71, 4, 5.00000000000000000000e-01) (71, 4, 5.00000000000000000000e-01) (71, 4, 5.00000000000000000000e-01) (71, 4, 5.00000000000000000000e-01) (71, 4, 5.00000000000000000000e-01) (71, 4, 5.00000000000000000000e-01) (71, 4, 5.00000000000000000000e-01) (71, 4, 5.00000000000000000000e-01) (71, 4, 5.00000000000000000000e-01) (71, 4, 5.00000000000000000000e-01) (71, 4, 5.00000000000000000000e-01) (71, 4, 5.00000000000000000000e-01) (71, 4, 5.00000000000000000000e-01) (71, 4, 5.00000000000000000000e-01) (71, 4, 5.00000000000000000000e-01) (71, 4, 5.00000000000000000000e-01) (71, 4, 5.00000000000000000000e-01) (71, 4, 5.00000000000000000000e-01) (71, 4, 5.00000000000000000000e-01) (71, 4, 5.00000000000000000000e-01) (71, 4, 5.00000000000000000000e-01) (71, 4, 5.00000000000000000000e-01) (0, 4, 5.00000000000000000000e-01) (31, 4, 9.00000000000000022204e-01) (0, 4, 9.00000000000000022204e-01) 
connections (connected_to_neuron, weight)=(0, -1.50000000000000000000e+03) (1, -9.85058673091299219493e+00) (2, -1.50000000000000000000e+03) (3, 9.31966191825547873862e+00) (4, -1.63081121605306378797e+02) (5, -1.17282593794044593949e+01) (6, -3.17149112866396365007e+02) (7, -1.53880220852623992300e+01) (8, -5.71323500832329955301e+02) (9, -1.23027607444697562045e+01) (10, -1.50000000000000000000e+03) (11, -2.51308284913027044638e+01) (12, 1.50000000000000000000e+03) (13, 2.74215719636131609604e+01) (14, -1.50000000000000000000e+03) (15, 2.06032594095062506767e+01) (16, 2.68153689929052703178e+01) (17, 4.20303865195031747248e+01) (18, 4.63081005044522697744e+01) (19, -2.51793020379548622145e+01) (20, 2.36820063249077819023e+01) (21, -2.32751324113648792036e+02) (22, -1.50000000000000000000e+03) (23, -4.34141440381484073896e+01) (24, -1.50000000000000000000e+03) (25, 1.88024846049497433853e+01) (26, 1.50000000000000000000e+03) (27, 9.85285645916354191343e+00) (28, 1.38277595830898150098e+02) (29, -2.21467406737116928594e-01) (30, 1.00165260655293047876e+03) (31, -2.31140961246788307903e+01) (32, 3.10665179045009494985e+02) (33, -6.21149994607476152453e+00) (34, 1.50000000000000000000e+03) (35, 7.97539420902532025792e+00) (36, -1.50000000000000000000e+03) (37, -2.27432632325291308462e+01) (38, 2.03595292986408566094e+02) (39, -2.93994188725910134963e+01) (40, -1.55906639647417186723e+01) (41, -1.03396900824201019020e+01) (42, 1.72744556498974000114e+00) (43, -9.84046712567678838468e+00) (44, -1.50000000000000000000e+03) (45, -1.59325355377542532409e+01) (46, -2.40021802779637852154e+02) (47, -2.34170151627345433099e+01) (48, 4.89467465941832188037e+02) (49, -7.05123508060339787562e+01) (50, 7.15663756611397843699e+02) (51, -2.88933540598017266632e+01) (52, 8.23835518834161234736e+02) (53, 2.80365114594670892245e+01) (54, -1.95481276155795484328e+02) (55, 1.01694165093794524068e+01) (56, -1.40679520097725981032e+03) (57, -1.68314098633325635035e+01) (58, -2.54744570110948700403e+01) (59, -3.34265313778933648159e-01) (60, -1.50000000000000000000e+03) (61, -5.22432563180792364221e+00) (62, -7.25097810360269249941e+02) (63, 7.91461878367586280092e+00) (64, -1.50000000000000000000e+03) (65, 8.68163296755296443052e+00) (66, 8.83369307036919906295e+01) (67, -1.19902270694673767082e+01) (68, -1.50000000000000000000e+03) (69, -1.77497604592326219120e+01) (70, -1.91629023936253197746e+01) (0, -1.50000000000000000000e+03) (1, 2.80668560488315250723e+01) (2, -1.50000000000000000000e+03) (3, -7.07697692924325760799e+00) (4, 5.70887460521093316856e+02) (5, 9.56795116203401718735e+00) (6, -1.33073629081119868545e+01) (7, 1.21754873965459999852e+01) (8, 1.39064670519885294198e+03) (9, 2.08132738309728821946e+01) (10, -9.32884889195148616636e+01) (11, 9.80036275184876615185e+00) (12, 1.50000000000000000000e+03) (13, -2.65895724424847514911e+01) (14, -1.50000000000000000000e+03) (15, 3.83976034904144425397e+00) (16, 2.84174768706453058087e+01) (17, 9.98142311357397993277e+00) (18, 1.45858529948932937259e+03) (19, 2.86536087106916781408e+01) (20, 2.81320132142317147483e+00) (21, -1.88675469272122384723e+01) (22, -1.50000000000000000000e+03) (23, 1.80506363470831732165e+00) (24, -1.50000000000000000000e+03) (25, -1.39303844631274742483e+00) (26, 1.50000000000000000000e+03) (27, 1.88772229950481040817e+01) (28, -5.81047117585328805944e+02) (29, 2.13573740545048593731e+01) (30, 1.49955113244738754474e+03) (31, 7.27797216494397858355e+00) (32, 9.12769583285175656329e+01) (33, -1.88074371821922845527e+01) (34, -1.34878868154600326079e+02) (35, 3.79251262743233308328e+00) (36, -1.56448566567464162347e+01) (37, -1.64330650957750705743e+01) (38, 2.81312471850159830922e+01) (39, 4.73090410386307791413e+00) (40, 1.23473416790982795987e+02) (41, -3.35668503710388144157e+00) (42, -1.15984051372141243519e+03) (43, 2.52557159610795274318e+01) (44, -3.47473015799655300384e+01) (45, 7.64195669288313395029e-01) (46, -1.62275034674278543889e+02) (47, -1.13276376104940013079e+00) (48, 1.50000000000000000000e+03) (49, -3.64893433643088727081e+00) (50, 2.46184074910767634492e+02) (51, 2.11139716205601395416e+01) (52, -1.95194995711762629753e+02) (53, 2.92925762644278790958e+01) (54, 7.14223410779501023171e+02) (55, -7.25240851023761479155e+00) (56, 7.85432631236473071112e+01) (57, -6.18700385355119664155e+00) (58, -1.52288483416933075887e+02) (59, 1.16797599786493808693e+01) (60, -2.40684646594966721977e+02) (61, -6.97238599060163055654e-01) (62, 3.23031001371177737269e+01) (63, 2.61010745817232105992e+01) (64, -1.50000000000000000000e+03) (65, -5.57421247929361207696e-01) (66, 6.91719631667659911045e+01) (67, 2.60891030988912184796e+01) (68, -1.50000000000000000000e+03) (69, -1.66681493660580173355e+01) (70, -2.81017161404524209445e+01) (0, -1.50000000000000000000e+03) (1, -2.00644823145846764589e+01) (2, -1.50000000000000000000e+03) (3, 2.32681894684338992363e+01) (4, -1.09483342815307366891e+02) (5, -7.23531600418074383185e+00) (6, -1.59327339654359690257e+02) (7, -7.55256491313752231775e+00) (8, 4.65372925006993341412e+02) (9, -1.64257466964470744131e+00) (10, -1.50000000000000000000e+03) (11, -1.46015378051560489325e+01) (12, 1.50000000000000000000e+03) (13, -1.37768488646496951588e+01) (14, -1.50000000000000000000e+03) (15, 3.92812757260173617269e+00) (16, 2.65055384530197919446e+01) (17, 5.29080613170853411020e+01) (18, 4.95295772556876841008e+01) (19, 2.53406817762318459231e+00) (20, 3.72528982163628308300e+00) (21, -2.45047823287120849045e+02) (22, -1.50000000000000000000e+03) (23, 9.84805397462263698571e+00) (24, -1.50000000000000000000e+03) (25, -1.96075893386593627099e+01) (26, 1.50000000000000000000e+03) (27, -1.62425204387543260509e+01) (28, -4.30774968174726069492e+00) (29, -5.81654570726355135690e+00) (30, 1.50000000000000000000e+03) (31, -1.51232228307054093752e-02) (32, 1.19570680992921126062e+02) (33, -1.84213921067230512740e+00) (34, 1.50000000000000000000e+03) (35, -2.83717926363504036047e+00) (36, -1.50000000000000000000e+03) (37, -1.79968387113216010675e+01) (38, 7.43232049111515067352e+01) (39, -7.36036229568252653443e-01) (40, -1.85618416981382985398e+01) (41, -2.39574535457193746879e+01) (42, 8.81246238852429364385e+00) (43, 3.18587344001042716002e+01) (44, -1.50000000000000000000e+03) (45, -1.62169252712368638925e+01) (46, -1.26991366567806124976e+02) (47, -2.08644928971526653072e+01) (48, 9.95238518040400776954e+02) (49, -5.34428031867072306227e+01) (50, 3.60230542044120284118e+02) (51, -3.51458921322006290211e+01) (52, 4.38898175455433886327e+02) (53, -3.64877283483465362224e+01) (54, 6.53106295202279397927e+02) (55, -2.87550973404793452914e+01) (56, -1.43901399903684159653e+03) (57, -7.48477348002814402150e+00) (58, -6.91807517868207497713e+01) (59, 2.28426429803375015126e+01) (60, -7.49321689404001631374e+02) (61, 3.31473703329909952231e+01) (62, -3.56775178928020295643e+02) (63, -3.00485175457955193679e+01) (64, -1.50000000000000000000e+03) (65, -9.64828854080171183227e+00) (66, 4.86867821814175485429e+01) (67, -1.33602317684360016870e+00) (68, -1.50000000000000000000e+03) (69, 5.36881879160319291922e-02) (70, -1.43707087667873807391e+01) (0, 1.50000000000000000000e+03) (1, 9.81282369169102430817e+00) (2, 1.50000000000000000000e+03) (3, 1.74248242977897938033e+00) (4, 1.92944428573849705799e+02) (5, 3.30696069417993427919e+01) (6, 3.18894044822404737261e+02) (7, 2.03899275538833428811e+01) (8, 5.78184725518952063794e+02) (9, -3.00088953745475572887e+00) (10, 1.50000000000000000000e+03) (11, 2.09692529385136730014e+01) (12, -1.50000000000000000000e+03) (13, -1.25156779153320059095e+01) (14, 1.50000000000000000000e+03) (15, -1.88487878250156448701e+01) (16, -1.61605854184187975875e+01) (17, -4.41238879108187731504e+01) (18, -7.02894014719848598816e+01) (19, 5.08807976140481059701e+01) (20, 3.67027610792077441104e+00) (21, 2.15853733074839539086e+02) (22, 1.50000000000000000000e+03) (23, 1.70794559562109675710e+01) (24, 1.50000000000000000000e+03) (25, -1.87559041931509433709e+01) (26, -1.50000000000000000000e+03) (27, 1.49977328738909267969e+01) (28, -9.61469021025911558809e+01) (29, 4.09061131332819627460e+00) (30, -5.93970930217840873411e+02) (31, 1.05666546122723503665e+00) (32, -2.78912951325384824486e+02) (33, -2.45212503028373589586e+01) (34, -1.50000000000000000000e+03) (35, 1.94816609500495063756e+00) (36, 1.50000000000000000000e+03) (37, 7.23088241508113416245e+00) (38, -1.80988334820363434119e+02) (39, -8.38337383912795175434e+00) (40, -7.58773434980809025063e+00) (41, 1.71824308672809031862e+01) (42, 7.05807677191088611579e+00) (43, -1.48066294684623098732e+01) (44, 1.50000000000000000000e+03) (45, -8.63220963547446018538e+00) (46, 2.13362682358841453834e+02) (47, 3.40969977476278955919e+01) (48, -4.79842222812145962507e+02) (49, 5.91851702148755194344e+01) (50, -6.68304164247581070413e+02) (51, 5.01146719090222916293e+01) (52, -8.19729260596219774015e+02) (53, -1.12874445209431839565e+00) (54, 2.12521416784737738226e+02) (55, 1.50187464559099286276e+01) (56, 1.44142489729644466934e+03) (57, -1.07608901380459496266e+01) (58, 3.22924298216510194948e+01) (59, 8.78671056866517474759e+00) (60, 1.50000000000000000000e+03) (61, 2.74640583495757084620e+01) (62, 7.49281467460669205138e+02) (63, 2.02736460410506591501e+00) (64, 1.50000000000000000000e+03) (65, -3.23203074142850823591e+01) (66, -4.37312290663190950113e+01) (67, -1.76653053760964979801e+01) (68, 1.50000000000000000000e+03) (69, 2.21084248643130258927e+01) (70, 2.51428791292109430344e+01) (0, -1.50000000000000000000e+03) (1, 1.75857218137033086691e+01) (2, -1.50000000000000000000e+03) (3, -2.23968951385092189810e+01) (4, -1.38998804875770110812e+03) (5, 1.26187975194876287333e+01) (6, -1.25328922049938864802e+03) (7, 2.13993531534183816234e+01) (8, -4.46151806321209221551e+02) (9, 1.74285172100090086644e+01) (10, -2.63653517395227154907e+01) (11, 9.87464987068887189992e+00) (12, 1.50000000000000000000e+03) (13, -8.84131989292303011041e+00) (14, -1.50000000000000000000e+03) (15, 6.75564991472743958667e+00) (16, 2.99222956927937140392e+01) (17, 3.20969122342586477004e+00) (18, -1.11081519795214003210e+01) (19, 2.89177301950156433463e+01) (20, 2.43970779184780894866e+01) (21, -1.78385970672876545962e+01) (22, -1.50000000000000000000e+03) (23, 1.43301145630864610325e+01) (24, -1.50000000000000000000e+03) (25, -2.43232207470303691821e+01) (26, -3.24574593036984651917e+02) (27, -1.51113871364652272433e+01) (28, 2.13879721540714569983e+02) (29, -2.28561196978805227786e+01) (30, -1.52032919912540975815e+01) (31, -1.02393730731776582132e+01) (32, 1.47783473072871061049e+02) (33, -4.45338829158927467233e+01) (34, 3.34122542954340303822e+02) (35, -1.58443860297297001161e+00) (36, 4.44585346833344885908e+02) (37, 5.71504916760645365059e+00) (38, 1.07952481826261282549e+03) (39, -2.58822208473316344168e+01) (40, 2.93388474998301660435e+01) (41, -1.25914669581961771172e+01) (42, 2.43532331158499204093e+02) (43, -5.36949806296715248521e+00) (44, 4.20913836756778778181e+02) (45, 3.80492063744043607088e+00) (46, 3.64604213740030843383e+02) (47, 2.20793650921446804603e+01) (48, 1.50000000000000000000e+03) (49, 3.95387488451514501619e+00) (50, -1.50000000000000000000e+03) (51, -2.12452146160860273483e+01) (52, 9.08437450615277839461e+02) (53, 7.23647057248974157062e-01) (54, 1.75593167896241027393e+02) (55, -9.60864493981434364400e+00) (56, -2.54797620237098350060e+01) (57, 2.75581035928722872796e+00) (58, 1.26175596211492297982e+01) (59, 1.75238656238102308293e+01) (60, 7.77968886753821351476e+01) (61, 1.10328790239010068319e+01) (62, -1.50000000000000000000e+03) (63, -9.23349703165117929871e+00) (64, -1.50000000000000000000e+03) (65, 1.47392489477504788908e+01) (66, 6.17265907491969514354e+01) (67, 1.49674297471177695229e+01) (68, -1.50000000000000000000e+03) (69, 5.85766663968103440396e+00) (70, -5.95455626822433448098e+00) (0, -1.50000000000000000000e+03) (1, 3.40233346192686025855e-01) (2, -1.50000000000000000000e+03) (3, 1.41386375039820801902e+01) (4, 1.86614685873722805809e+02) (5, 1.21280079046296744849e+01) (6, 8.40761465871681252793e+01) (7, -1.06371640683130070926e+01) (8, 4.43009865155370221146e+02) (9, 1.84991509778314977552e+00) (10, -1.50000000000000000000e+03) (11, -1.72502214155870987611e+01) (12, 1.50000000000000000000e+03) (13, -1.95642071762395830525e+00) (14, -1.50000000000000000000e+03) (15, -1.13397460526385995827e-01) (16, 8.40673566271262906469e+00) (17, -1.78993185296106140925e+01) (18, 3.38188217746555537246e+01) (19, 2.60951172378248053008e+01) (20, 7.60737174842257513063e+00) (21, 2.19155229758404992424e+01) (22, -1.50000000000000000000e+03) (23, -2.10429233457219133641e+01) (24, -1.50000000000000000000e+03) (25, -1.02731278154966787497e+01) (26, -5.21538948036516217144e+02) (27, 3.67305361336413085382e+01) (28, 1.08058787591254457539e+02) (29, -5.06401306099426040674e+00) (30, -2.43101394142176218338e+02) (31, -3.17610969124864661595e+00) (32, 3.00038725560909043111e+01) (33, -3.53351470044700688433e+00) (34, 2.45644016899394301845e+01) (35, -1.04281612739623241737e+01) (36, 1.05433174348303396073e+03) (37, 3.38793697675661942270e+00) (38, -1.37430796532423791234e+01) (39, -1.66032529071783478969e+01) (40, 3.88800159832542391314e+01) (41, 9.49651762775690144736e+00) (42, -2.63224092547025350086e+01) (43, -2.34777155102524126562e+01) (44, -8.17413851679102890557e+02) (45, -1.74803627182507526072e+01) (46, -5.31696260230511441591e+00) (47, 5.26379456531164802158e+00) (48, 9.41595512895077831672e+02) (49, 1.76424393147194393805e+01) (50, 2.72183235466222015475e+01) (51, -2.14838191776605071937e+01) (52, -1.50000000000000000000e+03) (53, -1.01026202340399677837e+01) (54, 1.50000000000000000000e+03) (55, -2.63645324319205336394e+01) (56, -3.98997176495592441370e+02) (57, 7.96825992106691405326e+00) (58, 2.62112471546136980294e+01) (59, -9.23043173798164318100e+00) (60, 2.51824938079391557721e+02) (61, 1.58362122518326575715e+01) (62, 8.91156790717655667322e+02) (63, -6.99922250106063703612e+00) (64, -1.50000000000000000000e+03) (65, 6.84490334708241476847e+00) (66, 5.31714272018002915843e+01) (67, -7.01202299222262492862e+00) (68, -1.50000000000000000000e+03) (69, -8.58991831982333309270e+00) (70, 6.55300970192319631735e+00) (0, 1.50000000000000000000e+03) (1, 7.15556287117653422314e+00) (2, 1.50000000000000000000e+03) (3, 1.48264246789497349255e+01) (4, 2.12428479324582241361e+02) (5, 7.81677931825026561796e+00) (6, 3.21742351478288640010e+02) (7, 1.94876276729018655942e+01) (8, 5.78184725518952063794e+02) (9, 1.27093644164788006634e+01) (10, 1.50000000000000000000e+03) (11, 1.64880934283803242124e+01) (12, -1.50000000000000000000e+03) (13, 1.11233212889863430917e+01) (14, 1.50000000000000000000e+03) (15, 1.07480683724150161140e+01) (16, -4.78004075594318322828e+00) (17, -4.96534350100719876764e+01) (18, -5.97823957804567811536e+01) (19, -2.43349782207877041174e+01) (20, 2.33886642387566752177e+01) (21, 2.43386053574259875631e+02) (22, 1.50000000000000000000e+03) (23, 3.62744833075912964659e+01) (24, 1.50000000000000000000e+03) (25, 3.21557540635102441229e+01) (26, -1.50000000000000000000e+03) (27, 3.59410997365106732460e-01) (28, -7.29707265082612934748e+01) (29, -3.41610331089569241314e+00) (30, -1.50000000000000000000e+03) (31, 8.59638385073830768590e+00) (32, -2.86178773735968377423e+02) (33, 2.80380644249458441664e+01) (34, -1.50000000000000000000e+03) (35, -9.94777591370273306381e+00) (36, 1.50000000000000000000e+03) (37, -1.45790437967527761742e+01) (38, -2.03300642535779587661e+02) (39, 8.66972269127746564266e+00) (40, -1.16198284918787830833e+01) (41, -1.10237188748895675872e+01) (42, -1.76495576770941582367e+01) (43, -1.44768151309141988037e+01) (44, 1.50000000000000000000e+03) (45, 4.95538840183576123621e+00) (46, 2.29377334909062057022e+02) (47, 2.82883451082389782982e+01) (48, -4.79842222812145962507e+02) (49, 7.62651548797923481970e+01) (50, -7.08975936250756490153e+02) (51, 3.62486400238750690050e+01) (52, -8.11749688300077309577e+02) (53, -1.46748895564012062920e+01) (54, 2.12521416784737738226e+02) (55, 5.57729121843549524584e+00) (56, 1.44142489729644466934e+03) (57, 2.22365714458794734298e+01) (58, 5.73452896048236766546e+01) (59, 1.92140987693944192971e-01) (60, 1.50000000000000000000e+03) (61, 1.01407174053381119450e+01) (62, 7.11141344093358043210e+02) (63, 3.20113591434514743739e+00) (64, 1.50000000000000000000e+03) (65, 1.52129906755679211727e+01) (66, -4.76127054686017814333e+01) (67, 1.13485505351148923125e+01) (68, 1.50000000000000000000e+03) (69, 1.18653399617118306963e+01) (70, 3.19116193806260781685e+01) (0, -1.50000000000000000000e+03) (1, -8.72710232948548814136e+00) (2, -1.50000000000000000000e+03) (3, -5.03514328029624991245e+00) (4, -6.28893201567921309447e+01) (5, -9.35471144363150308720e+00) (6, -2.76760692072971110633e+01) (7, -4.01196344949023053772e+00) (8, -3.67978899197970434898e+01) (9, 3.13831247660707859382e+01) (10, -1.19654309106304185661e+03) (11, 2.13929918729198220717e+01) (12, 1.50000000000000000000e+03) (13, -2.10060867425069552894e+01) (14, -1.50000000000000000000e+03) (15, -1.89160632318751242842e-01) (16, 2.36151701595251601873e+01) (17, 6.12065605445679423724e+01) (18, 1.96223399081247180220e+02) (19, -2.29287715402495839712e+00) (20, 1.60525495295186182432e+01) (21, -8.01731789312019600402e+01) (22, -1.50000000000000000000e+03) (23, 2.31000719324541954336e+01) (24, -1.50000000000000000000e+03) (25, 9.65648947130625856516e+00) (26, 1.50000000000000000000e+03) (27, 5.99748809142804351069e+00) (28, 6.90795297695335790422e+01) (29, 1.24256440715130445085e+01) (30, 1.49993835622837968913e+03) (31, -2.34556994745378588618e+01) (32, 6.91058484002365958077e+02) (33, -2.72010992855642079746e+01) (34, 1.50000000000000000000e+03) (35, 2.40559574018418631525e+00) (36, -1.30547624276570172697e+03) (37, -5.20175033476567847401e+01) (38, 1.28246611591511374684e+01) (39, 3.12749085842309559879e+00) (40, 5.87141317752677167618e+01) (41, -4.79401868398915720348e+00) (42, 1.13725945941568852504e+03) (43, -3.13226413686380800172e+00) (44, 3.60551431218447305582e+02) (45, -1.30142012485343503414e+01) (46, -1.08925355948525350414e+02) (47, 1.66574621470295518577e+01) (48, 1.50000000000000000000e+03) (49, -1.75965368513707387521e+00) (50, 2.11956346842549727683e+01) (51, 1.02171654187037201922e+01) (52, 2.33866826838804911404e+02) (53, 1.90170216249843591072e+01) (54, 8.89876356846860062433e+02) (55, 4.69860352664222880037e+00) (56, 2.17109918466475420473e+02) (57, -1.24978559458077729261e+01) (58, -2.65981887061850805765e+01) (59, 8.43014239365710515983e+00) (60, 2.93722705115523694985e+02) (61, 1.26090560787458301206e+01) (62, -3.55248978397570340348e+02) (63, -2.78591629501388338142e+00) (64, -1.50000000000000000000e+03) (65, 7.96636512933077689524e+00) (66, 6.61293205733821736203e+01) (67, -9.29273809749397772251e-01) (68, -1.50000000000000000000e+03) (69, -9.66409219687246512365e+00) (70, 2.16026136271459208160e+01) (0, 1.50000000000000000000e+03) (1, 2.33944627579457282707e+01) (2, 1.50000000000000000000e+03) (3, 9.14607195337647915778e+00) (4, 1.69343814979794615283e+02) (5, 1.53713279707376564431e+01) (6, 3.35473364776323592196e+02) (7, 3.17524119079170468183e+01) (8, 5.78184725518952063794e+02) (9, 3.55818511281440521543e+01) (10, 1.50000000000000000000e+03) (11, 2.40302251632065200226e+01) (12, -1.50000000000000000000e+03) (13, 5.08613809905080849205e+00) (14, 1.50000000000000000000e+03) (15, -1.21640603032766563274e+01) (16, -1.91288346636896982034e+01) (17, -9.15434087166991616868e+00) (18, -6.82466650297956363147e+01) (19, 1.16552289667543576002e+01) (20, -4.15809729949548909644e+01) (21, 1.12573123296003427640e+03) (22, 1.50000000000000000000e+03) (23, 3.84799113952597480193e+01) (24, 1.50000000000000000000e+03) (25, -1.15679635369679800760e+01) (26, -1.50000000000000000000e+03) (27, -1.35804040975085946741e+01) (28, -4.52739138889518187625e+02) (29, -2.56401661018735254061e+01) (30, -7.43651905772845225329e+02) (31, -2.51427765908068039380e+01) (32, -3.08543391513056178610e+02) (33, 7.16196067321063623012e+00) (34, -1.50000000000000000000e+03) (35, -1.29003491386864528323e+01) (36, 1.50000000000000000000e+03) (37, 1.59778544688960906228e+01) (38, -2.15782679126355702692e+02) (39, 1.66634089614151434944e+01) (40, 8.07304898534220605200e+00) (41, 9.03028161802220452614e-01) (42, -1.24313905564380135615e+02) (43, -1.14944708119963969750e+01) (44, 1.50000000000000000000e+03) (45, -2.48190637413862198457e+01) (46, 8.74984509966798100322e+02) (47, 4.08649656643637229081e+01) (48, -4.79842222812145962507e+02) (49, 9.57357875997444551786e+01) (50, -6.81744803201251784230e+02) (51, 5.43277962546883586015e+01) (52, -1.39793657235740442957e+03) (53, -1.29834657694842157127e+01) (54, -1.07272466372482358565e+03) (55, -2.14271605835886624902e+00) (56, 1.48085564022379571725e+03) (57, -2.73404791777950499920e+01) (58, 1.81628075651831473181e+01) (59, 2.80735388671410923678e+01) (60, -5.70358624569387188785e+02) (61, -6.32900246053957786785e+01) (62, 1.46406322820491755010e+03) (63, 8.66309025852104497289e+00) (64, 1.50000000000000000000e+03) (65, -2.32198840850350904930e+01) (66, -4.68368418211408439333e+01) (67, 6.05357588198309137795e+00) (68, 1.50000000000000000000e+03) (69, -3.05516387317249851208e+01) (70, 2.40657190084708147992e+01) (0, -1.50000000000000000000e+03) (1, 1.95320356966764556716e+01) (2, -1.50000000000000000000e+03) (3, 1.21265257035806559571e+01) (4, -2.85632595618174249807e+01) (5, 9.62793096836794681792e+00) (6, -5.49383237029319744238e+01) (7, 2.89409231275162603936e+01) (8, 7.86923331727639720157e+02) (9, 2.06561363107253426197e-01) (10, -1.50000000000000000000e+03) (11, -7.64482675873043060477e+00) (12, 1.50000000000000000000e+03) (13, 3.72728911682521069082e+00) (14, -1.50000000000000000000e+03) (15, -1.70080351226135881859e+01) (16, 2.00140052362076268366e+01) (17, 8.94018994480325801533e+00) (18, 1.72593241801436043659e+01) (19, 5.00242967054579779074e+00) (20, 1.92235155415055238848e+01) (21, -7.74633395254321328594e+01) (22, -1.50000000000000000000e+03) (23, -1.14688184925036775752e+01) (24, -1.50000000000000000000e+03) (25, 1.05136678536410066442e+01) (26, 1.50000000000000000000e+03) (27, 2.04014683704234407458e+01) (28, 2.95558128064649672240e+01) (29, -1.14441405749185847185e+01) (30, 8.25037037087049043294e+02) (31, -2.88724707250998591235e+01) (32, 8.30417547258947053024e+01) (33, 2.37788943663297525077e+00) (34, 1.17798640551743847027e+03) (35, 9.88590369862050977190e+00) (36, -8.15613195788565349176e+02) (37, -1.50915728556587538378e+01) (38, 4.36620510977863176549e+01) (39, 1.10602892507457362115e+01) (40, -1.69479796645267200006e+00) (41, 3.94429054463358230720e+00) (42, 2.62559965849899441537e+01) (43, 4.94672754168984596390e+00) (44, -1.50000000000000000000e+03) (45, -1.22099864977443886005e+01) (46, -1.24549009598882747696e+02) (47, 5.16066792776948002341e-01) (48, 1.24789225460557713632e+03) (49, -1.11527108588782173371e+01) (50, 2.11965402167649898502e+02) (51, -3.32097991562351211314e+01) (52, 2.21204675652664803920e+02) (53, -1.47576496569641513190e+01) (54, 1.07697619117788030962e+03) (55, 1.50508282847548535699e+00) (56, -1.46953746347845685705e+03) (57, 3.29065274308038127060e+01) (58, -4.44889131342686070525e+01) (59, -1.49640874953243852019e+00) (60, -3.64777747096812561267e+02) (61, 8.06270423673387970354e-01) (62, -1.49728838912031505970e+02) (63, -2.68755130402392623523e+01) (64, -1.50000000000000000000e+03) (65, 1.09857934734818556421e+01) (66, 1.53969479312800707760e+01) (67, -1.55232381212713956842e+01) (68, -1.50000000000000000000e+03) (69, 1.82641387499333660571e+01) (70, -3.25705668134734906971e+01) (0, -1.50000000000000000000e+03) (1, -1.48510211238317442195e+01) (2, -1.50000000000000000000e+03) (3, -1.57586280080211178500e+01) (4, -1.54958836716085102125e+02) (5, 1.58899665308318773782e+01) (6, -3.54431141064638097760e+02) (7, -1.28912638331956941329e+02) (8, -5.71323500832329955301e+02) (9, 1.26716081693971727162e+01) (10, -1.50000000000000000000e+03) (11, -2.15013524887686067188e+01) (12, 1.50000000000000000000e+03) (13, -1.85708280731323327473e+01) (14, -1.50000000000000000000e+03) (15, -1.46114754893525500279e+01) (16, -1.73700796284241198997e+00) (17, 2.99966057770681437944e+00) (18, 2.47376618911254553268e+01) (19, -1.64985658689074696781e+01) (20, -3.09048686841506992096e-01) (21, -1.50000000000000000000e+03) (22, -1.50000000000000000000e+03) (23, -5.86862642380504894390e+02) (24, -1.50000000000000000000e+03) (25, 1.73579784895100956987e+01) (26, 1.50000000000000000000e+03) (27, 4.06585437064354593417e+00) (28, 7.12821043644765381941e+01) (29, -1.51388928426724316267e+01) (30, 4.28605891727760422327e+02) (31, 1.17043207898812156031e+01) (32, 3.01753234655666176423e+02) (33, -4.72775290926434665906e-01) (34, 1.50000000000000000000e+03) (35, 3.13770721833172814286e+01) (36, -1.50000000000000000000e+03) (37, -3.02709062049193171617e+01) (38, 5.68970094214785007125e+01) (39, 2.17118333843617996592e+01) (40, 2.10621464717893509544e+01) (41, 1.02225212261625078014e+01) (42, 2.62226438148065454925e+01) (43, -2.17015294016925892606e+01) (44, -1.50000000000000000000e+03) (45, 3.24861679673303953564e+01) (46, -2.29770004085956912832e+02) (47, -3.30381545446500410890e+01) (48, 1.24789225460557713632e+03) (49, 4.27145454572860838738e+00) (50, 6.94965132477333213501e+02) (51, -4.74368662198710495659e+01) (52, 1.47463575521956340708e+03) (53, -8.73972702952355717798e+00) (54, -1.95481276155795484328e+02) (55, 7.32459260093534947345e+00) (56, -1.40679520097725981032e+03) (57, -1.10014371041568619347e+01) (58, -4.41210925434741341178e+01) (59, -3.64516852374303184092e+01) (60, -1.50000000000000000000e+03) (61, 5.05243913589159774347e+01) (62, -3.81955973884783873018e+02) (63, -1.12979505929354235860e+01) (64, -1.50000000000000000000e+03) (65, -3.65396515218474493558e-01) (66, 4.33882555480527472014e+01) (67, 2.31080874230710904271e+01) (68, -1.50000000000000000000e+03) (69, -2.24768710507941493759e+00) (70, -2.14026446132978236392e+01) (0, 1.50000000000000000000e+03) (1, 2.07172853310923332781e-01) (2, 1.50000000000000000000e+03) (3, 1.45826834953315529475e+01) (4, -4.91879490954818550108e+02) (5, -2.42107808350551323429e+01) (6, 1.96400010881454818445e+01) (7, -2.50354798032602339219e+01) (8, 1.10897507239707763915e+02) (9, -4.51368924120232162256e-01) (10, 1.49972838575382252202e+03) (11, 2.10172509422663829071e+01) (12, -1.50000000000000000000e+03) (13, -6.88990885357852711479e+00) (14, 1.50000000000000000000e+03) (15, 1.42907073182449355642e+01) (16, -6.16719397818514547538e+00) (17, 4.96771256034290509263e+00) (18, -4.83956833640823106180e+02) (19, -1.03488024502336006805e+01) (20, 2.85670516195248247460e-01) (21, 1.13569139441226543141e+01) (22, 1.50000000000000000000e+03) (23, -1.04931625188220998268e+01) (24, 1.50000000000000000000e+03) (25, 1.04905005988764710168e+00) (26, -7.52211382791319692842e+02) (27, 5.34342897518885612262e-02) (28, -3.52818410479063629737e+02) (29, -1.06154939455647667756e+00) (30, -1.49113521123632767740e+03) (31, -2.03633875758402282941e+01) (32, -1.44622187770194841505e+02) (33, 1.04719580383421888570e+01) (34, -1.50000000000000000000e+03) (35, -1.45636960382355784560e+01) (36, 4.24886968509149028250e+02) (37, -1.54821941419182679267e-01) (38, -1.99176882955839971601e+02) (39, -2.15051479499023727726e+01) (40, -3.69585050721860142176e+01) (41, -1.92955503953598608291e+01) (42, -3.32307415285732304255e+02) (43, -1.45617007738809594031e+01) (44, 9.41821883312810115285e+00) (45, -2.23840003046602582515e+01) (46, -1.12774368030819971409e+01) (47, 3.38793271943041673921e+00) (48, -1.48372649130523086569e+03) (49, 1.17874464897750357295e+01) (50, 3.41369414457454278811e-01) (51, 4.29329450792649947033e+00) (52, -6.98699035875602714185e+00) (53, -1.37942328239080982399e+01) (54, -3.08620648257887673083e+01) (55, -4.17754044441222589512e+01) (56, 7.46388863887413094744e+02) (57, 6.37574466954097651694e+00) (58, 1.13447032141192977406e+02) (59, -2.62643722772955463540e+01) (60, 1.23152986214493168404e+02) (61, 1.75247967522058907264e+01) (62, -3.76717334424218961431e+01) (63, 1.85450728335520476087e+00) (64, 1.50000000000000000000e+03) (65, 1.02337606130303289120e+01) (66, -7.21258461470070386667e+01) (67, -8.15496227006731899678e+00) (68, 1.50000000000000000000e+03) (69, -2.17217858337956037929e+01) (70, 2.06796103208482833224e+01) (0, -1.50000000000000000000e+03) (1, 4.08873415272317952684e+00) (2, -1.50000000000000000000e+03) (3, -9.46687677617065048707e+00) (4, -5.12156878902565722456e+02) (5, 5.88753516594181824928e+00) (6, -1.41544908921901605936e+03) (7, 8.46384787830686136090e+00) (8, 4.75090339872692368317e+02) (9, 1.32240054636028077084e+01) (10, -1.50000000000000000000e+03) (11, -1.21368024274906254334e+01) (12, 1.50000000000000000000e+03) (13, 4.03247413290450129608e+00) (14, -1.50000000000000000000e+03) (15, 4.13241825010843566446e+00) (16, -1.36325986882858547489e+01) (17, 3.33072165631366656768e+00) (18, -1.50956688364312405781e+01) (19, -2.57381759550437028139e+00) (20, 3.85784238954951703704e+01) (21, 1.90895849075320356292e+01) (22, -1.50000000000000000000e+03) (23, -1.59166203761251683346e+01) (24, -1.50000000000000000000e+03) (25, 1.00480803140762056103e+01) (26, 6.48980965104067877292e+01) (27, 3.02419738907558759422e+01) (28, 5.12427633603160881393e+00) (29, -1.72249694855171746610e+01) (30, -2.52993736331146976681e+01) (31, 4.02676747955869132056e+01) (32, 2.85240966872421211065e+01) (33, -2.40819256016417249100e+01) (34, -2.75801712207171938473e+01) (35, 1.37327118290361482877e+01) (36, -1.27211008114289484183e+03) (37, 3.05906847844412599358e+00) (38, -1.50000000000000000000e+03) (39, 2.77796610443639053756e+01) (40, 9.45861743009095192747e+01) (41, -1.12072600019811083882e+01) (42, -5.95226828631971471850e+00) (43, 3.76927316006877699550e+00) (44, -1.73494855177708693361e+01) (45, 1.07876664471685446145e+00) (46, -3.07639970776605309766e+02) (47, -2.27159235909105738926e+01) (48, 1.50000000000000000000e+03) (49, -3.41993068471162544597e+01) (50, -3.61706965352725617890e+01) (51, -8.54892965675599647568e+00) (52, -2.52506727729554114603e+01) (53, 1.32049823418813101483e+01) (54, -3.61306248809713395076e+01) (55, -3.63825673139668159806e+00) (56, 5.49254254097613738850e+02) (57, -2.43525934699659778460e+01) (58, -2.69256959303770102565e+01) (59, -1.11795698489329957681e+01) (60, 7.93916427046643434551e+02) (61, -2.53354907129202633342e+00) (62, -3.22424191846827852714e+02) (63, -2.33626716022370915782e-02) (64, -1.50000000000000000000e+03) (65, 1.32411621119249449663e+01) (66, 1.96572147225574767049e+01) (67, 1.19441057333762081782e+01) (68, -1.50000000000000000000e+03) (69, 1.52606514007954423562e+01) (70, -1.23716937465241798577e+01) (0, -1.50000000000000000000e+03) (1, -5.74480698225922825628e+00) (2, -1.50000000000000000000e+03) (3, -2.30032287394315133611e+01) (4, -1.10713015627106187821e+02) (5, -2.92824341510477808015e+01) (6, -1.47155390826430078732e+02) (7, 1.23607843235382670599e+01) (8, 4.65372925006993341412e+02) (9, -2.63233027077648991110e+01) (10, -1.50000000000000000000e+03) (11, -4.97046107498559752713e+00) (12, 1.50000000000000000000e+03) (13, -2.56428903178286837772e+01) (14, -1.50000000000000000000e+03) (15, 9.94294909730844977958e+00) (16, 2.69757753542505795963e+01) (17, 3.84038821695754819530e+01) (18, 4.99791543836207097229e+01) (19, 2.14128758548194753075e+01) (20, 1.54491918435208610560e+01) (21, -2.57020262426665624389e+02) (22, -1.50000000000000000000e+03) (23, -7.78890363071086699875e+00) (24, -1.50000000000000000000e+03) (25, -3.40356720595564183895e+01) (26, 1.50000000000000000000e+03) (27, -2.48820788692520750152e-01) (28, 3.81285095061371919201e+01) (29, -1.40955061088544084669e+01) (30, 1.50000000000000000000e+03) (31, 7.87839838986962170964e+00) (32, 1.50455910975482652248e+02) (33, 2.25952798640589730406e-01) (34, 1.50000000000000000000e+03) (35, -5.90296512614700663590e+00) (36, -1.50000000000000000000e+03) (37, -2.61671129363132983769e+01) (38, 7.90721100112064334553e+01) (39, -2.36939506562851676108e+01) (40, -2.42263827666873261535e+01) (41, -5.86187149151709441242e-01) (42, 5.08062836933974537601e+00) (43, 5.38118781393417666692e+00) (44, -1.50000000000000000000e+03) (45, -7.43500555644132976596e+00) (46, -4.25381335846701119863e+02) (47, -1.85968468799879005360e+01) (48, 9.95238518040400776954e+02) (49, -3.26531504367252480847e+01) (50, 3.59024861591959620455e+02) (51, -5.07652528320369356152e+01) (52, 3.87908068707579843704e+02) (53, -1.15566036485123628808e+01) (54, 6.53106295202279397927e+02) (55, 2.70560721514049191683e+01) (56, -1.43901399903684159653e+03) (57, 2.30461682740698030614e+01) (58, -5.43996371371173523812e+01) (59, 1.14367128656688272770e+01) (60, -7.74173653005880623823e+02) (61, -7.49342924132455490138e+00) (62, -3.38728988691750146245e+02) (63, -1.47050062474448957062e+01) (64, -1.50000000000000000000e+03) (65, -6.87709371918758272102e+00) (66, 4.26353333173494863928e+00) (67, -2.89775669649858391708e+00) (68, -1.50000000000000000000e+03) (69, -9.75519560296712562319e+00) (70, -1.14039172502265397924e+01) (0, -1.50000000000000000000e+03) (1, -6.36636782493460895438e+00) (2, -1.50000000000000000000e+03) (3, -2.54186056751142714916e+01) (4, 1.10522839183826533827e+02) (5, -2.19995143489819753313e+01) (6, 2.20943088236334865826e+01) (7, -3.03470780421969514862e+01) (8, 8.06475346832727268520e+02) (9, -8.52164224322638474973e+00) (10, -1.50000000000000000000e+03) (11, 1.08011574994341419398e+01) (12, 1.50000000000000000000e+03) (13, 1.33110810573380398125e+01) (14, -1.50000000000000000000e+03) (15, -2.69952513281367423303e+01) (16, 2.01782536272202186467e+01) (17, 3.78796538737770873695e+01) (18, 3.61037589148494816982e+02) (19, -4.28088083059340451797e+00) (20, 6.56284215652802060958e+01) (21, 3.46984010512472522691e+01) (22, -1.50000000000000000000e+03) (23, -2.85617084692832534643e+00) (24, -1.50000000000000000000e+03) (25, 2.64225256830373034234e+01) (26, 3.23945338204923814374e+02) (27, 1.61740478328502454985e+01) (28, 2.18450877821215129870e+02) (29, 1.52546416718648991662e+01) (30, -6.69940201671524988569e+01) (31, -4.44948657608889153181e+00) (32, 2.19805183408233347109e+02) (33, -1.60620617787430717271e+01) (34, 3.70558636234637717166e+01) (35, -7.81538055877161674800e+00) (36, 1.97564803066407961296e+02) (37, 4.37205715648939907680e+00) (38, 9.43038613477323451662e+02) (39, 1.68275145871648099671e+01) (40, 1.25239968338180020169e+02) (41, 8.53083774493140545303e+00) (42, 4.45177561677007744834e+01) (43, 1.85257418756798983850e+01) (44, 2.64078703175853739538e+01) (45, 3.28568921363067278918e+00) (46, 8.61808743356935025304e+01) (47, 2.15121198491863552249e+00) (48, 1.34990542987487037863e+03) (49, 6.47436782608192196165e+00) (50, 2.76425459976280137653e+02) (51, -7.57780803293522620123e+00) (52, -3.31027226324584091799e+01) (53, -1.70187916631889435415e+00) (54, 2.81588617829080135380e+02) (55, -1.26891487520083678930e+00) (56, 1.13567279223823948087e+03) (57, -7.11876790167945383558e+00) (58, 4.21362950743603789761e+02) (59, 1.62702213408429408048e+01) (60, 9.00336580698649754595e+02) (61, -1.93378466253096732430e+01) (62, -9.37704102441141685631e+02) (63, 8.25132508326590219383e+00) (64, -1.50000000000000000000e+03) (65, -4.21081434090511841362e+00) (66, 6.25260575528668667289e+01) (67, 4.84502147422893969519e+00) (68, -1.50000000000000000000e+03) (69, -1.69792910716926179759e+01) (70, -1.35075176853071603489e+01) (0, 1.50000000000000000000e+03) (1, 2.66887970829614751267e+01) (2, 1.50000000000000000000e+03) (3, -1.64837204287529957014e+01) (4, -4.53218148524864048454e+01) (5, 1.37661833350016440392e+01) (6, 1.26142644076874739767e+03) (7, 2.92564671617532079395e+00) (8, -1.82661903831728324121e+02) (9, 4.09023186917830283704e+00) (10, 1.50000000000000000000e+03) (11, -9.85935601274656181481e-01) (12, -1.50000000000000000000e+03) (13, 1.30047364348984437754e+01) (14, 1.50000000000000000000e+03) (15, 1.10938721174548415860e+01) (16, -6.61978552960425403739e+00) (17, 1.31807308032963810263e+01) (18, -6.88801592637427351207e+00) (19, 1.41237881236625106851e+01) (20, 3.00464707894886487338e+02) (21, 2.71781774830725320058e+00) (22, 1.50000000000000000000e+03) (23, -1.18299477083759576601e+01) (24, 1.50000000000000000000e+03) (25, 2.32992124144368517591e+01) (26, -8.25593003429604436860e+02) (27, 1.41151289784668811933e+01) (28, 1.31115897262656943667e+02) (29, 2.90004144515216433220e+00) (30, -9.67971768026980043942e+01) (31, 1.31183651644662813140e+01) (32, -1.60549633129368345408e+02) (33, -2.79768070865943272452e+01) (34, -2.16065123728173880124e+01) (35, 2.65052937621887352293e+01) (36, 1.20154029017419088632e+03) (37, -7.03297788057902550918e+00) (38, 1.50000000000000000000e+03) (39, -1.07282790010503337186e+01) (40, -1.16084510411607357838e+01) (41, 5.08608662389216004129e+00) (42, 2.38446733638260184307e+01) (43, 3.31394515720138949089e-01) (44, 1.40991834760612647415e+02) (45, 1.11612325330964825554e+01) (46, 1.84621884040418478889e+02) (47, -1.71118030988462024311e+01) (48, 5.90889896852274773664e+02) (49, -1.36245757953067236912e+01) (50, -1.52114422206053347963e+02) (51, -4.59466710499863051353e+00) (52, -1.49090026994479489986e+03) (53, 1.23715277787094901640e+01) (54, -4.97023735189113793353e+01) (55, -6.64970209181740212756e+00) (56, 2.71898457610826689290e+01) (57, 8.20772710974540586903e+00) (58, -1.21641299967027634921e+02) (59, 2.98758711300571677683e+00) (60, -4.52500232285865706672e+02) (61, -1.59198083095109943486e+00) (62, 1.50000000000000000000e+03) (63, -2.01300417016299633133e+01) (64, 1.50000000000000000000e+03) (65, -1.30441940051376974452e+01) (66, -4.24901516432233918863e+01) (67, -2.86773106479027894977e+01) (68, 1.50000000000000000000e+03) (69, -2.68664900551380227967e+01) (70, 9.94060088430584465335e-01) (0, 1.50000000000000000000e+03) (1, -1.12084406672288086071e+01) (2, 1.50000000000000000000e+03) (3, -7.21480432889325284940e-01) (4, 1.72103615890744521266e+02) (5, -1.17924380946757967337e+01) (6, 1.88326255056196799842e+02) (7, 2.04938672175950964416e+00) (8, 5.78184725518952063794e+02) (9, 2.17401794750472143747e+00) (10, 1.50000000000000000000e+03) (11, -6.92517548203761101888e+00) (12, -1.50000000000000000000e+03) (13, -2.56362835958652779400e-01) (14, 1.50000000000000000000e+03) (15, 1.00824116000038195295e+01) (16, 2.38879272580155621597e+01) (17, -2.21910496552607163778e+01) (18, -3.88295909180978497943e+01) (19, -7.06667787441418226990e+00) (20, 1.50114784172234791981e+01) (21, 2.41990164145841873733e+02) (22, 1.50000000000000000000e+03) (23, 2.13866979592665913401e+01) (24, 1.50000000000000000000e+03) (25, -8.12521160818018950422e-01) (26, -1.50000000000000000000e+03) (27, 1.05147361358956334954e+01) (28, -9.76563415709750159976e+01) (29, 1.98119645876601246925e+01) (30, -3.23063803764988051626e+02) (31, -1.14207503176757949603e+01) (32, -3.20658016047090995926e+02) (33, -1.65060499919816194847e+01) (34, -5.28378721068687355000e+02) (35, -2.74283430510288859239e+01) (36, 1.50000000000000000000e+03) (37, 1.56021564870880222742e+01) (38, -1.77962472722623289201e+02) (39, -2.66540407941891377419e-01) (40, -5.09882262144825020300e+01) (41, 1.72982777607724145241e+01) (42, -2.25445720561341360622e+01) (43, -2.72926236555320151922e+01) (44, 1.50000000000000000000e+03) (45, 1.59647542015138839133e+01) (46, 2.32970197991947742366e+02) (47, 2.02553673815259003277e+01) (48, -4.79842222812145962507e+02) (49, 6.93110829236844505630e+00) (50, -7.13952189760277974528e+02) (51, 3.62726472223896081459e+01) (52, -8.28976788450660933449e+02) (53, 1.33929243387349874439e+01) (54, 2.12521416784737738226e+02) (55, 3.27263731488943392378e+01) (56, 1.44142489729644466934e+03) (57, -1.19221071748151814518e+01) (58, 4.17972020069330483238e+01) (59, 2.63691124095156794738e+01) (60, 1.50000000000000000000e+03) (61, 3.90526112354723542452e+00) (62, 7.13803774737393609939e+02) (63, 1.37682491152435773074e+01) (64, 1.50000000000000000000e+03) (65, 4.66176709951595824588e-01) (66, -9.11534035200539705102e+01) (67, 1.91527064361419476768e+01) (68, 1.50000000000000000000e+03) (69, 2.77475168762209705164e+01) (70, 1.17684474692587226485e+01) (0, -1.50000000000000000000e+03) (1, -2.18514966299903399261e+01) (2, -1.50000000000000000000e+03) (3, 6.52795548311592366275e+00) (4, -1.51639044235334722543e+02) (5, 2.98349305656973271539e+01) (6, -4.42447380694890881614e+01) (7, 2.04072453157512612165e+01) (8, 8.28213190948562100857e+02) (9, -2.12454231025085036322e+01) (10, -1.50000000000000000000e+03) (11, -1.73763509541544003412e+01) (12, 1.50000000000000000000e+03) (13, 6.32729166145103505414e+00) (14, -1.50000000000000000000e+03) (15, -8.82557263954027604314e+00) (16, -1.36972445365319401844e+01) (17, -1.85919841628236817144e+01) (18, 2.78872066431760217142e+01) (19, -1.68158084368288669452e+01) (20, 9.90256198842242341129e+00) (21, -2.89766582358503566041e+00) (22, -1.50000000000000000000e+03) (23, 1.69195973653814988324e+01) (24, -1.50000000000000000000e+03) (25, 2.31280016367247895914e+01) (26, 1.50000000000000000000e+03) (27, 1.66518163672891494897e+00) (28, 5.64426787412378075715e+02) (29, 1.91069713418773545754e+01) (30, 1.50000000000000000000e+03) (31, 8.82676981896442391928e+00) (32, 1.50000000000000000000e+03) (33, -2.63816877650422654256e+01) (34, 1.49323497136766695803e+03) (35, 2.40752377166841355915e+01) (36, -4.48778141066452349150e+02) (37, 9.15406914694284701284e+00) (38, 1.61900515425301591677e+02) (39, -6.86082276423076287131e+00) (40, 3.95373453152319385140e+01) (41, -2.04975948870829043358e+01) (42, 1.11493348825755873577e+02) (43, -1.95420781075176606123e+01) (44, -1.50000000000000000000e+03) (45, 2.33667099645116920215e+01) (46, -2.48075452653857126961e+02) (47, -1.23527936206445634326e+01) (48, 1.50000000000000000000e+03) (49, 6.51563033263359692171e+00) (50, 6.88097660305550220983e+02) (51, -1.36989017301507516322e+01) (52, 4.87712928530785347903e+02) (53, 2.34036508004996823828e+00) (54, 1.09359009195296016514e+03) (55, -1.19934240837562491322e+01) (56, -1.40989089461321805175e+03) (57, 2.22834065807234829037e+01) (58, -9.06166263585750142440e-01) (59, 2.02423853573906207259e+01) (60, 5.79940204918854988136e+02) (61, -5.36103653284991210626e+00) (62, -7.30820419880227746035e+02) (63, -1.95296371489892734985e+01) (64, -1.50000000000000000000e+03) (65, -1.45261607504814467262e+01) (66, 7.75874294753594142549e+01) (67, 4.57052899906362064542e+00) (68, -1.50000000000000000000e+03) (69, -6.32655361141995875585e+00) (70, 1.56947984050757671781e+01) (0, -1.50000000000000000000e+03) (1, 2.59079704603694427334e+00) (2, -1.50000000000000000000e+03) (3, -9.47537158712813543104e+00) (4, -7.44261229713926866225e+01) (5, -2.21121460260387934227e+01) (6, -1.34790895866871778708e+02) (7, -1.92010257153660135465e+00) (8, -2.75945914712857813811e+02) (9, 6.83069551460183888025e-01) (10, -1.50000000000000000000e+03) (11, 8.38494567610556451598e+00) (12, 1.50000000000000000000e+03) (13, 2.38970464279656944484e+01) (14, -1.50000000000000000000e+03) (15, 1.90368340584631461354e+01) (16, 2.33058394989916237705e+01) (17, 1.28157589235700584140e+01) (18, 1.53318437356984080822e+01) (19, 1.80246852893266229501e+01) (20, 1.87595414479807338637e+01) (21, -2.78790523957494968954e+01) (22, -1.50000000000000000000e+03) (23, 2.62655631656783938865e+01) (24, -1.50000000000000000000e+03) (25, 1.38664633216780437408e+01) (26, 1.50000000000000000000e+03) (27, -1.07212672814643443786e+01) (28, -1.38401150750192982741e+03) (29, 1.75441300895782283931e+01) (30, 8.21647972002773485656e+02) (31, 4.84090440484938322463e-01) (32, 3.08929840897744099948e+02) (33, 2.60170377133202279651e+01) (34, 1.11269243441515845916e+03) (35, 1.90708617402631808169e+00) (36, -7.14102468658197686580e+00) (37, -2.98816448706599153695e+01) (38, 1.87368799739576786578e+02) (39, 1.35204723563343964798e+01) (40, 8.18472209978595088842e+00) (41, -1.33477516442824413190e+01) (42, 1.57189666388344093662e+01) (43, 3.37828434776819293006e+01) (44, 1.10013641515336826160e+03) (45, -2.95793403850530580712e+01) (46, -1.28407187728765251222e+02) (47, -1.93332620583849212892e+01) (48, 1.34811794338985146169e+03) (49, -1.86085272972638229305e+01) (50, 7.70564743642748453567e+02) (51, 3.28077822752217116431e+01) (52, 1.77464510354878825638e+02) (53, -3.28657431875828223156e+01) (54, 1.49677359008936923601e+03) (55, 2.99907143632429784574e+00) (56, 7.80998764066862690925e+02) (57, -9.09990566806479783679e+00) (58, 6.89775432525661180705e+00) (59, 2.45243513297724335942e+00) (60, 7.49431849352313406598e+02) (61, -3.11903172448534569128e+01) (62, -7.25580166431741417910e+02) (63, -1.07559116029177008755e+01) (64, -1.50000000000000000000e+03) (65, -2.36453049062196072327e+01) (66, 8.01355261321587590828e+01) (67, -2.01392489848460272128e+01) (68, -1.50000000000000000000e+03) (69, 2.44456840985966685764e+01) (70, 1.88024504720494576304e+01) (0, -1.50000000000000000000e+03) (1, -1.70945663668520317913e+01) (2, -1.50000000000000000000e+03) (3, 1.78679984419346844504e+01) (4, 4.10110286649559668604e+02) (5, -1.63565201532371915505e+01) (6, 5.61270541268799760815e+01) (7, -8.07920081479715079809e+00) (8, 5.95118117795739181020e+02) (9, -1.97250531473237273872e+01) (10, 4.72775474491098350427e+02) (11, 9.78970656692900043083e+00) (12, 1.50000000000000000000e+03) (13, -1.10247133825964525045e+01) (14, -1.50000000000000000000e+03) (15, -3.56756396572590572802e+00) (16, 3.08875599895124341998e+00) (17, 3.71464486781501923574e+00) (18, -1.15658910499087035362e+01) (19, 1.77733910393036165232e+00) (20, -4.07947179216059112150e+02) (21, -8.42737182719908162198e+00) (22, -1.50000000000000000000e+03) (23, 3.14457306640870477565e+01) (24, -1.50000000000000000000e+03) (25, 1.57736424767426548499e+01) (26, 1.00676849428145271759e+03) (27, -1.91069338186406127988e+01) (28, 3.69215761498443100663e+02) (29, -9.15606011169854383525e+00) (30, -1.34282338489303583628e+02) (31, 8.84156119082821234656e+00) (32, 3.08630302886516687977e+02) (33, 2.36029455315296221585e+00) (34, -5.44068174905409023268e+01) (35, 1.69729418904493414288e+01) (36, -6.01840375554745179443e+01) (37, -2.85305448576102982372e+01) (38, 2.22331311606033743544e+01) (39, -1.26949365051574769581e+01) (40, -4.40409506959743382026e+01) (41, -2.06229821143269376194e+01) (42, 3.10501803197155457070e+00) (43, -7.97539292086522966230e+00) (44, 7.06045671417845142059e+02) (45, -2.61403107011978903529e+01) (46, -8.92369206129802023497e+02) (47, -1.23593921142144704817e+01) (48, 1.50000000000000000000e+03) (49, 1.53262573050039758726e+01) (50, 1.07729555598619822376e+03) (51, -1.26789281780369744723e+01) (52, 2.85292533494763461022e+02) (53, 2.43092192061397760483e+01) (54, 1.39426060125025583147e+03) (55, -1.26091058861713527506e+01) (56, -6.59284440292435078845e+01) (57, 2.30046709640796009921e+01) (58, -8.69904802632670310913e+01) (59, 9.60357090995068674033e+00) (60, 1.59681013382698722580e+02) (61, 1.90922649842379819063e+01) (62, -1.50000000000000000000e+03) (63, -1.97596049808109985868e+00) (64, -1.50000000000000000000e+03) (65, -1.21542178126622530954e+01) (66, 6.12377659197377610667e+01) (67, -1.98050061504497278975e+01) (68, -1.50000000000000000000e+03) (69, 2.41739188060116525492e+01) (70, 2.50379569291570769352e+00) (0, -1.50000000000000000000e+03) (1, -2.07884876424341946688e+00) (2, -1.50000000000000000000e+03) (3, -7.03886526826236291754e+00) (4, 1.34538015016913931277e+02) (5, -1.19703114863723616423e+01) (6, 1.09202737008246302253e+02) (7, 2.85504002130671210580e+01) (8, -1.03179356419271130108e+03) (9, -2.17610796340204224464e+01) (10, -8.77401928120244633647e+02) (11, -5.53060411442955057737e+00) (12, 1.50000000000000000000e+03) (13, 8.72768233983411967358e+00) (14, -1.50000000000000000000e+03) (15, 1.60954503005914943969e+01) (16, 1.28995426944409619097e+01) (17, 1.95648950225827213956e+01) (18, 2.50179770600371682576e+01) (19, -7.88971889726176023316e+00) (20, -2.44575135649628201406e+01) (21, -2.64761197752300688535e+02) (22, -1.50000000000000000000e+03) (23, -2.16491576130943919054e+01) (24, -1.50000000000000000000e+03) (25, -2.20826658072952959344e+01) (26, 1.50000000000000000000e+03) (27, -2.96164300038146350857e+01) (28, -2.43885004735751529381e+01) (29, -3.19380112805003051335e+01) (30, 1.23929619206992720137e+03) (31, -8.45057059139723421026e+00) (32, -2.77421981769169235577e+02) (33, 3.45871136082452892424e+01) (34, 1.50000000000000000000e+03) (35, -2.77472685967803656126e+01) (36, -1.50000000000000000000e+03) (37, 3.92061844288344918397e+00) (38, -1.81134722464126070918e+02) (39, 1.40821337730352560413e+01) (40, -2.69828513614468903370e+01) (41, -3.69930826652601707494e+00) (42, 1.01010652750449292370e+00) (43, 4.97897351673618260293e+00) (44, -1.50000000000000000000e+03) (45, -4.02957904599770699861e+00) (46, -8.51951950205121733006e+01) (47, -1.31830565470211631407e+01) (48, 9.95238518040400776954e+02) (49, -6.45479630820854168860e+01) (50, -3.57999035271172942885e+02) (51, -4.42664298917344751771e+01) (52, 3.61767065293337566345e+02) (53, 1.43173137534781833580e+01) (54, 6.53106295202279397927e+02) (55, 1.84674904074930594788e+01) (56, -1.43901399903684159653e+03) (57, 7.53677911931213917462e-01) (58, -1.24737938768993643635e+01) (59, 1.69169510031923131521e+01) (60, -1.47084481148858003507e+03) (61, 2.33954626072491365107e+01) (62, -4.17268935092394940511e+02) (63, -7.48783561122574603530e+00) (64, -1.50000000000000000000e+03) (65, 1.62774905140852368390e+01) (66, -2.71344764196561456515e+01) (67, -1.07927882394423129142e+01) (68, -1.50000000000000000000e+03) (69, -1.70572593664833718208e+01) (70, -1.65163290300906915320e+01) (0, -1.50000000000000000000e+03) (1, -1.39389733138948432867e+01) (2, -1.50000000000000000000e+03) (3, 1.56884436829848574746e+01) (4, -1.70509439211040927376e+02) (5, 1.55004632793402876700e+01) (6, -3.03986458830547803700e+02) (7, -4.53538494398598075463e+01) (8, -8.06562588212272970623e+01) (9, -6.90056729360384224492e+00) (10, -1.48676712354615165168e+03) (11, -5.35801949628536089421e+00) (12, 1.50000000000000000000e+03) (13, -7.40915137082867492069e+00) (14, -1.50000000000000000000e+03) (15, 2.44612222474127065652e+01) (16, 6.84317908964591126164e+00) (17, 8.45398082251983140623e+01) (18, 8.68120747960712435543e+01) (19, 1.81989231772370132489e+01) (20, 2.26267785825888765316e+01) (21, -3.39485930626345435712e+01) (22, -1.50000000000000000000e+03) (23, 7.24501646898535334174e+00) (24, -1.50000000000000000000e+03) (25, 4.26638957622649162005e+00) (26, 1.50000000000000000000e+03) (27, 1.96381786484945912719e+01) (28, 1.05581340053771455700e+02) (29, -6.96141947113050196805e+00) (30, 1.50000000000000000000e+03) (31, -8.21844218904141499138e+00) (32, 2.98765702516841940906e+02) (33, -1.05440605092076609139e+01) (34, 1.50000000000000000000e+03) (35, 1.00826735991220068911e+01) (36, -4.34464204325312266519e+02) (37, 9.99494959507651792308e+00) (38, 1.80259555566406959315e+02) (39, 4.09252917382400394075e+00) (40, 1.68941466855625321841e+01) (41, -4.27120025010759274409e+00) (42, 2.16997375114008157482e+01) (43, 1.70282262413761671382e+01) (44, -1.50000000000000000000e+03) (45, 3.01824007400083837993e+00) (46, -2.31505735274755096498e+02) (47, 3.36297892592295089020e-01) (48, 1.50000000000000000000e+03) (49, -4.47226538871448013879e+01) (50, 6.88911437275459434204e+02) (51, 1.84301813697967951100e+01) (52, 8.02913825032281351923e+02) (53, 6.00119892479256389350e+00) (54, -1.95481276155795484328e+02) (55, -8.30586496303775945194e+00) (56, -1.48121059071422951092e+03) (57, 2.07597710732250639865e+01) (58, -7.18256475781115000245e+01) (59, -2.45798248562974469555e-01) (60, 5.66160749252766322570e+02) (61, 2.04730897881580844455e+01) (62, -6.22789248730249255459e+02) (63, -8.97193027452402924737e-01) (64, -1.50000000000000000000e+03) (65, 8.06654806538911017810e+00) (66, 4.20434908385800767405e+01) (67, -8.83062012875131863154e+00) (68, -1.50000000000000000000e+03) (69, -9.39436499494866850135e-01) (70, 4.28750701578465243102e+00) (0, 1.50000000000000000000e+03) (1, 2.72177806706301055328e+01) (2, 1.50000000000000000000e+03) (3, 2.45263837999525406985e+01) (4, 3.62374764583920025984e+01) (5, -2.26636378565298315380e+01) (6, -1.85283666329374554493e+01) (7, -1.59776757418046564396e+01) (8, -6.32882482431041012205e+02) (9, 3.74062930731521836591e+00) (10, 1.49995115919110639879e+03) (11, 1.30310840754100549788e+01) (12, -1.50000000000000000000e+03) (13, -7.67263288940657606219e+00) (14, 1.50000000000000000000e+03) (15, 1.38972841452550550656e+01) (16, 2.59417277844078917326e+01) (17, -1.08055812159684556661e+01) (18, -3.40241174498373268875e+01) (19, 2.24542335924858988960e+01) (20, -2.79794759675778195174e+01) (21, 5.45233690897364198236e+00) (22, 1.50000000000000000000e+03) (23, 2.12903912076456265368e+01) (24, 1.50000000000000000000e+03) (25, 9.38007645256674749135e+00) (26, -1.50000000000000000000e+03) (27, -2.14341387051014908849e+00) (28, 1.37868813797302820490e+01) (29, -2.07738444564727373631e+01) (30, 4.36169558355787714277e+01) (31, 1.46390052241554453616e+01) (32, -1.16364604485753844187e+02) (33, -6.69099366340235590656e+00) (34, -4.20346296434826598443e+01) (35, -1.12497940682668460255e+01) (36, -1.36739352069344613483e+03) (37, -1.92341817859841341942e+01) (38, -5.87720002458548719915e+02) (39, 1.18274607591086642344e+01) (40, -6.24239712676857720908e+01) (41, 3.31759506816167188958e+01) (42, -3.11196008580104205521e+02) (43, 2.06214542482375513544e+01) (44, 6.29602416726527920332e+01) (45, 2.16997841446377854879e+01) (46, 1.62883634787133537714e+01) (47, 1.52106077452250243454e+01) (48, -1.50000000000000000000e+03) (49, -3.11389211200762883180e+00) (50, 1.84039946793787521528e+02) (51, -1.94219468812539304281e+01) (52, -5.04016423939768458240e+02) (53, -9.25425089982533921606e-01) (54, -3.58433924448482699177e+01) (55, 8.62790625450455905820e+00) (56, -4.93856792316743451465e+02) (57, 1.47108905303489709837e+01) (58, 3.52038823864102994321e+01) (59, 6.22147446075370513796e+00) (60, -8.86891006246235178878e+02) (61, -2.23662837247811197017e+01) (62, 1.50000000000000000000e+03) (63, 2.78939588832252312045e+01) (64, 1.50000000000000000000e+03) (65, 6.42813360779490139407e+00) (66, -6.24500378364988151247e+01) (67, -1.61298453952658746857e+01) (68, 1.50000000000000000000e+03) (69, 1.39801872459157596751e+01) (70, -1.58717923932847515545e+01) (0, 1.50000000000000000000e+03) (1, 9.11212736504832321316e+00) (2, 1.50000000000000000000e+03) (3, -1.93527991350446910701e+01) (4, 1.98038233886960114205e+02) (5, 9.37464752404910761641e+00) (6, 3.43421589797685328449e+02) (7, 1.53301371812405477613e+02) (8, 5.78184725518952063794e+02) (9, 2.24901779888300374921e+01) (10, 1.50000000000000000000e+03) (11, -4.38150670789193785737e+00) (12, -1.50000000000000000000e+03) (13, 2.08772801737082005502e+01) (14, 1.50000000000000000000e+03) (15, -5.63222892952480691520e+00) (16, 2.98214149325333437446e+01) (17, -1.42299120239800807042e+01) (18, -8.71631354693298874281e+01) (19, 2.50954449571726172508e+01) (20, 1.37264366081414479481e+01) (21, 1.17568683803976023228e+03) (22, 1.50000000000000000000e+03) (23, 5.98270477600477832425e+01) (24, 1.50000000000000000000e+03) (25, -8.09960078989603537991e+00) (26, -1.50000000000000000000e+03) (27, 7.08155941080261719378e+00) (28, -8.54147882643953550996e+01) (29, 1.11456625690290724862e+01) (30, -1.43295700065848245686e+03) (31, 2.97566700210977010954e+01) (32, -2.79859095429388787579e+02) (33, -2.29322558156625646575e+01) (34, -1.50000000000000000000e+03) (35, -4.71573910862375900166e+00) (36, 1.50000000000000000000e+03) (37, 2.43710030344724373208e+01) (38, -1.64336248760515843514e+02) (39, 2.40061887788459316084e+01) (40, 1.51817103258106911312e+01) (41, -2.15031521437488102322e+01) (42, -3.59275767725478090142e+01) (43, -1.39328872552299394272e+01) (44, 1.50000000000000000000e+03) (45, 5.57719727989842706251e+00) (46, 2.10739692287067896359e+02) (47, 1.56460146699142104154e+01) (48, -8.94336349750189015140e+02) (49, 8.31732208293366426233e+01) (50, -6.83964390115807304937e+02) (51, 4.10733399602329001254e+01) (52, -8.21968650032463074240e+02) (53, -3.38816021425789282162e+00) (54, 2.12521416784737738226e+02) (55, -4.70237364077086450465e+00) (56, 1.48085564022379571725e+03) (57, 1.41334528189774797369e+01) (58, 6.72356556812494403630e+01) (59, 2.21277400274049647066e+01) (60, 3.67712479239643982964e+02) (61, -1.15769309465690056982e+02) (62, 6.92789680503880617835e+02) (63, 3.16256377717401022664e+01) (64, 1.50000000000000000000e+03) (65, 6.02249721582145713938e+00) (66, -6.29626899952360119528e+01) (67, 2.76436772758358237922e+01) (68, 1.50000000000000000000e+03) (69, 1.59622087453236591870e+01) (70, -3.75774646772486420332e+00) (0, -1.50000000000000000000e+03) (1, 1.83449296679701241430e+01) (2, -1.50000000000000000000e+03) (3, -1.13854622389380288894e+01) (4, 6.82919857110780128551e+01) (5, 1.70717301045573606189e+01) (6, -1.78207849732146890176e+01) (7, 1.80009025071639072735e+01) (8, 2.29913130346459269049e+01) (9, 1.21139947451422038682e+01) (10, -9.48386028275658645725e+01) (11, -7.05870124088056449807e+00) (12, 1.50000000000000000000e+03) (13, 1.19812543851061565903e+01) (14, -1.50000000000000000000e+03) (15, 2.35013696846147333019e+01) (16, 1.68650267034469547589e+00) (17, 1.82324328684053291738e+01) (18, 4.38613884830243208057e+01) (19, -7.69229812639501453475e+00) (20, -1.28017340353816377885e+00) (21, -2.45964955456401668243e+00) (22, -1.50000000000000000000e+03) (23, -1.37930530150334398343e+01) (24, -1.50000000000000000000e+03) (25, 1.08789545067118673671e+01) (26, 1.50000000000000000000e+03) (27, 4.06898220278994227073e+00) (28, 2.03156738516831751440e+02) (29, 2.00399473656397724142e+01) (30, 1.50000000000000000000e+03) (31, 1.43053634984093474003e+01) (32, 2.92402007896838256329e+02) (33, -1.12084513611909759589e+01) (34, 1.49434108976767674903e+03) (35, 2.21798693940751370235e+01) (36, 3.56017085712825689825e+02) (37, 8.35299091146032957056e+00) (38, -2.83471211154900515794e+02) (39, -2.89487318668669892929e+01) (40, -1.28225562407281454824e+01) (41, -4.62943182428670763073e+00) (42, 3.73112923174394097714e+01) (43, 2.68238608579995307934e+01) (44, -1.50000000000000000000e+03) (45, 1.12767224579583196231e+01) (46, -1.23997575008200527691e+02) (47, -2.10099227322118942141e+01) (48, 1.50000000000000000000e+03) (49, 8.24537779728551534220e+00) (50, 6.72742239139588377839e+02) (51, 8.09230480423869202866e+00) (52, 7.03225194803212389161e+02) (53, 1.41113554385583617190e+00) (54, 6.66509704487966246234e+02) (55, 7.67917642301403469141e-01) (56, -1.02033959229909999067e+03) (57, 4.87950214114186042735e+00) (58, -5.34700077171650960395e+01) (59, -5.39399243356976114683e+01) (60, 8.10017220082838775852e+02) (61, 1.65153464595921803948e+01) (62, -7.37669964405374457783e+02) (63, -9.52216321647765440161e+00) (64, -1.50000000000000000000e+03) (65, 1.38100622742339016469e+01) (66, 4.99278044219540859672e+01) (67, 8.07178208701352772891e+00) (68, -1.50000000000000000000e+03) (69, 1.02939163059399518829e+01) (70, -1.48133448410154962005e+01) (0, -1.50000000000000000000e+03) (1, -2.34421054506098371917e+01) (2, -1.50000000000000000000e+03) (3, 9.25573986030219053589e+00) (4, -1.53627781987282702403e+02) (5, -3.26282228121172082069e+01) (6, -2.49453914407570294998e+02) (7, -3.50251775061137138323e+01) (8, 4.86747968856242696489e+00) (9, 1.46136199087765827898e+01) (10, -1.48676712354615165168e+03) (11, -2.81639648475180699450e+01) (12, 1.50000000000000000000e+03) (13, -6.17460573813304236523e+00) (14, -1.50000000000000000000e+03) (15, 9.33077570526752708702e+00) (16, -2.20595556790223099597e+01) (17, 1.36843435463285683085e+01) (18, 3.98681394716892967267e+01) (19, -4.35657951365668816290e-01) (20, -3.25606909438314673366e+00) (21, 2.87507717470111945346e+00) (22, -1.50000000000000000000e+03) (23, 6.81110423518151009148e+00) (24, -1.50000000000000000000e+03) (25, 4.50762796144736110904e+00) (26, 1.50000000000000000000e+03) (27, 8.12939473847014504315e+00) (28, 8.61162446764394076126e+01) (29, 2.30819506289351252803e+01) (30, 1.50000000000000000000e+03) (31, 3.00982226761777589275e+01) (32, 3.25086157462898711401e+02) (33, -1.38995076494195988204e+01) (34, 1.49897823258651555989e+03) (35, 3.10402657551991119078e+01) (36, -4.42207486615239076855e+02) (37, -6.09722386671700533611e+00) (38, 1.91842889654732260851e+02) (39, -5.81833092585915956363e+00) (40, 8.77318637767482378820e+00) (41, 6.80329447243479901175e+00) (42, 3.89688052756828753331e+01) (43, 1.42136447760662747442e+01) (44, -1.50000000000000000000e+03) (45, 1.40239501135992306047e+01) (46, -2.02301484939061623436e+02) (47, -8.65119816657415441341e+00) (48, 8.41272524221637581832e+02) (49, 2.06354843574790045579e+01) (50, 7.17037672283699862419e+02) (51, -1.99495539071984886448e+01) (52, 8.07275975224542094111e+02) (53, 3.12939793676311666104e+01) (54, -1.50000000000000000000e+03) (55, -2.59612924024050144567e+01) (56, -1.49999909869953967245e+03) (57, -2.13259568091372364584e-01) (58, -6.68147675448003894871e+01) (59, -6.31774482184042351918e+00) (60, -4.84497281124708507605e+01) (61, 2.30962261244901299051e+01) (62, -7.12749570223167665972e+02) (63, 2.25197621751781298371e+01) (64, -1.50000000000000000000e+03) (65, -2.20852284510613472435e+01) (66, 6.92969026084468850968e+01) (67, 8.70573010618841713892e+00) (68, -1.50000000000000000000e+03) (69, 1.90350009014539045538e+00) (70, 3.76322985338347582029e+00) (0, 1.50000000000000000000e+03) (1, -4.28650787840831704045e+00) (2, 1.50000000000000000000e+03) (3, 1.88051268929617378944e+01) (4, 1.74260825287106769110e+02) (5, 1.59096451418111133336e+01) (6, 3.20265589660356397417e+02) (7, 5.03378494842456163383e+01) (8, 5.78184725518952063794e+02) (9, 1.07032158828069778878e+01) (10, 1.50000000000000000000e+03) (11, 7.07426107662604231052e+00) (12, -1.50000000000000000000e+03) (13, -1.89496652415738897623e+00) (14, 1.50000000000000000000e+03) (15, 7.98624026041761747585e-01) (16, -7.32721902437575067779e+00) (17, -2.10347150293029621082e+01) (18, -6.02414912585146282709e+01) (19, -9.01203768509999747494e+00) (20, 9.90211867601254169813e+00) (21, 2.46833163558348957167e+02) (22, 1.50000000000000000000e+03) (23, 2.05611574158782630661e+01) (24, 1.50000000000000000000e+03) (25, 2.20794282605870080261e+01) (26, -1.50000000000000000000e+03) (27, 1.34122071453303820521e-01) (28, -6.77499323073639487802e+01) (29, 1.77115215394647762537e+01) (30, -1.01780668568614612468e+03) (31, 1.65764466105219341330e+01) (32, -2.77175260399786679955e+02) (33, 2.28874399524801894756e+01) (34, -1.50000000000000000000e+03) (35, -2.06469847672842128361e+01) (36, 1.50000000000000000000e+03) (37, 3.06316966453015773197e+01) (38, -1.37460291064309188869e+02) (39, -4.59048149829395413235e+00) (40, -3.83748519117360871178e+01) (41, -1.27614744809778954959e+01) (42, -4.16379681499639460185e+01) (43, 2.23874510277121219204e+00) (44, 1.50000000000000000000e+03) (45, -3.18954017388447148562e+01) (46, 2.20081994847874312882e+02) (47, 5.30652083947041361967e+01) (48, -4.79842222812145962507e+02) (49, 3.66252006511226539942e+01) (50, -7.03386177377769968189e+02) (51, 1.26448270032795626605e+01) (52, -8.34591761263792022874e+02) (53, -1.76236385024727137960e+00) (54, 2.12521416784737738226e+02) (55, -1.24941379645849952595e+01) (56, 1.44142489729644466934e+03) (57, -8.07962792965962783853e+00) (58, 4.11297806669880330332e+01) (59, 9.43751259920659357761e+00) (60, 1.50000000000000000000e+03) (61, -4.61518403880183001320e+01) (62, 7.13562598012959597327e+02) (63, -2.18313918795006216556e+01) (64, 1.50000000000000000000e+03) (65, -1.16495275325971743285e+01) (66, -5.46040155882307303159e+01) (67, 7.88885745540812433063e+00) (68, 1.50000000000000000000e+03) (69, 1.08133882325303680716e+01) (70, 1.52397960615395096085e+01) (0, -1.50000000000000000000e+03) (1, -1.02482025908099103617e+01) (2, -1.50000000000000000000e+03) (3, 1.71194633464185734795e+01) (4, -1.65394072693257925266e+02) (5, 5.36852289727685771936e+00) (6, -3.34105461762423260552e+02) (7, -9.65592801772512387970e+00) (8, -5.71323500832329955301e+02) (9, -2.66204430404515335340e+01) (10, -1.50000000000000000000e+03) (11, 1.94521644012784911126e+01) (12, 1.50000000000000000000e+03) (13, -1.95445257435886894370e+01) (14, -1.50000000000000000000e+03) (15, -1.54708597013471980119e+01) (16, -8.84092443433600472247e+00) (17, -1.79469552513736800847e+01) (18, 8.11770230130991592432e+01) (19, -8.25834827953869066164e+00) (20, -9.34548155320857176775e+00) (21, -2.75628220869992048847e+01) (22, -1.50000000000000000000e+03) (23, -1.40197576675493369436e+01) (24, -1.50000000000000000000e+03) (25, -1.47832893508755098821e+01) (26, 1.50000000000000000000e+03) (27, -2.72196055507260261663e+01) (28, 1.63955354420011417460e+02) (29, 6.33031704366524783367e-01) (30, 3.76201139682350287785e+02) (31, 1.37533956089387343624e+00) (32, 2.29421852963621716981e+02) (33, -1.18187738718214596645e+01) (34, 8.13027396874283567740e+02) (35, -2.28793750931357599276e-02) (36, -5.12106493473677488737e+01) (37, 1.09509701882980898802e+01) (38, -5.65067850165219851988e+02) (39, 2.27797914452673850860e+01) (40, -5.57833829317467078113e+00) (41, 1.16789267109082555152e+01) (42, 2.30151932160617946010e+02) (43, -8.62992298997162876617e+00) (44, 1.34261421680868778594e+02) (45, -2.12703889408499442482e+01) (46, -4.83855756392964693191e+01) (47, -1.06771179104941307259e+01) (48, 1.33918837120317198242e+03) (49, 7.69223022831880420824e+00) (50, -5.58226085250353598610e+00) (51, 1.72498957355432942506e+01) (52, 2.10822361369516585228e+02) (53, -8.53864881647263374020e+00) (54, 2.66721963521079658221e+02) (55, 2.94988742733005793184e+01) (56, 8.21460906292519212002e+02) (57, 2.19676738426259916537e+01) (58, -5.26083131462391051514e+01) (59, 1.35743521560932016712e+01) (60, 5.43119901069263050886e+02) (61, -4.45780010524760541557e+01) (62, 7.50036575025633624136e+02) (63, 1.46023642788561236472e+01) (64, -1.50000000000000000000e+03) (65, 1.53290691791310074166e+01) (66, 6.04424330707120347483e+01) (67, 1.27864659352148901661e+01) (68, -1.50000000000000000000e+03) (69, -6.13417297631342162134e+00) (70, -3.98577540258876572565e+00) (0, 1.50000000000000000000e+03) (1, -9.30416466017955201551e+00) (2, 1.50000000000000000000e+03) (3, -1.44648195266382959545e+01) (4, 6.46807676824552970629e+01) (5, 1.61764091302898656011e+01) (6, 4.29783617605261412109e+01) (7, -1.31026891915309668946e+01) (8, -3.89657042520376592165e+02) (9, -2.19275860390684727008e+01) (10, -6.84127860832855958506e+01) (11, -2.33096880160235713220e+01) (12, -1.50000000000000000000e+03) (13, -1.46931205112073079988e+01) (14, 1.50000000000000000000e+03) (15, -3.69346137641246263783e+00) (16, -1.22967583912680993308e+01) (17, -3.83932243646403748016e+01) (18, 6.80278050082054761560e+01) (19, 6.25727691819454712174e+00) (20, -1.94718476085198624048e+01) (21, 9.23041033813077049786e+00) (22, 1.50000000000000000000e+03) (23, -2.52782808126566216345e+01) (24, 1.50000000000000000000e+03) (25, 1.67902595181706750793e+01) (26, -6.58319671203070015508e+02) (27, 1.07087717627309686463e+01) (28, -1.30297167808299604985e+02) (29, 2.78747845865862799997e+01) (30, -8.02219404319972454687e+02) (31, -2.56355986775339639294e+00) (32, -2.94814325748672899863e+02) (33, 2.23575770402849407503e+01) (34, -1.50000000000000000000e+03) (35, -1.79857754938608564999e+01) (36, 2.23113472971464773309e+02) (37, -4.33576593582792924053e+00) (38, 3.26461616755994796790e+01) (39, 1.97694596019523487485e+01) (40, -4.35733077752033040042e+01) (41, 1.01482383361143102540e+00) (42, -7.35845891324175198633e+01) (43, 2.44111308680415994843e+01) (44, 9.62803272494683142213e+01) (45, -2.88347518459177400985e+01) (46, 4.33902372105405476077e+01) (47, 3.13024591048731295473e+01) (48, -1.14899293745126669819e+03) (49, 1.35746383048887828693e+01) (50, -2.13040235704407137973e+02) (51, 1.68265507072643871744e+00) (52, 9.27799141499011525980e+00) (53, 6.24425431720351831189e+00) (54, -1.23740629884671557193e+03) (55, -4.44885193931223665853e-01) (56, -1.04870489958276564835e+02) (57, 4.91383446170767257399e+00) (58, 1.50000000000000000000e+03) (59, 1.91255392443350338283e+01) (60, -4.09240468276006026827e+02) (61, 1.65589918366426260832e+01) (62, 3.58500182698068044829e+02) (63, 1.50555618988270012437e+01) (64, 1.50000000000000000000e+03) (65, 5.53592451287019571282e+00) (66, -6.96690580839579496342e+01) (67, -1.31468787920885432641e+01) (68, 1.50000000000000000000e+03) (69, -1.74084925145205637875e+01) (70, -1.40282175830996127530e+01) (0, 1.50000000000000000000e+03) (1, -1.89123198104434631084e+00) (2, 1.50000000000000000000e+03) (3, -1.89886434760191384896e+01) (4, 1.59424862991574372018e+02) (5, -2.38436524530304048142e+01) (6, 1.63766363187292796511e+02) (7, 4.84664689828413930428e+00) (8, -1.30806021920008060988e+03) (9, 2.79489400384462101101e+01) (10, 1.50000000000000000000e+03) (11, 9.75899207685827896341e+00) (12, -1.50000000000000000000e+03) (13, 7.83127676337101519266e+00) (14, 1.50000000000000000000e+03) (15, 1.57988979458304541481e+01) (16, 1.91103039364773010789e+01) (17, 1.71647320968889793846e+01) (18, -4.98062884320994498921e+01) (19, 1.22537169149517080058e+01) (20, 2.26415274341267824809e+01) (21, -7.63586362062307433263e+00) (22, 1.50000000000000000000e+03) (23, 9.34883849191531091094e+00) (24, 1.50000000000000000000e+03) (25, -3.12333116675707387344e+01) (26, -1.60309561823371012679e+02) (27, -6.72746978748128032777e+00) (28, 2.04746021398787547696e+01) (29, -7.62640394745319127878e+00) (30, -2.84451806797840504260e+02) (31, 1.37667057211686145735e+01) (32, -1.73683661514297085660e+02) (33, 2.13295645817821410972e+00) (34, -1.79790676721722121556e+02) (35, 1.02012334960377728521e+01) (36, -8.74390989116159431660e+01) (37, -1.73463268380638737653e+01) (38, 2.97821383461369819656e+01) (39, 1.58344541501985430765e-01) (40, -2.16992485170025650731e+00) (41, -2.78298057330217680772e+01) (42, -2.44030473717246572107e+01) (43, -2.93336147829144344712e+00) (44, -2.67847463216187406942e+02) (45, -9.77985506674078131084e+00) (46, -2.21793696482057578478e+00) (47, -1.51442304784784109728e+00) (48, -1.50000000000000000000e+03) (49, -8.39523923603276855943e+00) (50, -9.04824403675330160013e+01) (51, 7.92075213176734749254e+00) (52, -1.90842356757290687597e+01) (53, 1.74293240229472878866e+01) (54, -1.44299026547929702247e+03) (55, 8.75685783302357201308e+00) (56, -3.37891833238013305163e+02) (57, -2.72552990783283384246e+01) (58, -5.79078805887153720278e+01) (59, 9.17893255605780211681e+00) (60, -8.98461230933277192889e+01) (61, -2.30645727274994598588e+01) (62, 7.10841558956181643225e+02) (63, 9.50997678405766144749e+00) (64, 1.50000000000000000000e+03) (65, -1.76638017729527341260e+01) (66, -7.45721809858741693233e+01) (67, 5.09578436609175167149e+00) (68, 1.50000000000000000000e+03) (69, -1.56013141316936145842e+01) (70, 2.58933798716046368327e+01) (71, 1.50000000000000000000e+03) (72, 6.13576739179531660540e+00) (73, 1.50000000000000000000e+03) (74, -2.38689903784159724864e+01) (75, 1.07466456565042847160e+01) (76, 2.09504975617739175320e+00) (77, -5.26271171085195366146e+00) (78, 2.93410433126388525693e+00) (79, -8.64512192119821953895e+00) (80, 1.50000000000000000000e+03) (81, 1.50000000000000000000e+03) (82, -6.59060014734603161202e+00) (83, 1.90866272047158758163e+00) (84, 1.50000000000000000000e+03) (85, 3.15562921467702128808e+00) (86, -4.25873288341182654193e+00) (87, -1.79658852886596882570e+01) (88, 1.26498925411478921887e+01) (89, 1.23187327135564537173e+01) (90, 4.36079777293529602389e+00) (91, 1.50000000000000000000e+03) (92, 1.95559416176428797485e+01) (93, -1.02241713394091497946e+01) (94, -6.13991617742738338137e+00) (95, 2.28335186179178251109e+01) (96, 1.38473777400265394277e+01) (97, -2.33703585115266214700e+01) (98, 1.76545135688934635709e+01) (99, -1.58403375207788243983e+01) (100, -1.96769817141307612474e+01) (101, 2.60407994318795203981e+01) 
