FANN_FLO_2.1
num_layers=3
learning_rate=0.700000
connection_rate=1.000000
network_type=0
learning_momentum=0.000000
training_algorithm=2
train_error_function=1
train_stop_function=0
cascade_output_change_fraction=0.010000
quickprop_decay=-0.000100
quickprop_mu=1.750000
rprop_increase_factor=1.001000
rprop_decrease_factor=0.333300
rprop_delta_min=0.000000
rprop_delta_max=50.000000
rprop_delta_zero=0.100000
cascade_output_stagnation_epochs=12
cascade_candidate_change_fraction=0.010000
cascade_candidate_stagnation_epochs=12
cascade_max_out_epochs=150
cascade_max_cand_epochs=150
cascade_num_candidate_groups=2
bit_fail_limit=3.49999999999999977796e-01
cascade_candidate_limit=1.00000000000000000000e+03
cascade_weight_multiplier=4.00000000000000022204e-01
cascade_activation_functions_count=10
cascade_activation_functions=3 5 7 8 10 11 14 15 16 17 
cascade_activation_steepnesses_count=4
cascade_activation_steepnesses=2.50000000000000000000e-01 5.00000000000000000000e-01 7.50000000000000000000e-01 1.00000000000000000000e+00 
layer_sizes=71 21 2 
scale_included=0
neurons (num_inputs, activation_function, activation_steepness)=(0, 0, 0.00000000000000000000e+00) (0, 0, 0.00000000000000000000e+00) (0, 0, 0.00000000000000000000e+00) (0, 0, 0.00000000000000000000e+00) (0, 0, 0.00000000000000000000e+00) (0, 0, 0.00000000000000000000e+00) (0, 0, 0.00000000000000000000e+00) (0, 0, 0.00000000000000000000e+00) (0, 0, 0.00000000000000000000e+00) (0, 0, 0.00000000000000000000e+00) (0, 0, 0.00000000000000000000e+00) (0, 0, 0.00000000000000000000e+00) (0, 0, 0.00000000000000000000e+00) (0, 0, 0.00000000000000000000e+00) (0, 0, 0.00000000000000000000e+00) (0, 0, 0.00000000000000000000e+00) (0, 0, 0.00000000000000000000e+00) (0, 0, 0.00000000000000000000e+00) (0, 0, 0.00000000000000000000e+00) (0, 0, 0.00000000000000000000e+00) (0, 0, 0.00000000000000000000e+00) (0, 0, 0.00000000000000000000e+00) (0, 0, 0.00000000000000000000e+00) (0, 0, 0.00000000000000000000e+00) (0, 0, 0.00000000000000000000e+00) (0, 0, 0.00000000000000000000e+00) (0, 0, 0.00000000000000000000e+00) (0, 0, 0.00000000000000000000e+00) (0, 0, 0.00000000000000000000e+00) (0, 0, 0.00000000000000000000e+00) (0, 0, 0.00000000000000000000e+00) (0, 0, 0.00000000000000000000e+00) (0, 0, 0.00000000000000000000e+00) (0, 0, 0.00000000000000000000e+00) (0, 0, 0.00000000000000000000e+00) (0, 0, 0.00000000000000000000e+00) (0, 0, 0.00000000000000000000e+00) (0, 0, 0.00000000000000000000e+00) (0, 0, 0.00000000000000000000e+00) (0, 0, 0.00000000000000000000e+00) (0, 0, 0.00000000000000000000e+00) (0, 0, 0.00000000000000000000e+00) (0, 0, 0.00000000000000000000e+00) (0, 0, 0.00000000000000000000e+00) (0, 0, 0.00000000000000000000e+00) (0, 0, 0.00000000000000000000e+00) (0, 0, 0.00000000000000000000e+00) (0, 0, 0.00000000000000000000e+00) (0, 0, 0.00000000000000000000e+00) (0, 0, 0.00000000000000000000e+00) (0, 0, 0.00000000000000000000e+00) (0, 0, 0.00000000000000000000e+00) (0, 0, 0.00000000000000000000e+00) (0, 0, 0.00000000000000000000e+00) (0, 0, 0.00000000000000000000e+00) (0, 0, 0.00000000000000000000e+00) (0, 0, 0.00000000000000000000e+00) (0, 0, 0.00000000000000000000e+00) (0, 0, 0.00000000000000000000e+00) (0, 0, 0.00000000000000000000e+00) (0, 0, 0.00000000000000000000e+00) (0, 0, 0.00000000000000000000e+00) (0, 0, 0.00000000000000000000e+00) (0, 0, 0.00000000000000000000e+00) (0, 0, 0.00000000000000000000e+00) (0, 0, 0.00000000000000000000e+00) (0, 0, 0.00000000000000000000e+00) (0, 0, 0.00000000000000000000e+00) (0, 0, 0.00000000000000000000e+00) (0, 0, 0.00000000000000000000e+00) (0, 0, 0.00000000000000000000e+00) (71, 4, 5.00000000000000000000e-01) (71, 4, 5.00000000000000000000e-01) (71, 4, 5.00000000000000000000e-01) (71, 4, 5.00000000000000000000e-01) (71, 4, 5.00000000000000000000e-01) (71, 4, 5.00000000000000000000e-01) (71, 4, 5.00000000000000000000e-01) (71, 4, 5.00000000000000000000e-01) (71, 4, 5.00000000000000000000e-01) (71, 4, 5.00000000000000000000e-01) (71, 4, 5.00000000000000000000e-01) (71, 4, 5.00000000000000000000e-01) (71, 4, 5.00000000000000000000e-01) (71, 4, 5.00000000000000000000e-01) (71, 4, 5.00000000000000000000e-01) (71, 4, 5.00000000000000000000e-01) (71, 4, 5.00000000000000000000e-01) (71, 4, 5.00000000000000000000e-01) (71, 4, 5.00000000000000000000e-01) (71, 4, 5.00000000000000000000e-01) (0, 4, 5.00000000000000000000e-01) (21, 4, 9.00000000000000022204e-01) (0, 4, 9.00000000000000022204e-01) 
connections (connected_to_neuron, weight)=(0, -1.50000000000000000000e+03) (1, -5.01022551581212738370e+00) (2, -1.50000000000000000000e+03) (3, 2.50482282884013294222e+01) (4, -1.20907250753651260311e+03) (5, -3.26417029587299412086e+00) (6, 8.57122581362630739932e+01) (7, -3.11084016049272236160e+01) (8, 1.50000000000000000000e+03) (9, -4.47645493510658383229e+01) (10, -1.15677983502946972294e+02) (11, -6.91592744939359738154e-01) (12, 1.50000000000000000000e+03) (13, -2.02257512006452060405e+01) (14, -1.50000000000000000000e+03) (15, -2.00406112005478007632e+01) (16, 3.29672267627966618875e+02) (17, 2.29888381023252676982e+01) (18, 3.14783552927966468360e+02) (19, -1.79312516795809457903e+01) (20, -6.24390099999505196138e+02) (21, 2.33533687589467575663e+01) (22, -1.16959948696936658052e+03) (23, -2.14145658202647872770e+01) (24, -1.50000000000000000000e+03) (25, 9.29818927276361861800e+00) (26, 1.50000000000000000000e+03) (27, 2.84123447625988418963e+01) (28, 1.93802828950597302082e+02) (29, 1.06876289663106049943e+01) (30, 1.50000000000000000000e+03) (31, -3.22476175611722482017e-01) (32, 1.37126713199395311449e+01) (33, 1.14438544687892509444e+01) (34, 1.50000000000000000000e+03) (35, -1.93745036958856182707e+01) (36, 1.50000000000000000000e+03) (37, 1.39751413653975511409e+01) (38, -3.75438112675737656332e+01) (39, 5.49689952152370064908e+00) (40, 1.22461500229850571486e+03) (41, 5.49863925970357847461e+00) (42, -1.39675067604804553412e+03) (43, 1.33007434698905147030e+01) (44, -1.50000000000000000000e+03) (45, 1.54514663104163680885e+01) (46, -1.10300614218107739362e+03) (47, -2.11515645773055211976e+01) (48, -1.50000000000000000000e+03) (49, -9.49448117649203204849e+00) (50, 1.50000000000000000000e+03) (51, -2.66821300977712105862e+00) (52, 1.50000000000000000000e+03) (53, 1.17086576674786559948e+01) (54, 9.49136224127327565725e+00) (55, -5.73413357300641735037e+01) (56, 1.50000000000000000000e+03) (57, -3.44798524723481065735e+01) (58, 1.28085520133956247690e+01) (59, 6.45316068991121660758e+00) (60, 1.50000000000000000000e+03) (61, 2.95228751775359974374e+01) (62, -1.37671680724802035911e+03) (63, 2.38256475399514648927e+01) (64, -1.50000000000000000000e+03) (65, 1.05545360460463317764e+01) (66, 4.93224208249131876869e+01) (67, 3.16395214358484047068e+01) (68, -1.50000000000000000000e+03) (69, 1.73284559495341419222e+01) (70, 1.16162322085392695215e+01) (0, -1.50000000000000000000e+03) (1, 1.43165692475509622739e+01) (2, -1.50000000000000000000e+03) (3, 3.04182783990348504233e+01) (4, -1.16071974149952461630e+03) (5, -7.48689046107716649203e+00) (6, 6.08805070991352152987e+01) (7, -2.00910297872196359492e+01) (8, 1.50000000000000000000e+03) (9, 1.10508528158165333366e+01) (10, -8.16313107005426985552e+01) (11, -2.43682209489676004921e+01) (12, 1.50000000000000000000e+03) (13, -6.32171255300468093452e+00) (14, -1.50000000000000000000e+03) (15, 7.26374465417019532509e+00) (16, 2.88852665869780707908e+02) (17, -9.21101797048216219821e+00) (18, 2.82416302857663879422e+02) (19, 3.02598158943370121321e+00) (20, 1.45478701204664929492e+02) (21, 4.29879053489706830504e+00) (22, -1.17702947392310193209e+03) (23, -1.51459751582973574102e+01) (24, -1.50000000000000000000e+03) (25, 1.76463727841111079897e+01) (26, 1.50000000000000000000e+03) (27, -7.41644204262883999235e+00) (28, 2.36370742169521406595e+02) (29, 2.32331131640741226363e+01) (30, 1.50000000000000000000e+03) (31, -7.65206439795178283703e+00) (32, -1.91615185846545699633e+02) (33, 1.22118501973130761940e+01) (34, 1.50000000000000000000e+03) (35, -1.92703644865904499817e+00) (36, 1.36207758479063926416e+02) (37, -2.64886139751316811441e+01) (38, 3.75624108297185728134e+01) (39, -1.88577964704547440533e+00) (40, 1.20229873576179352312e+03) (41, -2.36847315761837542425e+01) (42, 1.20810731095182461559e+02) (43, -2.39306224225135615313e+01) (44, 1.29635331530723669857e+03) (45, 2.75206033492804067464e+01) (46, -5.83481110670369034210e+01) (47, -1.39652878132334965500e+01) (48, -1.50000000000000000000e+03) (49, -1.04575901084134752494e+01) (50, 5.83437745575296048628e+02) (51, 8.12693508706636258410e+00) (52, 1.50000000000000000000e+03) (53, -7.38224760274562985529e+00) (54, 4.88840886695075823809e+02) (55, -3.25452334050941383126e+00) (56, 1.50000000000000000000e+03) (57, -1.69242456878852216562e+01) (58, 2.66158787320968208689e+01) (59, 2.15616428294988882186e+00) (60, 1.50000000000000000000e+03) (61, -1.24747000046998266498e+01) (62, -1.26532894509013112838e+03) (63, 2.23116651595212047710e+01) (64, -1.50000000000000000000e+03) (65, -2.91467694260690848296e+01) (66, 4.28724696530382018977e+01) (67, 1.11367930289575607361e+01) (68, -1.50000000000000000000e+03) (69, 1.42261569163874774802e+01) (70, 1.89734562969138096378e+01) (0, -1.50000000000000000000e+03) (1, -2.07745397558173161556e+00) (2, -1.50000000000000000000e+03) (3, 1.36439386622000213833e+01) (4, -3.74966438126610228210e+02) (5, 1.69890377068859130816e+01) (6, -3.34050112705054615958e+01) (7, 5.50880565084451578883e+00) (8, 1.50000000000000000000e+03) (9, 1.60377452002097720118e+00) (10, -1.05383718777645398745e+02) (11, 1.96191909084061748558e+01) (12, 1.50000000000000000000e+03) (13, 2.91596465087538518901e+01) (14, -1.50000000000000000000e+03) (15, 4.02256270041750862987e+00) (16, 2.38941647218230031058e+01) (17, 2.56098629897302920710e+01) (18, -9.07441631970147000175e+01) (19, 3.46032351938412290338e+01) (20, 6.31179774298656298015e+02) (21, 5.29478263692928674544e+00) (22, -1.17428419699515393404e+03) (23, 1.39018718966374290602e+01) (24, -1.50000000000000000000e+03) (25, 2.53788621303664818640e+01) (26, 1.50000000000000000000e+03) (27, 5.30229596997423513471e+00) (28, 5.07762217042450885174e+01) (29, 2.92417385924221591154e+01) (30, 1.50000000000000000000e+03) (31, -6.64448774004465203546e+00) (32, -5.40172678165251227256e+02) (33, 3.63354880066194496635e+01) (34, -5.16123724441715197031e+01) (35, 1.00361971822634243878e+00) (36, 4.28845037283461294919e+02) (37, -1.43421394911589707988e+01) (38, -1.15023331535794106628e+01) (39, 2.91791012007587582389e+01) (40, 1.21321520979418414754e+03) (41, -2.07529892102852429048e+01) (42, 2.12184059892660684454e+02) (43, -8.38238876879274208420e+00) (44, 6.90852645454708977013e+02) (45, -1.26658986823986161596e+01) (46, 1.17084122082733994574e+01) (47, 1.11983036350546942828e+01) (48, -1.17232181288129822860e+03) (49, -1.03380991050715156376e+01) (50, 1.50000000000000000000e+03) (51, -1.54468559168101524648e+01) (52, 1.50000000000000000000e+03) (53, 3.85909492652727736939e+00) (54, -2.55355689770754112899e+00) (55, 1.55742539159345323441e+01) (56, 1.02808295600914357237e+03) (57, 1.72532086530908514987e+01) (58, 2.10944486359983116586e+01) (59, 8.36715222350929188622e+00) (60, 1.50000000000000000000e+03) (61, -4.55376768030499778916e+00) (62, 7.49908941283257775012e+01) (63, -2.82270303642862891991e+01) (64, -1.50000000000000000000e+03) (65, 1.49987083831307810300e+00) (66, 8.22698485745465859509e+01) (67, 6.33560895929595169207e+00) (68, -1.50000000000000000000e+03) (69, -5.61532615036990923052e-01) (70, -3.38575876997943083779e+01) (0, -1.50000000000000000000e+03) (1, 1.39087829058092484757e+01) (2, -1.50000000000000000000e+03) (3, 1.59242112909515309838e+01) (4, -1.20456072298298454371e+03) (5, 1.77807154600751964324e+01) (6, -1.32744652496167873323e+02) (7, 8.37953438308893083786e+00) (8, 1.50000000000000000000e+03) (9, -1.21570631306373275748e+01) (10, -8.53684074684012585976e+01) (11, 3.61885000393756470771e+01) (12, 1.50000000000000000000e+03) (13, 7.12676844998643055362e+00) (14, -1.50000000000000000000e+03) (15, 3.55583092945505940818e+00) (16, 3.07059140978751656803e+02) (17, -3.25889370352947906895e+01) (18, 2.75259919572957528544e+02) (19, -2.92286466344084274738e+01) (20, 6.75385777677343071446e+02) (21, 4.03707386111698056652e+01) (22, -1.15122750153388096805e+03) (23, -6.68329851623199200361e+00) (24, -1.50000000000000000000e+03) (25, -2.01926164054286694238e+01) (26, 1.50000000000000000000e+03) (27, -3.00343143096075415599e+01) (28, 5.94313129760305855598e+02) (29, 2.17546398372959579604e+01) (30, 1.50000000000000000000e+03) (31, -1.86112123775345565946e+01) (32, -1.97983198584089620908e+02) (33, 1.65664579174015614171e+02) (34, 1.50000000000000000000e+03) (35, -1.34898694754299164345e+01) (36, 1.50000000000000000000e+03) (37, -1.33985853767670448633e+01) (38, 1.37883655706245491501e+01) (39, 5.53528637718783667054e+00) (40, 1.21443168464192081046e+03) (41, -2.99791854015395387023e+01) (42, -1.39675237671980198684e+03) (43, 1.10777846728290452205e+01) (44, -1.50000000000000000000e+03) (45, -1.70665069823511821312e+01) (46, -9.67745326488905106999e+02) (47, 2.95699185860023590067e+01) (48, 3.10793964429869788546e+02) (49, -1.07348602333859481917e+01) (50, 1.50000000000000000000e+03) (51, -4.10915791675304049591e+01) (52, 1.50000000000000000000e+03) (53, 2.16840674053965827284e+01) (54, 3.27657190074662096890e+01) (55, 2.04371190658750130353e+01) (56, 1.50000000000000000000e+03) (57, 1.57510719213283216789e+01) (58, 4.22976858902157388798e+01) (59, 2.33031731836628752674e+00) (60, 1.50000000000000000000e+03) (61, -1.94757489080766887923e+01) (62, -1.21083784600645822138e+03) (63, -1.24681376832685764100e+01) (64, -1.50000000000000000000e+03) (65, 2.68445341883914814218e+01) (66, 4.23536612881700449407e+01) (67, 1.45082096769440003214e+01) (68, -1.50000000000000000000e+03) (69, -5.31177384399322605191e+00) (70, -3.69241776869331150834e+00) (0, 1.50000000000000000000e+03) (1, -5.96959515797604822751e+00) (2, 1.50000000000000000000e+03) (3, 5.03144828043578939969e+00) (4, 1.16584557522504019289e+03) (5, 1.57168278059466590690e+01) (6, 1.59071472599426584793e+02) (7, 2.18534429544437607262e+01) (8, -1.50000000000000000000e+03) (9, 7.63211541685992944650e+00) (10, 9.36326441802308835349e+01) (11, -2.14726755654763579173e+00) (12, -1.50000000000000000000e+03) (13, -2.17125478818117079172e+00) (14, 1.50000000000000000000e+03) (15, -1.79315365569338247553e+00) (16, -2.44606126578178191266e+02) (17, -2.79567126957970373269e+01) (18, -9.72705136888249626281e+02) (19, -5.58348365540187003830e+01) (20, 3.02405050647273299091e+02) (21, -8.66934667790521196196e+00) (22, 1.13802088677047368037e+03) (23, -1.24559924373697903377e+01) (24, 1.50000000000000000000e+03) (25, 1.71413896649009025452e+01) (26, -1.50000000000000000000e+03) (27, 2.80244016504037531945e+01) (28, 5.68627158038221523384e+02) (29, 8.90260609148061732299e+00) (30, -6.67412453199070910159e+02) (31, -1.95937947961389049567e+01) (32, 3.37513407679561865393e+01) (33, -7.43032870783348755594e+01) (34, -8.31970250426696338764e+02) (35, -2.36761256439295912912e+01) (36, -1.50000000000000000000e+03) (37, 9.69086265595984031052e+00) (38, -2.11983400668426611446e+01) (39, -1.31713557727919905460e+01) (40, -1.17169623596971678126e+03) (41, 1.38667046648462974900e+01) (42, -1.47091598038990559871e+03) (43, 1.55874409099487323260e+01) (44, 1.50000000000000000000e+03) (45, 5.09862911490160808370e+00) (46, 1.04881160705902743757e+03) (47, -7.37314458064398969839e+00) (48, 1.50000000000000000000e+03) (49, -1.32381572633399837713e+01) (50, -3.07915373430459851534e+02) (51, -1.83110570745913463497e+01) (52, -1.23433608744770754129e+03) (53, 2.80697439893168976255e+00) (54, -8.32607862103198499426e+02) (55, 5.98619131569649542968e+00) (56, -1.50000000000000000000e+03) (57, -1.00358363088718220979e+01) (58, 1.14033515691801774494e+01) (59, 3.05893362220660840478e+01) (60, -1.50000000000000000000e+03) (61, 1.44225947081552252627e+01) (62, 1.23617705292377672777e+03) (63, -1.27768552058280331352e+01) (64, 1.50000000000000000000e+03) (65, -3.76367739923916877487e+00) (66, -7.94606921288601881770e+01) (67, -8.70464848865664286848e+00) (68, 1.50000000000000000000e+03) (69, 1.59634124169634326051e+01) (70, -3.60861768944412908411e+00) (0, -1.50000000000000000000e+03) (1, -1.54985792089050402609e+01) (2, -1.50000000000000000000e+03) (3, 2.41652954311909695662e+01) (4, -1.20348580253466661816e+03) (5, -3.26550879200703789706e+01) (6, -1.05024264701153157375e+02) (7, 7.90245530758234515645e+00) (8, 1.50000000000000000000e+03) (9, -1.85834021360916032961e+01) (10, -9.75496809287895700891e+01) (11, 1.48395838417140240040e+01) (12, 1.50000000000000000000e+03) (13, 1.93088424424170845839e+01) (14, -1.50000000000000000000e+03) (15, -2.72659468509039513151e+01) (16, 4.08747071757110973067e+02) (17, 3.88385850094117870412e+01) (18, 2.78857598092550290403e+02) (19, 2.00294927300264262726e+01) (20, 1.46781794047281505300e+03) (21, 5.12395465595361088162e+00) (22, -1.15592551197852230871e+03) (23, 1.16761460232528904157e+01) (24, -1.50000000000000000000e+03) (25, 5.33106605235162067657e+00) (26, 1.44801410490579291945e+03) (27, 1.22340144012009073293e+01) (28, -1.50000000000000000000e+03) (29, -2.40067282849365213337e+01) (30, 1.50000000000000000000e+03) (31, -2.20826175317467239267e+01) (32, 5.22041026600664181956e+01) (33, -7.50319251818103172269e+00) (34, 1.48115978073996075182e+03) (35, 1.32400215223287034405e+01) (36, 1.71477661510578514026e+01) (37, -5.18522006325960873596e+01) (38, -1.39873185763941147997e+01) (39, -1.22838919769635559476e+01) (40, 1.22035786058467670046e+03) (41, -2.05560840255897367967e+01) (42, -1.49735318668284821797e+03) (43, -7.26462352083336337927e+00) (44, 2.61138384601378788830e+02) (45, 1.64532068029277382948e+01) (46, -8.40503535260034027488e+02) (47, 3.68768229092383048595e+00) (48, 1.92588541610144375227e+02) (49, 1.26746240204217297531e+01) (50, 3.61420529420453249259e+01) (51, -3.63844512330952563062e+00) (52, 5.58386746737722091893e+02) (53, -4.05085060353332082617e-01) (54, -8.07055974929084101177e+01) (55, -3.61668435258080833705e+01) (56, 5.54933448682071315261e+01) (57, -2.38968177702013306885e+01) (58, 1.46987841551796822870e+01) (59, 1.81638608127728709007e+01) (60, 8.18652603675017189744e+02) (61, -1.63653360272742567361e+01) (62, -1.28892289393122700858e+03) (63, -6.58013036125018224709e+00) (64, -1.50000000000000000000e+03) (65, -2.26941840929354343714e+00) (66, 5.37196566952745442336e+01) (67, 2.70193327689592832641e+00) (68, -1.50000000000000000000e+03) (69, 1.22210567684714366266e+01) (70, 2.84864328747699602218e+01) (0, -1.50000000000000000000e+03) (1, 1.07638405434012458528e+01) (2, -1.50000000000000000000e+03) (3, 1.25174681217649226284e+01) (4, -1.21553898779163932886e+03) (5, 1.91343975973015467673e+00) (6, -1.49706615196057839512e+02) (7, -1.03374873796845321294e+01) (8, 1.50000000000000000000e+03) (9, -3.95832752201488290211e+02) (10, -1.17350379209123801161e+02) (11, 2.61320691750107982898e+01) (12, 1.50000000000000000000e+03) (13, -4.27760850980200046934e+01) (14, -1.50000000000000000000e+03) (15, 7.13006987690527260781e+00) (16, 2.23131021368574550934e+02) (17, 1.21132134646653106813e+01) (18, 2.18940659509590830112e+02) (19, 2.03734625456760269913e+01) (20, -6.79786860174398498202e+02) (21, 2.46083717903432329877e+02) (22, -1.58336954625236501215e+02) (23, -1.60263534488041621273e+01) (24, -1.50000000000000000000e+03) (25, -2.75854287587441078244e+01) (26, 1.50000000000000000000e+03) (27, -1.23477217075141624036e+02) (28, 2.15290829729741574283e+02) (29, 8.65191762168805666988e+00) (30, 1.50000000000000000000e+03) (31, 2.17958941545526707628e+00) (32, -1.89514111627795756476e+02) (33, 9.82471941368505952141e+01) (34, 1.50000000000000000000e+03) (35, -6.13955181344202713944e+01) (36, 1.50000000000000000000e+03) (37, -5.36849841105464307134e+01) (38, -8.86581495610886705094e+00) (39, 2.41480365970144861265e+00) (40, 1.25173198952689881480e+03) (41, -1.04346405339859688866e+03) (42, -1.39675237671980198684e+03) (43, -4.32796038666958371444e-01) (44, -1.50000000000000000000e+03) (45, -2.10871882719137246909e+01) (46, -1.13473913530699292096e+03) (47, -3.06104937575788142112e+02) (48, -1.50000000000000000000e+03) (49, -3.75987201264208863449e+01) (50, 1.50000000000000000000e+03) (51, -1.68629083846376431666e+02) (52, 1.50000000000000000000e+03) (53, -9.24446270977754736009e+00) (54, 5.18353866679360066883e+02) (55, -8.03036229517720556714e+01) (56, 1.50000000000000000000e+03) (57, -4.35304950997617993380e+02) (58, 7.56587709359053928182e+00) (59, -2.97227183589496064542e+01) (60, 1.50000000000000000000e+03) (61, -6.64497590798194295303e+01) (62, -1.23491422693903837171e+03) (63, -8.20282736914294297037e+00) (64, -1.50000000000000000000e+03) (65, 1.14783167555103986501e+01) (66, 4.01561896695177011907e+01) (67, 9.70017858042514724559e+00) (68, -1.50000000000000000000e+03) (69, 8.40752046837597610818e+00) (70, -1.51658694984853372745e+01) (0, -1.50000000000000000000e+03) (1, -3.03702893024653919340e+00) (2, -1.50000000000000000000e+03) (3, -1.79051407393949375546e+01) (4, -1.20229227033863639917e+03) (5, -2.38537149715548091322e+00) (6, -1.25453276382276044387e+02) (7, -1.17317182222748641607e+01) (8, 1.50000000000000000000e+03) (9, -3.91085665185789991938e+02) (10, -5.56654960914481335976e+01) (11, 2.69363141701279857898e+01) (12, 1.50000000000000000000e+03) (13, -1.42968747212803659608e+01) (14, -1.50000000000000000000e+03) (15, 1.68165133022286350517e+00) (16, 3.36933173148223261251e+02) (17, -2.31075626197607668644e+01) (18, 2.96177402352893068382e+02) (19, -1.17297456744859864841e+01) (20, -6.79786860174398498202e+02) (21, 2.42225274542403553824e+02) (22, -1.14118998398627377355e+03) (23, -3.07649904054271274845e+01) (24, -1.50000000000000000000e+03) (25, 1.32094627203103005542e+01) (26, 1.50000000000000000000e+03) (27, -9.77653700496912279050e+01) (28, 2.13528155040448609725e+02) (29, -2.10646309171562258200e+01) (30, 1.50000000000000000000e+03) (31, 9.52874834935595060870e+00) (32, -2.15956921686389193837e+02) (33, 9.02725689678474623179e+01) (34, 1.50000000000000000000e+03) (35, -4.72030552771049229932e+01) (36, 1.50000000000000000000e+03) (37, -6.76810573426505754924e+01) (38, -1.03017890772025992874e+01) (39, 7.54524552542103155162e+00) (40, 1.21199528160110321551e+03) (41, -1.04023114561263514588e+03) (42, -1.39675237671980198684e+03) (43, -9.53189716856046032056e-01) (44, -1.50000000000000000000e+03) (45, -1.80298216623403426695e+01) (46, -1.13255878023497143658e+03) (47, -3.23368900307556771168e+02) (48, -1.50000000000000000000e+03) (49, -2.66082139403429458469e+01) (50, 1.50000000000000000000e+03) (51, -1.19863695235974645925e+02) (52, 1.50000000000000000000e+03) (53, 2.85392351433837632158e+01) (54, 5.17605191809822827054e+02) (55, -9.34170663264056457820e+01) (56, 1.50000000000000000000e+03) (57, -4.56772735631181490135e+02) (58, 2.23301001923453910081e+01) (59, -9.15250187595578168498e+00) (60, 1.50000000000000000000e+03) (61, -1.40053739528008804882e+01) (62, -1.26566090099986058704e+03) (63, -7.36108647068848753747e+00) (64, -1.50000000000000000000e+03) (65, 6.62539716818502633089e+00) (66, 6.71822283162152302793e+01) (67, -2.25316729973346028260e+01) (68, -1.50000000000000000000e+03) (69, 2.35678021177751979565e+01) (70, -3.66779492229892341015e+01) (0, 1.50000000000000000000e+03) (1, -1.82528287670276334609e+01) (2, 1.50000000000000000000e+03) (3, -6.71012521693715591198e+00) (4, 1.21010028261666593608e+03) (5, -1.72108974524042253051e+01) (6, 7.29030267854272118200e+00) (7, -3.48850295025278134275e+00) (8, -1.96350739782820426171e+02) (9, -4.49121393856791328858e+00) (10, 1.22639558870531823231e+03) (11, -1.63863128994054036980e+01) (12, -1.50000000000000000000e+03) (13, 2.12066504366489709810e+01) (14, 1.50000000000000000000e+03) (15, 2.97754381261136902292e-02) (16, 2.59131715277894727478e+01) (17, -1.82396077258200968174e+01) (18, -4.89540142030771150417e+01) (19, -9.52808602192252074303e+00) (20, -5.76407381592322167307e+02) (21, -4.50843925849146387463e+00) (22, 1.50000000000000000000e+03) (23, -6.79581268331959975626e+00) (24, 1.50000000000000000000e+03) (25, -4.82405747308700583176e+00) (26, -4.60521388239117811736e+02) (27, 1.31782428865812111241e+01) (28, -1.91821841065614052013e+02) (29, 3.10422229940637217638e+00) (30, -1.43749158376873822363e+02) (31, 6.97208000055987930921e+00) (32, -9.61624917212287897428e+01) (33, 3.55235483859192129330e+01) (34, -5.44324031712280884676e+02) (35, 1.30518106814210348432e+01) (36, -4.15948264466759724201e+02) (37, -3.34889872528799159568e+00) (38, 7.23214350423454543915e+00) (39, -3.90101931916865085626e+00) (40, -4.41071374094760582096e+00) (41, -2.76107477064852240289e+01) (42, -2.55107914198290544050e+01) (43, 1.45081153361742760666e+01) (44, -1.50000000000000000000e+03) (45, -9.98632372792207156920e+00) (46, 2.39059804379523477280e+01) (47, -8.74594375291742309741e+00) (48, 4.11528338607326588772e+02) (49, -4.98769660075558007861e+00) (50, -5.06013692828089688192e+02) (51, 1.85407346267110484384e+00) (52, -3.07017363808960453753e+02) (53, 1.40862800924866622410e+01) (54, -3.23565290847473292501e+01) (55, 4.16397882831045240692e+00) (56, -3.21083543658546034294e+02) (57, 2.02194951429893876593e+01) (58, -3.88121573375203698930e+00) (59, 7.05166789866282339716e+00) (60, -6.03991986280715195790e+02) (61, -1.01920941052997759968e+00) (62, 1.47374233856125374587e+03) (63, 1.88900186927464659448e+01) (64, 1.50000000000000000000e+03) (65, 2.06928044809819233762e+01) (66, -3.72551219079133630885e+01) (67, -5.91341061993734307123e+00) (68, 1.50000000000000000000e+03) (69, -1.64299494130084546839e+01) (70, 7.71416552388185383649e+00) (0, 1.50000000000000000000e+03) (1, -2.19034392372776665070e+01) (2, 1.50000000000000000000e+03) (3, 2.75932082676010992373e+01) (4, 1.14409442906736308032e+03) (5, 4.89312212261088497200e+00) (6, 1.50000000000000000000e+03) (7, -1.97475049581535633259e+00) (8, -6.85739092616891866783e+02) (9, 1.17224336563136315448e+01) (10, 8.51888762265319314793e+01) (11, -8.45554463205672135473e+00) (12, -1.50000000000000000000e+03) (13, 1.89376932186793887070e+01) (14, 1.50000000000000000000e+03) (15, 2.22924118648808118337e+01) (16, 1.11796351927977440255e+02) (17, -2.29443182917053301040e+00) (18, -2.04838828741122789268e+01) (19, 2.85302392909649249475e+00) (20, -7.08621980531751027854e+00) (21, 2.71851925380848413738e+00) (22, 1.50000000000000000000e+03) (23, -4.01872505105171118345e+00) (24, 1.50000000000000000000e+03) (25, 1.30496612585912075133e+01) (26, -6.69915787341312125136e+02) (27, 1.73188239945283517507e+00) (28, 6.68125881375714811838e+01) (29, -3.57072087610112776090e+00) (30, -8.93290141362666787472e+01) (31, 4.47039227490699619949e+00) (32, -7.76455051020120645688e+00) (33, -3.41911634653762774860e+01) (34, 8.94571314358905169684e+01) (35, 1.24137410330867510311e+01) (36, -3.14567695094884420826e+01) (37, -2.39383836114749151136e+01) (38, -2.54323078068101210647e+02) (39, 4.75973108181936499506e+00) (40, -2.73224037549732265973e+01) (41, 3.61771386968521957428e+00) (42, -5.64761019456226094348e+01) (43, -2.34689142775276842201e+01) (44, -4.05925109373157738446e+02) (45, 1.30243084324459594825e+01) (46, -6.46389546911400429963e+01) (47, 2.73656701818544263460e+01) (48, -4.68733677308479286694e+02) (49, -2.13557752219909318114e+01) (50, -4.93332552324286552903e+01) (51, -1.83449071442858602232e+00) (52, -5.54563601130222139091e+01) (53, -2.43260732817516966975e+00) (54, -1.35067128286109118562e+03) (55, -7.43163370738010886640e+00) (56, -2.21702987749352189439e+01) (57, -2.27115483206524721993e+01) (58, -2.67018062920480581113e+00) (59, 1.92917381043429969623e+00) (60, -4.46891518251006516493e+01) (61, -1.14135072847851670730e+01) (62, 1.27638313622150712945e+03) (63, 1.51395918493725751830e+01) (64, 1.50000000000000000000e+03) (65, 2.53744889933403641180e+01) (66, -5.35877525422212457329e+01) (67, -1.08503262809919984733e+01) (68, 1.50000000000000000000e+03) (69, -1.72650330193084826647e+01) (70, 9.03569487868703902222e+00) (0, -1.50000000000000000000e+03) (1, -1.32562992121121538958e+01) (2, -1.50000000000000000000e+03) (3, -1.45194572553915435265e+01) (4, -3.98098863534373776929e+02) (5, -3.41318542150975616778e+01) (6, -6.99676067379300690163e+01) (7, 4.51775569995202719298e+00) (8, 1.50000000000000000000e+03) (9, -1.39522621691034942160e+02) (10, -7.14121206323552968342e+01) (11, -2.50515067163840932096e+01) (12, 1.50000000000000000000e+03) (13, -3.18269421944172670180e+01) (14, -1.50000000000000000000e+03) (15, 3.02535332410285597859e+01) (16, 5.21263848786286985160e+01) (17, -9.45141450208497957419e+00) (18, 6.68702585906628428347e+01) (19, -8.53019536415665591278e+00) (20, 7.74202882594882112244e+02) (21, 2.23946280243866965520e+02) (22, -4.43417647160161493503e+02) (23, -1.94535315419151011440e+01) (24, -1.50000000000000000000e+03) (25, 3.06938992586814727304e+01) (26, 1.50000000000000000000e+03) (27, -9.42771728934064299210e+01) (28, 5.11397613565423370119e+01) (29, -2.63901725913910105703e+01) (30, 1.50000000000000000000e+03) (31, -5.63084563327132059385e+00) (32, -8.48894052698973098359e+01) (33, 9.57302136078311320944e+01) (34, 1.38559726792170636145e+03) (35, -4.36249779756105127149e+00) (36, 1.50000000000000000000e+03) (37, -4.32225042447441012428e+01) (38, 2.11160144072168076690e+00) (39, -2.16022662740708177864e+01) (40, 4.05451721861424061899e+02) (41, -3.20656684123169213763e+02) (42, -1.39675237671980198684e+03) (43, -1.09179163402244938652e+01) (44, -1.50000000000000000000e+03) (45, -1.74655307920711422298e+01) (46, -3.78489059339618791000e+02) (47, -1.25887139631931887607e+02) (48, -1.50000000000000000000e+03) (49, -3.87201560843225678354e+01) (50, 1.50000000000000000000e+03) (51, -1.43433544088379989034e+02) (52, 1.50000000000000000000e+03) (53, -1.54734964654556872432e+01) (54, 1.59761673725925987810e+02) (55, -2.96360273383554257975e+01) (56, 1.21403538594446058596e+03) (57, -1.59561619616976884117e+02) (58, 2.33422622741092418153e+01) (59, -3.14124544024740686154e+01) (60, 1.50000000000000000000e+03) (61, -1.29779752780306480986e+01) (62, -4.44332775047803238522e+02) (63, 4.11320821629924804341e+00) (64, -1.50000000000000000000e+03) (65, 1.83971104865239141191e+01) (66, -2.04666089125949568484e+01) (67, 3.33910395208980830262e+01) (68, -1.50000000000000000000e+03) (69, -4.43233621752754913814e+00) (70, -2.62797974009723773747e+01) (0, 1.50000000000000000000e+03) (1, 3.16649999747533072991e+01) (2, 1.50000000000000000000e+03) (3, 1.46519226296816871269e+01) (4, 1.19771487463681410190e+03) (5, -1.44586324882127517100e+01) (6, 1.81631199657798987346e+02) (7, -1.11733726481848663070e+01) (8, -1.50000000000000000000e+03) (9, 3.09317104060873049320e+00) (10, 7.04263348616883462228e+01) (11, 2.01945005785651581220e+01) (12, -1.50000000000000000000e+03) (13, -6.44584174119981589968e+00) (14, 1.50000000000000000000e+03) (15, -1.37669930122768562342e+01) (16, -2.03668332538940063614e+02) (17, 8.41809846371262437970e+00) (18, -2.31018769163628661545e+02) (19, 4.23300561195989928365e+01) (20, -1.21966803188845210570e+03) (21, -1.80462712663426628978e+02) (22, 1.14563499199508305537e+03) (23, 1.43424170290581205478e+01) (24, 1.50000000000000000000e+03) (25, 2.11546685587744498491e+01) (26, -1.50000000000000000000e+03) (27, -9.58756498590447669983e+00) (28, -2.33713131105965146617e+02) (29, -2.06496460477647438836e+01) (30, -1.49842342567744231019e+03) (31, -2.72811811307896654455e+01) (32, -4.67738701114888186794e+01) (33, -2.10998427791580525081e+01) (34, -1.50000000000000000000e+03) (35, 2.58827512421464369652e+01) (36, -1.19201768194153873992e+03) (37, -5.95354764923493906537e+00) (38, -5.08544816461111004458e+00) (39, -2.13424817300432110301e+01) (40, -2.45613324357189981129e+02) (41, 7.93583203844141735317e+02) (42, 3.20456548731157624843e+02) (43, 3.19741003416299243156e+01) (44, 1.37602152318342155013e+03) (45, 1.15552543790557589176e+01) (46, 4.34265252102192818029e+01) (47, -2.20683791786491418918e+01) (48, 1.50000000000000000000e+03) (49, 1.46648109482013371263e+01) (50, -1.50000000000000000000e+03) (51, 1.44349377153702427279e+01) (52, -4.11168026011859353730e+02) (53, -4.51713103622542533344e+00) (54, 4.81087597215531047823e+02) (55, -2.07519272397164797894e+01) (56, -1.50000000000000000000e+03) (57, 6.48305944006736609708e+01) (58, -8.25426003382430906186e+00) (59, 4.16860131369634672183e+01) (60, -1.50000000000000000000e+03) (61, 4.21583832833009974905e+00) (62, 1.26018546641741022540e+03) (63, -1.32485825351825390328e+01) (64, 1.50000000000000000000e+03) (65, -1.34433063945694328822e+01) (66, -4.45184132668611098893e+01) (67, 2.77051784178698135008e+01) (68, 1.50000000000000000000e+03) (69, 8.58470540428932515908e+00) (70, 1.52365634480900595804e+01) (0, -1.50000000000000000000e+03) (1, 2.12508579184134349660e+00) (2, -1.50000000000000000000e+03) (3, 1.66766034523838868608e+01) (4, 3.13364431578526762223e+02) (5, -2.80125581717868499254e+01) (6, 1.26984417332525424627e+02) (7, 1.10081529690223245410e+01) (8, 4.25621325538600160598e+02) (9, 1.12301488377814440156e+00) (10, -6.97178251272384386539e+02) (11, -1.69559572488777874355e+01) (12, 1.50000000000000000000e+03) (13, 3.23598943459074028794e+00) (14, -1.50000000000000000000e+03) (15, -1.70649130639959558664e+01) (16, 1.06726149227428663835e+02) (17, -1.11937256943180720725e+01) (18, 4.52988380739433154076e+01) (19, 1.61086893925660774585e+01) (20, 2.41726711187062704767e+02) (21, -1.04424512746582038858e+01) (22, -1.50000000000000000000e+03) (23, 6.59596775632244192167e+00) (24, -1.50000000000000000000e+03) (25, -1.09657044827534306819e+01) (26, 1.50000000000000000000e+03) (27, 1.31601240347666799124e+01) (28, 3.89265790837486633791e+02) (29, -3.15877001998634270308e+01) (30, -1.73259014694769994946e+01) (31, -1.56456832969025416702e+01) (32, -3.88546915839310713636e+01) (33, 4.38013017169088136882e+00) (34, 4.19650869231701960871e+02) (35, 2.73962234742641470575e+01) (36, 5.18550789322465902842e+02) (37, -3.32121232077312278363e+00) (38, 5.65546399476920782945e+02) (39, -1.35911920224188822459e+01) (40, 5.14790743168193571933e+01) (41, -3.54253920462629494637e+01) (42, -1.27819457414991770605e+01) (43, -1.53738130457190109723e+01) (44, 1.26264072639560754396e+03) (45, -2.96853466739299776123e+01) (46, -1.36538301613174184013e+02) (47, 2.28115308031985257742e+01) (48, -4.25816298349915257404e+02) (49, 5.37897689363683539909e+00) (50, -6.76978975913125054831e+02) (51, -6.42242034980182108228e+00) (52, 1.79868796245433060221e+01) (53, 9.13056327454175686853e+00) (54, 2.64607398469455517898e+02) (55, -3.88291095979722644671e+00) (56, -1.59077399962377768361e+02) (57, 1.32137912937393888768e+01) (58, 3.34933429373532931539e-01) (59, 2.41284295729345501513e+01) (60, -1.08345988281794049612e+02) (61, -4.75898082914397235754e+00) (62, -1.22512704779556770518e+03) (63, 1.67659917184196203266e+01) (64, -1.50000000000000000000e+03) (65, 1.65185834521683467813e+01) (66, 6.47455613507307390364e+01) (67, -1.20780608745832545026e+01) (68, -1.50000000000000000000e+03) (69, -1.29887016774204919756e+01) (70, 3.53618345580771853420e+00) (0, 1.50000000000000000000e+03) (1, 6.96734636591406530925e+00) (2, 1.50000000000000000000e+03) (3, -9.81205060585262955897e+00) (4, 1.20179314221112485939e+03) (5, -1.09789423202925853218e+01) (6, 1.66951788723350603050e+02) (7, -1.30503387992352521962e+01) (8, -1.50000000000000000000e+03) (9, 3.80838721217204579261e+02) (10, 8.68041427172944679569e+01) (11, 2.73858005329657032689e+01) (12, -1.50000000000000000000e+03) (13, 6.43505222884529217708e+01) (14, 1.50000000000000000000e+03) (15, -6.80531159689841541605e-02) (16, -3.08480257560819268292e+02) (17, -2.06275085736799326241e+01) (18, -2.28802212150370849031e+02) (19, 4.77012417128056824822e+01) (20, 6.81259939417892610436e+02) (21, -1.92279436176479180176e+02) (22, 1.19593008553145978112e+03) (23, 3.68912727933357018628e+01) (24, 1.50000000000000000000e+03) (25, 6.90131298114056335180e+00) (26, -1.50000000000000000000e+03) (27, 1.09223785501178184631e+02) (28, -2.22793359925747950001e+02) (29, 2.01791701685788602560e+01) (30, -1.50000000000000000000e+03) (31, -3.42166439737248406772e+00) (32, 2.23901796603049803025e+02) (33, -8.77399171945237412729e+01) (34, -1.50000000000000000000e+03) (35, 5.15166849709755041431e+01) (36, -1.50000000000000000000e+03) (37, 6.54414018729435866817e+01) (38, 5.37082420928047277187e+00) (39, 2.25939442144659139444e+01) (40, -1.17860206761065342107e+03) (41, 1.06293792333938540651e+03) (42, 1.43300100013962855883e+03) (43, 8.11258835167207337236e+00) (44, 1.50000000000000000000e+03) (45, 7.30497164732510810836e+01) (46, 1.10460988682807033001e+03) (47, 3.16769487856438104245e+02) (48, 1.50000000000000000000e+03) (49, 4.37432908299315954537e+01) (50, -1.50000000000000000000e+03) (51, 6.43228418768542155703e+02) (52, -1.50000000000000000000e+03) (53, 3.41650067240055506090e+01) (54, -4.95336997762184353178e+02) (55, 3.51153419131886508353e+01) (56, -1.50000000000000000000e+03) (57, 4.46336561992404654120e+02) (58, 9.94769106053589702299e+00) (59, 2.51167167080073667762e+01) (60, -1.50000000000000000000e+03) (61, 1.48113562100966919388e+03) (62, 1.26468589467678316396e+03) (63, 1.63941497054532732136e+01) (64, 1.50000000000000000000e+03) (65, 7.58672765760680700708e+00) (66, -5.82974495503541660923e+01) (67, -3.34679080629314924522e+01) (68, 1.50000000000000000000e+03) (69, 1.83926562030295492889e+01) (70, -1.25517294321571704074e+01) (0, -1.50000000000000000000e+03) (1, 1.29427329250727485288e+01) (2, -1.50000000000000000000e+03) (3, 5.10252045810894028222e+00) (4, -1.50000000000000000000e+03) (5, 1.26321618121033285576e+01) (6, -1.50000000000000000000e+03) (7, -8.45989951549380414519e+00) (8, 4.59321280176572315668e+02) (9, 2.57100335564798001542e+01) (10, -1.50000000000000000000e+03) (11, -3.03461228408179994886e+00) (12, -1.34442086767053410767e+03) (13, -1.58222158397158132459e+01) (14, -1.50000000000000000000e+03) (15, 2.90859786641277517916e+00) (16, 3.48229141492882234843e+01) (17, -3.13919035909871446677e+00) (18, 2.19176251778203493359e+02) (19, -2.89405722414485531147e+01) (20, 4.16113907816891241964e+02) (21, -2.20614688508393292921e+01) (22, -1.50000000000000000000e+03) (23, -9.40814558304288617308e+00) (24, -1.50000000000000000000e+03) (25, -3.30040931785453572900e+00) (26, 1.22366560713760350154e+03) (27, 2.06579812873925234840e+01) (28, -4.45396549270236263851e+00) (29, 1.44682187833473729910e+01) (30, 1.20370534280268813632e+02) (31, 1.38028653800603180457e+01) (32, -2.08134387606029633844e+02) (33, 2.02917908625130891664e+01) (34, 2.09614016385247509788e+02) (35, 1.43002505825596877287e+01) (36, 5.98617304273651825497e+02) (37, -2.14240611109346659191e+01) (38, -2.58595245176196840475e+02) (39, -1.87561547217300272905e+01) (40, 2.96300985665426708238e+02) (41, -9.62565845303379674647e+00) (42, 7.43165174706815463423e+01) (43, -1.18356669374005374351e+01) (44, -1.57125825300321455558e+01) (45, -1.57749228629893298859e+01) (46, -3.39581066493456305011e+01) (47, 2.78150750195246310170e+01) (48, 1.50000000000000000000e+03) (49, -1.40338100053165817371e+01) (50, 1.05811811070081049024e+02) (51, -2.69165204460614013726e+01) (52, 1.50000000000000000000e+03) (53, -4.51674135094986173300e+00) (54, 2.76159736961779572084e+02) (55, -6.41652598178337907342e+00) (56, -1.39508721491694021033e+00) (57, -3.26103456324828044899e+01) (58, -1.13969957514885280148e+02) (59, -9.93612117352255808100e+00) (60, 1.01745994889542100736e+03) (61, -1.35790044663302005290e+01) (62, -1.50000000000000000000e+03) (63, 2.73760867542294441535e+01) (64, -1.50000000000000000000e+03) (65, -9.03042555629526155769e+00) (66, 7.88542296780621825292e+01) (67, 6.05691535507266465288e+00) (68, -1.50000000000000000000e+03) (69, 1.01195326505754206181e+01) (70, 8.73608977254139418278e+00) (0, 1.50000000000000000000e+03) (1, -4.50145973621189965375e-01) (2, 1.50000000000000000000e+03) (3, 1.18198029429855715478e+01) (4, 1.15909877766339491245e+03) (5, -2.34274356982994689247e+01) (6, 1.25694513225559745706e+02) (7, 3.26198191174548313143e+01) (8, -1.50000000000000000000e+03) (9, 4.44479857747175799432e+00) (10, 6.42933106459898766616e+01) (11, 1.21713130999724992165e+01) (12, -1.50000000000000000000e+03) (13, -3.90872916635801981311e-01) (14, 1.50000000000000000000e+03) (15, -6.68559859599704520150e+00) (16, -3.12381954620813246493e+02) (17, -2.01228823432303656205e+01) (18, -3.26994849490868887187e+02) (19, -8.50329408046871826343e+00) (20, -6.70846549648557811452e+02) (21, -1.99774332697510708101e+01) (22, 1.15048404823897931237e+03) (23, 7.91187809039249589915e+00) (24, 1.50000000000000000000e+03) (25, -1.05667564095011936587e+01) (26, -4.50948044851501038011e+02) (27, 6.28449881387756104090e+00) (28, -1.12501099107961167078e+02) (29, -1.26250111490242975520e+01) (30, 3.39108990832701294948e+02) (31, 7.48449966075054895498e+00) (32, 1.56205158774855448200e+02) (33, -3.01686143772566950361e+01) (34, -1.50000000000000000000e+03) (35, 1.54447384830654090848e+01) (36, -1.50000000000000000000e+03) (37, -2.12326824008847161451e+01) (38, 1.46286278334345411167e+02) (39, -8.69748864112193587061e+00) (40, 5.17768770232040154156e-01) (41, 1.91002856028436447389e+01) (42, 8.50757075495332514947e+02) (43, -1.86120644017359673228e+01) (44, 1.50000000000000000000e+03) (45, -2.80743011328414882044e+00) (46, 1.54327304470605810138e+02) (47, 3.94512121775266635382e+01) (48, -5.68305287973574650096e+02) (49, 5.55275335407030024015e+00) (50, -1.50000000000000000000e+03) (51, 7.30113151572361473995e+00) (52, -1.50000000000000000000e+03) (53, -1.56415003970892652063e+01) (54, 8.49061565432877841886e+02) (55, -1.68691797870360176148e+01) (56, -1.46737300018370729049e+03) (57, -1.52528337817759790385e-01) (58, -1.83652796737281942541e+00) (59, 2.56799187978890364192e+00) (60, -1.48571213769890255207e+03) (61, 3.43474264232044390610e+01) (62, 1.25884465468333132776e+03) (63, 1.84954772693882851797e+01) (64, 1.50000000000000000000e+03) (65, 9.48481940827508296366e+00) (66, -3.25365569207307174793e+01) (67, 2.39166437960260651607e+01) (68, 1.50000000000000000000e+03) (69, -2.03093392345759511386e+01) (70, -1.56335683443624571254e+01) (0, -1.50000000000000000000e+03) (1, -5.85945923512013688850e+00) (2, -1.50000000000000000000e+03) (3, -2.87856766205961207561e+01) (4, -2.35377529911751707914e+02) (5, 9.38778009799212753705e+00) (6, 3.28272244612684929166e+01) (7, 1.54328810284082234006e+01) (8, 1.50000000000000000000e+03) (9, 3.10946011223694718240e+01) (10, 5.77143725952629793596e+01) (11, 1.23578696669942083020e+01) (12, 1.50000000000000000000e+03) (13, -1.63927205825050101851e+01) (14, -1.50000000000000000000e+03) (15, 2.24256942980213445082e+01) (16, 1.50000000000000000000e+03) (17, 6.50563184286906359688e+00) (18, 5.58590301817047247823e+02) (19, -1.62712175247992121285e+01) (20, 1.48809201619701275376e+03) (21, -1.40793117239235225924e+01) (22, -1.15479928269232868843e+03) (23, -2.71176918539300189082e+01) (24, -1.50000000000000000000e+03) (25, 3.06178036635520101072e+01) (26, 1.50000000000000000000e+03) (27, 4.49817176793015249814e+00) (28, 8.26894491195174282439e+02) (29, 1.69382051322900295531e+01) (30, 1.50000000000000000000e+03) (31, 2.06266476661615634214e+01) (32, 6.06966457241559922409e+01) (33, 1.54325191014960410030e+01) (34, 1.48697802382345048500e+03) (35, -2.14019447164126326300e+01) (36, 1.50000000000000000000e+03) (37, 8.82658535703296465158e+00) (38, 1.42427713526628929586e+00) (39, -1.25627060720808518823e+01) (40, 1.50000000000000000000e+03) (41, 4.69966221040781384488e+00) (42, 2.47112206666968489799e+02) (43, 1.94814261727216049280e+01) (44, -1.50000000000000000000e+03) (45, -1.33996079475119476143e+01) (46, -4.25982180533717347259e+00) (47, -3.24593049896013710054e+01) (48, -1.50000000000000000000e+03) (49, 2.11768676442523595682e+00) (50, 1.50000000000000000000e+03) (51, 1.24797681133875162374e+01) (52, 1.14529408130131116650e+02) (53, -1.91312134014240342594e+01) (54, -8.68484856068700651122e+02) (55, 3.93493479275264501638e+00) (56, 1.43031903287815362091e+03) (57, 6.38367304001174695749e-01) (58, -1.59956324114837711292e+00) (59, -3.04343793409643659231e+01) (60, 1.49919630961820985249e+03) (61, 2.48399851870653209929e+00) (62, -1.22593503611262258346e+03) (63, -1.49618076602428118349e+00) (64, -1.50000000000000000000e+03) (65, 3.29482426809773842891e+00) (66, 3.18690078152695832614e+01) (67, 2.37661169177070661362e+01) (68, -1.50000000000000000000e+03) (69, -2.66294959396945287722e+01) (70, 7.37123986343275205968e+00) (0, 1.50000000000000000000e+03) (1, 4.75647112844026775935e-01) (2, 1.50000000000000000000e+03) (3, -3.66900914965498259335e+00) (4, 1.50000000000000000000e+03) (5, 2.44052707431816209294e+01) (6, -6.59722249073951445553e+01) (7, 2.10067462440266083945e+01) (8, -1.50000000000000000000e+03) (9, -6.22636351293798284701e+00) (10, 9.48814443690717894242e+02) (11, 1.80290959339563414687e+01) (12, -1.50000000000000000000e+03) (13, 1.29904601904519854116e+01) (14, 1.50000000000000000000e+03) (15, 1.84452365721957995959e+01) (16, -1.10410200269423671671e+03) (17, 1.10684201471996459532e+01) (18, -9.06129581431491857302e+01) (19, -1.01431187634041837242e+01) (20, -1.47850195622232399728e+03) (21, -4.42074660246647821449e-01) (22, 1.50000000000000000000e+03) (23, -2.88617487967867181187e-01) (24, 1.50000000000000000000e+03) (25, 1.44438747828738875967e+01) (26, -1.50000000000000000000e+03) (27, 3.35692828020959410651e+01) (28, 1.52188025848998922385e+01) (29, 3.93191658320736792120e+01) (30, -1.35352118657149901537e+02) (31, 2.07948858641521034940e+01) (32, 1.84278164923148892740e+02) (33, -4.42094441069573029779e+00) (34, -1.24856046123841409212e+02) (35, 1.78886386341263801114e+01) (36, -1.50000000000000000000e+03) (37, 2.51571614660060980384e+01) (38, 8.84636348305516051482e+00) (39, 1.44137150598476289076e+01) (40, -5.04552064633331127652e+01) (41, 6.98423705136927992498e+01) (42, -1.24647317349211107285e+03) (43, -1.88619268434254721001e+01) (44, 2.86257185275818585524e+02) (45, 1.38332372783970014574e+00) (46, 3.62086412186173944860e+01) (47, -1.55605351659293145161e+01) (48, 3.59236961058556047988e+01) (49, -2.37747130943747926324e+01) (50, -4.12210366018522506693e+02) (51, 1.94926965897705066766e+01) (52, -4.18199011884501388181e+01) (53, -6.41629966817252750388e+00) (54, -9.20209780535947885483e+01) (55, -2.76270089270644936263e+00) (56, -1.01802559464775652032e+03) (57, 5.60131376175825401731e+00) (58, -7.61904702918093335029e+01) (59, -1.52525897361347606562e+01) (60, -1.50000000000000000000e+03) (61, 1.24277381757046825328e+01) (62, 1.28281392686396043246e+03) (63, 2.26143778921299798412e+01) (64, 1.50000000000000000000e+03) (65, -1.67234347071170574850e+01) (66, -7.79951102349392613178e+01) (67, -8.07037109505797545239e+00) (68, 1.50000000000000000000e+03) (69, 1.57880923543454283475e+01) (70, -2.26577646165755126617e+01) (0, 1.50000000000000000000e+03) (1, 1.68813812974161692182e+01) (2, 1.50000000000000000000e+03) (3, 2.77846201878303915578e+01) (4, 1.20286107434003133676e+03) (5, 2.23158330687691872640e+01) (6, 1.56711281597495798223e+02) (7, -8.77500362387182519797e+00) (8, -1.50000000000000000000e+03) (9, 3.49060755133899306202e+02) (10, 6.17388100661560912386e+01) (11, 1.43604219458586257474e+01) (12, -1.50000000000000000000e+03) (13, 1.67761501361650147146e+02) (14, 1.50000000000000000000e+03) (15, -1.13013873343998305643e+01) (16, -3.11594134857266965355e+02) (17, -1.53336644539729967107e+01) (18, -2.58011138655633601502e+02) (19, 1.69681095589261232703e+01) (20, 6.81259939417892610436e+02) (21, -3.69290383431118868884e+02) (22, 1.16947803830264615499e+03) (23, -1.65649981850240237691e+01) (24, 1.50000000000000000000e+03) (25, -1.79455631454859454443e+00) (26, -1.50000000000000000000e+03) (27, 1.21985160208704797924e+02) (28, -2.19846997830569932830e+02) (29, -1.46257090583547011420e+01) (30, -1.50000000000000000000e+03) (31, 2.07945217029817612797e+01) (32, 2.29618877672996148931e+02) (33, -3.72351671591786384852e+02) (34, -1.50000000000000000000e+03) (35, 1.57335912211227118007e+01) (36, -1.18174470411255947511e+03) (37, 1.34936844870926240247e+01) (38, 5.82651983840034581874e+00) (39, 2.59661490201411204737e+01) (40, -1.19464096798601963201e+03) (41, 1.11302264975685162085e+02) (42, 1.43300100013962855883e+03) (43, -1.04295463826554453135e+01) (44, 1.50000000000000000000e+03) (45, -1.80873051825290644956e+01) (46, 1.06214685029089991986e+03) (47, 3.23805264062788467072e+02) (48, 1.50000000000000000000e+03) (49, 3.92882177141613908589e+00) (50, -1.50000000000000000000e+03) (51, 6.76732469923726284833e+02) (52, -1.50000000000000000000e+03) (53, 1.97614898022646876541e+01) (54, 1.50000000000000000000e+03) (55, 1.00406136382231601090e+01) (56, -1.49718090461267684077e+03) (57, 4.54637298524167988489e+02) (58, -4.60447598892366443124e+01) (59, 1.43940145750007459924e+01) (60, -1.50000000000000000000e+03) (61, 1.91738055210983191046e+02) (62, 1.27009858174000055442e+03) (63, 3.40702258467508745099e+00) (64, 1.50000000000000000000e+03) (65, -5.22442282088734444301e+00) (66, -6.53632485482327609816e+01) (67, 4.05297255179734747799e+01) (68, 1.50000000000000000000e+03) (69, -2.47672743369055261553e+01) (70, 3.09992302727334596568e+01) (0, 1.50000000000000000000e+03) (1, 1.21127097506793148796e+01) (2, 1.50000000000000000000e+03) (3, 1.94701073460210380972e+01) (4, 1.18232200611798475620e+03) (5, -1.50947014002628439044e+01) (6, 1.32476425945640642112e+02) (7, -1.39767513816327131337e+01) (8, -1.50000000000000000000e+03) (9, 3.66046789349605148800e+02) (10, 1.02884529594354276583e+02) (11, -2.59940845522321906103e+00) (12, -1.50000000000000000000e+03) (13, 6.49961637506684297705e+01) (14, 1.50000000000000000000e+03) (15, -7.89767007184072689085e+00) (16, -2.98022075225919309105e+02) (17, -6.38978732132600857341e+00) (18, -2.86146389251358527872e+02) (19, -2.82679198074428192911e+01) (20, 6.81259939417892610436e+02) (21, -2.03719775621436781421e+02) (22, 1.16915890895484540124e+03) (23, 2.14794826608111506516e+01) (24, 1.50000000000000000000e+03) (25, 2.31152822208814008320e+01) (26, -1.50000000000000000000e+03) (27, 9.94160863952347995109e+01) (28, -2.08266593625546306612e+02) (29, 1.99276603566972774217e+01) (30, -1.50000000000000000000e+03) (31, -1.82834166875627630588e+01) (32, 2.04554816865768543721e+02) (33, -1.03078024967114544097e+02) (34, -1.50000000000000000000e+03) (35, 4.12346847648942542719e+01) (36, -1.50000000000000000000e+03) (37, 5.27530605987945264701e+01) (38, -2.83345783608391865727e+00) (39, 1.78717115813785234479e+01) (40, -1.19802810730639316716e+03) (41, 1.02966401697505784796e+03) (42, 1.43300100013962855883e+03) (43, 8.98836221251539768673e+00) (44, 1.50000000000000000000e+03) (45, 7.05573802000576648652e+01) (46, 1.12758294934332957382e+03) (47, 3.45877134798577060337e+02) (48, 1.50000000000000000000e+03) (49, 3.16870430508044043094e+00) (50, -1.50000000000000000000e+03) (51, 1.58224200713942167340e+02) (52, -1.50000000000000000000e+03) (53, 1.86365339254161028748e+01) (54, -5.37040562406043932242e+02) (55, 6.12099907512319276748e+01) (56, -1.50000000000000000000e+03) (57, 4.27529443201536480501e+02) (58, 6.37663634448162142121e+00) (59, -9.77095852310209878056e+00) (60, -1.50000000000000000000e+03) (61, 5.43949553874841313927e+01) (62, 1.25188649029407679336e+03) (63, -2.40136673597091743204e+00) (64, 1.50000000000000000000e+03) (65, -1.48209289580857319635e+01) (66, -4.85696827981111098893e+01) (67, 1.86784399292244671642e+01) (68, 1.50000000000000000000e+03) (69, 1.04549291874047534101e+00) (70, 1.98810012965109237371e+01) (71, 2.40715539628195038802e+01) (72, 2.42148865672385795733e+01) (73, 5.79572248496503483750e+00) (74, 1.88050236823274339315e+01) (75, -9.71357451493729051606e+00) (76, 3.65454833330745687547e+00) (77, 1.50000000000000000000e+03) (78, 1.50000000000000000000e+03) (79, -2.01468338610618111773e+01) (80, -2.06097488712580059200e+01) (81, 1.50000000000000000000e+03) (82, -1.74837299453698591378e+01) (83, 7.42599497222437943122e+00) (84, -2.01829754112617756334e+01) (85, 2.30273251910495524442e+00) (86, -1.84304760030288399264e+01) (87, 1.83978809175167490331e+00) (88, -8.32121164461350382169e+00) (89, -7.24767163199370223481e+00) (90, -4.24943116611775639768e+00) (91, 1.70917746692244136852e+01) 
