FANN_FLO_2.1
num_layers=3
learning_rate=0.700000
connection_rate=1.000000
network_type=0
learning_momentum=0.000000
training_algorithm=2
train_error_function=1
train_stop_function=0
cascade_output_change_fraction=0.010000
quickprop_decay=-0.000100
quickprop_mu=1.750000
rprop_increase_factor=1.001000
rprop_decrease_factor=0.500000
rprop_delta_min=0.000000
rprop_delta_max=50.000000
rprop_delta_zero=0.100000
cascade_output_stagnation_epochs=12
cascade_candidate_change_fraction=0.010000
cascade_candidate_stagnation_epochs=12
cascade_max_out_epochs=150
cascade_max_cand_epochs=150
cascade_num_candidate_groups=2
bit_fail_limit=3.49999999999999977796e-01
cascade_candidate_limit=1.00000000000000000000e+03
cascade_weight_multiplier=4.00000000000000022204e-01
cascade_activation_functions_count=10
cascade_activation_functions=3 5 7 8 10 11 14 15 16 17 
cascade_activation_steepnesses_count=4
cascade_activation_steepnesses=2.50000000000000000000e-01 5.00000000000000000000e-01 7.50000000000000000000e-01 1.00000000000000000000e+00 
layer_sizes=71 31 2 
scale_included=0
neurons (num_inputs, activation_function, activation_steepness)=(0, 0, 0.00000000000000000000e+00) (0, 0, 0.00000000000000000000e+00) (0, 0, 0.00000000000000000000e+00) (0, 0, 0.00000000000000000000e+00) (0, 0, 0.00000000000000000000e+00) (0, 0, 0.00000000000000000000e+00) (0, 0, 0.00000000000000000000e+00) (0, 0, 0.00000000000000000000e+00) (0, 0, 0.00000000000000000000e+00) (0, 0, 0.00000000000000000000e+00) (0, 0, 0.00000000000000000000e+00) (0, 0, 0.00000000000000000000e+00) (0, 0, 0.00000000000000000000e+00) (0, 0, 0.00000000000000000000e+00) (0, 0, 0.00000000000000000000e+00) (0, 0, 0.00000000000000000000e+00) (0, 0, 0.00000000000000000000e+00) (0, 0, 0.00000000000000000000e+00) (0, 0, 0.00000000000000000000e+00) (0, 0, 0.00000000000000000000e+00) (0, 0, 0.00000000000000000000e+00) (0, 0, 0.00000000000000000000e+00) (0, 0, 0.00000000000000000000e+00) (0, 0, 0.00000000000000000000e+00) (0, 0, 0.00000000000000000000e+00) (0, 0, 0.00000000000000000000e+00) (0, 0, 0.00000000000000000000e+00) (0, 0, 0.00000000000000000000e+00) (0, 0, 0.00000000000000000000e+00) (0, 0, 0.00000000000000000000e+00) (0, 0, 0.00000000000000000000e+00) (0, 0, 0.00000000000000000000e+00) (0, 0, 0.00000000000000000000e+00) (0, 0, 0.00000000000000000000e+00) (0, 0, 0.00000000000000000000e+00) (0, 0, 0.00000000000000000000e+00) (0, 0, 0.00000000000000000000e+00) (0, 0, 0.00000000000000000000e+00) (0, 0, 0.00000000000000000000e+00) (0, 0, 0.00000000000000000000e+00) (0, 0, 0.00000000000000000000e+00) (0, 0, 0.00000000000000000000e+00) (0, 0, 0.00000000000000000000e+00) (0, 0, 0.00000000000000000000e+00) (0, 0, 0.00000000000000000000e+00) (0, 0, 0.00000000000000000000e+00) (0, 0, 0.00000000000000000000e+00) (0, 0, 0.00000000000000000000e+00) (0, 0, 0.00000000000000000000e+00) (0, 0, 0.00000000000000000000e+00) (0, 0, 0.00000000000000000000e+00) (0, 0, 0.00000000000000000000e+00) (0, 0, 0.00000000000000000000e+00) (0, 0, 0.00000000000000000000e+00) (0, 0, 0.00000000000000000000e+00) (0, 0, 0.00000000000000000000e+00) (0, 0, 0.00000000000000000000e+00) (0, 0, 0.00000000000000000000e+00) (0, 0, 0.00000000000000000000e+00) (0, 0, 0.00000000000000000000e+00) (0, 0, 0.00000000000000000000e+00) (0, 0, 0.00000000000000000000e+00) (0, 0, 0.00000000000000000000e+00) (0, 0, 0.00000000000000000000e+00) (0, 0, 0.00000000000000000000e+00) (0, 0, 0.00000000000000000000e+00) (0, 0, 0.00000000000000000000e+00) (0, 0, 0.00000000000000000000e+00) (0, 0, 0.00000000000000000000e+00) (0, 0, 0.00000000000000000000e+00) (0, 0, 0.00000000000000000000e+00) (71, 4, 5.00000000000000000000e-01) (71, 4, 5.00000000000000000000e-01) (71, 4, 5.00000000000000000000e-01) (71, 4, 5.00000000000000000000e-01) (71, 4, 5.00000000000000000000e-01) (71, 4, 5.00000000000000000000e-01) (71, 4, 5.00000000000000000000e-01) (71, 4, 5.00000000000000000000e-01) (71, 4, 5.00000000000000000000e-01) (71, 4, 5.00000000000000000000e-01) (71, 4, 5.00000000000000000000e-01) (71, 4, 5.00000000000000000000e-01) (71, 4, 5.00000000000000000000e-01) (71, 4, 5.00000000000000000000e-01) (71, 4, 5.00000000000000000000e-01) (71, 4, 5.00000000000000000000e-01) (71, 4, 5.00000000000000000000e-01) (71, 4, 5.00000000000000000000e-01) (71, 4, 5.00000000000000000000e-01) (71, 4, 5.00000000000000000000e-01) (71, 4, 5.00000000000000000000e-01) (71, 4, 5.00000000000000000000e-01) (71, 4, 5.00000000000000000000e-01) (71, 4, 5.00000000000000000000e-01) (71, 4, 5.00000000000000000000e-01) (71, 4, 5.00000000000000000000e-01) (71, 4, 5.00000000000000000000e-01) (71, 4, 5.00000000000000000000e-01) (71, 4, 5.00000000000000000000e-01) (71, 4, 5.00000000000000000000e-01) (0, 4, 5.00000000000000000000e-01) (31, 4, 9.00000000000000022204e-01) (0, 4, 9.00000000000000022204e-01) 
connections (connected_to_neuron, weight)=(0, 1.50000000000000000000e+03) (1, 2.48068019823027263726e+01) (2, 1.50000000000000000000e+03) (3, 1.49388246350313185218e+01) (4, 4.04166317755690783997e+02) (5, -2.30373842941679889407e+01) (6, 8.50964441222663907638e+01) (7, 8.13958960460936964409e+00) (8, -9.78400260833238007763e+02) (9, 5.99970433448381879060e+00) (10, 9.23007928518639232607e+02) (11, -6.88152612362755977671e+00) (12, -1.50000000000000000000e+03) (13, 1.09424175337136190933e+02) (14, 1.50000000000000000000e+03) (15, -1.42327179801110457191e+01) (16, 7.44251735528162505773e+00) (17, 2.13748450165024728165e+01) (18, -1.87114964942853845287e+01) (19, 9.93031755329188996484e+01) (20, 3.92855364134019566791e+01) (21, -2.44814304778785585270e+00) (22, 1.50000000000000000000e+03) (23, -5.74959691949997875327e+00) (24, 1.50000000000000000000e+03) (25, 2.06122452212912143921e+01) (26, -1.50000000000000000000e+03) (27, 1.67826549795532784515e+01) (28, 1.50000000000000000000e+03) (29, -1.03501512020440273432e+02) (30, -1.74161738182103306372e+02) (31, 1.50000000000000000000e+03) (32, 3.46384191914327743689e+02) (33, -1.50527224104052343989e+01) (34, -4.52498105998848586751e+02) (35, 1.50000000000000000000e+03) (36, -1.02956079122314963570e+03) (37, -5.90652399412273609869e+00) (38, 3.62192622670281423325e+02) (39, -1.11362305507404730776e+01) (40, -1.39166492604517827658e+02) (41, 2.27499879957678423636e+01) (42, 1.38276230292990636173e+01) (43, 6.60587322524094044951e+00) (44, 7.92858796456467587177e+01) (45, -1.23887351564002323734e+00) (46, -1.08414345721590325411e+03) (47, 1.61286775583587882466e+01) (48, -2.21962982618841891735e+02) (49, 2.53289979882228379893e+02) (50, 1.42346977833721575735e+03) (51, 8.84342331983573330945e+01) (52, -1.50000000000000000000e+03) (53, -2.37653318967976234788e+00) (54, -2.84865948999729745594e+01) (55, 7.36395577006446089285e+00) (56, -1.74126879117082950188e+02) (57, 6.38329934623630279589e+01) (58, 1.50000000000000000000e+03) (59, 4.66722569299558145417e+01) (60, 1.50000000000000000000e+03) (61, 2.88555425550605207263e+02) (62, 1.60023004302766423734e+02) (63, 9.67115553322241261469e+00) (64, 1.50000000000000000000e+03) (65, 2.10489140227268691774e+01) (66, 3.57190463897982226626e+01) (67, 2.36768766034409772203e+01) (68, 1.50000000000000000000e+03) (69, -1.29137431318657132095e+01) (70, 4.51000048128534292147e+00) (0, 1.45000000000000000000e+03) (1, 1.39241968074335016325e+01) (2, -1.50000000000000000000e+03) (3, -3.51516905636657961409e+00) (4, -1.08137741298178957550e+03) (5, 5.61305825882982833974e+00) (6, -4.52632430400716643248e+01) (7, -2.34169106965066404769e+01) (8, 8.10905439499597719077e+02) (9, -1.82041472066883436298e+01) (10, -9.38839642277804728110e+02) (11, -3.08217564801971768418e+01) (12, 1.50000000000000000000e+03) (13, 9.03136333611642960761e+00) (14, -1.50000000000000000000e+03) (15, 1.25585456966829802639e+01) (16, -5.60620765071578333050e+01) (17, 1.24860438438351017965e+01) (18, 2.51443465158356289635e+01) (19, 2.38177105208620822907e+01) (20, 1.43758927897413339991e+01) (21, -1.74330619952808518747e+01) (22, -1.50000000000000000000e+03) (23, 3.73141570982148635949e+01) (24, -1.50000000000000000000e+03) (25, 6.71401033079209330623e+00) (26, 3.09695000937155555221e+02) (27, -2.24588624608786382453e+01) (28, 1.33836178171009208882e+02) (29, 2.42696508670301120958e+01) (30, -8.02184424224904191192e+00) (31, 2.17499847561947454722e+01) (32, -4.50744155439711917666e+01) (33, 1.33317868657000815347e+01) (34, 2.84220737618368161748e+02) (35, -1.91011761302444327271e+01) (36, 6.93054672245761253180e+02) (37, 1.23342758332216533290e+01) (38, -5.94076116949792094601e+02) (39, -1.95637290145946884934e+01) (40, 5.80520038474420516650e+01) (41, 2.68365556747113664926e+01) (42, 1.26981093662437643843e+02) (43, -1.86850677623652110526e+01) (44, -1.98661537996227122171e+00) (45, -7.32435132982360403986e+00) (46, 1.66272928426559509774e+01) (47, -3.06440625978122085371e+01) (48, 3.35214970844561776175e+02) (49, -5.62401871334409442227e+00) (50, -1.77061563712823925698e+02) (51, -8.30976605151871261512e+00) (52, 1.49250280249088035589e+02) (53, -2.09998198957158415112e+01) (54, 1.22200762479218929002e+03) (55, 4.03604669069112453883e+00) (56, 1.90646134485128555980e+02) (57, -2.65374886301867256577e+01) (58, -2.78824322256070388448e+02) (59, -2.21533643603902454799e+01) (60, 7.68171313365380569849e+02) (61, 1.56314426274099478320e+01) (62, 3.31958424005908483423e+01) (63, 3.31008338391709955317e+01) (64, -1.50000000000000000000e+03) (65, -8.27212674413456250377e-01) (66, -3.50744333223122453091e+01) (67, -1.56572962905003603140e+01) (68, -1.50000000000000000000e+03) (69, 5.79933127551218507989e+00) (70, 1.37579131999505914763e+01) (0, 1.45000000000000000000e+03) (1, -6.92747784329019733462e+00) (2, -1.50000000000000000000e+03) (3, -2.69536095542044984441e+00) (4, -1.22503452685471145855e+02) (5, 1.42469116323939175572e+01) (6, -4.37779525564997484821e+01) (7, -6.61052610278182228853e+00) (8, 1.05095533411189262551e+03) (9, 1.69302089951594858519e+01) (10, -6.81287249786499842230e+02) (11, 2.56980656861243090816e+01) (12, 1.50000000000000000000e+03) (13, 1.56035825921477311340e+01) (14, -1.50000000000000000000e+03) (15, 6.88577058282604692607e+00) (16, -7.83360350533020333152e-01) (17, -8.71712777327463150812e+00) (18, -6.00482577108713933001e+00) (19, -2.47807182312427176640e+00) (20, 2.38325140279325502490e+01) (21, -1.14582929682206491329e+00) (22, -1.50000000000000000000e+03) (23, 1.47635942556230013167e+01) (24, -1.50000000000000000000e+03) (25, -1.06824666506630823193e+01) (26, 1.50000000000000000000e+03) (27, 7.53381538521838756139e+00) (28, 1.81834626021495293635e+00) (29, 3.29548503302701902840e+01) (30, 3.49165965257307334468e+02) (31, 3.00184995402074683568e+00) (32, -1.56809008970761993851e+02) (33, -7.38483412592779231431e+00) (34, 1.38774170177883570432e+03) (35, -1.37704879765072014663e+01) (36, 3.61639041444746851539e+02) (37, 1.75014557146633080720e+01) (38, -3.36680948505103003754e+02) (39, -2.73191934899513135804e+01) (40, 8.90914562827048712279e+02) (41, -2.33789737269293524946e+01) (42, 3.89766832364144448775e+01) (43, 9.70516072380344541060e-01) (44, -2.01970576033731781251e+01) (45, 1.24863743920091785355e+01) (46, 6.76649679263034840915e+02) (47, -8.51618707557438625599e+00) (48, 1.48723937553464497796e+03) (49, 7.46861238981072261822e+00) (50, -3.17665401957993481119e+02) (51, -8.13826815757592214595e+00) (52, 1.50000000000000000000e+03) (53, -1.12328171006922161723e+01) (54, 2.33999568114991717493e+02) (55, -2.67092170575679332956e+00) (56, 1.23649488648355500686e+02) (57, -1.49212839470056657376e+00) (58, -1.50000000000000000000e+03) (59, -2.58964748030771296783e+00) (60, 4.52872866749324202829e+02) (61, -1.27551542444197263393e+01) (62, -1.34201433713368459166e+02) (63, -3.69478578774222654602e+00) (64, -1.50000000000000000000e+03) (65, -1.11457356505705718064e+01) (66, -4.03109334709773321492e+01) (67, -3.39508731600360746938e+00) (68, -1.50000000000000000000e+03) (69, -4.15164690894226318107e+00) (70, 8.38215145045577436633e+00) (0, 1.50000000000000000000e+03) (1, 4.09328559433763246034e+01) (2, 1.50000000000000000000e+03) (3, 4.69045020967773940157e+00) (4, 4.06362953478804797669e+02) (5, 3.20244392968922308995e+00) (6, 7.80234441680430137467e+01) (7, 6.49577325488861223590e+00) (8, -9.61853596595262388291e+02) (9, -3.50182968428663310423e-01) (10, 9.33265568403587280955e+02) (11, 2.20628493087070829404e+01) (12, -1.50000000000000000000e+03) (13, 1.04896444748710578665e+02) (14, 1.50000000000000000000e+03) (15, 1.70608496940756886318e+01) (16, -2.80716318331856085067e+00) (17, 1.53081343446032747124e+01) (18, 3.51783261490639276303e+00) (19, 1.90339704412346355511e+00) (20, 2.69082875915050543369e+01) (21, 1.58369040613476794732e+01) (22, 1.50000000000000000000e+03) (23, 9.53277268690500712012e+00) (24, 1.50000000000000000000e+03) (25, -1.07992898078633814407e+01) (26, -1.50000000000000000000e+03) (27, -2.60338573349718345185e+01) (28, 1.50000000000000000000e+03) (29, -1.23219934436573439029e+02) (30, -1.78281673485138327351e+02) (31, 1.38365114876374468622e+03) (32, 3.38287214680440911252e+02) (33, -5.62118449323376179194e-01) (34, -9.29941327484103794632e+02) (35, 9.52099814628188738652e+01) (36, -6.88114417786326043824e+02) (37, 2.00281024152362157054e+01) (38, 3.09214599141228632107e+02) (39, -1.94973733716583979003e+01) (40, -2.62190628462828158263e+02) (41, 1.94414068171760234804e+01) (42, 2.14288234702055007119e+01) (43, -2.93474538418590968902e+00) (44, 6.18147088825508532750e+01) (45, -4.68226408272812921751e+00) (46, -9.28452088054341174939e+02) (47, -6.87102051476650643735e+00) (48, -2.40484057828230902487e+02) (49, 2.74060166659830088065e+02) (50, 1.42346977833721575735e+03) (51, 4.35757598400872723232e+01) (52, -1.50000000000000000000e+03) (53, 2.00219158209879779520e+01) (54, -2.12654468062455919153e+02) (55, 4.28310625348984288507e+01) (56, -1.21788928082713169943e+02) (57, 4.78348848204642180804e+01) (58, 1.50000000000000000000e+03) (59, -2.54304931282748327703e+01) (60, 1.50000000000000000000e+03) (61, 1.21008258802811678834e+03) (62, 1.26172670135285784454e+02) (63, -6.37404867096901650569e+00) (64, 1.50000000000000000000e+03) (65, -8.48690189481245482739e+00) (66, 6.36223609802520542189e+01) (67, -2.21707177342736905246e+01) (68, 1.50000000000000000000e+03) (69, 1.73306686118330652846e+01) (70, 1.04658490876666991909e+01) (0, 1.45000000000000000000e+03) (1, -9.34978915274171762384e-01) (2, -1.50000000000000000000e+03) (3, -2.98506604367921042353e+01) (4, -1.31465805843313546575e+03) (5, -1.60900607584644710357e+01) (6, -6.81635720197819239274e+01) (7, 1.12680538829150322933e+00) (8, 1.48475504260815091584e+03) (9, -2.33488536894418565737e+01) (10, -1.13730696979919389378e+03) (11, -3.54757131479716463218e+01) (12, 1.50000000000000000000e+03) (13, 4.49802150859222127366e+00) (14, -1.50000000000000000000e+03) (15, 9.89513536612017752248e+00) (16, 8.43426627505246528926e+01) (17, -3.86022682229983260527e+00) (18, 3.34024248475943280612e-02) (19, -1.47196023787850229780e+01) (20, -1.41815770368764066944e+01) (21, -2.96967907795291239381e+01) (22, -1.50000000000000000000e+03) (23, 1.63118635280075316984e+01) (24, -1.50000000000000000000e+03) (25, 2.03898621357510947405e+01) (26, 1.50000000000000000000e+03) (27, 1.28409850953386168726e+01) (28, 5.15340678924367097125e+01) (29, 7.17168274216330647874e+00) (30, 9.69266232062244270651e+00) (31, -9.89673548524745094745e-01) (32, 7.45909149522774896468e+02) (33, 7.23068534521067984855e+00) (34, 1.45512417695228509729e+03) (35, 8.53391010871475330646e+00) (36, -1.00488052446777828663e+02) (37, 1.48499445119661643844e+01) (38, -3.03876746651209316497e+02) (39, 1.85718747474094065808e+01) (40, 6.91709477316016204895e+02) (41, 1.92764757901368710691e+01) (42, 1.48371710436213356843e+03) (43, -2.50000621941262792802e+01) (44, -1.71441062348417034400e+02) (45, 2.82379799639729647254e+01) (46, 2.14512992626127726226e+02) (47, 3.03905918982979450504e+00) (48, 8.85605283914978542725e+01) (49, -9.04669812817698471008e+00) (50, -5.58234759740396171424e+01) (51, 1.99060171404598840184e+01) (52, 1.50000000000000000000e+03) (53, 9.39377691638187428680e+00) (54, 5.06380956783563533463e+02) (55, -1.67557160795032444867e+01) (56, 1.54190943148979755506e+02) (57, 1.25937269052879585729e+01) (58, -1.19946035637377372041e+03) (59, -9.36518939982185294468e+00) (60, 1.78116881630676488157e+02) (61, 2.55777031547666355848e+00) (62, -2.60173260312941323491e+01) (63, 2.88493393788092831187e+01) (64, -1.50000000000000000000e+03) (65, 2.17079660735879781397e-01) (66, -2.98327270593918747466e+01) (67, 7.68093846899494625546e+00) (68, -1.50000000000000000000e+03) (69, -2.40777629114753111139e+01) (70, 4.48207531520288782190e+00) (0, 1.45000000000000000000e+03) (1, -1.22277088215490330469e+01) (2, -1.50000000000000000000e+03) (3, -1.09409702205057204338e+01) (4, -3.93727968383768143212e+02) (5, 8.50223878137463984217e+00) (6, -8.60851734065210365543e+01) (7, -1.62123073854728829701e+01) (8, 9.31216980742098712653e+02) (9, 1.73705400521348742870e+01) (10, -9.03402307152249591127e+02) (11, 2.35021031313685480058e+00) (12, 1.50000000000000000000e+03) (13, -1.83798277315865909998e+01) (14, -1.50000000000000000000e+03) (15, 1.46253422688505505533e+01) (16, -4.36823799107818118159e+01) (17, -1.61519402327737076064e+01) (18, 5.54372431092207040848e+00) (19, 1.15244166002280845618e+01) (20, 2.16748082455418362713e+01) (21, 1.59425165650996234490e+01) (22, -1.50000000000000000000e+03) (23, -1.11251057737339009712e+00) (24, -1.50000000000000000000e+03) (25, 1.93838693084155728741e+01) (26, 1.50000000000000000000e+03) (27, 6.75676819910407466807e+00) (28, -1.20577893200999960754e+03) (29, -7.22623822361478512777e-02) (30, 1.35640799496730522833e+02) (31, -2.33302331337654536014e+01) (32, -3.39736335126096662407e+02) (33, 1.36512488995442882178e+00) (34, 9.66506255305932313604e+02) (35, -2.13516553371796860006e+01) (36, 6.93994761312791183627e+02) (37, -3.95942908041795504914e+00) (38, -3.58958390967339482813e+02) (39, 2.68389572847068365036e+01) (40, 2.80775538434178088210e+02) (41, -2.86070433632092111509e+01) (42, 5.25434728221465661591e+02) (43, -7.96099612881142199017e-02) (44, -8.23627269321642643263e+01) (45, 6.80706655802417515133e+00) (46, 9.41726824707130390379e+02) (47, 1.88772888512895176127e+00) (48, 5.61603268120149891729e+02) (49, -2.97738861040921527490e+01) (50, -7.78193867350770915436e+02) (51, 1.87169512711551568884e+01) (52, 1.50000000000000000000e+03) (53, -1.39349390980047083133e+01) (54, 2.00697367477203982844e+02) (55, -1.37945073215904301378e+01) (56, 1.79303268585980504213e+02) (57, -1.25040604259781940044e+01) (58, -1.50000000000000000000e+03) (59, 1.64691933986991259076e+01) (60, 5.10314706970379006634e+02) (61, -2.88473725172369057645e+01) (62, -1.59430396611622995806e+02) (63, 1.16972611087860034473e+01) (64, -1.50000000000000000000e+03) (65, 4.50999835736036445155e+01) (66, -3.93297204927223589266e+01) (67, -2.62027548088369535151e+01) (68, -1.50000000000000000000e+03) (69, 3.98688074117935231655e+00) (70, 3.47342454676300604888e+01) (0, 1.45000000000000000000e+03) (1, -1.34086300840631285070e+01) (2, -1.50000000000000000000e+03) (3, 1.59541429570662138815e+01) (4, -1.23698830075031060005e+03) (5, -2.55968919717811722592e+01) (6, 1.00732157553583085985e+01) (7, 1.09618722800644210480e+01) (8, 2.65713390963728329552e+02) (9, 4.36501287014752481497e+00) (10, -9.22575056194760122708e+02) (11, 5.89431026712391226141e-01) (12, 1.50000000000000000000e+03) (13, -2.39560392768968313248e+01) (14, -1.50000000000000000000e+03) (15, -1.65650289495430911302e+01) (16, 2.28151787370764864704e+01) (17, 6.73990813405912625456e+00) (18, 3.59998358118544103945e+01) (19, 8.07055142279480541845e+00) (20, 4.16656359572124443957e+01) (21, 9.39066820521282430434e+00) (22, -1.50000000000000000000e+03) (23, 2.39090657805636155331e+01) (24, -1.50000000000000000000e+03) (25, 2.60915609334890739035e+01) (26, 1.50000000000000000000e+03) (27, -3.75098000863704683638e+01) (28, -2.30625572918264992950e+02) (29, -3.21520351445649321676e+00) (30, 8.99119963648974334092e+01) (31, 5.84921182171596498733e+00) (32, 1.73232534006391261983e+02) (33, -2.23820089774797530424e+01) (34, 3.73773576127833990768e+01) (35, -3.03467793277513600003e+01) (36, 1.48711493454730612029e+03) (37, 4.10352583510429980151e+01) (38, -1.50000000000000000000e+03) (39, -1.59953716106903289784e+01) (40, 6.58305380988814761167e+01) (41, 1.59538646606519787241e+01) (42, 4.71428638102311253988e+02) (43, -3.31830520393509109667e+00) (44, 1.98300376321294180570e+02) (45, -2.72356726228913466059e+01) (46, 3.10375306730586714821e+02) (47, -1.07001461032218596614e+01) (48, 5.07811462046955455207e+02) (49, 2.69936322904092413921e+01) (50, -1.13059820075567222375e+03) (51, -1.48029784902428200866e+01) (52, 2.11516822674119083558e+02) (53, 1.27730071489324821243e+01) (54, -5.61684878291119275673e+02) (55, 8.89886174092381843082e+00) (56, 2.11317342073075906228e+02) (57, 1.58890153826870736964e+01) (58, -4.25490415374616546274e+01) (59, 1.43824232762415036291e+01) (60, 3.01693095735988549677e+02) (61, 7.89748128120484071957e+00) (62, 1.50645580437891002390e+00) (63, 1.07662240363088601569e+00) (64, -1.50000000000000000000e+03) (65, -1.65814010263026467840e+01) (66, 5.95994442678509628308e+01) (67, -1.95435149326361945477e+00) (68, -1.50000000000000000000e+03) (69, -1.84183681593135801791e+01) (70, -5.67584554185500689272e+00) (0, 1.45000000000000000000e+03) (1, -3.27857616075780056164e+00) (2, -1.50000000000000000000e+03) (3, -6.16182911818611156463e+00) (4, -3.88911554027536340072e+02) (5, -3.31499827412130727566e+01) (6, -9.89636743449365070546e+01) (7, 5.25830821358877487093e-01) (8, 9.48322434233309877527e+02) (9, -1.50750544922930096448e+01) (10, -9.25420858025051984441e+02) (11, 9.83905852028649552388e-01) (12, 1.50000000000000000000e+03) (13, -6.26951233040744604352e+00) (14, -1.50000000000000000000e+03) (15, 1.06001373542576935449e+01) (16, -3.84261362564769681782e+00) (17, -3.84640669114059363665e+00) (18, 4.35411560417399456924e+01) (19, -2.89072906594958745075e+01) (20, -7.70178070865327080163e-01) (21, 2.17032534696169641109e+01) (22, -1.50000000000000000000e+03) (23, -2.95552431845273000377e+00) (24, -1.50000000000000000000e+03) (25, -3.38708911974898398967e+01) (26, 1.50000000000000000000e+03) (27, -1.63532574360242790590e+01) (28, -1.50000000000000000000e+03) (29, 1.49840520851317133832e+01) (30, 1.75581395123562003846e+02) (31, -1.87274202704551754550e+02) (32, -3.08240505543882363781e+02) (33, -1.77297147360848263986e+01) (34, 8.87838615225925536834e+02) (35, -9.65374706910677957694e+01) (36, 7.01572079981156662143e+02) (37, -6.84967449939984263096e+00) (38, -3.46947510973900818954e+02) (39, -2.13366536157968234022e+01) (40, 2.83702127843650600880e+02) (41, -1.17113893561037016866e+01) (42, -1.13776473459822415890e+01) (43, 6.33904884778826893665e+00) (44, -1.08343076281291914142e+02) (45, 3.66528527565004083044e+01) (46, 9.31213034099677997801e+02) (47, 1.76603845240801837768e+00) (48, 1.24417448965436989283e+02) (49, -2.37496756923890046664e+02) (50, -1.42208244313377690560e+03) (51, -4.16718261408426471348e+01) (52, 1.50000000000000000000e+03) (53, -2.62536155674742452959e+01) (54, 1.99068871307159980688e+02) (55, 1.47437836033844549277e+00) (56, 1.50644621869087472987e+02) (57, -7.06544058355196025190e+00) (58, -1.50000000000000000000e+03) (59, 1.50960717983096213146e+01) (60, -1.50000000000000000000e+03) (61, -2.77617450068210338543e+01) (62, -1.48206718499592938088e+02) (63, 2.06622121860914162994e+01) (64, -1.50000000000000000000e+03) (65, -2.70704089131758287579e+01) (66, -5.75094757035990511440e+01) (67, 3.01183004173904222966e+00) (68, -1.50000000000000000000e+03) (69, -2.81301286994226407145e+00) (70, -2.08505874591933171303e+01) (0, 1.45000000000000000000e+03) (1, -1.68534944308677943070e+01) (2, -1.50000000000000000000e+03) (3, -9.65813029234953823732e+00) (4, -3.93822624851205887353e+02) (5, 2.28643681499015123393e+01) (6, -9.33958032511863649461e+01) (7, -6.80611745897572095743e+00) (8, 9.47010618971469057215e+02) (9, -2.66291412287783835211e+00) (10, -9.46927213310696060944e+02) (11, -1.89730526803041890105e+01) (12, 1.50000000000000000000e+03) (13, -3.19737920653276574967e+00) (14, -1.50000000000000000000e+03) (15, -1.69727252708641564993e+01) (16, -2.37008134604714832960e+01) (17, -1.01504361558621010175e+01) (18, 9.72765897524201328395e+00) (19, -2.92068416696277104450e+01) (20, 5.87504840771142866629e+00) (21, -1.44347937487059940764e+01) (22, -1.50000000000000000000e+03) (23, 3.43311632371339259251e+00) (24, -1.50000000000000000000e+03) (25, -2.18619743426312638235e+01) (26, 1.50000000000000000000e+03) (27, 3.19083297069200568785e+01) (28, -1.50000000000000000000e+03) (29, 3.02389525406066006497e+01) (30, 1.46179708455165695113e+02) (31, -1.35899973273399211848e+02) (32, -3.32422167626554426079e+02) (33, 5.55485881890732269284e+00) (34, 9.16677028464450927459e+02) (35, -7.19672392533844629270e+01) (36, 6.91712287510224655307e+02) (37, -2.18305855158641044511e+01) (38, -3.24185484663933664251e+02) (39, 1.81211695495843660986e+00) (40, 2.92546595960410570569e+02) (41, -2.02386043600709086832e+01) (42, 6.22326117185528993048e+00) (43, -9.93094445741789932924e+00) (44, -8.11459651515312145875e+01) (45, -2.99997790031420379364e+01) (46, 9.40375847763161118564e+02) (47, -2.80401112687374762800e+01) (48, 1.02157922712690364619e+02) (49, -2.44176759136414517570e+02) (50, -1.42208244313377690560e+03) (51, -4.90676934885601951919e+01) (52, 1.50000000000000000000e+03) (53, -2.46413280461119406084e+01) (54, 2.45220915603424657547e+02) (55, -1.37965826858805495903e+01) (56, 1.46461594601631389878e+02) (57, -6.82553832563267359745e+00) (58, -1.50000000000000000000e+03) (59, -8.78385869790619899788e+00) (60, -1.50000000000000000000e+03) (61, -1.51599598238680197682e+01) (62, -1.32733339841298175088e+02) (63, 1.17053001453810026078e+01) (64, -1.50000000000000000000e+03) (65, 3.18475809426951306236e+00) (66, -5.17867526963968174414e+01) (67, -2.23977890512023911640e+01) (68, -1.50000000000000000000e+03) (69, 3.20578715027563143636e+00) (70, -4.43276938973593903626e+00) (0, 1.50000000000000000000e+03) (1, 7.48633235150989762019e+00) (2, 1.50000000000000000000e+03) (3, 1.80742610090732158667e+00) (4, 3.69152775103560600201e+02) (5, -2.36420530598846241332e+01) (6, -7.22507063143134473648e+01) (7, -9.55209253621434761783e+00) (8, -9.05485876736809927934e+02) (9, 2.72259865913609360177e+01) (10, 9.37808766035422877394e+02) (11, -9.39755116152520741934e+00) (12, -1.50000000000000000000e+03) (13, 2.19231710623726314680e+01) (14, 1.50000000000000000000e+03) (15, -1.30928675089302331003e+01) (16, -1.92650986235848242778e+00) (17, -2.16911855075053416897e+01) (18, 9.78021602277944879233e+00) (19, 3.42713436752223721271e+00) (20, -9.28105206224696956951e+01) (21, 7.47525323932954766093e+00) (22, 1.50000000000000000000e+03) (23, 3.36356350983590779435e+00) (24, 1.50000000000000000000e+03) (25, -2.78824142518366251409e+01) (26, -1.50000000000000000000e+03) (27, -2.27763586416674783663e+01) (28, -6.26397896235179771907e+01) (29, -3.29553167405895663933e+01) (30, 1.82091286969633870285e+02) (31, 1.02162170945979511316e+01) (32, 1.00502577331259331572e+02) (33, 5.18660223410599297011e+00) (34, 3.54694997257891259324e+02) (35, 9.73125817794157832452e+00) (36, 7.99227264082120314015e+02) (37, 1.06816847055055017535e+01) (38, 2.13371841700429087041e+02) (39, -2.37397690339486118205e+01) (40, -4.77103437305338673013e+02) (41, -9.82557909557934472389e+00) (42, 8.28207251633484702324e+02) (43, 6.88891144158976675982e+00) (44, -1.79145275984684872128e+02) (45, -1.39386147802256168404e+01) (46, -7.35457386903682959201e+02) (47, -2.22206498763160524845e+01) (48, -1.39910464685898364223e+03) (49, -3.22956572906477177298e+01) (50, 5.13895270864216968221e+02) (51, 4.16287971104333021088e+00) (52, -1.50000000000000000000e+03) (53, -1.13369136931879666008e+01) (54, -1.50000000000000000000e+03) (55, 5.87844186321976636123e+00) (56, 2.17850185846678670032e+02) (57, 1.20999424495465284224e+01) (58, 1.50000000000000000000e+03) (59, 1.69347795801102556368e+01) (60, -5.64074918538274005186e+02) (61, 8.28443885171640559406e+00) (62, -2.99648671303163382618e+02) (63, -1.49401925348773154667e+01) (64, 1.50000000000000000000e+03) (65, -7.35179701265613960715e+00) (66, 2.46298111922078675207e+01) (67, -2.11416177540465852758e+01) (68, 1.50000000000000000000e+03) (69, 1.00409389793254479883e+01) (70, 1.57409586256188394060e+01) (0, 1.45000000000000000000e+03) (1, 3.16241888945318834203e+01) (2, -1.50000000000000000000e+03) (3, 1.44684237446044559050e+01) (4, -2.06350656243432979409e+02) (5, -2.33763577584580666269e+01) (6, -1.39978879667672367759e+03) (7, -4.62609353793495170493e+00) (8, 1.49765069275321457098e+03) (9, -4.17596227241748341186e+00) (10, -1.50000000000000000000e+03) (11, -2.52635335954396866853e+00) (12, 1.50000000000000000000e+03) (13, -2.00794301951420344210e+01) (14, -1.50000000000000000000e+03) (15, -2.01854693457315104155e+00) (16, 2.42720051468413409168e+01) (17, -3.03919226404763342941e+01) (18, 2.61433872026009872513e+01) (19, 5.10707917500053554249e+01) (20, 1.93515236895653856664e+02) (21, -1.84414203819904081172e+01) (22, -1.50000000000000000000e+03) (23, -1.80121349381873692153e+01) (24, -1.50000000000000000000e+03) (25, -8.78894095067361824647e+00) (26, 1.50000000000000000000e+03) (27, -7.90367663431699618570e+00) (28, -1.29835696173815131260e+03) (29, -1.30680071302550437906e+01) (30, -7.28534696952614808652e+01) (31, 1.94234880298798415765e+01) (32, 4.34340723599583782288e+01) (33, -2.03396380125285070051e+01) (34, 1.50000000000000000000e+03) (35, -6.85270473425136827927e+00) (36, 4.07485643314046967589e+02) (37, -1.85290221291483003796e+00) (38, -1.50000000000000000000e+03) (39, -1.83168411748236508174e+01) (40, 8.63270690822512776208e+00) (41, 7.94838266994894571127e+00) (42, -5.66541221895851890622e+02) (43, -9.84125687840571039544e+00) (44, -1.50000000000000000000e+03) (45, -1.24602386559924784848e+01) (46, 2.53579293176129056064e+02) (47, 1.40448660962682279063e+01) (48, 7.80325926759402818789e+02) (49, -1.40500543895350489265e+01) (50, -6.65514919782776956936e+01) (51, 1.15904969958293850851e+01) (52, -1.47011997591888962233e+03) (53, 8.14631519195465259031e+00) (54, -1.50000000000000000000e+03) (55, 2.39599040392878563921e+01) (56, -5.32349810100538206825e+02) (57, 1.20688574229523446490e+01) (58, -1.50000000000000000000e+03) (59, -1.89390937571435209463e+01) (60, -3.82076078008657361806e+02) (61, 1.17214891613389156078e+01) (62, -1.50000000000000000000e+03) (63, 3.41678372749949161857e+01) (64, -1.50000000000000000000e+03) (65, -1.20544567080916387170e+01) (66, 6.09058850871993584519e+01) (67, 4.90752594315576207151e+00) (68, -1.50000000000000000000e+03) (69, 1.42983317614981348953e+01) (70, -1.27338088104950197810e+00) (0, 1.45000000000000000000e+03) (1, -1.54756342663110295632e+01) (2, -1.50000000000000000000e+03) (3, -1.93633491442063956356e+01) (4, -3.84885287094573186550e+02) (5, 1.83096859587316487250e+01) (6, -6.09824355950387825942e+02) (7, 1.45720502367086588436e+01) (8, -4.05381213596243185293e+02) (9, -1.69899966093580374604e+01) (10, -1.08833758783165285422e+03) (11, -2.79013277642908192888e+01) (12, 1.50000000000000000000e+03) (13, 1.76935430963685931260e+01) (14, -1.50000000000000000000e+03) (15, 1.84758593369217694047e+00) (16, 7.23706950873035470551e+00) (17, 3.34725023420557921128e+00) (18, 2.17776611519685658891e+01) (19, -1.80834833160680332753e+01) (20, 1.23425788834331395805e+00) (21, 2.96918819613454729733e+01) (22, -1.50000000000000000000e+03) (23, -1.42159044830311138696e+01) (24, -1.50000000000000000000e+03) (25, -2.05394127820432856879e+01) (26, 2.00914463707652402036e+02) (27, 2.39013557391901940719e+01) (28, -3.70565803685659489020e+02) (29, 2.73509332527391979539e+00) (30, 6.25672138207458033321e+02) (31, -1.24146453316371303544e+01) (32, -8.10922503802829396591e+02) (33, 5.84775646759106493278e+00) (34, -1.26097557121902264043e+03) (35, -1.95656385698620560731e+01) (36, 1.45609462731604116925e+03) (37, 3.16085311421269743448e+01) (38, -1.50000000000000000000e+03) (39, 2.82204221211700234662e+00) (40, 2.32977157413606022374e+02) (41, -2.65999133307964790163e+01) (42, -1.54014104785180858670e+01) (43, 1.85919313979163973727e+01) (44, -1.50000000000000000000e+03) (45, 1.49508986857884060839e+01) (46, 4.84953073978673572242e+01) (47, 5.68140150201050797563e+00) (48, 2.03500172165559547466e+02) (49, 2.95161660890866102136e+01) (50, -3.53202788109129869554e+02) (51, -1.84162332453695150036e+01) (52, 6.79495735038119903493e+01) (53, -1.86203573662132848554e+00) (54, -7.08081595505941407964e+01) (55, -5.11984600146878854332e+00) (56, 1.49444386609371861141e+02) (57, 3.94124901341568119051e+01) (58, 2.57933518344736434358e+01) (59, -1.86850358197828292361e+01) (60, 1.51482476441465308881e+02) (61, -6.10632995885429075145e+00) (62, -5.88002131983690219386e+02) (63, -5.48833983864954522147e+00) (64, -1.50000000000000000000e+03) (65, 2.46446765244481014179e+00) (66, 5.50248850561199773779e+01) (67, 1.97216242725842683114e+01) (68, -1.50000000000000000000e+03) (69, 1.33152274113940141120e+01) (70, -1.74441868557275157059e+01) (0, 1.45000000000000000000e+03) (1, -8.65933224897260522823e+00) (2, -1.50000000000000000000e+03) (3, -1.22664452510913974947e+01) (4, -4.20169062782266792055e+02) (5, -1.46163517480124460768e+00) (6, -4.40921645251226550499e+01) (7, -1.99183492671258166595e+00) (8, 1.91191821850859327014e+02) (9, 2.22191424812742326367e+01) (10, -8.98399943947293536439e+02) (11, -5.92064914808355347020e+00) (12, 1.50000000000000000000e+03) (13, -1.56438558943562555648e+00) (14, -1.50000000000000000000e+03) (15, -2.20387357994921186111e-02) (16, -6.48734093996693061968e+00) (17, 2.93467689930880979432e+01) (18, 2.10874316824762608746e+01) (19, -8.75573467087991197388e+00) (20, -1.08085187866419225600e+01) (21, -3.50611706648409293674e-01) (22, -1.50000000000000000000e+03) (23, -1.79975686923361379854e+01) (24, -1.50000000000000000000e+03) (25, -8.62869684217412213911e+00) (26, 1.50000000000000000000e+03) (27, -2.21687670478278455732e+01) (28, -1.21000981469230100629e+03) (29, 3.03329591195685566163e+00) (30, 1.68335156695889423872e+02) (31, 8.73985875026673220134e+00) (32, 7.45987153933236726289e+01) (33, -2.45291704939040755562e+00) (34, 3.48696299806487900241e+02) (35, 2.91245703630411583163e+01) (36, -1.49840000827638505143e+03) (37, 3.21868953477848096512e+00) (38, -1.05506078486666741156e+01) (39, -6.53463866178660612860e+00) (40, 2.61998515880713682691e+02) (41, -1.45359722776264788102e+00) (42, 1.35311783768335453715e+03) (43, 5.18314147739594943687e+00) (44, 1.55450987454530434206e+02) (45, 1.46879799581754735271e+01) (46, 1.02731052579028968808e+02) (47, 3.84316857353802410202e+00) (48, -2.92905339486828211193e+02) (49, 7.53683169551349951831e+00) (50, -2.57637004350412269105e+02) (51, -2.03983837280129165492e+01) (52, 5.23726849462526956813e+02) (53, -3.07909959165415507698e+01) (54, 1.50000000000000000000e+03) (55, 2.23122201817979650684e+01) (56, -4.92125831210676736305e+01) (57, -3.69836684799720671890e+01) (58, -9.18728473775260454204e+02) (59, -1.29393210127441893320e+01) (60, 5.90205661050670641998e+02) (61, 6.20338668611720667201e+00) (62, 1.15154380470444650086e+02) (63, 2.24987568160482780399e+01) (64, -1.50000000000000000000e+03) (65, 9.19787444150958322098e+00) (66, 4.42982226587353551395e+01) (67, -2.01079169941006199451e+01) (68, -1.50000000000000000000e+03) (69, 4.47993664161353832842e-01) (70, -4.63296322908856872402e+00) (0, 1.45000000000000000000e+03) (1, -1.46776313612895972227e+01) (2, -1.50000000000000000000e+03) (3, 1.65641133969771843226e+01) (4, 2.80267423699388473324e+02) (5, 1.38281081161060868112e+01) (6, -3.04744539643421674668e+01) (7, 2.60695249957398118568e+01) (8, 8.25996138892000999476e+02) (9, 2.94794253467555193993e+01) (10, -7.04172284153224268266e+02) (11, 2.22888530277214300668e+01) (12, 1.50000000000000000000e+03) (13, 1.46337082711627104459e+01) (14, -1.50000000000000000000e+03) (15, 1.55285540055602471199e+01) (16, -1.23704528899099948092e+01) (17, 5.77600158002644370470e+00) (18, 9.03844360736371044140e+00) (19, -1.38581556512826917782e+01) (20, -1.03814869176412449825e+00) (21, 7.37342816753859420231e+00) (22, -1.50000000000000000000e+03) (23, -1.94617509531225465480e+01) (24, -1.50000000000000000000e+03) (25, -4.63239397093366278568e+00) (26, 1.50000000000000000000e+03) (27, -3.40029604037270516415e+01) (28, -4.55423303189183400264e+02) (29, 1.31031226900476962527e+01) (30, 1.45096145934687768886e+02) (31, 3.62770388566230206351e+00) (32, -3.14804019881873500708e+02) (33, 2.26549431964588201538e+01) (34, 8.62182084194285494050e+02) (35, -2.80313658393973330618e+00) (36, 6.94663039908724726956e+02) (37, -8.99970828548751455855e+00) (38, -7.02163215876474708921e+01) (39, -1.22895907409981202107e+01) (40, -2.83842265072288796546e+02) (41, 6.14069508200432423450e+00) (42, 1.50000000000000000000e+03) (43, -2.19192927001084498784e+01) (44, -7.42516111426868121725e+01) (45, -1.31891905142453254030e+01) (46, 1.15596528667534221313e+03) (47, 3.92684632636694752605e+00) (48, 2.85138733228942783171e+02) (49, -1.70774368112213252857e+01) (50, 7.75326458728783762808e+01) (51, 1.82478135722073488978e+01) (52, 1.50000000000000000000e+03) (53, 4.15063003524723139748e-01) (54, 4.22819708183675686541e+02) (55, -1.13377359412079687928e+01) (56, 1.82075257924985379532e+02) (57, -7.12756297824791573703e+00) (58, -1.50000000000000000000e+03) (59, 4.17945113301534998396e-01) (60, 1.46807294530991339343e+03) (61, 7.73013641856096622718e+00) (62, -1.30656160886220078510e+02) (63, 2.08579263823121614507e+01) (64, -1.50000000000000000000e+03) (65, -2.24003792178921905531e+01) (66, -4.88037600869442513840e+01) (67, 1.09397184075596936026e+01) (68, -1.50000000000000000000e+03) (69, -2.21873647982132453649e+01) (70, 4.63684179087103043315e+00) (0, 1.45000000000000000000e+03) (1, -1.87605723820331107277e+01) (2, -1.50000000000000000000e+03) (3, 3.42191882214284337493e+00) (4, -2.04230431774804856104e+02) (5, -1.92719186442814773841e+01) (6, -2.90941532815293264491e+01) (7, -1.44096364193991899327e+01) (8, 4.71323717107836216655e+02) (9, -2.01005661377642432797e+01) (10, -4.80521403727151607654e+02) (11, 1.34353419713744699493e+01) (12, 1.50000000000000000000e+03) (13, -2.18849800832222634028e+01) (14, -1.50000000000000000000e+03) (15, -2.38597416115619154198e+01) (16, -2.88251163179755600652e+01) (17, -1.93741860776888125129e-01) (18, -1.50420282988115303624e+01) (19, 2.36836665725344319711e+00) (20, 1.38957813097965914295e+01) (21, -3.14982977979959466452e+00) (22, -1.50000000000000000000e+03) (23, -1.65274658930797393452e+01) (24, -1.50000000000000000000e+03) (25, -9.51791197477001560401e+00) (26, 1.50000000000000000000e+03) (27, 4.41818755930390771880e-01) (28, -1.50000000000000000000e+03) (29, -1.38536917660604679270e+01) (30, 5.52582130294168010209e+01) (31, -1.49515658229973695370e+02) (32, -1.55143243313173826436e+02) (33, -2.06115588375306195701e+01) (34, 4.53718563803895278852e+02) (35, -7.96662343746616556928e+01) (36, 3.22109710202033909354e+02) (37, -3.36865037591918934368e+01) (38, -1.92934358877011106870e+02) (39, 5.05545801816705075993e+00) (40, 1.28256304330836059080e+02) (41, 1.59859224253269260885e+01) (42, 4.42877604344536557335e+00) (43, 5.60333928114393575726e+00) (44, -5.03765796834025252338e+01) (45, -5.24736048115722564233e+00) (46, 4.85299403511880370843e+02) (47, -2.23199833530377560464e+01) (48, 7.62551628565578027974e+01) (49, -2.47709680249728563695e+02) (50, -1.06851261144598038300e+03) (51, -2.33572795935801700296e+01) (52, 1.50000000000000000000e+03) (53, -4.66494913502493080415e+00) (54, 1.31729680093575126421e+02) (55, 9.78588915454014607320e-01) (56, 1.01767362451264673950e+02) (57, -4.33393939476345391171e+00) (58, -1.50000000000000000000e+03) (59, -4.14576871409076108677e+00) (60, -1.50000000000000000000e+03) (61, -1.31578057115856128512e-01) (62, -5.51936408401092251097e+01) (63, 1.60936633300498215249e+01) (64, -1.50000000000000000000e+03) (65, 2.26240142570597824179e-01) (66, -9.27902253142670829789e+00) (67, 3.37579404963930773675e+00) (68, -1.50000000000000000000e+03) (69, -1.51235870865181194489e+01) (70, -9.87699295552492273487e+00) (0, 1.45000000000000000000e+03) (1, -1.25640046847742965497e+01) (2, -1.50000000000000000000e+03) (3, -1.81682544988922849427e+01) (4, -4.11823969055154861962e+02) (5, 2.54597794505606920268e+01) (6, -6.32741926097075690905e+01) (7, 1.11007409852381773163e+01) (8, 9.89969677733065736902e+02) (9, -2.63004578011613752153e+01) (10, -9.30538531898953351629e+02) (11, -2.32797352669741108855e+01) (12, 1.50000000000000000000e+03) (13, -3.40399328362398057024e+00) (14, -1.50000000000000000000e+03) (15, -2.21608852134911096243e+01) (16, -2.18995396376870239408e+01) (17, 6.87631488555009884323e+00) (18, -8.60408569562598124492e+00) (19, -2.68008796792712651325e+01) (20, -6.61416505893304318420e+00) (21, -3.42095024965691436591e+01) (22, -1.50000000000000000000e+03) (23, -2.03715625932167334611e+01) (24, -1.50000000000000000000e+03) (25, -1.49727951128952110338e+01) (26, 1.50000000000000000000e+03) (27, -8.93169905589761548015e+00) (28, -1.50000000000000000000e+03) (29, 2.55914668075743740872e+01) (30, 1.69899057362636767721e+02) (31, -1.63494109034660283442e+02) (32, -3.06370996800596174126e+02) (33, -2.97195619193123654611e+01) (34, 9.29626655387058917768e+02) (35, -6.18411911653106898257e+01) (36, 6.62328278864213075394e+02) (37, -8.54632524288439476834e+00) (38, -3.24040093199700265814e+02) (39, 4.31580099884250412146e+00) (40, 2.55247168927940577987e+02) (41, -3.53298359438508668973e+00) (42, 1.54420331063647324754e+01) (43, -1.12240419534506141730e+01) (44, -9.97989383265800569234e+01) (45, 3.17344210815510674450e+00) (46, 9.21782695716958187404e+02) (47, -1.47729994904783072940e+01) (48, 1.18473777977353861957e+02) (49, -2.22677701366638785885e+02) (50, -1.42208244313377690560e+03) (51, -4.42825372385600530833e+01) (52, 1.50000000000000000000e+03) (53, -2.03799621556090109209e+01) (54, 2.38087942886139558141e+02) (55, 2.51985527379033591444e+00) (56, 1.88882927914619727972e+02) (57, -3.41902994397531259096e+01) (58, -1.50000000000000000000e+03) (59, -2.48853439502861313315e+01) (60, -1.50000000000000000000e+03) (61, -1.07033791849825430376e+01) (62, -1.26037084157399277728e+02) (63, -2.00991079280443258881e+01) (64, -1.50000000000000000000e+03) (65, 2.22238377604081556171e+01) (66, -4.83755063966531366759e+01) (67, -3.83766937753229058217e+01) (68, -1.50000000000000000000e+03) (69, -3.11964491187341641520e+00) (70, -1.08205095249284326542e+01) (0, 1.45000000000000000000e+03) (1, -1.58860591599067610957e+01) (2, -1.50000000000000000000e+03) (3, 3.75469584292895008915e+00) (4, -3.82870651412942834213e+02) (5, 1.45322612958882420031e+01) (6, -4.01854303263822032477e+01) (7, 2.06466417573244314099e+01) (8, 9.94101765440585040778e+02) (9, 9.56431650792970433628e-02) (10, -9.10171860813595799300e+02) (11, 7.63884837481843881335e+00) (12, 1.50000000000000000000e+03) (13, 1.52124285723498626766e+01) (14, -1.50000000000000000000e+03) (15, -1.03048902796877790422e+01) (16, 1.14650156632773008170e+01) (17, 3.12762232840853435789e+01) (18, -2.09114719518652663055e+01) (19, -5.12918935298203404471e+00) (20, 6.76250996167950280125e+00) (21, 1.13651716281893655491e+01) (22, -1.50000000000000000000e+03) (23, -3.41604220916924816720e+01) (24, -1.50000000000000000000e+03) (25, -2.08106603915348209455e+01) (26, 1.50000000000000000000e+03) (27, 2.20846362583165056748e+00) (28, -9.29736263560182237597e+02) (29, -2.41933235002513669087e+01) (30, 1.82851933845722015803e+02) (31, 1.39506875529841209982e+01) (32, -3.32894237136391382137e+02) (33, -1.81873563500590904596e+01) (34, 8.15137164348447299744e+02) (35, 1.10182986531257078866e+01) (36, 7.19891995752641037143e+02) (37, 5.79586335850024347849e+00) (38, -3.52121949331254029403e+02) (39, 5.64220045957604021680e+00) (40, 2.97444750387634371691e+02) (41, -2.41965212231608290949e+01) (42, 4.76846885758732881300e+01) (43, 1.28891370275041019511e+01) (44, -8.80298174620986770833e+01) (45, 2.96010227185973633368e+01) (46, 1.99495207225714949573e+02) (47, -2.65293419961259644424e+01) (48, 7.28506875838667298240e+01) (49, -6.46985109087018361862e+00) (50, -8.47546097206269223534e+02) (51, -1.23635781856762392295e+01) (52, 1.50000000000000000000e+03) (53, 1.02118857197092847144e+01) (54, 1.01323559276218475134e+03) (55, -2.17215185302990114735e+01) (56, 6.22264122673173361022e+01) (57, -2.90833158760999879178e+01) (58, -1.50000000000000000000e+03) (59, -2.76327984448995103151e+01) (60, 5.44134710931567951775e+02) (61, -1.94035278834724600472e+01) (62, -1.81065059239796511292e+02) (63, -3.27516494099064026102e+00) (64, -1.50000000000000000000e+03) (65, 2.38584883553747708618e+01) (66, -5.26507177308817091443e+01) (67, 1.35952656708284180809e+01) (68, -1.50000000000000000000e+03) (69, 2.31582226259183450168e+01) (70, 2.61791969588677666536e+01) (0, 1.50000000000000000000e+03) (1, -1.17261816658348259068e+01) (2, 1.50000000000000000000e+03) (3, -2.22181676856603722570e+01) (4, 4.12141870791426981668e+02) (5, 1.32159915221641313110e+01) (6, 4.47910265864400685132e+01) (7, 6.89178975024030293639e+00) (8, -9.86636701491807571074e+02) (9, -1.30175628924433013367e+01) (10, 9.32000305799827060582e+02) (11, 7.99862095976946996245e+00) (12, -1.50000000000000000000e+03) (13, 2.63819840911603691325e+01) (14, 1.50000000000000000000e+03) (15, 2.51069279595124186244e+01) (16, 4.46879606752444260565e+01) (17, 2.43418784339217388890e+01) (18, 3.14894367531462577858e+01) (19, -1.80177868805955334608e+01) (20, 3.03968948320092131610e+01) (21, -2.68713305337183461230e-01) (22, 1.50000000000000000000e+03) (23, -1.73873300754475117458e+01) (24, 1.50000000000000000000e+03) (25, 2.14294517725874165137e+01) (26, -1.50000000000000000000e+03) (27, 6.68347216309121705535e+00) (28, 1.50000000000000000000e+03) (29, 2.44832523280414804390e+01) (30, -2.03478955371401156071e+02) (31, -1.52953252084865045646e+01) (32, 2.63201082238825733839e+02) (33, 3.73062307440723444074e+01) (34, -1.50000000000000000000e+03) (35, 6.33325077617139253761e+00) (36, -7.08600093359675270221e+02) (37, -2.04799376712733599559e-01) (38, 3.55548733719933238717e+02) (39, -1.36032525786546791835e+01) (40, -2.91556964177440249841e+02) (41, -1.57778475464446876764e+00) (42, 2.57677078238432208934e+01) (43, 2.34490468871179373878e+01) (44, -4.07334887323130487857e+01) (45, -3.21334277214410990453e+00) (46, -9.22516958986773033757e+02) (47, -1.86788409081155815095e+00) (48, -1.27117404464329482039e+02) (49, 3.25731705857389783887e+01) (50, 1.42346977833721575735e+03) (51, 1.20455039209144043610e+01) (52, -1.50000000000000000000e+03) (53, -2.00911631142452122845e+01) (54, -8.46292897720858945831e+02) (55, -2.46696235031242050439e+00) (56, -1.38028542865366773640e+02) (57, 1.98298920573995403061e+01) (58, 1.50000000000000000000e+03) (59, -1.21725426830102967379e+00) (60, 1.50000000000000000000e+03) (61, 1.44343586830646142261e+01) (62, 5.86197685144306092297e+02) (63, -2.08440801042560259759e+01) (64, 1.50000000000000000000e+03) (65, 4.16179884213073449928e+01) (66, 6.05708539840976811774e+01) (67, -1.60017002777345496156e+01) (68, 1.50000000000000000000e+03) (69, 5.35474030365493014472e+00) (70, 3.48459347805161856471e+00) (0, 1.45000000000000000000e+03) (1, -3.10634663233067653820e+00) (2, -1.50000000000000000000e+03) (3, -5.30396521514045726775e+00) (4, -4.25868134666421951806e+02) (5, -1.93902857807625501607e+01) (6, -5.73200223826567309970e+01) (7, -2.54038051802279412072e+01) (8, 9.65430710838915729255e+02) (9, -2.63491352456193901332e+01) (10, -9.20647141575314776674e+02) (11, -2.86749722359682515105e+01) (12, 1.50000000000000000000e+03) (13, -1.18988014806452593319e+01) (14, -1.50000000000000000000e+03) (15, 1.00434147132664826074e+01) (16, -2.06688670398018459196e+01) (17, 8.76918149703096538872e+00) (18, -3.99447799909278256081e+00) (19, -1.55640041452135289290e+01) (20, -9.02479781826569293912e+00) (21, -6.24437741264631096527e+00) (22, -1.50000000000000000000e+03) (23, -2.07346264054725928361e+01) (24, -1.50000000000000000000e+03) (25, 1.51967789335367431391e+00) (26, 1.50000000000000000000e+03) (27, 1.74051120097762250793e+01) (28, -1.50000000000000000000e+03) (29, -1.14975930221375950424e+01) (30, 1.50906081173976929222e+02) (31, -1.77268980383995113925e+02) (32, -3.29627455679113325004e+02) (33, -5.17894969854873199466e+00) (34, 9.55596302794590428675e+02) (35, -7.65576418565339764655e+01) (36, 7.24661172235795561392e+02) (37, 1.41606979008839051204e+01) (38, -3.56017601267784868924e+02) (39, -3.03650979059579562147e+01) (40, 2.68071672826561950842e+02) (41, -1.54686277441652251241e+01) (42, 1.54312317910571152879e+01) (43, 2.62816046201561137607e+00) (44, -8.39018831775016593610e+01) (45, 3.12656424713215841393e+00) (46, 8.97316614097695719465e+02) (47, 2.26323244917605705950e+01) (48, 1.07145502058393361722e+02) (49, -2.54485267055726041008e+02) (50, -1.42208244313377690560e+03) (51, -3.35415651964763483761e+01) (52, 1.50000000000000000000e+03) (53, 2.50773113276673562666e+01) (54, 2.27414420890595124547e+02) (55, 5.05728508336060045281e+00) (56, 1.65257721682548861963e+02) (57, -1.20149239781748651268e+01) (58, -1.50000000000000000000e+03) (59, -1.17702345066220193104e+01) (60, -1.50000000000000000000e+03) (61, -6.39903140375825998376e+01) (62, -1.52670607144764915120e+02) (63, -2.43839914271898337006e+01) (64, -1.50000000000000000000e+03) (65, -7.89984092382685965106e+00) (66, -3.85149154618996618638e+01) (67, 1.88480681875671400860e+01) (68, -1.50000000000000000000e+03) (69, -7.25907352744301892500e+00) (70, -8.27943714248412288015e-01) (0, 1.50000000000000000000e+03) (1, -4.65583644732522561327e+00) (2, 1.50000000000000000000e+03) (3, -8.14837215403708903239e+00) (4, 3.96156955534926623841e+02) (5, 2.49280847952683011215e+01) (6, 5.42781324309826800345e+01) (7, -1.20645617550038100063e+01) (8, -9.64772458938096633574e+02) (9, 2.49193058260950159877e+01) (10, 9.21925816444741144551e+02) (11, -2.74133591284283051337e+00) (12, -1.50000000000000000000e+03) (13, 3.13412711997043729184e+01) (14, 1.50000000000000000000e+03) (15, -2.38357362122416596151e+01) (16, 6.26987114504699221129e+01) (17, 1.88569497339573288741e+00) (18, -8.49199261473845901094e+00) (19, 4.35261080104525888146e+01) (20, 4.52246614744373047756e+01) (21, 7.40740606837600257251e+00) (22, 1.50000000000000000000e+03) (23, -1.07178254685019336279e+01) (24, 1.50000000000000000000e+03) (25, 9.72843488305598391719e+00) (26, -1.50000000000000000000e+03) (27, 5.99781784697134856543e+00) (28, 1.50000000000000000000e+03) (29, -4.90256969289972843740e+00) (30, -1.69870558792450452756e+02) (31, 1.83676739846811727830e+02) (32, 3.57150491162069442908e+02) (33, 1.64484806581808733483e+01) (34, -9.26701132209750880975e+02) (35, 7.48532822401003841151e+01) (36, -6.55187907690729730348e+02) (37, 2.62885390445320332731e+01) (38, 3.56118639477837291452e+02) (39, -1.67109870903194597247e+01) (40, -2.67443463736571345635e+02) (41, -2.74560365685492016041e+01) (42, 1.89036368459828796329e-01) (43, 2.58967358127263622691e+01) (44, 5.93189145862862190484e+01) (45, 1.46004624699610663363e+00) (46, -9.18669696029348415323e+02) (47, -1.07268400112872637209e+01) (48, -1.17098134521092390514e+02) (49, 2.31094757942974268872e+02) (50, 1.42346977833721575735e+03) (51, 4.08622532489388277099e+01) (52, -1.50000000000000000000e+03) (53, 4.67398523989509939724e+00) (54, -2.46262813094194086716e+02) (55, 2.49204908357963716981e+01) (56, -1.96371234286875761654e+02) (57, 7.16748542631663365654e+00) (58, 1.50000000000000000000e+03) (59, 3.07010047749135743800e+01) (60, 1.50000000000000000000e+03) (61, -5.17055552562718290233e+00) (62, 1.63012407073762517484e+02) (63, 1.90084354539615532076e+01) (64, 1.50000000000000000000e+03) (65, -1.29641936671840447559e+01) (66, 5.30989816543857671149e+01) (67, -2.21520511408083198290e+00) (68, 1.50000000000000000000e+03) (69, 1.05970358099618753300e+01) (70, 1.32156214339051949480e+01) (0, 1.45000000000000000000e+03) (1, 2.30502566907989114853e+00) (2, -1.50000000000000000000e+03) (3, 1.04770570517645769115e+01) (4, -1.50000000000000000000e+03) (5, 7.64010929983475772787e+00) (6, -1.08758073394862364580e+02) (7, -4.11159493596243397207e+00) (8, -8.09461036023772066983e+01) (9, -2.07729126108912209858e+00) (10, -1.50000000000000000000e+03) (11, 8.37966227999003265836e+00) (12, 1.50000000000000000000e+03) (13, 5.78999313756588129820e+00) (14, -1.50000000000000000000e+03) (15, -1.12628216796192273108e+01) (16, 2.87271451416338337026e+01) (17, -4.72290813176787693806e+00) (18, 1.01225805016799572655e+01) (19, -6.85747456873255956111e+00) (20, 9.36733002861926178362e-01) (21, 5.08919993997324837665e+00) (22, -1.50000000000000000000e+03) (23, 2.44900682025768752226e+01) (24, -1.50000000000000000000e+03) (25, -2.17399623167855367001e+01) (26, 1.50000000000000000000e+03) (27, -9.79861210737776566759e+00) (28, 4.74613555248809518616e+02) (29, -2.61033942415358097833e+01) (30, -8.91396996714472180656e+01) (31, -1.92178260899771267134e+01) (32, -1.05624976104337928717e+01) (33, 1.19772324576182942479e+01) (34, 2.68984187882423384508e+02) (35, -2.41999917204718073549e+01) (36, 6.81223576516330808772e+02) (37, -9.83621424046561365628e+00) (38, -1.50000000000000000000e+03) (39, -2.05352413343576465365e+01) (40, 2.22908041317308828866e+02) (41, -7.27852343422518188731e+00) (42, -1.01421813736567230535e+03) (43, -3.11846449296757510794e+00) (44, -1.31360909762237747600e+03) (45, 2.22586664570047432221e+01) (46, -1.50000000000000000000e+03) (47, -1.43419787218407215335e+01) (48, -4.98633613551825405352e+01) (49, 1.57817476373783396326e+01) (50, -8.62515110932862683057e+01) (51, 1.31196128269743117478e+00) (52, 1.50000000000000000000e+03) (53, 2.08720382058984110785e+00) (54, -1.49598489047456632761e+03) (55, -1.75335824434447715703e+01) (56, 2.73900856081388717200e+01) (57, -5.15299268245346731021e+00) (58, -1.50000000000000000000e+03) (59, 4.88715773992121604863e+00) (60, 1.35317327460717677923e+02) (61, -1.52682940969188218894e+00) (62, -1.50000000000000000000e+03) (63, 6.25619178246240537078e+00) (64, -1.50000000000000000000e+03) (65, 1.59104188984973156096e+01) (66, 2.82681854987303822213e+01) (67, -3.72373737835749674119e+00) (68, -1.50000000000000000000e+03) (69, 1.11104477941949468800e+01) (70, 8.78992262617279429548e+00) (0, 1.50000000000000000000e+03) (1, 1.03972076387032448253e+01) (2, 1.50000000000000000000e+03) (3, -3.41646781396303182987e+01) (4, 1.39099213988339374737e+03) (5, 1.58305861606744144865e+01) (6, 1.49281678953683194777e+03) (7, -2.78365828476409369330e+01) (8, -6.84672596569743859618e+02) (9, -1.53805237681355819745e+01) (10, 1.19014438763901216589e+03) (11, 1.51092485776923428631e+01) (12, -1.50000000000000000000e+03) (13, -3.92735003913914137996e+00) (14, 1.50000000000000000000e+03) (15, 1.86286973909496644808e+01) (16, -4.63760596165171179450e+01) (17, -8.45920059254238410062e+00) (18, -9.20388676223203532345e+01) (19, 6.74494432412250688458e+00) (20, -5.64971776423505730236e+02) (21, 1.80462904432485493622e+00) (22, 1.50000000000000000000e+03) (23, 3.69852158035435181205e+01) (24, 1.50000000000000000000e+03) (25, 3.82869808542831480125e+00) (26, -1.49831356584973514146e+03) (27, -4.24735808303179283030e+01) (28, 3.15034617966702967351e+02) (29, 1.27250207208563868022e+01) (30, -1.27885241806204817294e+02) (31, -3.38978200292637765756e+01) (32, -2.15289211214033315400e+02) (33, -2.23758342072483316088e+01) (34, 1.50000000000000000000e+03) (35, -9.80647249019257571945e+00) (36, -6.48429860481218497625e+02) (37, 2.59303882039148483329e+01) (38, -5.19989047112540703210e+01) (39, -1.05351560322575696915e+01) (40, 1.72822551742886432180e+01) (41, -1.04148412859580279388e+01) (42, -6.74074466629925154848e+02) (43, 1.44576792692009590269e+01) (44, -1.00060733469712522492e+03) (45, 1.99890498477009881384e+00) (46, 9.04334772550251727807e+02) (47, 1.28534937474505284172e+01) (48, -1.50000000000000000000e+03) (49, 2.22911906362894072231e+01) (50, 1.50000000000000000000e+03) (51, 8.20335627003037437532e+00) (52, -1.50000000000000000000e+03) (53, -1.68113729735901387130e+01) (54, -1.50000000000000000000e+03) (55, -1.51714199598595662621e+01) (56, -7.62694845145177993118e+01) (57, -6.32094657532123349597e+00) (58, 8.26926113782710103806e+02) (59, 1.87538799078345768123e+01) (60, 6.61984980792830697283e+01) (61, -2.63115184434211748510e+01) (62, -3.89028267510818670516e+00) (63, 3.35197163252896612740e-02) (64, 1.50000000000000000000e+03) (65, -6.54163741789728714338e+00) (66, -3.45881523714506897704e+01) (67, 3.47361258852191889801e+00) (68, 1.50000000000000000000e+03) (69, -2.56467357110414155841e+01) (70, 2.00894073457347310807e+01) (0, 1.50000000000000000000e+03) (1, -1.82616445219428271685e+01) (2, 1.50000000000000000000e+03) (3, -2.84963957109462882045e+01) (4, 4.22621656710616434793e+02) (5, 5.56711258834039313115e+00) (6, 1.69085947428295462203e+01) (7, -1.06996988208546088828e+01) (8, -9.67612505822150069434e+02) (9, 1.94841355507820814807e+01) (10, 9.21850934652672663105e+02) (11, -1.79181389299872755316e+01) (12, -1.50000000000000000000e+03) (13, 2.69928077422091483584e+00) (14, 1.50000000000000000000e+03) (15, -3.64520172195504743584e+00) (16, 5.98608843017604552728e+00) (17, 1.34213820352630808230e+01) (18, 1.36254087596392086112e+01) (19, 1.42739449477847486492e+01) (20, -3.80155327950483865607e+01) (21, -2.34998575096432169573e+01) (22, 1.50000000000000000000e+03) (23, 1.79284735938499757424e+01) (24, 1.50000000000000000000e+03) (25, 2.42753164045976355112e+01) (26, -1.50000000000000000000e+03) (27, 2.64779646894877060959e+01) (28, -7.91436724414126615557e+01) (29, 3.54050151969046877909e+00) (30, -6.34399965647713770522e+01) (31, 2.96167998225712203464e+01) (32, -1.60279897704748549359e+02) (33, 2.25652342262380898319e+01) (34, -1.02803149529289976272e+03) (35, -9.60508411759612812375e+00) (36, -1.46075653200780578800e+02) (37, -2.22761558660375982299e+01) (38, 4.08881689283162700121e+02) (39, 8.06521140600212405047e+00) (40, -6.40223988318151555177e+02) (41, 4.58331012623751874457e+01) (42, -6.23552258578556575230e+01) (43, -9.63076792001103498819e+00) (44, -1.19317503583766119846e+03) (45, 1.58516231400109006699e+01) (46, -1.93763709203422109795e+02) (47, 5.29654849076634981486e+00) (48, 3.32212843512831966564e+02) (49, 7.02327852114101691683e+00) (50, -5.94224067722332847552e+02) (51, -1.37031170250695168988e+01) (52, -4.22056104090951933472e+01) (53, 1.47312154705095483820e+01) (54, 2.15807644222334928941e+01) (55, -7.77156516248735584895e+00) (56, 1.20230931985995681543e+02) (57, 1.17088502929819782139e+01) (58, 1.50000000000000000000e+03) (59, -9.02559396484040910025e+00) (60, 8.82496266412450154348e+02) (61, 1.93286904615826529152e+01) (62, -1.99927484960010843906e+02) (63, -2.22629469333345291204e+01) (64, 1.50000000000000000000e+03) (65, 1.81911282828315670201e+01) (66, 4.68987856266299161234e+01) (67, -1.59075630266438139415e+01) (68, 1.50000000000000000000e+03) (69, 3.04607582115479083029e+01) (70, -9.92549149154747212265e+00) (0, 1.45000000000000000000e+03) (1, -1.82149260557584931064e+01) (2, -1.50000000000000000000e+03) (3, -6.71285431965154177902e+00) (4, -3.99629233573998590145e+02) (5, -1.40007530655255330032e+01) (6, 2.67297951074760433698e+01) (7, -1.53011869380329272872e+01) (8, 7.12839474433542704901e+02) (9, -2.41167731785789207777e+00) (10, -5.83418986115102484291e+02) (11, -2.01580492216953786055e+01) (12, 1.50000000000000000000e+03) (13, 6.70329337387305113083e+00) (14, -1.50000000000000000000e+03) (15, 2.80636092763332101185e+00) (16, -2.60429907964316953439e+01) (17, -2.66172379635028644174e+00) (18, -2.05812870892976951254e+00) (19, 3.77097429142805751212e+00) (20, 8.52938126224366222061e+00) (21, -1.43812236843603602487e+00) (22, -1.50000000000000000000e+03) (23, -1.38311132648246033483e+01) (24, -1.50000000000000000000e+03) (25, 1.55107823496239021210e+01) (26, 3.48959393809851178503e+02) (27, 2.44135319705470799079e+01) (28, -1.14773746133689812154e+02) (29, 1.09753648611920997524e+01) (30, 1.79322641508079556161e+02) (31, 5.99439365496298659508e+00) (32, -5.11891040080749007757e+02) (33, 8.03288588159903338415e-02) (34, 1.30936774143878983523e+03) (35, 7.58498247293526084434e+00) (36, 1.50000000000000000000e+03) (37, -1.19446648190561450775e+01) (38, 1.06279197779964101755e+03) (39, -2.28525869431078554328e+01) (40, 2.03198055395998181893e+02) (41, 4.33630022876826881628e+00) (42, -1.83821657655511586427e+02) (43, -2.51057126695815107098e+01) (44, -8.50141921129975912663e+01) (45, -2.31743795339401934541e+01) (46, 6.76828101460943912571e+02) (47, 1.11181984577284627136e+01) (48, 1.19137707499755310891e+03) (49, -1.25079110934334494232e+01) (50, -1.03099623383489742423e+02) (51, -6.41526050855240637105e+00) (52, 1.50000000000000000000e+03) (53, -2.08060291573845468349e+01) (54, 1.02234742895990734723e+03) (55, 1.40662161035356572114e+01) (56, -1.03812983166669923207e+02) (57, 1.15774709166040441488e+01) (58, -6.37385141479026970046e+02) (59, 1.94520468450953245565e+01) (60, -6.31215936274665665451e+01) (61, 2.57815078339502896654e+01) (62, -1.50000000000000000000e+03) (63, 1.07304276313346202976e+00) (64, -1.50000000000000000000e+03) (65, -1.84377675424579940966e+01) (66, -4.72856399968880793949e+01) (67, -2.89860001261899435931e+00) (68, -1.50000000000000000000e+03) (69, 4.18082076923100132149e+00) (70, 1.78924558177567272210e+00) (0, 1.50000000000000000000e+03) (1, 7.73568489230417544178e+00) (2, 1.50000000000000000000e+03) (3, -1.37370524494459154141e+01) (4, 2.22146841526066793904e+02) (5, 1.09656025677637156690e+01) (6, 4.39641804668509976750e+01) (7, 4.65741128717125363323e+00) (8, -4.49555076407226465562e+02) (9, -1.54375950821463501228e+01) (10, 4.26686669038926993380e+02) (11, -5.74099884713476704690e+00) (12, -1.50000000000000000000e+03) (13, -7.94562896723143463618e+00) (14, 1.50000000000000000000e+03) (15, 2.91785975788695850497e+01) (16, 2.41747170042370278509e+01) (17, -8.68631211607318753920e+00) (18, -8.21204510704824741651e+00) (19, -1.10655211521854002221e+00) (20, 2.07385869489913599040e+00) (21, 1.84826860314487149139e+01) (22, 1.50000000000000000000e+03) (23, 2.86061038283772823831e+01) (24, 1.50000000000000000000e+03) (25, 1.88849789477065748144e+01) (26, -1.50000000000000000000e+03) (27, -2.30578145103222418300e+01) (28, 1.09620031735392913674e+02) (29, -1.69577922844976676231e+01) (30, -9.86857601417434011637e+01) (31, -2.44776067826656671400e+01) (32, 2.11073677175740556322e+02) (33, -1.60427359192092318096e+01) (34, -5.42842390830475210350e+02) (35, -6.68410832439764934776e+00) (36, -1.57018302027553673383e+01) (37, 2.80321109559816115109e+01) (38, 1.47198383823485215771e+02) (39, -2.54485235279868717839e+01) (40, -1.00195080033048796508e+02) (41, 5.20475905951851469666e+00) (42, -9.19282397805558986192e+01) (43, -1.58658423842795812675e+01) (44, 2.47898799474199584836e+01) (45, 1.92996438378482970677e+01) (46, -4.48427845694942391219e+02) (47, 1.41797420786008014915e+01) (48, -3.13324680814791577177e+02) (49, 1.39516738309815337971e+01) (50, 4.73305202969597587526e+02) (51, 1.14973359695698409411e+01) (52, -1.50000000000000000000e+03) (53, -2.07406595776562525657e+01) (54, -2.01615534616282502611e+02) (55, -2.93555502672461532399e+00) (56, -5.58597941861863347413e+01) (57, 4.27645585426887819835e+00) (58, 9.29381303461965330825e+02) (59, -6.30986376872866738807e+00) (60, -3.31376637769264959843e+02) (61, 2.32011030719710564796e+00) (62, 6.67705995254377597803e+01) (63, 5.46341919236961004458e+00) (64, 1.50000000000000000000e+03) (65, 6.91486211118102556128e+00) (66, 8.13193815925684759804e+01) (67, -1.05151647444820390831e+01) (68, 1.50000000000000000000e+03) (69, -1.78641352741528152137e+01) (70, -1.27815980704949421209e+01) (0, 1.45000000000000000000e+03) (1, -2.60743086772198253698e+01) (2, -1.50000000000000000000e+03) (3, 2.14710614600761262594e+00) (4, -3.91931274180304455967e+02) (5, 2.34726476677812989635e+01) (6, 8.69321869621547804741e+00) (7, -6.30058983236571812370e+00) (8, 9.33716046141268520842e+02) (9, 1.09880557803733491795e+01) (10, -9.22619088291622915676e+02) (11, 2.28329632751556204084e+01) (12, 1.50000000000000000000e+03) (13, 1.67051300592750640028e+00) (14, -1.50000000000000000000e+03) (15, -4.97783179320439259641e+01) (16, -1.15590596084785417474e+01) (17, 2.52382738445034036090e+01) (18, 9.27388739781628856917e+00) (19, 2.98355925113670998883e+01) (20, 4.22265190779375529928e+01) (21, 1.65039546210071321752e+01) (22, -1.50000000000000000000e+03) (23, -3.70027366205152503653e+01) (24, -1.50000000000000000000e+03) (25, 4.09508537264395400257e+00) (26, 1.50000000000000000000e+03) (27, -1.00616162510002205011e+01) (28, -1.09429356949365865148e+03) (29, 2.58725801726872113306e+01) (30, 2.52140058536760562902e+02) (31, -1.46827072218695899863e+01) (32, -2.05370342438344010816e+02) (33, -1.10843639919273551087e+00) (34, 1.07256568528440379851e+03) (35, -8.92961520644350770226e+00) (36, 6.90528510654755905307e+02) (37, 7.51304269067864405329e-01) (38, -3.24513631691415923797e+02) (39, 6.82758633153963501172e+00) (40, 2.37469536946592597815e+02) (41, -7.85454939820398045924e+00) (42, 2.71928628914951131534e+00) (43, -2.71670621950653945476e+00) (44, -5.59321431698246129827e+01) (45, -1.76030080126025652021e+01) (46, 6.35208573337982102203e+02) (47, 1.14055358618752489264e+01) (48, 1.28193705193147343380e+03) (49, 6.77997394042374512679e+00) (50, -8.86567341635614639017e+02) (51, -1.88002501012194223051e+01) (52, 1.50000000000000000000e+03) (53, -1.48566170303454789803e+01) (54, 2.21089928756440286861e+02) (55, 1.83117549143691995539e+01) (56, 8.26337591537556761523e+01) (57, 1.37405363666997253347e+01) (58, -1.41644115583652592250e+03) (59, 2.50058059416050726398e+00) (60, -9.78826580946617241352e+02) (61, -2.38072773910304462675e+01) (62, 1.40126031053973072460e+01) (63, -1.05076080060459258192e+01) (64, -1.50000000000000000000e+03) (65, 2.59172483239652535758e+01) (66, -5.34130172685404289723e+01) (67, -1.35828958798118399898e+01) (68, -1.50000000000000000000e+03) (69, -1.53654120214882610185e+01) (70, 1.83043763203387683802e+01) (0, 1.45000000000000000000e+03) (1, 2.05126701964596698247e+01) (2, -1.50000000000000000000e+03) (3, 1.90718082115548881461e+01) (4, 1.51364330995064364060e+02) (5, -7.25568873895241317484e+00) (6, 1.81446095378216710969e+02) (7, -2.63522374936615513263e+01) (8, 1.72088207184021769081e+02) (9, 3.96987369822560998145e+00) (10, -2.08599882269586260009e+02) (11, -1.86653179409578982018e+01) (12, 1.50000000000000000000e+03) (13, -2.10591490280246205202e+01) (14, -1.50000000000000000000e+03) (15, 1.33601734225385211374e+01) (16, -1.25876709938967550784e+02) (17, 2.80634420011804799344e+01) (18, -2.42428443524841625845e+01) (19, 3.14543833968341024487e+00) (20, 1.93032726662389535477e+01) (21, 5.63869669637666870443e+00) (22, -1.50000000000000000000e+03) (23, 7.38724105139505304862e+00) (24, -1.50000000000000000000e+03) (25, -7.22774028118252331865e+00) (26, 1.14512074860231973616e+03) (27, 2.11744066350231152640e+00) (28, 1.77029397404282562434e+01) (29, 1.80001590848191277416e+01) (30, 4.84946585702048054145e+01) (31, -6.52440896824398985920e-01) (32, 9.98943544517939159277e+01) (33, -1.91408394858757340273e+01) (34, 1.83868287197964946245e+02) (35, 2.33300976795720735879e+01) (36, -4.87532940601557982063e+02) (37, -1.93375410923566022348e+01) (38, -2.07546396700172941507e+01) (39, 1.45125580348779781303e+01) (40, -6.80310862662255146915e+01) (41, -5.06560310823749837539e+00) (42, -1.52906815879094786226e+01) (43, 5.26165072010177947703e+00) (44, 3.50869643514729887102e+02) (45, -3.66352917624391283269e+00) (46, -5.89086503461512165813e+02) (47, -1.87991251355391817413e+01) (48, 1.93955648071824313661e+01) (49, 1.29803562010960416018e+01) (50, -5.01210586593248081044e+02) (51, -2.74225609074510490171e-01) (52, 4.29686723062467450518e+01) (53, 4.80832267352884823453e+00) (54, 6.40914698857783491803e+02) (55, -1.06929987475277634701e+01) (56, 3.28251592406868383023e+02) (57, -3.85784451552575680111e+00) (58, -4.65169822549733908090e+02) (59, 1.66355907676535679229e+01) (60, 6.69738997714533752514e+02) (61, -2.41141659679249293902e+01) (62, 6.35714812921812381319e+02) (63, 1.70586130324518734369e+01) (64, -1.50000000000000000000e+03) (65, -1.74389072080883593685e+01) (66, 4.03181691742955266022e+01) (67, -2.46766434318731384678e+01) (68, -1.50000000000000000000e+03) (69, 1.71641123705470981520e+01) (70, -9.28638980001146663312e+00) (0, 1.50000000000000000000e+03) (1, -1.37151070010585218739e+01) (2, 1.50000000000000000000e+03) (3, -2.61283508338799297377e+00) (4, 4.03894971186629618387e+02) (5, -1.25018615656677329895e+01) (6, -1.48575529391511160782e+01) (7, 4.73204551246246651885e+00) (8, -8.35867420242769753713e+02) (9, 1.54073975734211643385e+00) (10, 9.57429302839621527710e+02) (11, 2.28933883771415516151e+01) (12, -1.50000000000000000000e+03) (13, -2.18691352668395246894e+01) (14, 1.50000000000000000000e+03) (15, 1.55150070037887743979e+01) (16, 5.42807465405771907285e+01) (17, 4.85394497674499447726e+00) (18, 1.95709655636410517765e+00) (19, -1.71378268876064971948e+01) (20, -2.28678673612190728193e+01) (21, 1.42490474267653155493e-01) (22, 1.50000000000000000000e+03) (23, -7.83889388679394283344e+00) (24, 1.50000000000000000000e+03) (25, -2.45971328271601734627e+01) (26, -1.50000000000000000000e+03) (27, -1.20186836545676278831e+01) (28, 1.34696438874252550022e+02) (29, 1.43488997768697168489e+00) (30, -1.49132898247575127471e+02) (31, 5.05339142886548700062e+01) (32, -3.96150129459600350401e+02) (33, 2.24262905434008672501e+01) (34, -1.27031835491004855498e+02) (35, -1.15771520598521870937e+00) (36, -1.08322573654876896398e+03) (37, -3.06963054627999554214e+01) (38, 2.57520790709480031921e+01) (39, -8.97309891548411897588e+00) (40, -1.65091141880562418010e+02) (41, -2.23224406304899503084e+01) (42, 2.65456360661976020765e+01) (43, -1.95288386367284836354e+01) (44, 2.79143558631388088997e+02) (45, 1.19430099725413594314e+01) (46, 6.34092612641099094617e+02) (47, -5.88179049760233230160e+00) (48, -9.44961049739380200663e+02) (49, 8.71683856384951560869e+00) (50, 1.50000000000000000000e+03) (51, 1.59014884808823619977e+00) (52, -1.22677049242158022935e+03) (53, 2.87007219875568564404e+00) (54, 5.25209284861039726877e+00) (55, 2.50495807162480144115e+00) (56, -1.92623148259246391945e+02) (57, 1.33071856107325636742e+01) (58, 1.50000000000000000000e+03) (59, -8.90729237782237603938e+00) (60, -1.17575702625148960578e+03) (61, 1.60863311679794982467e+01) (62, 1.32762266625418703825e+02) (63, 1.66024980375143123013e+01) (64, 1.50000000000000000000e+03) (65, 1.31004077266050451556e+01) (66, 6.72527435180939932025e+01) (67, 1.33677222585959043499e+01) (68, 1.50000000000000000000e+03) (69, 2.99038606086996816558e+00) (70, 1.06425062522699054313e+01) (0, 1.45000000000000000000e+03) (1, 3.04624283334670664658e+01) (2, -1.50000000000000000000e+03) (3, 1.64607117582713406989e+01) (4, -4.15938666511514725244e+02) (5, -1.26282368892638157121e+01) (6, -6.81086862467924305520e+01) (7, -1.92468798852625759821e+01) (8, 9.75646330164553319264e+02) (9, -1.02583979907319715608e+01) (10, -9.30491652130581769597e+02) (11, 1.05943234673546340940e-01) (12, 1.50000000000000000000e+03) (13, -1.30140773253465162895e+01) (14, -1.50000000000000000000e+03) (15, -2.23627532894265668162e+00) (16, -1.90859112649178044308e+01) (17, -3.73546419551253734426e+01) (18, 8.97366778483493110485e-01) (19, 4.26090876482404645742e+00) (20, -5.23610627942883510855e+00) (21, -1.21389535405551249880e+01) (22, -1.50000000000000000000e+03) (23, -3.93358963905050131871e+01) (24, -1.50000000000000000000e+03) (25, 1.16178518039366274195e+01) (26, 1.50000000000000000000e+03) (27, 1.60019553511296663828e+01) (28, -1.40739233614400404804e+03) (29, 6.06913933895963175758e+00) (30, 1.62083870619093261212e+02) (31, -9.39640704165752538302e+00) (32, -4.58439329916745776927e+01) (33, -2.00154170266005273504e+01) (34, 1.50000000000000000000e+03) (35, -3.73596483049010643640e+01) (36, 6.65542865122147418333e+02) (37, -1.12431632474116796061e+01) (38, -3.67048090712517876000e+02) (39, -1.77405315663340097387e+01) (40, 3.31173425066692914243e+02) (41, 2.27099065921748000108e-01) (42, 5.29699142340858884381e+02) (43, -3.47551628366214959698e+00) (44, -1.02327953444755053170e+02) (45, 3.16589444293468353919e+01) (46, 1.50000000000000000000e+03) (47, 2.57005447098461559108e+01) (48, 5.37276673684653360397e+02) (49, 1.96985744761454313334e+01) (50, -8.36420035764850013038e+02) (51, 1.03775537931288219795e+01) (52, 1.50000000000000000000e+03) (53, -1.60046718146012239004e+01) (54, 2.48333388137604345047e+02) (55, 1.00883837498673258892e+01) (56, 1.86246712596745965129e+02) (57, -7.23263115486521446229e+00) (58, -1.50000000000000000000e+03) (59, 5.02399599439277988466e+00) (60, 5.89037821071613166168e+02) (61, -2.49385485222966138963e+01) (62, -1.10042034305673581684e+02) (63, 9.57789396287226502125e+00) (64, -1.50000000000000000000e+03) (65, -2.15032062819801126352e+01) (66, -4.22589603618401241647e+01) (67, 3.19776566682908516270e+01) (68, -1.50000000000000000000e+03) (69, 1.71333020140086453864e+01) (70, 3.19057552835403086533e+01) (0, 1.50000000000000000000e+03) (1, -2.76028970323469771131e+01) (2, 1.50000000000000000000e+03) (3, -3.13296888331459610910e+00) (4, 3.71274124438277510762e+02) (5, 3.04665216849167386215e+01) (6, 9.27914724273200164362e+01) (7, 2.38574286395883703449e+01) (8, -9.61057822135423521104e+02) (9, -5.80706593904156687103e+00) (10, 9.26356761125908406029e+02) (11, 6.81977243791027643027e+00) (12, -1.50000000000000000000e+03) (13, -9.39755173730775617003e+00) (14, 1.50000000000000000000e+03) (15, -2.98547696442484955526e+01) (16, 5.09745007113341443983e+01) (17, 1.84968654441103659281e+01) (18, 6.34944043350993148067e+00) (19, -5.23776604350253194298e+00) (20, 2.47420030882069639233e+01) (21, 2.53173658614669854217e+01) (22, 1.50000000000000000000e+03) (23, -5.06941133352214556851e+00) (24, 1.50000000000000000000e+03) (25, 1.78194449767452809397e+01) (26, -1.50000000000000000000e+03) (27, 2.57024143664413884380e+01) (28, 1.50000000000000000000e+03) (29, -9.26947603779029094540e+00) (30, -1.37975551658966168134e+02) (31, 1.57525176440821184087e+02) (32, 3.50793277188070305783e+02) (33, 1.86799126192404436608e+01) (34, -9.74462102325412388382e+02) (35, 4.81451986104922582399e+01) (36, -6.82059702629771095417e+02) (37, -1.12723912075433378988e+01) (38, 3.57919034489739260607e+02) (39, 5.10130634315297513126e+01) (40, -2.83613699847257521469e+02) (41, -5.97223472681349054625e+00) (42, 8.96193963202886756392e+00) (43, 1.01823934465911225544e+00) (44, 8.59445781051919084348e+01) (45, -1.27289079094869417297e+00) (46, -8.94386210139913373496e+02) (47, 3.14480381091355170042e+01) (48, -9.40368065868274669583e+01) (49, 2.40188386707126909414e+02) (50, 1.42346977833721575735e+03) (51, 3.96644230487435294208e+01) (52, -1.50000000000000000000e+03) (53, 2.35559933156092178308e+01) (54, -2.13795397522981375005e+02) (55, 4.05871616350519559546e+01) (56, -1.53428300250620935685e+02) (57, -1.28712563410896976279e+01) (58, 1.50000000000000000000e+03) (59, 2.08200875078181502076e+00) (60, 1.50000000000000000000e+03) (61, 3.48874049846268547981e+01) (62, 1.38193537483003098032e+02) (63, -5.08619669478133662466e+00) (64, 1.50000000000000000000e+03) (65, 1.57370934366223225176e+00) (66, 3.09896066543858133002e+01) (67, -6.37818638582452646091e+00) (68, 1.50000000000000000000e+03) (69, -8.92307145932523404497e+00) (70, 2.77367691618721003977e+01) (71, -1.72249366509840804440e+01) (72, 2.86360894296947110504e+00) (73, 1.95187158181596380757e+01) (74, -7.07654201692216044961e+00) (75, 9.50364105110278245547e+00) (76, 1.08218864249650597031e+01) (77, 4.23935847375478225274e+00) (78, 1.50000000000000000000e+03) (79, 1.50000000000000000000e+03) (80, -2.26922183614694468190e+01) (81, 1.77190048180157044833e+00) (82, 4.58905002403519723941e+00) (83, 8.58302742371784788133e+00) (84, 1.17053764608418191528e+01) (85, 1.50000000000000000000e+03) (86, 1.50000000000000000000e+03) (87, 1.30888682432179344062e+01) (88, -2.42383572720763709185e+01) (89, 1.50000000000000000000e+03) (90, -7.02344092904258676668e+00) (91, 2.83451039191565667963e+00) (92, -1.47054449419324462234e+00) (93, -1.34691086074119183991e+01) (94, 1.53042298560951177677e+01) (95, -3.00005134135300295384e+01) (96, 9.23961695403023774986e+00) (97, 1.07051386971667810144e+01) (98, -1.59249132090191061195e+01) (99, 1.52456861715591394102e+01) (100, -1.93253780323134343178e+01) (101, 1.02239984554182470333e+01) 
