FANN_FLO_2.1
num_layers=3
learning_rate=0.700000
connection_rate=1.000000
network_type=0
learning_momentum=0.000000
training_algorithm=2
train_error_function=1
train_stop_function=0
cascade_output_change_fraction=0.010000
quickprop_decay=-0.000100
quickprop_mu=1.750000
rprop_increase_factor=1.001000
rprop_decrease_factor=0.333300
rprop_delta_min=0.000000
rprop_delta_max=50.000000
rprop_delta_zero=0.100000
cascade_output_stagnation_epochs=12
cascade_candidate_change_fraction=0.010000
cascade_candidate_stagnation_epochs=12
cascade_max_out_epochs=150
cascade_max_cand_epochs=150
cascade_num_candidate_groups=2
bit_fail_limit=3.49999999999999977796e-01
cascade_candidate_limit=1.00000000000000000000e+03
cascade_weight_multiplier=4.00000000000000022204e-01
cascade_activation_functions_count=10
cascade_activation_functions=3 5 7 8 10 11 14 15 16 17 
cascade_activation_steepnesses_count=4
cascade_activation_steepnesses=2.50000000000000000000e-01 5.00000000000000000000e-01 7.50000000000000000000e-01 1.00000000000000000000e+00 
layer_sizes=71 21 2 
scale_included=0
neurons (num_inputs, activation_function, activation_steepness)=(0, 0, 0.00000000000000000000e+00) (0, 0, 0.00000000000000000000e+00) (0, 0, 0.00000000000000000000e+00) (0, 0, 0.00000000000000000000e+00) (0, 0, 0.00000000000000000000e+00) (0, 0, 0.00000000000000000000e+00) (0, 0, 0.00000000000000000000e+00) (0, 0, 0.00000000000000000000e+00) (0, 0, 0.00000000000000000000e+00) (0, 0, 0.00000000000000000000e+00) (0, 0, 0.00000000000000000000e+00) (0, 0, 0.00000000000000000000e+00) (0, 0, 0.00000000000000000000e+00) (0, 0, 0.00000000000000000000e+00) (0, 0, 0.00000000000000000000e+00) (0, 0, 0.00000000000000000000e+00) (0, 0, 0.00000000000000000000e+00) (0, 0, 0.00000000000000000000e+00) (0, 0, 0.00000000000000000000e+00) (0, 0, 0.00000000000000000000e+00) (0, 0, 0.00000000000000000000e+00) (0, 0, 0.00000000000000000000e+00) (0, 0, 0.00000000000000000000e+00) (0, 0, 0.00000000000000000000e+00) (0, 0, 0.00000000000000000000e+00) (0, 0, 0.00000000000000000000e+00) (0, 0, 0.00000000000000000000e+00) (0, 0, 0.00000000000000000000e+00) (0, 0, 0.00000000000000000000e+00) (0, 0, 0.00000000000000000000e+00) (0, 0, 0.00000000000000000000e+00) (0, 0, 0.00000000000000000000e+00) (0, 0, 0.00000000000000000000e+00) (0, 0, 0.00000000000000000000e+00) (0, 0, 0.00000000000000000000e+00) (0, 0, 0.00000000000000000000e+00) (0, 0, 0.00000000000000000000e+00) (0, 0, 0.00000000000000000000e+00) (0, 0, 0.00000000000000000000e+00) (0, 0, 0.00000000000000000000e+00) (0, 0, 0.00000000000000000000e+00) (0, 0, 0.00000000000000000000e+00) (0, 0, 0.00000000000000000000e+00) (0, 0, 0.00000000000000000000e+00) (0, 0, 0.00000000000000000000e+00) (0, 0, 0.00000000000000000000e+00) (0, 0, 0.00000000000000000000e+00) (0, 0, 0.00000000000000000000e+00) (0, 0, 0.00000000000000000000e+00) (0, 0, 0.00000000000000000000e+00) (0, 0, 0.00000000000000000000e+00) (0, 0, 0.00000000000000000000e+00) (0, 0, 0.00000000000000000000e+00) (0, 0, 0.00000000000000000000e+00) (0, 0, 0.00000000000000000000e+00) (0, 0, 0.00000000000000000000e+00) (0, 0, 0.00000000000000000000e+00) (0, 0, 0.00000000000000000000e+00) (0, 0, 0.00000000000000000000e+00) (0, 0, 0.00000000000000000000e+00) (0, 0, 0.00000000000000000000e+00) (0, 0, 0.00000000000000000000e+00) (0, 0, 0.00000000000000000000e+00) (0, 0, 0.00000000000000000000e+00) (0, 0, 0.00000000000000000000e+00) (0, 0, 0.00000000000000000000e+00) (0, 0, 0.00000000000000000000e+00) (0, 0, 0.00000000000000000000e+00) (0, 0, 0.00000000000000000000e+00) (0, 0, 0.00000000000000000000e+00) (0, 0, 0.00000000000000000000e+00) (71, 4, 5.00000000000000000000e-01) (71, 4, 5.00000000000000000000e-01) (71, 4, 5.00000000000000000000e-01) (71, 4, 5.00000000000000000000e-01) (71, 4, 5.00000000000000000000e-01) (71, 4, 5.00000000000000000000e-01) (71, 4, 5.00000000000000000000e-01) (71, 4, 5.00000000000000000000e-01) (71, 4, 5.00000000000000000000e-01) (71, 4, 5.00000000000000000000e-01) (71, 4, 5.00000000000000000000e-01) (71, 4, 5.00000000000000000000e-01) (71, 4, 5.00000000000000000000e-01) (71, 4, 5.00000000000000000000e-01) (71, 4, 5.00000000000000000000e-01) (71, 4, 5.00000000000000000000e-01) (71, 4, 5.00000000000000000000e-01) (71, 4, 5.00000000000000000000e-01) (71, 4, 5.00000000000000000000e-01) (71, 4, 5.00000000000000000000e-01) (0, 4, 5.00000000000000000000e-01) (21, 4, 9.00000000000000022204e-01) (0, 4, 9.00000000000000022204e-01) 
connections (connected_to_neuron, weight)=(0, -1.50000000000000000000e+03) (1, 5.18637725651953971351e+01) (2, -1.50000000000000000000e+03) (3, 1.84671950626305836352e+01) (4, -7.88017984097130465670e+02) (5, 7.22337819386388133580e+01) (6, -6.69361839893415151437e+01) (7, -3.55693272253867078803e+01) (8, 6.46369577670017974924e+02) (9, 3.23506067555291920712e+01) (10, -1.50000000000000000000e+03) (11, 7.70967437595863458455e+01) (12, 1.20450231967732815974e+03) (13, -5.89495055807748329357e+01) (14, -1.50000000000000000000e+03) (15, 8.62415428399288153116e+00) (16, 1.03367835119797781829e+01) (17, 4.89157665172214706217e+01) (18, 5.54015600974711119875e+01) (19, 2.81449446380878214313e+01) (20, -3.36362483294134051448e+01) (21, -1.27082736810321303977e+01) (22, -1.50000000000000000000e+03) (23, 6.32420257368536411491e+01) (24, -1.50000000000000000000e+03) (25, 7.65607283130262601389e+01) (26, 1.50000000000000000000e+03) (27, 5.03924986347751513449e+01) (28, 1.92821007787854227900e+02) (29, -5.57487309582126897567e+01) (30, -1.18442024499949436489e+01) (31, -4.90953018488724239887e+01) (32, 2.27278662313587886956e+02) (33, 1.07502894522844513858e+02) (34, 1.20535068062608331729e+02) (35, 6.77846134634465347091e+00) (36, -8.23057349564889136673e+02) (37, 5.88502049413136916201e+01) (38, 1.43103231700776404978e+03) (39, -9.19214244914373956874e+00) (40, 3.00982867157771522670e+02) (41, -7.00496603168721634347e+01) (42, 1.14918943953628897248e+02) (43, -7.00664029425194314626e+01) (44, 1.50000000000000000000e+03) (45, 4.83209702829585978634e+01) (46, 3.14918200373942696046e+01) (47, 1.12953617791609630672e+01) (48, 3.96987185004639741237e+02) (49, -1.51899528671724048934e+01) (50, -3.38491496631103616632e-01) (51, -7.77027734237416378704e+00) (52, -7.57954384282320461352e+01) (53, 2.19110253623233681708e+01) (54, -1.72381072519938278731e+01) (55, 3.28534372221727295482e+01) (56, 1.50000000000000000000e+03) (57, -5.05446161357375700618e+00) (58, -2.07110270246617460543e+01) (59, 7.26046776756507910022e+01) (60, 1.50000000000000000000e+03) (61, -5.69858644628570516488e+01) (62, -1.50000000000000000000e+03) (63, 1.03387552356692367539e+02) (64, -1.50000000000000000000e+03) (65, 3.51586491660186872821e+00) (66, 1.22355796768100688610e+02) (67, -1.11161212421088379187e+02) (68, -1.50000000000000000000e+03) (69, 2.73105712222985523852e+01) (70, -1.05039383474500638727e+02) (0, -1.50000000000000000000e+03) (1, -4.31508239333453715858e+01) (2, -1.50000000000000000000e+03) (3, 4.35080100363141824005e+01) (4, -6.14347844974370445925e+02) (5, 4.02443198121776077869e+01) (6, -4.48858643133632824629e+02) (7, -7.68197347439420923365e+01) (8, 1.50000000000000000000e+03) (9, -6.03826125509000988245e+01) (10, -1.50000000000000000000e+03) (11, -2.42569753589114149861e+01) (12, 1.50000000000000000000e+03) (13, -8.95501752614337220848e+01) (14, -1.50000000000000000000e+03) (15, -4.99250566107449458286e+01) (16, -2.14750550622563203262e+01) (17, -7.02994940929603728819e+01) (18, -4.33547940450821229774e+01) (19, -1.93329061588181509990e+01) (20, 1.93551978778231671185e+02) (21, 3.78821345744646720277e+01) (22, -1.50000000000000000000e+03) (23, -1.85438611176201249009e+01) (24, -1.50000000000000000000e+03) (25, 1.61621855726038141654e+01) (26, 1.50000000000000000000e+03) (27, -7.44003236327729950972e+01) (28, 1.50000000000000000000e+03) (29, 2.64124706546061759127e+02) (30, 3.98547086541093563028e+02) (31, 2.75986228736815206730e+01) (32, 1.50000000000000000000e+03) (33, -3.07644524996934976002e+01) (34, 1.50000000000000000000e+03) (35, -4.44087178096312982234e+01) (36, 1.50000000000000000000e+03) (37, 9.08737663219793745384e+00) (38, 1.50000000000000000000e+03) (39, 9.55103887501823010098e+01) (40, 2.03330525734797618043e+02) (41, -1.77340093035146111333e+01) (42, 1.50000000000000000000e+03) (43, -5.29313620001406732740e+01) (44, 1.50000000000000000000e+03) (45, -5.95152487527643572207e+01) (46, 1.50000000000000000000e+03) (47, 4.60026098246646952816e+01) (48, 1.50000000000000000000e+03) (49, 3.34281458313018674744e+02) (50, -1.49617633414643864853e+03) (51, -2.77671858013798882325e+01) (52, 1.50000000000000000000e+03) (53, 5.13978592351056207121e+01) (54, 1.50000000000000000000e+03) (55, 7.51704842909935706530e+01) (56, 1.50000000000000000000e+03) (57, 2.57041696215848674001e+01) (58, 1.50000000000000000000e+03) (59, -1.29430665483003224381e+02) (60, 1.50000000000000000000e+03) (61, 5.09514713418057780814e+01) (62, -1.50000000000000000000e+03) (63, 9.05226152439410753914e+01) (64, -1.50000000000000000000e+03) (65, 7.39109441822411739054e+00) (66, 1.72750751213931494021e+02) (67, 5.37760001499646662637e+01) (68, -1.50000000000000000000e+03) (69, -2.52641342813121667632e+01) (70, 1.30367429026688306237e+01) (0, -1.50000000000000000000e+03) (1, 6.93389645058113330833e+01) (2, -1.50000000000000000000e+03) (3, -2.42687140851393294838e+01) (4, -7.51008470432132298811e+02) (5, -4.63357824956825439244e+01) (6, -3.46170233328336053091e+02) (7, -2.14733819198502962067e+00) (8, 1.50000000000000000000e+03) (9, -4.56830606774950140903e+01) (10, -1.50000000000000000000e+03) (11, 2.61342721258987182864e+01) (12, 1.50000000000000000000e+03) (13, 4.88971774754038577271e+01) (14, -1.50000000000000000000e+03) (15, -7.02824498095702239198e+01) (16, 1.75141914123368884759e+01) (17, -8.81103400794459190593e+01) (18, 1.46041855416704424719e+00) (19, 1.43293176732888234426e+01) (20, 1.96571452330935471764e+02) (21, -1.27770846486449283219e+01) (22, -1.50000000000000000000e+03) (23, 1.10509016555230630274e+02) (24, -1.50000000000000000000e+03) (25, 5.77237817023289352392e+01) (26, 1.50000000000000000000e+03) (27, -7.38302920166337628416e+01) (28, 1.42939691385998912665e+03) (29, 1.40492865252975178691e+02) (30, 3.38854999367632046869e+02) (31, 4.68398426435134567214e+01) (32, 1.50000000000000000000e+03) (33, 2.46835939310055110241e+01) (34, 4.83705391441664801278e+02) (35, -1.26450476536331475330e+01) (36, 1.50000000000000000000e+03) (37, -3.54696008808163156800e+01) (38, 1.50000000000000000000e+03) (39, 2.29440566572298578762e+01) (40, 9.57912175189100310035e+01) (41, -6.57489537014231615331e+01) (42, 1.50000000000000000000e+03) (43, -5.92708893368920968214e+01) (44, 1.50000000000000000000e+03) (45, -1.79635725426251049441e+01) (46, 1.50000000000000000000e+03) (47, 4.67852732379038585009e+01) (48, 1.50000000000000000000e+03) (49, 1.56134940894575009906e+02) (50, -1.49958311218646394991e+03) (51, 6.95377017285694591919e+01) (52, 1.50000000000000000000e+03) (53, -4.04138166921818964283e+01) (54, 1.50000000000000000000e+03) (55, 3.56804463106576363884e+01) (56, 1.50000000000000000000e+03) (57, -3.48371816025719311938e+01) (58, 1.50000000000000000000e+03) (59, 2.46072363382103205254e+01) (60, 1.50000000000000000000e+03) (61, 9.62464377117882818879e+00) (62, -1.50000000000000000000e+03) (63, -9.72648642369752280956e+00) (64, -1.50000000000000000000e+03) (65, -7.42531385309288367580e+01) (66, 2.00253135399722509646e+02) (67, -5.59705695937226153092e+01) (68, -1.50000000000000000000e+03) (69, 2.72245491594895767662e+01) (70, 3.65524812024405676425e+01) (0, 1.50000000000000000000e+03) (1, 1.29986556862422286684e+01) (2, 1.50000000000000000000e+03) (3, -1.64816693353045984338e+01) (4, 7.00410603541623459023e+02) (5, -7.19295593698303576957e+01) (6, 3.20196623192052015838e+02) (7, 4.70285721981685043147e+01) (8, -1.50000000000000000000e+03) (9, 3.28356841246863027095e+01) (10, 1.50000000000000000000e+03) (11, -2.17115069133132863044e+01) (12, -1.50000000000000000000e+03) (13, -5.26968707328462393491e+00) (14, 1.50000000000000000000e+03) (15, 6.47253947818779806767e+01) (16, -1.00884945978852485382e+02) (17, -8.34514937508276943845e+01) (18, 9.15870153964546886982e+01) (19, 4.84293932578560628599e+01) (20, -2.16603043452244662603e+02) (21, 7.24221074706929446307e+00) (22, 1.21819228809389801427e+03) (23, 3.01286955245229393086e+01) (24, 1.50000000000000000000e+03) (25, -1.95567388259914025639e+01) (26, -1.50000000000000000000e+03) (27, -5.11401874802650198149e+01) (28, -4.45764007253168728084e+01) (29, -6.02842253854778959976e+01) (30, -5.03890113751567696454e+02) (31, 3.05152751810165270285e+01) (32, -1.43089407418320479337e+03) (33, 1.72534841550808053512e+01) (34, 1.13960226302072396720e+03) (35, 3.39062226629523610910e+00) (36, -1.50000000000000000000e+03) (37, 2.49683774634493254041e+01) (38, -1.50000000000000000000e+03) (39, 5.84526255917707402432e+01) (40, -1.48201416993983286829e+02) (41, -9.01939446735956806833e+01) (42, -1.50000000000000000000e+03) (43, -7.12897932167602306208e+01) (44, -1.50000000000000000000e+03) (45, 4.80708375787836761361e+00) (46, -1.50000000000000000000e+03) (47, -6.67243728339486636969e+01) (48, -1.50000000000000000000e+03) (49, -1.50470010963812175220e+01) (50, -7.30580219749952220809e+02) (51, 1.49171441487069333931e+01) (52, -1.29066611884096289486e+01) (53, -8.96972428052708181667e+01) (54, -2.22852812968592019160e+02) (55, -7.13584759756273889764e+00) (56, -1.50000000000000000000e+03) (57, -4.50863671320279024712e+01) (58, 1.34063714898905850248e+01) (59, -5.83566076207609825133e+01) (60, -1.50000000000000000000e+03) (61, 1.19143020922164879494e+01) (62, 1.50000000000000000000e+03) (63, 3.28951836297323225722e+01) (64, 1.50000000000000000000e+03) (65, -4.49539457716332577775e+01) (66, -1.97612572682732775320e+02) (67, 7.71362904829723472488e+00) (68, 1.50000000000000000000e+03) (69, 8.66845951986922216292e+01) (70, 2.45882857449374832015e+01) (0, -1.50000000000000000000e+03) (1, 6.22054880580853648553e+01) (2, -1.50000000000000000000e+03) (3, -1.93653676823540159546e+01) (4, 2.26460682057616310203e+02) (5, 7.81807484195465551835e+00) (6, 2.99320015294686356810e+02) (7, -1.05067392517745915370e+02) (8, 1.12163796300718468046e+03) (9, 4.41780125509860965849e+01) (10, 1.06876912771751733544e+02) (11, -6.21826629348951698262e+01) (12, 1.50000000000000000000e+03) (13, 2.83651402132593588590e+01) (14, -1.50000000000000000000e+03) (15, -5.75751771744052263102e+01) (16, 8.99607952072650718378e+00) (17, 3.10318280118199787410e+01) (18, 5.33861712903559180177e+01) (19, 3.56524423168514559279e+01) (20, 1.59333518450111711218e+02) (21, 2.09598987666114977557e+00) (22, -1.50000000000000000000e+03) (23, 1.14844171185017103198e+01) (24, -1.50000000000000000000e+03) (25, 3.27532428650141227422e+01) (26, 1.50000000000000000000e+03) (27, -2.43036560331712703231e+00) (28, 9.25131544303435589427e+02) (29, -2.62158978301424276935e+01) (30, 5.07660845998494721698e+02) (31, 1.18668092197930796772e+01) (32, 8.88165922541779991661e+02) (33, -1.36067676620216175820e+01) (34, 1.16690952799389310712e+03) (35, -1.21389323309484154834e+02) (36, 1.50000000000000000000e+03) (37, 1.63428262822912166996e+01) (38, 6.15948194513197108790e+02) (39, 4.74537412835527945276e+01) (40, 1.62023467830248534938e+02) (41, 1.80816383618961147306e+01) (42, 7.18041683020036884955e+02) (43, -4.03457662555750786737e+01) (44, 1.50000000000000000000e+03) (45, -7.13915873718851798913e+01) (46, 1.50000000000000000000e+03) (47, -1.59339732928034774062e+01) (48, 1.50000000000000000000e+03) (49, -2.49910885026509044238e-01) (50, 1.29239288253694235209e+03) (51, -2.72411811924466862322e+00) (52, 1.50000000000000000000e+03) (53, -3.54112883968686347202e+01) (54, 1.50000000000000000000e+03) (55, 1.07413746921930428613e+01) (56, 8.39488215912226337423e+02) (57, 7.26787610707307152325e+01) (58, 4.69530430364432106671e+02) (59, -8.90837987194934868285e+01) (60, 9.93802634588120099579e+02) (61, 1.10578737862885304821e+02) (62, -1.50000000000000000000e+03) (63, 2.46013476087792852809e+01) (64, -1.50000000000000000000e+03) (65, -2.82161507141140219801e+01) (66, 8.30728165673252192391e+01) (67, -1.20818329397510559886e+01) (68, -1.50000000000000000000e+03) (69, 7.89072191401553624246e+01) (70, -2.11730897233013450887e+01) (0, -1.50000000000000000000e+03) (1, -1.09518525059393123655e+01) (2, -1.50000000000000000000e+03) (3, 5.98699409374662607775e+01) (4, -6.80175424472660324682e+02) (5, -1.47857879132448903903e+01) (6, -4.96648382742398382561e+02) (7, 1.58453816806436460496e+01) (8, 1.50000000000000000000e+03) (9, -3.50818754740745148979e+01) (10, -1.50000000000000000000e+03) (11, -5.65322090140264776892e+01) (12, 1.50000000000000000000e+03) (13, 3.12163047000147848564e+01) (14, -1.50000000000000000000e+03) (15, -2.31959829201968670276e+00) (16, -1.03433439477328505518e+02) (17, -2.73324699064455742814e+01) (18, 2.18365759184472608467e+02) (19, 8.13982056689976758435e+01) (20, 1.62425576375852074307e+02) (21, 4.07056391440107674384e+01) (22, -1.50000000000000000000e+03) (23, 4.63134217335686955153e+01) (24, -1.50000000000000000000e+03) (25, 1.14274067878216229133e+02) (26, 1.50000000000000000000e+03) (27, 5.60205118063374030157e+01) (28, 1.50000000000000000000e+03) (29, -4.12627802729985504460e-01) (30, 3.90730074045212745659e+02) (31, 1.92686329173366104328e+01) (32, 7.98381420757651312670e+02) (33, -1.14774777082410878393e+02) (34, 1.50000000000000000000e+03) (35, 7.27459714122426390759e+01) (36, 1.50000000000000000000e+03) (37, 3.98129272489791006251e+01) (38, 1.50000000000000000000e+03) (39, -3.33812311411212192525e+01) (40, 1.09742439998062550899e+02) (41, -1.27389888079874225468e+02) (42, 1.50000000000000000000e+03) (43, -2.91845193998123271228e+01) (44, 1.50000000000000000000e+03) (45, -1.13845694164853963315e+01) (46, 1.50000000000000000000e+03) (47, 5.74026589257095576357e+00) (48, 1.50000000000000000000e+03) (49, -2.38408636637467763464e+00) (50, 3.22178093686756810143e+01) (51, 2.15229404774853492199e+01) (52, 1.50000000000000000000e+03) (53, -5.05619787596039458322e+01) (54, 1.59355580026961973772e+02) (55, -6.62000989484964286191e+00) (56, 1.50000000000000000000e+03) (57, -1.16950509051902002966e+02) (58, 2.72665296551428184557e+02) (59, -1.11014545415210150736e+02) (60, 1.50000000000000000000e+03) (61, 2.33606201990883022290e+00) (62, -1.50000000000000000000e+03) (63, 6.86148150452527403331e+01) (64, -1.50000000000000000000e+03) (65, -7.76779916678392794438e+01) (66, 1.69623609261416845584e+02) (67, 1.63345453536009550533e+01) (68, -1.50000000000000000000e+03) (69, 8.62603587002312188758e+00) (70, -4.46388021236394436642e+01) (0, -1.50000000000000000000e+03) (1, -1.03558791960119918940e+02) (2, -1.50000000000000000000e+03) (3, -5.31462149234490794925e+01) (4, -7.07209762470096165998e+02) (5, -1.37099286706390177670e+01) (6, -3.94572676260464447751e+02) (7, -9.44581351559537978346e+01) (8, 1.50000000000000000000e+03) (9, 5.66881498832874513027e+01) (10, -1.50000000000000000000e+03) (11, -7.34071352961452561203e+01) (12, 1.50000000000000000000e+03) (13, -1.75580825069317398857e+02) (14, -1.50000000000000000000e+03) (15, -2.52381768687634249204e+01) (16, 3.60506668041905697919e+01) (17, 8.94093825282825527268e+00) (18, -3.57339418061605798016e+01) (19, -1.72395119899136695096e+01) (20, 1.15367722701419324949e+02) (21, 5.85477844729719123507e+01) (22, -1.50000000000000000000e+03) (23, 8.19515131229063484852e+01) (24, -1.50000000000000000000e+03) (25, 6.09741782703249413089e+01) (26, 1.50000000000000000000e+03) (27, 3.87261357992138925965e+01) (28, 1.50000000000000000000e+03) (29, 1.19817941081229434985e+02) (30, 3.91957818810380786090e+02) (31, 9.74657804270687222470e+00) (32, 1.50000000000000000000e+03) (33, -5.43349064058868123084e+01) (34, -7.17115705201883280040e-01) (35, 4.36621291380589937603e+00) (36, 1.50000000000000000000e+03) (37, -3.10822998259106668684e+01) (38, 1.50000000000000000000e+03) (39, -6.70151957655181576001e+01) (40, 2.01505110802669378245e+02) (41, 6.67724747139328798085e+01) (42, 1.50000000000000000000e+03) (43, -2.09766694059917533366e+01) (44, 1.50000000000000000000e+03) (45, -9.01555854786667221212e-01) (46, 1.50000000000000000000e+03) (47, 1.87858211635203637968e+01) (48, 1.50000000000000000000e+03) (49, 2.43626731871510955330e+01) (50, -1.17903305894348000038e+03) (51, -5.54883654545741289432e-01) (52, 1.50000000000000000000e+03) (53, 3.56650548245665746094e+01) (54, 1.50000000000000000000e+03) (55, -4.75810966427571315762e+01) (56, 1.50000000000000000000e+03) (57, 6.16605287374393853383e+01) (58, 1.50000000000000000000e+03) (59, -9.36483852875537650107e+01) (60, 1.50000000000000000000e+03) (61, -1.08508439700862695076e+02) (62, -1.50000000000000000000e+03) (63, 8.77360030776888919490e+01) (64, -1.50000000000000000000e+03) (65, -3.50268122280213560771e+01) (66, 1.20850713448428720653e+02) (67, -7.72196645092795286303e+00) (68, -1.50000000000000000000e+03) (69, -1.42438025659134019918e+01) (70, 1.02235690196825458997e+02) (0, -1.50000000000000000000e+03) (1, -1.08706385696564389320e+01) (2, -1.50000000000000000000e+03) (3, -6.94471521004225706974e+01) (4, -3.89519714418934654532e+02) (5, -2.83587151553293885797e+01) (6, -2.46178429893265757755e+02) (7, -4.41988425177150006107e+01) (8, 1.50000000000000000000e+03) (9, -5.73604942826726755811e+01) (10, -1.50000000000000000000e+03) (11, 6.97865746572110090540e+00) (12, 1.50000000000000000000e+03) (13, -5.40182351364784381076e+01) (14, -1.50000000000000000000e+03) (15, -9.11058318541086720188e+01) (16, 7.74087504680573879057e+00) (17, -4.21809533060081989220e+01) (18, 6.19487955867794681808e+00) (19, -6.91070759297979719804e+01) (20, -1.15921165315749149727e+02) (21, 3.94193028970826659929e+01) (22, -1.50000000000000000000e+03) (23, -1.49978842332106365731e+00) (24, -1.50000000000000000000e+03) (25, -3.86159988244393019841e+01) (26, 1.50000000000000000000e+03) (27, -2.67856847953648973260e+01) (28, 1.50000000000000000000e+03) (29, 9.91258550134362934614e+01) (30, -1.88444218048974576618e+01) (31, -3.29617070061187344976e+00) (32, 3.03639014693008164159e+02) (33, 3.71755012041466770256e+00) (34, 1.50000000000000000000e+03) (35, 1.15307831065955856964e+00) (36, 1.50000000000000000000e+03) (37, 1.71832847165599815753e+01) (38, 1.50000000000000000000e+03) (39, -1.72158959155756896564e+01) (40, -1.17408678290152082013e+02) (41, -3.73176803866517614594e+00) (42, 1.50000000000000000000e+03) (43, -1.15768405392129025699e+02) (44, 1.50000000000000000000e+03) (45, -4.11179732531718897803e+01) (46, 1.50000000000000000000e+03) (47, -2.20100712239909768186e+01) (48, 1.50000000000000000000e+03) (49, 7.06216827376467222166e+01) (50, 3.26944071362123565905e+02) (51, -8.70396006092318970104e+01) (52, 1.50000000000000000000e+03) (53, -5.91057013183494888153e+01) (54, 1.50000000000000000000e+03) (55, -3.15750226854006186272e+01) (56, 1.28803429264197166049e+03) (57, -1.52016631476044139504e+01) (58, 1.24229809353600148825e+03) (59, -2.39960428925754953866e+01) (60, 1.50000000000000000000e+03) (61, 5.77870803333113443045e+01) (62, -1.50000000000000000000e+03) (63, 1.01539405735856135493e+02) (64, -1.50000000000000000000e+03) (65, -9.40464058699004965547e+01) (66, -1.42173510387911594677e+01) (67, 1.38548050581039667861e+01) (68, -1.50000000000000000000e+03) (69, 4.33988333121741831633e+01) (70, 1.01514113973038533345e+01) (0, -3.98691690313213882746e+02) (1, 1.39944434219705744482e+01) (2, -2.81157079564922867121e+02) (3, -3.24280487499895073711e+01) (4, 3.82643318691464742187e+02) (5, -3.46947307374965419058e+01) (6, 3.45206865824538226661e+02) (7, -4.82858831222054476484e+01) (8, 3.81011618856353550200e+02) (9, 3.41207454308552939892e+01) (10, 2.47274055725526892502e+02) (11, -7.78649248758354239897e+00) (12, 3.65921931508941440825e+02) (13, -5.47547264910674229554e+01) (14, -1.73961223182401809595e+01) (15, 4.72647829567645914040e+01) (16, -6.44920980678079569515e+00) (17, 2.58279388096282680465e+01) (18, -2.46142894491997381579e+01) (19, -5.71055888020274480255e+01) (20, 2.28410785988832941484e+02) (21, 4.91219956642318944517e+00) (22, -8.76230668925236955147e+01) (23, 2.79245249005796924990e+00) (24, 2.77515833519208143798e+01) (25, 2.05079827791385085334e+01) (26, 3.76367381338043003325e+02) (27, -4.04077243605676130755e+01) (28, 2.60290685805184068613e+02) (29, -1.43030081002192730466e+01) (30, 3.86821896923383746980e+02) (31, -2.75137279100297789114e+01) (32, 2.48350829756615695487e+02) (33, 1.68706378877333804667e+01) (34, 2.80026464746079966517e+02) (35, -2.99342875216324122434e+00) (36, 3.18888345006866472886e+02) (37, -7.51655288827270151586e+00) (38, 3.43144413097822337022e+02) (39, -5.99400845122689958089e+01) (40, 3.11996719651208366031e+02) (41, -9.82022060490710515523e+01) (42, 3.51307091867774829552e+02) (43, 1.17466352517744816453e+01) (44, 3.29549978021545541651e+02) (45, -9.19729979003010456040e+00) (46, 3.85479966054677504417e+02) (47, -3.41096606300562612546e+01) (48, 2.72422000173490289399e+02) (49, -3.82272464833622294123e+01) (50, 2.40823683683263652711e+02) (51, -4.29758560998894338923e+01) (52, 3.61993352178497218574e+02) (53, 3.36497315137336414637e+01) (54, 9.70411751489641574153e+01) (55, -2.66519621437288734001e+01) (56, 3.47314552549285565419e+02) (57, -3.54203071183622100193e+01) (58, 7.94805567183231609363e+00) (59, 5.94172199869680923712e+01) (60, 2.85864131215972690825e+02) (61, 3.64483955042470810781e+01) (62, 1.92424809341763108250e+02) (63, -7.98143927306880129890e+01) (64, -3.63947332250469742121e+02) (65, -6.35308449294134973684e+01) (66, -2.56889047897700661949e+00) (67, -1.06088069333330636823e+02) (68, -2.54816415655009137708e+02) (69, -6.40114685497937756509e+01) (70, 3.12816930659056922082e+01) (0, 1.50000000000000000000e+03) (1, -3.83133889371969571513e+00) (2, 1.50000000000000000000e+03) (3, 2.58953912936699417457e+01) (4, -1.30449595379244289717e+01) (5, -3.78125123564874598969e+01) (6, -2.12115043583199309296e+02) (7, -3.97458361823761237019e+01) (8, -1.41352868018166100228e+03) (9, -1.05979677953111490751e+01) (10, 1.20623071901985940713e+03) (11, -2.12769142706288043598e+01) (12, -1.50000000000000000000e+03) (13, -1.37659098690015668787e+00) (14, 1.50000000000000000000e+03) (15, -6.38425479056360316577e+01) (16, -7.17467922614439235218e+00) (17, 3.43342503903231204276e+01) (18, -3.15582251477307735854e+01) (19, 1.43492295703179628674e+00) (20, -1.48423984261022923192e+02) (21, 3.72842792560366049770e+01) (22, 1.50000000000000000000e+03) (23, -1.91881549171585330527e+00) (24, 1.50000000000000000000e+03) (25, 4.40856893243673511051e+01) (26, -1.50000000000000000000e+03) (27, 2.88942067112517477767e+01) (28, -1.34517630260471378278e+02) (29, 6.96919417068917681490e+01) (30, -1.25861227049740264761e+02) (31, 5.18188775386446067728e+01) (32, -7.15702454851324432639e+02) (33, 2.64644065600014002371e+01) (34, -1.06004806430651569826e+03) (35, 1.36290970853125745776e+01) (36, -1.50000000000000000000e+03) (37, 1.83844102173968195757e+01) (38, -1.50000000000000000000e+03) (39, -1.85911250580073144079e+01) (40, -2.73900262300511997182e+02) (41, -3.03698745480204337355e+01) (42, -1.60493868865756837749e+02) (43, -7.62796045065784333872e+00) (44, -1.50000000000000000000e+03) (45, -9.53904731379889483378e+01) (46, -8.54469355523286964171e+01) (47, -8.50993031524320286962e+00) (48, -1.50000000000000000000e+03) (49, -1.02425078494971501186e+02) (50, -8.97202413080653855104e+02) (51, 2.29514822080544149685e+01) (52, -1.49605486306717989464e+03) (53, 3.79136284968197330159e+01) (54, -1.50000000000000000000e+03) (55, 3.42391483606049362720e+00) (56, -1.50000000000000000000e+03) (57, -1.32457582572410004218e+01) (58, -8.11619148136371819646e+01) (59, 1.92266439167000058319e+01) (60, -1.50000000000000000000e+03) (61, 1.53694125118056721391e+01) (62, 1.50000000000000000000e+03) (63, -6.45204528687318656921e+00) (64, 1.50000000000000000000e+03) (65, -4.12808735060929663518e+01) (66, -1.86122380344203207869e+02) (67, 3.24898937786440384912e+01) (68, 1.50000000000000000000e+03) (69, 9.08973520480651302478e+01) (70, 1.48178607794105463569e+01) (0, 1.50000000000000000000e+03) (1, -4.72255062427659737523e+01) (2, 1.50000000000000000000e+03) (3, 2.87085297151267653248e+01) (4, 7.50071401532004529145e+02) (5, 1.76791968805813155541e+01) (6, 3.67256056336067047141e+02) (7, -2.90043238996875771818e+01) (8, -1.50000000000000000000e+03) (9, -1.90129158028928202384e+01) (10, 1.50000000000000000000e+03) (11, -1.52902295873513924818e+01) (12, -1.50000000000000000000e+03) (13, 4.40828204921888158196e+01) (14, 1.50000000000000000000e+03) (15, -5.52947603181654798732e+01) (16, 1.23873744400117882236e+01) (17, -4.02830458852256878544e+00) (18, -1.99265207151070988800e+01) (19, -6.98154027670574492959e+01) (20, -2.35198717154602377377e+02) (21, -4.50422675934069829395e+01) (22, 1.50000000000000000000e+03) (23, 4.31537280714385929059e+01) (24, 1.50000000000000000000e+03) (25, -9.79234408359804398003e+00) (26, -1.50000000000000000000e+03) (27, 1.32068292017324779408e+02) (28, -1.50000000000000000000e+03) (29, -1.62408183684683429249e+01) (30, -3.25259637371543476547e+02) (31, 2.30261137888550031505e+01) (32, -1.50000000000000000000e+03) (33, 5.40217543722508324322e+01) (34, -1.50000000000000000000e+03) (35, -7.98278637339349028679e+00) (36, -1.50000000000000000000e+03) (37, 1.47409620262039140925e+02) (38, -1.50000000000000000000e+03) (39, -8.46072582803854942313e+01) (40, -1.94234069679659086205e+02) (41, 4.98138377337214990348e+01) (42, -1.50000000000000000000e+03) (43, 3.24362933391215335632e+01) (44, -1.50000000000000000000e+03) (45, 6.29178952748329649580e+01) (46, -1.50000000000000000000e+03) (47, 4.87883202815928314067e+01) (48, -1.50000000000000000000e+03) (49, 1.19263261651486928372e+02) (50, 1.49617749028903472208e+03) (51, 1.73260165034316564459e+01) (52, -1.50000000000000000000e+03) (53, 3.96802595673610127847e+01) (54, -1.50000000000000000000e+03) (55, 5.39150447847811307156e+01) (56, -1.50000000000000000000e+03) (57, -3.98020042820449475585e+01) (58, -1.50000000000000000000e+03) (59, 3.72539456591719186918e+01) (60, -1.50000000000000000000e+03) (61, 5.71769415888509939805e+01) (62, 1.50000000000000000000e+03) (63, 3.23169468337897569654e+01) (64, 1.50000000000000000000e+03) (65, -2.38146582768426462451e+01) (66, -1.91186275971764757742e+02) (67, 1.06383934895337395332e+00) (68, 1.50000000000000000000e+03) (69, 1.05615496878212496767e+02) (70, -5.67245205650560606614e+01) (0, -1.50000000000000000000e+03) (1, -5.99667741291058504771e+01) (2, -1.50000000000000000000e+03) (3, -4.75650863453450369889e+01) (4, -7.92425168887943300433e+02) (5, -3.58640151848405031032e+00) (6, -4.32828279097072424975e+02) (7, -1.08947976793273539897e+01) (8, 1.50000000000000000000e+03) (9, -1.14253595672425802832e+01) (10, -1.50000000000000000000e+03) (11, 1.66459805518022072590e+01) (12, 1.50000000000000000000e+03) (13, -7.41840827436774929993e+01) (14, -1.50000000000000000000e+03) (15, 2.68251135465954071435e+01) (16, -2.51256019318910048810e+01) (17, -5.75193721235398047753e+00) (18, -3.41055943026813608299e+01) (19, 3.57196527122926639208e+01) (20, 9.46423437370580167283e+00) (21, -4.72441554685006579462e+01) (22, -1.50000000000000000000e+03) (23, 4.70849425865984443362e+01) (24, -1.50000000000000000000e+03) (25, -1.37984692455515727261e+01) (26, 1.50000000000000000000e+03) (27, -4.75696565012032692721e+01) (28, 1.50000000000000000000e+03) (29, 1.62539335453642792118e+02) (30, 3.76701650626570483382e+02) (31, -3.12597399282006804810e+01) (32, 1.48950028069796235286e+03) (33, -1.60068229561914932901e+02) (34, -3.68104414813835660425e+02) (35, 4.14899928157355724068e+00) (36, 1.50000000000000000000e+03) (37, 1.01797107165587128463e+01) (38, 1.50000000000000000000e+03) (39, 1.00159762158405072796e+02) (40, 1.63311550074663529131e+02) (41, -4.23186759608978917413e+01) (42, 1.50000000000000000000e+03) (43, -3.73211219174075594651e+01) (44, 1.50000000000000000000e+03) (45, -3.11408694515884185705e+01) (46, 1.50000000000000000000e+03) (47, -1.88497104055223161367e+01) (48, 1.50000000000000000000e+03) (49, 1.82529938472861999799e+02) (50, -1.02928079587343927415e+03) (51, -7.91719372409328769891e+01) (52, 1.50000000000000000000e+03) (53, -1.30228681963521051301e+01) (54, 1.50000000000000000000e+03) (55, 8.29588642967726457300e+01) (56, 1.50000000000000000000e+03) (57, -2.23525792246702472710e+01) (58, 9.00840170265588767506e+02) (59, -5.23528979669044858269e+01) (60, 1.50000000000000000000e+03) (61, 3.44022566133652096809e+00) (62, -1.50000000000000000000e+03) (63, -7.64899507721671945149e+00) (64, -1.50000000000000000000e+03) (65, 2.51768895842313078504e+01) (66, 1.87807178215884562178e+02) (67, 2.61445052242333808579e+00) (68, -1.50000000000000000000e+03) (69, 5.67800979808268380111e+01) (70, 5.44057931975795128210e+01) (0, 1.50000000000000000000e+03) (1, -4.36137605208253464895e+00) (2, 1.50000000000000000000e+03) (3, 9.93780392610146634524e+01) (4, 6.96888099248717708178e+02) (5, -5.83554808788810319697e+01) (6, 4.44318055449776238675e+02) (7, 2.56066933222636841094e+01) (8, -1.50000000000000000000e+03) (9, 7.89529967335975868536e+00) (10, 1.50000000000000000000e+03) (11, 1.73353943195924209419e+01) (12, -1.50000000000000000000e+03) (13, -7.64483247878573735079e+01) (14, 1.50000000000000000000e+03) (15, -7.63773071585723251076e+00) (16, -6.35881229107060121919e+01) (17, 5.03950080623254859091e+00) (18, -6.49859116767471647336e+01) (19, 1.27956030688459332367e+01) (20, -1.17287932247499284699e+02) (21, 4.91308752190199982124e+01) (22, 1.50000000000000000000e+03) (23, -2.05939255969533405732e+01) (24, 1.50000000000000000000e+03) (25, 2.65982451324531687931e+01) (26, -1.50000000000000000000e+03) (27, 1.25013664826483861248e+02) (28, -1.50000000000000000000e+03) (29, 6.22437017496474709333e+00) (30, -3.14967814847375500165e+01) (31, -8.00712421303498587122e+01) (32, -3.69231613465968962373e+02) (33, -2.05527815864195915196e+01) (34, -2.90995152906526016068e+02) (35, -5.32728978925092278018e+01) (36, -1.50000000000000000000e+03) (37, -9.51288417190714419291e+00) (38, -5.61952290944171295450e+02) (39, -3.32159127479770575064e+01) (40, -1.04201504325792967620e+02) (41, 1.65134246064848930757e+01) (42, -3.84550569830828159468e+00) (43, -2.09326095536543554942e+01) (44, -1.50000000000000000000e+03) (45, -3.44348759736783733842e+01) (46, -1.50000000000000000000e+03) (47, 3.09030479238819566490e+01) (48, -1.50000000000000000000e+03) (49, 5.20484907581960598577e+01) (50, -5.27752763981142607008e+02) (51, -2.60506599156366327463e+01) (52, -1.50000000000000000000e+03) (53, 3.47582849243828988506e+01) (54, -1.46113301881048613495e+02) (55, 4.22814689229294271566e-01) (56, -1.50000000000000000000e+03) (57, 2.96781637306762782202e+01) (58, 4.07203554596924561793e+01) (59, -2.86447666255019655068e+01) (60, -1.29617725340153015168e+03) (61, 1.42367143329075332758e+02) (62, 1.50000000000000000000e+03) (63, 6.97995621347616292951e+01) (64, 1.50000000000000000000e+03) (65, -5.87477682823494902209e+01) (66, -1.89890984547967093476e+02) (67, -1.52850840838463799543e+01) (68, 1.50000000000000000000e+03) (69, 2.94310521089152423713e+01) (70, 7.74610228935557021401e+00) (0, 1.50000000000000000000e+03) (1, -2.34394623930852468163e+01) (2, 1.50000000000000000000e+03) (3, 1.34691019728179668391e+01) (4, 7.14926296170066393643e+02) (5, -5.30950707680883926542e+00) (6, 3.43370639849976100777e+02) (7, 5.13934622908762364091e+01) (8, -1.50000000000000000000e+03) (9, 9.88052863001812653465e+00) (10, 1.50000000000000000000e+03) (11, 5.84783728767416093319e+01) (12, -1.50000000000000000000e+03) (13, 1.15780470671248963299e+02) (14, 1.50000000000000000000e+03) (15, 5.84342658953005837930e+01) (16, -6.56926426894129775746e+01) (17, -4.99240974721411845394e+01) (18, -9.49568487647444059441e-01) (19, 3.67682921769307284876e+01) (20, -1.96642913485977089749e+02) (21, -7.25184500828460159028e+01) (22, 1.28559487862279752335e+03) (23, -5.06559135980679968725e+01) (24, 1.50000000000000000000e+03) (25, -1.28267046067271550669e+00) (26, -1.50000000000000000000e+03) (27, -1.58023159089710958369e+01) (28, -1.09919858977557737489e+03) (29, 3.65671722621494765804e+01) (30, 1.86309164338019925822e+01) (31, -1.80977506364588521137e+02) (32, -7.75051316995618549299e+02) (33, -2.14534938020639849299e+01) (34, -1.13910809858861534849e+03) (35, 7.67129139408774030073e+00) (36, -1.50000000000000000000e+03) (37, 3.22400186928673804232e+01) (38, -6.67553158347161712527e+01) (39, -8.86215636710972098911e+00) (40, -2.02351479603234380988e+01) (41, -9.82726783764248494890e+01) (42, -1.50000000000000000000e+03) (43, -1.74243366037742966057e+01) (44, -1.50000000000000000000e+03) (45, 6.47871375102316875427e+01) (46, -1.50000000000000000000e+03) (47, 7.12032851411048710588e+01) (48, -1.22595313059713384973e+03) (49, -1.94641070856561881897e+01) (50, -1.30760433527842735657e+02) (51, 1.07860797256156089929e+02) (52, -1.50000000000000000000e+03) (53, -2.88252262755368438008e+00) (54, -1.50000000000000000000e+03) (55, -3.61693465030004333016e+01) (56, -1.50000000000000000000e+03) (57, 1.09978387850019700522e+02) (58, -1.50000000000000000000e+03) (59, 3.08616101459803218177e+01) (60, -1.50000000000000000000e+03) (61, 1.14968603091807235472e+01) (62, 1.50000000000000000000e+03) (63, -7.84414208080065549211e+01) (64, 1.50000000000000000000e+03) (65, 4.66866440120824677251e+00) (66, -2.78094865811700913127e+02) (67, 1.01628603139214874318e+02) (68, 1.50000000000000000000e+03) (69, 9.62900086119166473964e+01) (70, -1.32143288388251392007e+01) (0, -1.50000000000000000000e+03) (1, -3.42862895027342275966e+01) (2, -1.50000000000000000000e+03) (3, 3.02310386007700095945e+01) (4, -6.09656118289800360799e+02) (5, -4.61693042517508800415e+01) (6, -3.37077231009000456652e+02) (7, -9.78711309347086597654e+01) (8, 1.50000000000000000000e+03) (9, 2.09254296556695244813e-02) (10, -1.50000000000000000000e+03) (11, 7.37935803701675183675e+01) (12, 1.50000000000000000000e+03) (13, -8.58518713344579964541e+01) (14, -1.50000000000000000000e+03) (15, -1.09879676375193753302e+01) (16, -3.14506206561366035146e+01) (17, -4.54094171246204609815e+01) (18, 1.10198236691154363598e+02) (19, -1.43247435162669258801e+01) (20, 1.24267369460452158592e+02) (21, 2.62276570540930409337e+00) (22, -1.50000000000000000000e+03) (23, -3.41723013177429280063e+01) (24, -1.50000000000000000000e+03) (25, 4.46206253654111577589e+01) (26, 1.50000000000000000000e+03) (27, -5.87469566178677098378e+01) (28, 1.50000000000000000000e+03) (29, 1.54845995246172037696e+02) (30, 2.76633540106609814302e+02) (31, -3.32849306867933236731e+01) (32, 1.50000000000000000000e+03) (33, -7.25891039944491183178e+01) (34, 1.48787645468754863032e+03) (35, -1.09616840447972904826e+02) (36, 1.50000000000000000000e+03) (37, -6.44052745646773558974e+01) (38, 1.50000000000000000000e+03) (39, 2.17731990015213483503e+01) (40, 2.56709115714002678033e+02) (41, -1.44587995347436390148e+02) (42, 1.50000000000000000000e+03) (43, 5.80177190253912300477e+01) (44, 1.50000000000000000000e+03) (45, 1.22607214895887572936e+01) (46, 1.50000000000000000000e+03) (47, 4.63683107546766919427e+01) (48, 1.50000000000000000000e+03) (49, 2.30916847791852916316e+02) (50, -1.49617633414643864853e+03) (51, 1.07156494306007786577e+02) (52, 1.50000000000000000000e+03) (53, -1.69431751195339700189e+02) (54, 1.50000000000000000000e+03) (55, -5.42793564023858809975e+00) (56, 1.50000000000000000000e+03) (57, 9.84418704198156859775e+01) (58, 1.50000000000000000000e+03) (59, 1.78202068986617625512e+01) (60, 1.50000000000000000000e+03) (61, 3.73866853919658765903e+01) (62, -1.50000000000000000000e+03) (63, 5.53114057389907571860e+01) (64, -1.50000000000000000000e+03) (65, -4.06707435744262113531e+01) (66, 2.44030057625674828614e+02) (67, 6.59496792789273627022e+01) (68, -1.50000000000000000000e+03) (69, 5.33155492004517306270e+00) (70, 1.26565199259915218022e+02) (0, 1.50000000000000000000e+03) (1, -5.83041842490805635180e+01) (2, 1.50000000000000000000e+03) (3, -1.18116185569391696220e+01) (4, 1.83941165220431116722e+02) (5, 5.56544609097076516946e+01) (6, 1.80059027721918511133e+02) (7, 1.98666713213922321302e+01) (8, -1.50000000000000000000e+03) (9, -3.65103387639037677559e+01) (10, 1.50000000000000000000e+03) (11, -2.36593527121011497627e+01) (12, -1.50000000000000000000e+03) (13, -3.51208466054772827647e+01) (14, 1.50000000000000000000e+03) (15, -1.62670020772977892420e+01) (16, -7.29035836504437497751e+01) (17, -3.10739606213393813050e+01) (18, -6.73807612487731262263e+01) (19, 5.51338438126990482147e+01) (20, 5.22143011997463375451e+01) (21, 4.99562647747589707592e+01) (22, 1.50000000000000000000e+03) (23, 2.42408109180152600004e+01) (24, 1.50000000000000000000e+03) (25, -8.20813410341574325457e+01) (26, -1.50000000000000000000e+03) (27, 3.78583792348432339736e+01) (28, -1.50000000000000000000e+03) (29, 2.69754940064787085419e+01) (30, 5.61730105900315734857e+01) (31, 5.19851933346461052565e+01) (32, -4.46042442338092996579e+02) (33, -1.12372253730273641281e+02) (34, -1.39860299005837464392e+03) (35, -2.10173118903722553341e+01) (36, -1.50000000000000000000e+03) (37, -2.19076095458868351784e+01) (38, -1.50000000000000000000e+03) (39, 2.85775552036673303746e+01) (40, -6.40721423954036737314e+01) (41, -7.66283206299275487794e+00) (42, -1.50000000000000000000e+03) (43, -5.82278182209014900650e+01) (44, -1.50000000000000000000e+03) (45, 3.23009099164182629238e+01) (46, -3.61631037505125547682e+01) (47, 8.35617508438509730695e+01) (48, -1.76818940550551729984e+02) (49, 5.16251381364801815721e+01) (50, -3.24303988511178374665e+02) (51, -3.33385229898316515218e+00) (52, -1.50000000000000000000e+03) (53, 2.88626073791282919956e+01) (54, -2.14495885753269845964e+02) (55, 5.31030164216440994096e+01) (56, -1.50000000000000000000e+03) (57, -7.99785991713750661347e+01) (58, -4.28907500281416105281e+01) (59, 9.46893436070978253838e+01) (60, -1.50000000000000000000e+03) (61, -7.93129980865516159838e+01) (62, 1.50000000000000000000e+03) (63, 4.94736972295328527593e+01) (64, 1.50000000000000000000e+03) (65, -3.37193776483003588851e+01) (66, -4.77078297521292142847e+01) (67, 1.18753813213429097573e+02) (68, 1.50000000000000000000e+03) (69, -8.95165727042781611544e+01) (70, -4.46376811267862976251e+01) (0, 1.50000000000000000000e+03) (1, 6.65581851111314648506e+01) (2, 1.50000000000000000000e+03) (3, -4.66059405824174959321e+01) (4, 7.38115114147971667080e+02) (5, -5.55128837618799497733e+00) (6, 3.75080731688790763201e+02) (7, -7.56823863561084948515e+01) (8, -1.50000000000000000000e+03) (9, 5.86757729142131410072e+01) (10, 1.50000000000000000000e+03) (11, 5.28767051411292072771e+01) (12, -1.50000000000000000000e+03) (13, -8.72306165319268345115e+00) (14, 1.50000000000000000000e+03) (15, -1.80299015384218854763e+01) (16, 5.92988972589798990498e+01) (17, 3.34905694769653266007e+01) (18, -4.07453233709631632564e+01) (19, -3.89974153021273934883e+01) (20, -1.89474186316471673308e+02) (21, -2.94442399536840078156e+01) (22, 1.50000000000000000000e+03) (23, 4.57709371177441610712e+01) (24, 1.50000000000000000000e+03) (25, -5.70535466517152656252e+01) (26, -1.50000000000000000000e+03) (27, 2.62275240713402402193e+00) (28, -1.50000000000000000000e+03) (29, -4.89845922219735783187e+01) (30, -3.43650462365165822121e+02) (31, 4.53411730864288387011e+01) (32, -1.49907439336311517764e+03) (33, -2.89790255459735810462e+01) (34, -1.50000000000000000000e+03) (35, 9.31884641975360139554e+00) (36, -1.50000000000000000000e+03) (37, -1.09020913324508921249e+01) (38, -1.50000000000000000000e+03) (39, -2.38975889085564112690e+01) (40, -1.33095756078085003082e+02) (41, -3.95486383216690668974e+01) (42, -1.50000000000000000000e+03) (43, -4.37887056750801875182e+01) (44, -1.50000000000000000000e+03) (45, 4.85977743554006877957e+01) (46, -1.50000000000000000000e+03) (47, -9.79653479071395416611e+00) (48, -1.50000000000000000000e+03) (49, -1.53165911855180389978e+01) (50, -7.50157271144246919903e+01) (51, -1.52242920119447564531e+01) (52, -1.50000000000000000000e+03) (53, -2.45574616065466457826e+01) (54, -1.50000000000000000000e+03) (55, 9.32027893771734881057e+01) (56, -1.50000000000000000000e+03) (57, -1.59428771375906688235e+01) (58, -1.50000000000000000000e+03) (59, -3.35699192846605569684e+01) (60, -1.50000000000000000000e+03) (61, 5.48704691694420820802e-01) (62, 1.50000000000000000000e+03) (63, -1.10636112876862696908e+02) (64, 1.50000000000000000000e+03) (65, 1.44189565059202919883e+01) (66, -1.26956285489434620217e+02) (67, -1.15855330255291244512e+00) (68, 1.50000000000000000000e+03) (69, 3.14163443442164904695e+01) (70, 3.44585895445616519073e-01) (0, -1.50000000000000000000e+03) (1, 7.50788798997411106484e+01) (2, -1.50000000000000000000e+03) (3, 8.59305023365473061858e+01) (4, -2.96534606498819016451e+02) (5, -4.22337459655895841593e+01) (6, -1.02862927595086247834e+02) (7, -1.09693823344170553469e+02) (8, 1.50000000000000000000e+03) (9, -3.01331394633575335718e+01) (10, -1.50000000000000000000e+03) (11, -3.25357908286530488340e+01) (12, 1.50000000000000000000e+03) (13, -2.61092593438614585466e+02) (14, -1.50000000000000000000e+03) (15, -1.76213245497847111665e+02) (16, -2.39247007158860736098e+00) (17, 1.26048541533988043284e+01) (18, 3.33261998517522357588e+01) (19, -1.81677641577949202656e+01) (20, 1.76857926180997857557e+01) (21, -4.97820228216583728909e+01) (22, -1.50000000000000000000e+03) (23, 2.75687783973778532953e+00) (24, -1.50000000000000000000e+03) (25, -5.71163754470022908549e+01) (26, 1.50000000000000000000e+03) (27, -4.84393342615442392685e+01) (28, 1.50000000000000000000e+03) (29, -5.66032333989364655480e+00) (30, 7.96736598815454755140e+01) (31, -1.81949459373914095295e+01) (32, 4.52331166260887926001e+02) (33, 4.90802708936783886884e+01) (34, 1.50000000000000000000e+03) (35, -2.43113142047609223084e+01) (36, 1.50000000000000000000e+03) (37, -5.32174328342743550024e+01) (38, 1.50000000000000000000e+03) (39, -1.49155705961871056786e+01) (40, 5.96513434576626906392e+01) (41, -7.52132585291751638579e+01) (42, 1.50000000000000000000e+03) (43, -1.90163423370329354611e+02) (44, 1.50000000000000000000e+03) (45, -1.74098008952716668318e+02) (46, 1.50000000000000000000e+03) (47, 1.52462666938916964199e+01) (48, 1.50000000000000000000e+03) (49, 4.77490353481283136716e+02) (50, 3.26944071362123452218e+02) (51, -8.14584839824538278208e+01) (52, 1.50000000000000000000e+03) (53, -2.20882062984721073917e+02) (54, 1.50000000000000000000e+03) (55, -5.34820697241926623633e+01) (56, 1.50000000000000000000e+03) (57, 1.03265856678796925650e+01) (58, 1.23588965564200066183e+03) (59, -1.77224867935718890521e+02) (60, 1.50000000000000000000e+03) (61, -3.30417562180170136799e+01) (62, -1.50000000000000000000e+03) (63, 3.24161761086923831954e+01) (64, -1.50000000000000000000e+03) (65, -4.74995631012909029778e+01) (66, 1.66790916198739296306e+02) (67, 6.06844580659257246680e+01) (68, -1.50000000000000000000e+03) (69, -4.38191619700951520144e+01) (70, 5.00573792685480967180e+00) (0, -1.50000000000000000000e+03) (1, -7.54561157260894077581e+01) (2, -1.50000000000000000000e+03) (3, -3.17210246613544342154e+01) (4, -6.68711786166996375869e+02) (5, 3.62210769584614133976e+00) (6, -3.82080675680631088653e+02) (7, -1.93181769374653896421e+02) (8, 1.50000000000000000000e+03) (9, -9.03092207170592331522e+01) (10, -1.50000000000000000000e+03) (11, -4.77687521896269515764e+01) (12, 1.50000000000000000000e+03) (13, -5.93325573247963461654e+02) (14, -1.50000000000000000000e+03) (15, -9.18065850079654097726e+01) (16, -7.72908763934409392959e+01) (17, -1.02348479692053459189e+02) (18, 1.86721613279945692909e+01) (19, 3.93236333505733881566e+01) (20, 9.11728603356963702709e+01) (21, 1.12347488132298281016e+02) (22, -1.50000000000000000000e+03) (23, -2.06246233990919858314e+00) (24, -1.50000000000000000000e+03) (25, -8.90292588532973816484e+00) (26, 1.50000000000000000000e+03) (27, -3.24474006522078965986e+01) (28, 1.50000000000000000000e+03) (29, 1.32456030746035878565e+02) (30, 3.30421962563432771276e+02) (31, -3.91691622912781856058e+00) (32, 1.50000000000000000000e+03) (33, -7.69755071244675690423e+01) (34, 1.50000000000000000000e+03) (35, -1.92231988086604985710e+02) (36, 1.50000000000000000000e+03) (37, -1.89702839065219507120e+02) (38, 1.50000000000000000000e+03) (39, -3.60692589692209537588e+01) (40, 1.82987616733054238694e+02) (41, -3.93264811117249621475e+02) (42, 1.50000000000000000000e+03) (43, 1.00789649707482471541e+01) (44, 1.50000000000000000000e+03) (45, -8.76894941175574871295e+01) (46, 1.50000000000000000000e+03) (47, 5.08562227248163338800e+01) (48, 1.50000000000000000000e+03) (49, 1.17776679210420070376e+03) (50, -1.49617633414643864853e+03) (51, -3.54740629590274858529e+00) (52, 1.50000000000000000000e+03) (53, -5.96305171158328448655e+02) (54, 1.50000000000000000000e+03) (55, -8.42349696379472590024e+01) (56, 1.50000000000000000000e+03) (57, 1.90738712707265314350e+01) (58, 1.50000000000000000000e+03) (59, -3.76016394482449584302e+02) (60, 1.50000000000000000000e+03) (61, 9.37052915643415218483e+01) (62, -1.50000000000000000000e+03) (63, -8.31247702739288740759e+01) (64, -1.50000000000000000000e+03) (65, 5.08865749722086562201e+01) (66, 1.65614505486392317835e+02) (67, -3.72343204324827041773e+01) (68, -1.50000000000000000000e+03) (69, -8.96933452179941497207e+01) (70, -5.06275300225849633762e+01) (0, -1.50000000000000000000e+03) (1, -1.44519082819753563740e+01) (2, -1.50000000000000000000e+03) (3, -1.33086906718736415201e+01) (4, -7.57488290683597028874e+02) (5, 4.94434926751812753309e+01) (6, -4.32445937712184729662e+02) (7, -1.36671179841407450795e+02) (8, 1.50000000000000000000e+03) (9, -4.26887565673782702902e+01) (10, -1.50000000000000000000e+03) (11, -2.76903520533642044654e+01) (12, 1.50000000000000000000e+03) (13, -2.63440562861489240731e+02) (14, -1.50000000000000000000e+03) (15, -8.85331467501084858895e+01) (16, -1.88325099993983968716e+01) (17, -1.42004717201340682209e+01) (18, 2.26880796275828018338e+01) (19, 3.92091705652975193175e+01) (20, 2.21357256142489063677e+02) (21, 1.40681713960950265374e+01) (22, -1.50000000000000000000e+03) (23, -1.77841069588751668137e-03) (24, -1.50000000000000000000e+03) (25, 1.08404908640743428805e+02) (26, 1.50000000000000000000e+03) (27, -3.23547815714309763280e+01) (28, 1.50000000000000000000e+03) (29, 1.91996873180584941565e+02) (30, 3.68913034654086914088e+02) (31, 5.17640499667574331966e+01) (32, 1.50000000000000000000e+03) (33, 2.14412286716986528745e+01) (34, -5.18742210503217734185e+02) (35, -1.18307162960828392784e+02) (36, 1.50000000000000000000e+03) (37, 3.17734427310812117540e+00) (38, 1.50000000000000000000e+03) (39, -2.44535421682721896275e+01) (40, 2.51505449779167378210e+02) (41, -1.58144287794519755153e+02) (42, 1.50000000000000000000e+03) (43, -4.48163733406251907354e+01) (44, 1.50000000000000000000e+03) (45, -1.75138891864191776904e+01) (46, 1.50000000000000000000e+03) (47, -9.26508443964489813993e+00) (48, 1.50000000000000000000e+03) (49, 4.61550870955171944843e+02) (50, -1.49617633414643864853e+03) (51, -6.91824117380318170945e+01) (52, 1.50000000000000000000e+03) (53, -1.81658885322084273639e+02) (54, 1.50000000000000000000e+03) (55, 1.16343531396767101427e+01) (56, 1.50000000000000000000e+03) (57, -2.98149887584884183411e+01) (58, 1.50000000000000000000e+03) (59, -1.53563989777596304975e+02) (60, 1.50000000000000000000e+03) (61, 4.10332154716149517526e+01) (62, -1.50000000000000000000e+03) (63, 3.55722719234055473336e+00) (64, -1.50000000000000000000e+03) (65, -1.17202726982039902026e+01) (66, 2.13380138115786905928e+02) (67, 4.69933245757828785827e+01) (68, -1.50000000000000000000e+03) (69, 4.01691259098519566351e+01) (70, 1.40303301849287720415e+02) (71, 3.72510438990519876512e+00) (72, 1.79430689457132110931e+01) (73, 3.19986198200985398898e+01) (74, -3.18157586978501960573e+01) (75, 3.48666467689739718594e+01) (76, 5.65109115625821090134e+01) (77, 1.44224865547400469268e+01) (78, 8.91727765696378149585e+00) (79, 1.50000000000000000000e+03) (80, -5.28425468665499806775e+01) (81, -1.77434584839478439733e+01) (82, 4.50700943569876422146e+00) (83, -2.68045367135417400561e+01) (84, -2.13352194603812961304e+01) (85, 4.31216549135894027245e+01) (86, -2.05336787108588403328e+01) (87, -1.43629405711248182342e+02) (88, 1.50000000000000000000e+03) (89, 1.50000000000000000000e+03) (90, 4.20258840911631921244e+01) (91, -3.78541223196351239721e+01) 
