FANN_FLO_2.1
num_layers=3
learning_rate=0.700000
connection_rate=1.000000
network_type=0
learning_momentum=0.000000
training_algorithm=2
train_error_function=1
train_stop_function=0
cascade_output_change_fraction=0.010000
quickprop_decay=-0.000100
quickprop_mu=1.750000
rprop_increase_factor=1.001000
rprop_decrease_factor=0.500000
rprop_delta_min=0.000000
rprop_delta_max=50.000000
rprop_delta_zero=0.100000
cascade_output_stagnation_epochs=12
cascade_candidate_change_fraction=0.010000
cascade_candidate_stagnation_epochs=12
cascade_max_out_epochs=150
cascade_max_cand_epochs=150
cascade_num_candidate_groups=2
bit_fail_limit=3.49999999999999977796e-01
cascade_candidate_limit=1.00000000000000000000e+03
cascade_weight_multiplier=4.00000000000000022204e-01
cascade_activation_functions_count=10
cascade_activation_functions=3 5 7 8 10 11 14 15 16 17 
cascade_activation_steepnesses_count=4
cascade_activation_steepnesses=2.50000000000000000000e-01 5.00000000000000000000e-01 7.50000000000000000000e-01 1.00000000000000000000e+00 
layer_sizes=71 16 2 
scale_included=0
neurons (num_inputs, activation_function, activation_steepness)=(0, 0, 0.00000000000000000000e+00) (0, 0, 0.00000000000000000000e+00) (0, 0, 0.00000000000000000000e+00) (0, 0, 0.00000000000000000000e+00) (0, 0, 0.00000000000000000000e+00) (0, 0, 0.00000000000000000000e+00) (0, 0, 0.00000000000000000000e+00) (0, 0, 0.00000000000000000000e+00) (0, 0, 0.00000000000000000000e+00) (0, 0, 0.00000000000000000000e+00) (0, 0, 0.00000000000000000000e+00) (0, 0, 0.00000000000000000000e+00) (0, 0, 0.00000000000000000000e+00) (0, 0, 0.00000000000000000000e+00) (0, 0, 0.00000000000000000000e+00) (0, 0, 0.00000000000000000000e+00) (0, 0, 0.00000000000000000000e+00) (0, 0, 0.00000000000000000000e+00) (0, 0, 0.00000000000000000000e+00) (0, 0, 0.00000000000000000000e+00) (0, 0, 0.00000000000000000000e+00) (0, 0, 0.00000000000000000000e+00) (0, 0, 0.00000000000000000000e+00) (0, 0, 0.00000000000000000000e+00) (0, 0, 0.00000000000000000000e+00) (0, 0, 0.00000000000000000000e+00) (0, 0, 0.00000000000000000000e+00) (0, 0, 0.00000000000000000000e+00) (0, 0, 0.00000000000000000000e+00) (0, 0, 0.00000000000000000000e+00) (0, 0, 0.00000000000000000000e+00) (0, 0, 0.00000000000000000000e+00) (0, 0, 0.00000000000000000000e+00) (0, 0, 0.00000000000000000000e+00) (0, 0, 0.00000000000000000000e+00) (0, 0, 0.00000000000000000000e+00) (0, 0, 0.00000000000000000000e+00) (0, 0, 0.00000000000000000000e+00) (0, 0, 0.00000000000000000000e+00) (0, 0, 0.00000000000000000000e+00) (0, 0, 0.00000000000000000000e+00) (0, 0, 0.00000000000000000000e+00) (0, 0, 0.00000000000000000000e+00) (0, 0, 0.00000000000000000000e+00) (0, 0, 0.00000000000000000000e+00) (0, 0, 0.00000000000000000000e+00) (0, 0, 0.00000000000000000000e+00) (0, 0, 0.00000000000000000000e+00) (0, 0, 0.00000000000000000000e+00) (0, 0, 0.00000000000000000000e+00) (0, 0, 0.00000000000000000000e+00) (0, 0, 0.00000000000000000000e+00) (0, 0, 0.00000000000000000000e+00) (0, 0, 0.00000000000000000000e+00) (0, 0, 0.00000000000000000000e+00) (0, 0, 0.00000000000000000000e+00) (0, 0, 0.00000000000000000000e+00) (0, 0, 0.00000000000000000000e+00) (0, 0, 0.00000000000000000000e+00) (0, 0, 0.00000000000000000000e+00) (0, 0, 0.00000000000000000000e+00) (0, 0, 0.00000000000000000000e+00) (0, 0, 0.00000000000000000000e+00) (0, 0, 0.00000000000000000000e+00) (0, 0, 0.00000000000000000000e+00) (0, 0, 0.00000000000000000000e+00) (0, 0, 0.00000000000000000000e+00) (0, 0, 0.00000000000000000000e+00) (0, 0, 0.00000000000000000000e+00) (0, 0, 0.00000000000000000000e+00) (0, 0, 0.00000000000000000000e+00) (71, 4, 5.00000000000000000000e-01) (71, 4, 5.00000000000000000000e-01) (71, 4, 5.00000000000000000000e-01) (71, 4, 5.00000000000000000000e-01) (71, 4, 5.00000000000000000000e-01) (71, 4, 5.00000000000000000000e-01) (71, 4, 5.00000000000000000000e-01) (71, 4, 5.00000000000000000000e-01) (71, 4, 5.00000000000000000000e-01) (71, 4, 5.00000000000000000000e-01) (71, 4, 5.00000000000000000000e-01) (71, 4, 5.00000000000000000000e-01) (71, 4, 5.00000000000000000000e-01) (71, 4, 5.00000000000000000000e-01) (71, 4, 5.00000000000000000000e-01) (0, 4, 5.00000000000000000000e-01) (16, 4, 9.00000000000000022204e-01) (0, 4, 9.00000000000000022204e-01) 
connections (connected_to_neuron, weight)=(0, -1.50000000000000000000e+03) (1, -6.08552461383698002351e+01) (2, -1.50000000000000000000e+03) (3, 4.09861729260915481632e+01) (4, 1.50000000000000000000e+03) (5, 1.39403662811886107420e+02) (6, 3.36183988718337275259e+02) (7, 2.84500280710483473001e+01) (8, 1.50000000000000000000e+03) (9, -6.77834633620159507927e+01) (10, 6.91252698695551089259e+02) (11, 1.57926740434418775294e+02) (12, 1.50000000000000000000e+03) (13, -2.61251843214558228112e+01) (14, -1.50000000000000000000e+03) (15, -1.32126728512110229730e+01) (16, -2.30652919272650507310e+02) (17, 4.99776843002415827044e+00) (18, 5.10885950948243490188e+01) (19, -1.27620005489687002864e+02) (20, 2.04103163920567766354e+02) (21, 5.09425960620504483245e+01) (22, -1.50000000000000000000e+03) (23, 4.17543629562414793099e+01) (24, -1.50000000000000000000e+03) (25, -2.06543013184728550868e+02) (26, 1.50000000000000000000e+03) (27, 1.72158205490847365127e+02) (28, -6.54972603674423083930e+01) (29, 2.37267885394458943438e+02) (30, 1.32570670848525253405e+02) (31, -1.62499109762795193035e+01) (32, 1.50000000000000000000e+03) (33, -5.11408301889052552269e+01) (34, 1.50000000000000000000e+03) (35, 6.18236245632946008755e+01) (36, 1.50000000000000000000e+03) (37, -2.87091785664692281443e+02) (38, 1.50000000000000000000e+03) (39, -1.41688690609949674126e+02) (40, 1.50000000000000000000e+03) (41, -1.75928603299862260201e+02) (42, 1.50000000000000000000e+03) (43, 7.11345771945548079884e+01) (44, 1.50000000000000000000e+03) (45, -1.97605825816279491391e+02) (46, 1.05826312560970819732e+02) (47, -1.52982565082003986845e+02) (48, 3.25292830246997993981e+02) (49, 2.42279965298724221157e+02) (50, 2.37993267392862179577e+02) (51, -2.57838406186318858104e+00) (52, 2.81076319798443876152e+02) (53, 1.35572214018177959360e+02) (54, 1.85618765700108525607e+02) (55, -1.96767518708961759444e+01) (56, 1.50000000000000000000e+03) (57, 3.96077599437303717878e+01) (58, 1.98403191435398127851e+02) (59, 3.28445366195813832633e+01) (60, 1.50000000000000000000e+03) (61, 1.34153516016196419969e+02) (62, 1.50000000000000000000e+03) (63, -1.17977268496577725188e+01) (64, -1.50000000000000000000e+03) (65, -1.04769821306357371782e+02) (66, 7.20851295756046852148e+02) (67, 2.35377429315908472063e+02) (68, -1.50000000000000000000e+03) (69, 5.39894748892746267899e+00) (70, -8.12598657058993723012e+01) (0, -1.50000000000000000000e+03) (1, -1.80736221705930603321e+02) (2, -1.50000000000000000000e+03) (3, -1.34759853310694296624e+02) (4, 1.45568237939707341866e+03) (5, -4.96518578220222792652e+01) (6, 1.24604776741372279503e+03) (7, 4.97538940798534596865e+01) (8, 1.50000000000000000000e+03) (9, 3.98116322567569085322e+01) (10, 1.50000000000000000000e+03) (11, -1.11141120560074838863e+02) (12, 1.50000000000000000000e+03) (13, 1.22835571663762436856e+02) (14, -1.50000000000000000000e+03) (15, -2.62872054133981940538e+01) (16, -1.58537186002860210010e+02) (17, 6.00475679131398791810e+01) (18, 1.40191669363982185814e+02) (19, 9.46225040206428928968e+01) (20, 1.55491793633913744088e+02) (21, 2.17245008793847176776e+02) (22, -1.50000000000000000000e+03) (23, -8.13178897377019183068e+01) (24, -1.50000000000000000000e+03) (25, -1.02643434192980265607e+02) (26, 1.50000000000000000000e+03) (27, -1.30588664550570143774e+02) (28, 1.50000000000000000000e+03) (29, -1.49376998340958522249e+02) (30, 1.52686422730645716683e+02) (31, -2.44500675805942933039e+02) (32, 1.39431720626263245322e+03) (33, 1.30711440591658458743e+02) (34, 1.49942917590829097207e+03) (35, -9.97382629567165963635e+01) (36, 3.61064563372620568771e+02) (37, 3.06347500258416800989e+02) (38, 1.50000000000000000000e+03) (39, -1.07689058804670295899e+02) (40, 1.28302994739011455749e+03) (41, -3.05688428174397976989e+01) (42, 1.50000000000000000000e+03) (43, -2.03785305936869661991e+02) (44, 1.50000000000000000000e+03) (45, -1.83274223894458604400e-01) (46, 1.50000000000000000000e+03) (47, -1.77039043704091596965e+02) (48, 1.50000000000000000000e+03) (49, 9.13072098423545241985e+01) (50, 1.50000000000000000000e+03) (51, 2.52920038038266881131e+01) (52, -2.67288523409271849829e+00) (53, -1.60459883117698836941e+02) (54, -2.13861689578946112533e+01) (55, -7.49193081996817511481e+01) (56, 1.50000000000000000000e+03) (57, 1.09910518345792226569e+02) (58, -2.81097530478062083148e+01) (59, -1.35221676381214479079e+02) (60, 1.50000000000000000000e+03) (61, 7.34461263405518849368e+01) (62, 1.50000000000000000000e+03) (63, 1.23893666643311590292e+02) (64, -1.50000000000000000000e+03) (65, 3.70719963995088974684e+01) (66, 7.04151479052249669621e+02) (67, -1.55099733546578484322e+01) (68, -1.50000000000000000000e+03) (69, 1.03586170248885522938e+02) (70, 5.88716063281237680371e+01) (0, -1.50000000000000000000e+03) (1, 2.37819486862588405529e+02) (2, -1.50000000000000000000e+03) (3, 1.32620311987086267891e+02) (4, 1.50000000000000000000e+03) (5, -5.75470261811128196427e+01) (6, 1.50000000000000000000e+03) (7, -8.81028432613826737452e+01) (8, 1.50000000000000000000e+03) (9, -1.20185509447415796558e+02) (10, 1.50000000000000000000e+03) (11, 3.20993067360810258037e+00) (12, 1.50000000000000000000e+03) (13, 2.52934598744597479936e+02) (14, -1.50000000000000000000e+03) (15, -1.22242413823279349572e+02) (16, 7.57161211072996565008e+00) (17, 3.98522255357337826354e+02) (18, 1.10800830121482334789e+02) (19, 3.71022971649743809053e+01) (20, 2.69522996135450796373e+02) (21, 2.70236170139276552504e+01) (22, -1.50000000000000000000e+03) (23, -7.37423246208827123382e+01) (24, -1.50000000000000000000e+03) (25, 2.58073153242702233001e+02) (26, 1.50000000000000000000e+03) (27, -2.17112597457245726673e+02) (28, 1.50000000000000000000e+03) (29, 1.74278570679392629472e+02) (30, 1.50000000000000000000e+03) (31, -4.06413000964823368122e+02) (32, 1.50000000000000000000e+03) (33, 1.45415456109281564068e+02) (34, 1.50000000000000000000e+03) (35, 1.78356194406785391493e+02) (36, 1.50000000000000000000e+03) (37, 6.90796729672762239716e+01) (38, 1.50000000000000000000e+03) (39, 2.99962279709162942254e+02) (40, 1.50000000000000000000e+03) (41, -2.50693321487939130066e+02) (42, 1.50000000000000000000e+03) (43, 6.11121816618642057506e+01) (44, 1.50000000000000000000e+03) (45, 6.88439292839898371312e+01) (46, 1.50000000000000000000e+03) (47, 1.25537865702966882964e+02) (48, 1.50000000000000000000e+03) (49, 3.98569846653288038851e+02) (50, 1.50000000000000000000e+03) (51, 1.60756156813356270163e+01) (52, 7.69365147985357538118e+01) (53, -2.07897646031459856886e+02) (54, -1.43649251342106101248e+01) (55, 1.80755131676050884160e+00) (56, 1.50000000000000000000e+03) (57, 3.25764971943398773391e+00) (58, 4.91668076459300209535e+01) (59, -5.64716713997596286845e+01) (60, 1.50000000000000000000e+03) (61, 2.36222507773111971119e+02) (62, 1.50000000000000000000e+03) (63, -2.88236346880920208946e+01) (64, -1.50000000000000000000e+03) (65, -9.96928844612682354409e+01) (66, 9.97901424692812952344e+02) (67, 1.70642409459892888890e+02) (68, -1.50000000000000000000e+03) (69, -1.60177837121800450859e+02) (70, 1.10741360927115422896e+02) (0, -1.50000000000000000000e+03) (1, 2.37552839523721218029e+02) (2, -1.50000000000000000000e+03) (3, -1.02128192651560979698e+02) (4, 1.50000000000000000000e+03) (5, -1.40259962582483780125e+02) (6, 1.50000000000000000000e+03) (7, -6.30482015377535134348e+01) (8, 1.50000000000000000000e+03) (9, -2.72839264635399672443e+02) (10, 1.50000000000000000000e+03) (11, -6.45483888235004741318e+01) (12, 1.50000000000000000000e+03) (13, 5.83992670185159354901e+01) (14, -1.50000000000000000000e+03) (15, -7.30355809375371620717e+01) (16, -1.55048955211050412117e+02) (17, 2.34944565232829205570e+02) (18, 2.39954989667381596519e+02) (19, 9.18889449616076063876e+01) (20, 6.88521587331084816697e+01) (21, 2.28849809869758075820e+02) (22, -1.50000000000000000000e+03) (23, -1.53777690679250582662e+02) (24, -1.50000000000000000000e+03) (25, 2.24419466719230570106e+02) (26, 1.50000000000000000000e+03) (27, 1.94654054724348597460e+01) (28, 1.50000000000000000000e+03) (29, 4.10364442145530858852e+01) (30, 1.50000000000000000000e+03) (31, 2.54812851908799480327e+01) (32, 1.50000000000000000000e+03) (33, -2.70820810980562214354e+02) (34, 1.50000000000000000000e+03) (35, -2.19926215261183358507e+02) (36, 1.50000000000000000000e+03) (37, -9.18201378237394010284e+01) (38, 1.50000000000000000000e+03) (39, -3.87002645413329418034e+01) (40, 1.50000000000000000000e+03) (41, 1.36746444442231904759e+02) (42, 1.50000000000000000000e+03) (43, 1.35804331777826178040e+02) (44, 1.50000000000000000000e+03) (45, -1.05714168555365631619e+02) (46, 1.50000000000000000000e+03) (47, 1.42829804484706016865e+02) (48, 1.50000000000000000000e+03) (49, 2.29100226902306417287e+02) (50, 1.50000000000000000000e+03) (51, -1.81575797282535802424e+02) (52, -7.52818003259778407710e+01) (53, -1.98622713170131873994e+02) (54, 2.88173343908758511134e+02) (55, -4.99323548384160574187e+02) (56, 1.50000000000000000000e+03) (57, -8.88508207204746156549e+01) (58, 5.81219735089671303285e+01) (59, -7.20565730063829601448e+00) (60, 1.50000000000000000000e+03) (61, -1.93257838906575528881e+02) (62, 1.50000000000000000000e+03) (63, -1.38114623610223219430e+02) (64, -1.50000000000000000000e+03) (65, -7.57852459114635479409e+01) (66, 4.92845272349063407091e+02) (67, 2.72463313501646737791e+01) (68, -1.50000000000000000000e+03) (69, -1.66355891931370763359e+02) (70, -1.25588419651497929408e+02) (0, 1.50000000000000000000e+03) (1, 3.36506768502033480672e+02) (2, 1.50000000000000000000e+03) (3, -1.21837117611505306058e+02) (4, -1.50000000000000000000e+03) (5, 1.72214582975288266198e+02) (6, -1.50000000000000000000e+03) (7, 6.03583021584775067936e+01) (8, -1.50000000000000000000e+03) (9, -9.28243343992225504735e+01) (10, -1.50000000000000000000e+03) (11, 1.43048785866380825382e+02) (12, -1.50000000000000000000e+03) (13, 1.62237760999401331219e+02) (14, 1.50000000000000000000e+03) (15, 2.14864726428431467298e+01) (16, -4.29644539690450756098e+02) (17, 7.08265767117657674135e+01) (18, -1.91448618539847899456e+02) (19, 2.68154323763486218013e+02) (20, -5.53882009918623452904e+02) (21, 1.25168056245626516443e+02) (22, 1.50000000000000000000e+03) (23, -1.86800123539871805178e+02) (24, 1.50000000000000000000e+03) (25, -1.44563128012273978129e+02) (26, -1.50000000000000000000e+03) (27, 3.00698294589461738724e+01) (28, -1.50000000000000000000e+03) (29, 1.49345074832302486811e+02) (30, 9.96570365032147691409e+01) (31, 2.56608897086883189331e+02) (32, -1.50000000000000000000e+03) (33, 5.80540622172325697647e+01) (34, -1.50000000000000000000e+03) (35, -8.01636997975060126009e+01) (36, -1.50000000000000000000e+03) (37, -1.50762842722608326085e+02) (38, -1.50000000000000000000e+03) (39, -1.48072457144624491931e+00) (40, -1.50000000000000000000e+03) (41, 1.94061172210142673933e+00) (42, 1.87305505170601698239e+01) (43, 9.12477663446824465154e+01) (44, -1.50000000000000000000e+03) (45, -2.80917304774274384727e+02) (46, -1.50000000000000000000e+03) (47, -9.84671280939047477432e+01) (48, -1.50000000000000000000e+03) (49, -1.22174746874484540626e+02) (50, -1.50000000000000000000e+03) (51, 1.56865602012242192131e+02) (52, -5.10219351664243703226e+01) (53, 1.11564911081464074982e+02) (54, 6.77949536016562603891e+01) (55, 1.97681250296815420597e+02) (56, -1.50000000000000000000e+03) (57, -2.34844388901179854656e+01) (58, 2.68531984831927559298e+01) (59, -1.69391765495142976761e+02) (60, -1.50000000000000000000e+03) (61, 4.71457469739378112195e+01) (62, -1.50000000000000000000e+03) (63, -7.60089394414059995597e+01) (64, 1.50000000000000000000e+03) (65, 5.48751691297397385938e+01) (66, -7.63002282018542928199e+02) (67, -7.12218572786995167689e+01) (68, 1.50000000000000000000e+03) (69, 1.86129875787667167231e+01) (70, 1.62371331770818727591e+02) (0, -1.50000000000000000000e+03) (1, 8.71807872848746967520e+01) (2, -1.50000000000000000000e+03) (3, 1.67489920819998360457e+02) (4, 1.50000000000000000000e+03) (5, 7.41848817374440017147e+01) (6, 1.50000000000000000000e+03) (7, 2.66057569221045866925e+02) (8, 1.50000000000000000000e+03) (9, 1.10907457644877766256e+02) (10, 1.50000000000000000000e+03) (11, -1.85335257475508484504e+02) (12, 1.50000000000000000000e+03) (13, -2.75381615804213595311e+02) (14, -1.50000000000000000000e+03) (15, -8.22149027325347248052e+01) (16, -1.68809517538776418633e+02) (17, -1.35550378425831581808e+02) (18, 6.22220960161297043101e+01) (19, -1.88236267419510312493e+02) (20, -1.13373904525436444146e+02) (21, -3.02337455970639439329e+02) (22, -1.50000000000000000000e+03) (23, 1.44574247011363411275e+02) (24, -1.50000000000000000000e+03) (25, -1.46596824149238614154e+02) (26, 1.50000000000000000000e+03) (27, -2.47824394990939453010e+02) (28, 1.50000000000000000000e+03) (29, 1.93010708516209717800e+02) (30, 1.50000000000000000000e+03) (31, 9.38361078485731923138e+01) (32, 1.50000000000000000000e+03) (33, -1.60444887387732876505e+02) (34, 1.50000000000000000000e+03) (35, -2.34587234562519881820e+02) (36, 1.50000000000000000000e+03) (37, 1.70855269689309437808e+02) (38, 1.50000000000000000000e+03) (39, 1.39453729945472815643e+02) (40, 1.50000000000000000000e+03) (41, -1.80236139306873241139e+02) (42, 1.50000000000000000000e+03) (43, -3.44737622100336011499e+02) (44, 1.50000000000000000000e+03) (45, 1.59693089273020490282e+02) (46, 1.50000000000000000000e+03) (47, 2.48330632448306829474e+02) (48, 1.50000000000000000000e+03) (49, 6.95621557547591606863e+01) (50, 1.50000000000000000000e+03) (51, 1.71145893922739844584e+02) (52, 4.16269493013863780106e+02) (53, -5.10197240626207886294e+01) (54, -7.04502690032152258937e+01) (55, -3.70500340364879718891e+02) (56, 1.50000000000000000000e+03) (57, -3.45500012803292918306e+02) (58, -4.33287232576878977852e+01) (59, 4.04196438790096578941e+02) (60, 1.50000000000000000000e+03) (61, -1.46418738628487233200e+02) (62, 1.50000000000000000000e+03) (63, -6.89575696802537407848e+01) (64, -1.50000000000000000000e+03) (65, -1.82007132199209245016e+01) (66, -2.90894801803446441113e+01) (67, -4.82016766742954843039e+01) (68, -1.50000000000000000000e+03) (69, 1.18297156537791096298e+02) (70, -3.55803321621802410846e+02) (0, -1.50000000000000000000e+03) (1, 2.53425443893838405529e+02) (2, -1.50000000000000000000e+03) (3, 1.38337162267847986641e+02) (4, 1.50000000000000000000e+03) (5, 7.01202559233816202777e+01) (6, 1.50000000000000000000e+03) (7, 1.61142365478841867343e+02) (8, 1.50000000000000000000e+03) (9, 2.72253203626319077557e+02) (10, 1.50000000000000000000e+03) (11, 1.28442654267315390371e+02) (12, 1.50000000000000000000e+03) (13, -1.35441038005778509046e+01) (14, -1.50000000000000000000e+03) (15, 2.10088717158141946584e+02) (16, 1.38865084400770200546e+02) (17, 9.49040073715005831900e+01) (18, 1.99455960507835243334e+02) (19, -3.03682366989069691954e+02) (20, 3.64376786418654432964e+02) (21, -1.32544339910509023639e+02) (22, -1.50000000000000000000e+03) (23, -2.46055110723195895162e+02) (24, -1.50000000000000000000e+03) (25, 7.50606334062628803849e+01) (26, 1.50000000000000000000e+03) (27, -5.62015943444526158146e+01) (28, 1.50000000000000000000e+03) (29, -6.48039107048792288879e+01) (30, 1.50000000000000000000e+03) (31, 2.66214042666550945171e+01) (32, 1.50000000000000000000e+03) (33, 1.17365178399320697622e+02) (34, 1.50000000000000000000e+03) (35, 2.06216118723191641493e+02) (36, 1.50000000000000000000e+03) (37, 1.43441748772932584188e+02) (38, 1.50000000000000000000e+03) (39, 4.73596834261964900747e+01) (40, 1.50000000000000000000e+03) (41, -8.69023287511279249884e+01) (42, 1.50000000000000000000e+03) (43, 1.32992327688470737712e+02) (44, 1.50000000000000000000e+03) (45, -2.26974178320997651781e+02) (46, 1.50000000000000000000e+03) (47, -2.79593657429344375487e+02) (48, 1.50000000000000000000e+03) (49, 2.65705871128374951695e+02) (50, 1.50000000000000000000e+03) (51, -2.87993354045217529347e+02) (52, 1.72689307156933665510e+02) (53, 2.51787165783961945920e+01) (54, 1.56269563925239282298e+02) (55, -1.95664536543350635611e+02) (56, 1.50000000000000000000e+03) (57, 1.41917070209693605420e+02) (58, 2.14106729978691703309e+02) (59, -2.27362206551305909841e+01) (60, 1.50000000000000000000e+03) (61, -2.80128230752267597836e+02) (62, 1.50000000000000000000e+03) (63, 1.36550018723761155570e+02) (64, -1.50000000000000000000e+03) (65, 2.58434320433770892578e+02) (66, 8.36651699351016986839e+02) (67, -2.63507843835972096258e+02) (68, -1.50000000000000000000e+03) (69, 2.48387577306910486641e+02) (70, 1.80907521510586718705e+02) (0, 1.50000000000000000000e+03) (1, -1.43843728418636684907e+00) (2, 1.50000000000000000000e+03) (3, -2.84638967349857409772e+02) (4, -1.50000000000000000000e+03) (5, -1.31962560106961149131e+02) (6, -1.50000000000000000000e+03) (7, 1.63412891765669087363e+02) (8, -1.50000000000000000000e+03) (9, -1.98836549036094311305e+02) (10, -1.50000000000000000000e+03) (11, 9.19500807702923594888e+01) (12, -1.50000000000000000000e+03) (13, 2.79348059161374578707e+02) (14, 1.50000000000000000000e+03) (15, 1.90863391147774819956e+02) (16, 2.05809049342631226409e+02) (17, 2.99620891388746315442e+02) (18, -2.20821015039560109017e+02) (19, 1.31956309034829558868e+02) (20, -9.76790070819824336468e+01) (21, 7.50151570765179656064e+01) (22, 1.50000000000000000000e+03) (23, -1.26861851663844475979e+01) (24, 1.50000000000000000000e+03) (25, -2.60429040715408888218e+01) (26, -1.50000000000000000000e+03) (27, 9.02952404869100320184e+01) (28, -1.50000000000000000000e+03) (29, 1.09441083941429710080e+02) (30, 7.49882617554171027052e+00) (31, -2.31895694269752254968e+02) (32, -1.50000000000000000000e+03) (33, 5.37232054651476715890e+01) (34, -1.50000000000000000000e+03) (35, 1.16243453942184430616e+02) (36, 7.46350182843683040979e-01) (37, -9.48665345906495076633e+01) (38, -1.50000000000000000000e+03) (39, 2.31251914495077926404e+02) (40, -3.37549823568515023453e+02) (41, -1.58610654993077133668e+02) (42, -1.50000000000000000000e+03) (43, -7.58073536366700579947e+01) (44, -1.50000000000000000000e+03) (45, 1.83772556099778512362e+01) (46, -1.50000000000000000000e+03) (47, -6.31078385515608175638e+00) (48, -1.50000000000000000000e+03) (49, 2.15408479677423230214e+02) (50, -1.81353441026016525939e+02) (51, -3.91859783033519192941e+02) (52, -8.28301130252567929801e+01) (53, 3.55392275347910072014e+02) (54, -4.24620437800792728922e+02) (55, 2.82222997362572755264e+02) (56, -1.50000000000000000000e+03) (57, -1.32027180804162412642e+02) (58, 1.58052985735266844358e+02) (59, 3.33315174135004994582e+01) (60, -1.50000000000000000000e+03) (61, -1.01444636773855890510e+02) (62, -1.50000000000000000000e+03) (63, 2.19641600573367014704e+02) (64, 1.50000000000000000000e+03) (65, -4.58916061491411610973e+01) (66, -4.18968758458972445169e+02) (67, -8.18295428117156689041e+01) (68, 1.50000000000000000000e+03) (69, 2.31591226741941994760e+02) (70, 6.24072582165481364314e+01) (0, 1.50000000000000000000e+03) (1, -2.05584797644560488550e+01) (2, 1.50000000000000000000e+03) (3, -1.91494967443849702704e+02) (4, -1.50000000000000000000e+03) (5, -2.52897756809086935448e+01) (6, -1.50000000000000000000e+03) (7, 1.79646170023971109231e+02) (8, -1.50000000000000000000e+03) (9, -4.36704953130054320809e+01) (10, -1.50000000000000000000e+03) (11, -3.63039086900638920952e+01) (12, -1.50000000000000000000e+03) (13, 4.61209392161250832487e+02) (14, 1.50000000000000000000e+03) (15, 1.57789693283917245026e+02) (16, -8.34548139004097606630e+01) (17, 8.27196556729468994718e+01) (18, -1.63257469812510521479e+02) (19, 2.81718370610270653742e+02) (20, -3.42542654542920445238e+02) (21, 3.46243305754042864919e+01) (22, 1.50000000000000000000e+03) (23, -2.44131498587892679097e+02) (24, 1.50000000000000000000e+03) (25, -1.12940594338375390748e+02) (26, -1.50000000000000000000e+03) (27, 3.17078602251376480581e+02) (28, -1.50000000000000000000e+03) (29, 1.41725154814935734748e+02) (30, -1.50000000000000000000e+03) (31, -7.24336663811829737369e+01) (32, -1.50000000000000000000e+03) (33, 4.34297003891667898756e+01) (34, -1.50000000000000000000e+03) (35, 2.00339749108552837242e+02) (36, -1.50000000000000000000e+03) (37, 2.76471180773682476683e+02) (38, -1.50000000000000000000e+03) (39, -1.60817366215952461062e+02) (40, -1.50000000000000000000e+03) (41, -4.28713036478050071310e+02) (42, -1.50000000000000000000e+03) (43, 2.17878667713189111410e+00) (44, -1.50000000000000000000e+03) (45, 1.58147012010070540100e+02) (46, -1.50000000000000000000e+03) (47, 2.41555893476910114259e+02) (48, -1.50000000000000000000e+03) (49, -2.99836605241575512082e+02) (50, -1.50000000000000000000e+03) (51, 6.92517770013797928641e+01) (52, -5.01730852750966221265e+02) (53, 1.20385405604465645979e+02) (54, -7.51810995220107685100e+01) (55, -1.18017514548831371712e+02) (56, -1.50000000000000000000e+03) (57, 1.61307153874535771365e+02) (58, 2.61184555962595823075e+02) (59, -8.40486277631999456617e+01) (60, -1.50000000000000000000e+03) (61, -1.10855076506495734634e+02) (62, -1.50000000000000000000e+03) (63, 1.44812218175005483545e+02) (64, 1.50000000000000000000e+03) (65, 7.58558247991324634540e+01) (66, -3.67893349523425285952e+02) (67, 7.00674746985415481504e+02) (68, 1.50000000000000000000e+03) (69, -1.98037203771974702704e+02) (70, -1.70191573830762337138e+01) (0, -1.50000000000000000000e+03) (1, -3.95733710059025511896e+01) (2, -1.50000000000000000000e+03) (3, -1.43026144315123588058e+02) (4, 1.50000000000000000000e+03) (5, -1.69756449939982516639e+01) (6, 1.50000000000000000000e+03) (7, 1.87390156274578231432e+02) (8, 1.50000000000000000000e+03) (9, -8.87773456818247694855e+01) (10, 1.50000000000000000000e+03) (11, 3.16183216438601188969e+00) (12, 1.50000000000000000000e+03) (13, 2.42496397032685905515e+02) (14, -1.50000000000000000000e+03) (15, 3.67805246346790681855e+01) (16, 1.92492053179930195483e+02) (17, 4.93051284422167697130e+01) (18, 2.86475401800318024925e+02) (19, -1.08919238817369237182e+01) (20, -3.52741858430581828543e+02) (21, -1.83138793240535079576e+02) (22, -1.50000000000000000000e+03) (23, 3.49830678729508122160e+02) (24, -1.50000000000000000000e+03) (25, 8.02021594459688458301e+01) (26, 1.50000000000000000000e+03) (27, -5.24480962969753221614e+01) (28, 1.50000000000000000000e+03) (29, 8.01682460257577722551e-01) (30, 1.50000000000000000000e+03) (31, 6.07022530625729785925e+01) (32, 1.50000000000000000000e+03) (33, -2.86198073441702035780e+02) (34, 1.50000000000000000000e+03) (35, -4.71346910910802137096e+01) (36, 1.50000000000000000000e+03) (37, 7.04004014401595270556e+01) (38, 1.50000000000000000000e+03) (39, -2.40084236779745054946e+02) (40, 1.50000000000000000000e+03) (41, -2.81891216994064421897e+01) (42, 1.50000000000000000000e+03) (43, -2.00074253083204354198e+02) (44, 1.50000000000000000000e+03) (45, 5.36517324697715825010e+00) (46, 1.50000000000000000000e+03) (47, -3.73658486546006088247e+02) (48, 1.50000000000000000000e+03) (49, -1.75101859431255846289e+00) (50, 1.50000000000000000000e+03) (51, 2.91444053336169986324e+02) (52, -1.77236614601325783269e+02) (53, -7.43141572748096166379e+01) (54, 3.47968177234706743661e+01) (55, -3.83296815849366723228e+01) (56, 1.50000000000000000000e+03) (57, 2.46652750226154495294e+02) (58, -1.19646177726998018898e+02) (59, -1.73646992597378471146e+02) (60, 1.50000000000000000000e+03) (61, -1.87579147924357670263e+02) (62, 1.50000000000000000000e+03) (63, -1.19284453154490577731e+02) (64, -1.50000000000000000000e+03) (65, 1.54735659624169358040e+02) (66, 2.36819667808445018409e+02) (67, -2.45650796135691336985e+02) (68, -1.50000000000000000000e+03) (69, -2.64642470372802804945e+01) (70, -1.93721035057865435647e+02) (0, -1.50000000000000000000e+03) (1, -5.17866797917165939680e+01) (2, -1.50000000000000000000e+03) (3, -4.49827816748369627931e+02) (4, 1.50000000000000000000e+03) (5, -1.48774898301065803707e+02) (6, 1.50000000000000000000e+03) (7, -2.93393143712844505444e+02) (8, 1.50000000000000000000e+03) (9, -3.33152770940281868661e+02) (10, 1.50000000000000000000e+03) (11, -3.77305094914702578990e+01) (12, 1.50000000000000000000e+03) (13, 5.69761291151465787408e+00) (14, -1.50000000000000000000e+03) (15, -2.94005225826239040998e+02) (16, -3.96154472931760466281e+01) (17, -2.02291731472762563726e+02) (18, 1.29587616292847762622e+01) (19, -1.44184760893141429960e+02) (20, 3.05631853647532579998e+02) (21, -6.56323176027465962079e+01) (22, -1.50000000000000000000e+03) (23, 1.62888663903708845737e+02) (24, -1.50000000000000000000e+03) (25, -1.45575854234878647731e+02) (26, 1.50000000000000000000e+03) (27, -1.13385732231693083349e+02) (28, 1.50000000000000000000e+03) (29, 8.12296786354879145620e+01) (30, 1.38898819757140518050e+03) (31, -3.45062828142733764025e+01) (32, 1.50000000000000000000e+03) (33, -3.77990852729560856460e+02) (34, 1.50000000000000000000e+03) (35, 2.16628386454931643357e+02) (36, 1.50000000000000000000e+03) (37, -2.62790814436017456046e+02) (38, 1.50000000000000000000e+03) (39, 2.26392745864070519701e+02) (40, 1.50000000000000000000e+03) (41, 2.34811775028163481238e+02) (42, 1.50000000000000000000e+03) (43, 8.28407862479877792339e+01) (44, 1.50000000000000000000e+03) (45, -1.75762497782005553404e+01) (46, 1.50000000000000000000e+03) (47, 7.41915339333483814244e+01) (48, 1.50000000000000000000e+03) (49, 1.10357987200104872727e+02) (50, 1.50000000000000000000e+03) (51, -1.66623604943240906096e+02) (52, -2.09509236849044725659e+02) (53, 1.97611187129489103143e+01) (54, 8.56491349394737824241e+01) (55, 1.40008810838315554292e+02) (56, 1.50000000000000000000e+03) (57, 1.05676089003985197223e+02) (58, 2.37221129578681285466e+02) (59, 7.83492444408458652561e+01) (60, 1.50000000000000000000e+03) (61, 1.64482544365415350285e+02) (62, 1.50000000000000000000e+03) (63, 3.95541770014901032937e+02) (64, -1.50000000000000000000e+03) (65, -1.40991671988792717229e+02) (66, -4.69762334324980542988e+02) (67, -2.94521638646628900915e+02) (68, -1.50000000000000000000e+03) (69, -1.25598324560880840295e+02) (70, -2.29058977632741573416e+02) (0, -1.50000000000000000000e+03) (1, 1.58743513351846218029e+02) (2, -1.50000000000000000000e+03) (3, 2.03030445348902674141e+02) (4, 1.50000000000000000000e+03) (5, 4.64261603118071022323e+01) (6, 1.50000000000000000000e+03) (7, -1.87086363769205007657e+02) (8, 1.50000000000000000000e+03) (9, -2.61149964098303485116e+02) (10, 1.50000000000000000000e+03) (11, 2.69325199738520097981e+02) (12, 1.50000000000000000000e+03) (13, -3.71032748187596610023e+02) (14, -1.50000000000000000000e+03) (15, 2.15935427502010881540e+01) (16, 3.88624949207902830040e+02) (17, 6.78721699081217195726e+01) (18, 1.22780856366599380181e+02) (19, 3.27346480866052402803e+01) (20, 3.60529847331740256777e+02) (21, 1.70349580987922138320e+02) (22, -1.50000000000000000000e+03) (23, -1.76840508286187017006e+01) (24, -1.50000000000000000000e+03) (25, 6.39411723466891714907e+01) (26, 1.50000000000000000000e+03) (27, -3.12195971480690730004e+02) (28, 1.50000000000000000000e+03) (29, -3.50907530510719993799e+01) (30, 1.50000000000000000000e+03) (31, 2.30356667614280922862e+02) (32, 1.50000000000000000000e+03) (33, 7.89370015194376861700e+01) (34, 1.50000000000000000000e+03) (35, 3.11929131418518238661e+02) (36, 1.50000000000000000000e+03) (37, 2.62739051019039266066e+02) (38, 1.50000000000000000000e+03) (39, 2.02427596481611317358e+02) (40, 1.50000000000000000000e+03) (41, -9.17450258946826124884e+01) (42, 1.50000000000000000000e+03) (43, 9.68998365385758830826e+01) (44, 1.50000000000000000000e+03) (45, -2.93965168067103910232e+01) (46, 1.50000000000000000000e+03) (47, 8.92744074510205507522e+01) (48, 1.50000000000000000000e+03) (49, 4.52101295017545851351e+02) (50, 1.50000000000000000000e+03) (51, -1.61517829142887364924e+02) (52, 2.27294203702344503881e+02) (53, -9.99672737933026240853e+01) (54, 1.31106561911078813409e+02) (55, -6.61532984452012442489e+01) (56, 1.50000000000000000000e+03) (57, 2.19941667377662355420e+02) (58, -2.04727834230292671691e+02) (59, 1.95252121630021662213e+02) (60, 1.50000000000000000000e+03) (61, -8.26575123684840065152e+01) (62, 1.50000000000000000000e+03) (63, -2.60174773756679940107e+02) (64, -1.50000000000000000000e+03) (65, 2.28999500113816232272e+01) (66, 5.36647472666443945855e+02) (67, 5.62513152521417012508e+01) (68, -1.50000000000000000000e+03) (69, -5.09963452699767643139e+01) (70, 2.02639096026458922495e+01) (0, 1.50000000000000000000e+03) (1, -3.17200694539538801564e+02) (2, 1.50000000000000000000e+03) (3, 2.14834439294431547296e+02) (4, -1.50000000000000000000e+03) (5, 1.02402450328973717575e+01) (6, -1.50000000000000000000e+03) (7, -5.33155037126007158577e+01) (8, -1.50000000000000000000e+03) (9, -7.53463490422512904843e+01) (10, -1.50000000000000000000e+03) (11, 2.17711178437622606907e+02) (12, -1.50000000000000000000e+03) (13, 2.00412765454075909588e+01) (14, 1.50000000000000000000e+03) (15, 3.35829839157934145533e+02) (16, -2.77799548092307361458e+02) (17, -2.36420435269434818792e+02) (18, 1.09386672338369734803e+02) (19, 1.27899583989179106425e+02) (20, -4.22120092897411325339e+02) (21, 1.24437990243374585475e+02) (22, 1.50000000000000000000e+03) (23, 7.10759217612285425503e+01) (24, 1.50000000000000000000e+03) (25, 1.89307490683596029157e+02) (26, -1.50000000000000000000e+03) (27, 3.98354389604889945531e+02) (28, -1.50000000000000000000e+03) (29, 1.20153407988764470815e+02) (30, -1.50000000000000000000e+03) (31, 4.63172377020695620331e+01) (32, -1.50000000000000000000e+03) (33, 4.50701804306706890202e+01) (34, -1.50000000000000000000e+03) (35, 1.06105220425115298610e+01) (36, -1.50000000000000000000e+03) (37, -3.45746508181237685586e-02) (38, -1.50000000000000000000e+03) (39, -1.14096808049449606415e+02) (40, -1.50000000000000000000e+03) (41, 3.18878232946796069669e-01) (42, -1.50000000000000000000e+03) (43, 1.49174769324075668919e+02) (44, -1.50000000000000000000e+03) (45, 3.93712563767880510568e+02) (46, -1.50000000000000000000e+03) (47, 1.46630646284527301759e+02) (48, -1.50000000000000000000e+03) (49, -5.28888591935910881148e+02) (50, -1.50000000000000000000e+03) (51, -9.39077383794795821359e+01) (52, -3.66699404386709602477e+02) (53, 4.18743177418335278617e+02) (54, -7.23571172832411804166e+01) (55, 3.63685557026314896234e+01) (56, -1.50000000000000000000e+03) (57, 2.57848978215355202792e+02) (58, -9.97689352483401137306e+01) (59, 1.05944543928694585588e+02) (60, -1.50000000000000000000e+03) (61, -1.07707730009913703384e+02) (62, -1.50000000000000000000e+03) (63, 1.11322922215531320944e+02) (64, 1.50000000000000000000e+03) (65, 1.45212361664368842185e+02) (66, -6.93776029820323742570e+02) (67, 2.80665225501042812084e+02) (68, 1.50000000000000000000e+03) (69, -8.62559385131871891872e+01) (70, 4.49739171054731684762e+02) (0, -1.50000000000000000000e+03) (1, 3.32941801315755981250e+02) (2, -1.50000000000000000000e+03) (3, -1.00587154138377385948e+02) (4, 1.50000000000000000000e+03) (5, -3.26749678158643860115e+02) (6, 1.50000000000000000000e+03) (7, -2.96696715331687244088e+02) (8, 1.50000000000000000000e+03) (9, -1.07330116991361109058e+02) (10, 1.50000000000000000000e+03) (11, -1.81367534026141640879e+02) (12, 1.50000000000000000000e+03) (13, -2.27376177012252071563e+02) (14, -1.50000000000000000000e+03) (15, -6.86746266528691933217e+01) (16, 1.78040644398324701569e+02) (17, 3.09994347032141718046e+02) (18, 2.47947551007713684612e+02) (19, 3.05493261673039683046e+02) (20, 4.23011338420610229605e+02) (21, -2.32312131658562236680e+02) (22, -1.50000000000000000000e+03) (23, -1.54243352715202597381e+01) (24, -1.50000000000000000000e+03) (25, 2.67548205122584988658e+02) (26, 1.50000000000000000000e+03) (27, -2.94146166793190275257e+02) (28, 1.50000000000000000000e+03) (29, 2.16196692017283254472e+02) (30, 1.50000000000000000000e+03) (31, -1.63301419255138995368e+01) (32, 1.50000000000000000000e+03) (33, 1.09435765557523907887e+02) (34, 1.50000000000000000000e+03) (35, -1.53549433648161652854e+01) (36, 1.50000000000000000000e+03) (37, 6.90558463681551302216e+01) (38, 1.50000000000000000000e+03) (39, -1.67464493362138682642e+02) (40, 1.50000000000000000000e+03) (41, 1.12451423385102543762e+02) (42, 1.50000000000000000000e+03) (43, 1.24570574758790726833e+02) (44, 1.50000000000000000000e+03) (45, -7.01411137290661024224e+00) (46, 1.50000000000000000000e+03) (47, 1.74487198893885704365e+02) (48, 1.50000000000000000000e+03) (49, 1.91228366398154719263e+02) (50, 1.50000000000000000000e+03) (51, -5.29517776597288616358e+01) (52, 3.98355101529494675106e+02) (53, -2.07931100926479388136e+02) (54, 2.58279033911202020590e+02) (55, 2.44154066972274364389e+02) (56, 1.50000000000000000000e+03) (57, 3.32249029275940372941e+01) (58, 2.00308008665215140809e+02) (59, 4.67152335074669551318e+01) (60, 1.50000000000000000000e+03) (61, -9.94378773587183815152e+01) (62, 1.50000000000000000000e+03) (63, -4.40841785113348265668e+01) (64, -1.50000000000000000000e+03) (65, 7.17335910636341083091e+01) (66, 6.34181698130312952344e+02) (67, 1.72389754430596013890e+02) (68, -1.50000000000000000000e+03) (69, 1.28348125707789478156e+02) (70, 2.82542577052623244072e+02) (0, -1.50000000000000000000e+03) (1, 1.45154803392508483739e+02) (2, -1.50000000000000000000e+03) (3, -1.70615332481528810149e+02) (4, 1.50000000000000000000e+03) (5, -8.11560761062736446547e+01) (6, 1.50000000000000000000e+03) (7, -1.49045892820339616947e+02) (8, 1.50000000000000000000e+03) (9, 6.82876702416789385097e+01) (10, 1.50000000000000000000e+03) (11, -7.15804352696574142101e+01) (12, 1.50000000000000000000e+03) (13, -9.92959302149988758401e+01) (14, -1.50000000000000000000e+03) (15, -1.99818489505297350206e+02) (16, 2.31638704613133983301e+00) (17, 3.10950593252839269098e+02) (18, 1.19082455032469667344e+02) (19, 2.68720668046698619946e+02) (20, -3.91183791120017971821e+01) (21, -1.73045372867899970970e+02) (22, -1.50000000000000000000e+03) (23, 5.61719997787679226064e+00) (24, -1.50000000000000000000e+03) (25, -2.75911125564302949442e+02) (26, 1.50000000000000000000e+03) (27, -6.92394047981820506266e+01) (28, 1.50000000000000000000e+03) (29, -2.03341663938148229818e+02) (30, 1.50000000000000000000e+03) (31, 1.53709328363553396457e+02) (32, 1.50000000000000000000e+03) (33, -1.70579191044878882622e+02) (34, 1.50000000000000000000e+03) (35, 6.00461709708872390934e+01) (36, 1.50000000000000000000e+03) (37, 1.30871791865352662398e+02) (38, 1.50000000000000000000e+03) (39, -3.69454924831587021572e+01) (40, 1.50000000000000000000e+03) (41, -3.12796969801780619491e+02) (42, 1.50000000000000000000e+03) (43, 5.60052336348945303257e+01) (44, 1.50000000000000000000e+03) (45, -4.50508566991270754443e+02) (46, 1.50000000000000000000e+03) (47, 1.89947362835915157575e+02) (48, 1.50000000000000000000e+03) (49, 1.47139943494780538913e+02) (50, 1.50000000000000000000e+03) (51, 9.14605537932843617455e+01) (52, -6.69968084587271022201e+01) (53, -2.10427861422931556490e+02) (54, -1.04304560685156261002e+02) (55, 1.78541410593230438053e+02) (56, 1.50000000000000000000e+03) (57, -2.75562188455697821610e+02) (58, 2.33452581580505125203e+02) (59, -1.55756082958222322077e+02) (60, 1.50000000000000000000e+03) (61, 3.08081383873344464064e+02) (62, 1.50000000000000000000e+03) (63, 1.57601277636493733780e+02) (64, -1.50000000000000000000e+03) (65, -1.21584564697200914196e+01) (66, 1.89206881535042612086e+02) (67, -2.34687572472101095400e+02) (68, -1.50000000000000000000e+03) (69, 3.53523532179461383862e+01) (70, -2.65084264620592819028e+02) (71, 2.89732447777758039820e+00) (72, 3.20093904137100171425e+00) (73, 1.21358511691135984023e+01) (74, 1.50000000000000000000e+03) (75, -2.52614349293149928144e+02) (76, 1.50000000000000000000e+03) (77, 1.62079152369961718705e+02) (78, -2.70217161240065536276e+02) (79, -1.92228943977491724127e+02) (80, 1.50000000000000000000e+03) (81, 1.50000000000000000000e+03) (82, 3.03610997462779494072e+02) (83, -8.64189173931970771037e+01) (84, 7.84682743792638603963e+01) (85, 1.50000000000000000000e+03) (86, 2.42762822413907031205e+02) 
