FANN_FLO_2.1
num_layers=3
learning_rate=0.700000
connection_rate=1.000000
network_type=0
learning_momentum=0.000000
training_algorithm=2
train_error_function=1
train_stop_function=0
cascade_output_change_fraction=0.010000
quickprop_decay=-0.000100
quickprop_mu=1.750000
rprop_increase_factor=1.001000
rprop_decrease_factor=0.333300
rprop_delta_min=0.000000
rprop_delta_max=50.000000
rprop_delta_zero=0.100000
cascade_output_stagnation_epochs=12
cascade_candidate_change_fraction=0.010000
cascade_candidate_stagnation_epochs=12
cascade_max_out_epochs=150
cascade_max_cand_epochs=150
cascade_num_candidate_groups=2
bit_fail_limit=3.49999999999999977796e-01
cascade_candidate_limit=1.00000000000000000000e+03
cascade_weight_multiplier=4.00000000000000022204e-01
cascade_activation_functions_count=10
cascade_activation_functions=3 5 7 8 10 11 14 15 16 17 
cascade_activation_steepnesses_count=4
cascade_activation_steepnesses=2.50000000000000000000e-01 5.00000000000000000000e-01 7.50000000000000000000e-01 1.00000000000000000000e+00 
layer_sizes=71 36 2 
scale_included=0
neurons (num_inputs, activation_function, activation_steepness)=(0, 0, 0.00000000000000000000e+00) (0, 0, 0.00000000000000000000e+00) (0, 0, 0.00000000000000000000e+00) (0, 0, 0.00000000000000000000e+00) (0, 0, 0.00000000000000000000e+00) (0, 0, 0.00000000000000000000e+00) (0, 0, 0.00000000000000000000e+00) (0, 0, 0.00000000000000000000e+00) (0, 0, 0.00000000000000000000e+00) (0, 0, 0.00000000000000000000e+00) (0, 0, 0.00000000000000000000e+00) (0, 0, 0.00000000000000000000e+00) (0, 0, 0.00000000000000000000e+00) (0, 0, 0.00000000000000000000e+00) (0, 0, 0.00000000000000000000e+00) (0, 0, 0.00000000000000000000e+00) (0, 0, 0.00000000000000000000e+00) (0, 0, 0.00000000000000000000e+00) (0, 0, 0.00000000000000000000e+00) (0, 0, 0.00000000000000000000e+00) (0, 0, 0.00000000000000000000e+00) (0, 0, 0.00000000000000000000e+00) (0, 0, 0.00000000000000000000e+00) (0, 0, 0.00000000000000000000e+00) (0, 0, 0.00000000000000000000e+00) (0, 0, 0.00000000000000000000e+00) (0, 0, 0.00000000000000000000e+00) (0, 0, 0.00000000000000000000e+00) (0, 0, 0.00000000000000000000e+00) (0, 0, 0.00000000000000000000e+00) (0, 0, 0.00000000000000000000e+00) (0, 0, 0.00000000000000000000e+00) (0, 0, 0.00000000000000000000e+00) (0, 0, 0.00000000000000000000e+00) (0, 0, 0.00000000000000000000e+00) (0, 0, 0.00000000000000000000e+00) (0, 0, 0.00000000000000000000e+00) (0, 0, 0.00000000000000000000e+00) (0, 0, 0.00000000000000000000e+00) (0, 0, 0.00000000000000000000e+00) (0, 0, 0.00000000000000000000e+00) (0, 0, 0.00000000000000000000e+00) (0, 0, 0.00000000000000000000e+00) (0, 0, 0.00000000000000000000e+00) (0, 0, 0.00000000000000000000e+00) (0, 0, 0.00000000000000000000e+00) (0, 0, 0.00000000000000000000e+00) (0, 0, 0.00000000000000000000e+00) (0, 0, 0.00000000000000000000e+00) (0, 0, 0.00000000000000000000e+00) (0, 0, 0.00000000000000000000e+00) (0, 0, 0.00000000000000000000e+00) (0, 0, 0.00000000000000000000e+00) (0, 0, 0.00000000000000000000e+00) (0, 0, 0.00000000000000000000e+00) (0, 0, 0.00000000000000000000e+00) (0, 0, 0.00000000000000000000e+00) (0, 0, 0.00000000000000000000e+00) (0, 0, 0.00000000000000000000e+00) (0, 0, 0.00000000000000000000e+00) (0, 0, 0.00000000000000000000e+00) (0, 0, 0.00000000000000000000e+00) (0, 0, 0.00000000000000000000e+00) (0, 0, 0.00000000000000000000e+00) (0, 0, 0.00000000000000000000e+00) (0, 0, 0.00000000000000000000e+00) (0, 0, 0.00000000000000000000e+00) (0, 0, 0.00000000000000000000e+00) (0, 0, 0.00000000000000000000e+00) (0, 0, 0.00000000000000000000e+00) (0, 0, 0.00000000000000000000e+00) (71, 4, 5.00000000000000000000e-01) (71, 4, 5.00000000000000000000e-01) (71, 4, 5.00000000000000000000e-01) (71, 4, 5.00000000000000000000e-01) (71, 4, 5.00000000000000000000e-01) (71, 4, 5.00000000000000000000e-01) (71, 4, 5.00000000000000000000e-01) (71, 4, 5.00000000000000000000e-01) (71, 4, 5.00000000000000000000e-01) (71, 4, 5.00000000000000000000e-01) (71, 4, 5.00000000000000000000e-01) (71, 4, 5.00000000000000000000e-01) (71, 4, 5.00000000000000000000e-01) (71, 4, 5.00000000000000000000e-01) (71, 4, 5.00000000000000000000e-01) (71, 4, 5.00000000000000000000e-01) (71, 4, 5.00000000000000000000e-01) (71, 4, 5.00000000000000000000e-01) (71, 4, 5.00000000000000000000e-01) (71, 4, 5.00000000000000000000e-01) (71, 4, 5.00000000000000000000e-01) (71, 4, 5.00000000000000000000e-01) (71, 4, 5.00000000000000000000e-01) (71, 4, 5.00000000000000000000e-01) (71, 4, 5.00000000000000000000e-01) (71, 4, 5.00000000000000000000e-01) (71, 4, 5.00000000000000000000e-01) (71, 4, 5.00000000000000000000e-01) (71, 4, 5.00000000000000000000e-01) (71, 4, 5.00000000000000000000e-01) (71, 4, 5.00000000000000000000e-01) (71, 4, 5.00000000000000000000e-01) (71, 4, 5.00000000000000000000e-01) (71, 4, 5.00000000000000000000e-01) (71, 4, 5.00000000000000000000e-01) (0, 4, 5.00000000000000000000e-01) (36, 4, 9.00000000000000022204e-01) (0, 4, 9.00000000000000022204e-01) 
connections (connected_to_neuron, weight)=(0, 1.50000000000000000000e+03) (1, 5.69475694102252916196e+01) (2, 1.50000000000000000000e+03) (3, -2.07332174291295729063e+02) (4, -1.50000000000000000000e+03) (5, -3.63752945197837647129e+01) (6, -8.84454772597017040425e+02) (7, 5.18212172060110901839e+02) (8, -1.50000000000000000000e+03) (9, -2.90790670852955450698e+01) (10, -1.50000000000000000000e+03) (11, 6.40471015185170529094e+01) (12, 5.67799213855413313468e+02) (13, 2.61486208468414531580e+02) (14, 1.50000000000000000000e+03) (15, -2.13294386713156178814e+01) (16, 4.70699346617168203011e+02) (17, -1.35221468420671669719e+02) (18, -6.12559094361680649854e+02) (19, -6.65979230369895986996e+01) (20, -2.67704954302756092943e+01) (21, -5.75444194678989262570e+01) (22, 1.50000000000000000000e+03) (23, -2.79075359440481292950e+02) (24, 1.50000000000000000000e+03) (25, 1.99281564822602035747e+02) (26, -1.50000000000000000000e+03) (27, 5.58202888635231261105e+02) (28, -1.50000000000000000000e+03) (29, 2.44786108680597351395e+02) (30, -1.50000000000000000000e+03) (31, 2.79800767860497330730e+02) (32, -1.50000000000000000000e+03) (33, -8.94887496296234132842e+01) (34, -1.50000000000000000000e+03) (35, 4.97235157918681878186e+01) (36, -1.50000000000000000000e+03) (37, 8.38713055262448818894e+01) (38, -1.50000000000000000000e+03) (39, 7.04427155313953079485e+01) (40, -1.50000000000000000000e+03) (41, 4.04985221043258604823e+02) (42, -1.50000000000000000000e+03) (43, 1.99482286961808028991e+02) (44, -1.50000000000000000000e+03) (45, 1.00810079603218269995e+01) (46, -1.50000000000000000000e+03) (47, -5.76053434835391016122e+01) (48, -1.50000000000000000000e+03) (49, 1.61495650311895460050e+01) (50, -1.50000000000000000000e+03) (51, -1.21827990020347058930e+02) (52, -1.50000000000000000000e+03) (53, 3.36612981868384679274e+02) (54, -1.50000000000000000000e+03) (55, 3.57691983674196592347e+02) (56, -1.50000000000000000000e+03) (57, 5.06238370905642653952e+01) (58, 2.04757484222112367434e+02) (59, -2.26144718128544297997e+02) (60, -1.50000000000000000000e+03) (61, -3.57463337784926068252e+02) (62, -1.50000000000000000000e+03) (63, 1.72899822204508268442e+02) (64, 1.50000000000000000000e+03) (65, -1.92920975633134474947e+02) (66, -5.74598009924220605171e+02) (67, 1.39797293088269867667e+02) (68, 1.50000000000000000000e+03) (69, -1.20495925112459389084e+02) (70, 1.52123098224584822447e+02) (0, 1.50000000000000000000e+03) (1, -1.50896417656149765207e+02) (2, 1.50000000000000000000e+03) (3, -1.31333388823840060411e+01) (4, -1.50000000000000000000e+03) (5, 1.01004470914002837389e+02) (6, -2.77017373449961723963e+02) (7, 1.39998529756099685528e+02) (8, -1.50000000000000000000e+03) (9, -1.86992497562925194643e+02) (10, -1.50000000000000000000e+03) (11, -6.43166985604281222777e+01) (12, -8.11491074559124285770e+02) (13, 1.16071718303752362544e+02) (14, -1.41588683779344876257e+02) (15, -2.10951748797952575387e+02) (16, -1.46013114270423585594e+02) (17, 1.37810205008805979787e+02) (18, -2.36394053631368308288e+02) (19, 3.70383181436788717633e+01) (20, -6.75301482452617960917e+02) (21, -3.19101220512378418448e+01) (22, 1.50000000000000000000e+03) (23, 1.43320641029127841648e+02) (24, 1.50000000000000000000e+03) (25, 2.21496099664063336832e+02) (26, -1.50000000000000000000e+03) (27, 3.61844504604018993632e+02) (28, -1.50000000000000000000e+03) (29, -6.85596100849131584454e+00) (30, -1.50000000000000000000e+03) (31, -2.93813136049531635763e+02) (32, -1.50000000000000000000e+03) (33, -2.60133153615514686408e+02) (34, -1.50000000000000000000e+03) (35, 1.13266107491467948876e+02) (36, -1.50000000000000000000e+03) (37, 7.62726022522387125946e+01) (38, -1.50000000000000000000e+03) (39, 2.61018580812367872568e+02) (40, -1.50000000000000000000e+03) (41, -1.12227105369046611827e+02) (42, -1.50000000000000000000e+03) (43, -1.03067465495326935354e+01) (44, -1.50000000000000000000e+03) (45, 6.46322518613179397562e+01) (46, -1.50000000000000000000e+03) (47, -3.03508732067947221367e+02) (48, -1.50000000000000000000e+03) (49, 1.89580215958174918001e+01) (50, -1.50000000000000000000e+03) (51, -2.23167174306141475881e+02) (52, -1.50000000000000000000e+03) (53, -1.80212147634596846046e+02) (54, -1.50000000000000000000e+03) (55, -2.67468586387132489790e+01) (56, -1.50000000000000000000e+03) (57, 6.54011326843191937996e+01) (58, -1.93347564916732835627e+02) (59, -6.98890855747221593219e+01) (60, -1.50000000000000000000e+03) (61, -1.44069123349978156057e+02) (62, -1.50000000000000000000e+03) (63, -5.08925510266638809753e+01) (64, 1.50000000000000000000e+03) (65, 2.37471548206381385171e+02) (66, -1.14668338284652563175e+02) (67, -9.69894754664134950417e+01) (68, 1.50000000000000000000e+03) (69, 2.00159436303620054787e+02) (70, -9.66938060827594085822e+01) (0, -1.50000000000000000000e+03) (1, -3.78499262830813947289e+01) (2, -1.50000000000000000000e+03) (3, 1.72856519304688731609e+02) (4, 1.50000000000000000000e+03) (5, 6.08231885284793261093e+00) (6, 7.44520002915395366472e+02) (7, -1.07419222573295044754e+02) (8, 1.50000000000000000000e+03) (9, -2.04887061903461898282e+02) (10, 1.50000000000000000000e+03) (11, 3.08719690390081154874e+02) (12, -9.97699943087788625462e+01) (13, 1.80450887800823153384e+02) (14, -1.13159801617552056996e+03) (15, -7.19407215002509730084e+01) (16, 4.85416645606819429304e+02) (17, -6.42709935691805895885e+01) (18, 7.19313971447917932522e+00) (19, -8.51782886834492671824e+01) (20, 2.33206001891289673722e+02) (21, -2.15571850039298595902e+02) (22, -1.50000000000000000000e+03) (23, -5.95003034908134367242e+01) (24, -1.50000000000000000000e+03) (25, -1.71031847957140357153e+01) (26, 1.50000000000000000000e+03) (27, -6.03188483597056812613e+00) (28, 2.71053866038679757366e+02) (29, -1.44341441834945754863e+02) (30, 5.94758260635121700943e+02) (31, 1.32905810307821838023e+02) (32, 1.50000000000000000000e+03) (33, -3.04274452021329238960e+02) (34, 1.50000000000000000000e+03) (35, -4.54433902172759260907e+01) (36, 1.50000000000000000000e+03) (37, 1.30677848761844416003e+02) (38, 1.50000000000000000000e+03) (39, -4.92700562362966607566e+01) (40, 2.62831686823728830404e+02) (41, -4.44485531319871256528e+01) (42, -1.31255020083093171479e+02) (43, 8.75053675122896805760e+01) (44, 4.01862622388644354032e+02) (45, -2.12470850689242382714e+02) (46, 1.50000000000000000000e+03) (47, -1.05382020715900551977e+02) (48, 1.50000000000000000000e+03) (49, 1.73521981307961283392e+02) (50, 1.50000000000000000000e+03) (51, -8.28922808257308076918e+01) (52, 1.06928998805610217460e+03) (53, -1.78623182721715295429e+02) (54, 2.66165201524707129010e+02) (55, -1.16979484442165126978e+01) (56, 1.50000000000000000000e+03) (57, -9.13965953519473472966e+00) (58, -8.08369225017156054491e+01) (59, 1.81239714141722458862e+02) (60, 1.50000000000000000000e+03) (61, -4.56279757676377855091e+01) (62, 1.50000000000000000000e+03) (63, 3.66825330824070874769e+02) (64, -1.50000000000000000000e+03) (65, 6.22974361922857937657e+01) (66, 1.19564106960270805757e+03) (67, -2.08026951265328023055e+02) (68, -1.50000000000000000000e+03) (69, -2.36987151027695261973e+02) (70, 7.44022137620844148387e+01) (0, -1.50000000000000000000e+03) (1, -1.25560015783276782031e+02) (2, -1.50000000000000000000e+03) (3, -3.48727249461220196736e+02) (4, 1.50000000000000000000e+03) (5, 6.67572626257461081423e+01) (6, 1.11820616577378223155e+03) (7, -4.21865302008908713560e+02) (8, 1.50000000000000000000e+03) (9, -7.14216566892087314500e+01) (10, 1.50000000000000000000e+03) (11, 8.03513745093698901201e+01) (12, -5.49218368508075059253e+02) (13, -3.71687496746958629501e+02) (14, -1.50000000000000000000e+03) (15, -3.55781485526501839445e+01) (16, 1.74505720080399100880e+02) (17, -7.13517177726794926684e+01) (18, 2.94030833392365366308e+02) (19, 1.03094058129657028644e+02) (20, -4.63977247019329439581e+01) (21, -1.87083938617812719940e+02) (22, -1.50000000000000000000e+03) (23, -1.22158594807666844417e+02) (24, -1.50000000000000000000e+03) (25, 7.90314579761827360471e+01) (26, 1.50000000000000000000e+03) (27, -9.71194209045198562080e+01) (28, 1.50000000000000000000e+03) (29, -1.59281540381843399246e+02) (30, 1.50000000000000000000e+03) (31, 5.89944136631557967121e+01) (32, 1.50000000000000000000e+03) (33, 1.28506592397902949187e+02) (34, 1.50000000000000000000e+03) (35, -3.60682296311306771486e+01) (36, 1.50000000000000000000e+03) (37, -3.19252445969746787569e+01) (38, 1.50000000000000000000e+03) (39, 1.47461407265597188143e+02) (40, 1.50000000000000000000e+03) (41, -5.94188757402675804542e+01) (42, 1.50000000000000000000e+03) (43, -1.39451089259872276216e+02) (44, 1.50000000000000000000e+03) (45, -1.59520038767046912653e+02) (46, 1.50000000000000000000e+03) (47, -2.12447001166177813047e+02) (48, 1.50000000000000000000e+03) (49, -1.56025762403482929130e+02) (50, 1.50000000000000000000e+03) (51, -3.70027096527879422183e+01) (52, 1.50000000000000000000e+03) (53, -8.36080412137369677339e+01) (54, 1.50000000000000000000e+03) (55, 6.97039452703479724960e+01) (56, 1.50000000000000000000e+03) (57, 3.13268472520379681612e+01) (58, 1.77847697479586024372e+01) (59, -1.57392195343210403280e+02) (60, 1.50000000000000000000e+03) (61, -2.24490780352478509485e+02) (62, 1.50000000000000000000e+03) (63, -1.81116167717793899783e+02) (64, -1.50000000000000000000e+03) (65, -2.57461507479650492769e+02) (66, 8.89551114100450149635e+02) (67, -2.70427166095993470663e+02) (68, -1.50000000000000000000e+03) (69, -2.54774554166821161516e+02) (70, -3.11143599633496990009e+02) (0, 1.50000000000000000000e+03) (1, -1.34516797502596745062e+02) (2, 1.50000000000000000000e+03) (3, 5.03745403388107604314e+01) (4, -1.50000000000000000000e+03) (5, -1.64596985114832996544e+01) (6, -7.85360199576081868145e+02) (7, 1.32631563692191150494e+02) (8, -1.50000000000000000000e+03) (9, 6.18392449874575902413e+01) (10, -1.50000000000000000000e+03) (11, 4.75137877672963000464e+01) (12, 5.67799213855413313468e+02) (13, 3.16707094698884645823e+02) (14, 1.50000000000000000000e+03) (15, 1.24055540576730606972e+02) (16, -1.66815217896989310020e+02) (17, 5.16499185068461272863e+01) (18, -6.41294865540879868604e+02) (19, -4.26059062060408209049e+01) (20, -2.58755515114113904929e+02) (21, 5.92876482817152492544e+01) (22, 1.50000000000000000000e+03) (23, -8.44648400313010938589e+01) (24, 1.50000000000000000000e+03) (25, 2.59164911380179148637e+02) (26, -1.50000000000000000000e+03) (27, 3.40909217980936375625e+02) (28, -1.50000000000000000000e+03) (29, 2.45085326035053014948e+02) (30, -1.50000000000000000000e+03) (31, 1.01258920631493793962e+02) (32, -1.50000000000000000000e+03) (33, 4.34351827795298532919e+01) (34, -1.50000000000000000000e+03) (35, 3.89734441030814309670e+02) (36, -1.50000000000000000000e+03) (37, 3.15697073043336843057e+02) (38, -1.50000000000000000000e+03) (39, 2.23252694016504165120e+02) (40, -1.50000000000000000000e+03) (41, 2.36023024693159243270e+02) (42, -1.50000000000000000000e+03) (43, 1.68948890240921343775e+02) (44, -1.50000000000000000000e+03) (45, -1.63222951860403284741e+01) (46, -1.50000000000000000000e+03) (47, 9.74214491978157681729e+00) (48, -1.50000000000000000000e+03) (49, 1.27400398958060534937e+02) (50, -1.50000000000000000000e+03) (51, -1.42159883941244572725e+02) (52, -1.50000000000000000000e+03) (53, 1.01082876277563300960e+02) (54, -1.50000000000000000000e+03) (55, 3.01067929719118467347e+02) (56, -1.50000000000000000000e+03) (57, 2.49400741991623561944e+02) (58, -2.73761787628475644851e+02) (59, 2.27811046641964480841e+02) (60, -1.50000000000000000000e+03) (61, -1.72787942433900411743e+02) (62, -1.50000000000000000000e+03) (63, -9.46877357114168094476e-01) (64, 1.50000000000000000000e+03) (65, 6.52039099259234831152e+01) (66, -5.30837891439722284304e+02) (67, -6.13658119227116429784e+01) (68, 1.50000000000000000000e+03) (69, -4.53948280055209565376e+01) (70, 3.63018969001015179288e+01) (0, -1.50000000000000000000e+03) (1, -9.63521795947919343917e+01) (2, -1.50000000000000000000e+03) (3, 3.63205079990005996748e+00) (4, 1.50000000000000000000e+03) (5, 4.01658899806994096338e+00) (6, 1.11820616577378223155e+03) (7, -5.63037685888792680089e+02) (8, 1.50000000000000000000e+03) (9, -2.30716878012784320617e+02) (10, 1.50000000000000000000e+03) (11, 2.68673270110847170145e+02) (12, -5.49239807926290495743e+02) (13, -2.57965829726319157089e+02) (14, -1.50000000000000000000e+03) (15, 8.43820868970047932578e+00) (16, 3.39436716021561096568e+02) (17, 1.37097944786376217507e+02) (18, 3.56858274339409774711e+02) (19, 3.19546275231707568310e+02) (20, -1.99087297495671805336e+02) (21, 2.42138277028852769490e+02) (22, -1.50000000000000000000e+03) (23, -5.18123223380013655515e+02) (24, -1.50000000000000000000e+03) (25, 1.20279330751300168600e+01) (26, 1.50000000000000000000e+03) (27, -1.88986837876728060337e+02) (28, 1.50000000000000000000e+03) (29, 1.27912774205889689938e+01) (30, 1.50000000000000000000e+03) (31, 4.45403560206843280866e+01) (32, 1.50000000000000000000e+03) (33, 1.68764830168733197979e+02) (34, 1.50000000000000000000e+03) (35, 1.55130863153565012880e+01) (36, 1.50000000000000000000e+03) (37, -8.38362653046353898389e+01) (38, 1.50000000000000000000e+03) (39, -3.19618083334751304392e+02) (40, 1.50000000000000000000e+03) (41, -1.49339100437739773497e+02) (42, 1.50000000000000000000e+03) (43, -3.17031279788032875899e+01) (44, 1.50000000000000000000e+03) (45, 2.58264563063203411275e+02) (46, 1.50000000000000000000e+03) (47, -3.42322030791223284041e+01) (48, 1.50000000000000000000e+03) (49, 9.48649007434888318357e+01) (50, 1.50000000000000000000e+03) (51, 2.70183853331341992998e+02) (52, 1.50000000000000000000e+03) (53, -7.75687372581836740437e+01) (54, 1.50000000000000000000e+03) (55, -1.17102056273908559092e+02) (56, 1.50000000000000000000e+03) (57, -2.52052424330652229401e+02) (58, -1.97331982876553865935e+02) (59, 1.30162686592178147293e+02) (60, 1.50000000000000000000e+03) (61, 3.43114990852436534396e+01) (62, 1.50000000000000000000e+03) (63, 1.34599702220658315355e+02) (64, -1.50000000000000000000e+03) (65, 7.71055225739104770355e+01) (66, 4.76582318324079665217e+02) (67, 1.58095462010571537803e+02) (68, -1.50000000000000000000e+03) (69, -1.10327804875756370961e+02) (70, 2.55382763547724067621e+02) (0, 1.50000000000000000000e+03) (1, 1.97297165548831486603e+02) (2, 1.50000000000000000000e+03) (3, 1.37097576470014388406e+02) (4, -1.50000000000000000000e+03) (5, -5.42368284931845945351e+00) (6, -8.43454525595368750146e+02) (7, -4.62511392884944996240e+01) (8, -1.50000000000000000000e+03) (9, 4.71321922338017486709e+02) (10, -1.50000000000000000000e+03) (11, -9.95209345054151981458e+01) (12, 5.67780050787982759175e+02) (13, -3.91794773221476404501e+01) (14, 5.09917482668724289852e+02) (15, -9.88793923578637787841e+01) (16, 1.51341058470012317372e+01) (17, -1.37087560537863765830e+02) (18, 1.17664411307727370115e+01) (19, -3.23613293760116107478e+01) (20, 5.30423578131089641374e+01) (21, -5.86958331991914974424e+01) (22, 1.50000000000000000000e+03) (23, 1.50869085878398152545e+02) (24, 1.50000000000000000000e+03) (25, 4.91701426752993882019e+01) (26, -1.50000000000000000000e+03) (27, -2.23794105077163663964e+02) (28, -1.50000000000000000000e+03) (29, 3.51025035597559053713e+02) (30, -1.50000000000000000000e+03) (31, -1.00515134558957068833e+01) (32, -1.50000000000000000000e+03) (33, -3.12066209327145827501e+02) (34, -1.50000000000000000000e+03) (35, 8.76689571299085628198e+01) (36, -1.50000000000000000000e+03) (37, -3.60256842255939602637e+02) (38, 2.38603136122203025593e+01) (39, -3.46885858711060507176e+02) (40, -1.85975654623710028090e+02) (41, -1.39369021490580735190e+02) (42, -1.50000000000000000000e+03) (43, -1.59679782618465566202e+02) (44, -1.50000000000000000000e+03) (45, 2.34990246225783238287e+02) (46, -1.50000000000000000000e+03) (47, 8.25614173541197686745e+01) (48, -1.50000000000000000000e+03) (49, -1.96669874251311881608e+02) (50, -1.50000000000000000000e+03) (51, 1.59386329082783959166e+02) (52, -1.50000000000000000000e+03) (53, 4.78200643747325457866e+01) (54, -1.50000000000000000000e+03) (55, 1.38907327435072545541e+02) (56, -1.50000000000000000000e+03) (57, 1.08955958141920760340e+02) (58, -4.93581692731439574118e+01) (59, -1.44149639802337190986e+02) (60, -1.50000000000000000000e+03) (61, 2.10157343891919879297e+02) (62, -1.50000000000000000000e+03) (63, 3.69273292599579917805e+02) (64, 1.50000000000000000000e+03) (65, 6.24827448737176567306e+01) (66, -7.31736769537259419849e+02) (67, -7.85261918691808915582e+01) (68, 1.50000000000000000000e+03) (69, -5.25360898538281304582e+01) (70, 5.57429207362945504656e+01) (0, -1.50000000000000000000e+03) (1, 5.17187394047125579277e+01) (2, -1.50000000000000000000e+03) (3, 1.36962966603187709325e+02) (4, 1.50000000000000000000e+03) (5, -3.39580465173212644459e+01) (6, 1.04530657823277465468e+03) (7, -2.11412691993039913996e+02) (8, 1.50000000000000000000e+03) (9, -1.50905848583740237245e+02) (10, 1.50000000000000000000e+03) (11, -2.14260226463923437734e+01) (12, -5.49218368508075059253e+02) (13, -6.13141981019368884631e+01) (14, -1.50000000000000000000e+03) (15, 4.64133141548696599443e+01) (16, 7.37127704038849316248e+01) (17, -2.26662295165256580276e+02) (18, 3.46075892596467838302e+02) (19, -1.39594677950256880195e+01) (20, -1.40480503632595969066e+02) (21, -2.44504898090468969940e+02) (22, -1.50000000000000000000e+03) (23, -1.03410654744190281917e+02) (24, -1.50000000000000000000e+03) (25, 5.47753341563571360950e+00) (26, 1.50000000000000000000e+03) (27, 2.33348790222370503500e+01) (28, 1.50000000000000000000e+03) (29, 2.00740584862297225754e+02) (30, 1.50000000000000000000e+03) (31, -1.49781877230401164525e+02) (32, 1.50000000000000000000e+03) (33, -1.09068320626999309297e+02) (34, 1.50000000000000000000e+03) (35, -9.91410598313279081140e+01) (36, 1.50000000000000000000e+03) (37, -1.90751176146046987014e+02) (38, 1.50000000000000000000e+03) (39, 1.87105043881688803964e+00) (40, 1.50000000000000000000e+03) (41, -2.61015372322299299412e+02) (42, 1.50000000000000000000e+03) (43, -5.06332715389022325780e+02) (44, 1.50000000000000000000e+03) (45, 1.17886089162642960559e+02) (46, 1.50000000000000000000e+03) (47, -1.03899458594155660762e+02) (48, 1.50000000000000000000e+03) (49, -1.56961416090006366630e+02) (50, 1.50000000000000000000e+03) (51, 1.81215445738962372957e+01) (52, 1.50000000000000000000e+03) (53, -1.82978333877311513334e+02) (54, 1.50000000000000000000e+03) (55, -2.15003814586830600319e+02) (56, 1.50000000000000000000e+03) (57, -2.86491433921669340634e+02) (58, 5.95085055572850194494e+01) (59, 4.67108856447194327188e+01) (60, 1.50000000000000000000e+03) (61, 1.74427081585998053015e+02) (62, 1.50000000000000000000e+03) (63, -2.08271425896504837283e+02) (64, -1.50000000000000000000e+03) (65, -3.50920044584311909830e+01) (66, 4.06221508997908813399e+02) (67, 1.66401996501684521945e+02) (68, -1.50000000000000000000e+03) (69, -1.53183016691235224016e+02) (70, -6.83930426877172834565e+01) (0, 1.50000000000000000000e+03) (1, -3.25204701208836979731e+02) (2, 1.50000000000000000000e+03) (3, -7.62295200282838862904e+01) (4, -1.50000000000000000000e+03) (5, -1.09820827773927121029e+02) (6, -4.74760307913478527553e+02) (7, 3.49072475169455813671e+01) (8, -1.50000000000000000000e+03) (9, 6.01944788577584488642e-01) (10, -1.50000000000000000000e+03) (11, -7.66917382723895428853e+01) (12, -5.01661094681983570354e+02) (13, 3.75497706344748394258e+02) (14, 1.50000000000000000000e+03) (15, 1.38176764028485877134e+02) (16, -1.79237856785959053241e+02) (17, -2.45891518086215832284e+01) (18, -4.89787084014003767152e+02) (19, -1.72872242099672178028e+02) (20, -4.02452206661980255831e+02) (21, -1.58276075815142167613e+01) (22, 1.50000000000000000000e+03) (23, -2.12168026329882707159e+02) (24, 1.50000000000000000000e+03) (25, -1.19910484814731205461e+02) (26, -1.50000000000000000000e+03) (27, 1.50000000000000000000e+03) (28, -2.67323502650692887528e+02) (29, -2.35202721569211036012e+02) (30, -1.50000000000000000000e+03) (31, -3.23530798138058415248e+01) (32, -1.50000000000000000000e+03) (33, -2.47268215235202966085e+01) (34, -1.50000000000000000000e+03) (35, 2.05571468132028655873e+02) (36, -1.50000000000000000000e+03) (37, -2.99333102317181669605e+01) (38, -1.50000000000000000000e+03) (39, 8.65071064234707698404e+00) (40, -1.50000000000000000000e+03) (41, -1.27798659972022946363e+02) (42, -1.50000000000000000000e+03) (43, -5.53707144546098035676e+01) (44, -1.50000000000000000000e+03) (45, 3.65665556797270738798e+01) (46, -5.33416491427205869513e+02) (47, -1.14222960363186359700e+02) (48, -1.50000000000000000000e+03) (49, -2.87150558491698916441e+02) (50, 2.11878119967014697522e+02) (51, -3.73629517461372486764e+01) (52, -3.92402543840637250128e+01) (53, 6.67548786201942334628e+01) (54, -2.44974363568085635734e+02) (55, 7.02116595577182920351e+01) (56, -1.50000000000000000000e+03) (57, 1.15154750531690368121e+02) (58, -6.49038633170515222304e+00) (59, 2.76378890654980352792e+02) (60, -1.50000000000000000000e+03) (61, 2.26363887485933048538e+02) (62, -1.50000000000000000000e+03) (63, 4.45279763048226584488e+02) (64, 1.50000000000000000000e+03) (65, -1.81599073131094314704e+02) (66, -8.26417113165188993662e+02) (67, 1.27373504651474647176e+02) (68, 1.50000000000000000000e+03) (69, 8.00078016205609401368e+01) (70, 1.74810433286780295248e+02) (0, 1.50000000000000000000e+03) (1, -5.27064885317868547787e+00) (2, 1.50000000000000000000e+03) (3, -2.18812966037704967448e+02) (4, -1.50000000000000000000e+03) (5, -1.76973455988314128717e+02) (6, -3.04953986522870707176e+02) (7, 2.90087358535347732413e+02) (8, -1.50000000000000000000e+03) (9, -3.70205561688321040492e+02) (10, -1.50000000000000000000e+03) (11, 1.77295577406657002939e+02) (12, -8.11491074559124740517e+02) (13, 1.42905149550710923734e+01) (14, -1.41588683779344876257e+02) (15, -3.43689987360915552017e+02) (16, -5.62977780986961384713e+00) (17, -1.70263969231773799606e+01) (18, -2.98622893711173674092e+02) (19, -4.63100638225578862262e+01) (20, 6.95990871843352465476e+01) (21, 2.00027051272544611038e+02) (22, 1.50000000000000000000e+03) (23, 2.18777888770629033388e+02) (24, 1.50000000000000000000e+03) (25, -1.79549769157821174304e+02) (26, -1.50000000000000000000e+03) (27, -1.25703768388400121125e+02) (28, -1.50000000000000000000e+03) (29, -3.32070908749189186437e+01) (30, 3.00195717419591915132e+02) (31, -4.62795194349751568552e+01) (32, -1.50000000000000000000e+03) (33, 4.73861731910731123207e+01) (34, -1.50000000000000000000e+03) (35, -8.36832104001584866637e+01) (36, -1.50000000000000000000e+03) (37, 1.74605075646026193681e+02) (38, -1.50000000000000000000e+03) (39, -1.55318174203237020947e+02) (40, -1.26463984460878702265e+01) (41, -7.89686927143318939670e+01) (42, -1.50000000000000000000e+03) (43, 1.33866344745823454332e+02) (44, -1.50000000000000000000e+03) (45, -1.94806152114342019388e+01) (46, -1.50000000000000000000e+03) (47, 1.63199573957079309139e+02) (48, 4.51451027311100688166e+02) (49, 1.30427306071404700560e+02) (50, -1.50000000000000000000e+03) (51, -8.70957318297871552204e+01) (52, -3.13273368139734486704e+02) (53, 1.85581620630468762556e+02) (54, -1.50000000000000000000e+03) (55, 8.34159754896936789237e+00) (56, -1.50000000000000000000e+03) (57, -2.11781977105076180123e+02) (58, 1.85056186228494880197e+02) (59, -2.87260055420974310891e+02) (60, -1.50000000000000000000e+03) (61, -2.06221437015142555538e+02) (62, -1.50000000000000000000e+03) (63, -1.56408731529880782318e+02) (64, 1.50000000000000000000e+03) (65, 1.60011811843222318430e+02) (66, -2.98288559672416901947e+01) (67, 2.02342402459852621632e+02) (68, 1.50000000000000000000e+03) (69, -1.26642569476493065395e+01) (70, 1.89548064297308549442e+01) (0, 1.50000000000000000000e+03) (1, -3.65868277150188490054e+01) (2, 1.50000000000000000000e+03) (3, -1.69476446141881666563e+02) (4, -1.50000000000000000000e+03) (5, -2.50905937982918146645e+02) (6, -1.11689972631174873641e+03) (7, -2.30152449320757206408e+01) (8, -1.50000000000000000000e+03) (9, 3.37590198661775275468e+02) (10, -1.50000000000000000000e+03) (11, 2.83936055681112350157e+02) (12, 5.67799213855413313468e+02) (13, 4.24453768282867429207e+02) (14, 1.50000000000000000000e+03) (15, 1.29478422656807822477e+02) (16, -4.90207117005875602445e+02) (17, -9.59621763723036877991e+01) (18, -3.18208523682968007051e+02) (19, -3.50744505601793548522e+02) (20, 9.76733941876437370411e+01) (21, 2.91779545864724468629e+02) (22, 1.50000000000000000000e+03) (23, 5.64018553727537721443e+01) (24, 1.50000000000000000000e+03) (25, -5.16928805204343078117e+01) (26, -1.50000000000000000000e+03) (27, -1.91174086059785324210e+01) (28, -1.50000000000000000000e+03) (29, 1.21373114426162999280e+02) (30, -1.50000000000000000000e+03) (31, -1.93352705039891247907e+02) (32, -1.50000000000000000000e+03) (33, -1.58332971364757327137e+02) (34, -1.50000000000000000000e+03) (35, 6.28766758330610571193e+01) (36, -1.50000000000000000000e+03) (37, 1.51807981551636089534e+02) (38, -1.50000000000000000000e+03) (39, 1.74477105027246352620e+02) (40, -1.50000000000000000000e+03) (41, 1.85598233357099843488e+02) (42, -1.50000000000000000000e+03) (43, 3.85298197301164293549e+02) (44, -1.50000000000000000000e+03) (45, -7.88835172624574596512e+01) (46, -1.50000000000000000000e+03) (47, 2.08155192710308654114e+02) (48, -1.50000000000000000000e+03) (49, -8.32823479291454447093e+01) (50, -1.50000000000000000000e+03) (51, 9.00468039860005973196e+01) (52, -1.50000000000000000000e+03) (53, -2.28694101261500065903e+02) (54, -1.50000000000000000000e+03) (55, 3.92222914439727148306e+01) (56, -1.50000000000000000000e+03) (57, 1.11268242296798874236e+02) (58, 4.72703778988685314744e+01) (59, 9.69027481495325702099e+01) (60, -1.50000000000000000000e+03) (61, 1.26491270517759275549e+02) (62, -1.50000000000000000000e+03) (63, -1.92443476287013552906e+01) (64, 1.50000000000000000000e+03) (65, 6.70934820694781706152e+01) (66, -6.49018729070950143978e+02) (67, 1.10770079037981375336e+02) (68, 1.50000000000000000000e+03) (69, 5.48699157994106840874e+01) (70, 3.07816900104409171490e+02) (0, -1.50000000000000000000e+03) (1, -1.19698796837084046274e+02) (2, -1.50000000000000000000e+03) (3, 2.54789502814510456119e+02) (4, 1.50000000000000000000e+03) (5, 3.77284843266680312013e+01) (6, 1.44587348856293516519e+02) (7, -1.84500412748136255914e+02) (8, 1.50000000000000000000e+03) (9, 4.45312356292276589897e+01) (10, 1.50000000000000000000e+03) (11, 8.00109786276884449308e+01) (12, 1.27308486621143720186e+03) (13, -3.42863487957505867598e+02) (14, -5.37009725331630193068e+02) (15, -2.06354254677745501567e+02) (16, 5.84514674783812893111e+01) (17, -1.35347674124358576364e+02) (18, -7.21359974555238636640e+01) (19, -4.66501937101346264569e+00) (20, 9.24408877860223157086e+01) (21, 2.68975431583568081351e+02) (22, -1.50000000000000000000e+03) (23, -1.08747314851643906763e+02) (24, -1.50000000000000000000e+03) (25, -6.81607549919498012514e+01) (26, 1.50000000000000000000e+03) (27, -7.03723912249409835340e+01) (28, 1.50000000000000000000e+03) (29, -1.01311496553648879626e+02) (30, 1.50000000000000000000e+03) (31, 3.19863299007465172963e+02) (32, 1.50000000000000000000e+03) (33, 7.36249403742313179855e-01) (34, 1.50000000000000000000e+03) (35, 8.91116655853537054099e+01) (36, 1.50000000000000000000e+03) (37, 5.31353311091865734284e+01) (38, 1.50000000000000000000e+03) (39, -5.77164958847146394305e+01) (40, 6.02874127130858596502e+02) (41, -2.94952603784045550128e+02) (42, 1.50000000000000000000e+03) (43, -3.14817085540666248278e+01) (44, 1.50000000000000000000e+03) (45, -6.92124948781688829058e+01) (46, 1.50000000000000000000e+03) (47, -7.19932029449127952603e+01) (48, 1.50000000000000000000e+03) (49, 2.15504633476107500201e+02) (50, 1.50000000000000000000e+03) (51, 8.91555480046274482220e+01) (52, 1.50000000000000000000e+03) (53, 8.21649764919231557769e+01) (54, 1.50000000000000000000e+03) (55, -1.14140520574281396193e+02) (56, 1.50000000000000000000e+03) (57, -1.48184393743832970358e+02) (58, 5.89018607148894020042e+01) (59, -8.51432540371867219164e+01) (60, 1.50000000000000000000e+03) (61, 9.76860669113421486998e+00) (62, 1.50000000000000000000e+03) (63, 1.94505462955255325141e+02) (64, -1.50000000000000000000e+03) (65, 2.69958657874250206987e+02) (66, 1.28251127731069828997e+02) (67, -1.64875576063447539354e+02) (68, -1.50000000000000000000e+03) (69, 2.59298624847832250850e+01) (70, -1.80919769780883456178e+02) (0, -1.50000000000000000000e+03) (1, 4.51572077113006628224e+02) (2, -1.50000000000000000000e+03) (3, 4.79460452591811616685e+01) (4, 1.50000000000000000000e+03) (5, 2.04643476804607161057e+02) (6, 1.05328538377476638743e+03) (7, -3.77455043184396629385e+02) (8, 1.50000000000000000000e+03) (9, 3.30758043566542951908e+01) (10, 1.50000000000000000000e+03) (11, 2.12576361290328037512e+02) (12, -5.49218368508075059253e+02) (13, 1.73891591463125280370e+02) (14, -1.50000000000000000000e+03) (15, 6.15976736883531899025e+01) (16, 1.08616409243606710788e+02) (17, -4.25769603874244566555e+01) (18, 3.57862422137483292772e+02) (19, 1.19609049889910934894e+02) (20, 2.64760933308437131473e+02) (21, -2.40623962421523657440e+02) (22, -1.50000000000000000000e+03) (23, -1.28727518159203384585e+02) (24, -1.50000000000000000000e+03) (25, -2.08806086495751173970e+02) (26, 1.50000000000000000000e+03) (27, -8.10878404978089974975e+01) (28, 1.50000000000000000000e+03) (29, 3.68134417653763676981e+01) (30, 1.50000000000000000000e+03) (31, 2.00335942310879630668e+02) (32, 1.50000000000000000000e+03) (33, -7.31308211137275776537e+01) (34, 1.50000000000000000000e+03) (35, 3.82673019453341339613e+02) (36, 1.50000000000000000000e+03) (37, -2.08437237727193007686e+02) (38, 1.50000000000000000000e+03) (39, 2.45956454359318712477e+02) (40, 1.50000000000000000000e+03) (41, -2.02562270105437590928e+02) (42, 1.50000000000000000000e+03) (43, -5.96445577851952961623e+01) (44, 1.50000000000000000000e+03) (45, 6.30135453166557368831e+01) (46, 1.50000000000000000000e+03) (47, -9.55957613808757855622e+01) (48, 1.50000000000000000000e+03) (49, 3.34912625904133420818e+01) (50, 1.50000000000000000000e+03) (51, -2.73839287814141812305e+02) (52, 1.50000000000000000000e+03) (53, -1.34391777365952663104e+02) (54, 1.50000000000000000000e+03) (55, -1.69196823009682162819e+02) (56, 1.50000000000000000000e+03) (57, -6.14034135969609451422e+01) (58, 1.48703070376621269588e+02) (59, -6.60222626988864220721e+01) (60, 1.50000000000000000000e+03) (61, -2.53546639268907938458e+02) (62, 1.50000000000000000000e+03) (63, 2.06431482778043829285e+02) (64, -1.50000000000000000000e+03) (65, -1.31773105239769705577e+02) (66, 5.80076441782942879399e+02) (67, -1.32212812683230737321e+02) (68, -1.50000000000000000000e+03) (69, -3.29678536804142765959e+02) (70, 3.88407339597580858026e+02) (0, -1.50000000000000000000e+03) (1, 1.19429287805590405469e+02) (2, -1.50000000000000000000e+03) (3, 3.10483452500619030445e+01) (4, 1.50000000000000000000e+03) (5, 8.67063974524062643923e+01) (6, 8.27804113938344926282e+02) (7, 9.97896662528091695776e+01) (8, 1.50000000000000000000e+03) (9, -3.70821890911620414499e+02) (10, 1.50000000000000000000e+03) (11, 6.98519696021433276201e+01) (12, -5.49218368508075059253e+02) (13, -1.06959351147591164022e+02) (14, -1.50000000000000000000e+03) (15, -7.03519959139197226250e+00) (16, 2.60973535479568511164e+02) (17, 2.62565204475363564995e+01) (18, 5.72223216204865593681e+02) (19, 1.58747378324159722496e+01) (20, 1.79930926726290863371e+02) (21, -4.12160827655901016442e+02) (22, -1.50000000000000000000e+03) (23, 9.82675908002433118327e+01) (24, -1.50000000000000000000e+03) (25, 3.86447659290620251227e+01) (26, 1.50000000000000000000e+03) (27, -5.20689062017801575166e+02) (28, 1.50000000000000000000e+03) (29, -1.07586372840336224499e+02) (30, 1.50000000000000000000e+03) (31, -2.73968919466727129475e+02) (32, 1.50000000000000000000e+03) (33, -1.15521613473678996797e+02) (34, 1.50000000000000000000e+03) (35, -1.47870361283962097332e+02) (36, 1.50000000000000000000e+03) (37, -1.42474641111867015297e+02) (38, 1.50000000000000000000e+03) (39, -2.25260566855117225771e+01) (40, 1.50000000000000000000e+03) (41, -4.24705877764004924302e+01) (42, 1.50000000000000000000e+03) (43, -6.32619527547453159855e+01) (44, 1.50000000000000000000e+03) (45, 1.96107723073773399847e+02) (46, 1.50000000000000000000e+03) (47, -2.76593489355874964986e+02) (48, 1.50000000000000000000e+03) (49, 1.52120493089681133370e+02) (50, 1.50000000000000000000e+03) (51, -1.64297959591753908626e+02) (52, 1.50000000000000000000e+03) (53, -2.15621732938162118387e+01) (54, 1.50000000000000000000e+03) (55, -1.33460784801674350319e+02) (56, 1.50000000000000000000e+03) (57, -1.79941118391485552763e+01) (58, 1.27795275424228591987e+02) (59, 1.57344476342963048410e+02) (60, 1.50000000000000000000e+03) (61, 1.16475413800353820193e+02) (62, 1.50000000000000000000e+03) (63, -1.14606287651887399193e+02) (64, -1.50000000000000000000e+03) (65, -5.27332932157554097330e+01) (66, 6.59767056483261399080e+02) (67, -3.64442292368479883180e+01) (68, -1.50000000000000000000e+03) (69, -1.67467928800610224016e+02) (70, -3.13584883813184490009e+02) (0, -1.50000000000000000000e+03) (1, 1.91646756067287896030e+02) (2, -1.50000000000000000000e+03) (3, -5.01430161578238209330e+00) (4, 1.50000000000000000000e+03) (5, 3.77172782340101832688e+02) (6, 5.92272795273792894477e+02) (7, 2.56649621086794411440e+02) (8, 1.50000000000000000000e+03) (9, -3.54578375896974478110e+02) (10, 1.50000000000000000000e+03) (11, -3.75042887901909764992e+01) (12, -5.49218368508075059253e+02) (13, -3.03886381043786357736e+01) (14, -1.50000000000000000000e+03) (15, -2.88887106864392499972e+01) (16, -6.98469296083222559446e+01) (17, -9.30812023307849614184e+01) (18, 9.01937251239047327545e+02) (19, 1.38286723229753192754e+02) (20, 8.18506807546104511175e+01) (21, 2.36595703105820092560e+02) (22, -1.50000000000000000000e+03) (23, 1.44841641703567717059e+02) (24, -1.50000000000000000000e+03) (25, -2.42281431122960441371e+02) (26, 1.50000000000000000000e+03) (27, -3.06108404058817939131e+02) (28, 1.50000000000000000000e+03) (29, -4.85512509226119135519e+01) (30, 1.50000000000000000000e+03) (31, 1.48954450894598835475e+02) (32, 1.50000000000000000000e+03) (33, -3.53493064279342831924e+02) (34, 1.50000000000000000000e+03) (35, 1.16414405866914279386e+02) (36, 1.50000000000000000000e+03) (37, 4.60271364900091896288e+02) (38, 1.50000000000000000000e+03) (39, 7.04596830224352572714e+01) (40, 1.50000000000000000000e+03) (41, 9.22861184613915241925e+01) (42, 1.50000000000000000000e+03) (43, 5.50139642984768428846e+01) (44, 1.50000000000000000000e+03) (45, 5.81898153589345739078e+01) (46, 1.50000000000000000000e+03) (47, -1.49532296366525258691e+02) (48, 1.50000000000000000000e+03) (49, 1.31553171312336502297e+02) (50, 1.50000000000000000000e+03) (51, -1.36957078244097658626e+02) (52, 1.50000000000000000000e+03) (53, -1.65593041824088686553e+02) (54, 1.50000000000000000000e+03) (55, -1.39296630748939975319e+02) (56, 1.50000000000000000000e+03) (57, 1.10374014076378344384e+02) (58, -2.05620099331631934092e+02) (59, -6.95300506345771225369e+01) (60, 1.50000000000000000000e+03) (61, 1.84074481488341803015e+02) (62, 1.50000000000000000000e+03) (63, 1.59921689337870162717e+02) (64, -1.50000000000000000000e+03) (65, 4.29806345303552632231e+02) (66, 7.38602047938340660949e+02) (67, 7.59533881032403286326e+01) (68, -1.50000000000000000000e+03) (69, 1.43881436433764775984e+02) (70, 2.14228775854741314788e+02) (0, 1.50000000000000000000e+03) (1, 3.34596017907131226821e+02) (2, 1.50000000000000000000e+03) (3, -1.77185465884369932610e+02) (4, -1.50000000000000000000e+03) (5, 6.52505130152260051091e+01) (6, -8.11559540396394254458e+02) (7, 5.54558766154327827280e+02) (8, -1.50000000000000000000e+03) (9, 8.91442253297408484514e+01) (10, -1.50000000000000000000e+03) (11, 6.37767902075150416863e+01) (12, 5.67799213855413313468e+02) (13, 2.21037373312897727828e+02) (14, 1.50000000000000000000e+03) (15, -2.11955718229657350093e+02) (16, -9.20682589215518589754e+01) (17, -6.04428812241191408816e+01) (18, 1.06392217150983469764e+02) (19, 6.63170558027135967905e+01) (20, -1.22229014929419065538e+02) (21, -2.19438708277438166760e+02) (22, 1.50000000000000000000e+03) (23, -2.00489477157089680759e+02) (24, 1.50000000000000000000e+03) (25, 1.46722638216244433806e+02) (26, -1.50000000000000000000e+03) (27, 3.42645089327119308109e+02) (28, -1.50000000000000000000e+03) (29, -4.51973715379836988859e+01) (30, -1.50000000000000000000e+03) (31, 5.80219913241728377784e+01) (32, -1.50000000000000000000e+03) (33, 1.23521127897476318935e+02) (34, -1.50000000000000000000e+03) (35, -1.46683888769263546692e+02) (36, -1.50000000000000000000e+03) (37, 2.95547208880190112268e+02) (38, -1.50000000000000000000e+03) (39, 1.75612965289231908628e+02) (40, -1.50000000000000000000e+03) (41, 1.49154949836801449692e+02) (42, -1.50000000000000000000e+03) (43, -1.00810931180150348041e+02) (44, -1.50000000000000000000e+03) (45, 4.99976645965187387333e+01) (46, -1.50000000000000000000e+03) (47, 2.30010499118732411716e+02) (48, -1.50000000000000000000e+03) (49, 1.35975885343827656015e+02) (50, -1.50000000000000000000e+03) (51, -2.42773236049136585279e+02) (52, -1.50000000000000000000e+03) (53, 5.76231928216358895156e+01) (54, -1.50000000000000000000e+03) (55, -1.27880836410740812426e+02) (56, -1.50000000000000000000e+03) (57, 1.33883778428989842268e+02) (58, -2.42322092839969315037e+02) (59, 2.63189470328144864197e+02) (60, -1.50000000000000000000e+03) (61, -9.82207260553287824223e+01) (62, -1.50000000000000000000e+03) (63, -2.84562246058535173177e+01) (64, 1.50000000000000000000e+03) (65, -1.15054408767893718846e+02) (66, -5.29457367758081772990e+02) (67, 2.55514569190483939565e+02) (68, 1.50000000000000000000e+03) (69, -1.35881116299319804064e+00) (70, 6.18692438512739215639e+01) (0, -1.50000000000000000000e+03) (1, -2.71871830794685145349e+01) (2, -1.50000000000000000000e+03) (3, -6.12274900667714447877e+01) (4, 1.50000000000000000000e+03) (5, -1.90806910678666156400e+02) (6, 1.28062771135921047971e+03) (7, 2.95760153970484054753e+02) (8, 1.50000000000000000000e+03) (9, -1.02505858691891205581e+02) (10, 1.50000000000000000000e+03) (11, 1.41765467111213553153e+02) (12, -5.49218368508075059253e+02) (13, 7.51725043613284356070e+01) (14, -1.50000000000000000000e+03) (15, -1.57062122539129177312e+02) (16, 4.68607004886127128884e+02) (17, -1.43045620061584344285e+02) (18, -5.51212854548420025935e+01) (19, 3.20251241883259694987e+02) (20, -2.41807965309960366085e+02) (21, -4.01814695194311539694e+01) (22, -1.50000000000000000000e+03) (23, 6.06468006308258509307e+01) (24, -1.50000000000000000000e+03) (25, -1.36882551184221000540e+02) (26, 1.50000000000000000000e+03) (27, 3.33970173858854479931e+02) (28, 1.50000000000000000000e+03) (29, -5.87247004876954221686e+01) (30, 1.50000000000000000000e+03) (31, 1.99134068099557794085e+02) (32, 1.42527723539834914845e+03) (33, -1.89512539659148089299e+01) (34, 1.43364276663870532502e+03) (35, 8.97082943844216345042e+01) (36, 1.50000000000000000000e+03) (37, -2.08278497148623074509e+02) (38, 1.50000000000000000000e+03) (39, 1.60352067171971583548e+02) (40, 4.61473995509599319575e+02) (41, 7.97431889601239305421e+01) (42, -8.99944124757618340027e+01) (43, 5.56116106596551986740e+01) (44, 1.50000000000000000000e+03) (45, 2.48942403523860491532e+01) (46, 1.50000000000000000000e+03) (47, -2.22338200210196248463e+01) (48, 1.50000000000000000000e+03) (49, 3.32724543040777746228e+02) (50, 1.50000000000000000000e+03) (51, 1.49961600993515503433e+02) (52, 2.05975205832559055352e+02) (53, -2.60106979890018585877e+01) (54, 8.25678372783103640131e+01) (55, -1.99303516447221028329e+02) (56, 1.50000000000000000000e+03) (57, 3.65402603529665341853e+01) (58, 6.56246280518532216774e+01) (59, -2.34617732483519972675e+02) (60, 1.50000000000000000000e+03) (61, 1.34038217617460190922e+02) (62, 1.50000000000000000000e+03) (63, -6.99898002738568152381e+01) (64, -1.50000000000000000000e+03) (65, -7.55962969712992531868e+01) (66, 3.00301816004744125621e+02) (67, 4.04423527047367272758e+01) (68, -1.50000000000000000000e+03) (69, -1.77988179511146398681e+02) (70, -2.05122590718018983580e+02) (0, -1.50000000000000000000e+03) (1, 1.06917660608324780469e+02) (2, -1.50000000000000000000e+03) (3, -8.03768924055784594884e+01) (4, 1.50000000000000000000e+03) (5, -1.31878075203845583019e+02) (6, 8.21043211533559656345e+02) (7, -2.36840460700314963560e+02) (8, 1.50000000000000000000e+03) (9, -1.56966261944336054057e+02) (10, 1.50000000000000000000e+03) (11, -4.33251582359917577492e+01) (12, -5.49218368508075059253e+02) (13, -2.12432514752328188479e+02) (14, -1.50000000000000000000e+03) (15, 1.46509127906090668603e+02) (16, -5.52761135682830442306e+01) (17, 6.06802799079856995945e+01) (18, 7.19114638855303667242e+01) (19, -3.81276597048158620851e+01) (20, 3.77926051543182779824e+02) (21, -1.26060668964492691657e+02) (22, -1.50000000000000000000e+03) (23, -7.18430125322762194173e+01) (24, -1.50000000000000000000e+03) (25, 8.71906224048936735471e+01) (26, 1.50000000000000000000e+03) (27, -2.40025892156961674573e+02) (28, 1.50000000000000000000e+03) (29, -1.85892914283210586746e+02) (30, 1.50000000000000000000e+03) (31, 2.02321093571252816901e+01) (32, 1.50000000000000000000e+03) (33, -9.24740063645948318083e+00) (34, 1.50000000000000000000e+03) (35, -1.79577056840602722332e+02) (36, 1.50000000000000000000e+03) (37, -2.87871472624319949318e+02) (38, 1.50000000000000000000e+03) (39, 2.61693066201147871652e+02) (40, 1.50000000000000000000e+03) (41, -1.27381243751742388781e+02) (42, 1.50000000000000000000e+03) (43, -3.84073193904649315300e+02) (44, 1.50000000000000000000e+03) (45, 9.31196783350084018593e+01) (46, 1.50000000000000000000e+03) (47, -3.03542608923747081917e+02) (48, 1.50000000000000000000e+03) (49, -1.90362833385414447207e+01) (50, 1.50000000000000000000e+03) (51, -2.65861420895464050318e+02) (52, 1.50000000000000000000e+03) (53, -1.62944191383109739490e+02) (54, 1.50000000000000000000e+03) (55, -2.59153243908118895433e+02) (56, 1.50000000000000000000e+03) (57, -1.04669381919715405616e+02) (58, 3.62151385043369941741e+02) (59, -2.67624227880671355706e+02) (60, 1.50000000000000000000e+03) (61, -2.14317776202087884485e+02) (62, 1.50000000000000000000e+03) (63, -2.51350680046895462283e+02) (64, -1.50000000000000000000e+03) (65, -6.27958122892417378580e+01) (66, 5.02937363642683237686e+02) (67, -4.55025859943649720663e+02) (68, -1.50000000000000000000e+03) (69, 1.80315503206225713484e+02) (70, 1.27193779822048341543e+02) (0, -1.50000000000000000000e+03) (1, 1.12143974515283275650e+01) (2, -1.50000000000000000000e+03) (3, -3.77845351214790127869e+02) (4, 1.50000000000000000000e+03) (5, 1.10419187516757048684e+02) (6, 9.42981787278188221535e+02) (7, -1.59267616459444809607e+02) (8, 1.50000000000000000000e+03) (9, -1.68484032461386277646e+02) (10, 1.50000000000000000000e+03) (11, 4.92081931086684321031e+01) (12, -5.49218368508075059253e+02) (13, 3.43968862857418926637e+01) (14, -1.50000000000000000000e+03) (15, -1.71739548318727415221e+01) (16, -3.23140926942596351523e+01) (17, 1.79373624024196544724e+02) (18, 3.77163032928604991412e+02) (19, 8.87543135617859348940e+01) (20, 1.14426791218598751243e+02) (21, -2.14218215961562719940e+02) (22, -1.50000000000000000000e+03) (23, -2.83279456218592599726e+02) (24, -1.50000000000000000000e+03) (25, 1.39208605871938971177e+02) (26, 1.50000000000000000000e+03) (27, 9.35409564243780522474e+01) (28, 1.50000000000000000000e+03) (29, 1.75253554833000350754e+02) (30, 1.50000000000000000000e+03) (31, 1.39953632693443239532e+02) (32, 1.50000000000000000000e+03) (33, -4.81301485993972377742e+00) (34, 1.50000000000000000000e+03) (35, -2.29821945146266784832e+02) (36, 1.50000000000000000000e+03) (37, 1.22058166858896541385e+02) (38, 1.50000000000000000000e+03) (39, 5.33189538579250310590e+01) (40, 1.50000000000000000000e+03) (41, 1.07240639270206742140e+02) (42, 1.50000000000000000000e+03) (43, 8.17808769615547674903e+01) (44, 1.50000000000000000000e+03) (45, -1.41259622283781908436e+02) (46, 1.50000000000000000000e+03) (47, -1.17387594778429846798e+01) (48, 1.50000000000000000000e+03) (49, -1.80706766490882984044e+01) (50, 1.50000000000000000000e+03) (51, 1.64285548218398744780e+01) (52, 1.50000000000000000000e+03) (53, -3.66623040946680532670e+02) (54, 1.50000000000000000000e+03) (55, -1.25715331920815103217e+02) (56, 1.50000000000000000000e+03) (57, 1.04004671132418536672e+02) (58, 8.43809306366309357372e+01) (59, 2.32653574523179173639e+02) (60, 1.50000000000000000000e+03) (61, -1.11620728988452313502e+02) (62, 1.50000000000000000000e+03) (63, 7.11576421433138364137e+01) (64, -1.50000000000000000000e+03) (65, -1.28286912231849665744e+01) (66, 5.66463828581801635664e+02) (67, 1.71876790380691403470e+02) (68, -1.50000000000000000000e+03) (69, 1.19120042816821410270e+02) (70, 1.36368557932623133411e+02) (0, 1.50000000000000000000e+03) (1, 8.96088891428863405508e+01) (2, 1.50000000000000000000e+03) (3, 9.53454876928900141309e+00) (4, -1.50000000000000000000e+03) (5, 1.06157538579579977522e+02) (6, -8.00684570913972720518e+02) (7, 4.85063691426303407184e+01) (8, -1.50000000000000000000e+03) (9, -2.42151297073658220427e+01) (10, -1.50000000000000000000e+03) (11, 2.76118123552206100157e+02) (12, 5.67799213855413313468e+02) (13, 1.36754461794830604049e+02) (14, 1.50000000000000000000e+03) (15, -1.56250665172780770718e+02) (16, 1.00588806004220043810e+00) (17, -7.16707716481825940491e+01) (18, -6.25290303162949840043e+02) (19, -7.32551943835321566212e+01) (20, -2.29159049049660893616e+02) (21, 5.08038073393322235916e+01) (22, 1.50000000000000000000e+03) (23, -7.87278481489768751089e+01) (24, 1.50000000000000000000e+03) (25, -9.27205551585933562819e+00) (26, -1.50000000000000000000e+03) (27, 2.49088073876931105133e+02) (28, -1.50000000000000000000e+03) (29, -1.49794678847759485052e+02) (30, -1.50000000000000000000e+03) (31, -9.78010464095218310376e+01) (32, -1.50000000000000000000e+03) (33, 2.06108663767078610363e+02) (34, -1.50000000000000000000e+03) (35, -3.99817378632288296103e+01) (36, -1.50000000000000000000e+03) (37, 4.18644506515014143133e+02) (38, -1.50000000000000000000e+03) (39, 6.53508232889637099561e+01) (40, -1.50000000000000000000e+03) (41, 1.58781498089460626488e+02) (42, -1.50000000000000000000e+03) (43, 1.65603486569656638494e+02) (44, -1.50000000000000000000e+03) (45, 2.92777958872793249157e+02) (46, -1.50000000000000000000e+03) (47, 1.76247865058330717147e+02) (48, -1.50000000000000000000e+03) (49, 8.21900056633722897459e+00) (50, -1.50000000000000000000e+03) (51, 3.44223599945472358286e+02) (52, -1.50000000000000000000e+03) (53, -7.31064852947017840279e+01) (54, -1.50000000000000000000e+03) (55, 3.38000424836305967347e+02) (56, -1.50000000000000000000e+03) (57, 1.30040710863693874444e+02) (58, -3.22819191192929054068e+02) (59, 1.64147043269771984342e+02) (60, -1.50000000000000000000e+03) (61, 6.51542822336612971412e+02) (62, -1.50000000000000000000e+03) (63, -3.12775374468907330083e+02) (64, 1.50000000000000000000e+03) (65, -6.73372506575726106348e+01) (66, -8.45532011846831665025e+02) (67, -2.61852031733216286113e+01) (68, 1.50000000000000000000e+03) (69, -1.95930861635871991666e+02) (70, 1.94243352741186384947e+02) (0, -1.50000000000000000000e+03) (1, -3.48357548688589361063e+02) (2, -1.50000000000000000000e+03) (3, 2.21642923787310394346e+02) (4, 1.50000000000000000000e+03) (5, -7.42869359711371259891e+01) (6, 8.69066959931387032157e+02) (7, -2.50569238085377207881e+02) (8, 1.50000000000000000000e+03) (9, -3.05137550648907506456e+02) (10, 1.50000000000000000000e+03) (11, 1.09054614346491831611e+02) (12, -5.49218368508075059253e+02) (13, -1.89967917730199246762e+02) (14, -1.50000000000000000000e+03) (15, -7.55584608792572680613e+01) (16, 5.08928965940703008641e+01) (17, -1.59188359437360389848e+02) (18, 7.50151347308383265045e+02) (19, 3.22537880308338287705e+02) (20, 1.58055171416231246440e+02) (21, -1.48486402517553017333e+02) (22, -1.50000000000000000000e+03) (23, -8.14961607102844141082e+01) (24, -1.50000000000000000000e+03) (25, 1.24801114419362363606e+02) (26, 1.50000000000000000000e+03) (27, -3.02139303357368362413e+02) (28, 1.50000000000000000000e+03) (29, 1.06391131482015126153e+02) (30, 1.50000000000000000000e+03) (31, -7.36473466282767219582e+01) (32, 1.50000000000000000000e+03) (33, -2.28574095835545733735e+02) (34, 1.50000000000000000000e+03) (35, 8.77005843694711018088e+01) (36, 1.50000000000000000000e+03) (37, -6.77203319168501423064e+01) (38, 1.50000000000000000000e+03) (39, 8.40482314250384732190e+00) (40, 1.50000000000000000000e+03) (41, -4.01456135742375806785e+02) (42, 1.50000000000000000000e+03) (43, -2.09925550411683957464e+02) (44, 1.50000000000000000000e+03) (45, 1.09235144280036493569e+02) (46, 1.50000000000000000000e+03) (47, -7.15157708978824331325e+01) (48, 1.50000000000000000000e+03) (49, -1.83357265231219827228e+02) (50, 1.50000000000000000000e+03) (51, 6.82209333529465737911e+01) (52, 1.50000000000000000000e+03) (53, -5.17474449030922301063e+02) (54, 1.50000000000000000000e+03) (55, 1.29951048811665231142e+02) (56, 1.50000000000000000000e+03) (57, -3.79087766925251742123e+02) (58, 2.69330248568760509897e+02) (59, -1.73375919091911498526e+02) (60, 1.50000000000000000000e+03) (61, 1.33026485427064898204e+02) (62, 1.50000000000000000000e+03) (63, -5.60960119839562736388e+01) (64, -1.50000000000000000000e+03) (65, -1.36559412844399446385e+02) (66, 4.96222428339949146903e+02) (67, -3.33502905373237865660e+02) (68, -1.50000000000000000000e+03) (69, -1.71387074254770737980e+02) (70, 5.42320089406426077971e+01) (0, -1.50000000000000000000e+03) (1, 1.98011277670308771803e+02) (2, -1.50000000000000000000e+03) (3, 3.22419420232378911351e+02) (4, 1.50000000000000000000e+03) (5, -4.95098989169770362651e+01) (6, 7.71133070542348718845e+02) (7, -1.38253663828657550994e+02) (8, 1.50000000000000000000e+03) (9, -2.18966084396204898610e+01) (10, 1.50000000000000000000e+03) (11, -4.45047578845089617516e+01) (12, -5.49218368508075059253e+02) (13, -5.43550583080201050734e+01) (14, -1.50000000000000000000e+03) (15, -7.08376944851309247042e+01) (16, 4.57878626459725524001e+02) (17, 1.16737594046282822546e+02) (18, -1.11123798039664833937e+02) (19, 3.45586623487254911424e+01) (20, 1.48489205424242686604e+03) (21, 1.00424059272242743646e+02) (22, -1.50000000000000000000e+03) (23, 1.53437623312671078679e+01) (24, -1.50000000000000000000e+03) (25, -2.34409488333643594160e+02) (26, 1.50000000000000000000e+03) (27, -5.45312061773160650091e+01) (28, 1.50000000000000000000e+03) (29, -1.67506268497749857715e+02) (30, 1.53831703050319703152e+02) (31, -1.27767357327650486809e+02) (32, 1.50000000000000000000e+03) (33, 1.82411632061148992534e+02) (34, 1.50000000000000000000e+03) (35, -1.44291047871835502292e+02) (36, 1.50000000000000000000e+03) (37, -8.89707868517215274551e+01) (38, 1.50000000000000000000e+03) (39, -4.27485915320333106138e+02) (40, 6.25873557906055225430e+02) (41, -1.50680118016221314292e+02) (42, 1.50000000000000000000e+03) (43, 1.78417201941227773432e+02) (44, 1.50000000000000000000e+03) (45, -1.19702978309034691051e+02) (46, 1.50000000000000000000e+03) (47, 7.62260755280236423914e+01) (48, 1.50000000000000000000e+03) (49, -6.83213712640353350025e+01) (50, 1.50000000000000000000e+03) (51, 6.35200706773002821137e+01) (52, 1.50000000000000000000e+03) (53, 2.09980438429297777247e+02) (54, 1.50000000000000000000e+03) (55, -1.34234192478998323850e+02) (56, 1.50000000000000000000e+03) (57, 5.43894288486356387580e+01) (58, 1.82151120646978228024e+02) (59, -2.51874693524249799736e+01) (60, 1.50000000000000000000e+03) (61, -1.87178040848127750451e+02) (62, 1.50000000000000000000e+03) (63, 9.84540121862556247834e+01) (64, -1.50000000000000000000e+03) (65, 2.36792108482238603528e+02) (66, 7.29916997124949716635e+02) (67, -2.74678857496956254636e+02) (68, -1.50000000000000000000e+03) (69, -1.75741335323768254284e+02) (70, 5.21105427369978713159e+01) (0, 1.50000000000000000000e+03) (1, 3.20617586652619593224e+02) (2, 1.50000000000000000000e+03) (3, -5.77584056755935364436e+01) (4, -1.50000000000000000000e+03) (5, 4.82834464775306884121e+01) (6, -7.64954445486726285708e+02) (7, 3.22473740864779117032e+01) (8, -1.50000000000000000000e+03) (9, 5.65631906051333146479e+01) (10, -1.50000000000000000000e+03) (11, 1.74714467546348856786e+02) (12, 5.67799213855413313468e+02) (13, 3.62641832858064901757e+02) (14, 1.50000000000000000000e+03) (15, -2.41316934093679208218e+02) (16, -3.44083414002946597066e+02) (17, 6.19357194406843305501e+01) (18, -5.11841654710192017319e+02) (19, 3.27009766859143951478e+02) (20, -1.67225607887550410169e+02) (21, 1.78599202236792876874e+02) (22, 1.50000000000000000000e+03) (23, -2.95851909733450042950e+02) (24, 1.50000000000000000000e+03) (25, 1.62913644900727035747e+02) (26, -1.50000000000000000000e+03) (27, 4.22648842004372511383e+02) (28, -1.50000000000000000000e+03) (29, 4.06594036412520409840e+01) (30, -1.50000000000000000000e+03) (31, -8.66716442488772997876e+01) (32, -1.50000000000000000000e+03) (33, 4.09592220137412432734e+00) (34, -1.50000000000000000000e+03) (35, 3.70338833220739047647e+01) (36, -1.50000000000000000000e+03) (37, 4.31113164962279768133e+02) (38, -1.50000000000000000000e+03) (39, 1.57535683518457290120e+02) (40, -1.50000000000000000000e+03) (41, 2.80254225865034413800e+02) (42, -1.50000000000000000000e+03) (43, 2.23586351903213653713e+02) (44, -1.50000000000000000000e+03) (45, 3.15056370738027624157e+02) (46, -1.50000000000000000000e+03) (47, 4.14146533347514207435e+02) (48, -1.50000000000000000000e+03) (49, 3.33337828997116076835e+01) (50, -1.50000000000000000000e+03) (51, 3.04271769870997488283e+01) (52, -1.50000000000000000000e+03) (53, -4.64433993572020966667e+01) (54, -1.50000000000000000000e+03) (55, 2.30021161530642444859e+02) (56, -1.50000000000000000000e+03) (57, -9.93383784917753445143e+01) (58, -4.49905113434138456796e+02) (59, 3.95221584361692237053e+02) (60, -1.50000000000000000000e+03) (61, 3.02918324226667827759e+01) (62, -1.50000000000000000000e+03) (63, -3.36321639117344830083e+02) (64, 1.50000000000000000000e+03) (65, 3.06962782911740930558e+02) (66, -6.98821028570462544849e+02) (67, -4.19774697878518168181e+02) (68, 1.50000000000000000000e+03) (69, 9.25077522557046734164e+01) (70, 1.57921560706310994959e+01) (0, -1.50000000000000000000e+03) (1, 2.52662166780432556834e+02) (2, -1.50000000000000000000e+03) (3, -1.94121828922378192317e+01) (4, 1.50000000000000000000e+03) (5, -2.51847695342677262431e+01) (6, 9.85723929001820692974e+02) (7, -2.97131975798141283462e+01) (8, 1.50000000000000000000e+03) (9, 1.68521554238111292534e+02) (10, 1.50000000000000000000e+03) (11, 2.50043716608950262525e+02) (12, -5.49218368508075059253e+02) (13, 4.45621008869761823235e+01) (14, -1.50000000000000000000e+03) (15, -1.58380674659454200537e+02) (16, 7.91786250486603933041e+01) (17, 6.34048206184349183445e+01) (18, 6.10290591387970835058e+02) (19, -1.05527523901592971356e+02) (20, -1.17268040253689733277e+02) (21, 1.11678787212264680306e+02) (22, -1.50000000000000000000e+03) (23, -2.07800058938379720530e+02) (24, -1.50000000000000000000e+03) (25, -1.05370902243473537396e+02) (26, 1.50000000000000000000e+03) (27, -6.15845118211273359066e+01) (28, 1.50000000000000000000e+03) (29, -1.81318710791999649246e+02) (30, 1.50000000000000000000e+03) (31, -3.81592606350144052385e+01) (32, 1.50000000000000000000e+03) (33, 1.31278031964063828241e+01) (34, 1.50000000000000000000e+03) (35, -2.37334869340602722332e+02) (36, 1.50000000000000000000e+03) (37, 3.93451264394863812868e+02) (38, 1.50000000000000000000e+03) (39, 4.05779948649904937952e+01) (40, 1.50000000000000000000e+03) (41, 4.23650183773925093078e+01) (42, 1.50000000000000000000e+03) (43, -1.85702291711573970190e+01) (44, 1.50000000000000000000e+03) (45, 7.31880383721023690669e+01) (46, 1.50000000000000000000e+03) (47, 1.94211145334463338941e+02) (48, 1.50000000000000000000e+03) (49, -2.19081411207193866630e+02) (50, 1.50000000000000000000e+03) (51, -5.21312868421867051438e+02) (52, 1.50000000000000000000e+03) (53, -9.05132346532363669667e+01) (54, 1.50000000000000000000e+03) (55, -1.66163604625893100319e+02) (56, 1.50000000000000000000e+03) (57, 3.19127317073543281367e+02) (58, 6.56049411041599910277e+01) (59, -5.59199013173415906408e+01) (60, 1.50000000000000000000e+03) (61, 6.61730310001926085306e+01) (62, 1.50000000000000000000e+03) (63, 5.51444131741846810257e+00) (64, -1.50000000000000000000e+03) (65, -1.09481273776821659283e+01) (66, 7.27488171595566086580e+02) (67, -1.48365614386202402386e+01) (68, -1.50000000000000000000e+03) (69, -4.79779439986669942186e+00) (70, 1.72541572508412940579e+02) (0, -1.50000000000000000000e+03) (1, 2.83732129669411847317e+02) (2, -1.50000000000000000000e+03) (3, 3.70045096482534290772e+02) (4, 1.50000000000000000000e+03) (5, 2.15199609564324077837e+02) (6, 7.92922865464224287280e+02) (7, -1.23215106717236807299e+02) (8, 1.50000000000000000000e+03) (9, 4.88231193956001945367e+01) (10, 1.50000000000000000000e+03) (11, 1.69116185783941261889e+02) (12, -5.49218368508075059253e+02) (13, 1.06690735873597702721e+02) (14, -1.50000000000000000000e+03) (15, 4.89779791064246694532e+01) (16, 1.72287309355342301842e+02) (17, -2.25748091539670667771e+02) (18, 2.84943776150668668379e+02) (19, -1.15458831467937823589e+01) (20, 3.81668164570113560785e+02) (21, 1.46421430051003909512e+02) (22, -1.50000000000000000000e+03) (23, -1.15261565368231472917e+02) (24, -1.50000000000000000000e+03) (25, -4.69780227172285378856e+02) (26, 1.50000000000000000000e+03) (27, -1.33917913053894295672e+02) (28, 1.50000000000000000000e+03) (29, 2.41808309133996004903e+02) (30, 1.50000000000000000000e+03) (31, -1.21069364855008842596e+02) (32, 1.50000000000000000000e+03) (33, -3.25288331606344399916e+02) (34, 1.50000000000000000000e+03) (35, 5.50879977149883437448e+00) (36, 1.50000000000000000000e+03) (37, -1.64124758303247972435e+02) (38, 1.50000000000000000000e+03) (39, 2.60928093521217874695e+02) (40, 1.50000000000000000000e+03) (41, -1.32667217676721378439e+02) (42, 1.50000000000000000000e+03) (43, -4.61201553072641274866e+01) (44, 1.50000000000000000000e+03) (45, -2.12453258310869216530e+02) (46, 1.50000000000000000000e+03) (47, 1.22670492024893590610e+02) (48, 1.50000000000000000000e+03) (49, 5.61397721698249867472e+01) (50, 1.50000000000000000000e+03) (51, 2.72581993288124868613e+00) (52, 1.50000000000000000000e+03) (53, -1.23035654394451825056e+02) (54, 1.50000000000000000000e+03) (55, 5.74764696410742459420e+01) (56, 1.50000000000000000000e+03) (57, 1.70933159026090606858e+02) (58, 1.05719107394760513330e+02) (59, -6.30118584677964008733e+01) (60, 1.50000000000000000000e+03) (61, 1.45525354275211526556e+02) (62, 1.50000000000000000000e+03) (63, -1.83544281376069505995e+02) (64, -1.50000000000000000000e+03) (65, -1.57021209584262521730e+02) (66, 5.03612206477155950779e+02) (67, -1.95553959300721118097e+02) (68, -1.50000000000000000000e+03) (69, -1.13113382427261086605e+02) (70, 1.80985413379422283242e+02) (0, -1.50000000000000000000e+03) (1, 1.63533883190229545335e+02) (2, -1.50000000000000000000e+03) (3, 7.99000856624156767793e+01) (4, 1.50000000000000000000e+03) (5, 7.90688503342315556210e+01) (6, 1.11820616577378223155e+03) (7, -1.27224673680678122878e+02) (8, 1.50000000000000000000e+03) (9, 1.35343178606480147863e+01) (10, 1.50000000000000000000e+03) (11, 5.64358881826536844528e+01) (12, -5.49218368508075059253e+02) (13, 1.07154712215595168345e+02) (14, -1.50000000000000000000e+03) (15, 2.61129895019472201056e+02) (16, 5.25568783417177769479e+02) (17, -2.68149515493975343361e+02) (18, 3.96835570418892473299e+02) (19, -2.65356116035558784461e+02) (20, 2.38608027428282042592e+02) (21, -3.75604392107661499978e+00) (22, -1.50000000000000000000e+03) (23, 1.61308477899934543665e+00) (24, -1.50000000000000000000e+03) (25, -1.71460102236647230711e+02) (26, 1.50000000000000000000e+03) (27, 1.65861627882267384848e+02) (28, 1.50000000000000000000e+03) (29, -3.11198015967607375387e+02) (30, 1.50000000000000000000e+03) (31, 7.08003942961653365273e+01) (32, 1.50000000000000000000e+03) (33, -6.57029894739385156299e+01) (34, 1.50000000000000000000e+03) (35, -3.75400679413304629861e+01) (36, 1.50000000000000000000e+03) (37, -4.17057339089740708005e+02) (38, 1.50000000000000000000e+03) (39, 5.94294699762960831890e+01) (40, 1.50000000000000000000e+03) (41, -1.76701765287293966367e+02) (42, 1.50000000000000000000e+03) (43, 7.16831092167611245713e+01) (44, 1.50000000000000000000e+03) (45, 1.82046468616248830585e+02) (46, 1.50000000000000000000e+03) (47, 1.55915103944218486731e+02) (48, 1.50000000000000000000e+03) (49, 2.48508152160408108955e+01) (50, 1.50000000000000000000e+03) (51, 1.81894946513280643785e+02) (52, 1.50000000000000000000e+03) (53, 1.46444750707634597120e+02) (54, 1.50000000000000000000e+03) (55, 6.57795715720397708992e+01) (56, 1.50000000000000000000e+03) (57, 3.32160911546160775742e+02) (58, 1.46669321749912228370e+02) (59, 3.95190035086072342096e+01) (60, 1.50000000000000000000e+03) (61, 3.00938784149283549141e+02) (62, 1.50000000000000000000e+03) (63, -2.20707524045922440337e+02) (64, -1.50000000000000000000e+03) (65, 2.43217079201591985793e+01) (66, 4.61983418482771071467e+02) (67, 4.83522079378393527804e+01) (68, -1.50000000000000000000e+03) (69, -2.75500389982313258486e+01) (70, 4.22182940793262915236e+01) (0, -1.50000000000000000000e+03) (1, 8.99802830776140183389e+01) (2, -1.50000000000000000000e+03) (3, 2.83550376524124274624e+01) (4, 1.50000000000000000000e+03) (5, -3.02955748521687439734e+02) (6, 1.02947053392125144455e+03) (7, 1.13279266966916068782e+02) (8, 1.50000000000000000000e+03) (9, 9.85781310580039900060e+01) (10, 1.50000000000000000000e+03) (11, 8.99144913500857683175e+01) (12, 1.50000000000000000000e+03) (13, 1.72480227468477892216e+02) (14, -1.50000000000000000000e+03) (15, -3.25925916153192474667e+02) (16, -2.80455710622214780869e+02) (17, 6.48107985931716115147e+01) (18, 1.87844722161186325593e+02) (19, -2.51045977805643360625e+02) (20, 3.14744518554355124706e+02) (21, 2.40220097358866723880e+02) (22, -1.50000000000000000000e+03) (23, -1.00905183371795232006e+02) (24, -1.50000000000000000000e+03) (25, -1.40411657048923842694e+02) (26, 1.50000000000000000000e+03) (27, 1.67556637572236610367e+02) (28, 1.94100479303021359101e+02) (29, -6.44616107922458212443e+01) (30, 4.65372160807063153243e+02) (31, -2.69632168493791994024e+02) (32, 1.50000000000000000000e+03) (33, 6.57845941278361721061e+01) (34, 1.50000000000000000000e+03) (35, -1.69744244603260710846e+02) (36, 1.50000000000000000000e+03) (37, -1.92199705950576742453e+01) (38, 1.50000000000000000000e+03) (39, -3.11292992370877811936e+02) (40, 6.57716103426067434157e+02) (41, 1.29868009001825299720e+01) (42, 1.50000000000000000000e+03) (43, 1.71196253063813429662e+02) (44, 1.50000000000000000000e+03) (45, -1.23287029119352624207e+02) (46, 1.43122734644847969321e+03) (47, 3.44383649277150311718e+02) (48, 1.50000000000000000000e+03) (49, -1.88406230241181674501e+02) (50, 1.50000000000000000000e+03) (51, -1.87872807428956122067e+02) (52, 2.51088977532733480302e+02) (53, -6.04521961697223702004e+01) (54, 1.50000000000000000000e+03) (55, 1.26329455688521903767e+02) (56, 1.50000000000000000000e+03) (57, 2.09367110962239252103e+02) (58, 1.47282862936235483176e+03) (59, -1.63700528820299808785e+02) (60, 1.50000000000000000000e+03) (61, 2.84163549987480109849e+02) (62, 1.50000000000000000000e+03) (63, 4.26138061826574077173e+00) (64, -1.50000000000000000000e+03) (65, -4.54275855144606381941e+01) (66, 3.36521664637557250899e+02) (67, -1.00471043091325356045e+02) (68, -1.50000000000000000000e+03) (69, 1.77805366778334871469e+02) (70, -3.19490458408426754033e+01) (0, -1.50000000000000000000e+03) (1, 2.76671383752876408835e+02) (2, -1.50000000000000000000e+03) (3, -3.53588394480751446736e+02) (4, 1.50000000000000000000e+03) (5, 3.43369707251105467094e+01) (6, 4.13081450058944824377e+02) (7, 1.68853846365984594513e+01) (8, 1.50000000000000000000e+03) (9, -2.35497847637695230105e+02) (10, 1.50000000000000000000e+03) (11, -4.94194995140679296242e+01) (12, -5.49218368508075059253e+02) (13, -9.07756544007651626771e+01) (14, -1.50000000000000000000e+03) (15, 8.63714707405631827442e+01) (16, 7.04125728025666290932e+01) (17, -9.64862621452380864184e+01) (18, 6.97379954486116048429e+02) (19, 1.29614735578186799358e+01) (20, 9.92935594777549539458e+01) (21, 1.23647300701034211556e+02) (22, -1.50000000000000000000e+03) (23, 3.15076184550232028414e+02) (24, -1.50000000000000000000e+03) (25, 9.14553395069444547971e+01) (26, 1.50000000000000000000e+03) (27, -5.74014567321565962743e+01) (28, 1.50000000000000000000e+03) (29, -3.02463387244089609851e+00) (30, 1.50000000000000000000e+03) (31, -1.29162110995049602025e+02) (32, 1.50000000000000000000e+03) (33, -7.06384500215305592974e+01) (34, 1.50000000000000000000e+03) (35, 1.36017513716760607423e+01) (36, 1.50000000000000000000e+03) (37, -1.38641097881210040299e+00) (38, 1.50000000000000000000e+03) (39, 1.03715298256810257271e+02) (40, 1.50000000000000000000e+03) (41, -2.75455504463412466976e+02) (42, 1.50000000000000000000e+03) (43, -8.54747976033780076932e+01) (44, 1.50000000000000000000e+03) (45, 2.79920955495656642142e+02) (46, 1.50000000000000000000e+03) (47, -1.46190219588113279769e+02) (48, 1.50000000000000000000e+03) (49, -6.67285764688971050340e-01) (50, 1.50000000000000000000e+03) (51, 1.96415938113324216374e+02) (52, 1.50000000000000000000e+03) (53, -6.08602766263347945142e+01) (54, 1.50000000000000000000e+03) (55, 2.89909317127037354567e+02) (56, 1.50000000000000000000e+03) (57, 4.44505483476190761394e+01) (58, -1.07528516079677302741e+02) (59, -8.31726974241276906241e+01) (60, 1.50000000000000000000e+03) (61, 3.95541202069396035768e+02) (62, 1.50000000000000000000e+03) (63, -2.04113360100606399783e+02) (64, -1.50000000000000000000e+03) (65, -6.73872276945147063998e+01) (66, 3.44747754115096370242e+02) (67, 1.72387134441137646945e+02) (68, -1.50000000000000000000e+03) (69, 1.42399563875171025984e+02) (70, 2.87827683325487384991e+02) (0, -1.50000000000000000000e+03) (1, -3.68355863352775145358e+02) (2, -1.50000000000000000000e+03) (3, -1.58956050053984228043e+02) (4, 1.50000000000000000000e+03) (5, 3.09549481325849910718e+02) (6, 2.92060688032122584445e+02) (7, -5.33247803436316374359e+01) (8, 1.50000000000000000000e+03) (9, 1.08236575022845311622e+01) (10, 1.50000000000000000000e+03) (11, 1.97029803399794474217e+02) (12, -6.68011059852416224203e+02) (13, 2.49763540809177229107e+01) (14, 3.77609501427212819635e+02) (15, 2.14176380999849527598e+02) (16, -1.55301604682378439293e+02) (17, -1.34321108129235938122e+02) (18, -1.60205652501389266718e+02) (19, -3.07258262938369526296e+01) (20, 3.47661318036389673125e+02) (21, 6.66161666535392100741e+01) (22, -1.50000000000000000000e+03) (23, 4.99032719219122213872e+01) (24, -1.50000000000000000000e+03) (25, 2.59570910249299743100e+02) (26, 1.50000000000000000000e+03) (27, 6.82203027260883629879e+01) (28, 1.50000000000000000000e+03) (29, -3.50183883359998390006e+02) (30, 1.50000000000000000000e+03) (31, -1.33506261697984086823e+02) (32, 1.50000000000000000000e+03) (33, -8.17693794738536468003e+01) (34, 1.50000000000000000000e+03) (35, -4.05695667433221345277e+01) (36, 1.50000000000000000000e+03) (37, -8.95711004229405176602e+01) (38, 1.50000000000000000000e+03) (39, -1.74019704392214634936e+02) (40, 7.88976613993275691428e+02) (41, -1.58132351877725682243e+02) (42, 1.50000000000000000000e+03) (43, -2.13905986143179774217e+02) (44, 1.50000000000000000000e+03) (45, 3.88829962628231385224e+02) (46, 1.50000000000000000000e+03) (47, -2.20031819008957910455e+02) (48, 1.50000000000000000000e+03) (49, -3.82431328294608832152e+01) (50, 1.50000000000000000000e+03) (51, 3.50354161822819378358e+02) (52, 1.50000000000000000000e+03) (53, 5.04151497480348666613e+02) (54, 1.50000000000000000000e+03) (55, 1.13500484824887280411e+02) (56, 1.50000000000000000000e+03) (57, -1.43881797301910481224e+01) (58, -2.18298283026060317979e+02) (59, 7.41447025980819347524e+01) (60, 1.50000000000000000000e+03) (61, 1.34511586775512995473e+02) (62, 1.50000000000000000000e+03) (63, 1.20802474141607603997e+02) (64, -1.50000000000000000000e+03) (65, 3.01628967549662377223e+02) (66, 3.05711159584015149449e+02) (67, 1.36385340865874923111e+02) (68, -1.50000000000000000000e+03) (69, 6.64928555327759625015e+01) (70, -4.52438195497975584658e+02) (0, -1.50000000000000000000e+03) (1, 1.41056066056780736062e+02) (2, -1.50000000000000000000e+03) (3, 5.49740916204044722804e+01) (4, 1.50000000000000000000e+03) (5, -1.47580093474760275285e+02) (6, 1.02577918870640769455e+03) (7, 1.46959092395590943170e+02) (8, 1.50000000000000000000e+03) (9, -2.99996447105603408545e+02) (10, 1.50000000000000000000e+03) (11, 6.39225987472810857071e+01) (12, -5.49218368508075059253e+02) (13, -4.24845615770190477178e+02) (14, -1.50000000000000000000e+03) (15, -4.31602631777767783205e+02) (16, -5.10641079530487616012e+01) (17, 9.42155429695080073316e+01) (18, 5.78652781634552979995e+02) (19, -1.45622700598371807246e+02) (20, 2.23547542021700905934e+02) (21, 8.07290496634365553064e+01) (22, -1.50000000000000000000e+03) (23, -3.08607137526622459234e+01) (24, -1.50000000000000000000e+03) (25, 3.77436389263935950567e+02) (26, 1.50000000000000000000e+03) (27, -9.86941016186325583703e+01) (28, 1.50000000000000000000e+03) (29, -2.60089416968754676418e+02) (30, 1.50000000000000000000e+03) (31, -2.30345388903872532183e+01) (32, 1.50000000000000000000e+03) (33, -6.11880412183609649901e+01) (34, 1.50000000000000000000e+03) (35, 4.69728836103731964613e+02) (36, 1.50000000000000000000e+03) (37, -1.72287038501427900883e+02) (38, 1.50000000000000000000e+03) (39, -1.05598996668775313879e+02) (40, 1.50000000000000000000e+03) (41, 6.86842239254022501882e+01) (42, 1.50000000000000000000e+03) (43, -3.04774756304313889643e+01) (44, 1.50000000000000000000e+03) (45, 1.77892367254544154775e+02) (46, 1.50000000000000000000e+03) (47, -1.61561752212171427345e+02) (48, 1.50000000000000000000e+03) (49, 1.03521356737141175586e+02) (50, 1.50000000000000000000e+03) (51, -1.07191781081832857581e+02) (52, 1.50000000000000000000e+03) (53, 1.31353760654413846964e+01) (54, 1.50000000000000000000e+03) (55, 1.22959564319420394440e+02) (56, 1.50000000000000000000e+03) (57, 2.63219289955283784366e+02) (58, 9.38915040237768465659e+01) (59, -1.57624212443455860466e+02) (60, 1.50000000000000000000e+03) (61, 1.61796775133251102829e+00) (62, 1.50000000000000000000e+03) (63, 1.37741443548959466625e+02) (64, -1.50000000000000000000e+03) (65, -2.08570432182810776567e+01) (66, 7.99484707850450490696e+02) (67, 3.96734567301791969385e+01) (68, -1.50000000000000000000e+03) (69, 1.25514638983581377829e+02) (70, -2.30454161393949817693e+02) (0, -1.50000000000000000000e+03) (1, -2.81939607585242470122e+02) (2, -1.50000000000000000000e+03) (3, -7.40012408980398532776e+01) (4, 1.50000000000000000000e+03) (5, -2.98069955789484009046e+00) (6, -1.37957057992508612188e+03) (7, 1.99494394172911526653e+01) (8, 1.50000000000000000000e+03) (9, -1.30989460488332014165e+02) (10, 1.50000000000000000000e+03) (11, 2.60678133491190635596e+02) (12, -1.36486744617851968542e+02) (13, 2.40570504911729841524e+02) (14, 1.50000000000000000000e+03) (15, -1.72380506881853222012e+02) (16, 1.77336464171166880988e+02) (17, 3.36452225961890238892e+00) (18, 5.89717410718386787494e+01) (19, -1.64415553771502089830e+02) (20, -2.51202904400769313042e+02) (21, -1.18587528394280056432e+02) (22, -1.50000000000000000000e+03) (23, 4.99047696813616568079e+01) (24, -1.50000000000000000000e+03) (25, -2.04065272886230019367e+02) (26, -2.67374208987858025921e+02) (27, -2.64314924989213695383e+00) (28, -3.42536420568845567658e+00) (29, 2.03646274094453787029e+02) (30, 1.22623923848310664653e+03) (31, -9.06538655449256580710e+00) (32, -3.48939544408039694190e+02) (33, -5.69330515000737236164e+01) (34, 1.04455631017290943419e+03) (35, 6.30357033822816248403e+01) (36, 1.50000000000000000000e+03) (37, 2.09449824869094925361e+02) (38, 1.50000000000000000000e+03) (39, -4.43509180653644037307e+01) (40, -1.88560019737601720635e+02) (41, 5.79101238072983264260e+01) (42, 4.03227142996003138364e+01) (43, -1.54884765734330954956e+02) (44, 1.50000000000000000000e+03) (45, 1.13786717798096830734e+02) (46, -1.37148332921378596438e+02) (47, -2.04060964716791033879e+02) (48, 1.50000000000000000000e+03) (49, -1.39374571845824874572e+02) (50, -6.23846470852321658640e+02) (51, -2.09241515019539612297e+01) (52, 8.33933685725209983275e+01) (53, 1.09371550670582422526e+02) (54, -4.76702788958483338888e+01) (55, -1.07343331627172808851e+01) (56, 1.50000000000000000000e+03) (57, -1.25506828793499920494e+02) (58, -3.07048402569342442803e+02) (59, -2.38234236446044604918e+02) (60, 1.50000000000000000000e+03) (61, 1.65448371606888542829e+02) (62, 1.50000000000000000000e+03) (63, -6.91014861870809085076e+01) (64, -1.50000000000000000000e+03) (65, -4.34933554730341924710e+01) (66, -6.01660097424487787521e+01) (67, -3.52524975253847401291e+01) (68, -1.50000000000000000000e+03) (69, 6.89591840194593146407e+01) (70, 9.93698940627075018028e+01) (0, 1.50000000000000000000e+03) (1, -1.99811179385839849942e+01) (2, 1.50000000000000000000e+03) (3, -2.68339212972886457464e+02) (4, -1.50000000000000000000e+03) (5, 2.21238517871110161650e+02) (6, -6.18747643079609133565e+02) (7, -1.27993263490310923203e+02) (8, -1.50000000000000000000e+03) (9, -1.31355683255838499690e+02) (10, -1.50000000000000000000e+03) (11, 9.11490537207215254512e+01) (12, -1.71046825317964703572e+02) (13, -1.91379949787199734601e+02) (14, 1.50000000000000000000e+03) (15, 2.05300833750290166790e+02) (16, -1.50000000000000000000e+03) (17, 8.67972424650096030518e+01) (18, -1.50000000000000000000e+03) (19, 2.04184829381651411495e+02) (20, -1.50000000000000000000e+03) (21, -1.88733224497775387007e+00) (22, 1.50000000000000000000e+03) (23, 9.23052070196106200228e+01) (24, 1.50000000000000000000e+03) (25, -2.34426577439594666430e+02) (26, -1.50000000000000000000e+03) (27, -1.07095955328540881624e+02) (28, -1.50000000000000000000e+03) (29, 8.95737203984795939959e+01) (30, -1.50000000000000000000e+03) (31, 2.62682552936668507471e+01) (32, -1.50000000000000000000e+03) (33, -1.98277977481801855220e+02) (34, -1.50000000000000000000e+03) (35, 6.10152884958587335973e+01) (36, -1.50000000000000000000e+03) (37, 4.31222142159389143501e+00) (38, -3.84205481194727894945e+02) (39, 2.06627779160627056854e+02) (40, -1.50000000000000000000e+03) (41, 5.15877129881245650722e+01) (42, -1.50000000000000000000e+03) (43, -1.64654426542805282452e+02) (44, -4.31077216591425440129e+02) (45, 1.17678129618774658383e+01) (46, -1.50000000000000000000e+03) (47, -1.56172137892071862808e+01) (48, -1.50000000000000000000e+03) (49, -1.18931243604500423316e+02) (50, -1.50000000000000000000e+03) (51, 1.47069849137440286313e+02) (52, -1.50000000000000000000e+03) (53, -1.95147532622399097590e+02) (54, -1.50000000000000000000e+03) (55, 4.88985327198220076639e+00) (56, -1.50000000000000000000e+03) (57, 5.69885220680034763063e+01) (58, 1.46865321130990082565e+02) (59, 1.01766001522241126054e+02) (60, -1.50000000000000000000e+03) (61, 1.88747271407936580090e+02) (62, -1.50000000000000000000e+03) (63, -5.40193474491534928461e+01) (64, 1.50000000000000000000e+03) (65, -1.78037211719075230576e+02) (66, -5.71779618110695764699e+02) (67, 1.87590813947362988756e+02) (68, 1.50000000000000000000e+03) (69, 6.41578784719962555982e+01) (70, -4.87471887928838576443e+00) (0, 1.50000000000000000000e+03) (1, 5.92988148418515379490e+01) (2, 1.50000000000000000000e+03) (3, -4.82520352671339622930e+01) (4, -1.50000000000000000000e+03) (5, 7.90107228335372155925e+01) (6, -9.75339837014952081518e+02) (7, -1.51927065106995087262e+02) (8, -1.50000000000000000000e+03) (9, 1.33136165065802799745e+02) (10, -1.50000000000000000000e+03) (11, 8.51440074248461939987e+01) (12, 5.30653950098103450728e+02) (13, 2.96979528340212596049e+02) (14, 1.50000000000000000000e+03) (15, 2.57325390907632481685e+02) (16, -2.01408693238785957647e+02) (17, 9.12397508685560580943e+01) (18, -5.75185246400254754917e+02) (19, -5.86702364083218910196e+01) (20, -2.38897063350319996289e+02) (21, 1.83898304825841982790e+01) (22, 1.50000000000000000000e+03) (23, 7.03709335598593810346e+01) (24, 1.50000000000000000000e+03) (25, 5.80727288789850533135e+01) (26, -1.50000000000000000000e+03) (27, 5.32252433325843639977e+02) (28, -1.50000000000000000000e+03) (29, 1.63176145958095133892e+02) (30, -1.50000000000000000000e+03) (31, 3.40660893325854146951e+02) (32, -1.50000000000000000000e+03) (33, 2.93030030994746425677e+02) (34, -1.50000000000000000000e+03) (35, 1.25276520008437969977e+02) (36, -1.50000000000000000000e+03) (37, -4.65952525664601921562e+02) (38, -1.50000000000000000000e+03) (39, 2.83149000217809394542e+01) (40, -1.50000000000000000000e+03) (41, 2.46130771891336479484e+01) (42, -1.30789083228853132823e+03) (43, 4.05814108287280532750e+02) (44, -1.50000000000000000000e+03) (45, 4.40591425585834741696e+01) (46, -1.50000000000000000000e+03) (47, -1.45395413127067229198e+02) (48, -1.50000000000000000000e+03) (49, -1.74565980578577324422e+02) (50, -1.50000000000000000000e+03) (51, 3.62855377629484507906e+01) (52, -1.50000000000000000000e+03) (53, -6.03929592369447192368e+01) (54, -1.10580765928974392409e+03) (55, 1.27288271325447453819e+02) (56, -1.50000000000000000000e+03) (57, 5.15327453073128260996e+00) (58, 2.25600767304516338640e+01) (59, 5.86985290548877429728e+01) (60, -1.50000000000000000000e+03) (61, -1.04893098812046659418e+02) (62, -1.50000000000000000000e+03) (63, -9.25201716305501093984e+01) (64, 1.50000000000000000000e+03) (65, -1.35780585387478907933e+02) (66, -2.02655455450341833057e+02) (67, -2.46871474041408269784e+01) (68, 1.50000000000000000000e+03) (69, -1.36404995717775904041e+02) (70, -1.55315120414721377529e+02) (0, -1.50000000000000000000e+03) (1, 2.89430237234844071281e+02) (2, -1.50000000000000000000e+03) (3, 1.04068515031467427434e+02) (4, 1.50000000000000000000e+03) (5, 1.64663227009392905131e+01) (6, 1.06632217271519607493e+03) (7, -6.11712678460612124809e+01) (8, 1.50000000000000000000e+03) (9, -1.76807526795182468504e+02) (10, 1.50000000000000000000e+03) (11, -6.97046799642576075939e+01) (12, -5.49218368508075059253e+02) (13, -1.57339720929023854978e+02) (14, -1.50000000000000000000e+03) (15, 1.15063199915871379631e+02) (16, 2.07476427020095997023e+02) (17, 2.30130032715602794724e+02) (18, 4.62858688751358613445e+02) (19, -5.19325455690736745851e+01) (20, -5.23068738718548473798e+01) (21, -3.60610443134416641442e+02) (22, -1.50000000000000000000e+03) (23, 9.74550042266333065299e+01) (24, -1.50000000000000000000e+03) (25, 5.21089908434610507015e+01) (26, 1.50000000000000000000e+03) (27, -1.87759772223919867429e+02) (28, 1.50000000000000000000e+03) (29, 3.61757208115705175544e+00) (30, 1.50000000000000000000e+03) (31, 2.91779024011446033171e+01) (32, 1.50000000000000000000e+03) (33, -3.00496534059298276986e+01) (34, 1.50000000000000000000e+03) (35, -1.74379898027126159832e+02) (36, 1.50000000000000000000e+03) (37, -5.42662871395187877965e+01) (38, 1.50000000000000000000e+03) (39, -1.75542873526259981531e+01) (40, 1.50000000000000000000e+03) (41, 1.56367881704979680535e+02) (42, 1.50000000000000000000e+03) (43, 1.24173587803177056799e+02) (44, 1.50000000000000000000e+03) (45, 5.21289752822342435934e+01) (46, 1.50000000000000000000e+03) (47, -1.05992332581027980609e+02) (48, 1.50000000000000000000e+03) (49, 2.45974863206868633370e+02) (50, 1.50000000000000000000e+03) (51, 7.24495283413413204698e+01) (52, 1.50000000000000000000e+03) (53, -1.29425606239573074419e+01) (54, 1.50000000000000000000e+03) (55, 5.76904488714221770351e+01) (56, 1.50000000000000000000e+03) (57, 3.33266889421014553818e+01) (58, 2.78908846591221561084e+02) (59, -7.41117504194836982379e+01) (60, 1.50000000000000000000e+03) (61, -1.63635326861267571985e+02) (62, 1.50000000000000000000e+03) (63, 2.25990330242676179751e+02) (64, -1.50000000000000000000e+03) (65, -1.60304981327635999833e+02) (66, 4.61583401698103102717e+02) (67, -1.38769588581323290555e+02) (68, -1.50000000000000000000e+03) (69, 1.46657425535849796461e+02) (70, 1.85486362857216960265e+02) (0, -1.50000000000000000000e+03) (1, 3.83450882225735441011e+01) (2, -1.50000000000000000000e+03) (3, -2.20398049678611528179e+02) (4, 1.50000000000000000000e+03) (5, -1.78870559240120763356e+00) (6, 9.35620314194692014098e+02) (7, -4.03173479713017286485e+01) (8, 1.50000000000000000000e+03) (9, -5.34763972413944017603e+01) (10, 1.50000000000000000000e+03) (11, 2.33040730269309392497e+02) (12, 1.05238219723457746113e+03) (13, 2.10090644842708684337e+02) (14, -1.50000000000000000000e+03) (15, -1.72578725312447744500e+02) (16, 2.48471246661209164586e+02) (17, -3.09433824051117881027e+02) (18, 3.36578913836702440676e+02) (19, -2.42370861684795642077e+02) (20, -5.69472852488078871147e+01) (21, 9.96464801958684773808e+01) (22, -1.50000000000000000000e+03) (23, 1.27822514572343621353e+02) (24, -1.50000000000000000000e+03) (25, 2.48356953126656264885e+02) (26, 1.50000000000000000000e+03) (27, 2.24514982264470830842e+02) (28, 1.50000000000000000000e+03) (29, 7.19874018210110904192e+01) (30, 1.50000000000000000000e+03) (31, 2.03472577999994626907e+02) (32, 1.50000000000000000000e+03) (33, -4.64107543666475947930e+01) (34, 1.50000000000000000000e+03) (35, 2.20866854036729108657e+02) (36, 1.50000000000000000000e+03) (37, 6.68000040408815465298e+01) (38, 1.50000000000000000000e+03) (39, 1.60382275281531065048e+02) (40, 1.30605286043520595740e+03) (41, -5.99577025459504397986e+02) (42, 1.50000000000000000000e+03) (43, 3.05850722383801269189e+02) (44, 1.50000000000000000000e+03) (45, -6.39331678068813857863e+01) (46, 1.50000000000000000000e+03) (47, 8.55043387402058812086e+01) (48, 1.50000000000000000000e+03) (49, 1.43780084617503376876e+02) (50, 1.50000000000000000000e+03) (51, 1.78859459496079807650e+02) (52, 1.50000000000000000000e+03) (53, 5.57708379805049361266e+01) (54, 1.50000000000000000000e+03) (55, -3.59911276972832979482e+02) (56, 1.50000000000000000000e+03) (57, 2.22192606316006418865e+02) (58, -1.23590543057216152079e+02) (59, -4.33112246592654415167e+01) (60, 1.50000000000000000000e+03) (61, -2.50987162102891176119e+02) (62, 1.50000000000000000000e+03) (63, -1.15480743345469520023e+02) (64, -1.50000000000000000000e+03) (65, 1.41651958333603033680e+02) (66, 7.27275998133652024080e+02) (67, -2.31386133112904630593e+01) (68, -1.50000000000000000000e+03) (69, 1.42221031234873180438e+02) (70, -3.46117704531343065355e+02) (71, -1.67321888992699769005e+02) (72, -2.27160648920933461170e+01) (73, 3.07435563688872859345e+00) (74, 1.50000000000000000000e+03) (75, -7.98995047848852522065e+01) (76, 1.24246823498149680631e+02) (77, -7.82411274480117384655e+01) (78, 1.50000000000000000000e+03) (79, -1.98487245337557965286e+02) (80, -1.66275305602000059935e+02) (81, -3.36491683129590740009e+02) (82, 2.68655533734163256554e+01) (83, 1.59193087603303041533e+02) (84, 1.50000000000000000000e+03) (85, 1.28472611303960093210e+02) (86, -5.53095458095236267582e+01) (87, 3.92912945096526122768e+00) (88, 1.50000000000000000000e+03) (89, 9.15498807163001373510e+01) (90, -5.41974021237514804739e+01) (91, 1.50000000000000000000e+03) (92, 1.68226368387485569755e+00) (93, -1.67387526635493060212e+02) (94, 2.46120306655525865835e+02) (95, 3.39660294085370395578e+01) (96, 1.88431923364927342845e+01) (97, 3.15612768022905854082e+00) (98, 2.94875443335253009991e+02) (99, 2.53641164252673945612e+02) (100, 1.50000000000000000000e+03) (101, 1.18519596548788808121e+00) (102, -1.22851070393893957444e+00) (103, -3.09785328890703340221e+02) (104, 4.82917923804003009991e+02) (105, 2.58702110523423201016e+00) (106, -1.34429930810297747712e+02) 
