FANN_FLO_2.1
num_layers=3
learning_rate=0.700000
connection_rate=1.000000
network_type=0
learning_momentum=0.000000
training_algorithm=2
train_error_function=1
train_stop_function=0
cascade_output_change_fraction=0.010000
quickprop_decay=-0.000100
quickprop_mu=1.750000
rprop_increase_factor=1.001000
rprop_decrease_factor=0.500000
rprop_delta_min=0.000000
rprop_delta_max=50.000000
rprop_delta_zero=0.100000
cascade_output_stagnation_epochs=12
cascade_candidate_change_fraction=0.010000
cascade_candidate_stagnation_epochs=12
cascade_max_out_epochs=150
cascade_max_cand_epochs=150
cascade_num_candidate_groups=2
bit_fail_limit=3.49999999999999977796e-01
cascade_candidate_limit=1.00000000000000000000e+03
cascade_weight_multiplier=4.00000000000000022204e-01
cascade_activation_functions_count=10
cascade_activation_functions=3 5 7 8 10 11 14 15 16 17 
cascade_activation_steepnesses_count=4
cascade_activation_steepnesses=2.50000000000000000000e-01 5.00000000000000000000e-01 7.50000000000000000000e-01 1.00000000000000000000e+00 
layer_sizes=71 16 2 
scale_included=0
neurons (num_inputs, activation_function, activation_steepness)=(0, 0, 0.00000000000000000000e+00) (0, 0, 0.00000000000000000000e+00) (0, 0, 0.00000000000000000000e+00) (0, 0, 0.00000000000000000000e+00) (0, 0, 0.00000000000000000000e+00) (0, 0, 0.00000000000000000000e+00) (0, 0, 0.00000000000000000000e+00) (0, 0, 0.00000000000000000000e+00) (0, 0, 0.00000000000000000000e+00) (0, 0, 0.00000000000000000000e+00) (0, 0, 0.00000000000000000000e+00) (0, 0, 0.00000000000000000000e+00) (0, 0, 0.00000000000000000000e+00) (0, 0, 0.00000000000000000000e+00) (0, 0, 0.00000000000000000000e+00) (0, 0, 0.00000000000000000000e+00) (0, 0, 0.00000000000000000000e+00) (0, 0, 0.00000000000000000000e+00) (0, 0, 0.00000000000000000000e+00) (0, 0, 0.00000000000000000000e+00) (0, 0, 0.00000000000000000000e+00) (0, 0, 0.00000000000000000000e+00) (0, 0, 0.00000000000000000000e+00) (0, 0, 0.00000000000000000000e+00) (0, 0, 0.00000000000000000000e+00) (0, 0, 0.00000000000000000000e+00) (0, 0, 0.00000000000000000000e+00) (0, 0, 0.00000000000000000000e+00) (0, 0, 0.00000000000000000000e+00) (0, 0, 0.00000000000000000000e+00) (0, 0, 0.00000000000000000000e+00) (0, 0, 0.00000000000000000000e+00) (0, 0, 0.00000000000000000000e+00) (0, 0, 0.00000000000000000000e+00) (0, 0, 0.00000000000000000000e+00) (0, 0, 0.00000000000000000000e+00) (0, 0, 0.00000000000000000000e+00) (0, 0, 0.00000000000000000000e+00) (0, 0, 0.00000000000000000000e+00) (0, 0, 0.00000000000000000000e+00) (0, 0, 0.00000000000000000000e+00) (0, 0, 0.00000000000000000000e+00) (0, 0, 0.00000000000000000000e+00) (0, 0, 0.00000000000000000000e+00) (0, 0, 0.00000000000000000000e+00) (0, 0, 0.00000000000000000000e+00) (0, 0, 0.00000000000000000000e+00) (0, 0, 0.00000000000000000000e+00) (0, 0, 0.00000000000000000000e+00) (0, 0, 0.00000000000000000000e+00) (0, 0, 0.00000000000000000000e+00) (0, 0, 0.00000000000000000000e+00) (0, 0, 0.00000000000000000000e+00) (0, 0, 0.00000000000000000000e+00) (0, 0, 0.00000000000000000000e+00) (0, 0, 0.00000000000000000000e+00) (0, 0, 0.00000000000000000000e+00) (0, 0, 0.00000000000000000000e+00) (0, 0, 0.00000000000000000000e+00) (0, 0, 0.00000000000000000000e+00) (0, 0, 0.00000000000000000000e+00) (0, 0, 0.00000000000000000000e+00) (0, 0, 0.00000000000000000000e+00) (0, 0, 0.00000000000000000000e+00) (0, 0, 0.00000000000000000000e+00) (0, 0, 0.00000000000000000000e+00) (0, 0, 0.00000000000000000000e+00) (0, 0, 0.00000000000000000000e+00) (0, 0, 0.00000000000000000000e+00) (0, 0, 0.00000000000000000000e+00) (0, 0, 0.00000000000000000000e+00) (71, 4, 5.00000000000000000000e-01) (71, 4, 5.00000000000000000000e-01) (71, 4, 5.00000000000000000000e-01) (71, 4, 5.00000000000000000000e-01) (71, 4, 5.00000000000000000000e-01) (71, 4, 5.00000000000000000000e-01) (71, 4, 5.00000000000000000000e-01) (71, 4, 5.00000000000000000000e-01) (71, 4, 5.00000000000000000000e-01) (71, 4, 5.00000000000000000000e-01) (71, 4, 5.00000000000000000000e-01) (71, 4, 5.00000000000000000000e-01) (71, 4, 5.00000000000000000000e-01) (71, 4, 5.00000000000000000000e-01) (71, 4, 5.00000000000000000000e-01) (0, 4, 5.00000000000000000000e-01) (16, 4, 9.00000000000000022204e-01) (0, 4, 9.00000000000000022204e-01) 
connections (connected_to_neuron, weight)=(0, -1.50000000000000000000e+03) (1, 5.41788813060390861409e+00) (2, -1.50000000000000000000e+03) (3, 2.50658099522241570867e+01) (4, -1.49627542997101272704e+03) (5, -2.23110957423314566483e+01) (6, -1.50000000000000000000e+03) (7, 2.57892917094429297009e-01) (8, 4.66022211842501803858e+02) (9, -1.80802359773394236697e+01) (10, -1.45324369963690878649e+03) (11, 1.22112958476736750413e+01) (12, 1.50000000000000000000e+03) (13, 3.51953047715143707563e+00) (14, -1.50000000000000000000e+03) (15, -5.04999388291751039048e+00) (16, -2.47749443134554034884e+01) (17, -2.28645733078519732828e+01) (18, 1.86115131730584799641e+01) (19, 2.51403453219028776289e+01) (20, 4.24442486321110976633e+01) (21, 5.23380271606169333865e+00) (22, -1.50000000000000000000e+03) (23, -1.78217775769839086308e+01) (24, -1.50000000000000000000e+03) (25, -2.39532693519070214450e+01) (26, 9.02461273259415406756e+02) (27, -5.79598601085193578797e+01) (28, 4.74851214439545401547e+01) (29, 3.66713441351756372910e+01) (30, -8.49745087930599993342e+02) (31, 6.46009549416182693449e+00) (32, 3.47718557372198176836e+02) (33, 3.80153961408202434313e+01) (34, 5.43556321656452951174e+02) (35, 5.27404927390626454553e+00) (36, 1.50000000000000000000e+03) (37, 7.19126707382362084786e+00) (38, -1.50000000000000000000e+03) (39, 2.32893999195783990563e-01) (40, 1.97671610328005193935e+01) (41, -1.91951278787886217003e+01) (42, 4.36795819434263137282e+02) (43, 4.79184502846055870862e+00) (44, -6.31174467380287069318e+02) (45, -1.77685212009480189010e+01) (46, -1.50000000000000000000e+03) (47, 7.68720813827752591507e-01) (48, -1.38931629874070813457e+03) (49, 1.24269055456442778507e+01) (50, 9.01868611345741157947e+01) (51, 6.21625619163325815464e+00) (52, -3.13547605786138603889e+02) (53, 9.36491799520802459256e+00) (54, 1.07034917692073645412e+03) (55, -2.16156776390705971380e+01) (56, 4.49030527722092756449e+02) (57, 4.30561051266241356927e+00) (58, -1.50000000000000000000e+03) (59, -4.44471844155636508500e-01) (60, 4.30192562375902411986e+02) (61, 4.91034991899692414563e+01) (62, 9.33675019060910699409e+02) (63, -6.47282184878951571960e+00) (64, -8.50000000000000000000e+02) (65, -9.39602400163340867323e+00) (66, 8.23118486860730627086e+01) (67, -1.80171110461332943942e+01) (68, -1.50000000000000000000e+03) (69, 1.56462027897483633154e+01) (70, -1.25771204018845121908e+01) (0, 1.50000000000000000000e+03) (1, 7.90501429595871485390e+00) (2, 1.50000000000000000000e+03) (3, -8.06810355403093915072e+00) (4, -1.03042461247858409479e+03) (5, 8.89619656087043964021e+00) (6, -9.43942700204181335266e+01) (7, 4.72753770965375341717e+00) (8, -6.01763428149016021962e+02) (9, 1.24173332004169072462e+01) (10, 2.11948344849441269844e+02) (11, 2.49427242916823317387e+01) (12, -1.50000000000000000000e+03) (13, 1.54897698066737596889e+01) (14, 1.50000000000000000000e+03) (15, 8.77730993551037563805e-01) (16, 1.37756192434210777975e+01) (17, -1.21989397688941512143e+01) (18, -3.88880151970270020456e+01) (19, -6.08153175922104249906e+00) (20, 4.57739155139857061272e+01) (21, 3.11957117851645726603e+01) (22, 1.50000000000000000000e+03) (23, 7.17845809360662645560e+00) (24, 1.50000000000000000000e+03) (25, -1.51136401270698446098e+01) (26, -5.92801747915454825488e+02) (27, 1.36217223673040486176e+01) (28, 5.13158097321447485228e+02) (29, -4.03450895514380469820e+00) (30, -9.87716292060464979841e+02) (31, 4.32339205114201874380e+00) (32, 7.44125972282612924147e+00) (33, -3.70982644057985382346e+01) (34, 5.42067860937743120076e+01) (35, 1.22380668756740162983e+00) (36, 1.27143660431018315649e+03) (37, -2.77031808912227273112e+00) (38, 8.59749113663529129781e+00) (39, 4.37603544489875773138e+01) (40, -3.90078619468984072682e+02) (41, 5.48851110424475407967e+00) (42, -1.50000000000000000000e+03) (43, -3.36540362505058521236e+00) (44, -3.41719748237245255496e+01) (45, 2.49786210434471946940e+01) (46, 1.50000000000000000000e+03) (47, 8.93697009480380799573e+00) (48, -1.35671240691045841231e+03) (49, -1.74263738567867356721e+01) (50, 5.45749461193232487943e+00) (51, -5.16523563425805409821e+00) (52, -7.27763351923751088179e+02) (53, 2.08226758570373995383e+01) (54, 1.99745609137681213952e+02) (55, -1.46644318269713780367e+00) (56, -7.85420407983322434120e+02) (57, 3.08089630881017164654e+01) (58, 2.10940118687704881495e+02) (59, -1.64178111954493815006e+01) (60, -1.49947912633550163264e+03) (61, 2.34391597127817021828e+01) (62, -1.37584835980112279685e+03) (63, 2.00878301890514521233e+00) (64, 1.50000000000000000000e+03) (65, 8.80705444748642740649e+00) (66, -4.51853787114972220706e+01) (67, -1.54662117877212654804e+01) (68, 1.50000000000000000000e+03) (69, -3.04028941989696157577e+01) (70, -1.38813954123687413045e+01) (0, -1.50000000000000000000e+03) (1, -1.89163441879199076823e+01) (2, -1.50000000000000000000e+03) (3, 1.35226066685681782786e+01) (4, -8.10770800247768761437e+02) (5, -2.19656985567898281886e+01) (6, -5.98645983631208693510e+01) (7, 7.90470882530214709050e+01) (8, 1.50000000000000000000e+03) (9, -7.24560173841061083699e-01) (10, -1.45324369963690878649e+03) (11, 2.52554948965633414559e+01) (12, 1.50000000000000000000e+03) (13, -2.74520540704943236676e+01) (14, -1.50000000000000000000e+03) (15, 3.67782760115182938421e+01) (16, -1.30924187745838942476e+01) (17, -1.41892169537836263515e+01) (18, -1.80071148065791497572e+01) (19, 5.05640629555179454968e+00) (20, -1.81065423685751625271e+01) (21, -5.61141488038795799298e+01) (22, -1.50000000000000000000e+03) (23, 3.15066777693593351728e+01) (24, -1.50000000000000000000e+03) (25, -1.20502101619729522497e+01) (26, 1.49862029471305481820e+03) (27, -8.12969464287792931145e+00) (28, -1.44581701378942568681e+02) (29, 4.54484245987083639307e+01) (30, -1.27762217042887712637e+02) (31, 7.59503342635666722771e+00) (32, -2.36073630912088162859e+02) (33, -1.36157339825631229502e+01) (34, 1.44834692636945703725e+02) (35, 3.56283615476651007725e+01) (36, 3.90230455775328437085e+02) (37, 3.30022948049339603926e+01) (38, 1.06921434715938266891e+03) (39, -7.70574478435938647891e+00) (40, -1.62936121352271726437e+02) (41, 1.09738357406427056162e+01) (42, -7.28496610683458584390e+02) (43, -1.02533688079924822922e+00) (44, -1.50000000000000000000e+03) (45, -2.02284532285447049560e+01) (46, 1.66459124192497597505e+02) (47, 9.08670180148642181450e+00) (48, 5.01262297752086425362e+01) (49, 1.41406255839342112068e+01) (50, 7.27893586721708402365e+02) (51, -3.20892020135176565532e+01) (52, 7.71296686949144714163e+02) (53, -1.64284826764034583846e+01) (54, 1.50000000000000000000e+03) (55, -1.62631845711877289773e+01) (56, 1.49944271429729974443e+03) (57, 2.94679493647303836212e+01) (58, -1.15291958818011082144e+02) (59, -5.33116172279889255492e+00) (60, 1.43708704322133939968e+03) (61, 1.42057582085167801722e+01) (62, 1.50000000000000000000e+03) (63, 4.34812446635816485241e+00) (64, -8.50000000000000000000e+02) (65, 1.31824047814101841247e+00) (66, 5.36258402327041778790e+01) (67, -1.99233639524391215048e+01) (68, -1.50000000000000000000e+03) (69, 2.60742388903832322811e+00) (70, 2.94504240540223420908e+01) (0, -1.50000000000000000000e+03) (1, 1.48354133339631282240e+01) (2, -1.50000000000000000000e+03) (3, -6.92727332187360556048e+00) (4, -8.19392336502651346564e+02) (5, 2.31073187003493218938e+00) (6, -3.23183871204451094172e+01) (7, 4.06475116498396502607e+01) (8, 1.50000000000000000000e+03) (9, 1.73817843192403675978e+00) (10, -1.45324369963690878649e+03) (11, 1.11280391849967710272e+01) (12, 1.50000000000000000000e+03) (13, -3.42128729543702192473e+01) (14, -1.50000000000000000000e+03) (15, -8.61228714398476924430e+00) (16, -1.74456977313165602084e+01) (17, 7.36808137287245834557e+00) (18, 1.61383478715649864021e+00) (19, 1.47953409097179164888e+01) (20, 5.95924688009605745265e+01) (21, -1.01461519457258688703e+01) (22, -1.50000000000000000000e+03) (23, -1.92938344961674133060e+01) (24, -1.50000000000000000000e+03) (25, 1.77214239506542021729e+01) (26, 1.50000000000000000000e+03) (27, 1.82896296170232197653e+01) (28, -1.29834425867245244035e+02) (29, 6.96408802342359649629e+01) (30, -1.38481572084057859229e+02) (31, -7.82871459252133750084e+00) (32, 4.52200075437973936232e+01) (33, 1.45820200326558886417e+01) (34, 1.80630286245325549999e+02) (35, 3.14261029913073386410e+01) (36, 4.30812546153135826899e+02) (37, 1.08576871314159433268e+01) (38, 1.07364291195019131919e+03) (39, 1.22149673949749679736e+01) (40, -2.48614315763327539344e+02) (41, 1.09972894511346144242e+01) (42, -4.19580081485401706232e+02) (43, 1.20492281138438772636e+00) (44, -1.50000000000000000000e+03) (45, 8.31692861970122443438e+00) (46, 4.54866393914473349014e+02) (47, -4.64268276494575360402e-01) (48, -9.86714787048496049238e+01) (49, 2.54635195398193703298e+00) (50, 7.25830324735929593771e+02) (51, -3.36754840550286118628e+01) (52, 7.45732039519597151411e+02) (53, 6.62468579367218346476e+00) (54, 1.50000000000000000000e+03) (55, 2.19020509859814680453e+01) (56, 1.49945634419253656233e+03) (57, 7.60253742946037114336e+00) (58, -1.22312565168859464393e+03) (59, 2.28734830856760495976e-01) (60, 1.43708704322133939968e+03) (61, 1.81086331917739222774e+01) (62, 1.50000000000000000000e+03) (63, 1.62897435271539805512e+01) (64, -8.50000000000000000000e+02) (65, 7.79189902598263195443e+00) (66, 5.02660425165634450195e+01) (67, 5.86017693738495193401e+00) (68, -1.50000000000000000000e+03) (69, -1.19856404755151011443e+01) (70, -1.85079542989068706049e+01) (0, 1.50000000000000000000e+03) (1, 4.35608663978205612466e+00) (2, 1.50000000000000000000e+03) (3, 3.49800971913889391374e+00) (4, 1.49986529473525274625e+03) (5, 9.41508599974783066955e+00) (6, 4.82574803069990778681e+01) (7, -1.02385984702846215555e+01) (8, -2.84438739334486854204e+02) (9, -2.18292901372731442677e+01) (10, 1.45592802664768146315e+03) (11, 7.30723062291801372936e+00) (12, -1.50000000000000000000e+03) (13, 3.73227808793051067937e+01) (14, 1.50000000000000000000e+03) (15, -2.62774808869698794922e+00) (16, 9.48661914033035031935e+01) (17, 2.76038072247525700931e+00) (18, 6.86847587503672141196e+00) (19, 2.03043840550525445110e+01) (20, -1.92491305794328297907e+02) (21, 2.46454401287146787070e+01) (22, 1.50000000000000000000e+03) (23, -5.75486198184159380986e+00) (24, 1.50000000000000000000e+03) (25, -7.56547424526095735331e+00) (26, -1.49883648142848210227e+03) (27, 1.25919927917837455311e+01) (28, 4.58065225261058728279e+01) (29, 3.89300342331821180863e+00) (30, -7.14987258177117990243e+00) (31, 1.33768662023904667535e+01) (32, 9.96127022796298433605e+01) (33, 4.83514810899026770130e+01) (34, 2.83614594414381315346e+02) (35, 1.50711997370016046460e+01) (36, -1.49633068976082972767e+03) (37, 2.31686183049998390970e+01) (38, 1.50000000000000000000e+03) (39, -2.75334794485894729377e+00) (40, -4.44783424254268755504e+00) (41, -1.09991996751093896734e+01) (42, 4.97006053554944173811e+02) (43, 2.33540527614512747334e+01) (44, 1.50000000000000000000e+03) (45, -3.72917750090042421363e+00) (46, 6.95273069535655736217e+02) (47, -2.59091897626928684417e+01) (48, 4.20728637954150372025e+02) (49, 1.74460757005076629866e+01) (50, -5.41162433211946805045e+01) (51, 2.18856773795227610435e+01) (52, 6.09666422521592892281e+01) (53, 5.71305906193023815831e+00) (54, 1.50000000000000000000e+03) (55, -6.74715220559573047865e+00) (56, 1.50000000000000000000e+03) (57, -3.02811488112539031192e+01) (58, -3.87662064262996466368e+02) (59, 9.25460583023440008787e+00) (60, -7.12904481478398110994e+01) (61, 2.39523381417136960181e+01) (62, -1.50000000000000000000e+03) (63, -8.00269922507474262829e+00) (64, 1.50000000000000000000e+03) (65, 1.20947714226306182184e+01) (66, -5.38407119920605623520e+01) (67, 1.24768487381663657487e+01) (68, 1.50000000000000000000e+03) (69, -1.61742934806285454385e+01) (70, -2.84596652610240568038e+01) (0, 1.50000000000000000000e+03) (1, 6.10956694302310054923e+00) (2, 1.50000000000000000000e+03) (3, 1.66104642959220640819e+01) (4, 7.92955066663997172327e+02) (5, 1.67061263372020185614e+01) (6, 3.54445999754991873942e+01) (7, -5.27057735101033202341e+01) (8, -1.50000000000000000000e+03) (9, 1.89791161464752775601e+02) (10, 1.45592802664768146315e+03) (11, 2.18641068118109727081e+00) (12, -1.50000000000000000000e+03) (13, 4.03607507239186844572e+01) (14, 1.50000000000000000000e+03) (15, 5.12509444833228755556e+00) (16, -4.17977450910150878371e+01) (17, 3.11646994297157231557e+00) (18, 1.13035588003900056009e+01) (19, 1.03598291360796466165e+01) (20, -5.56631613984191972122e+02) (21, 4.93134032300172506780e+01) (22, 1.50000000000000000000e+03) (23, 2.52718646864231821780e+01) (24, 1.50000000000000000000e+03) (25, 1.27412173470684830789e+01) (26, -1.49861930471062396464e+03) (27, -1.78084040421357592265e+01) (28, -1.61653907563320188956e+02) (29, -3.27356011249963003706e+01) (30, 1.03664957109700935689e+02) (31, 3.76968334761324852522e+00) (32, 6.34842658062277322983e+01) (33, -2.21127972093337277215e+01) (34, -1.87456363529842548132e+02) (35, -2.17078943335458838249e+01) (36, -3.95097614396369806400e+02) (37, -2.55478636755378261114e+01) (38, -9.23481301338069556550e+02) (39, -7.99361728821819106372e+00) (40, -1.43203737577397464520e+03) (41, 1.74683643205501826223e+00) (42, 7.42048655103505780062e+02) (43, 1.12918407614510858394e+01) (44, 1.50000000000000000000e+03) (45, -9.17661262177124825712e+00) (46, -4.76042119533277912069e+02) (47, -1.23087658983174352834e+00) (48, 1.32659305500100913378e+02) (49, -2.29499270101886310158e+01) (50, -7.32648413263994711997e+02) (51, 1.07475705478543019922e+02) (52, -7.15299359512360183544e+02) (53, -6.71428577997561859547e+00) (54, -1.50000000000000000000e+03) (55, 4.90222459000508337112e+00) (56, -1.49920212748957897020e+03) (57, 1.42880763346341446152e+01) (58, 1.29017137383532570993e+02) (59, 2.73534422862870997051e+02) (60, -1.43371213768315237758e+03) (61, -6.59846001808689686108e-01) (62, -1.50000000000000000000e+03) (63, 2.20396328039606430593e+01) (64, 1.50000000000000000000e+03) (65, 3.70399604474355204076e+00) (66, -4.05068325212353812503e+01) (67, 1.61174073051829047643e+01) (68, 1.50000000000000000000e+03) (69, 1.98604535685026526437e+01) (70, 1.98992796244382184057e+01) (0, 1.50000000000000000000e+03) (1, -4.38721436507330952992e+00) (2, 1.50000000000000000000e+03) (3, -2.45895086005839260679e+01) (4, -9.81975255849274901720e+01) (5, 2.88391351068654833156e+00) (6, 1.13649899020742815026e+01) (7, 1.01125420010019979600e+01) (8, 1.50000000000000000000e+03) (9, -2.45540257921615978631e+00) (10, 1.49873983896938625549e+03) (11, -2.28027634310980964472e+00) (12, 5.14892732338663904557e+02) (13, -2.15426402725433918661e+00) (14, 1.50000000000000000000e+03) (15, 5.80304941236331583987e-01) (16, -3.16607604911533933034e+01) (17, 1.35682652398752203737e+01) (18, -1.92932871033054205157e+01) (19, 5.58479421289243038729e+00) (20, -6.57840581604215834943e+00) (21, 8.41848822036813615455e+00) (22, 1.50000000000000000000e+03) (23, -1.57843631547362868162e+01) (24, 1.50000000000000000000e+03) (25, 1.82309785139583659941e+01) (26, -1.75609267407775433867e+02) (27, -1.74828535087687022553e+01) (28, 1.64858050277967436159e+02) (29, 2.61249209412935421426e+01) (30, -1.13551677887621053742e+02) (31, 2.80756356980857120220e+01) (32, -2.73394208563474535367e+02) (33, -1.15943559264310813717e+01) (34, -3.46647533751881482544e+01) (35, 2.73751091461538678118e+01) (36, -5.07755429596010685600e+01) (37, -6.97009861013960474452e+00) (38, 7.01764268164258851357e+02) (39, -1.08762696002776717563e+01) (40, -1.42028608670082377330e+02) (41, -2.62482830082173563824e+01) (42, 5.74841975628196792059e+02) (43, 5.17856470721646378053e+00) (44, 1.50000000000000000000e+03) (45, 1.09388470795151402370e+01) (46, 1.75923082557209397692e+02) (47, 2.77132463074170010131e+00) (48, 6.91490434630988602294e+02) (49, -1.84361796068820815719e+01) (50, 5.80359730777583081363e+02) (51, -1.75826622662700380317e+01) (52, -8.52832448436539380054e+02) (53, 6.60649718882382330776e+00) (54, -2.99387831505474196092e+02) (55, 1.46061538999823188334e+01) (56, 8.83490781429158573701e+01) (57, -2.52881435357831829691e+00) (58, -8.96472166919438109289e+01) (59, 6.77839830102556284430e+00) (60, 5.17769475319736613983e+01) (61, -1.49125882576927715206e+01) (62, -1.50000000000000000000e+03) (63, 1.94364949021129405082e+01) (64, 1.50000000000000000000e+03) (65, 2.06490938287209324642e+00) (66, -3.76047114541882478989e+01) (67, -4.18601552972067114666e+00) (68, 1.50000000000000000000e+03) (69, -2.03368898109110745054e+01) (70, 5.52273255341422952824e+00) (0, -1.50000000000000000000e+03) (1, -4.28201181181007672905e+00) (2, -1.50000000000000000000e+03) (3, -7.70162161821040758269e+00) (4, -2.29999486678690999497e+02) (5, 1.26931337619051021193e+01) (6, -1.13655994176006493035e+03) (7, -1.92575595244028718867e+01) (8, 2.51010792242308951927e+02) (9, -1.01675594748537321266e+01) (10, -1.99732673215649782605e+02) (11, 4.09573957955173995060e+00) (12, 1.49985365430483761884e+03) (13, 1.38821410870436263707e+01) (14, -1.50000000000000000000e+03) (15, -2.39310859503076862609e+01) (16, -5.71415651254639200829e+00) (17, -6.29515018330567688309e+00) (18, -4.84831978546557618159e+00) (19, -1.62354277261385711029e+01) (20, 3.41480560335680891626e+01) (21, 1.98288698319851413032e+01) (22, -1.50000000000000000000e+03) (23, 6.46081091860572165331e+00) (24, -1.50000000000000000000e+03) (25, -3.62627066743219472755e+00) (26, 3.69709576028934066017e+02) (27, -2.24628347577306257676e+01) (28, -3.27091668897238832869e+02) (29, -7.93444709305609952033e-01) (30, 5.11679004719631009834e+01) (31, -1.24977919902784719852e+01) (32, 9.12215193470811698262e+01) (33, -6.65865371201267564061e+00) (34, -1.17921508933927782437e+02) (35, 1.00727369012629921485e+01) (36, -6.25963740081280093364e+02) (37, 3.69853107865946606481e+00) (38, 1.03370464426326179819e+03) (39, 1.68281228342515305485e+01) (40, 2.65543479678381011411e+01) (41, -1.11436565308915493944e+01) (42, -1.23276426749765860791e+02) (43, -3.75701488414425011086e+00) (44, -1.50000000000000000000e+03) (45, 4.73153961127267219666e+00) (46, -6.48840261707278784797e+01) (47, 6.31172111362200549678e+00) (48, -2.21483612225046954336e+02) (49, 1.66434546644524026249e+01) (50, 7.34894841322808474615e+02) (51, -8.79148174386701874994e+00) (52, 5.66835098008782892975e+02) (53, 2.81230670610956412503e-01) (54, 1.38596834120349672048e+03) (55, 1.66965733193046261817e+01) (56, 1.54554493460878958899e+01) (57, -2.83771715445802596989e-01) (58, -1.57735277755865830329e+01) (59, -3.15870713076027120891e+00) (60, 1.03061246536453472800e+03) (61, 2.36984579194802300606e+01) (62, 1.07457778553060256854e+03) (63, -9.51238477314133668017e+00) (64, -8.50000000000000000000e+02) (65, -1.31493059062352752875e+01) (66, 7.52111940840222388260e+01) (67, -3.16709461876302889038e-01) (68, -1.50000000000000000000e+03) (69, -2.38362964624080486686e+00) (70, 1.67211142546047120128e+00) (0, 1.50000000000000000000e+03) (1, -1.74899853865362620020e+00) (2, 1.50000000000000000000e+03) (3, 1.28292207174333476871e+01) (4, 8.23112709982173669232e+02) (5, -3.06542380876626268105e+01) (6, 2.78192275656787586513e+01) (7, -5.02601587852973707982e+01) (8, -1.50000000000000000000e+03) (9, 1.95388369105154367844e+02) (10, 1.45592802664768146315e+03) (11, -1.90540608490445855239e+01) (12, -1.50000000000000000000e+03) (13, 6.59225591779505464274e+01) (14, 1.50000000000000000000e+03) (15, 1.18798693378339237370e+01) (16, -5.74422730031547530416e+01) (17, -1.52478534783594241730e+01) (18, 1.37320236899163479194e+01) (19, 7.19817373776121427476e-01) (20, -5.95095080628480218365e+02) (21, 4.24687936708362414606e+01) (22, 1.50000000000000000000e+03) (23, 5.01519961077341758227e-01) (24, 1.50000000000000000000e+03) (25, 1.94465349280854340464e+01) (26, -1.49861930471062396464e+03) (27, -1.88199805552936183517e+01) (28, -8.55830314105458889173e+00) (29, -6.36809614780856634297e+01) (30, 1.44628677747210815596e+02) (31, -1.59464710269243958862e+01) (32, 1.20519063398930643416e+03) (33, -3.38780398402270037650e+01) (34, -1.69619467377872098268e+02) (35, 1.89266855946164653801e+01) (36, -4.00156517943752078281e+02) (37, 7.53430848018019894141e+00) (38, -1.00617751393069659116e+03) (39, -1.69338330811806194731e+01) (40, -1.35606968338458796097e+03) (41, -2.13561265725219264766e+01) (42, 7.47350491117299839061e+02) (43, 2.45903540483243148174e+01) (44, 1.50000000000000000000e+03) (45, -1.70197609511449563513e+01) (46, -4.81399343828073995155e+02) (47, -8.75884913784309127038e+00) (48, 1.01178805036115065263e+02) (49, -7.90450758724971702662e+00) (50, -7.39876878105837363364e+02) (51, 1.57340260337639620047e+02) (52, -7.53732486915620143009e+02) (53, 2.36980269984740203881e+01) (54, -1.50000000000000000000e+03) (55, 1.90032726648464134200e+01) (56, -1.49920212748957897020e+03) (57, 1.04212669110791935623e+01) (58, 1.35598646973681468353e+02) (59, 2.97114093677494281565e+02) (60, -1.43371213768315237758e+03) (61, 5.68251015241458112826e+00) (62, -1.50000000000000000000e+03) (63, -1.59138276746904117065e-01) (64, 1.50000000000000000000e+03) (65, -1.90026902293625816753e+01) (66, -4.32089127710217724143e+01) (67, -1.37075317491654278257e+01) (68, 1.50000000000000000000e+03) (69, 2.45092648916282698224e+01) (70, 2.47965154367954880854e+01) (0, -1.50000000000000000000e+03) (1, 1.90737353794873314428e+01) (2, -1.50000000000000000000e+03) (3, 1.30505956341828124323e+01) (4, -6.96017452112875275816e+02) (5, 2.07950085671136015719e+01) (6, -3.66589766437604751559e+01) (7, -1.47579744308416511700e+01) (8, 1.50000000000000000000e+03) (9, 4.42781179893022880378e+00) (10, -1.39328056555009789008e+03) (11, -9.58005063675984835925e+00) (12, 1.50000000000000000000e+03) (13, 1.03556937302048748251e+01) (14, -1.50000000000000000000e+03) (15, 7.93865251901625601505e+00) (16, -3.40244751333044748165e+00) (17, -1.61613209556246886223e+01) (18, 1.65273679212404331906e+01) (19, 6.50673463770856930211e+00) (20, -3.57258546260884912726e+00) (21, -6.55921641376615305319e+00) (22, -1.50000000000000000000e+03) (23, -1.86682597780671102328e+01) (24, -1.50000000000000000000e+03) (25, -2.87141613691663177832e+00) (26, 1.17514103301425279824e+03) (27, -1.47389494758390018347e+01) (28, -2.11979587720872189038e+02) (29, 1.06415001811195288894e+01) (30, -2.39862340369688212149e+02) (31, 8.07648056741132691627e+00) (32, -2.59193559275052166413e+02) (33, 1.70861591479143619665e+01) (34, 3.11479645772155322447e+02) (35, -1.13514364152435820454e-01) (36, -3.93882897036623319309e+02) (37, -3.92314126551720765423e-01) (38, 2.99100944112097522520e+02) (39, -1.32642726134486821365e+01) (40, -8.80276955982296414049e+01) (41, -1.92002535017103426185e+01) (42, 1.19650905116755870949e+03) (43, 9.32543065782904356809e+00) (44, 2.07121517384004931728e+02) (45, 1.40637838413247315827e+01) (46, 1.09673155235749482017e+03) (47, -1.49817023792952994654e+01) (48, 1.88902435669840187416e+01) (49, 2.17636414541984590798e+00) (50, 1.50000000000000000000e+03) (51, 1.19838536013480485565e+01) (52, -7.44997478991709726870e+02) (53, -2.17691941153283536892e+01) (54, 1.50000000000000000000e+03) (55, -8.19914387222866203331e+00) (56, 1.49944271429729974443e+03) (57, 7.48675757247222950497e+00) (58, -8.18531726101576737165e+02) (59, 1.26548964197969020518e+01) (60, 1.43708704322133939968e+03) (61, -9.50099162511725126024e+00) (62, 1.50000000000000000000e+03) (63, -2.86403208961266990684e+01) (64, -8.50000000000000000000e+02) (65, 7.61398255129720347156e+00) (66, 1.68693228224255769021e+01) (67, -8.39936350724126512546e+00) (68, -1.50000000000000000000e+03) (69, 1.04758266141022460261e+01) (70, 1.09932700627144690486e+01) (0, 1.50000000000000000000e+03) (1, 1.99299714705769730472e+01) (2, 1.50000000000000000000e+03) (3, -7.55831387335295867835e-01) (4, 4.50262865925589679250e+01) (5, 2.13926703180490633827e+01) (6, -8.37389857636717138689e+00) (7, 1.71659395172302566834e+01) (8, -2.70873434706066177569e+02) (9, 5.71927658449349785030e+00) (10, 1.68991723233424977479e+02) (11, 1.42886349037816562380e+00) (12, 1.50000000000000000000e+03) (13, 2.54621664392803097599e+01) (14, 1.50000000000000000000e+03) (15, -6.70033955979891238108e-02) (16, -1.73077084789020112510e+01) (17, -3.37687105477730966641e+01) (18, -4.23281641259465075677e+01) (19, -2.09154132370798535590e+01) (20, -1.50000000000000000000e+03) (21, -2.87584978825764636667e+01) (22, 1.50000000000000000000e+03) (23, -5.98924397065697089459e+00) (24, 1.50000000000000000000e+03) (25, 1.29371598505731739692e+01) (26, -1.06399724040666865221e+03) (27, -3.59672378267022025966e+01) (28, 1.09799589785513217066e+03) (29, 5.99152039803960168030e+00) (30, 3.63795241803873295794e+02) (31, 7.25035391142305929435e+00) (32, 2.45028090236392415591e+02) (33, -2.47279008889205478283e+01) (34, -5.03147506787499992242e+02) (35, -8.62735670846460322991e+00) (36, 1.14999843270858605138e+03) (37, 8.53402985332037999910e+00) (38, -9.37092197707984269073e+01) (39, 1.44058688810636077449e+01) (40, -8.21602102532950198110e+01) (41, -5.24913946000400510883e+00) (42, 2.98644643845252311110e+01) (43, -3.50754955846236953221e+01) (44, 1.50000000000000000000e+03) (45, -1.03590653380143091766e+01) (46, 7.32427118556772995817e+01) (47, 8.06386161230986786563e+00) (48, -8.28995899770751748292e+02) (49, -6.04744907108781326599e+00) (50, 9.38003164940524953863e+01) (51, -1.29566972257446764161e+01) (52, -1.16768452524735425868e+03) (53, -1.19298804943439016313e+01) (54, -1.50000000000000000000e+03) (55, 1.04595394204528790993e+01) (56, 6.05655871442785809222e+01) (57, -1.35794788148477731937e+01) (58, 1.49308395704698705231e+03) (59, -9.42251361222779593163e+00) (60, -1.08690981246083012479e+02) (61, 9.65261110838513936017e+00) (62, -1.46190285856457921909e+03) (63, -6.16516047922164966977e-01) (64, 1.50000000000000000000e+03) (65, 8.41232926719865226062e+00) (66, -6.23558530023449719693e+01) (67, -1.63660946864235476994e+01) (68, 1.50000000000000000000e+03) (69, 2.55827209681842360212e+00) (70, 2.52732607935493120976e+01) (0, 1.50000000000000000000e+03) (1, -3.84942812156877378627e+00) (2, 1.50000000000000000000e+03) (3, 1.94755781364389619625e+01) (4, 7.92726471884028683235e+02) (5, -1.17565429925686473211e+01) (6, 6.25214654316687301616e+01) (7, 1.20667214939398466100e+01) (8, -9.96375520098771971789e+02) (9, 9.17460888320841161381e-01) (10, 1.45592802664768146315e+03) (11, -3.47465468357994922144e+01) (12, -1.50000000000000000000e+03) (13, 1.54239569721637304056e+00) (14, 1.50000000000000000000e+03) (15, -4.53677304221999833089e+00) (16, 1.48761479992776575187e+01) (17, 1.49723708927176843986e+01) (18, 1.37736273133543143388e+01) (19, -7.95613542696375297680e+00) (20, -4.02438085295877613135e+02) (21, 1.83543627659405004238e+01) (22, 1.50000000000000000000e+03) (23, -1.19833649062012863595e+01) (24, 1.50000000000000000000e+03) (25, -1.68911858245574002524e+01) (26, -1.50000000000000000000e+03) (27, -2.79644600172762487489e+01) (28, -4.07853297465048498793e+01) (29, 5.43127158965207268437e+00) (30, -4.02830215630500276802e+01) (31, -2.82462568747741649133e+01) (32, 3.43330509220471853382e+01) (33, -1.29094872596296887934e+01) (34, 3.44270383816272342870e+01) (35, -2.89223320171188440497e+01) (36, -1.50000000000000000000e+03) (37, -1.33077449898714350596e+00) (38, -1.29182602621015848854e+03) (39, 4.03810117215820252312e+00) (40, -2.16363595252200227037e+01) (41, 2.27779756047370263161e+01) (42, -1.50000000000000000000e+03) (43, -1.07748149183372330384e+01) (44, 9.81353652382266432141e+02) (45, 1.10661778208884840069e+01) (46, 2.55484419273816484974e+02) (47, 5.14930276570396916469e+00) (48, 1.50000000000000000000e+03) (49, -1.60903464678590566450e+01) (50, -1.50000000000000000000e+03) (51, 8.14626390028994684656e+00) (52, -1.46234760485317735856e+02) (53, 1.66414745198603348797e+01) (54, -1.48767528772804394066e+03) (55, 1.77879580494149074354e+01) (56, -2.17340740449242929344e+02) (57, 2.82863288292089123388e+01) (58, 9.59741485891759111837e+01) (59, -2.30487056320659924324e+01) (60, -1.49912433090904073651e+03) (61, -1.04083701822865837272e+00) (62, -1.50000000000000000000e+03) (63, 1.41479147752405438609e+01) (64, 1.50000000000000000000e+03) (65, 4.60684784967728422345e+00) (66, -8.19574374368540077285e+01) (67, -3.92614250648840235058e+00) (68, 1.50000000000000000000e+03) (69, 9.83333475112371502291e+00) (70, 1.96396643548134690604e+01) (0, -1.50000000000000000000e+03) (1, -1.72934984765713863908e+01) (2, -1.50000000000000000000e+03) (3, 1.18883999692804085413e+01) (4, -8.02431751220762862431e+02) (5, 2.68335453690204346344e+01) (6, -1.56743784839706421508e+01) (7, -2.98869847071143501793e+00) (8, 1.50000000000000000000e+03) (9, 2.56209012090557521901e+01) (10, -1.45309082193643894243e+03) (11, 6.87591450318960806243e+00) (12, 1.50000000000000000000e+03) (13, 9.13251644010444252331e+00) (14, -1.50000000000000000000e+03) (15, 1.95318189035762102002e+00) (16, -5.68971591045926938790e+00) (17, -6.25838524641619287081e+00) (18, -8.50595225936275056711e+00) (19, -2.01024121822955237349e+01) (20, 1.39435387782425213032e+00) (21, -1.72562110291421788588e+01) (22, -1.25928427578468586034e+03) (23, -3.09692782717378030100e+01) (24, -1.09391544494087429484e+03) (25, -1.59935129012077936750e+00) (26, 1.30365101125988553576e+03) (27, -4.25616359867594340471e+00) (28, 2.16207544123162847427e+02) (29, 6.52969316909890125089e+01) (30, -7.82088843924833980736e+01) (31, 2.64222397925974306077e+00) (32, -1.38550585470806964850e+02) (33, 9.61752849873312065654e+00) (34, 2.99233882745072492071e+02) (35, -1.58855340344659728968e-01) (36, 4.13095327947823193426e+02) (37, 2.73222970948746501918e+00) (38, 1.09639217626085155644e+03) (39, -7.39886784292100685434e+00) (40, 7.41149504440475652700e+02) (41, 1.38503984315524011350e+01) (42, 2.45403662345894446162e+02) (43, -3.65319356581255050287e+01) (44, -9.71915522856726965983e+02) (45, 9.57902274396883868235e+00) (46, 4.01585795967717217536e+02) (47, 1.25083390241308611834e+00) (48, -1.19127300695816643383e+02) (49, 2.78890295549510973672e+01) (50, 2.90499122046009802034e+02) (51, -7.40542329641881593716e+01) (52, 9.09596552739236244634e+02) (53, 3.04722488050176103513e+01) (54, 1.50000000000000000000e+03) (55, -2.45852139946536176751e+01) (56, 1.49945705352425102319e+03) (57, -1.69905976949396446685e+01) (58, -6.13084261632039044798e+01) (59, -2.64466986156649639383e+01) (60, 1.43708704322133939968e+03) (61, -5.54750238423088415374e+00) (62, 1.50000000000000000000e+03) (63, 1.26896560082532054992e+01) (64, -8.50000000000000000000e+02) (65, 5.75468958365771232621e+00) (66, 4.44494820097427805194e+01) (67, 4.13373976201035020495e+00) (68, -1.50000000000000000000e+03) (69, 2.65785052367576675181e+01) (70, 1.66179951523532203339e+01) (0, -1.50000000000000000000e+03) (1, -1.73022511769927831438e+01) (2, -1.50000000000000000000e+03) (3, 2.04986114485144348407e+01) (4, -1.12869102382654432404e+02) (5, -1.58824495108841095004e+01) (6, 4.06304403361131463157e+01) (7, -4.74121657518659667119e+00) (8, 5.46866657088681677124e+02) (9, -1.09902102388554876455e+01) (10, -1.90788469870918476090e+02) (11, 1.94588796807514352594e+00) (12, 1.39491708391180873150e+03) (13, 2.28620627948048706912e+01) (14, -1.50000000000000000000e+03) (15, 5.80284873220539143546e+00) (16, 2.13039715157788478450e+01) (17, 1.37782161299760428363e+01) (18, 2.72139897544271702756e-01) (19, 6.76965717663688693051e+00) (20, 5.02126608258460436218e+01) (21, 4.56030312745682397946e+00) (22, -1.50000000000000000000e+03) (23, -2.20540789074129861547e+00) (24, -1.50000000000000000000e+03) (25, -2.24327995668731325907e+01) (26, 1.50000000000000000000e+03) (27, 2.25379742871879393817e+01) (28, -2.41220179441175986312e+02) (29, -3.31109595051669813870e-01) (30, -6.49877420613567835517e+01) (31, 1.74866214039287299897e+01) (32, -1.38353909803535248102e+03) (33, -4.51432040299940151584e+00) (34, 6.66136015566936407595e+02) (35, -2.42722314055166954461e+01) (36, 7.84953218803437380302e+02) (37, 2.94237791667677672791e+00) (38, -8.18746656152568874631e+01) (39, 9.71919226504248112697e-01) (40, 2.34799447589096992317e+01) (41, 8.57131951050906515377e+00) (42, -2.23418081849851063225e+02) (43, -2.36245923549662357743e+01) (44, 1.50000000000000000000e+03) (45, 8.20217541494582746964e+00) (46, -1.25389896422424726552e+03) (47, -1.90270664133380691396e+01) (48, 9.66490472128651134653e+01) (49, 1.47120185530222133963e+01) (50, -1.49538703363983881900e+03) (51, -5.64862249488572576439e+00) (52, 2.07951312990099665967e+01) (53, 1.13142477210932135279e+01) (54, 2.81955202962193538951e+02) (55, -9.70057528655839540477e+00) (56, -1.50000000000000000000e+03) (57, 2.43143459370033596656e+01) (58, 1.46915588230935696856e+02) (59, -1.54899086845262665690e+01) (60, 9.87321712491044877424e+02) (61, -5.60305781893268584071e+00) (62, 1.61410105419945011818e+02) (63, -3.03119480593013790326e+01) (64, -8.50000000000000000000e+02) (65, -2.14978412452001172994e+01) (66, 3.79180021742324981915e+01) (67, 8.88520287081068893542e-01) (68, -1.50000000000000000000e+03) (69, 1.29128495515624948098e+01) (70, -5.75119615777149387204e-02) (0, 1.50000000000000000000e+03) (1, -1.78894190387225329175e+01) (2, 1.50000000000000000000e+03) (3, 1.19005657450902635475e+01) (4, 8.11277072889583564574e+02) (5, -2.15461033667745773812e+01) (6, 5.69740403784838989054e+01) (7, -7.79611007348273261641e+01) (8, -1.50000000000000000000e+03) (9, 1.92469141981893898219e+02) (10, 1.45592802664768146315e+03) (11, 8.41547197417245484985e+00) (12, -1.50000000000000000000e+03) (13, 4.27535213084333847178e+01) (14, 1.50000000000000000000e+03) (15, 7.76063729386809963984e+00) (16, -2.43218525472222886208e+01) (17, 1.00460084304412822220e+00) (18, 1.54367584921624434457e+01) (19, 1.12626669170832061084e+00) (20, -5.72309516086662824819e+02) (21, 2.20172870821947483932e+01) (22, 1.50000000000000000000e+03) (23, -1.47359153153189819108e+01) (24, 1.50000000000000000000e+03) (25, -8.06894055571437363028e+00) (26, -1.49861930471062396464e+03) (27, -4.74579995226660855678e+00) (28, 4.71819335543863473958e+01) (29, -5.16437804187512270460e+01) (30, 1.22567115189347461524e+02) (31, 1.75722496900180829016e+01) (32, 1.19732063056472156859e+03) (33, -5.14151906126759961069e+00) (34, -1.63445251316707697242e+02) (35, -1.22256271309031827599e+01) (36, -4.39451846906315779506e+02) (37, -1.02644739278124443871e+01) (38, -1.08227943076323754212e+03) (39, 1.55722634840565952175e+01) (40, 7.87616994029502052399e+02) (41, -2.02262934731012222755e+01) (42, 7.25083025525868947625e+02) (43, 2.46598171357138404858e+01) (44, 1.50000000000000000000e+03) (45, -5.98387461904688611192e-01) (46, -4.45320624381758022992e+02) (47, -7.83642765413058128843e+00) (48, 1.22667359990644115442e+02) (49, 1.09957126108053468982e+01) (50, -7.47566982828814047934e+02) (51, 1.56096391826726915042e+02) (52, -7.16015587997467491732e+02) (53, -2.25048616181551111026e+01) (54, -1.50000000000000000000e+03) (55, -1.57482461075013127072e+01) (56, -1.49920212748957897020e+03) (57, 3.50369106088618877948e+01) (58, 1.09700433110308637197e+02) (59, 2.90343542711231464182e+02) (60, -1.43371213768315237758e+03) (61, -9.03311621238863260430e+00) (62, -1.50000000000000000000e+03) (63, 4.06185225624080672446e+01) (64, 1.50000000000000000000e+03) (65, -1.73320791837980303640e+00) (66, -5.60583848169201672818e+01) (67, 2.71530938513049591165e+01) (68, 1.50000000000000000000e+03) (69, 4.67367873811425393882e+00) (70, 3.21386486572015570573e+01) (71, 2.03440721713113337188e+00) (72, -3.52219249263163725061e+00) (73, 1.41268983827009133591e+01) (74, 2.71247968739161535723e+01) (75, -5.25694904929738271449e+00) (76, -1.32761231429744217536e+01) (77, -3.15288111668833836987e+00) (78, 2.06813513955068772887e+00) (79, -1.24844171607961929027e+01) (80, 7.72587221936885448770e+00) (81, -2.43406679032329620327e+00) (82, -6.66849512949315936794e+00) (83, 1.27201785556556163925e+01) (84, 3.68446955006502063767e+00) (85, -5.47658003460466691337e+00) (86, -1.23708106005159237384e+01) 
