FANN_FLO_2.1
num_layers=3
learning_rate=0.700000
connection_rate=1.000000
network_type=0
learning_momentum=0.000000
training_algorithm=2
train_error_function=1
train_stop_function=0
cascade_output_change_fraction=0.010000
quickprop_decay=-0.000100
quickprop_mu=1.750000
rprop_increase_factor=1.001000
rprop_decrease_factor=0.333300
rprop_delta_min=0.000000
rprop_delta_max=50.000000
rprop_delta_zero=0.100000
cascade_output_stagnation_epochs=12
cascade_candidate_change_fraction=0.010000
cascade_candidate_stagnation_epochs=12
cascade_max_out_epochs=150
cascade_max_cand_epochs=150
cascade_num_candidate_groups=2
bit_fail_limit=3.49999999999999977796e-01
cascade_candidate_limit=1.00000000000000000000e+03
cascade_weight_multiplier=4.00000000000000022204e-01
cascade_activation_functions_count=10
cascade_activation_functions=3 5 7 8 10 11 14 15 16 17 
cascade_activation_steepnesses_count=4
cascade_activation_steepnesses=2.50000000000000000000e-01 5.00000000000000000000e-01 7.50000000000000000000e-01 1.00000000000000000000e+00 
layer_sizes=71 21 2 
scale_included=0
neurons (num_inputs, activation_function, activation_steepness)=(0, 0, 0.00000000000000000000e+00) (0, 0, 0.00000000000000000000e+00) (0, 0, 0.00000000000000000000e+00) (0, 0, 0.00000000000000000000e+00) (0, 0, 0.00000000000000000000e+00) (0, 0, 0.00000000000000000000e+00) (0, 0, 0.00000000000000000000e+00) (0, 0, 0.00000000000000000000e+00) (0, 0, 0.00000000000000000000e+00) (0, 0, 0.00000000000000000000e+00) (0, 0, 0.00000000000000000000e+00) (0, 0, 0.00000000000000000000e+00) (0, 0, 0.00000000000000000000e+00) (0, 0, 0.00000000000000000000e+00) (0, 0, 0.00000000000000000000e+00) (0, 0, 0.00000000000000000000e+00) (0, 0, 0.00000000000000000000e+00) (0, 0, 0.00000000000000000000e+00) (0, 0, 0.00000000000000000000e+00) (0, 0, 0.00000000000000000000e+00) (0, 0, 0.00000000000000000000e+00) (0, 0, 0.00000000000000000000e+00) (0, 0, 0.00000000000000000000e+00) (0, 0, 0.00000000000000000000e+00) (0, 0, 0.00000000000000000000e+00) (0, 0, 0.00000000000000000000e+00) (0, 0, 0.00000000000000000000e+00) (0, 0, 0.00000000000000000000e+00) (0, 0, 0.00000000000000000000e+00) (0, 0, 0.00000000000000000000e+00) (0, 0, 0.00000000000000000000e+00) (0, 0, 0.00000000000000000000e+00) (0, 0, 0.00000000000000000000e+00) (0, 0, 0.00000000000000000000e+00) (0, 0, 0.00000000000000000000e+00) (0, 0, 0.00000000000000000000e+00) (0, 0, 0.00000000000000000000e+00) (0, 0, 0.00000000000000000000e+00) (0, 0, 0.00000000000000000000e+00) (0, 0, 0.00000000000000000000e+00) (0, 0, 0.00000000000000000000e+00) (0, 0, 0.00000000000000000000e+00) (0, 0, 0.00000000000000000000e+00) (0, 0, 0.00000000000000000000e+00) (0, 0, 0.00000000000000000000e+00) (0, 0, 0.00000000000000000000e+00) (0, 0, 0.00000000000000000000e+00) (0, 0, 0.00000000000000000000e+00) (0, 0, 0.00000000000000000000e+00) (0, 0, 0.00000000000000000000e+00) (0, 0, 0.00000000000000000000e+00) (0, 0, 0.00000000000000000000e+00) (0, 0, 0.00000000000000000000e+00) (0, 0, 0.00000000000000000000e+00) (0, 0, 0.00000000000000000000e+00) (0, 0, 0.00000000000000000000e+00) (0, 0, 0.00000000000000000000e+00) (0, 0, 0.00000000000000000000e+00) (0, 0, 0.00000000000000000000e+00) (0, 0, 0.00000000000000000000e+00) (0, 0, 0.00000000000000000000e+00) (0, 0, 0.00000000000000000000e+00) (0, 0, 0.00000000000000000000e+00) (0, 0, 0.00000000000000000000e+00) (0, 0, 0.00000000000000000000e+00) (0, 0, 0.00000000000000000000e+00) (0, 0, 0.00000000000000000000e+00) (0, 0, 0.00000000000000000000e+00) (0, 0, 0.00000000000000000000e+00) (0, 0, 0.00000000000000000000e+00) (0, 0, 0.00000000000000000000e+00) (71, 4, 5.00000000000000000000e-01) (71, 4, 5.00000000000000000000e-01) (71, 4, 5.00000000000000000000e-01) (71, 4, 5.00000000000000000000e-01) (71, 4, 5.00000000000000000000e-01) (71, 4, 5.00000000000000000000e-01) (71, 4, 5.00000000000000000000e-01) (71, 4, 5.00000000000000000000e-01) (71, 4, 5.00000000000000000000e-01) (71, 4, 5.00000000000000000000e-01) (71, 4, 5.00000000000000000000e-01) (71, 4, 5.00000000000000000000e-01) (71, 4, 5.00000000000000000000e-01) (71, 4, 5.00000000000000000000e-01) (71, 4, 5.00000000000000000000e-01) (71, 4, 5.00000000000000000000e-01) (71, 4, 5.00000000000000000000e-01) (71, 4, 5.00000000000000000000e-01) (71, 4, 5.00000000000000000000e-01) (71, 4, 5.00000000000000000000e-01) (0, 4, 5.00000000000000000000e-01) (21, 4, 9.00000000000000022204e-01) (0, 4, 9.00000000000000022204e-01) 
connections (connected_to_neuron, weight)=(0, -1.50000000000000000000e+03) (1, 1.43562613255292461645e+01) (2, 1.50000000000000000000e+03) (3, 2.84705663487397009348e+00) (4, -2.57147078099530972395e+01) (5, -2.42301615314838620918e+01) (6, 7.05428054427353430356e+01) (7, 1.48883302786127602602e+00) (8, 2.13222115068121986781e+01) (9, 1.21466174282062606693e+01) (10, -1.50000000000000000000e+03) (11, -1.08060123043526719044e+01) (12, 1.50000000000000000000e+03) (13, -2.23591551982912726260e+01) (14, -1.50000000000000000000e+03) (15, 1.93635260056876781221e+01) (16, -9.52662206923021948057e+00) (17, -1.42842861069621052117e+00) (18, -2.05946810434426694769e+01) (19, 1.87993826080847590276e+01) (20, 2.15823688835029408040e+01) (21, -1.06700305610681001056e+00) (22, -1.50000000000000000000e+03) (23, -1.88523641807902073708e+01) (24, -1.50000000000000000000e+03) (25, -1.68263706133399217890e+01) (26, 1.50000000000000000000e+03) (27, 1.96451257199809177223e+01) (28, 8.57690127151682020212e+01) (29, -5.45811964747384426033e+00) (30, 3.06473187096774104532e+01) (31, 4.83056811155536003355e+00) (32, -3.66752128073676031406e+00) (33, 2.57866833912476280943e+01) (34, 7.29090946125414518519e+01) (35, -1.75287520005030934556e+01) (36, 1.11527163135672049066e+03) (37, 3.96918793763057609070e+00) (38, -1.01101378032353039771e+01) (39, -2.17291388146501027734e+01) (40, -1.52482208174230748909e+01) (41, -1.82089552185154310848e+01) (42, 6.87149934804351119055e+02) (43, 3.22019797265615181914e+00) (44, -3.56121216759108216721e+00) (45, -5.05664145410738452568e+00) (46, 7.85745375264642165192e-01) (47, 7.87349038105184995118e+00) (48, -1.27663978645389988742e+03) (49, -1.73460913108250358583e+00) (50, -1.29565518327208621940e+02) (51, -1.32360458837705934343e+01) (52, 5.73480382995953164027e+01) (53, -1.32772855265951044146e+01) (54, 9.81058994974855522742e+01) (55, -1.53516398416041184305e+01) (56, 2.96800230456485849118e+02) (57, -2.91774776903629167180e+01) (58, 9.82650426934504253040e+01) (59, -1.85098117645114115248e+01) (60, 3.00794451523949248894e+02) (61, 1.82658503429491290149e+01) (62, 1.50000000000000000000e+03) (63, 2.17878527166871904797e+00) (64, 1.50000000000000000000e+03) (65, 1.78167390899365507551e+01) (66, 4.43332703270348318370e+01) (67, -1.37062251084318873495e+01) (68, -1.50000000000000000000e+03) (69, -1.12765666229246797059e+01) (70, 1.17436151580523606697e+01) (0, 1.50000000000000000000e+03) (1, -9.18514318376811012001e+00) (2, 1.50000000000000000000e+03) (3, -5.09862955349612612110e+00) (4, 1.07292427678160592563e+02) (5, 1.51447836180660129202e+01) (6, -1.15087078320832176814e+02) (7, 1.89975895321898207158e+01) (8, -5.52224981950167943978e+02) (9, 7.65089606260039367669e+00) (10, 1.50000000000000000000e+03) (11, 2.21418438010711895458e+01) (12, -1.50000000000000000000e+03) (13, 2.42068715983829818583e+01) (14, 1.50000000000000000000e+03) (15, -4.06193989456890847123e+00) (16, 3.30291885872589787709e+01) (17, -2.32548485664184667598e+01) (18, -4.43758142868655625080e+00) (19, -1.75011311274447542985e+01) (20, 2.81775900352780510616e+01) (21, 3.31292144952284850490e+00) (22, 1.50000000000000000000e+03) (23, -9.21612826740132540237e+00) (24, 1.50000000000000000000e+03) (25, 9.81306755412236952907e+00) (26, -1.50000000000000000000e+03) (27, 1.57394396585494060758e+01) (28, -8.32594443020391508981e+02) (29, -1.58615795332120512739e+01) (30, 2.96027368713138457679e+02) (31, -2.44461867429257431183e+01) (32, -1.50000000000000000000e+03) (33, -1.66325490360680845470e+01) (34, -1.50000000000000000000e+03) (35, -1.12225004476718730473e+01) (36, -1.50000000000000000000e+03) (37, 2.38796876454306392645e+01) (38, -5.34788856333297076162e+02) (39, -1.33695710825519178400e+01) (40, -1.95725889679482882855e+01) (41, 4.62983819292284159985e+00) (42, 5.22467675537034903499e+00) (43, 2.37536778476360623813e+01) (44, -1.50000000000000000000e+03) (45, 2.28150293255809906157e+01) (46, -1.50000000000000000000e+03) (47, 1.89870308231979656455e+01) (48, -1.50000000000000000000e+03) (49, 1.54072080127487893719e+01) (50, 9.02094069734330673782e+02) (51, -1.34666119003945663479e+01) (52, -4.26557284183758554263e+02) (53, -1.23974495542061546871e+00) (54, -3.13142797213358328179e+01) (55, -1.61956351688911688314e+01) (56, -7.68786573555579138883e+02) (57, -1.51634819368692372876e+01) (58, -1.86778350286392331725e+01) (59, 5.97056705659693687238e+00) (60, -1.50000000000000000000e+03) (61, -2.84807499196602584846e+01) (62, -1.50000000000000000000e+03) (63, -2.11679961464262369475e+01) (64, 1.50000000000000000000e+03) (65, 3.74378196460081857921e+00) (66, -6.91077981629149373788e+00) (67, -8.56769821287144850430e+00) (68, 1.50000000000000000000e+03) (69, -4.90708262842964781925e+00) (70, -1.57751966311323794656e+01) (0, 1.50000000000000000000e+03) (1, 1.92860531638938006438e+01) (2, 1.50000000000000000000e+03) (3, 1.29728209960926772482e+01) (4, 1.23196376591372072085e+02) (5, 2.33836109894440191681e+01) (6, -3.27406053275847952477e+01) (7, 1.40982926662269747453e+00) (8, -2.38236473866167813185e+02) (9, -2.72796878179153061694e+01) (10, 1.50000000000000000000e+03) (11, 1.03778681901202229909e+01) (12, -1.50000000000000000000e+03) (13, 1.13652874904029292935e+01) (14, 1.50000000000000000000e+03) (15, -2.09074894465508442920e+01) (16, -1.47750650896043467242e+00) (17, 1.65412093311002088569e+01) (18, -1.65388908252367166085e+01) (19, -1.68341594499992042167e+00) (20, 7.13875480980177723467e+00) (21, 1.09672498550520831628e+01) (22, 1.50000000000000000000e+03) (23, -2.07727847821603788248e+01) (24, 1.50000000000000000000e+03) (25, 8.66752133090564136353e+00) (26, -1.50000000000000000000e+03) (27, 2.46518585715696261218e+01) (28, -5.58640723291272394135e+01) (29, 1.03510784142934824104e+01) (30, -3.11689542876926338977e+02) (31, 2.26757584711034319014e+01) (32, -3.63260876573757229835e+02) (33, 6.49064087445094095585e+00) (34, -2.61773215884214380367e+02) (35, 5.55556413985530461730e+00) (36, 1.50000000000000000000e+03) (37, 8.43808587920212183064e+00) (38, -5.76674311545709542770e+02) (39, -2.35060558601602487272e+01) (40, 4.34816065332309449332e+01) (41, 2.23308279842178297736e-01) (42, 2.05929644300976860904e+02) (43, 1.81637368259093534562e+01) (44, 1.00231536366590475495e+02) (45, 2.02320361497754070967e+01) (46, 1.36881030910995332306e+03) (47, 2.04876455377045729733e+01) (48, -1.25434418075479854338e+02) (49, -2.00035909386727972503e+01) (50, -5.69193245179863083649e+02) (51, -8.69223595884510302767e+00) (52, -6.82205243041732273923e+02) (53, -7.37146327427376935049e+00) (54, 2.34801251062329470187e+01) (55, -1.62135159183136750016e+01) (56, 8.74439150223892340819e+01) (57, 2.18366482415454719046e+01) (58, 1.30905401498577109720e+01) (59, 1.38860615792185342343e+01) (60, -6.40934358260363865156e+02) (61, 2.15168111223563851553e+00) (62, -1.50000000000000000000e+03) (63, -1.30490304083916299760e+01) (64, 1.50000000000000000000e+03) (65, -2.82508659477385792869e+00) (66, -7.01448888831125145771e+01) (67, -2.94678201341083223497e+00) (68, 1.50000000000000000000e+03) (69, -1.84139096063837790496e+01) (70, -1.62301695358296740324e+01) (0, -1.50000000000000000000e+03) (1, 2.29317261332272401830e+01) (2, 1.50000000000000000000e+03) (3, -2.37843455385205544417e+01) (4, -1.17276398526024777880e+02) (5, 5.66007933254930239997e+00) (6, 7.62463718332549547085e+01) (7, -1.64201724196726637217e+01) (8, 5.52493970980195285847e+02) (9, 2.07363998389308683556e+01) (10, -1.50000000000000000000e+03) (11, -1.76748908346865114538e+01) (12, 1.50000000000000000000e+03) (13, -1.47118316005668248181e+01) (14, -1.50000000000000000000e+03) (15, -7.24884582273359079352e+00) (16, -1.22675892562282715659e+01) (17, 1.34705658749317347400e+01) (18, -4.02207116606376757773e+01) (19, -2.50375461487051254039e+00) (20, 1.45503325222057995347e+01) (21, -3.00412972386963076588e+02) (22, -1.50000000000000000000e+03) (23, -2.74337543620653256937e+00) (24, -1.50000000000000000000e+03) (25, -1.28695479397443648395e+01) (26, 1.50000000000000000000e+03) (27, -3.19587202229014799570e+01) (28, 1.23147404195463366250e+02) (29, -4.75102173983592201978e+00) (30, 1.58023845163419043303e+01) (31, 2.36055804001267865999e+01) (32, 1.50000000000000000000e+03) (33, -4.37215221606927073594e+01) (34, 1.50000000000000000000e+03) (35, -2.20460385305339457318e+02) (36, 1.50000000000000000000e+03) (37, -1.77419889629385778562e+01) (38, 5.21332016437519527585e+01) (39, 6.57235016571566177390e+00) (40, 1.40709241850079247449e+00) (41, 2.24639564297431206796e+01) (42, 1.97302998099364792495e+01) (43, -1.59431526804481080717e+02) (44, 1.50000000000000000000e+03) (45, 1.06060651801142196149e+01) (46, 2.48252089870553440676e+01) (47, -1.21854690271221943476e+03) (48, 1.50000000000000000000e+03) (49, -9.04529206864673973598e+00) (50, -1.34018008520804914951e+03) (51, 3.89457516678344717320e+00) (52, 7.76660970314633942735e+01) (53, -1.63158931050549895758e+01) (54, 4.88480340586741732523e+01) (55, -8.48117640389537200463e+02) (56, 9.40463065892368604182e+02) (57, 4.18785068215772715572e-01) (58, 1.36370002438382336152e+01) (59, -3.59674040562049768255e+01) (60, 1.12074926923862108197e+03) (61, 1.98714367096014363767e+01) (62, 1.50000000000000000000e+03) (63, -2.38005938203602944725e+01) (64, 1.50000000000000000000e+03) (65, 1.66987210203173361833e+01) (66, 6.29346073296081165438e+00) (67, 2.36512080914086340044e+01) (68, -1.50000000000000000000e+03) (69, 1.72182746352934508138e+01) (70, -2.21079474198017358333e+01) (0, 1.50000000000000000000e+03) (1, 1.35029990937890413960e+01) (2, 1.50000000000000000000e+03) (3, -2.75761543117985752360e+00) (4, 3.56581454466567322470e+01) (5, -1.03939484844439764544e+01) (6, 9.11776807404674798363e+01) (7, -5.05933351678248577343e+00) (8, 2.68094936495753472627e+02) (9, -1.39861263632718895167e+01) (10, 1.50000000000000000000e+03) (11, 1.82928007998833699332e+01) (12, -1.50000000000000000000e+03) (13, 1.19596372029357134181e+01) (14, 1.50000000000000000000e+03) (15, 2.30943506511320251207e+01) (16, 1.99253709799142413317e+01) (17, 2.00879824987671113945e+01) (18, -6.05321914879658962150e+00) (19, -1.21261722194255039398e+01) (20, 3.92513308741133748470e+00) (21, 3.84251757650857470594e+01) (22, 1.50000000000000000000e+03) (23, 9.66507718926432524142e+00) (24, 1.50000000000000000000e+03) (25, -5.90822444281605108074e+00) (26, -1.50000000000000000000e+03) (27, 1.86007145930371073916e+01) (28, 1.20218735033822284208e+02) (29, 1.27296912906143226962e+01) (30, 9.73201941636002061387e+01) (31, 1.80679309600056932084e+01) (32, -3.37420353490684590270e+02) (33, -1.02440810131851414155e+01) (34, -1.50000000000000000000e+03) (35, 4.78847958594670188859e+01) (36, -1.50000000000000000000e+03) (37, 3.39801381516238842906e+00) (38, 4.05689864041660328553e+01) (39, 1.92777591417876315028e+00) (40, -1.06848880737468938662e+01) (41, 2.47860963830990606027e+01) (42, -1.97447934430631155678e+00) (43, 7.72223749271463688615e+00) (44, -1.50000000000000000000e+03) (45, -3.32534483518416479342e+00) (46, -4.74976405429113324175e+00) (47, 5.74899857919057239997e+01) (48, 3.07822996431655610650e+02) (49, -1.84133464817714056494e+01) (50, 1.44798606609131388723e+03) (51, -1.75144582852973051956e+01) (52, 4.85208289493651889757e+01) (53, -1.46732585030526045955e+01) (54, 8.16916277490033593267e+01) (55, 3.36056077460554831760e+01) (56, 8.52711117584995236029e+02) (57, 7.69545881245006579974e+00) (58, -1.44526466191354585611e+00) (59, -1.15072091986787494733e+01) (60, 1.02415747510550181687e+03) (61, 7.55196709971428603581e+00) (62, -1.01236678320213593452e+03) (63, -2.40051629618427462276e+01) (64, 1.50000000000000000000e+03) (65, -2.91006837688908603923e+00) (66, 4.42333887909112064563e+01) (67, 1.24936221196528318700e+01) (68, 1.50000000000000000000e+03) (69, 3.86194955852640164906e+00) (70, 2.40932718589499863526e+01) (0, 1.50000000000000000000e+03) (1, 2.00886489421392369081e+01) (2, 1.50000000000000000000e+03) (3, 4.43582839892877434096e+00) (4, 1.29900170464568219586e+02) (5, 1.99009093107597649919e+01) (6, -8.09383633016059462761e+01) (7, -3.10509067578517843344e+01) (8, -5.52224981950167943978e+02) (9, -2.25027241777168995895e+01) (10, 1.50000000000000000000e+03) (11, -2.27064329427091422531e+01) (12, -1.50000000000000000000e+03) (13, 2.03836939745144007929e+01) (14, 1.50000000000000000000e+03) (15, 3.53040365789609911218e+00) (16, -5.93248596805004790866e+00) (17, 1.13560515970434288135e+01) (18, -6.65175801890718165765e+00) (19, 2.81652759744411724796e+01) (20, -2.68318508641651476410e+00) (21, 1.16886355550959180505e+02) (22, 1.50000000000000000000e+03) (23, -1.22468185799838575889e+01) (24, 1.50000000000000000000e+03) (25, 4.73268034759437750125e+00) (26, -1.50000000000000000000e+03) (27, 3.13637342359445199236e+01) (28, -1.43828967240153019702e+02) (29, -3.00919660283629006869e+01) (30, -8.29204774490746032711e-02) (31, -1.10464069845325774111e+01) (32, -1.50000000000000000000e+03) (33, 2.94534832555926016084e+01) (34, -1.50000000000000000000e+03) (35, 1.99685463400301415504e+02) (36, -1.50000000000000000000e+03) (37, 8.56273836185859771319e+00) (38, -7.66960167078106138661e+01) (39, 1.19249555902758359593e+01) (40, 2.08062983366840583699e+01) (41, 1.04787571765165488102e+01) (42, -2.80530242555834234963e+01) (43, 2.52051204635041905533e+01) (44, -1.50000000000000000000e+03) (45, 3.02013942767211034379e+01) (46, 1.10992959390268097764e+01) (47, 1.67626005380788768662e+02) (48, -1.50000000000000000000e+03) (49, -1.29005603810277102994e+00) (50, 1.34378652524070071195e+03) (51, 2.19159702032017591478e+01) (52, -9.80017706093757681174e+01) (53, 1.89437379185877254884e+01) (54, -1.12356741872011383521e+02) (55, 1.18205165818724168503e+02) (56, -9.34116110555718250907e+02) (57, 2.10763579713555095907e+01) (58, -3.28116076352192687082e+00) (59, 1.62560191454769409347e+01) (60, -1.11648457214089398803e+03) (61, -1.61166939744825974401e+01) (62, -1.50000000000000000000e+03) (63, -1.66892545153652349654e+01) (64, 1.50000000000000000000e+03) (65, 5.19911689685358791024e+00) (66, -8.04054437317625847470e+00) (67, 4.12670676080307075040e+00) (68, 1.50000000000000000000e+03) (69, 6.03483455455911155241e+00) (70, 1.01012246040093423005e+01) (0, -1.50000000000000000000e+03) (1, -7.71952334380106997003e+00) (2, 1.50000000000000000000e+03) (3, 1.07352413857019746146e+00) (4, -1.15531891213250091255e+02) (5, 7.36135334067129498692e+00) (6, 7.48688798822661709664e+01) (7, -2.11230945976663875285e+00) (8, 5.52493970980195285847e+02) (9, 3.29583149084737181411e+00) (10, -1.50000000000000000000e+03) (11, 2.19298215773108147175e+01) (12, 1.50000000000000000000e+03) (13, -1.05954378511657196782e+01) (14, -1.50000000000000000000e+03) (15, -2.36868176962419596521e+01) (16, -2.06349258612697532556e+01) (17, 1.92955123788224405246e+01) (18, -6.96649363458332082644e+00) (19, 9.46258045236715972237e+00) (20, 2.90300790073185677187e+00) (21, 1.77889078882224964673e+01) (22, -1.50000000000000000000e+03) (23, -1.24646800696283541754e+01) (24, -1.50000000000000000000e+03) (25, -7.87151282997532497632e+00) (26, 1.50000000000000000000e+03) (27, 2.15668390341144988742e-01) (28, 2.45177473242469176284e+02) (29, -2.28050360149927406894e+01) (30, 3.04057829124782053043e+01) (31, 1.17193807064933643858e+01) (32, 2.50538651081487500960e+02) (33, -1.57072104068373139540e+01) (34, 1.50000000000000000000e+03) (35, -2.19813854463230491376e+01) (36, 1.50000000000000000000e+03) (37, 1.26643188541750362219e+01) (38, 1.05260106915816891160e+02) (39, 1.91553691579414646640e+01) (40, 1.21616907471845845379e+01) (41, 9.37593040443876546419e+00) (42, -7.16883265356485743780e+00) (43, -3.53058826835307257852e+01) (44, 1.49685887535892879896e+03) (45, -2.40285773717713020403e+01) (46, -1.16672303905170338112e+01) (47, -9.66579406566370735732e+00) (48, 1.50000000000000000000e+03) (49, 1.77059875275383049598e+00) (50, -6.66519464953841293209e+02) (51, 1.86693004561966517940e+01) (52, 1.50000000000000000000e+03) (53, -7.21876786519409208154e+00) (54, 3.48755033652433112934e+01) (55, 5.59111529354150071924e+00) (56, 1.09692297380716991029e+03) (57, -9.04650442791596676173e-01) (58, 1.35669857193161806919e+01) (59, 9.82648733404196939034e+00) (60, 1.50000000000000000000e+03) (61, 2.16446795293342013622e+01) (62, 1.50000000000000000000e+03) (63, -2.06607810866149534945e+01) (64, 1.50000000000000000000e+03) (65, 1.21573895426997111713e+01) (66, 1.17255467238665502805e+01) (67, -4.86737849989704507436e+00) (68, -1.50000000000000000000e+03) (69, 8.66549950082781883509e+00) (70, 1.28575152369746135150e+01) (0, 1.50000000000000000000e+03) (1, 1.31821334243880379233e+01) (2, 1.50000000000000000000e+03) (3, 6.20859514919736454885e+00) (4, 1.24394974668078376112e+02) (5, 5.05295070414422564653e-01) (6, -1.94407899715238414728e+02) (7, -1.07913955435027819618e+01) (8, -1.23908034746976386486e+03) (9, 1.51648704008085939421e+01) (10, 1.50000000000000000000e+03) (11, 1.44709683489581504290e+01) (12, -1.50000000000000000000e+03) (13, -2.43501088634130447019e+00) (14, 1.50000000000000000000e+03) (15, 4.21874133608333146128e+00) (16, -8.39224273588455815798e+00) (17, -1.55950257248925749920e+00) (18, -9.43052149617875734577e+00) (19, 9.17720366833005485319e+00) (20, -1.92641438916927043579e+01) (21, 3.90518955927624489277e+01) (22, 1.50000000000000000000e+03) (23, 1.19645141208455285664e+01) (24, 1.50000000000000000000e+03) (25, -2.39146388505061828766e+01) (26, -1.50000000000000000000e+03) (27, 1.60999931068502029063e+01) (28, -1.44107567823226276005e+02) (29, 1.78828749745694395301e+01) (30, -1.05848057349361170054e+02) (31, 2.30204995605016478066e+01) (32, -6.82325358446226459819e+02) (33, 2.49459526805728648569e+00) (34, -1.41339247677595085406e+03) (35, -9.85989939982310481525e+00) (36, -1.50000000000000000000e+03) (37, 1.36412725976656652449e+01) (38, -9.40702237325649264221e+01) (39, -7.88093002030880729336e+00) (40, -1.66661586685088138893e+02) (41, 7.60882290374812786382e+00) (42, -1.45672258617019689808e+01) (43, 1.63168649160505307982e+00) (44, -1.50000000000000000000e+03) (45, 1.43966923785711156114e+01) (46, -8.45163451752938321704e+00) (47, 1.32956171566124214944e-01) (48, -1.50000000000000000000e+03) (49, -1.47368689639932064495e+01) (50, 8.60419664958241924069e+02) (51, 2.15587251895404063973e+00) (52, -1.24565135388566858410e+02) (53, -8.62498975453665051027e-01) (54, -6.21609121362395811161e+01) (55, 2.25899555821234905295e+01) (56, -1.33401655875406549967e+03) (57, 1.77225032019293209373e+01) (58, 9.01074198963764061432e+00) (59, 1.00804889141371756267e+01) (60, -1.37903543776053038528e+03) (61, -4.36030627925327252115e+01) (62, -1.50000000000000000000e+03) (63, -2.47403122228900684831e+01) (64, 1.50000000000000000000e+03) (65, 1.72573189467294412225e+01) (66, -1.83670710150218283729e+01) (67, 2.04432317295174676985e+01) (68, 1.50000000000000000000e+03) (69, -2.07315212359949541110e+01) (70, 3.85364662853697614864e+00) (0, -1.50000000000000000000e+03) (1, 1.58173576334197321103e+01) (2, 1.50000000000000000000e+03) (3, -6.68542451898272283017e+00) (4, -1.38202434883904487606e+02) (5, -2.41285483153203195172e+01) (6, 7.63228040613433620365e+01) (7, -1.93219594596341153192e+01) (8, 5.52493970980195285847e+02) (9, -9.08198877503112456111e+00) (10, -1.50000000000000000000e+03) (11, -1.92552940559720582314e+01) (12, 1.50000000000000000000e+03) (13, 1.03552506164810225187e+01) (14, -1.50000000000000000000e+03) (15, -5.16050092173126451200e+00) (16, -1.88735020323905331452e+01) (17, 3.75058379088617854791e+01) (18, 4.60676734140496151326e+01) (19, -1.40657494855918852039e+01) (20, 1.84826531912531777380e+01) (21, 6.17877097846414446991e+00) (22, -1.50000000000000000000e+03) (23, 7.81533145696619957477e+00) (24, -1.50000000000000000000e+03) (25, -1.55390312400576444674e+01) (26, 1.50000000000000000000e+03) (27, -2.01050923919451953736e+01) (28, 2.31198401956442012306e+02) (29, 1.45454692445008387791e-01) (30, -4.17338039437903773887e+01) (31, 1.56839749780325465878e+01) (32, 1.50000000000000000000e+03) (33, -2.34656842349293661698e+01) (34, 1.50000000000000000000e+03) (35, -1.88964491497083066918e+01) (36, 6.94182115985842983719e+02) (37, -7.44583258786581758670e+00) (38, -3.24852665692721473079e+02) (39, -2.06903037768190785073e+01) (40, -1.98757142229164600167e+02) (41, 7.56136155663568221286e+00) (42, 1.29322201038362099013e+01) (43, 1.00834131104869300088e+01) (44, 3.98329367143285139719e+02) (45, 3.43869797027798140832e+00) (46, 2.18239338895539631835e+01) (47, 5.79704249945416272283e+00) (48, 1.50000000000000000000e+03) (49, 1.39584146066375485162e+01) (50, -5.16867514877953908581e+02) (51, 1.31736185348621983593e+01) (52, 8.03537380340447100480e+01) (53, -1.72665632504108046419e+01) (54, -1.98469462282401813980e+01) (55, -2.67971783045114406718e+01) (56, 3.97738091946821100464e+02) (57, 2.14580424488214767109e+01) (58, 1.40451512329886014641e+01) (59, 5.68920089511266624527e+00) (60, 1.49533844018693389444e+03) (61, 2.04001817376073830701e+01) (62, 1.50000000000000000000e+03) (63, -6.82813729985203199391e+00) (64, 1.50000000000000000000e+03) (65, 1.49198696644399486644e+01) (66, 4.18603323760273298149e+01) (67, -1.38618717081147533321e+01) (68, -1.50000000000000000000e+03) (69, 2.09492174147955125818e+01) (70, 2.02599363286316176413e+01) (0, 1.50000000000000000000e+03) (1, -2.28754435478765216772e+01) (2, 1.50000000000000000000e+03) (3, 1.74894034075514035464e+01) (4, 1.51255924965009029393e+02) (5, -3.48890109609605847396e+00) (6, -7.01150144078628922983e+00) (7, 2.04277166923244202223e+01) (8, -2.00764349535841759575e+01) (9, -1.30515274684064390698e+01) (10, 1.50000000000000000000e+03) (11, 2.49368612280368537881e+01) (12, -1.50000000000000000000e+03) (13, 2.18551341271922439091e+01) (14, 1.50000000000000000000e+03) (15, 3.13469494131105852475e+00) (16, 3.22130597930851862998e+01) (17, -1.12694338462269669776e+01) (18, 1.28899471499353275306e+01) (19, 4.26694408451510465152e-01) (20, -1.08789356937152543736e+01) (21, -2.15079580843123991940e+01) (22, 1.50000000000000000000e+03) (23, -6.55494568427861068471e+00) (24, 1.50000000000000000000e+03) (25, -8.72382220583726386565e+00) (26, -1.50000000000000000000e+03) (27, -1.96113580087392200824e+01) (28, -2.67613327166215469788e+02) (29, -1.03731653928543128274e+01) (30, -6.53905334213753430816e+00) (31, -1.48015507113873692191e+01) (32, -1.07380204508090272952e+02) (33, 9.50676939583040692128e+00) (34, -4.06019520176989601623e+02) (35, -1.71239447960087112222e+01) (36, -1.50000000000000000000e+03) (37, 8.43386703402566517696e+00) (38, -8.77203467748098830725e+01) (39, 1.83498551833204537331e+01) (40, -4.23578240679466500040e+00) (41, 2.79373511426949079350e+01) (42, 1.33691808111617245203e+01) (43, -1.58107708193148592812e+01) (44, -1.50000000000000000000e+03) (45, 1.92177808942614589682e+01) (46, -2.17830182091087856122e+01) (47, 1.27543041674764956461e+00) (48, 5.55809667917205501908e+02) (49, -5.15621329154538621253e+00) (50, -2.53280577516477336530e+01) (51, 5.26749052839451348262e+00) (52, -3.09684322153571116587e+01) (53, 2.17659542357774071775e+01) (54, -2.50352800740980185878e+01) (55, -1.42688023879826815232e+01) (56, -3.72693037605550273383e+02) (57, -1.31375392260542973588e+01) (58, 1.17991667804105055950e+01) (59, 2.18391984091182429495e+01) (60, -8.50900148011368514744e+02) (61, -6.85714120993943243576e+00) (62, -4.26724918224507575815e+02) (63, -1.49356858322109644632e+01) (64, 1.50000000000000000000e+03) (65, -5.34234765514138665310e+00) (66, -4.52737603821532808013e+00) (67, 8.53155114830327931941e+00) (68, 1.50000000000000000000e+03) (69, -4.99487073817299798151e+00) (70, 1.50083834337968937689e+01) (0, -1.50000000000000000000e+03) (1, -4.74960964083731251861e+00) (2, 1.50000000000000000000e+03) (3, -1.54731291895688567450e+01) (4, -1.27801871795598287918e+02) (5, 9.89319933104561322068e+00) (6, 1.04804211113471708927e+02) (7, -1.60450475411036528328e+01) (8, 8.99322692722627948569e+02) (9, -2.87171694114110245266e+01) (10, -1.50000000000000000000e+03) (11, 1.31599026278897279774e+00) (12, 1.50000000000000000000e+03) (13, 1.66300440740683015406e+01) (14, -1.50000000000000000000e+03) (15, 7.75590547564407550851e+00) (16, 5.25047684458046504119e+00) (17, -5.05971869289128406422e+00) (18, 1.33980506563535728404e+00) (19, 1.32338739455574105897e+00) (20, -2.32782863816014895519e+01) (21, 7.15582554340992693653e+00) (22, -1.50000000000000000000e+03) (23, 7.29647696960619107642e+00) (24, -1.50000000000000000000e+03) (25, -1.62006277876726620946e+01) (26, 1.47799058435960068891e+03) (27, 2.44756293448785733347e+01) (28, 1.11948164612338530333e+02) (29, 6.11633109827030629901e+00) (30, 8.00187429032561254871e+01) (31, 1.17750744580896196112e+01) (32, 1.50000000000000000000e+03) (33, 1.02181021004067429381e+00) (34, 1.50000000000000000000e+03) (35, -1.42856546743026058266e+01) (36, 1.50000000000000000000e+03) (37, 1.12973907828881454662e+01) (38, 4.26280940877379805443e+02) (39, -3.30876225947057855947e+00) (40, 1.30983518925291289037e+01) (41, -4.63260473371329162262e+00) (42, 8.57556064367266612791e-01) (43, 3.35261355738587685238e+00) (44, 1.50000000000000000000e+03) (45, -1.93904791815663557486e+00) (46, -5.27137751976710777768e+00) (47, -9.67710878761910997525e+00) (48, 6.29987789690957583844e+02) (49, -1.04094988323967410082e+01) (50, 2.87369175879513193195e+02) (51, -1.41047702741970990559e+01) (52, 7.39735330475355254976e+01) (53, 1.38365779251777247794e+01) (54, 1.08004149305559749905e+02) (55, -1.43138887823868206084e+01) (56, -1.46902611763076606621e+02) (57, 9.77342507285331052458e+00) (58, -2.07383829583612850911e+01) (59, 1.86306967770975582255e+01) (60, 1.44695414065508498425e+03) (61, -9.12047807105709651410e+00) (62, 1.50000000000000000000e+03) (63, 1.50012220298126432994e+01) (64, 1.50000000000000000000e+03) (65, -1.65468379202957471819e+01) (66, 1.42239311995745616457e+01) (67, -1.17498148784362115293e+01) (68, -1.50000000000000000000e+03) (69, 2.29336988202550067228e+01) (70, 7.27752407733727224581e+00) (0, -1.50000000000000000000e+03) (1, -7.76836284320538172921e+00) (2, 1.50000000000000000000e+03) (3, 2.13662046765568192086e+01) (4, -1.31107063585812028350e+02) (5, -2.28766847004041942171e+01) (6, 2.41844868846898926051e+01) (7, -1.30754819027916209251e+01) (8, 8.74989576517599090266e+01) (9, -1.83052889332562718216e+00) (10, -1.50000000000000000000e+03) (11, -2.28201855353941098770e+01) (12, 1.50000000000000000000e+03) (13, 2.40016528705407772293e+01) (14, -1.50000000000000000000e+03) (15, -1.68502721500571475133e+01) (16, 1.82705378627288261839e+01) (17, 2.64520118291154915369e+01) (18, 3.78687265647874298224e+01) (19, -2.43424682283111373238e+01) (20, 7.11087702996759105645e+01) (21, 8.20191302357100404663e+00) (22, -1.50000000000000000000e+03) (23, 1.93194942630819994633e+01) (24, -1.50000000000000000000e+03) (25, -2.25625457061123491087e+01) (26, 1.50000000000000000000e+03) (27, -7.68890390335285278667e+00) (28, 4.36641352549780094705e+02) (29, -4.16083424815512348260e+00) (30, -9.05028429383550303555e+01) (31, -1.60071087902876527664e+01) (32, -1.98574611095775566127e+02) (33, -2.26650970464987047137e+01) (34, -8.84754998067454856425e+00) (35, 1.51134773348945330440e+01) (36, -6.99842700619664697115e+02) (37, -4.39889216978701025340e+00) (38, 8.66141815973200550616e+01) (39, -3.24566763147273995571e+00) (40, -2.64370190432289362548e+01) (41, -4.84616284806609787239e+00) (42, 1.88496200164486182871e+01) (43, 1.29122604626048769205e+01) (44, 5.96949780837533552358e+01) (45, 2.23853550940291299298e+01) (46, 7.45594295897659709027e+00) (47, -9.44993050520186228525e-01) (48, 1.50000000000000000000e+03) (49, -1.21150879099363724123e+01) (50, 2.45139219443382813779e+02) (51, -6.17708450192484370689e+00) (52, 4.38272015380455357558e+01) (53, 3.63692376082935808768e+01) (54, -4.85750742902448280347e+02) (55, -9.19485482765808725958e+00) (56, 1.25059486395716453444e+03) (57, 1.18728325747821212843e+01) (58, -1.35908403941197306608e+01) (59, -1.02950757475265497476e+01) (60, 1.21631950499118715925e+03) (61, 1.14438846135279472804e+01) (62, 1.50000000000000000000e+03) (63, 1.87465045190146106791e+01) (64, 1.50000000000000000000e+03) (65, -4.89679258484945201246e+00) (66, 4.46615561309101281040e+01) (67, -2.32679779080069728536e+01) (68, -1.50000000000000000000e+03) (69, -1.59258894594581406068e+01) (70, 1.79912658942954593044e+01) (0, -1.50000000000000000000e+03) (1, 1.69757923532814452017e+01) (2, 1.50000000000000000000e+03) (3, -1.41376901219987836100e+01) (4, -1.13685240736733476297e+03) (5, -1.26209210504189184299e+00) (6, 4.80417960637908905142e+01) (7, -8.75640314606138581155e+00) (8, 2.29561864741408868440e+02) (9, -1.32774981903861153398e+01) (10, -1.50000000000000000000e+03) (11, 1.01116513838726067576e+01) (12, 1.50000000000000000000e+03) (13, -8.16724277263081788192e+00) (14, -1.50000000000000000000e+03) (15, -5.20112210528267304710e+00) (16, 6.04240968334541435070e+01) (17, 1.22638273888149633706e+01) (18, 2.13077002964966411014e+00) (19, 1.87434296319880964177e+01) (20, 1.49662403464962153521e+03) (21, -1.57396810547435173078e+00) (22, -1.50000000000000000000e+03) (23, 2.23493447955663846471e+01) (24, -1.50000000000000000000e+03) (25, -9.26323113681645438078e+00) (26, 1.50000000000000000000e+03) (27, -1.20686439732565720107e+01) (28, -8.04308344847457988180e+02) (29, 4.96451901335936085502e+00) (30, 2.63183296644196786929e+01) (31, 5.72051675213519672525e+00) (32, 3.29001519776812898499e+01) (33, -8.71782612685664037855e-01) (34, 6.20315915662316044177e+01) (35, -3.71169655772638565350e-02) (36, -2.85809660645097345366e+01) (37, 7.49854234616920223289e+00) (38, 8.14572527283873682791e+02) (39, -1.58441231777156090743e+01) (40, 1.83008096548974528162e+01) (41, 1.01625368604212003021e+01) (42, -1.72753914818563288236e+02) (43, 1.80518273602112877541e+01) (44, 2.62804588639423641894e+01) (45, 1.53837117065265527316e+01) (46, -1.47036026968069654686e+03) (47, 1.59235975334922343905e+01) (48, -4.13298811288944420994e+02) (49, 1.49005340985584258107e+01) (50, 1.17416819789684404896e+03) (51, -1.20075358006633052810e+01) (52, 7.57883461749363931403e+01) (53, -2.19042537429240198321e+01) (54, 4.74987099879668619451e+02) (55, 1.54584243383848374265e+01) (56, 1.19184292959315385474e+02) (57, 2.13474001565686073434e+01) (58, -3.84772503795569491558e+02) (59, 1.03922449750938170610e+01) (60, 1.24967181335523400776e+03) (61, 4.61547909650307008889e+00) (62, 1.08741709873552228061e+01) (63, -1.70797760520828312281e+00) (64, 1.50000000000000000000e+03) (65, -1.00155578206682172038e+01) (66, 2.25611438399742780803e+01) (67, -2.18897417328908012735e+01) (68, -1.50000000000000000000e+03) (69, 1.73543173522970413103e+01) (70, -1.99728923391013672983e+01) (0, 1.50000000000000000000e+03) (1, -4.81616074825629780776e+00) (2, 1.50000000000000000000e+03) (3, 1.46051144151498912827e+00) (4, 1.36691103596739850445e+02) (5, 1.94361915216929368455e+01) (6, -7.08879814094734399532e+01) (7, 7.44606396618641053209e+00) (8, -5.52224981950167943978e+02) (9, -1.75173337070068129151e+01) (10, 1.50000000000000000000e+03) (11, -3.02679128792302687412e-01) (12, -1.50000000000000000000e+03) (13, -8.49787934327043137372e-01) (14, 1.50000000000000000000e+03) (15, -1.03233835277106700268e+00) (16, -2.10823800582894804734e+01) (17, 1.52367728886232960406e+01) (18, -1.02504395187810768419e+01) (19, 2.22005093506371693479e+01) (20, -2.06914009160411467292e+01) (21, 1.33401704886142141504e+02) (22, 1.50000000000000000000e+03) (23, 8.99859123709383190715e+00) (24, 1.50000000000000000000e+03) (25, 3.06998076439864187037e+00) (26, -1.50000000000000000000e+03) (27, -1.42035942011053819556e+01) (28, 4.33469636396466526662e+01) (29, -1.03960530106107249537e+01) (30, -6.16608315147375236620e+01) (31, -1.34313017766260391767e-02) (32, -1.50000000000000000000e+03) (33, 4.68888458614735696983e+01) (34, -1.50000000000000000000e+03) (35, 4.68029236750315504878e+01) (36, -1.50000000000000000000e+03) (37, 1.06802764030270243012e+01) (38, -7.55974096445171710457e+01) (39, 1.98139153102888343483e+01) (40, 1.75620812150646727900e+01) (41, 2.13558063026129794082e+01) (42, -1.67796427149926259403e+01) (43, 1.61073239577800961797e+02) (44, -1.50000000000000000000e+03) (45, 1.52736905536386107229e+01) (46, -2.69933498897594965626e+01) (47, 1.90793597339874487773e+01) (48, -1.01857418972590448902e+03) (49, -1.10195550042426759774e+00) (50, 1.34378652524070071195e+03) (51, 1.35102803382728549053e+01) (52, -7.13014082608847274969e+01) (53, -4.12431604036302612570e+00) (54, -5.01289765689290760520e+01) (55, 3.48413889856991971783e+01) (56, -1.48218329080563057687e+03) (57, -1.22965970981575463128e+01) (58, 3.42671040054692070953e+01) (59, -6.29693430655729091683e+00) (60, -1.11648457214089398803e+03) (61, -1.11557387729441153112e+01) (62, -1.50000000000000000000e+03) (63, -7.92699375394300354003e+00) (64, 1.50000000000000000000e+03) (65, 1.29102119162545339037e+01) (66, -9.11888871826901059592e+00) (67, -1.24683095457263988237e+01) (68, 1.50000000000000000000e+03) (69, 2.13579298899401841538e+01) (70, -8.47144949884556375252e+00) (0, 1.50000000000000000000e+03) (1, 2.51582478911389344489e+01) (2, 1.50000000000000000000e+03) (3, -7.03570458087855232776e+00) (4, 1.05318203587584463321e+02) (5, 3.60160267533812472607e+01) (6, -9.00106724976014476169e+01) (7, 9.99122209886746581731e+00) (8, -5.52224981950167943978e+02) (9, 1.34339673822511018741e+00) (10, 1.50000000000000000000e+03) (11, 1.60000892266887930759e+01) (12, -1.50000000000000000000e+03) (13, -1.43651040116637584987e+01) (14, 1.50000000000000000000e+03) (15, -9.58545619966159989644e+00) (16, 3.48288573159504366572e+01) (17, -4.61526297113961447849e+00) (18, 6.35586179179736188161e+00) (19, 9.14167750664800493610e+00) (20, -1.68500872994605330746e+01) (21, 1.49992894671160615871e+03) (22, 1.50000000000000000000e+03) (23, -1.26774507160467599931e+01) (24, 1.50000000000000000000e+03) (25, 4.70574300838604919761e+00) (26, -1.50000000000000000000e+03) (27, 2.16336341295276968211e+00) (28, -1.12975955964436465706e+02) (29, -2.14175241468249168975e+01) (30, 7.04847886503595200125e-01) (31, 1.12228953874315529049e+01) (32, -8.33797786151316699943e+01) (33, 2.67601567026156921258e+01) (34, -1.50000000000000000000e+03) (35, 7.45808717088370258352e+02) (36, -1.50000000000000000000e+03) (37, 1.46962268760937764256e+00) (38, -6.81540159372423346440e+01) (39, -1.43624509494555194777e+01) (40, 4.18799181259227921714e+01) (41, 3.23754499282396501769e+00) (42, 5.49656086584478558166e+01) (43, 1.53231106168711392002e+02) (44, -1.50000000000000000000e+03) (45, -2.08784273307086110094e+00) (46, -1.23235131959267385504e+00) (47, 1.50000000000000000000e+03) (48, -1.50000000000000000000e+03) (49, 7.67251942886932081223e+00) (50, 1.34378652524070071195e+03) (51, 1.87638933100066722659e+01) (52, -1.48804634280924616974e+01) (53, -7.81144608255119088369e+00) (54, -3.02874809158913755880e+01) (55, 7.40137270195888419266e+01) (56, -9.34116110555718250907e+02) (57, -2.51194639778963768606e+00) (58, 3.13440301190812874665e+02) (59, 4.41451020621697836077e+01) (60, -1.11648457214089398803e+03) (61, -1.95443017801386069721e+01) (62, -1.50000000000000000000e+03) (63, 2.10797666340885498926e+01) (64, 1.50000000000000000000e+03) (65, 2.34292850812901818358e+01) (66, -4.28776243750073859928e+01) (67, -6.86890476686601747502e+00) (68, 1.50000000000000000000e+03) (69, 2.92552218552066385371e+01) (70, 2.24278850789417774081e+01) (0, 1.50000000000000000000e+03) (1, 1.28897540060264947925e+01) (2, 1.50000000000000000000e+03) (3, 2.03747617161245635486e+01) (4, 1.41345135350279889508e+02) (5, -2.02854951660769273758e+01) (6, -1.01553403127045839938e+02) (7, -2.56738545177937211861e+01) (8, -5.52224981950167943978e+02) (9, -1.52290719593114403096e+01) (10, 1.50000000000000000000e+03) (11, 1.11657061978193450358e+01) (12, -1.50000000000000000000e+03) (13, -2.25198916024609341324e-01) (14, 1.50000000000000000000e+03) (15, 1.80945186231807153554e+00) (16, 1.57358804343375826562e+01) (17, 1.65474320978369178192e+01) (18, 8.94593442562711160804e+00) (19, 2.18175821939044851661e+01) (20, -1.03292177088682937125e+01) (21, 1.57793284567072987556e+02) (22, 1.50000000000000000000e+03) (23, -1.83906097529751981767e+01) (24, 1.50000000000000000000e+03) (25, 1.97973448324341276816e+01) (26, -1.50000000000000000000e+03) (27, -3.70179558735860458896e+00) (28, -1.49075263978352040795e+02) (29, -1.25761626429532272220e-02) (30, -1.32997173524490115426e+01) (31, -2.01928831485818847113e+01) (32, -1.50000000000000000000e+03) (33, 1.78377302376138774376e-01) (34, -1.50000000000000000000e+03) (35, 2.24716759176668631426e+02) (36, -1.50000000000000000000e+03) (37, 2.52383284140264008144e+00) (38, -5.14732813028428850544e+01) (39, -1.04779421731885058477e+01) (40, 1.29479416340530906204e+00) (41, 2.97899659522879822759e+00) (42, 1.01124744779370079328e+01) (43, 4.35834982587237718121e+01) (44, -1.50000000000000000000e+03) (45, 6.42326303015440647215e+00) (46, -8.40306178230184741551e+00) (47, 2.07893299310842763816e+02) (48, -1.50000000000000000000e+03) (49, 1.72989794396517702069e+01) (50, 1.34378652524070071195e+03) (51, 9.61772341093544547164e+00) (52, -9.88953517939343811349e+01) (53, -9.43377450185692634221e-01) (54, -1.12333447423158830247e+02) (55, 1.06898634866270583643e+02) (56, -9.34116110555718250907e+02) (57, 2.20917334218600984741e+01) (58, -7.77764122845744587664e+00) (59, 2.04001771491962458072e+01) (60, -1.11648457214089398803e+03) (61, -2.78158769616957748383e+01) (62, -1.50000000000000000000e+03) (63, -1.17503925036499468071e+00) (64, 1.50000000000000000000e+03) (65, 1.27721530354019456865e+01) (66, -1.40422142569042698312e+01) (67, -1.33375664670451321570e+01) (68, 1.50000000000000000000e+03) (69, 1.74467638299037837157e+01) (70, 4.68072283972376723682e+00) (0, -1.50000000000000000000e+03) (1, 1.02121971898091690178e+01) (2, 1.50000000000000000000e+03) (3, -1.53774375204387165894e+01) (4, -1.20513120041680267036e+02) (5, 1.21759910213438438120e+01) (6, 8.64777050890231748781e+01) (7, -8.97958694245918209731e+00) (8, 5.52493970980195285847e+02) (9, 1.02968849988528940997e+01) (10, -1.50000000000000000000e+03) (11, -5.33779889916081273782e-01) (12, 1.50000000000000000000e+03) (13, -1.63918675190914377993e+01) (14, -1.50000000000000000000e+03) (15, -5.97789335465983384665e+00) (16, 4.23335057968992600763e+00) (17, 5.42612270062722412689e+00) (18, 2.20077377098818516288e+00) (19, -5.09563756095333708629e+00) (20, -9.13508924422206725069e+00) (21, 6.22464355431729643442e+00) (22, -1.50000000000000000000e+03) (23, -2.29147458180115606297e+01) (24, -1.50000000000000000000e+03) (25, 2.55935702583330604298e+00) (26, 1.50000000000000000000e+03) (27, -4.84265260610418124543e+00) (28, 1.42866622634841633044e+02) (29, 3.14791314797769317124e+01) (30, -1.99063972282271883785e+00) (31, 2.07484858324260805773e+01) (32, 1.50000000000000000000e+03) (33, -3.16981100062958809360e+00) (34, 1.50000000000000000000e+03) (35, 4.00647958326695796671e+00) (36, 1.50000000000000000000e+03) (37, -1.57063837809800066481e+01) (38, 6.34423766582475820996e+01) (39, -1.10663109779834267776e+00) (40, 8.82963709884552017115e+00) (41, -8.93714713586894760056e+00) (42, -1.31628700430876026672e+01) (43, 8.99274028486963139528e+00) (44, 1.50000000000000000000e+03) (45, -7.70951414722025507587e+00) (46, 1.03673631650787037017e+01) (47, -1.19128723480901470566e+01) (48, 1.50000000000000000000e+03) (49, -4.44691671308832581211e-01) (50, -5.22829402982348483420e+02) (51, -6.07923365225253231614e+00) (52, 1.28941597531443562730e+02) (53, 1.32752632832978907373e+01) (54, 8.34099681040021181389e+01) (55, -1.78722530497773597347e+01) (56, -1.40003932073604971720e+02) (57, 2.55305191239346598309e+01) (58, 1.77142549172688497094e+01) (59, -2.85304807282326322593e+00) (60, 1.13087069801103484679e+03) (61, 5.18369696372671384665e+00) (62, 1.50000000000000000000e+03) (63, 1.17616474683612253216e+01) (64, 1.50000000000000000000e+03) (65, -1.10548533682170369019e+01) (66, 2.22191227104673938442e+00) (67, -2.00757791701532433137e+01) (68, -1.50000000000000000000e+03) (69, 1.76209401617214247437e+01) (70, 1.88045395930296663778e+01) (0, -1.50000000000000000000e+03) (1, 1.12720588089145739019e+01) (2, 1.50000000000000000000e+03) (3, -9.60428668998510559618e+00) (4, -1.09140368805718310341e+02) (5, -4.45345546230141664523e+00) (6, 1.06106287157882007932e+02) (7, 7.73393663625073468637e+00) (8, 5.52493970980195285847e+02) (9, -1.64921885613722132291e+01) (10, -1.50000000000000000000e+03) (11, -1.34831175009204660142e+01) (12, 1.50000000000000000000e+03) (13, -1.45246773401873685572e+01) (14, -1.50000000000000000000e+03) (15, 6.55480962602424499508e-01) (16, 1.66066483252052954356e+01) (17, -1.57808394701798064830e+01) (18, 7.64498500482221601260e+01) (19, -1.28649123283807433893e+01) (20, 4.70922004335438799671e+01) (21, -3.24809546922634297061e+02) (22, -1.50000000000000000000e+03) (23, 4.96598509673587162894e+00) (24, -1.50000000000000000000e+03) (25, 2.55621666776879807870e+00) (26, 1.50000000000000000000e+03) (27, 6.67420016772869839627e+00) (28, 1.35102796347264018095e+02) (29, 3.49915937501987173164e+01) (30, -5.39711911301914483374e+02) (31, -2.75312478566551943615e+00) (32, 1.50000000000000000000e+03) (33, -4.79210566306431644534e+01) (34, 1.50000000000000000000e+03) (35, -2.31683776874214686359e+02) (36, 1.50000000000000000000e+03) (37, 1.59796251622408913562e+01) (38, 6.38387918918596426465e+01) (39, -5.27895826172341120497e+00) (40, -1.88483759240980042193e+01) (41, -1.49845419139574040912e+01) (42, -1.19995992014279906357e+01) (43, -2.27977903688075329569e+01) (44, 4.18958001388668947129e+02) (45, -2.27224622682016743624e+01) (46, 2.40599721409412836692e+01) (47, -4.88262250978496226139e+00) (48, 1.50000000000000000000e+03) (49, 2.36256293592127164516e+01) (50, 7.70581879538440830402e+02) (51, 5.28109184589987634695e+00) (52, 4.74114065239326407664e+02) (53, -8.66392380562778896547e+00) (54, 3.45685720519483012936e+01) (55, -2.43233688219928616547e+01) (56, 1.41022401194353756182e+03) (57, 2.39878763794535068143e+01) (58, 3.72429799173480091667e+00) (59, -6.03030585736596069779e+00) (60, 1.50000000000000000000e+03) (61, 1.45272934397772619519e+01) (62, 1.50000000000000000000e+03) (63, -5.08170667969103284634e+00) (64, 1.50000000000000000000e+03) (65, 5.50995586372474921433e+00) (66, 5.56804264214050803616e+00) (67, -2.51794466200832189884e+01) (68, -1.50000000000000000000e+03) (69, 2.08611004123964356438e+01) (70, 2.16903112388685803680e+00) (0, -1.50000000000000000000e+03) (1, 1.11004525659287356376e+01) (2, 1.50000000000000000000e+03) (3, -2.32846788592398858952e+01) (4, -1.27140990362954113380e+02) (5, -2.03100639830888241022e+01) (6, 8.66167961038852212141e+01) (7, -1.55387230700741674205e+00) (8, 5.52493970980195285847e+02) (9, -2.07264510459410438159e+01) (10, -1.50000000000000000000e+03) (11, 1.66708299217425945926e+01) (12, 1.50000000000000000000e+03) (13, 1.26205490762590883946e+01) (14, -1.50000000000000000000e+03) (15, -2.41842353319491145669e+01) (16, -7.70123736566436711826e+00) (17, -3.30006297005807125444e+00) (18, 6.03162287685332199061e+00) (19, -1.91411344821230251512e+01) (20, 7.55266807060666689466e+00) (21, -1.13544675397452493826e+02) (22, -1.50000000000000000000e+03) (23, -2.60095649011869696210e+01) (24, -1.50000000000000000000e+03) (25, 1.38175071833835385604e+01) (26, 1.50000000000000000000e+03) (27, 5.17309004279664197412e+00) (28, 1.53831817151700221302e+02) (29, -8.92429836574572021846e+00) (30, 1.23294232572312605356e+01) (31, -1.29926141664446817003e+01) (32, 1.50000000000000000000e+03) (33, -4.35578042102977889272e+01) (34, 1.50000000000000000000e+03) (35, -2.13648524488619301565e+02) (36, 1.50000000000000000000e+03) (37, -1.18706576045724272461e+01) (38, 4.82365513294208412276e+01) (39, -6.24355077265673230613e+00) (40, -4.47009715601103518878e+00) (41, -8.05501992999024452047e+00) (42, -6.64370308651692997870e+00) (43, -3.85259134301836425607e+01) (44, 1.50000000000000000000e+03) (45, -1.65645420041304127778e+01) (46, -1.31646886938993823435e+00) (47, -1.81531582660079976677e+02) (48, 1.50000000000000000000e+03) (49, 3.55920636759535025107e+00) (50, -1.34018008520804914951e+03) (51, -2.62764959621093119324e+00) (52, 9.31285911303814515350e+01) (53, -6.07639597673909559461e+00) (54, 7.45158212014633534181e+01) (55, -1.20500011584200265702e+02) (56, 9.40463065892368604182e+02) (57, -1.70356866729073819222e+00) (58, -1.29818603736361630752e+01) (59, -3.36398053575669280235e+01) (60, 1.12074926923862108197e+03) (61, 4.49754666693014257817e+01) (62, 1.50000000000000000000e+03) (63, 8.13824441170339585305e-01) (64, 1.50000000000000000000e+03) (65, -9.17290441465693717760e+00) (66, 1.04635256591082494992e+01) (67, 2.08419646740601542945e+01) (68, -1.50000000000000000000e+03) (69, 9.47232058703792034748e+00) (70, -2.06173864228941141619e+01) (0, -1.50000000000000000000e+03) (1, 1.23999558274976906525e+00) (2, 1.50000000000000000000e+03) (3, 1.94956319979548560184e+01) (4, -4.60662864705908958740e+01) (5, 3.37717898524343329569e+00) (6, -1.73272726429425603101e+01) (7, 2.12340192315502278575e+01) (8, 2.49162786613114271006e+01) (9, -1.93915511903849804298e+01) (10, -1.50000000000000000000e+03) (11, -2.27972844632930993214e+01) (12, 1.50000000000000000000e+03) (13, 4.90450333784553205163e+00) (14, -1.50000000000000000000e+03) (15, 2.29085646229845352195e+00) (16, 6.83476751358281031656e+00) (17, -1.23551242944563477444e+00) (18, -9.77748252059911315826e+00) (19, 3.19968609469535092416e+00) (20, -1.05394960551832159723e+01) (21, -1.45214662791487842952e+01) (22, -1.50000000000000000000e+03) (23, 1.77381917240248867529e+01) (24, -1.50000000000000000000e+03) (25, 2.03173834529241119640e+01) (26, 1.50000000000000000000e+03) (27, 1.59361470836363956494e+01) (28, 1.88059404223112096588e+02) (29, 1.40519501412847223065e+01) (30, 4.10206733036315995378e+02) (31, -3.83734540412630886763e-01) (32, 1.50000000000000000000e+03) (33, -1.52084999196460231019e+01) (34, 1.50000000000000000000e+03) (35, 2.22456488402927732295e+00) (36, 1.50000000000000000000e+03) (37, 1.86344049551227470829e+01) (38, 4.60308957805788338646e+02) (39, -8.42220208444645201951e+00) (40, 4.92115927577181864194e+01) (41, -1.47421100558019784188e+01) (42, -1.45911450942361771155e+01) (43, 1.73500717593409774508e+01) (44, 1.50000000000000000000e+03) (45, -9.33570858747231113739e+00) (46, -3.11254148379096817756e-01) (47, 1.08423473243999808346e+01) (48, 7.54275564917034898826e+02) (49, 1.39389661234552821867e+01) (50, -3.50319815960683456524e+02) (51, 1.90508239806151138396e+01) (52, 1.68376882670535055198e+00) (53, 2.08647885773535364251e+01) (54, 1.44809816237637001279e+01) (55, -9.11411698287776594896e+00) (56, 1.49955352664174552046e+03) (57, -1.08214355650087590277e+01) (58, -1.55773478958643440961e+01) (59, 3.53310785794701942564e+00) (60, 1.49908727409137941322e+03) (61, 5.16099386141084970347e+00) (62, 1.50000000000000000000e+03) (63, 1.53341994707641884332e+01) (64, 1.50000000000000000000e+03) (65, -1.61515371152043236691e+01) (66, 3.21189483466387102339e+01) (67, 8.61263606792228486597e+00) (68, -1.50000000000000000000e+03) (69, -2.12718965604692442639e+01) (70, -1.15419179745791105063e+01) (71, 6.74306353784903844684e+00) (72, -5.89771753263283038393e+00) (73, -3.28984729024868460812e+00) (74, 1.50000000000000000000e+03) (75, -1.36881597181752689973e-01) (76, -6.72957508223886335941e-01) (77, 2.64875196717553063053e+00) (78, -5.59778968456620074079e+00) (79, 2.04887559635256550905e+01) (80, -1.92826861726568985489e+01) (81, 1.71457702871621400220e+01) (82, 5.65276950642416853299e+00) (83, 3.53388378530033531177e+00) (84, -1.66345250651543152820e+00) (85, -3.90143777833805094346e+00) (86, -1.83871732576109110369e+01) (87, 1.47915270430125556089e+01) (88, 2.75443926501018694353e+01) (89, 1.50000000000000000000e+03) (90, 3.76179552122066729325e+00) (91, -1.45065818650909523768e+01) 
