FANN_FLO_2.1
num_layers=3
learning_rate=0.700000
connection_rate=1.000000
network_type=0
learning_momentum=0.000000
training_algorithm=2
train_error_function=1
train_stop_function=0
cascade_output_change_fraction=0.010000
quickprop_decay=-0.000100
quickprop_mu=1.750000
rprop_increase_factor=1.001000
rprop_decrease_factor=0.500000
rprop_delta_min=0.000000
rprop_delta_max=50.000000
rprop_delta_zero=0.100000
cascade_output_stagnation_epochs=12
cascade_candidate_change_fraction=0.010000
cascade_candidate_stagnation_epochs=12
cascade_max_out_epochs=150
cascade_max_cand_epochs=150
cascade_num_candidate_groups=2
bit_fail_limit=3.49999999999999977796e-01
cascade_candidate_limit=1.00000000000000000000e+03
cascade_weight_multiplier=4.00000000000000022204e-01
cascade_activation_functions_count=10
cascade_activation_functions=3 5 7 8 10 11 14 15 16 17 
cascade_activation_steepnesses_count=4
cascade_activation_steepnesses=2.50000000000000000000e-01 5.00000000000000000000e-01 7.50000000000000000000e-01 1.00000000000000000000e+00 
layer_sizes=71 31 2 
scale_included=0
neurons (num_inputs, activation_function, activation_steepness)=(0, 0, 0.00000000000000000000e+00) (0, 0, 0.00000000000000000000e+00) (0, 0, 0.00000000000000000000e+00) (0, 0, 0.00000000000000000000e+00) (0, 0, 0.00000000000000000000e+00) (0, 0, 0.00000000000000000000e+00) (0, 0, 0.00000000000000000000e+00) (0, 0, 0.00000000000000000000e+00) (0, 0, 0.00000000000000000000e+00) (0, 0, 0.00000000000000000000e+00) (0, 0, 0.00000000000000000000e+00) (0, 0, 0.00000000000000000000e+00) (0, 0, 0.00000000000000000000e+00) (0, 0, 0.00000000000000000000e+00) (0, 0, 0.00000000000000000000e+00) (0, 0, 0.00000000000000000000e+00) (0, 0, 0.00000000000000000000e+00) (0, 0, 0.00000000000000000000e+00) (0, 0, 0.00000000000000000000e+00) (0, 0, 0.00000000000000000000e+00) (0, 0, 0.00000000000000000000e+00) (0, 0, 0.00000000000000000000e+00) (0, 0, 0.00000000000000000000e+00) (0, 0, 0.00000000000000000000e+00) (0, 0, 0.00000000000000000000e+00) (0, 0, 0.00000000000000000000e+00) (0, 0, 0.00000000000000000000e+00) (0, 0, 0.00000000000000000000e+00) (0, 0, 0.00000000000000000000e+00) (0, 0, 0.00000000000000000000e+00) (0, 0, 0.00000000000000000000e+00) (0, 0, 0.00000000000000000000e+00) (0, 0, 0.00000000000000000000e+00) (0, 0, 0.00000000000000000000e+00) (0, 0, 0.00000000000000000000e+00) (0, 0, 0.00000000000000000000e+00) (0, 0, 0.00000000000000000000e+00) (0, 0, 0.00000000000000000000e+00) (0, 0, 0.00000000000000000000e+00) (0, 0, 0.00000000000000000000e+00) (0, 0, 0.00000000000000000000e+00) (0, 0, 0.00000000000000000000e+00) (0, 0, 0.00000000000000000000e+00) (0, 0, 0.00000000000000000000e+00) (0, 0, 0.00000000000000000000e+00) (0, 0, 0.00000000000000000000e+00) (0, 0, 0.00000000000000000000e+00) (0, 0, 0.00000000000000000000e+00) (0, 0, 0.00000000000000000000e+00) (0, 0, 0.00000000000000000000e+00) (0, 0, 0.00000000000000000000e+00) (0, 0, 0.00000000000000000000e+00) (0, 0, 0.00000000000000000000e+00) (0, 0, 0.00000000000000000000e+00) (0, 0, 0.00000000000000000000e+00) (0, 0, 0.00000000000000000000e+00) (0, 0, 0.00000000000000000000e+00) (0, 0, 0.00000000000000000000e+00) (0, 0, 0.00000000000000000000e+00) (0, 0, 0.00000000000000000000e+00) (0, 0, 0.00000000000000000000e+00) (0, 0, 0.00000000000000000000e+00) (0, 0, 0.00000000000000000000e+00) (0, 0, 0.00000000000000000000e+00) (0, 0, 0.00000000000000000000e+00) (0, 0, 0.00000000000000000000e+00) (0, 0, 0.00000000000000000000e+00) (0, 0, 0.00000000000000000000e+00) (0, 0, 0.00000000000000000000e+00) (0, 0, 0.00000000000000000000e+00) (0, 0, 0.00000000000000000000e+00) (71, 4, 5.00000000000000000000e-01) (71, 4, 5.00000000000000000000e-01) (71, 4, 5.00000000000000000000e-01) (71, 4, 5.00000000000000000000e-01) (71, 4, 5.00000000000000000000e-01) (71, 4, 5.00000000000000000000e-01) (71, 4, 5.00000000000000000000e-01) (71, 4, 5.00000000000000000000e-01) (71, 4, 5.00000000000000000000e-01) (71, 4, 5.00000000000000000000e-01) (71, 4, 5.00000000000000000000e-01) (71, 4, 5.00000000000000000000e-01) (71, 4, 5.00000000000000000000e-01) (71, 4, 5.00000000000000000000e-01) (71, 4, 5.00000000000000000000e-01) (71, 4, 5.00000000000000000000e-01) (71, 4, 5.00000000000000000000e-01) (71, 4, 5.00000000000000000000e-01) (71, 4, 5.00000000000000000000e-01) (71, 4, 5.00000000000000000000e-01) (71, 4, 5.00000000000000000000e-01) (71, 4, 5.00000000000000000000e-01) (71, 4, 5.00000000000000000000e-01) (71, 4, 5.00000000000000000000e-01) (71, 4, 5.00000000000000000000e-01) (71, 4, 5.00000000000000000000e-01) (71, 4, 5.00000000000000000000e-01) (71, 4, 5.00000000000000000000e-01) (71, 4, 5.00000000000000000000e-01) (71, 4, 5.00000000000000000000e-01) (0, 4, 5.00000000000000000000e-01) (31, 4, 9.00000000000000022204e-01) (0, 4, 9.00000000000000022204e-01) 
connections (connected_to_neuron, weight)=(0, 1.50000000000000000000e+03) (1, -3.77188179031946768660e+00) (2, 1.50000000000000000000e+03) (3, -5.96206582277957775062e+00) (4, 3.72950886718659774033e+02) (5, -1.72604674076697572893e+00) (6, -1.49038432489699772532e+02) (7, -2.14692393009712318985e+01) (8, 7.13714793894524291318e+02) (9, 1.84188360651733837869e+01) (10, -9.70547950516910987062e+02) (11, 2.35746571048170627805e+00) (12, 1.50000000000000000000e+03) (13, 2.26917183718665462777e+01) (14, -1.50000000000000000000e+03) (15, 1.47594070775286478892e+01) (16, 9.57067955499849745138e+01) (17, 1.80685044010193536224e+01) (18, 1.52388774489592133676e+01) (19, -4.93191573279631967353e+00) (20, -2.32454818444707989045e+01) (21, -1.00435919992583073679e+01) (22, -1.50000000000000000000e+03) (23, 1.82878614804512871217e+01) (24, -1.50000000000000000000e+03) (25, -1.99415177005906407715e+01) (26, 4.27470718172997237616e+02) (27, 4.45975354356967130798e+01) (28, -3.35749164262228873667e+02) (29, 1.55389945258361734659e+01) (30, 1.55089895793041332439e+01) (31, 1.06178974038267170954e+01) (32, 3.14433353936780868310e+01) (33, -6.80007421008750689850e+00) (34, 5.41648462769017697838e+01) (35, 1.52287610778064355088e+01) (36, -9.68417944455556622962e-01) (37, -1.13733841407355296127e+01) (38, -7.05617685353845160989e+01) (39, -1.54631233645231755958e+01) (40, -4.45816218940992428088e+01) (41, 8.11648798523670933491e+00) (42, -3.42983904935711905182e+02) (43, 3.44429921362477076130e+00) (44, 1.50000000000000000000e+03) (45, 9.28704719581827120578e+00) (46, -1.71376840696532610764e+02) (47, 1.88021173127268390601e+01) (48, 4.60690029802728702180e+01) (49, 2.63589309285938000471e+01) (50, -4.06868974556458908864e+02) (51, 1.59840541603127714865e+01) (52, -2.95818204352979599037e+01) (53, 2.39412557042321552103e+01) (54, 2.64791892579820213882e+01) (55, -3.07077086385683060143e+01) (56, 1.92148871587762130275e+02) (57, -8.35909243932717593850e+00) (58, -1.09106705475597749455e+01) (59, -3.49225132632384145381e+01) (60, 1.50000000000000000000e+03) (61, -1.04903258153030556343e+01) (62, -1.00063157540546035307e+03) (63, -4.77888509817358109188e+00) (64, 8.85264967238680924311e+02) (65, 1.42822489058124997285e+01) (66, 5.50616071077228781405e+01) (67, 1.52276472223951575558e+01) (68, -1.50000000000000000000e+03) (69, 1.80022874008005224766e+01) (70, 3.54374819100487459256e-01) (0, 1.50000000000000000000e+03) (1, -3.58919500531712358793e+01) (2, 1.50000000000000000000e+03) (3, -2.43447541666939279992e+01) (4, 6.29337663065944298069e+02) (5, 2.57597714411535108070e+01) (6, -1.60521668316773855167e+02) (7, 2.60736414197827937045e+00) (8, 9.69882734149057910145e+02) (9, -2.34957143687622469486e+01) (10, -6.80377400073859007534e+02) (11, -3.80018632027197256207e+00) (12, -1.50000000000000000000e+03) (13, 2.53579927117124519498e+01) (14, 1.10711287646781457283e+02) (15, -2.33274584416004024945e+01) (16, 7.92658804664327192313e+01) (17, -3.17207339873584803769e+00) (18, 1.38568936472005121985e+00) (19, 2.06775776659390935208e+01) (20, -1.54392073469975432687e+01) (21, -2.15305294591163800533e+01) (22, 1.50000000000000000000e+03) (23, -1.28434908249257038193e+01) (24, 1.50000000000000000000e+03) (25, -1.34884366193332265738e+01) (26, 1.81219483655151236690e+02) (27, 7.80619373314551125986e+01) (28, -3.67671826354075335530e+02) (29, 1.91957612909429577996e+01) (30, -4.99177757629251175331e+01) (31, -2.51986408391724445721e+01) (32, -1.61197255128480577469e+02) (33, -1.01284349047694774981e+01) (34, 3.82361486606863749671e+01) (35, 4.71643748915821081624e+00) (36, -5.03113400221965090253e+00) (37, -7.80278458545746733677e+00) (38, -2.32742945486958774381e+01) (39, 3.14448842055129809125e+01) (40, -1.05034293207544976667e+02) (41, -2.99362793135439488879e+01) (42, -3.15136035327959177721e+02) (43, -2.50066027920189704048e+01) (44, 1.45887628209518379663e+03) (45, -1.78950922321020988726e+00) (46, -4.74372842339447913673e+02) (47, -1.23167248889868758965e+01) (48, 4.61128654029572899731e+01) (49, -6.37774687951600061098e+00) (50, -3.14359180352640066758e+02) (51, -2.19028569071403502733e+01) (52, 9.02860621965493237440e+00) (53, 6.88600885612920432521e+00) (54, 3.24136157318075461831e+01) (55, -8.22146250679830492558e-01) (56, 1.14306122452987992233e+02) (57, 2.25416384196351735625e+01) (58, -4.65048765899107579003e+01) (59, -1.15137502014608053003e+01) (60, 1.09987563026513612385e+03) (61, 6.24051288587998076451e+00) (62, -1.50000000000000000000e+03) (63, 1.53077486841265884010e+01) (64, 1.50000000000000000000e+03) (65, 1.22461335508299260511e+01) (66, 2.89941404142352361362e+01) (67, 9.33888548359114878394e+00) (68, 1.50000000000000000000e+03) (69, 1.86502004523605080522e+01) (70, -2.81011323405220529992e+01) (0, 1.50000000000000000000e+03) (1, 9.52885768492991580558e+00) (2, 1.50000000000000000000e+03) (3, -1.25902460121901356160e+01) (4, -1.50000000000000000000e+03) (5, 1.75894549615893360794e+01) (6, -9.67947263277125671266e+02) (7, -1.16228489604318259154e+01) (8, 2.61052441002620810195e+02) (9, 1.38893728190608101158e+01) (10, -1.50000000000000000000e+03) (11, -1.81567963518010144774e+00) (12, 1.50000000000000000000e+03) (13, -4.25610004570251554412e+00) (14, -1.50000000000000000000e+03) (15, -5.35404295619861869682e+00) (16, 7.55050919858818003760e-01) (17, -8.50630123917063407646e+00) (18, 1.71493437993583235368e+01) (19, 2.88119830611315528301e+01) (20, 6.19422889231002272936e+02) (21, 2.09074883748378148596e+01) (22, -1.50000000000000000000e+03) (23, -1.43183888983133122963e+00) (24, -1.50000000000000000000e+03) (25, -1.21644528946223307031e+01) (26, 1.38963704128324798148e+03) (27, 1.93327484248012702039e+01) (28, 1.03891641862941256136e+02) (29, -3.01606355770050260645e+00) (30, 1.08510863084105011467e+02) (31, 6.68624222698313452895e+00) (32, -1.00926313237527836009e+01) (33, -1.83163664020572269919e+01) (34, -1.90614308316352243367e+01) (35, -1.59232326124228578124e+01) (36, -1.08970632086343002243e+02) (37, -2.47044248865224886913e+01) (38, 6.47951578666402099316e+01) (39, 2.46266365956641948287e+01) (40, -5.74378237967160742983e+01) (41, -4.93553589845265694436e+00) (42, -7.44351438064201488487e+02) (43, -1.85944890746330955267e+01) (44, -1.50000000000000000000e+03) (45, -9.04674379895945612873e+00) (46, 1.46745001450422523703e+03) (47, 5.61935933119991126716e+00) (48, 1.50000000000000000000e+03) (49, -1.42028575272227790549e+01) (50, -3.00571595128103240313e+02) (51, -2.06579857503149497688e+01) (52, 1.05248255404597966844e+03) (53, 5.27913270486549013327e+00) (54, -1.39894963602075165454e+02) (55, 2.26005045947674219065e+01) (56, -1.11414903459914717132e+03) (57, 1.08851832183788470587e+01) (58, -1.50000000000000000000e+03) (59, 1.76649137959370712281e+01) (60, -3.45523891920645041864e+02) (61, 2.04432810556297930304e+01) (62, 1.50000000000000000000e+03) (63, 3.99628962269757481707e+00) (64, 8.85264967238680924311e+02) (65, -1.80136509362882968333e+01) (66, 1.92328437971275150176e+01) (67, -1.42155584182625993606e+01) (68, -1.50000000000000000000e+03) (69, -1.29823824610085019060e+01) (70, 1.31762275716299892547e-01) (0, 1.50000000000000000000e+03) (1, 4.64523342662291760519e+00) (2, 1.50000000000000000000e+03) (3, 1.20205719810053341945e+01) (4, -9.36449872654829164276e+02) (5, 2.02435929367544069635e+01) (6, -3.25316525110857071468e+02) (7, 9.33538040508822497543e+00) (8, -1.09384609557303065230e+03) (9, -9.24160398483791745150e+00) (10, -3.78769342844651305313e+02) (11, 1.24186710970037239576e+01) (12, -1.50000000000000000000e+03) (13, -1.02187840782119767624e+01) (14, 1.50000000000000000000e+03) (15, -1.76251621431752063529e+01) (16, -1.34309157498852869139e+02) (17, -1.01310002106577492498e+01) (18, 5.60715364963749163252e+00) (19, 1.47894523158170496657e+01) (20, -1.03347797113355639453e+01) (21, -6.26544066423883272421e+00) (22, 1.50000000000000000000e+03) (23, 3.86781237310511638583e+00) (24, 1.50000000000000000000e+03) (25, -9.43936420354941496669e+00) (26, 1.36097209792907051451e+02) (27, -5.39848586600345647923e+00) (28, 3.19392474748088147862e+02) (29, 6.30300963458592455879e+00) (30, -3.92780002860139454413e+00) (31, -5.46685520769494726068e+00) (32, 2.52260295988198805617e+02) (33, 3.72478495894968331115e+00) (34, 6.67651303901951109765e+01) (35, -1.14250209688071517888e+01) (36, -1.83061735114881827258e+01) (37, -3.17468420599568936780e+01) (38, -9.46977183348765549908e+01) (39, 2.18222461984567992488e+01) (40, -2.90453657308452307007e+02) (41, 3.85110582525442612933e+00) (42, 6.41364232557871982721e+00) (43, -2.55484633857036902427e-01) (44, -1.40796285588811974776e+03) (45, 2.14523281398466956205e+01) (46, 1.82235146151455069230e+02) (47, 1.35844853679495347620e+01) (48, -4.20795462149942665064e+01) (49, -5.73058002400617816363e+00) (50, -6.17619854952817377125e+02) (51, 4.67837425593639544275e+00) (52, -5.55257499599166166604e+01) (53, -1.59093531941455310630e+01) (54, 1.16946375054789115211e+02) (55, -3.14547319918052039611e+01) (56, 1.00333936820832732906e+02) (57, 7.85270771704247572131e+00) (58, -3.69521180631758525692e+01) (59, 2.51839912225455648809e+01) (60, 2.64389959486196687521e+02) (61, 2.77072009205395417553e+01) (62, 1.25122014338470353323e+03) (63, -5.86005287059266066763e+00) (64, 1.50000000000000000000e+03) (65, 8.41833029322345494094e-01) (66, 1.99368773724417707172e+01) (67, 3.40337806938862996731e+01) (68, 1.50000000000000000000e+03) (69, -2.70555261398966635511e+01) (70, -3.49540049690676895011e+01) (0, 1.50000000000000000000e+03) (1, 1.20000435714939097664e+01) (2, 1.50000000000000000000e+03) (3, -1.93826401824732101886e+01) (4, -7.44522270245387289833e+02) (5, 5.51890022756719567099e+00) (6, -8.59743398043843001233e+01) (7, 3.05114541228281339613e+01) (8, -1.59164354448589676849e+02) (9, -9.98589285317589236968e+00) (10, -4.99246051272608781346e+02) (11, 2.18121613913225758097e+01) (12, 1.50000000000000000000e+03) (13, -4.85084222115812568887e+00) (14, -1.50000000000000000000e+03) (15, -2.12959971808588051090e+01) (16, 8.05267839304773076492e+01) (17, -2.25914549621361224752e+01) (18, 6.29571689684152246969e+01) (19, 4.71803727948970230699e+00) (20, -1.11942059803603175538e+01) (21, 5.23524470934262531330e+00) (22, -1.50000000000000000000e+03) (23, 1.55950972442226518666e+01) (24, -1.50000000000000000000e+03) (25, -1.10433088190522479266e+01) (26, 3.62348409168876230524e+02) (27, 1.36752186522162251237e+01) (28, -2.81087586504034220525e+02) (29, 1.09516557380512118414e+01) (30, -2.22473081714400855446e+01) (31, 1.02044901408572599166e+01) (32, 7.16813408623555403665e+01) (33, -7.08485585581957622026e+00) (34, -4.88888431407836443476e-01) (35, -2.37393863735087613520e+01) (36, -7.37309625140847924030e+00) (37, -6.49588605307572564129e-01) (38, -2.34172756073573367530e+02) (39, 1.93761376735852657305e+01) (40, -1.97390899631041321527e+02) (41, -1.45685022514089479451e+00) (42, 6.35986659254524799856e-01) (43, -2.42569347349193549235e+01) (44, 8.56119548728273542793e+01) (45, 1.52108211532672132904e+01) (46, -6.77579083598663611809e+00) (47, 2.46032883703546332299e+01) (48, 3.00987389967180227757e+01) (49, 3.98144272466611459649e+00) (50, -2.50835541392875114752e+02) (51, -2.34544390161678890649e+01) (52, -9.28755314594569370001e+01) (53, 1.16617098437469550731e+01) (54, 7.35978678886426962436e+01) (55, -1.43944181360789560387e+01) (56, 2.96586960932636998223e+02) (57, -2.37648025605651902481e+01) (58, -1.43974537625116937534e+02) (59, 2.69007288598669518365e+01) (60, 1.50000000000000000000e+03) (61, 9.54451929223935024993e+00) (62, -1.00063157540546035307e+03) (63, -8.95016372572558083220e+00) (64, 8.85264967238680924311e+02) (65, 1.40751006012180308602e+01) (66, 4.53691308351398276955e+01) (67, 1.77492776094122000075e+01) (68, -1.50000000000000000000e+03) (69, -2.32311973077206488369e+01) (70, 6.33092039873375078685e+00) (0, 1.50000000000000000000e+03) (1, 3.34916609618561338380e+01) (2, 1.50000000000000000000e+03) (3, -2.00498925354564825341e+01) (4, 3.72950886718659774033e+02) (5, -2.19686123594482562993e+00) (6, -3.09649757361009164924e+02) (7, 1.95470623369006872849e+01) (8, 7.13714793894524291318e+02) (9, -2.98375001921056686172e+01) (10, -9.70547950516910987062e+02) (11, 1.78898673575429825178e+01) (12, 1.50000000000000000000e+03) (13, 4.65181055301854939898e+00) (14, -1.50000000000000000000e+03) (15, -2.29591716633895899236e+01) (16, -5.11471472380615921338e+00) (17, 1.13234372273931604980e+01) (18, 9.63448495283149952684e+00) (19, 1.15923156609123250149e+01) (20, 4.34127199849396383513e+00) (21, -2.57160807838510372392e+01) (22, -1.50000000000000000000e+03) (23, -8.18712610986154132320e+00) (24, -1.50000000000000000000e+03) (25, 9.16505914396461451865e-01) (26, 3.79825357239187155756e+02) (27, 3.37591552594536153720e+02) (28, -1.29921066479099181379e+02) (29, 1.52795188171530913479e+01) (30, -7.94310088892255237170e+01) (31, 3.46473513825823387080e+00) (32, -5.84871719892343193692e+01) (33, 3.49184813335617079133e+01) (34, 2.24440082769037161370e+01) (35, -3.21010052536663081924e+00) (36, 5.21465376397998969793e+00) (37, -1.23550937876859503461e+01) (38, -7.90665721296258681150e+01) (39, -1.27933599003111062586e+01) (40, -1.01687289388752660102e+02) (41, 1.10666042191071696266e+01) (42, -4.34915765759836062898e+02) (43, 1.47862690212054470607e+01) (44, 1.50000000000000000000e+03) (45, 1.39657261439295510286e+01) (46, -5.88757193259757173109e+02) (47, -3.81826715402384131437e+00) (48, 5.28457015596887060838e+01) (49, -1.37354132064369593991e+01) (50, -4.99171841823543729788e+02) (51, 1.97157864728015326250e+01) (52, -3.47022708758220090886e+01) (53, 4.63460261512671234385e+00) (54, -1.04324578888666663623e+00) (55, -3.19525791769155409483e+00) (56, 1.71081182267579180234e+02) (57, 1.81782463266852651884e+01) (58, -1.88349279978958179527e+01) (59, 1.91006158712034981306e+01) (60, 1.50000000000000000000e+03) (61, -1.38958766156863173791e+01) (62, -1.00063157540546035307e+03) (63, -8.03870000897546610474e+00) (64, 8.85264967238680924311e+02) (65, -1.79844137760298394824e+01) (66, 5.52750203462482687655e+01) (67, -1.26278688135379866253e+01) (68, -1.50000000000000000000e+03) (69, -1.41044138508274112809e+01) (70, 8.98233498071786762296e+00) (0, 1.50000000000000000000e+03) (1, 1.28425427990674290157e+01) (2, 1.50000000000000000000e+03) (3, 6.79133668715906946289e+00) (4, 1.71484030134999045458e+02) (5, -1.71787298857575110311e+00) (6, -7.60141504887079577202e+02) (7, 2.41581671917839564401e+01) (8, -3.75841645980551447792e+02) (9, -1.47846006047078208923e+01) (10, -1.37803057087893876087e+03) (11, -7.77966295968315790788e-01) (12, 1.50000000000000000000e+03) (13, -1.42176353763109162287e+01) (14, -1.50000000000000000000e+03) (15, 1.10204543737941023096e+01) (16, 1.09174010770011093996e+01) (17, 2.06794809638599517143e+01) (18, -2.68050066746867887701e+00) (19, 3.40605928377352995540e+00) (20, 6.68541464788568475797e+01) (21, -6.03723736906603658525e+00) (22, -1.50000000000000000000e+03) (23, 6.80836586442535018904e+00) (24, -1.50000000000000000000e+03) (25, -8.89781058435690397346e+00) (26, 6.33862668727910431699e+02) (27, -1.66361020567605555343e+00) (28, 2.50768855941294859235e+01) (29, -1.13959881131583049552e+01) (30, 1.39187769148542173525e+02) (31, 9.63569638357524915762e+00) (32, 2.54508231606360254773e+02) (33, 2.44349964099937473350e+01) (34, 9.45965229905501587382e+02) (35, 1.50238728952134099615e+01) (36, 1.03728139180145042531e+01) (37, 3.71549771497375003193e+00) (38, 7.54798980257058786947e+01) (39, -1.63395228299908730207e+01) (40, -6.18767273073775641024e+01) (41, -4.04704392658361777890e-01) (42, 1.62840777330279252055e+02) (43, -8.86192227869814352914e+00) (44, 1.50000000000000000000e+03) (45, 1.30066358130961141626e+01) (46, -5.85500191930099234128e+01) (47, -1.20306598553821100239e+01) (48, -1.05546693938811401381e+02) (49, 7.40507017991038768434e-02) (50, 7.91977384111678475165e+01) (51, -4.14144130721126124683e+00) (52, 9.51824683267733178127e+01) (53, 1.16243992183839619514e+01) (54, 5.95059342200483456509e+02) (55, -3.99229985694958644515e+00) (56, -1.64322934750431173256e+01) (57, -6.81273624411030542802e+00) (58, -3.57707717678788867488e+02) (59, -1.28577843228171513346e+01) (60, 1.68079100243531570413e+02) (61, 1.24955880938647778677e+00) (62, -4.96544583375948462844e+01) (63, 1.88043863210509734074e+01) (64, 8.85264967238680924311e+02) (65, 6.68582104126784759757e-01) (66, 1.95753353716237334936e+01) (67, -5.51752429763003515717e+00) (68, -1.50000000000000000000e+03) (69, -4.23723650812046326308e+00) (70, -1.29569099826098170780e+01) (0, 1.50000000000000000000e+03) (1, -2.79781143867680768267e+01) (2, 1.50000000000000000000e+03) (3, 3.28950163056739981471e+01) (4, 1.50000000000000000000e+03) (5, -7.73477705307671659085e+00) (6, 2.74368285291491758926e+02) (7, 1.85997879631625515628e+01) (8, 7.13714793894524291318e+02) (9, 7.63318473467958114043e+00) (10, -9.70547950516910987062e+02) (11, -9.87506681097553062898e+00) (12, 1.50000000000000000000e+03) (13, 2.73754517159256494097e+00) (14, -1.50000000000000000000e+03) (15, -1.56249304084636833068e+01) (16, 2.77133093077011416483e+00) (17, 2.00174358147098381266e+01) (18, 2.09290911619984569825e+01) (19, 1.25394766632441907461e+01) (20, -1.46812481352081771746e+01) (21, 1.28674070241774725076e+01) (22, -1.50000000000000000000e+03) (23, -7.90032595926433156563e+00) (24, -1.50000000000000000000e+03) (25, -1.54113214669691149794e+01) (26, 1.29317712552166085516e+03) (27, 1.19167654966845972808e+01) (28, -5.59100437930941964737e+01) (29, 1.78065697450211146702e+01) (30, -5.07256813101095929142e+01) (31, -9.23400180382755131347e+00) (32, 2.96349779595041340485e+01) (33, 1.42459140790269369603e+01) (34, 2.88538634681800090220e+02) (35, 2.30334201938211968752e+01) (36, 3.79305642496948323128e+01) (37, 8.09311704295897271777e+00) (38, -1.19294440874034592071e+02) (39, 1.63226689889075373685e+01) (40, -2.54149355078184768786e+01) (41, 6.88290789260475666111e+00) (42, -4.35851919610517711590e+02) (43, -2.41044743260329958900e+01) (44, 1.50000000000000000000e+03) (45, -2.38918488684252352527e+01) (46, -8.81730675381088644826e+02) (47, -1.11427697203417306326e+01) (48, 4.19791578154300069059e+01) (49, 5.32554559313329889392e+00) (50, -6.01897052612028232943e+02) (51, -9.72009698285631174031e+00) (52, -8.17254616927451138508e+00) (53, -1.50964482868493359291e+01) (54, 4.92038189779065504581e+01) (55, 1.56310311554098344544e+01) (56, 3.77772745210877815225e+02) (57, 1.15387363216892744333e+01) (58, -8.48499355553402381247e+01) (59, -1.56247388680537877548e+01) (60, 1.50000000000000000000e+03) (61, -2.24820410729714570408e+00) (62, -1.00063157540546035307e+03) (63, -1.75267149638666239753e+01) (64, 8.85264967238680924311e+02) (65, 5.13532138476009958339e+00) (66, -4.11688104069126425966e-01) (67, -1.31553688878869117218e+01) (68, -1.50000000000000000000e+03) (69, -1.08439070742028516037e+01) (70, -2.05903066465954900366e+01) (0, 1.50000000000000000000e+03) (1, 5.93868846394317362325e+00) (2, 1.50000000000000000000e+03) (3, -1.73125238687069327170e+01) (4, 4.10850683450103417726e+02) (5, -6.78347072452376664842e+00) (6, -3.04653533547472420651e+02) (7, -2.27517768017868036168e+01) (8, 1.50000000000000000000e+03) (9, -6.81427827971471700153e+00) (10, 1.18403460363538874844e+03) (11, -6.62391035302075259494e+00) (12, 1.49959217588834007984e+03) (13, -1.63754794600939277416e+01) (14, -1.13742635621006479596e+03) (15, 1.23471001182977317967e+01) (16, 1.48532057916126962738e+01) (17, -3.19432631716331414395e+01) (18, -2.98595321128635937669e+01) (19, 3.23927263323473324519e+00) (20, 2.70022291187459773099e+00) (21, 1.61340385876743894755e+01) (22, -1.49959129435578643097e+03) (23, 3.41579081281144283366e+01) (24, -1.49959129435578643097e+03) (25, -4.31614063327996611008e+00) (26, 3.76050911065038008019e+02) (27, 4.97386847738536772567e+01) (28, -1.49959281758211000124e+03) (29, -1.55590633725287794675e+01) (30, -4.94053403220621873970e+01) (31, -8.53204770747299612310e+00) (32, -6.54510236117422437019e+01) (33, -1.23316777259627645691e+01) (34, 3.73692384325156226055e+01) (35, -2.70096794161641646781e+01) (36, -4.18054544316313947405e+00) (37, -2.58358035832870847059e+01) (38, -7.96030447431113969969e+01) (39, 5.17529704817345503898e+00) (40, -2.77775215006680184615e+02) (41, 1.72708554814501020758e+01) (42, -4.81115545028509529857e+02) (43, -5.59327838438107676211e+01) (44, 1.36893405996450087514e+03) (45, -2.14324687372896747206e+01) (46, -8.14981056861410593228e+02) (47, 9.69054365915851612101e+00) (48, 8.48411467770159788415e+00) (49, 1.61162315485707585694e+00) (50, -6.26369197879142575403e+02) (51, -2.46295749326830630821e+01) (52, -5.25474867469479107740e+01) (53, 1.03253280110984579920e+01) (54, 8.59031243201690699607e+01) (55, -2.72082459622794132770e+01) (56, 1.85694135847416674778e+02) (57, -5.55236968679591491593e+00) (58, -1.91854395675560169821e+01) (59, -3.49146823458047066424e+01) (60, 1.49963882740852454845e+03) (61, -1.35077652721682928139e+00) (62, -5.51229955222315993524e+02) (63, 6.65298565416468612455e+00) (64, 1.45000000000000000000e+03) (65, 1.52848268049194615514e+01) (66, 4.47829376073162492844e+01) (67, -3.13007928569037687794e+01) (68, -1.49959129435578643097e+03) (69, 8.55298125394023944779e-01) (70, 8.33670136627831404041e+00) (0, 1.50000000000000000000e+03) (1, -2.75585304950363063625e+00) (2, 1.50000000000000000000e+03) (3, -1.16788359806404926644e+01) (4, -2.71462155593013960697e+02) (5, 4.30627669533062462648e+00) (6, 1.25636574063514231625e+02) (7, 9.55972030717730802962e+00) (8, -2.62173643325460403730e+01) (9, 2.23858103045916010387e+01) (10, 3.17662424719432650022e+01) (11, 7.79757979130238609855e+00) (12, -1.50000000000000000000e+03) (13, 3.60765337478925829373e+00) (14, 1.50000000000000000000e+03) (15, 1.65836393446028971255e+01) (16, -8.90589986793554544420e+01) (17, -1.11011653479529499577e+01) (18, 5.02210810317453737461e-01) (19, 1.64754116039528248905e+01) (20, -1.20718946106928640916e+02) (21, -2.20805257358111752808e+01) (22, 1.50000000000000000000e+03) (23, 1.37484529245277844467e+01) (24, 1.50000000000000000000e+03) (25, 7.28042665521657195171e+00) (26, -1.02045175888402937403e+02) (27, -3.90606349075407344174e+00) (28, 1.19826733552400128247e+02) (29, 1.15153995455811735127e+01) (30, -7.25507227685308553333e+00) (31, -1.93451964424787234975e+01) (32, 3.86775922488660128806e+01) (33, -7.95657095902585531633e+00) (34, -1.77411748609548567401e+02) (35, 1.64583559095382381265e+00) (36, 1.44279726608112692787e+01) (37, 1.31596568922185461759e+01) (38, 3.81120658500696336546e+01) (39, 1.61050414233467864555e+00) (40, -2.26789401926515985508e+01) (41, -1.13486624201010304347e+01) (42, 2.93881148400708070767e+02) (43, 9.94313301409332606084e-01) (44, -1.48980032893072666411e+03) (45, -1.58557939305500745775e+01) (46, 4.29654410502524399362e+02) (47, 8.99357270004897024762e+00) (48, -3.88584810786635088675e+01) (49, -8.48720545657958247432e+00) (50, 2.22198606829122951467e+02) (51, -1.51568435897821292002e+01) (52, -2.16911525036266326083e+01) (53, 1.61517767913994028106e+01) (54, -1.02094613504107223889e+03) (55, 1.17447061100596918948e+01) (56, -3.79741170232208418156e+01) (57, -2.04655693157387794656e+01) (58, 7.77752579863242630154e+01) (59, -8.34848177590094664424e+00) (60, -8.54474040442948847840e+01) (61, 1.94820082086814174716e+01) (62, 1.00194270380518628372e+03) (63, -2.67833667495134477576e+01) (64, 1.50000000000000000000e+03) (65, 2.67011607899480196693e+01) (66, -3.45907393202256372433e+01) (67, -2.17710360498035271348e+01) (68, 1.50000000000000000000e+03) (69, -2.62094335728601990354e+01) (70, -6.25560294841415043265e+00) (0, 1.50000000000000000000e+03) (1, -2.07428514839295488059e+01) (2, 1.50000000000000000000e+03) (3, -1.13393647347038388773e+01) (4, -1.50000000000000000000e+03) (5, 1.34932082652750171547e+01) (6, -1.42619635233031613097e+03) (7, 1.03586671437113988503e+01) (8, 3.17411808977266446163e+02) (9, 1.70241636831270204411e+00) (10, -1.50000000000000000000e+03) (11, 4.67268684046853000069e+00) (12, 1.50000000000000000000e+03) (13, 2.38964608989705382669e+01) (14, -1.50000000000000000000e+03) (15, -2.04919357287860712802e+01) (16, -3.62219967357409267095e+00) (17, 2.95175223899087457724e+00) (18, 1.40196532138665208578e+00) (19, -1.49758917599136101018e+01) (20, -4.77597356652299254165e+01) (21, 2.07959492359418973706e+01) (22, -1.50000000000000000000e+03) (23, -2.61800918476714628014e+01) (24, -1.50000000000000000000e+03) (25, -1.06745228593511782833e+01) (26, 1.50000000000000000000e+03) (27, 2.71586296260053252638e+01) (28, -4.44018745462870811025e+02) (29, 1.55335537278925861493e+00) (30, 2.84944602661827097734e+01) (31, -1.94235301564517897077e+01) (32, -6.60263494041996921169e+01) (33, -1.63865496779630355206e+01) (34, 7.17223794673395786958e+02) (35, -3.32172252272254908689e+01) (36, -1.06755396312855637575e+02) (37, 2.35992130188655568901e+00) (38, -3.86941228707697462141e+01) (39, 1.40361867633034509417e+00) (40, 4.54143599331060698887e+01) (41, -1.61997150322441854087e+01) (42, -8.22222842664791642164e+01) (43, 1.45460920693680666460e+01) (44, -1.41484790809087462549e+03) (45, -7.46446333069224365886e+00) (46, 5.92502577779242415090e+02) (47, -1.37322708312712986611e+01) (48, 1.49668322702129535173e+03) (49, 1.94999037644797157398e+00) (50, -1.75241459114837653033e+02) (51, -1.09291932795780510901e+00) (52, -8.61366592672300953382e+02) (53, 1.05952216770032947579e+01) (54, 3.10445941710360386878e+02) (55, -2.07579343134704643603e+01) (56, -5.97861483688695187766e+01) (57, -1.01650768300427696289e+01) (58, 4.59452799759066977003e+02) (59, -6.69134604349744677165e+00) (60, 5.27892043213254396505e+02) (61, -1.29994826568809820344e+01) (62, 1.50000000000000000000e+03) (63, 2.27492934116631140284e+01) (64, 8.85264967238680924311e+02) (65, -7.93969037936820054568e+00) (66, 2.02360943437916986909e+01) (67, -9.41135456351440602418e+00) (68, -1.50000000000000000000e+03) (69, 2.34908016032170081644e+01) (70, 1.32852089728767275290e+01) (0, 1.50000000000000000000e+03) (1, 4.79703624381277504707e-01) (2, 1.50000000000000000000e+03) (3, -8.86918441520725409077e+00) (4, 1.21409673268514140432e+02) (5, 1.72962874224136009538e+00) (6, -2.45086356732989116836e+01) (7, -6.60116957176917762418e-01) (8, 1.05017853525332066056e+03) (9, 1.32314812701416393281e+01) (10, -2.99943325778536063808e+02) (11, 1.01486033473997694365e+00) (12, 1.50000000000000000000e+03) (13, -1.92355234075869176991e+01) (14, -1.50000000000000000000e+03) (15, 1.89233967545890435780e+00) (16, -2.09625733670586367197e+00) (17, -3.49328048435485172263e+00) (18, -4.01438923438010633049e+01) (19, -6.84622450040953545169e+00) (20, -6.53033219015470756119e+00) (21, 1.11547182261463699859e+01) (22, -1.50000000000000000000e+03) (23, 9.89730110820454989096e+00) (24, -1.50000000000000000000e+03) (25, -1.17005477573691720750e+01) (26, 2.44798538088651795874e+00) (27, 1.16423848654369210820e+00) (28, -1.14341215368990376078e+02) (29, -1.00305513891297817253e+01) (30, 1.82735424357213105395e+01) (31, -1.77771697136056445743e+01) (32, -7.88268611035384878960e+02) (33, -1.91867474354068612286e+01) (34, -1.44134414143791445007e+00) (35, 2.20261194220799048082e+01) (36, -1.23452487167924598310e+01) (37, -1.09331300186354898329e+01) (38, -2.79761480269902023110e+01) (39, 1.09326736481556352487e+01) (40, -1.65080100473726822941e+01) (41, -3.68617468887147623491e+01) (42, -1.61409803218623295606e+02) (43, 2.72936443087568658683e+00) (44, 1.11770273319351895225e+03) (45, -4.33034050339239229288e+01) (46, -1.96765322949081244985e+01) (47, 2.54639788021313950850e+00) (48, 1.13023916150096312094e+02) (49, -3.94014345420079976634e+01) (50, -2.85134300978974977170e+02) (51, -2.74998429871123732937e+01) (52, -4.78004184015401563101e+01) (53, -2.96643710898523593755e+01) (54, -1.39285029222929050974e+01) (55, 1.36192651507457931359e+01) (56, 2.98575159389250245567e+02) (57, 8.88034767285403092707e-01) (58, 9.61794861444338700096e+00) (59, 9.26889200268287360984e+00) (60, 4.14147428848523475153e+02) (61, 2.35714172436545261746e+01) (62, -6.80420782166046024031e+02) (63, -2.07776124536377793106e+01) (64, 8.85264967238680924311e+02) (65, 5.86993129981916084148e+00) (66, -2.11315830364893386673e+00) (67, -2.89187957924019878320e+00) (68, -1.50000000000000000000e+03) (69, -2.06515920987423662325e+00) (70, 1.81186438394922468831e+01) (0, 1.50000000000000000000e+03) (1, -1.67815950421547270821e+01) (2, 1.50000000000000000000e+03) (3, -2.21045239725733431158e+01) (4, 4.53575624616507866449e+02) (5, -1.11862359331900247383e+01) (6, -1.46233123988368930668e+02) (7, 1.44600818030807722891e+01) (8, 1.06278713875435028058e+03) (9, -8.38372556217680831026e+00) (10, -9.68420928166652515756e+02) (11, -1.33199977886555309681e+01) (12, 1.50000000000000000000e+03) (13, 9.23558326718544009282e+00) (14, -1.50000000000000000000e+03) (15, 1.11908675229467462486e+01) (16, 5.91896564471841983845e+01) (17, -1.85974534105688249497e+00) (18, -5.05780160447185807016e+01) (19, -7.91303255830812624083e+00) (20, -8.43646594891974910269e-01) (21, -2.28099076712327750727e+01) (22, -1.50000000000000000000e+03) (23, -3.56954644828193812245e+00) (24, -1.50000000000000000000e+03) (25, -2.61521449935163481371e+01) (26, 1.88459310112712273622e+02) (27, 8.93344649814179945224e+01) (28, -1.50000000000000000000e+03) (29, 1.06102307760174641160e+00) (30, -4.04039378234025576830e+01) (31, 1.22678228384528309469e+00) (32, -2.41923423604249023811e+02) (33, 2.20695508370333328685e+01) (34, 1.63057885333920324911e+01) (35, -2.31483219698575730661e+01) (36, 2.32468165838679530211e+00) (37, -2.97927395465581348333e+01) (38, -6.17398149989575131258e+01) (39, 1.15874752180983779937e+01) (40, -8.80697773404886845583e+01) (41, -2.20545627866996234445e+01) (42, -4.41936998727150182731e+02) (43, -1.30096698728151896063e+01) (44, 1.49465600962959433673e+03) (45, -1.19943875504750181449e+01) (46, -4.48279288138282993259e+02) (47, -3.63808418591595206237e+00) (48, 3.56574131477332834095e+00) (49, 3.98716864954624972128e+00) (50, -3.15714391979250137865e+02) (51, -1.42011025938696189286e+00) (52, -3.56329522752314744594e+01) (53, -1.67095365005787961366e+01) (54, 2.39480277516095547696e+01) (55, 4.72502097276949761806e+00) (56, 1.11063872429236283779e+02) (57, -2.99239877549215158581e+01) (58, -9.03967518741977471564e+00) (59, 2.18231540862257347158e+01) (60, 1.50000000000000000000e+03) (61, -3.28858560626394265114e+01) (62, -1.36035732183210620860e+03) (63, 2.27459823920991652813e+01) (64, 8.85264967238680924311e+02) (65, 6.43149709915904810309e-01) (66, -1.76571562983034944239e+01) (67, 2.83603375850323438101e+01) (68, -1.50000000000000000000e+03) (69, 8.10971982732694129936e+00) (70, -7.74143298059996975979e+00) (0, 1.50000000000000000000e+03) (1, 1.92526432522271022663e+01) (2, 1.50000000000000000000e+03) (3, 1.03115429959050031172e+00) (4, -1.95512410238693519204e+02) (5, -6.72272140790413264000e+00) (6, -1.14841458266957175738e+02) (7, 2.40121774163125074608e+01) (8, -7.28653016699481440810e+02) (9, 1.29316435423499491719e+01) (10, -2.82854622173375787497e+02) (11, 9.12943009429230234453e-01) (12, -1.50000000000000000000e+03) (13, -3.23855941426206612732e+01) (14, 1.50000000000000000000e+03) (15, -7.84541615060273045401e+00) (16, 2.16509385524713593441e+01) (17, 2.43450485394947904183e+01) (18, -2.24775241408835455559e+01) (19, 1.97532538092407392583e+01) (20, -2.16244179037132724375e+01) (21, -1.07768270569693003225e+00) (22, 1.50000000000000000000e+03) (23, 9.95116761820075979017e+00) (24, 1.50000000000000000000e+03) (25, -4.62410839793860051206e-01) (26, -1.42101586763994760076e+03) (27, -1.40761505453313162661e+01) (28, 4.36126687471364391513e+02) (29, 6.73685273237393822399e+00) (30, 3.81524299644951838673e+01) (31, 1.52784510602807088731e+00) (32, 7.76355880202289995395e+02) (33, 4.14279016884792294917e+00) (34, -1.50000000000000000000e+03) (35, 1.82684486972184534359e-01) (36, 1.50528632560017676667e+01) (37, 9.22943415468349037667e+00) (38, 7.25794231020454958525e+01) (39, -8.85743339307269117455e+00) (40, -5.25371689994527315548e+01) (41, -2.36982685423715757622e+01) (42, -2.13584948820402020786e+00) (43, -1.88673108025195688242e+01) (44, -1.50000000000000000000e+03) (45, 1.75505728911506615475e+01) (46, -1.01796166624519673860e+03) (47, -1.81177917451876258070e+00) (48, -3.91017007215161868316e+02) (49, 1.82044002640862867537e+00) (50, -5.22218499570529047560e+02) (51, 3.33149211143011747538e+00) (52, -1.47380875090949281514e+01) (53, 6.89529867956400366324e+00) (54, -1.17957576807861937596e+03) (55, -8.88431594438802996194e+00) (56, -5.83330915992098795186e+01) (57, -1.87572277539686851355e+01) (58, 8.48545660730856496912e+01) (59, -1.35493226816603229423e+01) (60, -2.19985294902608472967e+02) (61, 1.85121924709507119644e+01) (62, -1.50000000000000000000e+03) (63, -1.20683459488729525333e+01) (64, 1.50000000000000000000e+03) (65, 6.99067842852281362553e+00) (66, -5.65597848830636777961e+01) (67, 1.99976282925905621823e+01) (68, 1.50000000000000000000e+03) (69, 9.42370274218151493528e+00) (70, -2.31690249362242806086e+00) (0, 1.50000000000000000000e+03) (1, -3.42500952730282026693e-01) (2, 1.50000000000000000000e+03) (3, -1.30843676679823843756e+01) (4, 9.39398557307155897433e+02) (5, 2.87186202986652183711e+00) (6, -2.36962475938571515144e+02) (7, -4.76705708196704858182e+00) (8, 6.79354379789408881152e+02) (9, 1.67849474098944355660e+01) (10, -9.70547950516910987062e+02) (11, 9.18877976947639396599e+00) (12, 1.50000000000000000000e+03) (13, -1.46675951501905768026e+01) (14, -1.50000000000000000000e+03) (15, 3.75962564358122142139e+00) (16, -4.66500427618944470964e+01) (17, -6.53388162606146938316e+00) (18, -1.95851435217408216261e+01) (19, -1.15999075589253024532e+01) (20, -1.01369695828367660795e+01) (21, 2.30113890471078157418e+01) (22, -1.50000000000000000000e+03) (23, -7.16851968844712228446e+00) (24, -1.50000000000000000000e+03) (25, -1.01529971404460752638e+01) (26, 4.03081820761016615506e+02) (27, 2.69483040992976596861e-01) (28, -3.02446298948837409171e+02) (29, 3.16781951152048861786e+01) (30, -7.53983614523244316530e+00) (31, -2.59365269336174577575e+01) (32, -8.65611429208923084389e+01) (33, -1.53814330970918717867e+01) (34, 1.45781705979710434207e+01) (35, -9.71165886332346595111e+00) (36, -7.71595549994885576695e+00) (37, -2.72666871566779818181e+01) (38, -2.04242891756819666682e+01) (39, -1.10911146398320981099e+00) (40, -2.20253027248593475917e+01) (41, 2.37979374896328188527e+01) (42, -1.91284299949513780348e+02) (43, -2.90461247291877677768e+00) (44, 1.50000000000000000000e+03) (45, 3.96848994114650599485e+00) (46, -1.06989510347153071734e+02) (47, 1.60510774816636363482e+01) (48, 3.07560149293753930522e+01) (49, 8.20399009394631839598e+00) (50, -5.36153061125934641495e+02) (51, -5.35286153421439880873e+00) (52, 2.27413946670637159286e+01) (53, -3.23188704076930335418e+01) (54, -1.64567205158066154347e+00) (55, -1.30743523458301602602e+01) (56, 3.47737912118501128589e+02) (57, -4.96612138925031532111e-01) (58, -2.15680806498380292169e+02) (59, -1.85634950391998820862e+00) (60, 1.50000000000000000000e+03) (61, -5.18770868818663188904e+00) (62, -1.33081446497125898532e+03) (63, -5.44085161018345253581e+00) (64, 8.85264967238680924311e+02) (65, 1.88230502539014459273e+01) (66, 1.88471677156330947867e+01) (67, 1.28503920592962899150e+01) (68, -1.50000000000000000000e+03) (69, 8.39962640973814878009e+00) (70, 2.79385119325425677062e+01) (0, 1.50000000000000000000e+03) (1, -1.72341830266241280434e+00) (2, 1.50000000000000000000e+03) (3, -9.79510623944594449597e+00) (4, -3.71772592385528980685e+02) (5, -3.17965135292907596920e+01) (6, -2.11708453217391394219e+02) (7, -1.04319199119369816486e+01) (8, -6.86879845378039249226e+02) (9, -1.33850489784292836504e+01) (10, 9.82969260307050035408e+02) (11, -1.46373754442883257099e+01) (12, -1.50000000000000000000e+03) (13, -8.22145145694437928796e+00) (14, 1.50000000000000000000e+03) (15, 9.20340217659646775417e+00) (16, -2.02138323229570715966e+02) (17, -2.10849367623857197884e+01) (18, -1.21010559066149507856e+01) (19, 2.26911458259816676275e+01) (20, -9.87406225859311148518e-01) (21, 1.21195116224738228539e+01) (22, 1.50000000000000000000e+03) (23, -3.98992682439998258559e+00) (24, 1.50000000000000000000e+03) (25, 2.23464387720119930236e+01) (26, -4.00419606447199782906e+02) (27, -2.75888268117601676011e+01) (28, 1.50000000000000000000e+03) (29, -6.71171832412254953937e+00) (30, 2.71549506848209176724e+01) (31, 1.66940180930248303071e+01) (32, 6.83373492209370510864e+02) (33, -1.32825525432905688916e+01) (34, -4.10997906946268756201e+01) (35, -1.19377624693275130596e+01) (36, -1.53042962386487264581e+01) (37, 3.32212893836190943375e+01) (38, 7.24823724155411639458e+01) (39, 2.69497491801915778353e+01) (40, 1.75643889109118362057e+02) (41, 9.60810590463941238681e+00) (42, 6.18203358047143069598e+02) (43, 2.87427955637937877498e+01) (44, -1.50000000000000000000e+03) (45, 1.55740777415601865385e+01) (46, 8.57949305076218820432e+02) (47, 7.93506425725582342778e+00) (48, -6.64991224209363807063e+00) (49, -3.76496639995104320775e+00) (50, 6.23911888029542751610e+02) (51, 1.80724274119873555833e+01) (52, 3.67592337847523040750e+01) (53, 1.10363861515340282438e+01) (54, -2.72737977975745096160e+01) (55, 1.93356193392260315989e+01) (56, -9.87679661868369436206e+01) (57, -6.93450202675016580400e+00) (58, 1.05263045342981158115e+02) (59, -3.21437741873664180048e+01) (60, -1.50000000000000000000e+03) (61, 6.64751173876537748697e+00) (62, 1.00194270380518628372e+03) (63, -4.20041462450272078399e+01) (64, 1.50000000000000000000e+03) (65, -7.96018344891855456069e+00) (66, -1.64763999685717088539e+01) (67, -1.95471617063319946794e+01) (68, 1.50000000000000000000e+03) (69, -1.45443711087818505767e+00) (70, 3.18719231413531041142e+01) (0, 1.50000000000000000000e+03) (1, -2.83615230425621049903e+01) (2, 1.50000000000000000000e+03) (3, 2.25648060684011149135e+01) (4, 5.53191146051374516901e+02) (5, -2.76353174729664416986e+01) (6, -1.40731704666281956406e+02) (7, -6.04481684395750917815e+00) (8, 1.10725016513533728357e+03) (9, -1.80130259359391970975e+01) (10, -1.17414545022305924249e+03) (11, -1.38821267317022432053e+01) (12, 1.50000000000000000000e+03) (13, 6.76205859713671864064e-01) (14, -1.50000000000000000000e+03) (15, 8.46434304257917524694e+00) (16, 5.14088458503442709002e+01) (17, 6.17298593431546116506e+00) (18, -1.49724020082245257157e+01) (19, 2.51457941085514740109e+01) (20, -8.39361472163351152176e+00) (21, -3.21316925270986715191e+01) (22, -1.50000000000000000000e+03) (23, -2.20452429515238748081e+01) (24, -1.50000000000000000000e+03) (25, 1.37789996396613787510e+01) (26, 1.93885104267014014567e+02) (27, 1.36730601242198105183e+02) (28, -1.50000000000000000000e+03) (29, 5.59657491646070415214e+00) (30, -1.02548257581675244410e+02) (31, -1.34973953351188113992e+00) (32, -3.35554370027596121417e+02) (33, -3.39991094414672190283e+00) (34, 2.33775333717228228636e+01) (35, -2.34009511917868007203e+00) (36, -2.36539240516284401394e+01) (37, -1.50131310528752290878e+01) (38, -3.47669398272434122532e+01) (39, -1.59524645476208704054e+01) (40, -5.87889456361788163008e+01) (41, 1.29208067789632927713e+01) (42, -5.26104697493547064369e+02) (43, 1.26083282716783546817e+01) (44, 1.50000000000000000000e+03) (45, -1.30964607522392562089e+01) (46, -4.97424348380995695607e+02) (47, -1.06460441016690072757e+01) (48, 7.25923713791900127035e+01) (49, -9.50320532453171828990e+00) (50, -2.89124876238155138708e+02) (51, 1.11759710842323976010e+01) (52, 9.88399342267304636955e-01) (53, -7.73472568426786732942e+00) (54, 3.35616338572751971014e+01) (55, -2.56426793212097514640e+00) (56, 1.25638313408744053845e+02) (57, -4.59167402299454963099e+00) (58, 4.00570271959245771676e-01) (59, 1.44092238681236377573e+01) (60, 1.50000000000000000000e+03) (61, -1.99952796887578010399e+01) (62, -1.00063157540546035307e+03) (63, 1.76851570927374730502e+01) (64, 8.85264967238680924311e+02) (65, -1.01262342765137702827e+01) (66, 1.46426890220453973512e+01) (67, -6.99541303598119679208e+00) (68, -1.50000000000000000000e+03) (69, -1.75220855497270662227e+01) (70, -3.06367491836740803990e+01) (0, 1.50000000000000000000e+03) (1, -1.87950790934499600837e+01) (2, 1.50000000000000000000e+03) (3, -1.98011268440590058049e+01) (4, 3.72950886718659774033e+02) (5, -3.91247053546184204720e+01) (6, -2.93037682747437997932e+02) (7, 1.15413527419452965894e+00) (8, 7.13714793894524291318e+02) (9, 2.46484529391805402554e+01) (10, -9.70547950516910987062e+02) (11, 6.14376716551743307093e+00) (12, 1.50000000000000000000e+03) (13, -1.12751099600119033539e+01) (14, -1.50000000000000000000e+03) (15, 1.55189877268739238048e+01) (16, 5.44172353895851230732e+01) (17, -1.21413171970732811644e+01) (18, -6.98286429448048195923e+00) (19, -3.80854401870644991845e+01) (20, 3.71783149105092602937e+00) (21, 1.29099361689001828069e+01) (22, -1.50000000000000000000e+03) (23, -1.49606838848774401640e+01) (24, -1.50000000000000000000e+03) (25, 8.38422235418135564089e+00) (26, 3.68290556895822760453e+02) (27, -2.68794193572908735046e-01) (28, -1.50000000000000000000e+03) (29, -1.79694777855612564110e+01) (30, 2.36242653556076085408e+01) (31, -9.01869994849143630233e+00) (32, -2.80863897116227398953e+01) (33, -8.39480860958971142338e+00) (34, 3.31033812269664835526e+01) (35, -6.61655890667768975533e+00) (36, -9.74831306584722590003e+00) (37, 6.55321763644274390970e+00) (38, -8.72387964740927941421e+01) (39, 9.03492119704876017749e+00) (40, -2.19617064730270215023e+02) (41, 5.85546968682672286377e+00) (42, -1.02055457881805057241e+03) (43, -1.93696516842610471087e+01) (44, 1.50000000000000000000e+03) (45, 4.95252503404621258198e+00) (46, -9.84476580836941479902e+02) (47, -1.21407962929764252635e+01) (48, -2.00797691699031872758e+01) (49, 2.58790730889677860205e+01) (50, -6.27709656855635330430e+02) (51, -2.48942324724298646998e+00) (52, -4.11049931718021444027e+00) (53, 7.91865770155692771937e+00) (54, 2.61625368848849220171e+01) (55, -1.76091240947679814610e+01) (56, -1.18490575815282528360e+00) (57, -1.79042926737933463244e+01) (58, -1.63182828722169261937e+02) (59, 1.20315939849859638855e+01) (60, 1.24631465993923643509e+03) (61, 3.68859522644079902420e+01) (62, -1.00063157540546035307e+03) (63, -2.66266920470667614040e+01) (64, 8.85264967238680924311e+02) (65, 2.03426929649009551326e+01) (66, 2.69441325517537286771e+01) (67, 4.38936989004515254464e+00) (68, -1.50000000000000000000e+03) (69, 1.16478337572336805295e+01) (70, -2.06054481331215058049e+01) (0, 1.50000000000000000000e+03) (1, 1.16171108150381314772e+01) (2, 1.50000000000000000000e+03) (3, 3.37513467310927772758e+00) (4, -3.71772592385528980685e+02) (5, 3.21359094868046879512e+00) (6, 2.99355920425258261730e+02) (7, -3.26142583054033252665e+00) (8, -1.48274107569690568198e+03) (9, 2.56865140835612315584e+01) (10, 9.82969260307050035408e+02) (11, 3.31604457402267671640e+00) (12, -1.50000000000000000000e+03) (13, 2.75349627072013376505e+01) (14, 1.50000000000000000000e+03) (15, 7.71767164405651939774e+00) (16, -1.27442306442520134624e+01) (17, -9.28290488513111711200e+00) (18, -1.35171126845007680828e+01) (19, 5.87385416426700324166e+00) (20, -2.59566659361289175934e+01) (21, -5.04386373459441816891e+00) (22, 1.50000000000000000000e+03) (23, -1.68476125960799301140e+01) (24, 1.50000000000000000000e+03) (25, -1.71920761206292702639e+01) (26, -3.72274648740070347230e+02) (27, -5.24726265233422637380e+01) (28, 8.23718875342309047483e+02) (29, -1.04036028058840148702e+01) (30, 1.51381956661238881168e+01) (31, -4.52112773314541271930e+00) (32, 5.52795194369849980376e+01) (33, -4.35149504033355327692e+00) (34, -2.87650757627151847373e+01) (35, 1.15171600243266478714e+01) (36, 1.10286870644237371408e+01) (37, 9.17894309409777342523e+00) (38, 1.61844843156751245772e+01) (39, 1.77910435122527132989e+00) (40, 2.28226042182787864476e+02) (41, -1.84294605538332589845e+01) (42, 4.31285440781587624315e+02) (43, 5.88006635079270800759e+00) (44, -9.46632093955326013202e+02) (45, -8.09587211250709537502e-01) (46, 2.56638326741702428535e+02) (47, 2.05963246053295492288e+01) (48, -5.34703849841596223769e+01) (49, 9.81001582709403230353e+00) (50, 3.31821100160585956473e+02) (51, 1.48027479540042001815e+01) (52, 3.68204721207009413320e+01) (53, 1.71067211558886107525e+01) (54, -1.06228655739059092866e+02) (55, -6.49368073935308398603e+00) (56, -1.46370706388315312552e+02) (57, -1.02770730855582179686e+01) (58, -9.89215071993568950681e-01) (59, 1.79091120274373025723e+01) (60, -8.02279752940677212791e+02) (61, -6.26784841249403967822e+00) (62, 1.00194270380518628372e+03) (63, -4.89237747184236582143e+00) (64, 1.50000000000000000000e+03) (65, 3.27343544005416298148e+00) (66, -2.29646802648973569205e+01) (67, -5.03648436607303207069e+00) (68, 1.50000000000000000000e+03) (69, -1.58585555331909624499e+01) (70, 2.17023511791134247062e+01) (0, 1.50000000000000000000e+03) (1, 8.03663193840541190127e+00) (2, 1.50000000000000000000e+03) (3, 1.37313436235860386603e+01) (4, -3.71772592385528980685e+02) (5, -2.08034724049808339430e+01) (6, 1.37113293051641699094e+03) (7, 1.76321103092750774977e+01) (8, -4.97820886124962953545e+01) (9, 4.86392763794142624079e+00) (10, 1.17431662527924140704e+03) (11, -1.34938953716728384791e+01) (12, -1.50000000000000000000e+03) (13, 1.34979917212957865047e+01) (14, 1.50000000000000000000e+03) (15, 7.84546505736840682488e+00) (16, -1.03839498342577414292e+01) (17, 1.49751319065467143332e+01) (18, -1.00033008766030206971e+01) (19, -9.28388603839276704832e+00) (20, -2.36374525866981066713e+01) (21, 1.10255446302504125922e-01) (22, 1.50000000000000000000e+03) (23, -1.05511010155706430602e+00) (24, 1.50000000000000000000e+03) (25, -5.98681120775852981808e+00) (26, -1.32955659002651736955e+03) (27, 2.65893925432033100265e+01) (28, -1.95034487618486060967e+01) (29, -1.55218972846187686088e+01) (30, 6.30983659074781542131e+01) (31, -1.11203056701314051402e+00) (32, 2.06914290735003589816e+02) (33, -3.73975925429961293389e+01) (34, 4.95978118375822703001e+01) (35, 3.08700653891082099634e+00) (36, -5.28238563408451167192e+00) (37, -1.61895235686339020731e+01) (38, -1.56782042474124683196e+01) (39, 1.79794995825299679382e+01) (40, 1.57204125317330545286e+00) (41, 1.16413901846996790113e+01) (42, 9.19404558754436465051e+01) (43, 4.51046010933542440569e+00) (44, 1.22781700427506137885e+02) (45, -1.09933682383047681697e+01) (46, 3.09670348768326334721e+02) (47, 1.88539009805802990627e+01) (48, -1.89079583573663740026e+02) (49, -1.82390527846775327703e+01) (50, 1.17150232232167604707e+03) (51, 1.30513264201180092527e+01) (52, -2.47236468566103440025e+01) (53, -1.62548603154152964123e+01) (54, -8.10537028728359246088e+02) (55, -2.74515567107955549275e+00) (56, -7.47948483382163260558e+01) (57, -1.02167775078610407746e+01) (58, 1.50000000000000000000e+03) (59, 1.71648421640354769124e+01) (60, -5.71480950633783095327e+02) (61, -3.62927405389189985385e+01) (62, 1.00194270380518628372e+03) (63, 1.80804657003670143922e+01) (64, 1.50000000000000000000e+03) (65, 9.85714043493742764213e+00) (66, -3.41701498732041457629e+01) (67, -1.65421447537383201620e+01) (68, 1.50000000000000000000e+03) (69, 3.46433104162407667914e+00) (70, 9.64602505821738631653e+00) (0, 1.50000000000000000000e+03) (1, -1.68999188322069073820e+01) (2, 1.50000000000000000000e+03) (3, 1.93340280627398115598e+01) (4, -3.62285842246992260129e+01) (5, 1.86239702078242004291e+01) (6, -2.99993212789296933352e+02) (7, 1.74096954961877266044e+01) (8, 4.70188922054811442308e+01) (9, 1.68953070778822365128e+01) (10, -1.50000000000000000000e+03) (11, -8.77687744970367589303e+00) (12, 1.50000000000000000000e+03) (13, -1.98307363339986264528e+00) (14, -1.50000000000000000000e+03) (15, 3.68971035781529943520e+00) (16, -1.86669086223008839909e+00) (17, -2.44016312795515872835e+01) (18, 1.51887692797923961052e+01) (19, 2.62566125288518499303e+01) (20, 1.04266258406128784486e+01) (21, -1.57976882902858459801e+01) (22, -1.50000000000000000000e+03) (23, 3.87973868078217476452e+00) (24, -1.50000000000000000000e+03) (25, -5.48458745649867296379e+00) (26, 6.86369707862260270304e+02) (27, -2.48021375121367482208e+00) (28, -4.68912298724854622378e+02) (29, -1.41704121754279590562e+01) (30, -4.35576290787988682496e+01) (31, -1.46619818120540479356e+01) (32, 1.86510205583335363144e+02) (33, -2.52130144556378184006e+01) (34, 3.83317075446920057402e+02) (35, -3.88215283565087503348e+01) (36, 5.59048264325333388314e+00) (37, 2.70665128565010437711e+00) (38, 8.09884062192789286883e+01) (39, -1.98312952126600130498e+01) (40, 3.88908807377017922136e+01) (41, -1.68262377896400611155e-01) (42, 4.25415174538141815930e+00) (43, 1.16965514221577873144e+01) (44, 1.82160293643392923180e+00) (45, 1.53271321774220616874e+01) (46, 1.49488372334243670991e+01) (47, 2.34726011416603306259e+01) (48, -4.83301048970218360967e-01) (49, 1.57375889566304505429e+00) (50, 1.50000000000000000000e+03) (51, 2.50647464062606895041e+00) (52, -2.38530657739551621432e+01) (53, 6.76442005608357721513e+00) (54, -2.97972504209414843501e+01) (55, -3.07942060594539879226e-01) (56, -1.65560434601614474559e+02) (57, 2.11210410411906615025e+01) (58, -6.27167827104523212256e+02) (59, -1.11310421940182990852e+01) (60, 2.55205565481236732239e+02) (61, -1.98448126937334485831e+01) (62, 1.50000000000000000000e+03) (63, -7.81329123755129639761e+00) (64, 8.85264967238680924311e+02) (65, -1.66376058609147747802e+01) (66, 4.78121451021535932568e+01) (67, 1.92242511911532716340e+01) (68, -1.50000000000000000000e+03) (69, -2.65911752865327635220e+01) (70, 5.28919964782250051627e+00) (0, 1.50000000000000000000e+03) (1, 1.21045681614310165486e+01) (2, 1.50000000000000000000e+03) (3, -4.83259900623258165098e+00) (4, -1.01821153137414989942e+03) (5, -1.94395276276470276855e+01) (6, -3.50616664584948011907e+02) (7, 2.64279774307287880220e+01) (8, 1.49886939723174305072e+03) (9, -2.61831096139579848625e+01) (10, -1.49928999912826861873e+03) (11, 1.20158747298245796031e+01) (12, 1.49438829108235768217e+03) (13, 5.65606152628029423823e+00) (14, -2.64677592108345038469e+02) (15, -2.01053681722283883460e+01) (16, -5.18251559912389296869e+01) (17, 1.92026701579192291547e+01) (18, -5.60544247678362506093e+00) (19, -2.41531343052229203749e+01) (20, -1.85302022476759598035e+00) (21, -3.16135335930319616438e+00) (22, -1.49438824103235538132e+03) (23, -2.17690754501572776292e+01) (24, -5.21321805611147169657e+02) (25, -2.75750888843319899024e+01) (26, 3.98274403128321978329e+02) (27, 3.89953627761068517543e+01) (28, -4.84152932533256205261e+02) (29, 1.31678809573289274937e+01) (30, -7.02558705796927114307e+01) (31, 2.47588033181222666457e+00) (32, 4.26779630043405973083e+01) (33, -1.31292815141968244319e+00) (34, 6.41620673950860833656e+01) (35, 3.28412851332969495388e+01) (36, 8.61546484200650120044e+00) (37, -1.57550883742496683482e+01) (38, -1.05089677246450165171e+02) (39, -1.69867872937825197255e+01) (40, -2.32689624720949922221e+02) (41, -6.89559243976876423687e+00) (42, -3.80816317802203741394e+02) (43, 9.91647408786658424162e+00) (44, 1.05499891950851315414e+03) (45, 3.41258739577699765633e+00) (46, -2.73287514611827873523e+02) (47, 2.45997159356669969910e+00) (48, 4.75270002319669231383e+01) (49, 2.58466331322953113414e+00) (50, -6.97273870103894296335e+02) (51, -3.05765028100585709581e+01) (52, -1.61370291067049826950e+01) (53, 2.72772426556024143451e+01) (54, 6.41434098268997843206e+01) (55, 2.10881425563125368683e+00) (56, 1.74328905708833332255e+02) (57, -1.61323031499375879605e+01) (58, -3.14516151551890388305e+01) (59, -3.05709396639272412699e+01) (60, 1.07763525210864531800e+03) (61, -2.84557014966924448629e+00) (62, 1.08071680797742919822e+03) (63, 2.62525922404350886552e+00) (64, -1.49438824103235538132e+03) (65, 1.18254229913914485905e+01) (66, 3.25281384567167677346e+01) (67, 1.94601934678509778109e+01) (68, -1.49438824103235538132e+03) (69, 5.17659532288400114908e+00) (70, -1.81572478633487968125e+01) (0, 1.50000000000000000000e+03) (1, 1.78079942208272292703e+01) (2, 1.50000000000000000000e+03) (3, -1.81890859785252279046e+00) (4, -5.32836425214857172250e+02) (5, 6.96072264664985329574e+00) (6, 1.60808429668751927011e+02) (7, 1.41238403259432523384e+01) (8, -1.09384609557303065230e+03) (9, 2.07078549075476336938e+00) (10, 1.19197956272406463540e+03) (11, 6.50306922146236043858e+00) (12, -1.50000000000000000000e+03) (13, -4.31590455193684530144e+00) (14, 1.50000000000000000000e+03) (15, 1.15753846192024347772e+01) (16, 6.15932798554948490732e+00) (17, -1.23648749147246626023e+01) (18, 7.48127566449067948895e+00) (19, 2.09506218212466563955e+01) (20, 1.23143023808658149676e+01) (21, 1.57176957894423132700e+01) (22, 1.50000000000000000000e+03) (23, -1.03027440709001405494e+00) (24, 1.50000000000000000000e+03) (25, 3.87914122009236761457e+00) (26, -2.17040520112316016821e+02) (27, -9.93214968950918262180e+01) (28, 6.72854593950849562134e+01) (29, -3.48387550976367776912e+01) (30, 4.51731235306051601697e+01) (31, 1.61569920021026085521e+01) (32, 1.66052045518701248739e+02) (33, 1.25628663274700951291e+01) (34, -2.47175624880470081735e+01) (35, 1.04400054278243921146e+01) (36, -1.74698157288543143295e+01) (37, -2.92870190078429750713e+01) (38, 1.61313156092990830359e+01) (39, -1.25834049103765064359e+01) (40, 8.06052262840799755850e+01) (41, 2.25327517107515831185e+01) (42, 2.50235681565994525499e+01) (43, 8.64378364670882959331e+00) (44, -1.50000000000000000000e+03) (45, 3.45149972295332396754e+00) (46, 1.84152222593445401344e+02) (47, -4.29429018563008142451e+01) (48, -2.18315857980335437105e+00) (49, -1.59121753398652057143e+01) (50, 2.00326518753145194296e+02) (51, -1.83888546357079825100e+01) (52, 5.02767452679193294074e+00) (53, -1.95949389397588547013e+01) (54, -4.40258033884139905467e+01) (55, -4.49958196559002576720e+00) (56, -1.42659695467019105308e+02) (57, 3.81917668706875490514e+00) (58, -3.04869661798058082525e+01) (59, -7.81536040302930601342e+00) (60, -1.50000000000000000000e+03) (61, 1.42832932192681063555e+01) (62, 1.25122014338470353323e+03) (63, -1.66704876572555740211e+01) (64, 1.50000000000000000000e+03) (65, -4.07959414092264349705e+00) (66, 5.38935759599808505982e+00) (67, 2.76365129338778015011e+00) (68, 1.50000000000000000000e+03) (69, -2.63908371207094241129e+01) (70, -5.33187213125445413908e+00) (0, 1.50000000000000000000e+03) (1, -2.05603399357270824055e+01) (2, 1.50000000000000000000e+03) (3, 1.59887151637602418219e+01) (4, 7.49754322555871794975e+02) (5, 2.67955006111582028083e+00) (6, 3.01545328486111316124e+02) (7, 9.91907068952831849629e+00) (8, -2.46916184266533235814e+02) (9, 4.21284813035817951032e+00) (10, 1.50000000000000000000e+03) (11, -1.90158654105048405825e+01) (12, -1.50000000000000000000e+03) (13, 6.93857747079707820603e+00) (14, 1.50000000000000000000e+03) (15, 4.85087135715154094129e+00) (16, 4.87002903887945564065e+01) (17, 1.43423787369907387301e+01) (18, -2.56110700426105104555e+01) (19, 4.83271875708020992590e+00) (20, 6.41403871177028293005e+01) (21, 2.07529102601138415451e+00) (22, 1.50000000000000000000e+03) (23, -8.81268440795622254313e+00) (24, 1.50000000000000000000e+03) (25, -4.32386554263632749695e+00) (26, -6.19929432878179113686e+02) (27, 2.22326169494780288005e+01) (28, 5.04383898481760923005e+02) (29, 3.07562988341662579828e+00) (30, -3.08371586711685763404e+00) (31, 2.36815310420496167865e+01) (32, -9.16129703910901014297e+01) (33, 1.49771369214698495398e+01) (34, 3.96794264579910844759e+01) (35, -1.46293123331401453413e+01) (36, 5.71487956035274009992e+02) (37, -2.49949401926126100193e+01) (38, 1.58241252403785210845e+02) (39, -1.60848649878471761099e+01) (40, -1.09055659874759115269e+02) (41, -2.24749215967057409671e+01) (42, 6.90403511829928362431e+01) (43, -1.05218982184594711526e+01) (44, -8.86180763277222212082e+01) (45, 2.35419354544932595275e+01) (46, 1.45441175718177851195e+03) (47, 3.19312871431324341032e+00) (48, 1.50000000000000000000e+03) (49, -1.26041545242702790475e+00) (50, -3.79154225741361187829e+02) (51, -9.80670305709265122118e+00) (52, -1.18475065043602114656e+02) (53, 9.81354099400550694554e+00) (54, -8.98417450382355241345e+02) (55, -1.45635296549784992726e-01) (56, -1.75658367497424336534e+02) (57, 1.96479043321722457449e+01) (58, -1.13229481838730862364e+03) (59, -2.78280790171420955303e+00) (60, -3.50332050277458222354e+02) (61, 2.50159483268261295663e+00) (62, -1.50000000000000000000e+03) (63, 3.91075669918682311543e-01) (64, 1.50000000000000000000e+03) (65, -1.91038944237337346976e+01) (66, -3.92617268500741545267e+01) (67, 1.47548124613721043374e+01) (68, 1.50000000000000000000e+03) (69, 2.13092305692833754449e+01) (70, -5.96606350750496616797e+00) (0, 1.50000000000000000000e+03) (1, -1.23251512844522856938e+01) (2, 1.50000000000000000000e+03) (3, -1.32551239330728911625e+01) (4, 1.53250118305196849633e+02) (5, -1.15541076125925883389e+01) (6, 1.10249717256846267333e+02) (7, -9.48107900444371409776e+00) (8, 2.18311675791716027106e+02) (9, -1.82251116164049431490e+00) (10, 1.59517866965199658580e+02) (11, -1.25289588657650021730e+01) (12, 1.50000000000000000000e+03) (13, -1.15678391897838324098e+01) (14, -1.50000000000000000000e+03) (15, 1.29757718108446318261e+00) (16, 1.30024388816608738040e+01) (17, 4.58665829713725781147e+00) (18, -1.42695275432334565124e+01) (19, 5.89005670060825092804e+00) (20, -1.65874280888815150981e+00) (21, 8.07212176137717986324e-03) (22, -1.50000000000000000000e+03) (23, 9.32874716605171627748e+00) (24, -1.50000000000000000000e+03) (25, 4.80315093554663175013e+00) (26, 5.11826713902499761844e+02) (27, -5.53833069902121177819e+00) (28, 1.31486940131433556189e+02) (29, 2.63120219031146014288e+01) (30, 9.30277786475468388971e+01) (31, 3.52963473000552330205e+00) (32, -9.33445546743870266937e+01) (33, -1.02631801214081743723e+01) (34, 1.59068443844555371669e+01) (35, 1.79843046200863128092e+01) (36, -3.34737841124171353613e+01) (37, -6.26683055722374859897e+00) (38, 1.21621325793716164299e+03) (39, -1.50079825561359463393e+01) (40, 1.78707223104276266668e+02) (41, -3.36445268305057751945e+01) (42, 1.50000000000000000000e+03) (43, -3.33105501307958906665e+00) (44, 1.50000000000000000000e+03) (45, -2.83288164472981529585e+00) (46, -7.37459176030798317925e+01) (47, 2.01431162201743916285e+01) (48, -1.21139208587606913170e+03) (49, 1.70386672757147650259e+01) (50, 8.38547864617439273616e+01) (51, 1.16580139452346305262e+01) (52, 5.63588122573770746726e+01) (53, -1.20766683970619248534e+00) (54, -1.50000000000000000000e+03) (55, -1.53566761641059432719e+01) (56, 1.45287560623652694858e+02) (57, -1.94460021799378885987e+01) (58, -3.50647414759849596066e+01) (59, 1.01778864348838506970e+01) (60, 1.10752101548788118635e+03) (61, -3.42483087375867878421e+00) (62, -5.66729375888905451575e+02) (63, -2.32802755873584672486e+01) (64, 8.85264967238680924311e+02) (65, 1.70129928535235492859e+01) (66, 9.18674932731213012005e+00) (67, -1.73083563998517875326e-01) (68, -1.50000000000000000000e+03) (69, 1.14208691394911490136e+01) (70, 2.42701856303541729787e+00) (0, 1.50000000000000000000e+03) (1, 1.55642629905421063796e+01) (2, 1.50000000000000000000e+03) (3, -7.12407576601928305138e+00) (4, -1.05243093678872946839e+03) (5, 1.92982177425881467059e+01) (6, -3.25479328562082343979e+02) (7, -9.01512365733047005278e+00) (8, 1.49772967767388740867e+03) (9, -2.95578866361826193554e+01) (10, -1.49928999912826861873e+03) (11, -1.02261009635428514741e+01) (12, 1.49124408740223316272e+03) (13, 1.25284248397916400108e+01) (14, -3.45923974704380214007e+02) (15, -2.26543362483027586052e+01) (16, -1.35228683016036317355e+01) (17, -1.23241787307720702671e+01) (18, -1.17216463189143382806e+01) (19, 4.74825453764863603112e+00) (20, -1.49402105890448329006e+01) (21, -1.64996104232106119980e+01) (22, -1.48247029821248361259e+03) (23, -7.84793761328781513953e+00) (24, -6.96041888290622409841e+02) (25, -1.59923184679535292929e+01) (26, 3.64042447858572245423e+02) (27, 1.82676692917408658445e+01) (28, -6.80123859214506182980e+02) (29, 1.86118145374310799411e+01) (30, -6.95440823275133226389e+01) (31, 6.21336315579027242961e-01) (32, -4.21643057138906041104e+00) (33, -3.39948937837164955056e+00) (34, 4.45123383870502280502e+01) (35, 4.51738249698279670241e+00) (36, -1.83226332294503677645e+01) (37, 1.20828154265271052736e+01) (38, -7.41391537256020711766e+01) (39, 3.28877186020306799819e+00) (40, -2.35901081334907786413e+02) (41, 2.19781584906931222179e+01) (42, -3.92779095266164858913e+02) (43, -2.21908494229763526562e+01) (44, 1.46372346054305103280e+03) (45, 1.52085012304466671296e+00) (46, -3.45051583029284643089e+02) (47, -5.30035677722192399841e-01) (48, 1.83529388071933263760e+00) (49, -2.16421157144948708151e+01) (50, -6.45474044116791560555e+02) (51, -2.35279384204533528191e+01) (52, -2.16070813154289957936e+01) (53, -4.57132054195360648663e+00) (54, 4.81408332132996648056e+01) (55, -2.18203275752676191246e+01) (56, 1.89681860858476198928e+02) (57, -3.22799629679838906426e+00) (58, -1.56734017149991444739e+01) (59, -6.58829882817570844367e+00) (60, 9.26805286891632931656e+02) (61, 1.16047674284902964104e+01) (62, 9.71367255142896738107e+02) (63, -3.41328974879325519609e+00) (64, -1.48247029821248361259e+03) (65, 4.85535729367309976112e+00) (66, 2.58940067106609355108e+01) (67, -1.98331601381707542942e+01) (68, -1.48247029821248361259e+03) (69, -2.90209296015464239815e+01) (70, 4.38165677029664379916e+00) (0, 1.50000000000000000000e+03) (1, -1.28262212417354586336e+01) (2, 1.50000000000000000000e+03) (3, 1.02744724609622952727e+01) (4, -3.71772592385528980685e+02) (5, 3.84356429519175524234e+00) (6, 3.28950306032192429484e+02) (7, -3.54593229778395191421e-02) (8, -6.86879845378039249226e+02) (9, -9.62930217409158406561e-01) (10, 9.82969260307050035408e+02) (11, 2.13868442655564514610e+01) (12, -1.50000000000000000000e+03) (13, 3.95145896754645109539e+00) (14, 1.50000000000000000000e+03) (15, -1.27029796306010194229e+01) (16, -4.29761141537180719752e+01) (17, 1.40281934195330055815e+01) (18, 2.76313753160628401417e+01) (19, 3.41891114533851858681e+00) (20, 1.16908235720687319059e+01) (21, -2.92041759426053815218e+00) (22, 1.50000000000000000000e+03) (23, 6.28105993326645406505e-01) (24, 1.50000000000000000000e+03) (25, 1.86022771664944812642e+01) (26, -3.93998204352040374943e+02) (27, -8.74122831365438202056e+01) (28, 1.50000000000000000000e+03) (29, -8.19789175073680453920e+00) (30, 5.09122780142734470132e+01) (31, -1.61514394543916175451e+01) (32, 6.66043675391132637742e+02) (33, -6.44653742615754765666e+00) (34, -1.96789551996315879023e+01) (35, 1.03087569333220674395e+01) (36, -9.92352962571138341730e+00) (37, 2.18666521915511786744e+01) (38, 1.12335513246534731024e+02) (39, 4.71561871153017264646e+00) (40, 9.97080497498469782158e+01) (41, -4.79702248224670491084e+00) (42, 1.01698665861770780339e+03) (43, 9.34646813105217866280e+00) (44, -1.50000000000000000000e+03) (45, 2.23891836175350142923e+01) (46, 9.74072445123092052199e+02) (47, 1.18978552863990714172e+01) (48, -3.16800021457031597549e+01) (49, 2.00119493966977621824e+01) (50, 6.35393757258993218784e+02) (51, -1.88332380646193122686e+01) (52, 6.94126679036344995666e+01) (53, 6.07160470139417457469e-02) (54, -1.40264186828928369977e+01) (55, -3.65916500397995703153e+00) (56, -1.99877146336311426467e+02) (57, 1.85007678860815332200e+01) (58, 1.85110157000624586665e+00) (59, 2.00900887701398893626e+01) (60, -1.50000000000000000000e+03) (61, -1.13248204298897565678e+01) (62, 1.00194270380518628372e+03) (63, 2.44285230999090217097e+01) (64, 1.50000000000000000000e+03) (65, 2.40206463196055644005e+01) (66, -3.41287934884499648547e+01) (67, 2.33593489762607262605e+01) (68, 1.50000000000000000000e+03) (69, -1.74554278822034625307e+01) (70, 1.41753084518680569914e+01) (0, 1.50000000000000000000e+03) (1, 2.13975165652751400103e+01) (2, 1.50000000000000000000e+03) (3, -2.28581749630451724897e+01) (4, -9.36449872654829164276e+02) (5, 1.82430738760822670486e+01) (6, 6.01934190296076280902e+02) (7, -1.03390320016833889838e+01) (8, -1.44642260827952645741e+03) (9, 1.32371190002511021078e+01) (10, 1.88936191088837290408e+02) (11, 1.91263153885636185692e+01) (12, -1.50000000000000000000e+03) (13, 3.58944734116608632490e+00) (14, 1.50000000000000000000e+03) (15, -1.39842956470137895764e+01) (16, -2.09638506963658741711e+01) (17, -8.31828035333946047558e+00) (18, -1.45747418906613006584e+01) (19, 9.60519185328277402824e-01) (20, -2.68633191558973329904e+01) (21, -4.15104686245801612898e+00) (22, 1.50000000000000000000e+03) (23, -2.37276340356122830144e+01) (24, 1.50000000000000000000e+03) (25, -1.62000066769612227624e+00) (26, -1.87511669222443970284e+02) (27, -9.73127041517730800857e-02) (28, -1.07432356388863325947e+01) (29, -3.89053012017069432815e+00) (30, 2.49100032210663101750e+02) (31, 2.15670411261755177179e+01) (32, 5.71332026595868001095e+02) (33, 2.50402182248068854165e+01) (34, -5.97721734844115530905e+01) (35, 1.83864326595284381938e+01) (36, 1.16189469875298243551e+01) (37, -1.12822915525243683277e+01) (38, 9.23374163031874495289e+00) (39, 2.71882695603176891552e+01) (40, -6.92059210534470636844e+00) (41, 5.75419159950100311818e+00) (42, 5.09606615976897892040e+00) (43, 2.83797033316387512514e+01) (44, -1.50000000000000000000e+03) (45, 6.50989225985318498147e-01) (46, 1.63780701284357036229e+02) (47, 1.41669516137152342594e+01) (48, -3.72741460005919078569e+00) (49, -1.45700871880319695606e+01) (50, 1.25212605345274042179e+02) (51, -1.83598480809916999590e+01) (52, -2.01808304296529215094e+01) (53, 1.75918907132556334716e+01) (54, 1.60781741702176503850e+01) (55, 1.81903531072151061210e+01) (56, -1.95418239262128459188e+01) (57, -4.61152696182377663803e+00) (58, 2.08337355242063537730e+01) (59, -1.33699547240163969519e+01) (60, -6.75830167263198120509e+01) (61, -1.86570517700829974217e+01) (62, -1.27932817936019796434e+03) (63, 1.13477159403403433657e+01) (64, 1.50000000000000000000e+03) (65, -1.90698794465217780214e+01) (66, -2.39315314993334027349e+01) (67, 1.28750617599468650809e+01) (68, 1.50000000000000000000e+03) (69, 7.52942740161175194658e+00) (70, 3.34475474309940790096e-01) (0, 1.50000000000000000000e+03) (1, 6.20324113824612943802e-02) (2, 1.50000000000000000000e+03) (3, 1.50306827822191841904e+01) (4, 3.72950886718659774033e+02) (5, 3.24652176099985183555e+01) (6, -3.14764247870042254362e+02) (7, -4.19433762744500437947e+00) (8, 7.13714793894524291318e+02) (9, 3.50087143804054834462e+00) (10, -9.70547950516910987062e+02) (11, 1.47499817459961146682e+01) (12, 1.50000000000000000000e+03) (13, -2.53060042741263693244e+01) (14, -1.50000000000000000000e+03) (15, -8.37362973476523997363e+00) (16, 5.73742961256933341474e+01) (17, -1.03446601163777156529e+01) (18, -1.28304312216630123089e+01) (19, -1.17014081921618036120e+01) (20, -2.20743783163469871056e+01) (21, -1.08684839370661934232e+00) (22, -1.50000000000000000000e+03) (23, 1.83698134324400825790e+01) (24, -1.50000000000000000000e+03) (25, -1.57524026567008625932e+01) (26, 3.77926057220965844863e+02) (27, 4.11694959835091538025e+02) (28, -5.11343821333665630391e+02) (29, -6.66939630237012193170e-01) (30, -6.31846846494645788539e+01) (31, 1.74081106111102208445e+01) (32, -6.22425554984671904890e+01) (33, 2.38704677205722788358e+01) (34, 2.49678788293371205498e+01) (35, 2.42507419137082642635e+01) (36, -2.15450329194699783386e+01) (37, -2.74245166908226032376e+01) (38, -2.83806461553267695308e+02) (39, -4.65632975667208270920e+00) (40, -1.43988446957112927294e+02) (41, -1.34826317658719769810e+01) (42, -2.46662570699876482649e+02) (43, -2.73704187006008190508e+01) (44, 1.50000000000000000000e+03) (45, 1.77376395518665574969e+01) (46, -5.60577671304412092468e+02) (47, -6.73404713293467160895e+00) (48, 3.76301829060298302920e+01) (49, 2.38721935946918648597e+01) (50, -5.88213739029646831113e+02) (51, -6.12342040675887577805e+00) (52, -2.38416940087163027329e+01) (53, -4.20399864551099677890e-01) (54, 4.69391168930111035706e+00) (55, 1.29009503103868681251e+01) (56, 2.03363662885674614245e+02) (57, -3.26040873400450124109e+01) (58, -5.71826823134351514000e+01) (59, 2.07118665146341029981e+01) (60, 1.50000000000000000000e+03) (61, 3.27311591140055639926e+01) (62, -1.00063157540546035307e+03) (63, 1.29035591924565746780e+01) (64, 8.85264967238680924311e+02) (65, -1.34470966062085501846e+01) (66, 5.22723061891437623672e+01) (67, -7.02075242681652955667e+00) (68, -1.50000000000000000000e+03) (69, -4.97965955933643775189e-02) (70, 2.05681612291795339331e+01) (0, 1.50000000000000000000e+03) (1, 2.19742314019328190966e+01) (2, 1.50000000000000000000e+03) (3, 2.68149468102580144091e+01) (4, -4.90008242222120543374e+02) (5, 5.59253598594751810680e+00) (6, -9.75945887053994631799e+00) (7, -6.39358382920384027415e+00) (8, 7.99698592984432480080e+02) (9, -4.57945907288433051718e+00) (10, 2.80847040485228603757e+02) (11, 1.15508804174749490912e+00) (12, -4.56739909287833938834e+02) (13, -3.64839733463886295439e+00) (14, 1.50000000000000000000e+03) (15, -6.05493086174508476915e-01) (16, 1.40822031225570611923e+01) (17, -7.75854413305870327378e+00) (18, 4.13126600153837273410e+01) (19, -1.74360851421417817342e+00) (20, -1.63363820926945095380e+02) (21, 7.62341169076525826398e+00) (22, 1.50000000000000000000e+03) (23, 3.07198349515849891134e+01) (24, 1.50000000000000000000e+03) (25, -1.62993813428896565654e+01) (26, -1.33838762886354718518e+01) (27, -2.72840931465232650055e+01) (28, 8.72082130654394177327e+02) (29, -1.31017189071679354129e+01) (30, -5.20821362923687214419e+00) (31, -1.14264131314741419487e+01) (32, 2.10295763309861616364e+00) (33, -2.61900939839134458964e+01) (34, -2.07300499833637985603e+01) (35, -2.55842348466708779942e-01) (36, 1.86767121190919986873e+01) (37, 1.63200211785668720665e+01) (38, 1.08589978344449173164e+03) (39, -1.46861297671489374750e+01) (40, 8.28790664282356374315e+02) (41, -2.77315792746655560563e+01) (42, -3.96459233252850182794e+01) (43, 1.02630811286711587371e+01) (44, -1.32500312484759064091e+02) (45, 5.07708271422806611817e-01) (46, 7.43811290921014656163e+00) (47, 2.48124921442888215495e+01) (48, -1.43461351772318244002e+03) (49, -3.38536326442802248948e+01) (50, 1.95080348113463799109e+02) (51, 4.58784776146006034736e+00) (52, -1.47598937878113883926e+03) (53, 1.09599953303350101663e+01) (54, -1.50000000000000000000e+03) (55, 1.79814650272690599309e+01) (56, -1.10690599685140099950e+02) (57, -9.16290737717034886600e+00) (58, -2.58588105863910527660e+02) (59, 1.61138111394599548021e+01) (60, 5.20269083371485976386e+02) (61, -6.54770829622966932249e+00) (62, 9.79092479577863286977e+02) (63, -9.27672756406210652358e+00) (64, 1.50000000000000000000e+03) (65, -1.94890693030232355909e+01) (66, -2.60674304900581574884e+01) (67, 4.48333869968095821701e-01) (68, 1.50000000000000000000e+03) (69, -3.69128913667216940198e+00) (70, 1.76109787621623112841e+01) (71, 1.02109696212806948523e+01) (72, -1.18030474846856225923e+01) (73, 1.71442875859224952428e+00) (74, -1.21362687470073655760e+01) (75, 2.91595685640823187867e+00) (76, 1.65348440881813019132e+01) (77, 3.19339819614482589571e+00) (78, 7.08679591937663744261e+00) (79, 7.84530545066989759562e+00) (80, -1.97512541374445547149e+01) (81, 1.14032253473494527007e+00) (82, 1.26861753833956250048e+01) (83, 8.26942345439738168977e+00) (84, -1.73086543951403815100e+00) (85, 9.37727382844604129275e+00) (86, -2.92886151807490957566e+00) (87, 1.50000000000000000000e+03) (88, 7.65399127208708218717e+00) (89, -2.08594158342715410015e+01) (90, -4.67592323677334320564e+00) (91, 1.59489617071539768745e+00) (92, -5.13985858344286494770e+00) (93, -1.96265104794232343011e+02) (94, -2.54690773549868465508e+00) (95, 3.20365766450999833737e+00) (96, -1.98150897849010121377e+01) (97, -6.74194724334130324195e+00) (98, -1.34452435753615731073e+01) (99, 1.27502874457948127684e+01) (100, -2.09666471912415275369e+00) (101, -5.21271749102695802769e-01) 
