FANN_FLO_2.1
num_layers=3
learning_rate=0.700000
connection_rate=1.000000
network_type=0
learning_momentum=0.000000
training_algorithm=2
train_error_function=1
train_stop_function=0
cascade_output_change_fraction=0.010000
quickprop_decay=-0.000100
quickprop_mu=1.750000
rprop_increase_factor=1.001000
rprop_decrease_factor=0.500000
rprop_delta_min=0.000000
rprop_delta_max=50.000000
rprop_delta_zero=0.100000
cascade_output_stagnation_epochs=12
cascade_candidate_change_fraction=0.010000
cascade_candidate_stagnation_epochs=12
cascade_max_out_epochs=150
cascade_max_cand_epochs=150
cascade_num_candidate_groups=2
bit_fail_limit=3.49999999999999977796e-01
cascade_candidate_limit=1.00000000000000000000e+03
cascade_weight_multiplier=4.00000000000000022204e-01
cascade_activation_functions_count=10
cascade_activation_functions=3 5 7 8 10 11 14 15 16 17 
cascade_activation_steepnesses_count=4
cascade_activation_steepnesses=2.50000000000000000000e-01 5.00000000000000000000e-01 7.50000000000000000000e-01 1.00000000000000000000e+00 
layer_sizes=71 16 2 
scale_included=0
neurons (num_inputs, activation_function, activation_steepness)=(0, 0, 0.00000000000000000000e+00) (0, 0, 0.00000000000000000000e+00) (0, 0, 0.00000000000000000000e+00) (0, 0, 0.00000000000000000000e+00) (0, 0, 0.00000000000000000000e+00) (0, 0, 0.00000000000000000000e+00) (0, 0, 0.00000000000000000000e+00) (0, 0, 0.00000000000000000000e+00) (0, 0, 0.00000000000000000000e+00) (0, 0, 0.00000000000000000000e+00) (0, 0, 0.00000000000000000000e+00) (0, 0, 0.00000000000000000000e+00) (0, 0, 0.00000000000000000000e+00) (0, 0, 0.00000000000000000000e+00) (0, 0, 0.00000000000000000000e+00) (0, 0, 0.00000000000000000000e+00) (0, 0, 0.00000000000000000000e+00) (0, 0, 0.00000000000000000000e+00) (0, 0, 0.00000000000000000000e+00) (0, 0, 0.00000000000000000000e+00) (0, 0, 0.00000000000000000000e+00) (0, 0, 0.00000000000000000000e+00) (0, 0, 0.00000000000000000000e+00) (0, 0, 0.00000000000000000000e+00) (0, 0, 0.00000000000000000000e+00) (0, 0, 0.00000000000000000000e+00) (0, 0, 0.00000000000000000000e+00) (0, 0, 0.00000000000000000000e+00) (0, 0, 0.00000000000000000000e+00) (0, 0, 0.00000000000000000000e+00) (0, 0, 0.00000000000000000000e+00) (0, 0, 0.00000000000000000000e+00) (0, 0, 0.00000000000000000000e+00) (0, 0, 0.00000000000000000000e+00) (0, 0, 0.00000000000000000000e+00) (0, 0, 0.00000000000000000000e+00) (0, 0, 0.00000000000000000000e+00) (0, 0, 0.00000000000000000000e+00) (0, 0, 0.00000000000000000000e+00) (0, 0, 0.00000000000000000000e+00) (0, 0, 0.00000000000000000000e+00) (0, 0, 0.00000000000000000000e+00) (0, 0, 0.00000000000000000000e+00) (0, 0, 0.00000000000000000000e+00) (0, 0, 0.00000000000000000000e+00) (0, 0, 0.00000000000000000000e+00) (0, 0, 0.00000000000000000000e+00) (0, 0, 0.00000000000000000000e+00) (0, 0, 0.00000000000000000000e+00) (0, 0, 0.00000000000000000000e+00) (0, 0, 0.00000000000000000000e+00) (0, 0, 0.00000000000000000000e+00) (0, 0, 0.00000000000000000000e+00) (0, 0, 0.00000000000000000000e+00) (0, 0, 0.00000000000000000000e+00) (0, 0, 0.00000000000000000000e+00) (0, 0, 0.00000000000000000000e+00) (0, 0, 0.00000000000000000000e+00) (0, 0, 0.00000000000000000000e+00) (0, 0, 0.00000000000000000000e+00) (0, 0, 0.00000000000000000000e+00) (0, 0, 0.00000000000000000000e+00) (0, 0, 0.00000000000000000000e+00) (0, 0, 0.00000000000000000000e+00) (0, 0, 0.00000000000000000000e+00) (0, 0, 0.00000000000000000000e+00) (0, 0, 0.00000000000000000000e+00) (0, 0, 0.00000000000000000000e+00) (0, 0, 0.00000000000000000000e+00) (0, 0, 0.00000000000000000000e+00) (0, 0, 0.00000000000000000000e+00) (71, 4, 5.00000000000000000000e-01) (71, 4, 5.00000000000000000000e-01) (71, 4, 5.00000000000000000000e-01) (71, 4, 5.00000000000000000000e-01) (71, 4, 5.00000000000000000000e-01) (71, 4, 5.00000000000000000000e-01) (71, 4, 5.00000000000000000000e-01) (71, 4, 5.00000000000000000000e-01) (71, 4, 5.00000000000000000000e-01) (71, 4, 5.00000000000000000000e-01) (71, 4, 5.00000000000000000000e-01) (71, 4, 5.00000000000000000000e-01) (71, 4, 5.00000000000000000000e-01) (71, 4, 5.00000000000000000000e-01) (71, 4, 5.00000000000000000000e-01) (0, 4, 5.00000000000000000000e-01) (16, 4, 9.00000000000000022204e-01) (0, 4, 9.00000000000000022204e-01) 
connections (connected_to_neuron, weight)=(0, -1.50000000000000000000e+03) (1, 8.28461825862900695938e+01) (2, -1.50000000000000000000e+03) (3, -2.11490058367980964249e+02) (4, -3.48028135364074103109e+02) (5, 4.77802870781308619552e-01) (6, 1.35026295516422351284e+03) (7, -1.31203031820138477315e+02) (8, 1.50000000000000000000e+03) (9, -1.18675252518593381978e+02) (10, -1.50000000000000000000e+03) (11, 9.09716627972319145101e+01) (12, 1.50000000000000000000e+03) (13, -1.51637554903343925616e+02) (14, -1.50000000000000000000e+03) (15, 5.18751958642388686371e+01) (16, 1.73450458944108945047e+01) (17, 2.14693254073251154068e+02) (18, -6.42296759441531150969e+01) (19, 3.05191046531718619406e+01) (20, -1.04408721930039135373e+02) (21, 1.25689488067361097023e+02) (22, -1.50000000000000000000e+03) (23, -5.32811046845287989981e+01) (24, -1.50000000000000000000e+03) (25, 3.90401214434519943097e+01) (26, 1.50000000000000000000e+03) (27, 2.71957072049443240758e+02) (28, 2.43257893864787376970e+02) (29, -1.76478563722814499215e+02) (30, 2.05258058171661481595e+01) (31, 2.23325314261590307297e+02) (32, 1.50000000000000000000e+03) (33, -5.24310674588489167292e+00) (34, 1.50000000000000000000e+03) (35, -2.81160335004155911065e+02) (36, 1.50000000000000000000e+03) (37, 8.50089553974118246060e+01) (38, 1.50000000000000000000e+03) (39, 3.27896789782375776667e+02) (40, 1.72895366663752582781e+02) (41, -2.42282152436273889862e+02) (42, 7.71875608399414090854e+02) (43, -2.96362239574011084642e+02) (44, 1.50000000000000000000e+03) (45, 1.86160702396728396479e+02) (46, 5.86262741215610844847e+02) (47, -1.70208352157377049707e+02) (48, 2.55408992659611527642e+02) (49, -9.83953742585295429990e+01) (50, 1.50000000000000000000e+03) (51, 2.86545431003577334650e+02) (52, -2.38266063557060107314e+02) (53, 3.52909828305897974587e+01) (54, 1.36036497534619911676e+02) (55, 2.03646129997552549185e+02) (56, 1.50000000000000000000e+03) (57, 4.99824835810297329886e+01) (58, -5.49034042311344361309e+00) (59, 8.84496862305076270161e+00) (60, 1.50000000000000000000e+03) (61, -4.20273369360772974801e+01) (62, 1.50000000000000000000e+03) (63, -5.28815411267090809133e+01) (64, -1.50000000000000000000e+03) (65, 2.18444273846320555776e+01) (66, 6.73934921431511384071e+02) (67, -3.74042588913075633172e+01) (68, -1.50000000000000000000e+03) (69, -6.47637171204116555145e+01) (70, -1.20330872772596649156e+02) (0, 1.50000000000000000000e+03) (1, -2.12662047302714228181e+02) (2, 1.50000000000000000000e+03) (3, 1.37998354151270433476e+02) (4, -2.60287176835949374265e+01) (5, 6.30584397523210853365e+01) (6, 2.27690103960993077692e+01) (7, -1.72411899140141088083e+02) (8, -1.50000000000000000000e+03) (9, 2.08626528705810983411e+02) (10, 1.50000000000000000000e+03) (11, -6.54849280849705479568e+01) (12, -1.50000000000000000000e+03) (13, 1.32709466966178638359e+02) (14, 1.50000000000000000000e+03) (15, -2.63701950327426118292e+02) (16, -5.11050475255844673939e+01) (17, 2.80770260629937524754e+01) (18, 5.48097232807482228623e+01) (19, 2.78766513035304626555e+02) (20, -2.44919561358511913340e+02) (21, 7.85810389698927451718e+01) (22, 1.50000000000000000000e+03) (23, 9.67863181212975973722e+01) (24, 1.50000000000000000000e+03) (25, 1.50902598815552096312e+02) (26, 1.18032281543010708624e+00) (27, 3.21069335486743796082e+02) (28, -6.00156545488946520095e+01) (29, 2.15741285209951257684e+02) (30, -3.99350071565889095382e+02) (31, -2.56617496927418017094e+02) (32, -1.50000000000000000000e+03) (33, 1.63878327324774460294e+02) (34, -1.50000000000000000000e+03) (35, 1.41199621232319515229e+02) (36, -2.34374187181070055885e+02) (37, -3.74787968811764983457e+02) (38, -2.97795826256464920334e+02) (39, 3.02292675621843784484e+02) (40, -3.92509887217752691413e+02) (41, -2.78406843409606551631e+02) (42, -1.50000000000000000000e+03) (43, 1.26827549397875003478e+01) (44, -1.50000000000000000000e+03) (45, -4.57975925659451448269e+01) (46, -2.79003694445856183393e+02) (47, -2.97721899427887919387e+01) (48, -4.08619538688792971470e+00) (49, -5.11523995163607025916e+01) (50, -2.66349415995148092406e+02) (51, 8.08824266441124279936e+01) (52, 9.62756749081795533129e+01) (53, -9.47931274226599498434e+01) (54, -1.64350955409665772322e+02) (55, 3.05190485819292860015e+02) (56, -4.75064719495854603792e+02) (57, 2.33875386306942004921e+02) (58, -9.31335969226412485611e-01) (59, -4.95834073683898139961e+01) (60, -3.15829362323048144390e+02) (61, -9.97312922687269036714e+01) (62, -1.50000000000000000000e+03) (63, 2.25843798894193099613e+02) (64, 1.50000000000000000000e+03) (65, -2.46614093734386358392e+02) (66, -6.87178954829149915895e+02) (67, -7.20407563404390032247e+01) (68, 1.50000000000000000000e+03) (69, -1.96776807591893629024e+02) (70, -2.20104680219559654120e+01) (0, 1.50000000000000000000e+03) (1, -2.62892702341932192667e+02) (2, 1.50000000000000000000e+03) (3, -9.92192626744623140667e+01) (4, 1.87394927335936046120e+02) (5, -2.82929695287917013502e+02) (6, 1.50000000000000000000e+03) (7, 3.10221834110342228996e+02) (8, -1.50000000000000000000e+03) (9, -1.14574569191800634371e+02) (10, 1.50000000000000000000e+03) (11, 9.85792221277837796833e+01) (12, -1.50000000000000000000e+03) (13, 3.32301332401358024526e+02) (14, 1.50000000000000000000e+03) (15, 1.03996697552169166556e+02) (16, 2.40885553733961529588e+02) (17, 2.77568784968813675462e+00) (18, -1.34416453197945486409e+02) (19, -3.83739181466371306328e+01) (20, -3.34144605386004911907e+02) (21, 1.98515754064278070246e+02) (22, 1.50000000000000000000e+03) (23, 1.17850942372423105553e+02) (24, 1.50000000000000000000e+03) (25, 1.69283490895370192675e+02) (26, -1.50000000000000000000e+03) (27, 1.23642556831318728428e+01) (28, -2.12818153551807483836e+02) (29, 7.35735181878371520270e+01) (30, -2.29224620089393596345e+02) (31, 1.44855984753053110836e+01) (32, -1.50000000000000000000e+03) (33, 1.02948301292862709033e+02) (34, -1.50000000000000000000e+03) (35, -9.52836583264575409657e+01) (36, -1.50000000000000000000e+03) (37, 4.82593568111350748495e+02) (38, -1.50000000000000000000e+03) (39, -1.99705748229810666317e+02) (40, -2.08476686741467972297e+02) (41, -1.01028379579189717674e+02) (42, -1.50000000000000000000e+03) (43, 2.64271430944642062855e+01) (44, -1.50000000000000000000e+03) (45, -1.77452749060628690358e+02) (46, -3.96719413427506083281e+02) (47, 6.00689027713859331925e+02) (48, 4.48435587132302693192e+00) (49, 1.22688155388432249993e+02) (50, -1.50000000000000000000e+03) (51, 1.72513530928489160488e+02) (52, -1.51084824497412526512e+01) (53, 2.70882671883104251265e+01) (54, -1.89085740683745029855e+02) (55, -3.30004043420669972875e+02) (56, -1.50000000000000000000e+03) (57, 1.26082037112872512807e+02) (58, 1.63128640347475197814e+02) (59, 1.95964089431398974739e+02) (60, -1.50000000000000000000e+03) (61, -7.54405087640903815327e+01) (62, -1.50000000000000000000e+03) (63, 8.60102186155814223412e+01) (64, 1.50000000000000000000e+03) (65, 6.69293731897951431620e+01) (66, -5.81112899531295624911e+02) (67, 2.18411553999490706701e+02) (68, 1.50000000000000000000e+03) (69, 3.67807190118798077449e+00) (70, 4.21133490011086337290e+02) (0, -1.50000000000000000000e+03) (1, 3.59821980254423223755e+01) (2, -1.50000000000000000000e+03) (3, 1.21906829674348713866e+02) (4, 5.45391899380401934394e+00) (5, 2.10551702408595701854e+02) (6, 1.42177783876333228363e+03) (7, -8.17693457015834290758e+00) (8, 1.50000000000000000000e+03) (9, -1.10235787870047502679e+02) (10, -1.50000000000000000000e+03) (11, 3.72357945671720145242e+01) (12, 1.50000000000000000000e+03) (13, 7.45094707723027838142e+00) (14, -1.50000000000000000000e+03) (15, -1.50779474061861179734e+02) (16, 1.11453496198624904423e+02) (17, -5.97821831292250607248e+01) (18, -2.50044674521365664077e+02) (19, 1.02854401376078442354e+02) (20, 9.64376239450706862044e+02) (21, 6.73591067308107138700e+00) (22, -1.50000000000000000000e+03) (23, 1.89982313532235700393e+01) (24, -1.50000000000000000000e+03) (25, -2.35049239858688935101e+02) (26, 1.50000000000000000000e+03) (27, 1.97936188149390972058e+02) (28, 2.74128583822214693555e+02) (29, 2.40852582464052147770e+02) (30, -3.08388546023556475717e+00) (31, 8.69730867049685514303e+01) (32, 9.38015180889426915201e+02) (33, -1.50836296737847732174e+02) (34, 1.21301007911097008218e+03) (35, 1.15328229439166435100e+02) (36, 1.50000000000000000000e+03) (37, -1.99642818668742421551e+02) (38, 1.50000000000000000000e+03) (39, -1.46272411924010810935e+02) (40, 3.55974006108733192377e+02) (41, -5.58342099244695262428e+01) (42, 1.50000000000000000000e+03) (43, -8.56839050486703115439e+01) (44, 1.50000000000000000000e+03) (45, -1.92239958174703474469e+02) (46, 3.05643728121549997923e+02) (47, 5.71079053296118104299e+01) (48, 3.55728631479767841483e+02) (49, 2.93853655414891193232e+02) (50, 1.50000000000000000000e+03) (51, -8.61693800804616358846e+01) (52, 3.56737149823493453482e+01) (53, 9.60986467490734526109e+01) (54, 7.50477081865843160813e+01) (55, -1.70297276157958236809e+02) (56, 2.87738716882512960638e+02) (57, 4.68406312933636854723e+01) (58, 4.33868408158347506287e+02) (59, -1.82670163263558151812e+02) (60, 6.04441034111683066499e+01) (61, 7.56921438325774857958e+01) (62, 1.50000000000000000000e+03) (63, 3.21988833677366812935e+02) (64, -1.50000000000000000000e+03) (65, -1.12530256419197982609e+02) (66, 6.57635879683463599576e+02) (67, 8.64799984654129474393e+01) (68, -1.50000000000000000000e+03) (69, 1.79906974632835414241e+02) (70, -1.33705015408183413683e+02) (0, -1.50000000000000000000e+03) (1, 1.64793549878108649409e+02) (2, -1.50000000000000000000e+03) (3, -3.68762066752938366676e+01) (4, -2.60465819123029751481e+00) (5, -8.85058697884316671889e+01) (6, 1.24182771958468975981e+02) (7, -3.90781175977283169232e+02) (8, -8.84724906296940929451e+01) (9, -2.30916749479330945860e+02) (10, -1.50000000000000000000e+03) (11, -1.40268402603214809687e+02) (12, 1.50000000000000000000e+03) (13, -4.20309518506121207793e+02) (14, -1.50000000000000000000e+03) (15, 6.19681397320288951391e+01) (16, 3.60457303049797843641e+01) (17, 3.11526025651571330854e+02) (18, -6.60834214297820494721e+01) (19, -2.06329640174071684555e+01) (20, 2.96038222428940855480e+02) (21, 2.65777380871523094541e+00) (22, -1.50000000000000000000e+03) (23, -9.83387140801964392267e+01) (24, -1.50000000000000000000e+03) (25, 1.81699946393162790059e+01) (26, 1.50000000000000000000e+03) (27, -9.52310765020047398366e+01) (28, 1.16446440711545932345e+02) (29, 1.23889184485354817866e+02) (30, 3.94849605753570926936e+02) (31, 7.35346705275751588715e+01) (32, 1.49919647330439511279e+03) (33, 2.32801514654134507509e+02) (34, 1.47604143033663490314e+03) (35, 1.17394325118971352140e+02) (36, 1.50000000000000000000e+03) (37, -9.50886547376855446601e+01) (38, 1.50000000000000000000e+03) (39, -2.43391042205627911699e+02) (40, 1.29858496671851977311e+01) (41, 1.33575354804334182290e+02) (42, 1.50000000000000000000e+03) (43, -1.26381905243675930706e+02) (44, 1.50000000000000000000e+03) (45, -9.72721605499744725876e+01) (46, 3.80073125704561562088e+02) (47, 1.42158662608364579683e+02) (48, 2.79855742287904298848e+01) (49, 2.01871428147528888530e+02) (50, 1.50000000000000000000e+03) (51, -1.24203676651899641570e+02) (52, 4.29860307741523001823e+02) (53, -2.54644704155071735840e+02) (54, 1.13005261017510832744e+02) (55, 4.05390078919347374153e+01) (56, 1.50000000000000000000e+03) (57, -3.38832691049413767814e+02) (58, -1.10732879722368409148e+02) (59, -1.72099896232141304608e+02) (60, 1.50000000000000000000e+03) (61, -2.30571512322894676572e+02) (62, 1.50000000000000000000e+03) (63, 2.40305140054948296324e+01) (64, -1.50000000000000000000e+03) (65, -1.68180344131535122187e+02) (66, 1.22376789872643325907e+03) (67, 2.46085572129472787140e+01) (68, -1.50000000000000000000e+03) (69, -5.95489399821786022926e+01) (70, 2.20989668526310452989e+02) (0, -1.50000000000000000000e+03) (1, -1.21103526706029768434e+02) (2, -1.50000000000000000000e+03) (3, 1.91649274791973027732e+02) (4, 6.79568499874738591870e+01) (5, -1.27236877519397353353e+02) (6, -1.50000000000000000000e+03) (7, -6.32177938816201745453e+01) (8, 1.50000000000000000000e+03) (9, -2.23020678023007690172e+02) (10, -1.50000000000000000000e+03) (11, -4.66329722008130715949e+01) (12, 1.50000000000000000000e+03) (13, 1.74493515366169305025e+02) (14, -1.50000000000000000000e+03) (15, -2.07737504352629258619e+02) (16, -2.35778866960696547039e+02) (17, -2.97761023221292646213e+02) (18, 5.65878795306707829127e+01) (19, -9.21518011054119199343e+01) (20, -1.95069429531053884830e+02) (21, 2.94516684287035388934e+02) (22, -1.50000000000000000000e+03) (23, 1.54843828664023078545e+02) (24, -1.50000000000000000000e+03) (25, 4.62164323002761136649e+02) (26, 1.50000000000000000000e+03) (27, -6.85340831477921028636e+01) (28, -3.97895356108312796550e+01) (29, 1.73491845573096099997e+02) (30, 3.75597431376129463843e+02) (31, 8.31632699532668908660e+01) (32, 1.50000000000000000000e+03) (33, -2.91093977715597462819e+00) (34, 1.50000000000000000000e+03) (35, 1.07126206048786841052e+02) (36, 1.50000000000000000000e+03) (37, -1.02602519759518116871e+02) (38, 1.50000000000000000000e+03) (39, -5.78079079470248746730e+00) (40, 2.50824841085883946334e+02) (41, -1.61106511876035114028e+02) (42, 1.50000000000000000000e+03) (43, 4.06732891501007642887e+01) (44, 1.50000000000000000000e+03) (45, 3.15962693175405391344e+01) (46, 2.07483697756560644621e+02) (47, 1.58533274209245682584e+01) (48, 5.67547774148254546844e+01) (49, 1.42412365472652567178e+02) (50, 1.50000000000000000000e+03) (51, 2.57834112731574919053e+02) (52, 5.92894401621532338709e+01) (53, -9.98854447356386430101e+01) (54, 5.87634026140745291400e+01) (55, -2.66905608165192820280e+00) (56, 1.50000000000000000000e+03) (57, 1.00355679852383133266e+02) (58, -1.64369148920646182432e+02) (59, -1.81659676768913300293e+02) (60, 1.50000000000000000000e+03) (61, 1.81992346031887421987e+01) (62, 1.50000000000000000000e+03) (63, -1.04357750706508554117e+02) (64, -1.50000000000000000000e+03) (65, 4.23490710488685306867e-01) (66, 6.43280014204947065082e+02) (67, 6.53275489969203135843e+01) (68, -1.50000000000000000000e+03) (69, -1.39351121936542597268e+02) (70, 1.87387486242452297347e+02) (0, -1.50000000000000000000e+03) (1, -1.79343377473675673173e+02) (2, -1.50000000000000000000e+03) (3, 1.37975587451705195008e+02) (4, -2.79275083606276382397e+02) (5, 1.13938248591661249520e+02) (6, -1.50000000000000000000e+03) (7, -1.08858317249216611344e+02) (8, 1.50000000000000000000e+03) (9, -1.33390879104204515215e+02) (10, -1.50000000000000000000e+03) (11, -7.07414825976532739560e+01) (12, 1.50000000000000000000e+03) (13, -2.56143112167783101540e+02) (14, -1.50000000000000000000e+03) (15, -1.12808426274829585623e+02) (16, 7.99544639785618471706e+01) (17, -1.17567402220277486435e+02) (18, -6.14349819500401110872e+01) (19, 1.26596657707690567918e+02) (20, 4.51219084855700714343e+02) (21, -5.30895540463782253937e+01) (22, -1.50000000000000000000e+03) (23, -2.28175467733413228189e+02) (24, -1.50000000000000000000e+03) (25, 4.88923005602890015098e+00) (26, 1.50000000000000000000e+03) (27, 4.77629639731953687942e+01) (28, 1.46757572085706584630e+02) (29, 1.05228727371278367286e+02) (30, 2.17641048624664591671e+02) (31, -1.61557541914765948832e+02) (32, 1.50000000000000000000e+03) (33, 1.69459410936267687475e+02) (34, 1.50000000000000000000e+03) (35, 5.29103155901652328907e+01) (36, 1.50000000000000000000e+03) (37, 1.36932491160195723978e+01) (38, 1.50000000000000000000e+03) (39, -9.25894754611575478975e+01) (40, 1.47717594686963593631e+02) (41, -2.87171846414554238436e+02) (42, 1.50000000000000000000e+03) (43, 2.74892983309712462869e+02) (44, 1.50000000000000000000e+03) (45, 1.57045204641037372539e+02) (46, 5.05054326876435425220e+02) (47, -3.04415007781401598663e+01) (48, 2.79403832895782898049e+02) (49, 1.21507983549848106009e+02) (50, 1.50000000000000000000e+03) (51, 5.36910431778823351578e+01) (52, -1.43455295555621290760e+02) (53, 1.15419491776330289667e+01) (54, -8.81155341535118594720e+01) (55, -5.49293265674393538234e+01) (56, 1.50000000000000000000e+03) (57, -2.21469083875805779371e+02) (58, 7.23811696065635885589e+01) (59, 2.21352812955894563629e+02) (60, 1.50000000000000000000e+03) (61, 2.65912932895610332196e+01) (62, 1.50000000000000000000e+03) (63, -1.48449673031959179070e+02) (64, -1.50000000000000000000e+03) (65, -7.86467428135787685051e+01) (66, 9.46495285201043316192e+02) (67, -2.76057978361757989205e+02) (68, -1.50000000000000000000e+03) (69, 1.42280683794714803980e+02) (70, 2.63575658765172704534e+02) (0, 1.50000000000000000000e+03) (1, -6.79078018051945093703e+01) (2, 1.50000000000000000000e+03) (3, -2.12171542344747848574e+02) (4, -5.13447348344747922511e+01) (5, 1.49554096598363202020e+02) (6, -2.23434613081271066903e+02) (7, 2.15093648614986705070e+02) (8, -1.50000000000000000000e+03) (9, 5.12336046682425827470e+00) (10, 1.50000000000000000000e+03) (11, 1.45660679640117933786e+02) (12, -1.50000000000000000000e+03) (13, 2.77799969486570887511e+02) (14, 1.50000000000000000000e+03) (15, 2.19755808994835433623e+02) (16, -6.66200763622707512468e+01) (17, 2.00103026753422255979e+02) (18, -3.02114736000121695270e+02) (19, -2.26809497055720242997e+02) (20, -2.11160391997396203578e+02) (21, 2.26843266422870684096e+01) (22, 1.50000000000000000000e+03) (23, 2.81841946424784907776e+02) (24, 1.50000000000000000000e+03) (25, 1.57202420057595901426e+02) (26, -1.50000000000000000000e+03) (27, -1.64256982412994261722e+02) (28, -9.85826637142512822720e+01) (29, 1.76987100688723302255e+02) (30, -4.91502329190437080797e+02) (31, 1.75867516687055243096e+01) (32, -1.50000000000000000000e+03) (33, 2.60117935422061236750e+02) (34, -1.50000000000000000000e+03) (35, -2.76394791521772091869e+01) (36, -3.63631777034686535899e+02) (37, 6.41372093356540204923e+01) (38, -1.50000000000000000000e+03) (39, -1.42526789344239706026e+01) (40, -2.72583853056878183452e+02) (41, -5.95177284071212625349e+02) (42, 1.05124584884556412590e+02) (43, -1.39212820302410989370e+02) (44, -1.50000000000000000000e+03) (45, -5.01788415607185172007e+01) (46, -4.71953925756606849973e+02) (47, -1.87620976054362955665e+02) (48, -1.75838822201350552632e+02) (49, -2.74275308142699941527e+02) (50, 3.71601168809019213768e+02) (51, 3.43205204949343780640e+01) (52, 1.97818061940628240336e+02) (53, 1.87491971772529353757e+02) (54, 2.22694461474965208936e+02) (55, -2.96256276380970462014e+02) (56, -1.50000000000000000000e+03) (57, -1.42215934533822945696e+02) (58, -2.72138710741395698278e+02) (59, 2.72952230786771167459e+02) (60, -1.50000000000000000000e+03) (61, -6.17928306035170393784e+01) (62, -1.50000000000000000000e+03) (63, 2.08302228828265434402e+01) (64, 1.50000000000000000000e+03) (65, -2.60943099839077206070e+01) (66, -9.72189040888720910516e+02) (67, 1.73250844462295503945e+02) (68, 1.50000000000000000000e+03) (69, -1.52732040268764404090e+01) (70, 3.10800869764628657776e+02) (0, -1.50000000000000000000e+03) (1, -6.29024981826300901844e+01) (2, -1.50000000000000000000e+03) (3, -2.69057719248614603202e+02) (4, -3.94565407304908660535e+02) (5, 1.15975291482095059337e+02) (6, -1.50000000000000000000e+03) (7, -1.33721499446438087944e+02) (8, 1.50000000000000000000e+03) (9, 3.06482739076799305167e+02) (10, -1.50000000000000000000e+03) (11, -1.30795771616776789870e+02) (12, 1.50000000000000000000e+03) (13, -1.41052878383205694490e+02) (14, -1.50000000000000000000e+03) (15, -1.09000506346818895054e+02) (16, 1.27276060846441325225e+02) (17, -1.09635490657440357154e+02) (18, 2.35973564210229689309e+01) (19, -3.68084626791436306803e+01) (20, 2.19416465623682995556e+02) (21, 1.85947768621418106250e+02) (22, -1.50000000000000000000e+03) (23, -2.04554813799839108057e+00) (24, -1.50000000000000000000e+03) (25, -1.05813016828867347385e+02) (26, 1.50000000000000000000e+03) (27, -1.86994055588361788978e+02) (28, 5.76278056337688724398e+01) (29, -1.04114077038129209996e+02) (30, -2.01770713549105408902e+02) (31, 9.63438666924386239998e+01) (32, 1.50000000000000000000e+03) (33, 3.58137459511579095306e+02) (34, 1.50000000000000000000e+03) (35, 1.69588549678300807955e+02) (36, 1.50000000000000000000e+03) (37, -1.74265001263157870426e+02) (38, 1.50000000000000000000e+03) (39, 6.66303626845412253488e+01) (40, 1.19198328557945146144e+02) (41, -2.47911651984643185642e+02) (42, 1.50000000000000000000e+03) (43, -1.66677573246819122232e+02) (44, 1.50000000000000000000e+03) (45, 5.39665126995902255658e+01) (46, -9.70676742101588558853e+01) (47, -1.54003591571282196782e+01) (48, -2.40034111980224963645e+02) (49, 2.25785393496436967098e+02) (50, 1.50000000000000000000e+03) (51, -6.32731079671598948266e+01) (52, 3.38590439606563563757e+02) (53, -6.10326121011221289336e+02) (54, 1.17172957778383988625e+02) (55, -3.16362564633521742508e+02) (56, 1.50000000000000000000e+03) (57, 1.51826837688204989263e+02) (58, 1.75901537642794238536e+02) (59, -1.58230095214085480393e+02) (60, 1.50000000000000000000e+03) (61, -1.10858008209462497007e+02) (62, 1.50000000000000000000e+03) (63, -2.95292010701731157951e+02) (64, -1.50000000000000000000e+03) (65, 4.02914972125649057944e+01) (66, 3.94142412190523359072e+01) (67, -2.15759095022785146512e+02) (68, -1.50000000000000000000e+03) (69, -9.03182020366997306837e+01) (70, -3.27308024424395853202e+02) (0, -1.50000000000000000000e+03) (1, -1.82358211212305363347e+01) (2, -1.50000000000000000000e+03) (3, -1.13218045666218401379e+02) (4, 5.41353161308783414896e-01) (5, -7.62681190419548613590e+01) (6, -1.50000000000000000000e+03) (7, -2.64616372525427493656e+02) (8, 1.50000000000000000000e+03) (9, -3.29809598754368209939e+02) (10, -1.50000000000000000000e+03) (11, 1.49436136767854549134e+02) (12, 1.50000000000000000000e+03) (13, -8.46915091869484655263e+01) (14, -1.50000000000000000000e+03) (15, 7.49844137413061844200e+01) (16, -6.40144168874471830577e+01) (17, -2.46962347684183413321e+02) (18, -1.22168365128758111382e+02) (19, 5.60883164795722866103e+00) (20, 1.29923843250319748677e+02) (21, 7.68993730509864974465e+01) (22, -1.50000000000000000000e+03) (23, 5.06720005340426808971e+01) (24, -1.50000000000000000000e+03) (25, -1.21413719528210236831e+02) (26, 1.50000000000000000000e+03) (27, -9.22770397818413101731e+01) (28, 2.12518080781387581624e+01) (29, -9.98255585460651388985e+01) (30, 1.11991489603668796349e+02) (31, 8.25370797677200158660e+01) (32, 1.50000000000000000000e+03) (33, -2.50369630516876412685e+02) (34, 1.50000000000000000000e+03) (35, 8.58443304384352785519e+01) (36, 1.50000000000000000000e+03) (37, -9.10762647611481668264e+01) (38, 1.50000000000000000000e+03) (39, -1.91098895312663813684e+02) (40, 3.43538204733357247278e+02) (41, -7.59339149454311694853e+01) (42, 1.50000000000000000000e+03) (43, -1.28858872869985788157e+02) (44, 1.50000000000000000000e+03) (45, 2.12040439479985174387e+01) (46, 1.99635656222136788074e+02) (47, -3.58621056973645693233e+02) (48, 2.04705628855255611143e+02) (49, 1.37245039307830097641e+02) (50, 1.50000000000000000000e+03) (51, -1.09206856625971411745e+02) (52, 2.44702415537546720259e+01) (53, 2.15069468403720975402e+02) (54, 2.91932789415891704721e+01) (55, -6.09227361744225319740e+01) (56, 1.50000000000000000000e+03) (57, -2.41549347188878442694e+02) (58, -1.16527733515390934826e+02) (59, 2.65134403678216870048e+01) (60, 1.50000000000000000000e+03) (61, -1.47686707734983059481e+02) (62, 1.50000000000000000000e+03) (63, 1.03099886086229858506e+02) (64, -1.50000000000000000000e+03) (65, 2.80870080447168781745e+01) (66, 7.91801353621453699816e+02) (67, -1.15171412712358815611e+02) (68, -1.50000000000000000000e+03) (69, 8.69637246584886298706e+01) (70, -2.56707662060271957216e+02) (0, -1.50000000000000000000e+03) (1, -2.79642308280578220092e+02) (2, -1.50000000000000000000e+03) (3, -8.22353993722086755724e+01) (4, -3.56398386714110358753e+02) (5, 3.10368343475206700077e+02) (6, -1.50000000000000000000e+03) (7, 2.07951410182177909292e+02) (8, 1.50000000000000000000e+03) (9, -1.55370844367116291096e+02) (10, -1.50000000000000000000e+03) (11, 1.34733457439307386494e+02) (12, 1.50000000000000000000e+03) (13, -1.60049280278037940661e+02) (14, -1.50000000000000000000e+03) (15, -1.88416339928052224195e+02) (16, 1.08495187832703734898e+02) (17, -5.08867913388198545022e+01) (18, 1.66512199838539913799e+01) (19, -2.93742282557974760948e+02) (20, -1.00288456710309489495e+02) (21, 5.16478655974335154610e+01) (22, -1.50000000000000000000e+03) (23, 2.46075739815106857122e+02) (24, -1.50000000000000000000e+03) (25, -2.50111317680010330378e+02) (26, 1.50000000000000000000e+03) (27, 1.47426149419874803925e+02) (28, -1.45348330518371341213e+02) (29, -2.80027717168444155504e+02) (30, 2.29987056283966154524e+02) (31, -1.16666338466560084441e+01) (32, 1.50000000000000000000e+03) (33, 4.92822128596603832307e+01) (34, 1.50000000000000000000e+03) (35, 9.57188834707262543589e+01) (36, 1.50000000000000000000e+03) (37, -2.39175187185101606246e+02) (38, 1.50000000000000000000e+03) (39, 1.27320678776757787887e+02) (40, 3.57165596784212652892e+02) (41, -3.50355973212301933017e+02) (42, 1.50000000000000000000e+03) (43, 2.76951903981255782128e+02) (44, 1.50000000000000000000e+03) (45, 9.07152699539251301530e+01) (46, 3.93374930029179381563e+02) (47, -1.05191301457239589467e+02) (48, 9.59882641082201217841e+01) (49, 1.25965058953901120731e+02) (50, 1.50000000000000000000e+03) (51, -9.48013129930944984380e+01) (52, 4.90793190864312052213e+01) (53, 1.51958112927688375748e+02) (54, 8.34614435068442048760e+01) (55, -1.80747504888963732128e+02) (56, 1.50000000000000000000e+03) (57, -2.21353025031371863918e+01) (58, 2.85722345855780233137e+01) (59, -2.89022597725383889156e+02) (60, 1.50000000000000000000e+03) (61, -7.70929520561257852762e+00) (62, 1.50000000000000000000e+03) (63, 2.80353261445190071299e+02) (64, -1.50000000000000000000e+03) (65, -3.31995454914193373952e+02) (66, 1.38654196675170851449e+02) (67, -3.10282496794598863232e+01) (68, -1.50000000000000000000e+03) (69, 1.00264870441831144277e+00) (70, -2.79831819660287123952e+02) (0, -1.50000000000000000000e+03) (1, 1.20153346896315440517e+02) (2, -1.50000000000000000000e+03) (3, 2.63113318243667890783e+02) (4, -3.20140397858019412070e+02) (5, 1.53935723364243548517e+00) (6, -1.50000000000000000000e+03) (7, -3.73173276132617559142e+02) (8, 1.50000000000000000000e+03) (9, 2.87686430377675549153e+02) (10, -1.50000000000000000000e+03) (11, 4.31452777773472959666e+01) (12, 1.50000000000000000000e+03) (13, -8.13683549824241225679e+01) (14, -1.50000000000000000000e+03) (15, -2.15219218381521102401e+02) (16, 4.32298040386572139937e+01) (17, 3.17313630026660064232e+02) (18, -2.15760320963233844793e+01) (19, 1.17561993834738757414e+02) (20, -2.17465122213060823242e+02) (21, 4.77157299418166331861e+01) (22, -1.50000000000000000000e+03) (23, 2.84035757781485393991e+01) (24, -1.50000000000000000000e+03) (25, 1.94157413363590791278e+02) (26, 1.50000000000000000000e+03) (27, 1.05022964257020490209e+01) (28, -9.09450777198427147141e+01) (29, -8.24820886944155802212e+01) (30, 2.67413971332825610716e+02) (31, 9.14880897864307343070e+01) (32, 1.50000000000000000000e+03) (33, 2.46486856989193171330e+02) (34, 1.50000000000000000000e+03) (35, -1.52261706571831858525e+01) (36, 1.50000000000000000000e+03) (37, -1.02730699687025548883e+02) (38, 1.50000000000000000000e+03) (39, -2.52857855804641104669e+02) (40, 4.38647660957698917628e+02) (41, -8.05735316433344763709e+01) (42, 1.50000000000000000000e+03) (43, -1.22694302783350664754e+02) (44, 1.50000000000000000000e+03) (45, -2.31967811746623311819e+02) (46, 2.20952660220628359866e+02) (47, -9.34034869137291110519e+01) (48, 2.73047415165000124659e+01) (49, -2.62439015788617723501e+02) (50, 1.50000000000000000000e+03) (51, 1.33667094564169076421e+02) (52, 6.63061860961010296478e+01) (53, -5.04369103294313958941e+02) (54, -1.26296818040163742580e+02) (55, -8.46496646534582595223e+01) (56, 1.50000000000000000000e+03) (57, 3.55469127621898792313e+02) (58, 7.08931895128527855832e+01) (59, -3.10829519757953107728e+02) (60, 1.50000000000000000000e+03) (61, -2.74760869032605228313e+02) (62, 1.50000000000000000000e+03) (63, -1.67212678531735150500e+02) (64, -1.50000000000000000000e+03) (65, 2.62371700197795512111e+01) (66, 1.72090966173263069550e+02) (67, 3.93923730725158094401e+01) (68, -1.50000000000000000000e+03) (69, 1.26456717291501504974e+02) (70, -3.29825188836410234217e+02) (0, 1.50000000000000000000e+03) (1, 5.90614221087491415574e+01) (2, 1.50000000000000000000e+03) (3, 1.23860205098975185933e+02) (4, -1.10004219697756283836e+02) (5, 3.92257835229661111498e+02) (6, 1.50000000000000000000e+03) (7, 3.26960832523428337026e+02) (8, -1.50000000000000000000e+03) (9, 5.79503865577097840855e+01) (10, 1.50000000000000000000e+03) (11, -4.24915557652847653003e+01) (12, -1.50000000000000000000e+03) (13, 2.54123430179677882279e+02) (14, 1.50000000000000000000e+03) (15, 3.19697758800949770830e+02) (16, 1.44588770286695904588e+02) (17, -4.18800433514814685054e+01) (18, -4.27268207821750891640e+01) (19, 2.54245170645441440627e+01) (20, -3.43382108437762894937e+02) (21, -1.02576897302907639187e+02) (22, 1.50000000000000000000e+03) (23, 3.58147794484239682333e+02) (24, 1.50000000000000000000e+03) (25, 2.40548139332870192675e+02) (26, -1.50000000000000000000e+03) (27, 7.24680822059621192466e+01) (28, -2.65924209765188663823e+02) (29, 2.61947375686006921569e+02) (30, -3.10884461626869210704e+02) (31, -2.62355898945957676460e+02) (32, -1.50000000000000000000e+03) (33, -1.08746912025008384717e+02) (34, -1.50000000000000000000e+03) (35, 3.35856951414752245455e+02) (36, -1.50000000000000000000e+03) (37, 3.65530701900413248495e+02) (38, -1.50000000000000000000e+03) (39, -1.59861342101880978817e+02) (40, -4.38495592381115443459e+02) (41, 1.46996630233513521091e+01) (42, -1.50000000000000000000e+03) (43, 1.79122710203369024384e+01) (44, -1.50000000000000000000e+03) (45, -1.86424886511800565358e+02) (46, -2.68898101476823285338e+02) (47, 3.31051546024405013213e+02) (48, -2.87870685632583047209e+02) (49, 2.39239287590578328491e+02) (50, -1.50000000000000000000e+03) (51, 1.68727016646262597988e+02) (52, -1.36510994046422041492e+02) (53, 3.07087271552324750701e+02) (54, -7.51947323066702608685e+01) (55, -3.20596755823013722875e+02) (56, -1.50000000000000000000e+03) (57, 7.96488172032044872140e+01) (58, -2.98282507723818525847e+02) (59, 4.18846764602296843805e+02) (60, -1.50000000000000000000e+03) (61, 6.72380741328098796572e+00) (62, -1.50000000000000000000e+03) (63, 4.25228976731296004488e+00) (64, 1.50000000000000000000e+03) (65, -4.13786676004538662710e+02) (66, -5.30934844721725085037e+02) (67, 1.48971719404764144201e+02) (68, 1.50000000000000000000e+03) (69, -5.09573913365738278003e+01) (70, 1.04912527486670498433e+02) (0, 1.50000000000000000000e+03) (1, -2.60503691189332414524e+02) (2, 1.50000000000000000000e+03) (3, 1.31351777560667699163e+02) (4, -1.42048958467287604890e+02) (5, -2.91531618339461573441e+01) (6, 1.50000000000000000000e+03) (7, 2.16791936117883437873e+02) (8, -1.50000000000000000000e+03) (9, 1.20184645316880803989e+02) (10, 1.50000000000000000000e+03) (11, -9.54677262235122441325e+01) (12, -1.50000000000000000000e+03) (13, -1.85332974028863503690e+02) (14, 1.50000000000000000000e+03) (15, 1.23366495834898344697e+02) (16, -9.53124875601476304610e+01) (17, 1.69585653896514912731e+02) (18, 7.36982624244232766841e+01) (19, 2.78257323364483625028e+02) (20, -2.41505420672288039441e+02) (21, 8.70031540126502989096e+00) (22, 1.50000000000000000000e+03) (23, 1.01133697103997626243e+01) (24, 1.50000000000000000000e+03) (25, -1.97602308743044915218e+02) (26, -2.74957941355128014038e+02) (27, 4.21782856723481131667e+02) (28, -4.69138033513718823997e+02) (29, 2.28674241789613915898e+02) (30, -3.49771131159987930914e+02) (31, 1.69089914468165375183e+02) (32, -1.50000000000000000000e+03) (33, -1.38217445046310388079e+02) (34, -1.50000000000000000000e+03) (35, 4.09855728851867752383e+02) (36, 6.97082198107579671387e+01) (37, 2.55435044877186840040e+02) (38, -1.50000000000000000000e+03) (39, 2.96826793466878370964e+02) (40, -1.54021483714954268152e+01) (41, 2.12738834468576456516e+01) (42, -1.50000000000000000000e+03) (43, 3.97040630545600521373e+01) (44, -1.50000000000000000000e+03) (45, 2.35330623422932632138e+02) (46, -2.27322918454742080030e+01) (47, 2.95705892402120404938e+01) (48, -4.11794136733026903130e+02) (49, -1.65438720076809460124e+02) (50, 1.05488133428327429897e+02) (51, 1.09418661717981606785e+02) (52, -2.03867981465771464400e+02) (53, 3.81583154667677817429e+01) (54, -2.70067186097296485059e+02) (55, 2.61096742264305305525e+02) (56, -8.26525125627270966788e+01) (57, 3.31227740586341894868e+02) (58, -8.83857944769432748444e+01) (59, 4.04861599696385070501e+01) (60, -5.61371260415168649160e+00) (61, 3.24265815159307777549e+01) (62, -1.50000000000000000000e+03) (63, -3.64826781733449706735e+02) (64, 1.50000000000000000000e+03) (65, 8.16524901461166621175e+01) (66, -1.03585827611821832761e+03) (67, -2.16891540909974231965e+01) (68, 1.50000000000000000000e+03) (69, -5.01986631863163040634e+02) (70, -1.06128849912146332457e+01) (0, 1.50000000000000000000e+03) (1, -1.90612500444267794819e+02) (2, 1.50000000000000000000e+03) (3, 1.05995656208991647418e+02) (4, 1.56246733961149629977e+02) (5, 3.11952980720261109582e+02) (6, 1.50000000000000000000e+03) (7, 1.30123311765397716044e+02) (8, -1.50000000000000000000e+03) (9, 1.49154730284058434364e+00) (10, 1.50000000000000000000e+03) (11, 1.81920237173712393997e+02) (12, -1.50000000000000000000e+03) (13, 7.53892859929583352141e+01) (14, 1.50000000000000000000e+03) (15, -2.23941945259063174944e+02) (16, -4.93644329619966484302e+01) (17, -1.51387617300155426392e+02) (18, -4.33947207723402641477e+02) (19, 8.73719511137302795589e+00) (20, 1.79907480596665858563e+00) (21, 2.23327487189404962464e+02) (22, 1.50000000000000000000e+03) (23, -4.03796979843054089088e+01) (24, 1.50000000000000000000e+03) (25, 8.57614492667581487240e+01) (26, -1.50000000000000000000e+03) (27, 1.55956157286754688585e+02) (28, -8.11211006892866492990e+01) (29, 5.42372358063337287604e+01) (30, -2.21615665122754165850e+02) (31, -5.24985868006625935323e+01) (32, -1.50000000000000000000e+03) (33, 1.00703767406393481565e+02) (34, -2.94232467404981889558e+02) (35, 4.69660474726151804248e+01) (36, -1.50000000000000000000e+03) (37, -5.22401153326348506312e+01) (38, -1.50000000000000000000e+03) (39, 1.00880138485262264680e+02) (40, 2.31767548664006710624e+01) (41, -4.48292594382749953752e+01) (42, -3.63493312033096231062e+02) (43, -1.96160235924061254309e+02) (44, -1.50000000000000000000e+03) (45, 1.54082733124786344092e+01) (46, -1.81641223916306898900e+02) (47, 2.01288805160741768319e+00) (48, -1.75741882645853628730e+01) (49, -1.50397032695770462851e+02) (50, 5.52451448462155525476e+01) (51, -1.81303873412760026440e+02) (52, -1.39524902600789886264e+02) (53, 1.03780788339017050248e+02) (54, -1.03619943795080988735e+01) (55, -2.22921813455559316708e+02) (56, -1.50000000000000000000e+03) (57, -1.80568917993158692070e+02) (58, -2.29569230073690818017e+02) (59, 6.54011690825911102820e+01) (60, -1.50000000000000000000e+03) (61, -9.87516509119282943630e+01) (62, -1.50000000000000000000e+03) (63, 1.93854863549569280678e+01) (64, 1.50000000000000000000e+03) (65, 3.65156803154635156261e+02) (66, -9.04379287470751933142e+02) (67, -1.62610126096373875271e+02) (68, 1.50000000000000000000e+03) (69, 1.34298184590332283506e+02) (70, 5.56666085946775552884e+01) (71, 2.72170226733317566215e+00) (72, -2.57830479578322808720e+01) (73, -1.16989644482136370129e+02) (74, 3.12943071862613120260e+00) (75, 3.56483161958065997155e+00) (76, 3.46187848841223114960e+02) (77, 1.29542920780886106513e+02) (78, -2.51494532664864266280e+02) (79, 1.50000000000000000000e+03) (80, 1.50000000000000000000e+03) (81, 1.50000000000000000000e+03) (82, 1.50000000000000000000e+03) (83, -2.36588094189176700866e+02) (84, -1.36489960126376558947e+02) (85, -2.09325181883072616529e+02) (86, 4.98458567187796006692e+02) 
