FANN_FLO_2.1
num_layers=3
learning_rate=0.700000
connection_rate=1.000000
network_type=0
learning_momentum=0.000000
training_algorithm=2
train_error_function=1
train_stop_function=0
cascade_output_change_fraction=0.010000
quickprop_decay=-0.000100
quickprop_mu=1.750000
rprop_increase_factor=1.001000
rprop_decrease_factor=0.333300
rprop_delta_min=0.000000
rprop_delta_max=50.000000
rprop_delta_zero=0.100000
cascade_output_stagnation_epochs=12
cascade_candidate_change_fraction=0.010000
cascade_candidate_stagnation_epochs=12
cascade_max_out_epochs=150
cascade_max_cand_epochs=150
cascade_num_candidate_groups=2
bit_fail_limit=3.49999999999999977796e-01
cascade_candidate_limit=1.00000000000000000000e+03
cascade_weight_multiplier=4.00000000000000022204e-01
cascade_activation_functions_count=10
cascade_activation_functions=3 5 7 8 10 11 14 15 16 17 
cascade_activation_steepnesses_count=4
cascade_activation_steepnesses=2.50000000000000000000e-01 5.00000000000000000000e-01 7.50000000000000000000e-01 1.00000000000000000000e+00 
layer_sizes=71 21 2 
scale_included=0
neurons (num_inputs, activation_function, activation_steepness)=(0, 0, 0.00000000000000000000e+00) (0, 0, 0.00000000000000000000e+00) (0, 0, 0.00000000000000000000e+00) (0, 0, 0.00000000000000000000e+00) (0, 0, 0.00000000000000000000e+00) (0, 0, 0.00000000000000000000e+00) (0, 0, 0.00000000000000000000e+00) (0, 0, 0.00000000000000000000e+00) (0, 0, 0.00000000000000000000e+00) (0, 0, 0.00000000000000000000e+00) (0, 0, 0.00000000000000000000e+00) (0, 0, 0.00000000000000000000e+00) (0, 0, 0.00000000000000000000e+00) (0, 0, 0.00000000000000000000e+00) (0, 0, 0.00000000000000000000e+00) (0, 0, 0.00000000000000000000e+00) (0, 0, 0.00000000000000000000e+00) (0, 0, 0.00000000000000000000e+00) (0, 0, 0.00000000000000000000e+00) (0, 0, 0.00000000000000000000e+00) (0, 0, 0.00000000000000000000e+00) (0, 0, 0.00000000000000000000e+00) (0, 0, 0.00000000000000000000e+00) (0, 0, 0.00000000000000000000e+00) (0, 0, 0.00000000000000000000e+00) (0, 0, 0.00000000000000000000e+00) (0, 0, 0.00000000000000000000e+00) (0, 0, 0.00000000000000000000e+00) (0, 0, 0.00000000000000000000e+00) (0, 0, 0.00000000000000000000e+00) (0, 0, 0.00000000000000000000e+00) (0, 0, 0.00000000000000000000e+00) (0, 0, 0.00000000000000000000e+00) (0, 0, 0.00000000000000000000e+00) (0, 0, 0.00000000000000000000e+00) (0, 0, 0.00000000000000000000e+00) (0, 0, 0.00000000000000000000e+00) (0, 0, 0.00000000000000000000e+00) (0, 0, 0.00000000000000000000e+00) (0, 0, 0.00000000000000000000e+00) (0, 0, 0.00000000000000000000e+00) (0, 0, 0.00000000000000000000e+00) (0, 0, 0.00000000000000000000e+00) (0, 0, 0.00000000000000000000e+00) (0, 0, 0.00000000000000000000e+00) (0, 0, 0.00000000000000000000e+00) (0, 0, 0.00000000000000000000e+00) (0, 0, 0.00000000000000000000e+00) (0, 0, 0.00000000000000000000e+00) (0, 0, 0.00000000000000000000e+00) (0, 0, 0.00000000000000000000e+00) (0, 0, 0.00000000000000000000e+00) (0, 0, 0.00000000000000000000e+00) (0, 0, 0.00000000000000000000e+00) (0, 0, 0.00000000000000000000e+00) (0, 0, 0.00000000000000000000e+00) (0, 0, 0.00000000000000000000e+00) (0, 0, 0.00000000000000000000e+00) (0, 0, 0.00000000000000000000e+00) (0, 0, 0.00000000000000000000e+00) (0, 0, 0.00000000000000000000e+00) (0, 0, 0.00000000000000000000e+00) (0, 0, 0.00000000000000000000e+00) (0, 0, 0.00000000000000000000e+00) (0, 0, 0.00000000000000000000e+00) (0, 0, 0.00000000000000000000e+00) (0, 0, 0.00000000000000000000e+00) (0, 0, 0.00000000000000000000e+00) (0, 0, 0.00000000000000000000e+00) (0, 0, 0.00000000000000000000e+00) (0, 0, 0.00000000000000000000e+00) (71, 4, 5.00000000000000000000e-01) (71, 4, 5.00000000000000000000e-01) (71, 4, 5.00000000000000000000e-01) (71, 4, 5.00000000000000000000e-01) (71, 4, 5.00000000000000000000e-01) (71, 4, 5.00000000000000000000e-01) (71, 4, 5.00000000000000000000e-01) (71, 4, 5.00000000000000000000e-01) (71, 4, 5.00000000000000000000e-01) (71, 4, 5.00000000000000000000e-01) (71, 4, 5.00000000000000000000e-01) (71, 4, 5.00000000000000000000e-01) (71, 4, 5.00000000000000000000e-01) (71, 4, 5.00000000000000000000e-01) (71, 4, 5.00000000000000000000e-01) (71, 4, 5.00000000000000000000e-01) (71, 4, 5.00000000000000000000e-01) (71, 4, 5.00000000000000000000e-01) (71, 4, 5.00000000000000000000e-01) (71, 4, 5.00000000000000000000e-01) (0, 4, 5.00000000000000000000e-01) (21, 4, 9.00000000000000022204e-01) (0, 4, 9.00000000000000022204e-01) 
connections (connected_to_neuron, weight)=(0, 1.50000000000000000000e+03) (1, 3.24155921873532335553e+01) (2, 1.50000000000000000000e+03) (3, 7.29811919265114905642e+00) (4, -1.14249931602411879794e+03) (5, -1.19294021671436297538e+02) (6, 5.70844899325686697011e+02) (7, -6.56932324187746274902e+01) (8, -1.50000000000000000000e+03) (9, 8.58425426035286704973e+01) (10, -1.14249931602411811582e+03) (11, 2.58053880407389044649e+02) (12, -1.50000000000000000000e+03) (13, -3.96091754416688672791e+01) (14, 1.50000000000000000000e+03) (15, 3.62968091961828609460e-01) (16, 6.23676288208759956433e+02) (17, 1.21114403001663319515e+02) (18, 8.77931978494292337700e+01) (19, 1.62841480945720206819e+02) (20, 9.83532651946981673063e+01) (21, -1.78194060879242158535e+02) (22, 1.50000000000000000000e+03) (23, -1.82012222017935073382e+02) (24, 1.50000000000000000000e+03) (25, -3.22819840089550211815e+01) (26, -1.50000000000000000000e+03) (27, -3.24691585375480769926e+02) (28, 3.35483536960038861707e+02) (29, 1.05216032256279191870e+02) (30, 1.25377444528458408968e+03) (31, 1.09674110146614268047e+02) (32, -1.50000000000000000000e+03) (33, 2.82658506398803581305e+02) (34, -1.50000000000000000000e+03) (35, 2.94005756595130272046e+01) (36, -1.50000000000000000000e+03) (37, -3.32844537367036008568e-01) (38, -1.50000000000000000000e+03) (39, -1.08179688014774797011e+02) (40, 1.34083483010172813010e+03) (41, -3.28208845056796079120e+01) (42, -1.50000000000000000000e+03) (43, -1.39702958748726171478e+01) (44, -1.50000000000000000000e+03) (45, -4.18008961469482258622e+01) (46, -1.50000000000000000000e+03) (47, 6.29652993034665087180e+01) (48, -1.50000000000000000000e+03) (49, 1.46732005003176109170e+01) (50, -1.50000000000000000000e+03) (51, -8.77337733442332705636e+01) (52, -1.50000000000000000000e+03) (53, 1.46686925191711878824e+02) (54, 1.14579623974740138692e+03) (55, -7.83310887347775803846e+01) (56, -1.50000000000000000000e+03) (57, -4.78701653522330303758e+01) (58, -1.50000000000000000000e+03) (59, -2.30205975426522769567e+02) (60, -1.50000000000000000000e+03) (61, -2.87084024222180573815e+01) (62, -1.50000000000000000000e+03) (63, -8.68352142573699126160e+01) (64, 1.50000000000000000000e+03) (65, -4.26230656546229340620e+01) (66, 2.52262716826101268452e+02) (67, 1.05748026160309919419e+02) (68, 1.50000000000000000000e+03) (69, -7.59955140711001462250e+01) (70, -2.05630246996711662177e+02) (0, -1.50000000000000000000e+03) (1, -2.68700757376576504498e+01) (2, -1.50000000000000000000e+03) (3, -8.92706526752315170370e+01) (4, -1.50000000000000000000e+03) (5, 1.45904870702290537565e+02) (6, 5.56659624104352019458e+02) (7, 1.86390233601750054504e+02) (8, 1.50000000000000000000e+03) (9, 9.20176325542561812654e+01) (10, -1.50000000000000000000e+03) (11, -2.65637834408778807926e+01) (12, 1.50000000000000000000e+03) (13, -7.56960980450329543601e+01) (14, -1.50000000000000000000e+03) (15, -5.71819483116048559168e+01) (16, 7.77681510138688054212e+02) (17, -5.93347969885269534984e+01) (18, 4.02500727432008886808e+01) (19, 7.86578777331938709949e+01) (20, -1.10264770637971434297e+01) (21, 1.00599263091896844458e+02) (22, -1.50000000000000000000e+03) (23, -9.45445631810923430294e+01) (24, -1.50000000000000000000e+03) (25, -2.62447301008654676480e+02) (26, 1.50000000000000000000e+03) (27, -1.32894406762666562827e+02) (28, 2.25434069918049630132e+02) (29, -1.88222733749192144614e+02) (30, 1.11918027885355604667e+03) (31, 3.52501866253234439341e+01) (32, 1.50000000000000000000e+03) (33, 5.09499569115596216307e+02) (34, 1.50000000000000000000e+03) (35, -8.49411471824741823866e+01) (36, 1.50000000000000000000e+03) (37, -2.92778757279283539106e+01) (38, 1.50000000000000000000e+03) (39, 1.27511113926030148491e+01) (40, 1.47302259556420631270e+03) (41, 4.28249879440896030758e+00) (42, 1.50000000000000000000e+03) (43, -2.86489535031823663758e+02) (44, 1.50000000000000000000e+03) (45, -1.08395270674682606682e+02) (46, 1.50000000000000000000e+03) (47, 1.79317758448131386873e-01) (48, 1.50000000000000000000e+03) (49, 1.68069006591270266426e+02) (50, 1.50000000000000000000e+03) (51, 5.54108457536193981241e+01) (52, 1.50000000000000000000e+03) (53, 5.27267696000734886752e+01) (54, 1.50000000000000000000e+03) (55, 4.29631103018230664503e+00) (56, 1.50000000000000000000e+03) (57, 9.50120054937236346859e+01) (58, 1.50000000000000000000e+03) (59, -7.23628765947407348591e+00) (60, 1.50000000000000000000e+03) (61, -5.74634136280839555866e+01) (62, 1.50000000000000000000e+03) (63, -1.82386792661799518100e+02) (64, -1.50000000000000000000e+03) (65, -1.12189745744722685572e+02) (66, 9.43667760956472392309e+01) (67, 5.19006384037554369115e+01) (68, -1.50000000000000000000e+03) (69, -1.36152376051079443187e+02) (70, -1.44239277272186285472e+02) (0, -1.50000000000000000000e+03) (1, 8.61966237267921258081e+01) (2, -1.50000000000000000000e+03) (3, -2.06579961249104826493e+01) (4, -1.50000000000000000000e+03) (5, -1.78646304394843980390e+02) (6, 1.50000000000000000000e+03) (7, -8.67403771483156127431e+00) (8, 1.50000000000000000000e+03) (9, 2.01487031281109310044e+01) (10, -1.50000000000000000000e+03) (11, 1.98727588470900911943e+02) (12, 1.50000000000000000000e+03) (13, -9.49540494488245201410e+01) (14, -1.50000000000000000000e+03) (15, -6.58526171062432155168e+01) (16, 1.45595565173041109119e+03) (17, 1.91708719002280389532e+02) (18, 2.63545160668938649451e+02) (19, -8.22792237553817358275e+01) (20, 7.02706329766117505642e+02) (21, 3.77236475202296039910e+00) (22, -1.50000000000000000000e+03) (23, 1.72235765543816441436e+01) (24, -1.50000000000000000000e+03) (25, -1.77615269318944939414e+01) (26, 1.50000000000000000000e+03) (27, -9.57375722832477151769e+01) (28, 8.38705208312142303839e+02) (29, 5.72084257955262813766e+01) (30, 6.11170259882483492220e+02) (31, 1.20467056974240520617e+02) (32, 1.50000000000000000000e+03) (33, 2.85748305293492421697e+02) (34, 1.50000000000000000000e+03) (35, -6.19888607264015618625e+01) (36, 1.50000000000000000000e+03) (37, 3.99582854326705643189e+01) (38, 1.50000000000000000000e+03) (39, 1.28128049437798637200e+02) (40, 1.50000000000000000000e+03) (41, -4.09664297810979505243e+01) (42, 1.50000000000000000000e+03) (43, -1.01909555668458196465e+02) (44, 1.50000000000000000000e+03) (45, 9.39953899209375123291e+01) (46, 1.50000000000000000000e+03) (47, 8.12037427700920204643e+01) (48, 1.50000000000000000000e+03) (49, -2.04656925862376169789e+02) (50, 1.29011704262009175181e+03) (51, -1.02867633382928702623e+00) (52, 1.50000000000000000000e+03) (53, 2.04730753076261862589e+02) (54, 1.50000000000000000000e+03) (55, 2.88253224180001161869e+01) (56, 1.50000000000000000000e+03) (57, 1.01403188370761540682e+02) (58, 3.01950998100866172535e+02) (59, -6.00315823244797996949e+01) (60, 1.50000000000000000000e+03) (61, 5.79955138578225657398e+01) (62, 1.50000000000000000000e+03) (63, 6.39783839345127205434e+01) (64, -1.50000000000000000000e+03) (65, -2.00693512257884179917e+02) (66, 5.75131245593315611586e+02) (67, -1.29558014856184684049e+02) (68, -1.50000000000000000000e+03) (69, -2.04090994431706853618e+01) (70, -2.50953740545979826493e+01) (0, 1.50000000000000000000e+03) (1, 1.21524337544352462714e+02) (2, 1.50000000000000000000e+03) (3, -4.81395201407512658420e+01) (4, 1.50000000000000000000e+03) (5, 1.31295859299134090037e+01) (6, -4.56340051868292675863e+02) (7, -1.68824101137384126048e+01) (8, -1.50000000000000000000e+03) (9, -1.56033144929217570507e+02) (10, 1.50000000000000000000e+03) (11, 2.03338326279343171166e+01) (12, -1.50000000000000000000e+03) (13, 1.69176263379573015300e+02) (14, 1.50000000000000000000e+03) (15, 8.86123341848595060810e+01) (16, -6.33952246148682206695e+02) (17, -1.29102515131317602481e+02) (18, -1.27586346906911686006e+02) (19, -9.58858991769064346045e+01) (20, -1.39012774855262847495e+02) (21, 4.07733672683787631286e+01) (22, 1.50000000000000000000e+03) (23, 2.60459865443824725162e+01) (24, 1.50000000000000000000e+03) (25, 1.89416707552029421890e+01) (26, -1.50000000000000000000e+03) (27, -2.51295584226222530333e+01) (28, -2.22022276617014085787e+02) (29, -1.54687822579417684210e+02) (30, -1.31230516154824772457e+03) (31, 9.12154466825653429396e+01) (32, -1.50000000000000000000e+03) (33, -2.02316221406396806515e+02) (34, -1.50000000000000000000e+03) (35, 1.34507770880312040873e+01) (36, -1.50000000000000000000e+03) (37, 7.42232399387929717705e+01) (38, -1.50000000000000000000e+03) (39, 1.56677204492455103946e+02) (40, -1.49367764741072119250e+03) (41, 1.57210137806195263011e+02) (42, -1.50000000000000000000e+03) (43, -2.77960692710924472948e+00) (44, -1.50000000000000000000e+03) (45, 1.06991472235205137054e+02) (46, -1.50000000000000000000e+03) (47, -1.71844785663672496412e+02) (48, -1.50000000000000000000e+03) (49, -1.52991900285743582799e+02) (50, -1.50000000000000000000e+03) (51, 8.64748592153652708703e+01) (52, -1.50000000000000000000e+03) (53, 5.05560521660212671691e+01) (54, -1.50000000000000000000e+03) (55, -1.68165412249263908961e+02) (56, -1.50000000000000000000e+03) (57, 8.57081138708895764466e+01) (58, -1.50000000000000000000e+03) (59, -2.58367987964343477358e+01) (60, -1.50000000000000000000e+03) (61, 2.96081138854247818415e+01) (62, -1.50000000000000000000e+03) (63, 9.91074905336840856762e+01) (64, 1.50000000000000000000e+03) (65, 5.20572923437534385016e+01) (66, -1.02638309779571969216e+02) (67, 1.48439255179514105976e+02) (68, 1.50000000000000000000e+03) (69, -1.01324674517718236189e+02) (70, -1.62908192534704824084e+02) (0, 1.50000000000000000000e+03) (1, 5.00602154490338406845e+01) (2, 1.50000000000000000000e+03) (3, 3.11257541500178014360e+01) (4, 1.50000000000000000000e+03) (5, 1.74360842081676537418e+02) (6, -1.50000000000000000000e+03) (7, -7.42986834156903697135e+00) (8, -1.50000000000000000000e+03) (9, -3.27825111005628144767e+01) (10, 1.50000000000000000000e+03) (11, -9.06457683368462170392e+01) (12, -1.50000000000000000000e+03) (13, 2.22367114616386061243e+01) (14, 1.50000000000000000000e+03) (15, -1.31832546556806079252e+02) (16, -1.12090886636655753250e+02) (17, 5.96866987631979171169e+01) (18, -2.43255354831126055615e+02) (19, 2.75709395244244639400e+01) (20, -4.82539533125803870917e+02) (21, -1.22183400222297411375e+01) (22, 1.50000000000000000000e+03) (23, -6.70522773692160711789e+01) (24, 1.50000000000000000000e+03) (25, -9.74291402336236416204e+01) (26, -1.50000000000000000000e+03) (27, 2.52128688350202310176e+02) (28, 2.83516793028830136336e+01) (29, 1.73500697386092866736e+02) (30, -4.43675967416720197889e+02) (31, 9.20912536190098620636e+01) (32, -1.50000000000000000000e+03) (33, 1.79423687940623068471e+02) (34, -1.50000000000000000000e+03) (35, 1.93861971977212135698e+02) (36, -1.50000000000000000000e+03) (37, -5.24880543439828244345e+01) (38, -1.50000000000000000000e+03) (39, -1.17921255983664764244e+02) (40, -8.83268499158740723942e+02) (41, 3.71920425364624378517e+01) (42, -1.50000000000000000000e+03) (43, -1.26108973884050868719e+02) (44, -1.50000000000000000000e+03) (45, -4.10042722645277351035e+01) (46, -1.50000000000000000000e+03) (47, 3.07209386045168280077e+01) (48, -1.50000000000000000000e+03) (49, 4.26384401263060155429e+01) (50, -1.26845636417844502830e+03) (51, 4.31822807184032981809e+01) (52, -2.53239215545197623669e+02) (53, 8.29352382519016941842e+01) (54, -1.50000000000000000000e+03) (55, 7.72973069238923500279e+01) (56, -1.50000000000000000000e+03) (57, 2.49723875160105102111e+01) (58, -1.51756404896837544527e+01) (59, 5.76272190729774891338e+01) (60, -1.50000000000000000000e+03) (61, -1.73592780377891813259e+02) (62, -1.50000000000000000000e+03) (63, 1.10874195030685754659e+02) (64, 1.50000000000000000000e+03) (65, 6.02057934257277551637e+01) (66, -6.52158232228348083481e+02) (67, -3.92754101200381740000e+01) (68, 1.50000000000000000000e+03) (69, -1.21219654812929945820e+02) (70, -4.68057828664360684456e+01) (0, -1.50000000000000000000e+03) (1, 4.80581653965295174658e+01) (2, -1.50000000000000000000e+03) (3, -1.00624037288725247663e+02) (4, -9.81966144254593928054e+02) (5, 1.04606430394800796080e+02) (6, 4.96114905714648273261e+02) (7, 9.29871784063829522893e+01) (8, 1.50000000000000000000e+03) (9, -7.99810510921093111847e+01) (10, -9.64114152774662670708e+02) (11, 9.02779224789322540801e+01) (12, 1.50000000000000000000e+03) (13, 4.51526395107270861473e+00) (14, -1.50000000000000000000e+03) (15, 1.21065189380986197420e+02) (16, 7.25484192839697357158e+02) (17, 1.16967417371900964440e+02) (18, 1.24240231758078365942e+02) (19, 6.24019068017658398162e+01) (20, 4.10047413681174930389e+01) (21, -1.86782969490375165833e+01) (22, -1.50000000000000000000e+03) (23, -4.53307378893700914091e+01) (24, -1.50000000000000000000e+03) (25, -5.97856272953309968443e+01) (26, 1.50000000000000000000e+03) (27, -5.56874951645942672940e+01) (28, 1.62478435216497842930e+02) (29, 1.02400148819232342134e+02) (30, 5.91805494945964483122e+02) (31, 2.35733328873758516409e+01) (32, 1.50000000000000000000e+03) (33, 1.15611409898348071579e+02) (34, 1.50000000000000000000e+03) (35, -4.73750647729038618650e+01) (36, 1.50000000000000000000e+03) (37, -8.30549234055329606008e+01) (38, 1.50000000000000000000e+03) (39, 4.09863832107776957514e+01) (40, 8.18818980993110471900e+02) (41, -7.99084501814015908394e+01) (42, 1.50000000000000000000e+03) (43, -1.19335149309380923910e+02) (44, 1.50000000000000000000e+03) (45, -1.38042745389773564568e+01) (46, 1.50000000000000000000e+03) (47, -2.03167495163529849833e+02) (48, 1.50000000000000000000e+03) (49, 8.15630017546538432782e+00) (50, 1.50000000000000000000e+03) (51, -2.18531653081227155155e+01) (52, 1.50000000000000000000e+03) (53, -4.27058556325182152591e+01) (54, 1.50000000000000000000e+03) (55, -4.04716912133926385309e+01) (56, 1.50000000000000000000e+03) (57, 9.51049802891107276537e+01) (58, 1.49889323377482151045e+03) (59, 3.30769381159083886157e-01) (60, 1.50000000000000000000e+03) (61, -9.12459581264063217532e+01) (62, 1.50000000000000000000e+03) (63, 7.80905745733812892695e+01) (64, -1.50000000000000000000e+03) (65, -8.29579214015154065009e+01) (66, 1.27740225444851716929e+02) (67, -7.93743974433262593493e+01) (68, -1.50000000000000000000e+03) (69, -1.35981183091180639622e+02) (70, -8.37267866415327688401e+01) (0, 1.50000000000000000000e+03) (1, 6.60072126976133972676e+01) (2, 1.50000000000000000000e+03) (3, -6.40709229115294505164e+01) (4, 1.50000000000000000000e+03) (5, 6.86505355100760965570e+01) (6, -1.50000000000000000000e+03) (7, -1.96914279694819668975e+02) (8, -1.50000000000000000000e+03) (9, 6.66755743282115105330e+01) (10, 1.50000000000000000000e+03) (11, 1.23108423023012775843e+02) (12, -1.50000000000000000000e+03) (13, 1.39861951243947544299e+02) (14, 1.50000000000000000000e+03) (15, -6.27575469214659520389e+01) (16, -3.73568927804226859735e+02) (17, 2.03502712995342534441e+02) (18, -7.49964099885389288147e+01) (19, -5.20914752209430886865e+01) (20, -2.37167954331809170299e+02) (21, -8.57620502312331325356e+01) (22, 1.50000000000000000000e+03) (23, -9.43969064137624229716e+01) (24, 1.50000000000000000000e+03) (25, 2.65669604903142015928e+01) (26, -1.50000000000000000000e+03) (27, 1.27065793185414563027e+02) (28, -7.35825721950874594768e+02) (29, 2.07310624912481443971e+02) (30, -1.38499987514464214655e+03) (31, -7.94399357901867375631e+01) (32, -1.50000000000000000000e+03) (33, -8.55046228823883325276e+01) (34, -1.50000000000000000000e+03) (35, 9.47199804988302105357e+01) (36, -1.50000000000000000000e+03) (37, -5.92547817813453363556e+01) (38, -1.50000000000000000000e+03) (39, 2.41116809887017893743e+02) (40, -1.04336409423125951434e+03) (41, 2.02074715366794848137e+01) (42, -1.50000000000000000000e+03) (43, -7.89185717303757741092e+01) (44, -1.50000000000000000000e+03) (45, 8.49226696788951898043e+01) (46, -1.50000000000000000000e+03) (47, 9.10530645664479010293e+01) (48, -4.09945254355499457688e+02) (49, -8.19793943968557812241e+01) (50, -1.50000000000000000000e+03) (51, -3.40673895749828332669e+01) (52, -2.56442539238711844973e+02) (53, 3.20345653954065099356e+01) (54, -1.50000000000000000000e+03) (55, 7.96343466582947883126e+01) (56, -1.50000000000000000000e+03) (57, 1.36467758378783173612e+02) (58, -7.89125110492838302889e+02) (59, 1.38840540272237156216e+01) (60, -1.50000000000000000000e+03) (61, -1.10386840234831410612e+02) (62, -1.50000000000000000000e+03) (63, -1.61150588203118985575e+02) (64, 1.50000000000000000000e+03) (65, 7.40050729322564535551e+01) (66, -4.10655661122395372331e+02) (67, -5.76303897009488537151e+01) (68, 1.50000000000000000000e+03) (69, 6.23517575852430816497e+00) (70, 6.12401526536427880387e+01) (0, -1.50000000000000000000e+03) (1, 1.29281683778940589491e+02) (2, -1.50000000000000000000e+03) (3, -3.30548213269956079330e+01) (4, -1.50000000000000000000e+03) (5, -3.71993346205372290569e+01) (6, 1.50000000000000000000e+03) (7, 1.55268958447479519691e+02) (8, 1.50000000000000000000e+03) (9, 6.41714555490797380344e+01) (10, -1.50000000000000000000e+03) (11, -3.68796043046736770066e+01) (12, 1.50000000000000000000e+03) (13, -9.72618316070023354314e+01) (14, -1.50000000000000000000e+03) (15, 2.76157030714010609529e+01) (16, 2.51591018197506116394e+02) (17, 1.11971775468181746760e+02) (18, 2.46470827074236552789e+02) (19, 8.62048273102793416456e+01) (20, 3.16906043229486783730e+02) (21, -1.94464530294481505734e+01) (22, -1.50000000000000000000e+03) (23, -7.82145283222966014591e+01) (24, -1.50000000000000000000e+03) (25, 2.05963033794503651563e+01) (26, 1.50000000000000000000e+03) (27, -1.16962576275321964658e+02) (28, 7.18498770362613072393e+02) (29, 8.34095814524718832672e+01) (30, 3.01683773302578799758e+02) (31, -8.00886313699197813776e+01) (32, 1.50000000000000000000e+03) (33, 2.65415256859585433347e+01) (34, 1.50000000000000000000e+03) (35, 1.29911925925723949149e+02) (36, 1.50000000000000000000e+03) (37, -4.10127725081849590083e+01) (38, 1.50000000000000000000e+03) (39, 2.63430068404946782223e+00) (40, 1.50000000000000000000e+03) (41, 5.44653932047562321372e+01) (42, 2.35021331127018157758e+02) (43, 1.29380050625087704930e+02) (44, 4.39833314517953738232e+02) (45, 5.90326800563908875574e+01) (46, 8.86469269900218570513e+00) (47, -2.70159065963894242657e+01) (48, 1.50000000000000000000e+03) (49, -8.88567157401896139390e+01) (50, 6.36883593977784272511e+01) (51, 2.41313854346558485986e+02) (52, -4.21776067583580100973e+01) (53, -4.01040860249704493867e+01) (54, -1.44283920411326818112e+02) (55, -4.13929982306368273726e+01) (56, 1.50000000000000000000e+03) (57, 1.32572337667992723453e+01) (58, 7.66605772615603058284e+01) (59, 1.71437779329632817849e+01) (60, 1.50000000000000000000e+03) (61, 4.36644140031913963185e+00) (62, 1.50000000000000000000e+03) (63, -1.50712408794960538216e+02) (64, -1.50000000000000000000e+03) (65, 7.97918426502488529195e+01) (66, 6.83398213366751974718e+02) (67, -9.73667066892167269998e+01) (68, -1.50000000000000000000e+03) (69, 5.41518830409960685301e+01) (70, -5.46255412845698842261e+01) (0, -1.50000000000000000000e+03) (1, 1.45573588151223276554e+02) (2, -1.50000000000000000000e+03) (3, -1.33677093799057171708e+01) (4, -1.50000000000000000000e+03) (5, 1.15278858248931328490e+01) (6, 4.42401109269862558904e+02) (7, 1.68142505004449873240e+02) (8, 1.50000000000000000000e+03) (9, -8.89164296427556308799e+01) (10, -1.50000000000000000000e+03) (11, 1.14702289942790528698e+02) (12, 1.50000000000000000000e+03) (13, 8.78529725418458973252e+00) (14, -1.50000000000000000000e+03) (15, 1.29276217184956756512e+01) (16, 1.46785364780337516777e+02) (17, -2.47061016659674663742e+01) (18, 7.18532007051112131535e+00) (19, -3.67882500429161396482e+01) (20, 3.19290146851885481283e+01) (21, -5.31186847768909942147e+01) (22, -1.50000000000000000000e+03) (23, 1.18059334996002775142e+02) (24, -1.50000000000000000000e+03) (25, -1.14165060483302852390e+02) (26, 1.50000000000000000000e+03) (27, 5.77681618793917337484e+01) (28, -3.68245412400084290994e+01) (29, -1.07556794861680387498e+02) (30, 3.18527279844024860722e+02) (31, -4.38677743124995558333e+01) (32, 1.50000000000000000000e+03) (33, -6.02604621590640299189e+00) (34, 7.82839806123323228348e+02) (35, -1.26262250154157300130e+02) (36, 1.50000000000000000000e+03) (37, -8.72878786197423295334e+01) (38, 1.50000000000000000000e+03) (39, -1.58647881819816859661e+02) (40, 1.01521043860195732123e+02) (41, -6.42350299536946920398e+01) (42, 3.04570733028770007422e+02) (43, 1.63168230117650182365e+02) (44, 1.50000000000000000000e+03) (45, -3.41754360407811361711e+01) (46, 1.21203713725345906482e+02) (47, -8.84032641600771000867e+01) (48, 1.07904307611643298515e+03) (49, -9.40924269255469880591e+01) (50, 4.26269255287881421168e+01) (51, -1.05162805927136716377e+02) (52, -2.13663337052615958100e+01) (53, 1.14607547276373495038e+02) (54, 2.86014880573183063461e+01) (55, 5.65107283824053823196e+01) (56, 1.44590628426805892559e+03) (57, -2.22751495590737711439e+01) (58, 2.38901410376749851139e+02) (59, 7.09412558356103346568e+01) (60, 1.50000000000000000000e+03) (61, 1.60907641379878221244e+01) (62, 1.50000000000000000000e+03) (63, -9.88647913520586882896e+01) (64, -1.50000000000000000000e+03) (65, 7.67765166266466252409e+01) (66, 5.84140950183159816334e+02) (67, -9.18139871593707965758e+01) (68, -1.50000000000000000000e+03) (69, -3.72947595094196984178e+01) (70, 9.35925962377164921691e+00) (0, 1.50000000000000000000e+03) (1, -9.18122751528999003767e+01) (2, 1.50000000000000000000e+03) (3, -1.10277893972051998617e+02) (4, 1.50000000000000000000e+03) (5, 1.64172744950420621990e+02) (6, -1.50000000000000000000e+03) (7, -5.50046685163929538476e+01) (8, -1.50000000000000000000e+03) (9, 3.24277771560720395883e+01) (10, 1.50000000000000000000e+03) (11, -1.02064311117172906052e+02) (12, -1.50000000000000000000e+03) (13, -5.32273586489392798171e+01) (14, 1.50000000000000000000e+03) (15, 1.24850370418181924492e+02) (16, -1.45340556919339769593e+03) (17, 1.38510949436881531938e+02) (18, -4.85295005315977959981e+02) (19, -1.10740135890974272570e+02) (20, -2.20590493979567355609e+02) (21, -1.11331684849814365634e+02) (22, 1.50000000000000000000e+03) (23, 5.89200268484330322849e+01) (24, 1.50000000000000000000e+03) (25, -1.52613356104728072893e+01) (26, -1.50000000000000000000e+03) (27, 8.90609200703104875174e+01) (28, -5.09435362646397720710e+02) (29, 1.34699586127004948821e+02) (30, -5.16816745153136821500e+02) (31, 2.15486366040067807148e+01) (32, -1.50000000000000000000e+03) (33, -8.66038322810761513892e+01) (34, -1.50000000000000000000e+03) (35, 5.33693406722750722793e+01) (36, -1.50000000000000000000e+03) (37, -7.57471059924877181402e+01) (38, -1.50000000000000000000e+03) (39, 8.95603318952655946816e+00) (40, -1.50000000000000000000e+03) (41, 1.88169379426206724304e+01) (42, -1.50000000000000000000e+03) (43, -3.83853987653001738067e+00) (44, -1.50000000000000000000e+03) (45, -1.32346362140641929273e+02) (46, -1.50000000000000000000e+03) (47, -5.95970990970541905085e+01) (48, -1.50000000000000000000e+03) (49, 5.85743674040575044160e+01) (50, -1.50000000000000000000e+03) (51, 1.75553992416645989749e+01) (52, -1.50000000000000000000e+03) (53, -8.16346635708277119647e+01) (54, -1.15482547052683594302e+03) (55, 2.19203985624864429838e+02) (56, -1.50000000000000000000e+03) (57, -1.31654262691185067524e+02) (58, -1.50000000000000000000e+03) (59, -9.01704670893985706925e+01) (60, -1.50000000000000000000e+03) (61, -8.20387717513615228881e+01) (62, -1.50000000000000000000e+03) (63, 5.11241582798794738096e+01) (64, 1.50000000000000000000e+03) (65, -1.10868732960117668540e+02) (66, -5.04797909276080304153e+02) (67, -1.80782768342858616961e+02) (68, 1.50000000000000000000e+03) (69, -1.66745688878322368964e+02) (70, 4.45272234077134569930e+01) (0, -1.50000000000000000000e+03) (1, -1.73363893546580499105e+02) (2, -1.50000000000000000000e+03) (3, 4.98595120485240244079e+01) (4, 1.26934951563440563405e+03) (5, -5.71168217153976982559e+01) (6, 1.49767269108106620479e+03) (7, -7.99477527252476534159e+01) (8, 1.50000000000000000000e+03) (9, 9.12030745109314580077e+01) (10, 1.26390629767963923769e+03) (11, -9.65138713301278272638e+01) (12, 1.50000000000000000000e+03) (13, -2.12649690801052088318e+02) (14, -1.50000000000000000000e+03) (15, -9.03283927915631892347e+01) (16, 7.81017599417952226304e+01) (17, 2.37553004019447030259e+02) (18, 8.30135101312689585029e+01) (19, 3.68071273698571488353e+01) (20, -1.40280202964432419321e+02) (21, 4.01217174390198891842e+01) (22, -1.50000000000000000000e+03) (23, -9.28095857190234170275e+01) (24, -1.50000000000000000000e+03) (25, -6.78815798115776374289e+01) (26, 1.50000000000000000000e+03) (27, -2.53782676601111660375e+02) (28, 3.74766889986952094205e+02) (29, -7.24881339575060081870e+01) (30, 1.47461644179035459956e+02) (31, -9.45344364616800874046e+01) (32, 1.50000000000000000000e+03) (33, -3.43131217170798619165e+00) (34, 1.34763669112969773778e+03) (35, 1.17294945111894705292e+02) (36, 1.50000000000000000000e+03) (37, 7.11212256882673727887e+01) (38, 1.50000000000000000000e+03) (39, -1.31553701267761425697e+02) (40, 5.30614481822446691694e+02) (41, -5.54241505637391256300e+01) (42, 6.61972840604064572290e+02) (43, -5.72188477421962327085e-01) (44, 1.50000000000000000000e+03) (45, 5.12385991375789444646e+01) (46, 1.50000000000000000000e+03) (47, -7.42523790534464751545e+01) (48, 1.31519268839005894733e+03) (49, 4.30175424904063348208e+01) (50, 4.81883695971698159610e+02) (51, -4.33086677224153220322e+01) (52, 1.50000000000000000000e+03) (53, -1.68028008506425322821e+02) (54, 1.48900105736584418992e+03) (55, 6.13292918785601273157e+01) (56, 1.12932702332236431175e+03) (57, -1.72287973369005925406e+02) (58, 4.25661427762365178751e+02) (59, 4.34429141111031000833e+01) (60, 1.50000000000000000000e+03) (61, -9.29833328417505384778e+01) (62, 1.50000000000000000000e+03) (63, 1.70501082713408067093e+02) (64, -1.50000000000000000000e+03) (65, 4.03282515973169921608e+01) (66, 2.52134037951716550197e+02) (67, 4.85193106306014687590e+00) (68, -1.50000000000000000000e+03) (69, 9.22983223586141718897e+01) (70, 9.27454914903593703457e+01) (0, 1.50000000000000000000e+03) (1, -1.32104754122275352302e+02) (2, 1.50000000000000000000e+03) (3, -5.17500376780238937613e+01) (4, 1.50000000000000000000e+03) (5, -1.30262984392342787032e+02) (6, -1.50000000000000000000e+03) (7, 8.91014620882254320122e+01) (8, -1.50000000000000000000e+03) (9, 6.96154658632670191309e+01) (10, 1.50000000000000000000e+03) (11, 1.73480895838388732955e+02) (12, -1.50000000000000000000e+03) (13, 3.96319724565564968088e+01) (14, 1.50000000000000000000e+03) (15, 4.93829461304574053315e+01) (16, -1.45343212734340863790e+03) (17, -2.16956028781454051568e+02) (18, -3.43481754541770328615e+02) (19, -2.02904141724674147440e+01) (20, -4.12432200538997122408e+01) (21, 2.01501617043058125489e+01) (22, 1.50000000000000000000e+03) (23, 3.12273668169640323811e+01) (24, 1.50000000000000000000e+03) (25, 1.18644450800209696695e+02) (26, -1.50000000000000000000e+03) (27, 1.70503403530416335343e+02) (28, 1.22110891071368129701e+02) (29, -4.99866586368704730603e+01) (30, -1.50000000000000000000e+03) (31, -7.37932093135342626056e+01) (32, -1.50000000000000000000e+03) (33, -1.88444098700522118861e+02) (34, -1.50000000000000000000e+03) (35, -1.33385671243870092439e+02) (36, -1.50000000000000000000e+03) (37, 9.63648387147319738233e+01) (38, -1.50000000000000000000e+03) (39, 8.58985840407750202985e+01) (40, -1.12965910438504943158e+03) (41, -1.49184807835335163873e+02) (42, -1.50000000000000000000e+03) (43, 5.07984640542404122243e+01) (44, -1.50000000000000000000e+03) (45, -2.42667869156655484630e+02) (46, -1.50000000000000000000e+03) (47, 1.10729090942081484172e+02) (48, -1.50000000000000000000e+03) (49, -6.37496801230846354969e+00) (50, -1.50000000000000000000e+03) (51, -1.71518658608618494554e+02) (52, -1.50000000000000000000e+03) (53, 2.25544544265785660286e+01) (54, -7.53622173641692114643e+01) (55, 9.70267039656402658920e+01) (56, -1.20856862792039601118e+03) (57, 5.37900735386831172491e+01) (58, -1.50000000000000000000e+03) (59, -4.72164129283539679705e+01) (60, -1.50000000000000000000e+03) (61, 1.19252686582044901797e+02) (62, -1.50000000000000000000e+03) (63, 2.79160143946022891726e+01) (64, 1.50000000000000000000e+03) (65, 9.46621256700233715264e+01) (66, -5.36124674336503403538e+02) (67, -8.92843859761151890098e+01) (68, 1.50000000000000000000e+03) (69, -1.61940019331711170025e+02) (70, -1.98166061288170567423e+01) (0, 1.50000000000000000000e+03) (1, -4.82383429759409949611e+01) (2, 1.50000000000000000000e+03) (3, 7.10532345845561792430e+01) (4, 1.50000000000000000000e+03) (5, 1.26916851377544645629e+02) (6, -1.44495589754911475211e+03) (7, 6.58668337727713009144e+01) (8, -1.50000000000000000000e+03) (9, 8.25049068549548820783e+01) (10, 1.50000000000000000000e+03) (11, 1.47828246820374232584e+02) (12, -1.50000000000000000000e+03) (13, -6.38274049834703234296e+01) (14, 1.50000000000000000000e+03) (15, 6.74978957638415693054e+01) (16, -1.44517276196933221399e+03) (17, -5.06598184756037852594e+01) (18, -3.00427143552982840902e+02) (19, 2.73440379731744442893e+01) (20, -3.18152112647374735843e+02) (21, 9.78715934422819628935e+01) (22, 1.50000000000000000000e+03) (23, -2.40205897287607115231e+01) (24, 1.50000000000000000000e+03) (25, 5.43977721002595160371e+01) (26, -1.50000000000000000000e+03) (27, 1.38531066467177854662e+01) (28, -5.64709158727942622136e+02) (29, 4.51327144587771300621e+01) (30, -1.50000000000000000000e+03) (31, 6.79900703736150262557e+01) (32, -1.50000000000000000000e+03) (33, -2.58554225328127316175e+01) (34, -1.50000000000000000000e+03) (35, -2.13547543874191738666e+01) (36, -1.50000000000000000000e+03) (37, 9.72342957989510239258e+01) (38, -1.50000000000000000000e+03) (39, 1.33948303003384609156e+02) (40, -1.50000000000000000000e+03) (41, 1.66018878353753365218e+01) (42, -1.48867943849064522510e+03) (43, -5.31100223820891343962e+01) (44, -1.50000000000000000000e+03) (45, 8.80411051323861357787e+01) (46, -1.50000000000000000000e+03) (47, 4.01546770022939512046e+01) (48, -1.50000000000000000000e+03) (49, -1.71202063915703547536e+02) (50, -1.50000000000000000000e+03) (51, 1.63600005778164323544e+01) (52, -1.50000000000000000000e+03) (53, 4.54940852944272577929e+01) (54, -1.50000000000000000000e+03) (55, 4.62376618431558696898e+01) (56, -1.50000000000000000000e+03) (57, 1.62691989179231626395e+02) (58, -1.50000000000000000000e+03) (59, -1.02411426226233484016e+01) (60, -1.50000000000000000000e+03) (61, -2.72957207568729955938e+01) (62, -1.50000000000000000000e+03) (63, 9.68838522403320610010e+01) (64, 1.50000000000000000000e+03) (65, -4.82957768437083712065e-01) (66, -4.99415100590777967682e+02) (67, 2.14509574001071683824e+02) (68, 1.50000000000000000000e+03) (69, -4.97210352010870408890e+01) (70, 1.10826227775065774495e+02) (0, -1.50000000000000000000e+03) (1, 1.04353260267586577470e+02) (2, -1.50000000000000000000e+03) (3, 7.15401651748131399700e+01) (4, 2.85622212664613527977e+02) (5, -8.31964020458414843517e+00) (6, 4.06122921288919144445e+02) (7, -1.22688435579061788872e+02) (8, 1.50000000000000000000e+03) (9, -6.97383891849431876153e+01) (10, -6.57786979693767648314e+01) (11, -6.91182912179926631779e+01) (12, 1.50000000000000000000e+03) (13, -4.76304300829099318548e+01) (14, -1.50000000000000000000e+03) (15, 6.73097093649652151726e+01) (16, 1.09744608927576647872e+00) (17, -2.37318434542081391214e+01) (18, 1.42841878915633543556e+02) (19, -4.25081644819381168077e+01) (20, 1.41249439605806287545e+02) (21, 1.37098291630686105691e+02) (22, -1.50000000000000000000e+03) (23, 4.35880327311761064379e+01) (24, -1.50000000000000000000e+03) (25, -3.59263420130450938927e+01) (26, 1.50000000000000000000e+03) (27, 1.60807387848487962856e+02) (28, 3.62246023646771561744e+02) (29, 6.89884306063806462817e+01) (30, 5.02176276452960905772e+02) (31, -9.67809722727982801871e+01) (32, 1.50000000000000000000e+03) (33, -4.58495878857083027924e+01) (34, 1.50000000000000000000e+03) (35, 3.40288727423016936768e+01) (36, 1.50000000000000000000e+03) (37, -4.74314346098666774765e+01) (38, 1.50000000000000000000e+03) (39, 2.68792466635239932771e+01) (40, 7.59096392455936779697e+02) (41, 9.86180612880835099077e+01) (42, 1.50000000000000000000e+03) (43, -1.07029614882651230801e+02) (44, 1.50000000000000000000e+03) (45, 6.00798734134972107768e+01) (46, 3.06068120758479437882e+02) (47, 1.48981784844614907115e+02) (48, 1.50000000000000000000e+03) (49, 1.48005645876016728835e+02) (50, 2.07928346896187710158e+00) (51, 2.75182837236351289789e+01) (52, -1.80291623728529408766e+01) (53, -1.14538077931741710813e+01) (54, 7.37215415835736394001e+01) (55, -7.33325166870890257087e+01) (56, 1.50000000000000000000e+03) (57, 3.23171040954541695100e+01) (58, 8.32423232658923382132e+01) (59, -1.36145534248568367275e+02) (60, 1.50000000000000000000e+03) (61, -9.39989979780724667080e+01) (62, 1.50000000000000000000e+03) (63, -1.28512511008940208512e+02) (64, -1.50000000000000000000e+03) (65, -4.02924229628708163720e-01) (66, 3.36867436389217061787e+02) (67, 8.66141305314401392934e+01) (68, -1.50000000000000000000e+03) (69, -8.09614660330264825916e+01) (70, -7.15560796371985787800e+01) (0, 1.50000000000000000000e+03) (1, 1.54690183457145394641e+02) (2, 1.50000000000000000000e+03) (3, 1.99621299045373206127e+02) (4, 1.50000000000000000000e+03) (5, -1.04230549000873580212e+02) (6, -1.50000000000000000000e+03) (7, 1.40079552659352970068e+02) (8, -1.50000000000000000000e+03) (9, -9.79955003730405422857e+01) (10, 1.50000000000000000000e+03) (11, -1.03149885322063482818e+02) (12, -1.50000000000000000000e+03) (13, 5.24372883650452763504e+01) (14, 1.50000000000000000000e+03) (15, -1.47634122657948925195e+01) (16, -1.45340556919339769593e+03) (17, -1.35953407412908205742e+02) (18, -3.51015354627806402732e+02) (19, -6.97814471705076186936e+01) (20, -5.32446154403092805296e+02) (21, 1.34952523356115079878e+02) (22, 1.50000000000000000000e+03) (23, 6.33479253243022668585e+01) (24, 1.50000000000000000000e+03) (25, -8.38752046928598389286e+01) (26, -1.50000000000000000000e+03) (27, 7.92062986060885663164e+01) (28, -1.13002662629913925230e+03) (29, -6.40428610243425282533e+01) (30, 5.98672308561923571801e+01) (31, -2.43172546830549087815e+01) (32, -1.50000000000000000000e+03) (33, -1.23722558690513892543e+02) (34, -1.50000000000000000000e+03) (35, -1.09419712262587736973e+02) (36, -1.50000000000000000000e+03) (37, 4.45816808435378852948e+00) (38, -1.50000000000000000000e+03) (39, -2.69312304722398494050e+02) (40, -1.50000000000000000000e+03) (41, -1.22831544463093948139e+02) (42, -1.50000000000000000000e+03) (43, -9.30882497763051830475e+00) (44, -1.50000000000000000000e+03) (45, -1.02913475404083740727e+02) (46, -4.16521240264717278023e+02) (47, 1.56632771764307619833e+02) (48, -1.45539040316657769836e+03) (49, -1.76849258674897917842e+01) (50, -1.50000000000000000000e+03) (51, 1.09071189979741646425e+02) (52, -1.82348122259786521226e+02) (53, 6.35607195182449089543e+01) (54, -1.50000000000000000000e+03) (55, -5.91045235178430488077e+01) (56, -1.50000000000000000000e+03) (57, 1.03402835488504820205e+02) (58, -1.50000000000000000000e+03) (59, 1.92191463482160962428e+01) (60, -1.50000000000000000000e+03) (61, 7.82571784298793033940e+01) (62, -1.50000000000000000000e+03) (63, 6.06225123239996293023e+01) (64, 1.50000000000000000000e+03) (65, 2.78186260300793257727e+01) (66, -5.85563971058915740286e+02) (67, -7.08355425843542860775e+01) (68, 1.50000000000000000000e+03) (69, -1.07337502779813618758e+02) (70, -4.19709989464162092077e+01) (0, -1.50000000000000000000e+03) (1, 1.14932329331621136959e+01) (2, -1.50000000000000000000e+03) (3, 8.07602890522275629337e+01) (4, -1.50000000000000000000e+03) (5, 3.42021564688703776369e+01) (6, 1.50000000000000000000e+03) (7, -3.55812140858105365737e+01) (8, 1.50000000000000000000e+03) (9, -1.57052999802124844564e+02) (10, -1.50000000000000000000e+03) (11, 3.43222848874586787815e+01) (12, 1.50000000000000000000e+03) (13, 7.65130590867277362577e+01) (14, -1.50000000000000000000e+03) (15, 1.83973013323262193808e+02) (16, 1.45526424402295174332e+03) (17, 8.90876674917039821366e+01) (18, 2.09916522683310773800e+02) (19, -5.26890243139379919057e+01) (20, 1.96734635332239719219e+02) (21, -6.32487067658342851928e+01) (22, -1.50000000000000000000e+03) (23, -2.69709694452564932021e+01) (24, -1.50000000000000000000e+03) (25, 4.38347227534722492237e+01) (26, 1.50000000000000000000e+03) (27, -5.84974577463527083410e+01) (28, 5.33305817593544134070e+02) (29, 9.42796443564348578548e+01) (30, 1.50000000000000000000e+03) (31, 1.28368680795216523194e+01) (32, 1.50000000000000000000e+03) (33, 2.95678356264068952441e+02) (34, 1.50000000000000000000e+03) (35, 3.05016912926150610019e+02) (36, 1.50000000000000000000e+03) (37, 1.46643786475949298165e+02) (38, 1.50000000000000000000e+03) (39, 7.39128314607538925429e+01) (40, 1.50000000000000000000e+03) (41, -1.01479032640287243794e+02) (42, 1.50000000000000000000e+03) (43, 1.03613492207499945152e+02) (44, 1.50000000000000000000e+03) (45, 1.78486913433170172993e+02) (46, 1.50000000000000000000e+03) (47, -3.97527617953304925891e+01) (48, 1.50000000000000000000e+03) (49, 2.67401407381415367581e+02) (50, 1.50000000000000000000e+03) (51, 1.73435169044765729041e+02) (52, 1.50000000000000000000e+03) (53, 1.23907861070956712979e+02) (54, 1.50000000000000000000e+03) (55, 2.39014801660997278532e+02) (56, 1.50000000000000000000e+03) (57, 1.56318264463264114283e+02) (58, 1.50000000000000000000e+03) (59, -5.11267346721444795321e+01) (60, 1.50000000000000000000e+03) (61, -8.52745044264164704373e+01) (62, 1.50000000000000000000e+03) (63, -1.19171005963630889823e+02) (64, -1.50000000000000000000e+03) (65, -3.06754284679476789677e+01) (66, 4.12696270922908411194e+02) (67, 1.59113160012017349487e+01) (68, -1.50000000000000000000e+03) (69, -9.96139346287918669987e+01) (70, 1.50355316493846856929e+02) (0, -1.50000000000000000000e+03) (1, -3.32815071440109067069e+00) (2, -1.50000000000000000000e+03) (3, 1.22757177348140913864e+02) (4, -1.50000000000000000000e+03) (5, 1.34087978827489848754e+02) (6, 9.70395352535946585704e+02) (7, 8.70129744815913497291e+00) (8, 1.50000000000000000000e+03) (9, 5.05407755896054737832e+01) (10, -1.50000000000000000000e+03) (11, -9.97985245109570513478e+01) (12, 1.50000000000000000000e+03) (13, 3.20235218033175357277e+01) (14, -1.50000000000000000000e+03) (15, 3.00631605269143626913e+01) (16, 1.00623210136608051357e+02) (17, 7.39288362969154100313e+00) (18, -6.37254917324356000563e+01) (19, 1.14035952939611071599e+01) (20, 2.35492046349784970971e+02) (21, 5.79359453013635246066e+01) (22, -1.50000000000000000000e+03) (23, 5.23182275100631102305e+01) (24, -1.50000000000000000000e+03) (25, -1.18393117630484638880e+02) (26, 1.50000000000000000000e+03) (27, 1.52371100422572425259e+02) (28, 4.28912425292832892865e+02) (29, -1.50368348666327818819e+02) (30, 4.03363806958399322866e+02) (31, -1.11410380422789749844e+01) (32, 1.50000000000000000000e+03) (33, -2.91952916295268096292e+02) (34, 1.44466442013827554547e+03) (35, 3.73419233558900529601e+01) (36, 1.50000000000000000000e+03) (37, -2.54929398254600357632e+02) (38, 1.50000000000000000000e+03) (39, 5.70122029210106973096e+01) (40, 4.46330013952345836969e+02) (41, -8.46816622557979741259e+01) (42, 1.47814812695827959033e+03) (43, 6.60220768232447881019e+01) (44, 1.50000000000000000000e+03) (45, -8.35071256391558307541e+01) (46, 6.03883617806742904577e+02) (47, 8.15754509159519791694e+00) (48, 1.50000000000000000000e+03) (49, 3.60538329488353213037e+01) (50, 1.50000000000000000000e+03) (51, -1.36893527414362552008e+02) (52, 1.50000000000000000000e+03) (53, -1.03193098977944501371e+02) (54, 1.22822942734233288320e+03) (55, 9.18129220049927141645e+00) (56, 1.50000000000000000000e+03) (57, 1.88180679737929708040e+01) (58, 1.29682502117180320056e+03) (59, -4.14190424047761762694e+00) (60, 1.50000000000000000000e+03) (61, -4.33861344749536854692e+01) (62, 1.50000000000000000000e+03) (63, 7.95230633797216768244e+00) (64, -1.50000000000000000000e+03) (65, -1.51693097844234301874e+02) (66, 5.13193296758737460550e+02) (67, -7.43814201827704692960e+01) (68, -1.50000000000000000000e+03) (69, -2.00127041378288730300e+01) (70, 6.86348839154197349899e+01) (0, -1.50000000000000000000e+03) (1, -8.15780530580844356336e+01) (2, -1.50000000000000000000e+03) (3, 9.27920348517876725225e+00) (4, -1.50000000000000000000e+03) (5, 1.06035539632061812654e+02) (6, 5.02142454307279194836e+02) (7, 3.47738251735590564451e+00) (8, 1.50000000000000000000e+03) (9, -1.43753037710788305503e+02) (10, -1.50000000000000000000e+03) (11, -5.67234084353530576550e+01) (12, 1.50000000000000000000e+03) (13, 2.07740581550210983153e+01) (14, -1.50000000000000000000e+03) (15, 9.09255574891212319244e+01) (16, 4.28676856840183972963e+02) (17, -6.55604922233690103894e+01) (18, 2.03292730810233592820e+01) (19, -1.02394760232078397166e+02) (20, -7.24629083164032863351e+01) (21, -1.17263433961345555190e+02) (22, -1.50000000000000000000e+03) (23, -4.10425036884419469629e+00) (24, -1.50000000000000000000e+03) (25, -2.22089981481459858514e+02) (26, 1.50000000000000000000e+03) (27, -1.62690164446731557746e+02) (28, 4.16737537347083275563e+02) (29, -2.20835689255620373217e+01) (30, 1.44110500787927458077e+03) (31, 6.84836829994543307976e+01) (32, 1.50000000000000000000e+03) (33, 9.68875550125101909771e+01) (34, 1.50000000000000000000e+03) (35, 2.02670019260128384531e+01) (36, 1.50000000000000000000e+03) (37, 1.74505223371118738385e+01) (38, 1.50000000000000000000e+03) (39, -5.38668695620418560566e+01) (40, 1.35819177134437359200e+03) (41, 4.71480269073404585356e+01) (42, 1.50000000000000000000e+03) (43, -2.30821488078143744360e+02) (44, 1.50000000000000000000e+03) (45, -1.86317285239045276057e+02) (46, 1.50000000000000000000e+03) (47, 1.16671291686917925290e+02) (48, 1.50000000000000000000e+03) (49, 4.37266697307597382860e+01) (50, 1.50000000000000000000e+03) (51, -1.06822480008258182238e+02) (52, 1.50000000000000000000e+03) (53, -5.74165459360534171651e+01) (54, 1.50000000000000000000e+03) (55, -3.95290702743142077225e+01) (56, 1.50000000000000000000e+03) (57, -1.41483202981141662491e+01) (58, 1.50000000000000000000e+03) (59, -4.58479016310228288944e+01) (60, 1.50000000000000000000e+03) (61, 8.47837923272363838123e+01) (62, 1.50000000000000000000e+03) (63, -1.03261313942790835085e+02) (64, -1.50000000000000000000e+03) (65, -1.20847821102868863363e+02) (66, 1.76423283838401516732e+02) (67, -2.29692281200451731138e+01) (68, -1.50000000000000000000e+03) (69, -4.12603033989662648651e+01) (70, -8.98094085995641222553e+01) (0, 1.50000000000000000000e+03) (1, -6.72545700956988952157e+01) (2, 1.50000000000000000000e+03) (3, -1.55255320300495256447e+01) (4, 1.04122884136514198872e+03) (5, 2.02616902758765000669e+01) (6, 8.96635206304421359391e+01) (7, -2.64516205756621403111e+01) (8, -1.50000000000000000000e+03) (9, 1.86427802421172117420e+01) (10, 8.46686531550388849610e+02) (11, 6.94104165972366757842e+01) (12, -1.50000000000000000000e+03) (13, -1.01828545360167808553e+02) (14, 1.50000000000000000000e+03) (15, 7.25138044533432424288e+00) (16, -1.31270308056578141986e+03) (17, 9.20811226482127977988e+01) (18, -1.49290363873458386479e+03) (19, -4.40546242756861374801e+01) (20, -4.63469358968102824292e+02) (21, -2.96941261827187616973e+01) (22, 1.50000000000000000000e+03) (23, 1.81629706666091863099e+02) (24, 1.50000000000000000000e+03) (25, 3.53540618191062847586e+01) (26, -1.50000000000000000000e+03) (27, 5.63955685087009044310e+01) (28, -1.50000000000000000000e+03) (29, 9.28679937260849470704e+01) (30, -1.50000000000000000000e+03) (31, -8.30963713924972893210e+01) (32, -1.50000000000000000000e+03) (33, -1.81964118157757809513e+02) (34, -1.50000000000000000000e+03) (35, -1.18340010459117284114e+01) (36, -1.50000000000000000000e+03) (37, 9.15504497697202879181e+01) (38, -1.50000000000000000000e+03) (39, -6.57895901717855053903e+01) (40, -1.50000000000000000000e+03) (41, -5.68083660712784563884e+01) (42, -1.50000000000000000000e+03) (43, -1.03138726657738786230e+02) (44, -1.50000000000000000000e+03) (45, -9.98020282794178541508e+01) (46, -1.50000000000000000000e+03) (47, -9.85475462074078762953e+01) (48, -1.25093457168046211336e+03) (49, 5.66388952495118047636e+01) (50, -1.50000000000000000000e+03) (51, -1.07268027462073103351e+01) (52, -1.50000000000000000000e+03) (53, 1.10281105871984394184e+02) (54, -5.18458911120371681136e+02) (55, 3.25230182181610757652e+02) (56, -1.50000000000000000000e+03) (57, 1.65651944737784987183e+02) (58, -3.40999231657835593978e+02) (59, -7.81138656029329467856e+01) (60, -1.50000000000000000000e+03) (61, 1.04612887672749891976e+02) (62, -1.50000000000000000000e+03) (63, -5.94483513926697995089e+01) (64, 1.50000000000000000000e+03) (65, 2.49910122649133334960e+01) (66, -8.41845757617266258421e+02) (67, 8.53389407301527427308e+01) (68, 1.50000000000000000000e+03) (69, 9.52259108823848521297e+01) (70, -8.89799162130609317956e+01) (0, -1.50000000000000000000e+03) (1, -4.60914756689667726164e+01) (2, -1.50000000000000000000e+03) (3, 4.68407391483357997686e+01) (4, -1.50000000000000000000e+03) (5, 2.47795944247606342969e+02) (6, 1.36148241824403407918e+03) (7, -4.60281762484480125863e+01) (8, 1.50000000000000000000e+03) (9, -1.46655729819450414197e+02) (10, -1.50000000000000000000e+03) (11, 1.20354287595956463974e+02) (12, 1.50000000000000000000e+03) (13, 1.41801555145649416545e+02) (14, -1.50000000000000000000e+03) (15, -1.29258789087343757274e+02) (16, 1.45526424402295174332e+03) (17, 1.16222690547235725234e+01) (18, 2.44684528054404580644e+02) (19, -1.05400639159428905600e+02) (20, 3.24690979936733413069e+02) (21, -8.81629041485958175883e+00) (22, -1.50000000000000000000e+03) (23, 1.18096887195897181755e+02) (24, -1.50000000000000000000e+03) (25, 1.84696877144150136019e+02) (26, 1.50000000000000000000e+03) (27, -3.77654759489107050285e+01) (28, 6.52174256552666861353e+02) (29, -5.63855798252473849885e+00) (30, 1.50000000000000000000e+03) (31, 7.96459833007902062718e+01) (32, 1.50000000000000000000e+03) (33, 1.41460360821459204317e+02) (34, 1.50000000000000000000e+03) (35, -4.47099491538608333485e+01) (36, 1.50000000000000000000e+03) (37, 5.20689676840877666564e+01) (38, 1.50000000000000000000e+03) (39, 3.11098744281190153771e+00) (40, 1.50000000000000000000e+03) (41, -5.82593251060486707615e+01) (42, 1.50000000000000000000e+03) (43, -5.22109494383328254230e+01) (44, 1.50000000000000000000e+03) (45, 1.86692121882225485763e+01) (46, 1.50000000000000000000e+03) (47, -6.19441784184499084631e+01) (48, 1.50000000000000000000e+03) (49, 1.27301564816606017416e+02) (50, 1.50000000000000000000e+03) (51, -1.54061546993394244964e+02) (52, 6.53351169533289748870e+02) (53, -8.41325965152128674163e+01) (54, 1.50000000000000000000e+03) (55, 2.01361124358317312044e+02) (56, 1.50000000000000000000e+03) (57, 9.72470389562982973075e+01) (58, 1.50000000000000000000e+03) (59, 7.87150911823753745011e+01) (60, 1.50000000000000000000e+03) (61, 8.75527159660738192315e+01) (62, 1.50000000000000000000e+03) (63, 7.58747244244300844684e+01) (64, -1.50000000000000000000e+03) (65, -1.12326439076171014086e+00) (66, 5.94718502978569858897e+02) (67, -8.59390831263544363594e+00) (68, -1.50000000000000000000e+03) (69, -1.18139255887952785429e+02) (70, -3.73816168957110193105e+01) (71, -2.83247707550396569331e+02) (72, 1.50000000000000000000e+03) (73, 1.92148848626982129417e+01) (74, -3.86106943008106924253e+01) (75, -1.90044146424303448839e+02) (76, 2.94644278330008324573e+00) (77, -5.24852517385567622910e+01) (78, 4.29321472487491320180e+01) (79, 2.29139716914540114701e+00) (80, -8.74848302320331754345e+01) (81, 9.17733701445841809630e+00) (82, -2.90128983454909494810e+01) (83, -6.25898798676695591325e+01) (84, 5.02330308182821951846e+01) (85, -5.93933390235645148891e+01) (86, 1.10649437282427854257e+02) (87, 7.04158273906925415986e+01) (88, 1.50000000000000000000e+03) (89, -1.34313402770404954900e+00) (90, 8.53869387430179074272e+01) (91, 4.55129054525945875298e+01) 
