FANN_FLO_2.1
num_layers=3
learning_rate=0.700000
connection_rate=1.000000
network_type=0
learning_momentum=0.000000
training_algorithm=2
train_error_function=1
train_stop_function=0
cascade_output_change_fraction=0.010000
quickprop_decay=-0.000100
quickprop_mu=1.750000
rprop_increase_factor=1.001000
rprop_decrease_factor=0.333300
rprop_delta_min=0.000000
rprop_delta_max=50.000000
rprop_delta_zero=0.100000
cascade_output_stagnation_epochs=12
cascade_candidate_change_fraction=0.010000
cascade_candidate_stagnation_epochs=12
cascade_max_out_epochs=150
cascade_max_cand_epochs=150
cascade_num_candidate_groups=2
bit_fail_limit=3.49999999999999977796e-01
cascade_candidate_limit=1.00000000000000000000e+03
cascade_weight_multiplier=4.00000000000000022204e-01
cascade_activation_functions_count=10
cascade_activation_functions=3 5 7 8 10 11 14 15 16 17 
cascade_activation_steepnesses_count=4
cascade_activation_steepnesses=2.50000000000000000000e-01 5.00000000000000000000e-01 7.50000000000000000000e-01 1.00000000000000000000e+00 
layer_sizes=71 11 2 
scale_included=0
neurons (num_inputs, activation_function, activation_steepness)=(0, 0, 0.00000000000000000000e+00) (0, 0, 0.00000000000000000000e+00) (0, 0, 0.00000000000000000000e+00) (0, 0, 0.00000000000000000000e+00) (0, 0, 0.00000000000000000000e+00) (0, 0, 0.00000000000000000000e+00) (0, 0, 0.00000000000000000000e+00) (0, 0, 0.00000000000000000000e+00) (0, 0, 0.00000000000000000000e+00) (0, 0, 0.00000000000000000000e+00) (0, 0, 0.00000000000000000000e+00) (0, 0, 0.00000000000000000000e+00) (0, 0, 0.00000000000000000000e+00) (0, 0, 0.00000000000000000000e+00) (0, 0, 0.00000000000000000000e+00) (0, 0, 0.00000000000000000000e+00) (0, 0, 0.00000000000000000000e+00) (0, 0, 0.00000000000000000000e+00) (0, 0, 0.00000000000000000000e+00) (0, 0, 0.00000000000000000000e+00) (0, 0, 0.00000000000000000000e+00) (0, 0, 0.00000000000000000000e+00) (0, 0, 0.00000000000000000000e+00) (0, 0, 0.00000000000000000000e+00) (0, 0, 0.00000000000000000000e+00) (0, 0, 0.00000000000000000000e+00) (0, 0, 0.00000000000000000000e+00) (0, 0, 0.00000000000000000000e+00) (0, 0, 0.00000000000000000000e+00) (0, 0, 0.00000000000000000000e+00) (0, 0, 0.00000000000000000000e+00) (0, 0, 0.00000000000000000000e+00) (0, 0, 0.00000000000000000000e+00) (0, 0, 0.00000000000000000000e+00) (0, 0, 0.00000000000000000000e+00) (0, 0, 0.00000000000000000000e+00) (0, 0, 0.00000000000000000000e+00) (0, 0, 0.00000000000000000000e+00) (0, 0, 0.00000000000000000000e+00) (0, 0, 0.00000000000000000000e+00) (0, 0, 0.00000000000000000000e+00) (0, 0, 0.00000000000000000000e+00) (0, 0, 0.00000000000000000000e+00) (0, 0, 0.00000000000000000000e+00) (0, 0, 0.00000000000000000000e+00) (0, 0, 0.00000000000000000000e+00) (0, 0, 0.00000000000000000000e+00) (0, 0, 0.00000000000000000000e+00) (0, 0, 0.00000000000000000000e+00) (0, 0, 0.00000000000000000000e+00) (0, 0, 0.00000000000000000000e+00) (0, 0, 0.00000000000000000000e+00) (0, 0, 0.00000000000000000000e+00) (0, 0, 0.00000000000000000000e+00) (0, 0, 0.00000000000000000000e+00) (0, 0, 0.00000000000000000000e+00) (0, 0, 0.00000000000000000000e+00) (0, 0, 0.00000000000000000000e+00) (0, 0, 0.00000000000000000000e+00) (0, 0, 0.00000000000000000000e+00) (0, 0, 0.00000000000000000000e+00) (0, 0, 0.00000000000000000000e+00) (0, 0, 0.00000000000000000000e+00) (0, 0, 0.00000000000000000000e+00) (0, 0, 0.00000000000000000000e+00) (0, 0, 0.00000000000000000000e+00) (0, 0, 0.00000000000000000000e+00) (0, 0, 0.00000000000000000000e+00) (0, 0, 0.00000000000000000000e+00) (0, 0, 0.00000000000000000000e+00) (0, 0, 0.00000000000000000000e+00) (71, 4, 5.00000000000000000000e-01) (71, 4, 5.00000000000000000000e-01) (71, 4, 5.00000000000000000000e-01) (71, 4, 5.00000000000000000000e-01) (71, 4, 5.00000000000000000000e-01) (71, 4, 5.00000000000000000000e-01) (71, 4, 5.00000000000000000000e-01) (71, 4, 5.00000000000000000000e-01) (71, 4, 5.00000000000000000000e-01) (71, 4, 5.00000000000000000000e-01) (0, 4, 5.00000000000000000000e-01) (11, 4, 9.00000000000000022204e-01) (0, 4, 9.00000000000000022204e-01) 
connections (connected_to_neuron, weight)=(0, -1.50000000000000000000e+03) (1, 4.97108242320908075840e+01) (2, -1.50000000000000000000e+03) (3, 7.95646274715524093324e+00) (4, -1.50000000000000000000e+03) (5, -3.82332825389527428683e+01) (6, -7.79862841637355813873e+02) (7, -4.15248659746218820032e+01) (8, 1.50000000000000000000e+03) (9, -4.63715704561526891325e+01) (10, -1.50000000000000000000e+03) (11, 1.53146964093741750901e+01) (12, 1.50000000000000000000e+03) (13, -5.26683875919717170433e+00) (14, -1.50000000000000000000e+03) (15, 5.54529695237636985894e+01) (16, 4.91067197925306189177e+01) (17, 2.48713002587970706259e+01) (18, 8.71682839379665210799e+01) (19, 6.38017924061515806500e-01) (20, 1.87238081690662284018e+02) (21, -4.59528863779425744696e+00) (22, -1.50000000000000000000e+03) (23, -2.59274129543482274585e+01) (24, -1.50000000000000000000e+03) (25, -1.49717130418300978789e+01) (26, 1.50000000000000000000e+03) (27, 5.78570752273727393344e+01) (28, 1.50000000000000000000e+03) (29, 8.48153375480140603315e+00) (30, -1.43902882774469526339e+03) (31, -2.23491055853257307717e+01) (32, 2.06374473647863283077e+02) (33, -4.06421795176106286362e+01) (34, 3.24990275947838426873e+02) (35, 2.43194057807542662886e+01) (36, 1.50000000000000000000e+03) (37, -2.75197693528182156797e+01) (38, -1.39723469908372976533e+03) (39, -9.30955514202183032069e+00) (40, 6.56471795380158141597e+02) (41, 1.27359099283983958628e+01) (42, 1.50000000000000000000e+03) (43, -5.65048722571243757784e+01) (44, -1.20797483492995661436e+03) (45, -2.96547393763472975081e+01) (46, 1.50000000000000000000e+03) (47, -1.74383067938605194058e+01) (48, 1.50000000000000000000e+03) (49, 1.06668741787629144824e+02) (50, 1.50000000000000000000e+03) (51, 2.16078066963596882033e+01) (52, 1.50000000000000000000e+03) (53, 3.58769747009727790754e+00) (54, 1.50000000000000000000e+03) (55, 3.25459385917645320774e+01) (56, 1.50000000000000000000e+03) (57, -3.37944065136019347051e+01) (58, 8.08131692094654681568e+02) (59, 4.10523432147412350446e+01) (60, 1.50000000000000000000e+03) (61, 2.75500133888393747839e+01) (62, -4.66248187083782283935e+01) (63, 2.87656912348547457725e+01) (64, -1.50000000000000000000e+03) (65, -3.18003157715627793323e+01) (66, 1.62443250147798266880e+02) (67, 4.69549667450079013520e+01) (68, -1.50000000000000000000e+03) (69, 3.53872021375979795010e+00) (70, 2.74431243479002162644e+01) (0, -1.50000000000000000000e+03) (1, 1.38806311374357775890e+01) (2, -1.50000000000000000000e+03) (3, -1.01627800801970344935e+01) (4, -1.50000000000000000000e+03) (5, -1.66804788571451156898e+00) (6, -1.50000000000000000000e+03) (7, 1.78475958912196368544e+01) (8, 1.03589521929752095275e+03) (9, -6.09107539838922712461e-02) (10, -1.50000000000000000000e+03) (11, -2.15402343438769960926e+01) (12, 1.50000000000000000000e+03) (13, 3.48385060452446282397e+01) (14, -1.50000000000000000000e+03) (15, -4.04012267165452882978e+01) (16, -5.96872097598717914479e+01) (17, 1.29158583552980998910e+00) (18, -4.32915250489335861062e+01) (19, 2.86977521586368489181e+01) (20, -8.43618364979828783135e+00) (21, 3.93045135749684648729e+00) (22, -1.50000000000000000000e+03) (23, -2.43154262351700722888e+01) (24, -1.50000000000000000000e+03) (25, 1.00061061125594097376e+01) (26, 1.50000000000000000000e+03) (27, -1.15536581090665269045e+01) (28, 5.18434170810684349817e+02) (29, 1.48915493842369350830e+01) (30, 3.17473761982431597062e+02) (31, -4.64955815337628735051e+01) (32, 9.61781126876885394950e+01) (33, -4.22909726350300374520e+00) (34, 2.52436161574070411007e+02) (35, 3.03193776255811400233e+01) (36, 1.50000000000000000000e+03) (37, -3.17290379626034413363e+00) (38, 7.83952586962613622745e+02) (39, 1.11686216225978292016e+01) (40, 1.92273197252456412798e+02) (41, 3.18077393024657339993e+01) (42, -1.26629073151117772511e+01) (43, -3.17836388251382224723e+01) (44, -8.04956390525937649727e+02) (45, 3.85958811120805620476e+01) (46, 5.03545367706497959404e+00) (47, 7.76626266756544669789e+00) (48, 1.50000000000000000000e+03) (49, 1.47834696559607756683e+01) (50, -3.16833137650717127087e+01) (51, 2.17422389085378995333e+01) (52, 1.50000000000000000000e+03) (53, -2.55040845366705895003e+01) (54, 2.14396134610349520244e+01) (55, -5.95588465964389413010e-01) (56, 1.50000000000000000000e+03) (57, 3.91747102067771493239e+01) (58, -1.53135701766568352866e+01) (59, 1.76648592963725614702e+00) (60, 1.50000000000000000000e+03) (61, 3.38961168775799777109e+01) (62, 2.44492771678091713738e+01) (63, -2.51529904936865911225e+01) (64, -1.50000000000000000000e+03) (65, -3.88832973956702048213e+01) (66, 7.56070298833626424084e+01) (67, 1.02272398124880261605e+01) (68, -1.50000000000000000000e+03) (69, -4.30813839901929611642e+01) (70, -1.99797500999535628807e+01) (0, -1.50000000000000000000e+03) (1, 9.46579757744694738619e+00) (2, -1.50000000000000000000e+03) (3, -8.45747255447540702278e-01) (4, -1.29581930846812247182e+03) (5, 2.68746192369755867446e+01) (6, -3.79234228947605799931e+02) (7, 9.06809962203545261161e+00) (8, 1.39263662796409698785e+03) (9, 1.58534409964980778085e+01) (10, -1.41033160157129782419e+03) (11, 7.70560767691086709874e+01) (12, 1.50000000000000000000e+03) (13, 6.00205503205254231602e+00) (14, -1.50000000000000000000e+03) (15, -4.68589506334289183087e+01) (16, 2.22628301984524412660e+01) (17, -5.50943751274501067883e+01) (18, 5.28972788879062036926e+01) (19, -4.65403712449674422658e+00) (20, 1.21161385093323147544e+02) (21, 4.88195787742564348832e+01) (22, -1.50000000000000000000e+03) (23, -7.13892360657905413746e+01) (24, -1.50000000000000000000e+03) (25, 3.66405836764842784969e-01) (26, 1.50000000000000000000e+03) (27, -1.66741406561551741561e+01) (28, 1.50000000000000000000e+03) (29, 6.29074430811031093391e-01) (30, -8.90748207825346526079e+02) (31, 1.15940664797698751443e+01) (32, 7.39738133658555739203e+02) (33, 1.45633672170524022249e+01) (34, 1.31466427047640331693e+03) (35, -3.90995263468524134609e+00) (36, 1.50000000000000000000e+03) (37, 3.06085452114701865867e+01) (38, -1.39723469908372976533e+03) (39, -9.32566240096314515995e+01) (40, 6.54409425079865286534e+02) (41, 3.66085591302177277839e+01) (42, 1.50000000000000000000e+03) (43, 4.74238878748594316903e+01) (44, -8.13909306837411122615e+02) (45, -2.66826497048317285987e+01) (46, 1.50000000000000000000e+03) (47, -2.70565457935593123295e+01) (48, 1.50000000000000000000e+03) (49, 1.03278406576659335769e+02) (50, 1.50000000000000000000e+03) (51, -6.58780893647052039341e+01) (52, 1.50000000000000000000e+03) (53, -7.38600808556105619118e+01) (54, 1.50000000000000000000e+03) (55, 3.82004014089719179381e+00) (56, 1.50000000000000000000e+03) (57, -4.98951965790014568825e+01) (58, 1.50000000000000000000e+03) (59, 5.16098872959044996378e+01) (60, 1.50000000000000000000e+03) (61, -2.20012320403049059792e+01) (62, 2.98276215534625599446e+01) (63, 1.74512282156874007910e+01) (64, -1.50000000000000000000e+03) (65, 3.94099699011729924791e+01) (66, 6.75227904004833447971e+01) (67, 1.03025402642088295124e+01) (68, -1.50000000000000000000e+03) (69, 5.10083128604290720887e+01) (70, 2.85036356330533955372e+01) (0, 1.50000000000000000000e+03) (1, 2.84123734750397112236e+01) (2, 1.50000000000000000000e+03) (3, 7.40920794641510305212e+00) (4, 1.01257610702326445562e+02) (5, -1.48420326275001512872e-01) (6, -5.40769329304139603209e+01) (7, 1.63140516707739102742e+01) (8, -5.55521755570289201387e+02) (9, 1.09096252009110159520e+01) (10, 5.43148955984368697614e+01) (11, 1.57433804601654312449e+01) (12, -1.50000000000000000000e+03) (13, 2.32271607302159104336e+01) (14, 1.50000000000000000000e+03) (15, -1.18501052083688662719e+01) (16, -1.90379164384839967283e+01) (17, -8.73301992237254687268e+00) (18, -1.11751077308745045968e+01) (19, 2.65725309968053080567e+00) (20, -4.71668921191622487754e+01) (21, 1.18665339622298482425e+01) (22, 5.33722368574435449773e+02) (23, -2.80642105642906969365e+00) (24, 5.05022342531516301278e+02) (25, 2.23539565713325174556e+01) (26, -1.12652078232796043267e+03) (27, 1.97380473954767374778e+01) (28, -1.75214761905414292187e+02) (29, 5.80053896015602621361e+00) (30, -1.40636794198373902276e+01) (31, 1.78528191773456867963e+00) (32, -2.09843279161844321834e+02) (33, 6.62552678877624678933e+00) (34, -3.63297355065049771383e+02) (35, 2.31201704195824291332e+01) (36, 9.50305722549705365054e+01) (37, -4.48588838139911860736e+00) (38, 7.84675573924916704982e+01) (39, 3.31363251280458559478e+00) (40, -1.57907537984435236922e+02) (41, 1.21969202157135256925e+01) (42, -4.12198735289548068295e+01) (43, 3.84997027583004758355e+00) (44, -1.50000000000000000000e+03) (45, 1.22725485342417304224e+01) (46, 7.31396955801175181477e+01) (47, -2.73626102844470286968e+00) (48, -3.66363644367298263660e+02) (49, -4.74221336555332761975e+00) (50, 1.80843529648135131538e+02) (51, 1.21308589437653004950e+01) (52, -1.32053841592528158344e+02) (53, 1.60510346277095585776e+01) (54, 1.41282517928745026126e+01) (55, 1.40938699989241609245e+01) (56, 4.03351668361795532292e+02) (57, 1.49020803397505758880e+01) (58, 3.71902792627529805713e+01) (59, -4.38201420850829048703e+00) (60, -6.10286857473344525715e+02) (61, -9.92711470205393631261e+00) (62, -4.95618748986934463119e+02) (63, -2.32636737284676904380e+01) (64, 1.50000000000000000000e+03) (65, -1.46183035344601268690e+01) (66, -6.73947858120940139770e+01) (67, -8.54786653167677989984e+00) (68, 1.50000000000000000000e+03) (69, -2.49733852008634151787e+01) (70, -2.19788535693936886162e+01) (0, -1.50000000000000000000e+03) (1, 8.07968288041344351313e+00) (2, -1.50000000000000000000e+03) (3, -2.93718730541664108102e+01) (4, -1.50000000000000000000e+03) (5, -1.22020554647808250337e+01) (6, -2.24182243560067576027e+02) (7, -5.80224759298536163499e+00) (8, 1.50000000000000000000e+03) (9, 2.79837414772681931652e+01) (10, -9.00675959086310740531e+02) (11, -7.24136361442031102342e+01) (12, 1.50000000000000000000e+03) (13, -1.72791004258505829227e+01) (14, -1.50000000000000000000e+03) (15, -2.20767528011502918162e+01) (16, -1.62786069842868696966e+00) (17, -1.82827719449935415241e+01) (18, 4.23567935874299408283e+01) (19, 4.21319338044487423645e+01) (20, 8.76268718004041886616e+01) (21, -4.89776438734220231908e+00) (22, -6.14246714890925318286e+02) (23, 3.14320085595696880887e+01) (24, -4.73191069407823022175e+02) (25, 2.98581489705634446352e+01) (26, 1.50000000000000000000e+03) (27, -2.63812799685523700077e+01) (28, 1.50000000000000000000e+03) (29, 3.26626301224117767674e+01) (30, -3.95774967527821175395e+01) (31, -1.17339979924336166306e+01) (32, 1.78962678493491011977e+02) (33, -2.86148964897450497347e+01) (34, 4.14488141544658219573e+02) (35, -5.22380807474303097138e+01) (36, 1.50000000000000000000e+03) (37, -3.99305367771027590607e+01) (38, -1.29083151170877431468e+03) (39, -1.59287093132880329449e+02) (40, 2.55924831572967747206e+02) (41, 2.29372118113351071145e+01) (42, 1.50000000000000000000e+03) (43, 3.89701228192850592791e+01) (44, 5.98333710920473208716e+02) (45, -1.84410104960349400471e+02) (46, 1.50000000000000000000e+03) (47, -4.89659028895079586619e+01) (48, 1.50000000000000000000e+03) (49, 1.40192621001425180793e+02) (50, 1.50000000000000000000e+03) (51, -1.44989264998592890521e+01) (52, 1.50000000000000000000e+03) (53, -5.95360302958556264485e+00) (54, 1.50000000000000000000e+03) (55, -4.43739022216822220912e+01) (56, 1.50000000000000000000e+03) (57, 7.48996893437095678792e+01) (58, 5.49579121185049643827e+02) (59, -3.45790702778014349406e+01) (60, 1.50000000000000000000e+03) (61, 3.13970194277597052235e+01) (62, -1.01460295284759940415e+01) (63, 2.40768164788922476305e+01) (64, -1.50000000000000000000e+03) (65, -4.72458314592134627219e+01) (66, 5.64977493847953127215e+01) (67, 2.08029503828272908095e+01) (68, -1.50000000000000000000e+03) (69, -1.14587182939354292444e+02) (70, -5.62989809174603692554e+01) (0, 1.50000000000000000000e+03) (1, -1.73705605427039486699e+01) (2, 1.50000000000000000000e+03) (3, 3.77570089169529126139e+01) (4, 1.50000000000000000000e+03) (5, -1.39641252665124238064e+01) (6, 7.44813043384120192059e+02) (7, 1.76579808171722838495e+01) (8, -1.50000000000000000000e+03) (9, 7.30276271153504641376e+00) (10, 1.50000000000000000000e+03) (11, -1.60284934285266835730e+01) (12, -8.77470597830817808926e+01) (13, -1.47324101509094713691e+01) (14, 1.50000000000000000000e+03) (15, -1.02514884845307001626e+01) (16, -1.24196183635694623604e+01) (17, 1.11375647957248613551e+01) (18, -3.41191545244041236629e+01) (19, 2.10890781652946799340e+01) (20, -9.17695527197666507391e+01) (21, 1.66466702870490053101e+01) (22, 1.50000000000000000000e+03) (23, -2.45158996446758443710e+01) (24, 1.50000000000000000000e+03) (25, -4.59305166603873402664e+01) (26, -1.50000000000000000000e+03) (27, -1.71160551411260506427e+01) (28, -3.21975413097192415535e+01) (29, 5.16924845040229072879e+01) (30, -6.67528965578850261409e+02) (31, 3.10473932000243957319e+00) (32, -2.75051547072528649096e+02) (33, 5.18654874589271912555e+01) (34, -1.15044225440563559459e+03) (35, 2.33509414036093829736e+01) (36, -1.50000000000000000000e+03) (37, -4.55427542926081656560e+01) (38, 1.39983152779924807874e+03) (39, 3.67292933838040482897e+01) (40, -6.96429338472283347983e+02) (41, 1.41635349472096407908e+01) (42, -1.50000000000000000000e+03) (43, 5.77461023880327459779e+01) (44, 1.21019992795052849033e+03) (45, -1.30471191852670571620e+01) (46, -3.96843064188565676886e+02) (47, 6.91142707448808923942e+00) (48, -1.50000000000000000000e+03) (49, 2.93216968683253220718e+01) (50, -1.02331666306194267690e+03) (51, 1.96600447865070684372e+01) (52, -1.50000000000000000000e+03) (53, -1.15259438799178788315e+01) (54, -1.50000000000000000000e+03) (55, 1.18315221075705938603e+01) (56, -1.50000000000000000000e+03) (57, -3.18139782916238829102e+01) (58, -1.50000000000000000000e+03) (59, 1.27528641358307428533e+01) (60, -1.50000000000000000000e+03) (61, -7.86092461511747586655e+00) (62, -1.54999267925047092831e+01) (63, -3.10259217251607530841e+01) (64, 1.50000000000000000000e+03) (65, 4.68880525581132712176e+00) (66, -5.14086016919156776339e+01) (67, 3.70287144840276860602e-01) (68, 1.50000000000000000000e+03) (69, -2.55648793140662533574e+01) (70, 1.23299636338262583735e+01) (0, 1.50000000000000000000e+03) (1, 1.27464047382403418140e+01) (2, 1.50000000000000000000e+03) (3, -2.52531437150357263022e+01) (4, 7.53604897531301816116e+01) (5, 9.44354675656668085537e+00) (6, 5.57966302389960659980e+01) (7, -3.07302002527111604024e+01) (8, -1.16557968384462697031e+03) (9, -1.30520422833475997493e+01) (10, 1.50000000000000000000e+03) (11, 2.64838524857555448477e+01) (12, -1.50000000000000000000e+03) (13, -4.65461156743506521138e+01) (14, 1.50000000000000000000e+03) (15, 3.25851276672673684232e+00) (16, -3.56376082618919420852e+00) (17, 5.43157945073623515952e+00) (18, -4.25914941367262258609e+01) (19, -1.42710356838019212233e+01) (20, -1.97343129638705704565e+02) (21, 3.25344392682736538447e+00) (22, 1.50000000000000000000e+03) (23, -2.90019409444374254292e+01) (24, 1.50000000000000000000e+03) (25, 1.20968540533840140938e+01) (26, -1.50000000000000000000e+03) (27, 8.50391736174104551083e+00) (28, -9.78693367804074568994e+02) (29, -1.37492046667401925930e+01) (30, -6.17948500092844142273e+02) (31, -5.43160400074544358340e-01) (32, -2.84129346367330867906e+02) (33, -1.41761439256219325955e+01) (34, -1.49604264234245101761e+03) (35, 9.05170560945125401986e+00) (36, -7.73837864607867572886e+02) (37, 1.36755680712130605059e+01) (38, 1.10331782755046356215e+03) (39, 3.87286015721065055573e+01) (40, 1.32037112341586492903e+02) (41, 1.60031667128248784593e+01) (42, -1.50000000000000000000e+03) (43, -2.45883609120469017739e+01) (44, 1.21019992795052849033e+03) (45, 1.78467246085096249431e+01) (46, -1.50000000000000000000e+03) (47, -1.98535188306688290538e+01) (48, -1.50000000000000000000e+03) (49, 1.28032217803057406513e+01) (50, 8.45621428144346282352e+02) (51, -5.03803457069956124315e+01) (52, -1.50000000000000000000e+03) (53, -5.84750831504061778787e+01) (54, -1.50000000000000000000e+03) (55, -3.07675195097975553438e+01) (56, -1.50000000000000000000e+03) (57, 1.37269804269135740071e+01) (58, 2.87744578856576424641e+02) (59, -2.19716281810213338588e+01) (60, -1.50000000000000000000e+03) (61, 1.36458680703832602177e+01) (62, 2.23867783811141585204e+00) (63, 4.12164580233417012778e+01) (64, 1.50000000000000000000e+03) (65, -2.23741020432827966147e+01) (66, -8.35168993975656945850e+01) (67, 3.99800822072611339308e+01) (68, 1.50000000000000000000e+03) (69, 5.75868354567171749636e+01) (70, 2.63844640337251945539e+00) (0, -1.50000000000000000000e+03) (1, -5.26173689059354430242e+01) (2, -1.50000000000000000000e+03) (3, -1.64811075790330008317e+00) (4, -1.50000000000000000000e+03) (5, 1.55654970811221833316e+01) (6, 7.09914000583562341262e+01) (7, -8.83708286806112397471e+00) (8, 1.16252092747910523940e+03) (9, -4.20261748460310435860e+00) (10, -1.50000000000000000000e+03) (11, -2.40219101761312892052e+01) (12, 1.50000000000000000000e+03) (13, 9.46882332160047646141e+00) (14, -1.50000000000000000000e+03) (15, -4.16724739725682624680e+01) (16, 4.67704702769297711029e+01) (17, -2.75198985230718093931e+01) (18, -5.05119162315615444214e+00) (19, -1.84452247215209972353e+01) (20, 1.33854329966438179156e+01) (21, 3.01827489340567147735e+01) (22, -1.50000000000000000000e+03) (23, 9.69156535803843688370e+00) (24, -1.50000000000000000000e+03) (25, -1.65436406894497913811e+01) (26, 7.51856351388509324352e+02) (27, 4.05530212695238603260e+01) (28, 5.00717123039049113231e+02) (29, -5.02355245323361021548e+00) (30, 2.72949476430902507218e+02) (31, 1.73798628095418195016e+01) (32, 3.37246298323119788165e+02) (33, -2.61675271451678774781e+01) (34, 9.25427080099602932250e+01) (35, 9.95198377662650912612e+00) (36, 1.50000000000000000000e+03) (37, 1.03912741473775653844e+01) (38, 2.65597641624998516363e+02) (39, -8.43908074545097086627e+00) (40, 1.86026214225733127705e+02) (41, -2.88682000370487656937e+00) (42, -4.05044111123604579916e+01) (43, -1.58090208133896026332e+00) (44, 1.50000000000000000000e+03) (45, -1.22280523898234552149e+01) (46, 2.43529780559492436964e+01) (47, 2.47825010242531753590e+01) (48, 1.50000000000000000000e+03) (49, 1.23317972894747445167e+01) (50, 2.15979779101285558340e+01) (51, 1.13645422366678321424e+01) (52, -1.31472984923545723746e+01) (53, -2.48589356233911082938e+01) (54, -7.00564438577994064161e+00) (55, -2.13944851561238209570e+01) (56, 7.94234495039897012703e+01) (57, 5.22786443673516387776e+01) (58, -8.22283233235720523169e+00) (59, -5.32545195205914900782e+00) (60, 2.86716243296001266572e+02) (61, 3.09931175097298661214e+00) (62, -2.47140217731196578654e+01) (63, -7.04903987297811074342e+00) (64, -1.50000000000000000000e+03) (65, -4.55279005051512530855e-01) (66, 9.33159002942817039639e+01) (67, 1.66112059770524789215e+00) (68, -1.50000000000000000000e+03) (69, 3.20509279080293580932e+01) (70, -8.50400743011320514597e+00) (0, -1.50000000000000000000e+03) (1, 3.15084403408100754973e+01) (2, -1.50000000000000000000e+03) (3, -8.05961291098856236204e+00) (4, -1.50000000000000000000e+03) (5, -3.30018144364745751318e+01) (6, 9.30562459907989847352e+00) (7, -1.92879475094548951120e+01) (8, 2.00420691486418064642e+02) (9, -1.59834788608216076256e+01) (10, -7.84712093695048110931e+02) (11, 1.12574299459415954061e+01) (12, 1.50000000000000000000e+03) (13, 3.35312780086926087719e+00) (14, -1.50000000000000000000e+03) (15, 1.26191582474759234067e+00) (16, -2.90649834143533567499e+01) (17, 2.75111420415678367135e+01) (18, -1.22325801885756502152e+00) (19, 2.98652072469798968157e+00) (20, 7.18452000022426862103e+00) (21, 1.20412862472811550418e+01) (22, -1.50000000000000000000e+03) (23, -3.05926945169183568396e+01) (24, -1.50000000000000000000e+03) (25, 1.81392962269226529770e+01) (26, 1.50000000000000000000e+03) (27, -3.12201254658872340286e+00) (28, -4.67080133830765305447e+02) (29, 2.06837502594366817732e+00) (30, 7.13840853786250704616e+02) (31, -1.92840846075187428710e+01) (32, -3.43569021886728407367e+01) (33, -8.79862055703162759812e+00) (34, 7.23466495431339637889e+01) (35, 3.11805186160484701929e+01) (36, 1.09427054889408464078e+03) (37, 2.30137928535727418478e+01) (38, 4.39290133707604184110e+02) (39, 2.88105831963647212035e+01) (40, 6.86374614052109421891e+01) (41, 2.06438605809320208095e+01) (42, -7.88393326208113176534e+00) (43, 3.25742804556672851390e+01) (44, 6.04748120871822791855e+00) (45, 2.65229883205278973435e+01) (46, 1.23983756483028216167e+02) (47, -2.07897575765523345837e+00) (48, 1.50000000000000000000e+03) (49, 1.08473723378429482977e+01) (50, -1.97906172843236873859e+02) (51, -1.93696935149340916382e+01) (52, 2.13314924717656964503e+02) (53, 8.51780245636176047697e+00) (54, 1.08824652142058789650e+03) (55, 1.87454237753130534827e+01) (56, 8.12474147054215478647e+01) (57, -1.62052714175387428952e+01) (58, 5.68242994552272584485e+00) (59, -2.29459816272603909226e+01) (60, 4.55471423654506736511e+02) (61, -2.62631119156527681469e+01) (62, 3.16031162329023516122e+01) (63, 1.58403348958525089785e+01) (64, -1.50000000000000000000e+03) (65, 6.37574990802717511684e+00) (66, 7.35808682126778421662e+01) (67, 9.60760792787405648596e+00) (68, -1.50000000000000000000e+03) (69, -5.99058971145000285219e+00) (70, -2.64549689096215701056e+01) (0, -1.50000000000000000000e+03) (1, -3.03704453774469271821e+01) (2, -1.50000000000000000000e+03) (3, 1.07826988253702236165e+01) (4, -1.50000000000000000000e+03) (5, -1.40171851347660485487e+01) (6, -5.36264506705891108140e+02) (7, -1.09896021331042099689e+01) (8, 1.50000000000000000000e+03) (9, 7.18187162110211030353e+00) (10, -1.50000000000000000000e+03) (11, -5.05620818041941255672e+00) (12, 4.29569429847503613473e+02) (13, -4.99967483148807261273e+01) (14, -1.50000000000000000000e+03) (15, -1.38262498975233381060e+01) (16, 7.13222083798479786765e+01) (17, -6.26523155589416269606e+00) (18, -4.81161848901883626439e+00) (19, 1.94291052401995081311e+01) (20, 2.57594163051885089999e+01) (21, -4.09179592632236399652e+00) (22, -1.50000000000000000000e+03) (23, 8.86187653137739594911e+00) (24, -1.50000000000000000000e+03) (25, -9.83280251906816538110e+00) (26, 1.50000000000000000000e+03) (27, 2.22136802430175706036e+00) (28, 1.50000000000000000000e+03) (29, 4.16631734512216844735e+00) (30, -1.07335586063689243019e+03) (31, 1.86974767115045423793e+01) (32, 7.48106486071732547316e+02) (33, -4.17891467164729490946e+01) (34, 1.35011961372286259575e+03) (35, -3.94417144198312952241e+00) (36, 1.50000000000000000000e+03) (37, -1.37981315654398279946e+01) (38, -1.39723469908372976533e+03) (39, 1.69606306090343714743e+01) (40, 7.48521099314567777583e+02) (41, -1.54741991404823142631e+01) (42, 1.50000000000000000000e+03) (43, -2.98208904048014247223e+01) (44, -9.25787377954931571367e+02) (45, -2.50349693844263931908e+01) (46, 1.50000000000000000000e+03) (47, -5.40419487539581133717e+00) (48, 1.50000000000000000000e+03) (49, 1.82948430662155374193e+02) (50, 1.50000000000000000000e+03) (51, 3.30894242658896775566e+00) (52, 1.50000000000000000000e+03) (53, -1.80102564586915256939e+01) (54, 1.50000000000000000000e+03) (55, 8.89403107722752572784e+00) (56, 1.50000000000000000000e+03) (57, 2.19708495187877161925e+00) (58, 1.50000000000000000000e+03) (59, -1.99991071013133598910e+01) (60, 1.50000000000000000000e+03) (61, 1.66826376584871240993e+01) (62, -6.49612322040214174024e+00) (63, -2.14068073740446429554e+01) (64, -1.50000000000000000000e+03) (65, -7.06814633411326198598e+00) (66, 9.20354809446113222293e+01) (67, 1.03231536789244682240e+01) (68, -1.50000000000000000000e+03) (69, -8.82351086281454755067e+00) (70, 4.82626345694674441233e+01) (71, 1.65291394876358133104e+01) (72, 2.75907231403976638262e+00) (73, 2.38027690948201744447e+01) (74, -1.95279636882593088387e+01) (75, 1.50000000000000000000e+03) (76, -2.02534703742901101009e+01) (77, -5.58813966563796249432e+00) (78, 2.89006698831544195372e+00) (79, 2.90009694533560358209e+00) (80, 1.06658949981399118201e+01) (81, -1.38538879276898914128e+01) 
