FANN_FLO_2.1
num_layers=3
learning_rate=0.700000
connection_rate=1.000000
network_type=0
learning_momentum=0.000000
training_algorithm=2
train_error_function=1
train_stop_function=0
cascade_output_change_fraction=0.010000
quickprop_decay=-0.000100
quickprop_mu=1.750000
rprop_increase_factor=1.001000
rprop_decrease_factor=0.500000
rprop_delta_min=0.000000
rprop_delta_max=50.000000
rprop_delta_zero=0.100000
cascade_output_stagnation_epochs=12
cascade_candidate_change_fraction=0.010000
cascade_candidate_stagnation_epochs=12
cascade_max_out_epochs=150
cascade_max_cand_epochs=150
cascade_num_candidate_groups=2
bit_fail_limit=3.49999999999999977796e-01
cascade_candidate_limit=1.00000000000000000000e+03
cascade_weight_multiplier=4.00000000000000022204e-01
cascade_activation_functions_count=10
cascade_activation_functions=3 5 7 8 10 11 14 15 16 17 
cascade_activation_steepnesses_count=4
cascade_activation_steepnesses=2.50000000000000000000e-01 5.00000000000000000000e-01 7.50000000000000000000e-01 1.00000000000000000000e+00 
layer_sizes=71 11 2 
scale_included=0
neurons (num_inputs, activation_function, activation_steepness)=(0, 0, 0.00000000000000000000e+00) (0, 0, 0.00000000000000000000e+00) (0, 0, 0.00000000000000000000e+00) (0, 0, 0.00000000000000000000e+00) (0, 0, 0.00000000000000000000e+00) (0, 0, 0.00000000000000000000e+00) (0, 0, 0.00000000000000000000e+00) (0, 0, 0.00000000000000000000e+00) (0, 0, 0.00000000000000000000e+00) (0, 0, 0.00000000000000000000e+00) (0, 0, 0.00000000000000000000e+00) (0, 0, 0.00000000000000000000e+00) (0, 0, 0.00000000000000000000e+00) (0, 0, 0.00000000000000000000e+00) (0, 0, 0.00000000000000000000e+00) (0, 0, 0.00000000000000000000e+00) (0, 0, 0.00000000000000000000e+00) (0, 0, 0.00000000000000000000e+00) (0, 0, 0.00000000000000000000e+00) (0, 0, 0.00000000000000000000e+00) (0, 0, 0.00000000000000000000e+00) (0, 0, 0.00000000000000000000e+00) (0, 0, 0.00000000000000000000e+00) (0, 0, 0.00000000000000000000e+00) (0, 0, 0.00000000000000000000e+00) (0, 0, 0.00000000000000000000e+00) (0, 0, 0.00000000000000000000e+00) (0, 0, 0.00000000000000000000e+00) (0, 0, 0.00000000000000000000e+00) (0, 0, 0.00000000000000000000e+00) (0, 0, 0.00000000000000000000e+00) (0, 0, 0.00000000000000000000e+00) (0, 0, 0.00000000000000000000e+00) (0, 0, 0.00000000000000000000e+00) (0, 0, 0.00000000000000000000e+00) (0, 0, 0.00000000000000000000e+00) (0, 0, 0.00000000000000000000e+00) (0, 0, 0.00000000000000000000e+00) (0, 0, 0.00000000000000000000e+00) (0, 0, 0.00000000000000000000e+00) (0, 0, 0.00000000000000000000e+00) (0, 0, 0.00000000000000000000e+00) (0, 0, 0.00000000000000000000e+00) (0, 0, 0.00000000000000000000e+00) (0, 0, 0.00000000000000000000e+00) (0, 0, 0.00000000000000000000e+00) (0, 0, 0.00000000000000000000e+00) (0, 0, 0.00000000000000000000e+00) (0, 0, 0.00000000000000000000e+00) (0, 0, 0.00000000000000000000e+00) (0, 0, 0.00000000000000000000e+00) (0, 0, 0.00000000000000000000e+00) (0, 0, 0.00000000000000000000e+00) (0, 0, 0.00000000000000000000e+00) (0, 0, 0.00000000000000000000e+00) (0, 0, 0.00000000000000000000e+00) (0, 0, 0.00000000000000000000e+00) (0, 0, 0.00000000000000000000e+00) (0, 0, 0.00000000000000000000e+00) (0, 0, 0.00000000000000000000e+00) (0, 0, 0.00000000000000000000e+00) (0, 0, 0.00000000000000000000e+00) (0, 0, 0.00000000000000000000e+00) (0, 0, 0.00000000000000000000e+00) (0, 0, 0.00000000000000000000e+00) (0, 0, 0.00000000000000000000e+00) (0, 0, 0.00000000000000000000e+00) (0, 0, 0.00000000000000000000e+00) (0, 0, 0.00000000000000000000e+00) (0, 0, 0.00000000000000000000e+00) (0, 0, 0.00000000000000000000e+00) (71, 4, 5.00000000000000000000e-01) (71, 4, 5.00000000000000000000e-01) (71, 4, 5.00000000000000000000e-01) (71, 4, 5.00000000000000000000e-01) (71, 4, 5.00000000000000000000e-01) (71, 4, 5.00000000000000000000e-01) (71, 4, 5.00000000000000000000e-01) (71, 4, 5.00000000000000000000e-01) (71, 4, 5.00000000000000000000e-01) (71, 4, 5.00000000000000000000e-01) (0, 4, 5.00000000000000000000e-01) (11, 4, 9.00000000000000022204e-01) (0, 4, 9.00000000000000022204e-01) 
connections (connected_to_neuron, weight)=(0, -6.13645083358261558715e+02) (1, 1.39871992842946273328e+01) (2, -6.39068789243588639692e+02) (3, -2.08338235077219344760e+01) (4, 2.50505834294230226078e+02) (5, 1.88691838983010349295e+01) (6, -1.73463541719252361872e+02) (7, 5.37659001471945785511e-01) (8, 6.53076626639938808694e+02) (9, 1.89533815043160700498e+01) (10, 6.33756746631241526302e+02) (11, 7.47968438324018780605e+00) (12, 6.25338584762192454036e+02) (13, 7.95057096558380216322e+00) (14, -2.74935697850354131333e+02) (15, -2.68730564159441307481e+01) (16, -6.04770956229946232696e+00) (17, -2.85355856132858720642e+00) (18, -1.90400873684541349640e+00) (19, 1.00049021460275699980e+01) (20, 2.95273153931507259529e+01) (21, -2.36580810700733970009e+01) (22, -7.55534355193357782809e+01) (23, -2.09122955071164646768e+01) (24, -2.63928655482751935324e+02) (25, -1.05862265259555865526e+00) (26, 6.57829984527206875100e+02) (27, -1.15292604026344367441e+01) (28, -7.90694762749935193824e+01) (29, 2.01613091785670590639e+01) (30, 5.18966079269991155343e+02) (31, 8.66178782991256923651e+00) (32, 6.39945272784805979427e+02) (33, 7.89690828128273292208e+00) (34, 6.55603303771591640725e+02) (35, -2.48963181194119798079e+00) (36, 6.24154156547165598568e+02) (37, -8.76660293802379619876e+00) (38, 1.52034321410555321563e+02) (39, 2.06102179889753678310e+01) (40, 4.37554060896979990503e+02) (41, -1.91434278689157828524e+01) (42, 6.54739891868210293069e+02) (43, -7.75192823640625139348e+00) (44, 6.30672906737900461849e+02) (45, -1.74623615905080278310e+01) (46, 6.59294437270737148538e+02) (47, 7.67559828708807234676e+00) (48, 4.61395898647017361327e+02) (49, -5.95357588168412821261e+00) (50, 6.18862344604111399349e+02) (51, -7.66491365984919070797e+00) (52, 6.46564331870651471945e+02) (53, 1.03180392793516890748e+01) (54, 6.15935399871445383724e+02) (55, 1.93274745830234273569e+01) (56, 6.38763861138499464687e+02) (57, -1.64194623408732454095e+01) (58, 1.78953120220205676105e+02) (59, -1.69302607406130292134e+01) (60, 6.47859531264877546164e+02) (61, -1.53440500502822807505e+00) (62, 6.27008547645188059505e+02) (63, -1.50404951384843741380e+01) (64, -6.49439506461593850872e+02) (65, -4.22970905021576548677e+00) (66, 8.59734907983351774874e+01) (67, 3.94189101386739926269e+00) (68, -6.46706349303695674280e+02) (69, -5.16978198855693449332e+00) (70, 2.42093989196462295865e+01) (0, -2.78177160608766371297e+02) (1, -1.13107984193350237234e+01) (2, -2.72185598957536399212e+02) (3, -4.09811528341361697159e+00) (4, 1.17139764502909073940e+02) (5, -3.14134746366871331347e+00) (6, -1.15173695367281737845e+02) (7, -2.47165689039988158981e+01) (8, 2.97954193204916748527e+02) (9, -2.06257175929155565086e+01) (10, 2.82299805015600838942e+02) (11, 1.52969305294407451612e+01) (12, 2.66325928777731348873e+02) (13, -2.48185357835930382464e+01) (14, -1.40478111166725767589e+02) (15, -2.14830369554364466467e+01) (16, -1.92460337337505848154e+02) (17, -6.77316045557056245485e+00) (18, -1.45449242515728656144e+02) (19, -7.00139890129777420213e+00) (20, -1.62763382491884328829e+02) (21, 7.08314663252789955550e+00) (22, -1.87830075533761856832e+02) (23, -4.04525692151997429136e+00) (24, -1.49704756854971776647e+02) (25, -1.93914201905953049732e+01) (26, 2.96435774892844051465e+02) (27, 7.69475665772375361229e+00) (28, -7.93139875565365315424e+01) (29, 1.14685597717664862216e+01) (30, 2.74140434831656136794e+02) (31, -2.27469908654553236715e+01) (32, 3.01964653104819149121e+02) (33, -1.84006704306876400778e+01) (34, 2.56824550718344084999e+02) (35, -5.20138827585184060354e+00) (36, 2.80482197732008557978e+02) (37, -1.65083889206665048732e+01) (38, 3.16632264757722410309e+01) (39, 1.08090091181769931694e+01) (40, 1.75913364931930829016e+02) (41, -5.62863453332756762393e+01) (42, 2.67072291463888575436e+02) (43, -2.84849973775957501232e+01) (44, 2.56410181135214145343e+02) (45, -9.88045784844221941512e+00) (46, 2.59543731779135043780e+02) (47, -7.65288089839885365961e+00) (48, 2.88079831213034481152e+02) (49, 1.94917272865160029482e+01) (50, 2.62075618833578403155e+02) (51, 2.52440374514060739131e+00) (52, 2.76082025140799203200e+02) (53, 1.00537074726898190136e+01) (54, 2.67938607305563380123e+02) (55, 4.46159698251204783759e+00) (56, 2.95651965230978873933e+02) (57, 1.89765692406236474721e-01) (58, 1.62812814075034473227e+00) (59, 9.92455767029828095360e+00) (60, 2.88765552610434440339e+02) (61, 2.45126170006357604336e+01) (62, 2.68698401540792815467e+02) (63, -5.99271311542318141363e+00) (64, -2.96008385288713554928e+02) (65, -2.26267026979427541278e+01) (66, -9.40231616817374593609e+00) (67, -1.84552400662122018105e+01) (68, -2.57109160053727748618e+02) (69, 1.01655165372651783429e+01) (70, -1.15596161411658826523e+01) (0, -6.34752471377823326293e+02) (1, -5.07407771580132976874e-02) (2, -6.39058443665394975142e+02) (3, 6.65198022255969156902e+00) (4, 1.61354634746433617920e+02) (5, -1.07434525192119103565e+01) (6, -3.81895922060319108482e+01) (7, 5.12637759901819833885e+00) (8, 1.12154061956877342254e+02) (9, 9.93361918678614230771e+00) (10, 6.62856281142807461038e+02) (11, 1.71472641060228561116e+01) (12, 6.17121282439804758724e+02) (13, 4.72950389832979212201e+00) (14, -2.99785933431752255274e+02) (15, 1.81337647731930684536e+00) (16, 6.09409704454082490344e+00) (17, 1.17617499075916178697e+01) (18, 2.38032873970705658451e+01) (19, 7.24717688490595879358e+00) (20, -3.89265742788788315920e+01) (21, 9.74536227881830718900e+00) (22, -2.72401502570734351139e+02) (23, -1.52107815836615465344e+01) (24, -2.45686496423872057449e+02) (25, 2.04011626464321693675e+01) (26, 3.49100440994168650377e+02) (27, 1.70049750691608316799e+01) (28, 7.35655121690697910708e+01) (29, 2.05196675595806716785e+01) (30, -9.16179670027520529629e+01) (31, 7.23234302444311527580e+00) (32, 5.03393880875815753484e+01) (33, 3.09375495002316736048e+00) (34, 1.71119851072974228146e+02) (35, -5.79870550728410449892e+00) (36, 6.27185264449692454036e+02) (37, -2.03431899242474898415e+01) (38, 3.32159738988327546849e+02) (39, -2.28240084310965016812e+01) (40, 5.45095245237833703200e-01) (41, -1.67664432966844749728e+01) (42, 9.25549994066104346757e+01) (43, -2.41630349535298059038e+01) (44, 8.85531802152530502781e+01) (45, 2.19913156215846328223e+01) (46, -2.27570615806932501357e+01) (47, -1.68084605368160104888e+01) (48, 6.18632333617783274349e+02) (49, 3.76305917822926261351e+01) (50, 3.13809777398238409774e+00) (51, -2.14634894151939015217e+01) (52, -2.02001850165061313191e+02) (53, 1.68851354803199060761e+00) (54, -2.28161136861621457683e+02) (55, -4.59759949130421752272e+00) (56, 8.80713000743359657463e+01) (57, 1.77651662684683451232e+01) (58, 6.58717126708603359475e+02) (59, 2.19897730413065017885e+00) (60, 5.05691065110563442886e+02) (61, -2.56355067743819109438e+00) (62, 6.27295664649582590755e+02) (63, 1.96166398011290326053e+01) (64, -6.46342652251693721155e+02) (65, -5.72072666754650960286e+00) (66, 7.63994007943676649575e+01) (67, 1.37578775317068444650e+01) (68, -6.13563870360824921590e+02) (69, -2.37608396398060719434e+01) (70, -2.14442312108509938184e+01) (0, -6.46554110457870706341e+02) (1, -7.85996563874067977196e+00) (2, -6.17788249015698852418e+02) (3, 6.08206708198239187624e+00) (4, -2.41048019861016712184e+02) (5, 2.26723612307167208257e+01) (6, 3.89742694375354403746e+00) (7, -3.42718447090728206561e+00) (8, 2.86703216769774371642e+02) (9, 2.36447470515906204014e+01) (10, -2.35340699409268097497e+02) (11, -5.35248061448659306905e+00) (12, 6.52246470313644863381e+02) (13, -1.79080448936996887710e+01) (14, -2.85372863369624667484e+02) (15, -1.85058783242815003689e+01) (16, -1.29115585428448103045e+01) (17, -2.75271633221642142431e+00) (18, 1.19304117345058315891e+01) (19, 1.16771280395985339595e+01) (20, 3.49709141950541351207e+01) (21, 2.44285845508891874545e+01) (22, -2.61761710128412289578e+02) (23, 1.67286345104930660455e+01) (24, -2.55938788522904189904e+02) (25, 2.13158538202850023069e+00) (26, 6.48993913512802350851e+02) (27, 1.17642885433121708871e+01) (28, -1.89376067806097438506e+02) (29, -1.97421587650914198697e+00) (30, -1.18384412057507290683e+02) (31, 7.37629598667539743140e-01) (32, 8.28228741985725633867e+01) (33, -2.19414140405389517241e+01) (34, 1.81543816297661123826e+02) (35, -1.56827681994167171808e+01) (36, 6.24438995223618235286e+02) (37, 5.83781783840236556671e+00) (38, 9.55223164412026903847e+00) (39, -2.19138701952666750117e+01) (40, 1.05045236879520174966e+02) (41, 2.29204183058491572922e+01) (42, 1.27800456209858523948e+02) (43, 1.38949378540593571074e+01) (44, 6.41840158801651455178e+02) (45, -2.04045857127958285560e+00) (46, -1.75761526460731616339e+01) (47, -8.65359450005275476769e+00) (48, 4.86243822268265546427e+02) (49, -9.93464840207070487565e+00) (50, 1.90513072654501591785e+01) (51, 8.96383149778124055373e-01) (52, -9.13137786040840637725e+00) (53, -1.30125810692195660323e+01) (54, 3.87404954791151851623e+02) (55, -2.56725889714150934395e+00) (56, 6.62517648559189524349e+02) (57, -2.01941006448648003868e+01) (58, -5.11256808589017310851e+01) (59, -1.39487349203739832149e+01) (60, 6.33139915328598704036e+02) (61, 8.56500863704149351108e-01) (62, 6.26138963561630930599e+02) (63, -8.01597754762528857952e+00) (64, -6.16962578704331122026e+02) (65, -9.84976125968807103561e+00) (66, 8.32179747460890553157e+01) (67, -1.39867045671474929946e+01) (68, -6.14666169097397300902e+02) (69, 5.36605841880490164186e+00) (70, 4.89077165321203644055e+00) (0, -6.25757331778976890746e+02) (1, 2.11455604576389255556e+01) (2, -6.53388951301465226607e+02) (3, -8.15936259991715395756e+00) (4, 2.80103056622415806487e+02) (5, 6.78938679026392488680e+00) (6, -1.85672302457625050920e+02) (7, 1.45482356555553273836e+01) (8, 6.20140748839951243099e+02) (9, -2.10853821789276674181e+00) (10, 6.21590358596421197035e+02) (11, -1.80450711611355574249e+00) (12, 6.48045624595260846945e+02) (13, -5.10693302625730360944e+00) (14, -2.98778414939145193330e+02) (15, -1.17037924471974008611e+01) (16, -2.98713378646688568097e+02) (17, -1.48898571514222091139e+01) (18, -2.65926553722622600162e+02) (19, 1.57063842547646492775e+00) (20, -2.97883323980973557354e+02) (21, -1.89425228701642502926e+01) (22, -2.69780483207330803452e+02) (23, -7.76904774433924050214e+00) (24, -2.39519018210974394378e+02) (25, 6.67604487091819098765e+00) (26, 6.59347282271958079036e+02) (27, -1.89185442307717650579e+01) (28, -1.52398054421252133750e+01) (29, -2.65821151075754151805e+01) (30, 8.94762802341808907158e+01) (31, -3.06939536720520145252e+01) (32, 5.47300745889112477016e+02) (33, -3.61828091768591741939e+00) (34, 4.93019779661209781807e+02) (35, -8.81387802462859681896e+00) (36, 6.29322602134323801693e+02) (37, 1.37947069101273456226e+01) (38, 1.44539744779049442513e+02) (39, -1.95586811019164912295e+01) (40, 1.22185394453876583043e+02) (41, 7.16346895152121465600e+00) (42, 1.74088224346768640771e+02) (43, -1.70252907942237108330e+01) (44, 6.39695633810139383968e+02) (45, 1.83799395623315403592e-01) (46, 6.39804858904457773860e+02) (47, -1.38792164982617887148e+01) (48, 6.52494888167953945413e+02) (49, 1.47175363430829371225e+01) (50, 6.17248460631943430599e+02) (51, 1.98109149125492649546e+01) (52, 6.35672885041809536233e+02) (53, -3.29503313051905388775e+00) (54, 6.19047941070175852474e+02) (55, -2.67337283026730609947e+01) (56, 6.52783854346847988381e+02) (57, 1.08201279562917846988e+01) (58, 7.09720786350496553041e+01) (59, -1.84320213765486440316e+00) (60, 6.28064069610214914974e+02) (61, 3.34783027646797445853e-02) (62, 6.18646892409897532161e+02) (63, 2.12566811537583220115e+01) (64, -6.39699529221031639281e+02) (65, 2.48479218714640293086e+00) (66, 5.98976841805983966083e+01) (67, 7.88885230730282938083e+00) (68, -6.37929715564224693480e+02) (69, 1.13782159828465196938e+01) (70, -2.55266814000203501323e+00) (0, 6.18748716216660227474e+02) (1, -6.76267061498068589032e+00) (2, 6.43682550769424892678e+02) (3, 2.06245578739414163749e+01) (4, -6.52942611556625820413e+02) (5, 2.53337440078109885633e+01) (6, 1.67339486700770265770e+02) (7, 1.27928594755389273274e+01) (8, -6.52415676932907558694e+02) (9, 1.70873468355517168504e+01) (10, -6.44969546180343854758e+02) (11, 8.52777660994258113192e+00) (12, -6.44834655624008632913e+02) (13, 3.05138277740708740993e+00) (14, 2.89520230522566237141e+02) (15, -1.65436126474741507231e+00) (16, 2.92002900509483652058e+02) (17, 1.91027350038464511783e+01) (18, 3.07719537185496506027e+02) (19, -8.61608472265517022493e+00) (20, 6.78701559263855358495e+01) (21, 1.92632489360630678732e+01) (22, 2.55798111975051170930e+02) (23, -1.99180070276654963557e+00) (24, 2.69944818785819165896e+02) (25, -6.59804808602324399658e+00) (26, -6.54714071136093593850e+02) (27, -1.26224431018865690390e+01) (28, 1.16663339424603265115e+02) (29, -5.84529440951183154596e+00) (30, -1.00802986646461704368e+02) (31, 1.26266126090655603775e+01) (32, -3.82116683333226376362e+02) (33, -1.03223619473627667986e+01) (34, -5.69082517300273821093e+02) (35, -3.74845659463381064569e+00) (36, -6.41951842885590053811e+02) (37, 1.12365105657038144571e+00) (38, -6.57376344531649863256e+01) (39, -7.72805894961570327695e+00) (40, -1.19119983507644221277e+02) (41, 2.60935097227441410439e+01) (42, -6.53698346953964687600e+02) (43, 3.19465016406652395631e+01) (44, -6.48774007659530866476e+02) (45, 2.93564586683126833577e+01) (46, -6.53789744239426113381e+02) (47, -1.14502081627032943345e+01) (48, -6.31542278152085032161e+02) (49, -2.34523609866128879275e+01) (50, -6.56192672591782070413e+02) (51, 1.46373068122215030940e+01) (52, -6.32916445594406809505e+02) (53, 1.21005780695776348210e+01) (54, -6.46863143783188093039e+02) (55, 6.13652367672339238425e+00) (56, -6.20843704085922922786e+02) (57, -1.59380428729097189944e+00) (58, -7.64516236085869991257e+01) (59, -1.32400304904292891450e+01) (60, -6.59475698333359446224e+02) (61, -6.29876079682875555932e+00) (62, -6.53685393195724941506e+02) (63, -1.99264440570578784673e+01) (64, 6.61715612273789133724e+02) (65, -1.13085773880856521600e+01) (66, -8.12597844550231940275e+01) (67, -1.85046693311097136814e+01) (68, 6.42896555286026455178e+02) (69, -1.95474010493984273751e+01) (70, 1.02162059757480321309e+01) (0, 6.23916896682358469661e+02) (1, 2.26064184329596038481e+01) (2, 6.59128930907822109475e+02) (3, 1.30132409225034688660e+01) (4, -2.65491377486749115633e+02) (5, 1.15580559310623831593e+00) (6, 1.86947510344263861271e+02) (7, -2.59274970739055810043e+01) (8, -6.37612716417885280862e+02) (9, -1.79552357812453990960e+01) (10, -6.18771463256455149349e+02) (11, -5.06986527715776125191e-01) (12, -6.45561874728775251242e+02) (13, 1.17035622232913780749e+01) (14, 2.92223698912078759804e+02) (15, 2.26800470304034362812e+01) (16, 1.77403364313531177743e+01) (17, 9.05446484058865941336e+00) (18, 2.75242351454760090235e+01) (19, 2.82827932886418302871e+01) (20, 2.00869132646105406081e+01) (21, 7.03907853429024576997e+00) (22, 2.31000820219374674025e+02) (23, -1.20226670494426297608e+01) (24, 2.30259319594534588305e+02) (25, -1.37284809331560175849e+01) (26, -6.43337818008041836038e+02) (27, 1.24567145049743732699e+01) (28, 8.45552605593193362665e+01) (29, 2.41792025866051965011e+01) (30, -6.45193997722244489523e+02) (31, 2.30798291055402060579e+00) (32, -6.52509975295639492288e+02) (33, -6.77371863346836544650e+00) (34, -6.42803657155609585061e+02) (35, 2.30550974208463017590e+01) (36, -6.19580383163071360286e+02) (37, 9.43912045939153898644e+00) (38, -1.64049848521373093035e+02) (39, 1.35293544430794963063e+01) (40, -4.42168224027133305754e+02) (41, -1.11818764423666205943e+01) (42, -6.21946155410385813411e+02) (43, -1.39575763205650584808e+01) (44, -6.21683896880722954847e+02) (45, -2.28635992572018853508e+00) (46, -6.52179926734543300881e+02) (47, -4.65309647588528640938e+00) (48, -6.28580339294052805599e+02) (49, -1.93792169312289637162e+01) (50, -6.13467067580795742288e+02) (51, 8.93671372309332134876e+00) (52, -6.47422307830429303976e+02) (53, -1.95466380423831438407e+01) (54, -6.33984370093918528255e+02) (55, 7.39909185140058944796e+00) (56, -6.22962960105515207943e+02) (57, 3.07805474202445683574e+00) (58, -9.98172462130868467511e+01) (59, -8.19620273626649975540e+00) (60, -6.40338870864487375911e+02) (61, 3.78889476538844283127e+00) (62, -6.51319005828476178976e+02) (63, -2.30039902532193067941e+01) (64, 6.50469439368820417258e+02) (65, -2.31732861864306372013e+01) (66, -8.08869187781432970041e+01) (67, 1.91364093288280727734e+01) (68, 6.49965985160446393820e+02) (69, -2.02757243027161813131e+01) (70, -2.65516206600579742769e+01) (0, -6.04025873455336977713e+02) (1, -9.88351968931180735467e+00) (2, -5.96903761250225215917e+02) (3, -1.30755957065996160082e+01) (4, 2.44480160089630885523e+02) (5, 1.07996211468954061985e+01) (6, -1.69788173042941735957e+02) (7, 9.27771874042689681517e+00) (8, 5.88805845791228648523e+02) (9, -1.74975950574061442921e+01) (10, 6.03789565855391856530e+02) (11, 5.80043578518980940117e+00) (12, 5.98303189093001492438e+02) (13, -1.10754387141953944962e+01) (14, -2.72109980540516005476e+02) (15, -1.87841925082526941537e+01) (16, -2.40679322240216350792e+02) (17, -1.52698285795622261674e+01) (18, -2.83684501369584666008e+02) (19, 3.40944201358477849695e+00) (20, -2.47274870798585197917e+02) (21, -6.66567488857262180346e+00) (22, -2.42256325323944196271e+02) (23, -1.11100677020747919954e+01) (24, -2.28823156980953029915e+02) (25, 1.57072424128455345738e+01) (26, 5.93385848814376004157e+02) (27, 4.96604115504492238387e+00) (28, -1.20642223289469725955e+02) (29, 2.78656642870301674009e+00) (30, 5.76128239316024291838e+02) (31, -2.75391854362928034661e+00) (32, 5.75701060110458001873e+02) (33, -1.29377387608622669291e+01) (34, 6.02148757749923106530e+02) (35, 5.97768838882611763808e+00) (36, 6.04218984419234629968e+02) (37, 2.79398581703281845279e+00) (38, 1.44932238455089645868e+02) (39, -2.07275522410171539889e+01) (40, 2.73677984226931926059e+02) (41, -8.20593067690010258275e+01) (42, 5.67101526075728997967e+02) (43, 2.23483657033816252024e+00) (44, 5.77602718168624505779e+02) (45, -5.60345787349501307517e+01) (46, 5.94490869337447293219e+02) (47, -2.08160512010769345181e+01) (48, 5.99612145239241954187e+02) (49, 1.16850915053323731740e+01) (50, 5.81634072357543345788e+02) (51, 1.23291368426879444087e+01) (52, 5.71340404325851068279e+02) (53, -1.39342295594227287836e+01) (54, 5.75677469068893060467e+02) (55, -1.57366417900533583918e+01) (56, 5.91130981737502224860e+02) (57, 1.18317188119236380572e+01) (58, 1.03489395152682945422e+02) (59, -8.56736283557077626938e+00) (60, 5.70248254591353997967e+02) (61, -4.43993342654804123981e+00) (62, 5.84250340753920909265e+02) (63, -1.16465409373926025438e+01) (64, -6.05718565258315720712e+02) (65, 1.20080267507410987093e+01) (66, 5.88335351453109041131e+01) (67, -4.85891157726752442869e+00) (68, -6.06342565807632126962e+02) (69, -4.50364240993828879311e+00) (70, -1.56151903577211470520e+01) (0, -6.61499667098495933715e+02) (1, -4.75365758076469990812e+00) (2, -6.30240396499524536011e+02) (3, 3.49733317423302203508e+00) (4, 2.92860685063272910611e+02) (5, 2.98080913384962631341e+00) (6, -2.04462824556166310686e+02) (7, 1.38861120092473573351e+01) (8, 6.58641889434433437600e+02) (9, -2.04440830671236319915e+01) (10, 6.17314889770127251722e+02) (11, 2.55158500076884608987e+00) (12, 6.47656661849594343039e+02) (13, 1.82608129842005091348e+01) (14, -3.04538863000042965723e+02) (15, 7.11898464646190642924e+00) (16, -2.71853752073124361743e+01) (17, -2.25482210445074144900e+01) (18, 1.05688202362329586315e+00) (19, -9.26094056060683534781e+00) (20, -1.53783227414574863445e+01) (21, 1.07257539237480941097e+01) (22, -2.45761091670617929594e+02) (23, -6.03588160732787670781e+00) (24, -2.69249848403540511299e+02) (25, 3.02135458533735690168e-01) (26, 6.18696742873764719661e+02) (27, 5.56696395880835481762e+00) (28, -9.05413735268834898307e+01) (29, -2.18166560540766205634e+01) (30, 6.57241369109726406350e+02) (31, -9.46340639001380345974e+00) (32, 6.32742943626023020443e+02) (33, 1.01820496516264142883e+01) (34, 6.49530643325424648538e+02) (35, 2.22651407853081941823e+01) (36, 6.51990145545578457131e+02) (37, 2.29021198165409174408e+01) (38, 1.87413662536043403861e+02) (39, 2.13137099193298276134e+01) (40, 4.34530180046009604666e+02) (41, -1.32234566844697027932e+01) (42, 6.33026957374191965755e+02) (43, -8.33935698646575929160e+00) (44, 6.24623125892258372005e+02) (45, 1.41716711663852668046e+00) (46, 6.16130458694077219661e+02) (47, -6.60433743564328268327e-01) (48, 6.59806856017685618099e+02) (49, -2.20305648354227763264e+01) (50, 6.61077834945297695413e+02) (51, -1.68709241481775293892e+01) (52, 6.22341974120712961849e+02) (53, 1.68880151735558747816e+01) (54, 6.13158862929916836038e+02) (55, -1.18183087517851124204e+01) (56, 6.60884223800278391536e+02) (57, 2.40813554174746755621e+01) (58, 1.76584654984103963216e+02) (59, 2.14891725494703962340e+01) (60, 6.57370635848618007913e+02) (61, 5.86336645451251126104e+00) (62, 6.54016556602096784445e+02) (63, 1.31789328975888349049e+01) (64, -6.20910538604233465776e+02) (65, -1.24425731844858447062e+01) (66, 7.55957308648632846371e+01) (67, -9.93344993230771522441e-01) (68, -6.31310748507950506792e+02) (69, 2.54616340451284095536e+01) (70, 1.81672005206027886715e+00) (0, -6.34724260261032554808e+02) (1, 5.24956947780455340791e+00) (2, -6.40994580030331803755e+02) (3, -1.73719033577362473864e+01) (4, 2.43154875979439054845e+02) (5, 7.14223518659153899790e+00) (6, 5.88497661579204560667e+01) (7, -2.25510489997079552893e+01) (8, 2.40655210478747392244e+02) (9, -1.68920458078315434136e+01) (10, 3.27305306485395362870e+02) (11, -1.85072961182239552613e+01) (12, 6.21397840362168039974e+02) (13, 2.02429417899598673714e+00) (14, -2.91791964976302040213e+02) (15, -1.79379512421309534886e+01) (16, 1.20497547895142048446e+02) (17, 3.40732539590117200490e+00) (18, 9.86198197331662385068e+01) (19, 2.15848479009092777403e+01) (20, 4.67611410121528024320e+02) (21, 4.09489956701414925533e+00) (22, -2.84517842710882007395e+02) (23, -1.46167043609998366094e+01) (24, -2.54679943664155644001e+02) (25, 7.25571911902307853381e+00) (26, 6.63421211104965664163e+02) (27, -3.82736565349957729154e+01) (28, 9.47859857093142323947e+01) (29, -1.03067525953071594813e+01) (30, 1.37195235697587179402e+02) (31, -1.31833076189280848922e+01) (32, 1.14235458013364095109e+02) (33, -1.79561424504781470546e+01) (34, 2.83575397199626763722e+02) (35, 1.78497741699839664875e+01) (36, 4.23166250416453635808e+02) (37, -8.47132494033175653669e+00) (38, 6.41452321630096889749e+02) (39, -2.07883951625084719694e+01) (40, 3.68425566631456945288e+02) (41, -1.72843478435956079409e+01) (42, 6.60926324706650461849e+02) (43, 1.15502065006137932812e+01) (44, 6.40152960401154246028e+02) (45, -2.02771167705359793842e+01) (46, 4.86843005589231040631e+02) (47, 1.40057908147272436317e+00) (48, 6.64336456161118007913e+02) (49, 6.02580277949176501551e+00) (50, 4.20277813529782406476e+02) (51, 5.88352543993179466497e+00) (52, 6.16908656936264719661e+02) (53, -8.20005256372433710688e-01) (54, 1.92746206785934020900e+02) (55, -3.05319597034030820737e+00) (56, 2.88764120617559910897e+02) (57, 6.72857986737959290480e+00) (58, -9.79780973260992738005e+00) (59, -1.22989022378423640269e+00) (60, 2.84161085175410562442e+02) (61, -1.53629993819272332445e+01) (62, 6.28519482474899973568e+02) (63, 2.91760814922596489751e+00) (64, -6.29025164535019598588e+02) (65, 1.55754763103332360963e+00) (66, 4.71082487939406817645e+01) (67, 1.60557901383851202581e+01) (68, -6.16157479217026434526e+02) (69, -6.47922986530457745147e+00) (70, 2.27763319633086744886e+01) (71, 1.91793928640908646344e+01) (72, 6.13498025756454921975e+02) (73, 1.14887806766638878031e+01) (74, 3.20607996971664643837e+00) (75, 3.34018783177561005004e+01) (76, -2.26978914704730883045e+01) (77, -1.03876339373892854212e+01) (78, -3.56012364771633613714e+01) (79, 1.21427607195137845508e+01) (80, 3.27301681125159316110e+00) (81, -1.13199938653023046697e+01) 
