FANN_FLO_2.1
num_layers=3
learning_rate=0.700000
connection_rate=1.000000
network_type=0
learning_momentum=0.000000
training_algorithm=2
train_error_function=1
train_stop_function=0
cascade_output_change_fraction=0.010000
quickprop_decay=-0.000100
quickprop_mu=1.750000
rprop_increase_factor=1.001000
rprop_decrease_factor=0.333300
rprop_delta_min=0.000000
rprop_delta_max=50.000000
rprop_delta_zero=0.100000
cascade_output_stagnation_epochs=12
cascade_candidate_change_fraction=0.010000
cascade_candidate_stagnation_epochs=12
cascade_max_out_epochs=150
cascade_max_cand_epochs=150
cascade_num_candidate_groups=2
bit_fail_limit=3.49999999999999977796e-01
cascade_candidate_limit=1.00000000000000000000e+03
cascade_weight_multiplier=4.00000000000000022204e-01
cascade_activation_functions_count=10
cascade_activation_functions=3 5 7 8 10 11 14 15 16 17 
cascade_activation_steepnesses_count=4
cascade_activation_steepnesses=2.50000000000000000000e-01 5.00000000000000000000e-01 7.50000000000000000000e-01 1.00000000000000000000e+00 
layer_sizes=71 11 2 
scale_included=0
neurons (num_inputs, activation_function, activation_steepness)=(0, 0, 0.00000000000000000000e+00) (0, 0, 0.00000000000000000000e+00) (0, 0, 0.00000000000000000000e+00) (0, 0, 0.00000000000000000000e+00) (0, 0, 0.00000000000000000000e+00) (0, 0, 0.00000000000000000000e+00) (0, 0, 0.00000000000000000000e+00) (0, 0, 0.00000000000000000000e+00) (0, 0, 0.00000000000000000000e+00) (0, 0, 0.00000000000000000000e+00) (0, 0, 0.00000000000000000000e+00) (0, 0, 0.00000000000000000000e+00) (0, 0, 0.00000000000000000000e+00) (0, 0, 0.00000000000000000000e+00) (0, 0, 0.00000000000000000000e+00) (0, 0, 0.00000000000000000000e+00) (0, 0, 0.00000000000000000000e+00) (0, 0, 0.00000000000000000000e+00) (0, 0, 0.00000000000000000000e+00) (0, 0, 0.00000000000000000000e+00) (0, 0, 0.00000000000000000000e+00) (0, 0, 0.00000000000000000000e+00) (0, 0, 0.00000000000000000000e+00) (0, 0, 0.00000000000000000000e+00) (0, 0, 0.00000000000000000000e+00) (0, 0, 0.00000000000000000000e+00) (0, 0, 0.00000000000000000000e+00) (0, 0, 0.00000000000000000000e+00) (0, 0, 0.00000000000000000000e+00) (0, 0, 0.00000000000000000000e+00) (0, 0, 0.00000000000000000000e+00) (0, 0, 0.00000000000000000000e+00) (0, 0, 0.00000000000000000000e+00) (0, 0, 0.00000000000000000000e+00) (0, 0, 0.00000000000000000000e+00) (0, 0, 0.00000000000000000000e+00) (0, 0, 0.00000000000000000000e+00) (0, 0, 0.00000000000000000000e+00) (0, 0, 0.00000000000000000000e+00) (0, 0, 0.00000000000000000000e+00) (0, 0, 0.00000000000000000000e+00) (0, 0, 0.00000000000000000000e+00) (0, 0, 0.00000000000000000000e+00) (0, 0, 0.00000000000000000000e+00) (0, 0, 0.00000000000000000000e+00) (0, 0, 0.00000000000000000000e+00) (0, 0, 0.00000000000000000000e+00) (0, 0, 0.00000000000000000000e+00) (0, 0, 0.00000000000000000000e+00) (0, 0, 0.00000000000000000000e+00) (0, 0, 0.00000000000000000000e+00) (0, 0, 0.00000000000000000000e+00) (0, 0, 0.00000000000000000000e+00) (0, 0, 0.00000000000000000000e+00) (0, 0, 0.00000000000000000000e+00) (0, 0, 0.00000000000000000000e+00) (0, 0, 0.00000000000000000000e+00) (0, 0, 0.00000000000000000000e+00) (0, 0, 0.00000000000000000000e+00) (0, 0, 0.00000000000000000000e+00) (0, 0, 0.00000000000000000000e+00) (0, 0, 0.00000000000000000000e+00) (0, 0, 0.00000000000000000000e+00) (0, 0, 0.00000000000000000000e+00) (0, 0, 0.00000000000000000000e+00) (0, 0, 0.00000000000000000000e+00) (0, 0, 0.00000000000000000000e+00) (0, 0, 0.00000000000000000000e+00) (0, 0, 0.00000000000000000000e+00) (0, 0, 0.00000000000000000000e+00) (0, 0, 0.00000000000000000000e+00) (71, 4, 5.00000000000000000000e-01) (71, 4, 5.00000000000000000000e-01) (71, 4, 5.00000000000000000000e-01) (71, 4, 5.00000000000000000000e-01) (71, 4, 5.00000000000000000000e-01) (71, 4, 5.00000000000000000000e-01) (71, 4, 5.00000000000000000000e-01) (71, 4, 5.00000000000000000000e-01) (71, 4, 5.00000000000000000000e-01) (71, 4, 5.00000000000000000000e-01) (0, 4, 5.00000000000000000000e-01) (11, 4, 9.00000000000000022204e-01) (0, 4, 9.00000000000000022204e-01) 
connections (connected_to_neuron, weight)=(0, -1.50000000000000000000e+03) (1, -4.50524264775285416817e+01) (2, -1.50000000000000000000e+03) (3, 1.23151954458140888704e+01) (4, 7.16932653463453561926e+01) (5, -1.90337114688342445845e+01) (6, -1.54136862017014436788e+02) (7, -5.10981571670732215296e+00) (8, 1.50000000000000000000e+03) (9, -7.72803528819197982358e+00) (10, -1.10843935126587041395e+02) (11, 1.11291685925980985417e+01) (12, 1.50000000000000000000e+03) (13, 9.78877420035641421237e+00) (14, -5.81907707042986658053e+02) (15, -2.15156424930014971153e+01) (16, 2.34002335253685515681e+02) (17, -2.23606895060608223957e+01) (18, -1.07063506904307644163e+02) (19, 3.73803859149074355628e+01) (20, 8.06583923314295475393e+02) (21, 2.82324317671521569650e+01) (22, -1.50000000000000000000e+03) (23, -2.80904756335150818103e+00) (24, -1.50000000000000000000e+03) (25, 3.30196641844617166939e+00) (26, 1.50000000000000000000e+03) (27, 2.46149077683156889407e+01) (28, 1.59895568199477423832e+02) (29, -2.87855494811333922911e+00) (30, -1.97174636243935822222e+02) (31, -2.37150211097927439141e+01) (32, 1.50000000000000000000e+03) (33, 4.25619936921542851849e+00) (34, 1.50000000000000000000e+03) (35, 4.17836895149195228782e+01) (36, 1.50000000000000000000e+03) (37, 1.28149998602760533117e+01) (38, 4.43453634759998536197e+01) (39, 3.22847428532585301042e+00) (40, -3.23492436371996845423e+01) (41, 2.84982298871826138509e+01) (42, 1.51437679592283217289e+02) (43, -2.30890361087963569275e+00) (44, 1.50000000000000000000e+03) (45, -8.45815242332507999379e+00) (46, 8.45423497792988172250e+01) (47, -2.69181535629199970572e+01) (48, 1.50000000000000000000e+03) (49, 2.28259686258085494615e+01) (50, 1.50000000000000000000e+03) (51, -1.77697884830630954411e+01) (52, 2.62145041626619033082e+01) (53, -1.76272180716743704920e+01) (54, 1.68739568671466685146e+02) (55, -2.01308570455011768274e+01) (56, 1.50000000000000000000e+03) (57, 7.56363562971615266406e+00) (58, -5.30482273272885080928e+01) (59, 6.47156369921669210044e+01) (60, 1.50000000000000000000e+03) (61, -1.30394978115767177229e+01) (62, 1.50000000000000000000e+03) (63, 1.86882980713819968344e+01) (64, 1.16136146591449301013e+03) (65, 7.27816041753663682812e+01) (66, 9.03773263816631668988e+01) (67, -1.31300121746796882860e+01) (68, -1.50000000000000000000e+03) (69, -1.16908556177235087858e+01) (70, -7.74091779728891093981e+00) (0, -1.50000000000000000000e+03) (1, 3.23154606776547268510e+01) (2, -1.50000000000000000000e+03) (3, -2.38263373824295250358e+01) (4, 8.71379211660511714399e+01) (5, 1.69034150987651088371e+01) (6, -1.63433314346754571034e+02) (7, -4.49112910368862401356e+01) (8, 1.50000000000000000000e+03) (9, 1.15998213220870773910e+01) (10, -2.10286419119609000461e+01) (11, 3.57169637072221348717e+01) (12, 1.50000000000000000000e+03) (13, -4.44342765351199489032e+01) (14, -1.50000000000000000000e+03) (15, 1.14737203589197367393e-01) (16, 1.50000000000000000000e+03) (17, 2.38536196581366972680e+01) (18, 2.42989012570381959222e+02) (19, 2.39952285027713188015e+01) (20, 1.50000000000000000000e+03) (21, -2.26462918720585228982e+01) (22, -3.62777807015861863960e+00) (23, -2.24633186570812206639e+01) (24, -1.50000000000000000000e+03) (25, 1.18456518083990793855e+01) (26, 1.50000000000000000000e+03) (27, 1.90323967427558358168e+01) (28, 3.37254168787625815185e+02) (29, 1.58036257774445711988e+01) (30, 1.50000000000000000000e+03) (31, -5.60912373981168173032e+01) (32, 1.50000000000000000000e+03) (33, 1.15430555938026042639e+01) (34, 1.50000000000000000000e+03) (35, -1.38478675018989498824e+01) (36, 1.50000000000000000000e+03) (37, 2.77147188623756370873e+01) (38, 1.50000000000000000000e+03) (39, 2.75159250417411049838e+00) (40, 1.50000000000000000000e+03) (41, 1.66803083974096608699e+01) (42, 1.50000000000000000000e+03) (43, 7.18126712632644270684e+00) (44, 1.50000000000000000000e+03) (45, -1.76210709323917562585e+01) (46, 8.48591189056448484962e+01) (47, 1.88785070545260005304e+01) (48, 1.50000000000000000000e+03) (49, 2.84937556386423551658e+01) (50, 1.50000000000000000000e+03) (51, -1.95290567742622052094e+01) (52, 1.50000000000000000000e+03) (53, 1.46996600696996999602e+01) (54, 1.50000000000000000000e+03) (55, 5.00863340289801612926e+01) (56, 1.37512839062186344563e+03) (57, -1.57492423189360213343e+01) (58, -2.16387864626618480202e+01) (59, -3.18130590174943606030e+01) (60, 1.50000000000000000000e+03) (61, 2.71711939561820834399e+01) (62, 1.50000000000000000000e+03) (63, 1.65946184797665701183e+01) (64, 1.16136146591449301013e+03) (65, -5.47938494407507725725e+00) (66, 6.12783330802710324292e+01) (67, -1.32772311949445267487e+01) (68, -1.50000000000000000000e+03) (69, 2.15384049690395240617e+00) (70, 1.51941364029242276246e+00) (0, -1.50000000000000000000e+03) (1, -9.81922263762935720877e+00) (2, -1.50000000000000000000e+03) (3, 9.82546091052703651769e+00) (4, 1.48565652872003624907e+02) (5, -5.46485361487185183904e+00) (6, -1.70778097166576436905e+01) (7, -5.09103256750715704726e+00) (8, 5.31402068942399182561e+02) (9, -7.69049341309601430794e+00) (10, -3.54322046842996314808e+02) (11, 7.73991455938386074820e+00) (12, 1.50000000000000000000e+03) (13, 1.11808998810500135335e+01) (14, -1.50000000000000000000e+03) (15, 2.50453599114872744735e+01) (16, 4.30042766453143912031e+01) (17, -1.01917067165272392515e+01) (18, 3.01772373695768614255e+01) (19, 3.73604491469121935410e+00) (20, 3.31363954982997256593e+02) (21, -6.72591273548298662632e+00) (22, -7.53623920055915021976e+01) (23, 1.42916854481582387137e+01) (24, -1.50000000000000000000e+03) (25, 1.71206700731144216832e+01) (26, 1.50000000000000000000e+03) (27, -1.20606128065528430682e+01) (28, 2.44529602917397852480e+01) (29, -7.11893927615308097501e+00) (30, -4.04782645885878000769e+00) (31, -4.09414755149432618708e+00) (32, -2.07252901396786839427e+01) (33, 3.10130974292502976652e+01) (34, 7.53460569204746288818e+00) (35, 1.84353246471135925333e+01) (36, -3.01882479229279843125e+00) (37, 1.14145284744971875490e+00) (38, 4.22101077225549232708e+01) (39, -4.33985556527986471309e+00) (40, 1.06643790067780077635e+01) (41, -9.17031785057036508135e+00) (42, 4.32488527691290414623e+02) (43, 2.98640055359155418557e+01) (44, 5.25148335537073876367e+02) (45, -2.74566950864937240340e+01) (46, 1.85444668637033345249e+01) (47, -2.05150559329747927961e+01) (48, 1.50000000000000000000e+03) (49, -8.80217946382157023777e+00) (50, -1.02186248294724082303e-02) (51, -1.40368622490452743534e+00) (52, 1.68283515780106085913e+02) (53, 4.57270706791227077304e+00) (54, 5.30625822675125277783e+02) (55, -2.24075227552429634414e+00) (56, 8.58286479189697502079e+02) (57, -3.17092497172751244250e+01) (58, 1.36125065860194567335e+01) (59, 9.75678722349873339681e+00) (60, 1.01981466273192904737e+03) (61, -2.92719676093848280019e+00) (62, 1.50000000000000000000e+03) (63, 1.12213969252448784175e+01) (64, 1.16136146591449301013e+03) (65, -1.22389091980185327202e+01) (66, 2.28213762168677440911e+01) (67, 1.42722711707344416254e+01) (68, -1.50000000000000000000e+03) (69, 1.00192941995397308830e+01) (70, -1.06696048505442746546e+01) (0, 1.50000000000000000000e+03) (1, -5.49214323527296155447e+00) (2, 1.50000000000000000000e+03) (3, 1.67939074780047747915e+00) (4, -1.25056435341459476263e+02) (5, 1.58652050925863861153e+01) (6, 1.36371190995606440310e+02) (7, 9.50581290018601343661e+00) (8, -1.50000000000000000000e+03) (9, -2.79337220375470280942e+01) (10, -8.37380271718477731113e-01) (11, 2.91755211870786768102e+00) (12, -1.49860859615804633904e+03) (13, 1.46782788902573386736e+01) (14, 1.50000000000000000000e+03) (15, -3.07081640206777919389e+01) (16, -1.50000000000000000000e+03) (17, -3.67700452503212416033e+00) (18, -2.13919717186494807493e+02) (19, -1.44411990969947119368e+01) (20, -1.50000000000000000000e+03) (21, -1.53273074636799684356e+01) (22, 1.50000000000000000000e+03) (23, 3.57711600068902271232e+01) (24, 1.50000000000000000000e+03) (25, -1.57088436228590158095e+01) (26, -1.50000000000000000000e+03) (27, -1.58991953209287846249e+01) (28, -1.29710462704861447492e+03) (29, -1.49804980294047371814e+01) (30, -1.50000000000000000000e+03) (31, 1.13993565793026263577e+01) (32, -1.50000000000000000000e+03) (33, 3.78444434502977689050e+00) (34, -1.50000000000000000000e+03) (35, -2.76349529406230267625e+01) (36, -1.42185787544148479355e+03) (37, 2.03687456812322444932e+01) (38, -1.50000000000000000000e+03) (39, -2.28908656229694180695e+01) (40, -5.96460265280972862456e+02) (41, 2.66592581075667256485e+00) (42, -1.50000000000000000000e+03) (43, 1.26934991138419572820e+01) (44, -1.50000000000000000000e+03) (45, 1.79787781646462399010e+01) (46, -2.27240240738546317445e+00) (47, 3.06552798388934313323e+01) (48, -1.50000000000000000000e+03) (49, 3.10745285396374306686e+01) (50, -1.50000000000000000000e+03) (51, -1.16909325933196281966e+01) (52, -1.50000000000000000000e+03) (53, -1.33670111978931878127e+01) (54, -1.50000000000000000000e+03) (55, 2.69719646160202550789e+01) (56, -1.50000000000000000000e+03) (57, -1.09576710556237806315e+01) (58, -1.57579447917721040540e+01) (59, 3.80486216260124621158e+01) (60, -1.50000000000000000000e+03) (61, 7.33204495655641697027e+00) (62, -1.50000000000000000000e+03) (63, -1.72099010546529633814e+01) (64, 1.50000000000000000000e+03) (65, 3.21864395733486361451e+01) (66, -3.95077424034467910019e+01) (67, -1.54951655606288731803e+01) (68, 1.50000000000000000000e+03) (69, 3.46780765483251629533e+00) (70, -1.89603590778467285816e+01) (0, -1.50000000000000000000e+03) (1, -1.62077888490675228184e+01) (2, -1.50000000000000000000e+03) (3, 1.22848831174852239911e+01) (4, 1.23479714420255405116e+02) (5, -1.77844204007108896981e+00) (6, -1.67384398955117063679e+02) (7, 1.17809198061209610131e+01) (8, 1.50000000000000000000e+03) (9, -5.08287696540564493120e+00) (10, -4.43436314787638892199e+01) (11, 2.09432095669685196526e+01) (12, 1.50000000000000000000e+03) (13, -1.05547633949771821449e+02) (14, -1.50000000000000000000e+03) (15, -4.50373848463279955467e+01) (16, 1.50000000000000000000e+03) (17, -5.21555244453930185955e+02) (18, 1.55007084145077641324e+02) (19, 3.73344330569686349008e+01) (20, 1.50000000000000000000e+03) (21, -7.51599401749915898563e+01) (22, -1.50000000000000000000e+03) (23, -1.07151476783642660706e+01) (24, -1.50000000000000000000e+03) (25, -1.73830878191104787334e+01) (26, 1.50000000000000000000e+03) (27, 8.21042742932600617678e+01) (28, 1.39952429473608253829e+03) (29, -2.47223004547126237185e+01) (30, 1.50000000000000000000e+03) (31, -1.58429934981134348249e+01) (32, 1.50000000000000000000e+03) (33, 1.06264987108372270797e+01) (34, 1.50000000000000000000e+03) (35, -3.47725388383968621042e+01) (36, 1.50000000000000000000e+03) (37, 2.09393299668912256095e+01) (38, 1.50000000000000000000e+03) (39, -4.65527937941076146444e+01) (40, 5.71027439317059588575e+02) (41, 5.94406203880915207094e+00) (42, 1.50000000000000000000e+03) (43, -4.68540507505557499712e+01) (44, 1.50000000000000000000e+03) (45, -1.93565580765418815190e+02) (46, -6.13184694189577772505e+00) (47, 2.95456357832392910723e+01) (48, 1.50000000000000000000e+03) (49, 1.41877100406890434670e+02) (50, 1.50000000000000000000e+03) (51, -2.20781038309143923470e+02) (52, 1.50000000000000000000e+03) (53, -5.31465456372725157053e+02) (54, 1.50000000000000000000e+03) (55, -2.05218257342067971649e+02) (56, 1.50000000000000000000e+03) (57, 2.61373632509069807384e+02) (58, 2.09094604953415995396e+02) (59, -5.76886101132856992990e+02) (60, 1.50000000000000000000e+03) (61, 4.04147177084767594835e+00) (62, 1.50000000000000000000e+03) (63, -3.38954218995926197522e+01) (64, 1.16136146591449301013e+03) (65, -4.96817182542801631939e+01) (66, 1.84776967887671865753e+01) (67, -1.49735863863136864360e+00) (68, -1.50000000000000000000e+03) (69, -1.74271959306715800153e+01) (70, -3.36299528123856177331e+01) (0, 1.50000000000000000000e+03) (1, 1.45383303625183621932e+01) (2, 1.50000000000000000000e+03) (3, 2.60629089721947515557e+01) (4, -5.83353710474480777748e+01) (5, -1.96127157581534063979e+01) (6, 2.17756838227630566962e+02) (7, 1.35310787184560528118e+01) (8, -1.50000000000000000000e+03) (9, 2.69117640812870249079e+01) (10, 2.03961717073463724148e+01) (11, -1.03961889418253150552e+01) (12, -1.50000000000000000000e+03) (13, -2.57824672543110473555e+01) (14, 1.50000000000000000000e+03) (15, 3.12305259272666235759e+00) (16, -1.04045086848959215331e+02) (17, -3.42776340453521033425e+00) (18, -9.31228431935013389875e+01) (19, 1.12168174147494905668e+01) (20, -1.04818465746923450865e+02) (21, -1.98152430039682165841e+01) (22, 1.50000000000000000000e+03) (23, 3.98141565014791964927e+00) (24, 1.50000000000000000000e+03) (25, -6.33937171020785505959e+00) (26, -1.50000000000000000000e+03) (27, 6.86058191726452637482e+00) (28, -1.20817188493031139274e+02) (29, -1.67061110770863496811e+00) (30, -3.89739384648455740034e+01) (31, 6.39173700824969692746e+00) (32, -5.54477502959666850302e+01) (33, -2.63897338221447306239e+01) (34, -1.50000000000000000000e+03) (35, 1.01275149789650900090e+01) (36, -1.31932562055595514749e+00) (37, -3.34738015314295580538e+01) (38, -1.50000000000000000000e+03) (39, 1.96804471794634920911e+01) (40, -1.04614207951942816521e+02) (41, 1.45114731137417010132e+01) (42, -1.50000000000000000000e+03) (43, -9.06878060322697265860e+00) (44, -1.49658839757720306807e+03) (45, 1.06917234715518674193e+01) (46, -3.17451603974270824438e+02) (47, -1.87637638310235388417e+00) (48, -1.04251840264607949393e+03) (49, 1.48044804157193663485e+01) (50, -3.10665277735334619535e+01) (51, -1.47096244812876690844e+01) (52, -2.92189702197028857711e+01) (53, 3.29856489086922692877e+01) (54, -6.10220547901678074254e+01) (55, 1.40663921509932121623e+00) (56, -7.66504038697316332218e+02) (57, 9.99384777689196468486e+00) (58, -1.15800278878549036676e+01) (59, 1.83977988518023863662e+02) (60, -1.50000000000000000000e+03) (61, 5.32858281849811987740e+00) (62, -1.50000000000000000000e+03) (63, 1.80578381523674202924e+00) (64, 1.50000000000000000000e+03) (65, -6.49634666444988884138e+00) (66, -5.35937859997145054081e+01) (67, -6.21132718651291337864e+00) (68, 1.50000000000000000000e+03) (69, 1.29797017890940202811e+00) (70, 3.67763039003856562204e+00) (0, -1.50000000000000000000e+03) (1, 4.71499129574244069119e+00) (2, -1.50000000000000000000e+03) (3, 9.07408941967596360811e-01) (4, 6.29193315772371875028e+01) (5, 4.89167154752640520599e+00) (6, -1.98361709641076316757e+02) (7, -2.69558741821457630294e+01) (8, 1.50000000000000000000e+03) (9, -5.71729746352767804751e+01) (10, 2.93707258973349176756e+01) (11, -3.27382057711067062655e+01) (12, 1.50000000000000000000e+03) (13, -4.79935952690260734244e+01) (14, -1.50000000000000000000e+03) (15, -3.25184058251374210613e+01) (16, 1.50000000000000000000e+03) (17, -4.03680988879379825107e+01) (18, 1.25593057884702034244e+02) (19, 1.77006191157327137375e+01) (20, 1.50000000000000000000e+03) (21, -8.74545302658276746399e+00) (22, -1.50000000000000000000e+03) (23, 1.35915549140509810400e+01) (24, -1.50000000000000000000e+03) (25, -2.87526215120736203801e+01) (26, 1.50000000000000000000e+03) (27, 1.24541966202943740427e+02) (28, 2.47059960002934218437e+02) (29, 4.47238035949700716287e+01) (30, 1.50000000000000000000e+03) (31, 3.22593699979114632015e+01) (32, 1.50000000000000000000e+03) (33, -1.36440482690264683896e+01) (34, 1.42365423302904218872e+03) (35, 1.63405395098155423739e+01) (36, 1.50000000000000000000e+03) (37, 3.49161900374660092439e+01) (38, 1.50000000000000000000e+03) (39, 1.11076658991737842186e+00) (40, 5.32367183884930227578e+02) (41, 4.01016732161608189244e+01) (42, 1.41219536101190533373e+03) (43, 1.53900779052513270173e+00) (44, 1.50000000000000000000e+03) (45, 1.98822691249361795940e+01) (46, -9.95923414070156098887e+00) (47, 7.77851449383790427561e+00) (48, 1.50000000000000000000e+03) (49, 6.94038938360750989887e+01) (50, 1.50000000000000000000e+03) (51, -6.46355005991765239060e+01) (52, 1.50000000000000000000e+03) (53, -2.19064583631856564239e+01) (54, 1.50000000000000000000e+03) (55, -3.66772819036195985021e+00) (56, 1.50000000000000000000e+03) (57, 6.74524767874730173389e+01) (58, 6.59815078126362521971e+01) (59, -4.94174193140270716640e+01) (60, 1.50000000000000000000e+03) (61, 3.11947394952190784068e+01) (62, 1.50000000000000000000e+03) (63, 6.78742837131893494984e+00) (64, 1.16136146591449301013e+03) (65, 1.27478207242323300363e+01) (66, 9.55500024680889339379e+01) (67, 3.74756712912902258950e+01) (68, -1.50000000000000000000e+03) (69, -2.36456366884874640277e+01) (70, 6.52887054722254323025e+00) (0, 1.50000000000000000000e+03) (1, -3.89864561601356882647e+01) (2, 1.50000000000000000000e+03) (3, -3.14593561983002167892e+01) (4, -5.53603167134819614148e+02) (5, 2.23543176193536261565e+01) (6, -1.24498062745826700848e+02) (7, -1.03291876296625009246e+01) (8, -2.64291383228062215949e+02) (9, 1.52714338856716995707e+01) (10, 3.82320608513040099297e+02) (11, 4.62054217257613508707e+00) (12, -1.50000000000000000000e+03) (13, 2.09490434396680313966e+01) (14, 1.50000000000000000000e+03) (15, 2.44949027169091273493e+01) (16, -3.84736718384918958691e+01) (17, -1.71762165071974379771e+01) (18, -6.73590211588499272466e+01) (19, 2.50644244896747059315e+00) (20, -6.17762995551475341927e+02) (21, -1.82710785306726215538e+01) (22, 4.62055029045762282180e+01) (23, -9.42898536885622817749e+00) (24, 5.23033669019157514413e+02) (25, -2.25224671647595826585e+01) (26, -1.45173955603039394191e+03) (27, 1.20174496396716889990e+01) (28, 2.69643290015299442075e+02) (29, -5.05136768073445807659e+00) (30, -1.34031086520746747226e+01) (31, -8.64784523619355915969e+00) (32, -2.41047024913118292488e+02) (33, 4.01994635352597029510e+01) (34, -7.78148298383902528030e+01) (35, 3.49829067352623042098e+01) (36, -6.86143254520745017544e+02) (37, 6.03047559227628315881e+00) (38, -2.11793648046980251820e+01) (39, 2.07233339388670145809e+01) (40, 2.04677516324865997888e+01) (41, 1.41168198338958852389e+01) (42, 7.14878669129788363534e+02) (43, 1.76927352037487466418e+01) (44, -1.50000000000000000000e+03) (45, 1.43735368769402760414e+00) (46, 5.41844400516015483049e+01) (47, -7.05992892842194841307e+00) (48, -1.50000000000000000000e+03) (49, -2.64368328097454501346e+01) (50, -3.77234865955670784388e+02) (51, -2.46675549322254133999e-01) (52, 6.34966494893029178570e+01) (53, 2.66578617523407146450e+01) (54, 1.85872314719696163365e+01) (55, -1.81765965018535311515e+01) (56, -4.04755732541504130495e+02) (57, -3.86321048208320583228e+00) (58, 5.35687796815435831377e+02) (59, -1.25064875979667728956e+01) (60, -7.65392639982828541179e+02) (61, -1.93525346771090731579e+01) (62, -1.50000000000000000000e+03) (63, 3.48783598218946124803e+01) (64, 1.50000000000000000000e+03) (65, -2.39336594326788265619e+01) (66, -8.77106318458911857761e+01) (67, 4.15769206719452366627e+00) (68, 1.50000000000000000000e+03) (69, 2.40277544113120917757e+01) (70, -8.24931611927724905975e-01) (0, -1.50000000000000000000e+03) (1, -6.62636392939446210448e+01) (2, -1.50000000000000000000e+03) (3, 2.79816514622802472445e+01) (4, 5.18905269592324032146e+01) (5, -7.89795120482254109362e+00) (6, -5.52274240463573917737e+01) (7, 8.58079869381587734267e+00) (8, 1.50000000000000000000e+03) (9, 1.16213260105703053426e+01) (10, -4.54931840718745164054e+01) (11, -1.82413285036514771775e+01) (12, 1.50000000000000000000e+03) (13, -1.89781299507412057892e+01) (14, -1.50000000000000000000e+03) (15, 4.06204597845066039952e+00) (16, 1.50000000000000000000e+03) (17, -1.96706496409017177029e+02) (18, -1.96252072610389305396e+01) (19, -3.00060034318201758197e+01) (20, 1.50000000000000000000e+03) (21, -1.44943818613812762663e+01) (22, -1.50000000000000000000e+03) (23, -4.64442196887198264221e+01) (24, -1.50000000000000000000e+03) (25, -2.10442160462857366099e+01) (26, 1.50000000000000000000e+03) (27, -2.49709746102861913641e+01) (28, 1.46654490465000617405e+03) (29, -1.36579617012223053507e+01) (30, 1.50000000000000000000e+03) (31, 2.63750957358766697780e+01) (32, 4.80009277341162658104e+02) (33, 2.12735508722790953584e+01) (34, 1.50000000000000000000e+03) (35, -5.10547824431351102703e+01) (36, 1.50000000000000000000e+03) (37, -9.55207956616050068988e+00) (38, 1.50000000000000000000e+03) (39, -5.08027982603053729349e+01) (40, 1.19760254897828971821e+02) (41, 3.60891798777340966353e+01) (42, 1.50000000000000000000e+03) (43, 1.98085140025210222348e+01) (44, 1.50000000000000000000e+03) (45, -3.68092273456647305352e+01) (46, -4.53057437688716788671e+01) (47, -5.02401115521942571718e+01) (48, 1.50000000000000000000e+03) (49, 6.88820303458500404759e+01) (50, 1.50000000000000000000e+03) (51, -5.70666882682300951046e+01) (52, 1.50000000000000000000e+03) (53, -1.70115363815000904424e+02) (54, 1.50000000000000000000e+03) (55, -7.65242023317162107787e+01) (56, 1.50000000000000000000e+03) (57, 1.73849322605038452139e+02) (58, 3.28773074146612387381e+01) (59, -2.41879470565489469891e+02) (60, 1.50000000000000000000e+03) (61, -1.85790659460563816197e+01) (62, 1.50000000000000000000e+03) (63, 2.93254985566924126772e+01) (64, -6.13854425116019228881e+02) (65, -9.27737792614737166730e+00) (66, -3.92368962512501866513e+01) (67, -8.11336087349681065461e+01) (68, -1.50000000000000000000e+03) (69, 3.49248372685545902527e+01) (70, -3.15946291315918230680e+01) (0, -1.50000000000000000000e+03) (1, 2.23003170135934709606e+01) (2, -1.50000000000000000000e+03) (3, -7.28960112300309148736e+00) (4, 7.41557216595188606334e+01) (5, 8.73078331273890118069e-01) (6, -8.33573289859642585498e+01) (7, -3.92812117949383576843e+00) (8, 1.50000000000000000000e+03) (9, -1.96208385534356954949e+00) (10, -7.94086372452015343271e+00) (11, 1.01047490022631620832e+01) (12, 1.50000000000000000000e+03) (13, -5.73435471333940185445e+01) (14, -1.50000000000000000000e+03) (15, -1.69958944321188631932e+01) (16, 1.50000000000000000000e+03) (17, -1.84753889658484382608e+02) (18, 2.70007748309099326889e+01) (19, -9.65660983823009111404e+00) (20, 1.50000000000000000000e+03) (21, -1.67142228804380792440e+01) (22, -1.50000000000000000000e+03) (23, -1.30308952601169636409e+01) (24, -1.50000000000000000000e+03) (25, -2.81003802472193804363e+01) (26, 1.50000000000000000000e+03) (27, 1.55456688855402997973e+01) (28, 1.46654490465000617405e+03) (29, 1.08316969551446184994e+00) (30, 1.50000000000000000000e+03) (31, 7.09578632253055618939e-02) (32, 5.51947900040470130989e+02) (33, -8.47216133547063066089e+00) (34, 1.50000000000000000000e+03) (35, 2.75247538797695128210e+01) (36, 1.50000000000000000000e+03) (37, -3.60449726079763692610e+01) (38, 1.50000000000000000000e+03) (39, 6.40766215822481033371e+00) (40, 1.79482201648286547879e+02) (41, 1.61800758859325206629e+01) (42, 1.50000000000000000000e+03) (43, 1.74462630338664865803e+01) (44, 1.50000000000000000000e+03) (45, -8.05874393523845071741e+01) (46, -4.83673061606141896362e+00) (47, 1.46668057755155238908e+01) (48, 1.50000000000000000000e+03) (49, 5.57523732874011415106e+01) (50, 1.50000000000000000000e+03) (51, -6.66198560156830836831e+01) (52, 1.50000000000000000000e+03) (53, -1.66666950621982465464e+02) (54, 1.50000000000000000000e+03) (55, -8.50754200667374647082e+01) (56, 1.50000000000000000000e+03) (57, 1.00885812245580368085e+02) (58, 1.02625786111529663458e+02) (59, -1.65645440497775922495e+02) (60, 1.50000000000000000000e+03) (61, -1.70445408302141103718e+01) (62, 1.50000000000000000000e+03) (63, -6.21521783917354397886e+00) (64, -6.13854425116019228881e+02) (65, 1.74285251739938615856e+01) (66, 4.66496496911014872921e+01) (67, -1.11199180307937197654e+01) (68, -1.50000000000000000000e+03) (69, -2.17125137206594587269e+01) (70, -2.25920608398000837269e+01) (71, 2.85928267561316840073e+00) (72, 8.13776594441643830180e+00) (73, 3.34288729477792712075e+00) (74, -1.69727601940891510424e+01) (75, 1.50000000000000000000e+03) (76, -2.10245534647129552752e+01) (77, 5.70266925648158551354e+00) (78, -1.42389957973743630504e+01) (79, 1.50000000000000000000e+03) (80, 1.50000000000000000000e+03) (81, 1.59377809522628375305e+01) 
