FANN_FLO_2.1
num_layers=3
learning_rate=0.700000
connection_rate=1.000000
network_type=0
learning_momentum=0.000000
training_algorithm=2
train_error_function=1
train_stop_function=0
cascade_output_change_fraction=0.010000
quickprop_decay=-0.000100
quickprop_mu=1.750000
rprop_increase_factor=1.001000
rprop_decrease_factor=0.333300
rprop_delta_min=0.000000
rprop_delta_max=50.000000
rprop_delta_zero=0.100000
cascade_output_stagnation_epochs=12
cascade_candidate_change_fraction=0.010000
cascade_candidate_stagnation_epochs=12
cascade_max_out_epochs=150
cascade_max_cand_epochs=150
cascade_num_candidate_groups=2
bit_fail_limit=3.49999999999999977796e-01
cascade_candidate_limit=1.00000000000000000000e+03
cascade_weight_multiplier=4.00000000000000022204e-01
cascade_activation_functions_count=10
cascade_activation_functions=3 5 7 8 10 11 14 15 16 17 
cascade_activation_steepnesses_count=4
cascade_activation_steepnesses=2.50000000000000000000e-01 5.00000000000000000000e-01 7.50000000000000000000e-01 1.00000000000000000000e+00 
layer_sizes=71 11 2 
scale_included=0
neurons (num_inputs, activation_function, activation_steepness)=(0, 0, 0.00000000000000000000e+00) (0, 0, 0.00000000000000000000e+00) (0, 0, 0.00000000000000000000e+00) (0, 0, 0.00000000000000000000e+00) (0, 0, 0.00000000000000000000e+00) (0, 0, 0.00000000000000000000e+00) (0, 0, 0.00000000000000000000e+00) (0, 0, 0.00000000000000000000e+00) (0, 0, 0.00000000000000000000e+00) (0, 0, 0.00000000000000000000e+00) (0, 0, 0.00000000000000000000e+00) (0, 0, 0.00000000000000000000e+00) (0, 0, 0.00000000000000000000e+00) (0, 0, 0.00000000000000000000e+00) (0, 0, 0.00000000000000000000e+00) (0, 0, 0.00000000000000000000e+00) (0, 0, 0.00000000000000000000e+00) (0, 0, 0.00000000000000000000e+00) (0, 0, 0.00000000000000000000e+00) (0, 0, 0.00000000000000000000e+00) (0, 0, 0.00000000000000000000e+00) (0, 0, 0.00000000000000000000e+00) (0, 0, 0.00000000000000000000e+00) (0, 0, 0.00000000000000000000e+00) (0, 0, 0.00000000000000000000e+00) (0, 0, 0.00000000000000000000e+00) (0, 0, 0.00000000000000000000e+00) (0, 0, 0.00000000000000000000e+00) (0, 0, 0.00000000000000000000e+00) (0, 0, 0.00000000000000000000e+00) (0, 0, 0.00000000000000000000e+00) (0, 0, 0.00000000000000000000e+00) (0, 0, 0.00000000000000000000e+00) (0, 0, 0.00000000000000000000e+00) (0, 0, 0.00000000000000000000e+00) (0, 0, 0.00000000000000000000e+00) (0, 0, 0.00000000000000000000e+00) (0, 0, 0.00000000000000000000e+00) (0, 0, 0.00000000000000000000e+00) (0, 0, 0.00000000000000000000e+00) (0, 0, 0.00000000000000000000e+00) (0, 0, 0.00000000000000000000e+00) (0, 0, 0.00000000000000000000e+00) (0, 0, 0.00000000000000000000e+00) (0, 0, 0.00000000000000000000e+00) (0, 0, 0.00000000000000000000e+00) (0, 0, 0.00000000000000000000e+00) (0, 0, 0.00000000000000000000e+00) (0, 0, 0.00000000000000000000e+00) (0, 0, 0.00000000000000000000e+00) (0, 0, 0.00000000000000000000e+00) (0, 0, 0.00000000000000000000e+00) (0, 0, 0.00000000000000000000e+00) (0, 0, 0.00000000000000000000e+00) (0, 0, 0.00000000000000000000e+00) (0, 0, 0.00000000000000000000e+00) (0, 0, 0.00000000000000000000e+00) (0, 0, 0.00000000000000000000e+00) (0, 0, 0.00000000000000000000e+00) (0, 0, 0.00000000000000000000e+00) (0, 0, 0.00000000000000000000e+00) (0, 0, 0.00000000000000000000e+00) (0, 0, 0.00000000000000000000e+00) (0, 0, 0.00000000000000000000e+00) (0, 0, 0.00000000000000000000e+00) (0, 0, 0.00000000000000000000e+00) (0, 0, 0.00000000000000000000e+00) (0, 0, 0.00000000000000000000e+00) (0, 0, 0.00000000000000000000e+00) (0, 0, 0.00000000000000000000e+00) (0, 0, 0.00000000000000000000e+00) (71, 4, 5.00000000000000000000e-01) (71, 4, 5.00000000000000000000e-01) (71, 4, 5.00000000000000000000e-01) (71, 4, 5.00000000000000000000e-01) (71, 4, 5.00000000000000000000e-01) (71, 4, 5.00000000000000000000e-01) (71, 4, 5.00000000000000000000e-01) (71, 4, 5.00000000000000000000e-01) (71, 4, 5.00000000000000000000e-01) (71, 4, 5.00000000000000000000e-01) (0, 4, 5.00000000000000000000e-01) (11, 4, 9.00000000000000022204e-01) (0, 4, 9.00000000000000022204e-01) 
connections (connected_to_neuron, weight)=(0, 1.50000000000000000000e+03) (1, 2.52604779653401827488e+01) (2, 1.50000000000000000000e+03) (3, -1.35564760385307838675e+01) (4, -4.48613215063325565524e+00) (5, 8.58177637243658963939e+00) (6, -5.44742782195858978866e+01) (7, 8.86531355888948624511e+00) (8, -1.50000000000000000000e+03) (9, -3.74209826366608000470e+00) (10, 4.44018679288839805963e+01) (11, 1.90670406240551031374e+01) (12, -1.50000000000000000000e+03) (13, 1.76598890416323506258e+01) (14, 1.50000000000000000000e+03) (15, 1.86325890511594884913e+01) (16, 2.32872444023170217520e+01) (17, 9.42585894267050505846e+00) (18, -2.28256871946354280567e+01) (19, 1.77183664229399653323e+01) (20, 4.08489654849099679268e+01) (21, -5.42688054761710336749e+00) (22, 5.32164740602699225747e+02) (23, -1.55764556239328442189e+01) (24, 5.15147649851355140527e+02) (25, -1.93740514699398431731e+01) (26, -1.50000000000000000000e+03) (27, 1.75491795296930019887e+00) (28, 1.24544593210918321802e+02) (29, -2.42966303523019249155e+01) (30, -4.95567022241999382004e+01) (31, -1.33215991772420547790e+01) (32, -7.68029473614205357990e+02) (33, 1.20367435063622245650e+01) (34, -3.12007962555900519419e+02) (35, 2.32098586553196675197e+01) (36, -3.81821923292887731805e+02) (37, 1.17874252547182738482e+01) (38, -4.55934128717198859704e+02) (39, 1.17002373612242460688e+00) (40, -2.29398212425618552857e+01) (41, -3.32885430841979657046e+00) (42, 1.50000000000000000000e+03) (43, -2.32575816049486370218e+01) (44, -1.50000000000000000000e+03) (45, -1.76093772290506969114e+01) (46, 2.42804101650208004060e+01) (47, -8.82610189721420468345e+00) (48, -1.50000000000000000000e+03) (49, -3.60342424519404573857e+01) (50, 7.08017510958998741444e+02) (51, 2.43128212439073188023e+01) (52, -5.46510979806668274250e+02) (53, 2.25277517609628539219e+01) (54, -4.16053838153618130491e+02) (55, -2.45861018177963046583e+01) (56, -1.50000000000000000000e+03) (57, 1.58500642783635488087e+01) (58, -1.11742326804566664578e+03) (59, 3.07619488570318466714e+00) (60, -1.50000000000000000000e+03) (61, 6.23457241599589462311e+00) (62, -1.50000000000000000000e+03) (63, -3.54720073737766483646e+00) (64, 1.50000000000000000000e+03) (65, 1.80286527981721320657e+01) (66, -5.89414080782625546817e+01) (67, 1.69064361791434603077e+00) (68, 1.50000000000000000000e+03) (69, -1.23934715463212663522e+00) (70, 1.47124347143024252205e+01) (0, -1.50000000000000000000e+03) (1, 2.32828594250945215549e+01) (2, -1.50000000000000000000e+03) (3, 1.92334234730959572346e+01) (4, 1.88938530765209407036e+01) (5, 1.10571004166468984664e+01) (6, 5.57498626783581130439e+00) (7, -7.10988312534710331647e+00) (8, 6.26464978898994218071e+02) (9, 1.61108613817824029013e+01) (10, -5.66057814930804511278e+02) (11, -2.25222718385745750425e+01) (12, 1.50000000000000000000e+03) (13, 2.15599843232577903507e+01) (14, -5.42082419952240684324e+02) (15, -9.72706814374358508246e+00) (16, 2.98552679543093120174e+01) (17, 1.60314482647328944154e+01) (18, 5.84779724966602714176e+01) (19, -9.71400722938643390592e+00) (20, -8.04413267127375064547e+00) (21, -3.89671130342884275422e+00) (22, -5.43473582603407407987e+02) (23, -9.08689595027121477244e+00) (24, -5.33587330519111674221e+02) (25, 8.80096447788518609912e+00) (26, 1.50000000000000000000e+03) (27, 1.21433577063780777650e+01) (28, 1.42057386890013106040e+02) (29, 2.50708218468897712228e+01) (30, 3.45782987762809170817e+01) (31, 1.43134536869236388412e+01) (32, 9.71900093599192246074e+02) (33, -1.07788615532047362677e+01) (34, 1.50000000000000000000e+03) (35, 1.12459553116081494295e+01) (36, -1.46734314432799930472e+01) (37, 2.61001252699230654741e+01) (38, 4.67207809274738394834e+01) (39, -9.93100491292389753184e-01) (40, 2.29271098341540024990e+01) (41, 1.60506611838344426246e+01) (42, -5.63181847645786774592e+02) (43, 1.90627117100693133089e+00) (44, 1.50000000000000000000e+03) (45, 7.88585193459165800789e+00) (46, -2.63470735417634571718e+01) (47, -3.87313685616410685597e+00) (48, 1.50000000000000000000e+03) (49, 8.16175733175229289884e+00) (50, 1.53360352126489516422e+02) (51, -7.25118152728954523667e+00) (52, 4.91597138718495727971e+02) (53, -5.96283233915972665784e+00) (54, 1.16351365598814652458e+02) (55, 2.30500696154962270157e+00) (56, 1.50000000000000000000e+03) (57, -3.21212583029890730302e+00) (58, 6.17984981912358080081e+01) (59, -1.47297726718742314489e+01) (60, 1.50000000000000000000e+03) (61, 8.58288141538795734675e+00) (62, 1.50000000000000000000e+03) (63, 1.94236781724121669868e+01) (64, -1.50000000000000000000e+03) (65, -1.37277025084412294120e+01) (66, 5.51548295026000516827e+01) (67, 2.13896466592972700482e+00) (68, -1.50000000000000000000e+03) (69, -9.43633768994620258930e-01) (70, -1.80476769224646531598e+01) (0, -1.50000000000000000000e+03) (1, 2.25693469768887347016e+01) (2, -1.50000000000000000000e+03) (3, -1.19776086216679882313e+01) (4, 3.60456034503821456383e+01) (5, 5.25043808255838140298e+00) (6, 8.24286420243654305295e+01) (7, -5.64135562328929918152e+00) (8, 3.27085953707571547966e+02) (9, -1.14165199240417489790e+01) (10, -7.63993594428626465742e+01) (11, 2.28933097259994298156e+01) (12, 1.50000000000000000000e+03) (13, -2.28361979357049982298e+01) (14, -5.61749858734815461503e+02) (15, 1.88264535991007981863e+01) (16, -7.70250532267637595396e+01) (17, -1.43337654297063128439e+01) (18, 6.74396024030043950148e+00) (19, 2.21140655127881906594e+01) (20, -9.50194651891831831847e-01) (21, -5.75696770775166655199e+00) (22, -5.03992793725660561677e+01) (23, -8.19292208853473269414e+00) (24, -5.17997556150751620407e+02) (25, -8.62551568133548762773e+00) (26, 7.35587019418211070843e+02) (27, 3.91234318947121151311e+00) (28, 2.11947466728978270112e+02) (29, -1.29587991337571288852e+01) (30, -1.29956662380875172857e+02) (31, -1.48364527194043382963e+01) (32, 5.59954458061898279198e+01) (33, 1.79475643835620459754e+01) (34, 4.29769786778548109396e+02) (35, -2.10417424722132757609e+01) (36, 9.61912420399500888379e+02) (37, -1.67939591712992246642e+01) (38, 1.03270386802292136963e+02) (39, 1.57760170478275103534e+01) (40, 8.41085072652422240935e+01) (41, -1.48603969699731006671e+01) (42, 2.36619891988778846326e+02) (43, 2.12035437558764883192e+00) (44, 2.28740337130903981233e+02) (45, -2.22333346539680256626e+01) (46, 2.18576348362440278095e+01) (47, 1.02246262321673384577e+01) (48, 1.50000000000000000000e+03) (49, 3.68548305186159419478e+00) (50, 9.74286697440280988758e+01) (51, 1.93267988026457615547e+01) (52, 4.09548792114473144466e+02) (53, 3.63150525782128985597e+00) (54, 1.00584677677366687476e+03) (55, 1.90321998013446469500e+00) (56, 7.12081425021807604026e+02) (57, -1.84864740355144796524e+00) (58, 4.34462326571689274601e+01) (59, 7.81936330004255353288e+00) (60, 7.74764458087259640706e+02) (61, -1.30065393339962813712e+01) (62, 5.43280531496118101131e+02) (63, 1.70541873155880949753e+01) (64, -1.50000000000000000000e+03) (65, 1.77571090517894658589e-01) (66, 5.34531617169554920110e+01) (67, 1.67520790428445707221e+01) (68, -1.50000000000000000000e+03) (69, 4.94889160695807639456e+00) (70, -7.60716359219998405905e+00) (0, 1.50000000000000000000e+03) (1, -1.39943136318655749761e+01) (2, 1.50000000000000000000e+03) (3, 5.72600613464666352570e+00) (4, -3.97875685748885459248e+01) (5, -7.34103221782133097406e+00) (6, -2.17246127885167048532e+01) (7, 1.34577845108677984776e+00) (8, -1.50000000000000000000e+03) (9, -8.91864693578796052797e-01) (10, 4.53193159727072369947e+01) (11, -8.86132411345133341740e+00) (12, -1.50000000000000000000e+03) (13, -3.92185957756005310060e+00) (14, 1.50000000000000000000e+03) (15, 1.35608511594156944113e+00) (16, -7.43367660130346230574e+00) (17, 1.75456248392844038619e+01) (18, -5.67788485068829373859e+01) (19, -7.22439263200140047161e+00) (20, 4.34460235408169808125e+01) (21, 6.52229373596960537718e-01) (22, 5.45251944105354596104e+02) (23, 2.11874510036087961851e+01) (24, 5.59760225382361340962e+02) (25, -8.32679810859387181665e+00) (26, -1.49848373103982930843e+03) (27, -1.91448372661852665999e+01) (28, 1.05512817822946522028e+03) (29, -8.80198175403497273805e+00) (30, -4.18217933586434256199e+01) (31, -8.81127206583199473755e+00) (32, -4.80885785502500652910e+02) (33, 3.23051535445541837532e+00) (34, -5.77031878449519695096e+01) (35, 1.86971365003212888212e+01) (36, -3.89683101458817588991e+02) (37, -5.02933090851685249412e-01) (38, -4.23553394750371182909e+02) (39, -1.06254791958056920009e+01) (40, -1.99008482114415272690e+01) (41, 1.68495470804115896613e+01) (42, 1.50000000000000000000e+03) (43, 3.12058734618687205753e+00) (44, -9.50928426768809003988e+02) (45, 2.97984987969898575955e+01) (46, -9.51312950432569515158e+00) (47, 6.95792146953573542589e+00) (48, -1.50000000000000000000e+03) (49, -2.95054826852161262707e+01) (50, 4.52916704491027019230e+02) (51, 2.26921069493778659876e+01) (52, -4.10317946716888911851e+02) (53, 1.69099333222456813530e+01) (54, -1.50000000000000000000e+03) (55, 3.55267605000374353530e-01) (56, -1.50000000000000000000e+03) (57, 3.66226324476208198178e+00) (58, -1.08810065433312772143e+02) (59, 2.55156421626811074077e+01) (60, -1.16189933408948013494e+03) (61, 8.29108322336827541221e+00) (62, -1.50000000000000000000e+03) (63, -1.83618707361330137928e+01) (64, 1.50000000000000000000e+03) (65, -6.19151443433938020178e+00) (66, -3.20853437586522076685e+01) (67, 5.96479551840086275050e-01) (68, 1.50000000000000000000e+03) (69, 2.25659013403238830620e+01) (70, -2.58242010461507263130e+01) (0, -1.50000000000000000000e+03) (1, -5.37165794422752718162e+00) (2, -1.50000000000000000000e+03) (3, 6.24798105928557112598e-01) (4, 5.29326255229681663650e+01) (5, 6.58793012069424932520e+00) (6, 3.82075686920093957610e+01) (7, -1.06199038912582039984e+01) (8, 1.50000000000000000000e+03) (9, -1.70707024686832475879e+01) (10, -4.20731356048205071829e+01) (11, 7.02641455909593659612e+00) (12, 1.50000000000000000000e+03) (13, -3.10701623008941441029e+00) (14, -7.34598774295822067870e+02) (15, -1.01695338425101744484e+00) (16, 2.40365602328430805201e+00) (17, -1.58578245387140590594e+01) (18, 6.74771642592156695173e+01) (19, 3.60947529047898196808e+00) (20, -5.23274326734470946576e+02) (21, -2.05195410835923297554e+01) (22, -2.48245680277157191540e+02) (23, 1.81111629818211987697e+01) (24, -2.74377727109516797555e+02) (25, -1.56164263184894487324e+01) (26, 1.50000000000000000000e+03) (27, -2.77548976279591563809e+00) (28, -6.73319610471972396226e+02) (29, 3.39640342429031250049e+01) (30, 4.92582845172775662945e+01) (31, 7.54664978751285620007e+00) (32, 5.05635717374182490857e+02) (33, 4.06513766129774101188e+00) (34, 3.92715086871720870931e+01) (35, -2.59763814674997277621e+01) (36, 6.72333223029676105398e+02) (37, -2.03697271535678368082e+01) (38, 6.43963413580827477745e+02) (39, 9.81912783275936540406e+00) (40, 2.51967385878608984839e+00) (41, -1.47790155538677296931e+01) (42, -1.50000000000000000000e+03) (43, -1.45272725017824448912e+01) (44, 1.50000000000000000000e+03) (45, 3.35056033244693818318e+00) (46, -3.40937119843872604719e+00) (47, 6.39205836235186897198e+00) (48, 1.50000000000000000000e+03) (49, -2.42908761396580441527e+00) (50, -1.41210096463916624998e+03) (51, -4.67520843848997635916e+00) (52, 4.45128504066088112268e+02) (53, 2.85046582834674522289e+00) (54, 1.09743267706335450384e+03) (55, -9.57719681119319510287e+00) (56, 1.50000000000000000000e+03) (57, 1.86770817409345220028e+01) (58, 7.40366442109333661392e+02) (59, -2.86979417259796640849e+01) (60, 1.50000000000000000000e+03) (61, 2.25079029622798039156e+01) (62, 1.50000000000000000000e+03) (63, 1.41218371815268923797e+01) (64, -1.50000000000000000000e+03) (65, 1.07042514856090011932e+01) (66, 6.78710267509741385084e+01) (67, -1.65480816548259959120e+01) (68, -1.50000000000000000000e+03) (69, -1.43078299527419954273e+01) (70, -2.28916493420851701046e+01) (0, -1.50000000000000000000e+03) (1, 1.94595208990216619327e+01) (2, -1.50000000000000000000e+03) (3, 1.76554776017772852015e+01) (4, -6.24476221603749159783e+00) (5, -4.38715339239921586767e+00) (6, -2.78191767595766847876e+01) (7, -9.08826760330340910343e+00) (8, -2.50207284014193760413e+01) (9, 1.95284980862711385896e+01) (10, -7.71088049480926542856e+01) (11, -8.95643263151155366586e+00) (12, 1.50000000000000000000e+03) (13, -6.73089464448007568365e+00) (14, -1.50000000000000000000e+03) (15, -1.02362959436423626158e+01) (16, -2.23401665835246738823e+01) (17, -1.29799699188047714671e+01) (18, 8.25258269307201786091e+00) (19, 2.81122829126333551031e+00) (20, 5.62344977959221825614e+00) (21, 1.73669230736042408125e+01) (22, -1.15858113760808434378e+00) (23, -6.80249484082704025667e+00) (24, -5.57000120176961331708e+02) (25, -9.68171414079827208354e+00) (26, 3.15473346301462242991e+02) (27, -2.43563615175363992194e+01) (28, 3.56637348364117912070e+01) (29, -1.47118362291384858764e+01) (30, 1.08094924522239054454e+02) (31, -2.10494343875714733372e+01) (32, 2.13554179682370403270e+02) (33, -1.39073434966779139188e+01) (34, 1.36514340778757031103e+02) (35, 8.02817495247725432250e+00) (36, 3.22634453404503744878e+01) (37, 9.30446291741418285426e+00) (38, 2.40174992140684537389e+02) (39, -2.00965783801978830070e+01) (40, -1.24890188259726588882e+01) (41, -1.41420033884435429883e+01) (42, 1.41562266795574174694e+02) (43, 1.63807085942974204329e+01) (44, 3.13846481063535236444e+01) (45, 1.76053058749827222584e+01) (46, -1.80852303498412908311e+02) (47, 1.58335693791790799168e+00) (48, 1.50000000000000000000e+03) (49, 2.40702591137486221484e+00) (50, 3.99569846375919496495e+02) (51, -1.73410596954295996852e+01) (52, 1.78245950705391777547e+02) (53, -1.61281320763455293665e+00) (54, 1.99503996040564572922e+01) (55, -2.00862355775448122586e+01) (56, -6.56009907671142741492e+02) (57, -9.44399380527672027696e-01) (58, 6.76273050065427039357e+00) (59, 1.11723532570836763256e+01) (60, 4.11334195940333756880e+02) (61, 1.14952923463104674795e+01) (62, 1.50000000000000000000e+03) (63, -7.37158440889743094004e+00) (64, -1.50000000000000000000e+03) (65, 1.77992204321772220510e+01) (66, 7.93039689068967135199e+01) (67, 8.44202788394675707195e+00) (68, -1.50000000000000000000e+03) (69, 1.35163266338993839355e+01) (70, -1.48816956593287974542e-01) (0, -1.50000000000000000000e+03) (1, -1.07679618483807306717e+01) (2, -1.50000000000000000000e+03) (3, 2.15483953780793502375e+00) (4, 3.15049297629901786877e+02) (5, -2.29390338719357131936e+01) (6, -5.10816079856429627881e+00) (7, -1.96161031913851644504e+01) (8, 2.06524465329815178904e+01) (9, 6.83142942400458430541e+00) (10, -5.38764126902507200612e+02) (11, 2.11245299371829418078e+01) (12, 1.50000000000000000000e+03) (13, -1.22728180041700447589e+01) (14, -1.50000000000000000000e+03) (15, -1.91612649021957182072e+01) (16, 3.52859565263703530036e+02) (17, 2.56981990261644313023e+01) (18, 3.67658562697759307980e+01) (19, -9.86338241997386511173e-01) (20, 2.81606322367265022422e+02) (21, 2.34641718712045772577e+01) (22, -5.24226991057767349957e+02) (23, 2.47432513674775798052e+01) (24, -5.23881972020518446698e+02) (25, 1.17520250007555944194e+01) (26, 1.50000000000000000000e+03) (27, 1.56112488280698513687e-01) (28, -1.22645581220696840319e+02) (29, 1.91893255189875837630e+01) (30, 6.08438244666549437056e+01) (31, 1.28546495246719727490e+00) (32, -1.27684513984852856083e+02) (33, 2.71037359094279928229e+01) (34, -9.38984783986380904253e+01) (35, 1.04989846831946511685e+01) (36, 4.87589905521548075740e+02) (37, 2.53498440031279248519e-01) (38, 5.68741946102916386963e+01) (39, -1.67954020167938260499e+01) (40, 1.60806887158321087927e-01) (41, 1.51289674960403530690e+01) (42, 1.50000000000000000000e+03) (43, -2.07668212903927873469e+01) (44, 1.50000000000000000000e+03) (45, 2.07609547865132491040e+01) (46, -5.07318387467761112930e+02) (47, 1.66995853799111841909e+01) (48, 1.50000000000000000000e+03) (49, 8.28306925547535222165e+00) (50, -8.68842405631974315838e+02) (51, -1.36670165365596254503e+01) (52, 1.50000000000000000000e+03) (53, -4.67709705659174801440e+00) (54, 1.50000000000000000000e+03) (55, -7.10857769183918186684e+00) (56, 1.09758018370031618360e+03) (57, 2.07616803916135985730e+01) (58, 5.47435843899928258338e+01) (59, 1.59515165465022352720e+01) (60, 1.39587070741759839620e+03) (61, -1.33800093705475600103e+01) (62, 1.48009408543696690685e+03) (63, -5.41163160680415611381e+00) (64, -1.50000000000000000000e+03) (65, -6.98297496134143003133e+00) (66, 4.48380036359008471436e+01) (67, -5.39972886735166124339e+00) (68, -1.50000000000000000000e+03) (69, -1.08440221434857111404e+01) (70, -2.04553554051183503759e+01) (0, 1.50000000000000000000e+03) (1, 1.19948572793000671766e+01) (2, 1.50000000000000000000e+03) (3, -8.80251797510176992034e+00) (4, -6.90045118902434495567e+00) (5, 1.90207941351379901107e+01) (6, -2.98252406200222139887e+01) (7, 1.27924697373397098232e+01) (8, -1.50000000000000000000e+03) (9, 3.08318153338641991468e+01) (10, 1.23292771009419173112e+01) (11, -1.54315431182626703333e+01) (12, -1.50000000000000000000e+03) (13, 1.13474371851652477972e+00) (14, 1.50000000000000000000e+03) (15, -6.10097245091480644419e+00) (16, 2.09036149728070732579e+01) (17, -2.26156525034705353505e+01) (18, -4.08209991173128514674e+01) (19, -2.36313582877598911125e+01) (20, 5.41633276905829234238e+02) (21, -1.21812993555867929985e+01) (22, 5.55147310297218496089e+02) (23, 2.29765847521389545705e+01) (24, 1.50000000000000000000e+03) (25, -7.09300366875022536561e+00) (26, -1.50000000000000000000e+03) (27, 2.39670516405112969949e+01) (28, 3.97567333677715623708e+02) (29, 1.25035669999933425345e+01) (30, -1.61172629931209421272e+01) (31, -1.62851887810217483832e+01) (32, -8.00431349447450998014e+02) (33, -1.26396180665551423061e+01) (34, -1.30116360013258201889e+02) (35, 6.79807517578887221532e+00) (36, -4.33501459004989669666e+02) (37, -7.18806879105403684349e+00) (38, -4.41487876847996915330e+02) (39, -5.53736999784275241154e+00) (40, -1.83332649182439966218e+00) (41, 4.94766343830017163441e+00) (42, 1.50000000000000000000e+03) (43, 2.12633478537718225709e+01) (44, -1.50000000000000000000e+03) (45, 2.75192575701352453166e+01) (46, -1.63861235888657077453e+01) (47, -1.12383392140813977989e+01) (48, -1.50000000000000000000e+03) (49, 7.19324030286294213710e+00) (50, 7.08017510958998741444e+02) (51, -1.48375260253928651366e+01) (52, -5.33718326276174138911e+02) (53, -2.51833415794181014746e+01) (54, -1.42854955807426472347e+03) (55, -1.50011800556039194277e+01) (56, -1.50000000000000000000e+03) (57, 2.82802841774879603065e+01) (58, -1.17893008069676147898e+03) (59, 2.40672689997819553298e+01) (60, -1.50000000000000000000e+03) (61, -6.78002928241308655544e+00) (62, -1.50000000000000000000e+03) (63, -7.80629589220430641916e+00) (64, 1.50000000000000000000e+03) (65, 1.11429609091232375562e+01) (66, -4.56307682200167619158e+01) (67, 2.13970637199241018322e+01) (68, 1.50000000000000000000e+03) (69, -9.85506656571264194611e+00) (70, 1.99388655632258675610e+01) (0, -1.50000000000000000000e+03) (1, 8.92853395966924523464e+00) (2, -1.50000000000000000000e+03) (3, 1.96209127140167254311e+01) (4, -1.06498304858190149247e+01) (5, -2.46554661560371535245e+01) (6, 2.32078418363235101651e+01) (7, 2.32342560140224705378e+01) (8, 1.50000000000000000000e+03) (9, -1.88350285141838913461e+00) (10, -4.18214563578645268649e+01) (11, 1.40674297804773402731e+01) (12, 1.50000000000000000000e+03) (13, 1.98018561258654735013e+01) (14, -1.50000000000000000000e+03) (15, 1.22929977589914987135e+01) (16, -7.21335105389203334880e+00) (17, -6.45486758367217650090e+00) (18, 8.77900519764386189081e+01) (19, 1.41063750409169266220e+01) (20, -1.83383395545949028360e+01) (21, -9.56205922903685134884e+00) (22, -1.50000000000000000000e+03) (23, -5.30284382465949200025e+00) (24, -1.50000000000000000000e+03) (25, 1.48278864142876436460e+01) (26, 1.50000000000000000000e+03) (27, -1.80009137581512490556e+01) (28, 4.12989386657733518859e+02) (29, -8.28584889847598127233e+00) (30, 2.00062506713674821412e+01) (31, 8.66835071078708807590e+00) (32, 1.06953022276148817582e+03) (33, 2.64446081974844560136e+00) (34, 1.50000000000000000000e+03) (35, -3.99168297929256299383e+00) (36, 6.62494613509530722695e+02) (37, -2.09286075288505060144e+01) (38, 4.38916848231495350774e+02) (39, 1.40049317763705705175e+01) (40, 5.91220033410643353022e+01) (41, 1.28088022157669474410e+01) (42, 6.40936231033284986580e+00) (43, -2.26405212808650730949e+01) (44, 1.50000000000000000000e+03) (45, 1.88069269414992596978e+01) (46, 4.42635023987379270238e+01) (47, -2.02689232384856161673e+01) (48, 1.50000000000000000000e+03) (49, -2.44162715790104130065e+01) (50, -4.16193060963061611801e+02) (51, 4.36507640216384107390e+00) (52, 2.00500168550923973498e+02) (53, -6.20196665091638621448e+00) (54, 6.08146684037407325718e+01) (55, 2.13347793136832670768e+01) (56, 1.50000000000000000000e+03) (57, 1.94436501950151772178e+01) (58, 1.15367289885407728889e+02) (59, -1.39983876599711347666e+01) (60, 1.50000000000000000000e+03) (61, 2.21290291841624231495e+01) (62, 1.50000000000000000000e+03) (63, 1.21635192104331064655e+01) (64, -1.50000000000000000000e+03) (65, -8.79065612539341145748e+00) (66, 8.36495785718137625508e+01) (67, 8.05110439686963452743e+00) (68, -1.50000000000000000000e+03) (69, -2.67857072442722499162e+00) (70, -3.68950664783433746052e+00) (0, 1.50000000000000000000e+03) (1, 2.53130116912266842633e+01) (2, 1.50000000000000000000e+03) (3, 2.42225633117100827008e+01) (4, -1.15024585780929857748e+01) (5, -1.98483169549514464336e+01) (6, -3.29971709331324802861e+01) (7, 5.25534018950029047090e-01) (8, -1.50000000000000000000e+03) (9, -1.17226470142572236632e+00) (10, 4.57747545865988243463e+01) (11, -2.54111556615557212524e+01) (12, -1.50000000000000000000e+03) (13, 1.37273957740486061141e+01) (14, 1.50000000000000000000e+03) (15, -1.12900804179520246606e+01) (16, -2.84308892425056969344e+00) (17, 5.39509387267574774816e-02) (18, -3.47260086659240769791e+01) (19, -2.11699773825525952020e+01) (20, -4.25173663764863221104e+01) (21, 1.57631148103461704579e+01) (22, 5.54338917772499257808e+02) (23, -5.74103941556958208281e+00) (24, 5.50180644121680188618e+02) (25, -2.29300332453010220490e+01) (26, -1.50000000000000000000e+03) (27, -2.83507444980382885547e+01) (28, 2.00091249803313985467e+02) (29, 5.09459013263936899563e+00) (30, -3.83591254886577814887e+01) (31, -6.17830259881310350778e+00) (32, -2.89197364885574415894e+02) (33, -3.69384259159654915194e+00) (34, -5.90101432306816491291e+02) (35, -1.18995850446101218978e+01) (36, -4.82316117237495916470e+02) (37, 1.45289686940927271763e+01) (38, -4.61675061658635684125e+02) (39, -8.64326363371816519532e+00) (40, -3.07517113609392538365e+01) (41, 2.25166250878181202211e+01) (42, -1.83661944604838538453e+02) (43, 2.51158614855106812058e+01) (44, -1.50000000000000000000e+03) (45, -1.27389580945644915744e+01) (46, 6.84653303878079100286e-01) (47, 1.82530368915446388201e+01) (48, -1.50000000000000000000e+03) (49, 1.01987609507471876924e+01) (50, 6.49698397563233243091e+02) (51, 2.49936465658321544936e+01) (52, -1.47228753748271356017e+03) (53, -7.15265343750626403363e+00) (54, -1.43477118247415091901e+03) (55, 2.46683206455626233833e+01) (56, -9.94843520809834785723e+02) (57, 2.18514660770780864141e+01) (58, -1.37480924000699315002e+03) (59, 1.99029860473606099447e+01) (60, -1.40175045747348190162e+03) (61, -7.56866489124852126480e+00) (62, -1.50000000000000000000e+03) (63, 2.17955527802353010713e+01) (64, 1.50000000000000000000e+03) (65, -1.99513859820633854270e+01) (66, -4.26299127741549526149e+01) (67, -2.22871128580556421284e+00) (68, 1.50000000000000000000e+03) (69, 2.28925924028360361362e+00) (70, 7.18550114358868885489e+00) (71, -5.65517562635816073424e+00) (72, 1.97135951086251814957e+01) (73, 4.35467755556485158763e+00) (74, -5.11618583263278736695e+00) (75, 2.13136219744570176715e+00) (76, 3.41936618072866815865e+00) (77, 3.18298303841923946322e+00) (78, -1.65887973799508756656e+01) (79, 1.23144845951911072746e+01) (80, -3.74748563166972203931e+00) (81, -8.73872750456745706060e+00) 
