FANN_FLO_2.1
num_layers=3
learning_rate=0.700000
connection_rate=1.000000
network_type=0
learning_momentum=0.000000
training_algorithm=2
train_error_function=1
train_stop_function=0
cascade_output_change_fraction=0.010000
quickprop_decay=-0.000100
quickprop_mu=1.750000
rprop_increase_factor=1.001000
rprop_decrease_factor=0.500000
rprop_delta_min=0.000000
rprop_delta_max=50.000000
rprop_delta_zero=0.100000
cascade_output_stagnation_epochs=12
cascade_candidate_change_fraction=0.010000
cascade_candidate_stagnation_epochs=12
cascade_max_out_epochs=150
cascade_max_cand_epochs=150
cascade_num_candidate_groups=2
bit_fail_limit=3.49999999999999977796e-01
cascade_candidate_limit=1.00000000000000000000e+03
cascade_weight_multiplier=4.00000000000000022204e-01
cascade_activation_functions_count=10
cascade_activation_functions=3 5 7 8 10 11 14 15 16 17 
cascade_activation_steepnesses_count=4
cascade_activation_steepnesses=2.50000000000000000000e-01 5.00000000000000000000e-01 7.50000000000000000000e-01 1.00000000000000000000e+00 
layer_sizes=71 11 2 
scale_included=0
neurons (num_inputs, activation_function, activation_steepness)=(0, 0, 0.00000000000000000000e+00) (0, 0, 0.00000000000000000000e+00) (0, 0, 0.00000000000000000000e+00) (0, 0, 0.00000000000000000000e+00) (0, 0, 0.00000000000000000000e+00) (0, 0, 0.00000000000000000000e+00) (0, 0, 0.00000000000000000000e+00) (0, 0, 0.00000000000000000000e+00) (0, 0, 0.00000000000000000000e+00) (0, 0, 0.00000000000000000000e+00) (0, 0, 0.00000000000000000000e+00) (0, 0, 0.00000000000000000000e+00) (0, 0, 0.00000000000000000000e+00) (0, 0, 0.00000000000000000000e+00) (0, 0, 0.00000000000000000000e+00) (0, 0, 0.00000000000000000000e+00) (0, 0, 0.00000000000000000000e+00) (0, 0, 0.00000000000000000000e+00) (0, 0, 0.00000000000000000000e+00) (0, 0, 0.00000000000000000000e+00) (0, 0, 0.00000000000000000000e+00) (0, 0, 0.00000000000000000000e+00) (0, 0, 0.00000000000000000000e+00) (0, 0, 0.00000000000000000000e+00) (0, 0, 0.00000000000000000000e+00) (0, 0, 0.00000000000000000000e+00) (0, 0, 0.00000000000000000000e+00) (0, 0, 0.00000000000000000000e+00) (0, 0, 0.00000000000000000000e+00) (0, 0, 0.00000000000000000000e+00) (0, 0, 0.00000000000000000000e+00) (0, 0, 0.00000000000000000000e+00) (0, 0, 0.00000000000000000000e+00) (0, 0, 0.00000000000000000000e+00) (0, 0, 0.00000000000000000000e+00) (0, 0, 0.00000000000000000000e+00) (0, 0, 0.00000000000000000000e+00) (0, 0, 0.00000000000000000000e+00) (0, 0, 0.00000000000000000000e+00) (0, 0, 0.00000000000000000000e+00) (0, 0, 0.00000000000000000000e+00) (0, 0, 0.00000000000000000000e+00) (0, 0, 0.00000000000000000000e+00) (0, 0, 0.00000000000000000000e+00) (0, 0, 0.00000000000000000000e+00) (0, 0, 0.00000000000000000000e+00) (0, 0, 0.00000000000000000000e+00) (0, 0, 0.00000000000000000000e+00) (0, 0, 0.00000000000000000000e+00) (0, 0, 0.00000000000000000000e+00) (0, 0, 0.00000000000000000000e+00) (0, 0, 0.00000000000000000000e+00) (0, 0, 0.00000000000000000000e+00) (0, 0, 0.00000000000000000000e+00) (0, 0, 0.00000000000000000000e+00) (0, 0, 0.00000000000000000000e+00) (0, 0, 0.00000000000000000000e+00) (0, 0, 0.00000000000000000000e+00) (0, 0, 0.00000000000000000000e+00) (0, 0, 0.00000000000000000000e+00) (0, 0, 0.00000000000000000000e+00) (0, 0, 0.00000000000000000000e+00) (0, 0, 0.00000000000000000000e+00) (0, 0, 0.00000000000000000000e+00) (0, 0, 0.00000000000000000000e+00) (0, 0, 0.00000000000000000000e+00) (0, 0, 0.00000000000000000000e+00) (0, 0, 0.00000000000000000000e+00) (0, 0, 0.00000000000000000000e+00) (0, 0, 0.00000000000000000000e+00) (0, 0, 0.00000000000000000000e+00) (71, 4, 5.00000000000000000000e-01) (71, 4, 5.00000000000000000000e-01) (71, 4, 5.00000000000000000000e-01) (71, 4, 5.00000000000000000000e-01) (71, 4, 5.00000000000000000000e-01) (71, 4, 5.00000000000000000000e-01) (71, 4, 5.00000000000000000000e-01) (71, 4, 5.00000000000000000000e-01) (71, 4, 5.00000000000000000000e-01) (71, 4, 5.00000000000000000000e-01) (0, 4, 5.00000000000000000000e-01) (11, 4, 9.00000000000000022204e-01) (0, 4, 9.00000000000000022204e-01) 
connections (connected_to_neuron, weight)=(0, -2.81164186835809857712e+02) (1, -1.22599718439582101581e+01) (2, -2.87157271862551169761e+02) (3, 1.94611768276099716957e+01) (4, -2.46648853628402306981e+01) (5, 4.72481970911350579456e+00) (6, 3.00907403391753291544e+02) (7, 6.99626893522510950874e+00) (8, 2.79150799673949165935e+02) (9, -2.50852287013367920565e+01) (10, 2.53185382745717895148e+01) (11, -1.67121346689352741066e+01) (12, 2.69728179377470667077e+02) (13, -2.40392794767862376659e+01) (14, -1.63769118249439316060e+02) (15, 3.41848637232089203053e+00) (16, 2.81356499594603405967e+02) (17, -1.82640366517233090349e+01) (18, 2.82336636465941353435e+02) (19, 2.00109122654688356135e+01) (20, 2.96743087214385184325e+02) (21, 1.73882601997961678819e+01) (22, 1.38514666251568741018e+00) (23, -8.58676472814563673808e+00) (24, -2.83946511729740329599e+01) (25, -2.24610128978862988447e+01) (26, 3.04798833292876281575e+02) (27, 4.96024239420220514063e+00) (28, 3.01376803797637080606e+02) (29, -1.70175136946660643389e+01) (30, 3.05598428172026729044e+02) (31, -4.75711757609669803060e+01) (32, 2.63453250330839807702e+02) (33, -3.22293121657587064988e+01) (34, 2.59644044321928618047e+02) (35, 2.69890386425713089125e+01) (36, 2.85422269743834590372e+02) (37, -1.67930371959047448627e+01) (38, 2.27574164734375017360e+00) (39, -3.56834323367755201772e+00) (40, 6.92292042006716883407e+01) (41, 5.53680565434601934527e+00) (42, 2.84047852081213989095e+02) (43, 1.60783534651392727710e+01) (44, 2.79793088120375557537e+02) (45, -9.56966421937554656552e+00) (46, 2.93625561160002916949e+02) (47, 1.91272216706614024417e+01) (48, 2.85935169381056880411e+02) (49, -1.48752812355741443895e+01) (50, 2.76805395049010144248e+02) (51, -1.11810427813070827341e+01) (52, 2.67578022402678186609e+02) (53, 8.27974374024414494500e+00) (54, 2.75285749834929447388e+02) (55, 1.50009598799636840738e+01) (56, 2.89940439146910762247e+02) (57, 7.44804135190676142031e+00) (58, 9.36682260572208491567e+00) (59, -6.40520385299428518522e+00) (60, 2.99677054804717158731e+02) (61, -1.84431539741161252266e+01) (62, 3.04532540720854797200e+02) (63, 7.42864822402414670677e+00) (64, -2.97769928932710968184e+02) (65, -1.38204073751529712411e+01) (66, -2.18330275730495060316e+01) (67, -2.18276135033295126675e+01) (68, -2.68545646668001154467e+02) (69, 2.61427401150662896967e+00) (70, -1.50647351637958824000e+01) (0, -6.25982442528109800151e+02) (1, 1.42729512094833843605e+01) (2, -6.49431868155321922131e+02) (3, 1.41847618812112030717e+00) (4, -2.30345091044374612466e+01) (5, 1.85465830840222309916e+01) (6, 2.29550490542551912654e+01) (7, 2.41733306754133980832e+00) (8, -3.86932846509137746693e+01) (9, 6.57982408379155714329e+00) (10, 5.75884439024036041133e+01) (11, -6.79115703182743768451e+00) (12, 6.23903607230759348568e+02) (13, 3.50470802647882795355e+00) (14, -6.37537940126038051858e+02) (15, 6.70364285981004570658e+00) (16, -2.35513040972933573869e+00) (17, 4.84341927980309705504e+00) (18, 1.91620780943368309579e+01) (19, 1.34462954074725367093e+01) (20, 6.21468753676987375911e+02) (21, -2.35102793007504189404e+01) (22, 5.99475181740551743559e+00) (23, -1.30971601028565824976e+01) (24, 3.81959312099422163556e+01) (25, -1.40386425416421545265e+01) (26, 6.25796732764816965755e+02) (27, -3.90001718451656316233e+01) (28, -6.80063694933926115027e+01) (29, 9.89635465085368437599e+00) (30, 5.94470506136533174413e+01) (31, 3.08826237447143103765e+00) (32, 6.61720241408920969661e+02) (33, 5.73962478727151559355e+00) (34, 6.61099082809067226663e+02) (35, -1.74849013462657190132e+01) (36, 7.02707884634048411954e+01) (37, 3.17189539889604166234e+00) (38, -9.66036788790754741285e+01) (39, -7.37208572798019101668e-01) (40, -6.66703676780559533199e+01) (41, 2.55214915420681016656e+01) (42, -5.94912768562866816069e+01) (43, 2.15339958206528372386e+01) (44, 1.49830252221971903737e+02) (45, 2.44765314062802152861e+00) (46, 1.06718250987526090512e+02) (47, -1.15276471606364321332e+01) (48, 6.24849426131821360286e+02) (49, -4.52337110197686520507e-01) (50, 2.36572963611333960898e+02) (51, -2.74782744091027453237e+01) (52, -9.40757632426496215317e+00) (53, -9.00477606929936413849e+00) (54, -1.37975031839688999646e+00) (55, -5.14398557732923222829e+00) (56, 4.08209360810805833353e+02) (57, 7.14679783770298016066e+00) (58, -4.73082453537978651070e+01) (59, -3.14817474317350542989e+00) (60, 4.25613770021973436997e+02) (61, 7.27570517136348371423e+00) (62, 3.43569588711957862870e+02) (63, -1.83792576072508460072e+01) (64, -6.09494290671877138266e+02) (65, 1.14950304865219585793e+01) (66, 4.46681376972985049179e+01) (67, 2.33527269003064681385e+01) (68, -6.33578303247790586283e+02) (69, 1.82293959497788762292e+01) (70, -1.06313389897964007957e+01) (0, -6.58532743126254104027e+02) (1, 1.70025109431123588877e+01) (2, -6.56946099837145652600e+02) (3, -2.99085744588112267817e-01) (4, 6.00803461013621387110e+01) (5, 1.24819871043839238922e+01) (6, 6.30516373496628489193e+02) (7, 6.26672367879688962944e+00) (8, 6.63263858657455898538e+02) (9, 5.84841352783596413190e+00) (10, 1.33422179545537204604e+02) (11, -8.69099961453317426674e+00) (12, 6.40274204235649790462e+02) (13, -3.12495799178761757275e+01) (14, -3.30130293172028927984e+02) (15, 2.70101561491802222292e+00) (16, 6.61674667220688547786e+02) (17, -5.50339144145222913806e+00) (18, 6.17083246093369439222e+02) (19, 3.33574927051840264269e+00) (20, 6.46285340648269880148e+02) (21, 2.26523289095041917562e+01) (22, 3.51358862337220312355e+00) (23, 1.92141366529576096411e+01) (24, 3.35541937005499661950e+01) (25, 7.17604746692406614272e+00) (26, 6.53598869186020351663e+02) (27, -2.18668381017077884110e+01) (28, 6.44865007262802578225e+02) (29, 5.96361751732899403322e+00) (30, 6.61336152892685618099e+02) (31, -6.04711898349558962806e-01) (32, 6.22482766967392649349e+02) (33, -2.64832790005808291767e+01) (34, 6.19120811324692454036e+02) (35, 6.59769099022420757450e+00) (36, 6.23046238761521067318e+02) (37, 1.49700567493552405551e+00) (38, 2.18871197815177609414e+01) (39, -1.08216779703735532792e+01) (40, 2.15656424148873782087e+02) (41, -1.25727401895062360637e+01) (42, 6.57139020782089687600e+02) (43, 1.34923342129370951170e+01) (44, 6.45357005458450544211e+02) (45, -1.39503410679054713484e+01) (46, 6.28596689086533274349e+02) (47, 1.08762317103366101811e+00) (48, 6.37846009057140804543e+02) (49, 7.42622476998532192738e+01) (50, 6.51911500793076015725e+02) (51, 6.15250205945624539794e+00) (52, 6.28706284385300364193e+02) (53, -2.70562526114747647910e+00) (54, 6.56685993056869961038e+02) (55, 1.37187733578234318799e+01) (56, 6.24575108390427317318e+02) (57, 5.43402592825134576060e+01) (58, -2.80285991969765113652e+01) (59, -1.14696755625152082558e+01) (60, 6.27189621787644114193e+02) (61, 5.69840378481991916004e+00) (62, 6.23863855224228586849e+02) (63, 1.11526170170294474104e+01) (64, -6.16977717719607085201e+02) (65, 8.09400358740874281693e+00) (66, 4.88432400883102673106e+01) (67, 1.81909408948050668187e+01) (68, -6.53642163902621064153e+02) (69, -1.26682963205278675822e+00) (70, 1.19306824537363347360e+01) (0, -6.39309468895297072777e+02) (1, 1.42436346861352660653e+01) (2, -6.14940881331286504974e+02) (3, -1.79167101801682200346e+01) (4, 8.02514657913031754788e+01) (5, -3.75747450375124572020e+01) (6, 6.45561867099380719992e+02) (7, -1.04195398836326091896e+01) (8, 6.43116423469162441506e+02) (9, -5.37839223942059874162e+01) (10, 1.47614624823704787104e+02) (11, -3.21023322969334969912e+01) (12, 6.61414367538071360286e+02) (13, -2.75037388720670294973e+00) (14, -3.36600965779450802984e+02) (15, 4.41334728025875389079e+00) (16, 6.59721500259018625911e+02) (17, -6.61055975447223698183e+00) (18, 6.45495059352493512961e+02) (19, 9.36602936382508133306e+00) (20, 6.48058990340805280539e+02) (21, 6.54578161953318193866e+00) (22, -1.21010364330946771361e+01) (23, -1.94252854412551059227e+01) (24, 1.98024533650033696119e+01) (25, 1.33449920417997027755e+01) (26, 6.31290634971237864193e+02) (27, 2.28700267189955681602e+01) (28, 6.54078621726608503195e+02) (29, -1.22671329015026202569e+01) (30, 6.49958522658920514914e+02) (31, -2.97399290155813815772e+01) (32, 6.57544896941757656350e+02) (33, -6.60640356917315614282e+01) (34, 6.38285303514576639827e+02) (35, 2.83239536738911610314e+01) (36, 6.30477537971115793880e+02) (37, -3.60405139526624580526e+01) (38, 1.52369735355614288608e+01) (39, -1.13579579150837233215e+01) (40, 2.04546683891610712180e+02) (41, -4.80036560080140350948e+00) (42, 6.62385219436264719661e+02) (43, 8.90670098492300077453e+00) (44, 6.59740310531235422786e+02) (45, -1.33232559184011396525e+01) (46, 6.40023065429306711849e+02) (47, 1.77013819117779824808e+01) (48, 6.30759489875412668880e+02) (49, 1.05956478492872285813e+01) (50, 6.42740135293579555764e+02) (51, -8.58805704150545068387e+00) (52, 1.99410953309663909749e+01) (53, 8.58668720918317873725e+00) (54, 1.77228244536933118525e+02) (55, 6.16584460366436282186e+00) (56, 6.33258626800156321224e+02) (57, 3.88267966240454986959e+00) (58, 7.08535726232589357920e+00) (59, -3.22732384354172040730e+02) (60, 6.45963962894058454367e+02) (61, -7.11495004072713843613e+00) (62, 6.27746711593247368910e+02) (63, -2.29305102925569102013e+01) (64, -6.55605630240968935141e+02) (65, -1.01510744419385616766e+01) (66, 3.71522877872848908964e+01) (67, 4.75264669963419983389e+00) (68, -6.29937179714541457543e+02) (69, -6.72214342229689698627e+00) (70, -1.96507396566203631494e+01) (0, -6.12634038597445396590e+02) (1, -1.12473130931329845517e+00) (2, -6.28368506987414662035e+02) (3, 1.16070020130702626915e+01) (4, 1.32806139664469611716e+02) (5, -1.84040133882421841349e+01) (6, 8.46885619217692919847e+01) (7, -1.64296670009737333373e+01) (8, 3.23741507284169927061e+02) (9, 1.41537914105545965526e+01) (10, 1.68145229573851111127e+02) (11, 5.08087758712756798474e+00) (12, 6.49655038695907819601e+02) (13, 2.01762327858951167059e+01) (14, -3.42220426839021001797e+02) (15, -1.73355172340723306945e+01) (16, 8.95507767759723094514e+01) (17, 3.18062694279834587974e+01) (18, 6.33857952200975205415e+01) (19, -1.32919047279865409905e+01) (20, 4.63497648165699558831e+02) (21, 1.62024542850121875404e+01) (22, -1.83625243799628279362e+00) (23, 1.62155684690059800346e+01) (24, 2.97250326530111195211e+01) (25, 1.38702274484936918242e+01) (26, 6.25589390616989817318e+02) (27, -2.30612801171240029419e+01) (28, 1.05443943690767227395e+02) (29, -5.23123732663691676237e+00) (30, 2.52546221764091853856e+02) (31, 3.15277137094153792063e+00) (32, 6.44141462665176845803e+02) (33, -1.73459509630458548202e+01) (34, 6.23262850623703684505e+02) (35, 1.74194643375309183853e+01) (36, 1.12794544793433402674e+02) (37, 1.28977135621568201884e+01) (38, -1.00440332643881959029e+02) (39, 1.61421396593271637698e+01) (40, 3.67205871654899965506e+02) (41, -2.42413718065989769457e+01) (42, 1.41699079957364773463e+02) (43, -1.20618466739231466889e+00) (44, 6.34107661109543528255e+02) (45, -1.64314336558484193063e+01) (46, 5.49682377508401032173e+02) (47, -1.44260595412511545277e+01) (48, 6.24395568709946360286e+02) (49, 3.22998465887666341700e+00) (50, 6.01935023220603056870e+02) (51, 2.40512801338720301203e+01) (52, 1.72668265825310413675e+02) (53, -1.12337779745960588684e+01) (54, 1.61400731220722036596e+02) (55, 7.07173526332359880797e+00) (56, 6.32457971026784889546e+02) (57, -2.20690505437181450077e+01) (58, 4.02182848970210926609e+01) (59, 1.58117787905301696583e+01) (60, 6.47007107596969831320e+02) (61, -1.76443185754827105427e+01) (62, 6.52608866553879011008e+02) (63, -2.47908175411154516610e+01) (64, -6.61801196418337326577e+02) (65, 2.29689442337984495168e+01) (66, 5.22959430986934421526e+01) (67, -6.05808908801620038531e+00) (68, -6.31886802107195876488e+02) (69, 2.48088561783361294388e+00) (70, -6.19700897445154108567e+00) (0, 6.40234583716965403255e+02) (1, 1.13555282335037244223e+01) (2, 6.52040591102219082131e+02) (3, -1.61835028578749073880e+00) (4, -8.25838025419893142498e+01) (5, 5.89842712359262293376e+01) (6, -6.16812867980576243099e+02) (7, 2.26567277250815664047e+01) (8, -6.60493638854599680599e+02) (9, 8.93496721841714673928e+01) (10, -1.51763078757651584283e+02) (11, 2.60509415943511974945e+01) (12, -6.25962472777939524349e+02) (13, -2.12733422024980939335e-01) (14, 6.59826492171860422786e+02) (15, 5.32353308674954277535e+01) (16, -6.27481827598190989193e+02) (17, 7.63425606533500733519e+00) (18, -1.65544330669992291405e+02) (19, -2.16691432083341695147e+00) (20, -6.31274357181168284114e+02) (21, 8.16843842538787079377e+00) (22, -8.80440086944157940252e+00) (23, -3.16802312703697097618e+00) (24, -2.54320347409762632651e+01) (25, 1.67886544931142260850e+01) (26, -6.56593046050644375100e+02) (27, -2.05013641007284803663e+01) (28, -6.36607240777588344827e+02) (29, -5.93829649911327983602e+00) (30, -6.40954724412537075295e+02) (31, -7.61442268512959063997e+00) (32, -6.57858205657577968850e+02) (33, 7.89666215984466646205e+01) (34, -6.57512594085312343850e+02) (35, 3.63835124460531211810e+00) (36, -1.39310115306816243219e+02) (37, 4.18499291086195199796e+01) (38, -1.03410334623734989634e+01) (39, 1.25175240247412720151e+01) (40, -2.16114626875416774965e+02) (41, 1.16061161816345901343e+01) (42, -6.23632936339951243099e+02) (43, -3.21964613017898670932e+00) (44, -6.18240949493027414974e+02) (45, 2.99116617420835844143e+01) (46, -1.70172690837822131016e+02) (47, -4.21188071018765430864e+00) (48, -6.52340837340927578225e+02) (49, -4.80305482732845767657e+00) (50, -6.54493027549362636819e+02) (51, -1.10854302265296649210e+01) (52, -1.73918205177985157661e+02) (53, 1.99689926008577707250e+01) (54, -1.63606025103909260565e+01) (55, -2.63278719733849229101e+01) (56, -6.50619496207809675070e+02) (57, 7.62306014627568995223e+00) (58, 2.22513241551260030349e+01) (59, 5.31849337995779478661e+01) (60, -6.17828817229843821224e+02) (61, 9.60430991782447129879e+00) (62, -6.35159872632599331155e+02) (63, 1.22574409311761751695e+01) (64, 6.57184007506943203225e+02) (65, 2.31383987628589551377e+01) (66, -4.33673373144754492614e+01) (67, -1.73747681517144059171e+01) (68, 6.51226400237655866476e+02) (69, 1.45583599053755641251e+01) (70, 1.30600910477802614196e+01) (0, -6.56418697029452346214e+02) (1, 1.34875624358182051310e+01) (2, -6.40353102286181524505e+02) (3, 1.27765573518821007326e+01) (4, 6.07390317855662686952e+01) (5, -2.38797096855203783150e+01) (6, 6.58040252547836757913e+02) (7, 1.37782300926343950209e+01) (8, 6.68223358016586757913e+02) (9, -2.63708055333597464198e+01) (10, 1.18758718337193769798e+02) (11, -1.34669089036004230309e+01) (12, 6.38095223706341471370e+02) (13, 7.66901115202883332245e+00) (14, -3.13266027730134510421e+02) (15, -2.10769510320023156780e+00) (16, 6.31113205772019114193e+02) (17, -1.29501830988144952528e+01) (18, 6.35322187047577358499e+02) (19, 1.82123668257120883140e+01) (20, 6.23280751090622629818e+02) (21, 3.62522141930655124042e+01) (22, 3.13259541619415804448e+00) (23, -2.29860328253279817545e+01) (24, -1.02029739955311722355e+01) (25, 1.31826186703602221684e+01) (26, 6.15615699630356516536e+02) (27, 2.57253344865504089967e+01) (28, 6.58446878295517421975e+02) (29, -1.54036624501732681836e+01) (30, 6.56028915267563320413e+02) (31, -2.55694024597608446925e+01) (32, 6.17749206405258860286e+02) (33, -2.37312031097567484039e+01) (34, 6.39398669760800089534e+02) (35, -7.05453898330388629034e+00) (36, 6.36319191794968105569e+02) (37, -1.19718115643961056094e+01) (38, 2.82848980541464847249e+01) (39, -3.27952635605850639777e+00) (40, 1.86944201572732310979e+02) (41, -1.89055457386529623953e+00) (42, 6.27848439078904107191e+02) (43, -9.79538014423745551085e+00) (44, 6.15001380782700152849e+02) (45, 1.87889352569981120666e+01) (46, 6.31735339027023997005e+02) (47, 4.95233865078956458916e+00) (48, 6.41061369758224941506e+02) (49, 8.93493433116001156691e-01) (50, 6.22905929427719797786e+02) (51, 1.44283192741347523480e+01) (52, 6.36029676776505198177e+02) (53, 5.72095255713785011409e+00) (54, 6.46663007121658552023e+02) (55, -1.93578783332260080385e+01) (56, 6.59498027663803782161e+02) (57, 3.86287324870198673921e+01) (58, 1.29153305857771028009e+00) (59, -1.26715160917452944744e+01) (60, 6.43880130630112148538e+02) (61, 2.28291031300377120772e+01) (62, 6.21594058852768853285e+02) (63, 8.32097887007300229811e+00) (64, -6.16505338035158615639e+02) (65, -2.88525898851726037009e+00) (66, 4.27646258533859509043e+01) (67, -1.40163430587136748073e+01) (68, -6.51670930534701142278e+02) (69, -1.41608358464405199584e+01) (70, 2.60578769067249922387e+01) (0, 6.14907804351425738787e+02) (1, 1.62698927514554512186e+01) (2, 6.17695718627548899349e+02) (3, -2.47620965804647141795e+01) (4, -5.68399632780737249504e+01) (5, 6.70619123144316944263e+01) (6, -6.38356415312863077816e+02) (7, -1.06877424543944741231e+01) (8, -6.56219159942245937600e+02) (9, 5.35815591137007913858e+01) (10, -1.59871649810203109610e+02) (11, 9.26610072114308636060e+00) (12, -6.45731237750625837180e+02) (13, 7.25393528759286354557e+00) (14, 3.08197399015736777983e+02) (15, 1.26353396058398157464e+01) (16, -6.36654075008011318459e+02) (17, -1.49255091361247611559e+01) (18, -6.21725061278916314222e+02) (19, 1.54753637677752404755e+01) (20, -6.48677852492904889914e+02) (21, -2.75889386699027099326e+01) (22, -3.88294740523628201245e+00) (23, 2.12454634194969820271e+01) (24, -3.65728771787202546761e+01) (25, 1.39446253088310356816e+01) (26, -6.63015207152939296975e+02) (27, 4.86459896025699833899e+00) (28, -6.48490190368271100851e+02) (29, 5.12715765195140260602e+00) (30, -6.21708421569443657972e+02) (31, 7.01466808970413069346e+01) (32, -6.47262336593246686789e+02) (33, 8.07674830748926808610e+01) (34, -6.31726093154526438411e+02) (35, -3.63979370892301545837e+01) (36, -6.20165473800278391536e+02) (37, 1.02144814423759541455e+02) (38, -2.03961544073501990226e+01) (39, 3.13799043517917688462e+01) (40, -1.91250751009480495668e+02) (41, 5.68236496475598240607e+00) (42, -6.45934311729049909445e+02) (43, -2.50415409661432768473e+01) (44, -6.27489220481491770443e+02) (45, 7.42112660036043934042e+01) (46, -6.23160803657150950130e+02) (47, -5.08862150787574876176e+01) (48, -6.16986377578354790785e+02) (49, 1.29674744697142525496e+01) (50, -6.35309677939987636819e+02) (51, 2.08972764200733323037e+01) (52, -6.61541633468247141536e+02) (53, 8.90118618554184237723e+00) (54, -6.53348864417648769631e+02) (55, 1.43536390105619258151e+01) (56, -6.45313130241012800070e+02) (57, -2.81864738495291256015e+01) (58, -9.74693239317240767150e+00) (59, 9.07583782740986464432e+01) (60, -6.32540316920853342708e+02) (61, 1.53658676141099164170e+01) (62, -6.42502869468307949319e+02) (63, -2.30641718662825612185e+00) (64, 6.50142370086288678976e+02) (65, -1.38678560817534464178e+01) (66, -2.30837794226296857403e+01) (67, 2.80980589934185580603e+01) (68, 6.57139907699203945413e+02) (69, -2.73769350565124769403e+00) (70, 8.48191454791663801416e+00) (0, -6.39090167194705031761e+02) (1, 2.76691799941929765794e+01) (2, -6.32642674644312933196e+02) (3, 1.97073493310482419361e+01) (4, 1.76204931059323683940e+02) (5, -7.96815056155804768423e+00) (6, 3.06283301986577320974e+01) (7, 5.50059232709515999460e+00) (8, 5.33018354815076520481e+01) (9, 1.64619516150281306466e+01) (10, 1.57018770318548320120e+02) (11, -1.78778594911071664342e+01) (12, 6.48889891486740339133e+02) (13, -1.77137045516938549383e+01) (14, -1.44681395200338744900e+01) (15, -4.58278681447474589561e+00) (16, -1.39589450168019084231e+02) (17, -1.73560309259152489858e+01) (18, 2.04718857810050103296e+01) (19, -1.02710001157002235317e+01) (20, 3.03992534901665521829e+02) (21, 3.47716290004828376681e+00) (22, -5.62387826683596045996e+01) (23, 3.22206786552452051353e+00) (24, 5.10961986108767050041e+01) (25, -9.61532873002387233896e+00) (26, 6.36426591258621670022e+02) (27, 1.92838144701817135740e+01) (28, -2.24841556817216144282e+02) (29, -1.24954785430174997174e+01) (30, -2.61388499400174083576e+01) (31, -9.10099765909894742322e+00) (32, 1.55324507256658659315e+01) (33, 1.95213197708937791219e+01) (34, 2.65595972710220792123e+02) (35, -1.63052985748342216255e+01) (36, 3.03181268262352602960e+02) (37, 1.25874750131497119554e+01) (38, -9.43777101071287631839e+01) (39, -1.43101775274151776784e+01) (40, 4.89551236640182594329e+01) (41, -5.88392359725468416798e+00) (42, -2.91577828173700304148e+01) (43, 8.02791425858043616870e+00) (44, -7.06642222701739530777e+00) (45, 1.03915405662970350420e+01) (46, 4.62223312754721717965e+01) (47, -3.57598036571398125716e+00) (48, 6.43211177688217617288e+02) (49, 6.51638338740623890288e+00) (50, -7.46246846971384343306e+01) (51, -1.17328914748988690775e+01) (52, 2.11847344031732589542e+01) (53, -1.06997249699084893138e+01) (54, 1.60204707639120123019e+01) (55, -9.76551607340923055744e-02) (56, 6.56962335448837734475e+02) (57, -1.20600284777044493012e+01) (58, -7.52554352407737381370e-01) (59, -6.89076829524412293182e+00) (60, 6.37598563175774074807e+02) (61, 1.61703446902351117842e+01) (62, 6.40295581203079905208e+02) (63, -1.97314253910024390848e+01) (64, -6.41237325511507265219e+02) (65, 1.38741698947264779918e+00) (66, 4.20418655166057604333e+01) (67, -1.81017969245467398309e+01) (68, -6.15892179161410581401e+02) (69, -1.38769993753576823536e+01) (70, 8.98386526392454420886e+00) (0, -6.42866914421420119652e+02) (1, 4.11315429679723809642e+00) (2, -6.30980046112856939544e+02) (3, -2.49924312695696535513e+01) (4, 1.05394404595983147033e+02) (5, -2.26246503032311814252e+01) (6, 6.49008872848129499289e+02) (7, 4.82681390599831772192e+00) (8, 6.61301568847275461849e+02) (9, -2.99451520996231970173e+01) (10, 1.59777944411412534009e+02) (11, -1.77020751007463879034e+01) (12, 6.37845896821594692483e+02) (13, -2.07182408123049910387e+01) (14, -6.47601257186508405539e+02) (15, 1.37637600434049680587e+01) (16, 6.28255517821884836849e+02) (17, -1.16973823675480605999e+01) (18, 1.82572283046305813059e+02) (19, 2.01314401616307092624e-01) (20, 6.32339320045090403255e+02) (21, 8.17204002301541621023e+00) (22, 2.11655021869004187351e+01) (23, -1.88200901316231927751e+01) (24, 3.36286414524667165438e+01) (25, -8.03230617059243634515e+00) (26, 6.55352901321030117288e+02) (27, 2.90624415090443797283e+01) (28, 5.95822444894749537525e+02) (29, 2.08875921728514022391e+01) (30, 2.56608903938094215391e+02) (31, -4.53391794815941082675e+01) (32, 6.61770543914414133724e+02) (33, -5.87556786823045271717e+01) (34, 6.35969479899979319271e+02) (35, 2.83621368619146032586e+01) (36, 6.22197063308335032161e+02) (37, -1.00174096513254902163e+01) (38, 1.28190089857541380525e+01) (39, -1.03102365142909757623e+01) (40, 2.10248066876681463100e+02) (41, -8.78698875866713180471e+00) (42, 6.58525548797226406350e+02) (43, -1.13092997166434194867e+01) (44, 6.57159211974716640725e+02) (45, 2.07518835375269355970e-01) (46, 1.58192697311960046136e+02) (47, 1.92304010854987339485e+01) (48, 6.31967112403488840755e+02) (49, -1.33460495356741439821e+01) (50, 8.79264685079358656594e+01) (51, 1.15453851348316831604e+01) (52, 6.33330971580124582943e+02) (53, -2.40839176783847861429e+01) (54, 1.47021412428267154837e+02) (55, -1.32762677881231070387e+01) (56, 6.62302629333115305599e+02) (57, 1.16128206133063329730e+01) (58, -6.20183013734341592738e+00) (59, -4.47998553798968490725e+00) (60, 6.53495835166550136819e+02) (61, 1.09690982195081616624e+01) (62, 6.45677990775680768820e+02) (63, -1.83683132672203512925e+01) (64, -6.16920876823000639888e+02) (65, -1.43047318484996708321e+01) (66, 1.66694510639571973343e+01) (67, -2.05665416923731321219e+01) (68, -6.15122653633456366151e+02) (69, -9.39025269596124267935e+00) (70, 9.69190205273890548199e+00) (71, 6.14607232909775348162e+02) (72, 2.81629462425939003367e+00) (73, 1.60508283792696637704e+01) (74, 1.71664955069760537754e+02) (75, 2.59725993865297821728e+00) (76, -2.05468252103934005959e+01) (77, 9.22419555478739638943e+00) (78, -2.18452197944330457346e+01) (79, 3.66147310443838236438e+00) (80, 3.24926467646707717307e+00) (81, 1.43673246467900419532e+01) 
