FANN_FLO_2.1
num_layers=3
learning_rate=0.700000
connection_rate=0.500000
network_type=0
learning_momentum=0.000000
training_algorithm=2
train_error_function=1
train_stop_function=0
cascade_output_change_fraction=0.010000
quickprop_decay=-0.000100
quickprop_mu=1.750000
rprop_increase_factor=1.001000
rprop_decrease_factor=0.333300
rprop_delta_min=0.000000
rprop_delta_max=50.000000
rprop_delta_zero=0.100000
cascade_output_stagnation_epochs=12
cascade_candidate_change_fraction=0.010000
cascade_candidate_stagnation_epochs=12
cascade_max_out_epochs=150
cascade_max_cand_epochs=150
cascade_num_candidate_groups=2
bit_fail_limit=3.49999999999999977796e-01
cascade_candidate_limit=1.00000000000000000000e+03
cascade_weight_multiplier=4.00000000000000022204e-01
cascade_activation_functions_count=10
cascade_activation_functions=3 5 7 8 10 11 14 15 16 17 
cascade_activation_steepnesses_count=4
cascade_activation_steepnesses=2.50000000000000000000e-01 5.00000000000000000000e-01 7.50000000000000000000e-01 1.00000000000000000000e+00 
layer_sizes=71 101 2 
scale_included=0
neurons (num_inputs, activation_function, activation_steepness)=(0, 0, 0.00000000000000000000e+00) (0, 0, 0.00000000000000000000e+00) (0, 0, 0.00000000000000000000e+00) (0, 0, 0.00000000000000000000e+00) (0, 0, 0.00000000000000000000e+00) (0, 0, 0.00000000000000000000e+00) (0, 0, 0.00000000000000000000e+00) (0, 0, 0.00000000000000000000e+00) (0, 0, 0.00000000000000000000e+00) (0, 0, 0.00000000000000000000e+00) (0, 0, 0.00000000000000000000e+00) (0, 0, 0.00000000000000000000e+00) (0, 0, 0.00000000000000000000e+00) (0, 0, 0.00000000000000000000e+00) (0, 0, 0.00000000000000000000e+00) (0, 0, 0.00000000000000000000e+00) (0, 0, 0.00000000000000000000e+00) (0, 0, 0.00000000000000000000e+00) (0, 0, 0.00000000000000000000e+00) (0, 0, 0.00000000000000000000e+00) (0, 0, 0.00000000000000000000e+00) (0, 0, 0.00000000000000000000e+00) (0, 0, 0.00000000000000000000e+00) (0, 0, 0.00000000000000000000e+00) (0, 0, 0.00000000000000000000e+00) (0, 0, 0.00000000000000000000e+00) (0, 0, 0.00000000000000000000e+00) (0, 0, 0.00000000000000000000e+00) (0, 0, 0.00000000000000000000e+00) (0, 0, 0.00000000000000000000e+00) (0, 0, 0.00000000000000000000e+00) (0, 0, 0.00000000000000000000e+00) (0, 0, 0.00000000000000000000e+00) (0, 0, 0.00000000000000000000e+00) (0, 0, 0.00000000000000000000e+00) (0, 0, 0.00000000000000000000e+00) (0, 0, 0.00000000000000000000e+00) (0, 0, 0.00000000000000000000e+00) (0, 0, 0.00000000000000000000e+00) (0, 0, 0.00000000000000000000e+00) (0, 0, 0.00000000000000000000e+00) (0, 0, 0.00000000000000000000e+00) (0, 0, 0.00000000000000000000e+00) (0, 0, 0.00000000000000000000e+00) (0, 0, 0.00000000000000000000e+00) (0, 0, 0.00000000000000000000e+00) (0, 0, 0.00000000000000000000e+00) (0, 0, 0.00000000000000000000e+00) (0, 0, 0.00000000000000000000e+00) (0, 0, 0.00000000000000000000e+00) (0, 0, 0.00000000000000000000e+00) (0, 0, 0.00000000000000000000e+00) (0, 0, 0.00000000000000000000e+00) (0, 0, 0.00000000000000000000e+00) (0, 0, 0.00000000000000000000e+00) (0, 0, 0.00000000000000000000e+00) (0, 0, 0.00000000000000000000e+00) (0, 0, 0.00000000000000000000e+00) (0, 0, 0.00000000000000000000e+00) (0, 0, 0.00000000000000000000e+00) (0, 0, 0.00000000000000000000e+00) (0, 0, 0.00000000000000000000e+00) (0, 0, 0.00000000000000000000e+00) (0, 0, 0.00000000000000000000e+00) (0, 0, 0.00000000000000000000e+00) (0, 0, 0.00000000000000000000e+00) (0, 0, 0.00000000000000000000e+00) (0, 0, 0.00000000000000000000e+00) (0, 0, 0.00000000000000000000e+00) (0, 0, 0.00000000000000000000e+00) (0, 0, 0.00000000000000000000e+00) (36, 4, 5.00000000000000000000e-01) (36, 4, 5.00000000000000000000e-01) (36, 4, 5.00000000000000000000e-01) (36, 4, 5.00000000000000000000e-01) (36, 4, 5.00000000000000000000e-01) (36, 4, 5.00000000000000000000e-01) (36, 4, 5.00000000000000000000e-01) (36, 4, 5.00000000000000000000e-01) (36, 4, 5.00000000000000000000e-01) (36, 4, 5.00000000000000000000e-01) (36, 4, 5.00000000000000000000e-01) (36, 4, 5.00000000000000000000e-01) (36, 4, 5.00000000000000000000e-01) (36, 4, 5.00000000000000000000e-01) (36, 4, 5.00000000000000000000e-01) (36, 4, 5.00000000000000000000e-01) (36, 4, 5.00000000000000000000e-01) (36, 4, 5.00000000000000000000e-01) (36, 4, 5.00000000000000000000e-01) (36, 4, 5.00000000000000000000e-01) (36, 4, 5.00000000000000000000e-01) (36, 4, 5.00000000000000000000e-01) (36, 4, 5.00000000000000000000e-01) (36, 4, 5.00000000000000000000e-01) (36, 4, 5.00000000000000000000e-01) (36, 4, 5.00000000000000000000e-01) (36, 4, 5.00000000000000000000e-01) (36, 4, 5.00000000000000000000e-01) (36, 4, 5.00000000000000000000e-01) (36, 4, 5.00000000000000000000e-01) (36, 4, 5.00000000000000000000e-01) (36, 4, 5.00000000000000000000e-01) (36, 4, 5.00000000000000000000e-01) (36, 4, 5.00000000000000000000e-01) (36, 4, 5.00000000000000000000e-01) (36, 4, 5.00000000000000000000e-01) (36, 4, 5.00000000000000000000e-01) (36, 4, 5.00000000000000000000e-01) (36, 4, 5.00000000000000000000e-01) (36, 4, 5.00000000000000000000e-01) (36, 4, 5.00000000000000000000e-01) (36, 4, 5.00000000000000000000e-01) (36, 4, 5.00000000000000000000e-01) (36, 4, 5.00000000000000000000e-01) (36, 4, 5.00000000000000000000e-01) (36, 4, 5.00000000000000000000e-01) (36, 4, 5.00000000000000000000e-01) (36, 4, 5.00000000000000000000e-01) (36, 4, 5.00000000000000000000e-01) (36, 4, 5.00000000000000000000e-01) (36, 4, 5.00000000000000000000e-01) (36, 4, 5.00000000000000000000e-01) (36, 4, 5.00000000000000000000e-01) (36, 4, 5.00000000000000000000e-01) (36, 4, 5.00000000000000000000e-01) (36, 4, 5.00000000000000000000e-01) (36, 4, 5.00000000000000000000e-01) (36, 4, 5.00000000000000000000e-01) (36, 4, 5.00000000000000000000e-01) (36, 4, 5.00000000000000000000e-01) (36, 4, 5.00000000000000000000e-01) (36, 4, 5.00000000000000000000e-01) (36, 4, 5.00000000000000000000e-01) (36, 4, 5.00000000000000000000e-01) (36, 4, 5.00000000000000000000e-01) (36, 4, 5.00000000000000000000e-01) (36, 4, 5.00000000000000000000e-01) (36, 4, 5.00000000000000000000e-01) (36, 4, 5.00000000000000000000e-01) (36, 4, 5.00000000000000000000e-01) (36, 4, 5.00000000000000000000e-01) (36, 4, 5.00000000000000000000e-01) (36, 4, 5.00000000000000000000e-01) (36, 4, 5.00000000000000000000e-01) (36, 4, 5.00000000000000000000e-01) (36, 4, 5.00000000000000000000e-01) (36, 4, 5.00000000000000000000e-01) (36, 4, 5.00000000000000000000e-01) (36, 4, 5.00000000000000000000e-01) (36, 4, 5.00000000000000000000e-01) (36, 4, 5.00000000000000000000e-01) (36, 4, 5.00000000000000000000e-01) (36, 4, 5.00000000000000000000e-01) (36, 4, 5.00000000000000000000e-01) (36, 4, 5.00000000000000000000e-01) (36, 4, 5.00000000000000000000e-01) (36, 4, 5.00000000000000000000e-01) (36, 4, 5.00000000000000000000e-01) (36, 4, 5.00000000000000000000e-01) (36, 4, 5.00000000000000000000e-01) (36, 4, 5.00000000000000000000e-01) (36, 4, 5.00000000000000000000e-01) (36, 4, 5.00000000000000000000e-01) (36, 4, 5.00000000000000000000e-01) (36, 4, 5.00000000000000000000e-01) (36, 4, 5.00000000000000000000e-01) (36, 4, 5.00000000000000000000e-01) (36, 4, 5.00000000000000000000e-01) (36, 4, 5.00000000000000000000e-01) (36, 4, 5.00000000000000000000e-01) (0, 4, 5.00000000000000000000e-01) (101, 4, 9.00000000000000022204e-01) (0, 4, 9.00000000000000022204e-01) 
connections (connected_to_neuron, weight)=(70, 7.12889211060450378454e+00) (40, 1.42306107301271929089e+01) (31, 3.04109805456339366003e+01) (54, -1.78257474245081617426e+01) (0, 1.50000000000000000000e+03) (61, -1.65947504513366226320e+01) (22, -3.04119028012477997436e+02) (26, 1.81198835910790450043e+02) (58, 7.79718997229280486039e+00) (57, 1.83322183436364150033e+00) (28, 1.08914626802904894731e+01) (47, 1.48647097670492325250e+01) (20, -2.42514789666260845991e+01) (43, -1.06913467283900835980e+01) (36, 5.48973741335071167669e+02) (19, -1.93940254550154733693e+01) (59, 1.57078100709530978918e+01) (67, 1.96412326562587047363e+01) (16, 6.10037721034561499778e+01) (18, 8.36665704419278455362e+01) (50, 7.40898100544474971230e+01) (39, 2.42463850264213665042e+00) (52, -2.34393833283478905116e+01) (13, 5.06015117179493145727e+01) (35, -1.70069295707117396077e+00) (29, 3.63736476940427699844e+00) (56, 2.11032550165609478654e+02) (25, 1.59191137704270850861e+01) (44, 5.57764340941775813576e+01) (41, 2.48144115029010308149e+01) (7, 1.31508641205873111346e+01) (15, -2.46107802058876323770e+01) (51, -5.16820333010485377656e+00) (6, -5.91597691769768641024e+00) (68, 3.30174465942732410895e+02) (34, 1.51854298398982656693e+01) (70, -3.91547559287636914860e+01) (9, 1.69011964991850938134e+01) (3, 2.14855791542451619591e+01) (52, -2.42624089952791308633e+01) (34, 4.86609167347663955638e+01) (17, -2.61248731129671796225e+01) (2, 1.50000000000000000000e+03) (15, 3.49018714268760206210e+01) (61, 3.58873940867909269059e+01) (37, 1.30583129925415626360e+01) (53, -2.08713700205058572124e+01) (33, -8.53613295491265766657e+00) (66, 1.50000000000000000000e+03) (8, 1.66674809118115270223e+01) (21, 2.70095115740904638812e+01) (57, -3.99703948038046306124e+01) (42, 1.77898383636361856475e+01) (45, 4.20089391002185479351e+01) (49, -2.12924402248844302221e+00) (67, -5.18481038596718946110e+01) (6, -2.67717604593471314445e+00) (59, 1.87494875016014148628e+01) (46, -2.89607034586987367675e+02) (7, 4.05066870650867727477e+00) (60, 3.30456840541420945101e+02) (48, 1.60097604667210219986e+02) (56, 7.43781500317045640713e+01) (44, -7.95094057973008716544e+00) (32, 2.25752511956239452218e+01) (39, -3.15981271308578826051e+00) (54, -2.80764823295299947858e+01) (35, -3.86278622283641865920e+01) (19, -2.83378382773359298596e+01) (25, -2.01051874937126449083e+01) (27, 3.62099728258357913546e+01) (10, -6.61119575169170747841e+00) (70, -6.65340488683985427087e+01) (53, -7.61111804065231201122e+00) (24, -1.50000000000000000000e+03) (14, -9.29354454114824477529e+01) (34, -1.42704264833439182780e+01) (66, 1.50000000000000000000e+03) (45, -2.15744161729811914086e+01) (29, -4.89255795436587170855e+00) (1, 3.41537753808670885292e+01) (63, -2.10551739896566516563e+01) (15, 8.09895852549707839785e+00) (21, 8.07257693725675018470e+00) (67, 2.24945899713221812988e+01) (35, 2.55597721880400072791e+01) (17, -2.86159600945425474094e-01) (26, 2.14048533023827729949e+02) (54, -5.75273078098399093250e+00) (25, -1.63102959066460373450e+00) (64, 1.50000000000000000000e+03) (65, 1.52776195275969843834e+01) (27, -2.57586080900471650068e+01) (39, -1.28719365667851981527e+01) (50, 5.41666285206340063496e+01) (55, 3.86022680339602004551e+01) (22, -3.79264779250348396999e+02) (68, 3.30174465942732410895e+02) (32, 3.25191013183831003630e+01) (44, 2.79850904052124995758e+01) (6, -2.73031667838859171127e+00) (30, 3.00152584517862983660e+01) (59, -7.93491491989167219145e+00) (13, -4.49330265510936541773e+01) (48, 4.41040051130990377715e+02) (12, 9.11410085462285337599e+01) (8, -2.24042781482929109771e+00) (56, 1.99829825708822426122e+02) (70, 2.79278594720546031738e+01) (53, 5.37590876999377265122e+00) (19, 3.75283222920050965610e-02) (20, 6.35996312245472239510e+00) (64, 1.50000000000000000000e+03) (39, 5.95865892653138029544e+00) (7, 6.15043162928476849771e+00) (56, 2.42791507074789478793e+02) (59, 1.99232020660369646414e+00) (5, -4.41169966269524227442e+00) (17, 5.91126504924685658438e+00) (38, -1.06487425565544153727e+01) (55, -3.56287881794187057949e+01) (32, 1.83548143472909899288e+01) (15, 2.10145078037559223105e+01) (28, 3.86278785433275615446e+01) (21, 1.43492397637947881606e+01) (33, -4.86069082982065214793e+00) (34, -2.50695025636663579860e+01) (31, -4.02692762697339645683e+00) (66, 1.50000000000000000000e+03) (65, 4.82128159882471862829e+00) (13, -1.35732290733713725217e+01) (57, 3.47605325395489117568e+01) (30, -1.04699073186855340367e+00) (62, 2.42613791763271308355e+02) (43, 9.84834710400737733949e+00) (3, -2.45062187444981312012e+01) (8, -2.03331216205239577732e+01) (45, 2.77213258619309179664e+01) (42, -1.58865696490027534793e+01) (6, -3.30325766004161778255e+01) (51, -3.20633954764061215315e+01) (29, 1.11723915581159278787e+01) (16, 1.59351247188125384469e+01) (44, 2.19041606490479416891e+01) (70, -6.10180313704564269983e+00) (18, 6.17765481640960558707e+01) (12, 8.14128696225834005418e+01) (46, -9.16622406206948539875e+02) (38, 3.08792430162606414967e+01) (58, -1.00575911785250493580e+01) (16, 6.28540071215968776386e+00) (25, 7.16262210935519494370e+00) (36, 5.91748428625263045433e+02) (69, -3.61310375463790052208e+01) (26, 1.80813695968621260590e+02) (56, 2.30247054407552980138e+02) (30, 1.34368492568400093035e+01) (65, -3.43188312780684583458e+01) (34, -4.80145995332707471448e+01) (51, -1.09695243597679699121e+01) (9, -2.87033718777548116918e+01) (59, -2.62264150114444376527e+01) (35, -2.89553855115450922142e+01) (24, -1.50000000000000000000e+03) (41, -3.98114313500791716649e+00) (52, 3.56686241026823651623e+01) (22, -3.92196949879849341869e+02) (61, -4.30032263271906032287e+01) (47, 1.20523396367377522154e+00) (29, -4.21361735816547593458e+01) (40, -3.12690020781003461536e+01) (1, -1.69653862249668812012e+01) (45, -5.74835826206199840271e+00) (68, 3.30174465942732410895e+02) (13, -2.76180148014020998559e+00) (43, 2.48606008652986787411e+01) (39, 1.44061119485346260660e+01) (20, -2.32367923821534283491e+01) (42, 5.03028720595583789255e-01) (37, -5.01592427759587309311e+01) (70, 1.00560851426793238517e+01) (37, -2.62576202404236980215e+01) (63, -1.26910314105176489363e+01) (29, 2.01748402404500204455e+01) (41, -1.80435353508564144676e+00) (66, 1.50000000000000000000e+03) (57, -2.45143180864324889967e+01) (34, 5.76584277394831268282e+00) (27, -2.06361709222422327059e+01) (20, -4.37954295352653666384e+00) (35, -8.90171590193510731126e+00) (5, 2.63478544022869307639e+01) (11, -2.28916814639912757912e+01) (0, 1.50000000000000000000e+03) (46, -4.38014366062983299344e+02) (14, -1.46344757099888033736e+03) (15, 1.33674419448414347755e+01) (42, -1.50129000069271594242e+01) (58, 3.23101411793470738587e+00) (21, -1.85461898193482745967e+01) (68, 3.30174465942732410895e+02) (8, 2.99138770161270162173e-01) (10, -5.06773047347468192925e+01) (61, 2.65586322594190527013e+01) (62, 3.32905129811726183675e+01) (59, -8.30650755102982074618e+00) (36, -1.35800314212668133962e+01) (39, -2.03365047049509932720e+01) (4, -1.50000000000000000000e+03) (17, 1.44166804515035416046e+01) (43, 8.02924167285323164833e+00) (30, 2.69951296415545316520e+00) (48, -2.00281813068523781851e+01) (50, 3.28439401825077439412e+01) (24, -1.50000000000000000000e+03) (44, -1.42713913456438689309e+02) (70, 2.73530548431732540848e+01) (11, 4.71014616397951755289e+01) (35, -5.39787894497561708818e+01) (10, -2.41428119956439175553e+01) (15, 3.81721236027809140978e+01) (6, 1.82758698625701292428e+01) (42, 5.80109074695918423004e+01) (3, 2.34780567505218868973e+01) (5, -5.58620087838285783732e+01) (14, -1.79107170824633271877e+02) (44, 7.52227271685250968858e+01) (58, -1.25778653835439087061e+01) (59, -2.73211977812359556594e+01) (66, 1.50000000000000000000e+03) (38, 1.79256351414874437467e+01) (1, 2.86242588379242306473e+01) (8, 4.28184913819234509447e+01) (47, 4.81240989810597241672e+01) (28, 3.15926208848521987704e+01) (49, -4.52161942268159791070e+01) (23, 4.59513856227335182325e+00) (51, -4.17377024778259997362e+00) (45, 6.25059639570829901345e+01) (13, 3.24053403084270570389e+01) (61, -1.64934127848670897265e+01) (64, 1.50000000000000000000e+03) (16, -3.11309251488710785338e+01) (54, 1.15532846081657147863e+00) (9, 2.05623186927559871151e+01) (27, 8.94856414888374374073e+00) (31, -4.81932414007192946315e+01) (62, 4.03970658544364653153e+02) (18, 2.48170827862643541550e+01) (22, -4.06274238972114687840e+02) (41, -3.07206857207083743333e+01) (29, 1.83051646131333107803e+01) (70, 2.82980041588673145725e+01) (64, 1.50000000000000000000e+03) (56, -2.74193620588198371024e+02) (68, 1.50000000000000000000e+03) (43, -6.54125424500901520020e+00) (5, 1.17029347621295389814e+01) (57, 1.42555148684973858053e+02) (23, 1.78096645031196274545e+01) (20, -2.16409013006935868617e+00) (31, 1.29268079999405536284e+01) (9, -4.73795449310901251039e+00) (62, -7.01199601793011595419e+01) (40, -3.08756892515447987080e+01) (50, -3.17897458256239353602e+01) (24, 1.50000000000000000000e+03) (10, 6.20552961714162023554e+01) (16, 5.59331179973652314885e+00) (41, -1.62548266245678441067e+01) (44, -4.31237434046743288718e+01) (48, -4.84150533773439747165e+02) (53, -1.29738555561418831275e+01) (49, -3.65205975021259945379e+01) (25, 2.24634429592529816233e+00) (7, -3.37398985289182675729e+01) (11, -2.50336466066356351234e+01) (51, -2.59471846756485398089e+01) (21, -6.07204189139986749701e-01) (55, 1.68638271816570330941e+01) (4, 1.41714555998980677032e+03) (59, -3.67182654920929651965e+00) (33, 1.40226411172853193676e+01) (13, 1.68886823986624250438e+01) (38, 4.30311142812920266465e+00) (46, 9.14624924953706567976e+02) (63, 1.26358683521196546451e+01) (27, -1.44369808251051754411e+01) (70, 3.90593349206620104042e+01) (26, 1.91602812828057238903e+02) (35, -5.68691045585046506261e+00) (25, -1.15218625932762863684e+00) (34, 1.00371802137386012532e+01) (44, 2.03289033477173894937e+01) (67, 1.80379478204432750488e+01) (32, 3.46913005676507069097e+01) (68, 3.30174465942732410895e+02) (11, 1.97836281217780580732e+01) (1, 1.06184916378886340382e+00) (37, -4.56723958521306059311e+01) (69, 2.03614913690272594238e+01) (63, -1.80091611112386829063e+01) (66, 1.50000000000000000000e+03) (51, 3.34097483151620799902e+00) (55, -9.00850886728446020868e+00) (3, 2.55461112725917125488e+01) (57, -2.61128328626731196493e+01) (14, -6.54447837903887972288e+01) (50, 8.30011812939865301075e+00) (65, -3.93571079504317395958e+01) (20, 3.29647225483998562723e+00) (12, 7.95782439016055747061e+01) (5, 3.94795356888670312401e+01) (33, -1.27934187418935585434e+00) (64, 1.50000000000000000000e+03) (9, -1.37626206406458440057e+00) (61, -1.86092730038268570070e+01) (60, 1.00081307937971916999e+03) (45, 7.10820482921607776916e+00) (39, -1.47954299521001395590e+01) (7, 1.70061240159119044790e+01) (24, -1.50000000000000000000e+03) (13, 6.49942691337211755354e+01) (19, -6.44177387254812883199e-01) (70, 1.51588381779647800585e+01) (28, -3.93105690966749321547e+01) (35, 3.51606344669958872373e+01) (15, -1.04214787957353998138e+01) (43, 3.12234553390854969734e+01) (51, 3.37888715577227785047e+01) (67, -2.45850930090138408701e+00) (20, 4.36347153451656524226e+01) (44, 4.23633779115696196271e+00) (30, -1.17193042785800933814e+01) (65, 3.92340582859983015851e+01) (60, -9.54802244914734842496e+02) (42, 4.31992640825775282565e+01) (54, -2.00584108891730359403e+01) (25, 7.70981928742725557413e+01) (0, 1.50000000000000000000e+03) (38, 3.12887610138529765891e+01) (61, 7.28384563682090089287e+01) (58, 3.41867401847864869069e+01) (48, -5.33903648473757243664e+02) (14, 1.09069773648216141737e+03) (17, 8.26867313540274295747e+01) (69, 3.07222441685653357979e+01) (55, -1.96921087011116640042e+01) (26, -1.88652550705793743191e+02) (11, -2.60713694440100312022e+01) (46, 9.37926630790955982775e+02) (7, -7.00475771534591107326e+00) (13, -3.94810693732400821432e+01) (37, 1.34167103393346529572e+01) (12, -1.03820177836858505316e+02) (53, 3.86352475767793350769e+01) (31, 6.01482288556719169037e+01) (10, 7.95141775495900873238e+01) (40, -1.14200102450135787535e+01) (57, 8.82569152793180400352e+00) (70, -2.54246968922796723334e+00) (39, -1.41276180973858380696e+01) (15, 1.95206670050451869258e+01) (38, -1.99095973434645401312e+01) (37, -3.28949192671061219073e+00) (27, 1.64064388899121809118e+01) (35, 2.38678037119377073338e+01) (60, 7.99070523799043419544e-01) (25, -2.28490947618868673885e+01) (21, -4.38414853291422090820e+00) (69, 5.96310143770993672518e+00) (14, 1.41802111651365225953e+03) (36, -5.75983612756396912147e+00) (46, 1.34325197529228645976e+01) (65, -1.51601881680670169672e+00) (29, 2.61532601133485131939e+00) (55, 1.14299152536237738076e+01) (50, -5.97625449769176498194e+02) (7, 3.63496760731264174638e+01) (34, -8.74186236545505266804e+02) (2, 1.50000000000000000000e+03) (48, -6.22764233999924528007e+01) (13, 1.10440271260177471646e+01) (8, -4.63129162234793341213e+01) (58, 4.13454797283399244634e+01) (49, -3.33184752324749311470e+00) (26, -1.14716552985718999480e+03) (20, -4.47679312759905627672e+01) (47, -3.95775110397524132466e+00) (10, -2.18558264817355052401e+02) (44, 1.48135479790031290293e+01) (17, -1.00680839603356329093e+01) (61, -3.31540367082477516192e+01) (11, -1.54817249979846085495e+01) (43, 3.61043809448139256801e+01) (30, 1.38988876072312610432e+01) (70, -3.66927745608405597721e+00) (1, -2.72714226510914485857e+01) (36, 1.04854650063298286966e+01) (6, 1.06000448456077958070e+01) (33, 1.50048630967577327766e+01) (57, -1.25321377745525612823e+01) (62, 2.28818429952620476797e+02) (31, -3.89147500181832528554e+00) (8, -5.65792559239642334212e-02) (55, -1.12871752488411143389e+01) (15, 1.97712118526348987757e+01) (46, -1.50000000000000000000e+03) (17, -6.54673933030315624571e-01) (56, 4.17800810668946667192e+01) (7, 3.22532638291727336011e+00) (21, -7.03119441073731898939e+00) (27, 9.09860668423817031680e+00) (41, -1.45458731576946433961e+01) (5, -4.33881498650955563789e+01) (42, -4.31271344458414560563e+01) (60, 3.25550725201820156940e+01) (59, 1.86382018905219659644e+01) (66, 1.50000000000000000000e+03) (2, 1.50000000000000000000e+03) (61, 3.64941300145022111678e+01) (39, 1.82278775911243506869e+01) (48, 1.29557107931648897647e+03) (40, -2.97196083111656932374e+01) (11, 1.24514528726366684452e+01) (68, 3.30174465942732410895e+02) (3, -3.93187325265796445706e+01) (45, 1.46715094625120450189e+01) (52, -2.30558844712384436448e+00) (18, -1.75375238434339983939e+01) (4, -4.70751220719296483708e+01) (25, 1.82846246131731220430e+01) (70, 1.04474694316281198070e+01) (17, 1.37182458089208534346e+01) (30, -2.38941471565430383350e+01) (40, 2.32917318807221001009e+01) (12, 9.05747175860646791534e+01) (27, 1.09394048658557991871e+01) (60, 5.62767429158988079507e+01) (56, 7.20759117795437873610e+01) (61, 1.77945006785223363011e+01) (25, -1.30185237256173347298e+00) (28, -4.28703312387909889480e+01) (8, 5.31670023499524759814e+01) (46, -8.80107979595828382458e+00) (35, -2.39477377643038700228e+01) (7, 1.07723552890145040095e+01) (31, -1.34674628311349255938e+01) (67, -1.54489920551882864430e+01) (5, 1.12739752978006038120e+01) (11, -3.45492713776014470639e+00) (45, -2.42081622633823201340e+01) (32, 3.23490595961936264757e+01) (22, -9.00734440651775003062e+02) (4, -1.50000000000000000000e+03) (33, -1.26348473490493571347e+01) (47, -8.29126948045396616749e+00) (63, 8.99163635345694345347e+00) (14, -6.81415229871662546657e+01) (38, 3.65445558619945174428e+01) (69, -2.69566538746465482745e+01) (0, 1.50000000000000000000e+03) (52, 6.30339479844788641572e+00) (37, -3.92423858493874044839e+00) (36, -7.39812929437154753742e+00) (62, 4.11413681195261858647e+02) (55, -1.02137163352463051780e+01) (41, -7.06722270105465710799e+00) (70, -4.33631318364762208262e+01) (4, -1.41495639265825275288e+03) (42, 2.18592933118125465342e+01) (43, -3.01809113351096058864e+00) (8, 2.88367678295492844143e+01) (57, 2.53392295690486051285e+01) (14, -1.15816886527814929764e+02) (21, -2.08459275051464748563e-01) (63, 2.38888326474009771161e+00) (11, -1.55132217763350332973e+01) (39, 9.19505554823176218804e+00) (22, -3.92873516003811744213e+02) (17, -2.44617345473601304207e+01) (15, 4.92466100449573502829e+01) (10, -2.86274081355278369188e+01) (33, -2.27911447749845841315e+01) (61, -1.42204577968054524106e+00) (65, 3.22705523627839685474e+00) (67, -1.27711214167026132493e+00) (56, 1.44509968682637179427e+02) (24, -1.50000000000000000000e+03) (38, 3.16848552228775215411e+00) (31, -1.54306349397198228068e+00) (12, 1.24036704232568979478e+02) (44, -2.54126795227659698639e+01) (50, 4.79666315723918899039e+01) (36, 6.29255513948597467788e+02) (52, -1.52160070542390162274e+01) (66, 1.50000000000000000000e+03) (5, 4.48909672012926321827e+01) (19, -2.97956116199068503647e+01) (35, -1.84191837255076009683e+01) (64, 1.50000000000000000000e+03) (62, 2.42613791763271308355e+02) (3, -2.57374833379401977140e+01) (34, 2.29891464994439935765e+01) (70, -2.11438853304688976209e+01) (49, -9.83826381434535512938e+00) (5, 1.10029593605385507260e+01) (32, 2.87064330463802299676e+01) (48, -1.19473687168022550509e+02) (53, 2.64141091932631937311e+01) (12, 2.55727151727519981250e+01) (54, -4.54021298439122933388e+00) (37, -1.80041472982589993990e+01) (2, 1.50000000000000000000e+03) (35, -1.37957498413860566444e+01) (14, 3.30916815995495994684e+02) (26, -5.45422433482406958660e+01) (52, -2.59543103549009668285e+00) (55, 1.92523345730521846519e+01) (45, 1.38686641159449717264e+01) (8, -4.28649016288336923708e+01) (47, -2.22134588385103768360e+01) (27, 7.14830116282559391294e+00) (36, -2.19151075214201995323e+02) (67, -7.43986826240925630538e-02) (60, -3.13074546105854551570e+02) (7, -1.08343832717128432108e+01) (42, -8.86263816340739829513e+00) (41, 8.53490376690222873890e+00) (59, -3.56830344986227103732e+01) (11, -1.11613945121509949843e+00) (57, 4.81984219486715588232e+01) (15, -2.23012538094837964309e+01) (21, 9.27552043202060616522e+00) (39, -2.16338312598820898813e+01) (43, 4.01334236471361904819e+01) (50, -2.01581684908362284148e+01) (38, -1.01161087721225868563e+01) (51, -1.21751610991913405968e+01) (1, -2.30706030886476085584e+01) (70, -8.98098596252050995759e+00) (63, 3.31569088844569170860e+00) (11, 8.64172063342372531736e+00) (54, 1.66317949994717189099e+01) (69, -1.12847703329428732388e+01) (33, -2.12105436391042516675e+01) (23, -3.79538834978766503880e+00) (59, -2.39161070346178519230e+01) (47, -6.68226561367215232679e+00) (29, -9.06335505543138886253e+00) (61, -2.87347004477860412663e+00) (42, -3.55588474610211378035e+01) (53, -1.96964903204583791085e-01) (41, 2.98786390446095353468e+01) (20, -5.31506762873824722959e+00) (58, 6.15209841390420848484e+01) (48, 1.55199437411233958528e+02) (65, -9.26795610107031464509e+00) (1, 1.06876055368081033237e+01) (34, -2.38550315557101484387e+01) (2, 1.50000000000000000000e+03) (25, -3.85725873122541287330e+01) (43, -3.48344614667384391282e+01) (19, 1.04130357282282588471e+01) (31, 6.53062588358471263206e+00) (7, -9.24975106356976972677e+00) (14, -4.56479431284961378879e+00) (10, -3.50665706082205552718e+00) (67, 2.42100807794224444081e+01) (37, 1.31473414738068328234e+01) (21, 1.83667330100850101360e+01) (17, -3.31283675254303489055e+01) (55, -3.87264668789490897893e+01) (46, -2.19737173628108394041e+02) (4, -1.02792941360853137667e+03) (38, -2.30398039107535304026e+01) (70, 3.30569991124143172101e+01) (5, 3.59746895694203772109e+01) (50, -3.95960259319300291736e+01) (68, 1.50000000000000000000e+03) (41, 5.50181506247337814841e+00) (48, -5.01117096044557797541e+02) (67, 5.60038128022939396544e+00) (12, -7.99695489840138549198e+01) (33, 3.04326400745792469138e+01) (56, -2.52608156110660047489e+02) (69, 2.18556478147315402794e+00) (65, 1.36076115620590183397e+01) (17, 2.35704288637930972072e+01) (7, -3.12462289440775053961e+00) (22, 4.43129946767277601793e+02) (60, -1.04526112057086356799e+03) (4, 1.41714555998980677032e+03) (39, 2.02881646267767763447e+01) (46, 9.27911721046692946402e+02) (58, -2.87542079923024551658e-01) (63, -1.82842034388634155917e+00) (53, -2.69062658662138964871e+01) (21, -3.26180738619605108397e+01) (15, 1.55912489416913579987e+01) (13, -7.76708679114792754916e+00) (30, -6.30101801902929139487e+01) (14, 1.04836328671409546587e+03) (24, 1.50000000000000000000e+03) (66, 1.50000000000000000000e+03) (27, -3.95711104006791947185e+00) (11, -3.34991801129543205207e+01) (18, -7.04601504422396942573e+01) (3, 1.42354058278060886522e+01) (19, 8.40611652229358341515e+00) (34, -5.53202696367127266797e+00) (44, -3.56913479464529075358e+01) (70, -6.39361237233626589216e+00) (62, -4.17256700901678811988e+02) (5, -3.15384498103378128064e+01) (6, 2.82276153899190269669e+01) (37, 4.92243029365073283543e+01) (54, -3.42393775286585650974e+01) (44, -7.39531518557660774604e+02) (10, 5.11120245344533330467e+01) (11, 1.33407935342017958114e+00) (39, -2.36277316657257969723e+01) (43, -1.28520830986367204929e+01) (27, 3.72216791512696190125e+01) (60, -5.22846353414281921346e+01) (3, 8.36860753351702868486e+00) (57, 2.93693577565949048847e+01) (21, 2.58334961804815570474e+01) (51, -4.46022727471617141948e-01) (33, 3.98247825300375950519e+01) (17, -8.49855049099817883018e+00) (53, 5.62818355937076408857e-01) (31, 1.00480540906389386180e+01) (20, -4.37910847992547260787e+01) (25, -1.87784964469246489216e+01) (64, 1.50000000000000000000e+03) (47, 8.07916580742623580136e+00) (40, 4.28326855581644849735e+00) (48, -4.68212866079054457202e+00) (23, -3.03787405898369566870e+00) (55, 7.51938519032316410318e+00) (58, 2.01680442476873516000e+01) (18, -6.62219557235529663330e+01) (45, -8.09842280343154463651e+00) (41, -2.04537694689348370503e+01) (28, -9.98928869285335174766e+00) (22, 4.63950182009869763533e+02) (46, 1.12335844909417748028e+01) (70, 1.50770520129044474089e+01) (3, 1.67055272021132559246e+01) (37, -2.08804684148226726847e+01) (46, -4.49041050054906122568e+02) (62, 2.42613791763271308355e+02) (53, -2.55489377416787029063e+01) (50, 1.01829009474999754303e+01) (38, 3.45297851328475360333e+01) (27, -3.14526045602549260138e+01) (31, 2.30382593189518800614e+01) (13, -8.35760780494577026900e-01) (7, -4.17516985999316645461e+01) (33, 2.38607251818454777492e+01) (8, 2.83226267207866078124e+00) (0, 1.50000000000000000000e+03) (15, 9.32752975550906704427e+00) (57, -3.58146525161150627858e-02) (16, -2.07336365345443667252e+01) (40, -3.69541941862546963193e+01) (21, -2.59011787623615745701e+01) (5, 2.91346429993439457462e+01) (49, 1.26043744974596201303e+01) (35, -1.76442570967066245657e+01) (32, 3.05045563707146172305e+01) (67, 1.06998728670914591277e+01) (54, -1.50481557191859121048e+01) (12, 7.24681269087527510919e+01) (11, 1.65853239847821107844e+01) (26, 1.88161566524510249110e+02) (20, -9.06975473163020851075e+00) (48, 4.40917984633187757026e+02) (17, -1.50068595295554860769e+01) (55, 3.78971461921436727494e+01) (36, 8.04001861583882515561e+00) (34, -2.92664706849130640265e+00) (19, 1.89635825214019426710e+01) (70, -2.68752453340879959853e+00) (46, -5.06214817084327606267e+01) (44, -1.49891960057154918218e+01) (49, -8.03513801554715456632e+00) (29, 2.54304669547475512559e+01) (47, -1.98030499000257940168e+01) (27, 1.98749219629305571289e+01) (28, 4.93705395147816172852e+00) (25, -1.35926444863202160462e+01) (66, 1.50000000000000000000e+03) (33, 2.29576747632609396987e+01) (19, -2.48496842121564149863e+01) (14, 1.04428832791282661674e+03) (48, -5.90396996724854147942e+02) (60, -2.22954351639354342751e+02) (4, 1.02651286653014850003e+02) (35, -1.50614319999005932260e+01) (34, -2.20660726113259642034e+01) (0, 1.50000000000000000000e+03) (22, 4.85120477231336167279e+02) (43, 6.86462955403437113944e+00) (67, -1.70133027793348503565e+01) (23, 2.60540774153043575012e+00) (65, 3.43338730321534413292e+00) (63, 2.97030466587543671153e+01) (13, 1.56433347665931599124e+01) (61, 1.31318983781742755212e+01) (8, 6.57311015954295019270e+00) (68, 1.50000000000000000000e+03) (38, -1.29117874712949447513e+01) (17, -2.51151856130936650402e+01) (64, 1.50000000000000000000e+03) (21, -1.18383464226831658372e+00) (40, -2.75554182187066452059e+01) (16, -2.71802062784653948313e+01) (15, -1.51462585348341072233e+01) (70, 1.96087782886992179066e+00) (2, 1.50000000000000000000e+03) (5, -4.33267778952839588413e+00) (65, 2.88360683253144820526e+01) (62, 2.39271397963804190567e+02) (6, -3.97692488086444129181e+00) (37, 5.88104092505805819968e+00) (25, -1.11599471079748990832e+00) (13, 2.03738400049301731087e+01) (40, -7.59668199499263341323e+00) (67, -4.19690971624151365482e-01) (49, -6.24579173832182377168e+00) (4, -8.58023455557392935589e+01) (58, -4.75004142388916292816e+01) (14, -1.17233270271101119420e+02) (61, -2.41715879871420646907e+00) (30, -3.37167463402110598736e+01) (56, -1.58134165152540902000e+02) (23, -1.61920474704168460001e+00) (1, 4.16006725338466232245e+00) (7, -1.01259064533357712179e+01) (21, -2.45774700342209939663e+01) (32, 1.03368086573217723867e+02) (18, 3.61706085566447157476e+01) (35, -2.98390694772322220274e+01) (38, -2.87982866245355815238e+01) (63, -8.10169068873778286388e+00) (54, 7.09656296203506453679e+00) (41, -1.33955708020731698582e+01) (42, -5.31893409975701914050e+01) (68, 3.30174465942732410895e+02) (33, 1.75745977419240029249e+00) (60, -1.19594145056916261183e+02) (12, -4.82504494319671373148e+00) (48, -1.81412030240189707797e+01) (52, 1.45745007894408544757e+01) (70, 2.25935326698071250462e+01) (66, 1.50000000000000000000e+03) (9, 5.63389686005572265515e+00) (40, -8.07639263430104250574e+01) (56, -7.76109001676495950051e+02) (28, -2.59040274025484684728e+01) (18, -4.21446439839573372410e+01) (23, 3.54886439157597166627e+01) (57, -1.15989090489203583445e+01) (65, 3.28713265540855843483e+01) (45, 3.73509651858244939859e+00) (15, -2.27729806523137483509e+01) (21, 4.42039882029158448518e+00) (12, -1.17856056971990227566e+02) (68, 1.50000000000000000000e+03) (63, 2.41856149383073564252e+01) (31, 7.50363830056268312774e+01) (29, -3.19582177743135780190e+01) (1, -6.65031851503763427047e+00) (27, 1.75065789486527272345e+01) (50, -6.38905091167444894040e+01) (42, 2.01447577806976489967e+01) (30, 2.02844860999904419430e+01) (6, -3.83795128049756613109e+01) (46, 8.89450348671206143081e+02) (37, -6.49804350866189963654e+01) (19, -2.55298410831364179785e+01) (26, -1.86379378496629954043e+02) (4, 1.41714555998980677032e+03) (16, 2.64934375416951120030e+01) (61, -1.52889922296864941842e+01) (52, -2.19530411178391098304e+01) (51, 2.01950588187807369422e+01) (0, 1.50000000000000000000e+03) (55, -8.80019891436775170135e-02) (2, 1.50000000000000000000e+03) (70, -5.98616970759331290530e-01) (32, 1.45304219093560753606e+01) (0, 1.50000000000000000000e+03) (2, 1.50000000000000000000e+03) (38, 9.51961815358962759603e+00) (61, 2.93237237460510726805e+01) (57, 4.50476090258567918312e+00) (54, -2.13935860933314039301e+01) (10, -1.28017424231712073635e+01) (15, -2.43437990810097026895e+01) (16, -1.56910091999496810189e+01) (55, -9.46015471841971411493e+00) (4, -1.41495639265825275288e+03) (12, 1.00599801232691106634e+02) (66, 1.50000000000000000000e+03) (62, 2.42613791763271308355e+02) (59, 1.93994814424129842223e+01) (33, 8.20103409223565282815e-01) (44, 3.41566707198487762298e+01) (26, 1.75718850673668981699e+02) (18, 5.82948529889251858549e+01) (60, 1.03290321018568874933e+03) (49, 4.22536240585030924422e+01) (9, 2.85572844790567117457e+01) (42, -3.56513859331825813115e+01) (64, 1.50000000000000000000e+03) (68, 3.30174465942732410895e+02) (20, 1.29336540137206075229e+01) (6, 1.68935098253649762512e+01) (23, 4.14669598428290200332e+01) (39, 9.45937626406193610151e-01) (58, -1.25264398838168062866e+01) (56, 2.76526755640462681640e+02) (27, 3.08730161317545928057e+01) (28, -8.49750864844488340566e+00) (8, 4.06036192547204564107e+01) (70, -9.60101101553704694425e+00) (11, 3.44932980897397456488e+01) (64, 1.50000000000000000000e+03) (34, 3.41962010291806279838e+01) (15, 1.56562321971461155812e+01) (58, -3.50254791089104600132e+01) (18, -8.79154741166576201294e+01) (28, -2.24183445184277871931e+01) (59, -3.20660317809843817827e+01) (54, -5.11566423332822850512e+01) (3, 2.71805050595969177607e+01) (50, -4.16663237121844147737e+01) (13, -5.05677121633300856729e+01) (12, -6.52179244641848470110e+01) (25, -3.39508699624397114469e-01) (66, 1.50000000000000000000e+03) (40, 2.90934030593160599665e+01) (9, -2.55650398741062510055e+01) (43, 3.54014112547337589376e+00) (27, -1.09680473032149556900e+01) (49, -1.94872053409501937438e+01) (8, 1.73053991635900636936e+01) (55, 3.37355735240944270004e+01) (22, 4.02487987782274842630e+02) (62, -6.96088363147986569857e+02) (5, -1.54278058983062056342e+01) (2, 1.50000000000000000000e+03) (42, 2.84151965262499608400e+01) (53, 3.94169557927685820786e-01) (61, -2.19434466480933636490e+01) (69, 1.43674557431909803995e+01) (6, -2.81465133961282703012e+01) (4, 1.05361523416830982569e+03) (37, 1.06594176608661737049e+01) (48, -4.35187171902908573884e+02) (7, -5.03497925069054375058e+00) (70, 2.23000309720329816798e+01) (31, -1.68365817127912400508e+01) (59, 2.74728086346057729372e+01) (62, -1.15149245610209391089e+02) (26, -1.73846005801429299709e+02) (55, -3.60031017997531108676e+01) (23, -2.61953247405863471897e+01) (8, 1.91290205231524517160e+01) (33, 6.48448809331624342889e+00) (53, 2.28836891052597124485e+00) (52, 1.53992728775222484927e+01) (10, 3.65155131704703066475e+01) (36, -5.73364979576253858795e+02) (14, 1.07179500744773713450e+03) (66, 1.50000000000000000000e+03) (45, -7.34845008645330111108e+00) (7, 2.40223584076507599150e+01) (3, -1.27591292605107806679e+01) (21, -1.34925175671899921781e+01) (6, 1.74783734701023334424e+01) (44, -3.32805987494466961607e+01) (12, -8.41419461207022436611e+01) (16, 2.65218017232136666905e+01) (64, 1.50000000000000000000e+03) (47, 3.26931068665446176169e+01) (50, -3.37173886180872273144e+01) (34, 3.48905811344971112931e+01) (48, -4.82015347578066212009e+02) (39, 9.44881987080140284263e+00) (46, 9.55373701866393503224e+02) (49, 1.08234540193305832645e+01) (4, 1.41714555998980677032e+03) (58, 1.73639773378397528347e+01) (40, -3.07362457873109597983e+01) (56, -2.83200557615176080617e+02) (63, -6.05631272080355120835e+00) (70, 1.31457115474125103560e+01) (25, 1.41481083196518557799e+01) (20, -3.55813518424458692380e+01) (32, -1.15432916205601792115e+01) (59, -1.23302058561201270948e+01) (24, -1.50000000000000000000e+03) (48, 4.52216372160653918399e+02) (15, -3.29523090744952895648e+01) (11, 4.31259217891855684002e+01) (36, -2.36566249820252494374e+01) (33, -9.22652105466015903801e+00) (66, 1.50000000000000000000e+03) (49, -3.35730822229654890521e+01) (29, 2.70954999172251334016e+01) (19, 1.78208946022618164307e+01) (7, 5.50793649071083919466e+01) (60, 1.03198402788512066763e+03) (27, -1.37760253132188772440e+01) (26, 2.01426479079925371707e+02) (9, 5.83690197143497790933e+00) (44, 6.70538941924441331821e+01) (57, 1.31725668345305084728e+01) (62, 2.42613791763271308355e+02) (68, 3.30174465942732410895e+02) (2, 1.50000000000000000000e+03) (51, -4.52325621757754632313e+01) (1, -2.84513009724243133292e+01) (67, 6.25808871416031919921e+00) (58, -9.54212554431346262618e+01) (13, -1.77566079499439877232e+00) (16, -5.53486334886265041177e+01) (31, 2.00153722058696885711e+01) (50, 1.29753879022793472409e+00) (18, 4.18745960824830465441e+00) (17, 1.76583281288124496200e+01) (34, 2.87641671066100386156e+01) (70, -2.38852664249592052670e+01) (44, 4.87624017302857595269e+01) (18, -8.20145239017290172967e+00) (17, 6.52501017283150819281e+00) (27, 2.84762658574469256223e+01) (6, -1.89761600888806150067e+01) (5, -2.86880531536412419769e+00) (48, -1.64619398434682402410e+01) (26, 1.24915227978295632738e+02) (28, 3.25977378112652473874e+01) (60, 3.95361565981275973058e+01) (59, -2.58042616460892162422e+01) (1, 3.40060509425944488271e+01) (15, 4.25150657641600275838e+01) (45, -1.15074491534110023849e+01) (61, 1.35510064966890109162e+01) (69, -1.52763949649982428980e+01) (37, -5.55118282603149726384e+00) (64, 1.50000000000000000000e+03) (54, -3.98436472199589559295e+02) (67, 2.41361321193523181705e+01) (58, -1.21084868190429529022e+03) (4, -1.41495639265825275288e+03) (63, 1.15963735304579511620e+01) (38, -4.17638741569976517098e+01) (56, 1.70068973658941793303e+01) (32, 4.42733898688063973736e+01) (19, -1.68799941286932764228e+01) (14, -4.75374408796210730088e+01) (46, -8.42164627464811815116e+02) (41, -5.40103864101652817453e+01) (55, -8.05188828367639786165e+00) (12, 6.47229882978154194006e+01) (16, 1.27932921296190755811e+01) (29, 7.30868481152084648045e+00) (51, 2.50622569387231770577e+01) (70, -5.18656681310958020958e+01) (6, -9.08981541763109746057e+00) (13, -4.00738041389842791773e+01) (59, -8.66884932235744898321e+00) (34, 4.30693886564265184802e+01) (33, 2.48344547771737538255e+01) (45, -1.68516054277419335961e+01) (63, -2.24493809903890735313e+01) (12, 3.83333732389165504628e+01) (9, 1.56767216967691851437e+01) (39, -5.86352611298888337643e+00) (43, 8.67479745190776796449e+00) (16, -1.29727999332870869154e+01) (66, 1.50000000000000000000e+03) (64, 1.50000000000000000000e+03) (47, -1.41628333008828963813e+01) (5, -3.84655860762696875099e+01) (42, -3.35572830736855678424e+01) (44, -7.04305824591051710115e+00) (37, -3.16418324976389584435e+01) (32, 4.54762565460442758081e+01) (67, 2.06656486261073375488e+01) (3, -5.39571140539473645958e+01) (26, 2.24762919010155911792e+02) (35, -5.75870734992395139074e+00) (14, -3.91973262861161231285e+01) (57, 7.64017564470190819748e+01) (50, 5.40680262257121313496e+01) (62, 2.42613791763271308355e+02) (18, 4.44415245225097166326e+01) (11, 1.27909037031383032712e+01) (41, -1.09074064673748676313e+01) (24, -1.50000000000000000000e+03) (61, -3.66116362087824001037e+01) (48, 5.22433161406259159776e+02) (23, -1.42816757282737571977e+00) (70, 1.92738777316858751476e+01) (65, 6.79625999105493683317e+00) (14, -1.05819109542646742739e+02) (12, 8.04682328008365033156e+01) (48, 4.63807931093911633980e+02) (3, -8.09352291452360894652e+00) (15, -2.54634280059128625950e+00) (63, -1.70869359547285171175e+01) (60, 1.01576914741865971337e+03) (56, 2.77521549532369249391e+02) (39, 2.50627569065810185123e+00) (66, 1.50000000000000000000e+03) (50, 2.42630281955085820300e+01) (27, -6.43439250759502545662e+00) (51, 6.23972187929360444514e+00) (5, -2.52250740682547949234e+01) (32, 2.76532212189775705724e+00) (19, 1.78245983686851405814e+00) (8, -2.69920819629311843357e+01) (41, -7.64441817255690647670e+00) (36, 6.03245574754871654477e+02) (9, -1.61689518090513795201e+00) (25, -1.87011031081944771870e+01) (58, -7.15244403181247179191e+01) (61, -7.13271635120058533630e+00) (10, -5.93369177466577042424e+01) (22, -3.87443925778592301867e+02) (28, 6.43142436708914573273e+01) (64, 1.50000000000000000000e+03) (2, 1.50000000000000000000e+03) (43, -8.47186349695870610788e+00) (21, 2.88263416869384450081e+01) (30, 6.81044013570009898473e+00) (31, -8.45667985811533107210e+00) (40, 2.45689705628908647839e+01) (49, 2.31998802860722221908e+01) (70, -7.80730383063536503840e+00) (22, -1.33016640900150406424e+02) (28, -8.40142308043996166589e+00) (26, 8.36547784899920685575e+01) (3, -2.45673345770953766021e+01) (55, -2.78067473547390093813e+01) (11, -3.45789368597504989111e+01) (7, -3.88999326208515938674e+01) (20, 8.87246314632829324864e+00) (42, -2.32596241229402735939e+01) (24, -1.50000000000000000000e+03) (43, -6.49732956591934218693e+00) (33, -2.55801373700724976601e+00) (56, 1.06898771321443135207e+02) (68, 3.30174465942732410895e+02) (44, -2.58170230975288887976e+01) (62, 7.64002093456511204295e+01) (66, 1.50000000000000000000e+03) (63, -3.12816705864887865118e+01) (27, -6.79422008532458399088e+00) (38, 1.43579986344151482314e+01) (40, 1.05795780113641169073e+00) (9, -2.56988971039781439742e+01) (36, 2.42374878252743286566e+02) (0, 1.50000000000000000000e+03) (57, 6.72528631604655657839e+00) (25, -7.95532533367384164791e+00) (58, 7.18357775396347335573e+01) (8, -3.20343098498538196850e+01) (2, 1.50000000000000000000e+03) (69, -6.16447345877867558528e+00) (6, -6.76109006395550427015e+00) (45, 9.66100585839239123231e+00) (65, 3.23665244911902627578e+00) (17, -2.07729418440488444730e+01) (1, 1.14459625038986381185e+01) (70, 1.77492752560505202553e+01) (24, -1.50000000000000000000e+03) (56, 2.82643817255453200232e+02) (39, 1.56198130171850309011e+01) (52, 1.18572326470374491691e+01) (30, 9.17852895996342610374e+00) (64, 1.50000000000000000000e+03) (23, -9.03914529908769104338e+00) (44, 1.83836766784058731616e+01) (62, 2.42613791763271308355e+02) (49, 1.33912230367131517283e+01) (19, 2.87905668981411455576e+00) (20, 6.52542489190235031060e+00) (33, -2.72060706246994499224e+01) (29, 1.92014747877462212955e+01) (46, -7.32461192490529242605e+02) (40, -2.63858130930800847125e+01) (65, -3.67330989352336558795e+01) (35, 7.73170853017808568097e+00) (38, 2.05310501324834575598e+01) (31, 2.01619739839807721182e+01) (25, -2.55580894821138961959e+01) (22, -3.81964357142975927673e+02) (55, 1.30520150033447901450e+01) (26, 1.76892239880303236532e+02) (45, -1.95926311453335664226e+01) (3, 2.75906105526813796303e+01) (32, 3.73336706422653108461e+01) (28, 6.45665258802518167158e+01) (12, 6.84899093412113728618e+01) (8, -7.96637090336078834696e+00) (42, -2.20529798147400164510e+01) (5, -1.79687215692435096059e+01) (59, 9.08535670376528159409e+00) (51, -1.10779815675141701803e+01) (41, -1.33610954432434869688e+01) (70, -6.07693890828568825668e+01) (61, 1.63304311319170958328e+00) (62, 9.17605523910689271361e+01) (49, -9.28298979301113114104e+00) (18, 4.29285173072194368160e+01) (42, 3.41412110073618180195e+01) (15, -6.16987744167972262943e+00) (22, -6.09145533028064818382e+01) (21, -2.56519207518950631552e+00) (26, -1.83016697605953204686e+01) (53, 1.10889622454308085509e+01) (4, -9.41106513830691937983e+02) (6, 1.15918248573027078407e+01) (35, 1.09169607800684076437e+01) (44, -2.13195919917321319303e+01) (11, 1.51955306626528479086e+01) (63, -1.03130502156571228767e+01) (0, 1.50000000000000000000e+03) (28, 1.70165888893096202139e+01) (17, 5.08121606059276658129e+01) (37, -3.29295831396602878272e+01) (3, -4.90536110586600848649e+00) (12, 2.35235510670629608398e+01) (8, 4.30087271989373576275e+01) (45, 4.61201713985755468173e+00) (30, -4.81862650804378489511e+01) (5, -2.57940600078682926721e+01) (56, 8.19203924627087900490e+01) (2, 1.50000000000000000000e+03) (24, -1.50000000000000000000e+03) (41, 3.02536478442138054845e+01) (67, -5.36285390157182106918e+01) (29, 4.74717331294992206381e+01) (16, -3.17137403001006354941e+01) (50, -4.27563101338208682023e+01) (36, 1.88661066072052790332e+02) (70, -2.06424535493658467544e+01) (15, -8.83597360241293827698e+00) (31, 2.10843715716952253558e+01) (50, -4.51698098064417763453e+01) (53, 9.23020656255990168404e+00) (36, -5.80827767204427914294e+02) (10, 1.85004770643606839542e+01) (21, 1.96144891568383457070e+01) (23, 2.67285496158964726021e+01) (14, 1.05837536154224312668e+03) (22, 4.46839224187498246010e+02) (24, 1.50000000000000000000e+03) (2, 1.50000000000000000000e+03) (62, -9.18353117608739637490e+01) (45, -6.31015471176685593946e+01) (51, 1.59496716229205475202e+01) (5, 6.83879097942745239891e+00) (67, 1.05189520139887129346e+01) (3, 2.40244507982317356820e+00) (48, -4.72258325435655820002e+02) (39, -1.72061335506109323035e+01) (25, -9.94724962417350155874e+00) (61, -1.13528711465483311827e+01) (60, -1.02681571413394249248e+03) (38, 5.35004843414897877096e+01) (1, -4.30552804277378253772e+00) (4, 1.15286416870227208165e+03) (54, 5.35911385950798191402e+01) (19, -1.29859449936909303602e+01) (44, -3.51512286561010540709e+01) (9, -6.18505585647668638671e+01) (34, -1.66093475393853076127e+01) (59, 3.19922023099936225776e+00) (63, -1.71238814848232188126e+01) (28, -3.36766713153028760530e+01) (37, 5.46100416763211882198e+01) (70, -6.53460461070083908908e+01) (28, 2.36752787020709014598e+01) (54, -7.69751436426247881428e+00) (43, -3.20863376785771503563e+00) (17, -4.82781850471205444819e+01) (24, -1.50000000000000000000e+03) (60, 3.12491247972178769032e+02) (50, -1.44805862718217213114e+01) (64, 1.50000000000000000000e+03) (36, 2.34664728109252962440e+02) (4, -9.27075247360440584998e+02) (14, -3.02278652511900354227e+01) (0, 1.50000000000000000000e+03) (1, 7.30274711351084704347e+00) (32, -2.36775933229284980541e+01) (18, 8.48316222408994065063e+01) (68, 3.30174465942732410895e+02) (62, 2.28448325454985212701e+00) (66, 1.50000000000000000000e+03) (29, -1.73361918123739862096e+01) (69, -5.84578396250767013953e+01) (58, 5.47729306319211701748e+01) (65, 1.27769502232523670671e+01) (25, -1.38898689672132169548e+00) (52, -1.30371165730389346749e+01) (44, -4.50052034027260816629e+01) (61, 1.54826058827774133420e+01) (19, 6.69581966874923324440e+01) (38, -6.21364093541742334992e+01) (31, -3.07711689467350524296e+01) (51, 3.72513528539950229401e+01) (46, -3.11220114084728550097e+02) (55, -3.78249547862763435546e+01) (21, 8.69260618986670330344e+00) (16, -1.35337766950091076268e+00) (42, 6.16275105793901900597e+01) (70, -4.32773006689375989708e+01) (34, 7.90844467144120955027e+00) (22, -3.73369130055630876086e+02) (47, 4.70500794286076118311e+00) (60, 1.00643979790083744774e+03) (4, -1.41495639265825275288e+03) (41, -4.56252612489133824170e+00) (31, -1.25740601190387035757e+01) (30, 1.53746237405798047426e+00) (3, 3.85467307450210139308e+00) (11, -3.37656940065186006450e+01) (59, -5.08407506504378048362e-01) (69, 2.65693790185633922363e+01) (2, 1.50000000000000000000e+03) (67, -3.80915577529052917782e+00) (68, 3.30174465942732410895e+02) (21, 7.21287387329191265195e+00) (49, 2.96486092574775810249e+01) (46, -9.03648033820017303697e+02) (29, 1.28765503410749122537e+01) (13, 3.04747046146877087480e-01) (38, -1.85996769666495147533e+01) (9, 2.14295817660440164332e+01) (20, -2.44838932122315533491e+01) (35, -6.29730493369470334386e+00) (36, 5.64904054445423184916e+02) (66, 1.50000000000000000000e+03) (23, 1.05351437417558511100e+01) (19, 9.70663243193395253172e+00) (28, 2.23076628412706483573e+01) (53, 8.89795579342840592396e-01) (65, 5.32330863358424011267e+00) (50, 4.11613756824992407246e+01) (0, 1.50000000000000000000e+03) (26, 2.03480490268700549450e+02) (17, 1.91837346192984470328e+00) (70, -1.56901314354537220197e+01) (13, -5.10110144537540151077e+01) (4, 4.98244916097453312887e+02) (54, -2.82790900085016296828e+01) (48, -4.59919098951357113947e+02) (30, -1.07201168090976342029e+01) (43, 2.77361596460171107026e+01) (58, 2.31009810218836477702e+01) (19, 8.76358442915707946952e+00) (23, 2.75270421989095979143e+01) (14, 1.05966312680675423508e+03) (37, 1.84306440233413582064e+01) (63, 6.55355903627774516451e+00) (15, -2.68728683992980110773e+00) (33, -6.46026920877484389649e+00) (12, -1.02350313945256857551e+02) (41, 1.41322504826592538762e+01) (42, 4.20539052608567374136e+01) (21, 4.10880822794820304011e+01) (11, -5.31230969609755661054e+01) (68, 1.50000000000000000000e+03) (52, 2.60600242696533757059e-01) (3, -9.73243961393658096881e-01) (40, 1.33273967145201126527e+01) (66, 1.50000000000000000000e+03) (55, -5.52382122796664845055e+01) (46, 8.75853354704515709273e+02) (6, 1.09802390237759546210e+01) (26, -1.88404228772908510336e+02) (65, 2.13825538062450064558e+01) (36, -5.70564711403036085358e+02) (29, -9.37783924140600966268e+00) (0, 1.50000000000000000000e+03) (62, -9.20849586629582148589e+01) (9, -4.25170699174653563546e+01) (47, 1.75175791277198484863e+01) (70, -5.74553478491133802208e+01) (52, 4.67807978352950648571e+00) (66, 1.50000000000000000000e+03) (49, 3.98169518478097330672e+01) (4, -1.41495639265825275288e+03) (26, 1.88791768850319812145e+02) (30, -9.60651812902427337804e+00) (8, 3.36735216487651856099e+00) (12, 6.11576186917973458890e+01) (17, 3.06954553538679419944e+00) (39, -4.52157933783090939528e+01) (35, 1.35519367998562856314e+01) (11, -3.53646777711670381450e+01) (57, -1.09144934003929083843e+01) (55, 4.31370046672609817051e+01) (23, -4.89058657797295737168e+01) (19, 6.35783103604146688781e+01) (18, 2.67190854718352319708e+01) (22, -3.92109993855679363151e+02) (64, 1.50000000000000000000e+03) (45, 1.45708506059651532460e+00) (50, 2.74036900211834009156e+01) (0, 1.50000000000000000000e+03) (16, 4.47008454469259630670e-01) (15, 6.68075681064907342943e+01) (61, -1.17481728069883093468e+01) (48, 4.48377819685677991401e+02) (2, 1.50000000000000000000e+03) (10, -3.75881212836448952430e+01) (28, 5.11800464357836872864e+01) (65, -2.12859161627110218262e+01) (53, 1.30915730375337329150e+01) (46, -9.13914304457528487546e+02) (20, 9.45070094212636924169e+00) (1, 2.43530399072352672363e+01) (62, 2.42613791763271308355e+02) (70, -2.78060160956152735423e+01) (1, -3.51657744726891223763e+01) (58, -4.22785231868792195087e+01) (52, 3.24544974023892729420e+00) (24, 1.50000000000000000000e+03) (27, 2.24422154876067310170e+01) (17, 3.66569591353961214963e+01) (29, -1.24794546416502747377e+01) (54, 3.37551211688470864658e+00) (20, -2.64668590515044357403e+01) (34, -6.24245551529025455295e+00) (13, -4.08596104112964653154e+01) (60, -9.96499834789002420621e+02) (32, -2.68846638366753936111e+01) (33, 3.27184907044572028667e+01) (26, -1.74853408228687129622e+02) (25, -1.05366360971160126780e+01) (28, -4.11600230739038650540e+01) (53, 4.24998320224857764060e+01) (59, -2.01031664227027633274e+01) (18, -5.05493983842106260340e+01) (57, -4.01163612626421617335e+00) (63, 3.04387016338540341565e+01) (66, 1.50000000000000000000e+03) (62, -9.35927494668675734601e+01) (12, -5.18828876452079086334e+01) (56, -2.88402086164370359711e+02) (50, -1.02791822410186650671e+01) (68, 1.50000000000000000000e+03) (51, -3.48630519859363658952e+01) (31, 4.68700443973971943024e+01) (11, -2.86724892965553870283e+01) (40, 1.13797403647890558176e+01) (23, -1.34793729264840465021e+01) (21, 1.35086687592540108938e+01) (0, 1.50000000000000000000e+03) (70, -1.66111973058994983887e+01) (14, -9.92565933301835485736e+01) (20, 3.21733714972409785560e+01) (33, -4.58436963624935078787e-01) (4, -1.41495639265825275288e+03) (60, 1.03681896068922878840e+03) (39, -1.11548926901372489340e+01) (16, 6.96625932422023996793e+00) (41, -2.32429958762493598101e+01) (63, 7.56109178411689875077e+00) (26, 1.94680476726525142794e+02) (51, -8.92406747347646600588e+00) (57, 7.89831845110861685555e+00) (48, 4.53579899458627551212e+02) (65, -2.94150875341709827637e+01) (28, 4.57037814821703634038e+01) (19, -2.58574520449812936818e+01) (55, -1.89870645466059642104e+01) (42, -3.93528154494550097553e+00) (43, -1.29156204100307085980e+01) (34, -3.92464453889836377698e+01) (9, 2.58452922152627664332e+01) (31, -1.15039250024615551382e+01) (25, 6.78387955130818953720e-01) (52, -2.00119293335969139491e+01) (30, 8.80758776315709290827e+00) (47, -1.54648514664712752875e+01) (5, 4.65106140274900781151e+01) (36, 5.85257103723682462260e+02) (22, -3.85001482884610140900e+02) (3, -7.41223318694188293421e+00) (10, -4.43033484107199129198e+01) (38, -8.65118300913009896647e+00) (59, -2.41134274931338907777e+01) (50, 3.21696958054564490226e+01) (6, 1.72506932817858746887e+01) (70, -1.31003953156886669973e+01) (7, -3.23629621098491284670e+01) (24, 1.50000000000000000000e+03) (64, 1.50000000000000000000e+03) (43, -2.56242396312335145581e+01) (9, 2.17272512985442389777e+01) (2, 1.50000000000000000000e+03) (13, -9.54414860344593485308e+00) (0, 1.50000000000000000000e+03) (60, -3.41077788742187010484e+02) (27, -1.36279163611177839277e-01) (31, 1.03518888354426152887e+01) (41, 6.71838705652083412190e+00) (1, 2.46369656385958251121e+01) (58, 2.84434633560475695901e+01) (44, -2.83369244130793767056e+01) (47, 3.58976075986589151512e+01) (15, 3.54102482053298359688e+01) (4, 7.90907778395903960700e+02) (17, -1.73488445501277794847e+01) (51, -1.15430460198602240496e+01) (8, -4.07663972711275022220e+01) (46, 3.09064648203764534173e+02) (36, -2.24232065107910244706e+02) (34, -5.42662014006114201692e+00) (38, -2.30806066191108349983e+01) (40, 4.71043772998192267210e+01) (68, 1.50000000000000000000e+03) (25, -2.12819392515277705513e+01) (69, -2.56355010847403708141e+00) (23, -3.25231161579385495263e-04) (65, -4.04042807755875870157e+01) (18, -4.56620583665743069446e+01) (26, -1.25189452907823110195e+02) (54, 3.02210700525095390390e+01) (19, 1.11780896316708879823e+01) (70, 2.77474695107339179856e+01) (46, -9.00236248694285563943e+02) (9, -4.47295795637451476523e+00) (15, 4.28568430728450380229e+01) (38, -1.60231808423819366283e+01) (45, -1.91321001100660410543e+01) (39, -2.34547389307312421636e+01) (62, 2.42613791763271308355e+02) (59, 3.63370625019124418031e+01) (26, 1.93521919788353756076e+02) (36, 1.50000000000000000000e+03) (34, -1.76978776601316734052e+00) (42, 3.14361327588340273564e+01) (27, 5.02307970527410851957e+00) (2, 1.50000000000000000000e+03) (44, 4.04198669497834686126e+01) (63, -3.56042897154009274630e+00) (24, -1.40030226449374481490e+03) (41, 4.15357143638098325056e+00) (68, 3.30174465942732410895e+02) (28, 4.01504114752729712734e+00) (4, -1.41495639265825275288e+03) (35, -1.75677687241536482077e+01) (37, -1.09376697359092780459e+01) (29, -1.40091801171433125717e+01) (7, -3.10625474533230452323e+01) (6, -3.30977678693370833685e+01) (13, 2.74057230448075159757e+01) (49, -1.03990333113838726575e+01) (10, -3.33695208913032743681e+01) (64, 1.50000000000000000000e+03) (57, 4.55779730516621306435e+00) (32, -6.19744950864318777661e+00) (54, 3.94618017063037918035e+00) (17, -2.89513102683521539316e-01) (69, -2.31348833182455742019e+01) (70, -1.05665660380021630971e+01) (46, -8.87551061976499113371e+02) (28, 6.94048713737745686103e+01) (39, -6.50125701686725676609e+01) (21, -3.62001356496999449064e+01) (9, 9.45726494061977831507e+01) (53, -2.27526327697062455968e+01) (42, 5.16657213136403115072e+01) (2, 1.50000000000000000000e+03) (57, -6.96870317859281751538e+00) (64, 1.50000000000000000000e+03) (1, -2.68701034067765824886e+01) (3, -1.84619312273420943527e+00) (59, -9.44815741531081698668e+00) (50, 3.80034530781854186898e+02) (14, -6.72556015088947702907e+01) (51, 4.43444638890207727400e+01) (44, 5.92642139753107741740e+01) (24, -1.50000000000000000000e+03) (36, 6.10846698564686334976e+02) (37, -3.58329104633398358715e+01) (6, 1.91356609104168988722e+01) (58, -5.16806611031730511741e+01) (47, 1.55779446363166531597e+01) (5, 1.40946710374466182003e+01) (11, -2.79540652073151596468e+00) (33, -2.63743414837608947110e+00) (27, -2.58233192574429857302e+01) (41, -2.41559026761782646986e+01) (31, 3.28081611700030251200e+01) (8, -3.71147352030219579433e+01) (67, 4.68343204976424374308e+01) (10, 1.26025217286374100922e+02) (12, 7.92809016571946134633e-01) (38, 1.59296848877440311298e+01) (65, -1.73674827097550981136e+01) (70, -1.41345917475678706232e-01) (54, 5.79143166345752774760e+02) (63, -9.84161151129876898835e+00) (7, 9.99494512918924726819e+00) (65, -2.63962377898817912580e+01) (40, -4.06384619449146189396e+00) (34, 5.92088609377313588311e+01) (20, 2.17949128249505434951e+01) (60, 3.03981831702159695396e+02) (32, 6.59942482196143629380e+01) (52, 3.58528880364855382368e+01) (62, 3.62859727948515384810e+01) (19, 6.16694238146294608782e+01) (26, 2.67017039060786828486e+02) (5, -1.23325384900760717244e+01) (3, 2.09977479584092243670e+01) (22, -4.20624679978087883114e+01) (29, -1.20378320927584225863e+00) (50, 1.19361056734041284244e+02) (27, -2.17743376225514317923e+00) (35, -1.03412175276812252633e+01) (28, 3.76958118269785927623e+02) (31, 1.68328581791233133913e+01) (25, -3.78188618780132728148e+01) (21, -5.46897921501517991771e+00) (15, -2.68329289501995837952e+01) (2, 1.50000000000000000000e+03) (1, -1.14742149703625884172e+01) (24, -1.50000000000000000000e+03) (18, 1.32732194016036810780e+01) (45, -1.36896948013247587994e+01) (4, -1.43041388927295406575e+03) (12, -2.61371472111023912532e+01) (16, -2.38154373801016561174e+00) (33, 1.97451967643367396477e+01) (30, 2.19926305364313172674e+01) (70, -1.24977776941577900516e+00) (8, -1.66023619689327972537e+01) (48, 1.71286301974402341841e+01) (61, 1.07773629168905085152e+01) (37, -2.18987124017727694536e+01) (32, 1.95998127625791340733e+01) (64, 1.50000000000000000000e+03) (34, -2.09470863701560681136e+01) (11, -1.22159340719892810512e+01) (49, -2.12680762616167839951e+01) (1, 1.80999718553132069587e+01) (63, -7.21154293277751357039e+00) (56, 6.37875041581192725459e+00) (67, 1.95358696824616444587e+01) (26, -7.95392906319065247089e+01) (23, -2.37605490743156622102e+00) (6, -5.16918543667264973607e+00) (19, 1.41104829905424793424e+01) (30, -3.61772886900736381222e+01) (62, -6.49149121786208752383e+02) (58, 6.14782980585484779112e+02) (18, -1.88564964289294056954e+00) (9, 4.51744685227671549654e+00) (59, 8.79016703672790811197e+00) (16, 1.18805970316727460556e+01) (54, 2.02773680515158574167e+01) (65, -1.50401500400821830361e+00) (22, 6.67113726982020580181e+02) (21, -6.16102508857141994980e+00) (28, 1.61821666816247500265e+02) (52, 1.33087302620005178966e+01) (45, 7.91608303685887548795e+00) (12, -8.25745546428708081521e+01) (57, -1.97961873358731885730e+01) (41, -2.57411819470621061612e+00) (17, 1.02160830816968672963e+01) (70, -3.69900353326870456883e+00) (45, 4.41274144163519022044e+00) (42, 8.92192015049675823946e+00) (40, -2.31504451017819867786e+01) (66, 1.50000000000000000000e+03) (35, -2.35782292950537843979e+01) (49, 1.31773663528147615409e+01) (29, -1.86153682227680619121e+01) (9, -8.35455774043075116708e+00) (32, -4.76117593381408799047e+00) (2, 1.50000000000000000000e+03) (37, 3.27063446332189187160e+01) (0, 1.50000000000000000000e+03) (33, -1.47319398003767147998e+01) (46, -9.33569246493203650061e+02) (10, -2.94303072577659818876e+01) (50, 7.47972742810471835639e+00) (8, 1.03162209164024023522e+01) (19, 3.44392018130271670984e+00) (54, 1.19968624769200449265e+01) (30, -1.55635741745564857297e+01) (53, 1.49863273640206546844e+01) (69, -8.22130496873883664932e+00) (13, -3.15617190318595284282e+01) (15, -2.98043408530167894810e+01) (5, 3.04129297594921288450e+00) (11, -4.71562807525050118329e+01) (12, 9.55718246855473694268e+01) (55, -1.29615219750515624497e+01) (24, -1.50000000000000000000e+03) (17, 5.29086196387298457466e+01) (58, -4.80604645992403902710e+01) (34, -1.10681578828800510905e+01) (3, 1.01344742022512495083e+01) (20, 3.02548133765135638384e+01) (31, -4.17385149594032611731e+01) (70, -6.81660145056055739587e+01) (11, -1.49985612474232201663e+01) (22, -3.96165195386136019806e+02) (33, -3.16563918567373789870e+01) (23, -8.71281158050977388996e+00) (14, -7.47624145582115460229e+01) (7, 1.53712716065492251971e+01) (3, 1.83904945123378062988e+01) (47, 3.67784127318316436117e+01) (18, 3.65882260968352923669e+01) (30, -2.48208983933064963878e+01) (40, 4.95990780610597568057e+01) (66, 1.50000000000000000000e+03) (55, -2.96819991495306378937e+00) (19, 6.93456160019100931180e+00) (16, -2.98853804233993507466e+01) (67, -4.48394764196700208458e+01) (25, 1.66181446465865327866e+01) (2, 1.50000000000000000000e+03) (32, 3.41063040163510944325e+00) (60, 1.01979637434355595360e+03) (21, -1.01751123098746454332e+01) (13, -3.03523628700633629762e+01) (38, 7.78124272840890252034e-01) (15, 1.32814803455654377728e+01) (12, 6.37001821302128590219e+01) (4, -1.41495639265825275288e+03) (27, 7.17089630448414183661e+00) (65, 2.75802261102381969238e+01) (62, 2.42613791763271308355e+02) (52, -6.27969787720734942127e+01) (43, -2.48139634962735868839e+01) (26, 1.48869150699608752575e+02) (64, 1.50000000000000000000e+03) (48, 4.66241120247582898628e+02) (42, -3.68148781359413845848e+01) (70, 2.78580168736434607979e+01) (19, -1.71037658359484390225e+00) (38, -2.74494832647287967387e-01) (30, -2.84272219688572320706e+01) (2, 1.50000000000000000000e+03) (54, 2.16817681727166124972e+01) (37, 2.19625773055820303625e+01) (25, 2.70003039277395195938e+01) (21, -2.12411188296118496055e+01) (40, -7.41510216014415401986e+00) (6, -1.25613155939236502689e+01) (11, -1.83746340619299530772e+01) (1, -1.57711610670283253199e+00) (0, 1.50000000000000000000e+03) (15, 8.89278359440131893621e+00) (18, -6.82943064786166189606e+01) (8, 2.00816381684161235910e+01) (68, 1.50000000000000000000e+03) (58, -5.98085377120718320043e+00) (57, 1.81445940204548072927e+01) (31, 2.70158288055872297662e+00) (41, 1.09396047563370979461e+00) (3, 2.37099303257918982979e+01) (9, -9.66460244439587867760e+00) (69, -6.09994563932627009706e+00) (5, 4.88935240740225829370e+00) (64, 1.50000000000000000000e+03) (47, 5.15004654672549033734e+00) (53, 1.71425927763642285129e+01) (56, -2.70220247175112717741e+02) (51, 1.02500617814166581354e+01) (39, -2.82509856112603330303e+01) (66, 1.50000000000000000000e+03) (4, 1.41714555998980677032e+03) (43, 1.43704861694688048601e+01) (12, -8.48459699587454565517e+01) (70, 1.83454029442692001517e+00) (14, -1.09285585029402270152e+02) (54, 2.06006786083148901723e-01) (2, 1.50000000000000000000e+03) (45, -1.44405160293128016491e+01) (17, 1.54905072787085114072e+01) (0, 1.50000000000000000000e+03) (26, 1.63990702213280684418e+02) (25, 8.13773788541732834290e+00) (1, 7.11213128449366394079e+00) (48, 4.97450508742074703150e+02) (65, -1.64675205480869948360e+01) (49, 2.85378857619941825874e+01) (53, 3.23053648847628380736e+01) (19, 7.33181654403866556180e+00) (61, -1.15291815273862585656e+01) (68, 3.30174465942732410895e+02) (62, 2.42613791763271308355e+02) (38, 3.55680323839363623506e+01) (56, 2.66254797170118592931e+02) (43, -2.92702707011069218623e+00) (20, -1.68450382317628033491e+01) (52, -8.77490818887463719378e-01) (64, 1.50000000000000000000e+03) (59, 9.09672131820651586054e+00) (8, 8.66615072597270952315e+00) (23, -8.45963489136182467121e+00) (3, 2.92699805963221812988e+01) (16, -1.87439524296249437896e+01) (12, 5.46803809903813871074e+01) (5, 8.68539296578391883941e+00) (22, -3.66954343716824496369e+02) (29, 3.43658008617673793594e+00) (44, 3.43079110373303350912e+01) (37, -2.64638597762056662077e+01) (51, 1.06517830132789050879e+01) (70, -4.10227212663955409511e+00) (15, 1.20832588347070366552e+01) (53, 8.52019624467598113426e+00) (37, 3.51588118025250722098e+01) (45, 2.00894306785341960619e+01) (44, -4.13142465250967063639e+01) (35, 8.03194902207974763542e+01) (10, 7.26809905837926883976e+00) (47, -1.10163415460821063618e+01) (65, 1.30382098222128082199e+01) (27, 1.64649209706322281477e+01) (3, 1.15027836823812652511e+01) (62, -5.68363927507118376070e+01) (16, 1.35878579747395722421e+01) (33, 2.61482432427668136654e+01) (28, -4.68999245654249889981e+01) (25, -4.42336590190813367940e+01) (38, 2.45603617371196030206e+01) (41, 1.48590739042814075077e+01) (7, 2.58805697753070447220e+01) (4, 1.41714555998980677032e+03) (18, -4.14562384701939166121e+01) (17, 3.90241904464294897537e+00) (29, -2.35132785879271555274e+00) (60, -9.99578011287415733932e+02) (0, 1.50000000000000000000e+03) (64, 1.50000000000000000000e+03) (30, 2.30337497220681051147e+01) (46, 8.67556776817568447768e+02) (61, 7.02386208219677343756e-01) (13, 3.41132264588351574730e+01) (1, -3.04858008360514602941e+01) (6, 1.69241313360080987138e+01) (67, -1.08054238295205902176e+01) (19, 1.65066596027572884964e+01) (63, -9.52532733247448781810e+00) (70, -5.25610120505725859630e+01) (28, -1.03198083573439074456e+01) (18, 2.53851574686481171739e+01) (22, -3.88308917998787137549e+02) (61, 2.91845202383211415054e+01) (30, -5.26043039952337707632e+01) (65, -9.55976273721667269001e+00) (1, 6.13795159154889269360e+00) (33, -4.24872204375272204402e+01) (63, 1.09047290760957089617e+01) (23, 4.46559397769474344386e+01) (29, -2.02763936970906000212e+00) (13, 3.90789214783386142926e+01) (43, -1.88459300089916688137e+01) (52, 9.04260879473175691601e+01) (47, -1.71367117893090226133e+00) (39, -2.34839499987084998622e+01) (11, 8.77075630151413605518e+01) (42, -4.43757202043699905403e+01) (17, -4.84724555261820526653e+01) (20, 2.39947808434270548616e+01) (51, -3.67537861854980363319e+01) (5, -4.91363317653830051768e+01) (24, -1.50000000000000000000e+03) (16, -1.31579558856292466729e+00) (68, 3.30174465942732410895e+02) (66, 1.50000000000000000000e+03) (58, 7.29505864122751574996e+01) (40, 2.02815097342019884374e-01) (19, -8.05045076542088899885e+00) (9, -1.46042103770920146388e+01) (8, 1.98868143059954043395e+01) (26, 1.13690340517112922214e+01) (50, -4.53689645897249782536e+00) (49, 7.23451912900705167431e+01) (55, 4.18057369286404778563e+00) (70, -6.37776259567703984743e+00) (26, -1.50000000000000000000e+03) (46, 6.33470325057250533973e+02) (64, 1.50000000000000000000e+03) (4, 4.76118123278652660701e+02) (34, 2.27995352901531624923e+01) (53, -2.60954026575985018610e+01) (24, 1.50000000000000000000e+03) (32, -3.60596969833864378074e+01) (68, 1.50000000000000000000e+03) (19, -1.06642810414875270908e+01) (0, 1.50000000000000000000e+03) (44, -2.16908126229548599895e+02) (58, -3.57594701125691605270e+00) (14, 1.04451549790336616752e+03) (42, -1.00862790297809752360e+01) (48, -4.84128840543764454196e+02) (17, -1.05044953889874115305e+01) (33, -1.41944236195127508893e+01) (57, -2.11742517909294463152e+01) (41, -3.19574272814990223424e+00) (50, -1.34592180356357431492e+01) (54, -1.31726915898566172558e+01) (31, 1.84437790637820384632e+01) (8, -2.17753668354830276499e+00) (28, -6.01341701503823031771e+01) (3, 9.21246739242102385958e+00) (6, 3.06033452575134212736e+01) (56, -2.64551213856354820564e+02) (11, -2.26903924200715216841e+01) (52, 1.82111306288212837501e+01) (5, 1.37639639237534634475e+01) (59, 2.57285421472336439663e+00) (65, 1.40026943287613558908e+01) (13, 4.99995098787751590663e+00) (15, 1.16344332782941641824e+01) (70, -1.69782245886143421387e+01) (16, 1.61419080134902976909e+01) (43, -2.99290300245938993839e+01) (19, -1.95036808352644968068e+01) (40, 5.49631108064210849307e+01) (52, 5.89442169066374432873e+01) (63, 2.77330326762384926295e-03) (46, -8.83121053896768785307e+02) (56, 2.87574763605550742795e+02) (21, 1.13690191227045822586e+00) (66, 1.50000000000000000000e+03) (35, 5.48230808434116134720e+00) (33, -2.29524081713675265348e+00) (20, 1.77910797034178607134e+01) (27, -7.39946960127757691339e+00) (59, 7.84183850570647233980e+00) (28, 6.53838657106863792023e+01) (15, 2.40021691654502582480e+01) (38, 2.47785845995125946217e+01) (18, 5.22474873234893593121e+01) (69, 1.33232232797332148522e+01) (2, 1.50000000000000000000e+03) (58, -4.63705861354952446618e+01) (36, 5.73881456178821622416e+02) (1, -5.70193355810469739708e+01) (61, 1.02631968982118859657e+01) (12, 1.00042031457300396369e+02) (6, -3.18952932752208759837e+01) (34, -7.72217342395680361733e+00) (53, 3.13860915082980262980e+01) (55, -2.45495740833491282729e+01) (7, -2.91597828902160252085e+01) (22, -4.07547475735867635649e+02) (3, -8.22802479384475304869e+00) (4, -1.41495639265825275288e+03) (64, 1.50000000000000000000e+03) (70, -2.18261821996983265137e+01) (20, -1.10738858238115800425e+00) (68, 3.30174465942732410895e+02) (36, 6.36298753542103327163e+02) (35, 2.14934174364529546608e+01) (40, 3.43777971342878407857e-01) (29, 8.13942875904366225370e+00) (56, 2.51647225687460462495e+02) (60, 1.01267390491835453759e+03) (1, 1.41668330896087031334e+01) (7, 1.51616492234315494159e+01) (4, -1.41495639265825275288e+03) (41, -1.49094025077191059125e+01) (44, 3.19237538878784974372e+01) (11, -2.87875217042717466143e+01) (49, 1.43251428677458969574e+00) (47, 1.16651967400855305357e+00) (67, 2.07603733422179992374e+00) (39, 3.59677784487251794854e-01) (46, -9.09718696080072732002e+02) (37, -1.66079770594065365685e+01) (5, -3.99901412825685156349e+01) (18, 1.82315938641692305566e+01) (12, 5.94978591703130064161e+01) (19, 9.60060535858353247818e+00) (63, 3.15890921388833874062e+01) (28, 4.22265104021532309275e+01) (59, 1.26792418031308322668e+01) (14, -7.54869943693077374292e+01) (6, -9.93361524711412258171e+00) (55, -1.75288488331049876479e+01) (25, 1.98708149346724702866e+01) (45, -2.04509954576491601586e+01) (64, 1.50000000000000000000e+03) (30, 2.80580784285929851762e+01) (54, -3.39407508983715011652e+00) (70, -3.75103790877441589657e+00) (32, 2.55119044151544294152e+01) (35, -1.08942647630251450153e+01) (49, -1.15873726837452970528e+01) (39, 8.05016350035347372227e+00) (63, -8.75819503915540487071e+00) (8, -3.22604592670080805306e+01) (29, -1.34602854209626410231e+00) (52, -3.50732200745637427985e+01) (66, 1.50000000000000000000e+03) (48, 4.36162569670419088652e+02) (18, 3.48349797894622525973e+01) (38, 2.68273135423836883717e+01) (64, 1.50000000000000000000e+03) (34, 4.41988685588938778892e+00) (10, -3.86441529875938556415e+01) (42, -2.93525806963661644033e+01) (67, 2.16670657861415172363e+01) (13, -2.82927696693797692262e+01) (31, -4.56378094041942539150e+00) (14, -9.86887861326125204187e+01) (30, 2.11836811507609077410e+01) (24, -1.50000000000000000000e+03) (59, -2.33955071897891642152e+01) (51, -1.00077953100853527246e+01) (45, -4.85887594346998170636e+01) (9, 1.15357915209879351437e+01) (20, -1.31140955056275370083e+01) (40, -2.58790818973703373729e-01) (3, -1.14029415380768437416e+01) (53, 7.03198232083317553709e-01) (4, -1.41495639265825275288e+03) (6, 1.15359922279549920177e+00) (19, 9.17777573059280982193e+00) (60, 1.02378595592848614615e+03) (61, 6.47754569124167378646e+00) (70, -3.04764413365356432450e+01) (6, -9.69347386655313769666e+00) (68, 3.30174465942732410895e+02) (19, 2.99035577763142335073e+01) (65, 2.80754099360473645675e+01) (40, 3.13259304579842901006e+00) (25, -3.48877346671653612020e+01) (53, -2.99755625871585493769e+01) (24, -1.34182294518592971144e+03) (66, 1.50000000000000000000e+03) (43, -2.67632561044156780383e+01) (33, 1.29230753412104206745e+01) (20, 2.03057520213771702799e+01) (15, 1.20797922904886156914e+01) (44, -5.51136827338353398886e+01) (59, 1.01592054788868182413e+01) (9, 3.96011699355763511221e+01) (52, 2.21181685621589849688e+01) (21, -5.01264274350960814530e+00) (31, -3.36822417336505575136e+00) (16, -9.43620874822216393341e+00) (32, 1.83382530400989871566e+01) (39, 4.19536489821399669609e+01) (37, -3.09215363403847227630e+01) (5, 9.04512598664585887320e+00) (11, -1.37082768019318681496e+01) (58, -2.61753114231226398090e+01) (56, -5.66913082101025409543e+01) (3, 1.88623381129272473800e+01) (63, -1.43477200872120249642e+01) (4, -5.62976186016215592645e+02) (46, 1.36880078317232033669e+02) (17, 3.07615899138878390318e+01) (34, 2.48392188350904641325e+00) (51, -1.97435881926106233664e+01) (23, 1.08166983134231688979e+01) (70, 2.38068993709147846971e+01) (24, 1.50000000000000000000e+03) (56, -2.61624916221514922654e+02) (69, -2.41470998310442475088e+00) (26, -1.66771199032614276803e+02) (19, -8.33321736473987684235e+00) (57, -8.54513681061151153528e+00) (7, -5.15705010250696993523e+00) (43, -2.12529881407227527745e+01) (55, -2.87485774558222502151e+01) (17, -2.56638597690516547800e+01) (51, 4.05873390110175258361e-01) (29, 1.30265795851315004938e+01) (58, -1.61725296536728642138e+01) (54, -1.22118355655572514706e+01) (33, -7.33291150116413170679e+00) (20, -8.33405994313060638490e+00) (11, -2.28850803734576313531e+00) (45, -2.99677170289533094660e+01) (66, 1.50000000000000000000e+03) (14, 1.05657743952705300217e+03) (8, -2.10067559966229389090e+01) (23, -1.78072069170557689688e+01) (28, -3.71247312078848210604e+01) (64, 1.50000000000000000000e+03) (9, -2.77570383437746457389e+01) (1, 4.56050664401658245595e+00) (47, -3.42860439691894569592e+01) (36, -6.40124853920126156481e+02) (6, 1.05577224711030615012e+00) (34, 2.41707419609727551801e+01) (3, -3.16889709019060639150e+00) (67, 2.43010324454907911118e+00) (31, -2.80153267782016612841e+01) (39, -1.25272429168105858821e+01) (68, 1.50000000000000000000e+03) (70, 2.01835185754481578613e+01) (54, -2.73177441896448804926e+01) (61, 3.42561883456609592713e+01) (46, -8.53165044985635972807e+02) (58, -3.13663804317599570481e+01) (5, 2.56360527176757138079e+01) (18, 6.12667920758392270386e+01) (28, 5.15904391970141560364e+01) (53, 2.89803127232074819730e+00) (11, 2.26699825681891908857e+01) (17, 2.74532338717260842031e+01) (13, -6.69706940540265360795e+00) (60, 9.94966615222614564118e+02) (69, -1.34600610850422786058e+00) (51, -1.39616269827538097559e+01) (12, 1.15425875832910833196e+02) (44, 4.91429111068116384331e+01) (7, 1.34710287676703122095e+00) (40, 1.73127144593752397839e+01) (29, -1.86868422980854447246e+01) (34, -2.48538214876165532985e+01) (48, 4.83715786604623531275e+02) (59, -3.17180417509463339343e+01) (3, 5.20699702966385729042e+01) (14, -9.35275908544450942372e+01) (55, 2.06124761638432545396e+01) (67, 7.73983304383209258503e+00) (24, -1.50000000000000000000e+03) (16, -4.60135380062716858873e+00) (32, 2.53507224884271380461e+01) (43, 4.01353391770664629234e+01) (66, 1.50000000000000000000e+03) (30, -1.64117606674764147101e+01) (19, 5.57505592007467001281e+01) (9, 6.32068072604288815342e+01) (23, -2.57983752401781494257e+01) (70, -3.39576899901689310823e+00) (65, 1.45970770130987563817e+01) (26, 8.89331429129902176101e+02) (30, 2.47262648325933440674e+01) (2, 1.50000000000000000000e+03) (10, -2.46028648032020491598e+01) (33, 1.07338002497555660142e+01) (28, 1.78874891274610433811e+02) (56, 5.81219185262136264214e+01) (7, 8.23120105527952539148e+00) (68, 3.30174465942732410895e+02) (3, -1.01142410029534897120e+01) (45, 1.50658375544400566781e+01) (31, -2.69112780436741978463e+01) (43, 5.06428810575492782675e+00) (36, 1.50000000000000000000e+03) (24, -1.50000000000000000000e+03) (12, 2.40628612419989118543e-01) (6, 1.58931004617056679251e+01) (37, -1.47570126455244352570e+01) (23, 2.51689066887543368978e+01) (50, -2.22393597116032495364e+01) (52, -1.95193191466724371708e+01) (63, -2.29316708207353201487e+01) (4, -8.47882376002289248618e+01) (49, 4.29759534519982810963e+00) (19, 7.72109524077345565907e-01) (38, -7.36906173747158388387e-01) (54, -2.11968262238611458770e+02) (8, 1.16776876228507529021e+01) (57, -1.85265658295530499799e+01) (16, -1.58409978827759676534e+01) (55, 3.84647985510718228852e+01) (20, 2.60926524527923220376e+01) (14, -1.36891527066072671914e+03) (18, -2.20974248662373966567e+01) (70, -1.95912616677172124469e+01) (10, -8.04616797477634015934e+00) (15, 3.15015669202685266725e+01) (54, 5.83692571814316174539e+00) (33, 9.39840516408022708106e+00) (4, -9.99037700938790294458e+02) (57, 1.86709541307357369533e+01) (9, 1.35599536835195486617e+01) (31, -4.03942491574272963817e+01) (30, -1.11156166779044092152e+01) (6, 9.83986188185336985157e+00) (38, 5.25291005861089814744e+01) (0, 1.50000000000000000000e+03) (13, -1.67328492934737327325e+00) (3, -1.67231471962816655719e+01) (24, -1.50000000000000000000e+03) (39, -8.10862982411698318685e+00) (50, 8.26637051858807403448e+00) (8, 2.94601523026725367060e+01) (29, -3.78776365862407828899e+01) (11, -4.06570833295032585397e+00) (62, 9.47790443452385886758e+01) (35, -3.25379423252947432843e+01) (20, 4.09931990346506935907e+01) (53, 1.43216347512535744357e+01) (19, 3.30393060571427188421e+00) (67, -2.92645244072765953192e+00) (5, -6.37136932169302827589e+00) (42, 2.61935887258360367014e+01) (21, 1.08721295374817437107e+01) (68, 3.30174465942732410895e+02) (1, 4.73168058921033196640e+00) (2, 1.50000000000000000000e+03) (25, -1.13669694734485489107e+01) (65, 1.82759983115308344281e+01) (32, 1.72740533771954005715e+01) (70, 1.77455432542382638417e+01) (55, 9.42040519003687926158e+00) (13, 6.76789512170583495987e+00) (14, -9.29218090608507338857e+01) (35, -6.95894800858327844395e+00) (4, -1.41495639265825275288e+03) (16, 2.41177743312393211284e+01) (38, 3.66865283250984717256e+01) (33, 2.56576206793819139307e+01) (36, 5.95101311606563626810e+02) (66, 1.50000000000000000000e+03) (46, -9.04703499756678297672e+02) (63, 1.57398464334406238407e+01) (7, -3.02798485572758906414e+01) (50, 3.22097689916155829337e+01) (34, 1.21650307462703395345e+01) (1, 3.14689605363427560292e+01) (42, -1.24524466097571480105e+01) (49, -3.06469241921631514458e+01) (3, -6.06577264446225172811e-01) (41, -2.77446712151783758671e+00) (40, -4.20932495407695395073e+00) (17, -6.17904256296797793624e+00) (29, -1.53461112682440656840e+01) (68, 3.30174465942732410895e+02) (53, 3.77904744759601385340e+00) (15, -2.14632843883585771039e+01) (5, 2.01912531666445227430e+00) (26, 1.96021925510399597670e+02) (62, 2.42613791763271308355e+02) (2, 1.50000000000000000000e+03) (43, 4.54015356941785057643e+01) (0, 1.50000000000000000000e+03) (18, 6.59071157147552071365e+01) (12, 8.91461231015874204786e+01) (64, 1.50000000000000000000e+03) (70, -1.42278770392546238810e+01) (0, 1.50000000000000000000e+03) (14, 1.08122783253623811106e+03) (17, 8.57361231168760618004e+00) (65, -3.15470708792817795540e+01) (30, 7.26355820070475317607e+01) (39, 4.54092554588340036048e+01) (28, -8.07905204765775550868e+01) (54, -1.70687818783743416873e+01) (58, 2.15115103094588766552e+00) (61, 8.94719033778390837597e+00) (8, -2.28396979188646724879e+01) (69, -2.24142373984468150638e+01) (37, -1.18601314736855840692e+01) (44, -7.81342762257855127928e+01) (45, 8.92638592011210185717e+00) (33, -2.07711249332162362080e+00) (4, 4.06434280338406722421e+02) (24, 1.50000000000000000000e+03) (29, 8.24087871174724284629e+00) (34, -5.98175537167579818743e+02) (42, -8.68934430737332341721e+00) (13, 8.35394193353272918046e+00) (55, -3.82732130304725970404e+00) (19, -1.42942982327361995942e+01) (20, -5.53939065614513648228e+00) (57, 1.35816309199900899785e+01) (12, -5.45114990929720079293e+02) (56, -8.48417574138033359077e+01) (3, 9.41550837105421223328e+00) (9, -6.52643960456852667562e+00) (46, 4.66295613808208827322e+02) (43, 1.43326252980329140740e+01) (64, 1.50000000000000000000e+03) (40, -7.07689220423145304295e+00) (62, -8.15944656038006570498e+01) (70, -3.91376081387979679604e+00) (54, 1.97370178959114239703e+00) (18, 9.73710534741544080362e+01) (24, -1.50000000000000000000e+03) (15, 2.28943031399935357229e+01) (45, 1.10948248682421812816e+00) (41, -4.38691773090255878742e+01) (47, -5.92968328631701950826e+01) (66, 1.50000000000000000000e+03) (59, -1.41867490443510106957e+01) (33, -3.45182234249355488487e+01) (31, -3.13681587767424012725e+01) (5, 1.40599590944133776560e+01) (57, -1.56841471663197342679e+01) (7, 1.65161700298623799199e+01) (6, 8.29502556253684630860e+00) (62, 2.42613791763271308355e+02) (11, 4.47246428553702379816e+00) (29, 2.06571978686534762915e+01) (53, 1.39611519356624054211e+01) (25, -6.21051667855024458476e+00) (50, 4.33125931431315791542e+01) (65, 5.72777655911646643716e-01) (52, -2.56069534424836326991e+01) (34, -3.29389253299271018705e+01) (40, -6.99833135963357833020e+00) (28, -2.21710888536907972934e+01) (68, 3.30174465942732410895e+02) (44, -5.13718971563709558836e+00) (49, 4.65745864789180359367e+01) (12, 6.12595607541752684710e+01) (8, 9.46965662349469461390e+00) (30, 5.98453106531166589832e+00) (3, 1.67280035885095053061e+01) (9, -3.57550281942931675871e+01) (36, 5.81544111836467777721e+02) (70, 3.72661627781858015851e+01) (13, 1.28113481530049355683e+01) (12, -9.61109359697928766764e+01) (5, 4.01965221399710070926e+00) (21, -9.26647823218335831008e-01) (59, -2.24752380568249350290e+01) (31, 2.40679857307886457818e+00) (45, 1.10712474736537935804e+00) (46, 9.24483452614075872589e+02) (9, 2.15647705338143396148e+01) (23, -1.33164138467370829488e+01) (67, 1.78135050785995154854e+01) (17, -9.68942736026677842176e+00) (63, 1.85934687228093622480e+01) (44, -2.58565291064259810128e+01) (11, -8.57234314548715126136e+00) (29, -2.01199508882660751397e+01) (2, 1.50000000000000000000e+03) (34, 2.56566894479193798873e+01) (57, 2.21341245838092994802e+01) (53, -1.68108145112332998394e+01) (0, 1.50000000000000000000e+03) (16, -1.60435325968546926845e+01) (37, -1.13410392181604642303e+01) (60, -1.00678738094683967574e+03) (58, 4.36370399093879424157e+00) (30, 1.23626988380275690815e+01) (22, 4.68457056580967332593e+02) (38, -1.70847855864887030464e+01) (68, 1.50000000000000000000e+03) (4, 1.41714555998980677032e+03) (43, -1.58376580184583595212e+01) (7, 1.69021379221661938175e+01) (8, -2.03182822951458881278e+01) (15, 5.40176148441598336092e+00) (62, -1.06887023320169930685e+02) (70, 8.27576025436193990492e-02) (58, 9.88609772428670652289e+00) (14, 1.08492540905906548687e+03) (10, -2.78437053543236288533e+02) (33, -1.04988836310536139962e+01) (26, 3.35418723603760753349e+01) (47, 3.56166632831594611730e+01) (38, -2.12706659491756582270e+01) (1, 2.23029732360552266357e+01) (34, -2.38916483811771200862e+01) (18, 4.12643639427981483436e+01) (17, 1.23245468287313975075e+00) (4, 1.16336423494547162250e+02) (6, -3.97186992528227875709e+01) (69, -3.87395358429241483122e+01) (23, 8.44591375015015977112e+00) (39, -1.18294314410162630935e+01) (66, 1.50000000000000000000e+03) (52, 2.57711727190664454668e+01) (29, -3.99327693861469441572e+01) (65, 1.47344631805132078028e+01) (5, 1.16261355421151844070e+01) (20, 2.70837885795281785306e+00) (2, 1.50000000000000000000e+03) (49, 3.31785466991347703924e+01) (24, 1.50000000000000000000e+03) (45, -1.82262719272428377337e+01) (9, 5.05556138272453203797e+00) (28, 4.20188504042720456511e+00) (48, -6.38993515773058931018e+01) (16, -4.36909406442823353700e+01) (57, -9.30963921033390207072e+00) (32, 1.25756438788220208380e+01) (30, 2.06922507107249373348e+02) (36, -1.50394561850825283500e+01) (19, 2.39563879662076608668e+01) (70, -1.96286467388005370083e+01) (14, 1.05642532787175400699e+03) (53, 9.52657797009852380654e+00) (5, -1.99884196050154727686e+01) (46, 1.50000000000000000000e+03) (52, 2.26319813008122025622e+02) (44, 5.71756237170876715936e+02) (35, -3.31820065715146617080e+00) (67, 5.62100230905115250124e+00) (26, -5.27998463986954433835e+01) (50, 1.67999250526155236685e+02) (47, 1.11276186110585184608e+00) (65, 4.59166061135828140749e+00) (64, 1.50000000000000000000e+03) (63, 8.68908501165950641898e-01) (19, 1.42308279654368110556e+01) (10, -1.50224801547372841526e+01) (15, 1.96297427236136634576e+01) (4, 1.50000000000000000000e+03) (59, -1.36964147988878970352e+01) (25, 1.35848907891646533130e+01) (29, 6.42629795943293302685e+00) (54, -8.96199535627484955569e+00) (49, 4.16891635107888347545e-01) (23, 1.25389379057827294872e+01) (18, 1.74017061713565257541e+00) (37, 1.56884454791088643333e+01) (57, 2.22299554881180512211e+01) (42, -1.85932550079532354914e+01) (2, 1.50000000000000000000e+03) (13, 6.72121662245710127515e-01) (51, 1.98121591365800107098e+01) (20, -4.00988586016847960991e+01) (21, -4.77283147163020604609e+00) (7, -1.54922737977491786765e+00) (36, -1.10495250620976825928e+01) (70, -6.98411454844534484998e-01) (40, 1.28119637954613061481e+01) (41, -3.78110355251384362418e+01) (57, 1.65056656047281341548e-01) (21, -1.75220365652531988587e+01) (18, 5.44425926838969473920e+01) (28, 3.78719997224260794155e+02) (34, 4.15413256008434217392e+00) (68, 3.30174465942732410895e+02) (14, -6.80674263074787546657e+01) (29, 9.69978133124046415503e+00) (48, 1.49962746445427842445e+03) (43, -1.25153382815886065060e+01) (31, -2.49980147433902608611e+01) (64, 1.50000000000000000000e+03) (63, -2.85662458544558006679e+01) (32, -8.71873092878981026388e+01) (7, 4.02782240428267783727e+01) (25, -8.48363972095361695835e+00) (4, -1.41495639265825275288e+03) (24, -1.50000000000000000000e+03) (9, 2.06217778845949482047e+01) (8, -1.12967250409612365303e+01) (49, 2.15818613069200218035e+01) (42, -5.58137820223174614398e+01) (51, 1.45292976055559144299e+01) (20, 6.46420201166335406384e+00) (11, 3.13163180787099548752e+01) (12, 1.04675364388603611587e+02) (36, 1.50000000000000000000e+03) (61, -3.37013752797808550099e+01) (66, 1.50000000000000000000e+03) (15, -2.45707369792644705342e+01) (56, 1.50000000000000000000e+03) (55, -4.04550671393395475661e+01) (39, -3.73350744301902937039e+00) (70, 3.01112910974208141113e+01) (51, -4.43050756216697934065e+01) (68, 3.30174465942732410895e+02) (40, -2.27193557005368695911e+01) (49, 1.40039759643259920097e+01) (45, 1.14168453092575195029e+01) (43, -1.68309646483120793903e+01) (33, 6.01532223247817015022e+01) (62, 2.42613791763271308355e+02) (29, -2.92962993140766556621e+01) (20, 7.16551226719959544198e+00) (10, -5.19709280615989257512e+01) (54, 4.82766205654042313000e+00) (48, 5.16963911680917362901e+02) (35, -2.13498261624850158569e+01) (21, 1.84244484277352427171e+01) (13, 4.07405002128223614477e+01) (12, 4.73047496579838906428e+01) (3, 1.92449084985438609863e+01) (46, -9.09446435652597870103e+02) (36, 6.23649438661732233413e+02) (59, 2.57269808320614217223e+01) (61, 1.81692189700500961180e+01) (14, -4.37116695478342052184e+01) (55, 1.90005903814144172514e+00) (23, -2.21527091177416259882e+01) (0, 1.50000000000000000000e+03) (27, -9.73529170668522603194e+00) (26, 2.07919792713158670949e+02) (50, 5.35209833790324296388e+01) (60, 1.05483198120467045555e+03) (9, -1.50095909787067824936e+01) (64, 1.50000000000000000000e+03) (28, 1.62457336153490778941e+01) (47, -8.46542462473543722012e+00) (53, -7.91244765338423761136e+00) (70, 1.64374102692094261613e+01) (20, -2.20498742557189473246e+01) (32, -1.17108074462901754487e+01) (10, 3.09527564190667135335e+02) (1, 8.57830802006402315385e+00) (52, 8.23317017158519064424e+01) (36, 9.20537554470805097218e-01) (24, -1.50000000000000000000e+03) (55, -1.18231088498185110680e+00) (51, -1.04806061104703083231e+01) (31, -4.85694561207119690494e+00) (60, 2.30571693736298698241e+02) (33, 1.18663100967036445610e+01) (54, 2.01048921419758016782e+02) (5, -2.66890509755307689943e+01) (18, 1.49798789003667440767e+01) (45, 2.23407306113498762556e+01) (65, -2.53741809325540312869e+00) (46, 2.36076326894895260011e+02) (59, -1.73110237991902913279e+01) (7, -1.88091740990587190652e+01) (14, -9.61039978101641310104e+01) (19, -3.87498927443365843715e+01) (35, -2.32508622443882622122e+01) (58, -1.84769430806417005897e+02) (63, -1.30888768029336191034e+01) (28, -2.37531011308552535866e+02) (69, -4.08610192199262911572e+01) (22, -4.98255371506407200854e+01) (40, -8.46661043505086041705e+00) (41, 4.63035269334143038122e+01) (38, -4.04412936858683877972e+01) (8, 2.00803114759364618180e+01) (43, -2.57081621924923204858e+01) (4, -4.40244077788899588199e+01) (42, -1.50000000000000000000e+03) (70, 3.15058013665858531738e+01) (12, 9.54244663022710994937e+01) (54, 3.71978216825475627161e+01) (29, 6.35102763218197985395e+00) (5, 2.75102363724608700579e+01) (47, -3.45781393921917938883e+01) (34, -1.36943757249821018718e+01) (50, 3.57595893551371801777e+01) (8, 2.53532930981039719143e+01) (48, 4.84527592329721187525e+02) (60, 9.95122159503620423493e+02) (6, -5.79966020978526515250e+01) (4, -1.41495639265825275288e+03) (45, 6.70655726146705433166e+00) (63, -1.49514018262647798707e+01) (24, -1.50000000000000000000e+03) (37, 3.08197973699147524940e+01) (33, 3.29866116070082640022e+01) (28, 1.58611501421435168169e+01) (2, 1.50000000000000000000e+03) (49, 2.45527363784492607124e+01) (15, -1.66028456355751323770e+01) (18, 9.23138406445645500753e+01) (56, 2.75470540354207741984e+02) (69, -2.88436777709106628720e+00) (31, 3.11167796484171397253e+01) (68, 3.30174465942732410895e+02) (21, -2.78071265844717459004e+01) (62, 2.42613791763271308355e+02) (13, 2.69659965049366370238e+01) (52, -3.83119133118684160877e+01) (53, 2.37967093366671669230e+01) (39, 2.24214441705194147403e+01) (44, 3.33948451583253387298e+01) (36, 5.78445415300525723978e+02) (30, -4.77552256933191277000e+00) (70, 1.59210433018661472460e+01) (48, -4.39083454229372023292e+02) (1, 5.13054884922971297101e+01) (56, -2.35454679395572043177e+02) (32, -1.62194920942063873781e+01) (37, 2.16196494075891081366e+01) (18, -3.20372770005339546628e+01) (6, -3.73457871057645078849e+01) (4, 1.41714555998980677032e+03) (36, -6.29510943245077783104e+02) (29, 1.57702783368925221197e+01) (63, 3.66052675933200388769e+00) (31, 5.57706445656869043148e+00) (67, -1.14544487940811183790e+01) (54, 4.92687814173454441402e+01) (21, -1.06391743934534988014e+00) (47, -1.48361838266570824629e+01) (46, 9.49195215996033198280e+02) (65, 1.21853484166122409960e+01) (11, -1.84077654954969111012e-01) (64, 1.50000000000000000000e+03) (15, -1.93986487377908822793e+00) (57, -3.71611768535687687631e+01) (5, -5.23987921810679040391e+01) (51, -1.53112885235717088861e+00) (12, -8.28750246004690325208e+01) (16, -5.71940252220038658493e+01) (17, -2.62923447201336513146e+00) (39, 1.36904623995602250375e+01) (14, 1.04872980092002808306e+03) (62, -6.47097867631633789642e+01) (28, 1.47128359783982549658e+01) (40, 1.02941821454283157777e+01) (45, 3.60195674959341189947e+01) (8, -1.91093827971600447313e+01) (0, 1.50000000000000000000e+03) (70, 4.26475347180881101394e+01) (1, 3.22857373853244382644e+01) (63, -7.29494824584334633499e+00) (24, -1.50000000000000000000e+03) (32, 8.61761577036701353904e+00) (25, -1.65249753280655617971e+01) (19, -1.17845514106518116648e+01) (43, 1.21507553223911664020e+01) (66, 1.50000000000000000000e+03) (68, 3.30174465942732410895e+02) (3, -1.07626015944015129833e+00) (12, 1.09563571145411003727e+02) (49, -3.23979980172797539240e+01) (34, 1.35953667128416704202e+01) (30, -1.90488704239461270618e+01) (62, 2.42613791763271308355e+02) (9, -5.05560711575398684658e+01) (31, -5.65556637414752998438e+01) (4, -1.41495639265825275288e+03) (23, -9.76920134548385665774e-01) (17, 1.98496781924047951406e+01) (40, 3.22257717866456943057e+01) (20, 4.20313083563719303015e+01) (69, 1.37915614743760812644e+01) (35, 2.32442375963650640358e+01) (21, 4.10559612232294046663e+00) (6, -2.68386736310559221863e+01) (27, 4.05439053336680643724e+01) (58, -2.37291681553012132611e+01) (64, 1.50000000000000000000e+03) (54, 2.47823286710728929449e+01) (8, -4.65568765033361842143e+01) (42, 6.71289572117546384789e+00) (45, 1.00025138731002929404e+01) (10, -2.25890091544334126183e+01) (55, -7.98569411661318628859e+00) (70, 5.96912433374100572792e+01) (12, 5.25593482755376584237e+01) (51, -3.28238747126392915732e+00) (20, -2.96915386284913189741e+01) (35, 3.27059971636259376737e+01) (67, 9.81010841149398182814e-01) (16, -2.09875256184066714127e+01) (68, 3.30174465942732410895e+02) (8, -5.63184102665177288571e+00) (54, -1.98683575929651929926e+01) (11, 9.39682068006701420870e+00) (37, -3.33692838221013090561e+01) (17, -2.23567198178491111094e+01) (6, -1.63695173657971295711e+01) (21, 3.12897533746346994121e+01) (36, 5.44099851411975237170e+02) (48, 5.11072760252694820338e+02) (62, 2.42613791763271308355e+02) (33, -7.88701412744510776953e-01) (69, 5.01482745874100572792e+01) (1, 1.52687274682708125084e+01) (47, -2.60186549103804161120e+01) (59, 1.61455446748348379060e+01) (65, 6.16408936860010925329e+00) (52, -8.70854598322460482507e+00) (61, -1.32992677618079047086e+00) (18, 3.23934734036590441519e+01) (14, -9.18939369752793169255e+01) (25, 1.09145094308274845929e+01) (31, -2.61793938959244876230e+00) (19, -2.82432075839217233693e+01) (42, 2.06051486432334449717e+01) (0, 1.50000000000000000000e+03) (15, 1.02413678501430744916e+01) (5, -2.18839496474365908796e+01) (7, 3.02906851731384669790e+01) (70, 1.55299216973967872946e+01) (34, 3.16496537015924559455e+01) (6, 1.45063180529041506617e+01) (53, -6.74367920976593921978e+01) (54, -5.14255952180872029089e+01) (15, -9.22182222859227707090e+00) (56, 2.72781989881948334187e+02) (18, 5.09903910329009519842e+01) (33, -1.65561187244130678664e+01) (30, -3.45096812597255553356e+00) (49, -3.19440649978935127251e+01) (59, -4.19185994596867317341e+01) (68, 3.30174465942732410895e+02) (16, -4.58518034580672875222e+01) (31, -5.58246961916088046962e+00) (57, 2.26072470492332877612e+00) (65, -2.52781837713535999512e+01) (42, 1.54971660077354211893e+01) (14, -5.30191265180488642272e+01) (40, 1.23298062104738725964e+01) (11, 2.00291515745368471357e+01) (13, -3.86139535793256838403e+00) (20, -3.74121921624268978235e+01) (52, 4.16243163939421307873e+01) (63, 8.66597354757555216054e+00) (47, 2.18179787718705604505e+01) (10, 2.86432877892311346102e+01) (22, -3.47580911557400042966e+02) (24, -1.50000000000000000000e+03) (66, 1.50000000000000000000e+03) (36, 5.73420232576526700541e+02) (27, -3.55813047758381060248e+01) (38, -1.47997254133048148361e+01) (37, -5.15598622827946684311e+01) (39, -8.08339000459039702662e+00) (8, -4.09162868141529079136e-02) (70, -2.88661730226237800423e+00) (62, -8.31952975892737782715e+01) (67, -1.66854997866987382338e+01) (21, -4.70549219809104144474e+01) (8, 3.02741132981550826742e+01) (40, -2.49911517544897776588e+01) (42, 1.67806731505212525235e+01) (39, -4.61310474071606613222e+00) (15, 1.50690467741746001451e+01) (64, 1.50000000000000000000e+03) (19, 2.42326163330914994276e+01) (10, 4.18472432978049226904e+01) (51, -7.74614247801208488653e+00) (37, 2.54479168114534530787e+01) (9, -2.40982458537869490556e+01) (6, 2.91278175861616510645e+01) (59, -8.87307908052073557315e+00) (3, -1.97655569308637772963e+01) (24, 1.42430697472736869713e+03) (57, -2.61559468938813033390e+01) (13, -1.55560516710843028676e+01) (52, -5.14921769296394913340e+01) (14, 1.06883292267753495253e+03) (29, -1.68903957258491121962e+00) (28, -8.42000493118578141605e+00) (44, -7.22856805241729034606e+01) (12, -1.42674764101385108006e+02) (48, -1.44132184544392339376e+03) (32, -1.13580845431142478219e+02) (22, 2.80043814048240960801e+02) (25, -3.76922702424506095298e-01) (36, -1.50000000000000000000e+03) (7, -4.60368634163366152734e+00) (33, 3.65044850563910188157e+01) (58, -4.60884900278547107177e+01) (4, 6.46158754874640067101e+02) (70, -5.49055008578146974685e+00) (66, 1.50000000000000000000e+03) (64, 1.50000000000000000000e+03) (20, -4.73538390783952678476e+00) (7, -1.96002286090760620141e+01) (19, -1.56897314725043930395e+01) (10, 3.57243272179420330303e+01) (40, -7.15937802862390526570e+01) (51, -6.23885483640157474383e+01) (63, 3.16484019512341019364e+00) (18, -3.70384960058037160380e+00) (54, 4.17505927785313701861e+01) (59, -1.65469687540711838381e+01) (31, -5.14386331258701332558e+01) (68, 3.30174465942732410895e+02) (38, -2.18302315473379913158e+01) (30, -2.86797824646703176654e+01) (56, 1.05635828896869853111e+02) (29, -1.28034824717847630637e+01) (1, -4.64328674959983356274e+00) (14, -1.08587752921858097466e+02) (21, 4.71565818853593086146e+01) (60, 1.15918724020016256304e+02) (62, 2.42613791763271308355e+02) (32, 1.50000000000000000000e+03) (4, -1.41495639265825275288e+03) (25, 5.48549055858694813992e+01) (22, -4.21707681576932088774e+02) (12, 5.50055572293950660878e+01) (0, 1.50000000000000000000e+03) (65, -4.35196500270349702078e+01) (2, 1.50000000000000000000e+03) (26, 1.40941242868643854536e+02) (15, 9.07598944801220852696e+00) (45, 4.07835709687173562088e+01) (17, 1.75759598690229630336e+01) (70, -2.11135640527124053278e+01) (30, -1.39018856391808287576e+00) (60, 2.84927544668945742501e+01) (64, 1.50000000000000000000e+03) (36, -6.13961906421433354808e+02) (34, 4.07221875238781052531e+01) (1, 3.08170427893286102972e+01) (32, -7.47964054671899791771e+00) (23, 7.43279045244177627438e+00) (42, 1.50000000000000000000e+03) (53, 1.97943080851566790557e+01) (48, -4.69109293370480262553e+00) (17, -1.58479752813512253518e+00) (18, -1.38158572492084488204e+02) (65, -1.25186114693991825675e+01) (22, 6.24832903404011858584e+02) (54, -3.41514303799818108587e+01) (24, 1.50000000000000000000e+03) (27, -2.15306134881840698370e+01) (28, -3.48621834059597901501e+01) (8, -2.93995058631568539909e+01) (39, -1.67302303748846519227e+01) (62, -7.89746212742069957358e+01) (5, 6.51732784531938325046e+00) (47, -1.26346839744600849542e+01) (46, 3.59840392527222320496e+02) (20, -8.15134552270272365604e+01) (14, 1.31145362327307384476e+03) (10, 1.76665180173907714334e+02) (49, 5.26294506041390235396e+01) (7, 1.43265965201864684531e+01) (56, 3.33351362235652928234e+01) (38, 5.59027964656980600466e+01) (57, 3.42595859535513085348e+01) (26, -1.18921382250562714944e+02) (68, 1.50000000000000000000e+03) (70, -5.54208400976485364708e+01) (21, 9.95944589096157173458e+00) (26, 2.10219027103417573699e+02) (17, 4.52886882808593682626e+00) (40, -2.04294253569089399036e+01) (7, -2.69630398787414158335e+01) (41, 6.06450923500690208812e+01) (63, -7.24870931756767156173e+00) (1, -2.13524502050694202637e+01) (9, -1.55655621243366830697e+01) (65, -5.95294178259200208458e+01) (55, -5.13862866785219996046e+00) (45, -1.63245306138991601586e+01) (23, 2.13974331704663818243e+01) (22, -3.71337302605832064728e+02) (13, -4.13008968819042010523e+01) (46, -9.49967703066689068692e+02) (66, 1.50000000000000000000e+03) (37, 1.69137705297047915565e+01) (52, 1.49139612874436577883e+00) (53, -9.46932192859175536626e+00) (61, 2.14234156679099685405e+00) (44, 5.44473840300905820300e+01) (42, 1.47263701855918487382e+01) (38, -1.36115587949577356852e+01) (29, -3.49261630530903062208e+01) (35, -2.45255320722140375267e+01) (5, -2.68192008833985049421e+01) (12, 7.05635043882084289635e+01) (30, 4.60627876723673495007e+01) (0, 1.50000000000000000000e+03) (28, 5.90398734774097917466e+01) (51, 1.97934389352149473496e+01) (59, 2.06685682801815389098e+01) (33, 1.45828297161388782399e+01) (4, -1.41495639265825275288e+03) (70, -1.46813234311838076707e+01) (22, 1.22769793619322541645e+02) (60, -1.43057588941609992617e+03) (59, 7.99843063739266613155e-01) (41, 2.46423901120660211461e+01) (6, 1.75041604178153079374e+02) (15, -1.28472352290871345559e+01) 