FANN_FLO_2.1
num_layers=3
learning_rate=0.700000
connection_rate=0.500000
network_type=0
learning_momentum=0.000000
training_algorithm=2
train_error_function=1
train_stop_function=0
cascade_output_change_fraction=0.010000
quickprop_decay=-0.000100
quickprop_mu=1.750000
rprop_increase_factor=1.001000
rprop_decrease_factor=0.333300
rprop_delta_min=0.000000
rprop_delta_max=50.000000
rprop_delta_zero=0.100000
cascade_output_stagnation_epochs=12
cascade_candidate_change_fraction=0.010000
cascade_candidate_stagnation_epochs=12
cascade_max_out_epochs=150
cascade_max_cand_epochs=150
cascade_num_candidate_groups=2
bit_fail_limit=3.49999999999999977796e-01
cascade_candidate_limit=1.00000000000000000000e+03
cascade_weight_multiplier=4.00000000000000022204e-01
cascade_activation_functions_count=10
cascade_activation_functions=3 5 7 8 10 11 14 15 16 17 
cascade_activation_steepnesses_count=4
cascade_activation_steepnesses=2.50000000000000000000e-01 5.00000000000000000000e-01 7.50000000000000000000e-01 1.00000000000000000000e+00 
layer_sizes=71 101 2 
scale_included=0
neurons (num_inputs, activation_function, activation_steepness)=(0, 0, 0.00000000000000000000e+00) (0, 0, 0.00000000000000000000e+00) (0, 0, 0.00000000000000000000e+00) (0, 0, 0.00000000000000000000e+00) (0, 0, 0.00000000000000000000e+00) (0, 0, 0.00000000000000000000e+00) (0, 0, 0.00000000000000000000e+00) (0, 0, 0.00000000000000000000e+00) (0, 0, 0.00000000000000000000e+00) (0, 0, 0.00000000000000000000e+00) (0, 0, 0.00000000000000000000e+00) (0, 0, 0.00000000000000000000e+00) (0, 0, 0.00000000000000000000e+00) (0, 0, 0.00000000000000000000e+00) (0, 0, 0.00000000000000000000e+00) (0, 0, 0.00000000000000000000e+00) (0, 0, 0.00000000000000000000e+00) (0, 0, 0.00000000000000000000e+00) (0, 0, 0.00000000000000000000e+00) (0, 0, 0.00000000000000000000e+00) (0, 0, 0.00000000000000000000e+00) (0, 0, 0.00000000000000000000e+00) (0, 0, 0.00000000000000000000e+00) (0, 0, 0.00000000000000000000e+00) (0, 0, 0.00000000000000000000e+00) (0, 0, 0.00000000000000000000e+00) (0, 0, 0.00000000000000000000e+00) (0, 0, 0.00000000000000000000e+00) (0, 0, 0.00000000000000000000e+00) (0, 0, 0.00000000000000000000e+00) (0, 0, 0.00000000000000000000e+00) (0, 0, 0.00000000000000000000e+00) (0, 0, 0.00000000000000000000e+00) (0, 0, 0.00000000000000000000e+00) (0, 0, 0.00000000000000000000e+00) (0, 0, 0.00000000000000000000e+00) (0, 0, 0.00000000000000000000e+00) (0, 0, 0.00000000000000000000e+00) (0, 0, 0.00000000000000000000e+00) (0, 0, 0.00000000000000000000e+00) (0, 0, 0.00000000000000000000e+00) (0, 0, 0.00000000000000000000e+00) (0, 0, 0.00000000000000000000e+00) (0, 0, 0.00000000000000000000e+00) (0, 0, 0.00000000000000000000e+00) (0, 0, 0.00000000000000000000e+00) (0, 0, 0.00000000000000000000e+00) (0, 0, 0.00000000000000000000e+00) (0, 0, 0.00000000000000000000e+00) (0, 0, 0.00000000000000000000e+00) (0, 0, 0.00000000000000000000e+00) (0, 0, 0.00000000000000000000e+00) (0, 0, 0.00000000000000000000e+00) (0, 0, 0.00000000000000000000e+00) (0, 0, 0.00000000000000000000e+00) (0, 0, 0.00000000000000000000e+00) (0, 0, 0.00000000000000000000e+00) (0, 0, 0.00000000000000000000e+00) (0, 0, 0.00000000000000000000e+00) (0, 0, 0.00000000000000000000e+00) (0, 0, 0.00000000000000000000e+00) (0, 0, 0.00000000000000000000e+00) (0, 0, 0.00000000000000000000e+00) (0, 0, 0.00000000000000000000e+00) (0, 0, 0.00000000000000000000e+00) (0, 0, 0.00000000000000000000e+00) (0, 0, 0.00000000000000000000e+00) (0, 0, 0.00000000000000000000e+00) (0, 0, 0.00000000000000000000e+00) (0, 0, 0.00000000000000000000e+00) (0, 0, 0.00000000000000000000e+00) (36, 4, 5.00000000000000000000e-01) (36, 4, 5.00000000000000000000e-01) (36, 4, 5.00000000000000000000e-01) (36, 4, 5.00000000000000000000e-01) (36, 4, 5.00000000000000000000e-01) (36, 4, 5.00000000000000000000e-01) (36, 4, 5.00000000000000000000e-01) (36, 4, 5.00000000000000000000e-01) (36, 4, 5.00000000000000000000e-01) (36, 4, 5.00000000000000000000e-01) (36, 4, 5.00000000000000000000e-01) (36, 4, 5.00000000000000000000e-01) (36, 4, 5.00000000000000000000e-01) (36, 4, 5.00000000000000000000e-01) (36, 4, 5.00000000000000000000e-01) (36, 4, 5.00000000000000000000e-01) (36, 4, 5.00000000000000000000e-01) (36, 4, 5.00000000000000000000e-01) (36, 4, 5.00000000000000000000e-01) (36, 4, 5.00000000000000000000e-01) (36, 4, 5.00000000000000000000e-01) (36, 4, 5.00000000000000000000e-01) (36, 4, 5.00000000000000000000e-01) (36, 4, 5.00000000000000000000e-01) (36, 4, 5.00000000000000000000e-01) (36, 4, 5.00000000000000000000e-01) (36, 4, 5.00000000000000000000e-01) (36, 4, 5.00000000000000000000e-01) (36, 4, 5.00000000000000000000e-01) (36, 4, 5.00000000000000000000e-01) (36, 4, 5.00000000000000000000e-01) (36, 4, 5.00000000000000000000e-01) (36, 4, 5.00000000000000000000e-01) (36, 4, 5.00000000000000000000e-01) (36, 4, 5.00000000000000000000e-01) (36, 4, 5.00000000000000000000e-01) (36, 4, 5.00000000000000000000e-01) (36, 4, 5.00000000000000000000e-01) (36, 4, 5.00000000000000000000e-01) (36, 4, 5.00000000000000000000e-01) (36, 4, 5.00000000000000000000e-01) (36, 4, 5.00000000000000000000e-01) (36, 4, 5.00000000000000000000e-01) (36, 4, 5.00000000000000000000e-01) (36, 4, 5.00000000000000000000e-01) (36, 4, 5.00000000000000000000e-01) (36, 4, 5.00000000000000000000e-01) (36, 4, 5.00000000000000000000e-01) (36, 4, 5.00000000000000000000e-01) (36, 4, 5.00000000000000000000e-01) (36, 4, 5.00000000000000000000e-01) (36, 4, 5.00000000000000000000e-01) (36, 4, 5.00000000000000000000e-01) (36, 4, 5.00000000000000000000e-01) (36, 4, 5.00000000000000000000e-01) (36, 4, 5.00000000000000000000e-01) (36, 4, 5.00000000000000000000e-01) (36, 4, 5.00000000000000000000e-01) (36, 4, 5.00000000000000000000e-01) (36, 4, 5.00000000000000000000e-01) (36, 4, 5.00000000000000000000e-01) (36, 4, 5.00000000000000000000e-01) (36, 4, 5.00000000000000000000e-01) (36, 4, 5.00000000000000000000e-01) (36, 4, 5.00000000000000000000e-01) (36, 4, 5.00000000000000000000e-01) (36, 4, 5.00000000000000000000e-01) (36, 4, 5.00000000000000000000e-01) (36, 4, 5.00000000000000000000e-01) (36, 4, 5.00000000000000000000e-01) (36, 4, 5.00000000000000000000e-01) (36, 4, 5.00000000000000000000e-01) (36, 4, 5.00000000000000000000e-01) (36, 4, 5.00000000000000000000e-01) (36, 4, 5.00000000000000000000e-01) (36, 4, 5.00000000000000000000e-01) (36, 4, 5.00000000000000000000e-01) (36, 4, 5.00000000000000000000e-01) (36, 4, 5.00000000000000000000e-01) (36, 4, 5.00000000000000000000e-01) (36, 4, 5.00000000000000000000e-01) (36, 4, 5.00000000000000000000e-01) (36, 4, 5.00000000000000000000e-01) (36, 4, 5.00000000000000000000e-01) (36, 4, 5.00000000000000000000e-01) (36, 4, 5.00000000000000000000e-01) (36, 4, 5.00000000000000000000e-01) (36, 4, 5.00000000000000000000e-01) (36, 4, 5.00000000000000000000e-01) (36, 4, 5.00000000000000000000e-01) (36, 4, 5.00000000000000000000e-01) (36, 4, 5.00000000000000000000e-01) (36, 4, 5.00000000000000000000e-01) (36, 4, 5.00000000000000000000e-01) (36, 4, 5.00000000000000000000e-01) (36, 4, 5.00000000000000000000e-01) (36, 4, 5.00000000000000000000e-01) (36, 4, 5.00000000000000000000e-01) (36, 4, 5.00000000000000000000e-01) (36, 4, 5.00000000000000000000e-01) (0, 4, 5.00000000000000000000e-01) (101, 4, 9.00000000000000022204e-01) (0, 4, 9.00000000000000022204e-01) 
connections (connected_to_neuron, weight)=(70, 2.24992560571029081018e+01) (35, -2.42935244379503529899e+01) (31, 6.09332805458241733021e+00) (29, -1.23892153130457441379e-01) (37, -6.19875961386822371679e+00) (39, 4.19330622068475307174e+01) (56, 1.46936898005925826283e+02) (34, 1.47646756771246828066e+03) (13, -1.53616957954241382112e+01) (54, 3.12079383113332511357e+01) (17, -1.29088912031616676046e+01) (33, 1.24517848520175444804e+01) (52, 1.11368853770692226135e+03) (53, 3.13069521263361227881e+00) (24, -1.50000000000000000000e+03) (40, 5.33042976224564526433e+01) (47, 4.14319415248898614834e+00) (9, 3.06440394299042795367e+00) (14, -1.50000000000000000000e+03) (15, -2.21336494510019363702e+01) (19, -2.48107852349129984759e+01) (27, -2.08247200996071590851e+01) (44, 5.55814168865706960787e+02) (2, 1.50000000000000000000e+03) (1, 1.93227786248519315393e+01) (16, -1.32205307673150258552e+02) (23, -2.14536546410127506590e+01) (30, 4.54594669043465387404e+02) (21, 7.69198951599269609147e+00) (18, 5.93183009623190713455e+01) (65, -3.95766754919626322362e+01) (3, -8.87603576723386744618e+00) (45, 2.02491032679109181913e+01) (61, 3.98365959790915908911e+01) (48, 2.12462477053021927986e+02) (69, -2.15153486304126984052e+00) (70, 1.44136257973599519744e+01) (1, -1.11014098319125089631e+01) (52, -1.43777884414852991313e+02) (21, 3.03971433998800186771e+01) (37, 1.90092602271000643555e+01) (67, -9.87902801937303953750e-01) (50, -1.49791404419360355860e+03) (68, 1.50000000000000000000e+03) (64, 1.50000000000000000000e+03) (4, -2.15291991192610119299e+01) (55, 4.42279072179077115123e+00) (53, 1.76529608937733826224e+01) (61, 1.29000299690756961013e+01) (60, -9.37415697850935316637e+01) (18, -2.09982860535990312201e+01) (62, -4.15181472656169319180e+02) (45, 3.32645234554295115004e+01) (14, 1.50000000000000000000e+03) (59, 2.11537140434564321367e+01) (42, 3.25497579869406692410e+01) (38, 4.93567628072306604281e+02) (40, -6.19208978984492759423e+01) (2, 1.50000000000000000000e+03) (32, -5.03033008092561829017e+02) (31, -8.46806065263599450077e+00) (16, 2.02144965514323864397e+01) (3, 1.46220942345547761931e+01) (29, 1.25989506930899224812e+02) (25, 1.28652287601123411775e+01) (17, 1.06447035439339590113e+01) (43, -5.69900550117867155109e+00) (19, -2.08586889463015907609e+01) (57, 2.56214168370794688201e+01) (11, -1.18815480427870068247e+00) (10, -6.77143282849229876774e+02) (28, 5.63663360880847562839e+02) (70, -1.07070889995895424107e+01) (44, -5.48488986815256339469e+02) (18, -1.94361894875290062146e+01) (35, 1.79435462190849293052e+00) (16, 3.61090316161296556174e+01) (26, -1.50000000000000000000e+03) (59, -2.77332271168179538279e+01) (68, 1.50000000000000000000e+03) (66, 1.49944256491343139714e+03) (29, -2.85529267429733728534e+01) (5, 2.52163102379756303151e+01) (57, -1.09132703833376201175e+01) (36, -3.68893685135364912675e-01) (55, -1.34890540063689332584e+01) (38, 2.96316304938030270932e+02) (69, 1.97070996650647529691e+01) (23, -2.73177219839841711746e+00) (39, 1.15585752304669675539e+01) (62, -3.97452380773463858077e+02) (43, 2.62704444551608453651e+01) (42, -3.31484143084556563963e+01) (45, -1.54618256528792503701e+01) (52, -1.39091653040112277040e+02) (50, -1.49791404419360355860e+03) (25, 2.43107928921709763870e+01) (34, -9.30928291640423367426e+02) (9, -9.21920290863579294793e-01) (49, -1.47861119576181962998e+01) (64, 1.50000000000000000000e+03) (58, 1.21057072604364943658e+01) (27, -2.58927462222463269370e+01) (54, -1.11816741027956627619e+01) (41, 3.27251418658713149057e+01) (14, 1.50000000000000000000e+03) (19, -1.91797559248642919272e+01) (61, -4.09756852810432814493e+00) (70, 4.15477695120982346566e+01) (64, 1.50000000000000000000e+03) (65, 2.28384170188051136563e+01) (25, 9.76143345336974732618e+00) (66, 1.40907476961243133928e+02) (22, -1.50000000000000000000e+03) (17, 5.86822681020950831510e+00) (31, 5.14354385681486281356e+00) (69, 1.20914820340149598010e+00) (63, -1.58832550321793171122e+01) (6, 7.35997425632108672744e+01) (50, 1.49796995345107802677e+03) (18, 2.44973677069231285941e+01) (45, -4.15780613294095928723e+01) (59, 4.62570870795653164009e+01) (3, -2.72904434548276988437e+01) (20, -2.44435694407976171760e+01) (46, -7.87682907301612456052e+00) (38, -4.82187635499468058242e+02) (5, -8.50391763651094301224e+00) (43, 1.25732382142637511002e+00) (48, 9.20854942468104837872e+01) (61, 1.68551642416252178691e+01) (52, 1.49991878599186605925e+02) (42, -8.33215352729706459911e+00) (30, 2.48728802696577595555e+01) (21, -7.57704406111864869899e+00) (27, -1.23174143683906400781e+01) (14, -1.50000000000000000000e+03) (60, 1.20549908792251429190e+02) (4, 1.72879011356239793429e+01) (62, 4.14863983463800138907e+02) (32, 5.17801067968482811921e+02) (24, -1.50000000000000000000e+03) (49, -4.26903641746905648802e+00) (57, 2.35140872048003011230e+01) (70, -5.28940242854738773559e+00) (12, 1.50000000000000000000e+03) (11, 1.49109833710369033000e+00) (40, 8.21235992988931400305e+01) (67, 4.86948065102177736208e+01) (60, 9.22798439614719825386e+01) (27, -3.35769252681791741111e+01) (58, -4.31297367602949766052e+00) (66, 1.40907476961243133928e+02) (18, 1.20889833838029527868e+01) (51, -5.26044090269159081430e+00) (48, 8.70354034570155619122e+01) (53, -4.32635339694614040607e-01) (38, -4.56417468148699128960e+02) (4, -5.38503744965734831851e+00) (55, -1.38488354136135001227e+01) (9, -1.97365292372368195117e+01) (49, -1.30026465228460690327e+01) (7, 3.64034565172944866163e+01) (44, 5.71955139095809727223e+02) (2, 1.50000000000000000000e+03) (28, -5.33266573025311913625e+02) (43, -4.03764114251035366454e-01) (50, 1.49796995345107802677e+03) (23, -2.68506373265863764743e+01) (26, 1.50000000000000000000e+03) (36, 4.25113884279655795950e+00) (14, -1.50000000000000000000e+03) (65, -4.46426195232058109497e+00) (5, 4.20212197126950837145e+00) (20, -1.03764937114277504548e+01) (10, 6.43810568707732841176e+02) (63, -1.77274716307409931915e+01) (37, -4.62427249117706011816e+01) (64, 1.50000000000000000000e+03) (59, -3.69045111531896949941e+01) (70, 2.34228515280824574063e+01) (51, -8.35991822186877087120e+00) (31, 2.11658562965706176229e+00) (7, 2.05583698971171990877e+01) (39, 7.03004798363835359254e+00) (67, -7.63676041526773108359e+00) (45, 1.14342363008986147577e+01) (40, 6.94553825935707891404e+01) (58, 2.39007328173479862699e+01) (16, -5.93550020194995253675e-01) (47, 1.32658572898088884529e+01) (66, 1.40907476961243133928e+02) (11, 2.32048851563481726146e+01) (17, 2.92173593480506745834e+01) (34, 1.47646756771246828066e+03) (52, 1.07666745275517214964e+02) (14, -1.50000000000000000000e+03) (54, 6.05068095241186298949e+00) (25, -4.68837705154535999696e+00) (46, 2.71748667506531340621e+01) (60, 1.06640636121505963274e+02) (19, 5.73217637302982918612e+00) (64, 1.50000000000000000000e+03) (41, -1.43115904649974323704e+00) (43, -6.18354679143370233874e+00) (32, 5.09882047792546700293e+02) (23, -3.38884272214173876137e+01) (61, -1.38357728006079270244e+01) (57, -2.30991787864106363770e+01) (4, -6.16066267853923577036e+00) (44, 5.21848728115585458909e+02) (13, 2.22623789738364408208e+01) (35, 2.97245632680879730003e+01) (26, 1.50000000000000000000e+03) (65, 2.04955138815980824063e+01) (3, -2.49521866188901988437e+01) (70, -1.28211825998700632567e+01) (33, -2.06444798789582613097e+01) (58, -3.39988158005297549380e+01) (16, -4.04851347359197788478e+00) (68, 1.50000000000000000000e+03) (36, -1.37834271430097317079e+01) (53, -1.50773594048379404597e+01) (60, -5.63367281911320532117e+01) (69, 4.08466507235777243068e+00) (38, 3.20229085741639494245e+02) (21, -4.58733467836773267656e-01) (47, 4.19263412578236938089e+00) (4, -2.41920609432966493557e+01) (57, 2.80386788236773902838e+01) (1, -2.95787213953457275295e+01) (13, -1.34759627813429325727e+01) (11, 2.67080351265899942348e+01) (6, -1.72424255211765000695e+01) (14, 1.50000000000000000000e+03) (44, -5.36000676239771337350e+02) (26, -1.50000000000000000000e+03) (39, -2.86470704552754824590e+01) (67, 1.33318473624749103124e+01) (37, 2.07711873867127323479e+01) (32, -5.52509316614773638321e+02) (25, -1.99959432630257061270e+00) (54, 1.25223599487881056547e+01) (43, -3.23469260853512139420e+01) (40, -2.21015114162105703599e+01) (56, -9.22520934262164047368e+01) (64, 1.50000000000000000000e+03) (22, 1.50000000000000000000e+03) (23, 1.64876999661275931430e+01) (10, -6.86862626034654454088e+02) (27, 1.30048041726113687844e+01) (49, -4.20763612918171681088e+00) (70, -6.83800513651049346464e+00) (3, -1.49230776539047891305e+01) (18, 3.57175553120103188576e+01) (12, 1.50000000000000000000e+03) (51, -5.93233255230978029360e-01) (41, 1.01567791840827048588e+01) (31, 2.48329867990453401205e+01) (43, 6.64164897403516896190e+00) (55, 1.27761214379437859634e+00) (59, 7.39448534566801729540e+00) (14, -1.50000000000000000000e+03) (65, -5.83446557428515166777e+00) (44, 1.50000000000000000000e+03) (16, 2.88751185066078512875e+01) (64, 1.50000000000000000000e+03) (46, 3.92177109756587256584e+01) (61, -2.81690106671449100872e+01) (13, -1.80526900573851989407e+00) (60, 7.81770987278884916805e+01) (22, -1.50000000000000000000e+03) (49, -2.85828274790291523288e+01) (5, 2.37853620117800055311e+01) (11, 5.68442439503723395688e+00) (27, -2.70890120520852590857e+01) (45, 5.30846949987892169354e-01) (25, 2.73456268848497519031e+00) (24, -1.50000000000000000000e+03) (39, -3.62713427625654061259e+00) (66, 1.40907476961243133928e+02) (19, 3.44153113301565838356e+01) (47, -3.84185088859713346210e+01) (2, 1.50000000000000000000e+03) (32, 1.50000000000000000000e+03) (4, 2.63445158845373805789e+00) (34, 1.49970811961616050212e+03) (28, -2.14955291755982926816e+01) (70, 3.61672455695341170667e+01) (56, 2.00211068011736905703e+01) (6, 3.02202922420149526772e+01) (50, 1.49796995345107802677e+03) (55, -5.68516717428867082162e+01) (32, 6.11110751740138425703e+02) (21, 2.52352507710067115454e+01) (9, -2.05989221668813193844e+01) (8, 1.61473206007125867245e+02) (10, 6.59950133221892542679e+02) (12, 1.50000000000000000000e+03) (25, 6.67336323899712868801e-01) (46, 3.24537173023491876123e+00) (11, -8.86221249039437530826e+00) (15, 2.39187165626796769402e+01) (37, -1.05974360961107318957e+01) (59, -8.63134774238124258261e+00) (35, 4.23177113986626896036e+00) (27, -1.21582892738206567174e+01) (52, 1.49996475390311525189e+03) (62, 3.68305271815812773184e+02) (61, -2.01715573732214181746e+01) (19, -1.54950627137246610410e+00) (13, -7.23961056517836931690e-01) (26, 2.92849347706232343569e+01) (28, -1.84249737811851632685e+00) (42, -1.54955560030552916828e+01) (33, -5.90516060541597198608e+00) (23, -7.29560723578848424609e+00) (30, 3.21698784957736876322e+01) (7, 8.55754126612259824469e+00) (43, 1.31751246056866531120e+01) (29, -1.54695168482925442532e+01) (4, 5.72811917983895142470e+01) (2, 1.50000000000000000000e+03) (34, 1.27886456738710489844e+03) (70, 7.51618949371967470796e+00) (33, 2.03213573871462465092e+01) (48, 1.93159172204433922104e+01) (65, 3.55586380143842291091e+01) (56, 6.89044559898168103018e+01) (4, -5.06853331278340046850e+00) (46, 9.25214055535698491894e+01) (18, 4.13840570969444510041e+00) (42, -2.85545934356104353924e+01) (67, -3.09994032273748665318e+01) (34, 1.27886456738710489844e+03) (37, -1.35956712736814711029e+00) (20, -5.63589320527535342364e+00) (25, -7.75926580433376589241e+00) (0, 1.50000000000000000000e+03) (10, 6.41475856416889541833e+02) (30, 1.14528133221327834690e+01) (7, 2.45241110694713384532e+01) (3, 3.30760063310346197341e+01) (57, 2.75233331982966200613e+00) (11, 2.77893102461912704371e+01) (53, -3.54752441668219375970e+01) (64, 1.50000000000000000000e+03) (15, -2.72539598055514780128e+01) (43, -3.52954694886340014648e+00) (59, 3.48872107235541548675e+01) (19, 1.06441102443163444491e+01) (47, -3.20227133274798916318e+01) (9, -3.00617875768645692602e+00) (60, 9.77234145666826776733e+01) (44, 5.49984375889327793629e+02) (32, 5.04559437851766460881e+02) (36, 1.14550684933550321887e+01) (55, -2.05287054663270396304e+01) (31, 2.98142661479841653005e+00) (29, -4.24863916924017459564e+00) (70, -2.45610565888006782131e+01) (34, 3.14548855166752389323e+02) (15, -5.02358367887737511381e+00) (26, 1.50000000000000000000e+03) (32, -1.86443760108597480496e+01) (35, -3.98109149811931644081e+01) (36, 1.48315830459923621021e+01) (44, -1.25706652010355043103e+02) (25, 2.16632203758313863773e+01) (54, 5.18056291971899884885e+00) (18, 2.97710894467506506089e+01) (21, 3.62125027850920133687e+01) (7, -2.34135471220327886499e+01) (30, 6.95079359591185275136e-01) (17, -3.84043512793591901300e+00) (41, 3.90049246832924154660e+01) (9, 9.51890785559613483713e+00) (65, 2.99784446013848686619e+01) (27, 2.63196358349472969707e+00) (68, -1.50000000000000000000e+03) (59, -1.35096691962614183780e+01) (43, -1.00160236636005635091e+01) (69, 4.66859734928699623424e+01) (29, -2.89274353644309165645e+01) (46, -1.71494072661600007734e+01) (40, 6.03599685293486842852e+00) (3, -8.32387921681790921014e+00) (24, -1.12653433399010054927e+03) (22, -1.09872593329626852210e+03) (23, 2.18386260417918727228e+01) (19, -1.40672530117151694640e+02) (6, 1.10560450803256564711e+01) (20, 1.95800611753302600260e-02) (55, -2.47165557245219069671e+01) (39, 1.96876268749113947365e+00) (14, -1.50000000000000000000e+03) (70, 2.08668051567916883471e+01) (2, 1.50000000000000000000e+03) (49, 1.01627670638050897622e+01) (21, -1.54879064200658440598e+01) (9, 1.57939640067914552901e+01) (66, 1.49944256491343139714e+03) (56, 3.74900039674930107836e+00) (5, 6.89951165249064324314e+00) (68, 1.50000000000000000000e+03) (40, -1.89019283626217315941e+01) (47, 3.26979539921894257759e+01) (48, -5.05014853525359939113e+01) (57, -1.99061729608941639924e+01) (11, 4.63142216329127336394e+01) (23, 2.29103879706555488838e+01) (41, -2.13888024701426786578e+01) (1, -4.16843499335340155199e+01) (12, -1.50000000000000000000e+03) (33, 2.32388638346591172024e+01) (29, 1.12781763286184869344e+02) (62, -4.44373073217311400640e+02) (10, -6.94875163037217930651e+02) (52, -9.35031484872710336731e+01) (25, 5.16264363406821757962e+01) (51, 2.03396339393252780781e+01) (61, -9.93794362558983124245e+00) (27, 1.42669056725548948350e+00) (14, 1.50000000000000000000e+03) (37, 2.61144447821537752930e+01) (19, 3.16521333498410015750e+01) (18, 1.25694992094626041279e+01) (13, 4.26386950535706166221e+00) (59, -7.80808176342701099060e+00) (38, 4.60571228192851265248e+02) (35, -1.12341509580841449889e+01) (65, 5.02587500420519219801e+01) (70, 2.81063065370495444029e+01) (8, 1.79562992298247962708e+02) (54, -9.11235977148489517674e+00) (57, -1.00168373152133849402e+01) (58, 1.02907497843751745137e+01) (61, 3.07267902655149107716e+01) (18, -8.48573753273377562323e+00) (32, 5.16958655158280407704e+02) (39, -3.23755508483885563464e+01) (67, -2.21127931306068923334e+01) (6, 4.39579435901305544121e+01) (50, 1.49796995345107802677e+03) (64, 1.50000000000000000000e+03) (37, 1.78180589150771062634e+01) (45, -1.40418110248043070953e+01) (56, 5.93008187407668856395e+01) (36, 1.27961129449713908457e+01) (48, 6.82013141778408567006e+01) (3, 1.10186648210501960676e+01) (14, -1.50000000000000000000e+03) (38, -3.26201431747535821160e+02) (17, -6.05002775786559539029e+01) (25, -6.28866092278058275156e+00) (24, -1.50000000000000000000e+03) (16, -1.55122445088500899857e+01) (31, -3.36351656111721553089e+01) (19, 2.38359339161153798159e+01) (29, -1.29831352160726378742e+01) (51, 2.62406312589451538031e+01) (69, 2.36578714641428700105e+00) (44, 5.65197143490340977223e+02) (53, 1.68927059745147345460e+00) (30, 3.32667904772590148355e+01) (5, 7.32137792765101558246e+00) (34, 1.47646756771246828066e+03) (9, 2.87315146092003494971e+01) (70, 3.15898925133673316168e+01) (60, 1.44717361932506946687e+02) (25, 1.07031235059624698636e+01) (23, 3.09582487942615935950e+00) (20, 3.36903416920146199232e+01) (59, -3.34917864626357841829e+00) (40, 2.86287859654610628013e+01) (13, 1.70691798436282993201e+00) (5, -2.29411460609892969842e+01) (29, -6.18179744435516411727e+01) (16, 2.35514904918899929953e+01) (21, 1.71274561372451792352e+01) (47, -2.31666745312140989199e+01) (10, 6.37863365071563180209e+02) (58, -3.16555835583844284997e+01) (18, 2.56089628607317223441e+01) (42, -1.57541901750937807236e+01) (7, 1.40293509674785532582e+01) (52, 1.15247635931034679402e+02) (50, 1.49796995345107802677e+03) (63, -6.97244508109675287244e+00) (51, 4.61689351945758161833e+01) (17, 9.34160499166804747517e+00) (28, -5.35988353802290134809e+02) (11, -4.12404615105010585729e-01) (43, 1.09362132450360132196e+01) (1, -3.53358065405068533238e+00) (8, 1.57540566646698351860e+02) (54, 2.74685380033075645656e+01) (68, -1.50000000000000000000e+03) (57, 3.10717601863136358986e+01) (30, -2.25134818061479045070e+01) (37, 1.98539899261868946212e+01) (62, 4.21361333560502146156e+02) (45, 4.11039694535480322202e+01) (4, -2.31232080734367464459e+01) (70, 1.21919365731167879119e+01) (69, -1.29290923213155828364e+01) (39, -3.53097953287945731660e+00) (10, -6.62689232308305804509e+02) (22, 1.50000000000000000000e+03) (15, 1.92969689651644351613e+01) (33, 8.23806751660815983485e+00) (25, 2.00586758731462566629e+01) (18, -2.88124912232767655951e+01) (26, -1.50000000000000000000e+03) (36, 4.41368688287422941130e+01) (55, -2.20486094199267306237e+01) (23, 1.61505450980376288328e+01) (11, 9.70083598599241619942e-02) (50, -1.49791404419360355860e+03) (54, 2.36938691416640168086e+01) (65, -6.81696263876891794808e+00) (66, 1.49944256491343139714e+03) (29, 8.86926462360139993280e+01) (58, 1.11520637613711954828e+01) (49, 1.23810421339955194497e+01) (17, 9.05487028435143948002e+00) (34, -1.47289238189278103164e+03) (51, 2.65159130073184421406e+01) (60, -1.16932435540174239463e+02) (43, 1.13231156596786819435e+00) (41, 6.26885181528992418976e+00) (31, 6.54530938444171273005e+00) (62, -4.04872856256404872966e+02) (57, 1.03246019185641753069e+01) (37, 6.90157227696754027590e+00) (56, -1.62053567504673807775e+01) (47, 2.64157007268033119374e+01) (35, 9.55856251692633440697e-01) (13, 1.53188440613273844093e+01) (20, -1.10655533704851336552e+01) (70, -6.54382220831847849496e+00) (55, -1.40883319006617679925e+00) (27, 3.65254937481929431442e+00) (41, 1.09349051700311559188e+01) (30, -1.07158392179570487457e+01) (1, 6.87783773812317189567e+00) (11, -4.86822235156525562338e-01) (10, -6.45483922917284303367e+02) (2, 1.50000000000000000000e+03) (61, 9.10330183492042266380e+00) (62, -4.04315805074611546388e+02) (17, 1.31318050988045644800e+01) (45, 1.79356240718770933995e+01) (32, -4.80771951192537073894e+02) (36, 1.40402849855112634714e+01) (3, 7.03754290017151173942e+00) (34, -1.47289238189278103164e+03) (42, -2.90287046137674451529e+01) (54, -8.16938421336225317759e+00) (19, -4.81497942977570136946e+00) (64, 1.50000000000000000000e+03) (5, 2.48961756997300618366e+01) (21, 3.59521322609634452760e+01) (25, -9.96620309483556732211e-01) (23, -7.32346775367698210601e+00) (40, -6.11172909114497571181e+01) (50, -1.49791404419360355860e+03) (16, -6.30691629799381736632e+00) (60, -9.29539416112654066637e+01) (6, -3.71413756211198204937e+01) (14, 1.50000000000000000000e+03) (65, 3.18612738457565320971e+01) (12, -1.50000000000000000000e+03) (59, 1.23244942253436615687e+01) (46, -1.59002940983004545927e+01) (56, -5.04868117904455928624e+01) (70, 3.34725788524593559359e+00) (30, -4.83954283883853619841e+00) (40, 2.89005509567077432109e+01) (43, 1.21796977024787249633e+01) (13, 6.57173283672075303485e+00) (47, 6.67689216805696084123e+00) (50, 1.49796995345107802677e+03) (60, -8.02932212531553091139e+00) (32, 5.25307132733177468253e+02) (16, 5.55134958290105395839e-01) (12, 1.50000000000000000000e+03) (57, 2.41435599978333215176e+00) (9, 2.66988870789279637563e+01) (65, 2.61163088588780900601e-01) (62, 3.99177566241777128653e+02) (55, -5.04925747345532300869e+01) (44, 5.62655017788436680348e+02) (37, 8.71269504335683109275e+00) (22, -1.50000000000000000000e+03) (31, 3.99761410178279561478e+01) (45, 2.80201993399315902877e+01) (58, -7.16783541839337203783e+01) (41, -8.54998795135909972487e+00) (27, 8.43160028755340995588e+00) (10, 6.77925821202544625521e+02) (68, -1.50000000000000000000e+03) (8, 1.45136713230255082863e+02) (46, 2.55376178008193477353e+01) (28, -5.80273565365399122129e+02) (3, 2.07213077872067650276e+01) (21, -2.95247597807080204291e+01) (56, 2.08493756417821387572e+01) (38, -3.48842609343671767874e+02) (34, 1.47789754394258034154e+03) (26, 1.50000000000000000000e+03) (53, -2.82451258716748032640e+00) (70, 2.22832435600644238605e+01) (32, -5.03240449769273709535e+02) (54, 1.44967654141376245391e+00) (60, -1.13735200790380346803e+02) (36, 6.23020920458857219160e+00) (20, 1.22170250978375616313e+01) (62, -4.17078739759364509609e+02) (41, 3.53155432205895678521e+01) (40, -4.40518727909851364188e+01) (50, -1.49791404419360355860e+03) (66, 1.49944256491343139714e+03) (16, 1.32744511946820082926e+01) (47, -1.89917063184519534502e+01) (8, -1.90939397112360921938e+02) (19, 1.36748291685724545630e+01) (58, 9.11348936380731267093e+00) (63, 1.41215655575877772065e+01) (49, 9.76082440817164531666e+00) (39, -3.38338558882643241077e+01) (28, 5.76491821574206596779e+02) (1, -2.80700870521181933270e+01) (6, -1.74172378380710242141e+01) (45, -1.55812007088208428485e+01) (42, 1.85504961308613331994e+01) (17, -1.95231244508773720270e+01) (64, 1.50000000000000000000e+03) (57, -2.48879144587872014327e+00) (55, 3.14527641878117165675e+01) (12, -1.50000000000000000000e+03) (38, 4.85345560239359826937e+02) (9, 1.35009565601577659066e+01) (48, -4.54590504217346023097e+01) (53, 1.65400287536532282218e+01) (18, 1.00188149464721742987e+00) (13, -1.68471095484465060999e+00) (26, -1.50000000000000000000e+03) (70, -1.01504754041177172041e+01) (33, 1.71191994064100754258e+01) (5, -1.46971835249324929151e+01) (8, 7.14249574979064902891e+01) (37, 1.88689614268189949087e+01) (42, 2.02065799993221411057e+01) (29, -1.02669795884617816029e+01) (26, 2.42863001347078466097e+02) (4, -1.56537752426260858840e+01) (17, 2.41634508470837268135e+01) (18, 2.57727283827764495072e+01) (53, 1.95091563513951982145e+00) (39, 1.09662704929016996402e+01) (55, -3.97104245963650814844e+00) (14, -1.50000000000000000000e+03) (20, 7.62280068235896521855e+01) (25, 2.43754905483970425450e+01) (13, -1.00464925432674068162e+01) (47, 2.00640997199586195165e+01) (52, 2.37409189502129747140e+00) (44, 5.52658820029471712587e+02) (65, -1.54025973294717211104e+01) (36, -1.15878554874564319022e+01) (40, 6.24141311068247048865e+01) (24, -1.50000000000000000000e+03) (28, -8.03480498590762266531e+01) (64, 1.50000000000000000000e+03) (10, 6.40009099858550484896e+02) (63, 3.11088670667922677637e+01) (50, -1.13473306737129576049e+02) (68, -1.50000000000000000000e+03) (41, -3.57304687692086417883e+01) (7, 3.63358149745143705900e+01) (49, 2.41156753448543028640e+01) (48, -8.71967071388609760163e+00) (69, -5.40412674802441284072e+00) (70, -2.22808923939060532504e+00) (23, -9.91087216447259145014e+00) (22, -1.21878028219837233337e+03) (45, -1.63141332269898398089e+00) (41, 1.36196346079175789612e+00) (46, 4.20551053332578650412e+00) (40, 1.62691184173539255653e+02) (30, 8.57326169976857244137e+01) (5, 1.74410373536323390908e+01) (19, -1.31030163935824894850e+01) (1, 1.66088070609248923404e+01) (8, 7.76387192893736397536e+01) (20, 6.04376111244366569508e+01) (58, -1.00067566735904094344e+01) (57, -7.37828522041163781253e-01) (54, -1.05757697472658350080e+02) (6, -4.68660736084157303338e+00) (3, -1.46096892617058138342e+01) (44, 2.64588586754252446553e+02) (49, 1.06737078976562766996e+01) (67, -2.34931613594541133239e+01) (27, -2.47128646007005308149e+01) (32, 7.65917973982788794274e+02) (61, 1.42369128889302287710e+00) (26, 4.58640251006765538477e+02) (56, 1.12871769309645230805e+02) (48, -9.42036807517192897876e+00) (4, -1.60910004995317059695e+01) (9, -7.12162107962435353414e+00) (59, -5.27077079771830447896e+00) (42, -1.51371471894075106945e+01) (63, 2.76318880446445547250e+01) (10, 2.47088328354728226088e+01) (38, 9.73271824865200301247e+01) (47, 6.93490616798872672177e+00) (15, -1.59444065773491949756e+00) (70, 1.94319108572314469541e+01) (26, 1.50000000000000000000e+03) (9, -1.98548310836084986875e+01) (1, 1.86132138815234391416e+01) (49, 1.79124756112781042816e+01) (13, -2.13250298242144857852e+01) (35, -1.33137149379611638977e+01) (41, -1.44048428354747737323e+00) (37, 1.83747561442676250465e+01) (31, -1.74776591803310630269e+01) (47, 1.23039353194863227969e+01) (40, 2.62153809151043546422e+01) (29, 4.34843721901611246494e+00) (32, 5.17899357685024938291e+02) (61, -8.34143440477475195394e+00) (3, -7.11036933991004893585e+00) (48, 3.79270841744840367937e+01) (25, 1.18189333927395967550e+01) (52, 1.49999317402108567876e+03) (0, 1.50000000000000000000e+03) (18, 4.24294855576891734472e+02) (68, -1.50000000000000000000e+03) (60, 1.36804950391525039777e+02) (12, 1.50000000000000000000e+03) (27, -1.82483009731100374040e+01) (67, 7.38884468643375669217e+00) (6, 8.75043645664584524013e+00) (59, 2.35745846266211209752e+01) (30, 7.65283809957562599635e+00) (44, 5.50777001793411045583e+02) (15, -9.69572072833784481816e+00) (39, -1.85663412213300489384e+01) (53, -1.02956717291886867827e+01) (66, 1.40907476961243133928e+02) (23, 1.61075836182368945515e+01) (50, 1.49796995345107802677e+03) (70, 3.39773000513886058727e+00) (7, -8.99538737564741985864e+00) (39, 1.31387415900836099780e+01) (47, -2.04246399308663733052e+01) (36, 4.91160523316146768735e+00) (8, -1.33633853212825101764e+02) (29, -2.23059570767874646435e+01) (43, 2.33314553506597803789e+01) (26, -1.50000000000000000000e+03) (30, -3.35304938605279403419e+01) (4, -7.94826030319056897611e+00) (52, -1.49996423755084811091e+03) (67, 1.86116112986829804754e+01) (64, 1.50000000000000000000e+03) (56, -1.57363858861360284891e+02) (21, 3.75634430606927804952e-01) (60, -8.71997534432804570770e+01) (16, 7.86548067124713945475e+00) (25, -3.11728488379398491759e+01) (33, -2.59130433744116253081e+01) (3, -2.76755040761324728749e+01) (31, -1.94403914742810757232e+00) (24, 1.50000000000000000000e+03) (6, -3.86502238114274234704e+01) (22, 1.50000000000000000000e+03) (68, 1.50000000000000000000e+03) (17, -7.46787254469795147571e+00) (14, 1.50000000000000000000e+03) (32, -5.06734041949175377795e+02) (55, -2.62702820952613258498e+01) (5, 2.81355977094372100566e+01) (34, -1.48011363451292868376e+03) (58, 2.55701164634835775846e-01) (66, 1.49944256491343139714e+03) (18, 1.36126581446445928947e+01) (45, 2.47992911676357286055e+00) (70, -1.26976170307563602790e+01) (28, -5.58697886063184114391e+02) (35, -1.64372952097385969239e+01) (11, 6.05650205673285402241e+00) (12, 1.50000000000000000000e+03) (25, -2.42832379104646882695e+01) (65, 1.25199818843437373772e+01) (4, 3.64629564010505191618e+01) (67, 1.18965757710136124103e+01) (27, -1.65863201532796793458e+01) (38, -4.64629553395738810195e+02) (16, -1.87316563663253994321e+01) (41, 1.34069916526486867525e+01) (23, 2.64442545487561142536e+00) (48, 6.67414428857266841533e+01) (50, 1.49796995345107802677e+03) (1, -1.40665077930854618415e+01) (31, -1.30904975532342060518e+01) (36, 1.40879346496812623002e+01) (3, -5.94094321789215573659e+00) (9, 1.12378413182913163837e+01) (58, -2.78840476849713425622e+01) (51, 4.52200297711425935887e+00) (19, -4.24150469323613155126e+00) (60, 1.21626270925277495394e+02) (29, -2.82546960394528866800e+02) (66, 1.40907476961243133928e+02) (26, 1.50000000000000000000e+03) (40, 6.71846096596107997811e+01) (52, 3.61601991599910661535e+02) (2, 1.50000000000000000000e+03) (46, 2.31868048457459003941e+01) (44, 5.64505411083724766286e+02) (47, 2.06887664497313394918e+01) (24, -1.50000000000000000000e+03) (64, 1.50000000000000000000e+03) (70, -6.37470282980255387173e+00) (7, 2.24708631355790195983e+01) (64, 1.50000000000000000000e+03) (42, -6.51009063028432592546e+02) (30, -1.15646085172034851496e+01) (35, 1.69446330667008240312e+01) (58, -2.29120044140414478306e+01) (53, -1.08692490638971044348e+01) (41, 1.95679114772885434093e+01) (52, 6.14849454048859045407e-01) (60, 9.27167024023677015521e+01) (39, -7.42570642822483772960e+00) (11, 1.10237276562130404045e+01) (59, -3.18833968212416518639e+00) (63, -1.22269140296034635185e+01) (54, -1.59751265342013826221e+00) (22, -1.50000000000000000000e+03) (34, -6.76946783051586606916e+01) (9, 1.48525526573111648077e+01) (32, -7.03067986118750241076e+01) (0, 1.50000000000000000000e+03) (69, 3.43260465196311947977e+00) (23, -2.71064273777053799108e+01) (47, -8.11491076168659297707e+00) (16, -6.09453406058932287692e+01) (20, 5.11289637658083790939e+01) (4, 1.36377134587260712806e+02) (57, 7.30542132630553631145e+00) (14, -1.50000000000000000000e+03) (49, -4.58184999257859448818e+00) (21, -8.04818990832680825065e+00) (62, 6.11448735660700322114e+02) (61, 2.46721024731657259110e+01) (50, 5.97847793102921940545e+01) (43, 2.25217301269538303643e+01) (38, 1.49950490454386272177e+03) (70, -1.28330786814551203179e+01) (63, -4.95672627636484364189e+00) (35, 2.76312680172064695228e+01) (23, 8.71212196749651890393e-01) (31, -1.07344281198822932843e+00) (16, 1.29528754819443445712e+01) (8, 2.90744619842832392465e+01) (21, 9.38296294525392649000e-01) (60, 1.68038187864545882633e+01) (54, 5.21635620891096962737e+01) (56, 9.60477319853544386774e+00) (49, -6.02812094181403246296e+00) (15, 1.34277684727922235197e+01) (65, 1.20546881566186101509e+01) (58, 1.48283666409357373084e+01) (55, 5.79398315942071118201e+00) (19, -1.14554038436793295119e+01) (4, -3.08970724296936190001e+01) (33, -5.03156486053920293244e+00) (30, -1.34769783388992809847e+01) (50, 6.52550099847021897403e+02) (51, -2.50895422830576393380e+01) (36, -2.64814952490488408898e+01) (47, 1.10139376272515967514e+01) (44, 1.84652971336453674667e+02) (67, 1.82018203424380935473e+01) (61, -1.17965948074487840813e+01) (38, -2.24592772537201256000e+02) (1, -2.81020529856583998196e+01) (52, 1.08448297918973295850e+02) (66, 1.40907476961243133928e+02) (34, 1.49217067082030575875e+03) (20, 2.75710379340177702545e+00) (41, -9.85033559666438662816e+00) (37, -1.33433473125677437565e+01) (29, 5.92972097852856450118e+00) (70, 3.54545421787112013945e+00) (28, -1.81708239671459324427e+02) (2, 1.50000000000000000000e+03) (63, 5.78925080262362445893e+00) (66, 1.49944256491343139714e+03) (40, -1.01647987145202076675e+01) (68, 1.50000000000000000000e+03) (61, 2.43285434656149952559e+01) (10, -4.28727949025050634191e+02) (26, -1.53660150604249679418e+02) (65, 1.71367904681761231700e+01) (64, 1.50000000000000000000e+03) (34, -5.24056949830857433881e+02) (21, -4.56436427436514957634e+00) (44, -5.75125681833553812794e+02) (49, -5.36831024826861913368e+00) (6, -3.29172221021484148196e+01) (39, -3.55337495942319581133e+00) (5, 1.64810655560459551339e+01) (17, -1.80465655800088669025e+01) (41, -5.21300329203010814894e+00) (38, -1.33037124544614556498e+02) (24, 1.50000000000000000000e+03) (56, -6.94914024728016102017e+02) (57, 5.81065493539151312063e+00) (14, 1.50000000000000000000e+03) (3, -1.77381532005432362986e+00) (45, -2.41814573463837945155e+01) (25, 3.42321788994055786759e+00) (32, -2.24991771472048469604e+02) (37, 7.62285673808107500093e+00) (58, 1.95645793197002149100e+01) (52, -3.10389386082935416766e+01) (30, -2.94510815099124236838e+01) (46, 4.52574514012030846288e+01) (15, -2.80469846153912438780e+00) (70, -3.04620402865728445718e+00) (12, -1.50000000000000000000e+03) (18, -3.08247198768850054762e+01) (19, 2.91541615968454088659e+01) (41, -1.57441212659501985627e+01) (31, 1.08461589479262929814e+01) (10, -3.87199401334085706594e+01) (33, -1.43273892936145745836e+01) (28, 1.73286706005366717420e+01) (1, -2.15974268298661371546e+01) (3, 3.24364781994317894487e+01) (6, 1.27320517025805060030e+01) (4, -1.87853976036724823473e+01) (24, 1.50000000000000000000e+03) (8, -3.63734130949872508154e+02) (61, -1.42045473249502975932e+01) (2, 1.50000000000000000000e+03) (27, 1.15982217428521732216e+01) (17, 2.35300022774231401002e+01) (54, -1.06798526610197566100e+01) (44, -4.04049720543724959043e+02) (55, -2.81387970122012092133e+01) (26, -8.45922621760244055622e+02) (34, -4.33997637032817209501e+01) (14, 1.50000000000000000000e+03) (50, -3.57277444621394053570e+01) (25, 3.09923652015996928810e+01) (45, 2.40278942804631796548e+01) (64, 1.50000000000000000000e+03) (56, -5.97758073847638456755e+02) (66, 1.49944256491343139714e+03) (13, -5.29055501012690321261e+00) (11, -1.59061081958013090798e+01) (7, -1.02489047286242951351e+00) (58, -7.81625235277042804682e+01) (68, 1.50000000000000000000e+03) (70, 4.45823942310885428242e+01) (49, -4.02602581162380346314e+01) (4, 1.80050463401680254094e+01) (29, -7.62551850688148959989e+01) (5, 1.02851518840856237524e+00) (7, 3.67794036197754010686e+01) (20, -2.34084074687517187385e+01) (58, -5.90859577038920491532e+01) (37, -6.81668666512417598113e+00) (17, 2.38926065404334870834e+01) (63, 2.51038845329999240619e+01) (55, 3.70346193473644120786e+01) (19, -1.14473312136994187505e+00) (48, 5.20681063574851066278e+01) (36, 1.30963054964467695562e+00) (41, 2.12829971043170331768e+01) (11, 2.39772208280972876082e+01) (52, 1.27802956670780673676e+02) (64, 1.50000000000000000000e+03) (47, -2.19099683697248259762e+01) (33, 2.72724083996492190352e+01) (68, -1.50000000000000000000e+03) (38, -5.00209165650835018369e+02) (32, 4.92385663171880253230e+02) (21, 3.19577583378481855370e-01) (43, -1.72277014354476669666e+01) (22, -1.50000000000000000000e+03) (56, 5.02203372115310102686e+01) (10, 6.95628921407012171585e+02) (61, -1.52268728009210239094e+01) (59, 2.69151585975058011968e+01) (8, 1.77853307926299947894e+02) (2, 1.50000000000000000000e+03) (1, 4.98551260120944021992e+01) (42, -3.84311921282187682891e+01) (53, 1.15676732182537271854e+01) (70, -1.88670778414175792648e+01) (11, -8.82299276221410622156e+00) (52, 2.81851764368087032153e+01) (56, 3.36571861093847644497e+02) (50, -3.57956198435938830471e+01) (34, 1.46942552532358740791e+03) (53, 4.82691314421550909941e+00) (7, 3.77441405710379163096e+00) (58, 2.93222431894811075281e+00) (32, 1.92480446030791370049e+02) (37, 9.53288318207750506872e+00) (35, 2.80126543548828177421e+00) (10, 1.35645468097776760175e+01) (28, 3.47166064141234187446e+01) (43, 1.53226588585012590826e+00) (25, 4.62819268854061505181e+00) (48, 6.11735252829631690474e+01) (13, -1.78045031738521295495e+01) (46, -9.44534392924457932850e+00) (63, -1.28549262143583380436e+01) (45, 3.37388787689869147357e+01) (39, 2.07474638773686521631e+01) (2, 1.50000000000000000000e+03) (6, -8.50100639196538132580e+00) (5, -3.65670277205902252149e+01) (54, 1.53524989723442555345e+01) (42, -1.50000000000000000000e+03) (29, 1.44877279403425909265e+01) (33, 1.51845924674683896427e+01) (66, 1.40907476961243133928e+02) (9, 1.03029951524634437732e+01) (0, 1.50000000000000000000e+03) (3, -6.23315764869779442847e+00) (41, 3.10512957976559089701e+00) (18, -1.00756509195222996311e+01) (24, -1.50000000000000000000e+03) (70, -9.35525908695815644478e+00) (14, 1.50000000000000000000e+03) (12, -1.50000000000000000000e+03) (53, -3.05552840912292040798e+01) (1, 2.08909958339990851073e+01) (27, 3.18455651061309836791e+01) (9, 8.97135874476023076340e+00) (18, -2.43883913219846810705e+01) (38, 1.36116138467536451628e+01) (17, 3.94701243878643310836e+01) (26, -1.50000000000000000000e+03) (28, 4.71882640440022171902e+00) (46, 2.86715186675792850224e+01) (16, 1.86918197651964241857e+01) (42, -2.05744344563836136786e+01) (19, -1.98664006585960972728e+00) (40, -2.14821553440651129563e+01) (64, 1.50000000000000000000e+03) (2, 1.50000000000000000000e+03) (68, 1.50000000000000000000e+03) (21, -1.54522028724533164734e+01) (62, -6.57911687444724975649e+02) (36, -1.55139800351909551424e+00) (20, -2.38439038388345814212e+01) (31, 1.82878482128364581172e+01) (23, 7.02980383509307849010e+00) (4, -2.29916365994743472356e+02) (10, -1.55911459517983161049e+02) (37, 1.24323763436896417289e+01) (29, -1.11880300547211248841e+01) (41, 1.00584311887779787043e+01) (6, -3.58219218049969398976e+01) (5, 1.69458991579536011329e+01) (39, -1.93816369917248039201e+01) (24, 1.50000000000000000000e+03) (61, 2.95949975331786632182e+01) (70, -1.07849738905586658433e+01) (15, 2.29470588381057574168e+01) (25, -2.45067437504116512059e+01) (48, -1.02419245470760216676e+02) (63, 2.33567847039027967071e+01) (43, -3.11141778758553648743e+01) (57, -4.71930645156731443102e-01) (60, -3.37827538097687778418e+01) (67, -6.14142229246207982385e+00) (6, -4.42854224709009880456e+00) (40, -5.29342979517767204811e+01) (26, -1.50000000000000000000e+03) (50, -1.92865180870608071473e+02) (24, 1.50000000000000000000e+03) (42, 1.60790178328322319601e+01) (61, 1.52786278729113860209e+01) (12, -1.50000000000000000000e+03) (44, -1.50000000000000000000e+03) (16, 1.01008367532091867247e+01) (54, -1.05208931232282566270e+02) (62, -3.98956223127284658858e+02) (33, 4.91238079317386251432e+01) (28, -6.18433382751039246727e+01) (68, 1.50000000000000000000e+03) (7, -2.99020979477610415742e+00) (11, -1.99511679312995759972e+01) (23, 3.29949313884424029197e+01) (47, 4.78157939052584168849e+01) (59, -3.34802036942762182292e+00) (8, -1.21529540544099717181e+02) (5, 9.96694648539495098305e+00) (14, 1.50000000000000000000e+03) (20, -1.55394653215418145464e+02) (13, 1.70899713059663582726e+01) (3, -1.89899556944544158910e+01) (31, 8.62966076486860522721e+00) (70, 2.09835853232484730313e+01) (23, -8.78862329685848564509e+00) (66, 1.40907476961243133928e+02) (29, -9.00521490435345270953e+01) (36, -2.39441612594374291234e+01) (6, 1.37089611606253356513e+01) (49, -5.02470713906105714841e+01) (63, 2.13386916841268252654e+01) (69, 2.82924530413583941169e+00) (50, 1.49796995345107802677e+03) (59, -8.94404664846383035126e+00) (33, 2.66494177132484004744e+01) (19, -3.52671727442473041947e+01) (65, -4.72488384590931715934e+01) (12, 1.50000000000000000000e+03) (54, 3.96356350949823266205e+01) (62, 4.19525732707536178623e+02) (46, -1.53551491947812372985e+01) (44, 5.24129095013168807782e+02) (28, -5.49651136471356949187e+02) (5, 1.86156702617401457189e+01) (56, -1.29902333076643183851e+00) (67, -1.96796506805386872685e+00) (4, 8.15276429289634307906e+00) (24, -1.50000000000000000000e+03) (52, 1.40570488065739169770e+02) (2, 1.50000000000000000000e+03) (25, -7.68352666397211780946e+00) (61, -4.88587353707957845472e+01) (7, -2.14406554477314337248e+01) (8, 1.99412656986358427957e+02) (39, -4.67852214865741800054e+01) (30, 9.90697770274805655788e+00) (17, -5.71671030085151059552e+01) (31, 1.09458891326951679446e+01) (0, 1.50000000000000000000e+03) (70, -3.86580067025013747184e+01) (44, 5.61100774700668125661e+02) (22, -1.50000000000000000000e+03) (3, -3.01786537514585582187e+01) (30, 1.93306372658126193187e+01) (2, 1.50000000000000000000e+03) (63, 2.57306117738485049529e+01) (52, 1.32075403780002972098e+02) (20, -1.74097674083269602363e+01) (55, -3.26191320259266674952e+01) (7, 4.33794309925253163129e+00) (48, 9.25223190453944681622e+01) (56, 7.47652161711868359362e+01) (54, 1.04369230781195643232e+00) (46, -3.86143712254208537615e+01) (58, 7.71452727016159411910e-01) (69, 2.35129751911423561239e+01) (65, -3.14534786804952615213e+00) (11, 3.45702950074285411119e+01) (29, -7.04265873293622348683e+01) (42, -3.54014202789220178147e+00) (40, 4.25540134987224476504e+01) (19, 1.33505659795058004846e+01) (24, -1.50000000000000000000e+03) (8, 1.55596350156906140683e+02) (67, 9.31699019508583248239e+00) (35, -2.71223281351102691872e+01) (33, -6.01808115874805427126e-01) (34, 1.47646756771246828066e+03) (62, 3.87532519053971839185e+02) (5, -2.25341552698464697713e+00) (9, -1.81848176897725233303e+00) (31, -5.51786933593416062394e+00) (28, -5.70809436871136313130e+02) (50, 1.49796995345107802677e+03) (15, -1.07840045144383367415e+01) (70, 1.76937441110977715653e+01) (68, -1.50000000000000000000e+03) (31, -2.04542468012388134468e+01) (64, 1.50000000000000000000e+03) (59, 2.44442256125982133597e+01) (45, 2.50022600621864157233e+01) (34, 1.47646756771246828066e+03) (27, -2.36966544870885229557e+01) (3, 1.97255496982582179122e+00) (26, 1.50000000000000000000e+03) (6, 3.70622641162536154980e+01) (8, 1.37061130725982707190e+02) (67, -3.15199672966709698585e+01) (20, -2.68207894729095670527e+01) (56, 3.94329490060027936238e+01) (18, 1.02603872278249479422e+01) (62, 4.34332798671281636871e+02) (44, 5.44088607366111546071e+02) (32, 5.20574788232917399000e+02) (43, 1.00358560456352670087e+01) (5, -3.23570187496775796276e+00) (12, 1.50000000000000000000e+03) (39, 2.20832279998695355516e+01) (47, 1.37859207094376312597e+01) (55, -2.94077684986136027590e+01) (42, -1.08644278910574829666e+01) (60, 1.37233167325729141339e+02) (37, -3.30584311391770526711e+01) (38, -4.86515391427507495337e+02) (11, 3.15480898762302430782e+00) (23, -4.36781317919733602650e+00) (25, -1.26395875504881889384e+01) (21, 2.68163919095970300077e+01) (30, 1.92205460564009911195e+01) (0, 1.50000000000000000000e+03) (63, 2.89709344186082056183e+01) (70, -2.39295245903452773462e+01) (22, 1.20753733420138860311e+03) (26, -1.50000000000000000000e+03) (2, 1.50000000000000000000e+03) (14, 1.20953359743680880456e+03) (28, 5.52372477982097734639e+02) (40, -1.20490193450720415314e+01) (29, 1.05105311675160573159e+00) (32, -7.95680121983449026857e+01) (35, -5.74534657791180869424e+00) (8, -1.39917495201185921871e+01) (27, 1.69234321034691994612e+01) (46, -1.79161191222086948471e+01) (62, -5.96606743682145719276e+01) (65, -1.50875627296848744407e+01) (16, 2.33837385433178823746e+01) (30, 5.36637480652947029824e+00) (66, 4.97588295658307799840e+02) (49, 1.58506745124155283833e+01) (63, 1.08666358401900779995e+01) (50, -3.06896521178090750936e+01) (47, -1.38856767360088312335e-01) (13, 4.78697597661788165624e+00) (55, 1.20374624486881227625e+01) (5, -2.47422651181146191490e+00) (4, -1.10736742002545831554e+01) (34, -1.49098008858684011102e+03) (67, -2.04934827607928120585e+01) (12, -1.50000000000000000000e+03) (68, 1.50000000000000000000e+03) (24, 1.23341769003402055205e+03) (64, 1.50000000000000000000e+03) (33, 1.79073392334449010832e+01) (18, 5.90475510720323093494e+00) (45, 2.09485460272015622252e+01) (20, 8.96201672795808512717e+00) (70, 3.33428277857095380909e+01) (10, 6.60797036307601160843e+02) (24, -1.50000000000000000000e+03) (56, 9.63855868522478331784e+00) (63, -6.36719368461937107462e-01) (69, -2.26763714556650297638e+00) (51, 1.79686788469150862113e+01) (6, 8.86588063999545994420e+00) (55, 1.71438886335260876059e+00) (46, -8.43384668414183025220e-01) (33, 2.45968058821339852216e+01) (67, -8.36654726494545819548e+00) (27, -6.97190054774390244319e+00) (3, 2.37094488031586116961e+01) (41, -1.44308052333267848866e+01) (7, 4.15520647903076252305e+01) (9, -1.70298958677189666844e+01) (16, -1.56972649631271501391e+01) (30, -1.57818384014444923480e+00) (13, 3.33735316227666345412e+01) (17, -4.71212884943549497052e+01) (25, 2.55859363983125263076e+01) (11, 5.30159845875727064879e+00) (32, 5.18385368009681542389e+02) (4, 2.50686006271247840971e+01) (49, -2.98474705742353840776e+00) (28, -5.25085483624066341690e+02) (20, 1.35376970577678381602e+01) (29, -4.94217652457532068411e+01) (68, -1.50000000000000000000e+03) (40, 2.89642746528973091813e+01) (15, -1.70987749254866159276e+01) (1, 2.37003373987396663836e+01) (54, -1.66393588015020092996e+01) (61, 2.56801492239471826906e+01) (18, 1.30995996862931871618e+01) (70, 1.39251729311197838257e+01) (23, -3.21485020206092571016e+01) (30, -2.38445670866056964599e+01) (29, -1.45635642426650058212e+01) (60, -1.19794944481826036053e+02) (37, -2.14425721447057995306e+01) (8, -1.74054989115230029029e+02) (32, -5.14166320657335177202e+02) (3, -1.74650353132079345642e+01) (15, 1.05318510373040066241e+01) (38, 4.51167824910685624218e+02) (40, 2.43744255591262266591e+01) (12, -1.50000000000000000000e+03) (55, 1.10987707119494096730e+01) (13, -7.43212898799453647314e+00) (20, 5.93497835971419984702e+00) (7, 6.27047972537604980658e+00) (4, -1.84924359280379100312e+01) (28, 2.21580242394974135323e+02) (47, -5.34164535726060929477e+00) (21, -8.28167098433579518257e+00) (22, 1.50000000000000000000e+03) (18, -5.47528338213170329141e+01) (5, 1.03808590478944005042e+01) (36, 2.77232145187808960429e+01) (31, 9.77412837664171973984e+00) (43, 1.91291754168767411670e+01) (33, 2.94547488325707931267e+01) (41, 5.51442994854275436722e+00) (63, 1.19057112518398202639e+01) (65, -9.70898329599203258056e+00) (9, -5.19099498024865280144e+00) (62, -4.26324667570033113861e+02) (42, 1.20555124798027648581e+01) (27, 3.06104019160806961608e+00) (6, -1.77572885353976843703e+01) (70, 2.76015401400815250099e+01) (1, 2.12644198185279881264e-01) (37, 3.43379898915269450299e+01) (52, 1.57998478979130510425e+02) (18, 1.99209383398576989066e+01) (5, 5.55507186213015557996e+00) (40, 2.91699822029461408590e+01) (57, -7.78214729570337659936e+00) (30, 1.24233663574569188626e+01) (39, -1.20971732907938775980e+01) (10, 6.40853156941680367709e+02) (35, 4.36381475724435574648e+00) (36, -3.85306046858594157811e+01) (59, 2.06327969885427542351e+01) (16, 6.82575387384795728707e+00) (60, 1.39411853467696971620e+02) (46, 1.59457357209484640315e+00) (7, -2.56893781059344439299e+00) (24, -1.50000000000000000000e+03) (56, -2.31144607621857456348e-01) (31, -7.33543374631056721569e+00) (64, 1.50000000000000000000e+03) (48, 3.79727308419644842274e+01) (29, -4.67514329094575415979e+01) (23, 8.83968016278918078399e-01) (69, 3.87998894946386618798e+00) (68, -1.50000000000000000000e+03) (20, 3.83177697468241191814e+01) (27, 9.93303004384080523437e+00) (4, 1.64077295982245772166e+01) (44, 5.69508077557113438161e+02) (62, 3.91487269115007336495e+02) (19, 5.60939152004826180331e+00) (26, 1.50000000000000000000e+03) (21, 3.94045595613192531914e+01) (50, 1.49796995345107802677e+03) (70, 7.50994788309457650399e+00) (50, 2.10156749296007454575e+01) (47, -1.04876517878277262241e+01) (33, 2.06268739723084948423e+00) (17, 5.86956507039400499082e+00) (58, -3.10340140782964333255e+01) (43, -1.52248486861885563570e+01) (54, -7.64213780352012150843e+00) (37, -1.95855209353659276417e+01) (0, 1.50000000000000000000e+03) (20, 7.67911851259795685820e+00) (46, 2.93298838361605298530e+01) (38, 1.63459668088919265472e+01) (42, 7.35446501630714077891e+00) (68, -1.50000000000000000000e+03) (29, -6.00579714522867469384e+00) (40, 1.83031743924003968971e+01) (36, 1.17471851010480836663e+01) (16, -7.71541596764193760016e-01) (64, 1.50000000000000000000e+03) (28, 3.96555868978468151198e+00) (1, -1.83376292119384842749e+01) (18, 9.28748573403346533439e+00) (35, -3.18932514822908430574e+01) (13, -1.07167128646106775136e+01) (60, -5.10531403499704339310e+00) (69, -2.91066457208185482841e+01) (31, 2.17733492791194223059e+01) (2, 1.50000000000000000000e+03) (59, -9.16920528284038560685e+00) (27, 1.97860961583473127234e+01) (56, -1.74958839260816780836e+01) (57, 4.82945896233563143340e+00) (6, 3.02226367415685395201e+01) (34, 6.00524172423455638636e+02) (4, 5.05866524809649664718e+00) (70, 6.62969288151452951219e-01) (34, -1.48043287302614294276e+03) (38, -6.77972831861488511862e+00) (29, 2.43638593069834534788e+01) (15, -1.73261717212056787218e+01) (30, 1.86011408010380669964e+01) (59, 2.01030853049326942994e+01) (10, -4.34274633017956489311e+02) (28, 6.03074131971909466188e+01) (37, 7.92557145765531156911e+00) (39, 8.98434458205023767086e-01) (61, -1.38231919812650652091e+01) (63, 2.57374529108317728898e+00) (9, 2.07556863424722948253e+01) (3, -2.33956218988504822676e+01) (57, 8.62462157565181541941e+00) (64, 1.50000000000000000000e+03) (55, 2.09073156576261709461e+01) (53, 1.77306727797092449350e+01) (31, 1.70855445939224925844e+00) (65, -1.40976759225908718776e+01) (22, 1.50000000000000000000e+03) (21, -7.91813638446795670101e-03) (46, -2.32970626048985600676e+01) (40, -7.32631259510391004142e+01) (69, 1.97960350399970437252e+01) (32, -2.22212513457431697361e+01) (51, -1.10159413846227653977e+01) (18, -6.76460278726199870647e+00) (56, -1.33601621765130929020e+01) (45, -4.18446950447108534377e+00) (36, 2.16646645581742874898e-01) (33, -5.46271507481702389697e+00) (54, -1.48099705327550834610e+00) (68, 1.50000000000000000000e+03) (67, -5.71480634887031713198e-01) (70, 3.43116681673877792491e+01) (26, -2.13868074033769381970e+01) (68, 1.50000000000000000000e+03) (47, -2.40008751885581901320e+01) (49, -2.97025481272647908781e+01) (48, -9.19925570603441045137e+00) (4, -1.35748766162461322438e+02) (15, -2.77053769440433619309e+01) (52, 1.34937625960188842811e+01) (40, -2.66801053295529619902e+01) (21, -9.50690048773404683402e+00) (7, 1.77046349647704452934e+01) (50, 3.50808460147561262943e+01) (65, -1.43089972945589405384e+00) (25, 2.04818304497913104001e+01) (34, -2.80930680825950105373e+01) (5, 2.74061612752620220590e+01) (42, 1.50000000000000000000e+03) (20, -6.98992263139047054210e+01) (57, -1.90207847221885870681e+01) (19, -2.31796245969613607940e+01) (16, 2.86168501482194642449e+02) (28, 1.50000000000000000000e+03) (23, -9.49328161367086842404e+00) (45, 1.85266030934353032045e+00) (38, 4.48957353694381197329e+02) (0, 1.50000000000000000000e+03) (12, -1.50000000000000000000e+03) (30, 4.48902696803347822652e+01) (41, -2.22325827402534912380e+01) (1, -2.91963236233848810741e+01) (44, 8.52521851605133633711e+02) (9, 8.31658139443464428098e+00) (27, -4.89412156847355817035e+01) (62, -4.24619673368372957611e+02) (69, 3.49557175131674071622e+01) (70, 1.49877061332086625178e+00) (10, -6.38070012051500384587e+02) (64, 1.50000000000000000000e+03) (4, 6.88387398072857870091e-01) (36, 6.05959190510319345435e+00) (50, 2.68776038845540128364e+01) (32, -5.39286833207063068585e+02) (37, -1.73498081487434028247e+01) (49, -6.92395036046028700127e-01) (43, 1.63393347658095566821e+00) (11, 6.08778698030683784737e+00) (46, 3.18538130211190875229e+01) (57, -2.20287121188533419058e+01) (41, 5.04269569429493902391e+00) (33, 7.74912907743877088507e+00) (16, 3.71137011900068713999e+01) (55, 2.16483551294106106866e+01) (58, 2.68603897931644269192e+02) (18, -2.01897957073987264209e+01) (30, -1.25264385305715080676e+02) (3, -1.20755138209966101925e+01) (15, -1.52108703654661816529e+01) (47, 1.07532740725942304039e+01) (61, 3.54577889944784203635e+01) (52, 1.34046268919019695431e+01) (69, 1.58987238546393019334e+01) (67, -2.58191063880683451259e+01) (2, 1.50000000000000000000e+03) (62, -4.04558748361507412028e+02) (65, 1.32852182575556359012e+01) (28, -1.94414842998341619307e+01) (12, -1.50000000000000000000e+03) (22, 1.50000000000000000000e+03) (42, 4.46361720913499908647e+01) (40, -6.33962177928626786638e+01) (31, 2.73024100480318487882e+01) (70, 2.66414458026790024192e+00) (12, -1.23710053892968676337e+03) (64, 1.50000000000000000000e+03) (14, 1.50000000000000000000e+03) (32, -3.84754765340312872013e+01) (57, 1.72009126523719274582e-01) (53, -4.79286405401069828258e+01) (23, -1.50721915822373055960e+01) (47, 9.15534053382752688321e+00) (68, 1.50000000000000000000e+03) (50, -8.56520202360362148397e+00) (28, -4.92375550245691897544e+01) (33, 2.49671687826569055346e+01) (4, 1.44274486536127071190e+01) (25, -2.29500470771422904193e+01) (37, -3.25517303629457614988e+01) (52, -2.25073545455099157664e+01) (60, -9.48130526265926221186e+00) (45, -2.06688098567813849371e+00) (30, -3.11235421112613828143e+01) (2, 1.50000000000000000000e+03) (48, -1.82436255311109789545e+01) (54, -4.98638334988198117514e+00) (41, -1.16755496584236340141e+01) (36, -8.90539276914558399767e+01) (40, -7.85188035144989555647e+01) (24, 1.21818629550529544758e+03) (5, 1.15258075088861939861e+01) (22, 1.50000000000000000000e+03) (66, 1.49944256491343139714e+03) (9, 2.38555995611020463798e+01) (15, -4.47440575890053526820e+00) (29, 3.49404428125194783661e+01) (43, 1.82596271038103097339e+01) (27, -1.04940180606631265903e+01) (51, 1.85427223114734438525e+01) (70, 1.45529554381645915839e+01) (21, -1.29601528349228374282e+01) (11, 3.76231252412193573065e+00) (57, -2.17513348260094474540e+01) (41, -2.00185388453917205709e+01) (10, 1.13974728606656935881e+03) (22, -1.50000000000000000000e+03) (8, 1.77820825113339367363e+02) (39, -1.81337560608823906705e+01) (5, -1.01179841092513775891e+01) (63, 1.41456478336751327873e+01) (15, -3.32067775451356927974e+00) (50, 2.51015361845949939834e+02) (52, 3.18816346687550094430e+02) (1, 7.43397359993725270755e+00) (13, 9.83833835291913239018e+00) (14, -1.50000000000000000000e+03) (46, -3.99513291294721511804e+02) (34, -3.82404548738863603319e+00) (42, -2.06777508913834644488e+01) (23, 3.84845184655473504520e+00) (12, 1.50000000000000000000e+03) (48, 1.57447512238517361993e+02) (51, -2.51548935521000993631e+00) (66, 1.40907476961243133928e+02) (36, -3.26901611368085625031e+01) (40, -3.30224167290917876016e+01) (67, -8.78759021613228341607e+00) (54, -2.45795330702191527905e+01) (24, -1.50000000000000000000e+03) (44, 1.45164047245737447156e+03) (25, -1.48101850708244526800e+01) (35, -2.25795858232346837724e+01) (18, 3.42228834272003501482e+00) (61, -9.74100853315456483017e+00) (37, 5.06437349858434693317e-01) (70, 1.37538216451674299989e+00) (17, 1.52593720406178849913e+01) (66, 1.40907476961243133928e+02) (38, -6.95682196507430994359e+00) (55, 4.03445636667008322718e+00) (63, 5.52240678018191655241e+00) (36, -1.45523938606032725573e+01) (34, -2.03885799225790123046e+01) (21, 5.11881287768220283318e-01) (22, -1.50000000000000000000e+03) (45, -6.02073933031754737755e+00) (29, -1.11151708298088003346e+01) (5, 1.74939899418259585673e+01) (0, 1.50000000000000000000e+03) (50, 3.28204489619841233150e+00) (68, -1.50000000000000000000e+03) (59, -4.71396592200504915837e+00) (57, 2.08569002487435684046e+00) (64, 1.50000000000000000000e+03) (40, 1.51559943282024143230e+01) (65, 6.99465916494391937164e+00) (19, -2.33272502525968974396e+01) (16, -1.09449282634914286660e+01) (37, -1.60147184078521886974e+00) (58, -2.48409006929556397836e+02) (33, -3.15194994050623229498e+01) (15, -1.59676529715498585205e+01) (20, 2.88515680611249422327e+02) (30, 3.83637169447609949202e+01) (56, 2.47207169414321299428e+01) (12, 1.50000000000000000000e+03) (9, -1.69805570661874725147e+01) (42, -1.50000000000000000000e+03) (4, -3.02440241738922601655e+01) (67, -1.90804609384407863892e+00) (62, 5.88869673795635208080e+02) (70, 6.04450263589394509722e+00) (53, -2.93849874198419191984e+00) (25, -1.04711827390059823983e+01) (23, -1.51319925357941951205e+01) (16, 9.48000186530572719334e+00) (5, -7.02506929291732440390e+00) (12, -1.50000000000000000000e+03) (18, -2.17751195164383792857e+00) (8, -1.60142681375972159685e+02) (33, 1.43904422005439815990e+01) (30, -1.03495643963619645689e+01) (65, -1.54823957481987939389e+01) (15, 1.88777808697250861769e+01) (58, 1.73954026442944282849e+01) (64, 1.50000000000000000000e+03) (67, 2.35006910301768172644e+01) (36, 7.74714821784462603915e-01) (46, -1.14892356723971058585e+01) (4, -4.73117623287946997834e+01) (57, -4.47270809685180523729e+01) (14, 1.50000000000000000000e+03) (38, 5.04528409169718599969e+02) (40, -1.82919849727291605745e+01) (1, 1.60640834769573288554e+01) (41, 5.50246790571842296913e+01) (35, 1.01052164351530819886e+01) (13, -1.08192908288799838346e+01) (69, 3.16900296360800624029e+01) (51, 7.35949607163758834361e+00) (39, -1.15900190086506338361e+00) (48, -2.79781086492737856020e+01) (66, 1.49944256491343139714e+03) (42, 1.08965828982736367969e+00) (19, 1.80528282132728801201e+00) (29, 4.15386538117315282648e+01) (55, 2.37301245124032655909e+00) (70, 2.06398435301595810643e+01) (34, -1.42408998668076401373e+03) (8, -8.06515907729528152004e+01) (19, -1.17801937742653866081e+01) (42, -9.23319888435372959634e+00) (17, 2.50131055943768494387e+01) (51, 4.17302006008181791685e+00) (41, -4.84523402035509054286e+00) (68, 1.50000000000000000000e+03) (4, -1.64388620902394308132e+02) (35, 1.54449837205268742935e+01) (25, -1.84579252570287017932e+01) (48, -4.09865920570998909511e+01) (53, -1.62499194855400652671e+01) (21, -2.05612176557551400435e+01) (49, -1.10862181147192035979e+01) (20, -9.68936457645314774823e+00) (52, -1.22130032807153565955e+03) (5, -2.91368232550505972256e+01) (10, -1.78262311345290328291e+02) (28, 1.59551317379434962618e+01) (54, 8.66371101748537597587e+00) (3, 4.85032326648853739925e+00) (66, 1.49944256491343139714e+03) (33, 7.93119075461327760479e+00) (7, -9.63651750096315495853e+00) (32, -5.11188134796666417969e+02) (57, -2.11110566955639313846e+01) (62, 5.34184731451875816077e+00) (38, -2.71737493628419235492e+00) (11, -3.66381442473569975959e+01) (12, -1.50000000000000000000e+03) (50, 3.33410556769274890598e+01) (16, -1.15601496491953597001e+01) (1, -1.99213499360269423732e+01) (61, -1.93614326188702250420e+01) (70, -2.24211455618504906795e+01) (11, 1.03014785023373587336e+01) (64, 1.50000000000000000000e+03) (19, 1.11497319015032552159e+01) (8, 8.79262779404248107085e+01) (2, 1.50000000000000000000e+03) (44, 9.22638664961793097063e+02) (4, 7.50948788480559699110e+01) (61, 8.23905517492409522617e+00) (18, 2.28553419431185602662e+01) (37, 1.06376546784033738646e+01) (6, 3.43467666190230502821e+01) (23, 2.09967509736482398353e+01) (65, 2.27737377847071265080e+01) (46, 3.50673473229066487988e+01) (9, 1.17305093358419174621e+01) (38, 3.48356644931356882466e+01) (5, -1.71882613713607099726e+01) (31, 1.45446595863867322862e+01) (42, -3.72416884926416047463e+00) (25, 6.74297999558419913768e+00) (55, 4.79749851939043470139e+00) (10, 8.03612211568609154710e+02) (45, -3.32146829676671773157e+00) (21, 1.38025536751740691699e+01) (58, 2.34081231553843451820e+01) (30, 3.99230347594882744033e+01) (50, 1.74111481323341024563e+02) (52, 1.00455069094360865734e+02) (63, -7.82592153181503213943e+00) (17, 1.95466140079003158903e+00) (48, 1.32525101600611333197e+03) (28, -8.13245133109398921079e+01) (14, -1.50000000000000000000e+03) (60, 1.84808489599420141758e+02) (7, -4.17856867844873303142e+00) (70, 5.60454220584133633309e+00) (49, -2.41613589507480988061e+01) (39, 1.38804437819059103276e+01) (65, -5.40004830548068515128e+00) (60, 1.32321393213020940038e+02) (45, -7.47400530437272947459e-01) (38, -1.28993398754931494210e+01) (55, 2.19982601901047161164e+01) (6, -3.56140578778915468661e+01) (50, 7.24053134536034370683e+00) (8, -6.03595069178323555548e+01) (23, 5.21232409831266423339e+01) (33, 2.60110419945219906168e+00) (13, -8.50720513831891267387e+00) (9, -2.15226868680996474836e+01) (5, -4.57977011885520113310e+01) (1, -9.80918412396199279613e+00) (30, -1.48720683009696337251e+01) (40, -4.55505489231605338318e+01) (35, 8.77672191531385870178e+00) (43, -3.06025308588035862556e+01) (64, 1.50000000000000000000e+03) (37, 1.04522055790205889991e+01) (61, -9.18927186218468605716e+00) (14, -1.22863764561478819815e+03) (20, 3.01652804887827592495e+01) (22, -1.50000000000000000000e+03) (54, 2.76948907914788975404e+01) (59, 8.48233960069521231162e+00) (53, 3.46601560758946334317e+01) (25, -6.90584510604509027587e+00) (0, 1.50000000000000000000e+03) (46, -3.24009584970050411812e+02) (12, 1.50000000000000000000e+03) (34, 1.50000000000000000000e+03) (11, 2.54101753823193696746e+01) (70, -2.24101970208551826147e+01) (14, -1.50000000000000000000e+03) (37, -1.04105260405106836430e+01) (17, 2.36960335702891740084e+01) (11, 7.99908071048696101002e+00) (59, -3.59744813470991928739e+01) (25, 1.59315986685348303098e+01) (49, -5.30343134728967680047e+00) (15, -3.23644989606301720642e+01) (57, 1.58625923966638477935e+01) (38, -4.87920538026323413305e+02) (1, -3.70220136770141161620e+00) (19, 3.03922339993831123195e+01) (31, -9.34036261057983807632e+00) (5, -6.17926078305070514141e-01) (16, -1.31355433994448258517e+01) (63, -9.44282461956125374059e+00) (21, 2.02717075639311943291e+01) (46, -1.29770020695370966735e+01) (29, -1.17408665881608257564e+02) (62, 4.39953797053849655185e+02) (67, 1.19107245860773467427e+01) (35, 1.09194541161408178453e+01) (39, 2.52046010628759624694e+01) (44, 5.64155664379623203786e+02) (18, -4.54040269566176348803e+01) (12, 1.50000000000000000000e+03) (65, -6.60938859113518972777e+00) (64, 1.50000000000000000000e+03) (22, -1.50000000000000000000e+03) (51, -3.79333544191265872314e+01) (24, -1.50000000000000000000e+03) (27, 1.97163739884107194200e+01) (20, -4.51799990649607607907e+00) (55, -5.65503601130174526901e+00) (42, 8.90446022316054275336e+00) (70, 1.90169096417743936911e+01) (31, -1.23215013875709389346e+00) (10, 1.93927362359649322343e+02) (21, -8.95131238306548482342e+00) (4, -1.15295754298122901105e+01) (69, -2.28641504953477969764e+01) (6, -3.27521561391722881851e+00) (65, -7.34456201120978047214e+00) (42, -6.23565975879077072364e+00) (43, 4.16093849733732423779e-01) (68, -1.50000000000000000000e+03) (17, 7.91905236476494511777e+00) (35, -2.37487784850466177033e+01) (55, -1.63225116482034913190e+01) (13, -3.56956749377758839614e+01) (41, 7.15838760604837265333e+00) (18, 3.80401360076607147676e+02) (27, -2.91854997343867506032e+00) (37, -1.34492392505245716983e+00) (30, -9.14009544484966696132e+00) (12, 1.50000000000000000000e+03) (45, 1.14283889924117900705e+01) (20, 4.70345330103057506221e+01) (54, -8.23196448944344751908e+01) (11, -3.74633986465209147809e+01) (1, 5.30451757463234363499e-01) (52, -4.89055457867971199448e+00) (22, -1.50000000000000000000e+03) (63, -1.59088308477755582260e+01) (7, 1.26378413499098414263e+01) (44, 2.85483357135758133438e+01) (26, 4.05916791948624506858e+02) (56, 5.40814971314706927075e+00) (48, 1.44338164313714537457e+03) (25, 1.72427611160131348811e+01) (51, 4.08894107447275434453e+00) (70, -4.86057857140279647723e+00) (61, -1.94041016580329213070e+01) (64, 1.50000000000000000000e+03) (20, 1.63584964085064896722e+01) (30, -4.83162374340367151149e+00) (15, 1.32429844687159601335e+01) (51, -1.48595892042295414370e+01) (46, -1.90812119694395327940e+01) (3, 1.66684245719056995938e+01) (32, 5.23041439195747329904e+02) (29, -1.14094973788712749752e+02) (25, 2.36095989654511981826e+01) (10, 6.57313299911765739125e+02) (33, -2.46466653052508011257e+00) (45, 7.90956379265809150780e+00) (56, 6.01700299376665768136e+01) (68, -1.50000000000000000000e+03) (19, 8.69324357273708159255e+00) (43, -8.08652521169006099910e+00) (40, 3.32193520149578986889e+01) (34, 1.47646756771246828066e+03) (16, 5.71686810877228168692e+00) (9, -1.01276121991976850722e+01) (18, -5.06614890989817556743e+00) (22, -1.50000000000000000000e+03) (21, -2.12941003355331481828e+01) (23, -2.49929995175653090200e+01) (60, 9.57141415231175471945e+01) (36, -2.78270490997085175877e+01) (6, 5.06586872653625164276e+01) (55, -1.64211845237945439635e+01) (37, -2.40707721588366965193e+01) (7, -2.06951510684589727873e+01) (62, 4.04971966456926281808e+02) (31, 1.14167057449388202883e+01) (53, 4.97963273577078524568e+00) (70, -3.74604522261727339583e+01) (46, 7.46147819837461767634e+00) (37, 4.51251788213052904553e+01) (12, 4.17772659903538681192e+02) (49, -1.81226973163383711096e+01) (2, 1.50000000000000000000e+03) (28, -1.26313162971731856032e+01) (13, -2.96368416808149888197e+01) (34, 4.87827818863746376365e+00) (58, 1.06144732260306167149e+01) (5, -2.79581263210596659974e+01) (44, -2.45698294780471329091e+01) (52, 1.70043515825027583332e+02) (67, 1.50666004979255530039e+00) (45, 2.98819975497612411175e+01) (30, -8.15840442942303312179e+00) (3, 1.33949554886682751231e+01) (26, 1.18785220837713563924e+03) (14, -1.50000000000000000000e+03) (53, -2.97089172644742269824e+01) (56, -5.14624538645580997809e+00) (8, -2.10131513508378731103e+01) (65, 2.07314842667403489429e+01) (7, 1.24844289229543878861e+01) (62, 1.80302985355520846156e+01) (40, -1.08880239716928866045e+01) (22, -1.53912385972927523881e+02) (10, 4.51100261757505194282e+01) (61, -1.31373968463735515400e+01) (66, 1.40907476961243133928e+02) (51, -1.64865440391800923692e+01) (42, -1.82550893098881488186e+01) (25, 2.61330910376495815228e+01) (23, 2.66753070467813468980e+00) (54, 1.05718524930955748431e+01) (35, 2.07017766971361822925e+01) (70, 1.61137281410212906962e+01) (39, 2.56397419447577554763e+01) (35, -5.11504253196312230756e+00) (31, 5.06177854966209128662e+00) (48, -7.75157236661972888214e+02) (33, -1.87591953648742340022e+01) (20, -1.86121920854439326654e+00) (30, 2.40656622878558223988e+01) (12, -1.50000000000000000000e+03) (56, 2.15399733369773286995e+02) (9, -1.75765041205981624728e+01) (34, -1.50000000000000000000e+03) (15, -1.86265288994377620213e+01) (3, 4.67941484375030647413e+00) (57, -2.82551161564938055903e+01) (50, -4.02651282158606207418e+01) (21, -1.83332474302808883238e+01) (0, 1.50000000000000000000e+03) (37, 3.10762634851994334895e+01) (65, 4.78115917724954486712e-01) (40, 1.88055132771265185454e+01) (61, -1.14748447779962536863e+00) (62, 1.30844926965696384258e+01) (49, 1.08420065524035322824e+01) (36, -9.48662418464429833875e+02) (67, -2.20824403655452918827e+01) (54, -1.32047445005170160925e+01) (53, 9.95201987966151868648e+00) (58, -2.48654334573736441882e+01) (38, -7.73432550226247030878e+01) (24, 1.50000000000000000000e+03) (68, 1.50000000000000000000e+03) (11, 1.49299164846268794804e+01) (60, -1.80758238101540598564e+02) (43, 1.35577718854479627453e+01) (23, -3.45995939898396613899e+01) (70, 2.85584802348879307488e+01) (60, 1.02420975362533965836e+02) (35, 3.23125473531762068546e+01) (21, 9.14035219818926947255e+00) (66, 1.40907476961243133928e+02) (18, 7.82994851174794082027e+00) (43, 1.25737349888104272821e+01) (49, 2.74797142691749876064e+01) (38, -3.16543418501750579708e+02) (27, 8.12360256694001492406e+00) (40, -2.32200311809877257829e+00) (51, -2.27895666212245622262e+01) (7, 1.69409032684838734006e+00) (67, -1.64550167868944825500e+01) (37, 7.75778478541331195650e-01) (41, -2.73174622377703757437e+00) (5, 2.69631163787534404719e+01) (22, -1.50000000000000000000e+03) (25, 4.38020262222172984679e+00) (12, 1.50000000000000000000e+03) (36, -2.98960875229655229646e+01) (44, 5.49423575813796787770e+02) (8, 1.86110254490020480489e+02) (42, -2.37976319475545494697e+01) (53, 8.23313298286710448792e+00) (23, -2.03608384635719765754e+01) (28, -5.42670924259748403529e+02) (33, -6.90249710252478632100e+00) (19, -9.44128601786968779663e+00) (9, 1.47713164430752641465e+01) (10, 6.40178224461821969271e+02) (61, 8.32090551957770685476e+00) (17, -1.78375017206749113541e+01) (55, -3.21250295479008514121e+01) (30, -1.00537363990432844219e+01) (34, 1.47646756771246828066e+03) (70, 6.19284745198355324192e+00) (59, -5.00877910606814538141e+01) (8, -5.40948095736421521451e+01) (37, 4.01510514978062786895e+01) (41, -4.48777684750317789053e+01) (57, 1.15381820095452987118e+01) (68, -1.50000000000000000000e+03) (14, -1.50000000000000000000e+03) (26, 1.49987128324260947920e+03) (28, 7.01106361798700277177e+01) (35, -1.93115982938930059731e+01) (9, -1.77102220919638297936e+00) (1, 2.40059249017816007665e+01) (23, -1.95797120888232036862e+01) (30, 8.01187130241152374310e+01) (10, 1.16759789107526856355e+02) (18, 2.29487055234942225468e+01) (13, 2.03271671449317921088e+01) (60, 5.51331806840576366113e+00) (11, 4.39502360484578389332e+01) (51, -4.35161129654696949842e+01) (55, -4.07988108983412729458e+01) (44, 3.87769594127233290237e+01) (7, -3.95008976733701633322e+00) (25, 1.13275722674210643781e+00) (24, -1.50000000000000000000e+03) (0, 1.50000000000000000000e+03) (4, -4.27618549648094656845e+01) (39, 3.95475324915022525829e+01) (45, -4.15946919890166313394e+01) (63, 2.32218423717574538045e+01) (66, 1.40907476961243133928e+02) (6, 8.81686510595696049108e+00) (32, 4.20960050999838927055e+02) (15, -1.74420096481250510578e+01) (54, 2.35877004976279147641e+00) (70, 3.82412757920039183546e+01) (27, -1.10454493415351713281e+01) (67, -1.03513132555382618705e+01) (4, 1.19569670879248679540e+01) (29, -2.66296795614717964895e+01) (36, 1.54133495186733497917e+01) (47, 7.53566817609542827228e+00) (49, 1.96409108905317753013e+00) (51, 7.14766730364261437813e+00) (19, 5.34211427929508797519e+00) (68, -1.50000000000000000000e+03) (10, 6.61058021920470423538e+02) (8, 1.31418695652130139706e+02) (55, -2.42426404793000038751e+01) (35, 4.31288953595906754401e+00) (13, -2.20928761531166841792e+01) (28, -5.53162439806785187102e+02) (56, 2.80659376352030491830e+01) (32, 5.01838065425161062194e+02) (33, -1.30357406987640747076e+01) (15, 2.24667300837094217059e+01) (6, 3.85315462665221630800e+01) (45, 3.96035006020777213820e+00) (12, 1.50000000000000000000e+03) (21, -3.49939256041647928086e+00) (39, 2.31850509362248011769e+01) (42, 1.59593775586708055414e+01) (50, 1.49796995345107802677e+03) (58, -5.96079844028124394839e+00) (5, 4.71904628239379272947e-02) (37, -2.78857962171990223510e+01) (7, -2.81889049341950084226e+01) (1, 3.61087875412714964796e+01) (18, 2.64893568426653160941e+01) (38, -4.94161481935014819555e+02) (3, 4.00855064856648724003e+00) (70, 8.69170977240095687932e+00) (47, -9.83934241519688690403e+00) (63, -1.69745115559453232379e+01) (26, 1.50000000000000000000e+03) (2, 1.50000000000000000000e+03) (31, -7.33213166878533684212e+00) (18, -1.20522324201387700526e+01) (60, 9.84032102025364565634e+01) (25, 3.27936004282278901201e+01) (9, -1.14624193143276831286e+00) (6, 1.11965251907479892424e+01) (28, -9.50891025673314402411e+02) (35, 4.51118609140484050357e+00) (29, -2.42311849785463317986e+00) (64, 1.50000000000000000000e+03) (49, -3.65337940923418669215e+00) (5, 2.68114258174526511880e+01) (50, 1.49748396708791733545e+03) (69, 4.19569745098796786920e+00) (10, 6.59062348740844186068e+02) (14, -1.50000000000000000000e+03) (15, 2.93890427424598392747e+01) (38, -3.03602613305941758881e+02) (34, 1.48111159777707257490e+03) (30, 2.27313461433261601030e+01) (37, -5.12259647837327913855e-01) (41, -4.55154129645289415862e+01) (27, -8.60081873520742501427e-01) (22, -1.50000000000000000000e+03) (56, 1.41195943815002095789e+02) (32, 4.86960564575829550904e+02) (4, 2.48773536407355884137e+01) (8, 1.51314133846405042050e+02) (24, -1.50000000000000000000e+03) (39, 1.63644667935361489697e+01) (57, -5.35867195807540852570e+00) (70, 2.77342129207031042881e+01) (24, -1.50000000000000000000e+03) (49, -4.15355215682882246142e+01) (45, -1.92037331014367964599e+01) (14, -1.50000000000000000000e+03) (19, 2.25713530278448999411e+01) (10, 6.41973192113189156771e+02) (60, 1.14296427457546684536e+02) (26, 1.50000000000000000000e+03) (29, -2.38617241421186747630e+01) (35, 1.63254661769607878341e+01) (57, 5.53492323414595688291e+00) (23, -1.63151511723013307176e+01) (51, -8.14777670804436482399e+00) (20, 1.65447375584088263167e+01) (67, 2.35055593437449097394e+01) (0, 1.50000000000000000000e+03) (12, 1.50000000000000000000e+03) (47, 1.33369451446047335708e+01) (1, 1.55771975282800334561e+00) (27, -1.19023621116676849852e+01) (25, 2.70546033788686344224e+01) (54, 1.28340918592035198031e+01) (64, 1.50000000000000000000e+03) (28, -5.60715227676953531954e+02) (61, 1.04561444784669035357e+01) (8, 1.62955547535064937392e+02) (52, 1.45188939184208464894e+02) (3, -2.16876620792968957119e+01) (32, 4.89771154382569363861e+02) (7, 2.64551824780898714451e+00) (39, -1.24058198681711608913e+01) (43, -2.06102166714787565782e-01) (56, 3.36883085886659401353e+01) (16, -1.12395792577362496623e+00) (65, -3.80408425565657593026e+00) (70, 8.80992003573631343727e+00) (35, 2.59775143099232934674e+01) (22, -1.50000000000000000000e+03) (10, 6.43063618690866519501e+02) (68, -1.50000000000000000000e+03) (57, -6.40290902777797299450e+00) (47, 5.57407319355984043341e+00) (36, -6.70473392678893560515e+01) (28, -3.95619209739330059961e+01) (42, 6.17087599520643426132e+00) (53, 6.77451261168353546793e+00) (17, -2.02576391086764999727e+01) (9, 6.95972347573723393310e+00) (66, 1.40907476961243133928e+02) (67, -2.26666236404318439668e+01) (62, 4.03469163949287235482e+02) (63, -1.66282568789133229359e+01) (8, 1.04588960998545545067e+02) (65, -2.29766743551338592511e+01) (31, -2.82210127746067875876e+01) (1, -2.72969906698311248761e+01) (56, 4.78030132852037183966e+02) (41, 2.96538445008186446472e+00) (40, 7.54645392974612718717e+01) (50, 2.15512308124472191651e+01) (48, -5.80062792122109982529e+00) (46, 1.07154759824672464674e+03) (21, 6.30918942875620025745e+00) (14, -1.50000000000000000000e+03) (4, 2.76668316247253116558e+01) (12, 1.50000000000000000000e+03) (34, 2.19242015375820187728e+02) (44, -1.50641602916827082481e+02) (38, -1.41937586039399729998e+03) (13, -1.01988649200045280452e+01) (5, 1.23136837518112667311e+01) (70, 4.27179854837674000123e+00) (16, 6.72673578289452791523e+01) (40, 5.26851334907376198657e+01) (24, 1.20569087291284427010e+03) (52, 2.48116888301119473681e+01) (45, -2.66547567245603183039e+01) (68, 1.50000000000000000000e+03) (59, -3.62394170081426238994e+01) (20, -7.18529149956518011777e+01) (18, -1.18390695373471203311e+03) (62, -2.15580327717425262790e+02) (23, 1.63492543450123442028e+01) (66, 1.49944256491343139714e+03) (48, 1.62877130310603860153e+02) (0, 1.50000000000000000000e+03) (29, -1.55326231920580468682e+01) (12, -1.50000000000000000000e+03) (27, -3.19174331614455262240e+01) (54, -2.01110722227704954435e+01) (41, 2.12187938526776100900e+01) (43, 1.31057406001710052834e+01) (33, 5.50181463262032188766e+00) (60, 1.50000000000000000000e+03) (64, 1.50000000000000000000e+03) (3, -4.50519997152073248259e+00) (26, 6.02986199973691228138e+01) (1, -2.25713940289857468713e+01) (28, 5.61709563889753269450e+01) (55, 2.33887768124804118486e+00) (9, -1.15713381988238861453e+01) (15, 4.00153408507038221842e+01) (46, 4.24294386417845856840e+01) (69, 4.09894580217961177482e+01) (39, -4.46810399246132838869e+00) (30, 3.14430642529296981991e+01) (51, -3.36095602564693578529e+01) (70, -2.84941044197935191562e+01) (5, 1.56822004894045843315e+01) (54, 2.12895524076044395656e+01) (34, 1.47646756771246828066e+03) (6, 4.06508603855462524734e+00) (9, -1.19677163022860639785e+01) (61, 2.50190360067620005680e+01) (43, -8.46550489461242428035e+00) (64, 1.50000000000000000000e+03) (66, 1.40907476961243133928e+02) (58, -2.35029203274884537223e+01) (57, -9.79313992990129200678e+00) (23, 6.13079551493766405912e+00) (48, 8.11917316583095356464e+01) (53, -3.30976414628726445244e+00) (40, 7.05868065437661016404e+01) (1, -1.02392247780543099722e+00) (16, 2.04593674602737820578e+01) (39, -3.24727062277851175054e+01) (13, -2.97123715449623801987e+01) (8, 1.46809057438018754738e+02) (46, -8.35177318770116450253e+00) (44, 5.61146015102889805348e+02) (47, 7.63493163444249756111e+00) (50, 1.49796995345107802677e+03) (12, 1.50000000000000000000e+03) (63, 9.21179387224082724117e+00) (30, -3.84890909038853656909e+00) (36, -2.79848326080093698920e+01) (62, 3.93499405574357808746e+02) (31, -1.63480475967384819569e+01) (42, 6.58509090705950761446e+00) (68, -1.50000000000000000000e+03) (35, -1.56115535226802233382e+01) (28, -5.49708787275876488820e+02) (24, -1.50000000000000000000e+03) (70, -1.95140202246765213090e+01) (65, -3.41557820044552187255e+01) (62, 4.21844566058671205155e+02) (60, 1.49271657621139411276e+02) (1, -6.50100224219483919796e+01) (39, -2.46859655712891274959e+01) (20, 2.45665762579348445627e+00) (55, 1.12361008517842506649e+01) (13, 7.49828747321734101483e-02) (46, 3.90457696050747316008e+01) (52, 1.24118259849143896645e+02) (6, -3.08810522062866041892e+01) (34, 1.27886456738710489844e+03) (27, -3.12002887895973302079e+01) (12, 1.50000000000000000000e+03) (2, 1.50000000000000000000e+03) (18, 1.30278509378590143797e+01) (53, 1.15089705201741683283e+01) (45, 1.64630811393361931039e+01) (57, 1.59868480793861067468e+01) (22, -1.50000000000000000000e+03) (19, -9.16664072447766642426e+00) (28, 3.38876806920718323113e+01) (50, 1.49796995345107802677e+03) (8, -6.07400632748737567823e+00) (25, 4.51133924496731424370e+01) (23, -9.93706028363727789099e+00) (21, -7.24839486398254440047e+00) (15, 2.36313395139480419971e+01) (17, 2.07494005770348870499e+01) (5, 3.31760762476920803010e+01) (24, -1.50000000000000000000e+03) (26, 1.50000000000000000000e+03) (7, -1.38159525671057692442e+00) (14, -1.50000000000000000000e+03) (38, -4.88740165788164119931e+02) (70, -7.96199788035550026777e-01) (43, -1.12672670692961141015e+01) (44, -4.61516076887815643204e+02) (23, -1.49333952721977762934e+01) (25, -1.73071743321865554321e+01) (45, 1.80439943800574043031e+00) (28, -1.25575382618920876610e+01) (69, -1.41120013119981564387e+01) (26, 1.50000000000000000000e+03) (15, -1.93534703684021813785e+01) (42, -9.57774993808608883228e+01) (47, 2.99082095340073088607e+01) (55, 2.77149027108278858123e+01) (3, -1.18885390951031446605e+01) (38, -7.51169918813568529004e+01) (49, -2.65984779945309632865e+01) (1, -2.23939146536794497777e+00) (68, -1.50000000000000000000e+03) (60, -1.70881482889345221565e+02) (61, -2.74870179654898585397e+01) (4, -6.47944921634179991088e+01) (14, -1.50000000000000000000e+03) (59, -3.71583853743672847258e+01) (52, 3.76984875137028510039e+01) (46, -4.45808554316576355347e+00) (48, -5.88490245348975449247e+01) (36, 9.53063260760990615950e+00) (6, -2.24550525262649429692e+01) (16, -6.15787749712445418027e+01) (22, -1.50000000000000000000e+03) (33, -3.40548218842147036867e+01) (34, 1.47824368791800884537e+03) (29, 5.18323940601288697394e+01) (40, -6.21066632546162367134e+01) (58, -3.15361861441675586093e+01) (19, -2.81513405195424759597e+01) (70, -4.18656814936023451423e+01) (32, 5.23657280107612223219e+02) (62, 4.01637041759050191558e+02) (18, 3.83245981806994890917e+01) (14, -1.50000000000000000000e+03) (4, 3.75239724838142052477e+01) (44, 5.41058750088241595222e+02) (23, 5.23201781821078348855e+00) (42, -6.30499693268586280936e+00) (52, 1.15721497463808915995e+02) (33, -2.44764806797110967551e+00) (40, 4.57333834711385804894e+01) (3, 8.43912712303307266382e+00) (46, -1.07292425510743445471e+01) (12, 1.50000000000000000000e+03) (5, 2.48613620646451742857e+01) (64, 1.50000000000000000000e+03) (54, -3.40672262399652439058e+01) (17, -1.84827784746305745500e+01) (41, 7.01197669246141774835e+00) (59, 4.13932781719403219967e+00) (69, 3.34274744014299196593e+00) (50, 1.49796995345107802677e+03) (21, 2.13428159449826324590e+01) (49, 3.80076732947582707212e+00) (7, -5.72094394983261622656e+00) (67, 2.37647042360732712041e+01) (1, 3.20397521611827613697e+01) (55, 1.89627085843510805319e+01) (61, 5.31160654854643894396e+01) (16, 4.96711980432314081924e+00) (9, -2.99892451392144323563e+01) (15, 1.92394619993389106583e+01) (37, -4.34904981492677649157e+01) (13, 6.88604604137171971701e+00) (27, -2.06796774695749832063e+01) (70, -9.20943480922834623037e-01) (36, 3.34615393660454714109e+01) (20, 7.54569953327621778527e+00) (26, -2.51993045479114982754e+02) (51, -3.27598351879010740717e+00) (66, 1.49944256491343139714e+03) (23, -4.74351651335403872167e+01) (59, 3.03726902704159797963e+01) (13, -4.65914912060117014647e+00) (25, -5.75888053102067321021e+00) (48, -8.20626374762664454465e+01) (17, -2.84513108798043674597e+01) (5, -1.53573922361752117638e+01) (31, -2.97146734530079612568e+01) (56, -3.18885843245883435770e+01) (29, 2.06829185853488475288e+01) (8, -2.03528619066706625063e+02) (28, 1.23765288827525257176e+01) (46, 2.87612746711331851657e+02) (43, 9.40959473990749373229e+00) (32, -1.67361288030595204646e+02) (53, -3.37961837284086570321e+01) (67, 1.16121541384413813347e+01) (14, 1.50000000000000000000e+03) (16, 1.35132989603984938753e+01) (3, 4.37369753699114749423e+00) (42, 1.50000000000000000000e+03) (40, -3.39507510362409163918e+01) (37, 1.10191692752808521050e+01) (7, 2.56314414105176737735e+01) (44, 1.86616617561002925640e+02) (19, 1.56971100117107607019e+01) (47, -2.91949177251556823975e+00) (64, 1.50000000000000000000e+03) (39, -1.73556104387372052145e+01) (11, 3.68779110948728305885e+00) (70, 5.64827858673367710907e+00) (23, 9.97623174251676303470e+00) (24, 1.50000000000000000000e+03) (38, 4.84836331532999963656e+02) (7, -8.84592102978463223906e+00) (26, -1.50000000000000000000e+03) (57, -1.49669386099310628424e+01) (63, 2.00530031628409233235e+01) (28, 5.42066795081254326760e+02) (41, 2.52664195453754444998e+02) (39, 1.32739729179422401018e+01) (2, 1.50000000000000000000e+03) (5, 2.67965933947904950685e+01) (14, 1.50000000000000000000e+03) (0, 1.50000000000000000000e+03) (13, -7.11405541306357580567e-01) (56, -4.09620443916113643468e+01) (50, -1.49791404419360355860e+03) (3, -1.93395129515069790216e+01) (37, 1.64866539631655371068e+02) (4, -2.23716187435896749491e+01) (31, 1.39267096864076407314e+01) (51, -5.45749334718048317860e-01) (65, 7.39152704941067906219e+00) (58, -2.03570139664232456767e+01) (11, -1.39353714695747132879e+01) (45, -9.52479731055074996249e-01) (16, 3.56594752654216264887e+01) (66, 1.49944256491343139714e+03) (10, -6.79090437848009173649e+02) (68, 1.50000000000000000000e+03) (19, 1.57818543864363078910e+01) (44, -5.28698960388941259225e+02) (8, -1.36338401094905208311e+02) (62, -4.33966672536769635826e+02) (22, 1.50000000000000000000e+03) (70, -2.33152788748405122021e+01) (29, 4.50545991221455466302e+00) (69, 8.06949379090330864983e+00) (42, 6.34197021914494296624e+00) (50, -1.26484006135451974018e+01) (39, 3.66261311528439659213e+00) (56, -1.42449696032288045444e+02) (20, -2.01706797663224577377e+01) (53, 3.08965067707902782956e+01) (10, -6.62763321358598773259e+02) (31, 2.03846303040428615816e+01) (43, 1.62490158542378786422e+01) (30, -5.50795926617099738110e+01) (18, 2.09438154239119178612e+00) (3, 8.58911241392006274964e+00) (14, 1.50000000000000000000e+03) (68, 1.50000000000000000000e+03) (13, 2.82579145418875909979e-01) (0, 1.50000000000000000000e+03) (26, -1.50000000000000000000e+03) (7, 2.30475475524929649396e+01) (2, 1.50000000000000000000e+03) (9, 2.59324367857957085448e+01) (48, -4.45675817865740668822e+01) (27, -1.74382369406579726956e+01) (57, 3.01656514795275754182e+01) (40, -5.86909484073145009120e+01) (54, -7.09233986205638355926e+00) (52, -1.49999311677464288550e+03) (22, 1.50000000000000000000e+03) (61, 2.31418371670245655025e+01) (47, -6.92874227979855472626e+00) (16, 1.47462936239865367583e+01) (28, 1.50000000000000000000e+03) (37, 4.29205399849796407352e+01) (64, 1.50000000000000000000e+03) (70, -7.30128062979889413953e+00) (20, 2.21530558513856448144e+01) (58, -1.02564525496809366700e+01) (43, 2.44238474896575965545e+01) (4, -3.39875464718061721214e+02) (8, 2.85550235320387798765e+02) (48, 2.37411307729624958540e+01) (53, -1.21544959404033221517e+01) (10, 3.67007988594066773658e+02) (61, -9.58090101372834368476e+00) (33, 2.41432096678189154204e+01) (24, -1.50000000000000000000e+03) (42, -5.08200181080067210360e+01) (65, -6.88873828665924570203e+00) (64, 1.50000000000000000000e+03) (37, -4.54147934645383077878e+00) (51, -2.01674171086752274107e+01) (25, 2.75142945346889327141e+01) (28, -1.99976844875674544255e+01) (23, -1.97266092086347555323e+01) (12, 1.50000000000000000000e+03) (68, -1.50000000000000000000e+03) (36, 1.10896553127838524233e+03) (66, 1.40907476961243133928e+02) (27, 1.92711878151618449806e+01) (38, -9.30892778313599400519e-01) (39, -2.58913702744688087876e+01) (46, -8.84724159243629628691e+01) (19, -2.79112635886543092312e+00) (55, -2.67064186895569477542e+01) (11, 2.29005751115774236482e+00) (59, 1.76580653992393763474e+01) (47, -1.20338667373250562953e+00) (6, 4.62592963943811241734e+01) (50, -2.32129122885982411617e+02) (67, 7.42313456315963104970e+00) (70, -1.63071357658536042479e+00) (9, 7.41061619930215886853e+00) (53, 1.71305612231792885325e+01) (61, -2.45227026707883677403e+00) (11, 1.49645920175110056505e+01) (47, 2.91046373811277980792e+01) (60, -2.31184348794626615131e+01) (5, 6.55731739472752472864e+00) (25, 2.02326014751206564313e+01) (39, -8.13581285626845662762e+00) (3, -2.90301629250359063406e+01) (20, -2.68890364865429347674e+01) (31, 1.24954200587347852291e+01) (23, -8.55665004475381962834e+00) (51, 1.41496612993461354790e+01) (15, -1.42326855224869568417e+01) (57, -2.72574211090508882194e+01) (64, 1.50000000000000000000e+03) (68, 1.50000000000000000000e+03) (46, 3.41545058582138807424e+01) (65, -1.35091267769623613049e+01) (21, 4.17550890180571627752e+01) (56, -1.90600663757115071917e+01) (2, 1.50000000000000000000e+03) (48, -2.23088263805605322432e+01) (18, -2.30025264896454046948e+01) (55, 4.62676256517085526809e+00) (59, -1.41539669459495875969e+01) (16, -1.57236289627499647992e+01) (28, 1.34462970875808224491e+02) (17, 1.57475591831890699979e+01) (27, -7.14547593910883072077e-01) (33, 9.30684839585012996244e-02) (22, 1.50000000000000000000e+03) (43, 9.15845606407308054919e-01) (19, 7.18968578825778781294e+00) (70, 4.89311383710098279920e+00) (14, -1.50000000000000000000e+03) (47, -1.77312814496886836935e+01) (38, -2.05370733745427145323e+01) (12, 8.50228678937270530014e+01) (42, -1.50000000000000000000e+03) (66, 1.40907476961243133928e+02) (7, -2.94450025069055811855e+01) (60, 2.40506953054371138023e+02) (45, -1.57907042174649809851e+01) (51, -1.60076810438452810104e+01) (64, 1.50000000000000000000e+03) (61, 5.33948615558538097758e+00) (44, -9.98521274500493518644e+01) (36, 2.92695757061502632723e+01) (10, 1.11800163867867581757e+02) (49, 3.39147389535225300961e+01) (8, 7.20710598488684865970e+01) (41, 2.32651792409202435863e+01) (26, 1.50000000000000000000e+03) (2, 1.50000000000000000000e+03) (58, -3.17612710755590796907e+01) (56, 5.66001546525009416655e+02) (53, -2.28072834705905620467e+01) (30, 4.07026784623146298259e+00) (54, 1.22319228715895246751e+03) (65, -1.70570695544707575664e+01) (57, 9.87801281827390553758e+00) (35, 1.36605813388498309457e+00) (48, -1.27502035021286110350e+03) (23, 1.94951787884769167647e+01) (21, -1.23879144177428894835e+01) (13, -5.28468406713255234308e+00) (17, 4.84164287474515919740e+00) (0, 1.50000000000000000000e+03) (31, -4.35094345051716313577e+00) (70, -1.61254189322789009964e+00) (11, 1.28612969709046964795e+00) (36, -5.38274822197156055381e-01) (23, 1.60845750878042608178e+01) (44, 3.43254361089522532779e+01) (26, -6.18777867255819913339e+01) (47, -6.75284688312217329376e-01) (27, 3.14392888465641817675e+00) (22, 1.50000000000000000000e+03) (39, -7.76569104251031028241e+00) (10, -6.32708588559068743962e+02) (45, -2.90761023783034211476e+01) (67, 5.45619006092900633575e+01) (4, 1.88858542483536346879e+01) (38, -4.65721952053242134184e+01) (37, -3.73453061504208694288e+00) (43, -1.14278981505731707102e+01) (7, -3.02071330174232670629e+01) (17, -1.19698961264723084952e+01) (58, 2.44510531828971195978e+01) (14, 1.50000000000000000000e+03) (61, 1.74799517682083731529e+01) (50, 2.58064589759195639473e+00) (2, 1.50000000000000000000e+03) (24, 1.50000000000000000000e+03) (13, 2.72493086736000122983e+01) (46, -3.04645031350330519615e+01) (25, -3.07384316763928673311e+01) (31, 1.46488232578703030384e+01) (68, 1.50000000000000000000e+03) (65, -1.39424779207538129810e+01) (0, 1.50000000000000000000e+03) (6, -4.83983248194658344232e+01) (55, -3.17687701413765530845e+01) (9, 1.77616100246124872797e+01) (59, -4.41073994748563507073e+01) (70, -4.62006247237161815633e+01) (34, -9.94458307409255098719e+02) (23, 1.76879748054065011331e+01) (62, -3.80301150915065420577e+02) (59, 3.72461408505375715094e+01) (28, 6.19002246650912724135e+00) (45, 1.64553096221265633403e+01) (47, 5.71322028862289386097e+01) (42, 1.15675959256124034624e+01) (22, 1.50000000000000000000e+03) (35, 8.32741472558099005141e+00) (50, -4.22157270236693079823e+02) (65, 8.90301487894532783685e+00) (30, 5.62755771941151650140e+01) (69, -3.51631381063057535385e+00) (61, -1.20649019469215144085e+01) (40, 3.13796373334646432340e+01) (31, -3.97527911338493744609e+00) (36, -2.39881425344176228975e+01) (26, -1.43124007480596469577e+03) (11, 3.07296489919882063191e+01) (8, -3.43559673061525700177e+02) (24, 1.50000000000000000000e+03) (41, -5.74817360045240022259e+00) (29, 2.97017663639236779716e+01) (10, -6.20713015942612742037e+02) (46, -1.49858918089980875266e+03) (57, 1.56278983000388151936e+01) (56, -1.09402941485260029708e+02) (60, -2.27190389331629717162e+02) (12, -1.50000000000000000000e+03) (68, 1.50000000000000000000e+03) (54, -4.02301761077113866349e+01) (9, 1.21472731454399855977e+01) (18, 2.09537208227567184338e+01) (58, 1.91620703820288085240e+01) (70, -3.44143239293443725657e+00) (28, -4.76830556057830534655e+01) (62, -2.15846957159886869704e+01) (6, -7.80062074748612666042e+00) (33, -7.64771832256229444624e+00) (26, 1.50000000000000000000e+03) (58, -1.05829481492900256967e+00) (54, 3.13507427194002552540e+00) (61, -7.50997507276434017598e+00) (20, 9.87984933942485277214e+00) (16, -4.93638367014708023817e+00) (56, -2.84129140091656857692e+01) (35, -8.68403046676770884460e+00) (14, -1.20002064251875526679e+03) (44, -3.68678269364249189266e+01) (9, -1.18166280226068192150e+01) (24, -3.84259053979503221399e+02) (40, -1.77340013010481492017e+01) (43, -1.60481666941792404657e+01) (63, 1.34504344790319985137e+00) (3, 1.52271953460207214448e+01) (64, 1.50000000000000000000e+03) (41, 2.81959145029060032073e+01) (38, -1.78755843607327129519e+01) (7, -7.98802268238508195175e-01) (52, 1.30078676791100832588e+02) (12, 1.50000000000000000000e+03) (50, 7.98347728801819869204e+01) (19, -2.69323608904128271035e+01) (57, -1.25717637341682646479e+01) (59, -8.58278550504560122647e+00) (1, 9.04269480368415368154e-01) (13, -1.94303359202602643485e+00) (0, 1.50000000000000000000e+03) (42, 1.05174147848166077424e+00) (22, -4.04804028987225990477e+02) (70, 2.18362483760025121171e+01) (12, 1.50000000000000000000e+03) (38, -3.28099499154141483359e+02) (17, 3.30004175764857166087e+01) (7, -2.80740685012940822673e+01) (32, 5.29584099936282427734e+02) (59, 2.02598680085140125939e+00) (67, 7.74893631988613051931e+00) (55, -1.82673277549694823563e+01) (5, -6.32124809389081843136e+00) (34, 1.42930658217621771655e+03) (52, 1.56355331627737797362e+02) (18, 3.83351817431886621179e+00) (40, 6.92571799229656619445e+01) (29, -1.47690906717372669732e+01) (2, 1.50000000000000000000e+03) (22, -1.50000000000000000000e+03) (35, 5.42225095447397831272e-01) (42, 9.72784450813367129740e+00) (54, -7.67014497674256734427e+00) (69, -2.45881729517017824094e+01) (50, 1.49796995345107802677e+03) (62, 4.46333828639543128247e+02) (66, 1.40907476961243133928e+02) (14, -1.50000000000000000000e+03) (21, 5.14549749425363600608e+00) (33, -8.18530040914842693667e+00) (60, 9.92631039362623397437e+01) (53, -1.74763429662041431811e+01) (6, 2.29997068957930110855e+01) (46, -1.85143403263731265440e+01) (13, 2.23847638737622531835e+01) (4, 2.39142875396613341366e+01) (47, 2.17336646474732049228e+01) (8, 1.57702748143318530083e+02) (36, -1.62825532565193284995e+01) (70, 2.64337607231979383471e+01) (38, 4.90256013082072115594e+02) (28, 5.62760061549182637464e+02) (40, -6.52995819423333045961e+01) (62, -4.10471592065730590093e+02) (15, -5.06301781690787588985e+00) (41, -2.99980729954703972950e+00) (21, -2.19714282298374939673e-02) (2, 1.50000000000000000000e+03) (56, -2.77413922881871251036e+01) (53, 1.24396189775629295582e+00) (35, 9.47485392091365952183e+00) (60, -1.33136301306699124325e+02) (67, 1.17830725493977652718e+01) (42, -1.48077478113992047071e+01) (9, -1.73989309288192579572e+01) (49, -1.25041965134654180503e+01) (29, 1.15753071994375815734e+02) (17, 2.04484736092401213625e+01) (65, -1.21659793051791105256e+01) (52, -1.41680253437222376078e+02) (46, 3.80813237722451125578e+00) (33, 6.61014688901279434674e+00) (12, -1.50000000000000000000e+03) (61, -9.77988069071434296120e+00) (32, -5.07768126004853968425e+02) (16, -7.52448143086592358131e-01) (43, -1.16183794902824910622e+01) (4, -1.21631946522503877617e+01) (0, 1.50000000000000000000e+03) (44, -5.73695323075098258414e+02) (39, 8.16544161351457908893e+00) (11, 1.34383204106811788847e+01) (10, -6.70044208485521153307e+02) (27, 2.11268418915254301282e+01) (19, -2.57237039762088173234e+01) (70, -1.15858802914496958891e+01) (37, 6.91602191721154468951e+00) (31, -1.83184093215107850483e+01) (10, 7.50941398832879798420e+01) (28, -6.43007942406060237772e+01) (48, 3.63307839461540460491e+00) (24, -1.23913846674391174929e+03) (30, 2.17203048018230759908e+00) (43, -1.09870646152050959188e+01) (68, -1.50000000000000000000e+03) (39, -5.45902833303890666627e+00) (8, 4.93493651532900869938e+01) (1, 4.29683398009377359728e+00) (59, 3.67732240298120558464e+01) (46, 2.44199777696529061188e+01) (38, -7.90813481930135253606e+01) (57, -7.59235541340096009577e+00) (62, 3.49171743925594739721e+01) (36, -7.51707690957451157843e-01) (69, -3.34263329585235666741e+01) (56, -6.99644478089408394794e+00) (44, 5.81531287853998222204e+01) (29, -3.13257791623374748369e+00) (13, 2.31926876327695659086e+01) (66, 6.31786252366316261941e+02) (35, -3.52403825988936247882e+01) (58, 1.25790399535983752344e+01) (19, -3.56568466357036442105e+01) (47, -1.72322673778602570849e+01) (15, 3.91939535934960714414e+00) (3, 1.76073875308120584293e+01) (20, 5.71005520692690851092e+01) (14, -1.50000000000000000000e+03) (42, -1.31668041787028347045e+01) (21, -1.89951112825692014496e+01) (45, -1.49186612928328070637e+01) (70, -2.01161932786020862807e+01) (39, 1.36329383245076627418e+01) (54, 1.56257944088822409157e+01) (58, -1.64983538704854630907e+01) (32, -3.15593907786652216885e+01) (8, 7.24762408046764932124e+01) (61, 3.32687353016669584704e+00) (52, 