FANN_FLO_2.1
num_layers=3
learning_rate=0.700000
connection_rate=0.500000
network_type=0
learning_momentum=0.000000
training_algorithm=2
train_error_function=1
train_stop_function=0
cascade_output_change_fraction=0.010000
quickprop_decay=-0.000100
quickprop_mu=1.750000
rprop_increase_factor=1.001000
rprop_decrease_factor=0.333300
rprop_delta_min=0.000000
rprop_delta_max=50.000000
rprop_delta_zero=0.100000
cascade_output_stagnation_epochs=12
cascade_candidate_change_fraction=0.010000
cascade_candidate_stagnation_epochs=12
cascade_max_out_epochs=150
cascade_max_cand_epochs=150
cascade_num_candidate_groups=2
bit_fail_limit=3.49999999999999977796e-01
cascade_candidate_limit=1.00000000000000000000e+03
cascade_weight_multiplier=4.00000000000000022204e-01
cascade_activation_functions_count=10
cascade_activation_functions=3 5 7 8 10 11 14 15 16 17 
cascade_activation_steepnesses_count=4
cascade_activation_steepnesses=2.50000000000000000000e-01 5.00000000000000000000e-01 7.50000000000000000000e-01 1.00000000000000000000e+00 
layer_sizes=71 101 2 
scale_included=0
neurons (num_inputs, activation_function, activation_steepness)=(0, 0, 0.00000000000000000000e+00) (0, 0, 0.00000000000000000000e+00) (0, 0, 0.00000000000000000000e+00) (0, 0, 0.00000000000000000000e+00) (0, 0, 0.00000000000000000000e+00) (0, 0, 0.00000000000000000000e+00) (0, 0, 0.00000000000000000000e+00) (0, 0, 0.00000000000000000000e+00) (0, 0, 0.00000000000000000000e+00) (0, 0, 0.00000000000000000000e+00) (0, 0, 0.00000000000000000000e+00) (0, 0, 0.00000000000000000000e+00) (0, 0, 0.00000000000000000000e+00) (0, 0, 0.00000000000000000000e+00) (0, 0, 0.00000000000000000000e+00) (0, 0, 0.00000000000000000000e+00) (0, 0, 0.00000000000000000000e+00) (0, 0, 0.00000000000000000000e+00) (0, 0, 0.00000000000000000000e+00) (0, 0, 0.00000000000000000000e+00) (0, 0, 0.00000000000000000000e+00) (0, 0, 0.00000000000000000000e+00) (0, 0, 0.00000000000000000000e+00) (0, 0, 0.00000000000000000000e+00) (0, 0, 0.00000000000000000000e+00) (0, 0, 0.00000000000000000000e+00) (0, 0, 0.00000000000000000000e+00) (0, 0, 0.00000000000000000000e+00) (0, 0, 0.00000000000000000000e+00) (0, 0, 0.00000000000000000000e+00) (0, 0, 0.00000000000000000000e+00) (0, 0, 0.00000000000000000000e+00) (0, 0, 0.00000000000000000000e+00) (0, 0, 0.00000000000000000000e+00) (0, 0, 0.00000000000000000000e+00) (0, 0, 0.00000000000000000000e+00) (0, 0, 0.00000000000000000000e+00) (0, 0, 0.00000000000000000000e+00) (0, 0, 0.00000000000000000000e+00) (0, 0, 0.00000000000000000000e+00) (0, 0, 0.00000000000000000000e+00) (0, 0, 0.00000000000000000000e+00) (0, 0, 0.00000000000000000000e+00) (0, 0, 0.00000000000000000000e+00) (0, 0, 0.00000000000000000000e+00) (0, 0, 0.00000000000000000000e+00) (0, 0, 0.00000000000000000000e+00) (0, 0, 0.00000000000000000000e+00) (0, 0, 0.00000000000000000000e+00) (0, 0, 0.00000000000000000000e+00) (0, 0, 0.00000000000000000000e+00) (0, 0, 0.00000000000000000000e+00) (0, 0, 0.00000000000000000000e+00) (0, 0, 0.00000000000000000000e+00) (0, 0, 0.00000000000000000000e+00) (0, 0, 0.00000000000000000000e+00) (0, 0, 0.00000000000000000000e+00) (0, 0, 0.00000000000000000000e+00) (0, 0, 0.00000000000000000000e+00) (0, 0, 0.00000000000000000000e+00) (0, 0, 0.00000000000000000000e+00) (0, 0, 0.00000000000000000000e+00) (0, 0, 0.00000000000000000000e+00) (0, 0, 0.00000000000000000000e+00) (0, 0, 0.00000000000000000000e+00) (0, 0, 0.00000000000000000000e+00) (0, 0, 0.00000000000000000000e+00) (0, 0, 0.00000000000000000000e+00) (0, 0, 0.00000000000000000000e+00) (0, 0, 0.00000000000000000000e+00) (0, 0, 0.00000000000000000000e+00) (36, 4, 5.00000000000000000000e-01) (36, 4, 5.00000000000000000000e-01) (36, 4, 5.00000000000000000000e-01) (36, 4, 5.00000000000000000000e-01) (36, 4, 5.00000000000000000000e-01) (36, 4, 5.00000000000000000000e-01) (36, 4, 5.00000000000000000000e-01) (36, 4, 5.00000000000000000000e-01) (36, 4, 5.00000000000000000000e-01) (36, 4, 5.00000000000000000000e-01) (36, 4, 5.00000000000000000000e-01) (36, 4, 5.00000000000000000000e-01) (36, 4, 5.00000000000000000000e-01) (36, 4, 5.00000000000000000000e-01) (36, 4, 5.00000000000000000000e-01) (36, 4, 5.00000000000000000000e-01) (36, 4, 5.00000000000000000000e-01) (36, 4, 5.00000000000000000000e-01) (36, 4, 5.00000000000000000000e-01) (36, 4, 5.00000000000000000000e-01) (36, 4, 5.00000000000000000000e-01) (36, 4, 5.00000000000000000000e-01) (36, 4, 5.00000000000000000000e-01) (36, 4, 5.00000000000000000000e-01) (36, 4, 5.00000000000000000000e-01) (36, 4, 5.00000000000000000000e-01) (36, 4, 5.00000000000000000000e-01) (36, 4, 5.00000000000000000000e-01) (36, 4, 5.00000000000000000000e-01) (36, 4, 5.00000000000000000000e-01) (36, 4, 5.00000000000000000000e-01) (36, 4, 5.00000000000000000000e-01) (36, 4, 5.00000000000000000000e-01) (36, 4, 5.00000000000000000000e-01) (36, 4, 5.00000000000000000000e-01) (36, 4, 5.00000000000000000000e-01) (36, 4, 5.00000000000000000000e-01) (36, 4, 5.00000000000000000000e-01) (36, 4, 5.00000000000000000000e-01) (36, 4, 5.00000000000000000000e-01) (36, 4, 5.00000000000000000000e-01) (36, 4, 5.00000000000000000000e-01) (36, 4, 5.00000000000000000000e-01) (36, 4, 5.00000000000000000000e-01) (36, 4, 5.00000000000000000000e-01) (36, 4, 5.00000000000000000000e-01) (36, 4, 5.00000000000000000000e-01) (36, 4, 5.00000000000000000000e-01) (36, 4, 5.00000000000000000000e-01) (36, 4, 5.00000000000000000000e-01) (36, 4, 5.00000000000000000000e-01) (36, 4, 5.00000000000000000000e-01) (36, 4, 5.00000000000000000000e-01) (36, 4, 5.00000000000000000000e-01) (36, 4, 5.00000000000000000000e-01) (36, 4, 5.00000000000000000000e-01) (36, 4, 5.00000000000000000000e-01) (36, 4, 5.00000000000000000000e-01) (36, 4, 5.00000000000000000000e-01) (36, 4, 5.00000000000000000000e-01) (36, 4, 5.00000000000000000000e-01) (36, 4, 5.00000000000000000000e-01) (36, 4, 5.00000000000000000000e-01) (36, 4, 5.00000000000000000000e-01) (36, 4, 5.00000000000000000000e-01) (36, 4, 5.00000000000000000000e-01) (36, 4, 5.00000000000000000000e-01) (36, 4, 5.00000000000000000000e-01) (36, 4, 5.00000000000000000000e-01) (36, 4, 5.00000000000000000000e-01) (36, 4, 5.00000000000000000000e-01) (36, 4, 5.00000000000000000000e-01) (36, 4, 5.00000000000000000000e-01) (36, 4, 5.00000000000000000000e-01) (36, 4, 5.00000000000000000000e-01) (36, 4, 5.00000000000000000000e-01) (36, 4, 5.00000000000000000000e-01) (36, 4, 5.00000000000000000000e-01) (36, 4, 5.00000000000000000000e-01) (36, 4, 5.00000000000000000000e-01) (36, 4, 5.00000000000000000000e-01) (36, 4, 5.00000000000000000000e-01) (36, 4, 5.00000000000000000000e-01) (36, 4, 5.00000000000000000000e-01) (36, 4, 5.00000000000000000000e-01) (36, 4, 5.00000000000000000000e-01) (36, 4, 5.00000000000000000000e-01) (36, 4, 5.00000000000000000000e-01) (36, 4, 5.00000000000000000000e-01) (36, 4, 5.00000000000000000000e-01) (36, 4, 5.00000000000000000000e-01) (36, 4, 5.00000000000000000000e-01) (36, 4, 5.00000000000000000000e-01) (36, 4, 5.00000000000000000000e-01) (36, 4, 5.00000000000000000000e-01) (36, 4, 5.00000000000000000000e-01) (36, 4, 5.00000000000000000000e-01) (36, 4, 5.00000000000000000000e-01) (36, 4, 5.00000000000000000000e-01) (36, 4, 5.00000000000000000000e-01) (0, 4, 5.00000000000000000000e-01) (101, 4, 9.00000000000000022204e-01) (0, 4, 9.00000000000000022204e-01) 
connections (connected_to_neuron, weight)=(70, -2.48879013048115282913e+01) (37, -5.01651599897325550792e-01) (7, -1.63450247731108397886e+01) (57, 6.07518657676189377526e+00) (3, -3.85997938975657239880e+00) (21, 6.41721593688150959700e-01) (59, 5.33939682598430991334e+01) (49, 9.49592497079305886132e+00) (42, 1.21924913688866283223e+02) (47, 6.07072576102653869157e+01) (44, -8.45460165433559396320e+00) (63, 2.64517770067089728059e+01) (41, 1.44443451505666988766e+01) (65, 1.91096649183330029587e+01) (15, 1.90551241674965154971e+01) (51, 5.33634901242076331584e+00) (10, -5.93289316495891057457e+02) (43, -3.47742555152440360189e+01) (40, 3.17641680733556768246e+01) (24, -1.50000000000000000000e+03) (12, 1.50000000000000000000e+03) (1, 7.79055452481020793698e+00) (35, 1.59948773163701774003e+00) (60, -1.52094300750368169872e+01) (22, -1.50000000000000000000e+03) (19, 1.65917938443367596335e+01) (38, 3.51159016644438338517e+02) (0, -5.72528463892190757178e+02) (52, 1.18318795168708857091e+03) (53, -1.59832636834583325935e+01) (11, 5.30610075224631785318e+01) (16, 6.39557670850568484866e+01) (61, -2.57778911833183883573e+01) (18, 2.33673903525879502752e+01) (54, 1.50000000000000000000e+03) (36, -1.19046786749487182533e+03) (70, -1.35000087066521086143e+01) (54, -1.24682586297271260634e+01) (19, -1.75591662716266263544e+01) (41, 1.95399688984867516695e+01) (60, 1.10367068494922992983e+01) (20, 1.15051806170328649870e+01) (32, -8.99641225005566447237e+00) (12, 1.50000000000000000000e+03) (3, 3.40903958038467251868e+01) (59, 1.00847289519375156175e+01) (65, -4.79745018919672983060e+00) (10, -1.50000000000000000000e+03) (30, 5.25208723452513339680e+01) (36, -5.43890510603028065617e-01) (45, 1.66151845146138765763e+00) (34, 1.50000000000000000000e+03) (50, -1.92487657627202235489e+00) (62, -1.50000000000000000000e+03) (1, 3.55512558976428572066e+00) (58, -6.17715088577649851231e+00) (48, -1.12900276377059274324e+01) (24, -1.50000000000000000000e+03) (26, 2.14488962392933700585e+02) (16, 1.75641483392277120146e+00) (39, 1.94161638825367688366e-01) (51, -1.34778648616888148126e+01) (40, -1.04832295491300669710e+02) (21, -3.62321558176695361908e+01) (52, -1.61493028320227161032e+01) (47, 4.09489526955314602219e+01) (8, 1.50000000000000000000e+03) (63, 2.49567257706971012965e+01) (57, 2.03783974084633818791e+01) (67, -1.04557082412670321325e+00) (17, 2.04642999028172560827e+01) (11, 1.22259818969771595631e-02) (70, 1.12962283024654670527e+01) (59, -2.68377727155888656796e+01) (9, 2.47117256589718348181e+00) (66, 3.55625298772774769418e+01) (57, -2.78510223375581880134e+01) (1, -7.84323798324189791487e+00) (38, 3.26815356409033370255e+02) (10, -4.89473453936850376067e+02) (28, 2.54720530692336382117e+01) (54, 3.44649914356943867233e+01) (27, -7.56925713844326786273e+00) (67, -1.35200170691631811337e+01) (40, 1.78975458498075354896e+01) (35, -5.91148927182971739569e+00) (32, 4.88358017623386508888e+00) (51, -2.94189138179265050610e+01) (13, -1.58520282055231997997e-01) (22, -1.50000000000000000000e+03) (29, 3.47626186997413597624e+01) (41, -6.84028951729299805606e+00) (3, 2.10150398109815217396e+00) (23, 1.33010408276675846651e+01) (34, 3.32456116430957649754e+02) (65, 2.88299435505695349491e+01) (36, 2.81199957197622154581e+02) (30, 4.85038590882853171138e+01) (48, -1.45336032302212197465e+03) (11, 1.49738986205146336061e+01) (20, 1.22448575901831695489e+01) (37, 6.37567249326892149242e+00) (56, 1.49973675613437376342e+03) (63, -9.65662273286353567414e+00) (7, 3.84391078466271949310e+01) (14, -1.50000000000000000000e+03) (64, 1.50000000000000000000e+03) (18, -1.01009800805900713527e+01) (70, -2.01010707452479735480e+01) (17, -4.08223332315294928918e+00) (33, 2.80244204311638078764e+01) (63, 7.33203673837193092844e-01) (64, 1.50000000000000000000e+03) (42, 6.05501165338594205423e+02) (56, 1.34005201989957896558e+02) (16, 3.77301895254123209611e+00) (66, -2.77667904465245491963e+01) (6, 8.27238889287857048771e+00) (12, 1.50000000000000000000e+03) (26, 2.29506245243801799916e+02) (48, 1.89354886627297020141e+02) (36, 9.93307289681539486992e+01) (31, -1.43007717079431220242e+01) (19, 1.81960896966936900299e+01) (22, -1.50000000000000000000e+03) (25, -3.99243088662086051954e+01) (2, 1.50000000000000000000e+03) (61, 2.03875526440244634330e+01) (41, 2.46136931924179762632e+01) (57, -8.68318152468524750986e+00) (40, 6.37791243328781334299e+01) (10, -3.18054248873075835036e+02) (51, 3.84561242129512592669e+01) (24, -1.50000000000000000000e+03) (60, 2.28854468421832763170e+02) (18, 1.72150092516837673884e+01) (14, -1.50000000000000000000e+03) (23, -9.69546600545406001004e+00) (50, 7.37272235625073676601e+02) (3, 1.69763752386387452020e+01) (32, -5.78207500735227952759e+01) (1, 1.30627552435235703143e+01) (27, -1.46623858326190803503e+00) (68, -1.50000000000000000000e+03) (70, -2.54056270182653420875e+01) (66, -4.26521070643855040316e+01) (50, -5.23833489803623933767e+02) (29, -1.84908694709167686909e+00) (60, -9.34661249551888317910e+02) (46, -5.31984977690675453488e+00) (8, -4.64267039385631278492e+02) (36, -2.95075331392676446285e+02) (49, 2.01184839821404430893e+01) (55, 1.18037520058675635681e+01) (35, -4.47800856542678360483e+01) (59, -4.34823206467928287111e+01) (20, -6.50763535321459471561e+02) (38, -3.25291420332492691614e+02) (26, -1.50000000000000000000e+03) (39, -1.44834549336677009812e+00) (52, -1.49994436668162529713e+03) (54, -4.59094380682082316980e+02) (13, 2.36172311403562247278e+01) (63, -5.07611377298930648294e+01) (28, -1.02817541495260282858e+01) (17, 3.11657733522799915704e+01) (12, -1.50000000000000000000e+03) (67, 1.68692564202199299928e+01) (0, 1.50000000000000000000e+03) (41, -1.57500843013733984321e+01) (10, 6.36328094443631812283e+02) (37, -1.24412900550746687856e+01) (4, 2.38286827533831591097e+01) (21, 5.26967373662549718460e+01) (23, 3.98710227634323715051e+01) (56, -2.74894489916068152979e+02) (24, 1.50000000000000000000e+03) (18, -2.36087830902187576498e+01) (30, -5.29538449078700992345e+01) (34, -2.80048979440291077481e+02) (70, -1.95813309087723048663e+01) (29, -2.83983830807377835015e+00) (0, -5.64327628664224448585e+02) (49, 1.73536515126196477787e+00) (16, 3.72573863654873065343e+01) (52, 2.76167626816755841901e+02) (58, -4.80776159998969543352e+00) (12, 1.50000000000000000000e+03) (7, -5.97991631303715998058e+00) (24, -1.50000000000000000000e+03) (11, 1.53378517968852872144e+01) (64, 1.50000000000000000000e+03) (60, 1.02857293398365391113e+03) (36, 1.82746493490214561461e+02) (5, 2.39118452935010594729e+01) (6, -1.70107439953900382079e+02) (57, 1.66368462862360040333e+01) (27, -3.45946388677334084605e+01) (28, -1.45518398782671556546e+03) (42, 1.29963607213664875673e+01) (65, 6.15104042149050389554e+00) (19, 2.68719399740772892926e+01) (9, -3.40125610963183433455e+01) (45, -3.29135689347621323009e+01) (40, 5.40638455964288127120e+01) (14, -1.50000000000000000000e+03) (55, 2.52494245716060170537e+01) (41, 4.33112389334625902393e+00) (1, 1.01659644708694187898e+01) (69, 1.71015138008894460597e+01) (61, -2.33171843025138914030e+00) (39, 2.29158316342505337104e+01) (46, -4.33722753529348814538e+00) (15, -7.29860786143929995973e+00) (56, 2.32533801518354472648e+01) (26, 3.85020052043824279053e+01) (70, -2.14882161133818314624e+01) (57, 5.72395390964862684768e+01) (62, 1.50000000000000000000e+03) (21, 1.32016692658857195397e+01) (25, 1.78024833363675156761e+01) (46, 3.43852293017674739417e+01) (19, 2.97773828394126427455e+00) (48, 6.10972697399764257398e+01) (5, 2.94950038270080980851e+01) (6, -7.75406847612596692443e+01) (54, -6.04627473954485878949e+01) (24, 1.50000000000000000000e+03) (18, 1.04260696157213210711e+01) (33, -6.38679674439734146318e+00) (58, -3.66485866120466567963e+01) (28, -5.52458900672772479368e+00) (23, 2.66973191051985274669e+01) (49, 3.54131813197667923987e+01) (1, 1.40882360308872023325e+01) (20, -4.71821867374574281939e+01) (68, 1.50000000000000000000e+03) (29, 5.22938783667762319141e+00) (55, 1.86998700942924038770e+01) (2, 1.50000000000000000000e+03) (59, 1.70266433036313244997e+01) (65, 5.24412279195527464282e+00) (14, 1.50000000000000000000e+03) (12, -1.50000000000000000000e+03) (47, -9.87138564951588115548e+00) (63, 1.65851897773800942559e+01) (32, -3.39318925632761505540e+01) (41, -7.63864029266192545720e+00) (45, 3.05110226817924043985e+01) (51, -2.38752659366052775169e+01) (11, -1.43846502871659200906e+01) (26, -1.50000000000000000000e+03) (70, -1.19983336171415029270e+01) (12, -3.12379813026237691531e+01) (43, -3.42993616681742308216e+00) (19, 1.22823369889121973841e+01) (24, -1.50000000000000000000e+03) (48, 3.84036915660929707883e+02) (66, 6.89507849966010581966e+01) (16, -2.11948036060349842558e+01) (11, -3.62422441231028216180e+01) (36, 1.34862739422187382843e+03) (37, -2.15463122250259573320e+01) (46, -5.27107554309819761329e+02) (49, 5.94845031219638720188e+00) (1, 4.48395150461905203088e+01) (0, -5.43275866083353776048e+02) (32, 3.45135660928672720615e+01) (38, 3.91378670964770606133e+02) (30, 1.41172703179037206667e+00) (54, 2.65875328257221852368e+01) (3, -3.93698698720223703162e+01) (64, 1.50000000000000000000e+03) (7, -1.43820187986125844759e+01) (57, 1.36546272762894922437e+01) (62, -1.50000000000000000000e+03) (59, 4.42926295551245345905e+01) (40, 1.44831315470239047727e+02) (44, 1.98288078963219369655e+01) (2, 1.50000000000000000000e+03) (4, 1.19688360027491583537e+02) (33, 1.10564140558136347892e+01) (53, 3.58447755217714103537e+01) (52, 3.82448276203675092688e+01) (51, -7.10379547954344303662e+00) (23, 3.58919877434114482639e+01) (15, 9.14817192458488115392e+00) (55, 2.61324460563293570203e+01) (70, 5.87393861502454051049e+00) (15, 2.36124129451214592734e+01) (48, -9.61265774721840848827e+00) (59, -2.11030188128815199278e+00) (60, 9.63052736102070866764e+02) (19, 1.28660853543034896518e+01) (39, -4.20901138970764088221e-01) (11, 1.37478396088096683769e+01) (56, 2.71816461948212918287e+02) (53, 3.19504891076448451770e+01) (40, -4.78651897099517782408e+01) (27, 3.30180971950879365018e-01) (49, 3.78290977162473041062e+00) (26, 1.50000000000000000000e+03) (7, -1.69828978307931919289e+01) (31, -2.11061267082793904137e+01) (13, 1.23386721508831413985e+01) (67, -1.14772135093442599896e+01) (63, 3.78822429602568817586e+01) (1, 1.11224811988858132139e+01) (35, -3.10799306878058061443e+01) (22, -1.50000000000000000000e+03) (23, 4.02306917340398015881e+01) (20, 1.25255162537359751695e+03) (46, -4.19170211703827888527e+01) (37, -1.93528227423960288434e+01) (42, 1.61286164001685762059e+02) (12, 1.50000000000000000000e+03) (28, 2.23626708810941892125e+01) (43, -7.59885380486367445485e+00) (29, -1.44519462633088728865e+01) (55, -1.71889295343825732054e+00) (21, -1.26422870966412279614e+01) (45, 2.39937303052444406148e+00) (0, -5.79562357477395607930e+02) (57, 1.05524005626824273207e+01) (70, 9.18337214338550111847e+00) (42, -1.48957466363352864391e+03) (33, -1.68737401817808851945e+01) (12, -1.50000000000000000000e+03) (17, -9.79791351729722137520e+00) (45, 1.55529017098861803703e+01) (49, -2.34118551573686879408e+01) (2, 1.50000000000000000000e+03) (68, 1.50000000000000000000e+03) (36, -2.13466351872415231128e+02) (3, -5.57976805818370991119e+00) (7, -6.21466342009204009145e+00) (50, 1.79566575998637389944e+01) (1, 6.92647040235706157318e+00) (10, 8.08897909027995893894e+01) (61, 4.56032946881962857333e+01) (62, 1.50000000000000000000e+03) (51, -2.48077385237679131080e+01) (37, 7.24777499185147000560e+00) (52, -1.50000000000000000000e+03) (0, 1.50000000000000000000e+03) (41, 2.22672031639287375526e+01) (30, -1.10489679790297969930e+02) (25, -7.59738139674276791169e+00) (16, 3.60237018239499846572e+01) (18, 9.06851952018099893849e+00) (59, 2.59593023907088813473e+01) (34, -3.83431131126553225386e+02) (48, 5.29054529778389603933e+00) (27, -4.25409672385527048988e+00) (66, -5.94490413114023681374e+01) (9, 1.50784097884410561718e+00) (19, -2.27150464419834854368e+01) (15, 1.45282076246041587098e+01) (26, -6.89305137107948326047e+02) (44, -4.73655816356160869418e+02) (70, 1.66753553190552281649e+01) (25, 4.34142519982480550311e+01) (42, -3.36566765837407331219e+01) (26, -1.50000000000000000000e+03) (34, -2.94361167237523318363e+02) (62, 1.50000000000000000000e+03) (49, 9.59692751012048717030e+00) (1, -1.82983481763294761890e+01) (23, -1.92856452270467819687e+01) (68, 1.50000000000000000000e+03) (46, 1.31176437857916585727e+01) (48, 1.09139845929409233349e+02) (3, -1.23551371168833821201e+01) (14, 1.50000000000000000000e+03) (11, 2.62695028797456444636e+01) (37, 2.69325365976368473753e+01) (45, -6.07054584835438504342e+00) (50, -5.52695042518925333752e+02) (61, -7.45240572386258115500e+00) (59, 1.73389874789929798737e+01) (35, 4.50661508133207036053e+01) (54, -7.33843871042247997138e+01) (2, 1.50000000000000000000e+03) (51, 3.37574813912037541286e+01) (28, 2.09175096598304888218e+00) (10, 6.66846757850003996282e+02) (64, 1.50000000000000000000e+03) (67, 5.34668399413312940283e+01) (43, 2.86286262947238121512e+01) (9, 1.41031563804345747570e+01) (16, 8.65104920651802800080e+00) (6, -3.05499638110328746166e+01) (12, -1.50000000000000000000e+03) (21, 4.72752051971126352470e+00) (56, -3.28306309374076079166e+02) (39, -2.04188743083359511843e+01) (70, -4.28679104494306670858e+01) (58, 4.14763167602825930658e+01) (66, -9.59669261416271091036e+00) (22, -1.50000000000000000000e+03) (6, -7.79572867796969859455e+00) (42, 1.94402511036012377588e+01) (7, 5.90411911289983581952e+00) (18, 6.46203031663763383108e+00) (37, -1.23263002651114739194e+01) (33, 1.91613480777747255956e+01) (53, -3.11051214963382305356e+00) (3, -1.39007223499459775518e+00) (15, -6.66696691385892314941e+00) (5, -1.95749706381057428928e+01) (30, -1.36272468662697470165e+01) (20, 2.37197491969424127944e+01) (61, -4.20032642648401122187e+01) (29, 1.47176473923522497245e+01) (43, -4.02955777591428354611e+00) (23, -2.30691291221852310400e+01) (10, -1.87483844386047934449e+02) (2, 1.50000000000000000000e+03) (35, -3.64406574339573481325e+01) (49, 7.83020675686779110691e+00) (40, -6.91432259458102826954e+00) (36, 7.74427187849321114754e+01) (13, 2.75572535661260520357e+00) (16, 4.21550043992931904313e+01) (38, 1.36926663140599828239e+02) (63, -3.25478239192359168896e+01) (17, -3.57132656029439630174e+01) (47, -1.59424034557343148322e+01) (48, -4.55071054237872090198e+01) (14, -1.50000000000000000000e+03) (59, -3.04032291900511708604e+00) (21, -4.52513164614147740394e+01) (70, 1.39618390837090071699e+01) (20, -6.91002497217813669295e+01) (58, -2.84277932456282762530e+01) (10, 6.53413411101652172874e+02) (9, 4.17402797200149855428e+00) (38, -3.35044052473606313924e+02) (21, 2.82045989654298079330e+00) (37, 3.55303931192499788949e+01) (66, -1.90622815534066312182e+01) (47, 1.30782142459510044574e+01) (60, -8.95542683038826567099e+02) (57, 2.09456111962687820949e+01) (59, 2.39384735562770156747e+00) (23, 1.20097466269263053462e+00) (52, -1.49994436668162529713e+03) (68, 1.50000000000000000000e+03) (18, 1.85283665842433791227e+01) (49, 2.82280968292702674205e+01) (15, 1.71908431402754118267e+01) (32, -4.21230813755320099290e+01) (41, -1.48861543699133811458e+01) (51, -3.56481620719310114964e+01) (29, 1.64143302620344719855e+01) (44, -4.12075809628301641396e+01) (11, 1.18255417362572803341e+01) (40, 1.09296447856565261958e+01) (67, -3.12435659569174140060e+00) (62, 1.50000000000000000000e+03) (22, 1.50000000000000000000e+03) (4, 3.27830967599025102643e+00) (25, 6.76132603007115040583e+00) (64, 1.50000000000000000000e+03) (48, 1.34456771455074687083e+02) (30, 1.87181273669099397239e+01) (50, -5.21653273014378328298e+02) (55, -6.85560917947073278356e+00) (70, -1.18377892623054359333e+00) (55, -7.21389036442071507338e+00) (33, 2.02939137226409549442e+00) (20, 3.12454221382560568543e+01) (19, -2.29410507520995246011e+01) (0, -5.12748159937113541673e+02) (52, 6.15780512229628357090e+02) (53, 1.22678178682413587808e+01) (43, -3.58636044210389925979e+01) (25, -3.29410480650031161076e+01) (9, 8.69493076502834227881e+00) (62, -1.50000000000000000000e+03) (36, 1.25366982878729459117e+02) (29, -1.66127450168110044615e+01) (10, -2.05402547564055737439e+02) (11, 2.95185256552531321006e+01) (45, -6.35879790913974041189e+00) (22, -1.50000000000000000000e+03) (59, 4.96862576017488066782e+00) (47, -1.82142891029253455315e+01) (54, -1.02835136213075273304e+01) (68, -1.50000000000000000000e+03) (4, -7.34463814698653916224e+00) (31, -3.29241618565563953780e+00) (44, 3.33382552157112357349e+01) (5, -1.27703793292663565495e+01) (15, -7.73097882517572632111e+00) (65, -5.06801836142660366846e+00) (56, 7.26419079561444647197e+01) (46, -1.88272198267494346169e+01) (17, 7.74611390667008059552e+00) (49, -8.56398186005340100735e+00) (28, 1.33771846442781541242e+01) (61, -2.79165695781599403347e+01) (13, 1.48053689140529876056e+01) (63, 1.40916403265508431986e+01) (70, -1.18970325592684195160e-01) (9, 6.69788006276912550874e+00) (51, 1.78775459095995685743e+01) (69, 1.30637747629874620969e+01) (67, 4.65056650338629029573e-01) (56, -3.08878820808631246564e+02) (20, -6.01765791148565796220e+01) (41, -2.74301485469469596978e+01) (6, -4.07525251895114806189e+01) (3, -2.57039879636804897700e+01) (11, 1.32807746084319457935e+01) (49, 1.17579229262526165911e+01) (55, -3.82694886059138905665e+00) (63, -2.52697391516803264722e+01) (44, -6.11339940220646695934e+01) (10, 6.46303894242597380071e+02) (57, 1.26296081799788115774e+01) (42, -5.80649843526143083494e+00) (47, -1.25037718258274441752e+01) (43, 3.47230910953953824105e+01) (38, -4.05302326551974942959e+02) (2, 1.50000000000000000000e+03) (18, -1.87691669627914734519e+01) (64, 1.50000000000000000000e+03) (4, 1.69334438770405100172e+01) (54, -3.62494002267820221164e+01) (37, 5.91759748635871840605e+00) (33, 1.72932158223575171974e+01) (30, 1.21794576085000443300e+01) (19, 6.34015558493416531149e+00) (46, -1.67209184643458002029e+01) (68, 1.50000000000000000000e+03) (35, 4.76510518367190716305e+00) (16, -2.24329818197425367998e+01) (65, 3.47137935195146596357e+01) (1, 2.97335756982364296519e+00) (70, -1.03848560633919948515e+01) (30, -1.73362105324900390713e+01) (51, 4.27084772100417424667e+01) (52, -6.27083800889578355964e+02) (1, -4.93331416275826395434e+00) (46, 3.75491180677653773046e+01) (20, -2.16312960031860171739e+02) (53, 1.04291773306642774344e+01) (58, -4.67971025136757106111e+01) (8, -6.20130597937583587509e+01) (45, 1.74111468099577360036e+00) (57, 9.37910719661690706062e+00) (56, -7.04493391560280031172e+01) (11, 8.40630234674472953671e-01) (7, -1.65318392121165902431e+00) (5, -3.02856700896398258749e+01) (61, -3.83107354137740756528e+01) (48, -6.48059433574472709694e+00) (64, 1.50000000000000000000e+03) (16, -1.43947903580815318492e+03) (40, 2.72258534918394179414e+00) (28, -1.43563454204363818434e+01) (68, 1.50000000000000000000e+03) (33, -8.66561654076710041750e+00) (43, -5.09912148562221734238e+00) (65, -7.80763037827340156127e+00) (17, -1.38872305448939190597e+01) (21, -4.60785848385371679115e+01) (49, 2.83013314718512560830e+01) (41, -1.19793687937588781978e+01) (6, -6.10455257444355048335e+00) (39, -1.37139236972946925164e+01) (55, 5.84980957710842908170e+00) (19, 5.73365374926011384105e+01) (54, -6.93691485726107703869e+00) (66, 4.53456691514316290181e+01) (70, -1.47321100520514942644e+01) (11, 1.38142406389122651689e+01) (24, -1.50000000000000000000e+03) (46, 1.79961054813038003886e+01) (31, 3.24216488671494360574e+01) (32, -2.40140880788612349761e+01) (2, 1.50000000000000000000e+03) (30, 1.83008469427889863823e+01) (1, -4.05940276587602895120e+01) (56, -2.88676636600468498273e+02) (15, 5.05235685780880530160e+01) (34, -2.78227757921369743599e+02) (41, -3.91760550449837126052e+01) (17, 2.64644513695045824342e-01) (55, 3.18898569626454602144e+01) (50, -5.00584227239258154896e+02) (51, 1.51440807044246650293e+00) (28, 2.06589070706565536284e+01) (58, -1.34439898345087254228e+01) (60, -9.39337340989097697275e+02) (6, -6.05147803335798961655e+00) (54, -8.29617930953101421210e+01) (49, 3.20552477701421736356e+01) (13, -5.48159181331470524157e+00) (57, 3.52800362884571399036e+01) (29, -3.21405302381730919592e+01) (18, -1.33778626422367139526e+01) (27, 2.38649252792189976446e+01) (3, -2.37259950923397084921e+01) (4, -7.31618890737971838689e+01) (36, -2.65106181790437858581e+02) (52, -1.49997384934359274666e+03) (37, -8.05578144892014336165e+01) (38, -3.74953155734610277250e+02) (12, 1.50000000000000000000e+03) (33, -6.82202984315348857081e+01) (70, 4.67383807754122226896e+00) (6, 5.38393826849201140305e+00) (63, -1.35727306591951997206e+01) (15, -3.88265380813905593982e+01) (30, 6.26717718522768474365e-02) (65, -3.34134584808840262582e+00) (61, -2.36425688133990448137e+01) (1, 2.11892363968610064617e+00) (59, -4.07103358114198385920e+01) (34, 7.98666455234074135205e+01) (43, 9.35786484507087301665e+00) (67, 1.52850445100845799828e+01) (20, 4.78644552502877616007e+01) (47, 3.11468207534688659166e+01) (36, 6.07437257226153093370e+01) (25, -2.87810447727996994161e+01) (10, -2.28154842646718776678e+02) (37, -2.81264454127773966263e+01) (68, -1.50000000000000000000e+03) (52, 6.04976209115514166115e+02) (32, 4.10523248852930677799e+01) (33, -1.32071758804840460044e+01) (27, -3.33057967490473458838e+01) (26, 1.50000000000000000000e+03) (60, 3.01287399698778756374e+02) (49, 7.09643492009545795440e+00) (8, 1.31909697554522665541e+02) (19, -2.35095735261462479571e+01) (17, 1.01616967409714717974e+01) (57, -1.67657837765105988126e+01) (64, 1.50000000000000000000e+03) (62, -1.50000000000000000000e+03) (56, 1.00571441552254896123e+02) (42, -1.78516820056316163345e+01) (35, -1.39434657607904473053e+01) (23, 1.20893040665341438000e+01) (70, 6.89135404915577431950e+00) (29, -1.87875980906289896666e+01) (60, -9.79265060512188142638e+02) (16, 2.00669655762575018798e+01) (13, -1.25971009622051646204e+01) (53, -3.79776134706120913620e+01) (59, -3.92489989967513830393e+00) (63, 2.58632456417395992787e+01) (56, -3.42195259514850761207e+02) (48, -4.63251951043060330448e+02) (43, 1.23417235455976559422e+01) (28, 5.42610532069439059910e+01) (11, 5.15017012480082048143e+00) (54, 2.88779994863997231391e+01) (10, 6.65539430579496411156e+02) (9, -1.67915817557345512512e+01) (18, 2.65946392732539607096e+01) (61, -8.46865299679438621183e+00) (44, -1.65895421879839290114e+02) (42, 2.19042698235922834726e+01) (37, -6.13840856950568625194e+00) (26, -7.24052726149195109429e+02) (15, -8.38285457420474600099e+00) (20, 1.84318729267326020249e+01) (31, -1.76256362761157134855e+01) (36, -2.93030324964512828956e+02) (50, -6.37599506155497692816e+02) (27, 4.78409382940081151503e+00) (32, -3.74019106523186550817e+01) (45, -1.11819112092054719909e+01) (5, 4.97289403081675285279e+00) (17, 7.13078045909967705995e+00) (47, -2.34646572767726233621e+01) (8, -4.76117720779970056810e+02) (22, 1.50000000000000000000e+03) (51, 1.33920451123816608430e+01) (70, -2.81373828662631764175e+00) (18, 4.40275029108673709999e+00) (19, -1.33590277345263821474e+01) (66, -1.67278451367807647898e+01) (60, -9.28044479761239017535e+02) (54, -3.69224738128220124622e+01) (63, -2.83451384421146315162e+01) (4, 4.49605654209249010478e+01) (48, 1.10071093640590873974e+02) (51, -1.68329940524969989823e+00) (56, -5.87226467987188538444e+00) (41, -2.95756289353216814675e+01) (17, -2.14942638074411185301e+01) (42, -4.27764001286581844852e+02) (64, 1.50000000000000000000e+03) (1, 1.19770079838040000020e+00) (9, 2.36155292885439820338e+01) (21, -4.92436584166902235893e+00) (45, -1.24800876692673341495e+01) (39, 1.26230609316056394675e+01) (11, -1.95687057904715899781e+01) (15, -3.30116944704164883007e+00) (12, -1.50000000000000000000e+03) (6, -4.70087164431736184156e+01) (47, 2.07348707832716243615e+01) (34, -1.50000000000000000000e+03) (22, 1.50000000000000000000e+03) (29, 2.30411336971836036014e+01) (53, 5.21529913999606620223e+00) (40, -6.20187702890046033133e+00) (67, -1.36404453967480758791e+01) (43, -1.74769417358988654598e+00) (25, 1.31487156686965143138e+01) (10, 6.46432676634145536809e+02) (8, -4.64229343245118343475e+02) (50, -5.58109341530155916189e+02) (70, 1.38501997996117456324e+01) (61, -4.38020665566487732434e+00) (26, 1.50000000000000000000e+03) (12, 1.50000000000000000000e+03) (17, -1.20265447747042886206e+00) (14, -1.50000000000000000000e+03) (24, -1.50000000000000000000e+03) (10, -6.42732161807662464525e+02) (57, -4.25063474754616699158e-01) (67, 1.77819148404620825943e+01) (33, 2.35304117095522329350e+01) (25, -1.61152634387961022355e+01) (3, -3.01427861083786297058e+01) (16, -1.28901151305225560861e+01) (63, -1.51575150031067735767e+01) (42, -7.29380943960682071037e+00) (46, -1.00479611910306410039e+01) (2, 1.50000000000000000000e+03) (6, 1.96482469497042906426e+01) (36, 2.93053895851902552749e+02) (51, 3.30804425235665178207e+01) (50, 5.31122155946621205658e+02) (8, 4.89019101946207626952e+02) (40, -4.35550719883941681587e+01) (65, 1.22004929590966089137e+01) (43, 6.97595111513488852495e+00) (45, -2.39874207971500830183e+01) (30, -6.25485323953433614008e+00) (58, 6.16206988831748105895e+01) (7, 2.08591096670262530210e+01) (38, 2.98720597421606669286e+02) (23, 2.93998713360784087456e+01) (69, -2.40596426071436830796e+01) (22, -1.50000000000000000000e+03) (41, 1.12483015636240324397e+01) (15, 3.34601608562973451555e+00) (70, -3.37478230087004682503e+00) (38, -3.41671768538059382081e+02) (22, 1.50000000000000000000e+03) (45, 3.49169774499496243791e+00) (32, -4.07905672610405503065e+01) (24, 1.50000000000000000000e+03) (66, -2.50760106488655694079e+01) (19, -2.02739533646422067648e+01) (54, -4.40407878568924147089e+01) (26, -1.50000000000000000000e+03) (33, -2.37235840789781704530e+01) (27, 4.76222556977552446966e+00) (21, 1.64171810617338884697e+01) (25, -1.42903493008877724435e+01) (64, 1.50000000000000000000e+03) (55, 7.05421649555428764700e+00) (49, -1.59220542892924452616e+01) (12, -1.50000000000000000000e+03) (43, 8.55269190489912567443e+00) (15, -4.34972643996481966866e+00) (61, -2.84975421117480003375e+01) (13, -3.25123806821124645694e+01) (1, 2.63523996105964393166e+01) (34, -1.50000000000000000000e+03) (40, -2.86257957069911981307e+01) (69, 4.00817330725322165108e+01) (16, -4.13616370820773653350e+01) (17, 1.77923508240269789837e+01) (68, 1.50000000000000000000e+03) (42, -8.51054889692555462943e+01) (39, -1.81206890505807223235e+01) (47, -1.20777829739617743599e+01) (60, -3.40117283265837215822e+01) (48, 1.25183997832894505109e+02) (0, 1.50000000000000000000e+03) (5, -1.25573071703038561253e+01) (70, -2.65537582816205830483e+00) (45, 4.90396314430340307666e+00) (44, 1.70967513074266079798e+01) (21, 2.83594060863029717723e+01) (28, 3.13360568770392298177e+01) (3, 5.32375521102741888768e+00) (26, -1.95105324081003956849e+01) (2, 1.50000000000000000000e+03) (9, 2.31075877774909876905e+01) (66, 1.39302688380167758453e+01) (56, -4.64545468484401027354e+01) (36, 4.16741810392306746280e+01) (27, 2.41552154025229945944e+01) (14, -1.50000000000000000000e+03) (32, -2.38014819196980589311e+01) (15, -2.05901488455972128122e+01) (46, 3.67444888557699798071e+01) (60, -1.98375009487588052082e+01) (7, -1.01829741305706313881e+01) (10, -2.17718353642345405774e+01) (55, 6.34202893432477132762e+00) (57, -9.02506643776499117848e+00) (65, -1.60175040859115398462e+01) (29, -1.31643799945285966402e+01) (22, -3.20482565187247203653e+01) (39, -1.41673794633904268636e+01) (53, -2.35421851373972188526e+01) (25, -1.47761625259366304874e+01) (0, 1.50000000000000000000e+03) (61, -2.75311291454742210760e+01) (43, -2.58314711367919365159e+01) (50, 1.08135073506471943716e+01) (16, 9.73232342567627739527e+00) (37, -3.31473792654047905160e+00) (30, 4.45425198796373038590e+01) (13, -3.47562922252624844077e+01) (70, -8.80454423779852746179e+00) (22, -1.50000000000000000000e+03) (3, -1.05124223505914962118e+01) (43, 1.19375886351121263118e+01) (65, -2.67569902216893424907e+01) (12, 1.50000000000000000000e+03) (26, 2.50988724440483935041e+02) (2, 1.50000000000000000000e+03) (68, -1.50000000000000000000e+03) (61, 3.00045438574053080494e-01) (49, 3.69377198964560164995e+01) (44, 5.15920242505478228168e+01) (37, -8.99756047117804769186e+00) (58, 2.31110957756382120465e+01) (10, -1.50000000000000000000e+03) (23, 9.58323918535266550123e+00) (55, 7.10246375851490263642e+00) (18, -2.35052232816596138321e+01) (0, -5.87996386102883434432e+02) (53, -2.16935230859891952093e+01) (67, 3.50613514498546976483e+01) (20, 3.55715663860738970925e+01) (14, -1.50000000000000000000e+03) (60, -2.85268515958179129655e+01) (32, -5.62301228018159271471e+00) (16, -2.66451543979386897831e+01) (47, -6.21976830851294426594e+00) (57, -1.23766627071582480113e+01) (30, 6.87824441837632463148e+01) (7, -1.08842068959472193512e+00) (36, 4.29753472563354819158e+01) (33, 3.55998771428033435882e+01) (48, -4.28012759340124659957e+01) (42, 5.14276506025092089658e+02) (15, -3.31080096076671495098e+01) (69, 3.16827759878815911065e+01) (70, -8.91639062209865218556e-02) (64, 1.50000000000000000000e+03) (2, 1.50000000000000000000e+03) (43, -1.60785935164684867793e+00) (5, 1.26195995276673578189e+01) (15, 2.14864060026940251191e+01) (22, -1.50000000000000000000e+03) (34, 2.87115233729827252773e+02) (14, -1.50000000000000000000e+03) (69, -1.07725532673154749119e+01) (51, -1.76747584324369562125e+01) (66, 4.89590409551583150005e+01) (59, 1.55814594531183470139e+01) (29, 3.07974564898594138640e+00) (31, -4.47730466480781217342e+01) (35, 8.91311218628767321093e+00) (25, 1.74205554478339621483e+01) (11, 1.79121936297801767068e+01) (57, 4.23113772132513954460e+00) (40, -5.01322952776175956302e+00) (4, -2.38624992113461438237e+01) (45, -1.68770684037709806091e+01) (8, 4.79913019268366610959e+02) (46, 1.77233799319864004929e+01) (7, 4.66665915446966295121e+01) (19, 6.06754231659496809925e+01) (60, 9.61041147051777898014e+02) (38, 3.17036805307348515726e+02) (20, 1.15410537166875343473e+02) (63, -1.33141122312501032354e+01) (10, -6.41562248277312846767e+02) (67, 2.23804158797283037075e+01) (30, 6.54009894054949025843e+00) (3, 1.42569682530129835385e+01) (18, -1.80263155484093862135e+00) (53, -1.14178656459116005806e+01) (70, 1.30329772310734064433e+01) (60, 3.31634094751433678994e+01) (69, 1.77851837416520943691e+01) (8, 5.18795734109534691925e+02) (43, 2.36542238207141046757e+01) (4, -4.88195513946964695151e+02) (44, 3.93406893417904313992e+02) (48, 9.14147633682841487257e+00) (36, 1.02582876427797685892e+02) (30, 4.27731859319847060874e+01) (67, -2.58881637704697489255e+01) (2, 1.50000000000000000000e+03) (37, -7.33331905993363442064e+00) (62, -4.02224389537166814534e+02) (25, 8.36707895739863616313e+00) (51, -3.01832354529621440520e+01) (22, -1.50000000000000000000e+03) (16, -1.75279756257413517062e+01) (29, 6.89313191565585370313e+00) (66, 4.43917893771849634277e+01) (42, -2.04337019687830832027e+01) (58, 1.69819642216088730891e+01) (20, -2.36627188518195374911e+01) (52, 1.06922583467899201537e+02) (39, 9.48622814956807225428e+00) (26, 1.70053637986971182272e+02) (54, -9.08943345291796234164e+00) (18, -4.16132628731152287571e+00) (7, -2.05555323731345183091e+01) (50, 2.89851044416401393278e+01) (5, -8.25400945408487984878e+00) (41, 1.07771778264094542088e+00) (49, 8.45649412590911531140e+00) (13, -1.46003407392897877060e+01) (1, -2.18054864027665651349e+01) (21, 1.77739262334354570783e+01) (70, 8.04228197108852183028e-01) (56, -7.23557991566477110013e+00) (41, 1.56606490562094311514e+01) (50, -6.31435114683136191616e+01) (5, -1.39912407336316331197e+01) (22, 1.50000000000000000000e+03) (15, -1.57734174871949885954e+01) (37, -3.02902244513721967678e+01) (14, 1.50000000000000000000e+03) (11, -2.96798486379874084662e+01) (52, -1.50000000000000000000e+03) (2, 1.50000000000000000000e+03) (20, -5.38907051879307701370e+01) (45, -8.99162333179934947225e+00) (43, -5.27001556942368054592e-01) (35, -2.76327254297553004392e+01) (68, 1.50000000000000000000e+03) (3, 2.62891773090462521623e+01) (26, -2.44812396254434474940e+02) (53, -3.20909566676282906883e+01) (21, 1.07827200927306172673e+01) (6, 1.49912430414877326257e+03) (54, 1.23962911351687576911e+01) (51, 3.07044440856057683220e+01) (64, 1.50000000000000000000e+03) (30, 1.86413007668668716243e-02) (28, -4.37593138074988914354e+01) (13, 2.04582329755871690224e+01) (7, -1.74120308123946010426e+01) (62, 1.50000000000000000000e+03) (16, -9.55165929438258132222e+01) (38, -1.22471750645402877922e+02) (12, -1.50000000000000000000e+03) (23, 3.40337927194049072455e+01) (33, 2.86855612361971736846e+01) (17, 8.06559560258044250247e+00) (70, 4.70967863635450001425e+01) (48, -1.36215534197305800035e+02) (55, -1.03651225027321451932e+01) (29, 4.22044039356125324503e+01) (40, -2.08980540841241513306e+00) (0, -5.69146952203958335303e+02) (12, 1.50000000000000000000e+03) (46, -2.40719252564307844011e+01) (24, -1.50000000000000000000e+03) (20, 5.11697059198665105129e+00) (41, 3.05404030411985338844e+01) (59, 4.79243708839595470295e+01) (60, 1.20790921302196761644e+03) (5, 2.84368029227432606021e+00) (22, -1.50000000000000000000e+03) (23, 4.02255880222387318668e+01) (52, 1.49996755815074561724e+03) (17, 1.84623673028584334155e+00) (34, 2.58783377902250961711e+01) (14, -1.50000000000000000000e+03) (19, -4.21520029015380348625e+00) (39, -3.16651515273463637357e+01) (63, -4.07933755332246263947e+01) (51, -1.03868549785732895430e+01) (42, -2.96237903152199173462e+01) (44, 1.62987038337991435810e+02) (4, -2.69759928795847470084e+00) (68, -1.50000000000000000000e+03) (36, 1.67870639236548626627e+01) (31, 8.13876360554204225650e+00) (65, -3.52760507031053904825e+01) (6, -5.29837724390366027194e+00) (8, 6.64966910126507002587e+01) (26, 1.50000000000000000000e+03) (9, -3.05154182333693206886e+01) (37, -3.09039037302734733714e+01) (70, -1.49033471970906568060e+01) (49, -1.62586833051776835646e+01) (41, 4.79504933633097341072e+00) (2, 1.50000000000000000000e+03) (56, 9.02349858994440801041e+00) (32, 1.25438366531436962248e+01) (64, 1.50000000000000000000e+03) (9, -1.50976931026531637769e+01) (12, 4.14308828565857595549e+02) (23, 2.36457433496218065727e+01) (20, 4.97200355699641249885e+00) (40, 3.34015312404580200223e+01) (11, 4.39369513309078030261e+00) (61, 2.88723672406649960465e+01) (19, 1.39055404643036739643e+00) (24, -1.50000000000000000000e+03) (1, -7.92437953046545828784e+00) (7, -2.46489865066969038310e+01) (13, -2.07900793373001278042e+01) (45, -1.64440693102427744066e+01) (3, -2.44290258317357995566e+01) (59, 2.41320068795813149620e+01) (4, 6.92425962762105484671e+00) (28, -2.19443801567666412211e+01) (36, 3.99100825170669750719e+01) (63, 4.01242522582306833101e+01) (54, 1.08871741409972344172e+02) (55, -3.60394597395322833222e+01) (27, 7.95861492567921757768e+00) (57, 2.56564167876102366961e+01) (33, 3.91401713602447216545e+01) (67, 3.44568895616958492667e+00) (62, -4.41826390838446684484e+02) (66, 3.92651670728646564612e+01) (22, -1.50000000000000000000e+03) (46, 1.44153876089121979476e+02) (70, -3.01629957605864476022e+01) (14, -1.50000000000000000000e+03) (49, -1.79537747500367395048e+01) (18, 6.98809054319756342011e+01) (62, -1.50000000000000000000e+03) (66, 2.63117430959661398049e+01) (20, 8.87112370104359939660e+01) (33, -1.84069989640317679402e+01) (44, 1.32643014111588115611e+02) (52, 1.49974252335262804081e+03) (17, 4.22318099560554784944e+01) (69, 1.76267963955839626067e+01) (24, -1.50000000000000000000e+03) (42, 1.80026794275739661089e+02) (58, 3.30176410707438916514e-01) (41, 7.40270410838589754121e+00) (30, 6.75628467488791795148e+00) (23, -9.16148434125500266134e+00) (51, 1.88574769021781207812e+01) (34, 2.52234457782012356120e+02) (56, 3.19820309210409618572e+02) (9, -1.57092886850173432123e+01) (38, 3.50524994289358687638e+02) (28, -7.84658887710020547246e+00) (40, 3.38910760812969655831e+01) (13, -1.39624642939194156810e+01) (19, -3.65489488141847429503e+00) (26, 1.50000000000000000000e+03) (35, -1.12748564615941067046e+01) (2, 1.50000000000000000000e+03) (67, 7.09667589205737026070e-01) (64, 1.50000000000000000000e+03) (31, 2.58331934985869082766e+01) (21, -1.95916959721768080271e+01) (5, -1.69166149704864672287e+01) (1, 1.27911508996627034662e+01) (70, 1.19123467607408404234e+01) (34, -6.29897867575356897873e+01) (17, 6.46813336261409155270e+00) (3, -1.81934872465248602680e+01) (54, -1.09843038038951831936e+02) (27, 2.88542696288748743427e+01) (51, 8.84753055438952529244e+00) (33, -1.43786909061835483925e+01) (30, -7.43416106683473572048e+01) (37, -1.08755832235452132295e+01) (25, -1.78573290070325896295e+01) (57, 6.19286850131452482060e+00) (69, 2.77176163636333718898e+01) (66, -5.05652889653635355671e+01) (32, -1.95697572151674172858e+01) (44, -1.31385804760144623060e+02) (18, -3.81692697552846027520e+01) (45, -2.46357641984657149692e+01) (1, -2.17426892118568915180e+01) (31, 2.29513263449620268375e+01) (56, -3.12402528017953557082e+02) (15, -1.47548297379910042793e+01) (63, -8.12766502757830444637e+00) (43, 1.52182465421182993026e+01) (9, -1.75520165395269991393e+01) (39, -5.48213006714894146576e-01) (35, 1.25206053230126244102e+01) (7, 1.84952717277804907781e+01) (40, -4.43443819074143448233e+01) (46, -1.06314487045201317983e+01) (59, 2.51926235902668205213e+00) (61, -3.08132776147087561469e+01) (23, 2.30217243896330927555e+01) (12, -1.50000000000000000000e+03) (60, -6.20368038012147849258e+02) (8, -2.27419854116072968964e+02) (70, 2.41992985767855994794e+00) (26, 6.66973500428055672273e+02) (1, -2.59329065127915718847e+01) (3, -1.22185424609688375597e+01) (35, 3.03060584441937486133e+00) (6, 6.20519845604883713008e+01) (53, -1.58844497428705135889e+01) (30, 1.09356490979596742363e+02) (55, -3.94549135131871286930e+00) (14, -1.50000000000000000000e+03) (28, 1.21578713084272411749e+01) (29, -8.35993378532347897192e-01) (65, -1.77394136233872750097e+01) (66, 3.41680243764839559617e+01) (67, 2.90120606881778577701e+01) (5, -5.54559892031567702730e+00) (8, 8.53279954026253449229e+02) (62, -1.50000000000000000000e+03) (38, 3.27908581932255174252e+02) (23, 5.38877166887719383226e+00) (13, -2.90526318739472699804e+01) (7, -3.77157230182992861955e+01) (58, -1.57893496733977851676e+01) (24, -1.50000000000000000000e+03) (42, 1.12631216845201809207e+00) (52, 1.49971695329664703422e+03) (17, 2.31409653433676929524e+01) (22, -1.50000000000000000000e+03) (21, 5.01425463586522379700e+00) (43, 5.62049765254583943985e-01) (16, -1.94691010494467775516e+01) (54, 4.08324422558557742491e+01) (48, -4.50860476164814258482e+02) (59, 1.05803733676681499531e+01) (56, 3.14952127033686224422e+02) (68, -1.50000000000000000000e+03) (70, -4.21411453285275285907e+01) (21, 9.14955484315840950060e-01) (43, -3.57971478399187716946e+01) (29, 2.22557600576198559850e+01) (42, -2.68205970083109477287e+01) (31, -3.09882186226172819943e+01) (27, -2.42802689292124789233e+01) (4, 2.81944845722012038536e+00) (20, 4.56010520831458023849e+01) (49, 3.60147322854766827049e+01) (14, -1.50000000000000000000e+03) (53, -2.86325910631982836207e+01) (69, -1.15158491047744160340e+01) (68, -1.50000000000000000000e+03) (37, -3.67553888188391795211e+01) (8, 1.23213360635237592078e+02) (59, 2.36880573770789304433e+00) (57, -2.99285688790840005424e+01) (63, 4.13193070225891005975e+01) (51, -9.87058828878543459417e-01) (56, 1.23309087001913823656e+02) (64, 1.50000000000000000000e+03) (50, 1.91185119040025540471e+02) (12, 1.50000000000000000000e+03) (54, 1.99318274392679235518e+01) (34, 5.43544163845789469747e+01) (32, 1.24284320841520070644e+01) (17, -4.20771736592793743625e+00) (10, -2.04007727996571389895e+02) (22, -1.50000000000000000000e+03) (58, 6.04125460903560878023e+01) (66, 1.55938641210780524204e+01) (23, -8.23726260333779575218e-02) (44, 3.09306928979551329917e+01) (39, 3.68452344905427420230e+00) (1, -1.87458056507245940381e+00) (70, 1.22335574309024490702e+01) (55, -1.56565619257725376912e+01) (69, 7.25117607680518183599e+00) (4, 3.00218237369646168133e+01) (15, 3.02392045169666756621e+00) (17, 5.06904017203901657851e-01) (28, 1.15937516233726807258e+01) (27, 7.60185665614907435383e+00) (1, -6.59864129992809189673e+00) (18, 1.67722342032649294197e+01) (36, -2.97701625810901873592e+02) (33, 4.05936592824903783594e+01) (64, 1.50000000000000000000e+03) (34, -2.71125806138279529023e+02) (51, 1.22177298594843861679e+01) (5, 1.31802220752902012890e+01) (59, 6.58866614431032804333e+00) (41, -1.74666352766443253586e+01) (2, 1.50000000000000000000e+03) (63, -2.55457819747506036379e+01) (21, 9.34204586246009505146e+00) (31, 7.82304173148955754868e+01) (37, 9.25727211985245546089e+00) (14, 1.50000000000000000000e+03) (62, 1.50000000000000000000e+03) (49, 2.27446243911255621128e+01) (40, 2.36666051967282662361e+01) (44, -2.00238778232108870725e+02) (35, 9.43933844841414426696e+00) (66, -2.29769830151985736677e+01) (46, 1.58787057286136441547e+01) (61, 5.46129091313418513209e+01) (42, 9.07193697500679907542e-01) (65, -1.33070414384212813985e+01) (3, -6.95642660600494650014e-02) (20, -3.70791154931638686776e+01) (70, 1.14561949383513397294e+01) (33, 2.93498115530266261430e+01) (10, 8.92155307633343426232e+01) (30, 7.29395075979103353347e+01) (42, -1.21910929847297907713e+02) (51, 1.07079758750895148722e+01) (27, 6.19952445877972468935e+00) (59, -7.56540365797183067542e+00) (41, 2.18400815131477443742e+01) (63, -9.56865567116743420684e+00) (24, 1.50000000000000000000e+03) (65, 5.07397800796076658969e+00) (14, 1.50000000000000000000e+03) (50, -4.67350159228662164423e+02) (57, -1.76476785838926168992e+01) (36, -6.11102338360600754186e+01) (69, 1.11976840142515747800e+01) (20, -8.36484963463805826223e+01) (64, 1.50000000000000000000e+03) (48, -6.53406374638282272826e+02) (39, 3.15907790044211234104e+00) (29, -3.45210799237297436548e+01) (61, -2.17897755458633497483e+01) (46, -2.26224624443906456861e+01) (34, -6.19420244456713476211e+02) (56, -5.95965573721768251403e+01) (2, 1.50000000000000000000e+03) (55, -1.15827165458844594248e+00) (47, -3.21201740332122698263e+00) (3, 2.58262713004358417379e+01) (15, 1.75479754931346825231e+01) (1, -1.56680403512434214264e+01) (40, 3.29684457478745400749e+01) (7, -3.46248068495624323759e+01) (25, 1.13026646389919100955e+01) (60, -9.56980487324351543066e+01) (70, -1.35774082843522823083e+01) (55, -3.48238982944968977762e+00) (59, -2.60373409250185865460e+01) (4, 5.21546596082974378561e+00) (29, -4.60103604918430253434e+00) (27, -4.51694810611562687086e+01) (0, -5.19554279855935874366e+02) (46, -2.79957352850359386665e+00) (33, 2.09031876707045016772e+00) (10, 5.35933960127019162201e+01) (1, 2.71572985943048941238e+01) (15, -7.30841834235841592005e+00) (7, 3.18827465005181949209e+01) (14, -1.50000000000000000000e+03) (35, -1.79623532946502351137e+01) (65, 1.70826068218439566238e+01) (40, -7.31926188520302112295e-01) (51, 1.93235144689523821171e+01) (17, 1.05913944794005558947e+01) (44, 1.52306991907216655591e+01) (6, -9.84837180288033842146e+00) (39, -2.57557139372582710735e+01) (53, -9.24459532217922941300e+00) (69, -1.28694697198281193806e+01) (24, -7.06417040615795741587e+01) (50, 8.69766684404036638512e+00) (41, -2.34942167477961518784e+01) (37, -8.28123719733113361485e+00) (8, 6.00980100562427899114e-01) (25, 7.66361441590127068224e+00) (43, -9.66593911992350207640e+00) (47, -2.02261392806863291582e+01) (48, -3.91441497397356172883e+01) (30, 3.19295044882460175018e+01) (31, 2.69594208337659608787e+01) (22, -5.13451481956946835794e+01) (70, 1.18814410695404664153e+01) (40, 5.45847979932573590389e+00) (50, 4.99488351756884014776e+02) (16, 4.94620777586960755912e+01) (23, 2.27042569286699311704e+01) (18, -6.28314099971050143978e+00) (26, 1.50000000000000000000e+03) (60, 9.29785788217026265556e+02) (9, -1.71501326010866748106e+01) (34, 2.88654692942021199542e+02) (35, 1.01637303181963005727e+01) (24, -1.50000000000000000000e+03) (44, 2.54013458077830236448e+01) (56, 2.88230898850917014897e+02) (6, -2.72561663861796645847e+01) (10, -6.44701055574065776455e+02) (3, -6.65768341929158502523e+00) (31, -1.20322643641325157660e+01) (15, -9.99678515836789571836e+00) (32, -4.53284677131516176019e+01) (49, -2.53152802901265374658e+01) (58, 3.74803471160050349908e+01) (59, 1.13322239860253617394e+01) (57, 2.40230569282670236575e+00) (30, 1.21961755929335904369e+01) (12, 1.50000000000000000000e+03) (68, -1.50000000000000000000e+03) (62, -1.50000000000000000000e+03) (38, 3.77700483849448289675e+02) (21, 2.07599905674068274664e+00) (51, -6.89872481543179905117e+00) (11, 6.17010912654891274798e+00) (22, -1.50000000000000000000e+03) (27, 8.79781332125971893277e+00) (66, 6.17127154622994424926e+01) (13, -1.50171886765665689722e+01) (70, -3.03087083543003537045e+01) (50, 1.57568107872348804221e+02) (26, 1.50000000000000000000e+03) (27, -2.56145341961402372988e+01) (14, -1.50000000000000000000e+03) (24, -1.50000000000000000000e+03) (40, -5.62371428371419099790e+01) (6, 1.38352335654029001688e+01) (67, 1.41967052219721789896e+01) (13, -4.06471773390831359052e+01) (3, 2.29917753909242916777e+00) (31, -1.20662512617274764182e+01) (11, 1.06992128278477203196e+01) (56, 1.24031010226251183326e+02) (37, -4.33918282877845058465e+01) (45, 2.48936549401552920102e+00) (55, 6.78539518504225891427e-01) (9, -1.23648796394983087055e+01) (48, -7.01476418152907115200e+01) (22, -1.50000000000000000000e+03) (47, 1.33771114029783588784e+00) (38, 1.04893814249661915028e+02) (43, 3.43202206294766165584e+00) (51, -4.63798572396242647642e+00) (66, 1.88683044193174248582e-01) (42, -4.58131817755543764292e+01) (41, 2.51091440957343650098e+01) (25, 1.85341169799004461538e+01) (12, 1.50000000000000000000e+03) (36, 7.80241019274858018662e+01) (35, 2.46950317711680789046e+01) (39, 4.00112133434487375894e+01) (8, 8.62941008220478238400e+01) (44, 2.19503823309411032483e+01) (23, -1.42558053514929348182e+01) (20, 2.97952823425738877461e+01) (70, -5.11552580784958550453e+01) (1, -2.43892723145628735892e+01) (39, 4.49703791801559447094e+01) (36, 2.99544949552349521582e+02) (5, -4.58049419066949354828e+01) (30, 5.99726610274334248629e+01) (63, -2.99731325644508928008e+01) (17, 3.95481535230975396189e+01) (67, -7.96591173576895972275e+00) (20, 5.29702750866197646928e+01) (23, -6.00585128202253848428e+00) (16, -2.87682107573533407674e+01) (11, -2.30449201022384784210e+01) (6, 1.42002715525945930608e+01) (0, -5.51332669846266071545e+02) (61, 1.44471821077628881369e+01) (49, -4.94579310285029905003e+01) (9, -1.81293018487309858244e+01) (35, -3.30539748353771756229e+01) (68, -1.50000000000000000000e+03) (44, 7.24021112628501555264e+01) (65, -3.42477950047653862953e+01) (47, 1.32232100229122746526e+01) (15, -2.18608442182507758389e+01) (60, 9.03726158776719671550e+02) (8, 4.66588135568949269327e+02) (46, -1.20068423903905667771e+01) (56, 2.94601864462720357096e+02) (48, -9.61990229178741032001e+01) (3, 9.39175692904107428660e+00) (58, 4.31829461594809913549e+01) (52, 1.49996755815074561724e+03) (40, -2.37210227635404891089e+01) (18, 1.62505390993909415442e+01) (62, -1.50000000000000000000e+03) (26, 1.50000000000000000000e+03) (70, 7.98278961665865960384e+00) (50, 5.10473493141075209678e+02) (7, 4.61488893338548944456e+00) (25, -2.58981232410443134029e+01) (27, -1.51536858228277289129e+01) (41, 2.94742451289901694622e+01) (20, 9.41557361309312881303e+01) (55, 8.27578278176323323123e+00) (36, 2.89453940173916464573e+02) (44, 6.15899665065331163305e+01) (32, 1.91841552317871411049e+01) (34, 3.16978139232146702398e+02) (13, 3.04900149229986006105e+01) (46, -3.54918677962742492582e+01) (68, -1.50000000000000000000e+03) (49, 2.24747529161934131992e+01) (53, 4.44311298118763353671e+00) (37, -1.72979429227732026675e+01) (64, 1.50000000000000000000e+03) (9, 2.54258186194086626131e+01) (38, 3.64208457147558249289e+02) (24, -1.50000000000000000000e+03) (15, 5.03356257725359235167e+00) (48, -1.48170760779507645566e+02) (66, 1.25763934408148809752e+01) (22, -1.50000000000000000000e+03) (21, -4.97243568415779702008e+00) (30, -1.94540281205157370437e+01) (61, -5.34618718545009841137e+00) (51, 1.07435952182649145925e+01) (63, 2.21566472512229353242e+01) (31, 1.69631041518231775456e+01) (57, 3.37434889239303572595e+01) (42, 4.05616821985768893910e+01) (16, 3.46748854035350788649e+01) (45, 3.66614172460691563060e+01) (70, -1.57326312142691211449e+01) (53, 1.43663072136301828152e+01) (24, -1.50000000000000000000e+03) (5, -1.55510529363263483305e+01) (35, -6.87536247805412603640e+00) (15, -3.77151830710096120924e+01) (23, 4.01437007110245289709e+01) (57, 8.51056733366375794958e+00) (41, 6.37898436085666276085e+00) (16, 4.54507588317117381393e+01) (4, -1.31580018740047801629e+01) (61, 4.43877828923484898382e+01) (46, -8.68972658202171999164e+00) (14, -1.50000000000000000000e+03) (17, -8.68501485581185406204e+00) (48, 1.05498779848472736376e+03) (27, 5.39564021022343265344e+00) (37, -1.06243324092223883071e+01) (31, -4.23486012835987502001e+00) (65, 1.25383286398568554176e+01) (60, 2.26247058794273918636e+01) (38, 3.48093038878040772488e+02) (30, 1.16571092696208165052e+01) (59, -9.39311811852423161895e+00) (32, 3.90745171273058105044e+01) (66, 4.62644971166574094923e+01) (0, -5.20203877023905079113e+02) (19, 1.28850580320721141980e+00) (67, 1.50875306547581988781e+01) (58, 4.39059945422190054387e+01) (25, -2.78556099299321502372e+01) (62, -1.50000000000000000000e+03) (64, 1.50000000000000000000e+03) (49, 3.05425864135123461551e+01) (39, -3.01205728384694602084e+01) (29, -5.95915394812571808103e+00) (70, 4.46796696188573250197e+00) (20, -4.68374139977039547489e+01) (57, 7.54841285474458345561e+00) (16, 1.21979947622125495243e+00) (43, -2.04140540718377536678e+01) (60, -9.35469641995892629893e+02) (22, 1.50000000000000000000e+03) (53, -3.24181057408286132926e+00) (29, 7.35077205636028896407e+00) (27, 1.60928957832194114985e+01) (42, -1.81957158677932397950e+01) (47, -1.27011288181885029225e+00) (59, 3.23421077129269818329e+00) (7, -5.66770425936249599985e-01) (24, 1.50000000000000000000e+03) (55, 7.06284553333480769055e+00) (15, 1.28527383886879409403e+01) (2, 1.50000000000000000000e+03) (18, -1.36389767555509013874e+01) (13, 9.45860874950573204956e+00) (41, 6.37498840792225518470e-01) (23, 9.95495998082142463659e+00) (52, 1.99088330616319773014e+01) (0, 1.50000000000000000000e+03) (11, 7.03558101440420990969e+00) (3, -1.28093936076011978287e+01) (1, -2.13847685575257173696e+01) (8, -4.73090744105174962897e+02) (25, 1.35059718910017014792e+01) (28, -1.81998372107156924926e+01) (33, 2.05854512348734495220e+01) (69, 9.59860822744176012122e+00) (9, 2.98088002582431421672e+01) (19, -1.64799319552699152780e+01) (65, 2.05364960909117826304e+01) (67, -1.31043130960679210517e+01) (70, 2.28715956131571607202e+00) (16, 6.69469389559075267471e+01) (47, -1.93662834594152073464e+01) (48, -5.95958354473162099652e+00) (50, 5.56896971017185649089e+00) (3, -9.47365176757112870121e+00) (44, 4.49208406471619809963e+01) (64, 1.50000000000000000000e+03) (12, 1.50000000000000000000e+03) (41, -2.60998628833387904535e+01) (35, -7.48487737159391830488e+00) (32, -3.11443293263209461941e+01) (25, 2.09878817612016668193e+01) (15, 1.11158102298020580179e+01) (18, 2.44262618133531894671e+01) (56, -1.47476671541269894306e+02) (49, -1.28859185931857709306e+01) (55, 7.67845607656258355433e+00) (34, 4.41315488919205094476e+01) (26, 2.87584181590588627841e+01) (9, -7.53326813695764041512e+00) (42, 4.03656532476835838708e+00) (54, 4.37505009414401691004e+00) (4, -2.20981662114682144704e+01) (60, -1.69353149339526076744e+01) (31, 2.39111883075271371979e+01) (27, 2.58446750987281461676e+01) (6, -5.60126499870062417585e+01) (17, -9.38839153360373046553e+00) (57, 1.04165753942882073346e+01) (43, -1.41173709345675391091e+01) (46, -7.38426709954023579030e+01) (53, 1.55548932684750385036e+00) (0, -5.42416876367777604173e+02) (29, -2.07921832441830893856e+01) (68, -1.50000000000000000000e+03) (70, 1.30234476310059701376e+01) (22, 1.50000000000000000000e+03) (61, 3.06141517402685927607e+01) (11, 1.65699240574040622676e+01) (54, -1.00696344973853669558e+02) (65, -3.38740924614583747143e+01) (67, 4.27254460496504364642e+01) (59, 8.24294522079699554240e-01) (31, -1.97395624843092605261e+01) (68, 1.50000000000000000000e+03) (27, -7.07442314178429043636e+00) (8, -4.94375354853465978522e+02) (37, -9.71300264952451697376e-01) (23, -1.15334199631259881613e+01) (5, 3.11834743237402598481e+01) (10, 7.16012596091580803659e+02) (52, -1.50000000000000000000e+03) (7, -5.49719882908440311553e+01) (51, -6.83978608912646723894e+00) (3, 3.49549823981607659107e+01) (40, 9.98864527775248767227e+00) (41, 5.72942941507854808236e+00) (42, -1.50189710672428105909e+02) (66, -2.64911546155403812008e+01) (38, -3.37289896360935472330e+02) (25, -6.54010555588388875492e+00) (62, 1.50000000000000000000e+03) (14, 1.50000000000000000000e+03) (21, 3.58797720897194736267e+01) (53, -2.16017691336087924725e+00) (26, -1.50000000000000000000e+03) (18, 4.68429548265731732215e+00) (69, 7.21177038452381485856e-02) (47, 2.04694785284157347860e+01) (19, 6.35261582571345684300e-01) (32, 4.42758095536520901447e+00) (70, -2.46685395004605858560e+01) (36, 1.72440939341479371194e+01) (54, 2.65992053101412579963e+02) (29, 2.40812283401522684301e+01) (56, 8.71746423970380313051e+00) (16, 2.56369445081527587149e+01) (47, 1.03229129278730535901e+01) (64, 1.50000000000000000000e+03) (7, 1.93102252737151758311e+01) (30, -9.67203847043886497659e+01) (38, 3.29139849259691317229e+01) (62, -1.50000000000000000000e+03) (48, -4.01834970184149256056e+01) (57, 1.92009309860207508791e+01) (5, -9.43436172689938779001e+00) (8, 2.99662488857455393543e+01) (6, -1.47507740556296962353e+01) (26, 1.50000000000000000000e+03) (28, -7.13929695594681668069e-01) (23, -8.53410463670040009276e+00) (68, -1.50000000000000000000e+03) (2, 1.50000000000000000000e+03) (18, 1.38399205772138067516e+00) (31, 1.55372689314050749232e+01) (39, 2.25091249744841483960e+01) (32, -4.11938288129366355861e+02) (10, -2.10091761287514415812e+01) (51, -1.39492050406230294612e+01) (34, 3.66753489535475694083e+01) (25, 5.33439030938739655596e+00) (20, 1.78573217376417190394e+01) (21, -1.06535982261152835093e+01) (44, 3.01367445273019356478e+01) (69, 4.74105207202238716491e+01) (53, -1.09439705393510805509e-01) (50, 3.19201864659041198991e+01) (70, 2.13761206379056645233e+01) (25, -2.15938429103200029147e+01) (31, -1.32349322141217964344e+01) (55, 2.45468935991991585865e+01) (23, 2.15814923742396729267e+01) (49, -5.80314846354454849653e-01) (14, -1.50000000000000000000e+03) (15, 1.92453002013484364419e+00) (63, 1.98359319034183534392e+00) (65, 2.43806200733304692108e+01) (27, 1.75513809373580897955e+00) (52, 6.62577706939452326651e+01) (48, -2.81548823650345738656e+01) (47, -1.58978359680737373338e+01) (8, 4.92043070642802035763e+02) (19, -1.55304093940909453408e+01) (42, 9.60250769429651640507e+00) (43, 2.35766160914981099950e+01) (12, 1.50000000000000000000e+03) (61, -8.69948304500761615543e+00) (46, -1.96286382706322526381e+00) (29, -1.00706575052100841816e+01) (34, -1.48993022210379830739e+01) (38, 3.35698183101930681005e+02) (56, 3.37766320212225991781e+02) (44, 4.06360685534997756463e+01) (11, -1.77072585049874433594e+01) (26, 1.50000000000000000000e+03) (59, -2.46150616353741007458e+01) (30, -9.65194383351723850240e+00) (67, -1.22288299154682054137e+01) (9, 1.81213130051988073888e+01) (33, -2.03030583095304884012e+01) (64, 1.50000000000000000000e+03) (17, -1.92327681281216520404e+01) (7, -1.07401972188905059369e+01) (70, 3.55265198756057074547e+01) (28, 3.08934546717883264932e+01) (3, -6.02904041898388154408e+00) (17, 1.90574041639615145982e+01) (43, -2.29190226409037833832e+01) (29, 1.69962558857617338504e+01) (4, -1.14206883720041796337e+00) (7, -4.71780130556714727419e+00) (48, -1.11622927167874422594e+02) (38, 3.27560164606054854630e+02) (56, 3.19685657149182759440e+02) (51, -1.45849101268818479582e+01) (25, -2.58914017444622821529e+01) (20, 5.39187785808824173728e+01) (58, 2.20078401108970886924e+01) (40, -8.31618324785450901970e+00) (10, -6.46732709216720422774e+02) (60, 9.54138165154892476494e+02) (21, 3.50159576420580886946e+00) (53, 4.85805565236713405852e+01) (34, 2.98209946464049949100e+02) (1, -4.39284587922136680049e+01) (57, -2.01949151593262961057e+01) (16, 2.03375555390331399508e+01) (59, -2.24101486515276704381e+01) (62, -1.50000000000000000000e+03) (67, -1.98707016603924095932e+01) (55, 2.13855669080428718587e+01) (39, -4.27573849494827271656e+01) (8, 4.69725762693735930497e+02) (19, 2.60198006356183455523e+01) (24, -1.50000000000000000000e+03) (22, -1.50000000000000000000e+03) (49, 5.58682586083620869033e+00) (14, -1.50000000000000000000e+03) (26, 1.50000000000000000000e+03) (70, -3.33966805424641819400e+01) (15, -1.26181393651495135089e+01) (1, 4.28108275446940211850e+01) (66, -6.06406106397104878170e+01) (35, -3.89046042382442491814e+00) (2, 1.50000000000000000000e+03) (24, 1.50000000000000000000e+03) (18, 6.74789583106170454130e+00) (51, -2.01579926879194921696e+01) (38, -3.84217728010715063647e+02) (65, 3.24259691572238262225e+00) (22, 1.50000000000000000000e+03) (20, -1.99236564487215048302e+02) (48, 1.49987444858867320363e+03) (0, 1.50000000000000000000e+03) (36, -2.85031116556341601154e+02) (4, 4.70503633945580759246e+01) (58, -2.90317262972868803672e+01) (56, -1.49961035124908949001e+03) (57, 1.73531311597541559877e+01) (30, -2.43622534207030341236e+01) (62, 1.50000000000000000000e+03) (16, 6.69354530216710674750e+00) (7, -5.71146985838041043593e+00) (44, -5.02531801850133348353e+01) (23, 2.16134798907855127936e+01) (32, -2.34161316918872657311e+01) (42, 8.97647391815791806380e+00) (3, -4.27744550371202425509e+00) (43, 1.79306038431330598826e+01) (13, -8.52305166696554117323e+00) (25, 4.57130463423098447606e+01) (55, 3.20258215880572620904e+01) (53, 1.40505241003094933916e+01) (46, 1.81033910032641287557e+01) (17, -2.23415326024347216105e+01) (70, 4.01367431889248305055e+00) (63, -1.99420119323287465818e+01) (11, 7.49777916428589819020e+00) (15, 2.12757487143552452835e+01) (9, 2.95908669778756250324e+00) (23, -2.66831087012370016254e+00) (25, 2.50371044629833114925e+01) (17, -1.08504509097507861881e+00) (50, 1.00307105309389559267e+01) (34, 7.09281929004064579658e+01) (41, 1.37734973136160343543e+00) (19, -1.72355331694398330455e+01) (30, 8.85746626808083803439e+00) (26, 8.65890452245907198403e+01) (56, -1.70513602668353669856e+01) (39, -3.20532333870533170384e+00) (36, 1.09857460116037131570e+02) (1, 8.68085509548978073724e+00) (18, -1.68488576560927860726e+01) (33, -2.37012172880174141198e+01) (59, 1.63605740896722622324e+01) (44, 2.42686041852142864172e+02) (5, 4.00058909916904159587e+00) (46, -3.72045381522013144604e+02) (52, 4.69302936851690333242e+01) (66, 1.37387154179232470597e+03) (45, -1.15224885477987051274e+01) (10, -4.05463262377681132875e+01) (64, 1.50000000000000000000e+03) (65, 1.44980595708926127685e+01) (43, -2.33783534687316851830e+00) (0, -5.57550095133035483741e+02) (57, -1.38372056616282161912e+01) (28, -4.95753968048483173447e+01) (20, 3.25074495818053321727e+00) (67, -4.12641715233979766708e+00) (70, 2.08240243006441900775e+01) (37, 1.42536680238854351899e+01) (40, -4.51057445195220907408e+01) (30, 1.52372903914470043674e+01) (53, -1.53024247766846386298e+01) (31, -2.27629118927935252259e+01) (44, 6.73006336398644577912e+01) (43, -3.70125206327143185803e+00) (29, -1.36508941539103005880e+01) (69, 3.68977796493346161810e+01) (35, 3.22063706236071993771e+01) (4, -1.06008145621897442723e+00) (57, 9.90641252418275497504e-01) (5, 5.51580116975328049733e-01) (68, -1.50000000000000000000e+03) (25, -7.18794152793763441167e+00) (56, 2.93579141264783345378e+02) (41, 1.35156577623133866695e+00) (13, -1.57957040033257611888e+00) (1, -1.39552102709975467398e+00) (3, 1.12073516021978125679e+01) (46, 1.70414879166163260038e+01) (60, 9.31114855447250079123e+02) (32, 3.55845573008791546954e+01) (67, 2.38295146329425513443e+01) (39, 7.38276702805118656414e+00) (14, -1.50000000000000000000e+03) (15, -5.48329218577741350771e+00) (59, 3.03491693961663493440e+01) (9, -4.66743070157348327598e+00) (12, 1.50000000000000000000e+03) (58, 1.66306361695518312160e+01) (65, -9.33656301014167233632e+00) (7, 1.38527457983166133459e+01) (26, 1.50000000000000000000e+03) (63, -1.99297670859352678008e+01) (70, 1.66876911251276389692e+01) (63, 2.63949436928569554084e+01) (51, -2.33703322437559641855e+01) (66, 4.50626413975678445922e+01) (59, -7.18804741334149444043e+00) (37, 1.72683822049050625935e+01) (21, -1.04025383462410232482e+01) (11, -1.75816769002874693228e+01) (16, 2.37850565301100269622e+00) (18, 1.83064761664802988506e+00) (26, 1.50000000000000000000e+03) (24, -1.50000000000000000000e+03) (30, -1.00537888121237650729e+00) (5, -2.87301721757277803704e+01) (42, 3.17843779810959370380e+00) (40, -1.89460777995114675321e+01) (35, -1.21298654397937220040e+01) (33, -3.44992378478577279566e+01) (32, 2.37693875515594292835e+01) (31, -1.66132899052882194724e+01) (2, 1.50000000000000000000e+03) (41, 1.96254488790139660637e+01) (65, 2.51266426174372092817e+01) (46, -4.64365770491769183081e+01) (8, 5.03557797281596094763e+02) (13, 1.02335074549228202678e-01) (61, 2.48083804073665596945e+01) (29, 2.28699069916093229438e+01) (12, 1.50000000000000000000e+03) (53, -4.69888072366554343517e+00) (43, -1.53308336211425029205e+01) (36, 3.26161236030190195834e+02) (48, 6.79459405177241961837e+01) (62, -1.50000000000000000000e+03) (28, -1.42116289088459506473e+01) (67, 2.05842417952969256589e+01) (70, -4.10686491917771050453e+01) (50, 5.39772355598339345306e+02) (55, -2.12122266710586906413e+01) (23, 7.64638327226823300009e+00) (47, 6.24603955553406642309e+00) (13, 1.75115031126958662355e+01) (18, 1.43006508700207994877e+01) (42, 4.00198063593434909535e+01) (63, 1.17195401650450818920e+01) (2, 1.50000000000000000000e+03) (26, 1.50000000000000000000e+03) (15, -1.92093511457410102139e+01) (29, -8.53932236512278386442e+00) (66, 3.10257819448431177989e+01) (28, 7.74119263975621496598e+00) (19, -9.78006794805753010280e+00) (22, -1.50000000000000000000e+03) (45, -1.28491008279693978977e+01) (49, 3.93547548153174830965e-01) (57, -5.68258966046340958655e+01) (46, -1.75131910003148050237e+01) (16, 1.81793948525402306871e+01) (52, 1.49996755815074561724e+03) (67, 3.49117194516745215083e+01) (24, -1.50000000000000000000e+03) (12, 1.50000000000000000000e+03) (31, -1.57828541764228287292e+01) (25, 2.24938800277714001652e+00) (61, -1.52761119119362778207e+01) (44, 4.92521993823571477833e+01) (36, 3.17749152204327515392e+02) (30, 2.46642904372235207688e+01) (32, 7.89709318287506256695e+00) (14, -1.50000000000000000000e+03) (11, 2.03121527279617168915e+01) (35, 6.58422306348430286249e+00) (70, 3.70554389431579451752e+01) (26, -1.50000000000000000000e+03) (32, 9.42689115864780546872e+00) (8, -4.43280561533763375337e+02) (46, 2.57766885788937516466e+00) (13, -1.59396371017563858175e+01) (68, 1.50000000000000000000e+03) (35, 2.77769801381654568573e+00) (7, 6.92334241189048693599e+00) (51, 6.70929932879622548114e+00) (38, -3.60992134443820532397e+02) (1, 1.82682817734469935544e+01) (21, 2.34928585041879358641e+01) (64, 1.50000000000000000000e+03) (14, 1.50000000000000000000e+03) (66, -5.67188481732797953327e+01) (47, 1.41625615814784513447e+01) (15, 4.34446660069318255637e+01) (16, 1.86244659313361928810e+01) (53, -2.30698829052797016459e+01) (20, -4.61285337946573719137e+01) (28, 2.49790867432657961444e+01) (30, -9.34423387347679756942e+00) (36, -3.33663717256825236745e+02) (67, 8.68908213902323112166e+00) (59, 4.09941484926007220224e+01) (9, -6.88944143041586265497e+00) (18, 1.25883670038601636065e+01) (43, -2.89448899866920967838e+01) (23, -6.01094512437179631092e+01) (58, -3.73862571528700158296e+01) (40, 1.64531457049984979335e+01) (10, 6.22842365226102401721e+02) (11, 1.57640347968721759031e+01) (2, 1.50000000000000000000e+03) (17, -4.58710559402745161606e+01) (70, -2.55988103649798093286e+00) (0, -5.61897348932473960303e+02) (42, -3.63804737322523807919e+00) (66, -1.16656277357782789394e+00) (46, -3.79561728217645963923e+01) (65, -3.68767951942494121020e-01) (38, 8.71897268839248908989e+01) (17, -4.58175943874360758201e+00) (67, 1.36934325197031387944e+01) (32, -4.15032565429390274403e+01) (16, 1.85767782349426546773e+01) (60, 3.63657535253097250916e+02) (61, -6.39804399349051919899e+01) (36, 6.12768605903152518977e+01) (57, 4.63159398035330127641e+00) (59, -1.92845270112406979024e+01) (4, -2.28425458415623872099e+01) (26, 1.50000000000000000000e+03) (54, -1.06803881331045609215e+01) (64, 1.50000000000000000000e+03) (34, 6.96366564020020888393e+01) (22, -1.50000000000000000000e+03) (44, 3.30456737805841100908e+01) (27, -3.02783462896325197278e+01) (41, -3.84358612345208499050e+01) (28, 1.36175063446558954894e+01) (11, 1.99639972114791426350e+01) (23, -2.39978068213038326917e+01) (24, -1.50000000000000000000e+03) (9, -2.46266449778102689550e+01) (12, 1.50000000000000000000e+03) (6, -5.20370768526720226532e+01) (47, -2.55963406764911702851e+01) (56, 8.53461889325164833053e+01) (25, 1.39547618231997265781e+01) (1, 2.48321263510551411002e+01) (70, 1.40364961442866569286e+01) (17, -2.61627824514239009090e+01) (69, 1.94556991440785509440e+01) (37, -1.16899179454379140708e+01) (1, 1.99033748363857156960e+01) (8, 4.64707072107645615233e+02) (11, -1.61822467132458669425e+01) (3, 5.59569357012673496143e+00) (66, 3.70622771535836790235e+01) (36, 2.92103638371758052017e+02) (46, -3.11328304046980512965e+01) (6, 2.60460752824141117401e+00) (14, -1.50000000000000000000e+03) (21, -2.25928065585703592433e+01) (20, 9.67570889949007408859e+01) (25, -9.90437382290741652469e+00) (28, 1.27284246691942062313e+01) (48, -1.04377235365136826317e+02) (10, -6.33261518764144511806e+02) (58, 4.53759570324339822633e+00) (68, -1.50000000000000000000e+03) (60, 9.87741100572005734648e+02) (57, -7.35509068665012843979e+00) (61, -9.01981938621818279955e+00) (4, -4.55663289766662273905e+01) (45, 2.59825475118393462992e+01) (27, 2.94329376753254434718e+00) (26, 1.50000000000000000000e+03) (9, 8.31186612995145779337e+00) (16, 2.52514743733551085825e+01) (55, 1.13756194870940641195e+00) (15, -5.97070966685708626187e+00) (5, -3.73852745764534422079e-01) (24, -1.50000000000000000000e+03) (12, 1.50000000000000000000e+03) (13, 8.21935147127716425608e-01) (70, 1.36608664422916543657e+01) (13, 1.19600887106950253269e+01) (22, -1.50000000000000000000e+03) (57, -4.56822193184579958825e+01) (42, 2.62581830172607091356e+01) (27, -1.49055340444459822891e+01) (61, 3.93547620924773022821e+00) (39, -1.03840668189389599974e+01) (50, 5.52132901710399892181e+02) (11, 6.74986971449447423765e+01) (44, 3.77564527698083125529e+01) (67, 3.93719474587453035497e+01) (68, -1.50000000000000000000e+03) (21, 1.09545240133894257184e+01) (20, 7.40126187097475423116e+01) (17, 1.21612310906777967290e+01) (63, -6.50201743136552590130e+00) (49, -2.14820786316626914925e+01) (16, 3.35057195300767602930e+01) (45, 3.17292983964170893785e+01) (15, -5.74254584097867493142e+00) (2, 1.50000000000000000000e+03) (48, -7.64013334001940052076e+01) (59, 4.35714664106626070605e+00) (58, 2.32681577311061360547e+00) (69, 4.26655032630021793238e+01) (25, 3.94333537734242245421e+00) (54, 1.66844455614910209817e+01) (33, -1.05401505507885389079e+01) (32, -4.14068149916988303971e+00) (30, -4.33990191507145262051e+00) (46, -4.31019809401951619066e+01) (51, -1.30829831319068845552e+00) (43, -5.37371229764328433021e+01) (1, -7.58433630084733145793e+00) (41, 8.73263735840252763865e+00) (70, -4.05990981053513237953e+01) (27, -3.44692034718824587003e+01) (22, -1.50000000000000000000e+03) (40, -4.92322322514556844908e+01) (58, 5.61695460816612239796e+01) (7, -2.24983522622950360415e+01) (60, 9.08129297891099554363e+02) (52, 1.49996755815074561724e+03) (23, 6.39950083360856503134e+00) (6, 1.25985822139105216877e+01) (21, 2.22370512580006618464e+01) (2, 1.50000000000000000000e+03) (49, 3.08857350481513783791e+01) (4, -2.49729356508602968745e+01) (34, 2.82135226558196279711e+02) (36, 2.83105505010418539769e+02) (38, 3.68553398286779668069e+02) (31, 5.53950395498527825566e+00) (37, -7.15988080961206776465e+01) (57, 5.58707145813666556933e+01) (41, 6.68123107946144756397e+00) (24, -1.50000000000000000000e+03) (30, 1.10133166403788678167e+01) (13, 4.45592277741387121637e+01) (43, -6.48166271052384104223e+01) (47, -1.97997695068969470356e+01) (17, 1.20947634016346157182e+01) (67, 8.12184500346211146748e-01) (28, -1.07849014988659330783e+01) (68, -1.50000000000000000000e+03) (55, -4.60206945360451200600e+01) (29, 1.83083210102734526004e+01) (19, -2.41782252030071411752e+01) (50, 5.37012880844006076586e+02) (5, 1.83975002624845842547e+01) (62, -1.50000000000000000000e+03) (70, 2.61922124497924215802e+01) (49, 4.35192189654246561759e+01) (31, 9.07322851001191139630e+01) (42, 2.46323821015620758601e+01) (56, -3.16907560976249101259e+02) (16, -2.76689206619732068759e+01) (29, -2.46164099882872164926e+01) (28, -3.68882049474085071950e+00) (47, -1.95259536994789826281e+01) (1, 1.23809683278867197487e+01) (32, 1.30606115565970402059e+01) (21, 2.57157843606605429621e-01) (57, -3.69259612142558590886e-01) (3, 2.39174567390156633806e+00) (64, 1.50000000000000000000e+03) (37, -1.73321349573698171298e+01) (43, -1.07006348010575251806e+01) (66, -2.69998311444710381579e+01) (67, 2.11505012565853824924e+01) (22, 1.50000000000000000000e+03) (50, -5.05676943687760797275e+02) (15, -1.82633226093616478636e+01) (53, -4.82548960817033218973e+01) (8, -4.69209611502483255663e+02) (54, -7.41315089151378998622e+01) (12, -1.50000000000000000000e+03) (68, 1.50000000000000000000e+03) (34, -2.69776301667454504241e+02) (65, -7.71535648178391308960e+00) (40, 2.43874303920407626833e+01) (30, 5.50120898455478695155e+01) (23, 1.36235638074519691543e+01) (46, 5.55595588999027500954e-01) (33, 2.38621035211131982123e+01) (62, 1.50000000000000000000e+03) (38, -3.57660154215396744348e+02) (70, -1.93363933376119101482e+00) (31, -1.75606627277001230425e+01) (57, 1.02878949024473786977e+01) (11, -3.02699735698800509454e+01) (45, -5.49305432740570420691e-01) (53, 3.13168975589322649000e+01) (5, 9.97791641564566411660e+00) (52, 1.50000000000000000000e+03) (17, 5.51811557863151858072e+00) (3, -2.37443345051192018502e+01) (54, -1.22659920646648538423e+03) (38, 1.13383848381461234567e+03) (48, 2.06272500802889524607e+01) (12, 1.50000000000000000000e+03) (65, 3.89038868137550597481e+00) (36, 1.46942606437540189290e+03) (33, 3.85828459346155270282e+01) (41, 9.62861247147871246455e+00) (46, -3.37052418360345162895e+00) (1, 5.18827266880184456710e+00) (21, -2.87884287442861186435e+01) (15, -1.80406860366902357384e+01) (39, 3.30182242805952981257e+01) (50, 1.09553810910810852874e+02) (27, 2.96051429121725213633e+01) (62, -1.50000000000000000000e+03) (64, 1.50000000000000000000e+03) (29, 5.38005415439111267517e+00) (34, -2.91064803438276555880e+02) (68, -1.50000000000000000000e+03) (16, 8.42592024859385873015e+01) (61, -3.71766500050589030479e+01) (35, 2.53862425909257396484e+01) (2, 1.50000000000000000000e+03) (10, -6.63227489757186731367e+02) (63, 2.83980498576468711747e+01) (70, -9.84786394190487435196e+00) (54, -1.50000000000000000000e+03) (36, -8.13950928315842361371e+01) (49, 3.10237844247688485666e+01) (47, 1.11826745633203508135e+01) (42, 8.98855440943381656105e-01) (20, 2.54815831735762081678e+01) (32, -1.22810833650855624199e+01) (61, 2.26404242128907950971e+00) (41, -2.97458053366803198969e+00) (15, 2.99783756665506517791e+00) (23, -1.26340675942827029843e+01) (26, -7.54802699845886081675e+02) (68, 1.50000000000000000000e+03) (16, -2.20693926877062622793e+01) (21, -9.98233300238971921203e+00) (10, 1.50000000000000000000e+03) (60, 3.39758359978343182917e+00) (7, -3.65257171127883939477e+00) (22, 1.50000000000000000000e+03) (29, 8.94786781362776828530e+00) (33, -4.89736514588002602721e+00) (19, 5.55231555581360058937e+00) (64, 1.50000000000000000000e+03) (48, -8.64999459458265391731e+02) (25, 1.33357521263307994275e+01) (46, -8.52767735890675737664e+00) (50, 8.65133807341976002192e+00) (27, -1.47175308930670176721e+01) (53, -1.06366877251006064498e+00) (6, 1.12603938130923553196e+00) (24, 1.50000000000000000000e+03) (3, 2.06580814767069265159e+00) (67, 2.41050007378380399814e+01) (62, 1.50000000000000000000e+03) (63, 2.49448029612089534623e+01) (70, 2.39703461572659008993e+01) (15, 1.70132497167217877632e+01) (55, 4.65810023783857030111e+00) (38, 3.36304269372652697712e+02) (48, 1.41411463860436565909e+01) (19, -2.07633377756973871442e+01) (45, -2.41883209511826073879e+01) (20, 5.73757895826464334732e+01) (10, -5.72305942821153053046e+02) (30, 1.81667517838222849491e+01) (42, 1.97348740943979592544e+01) (24, -1.50000000000000000000e+03) (36, 1.50017492869629364804e+02) (56, -4.45969552276960925496e+01) (26, 6.22746918347198743504e+02) (18, -5.62786719122141487759e+00) (49, -5.27713311856301601210e+01) (21, -1.08890370282495094756e+01) (62, -1.50000000000000000000e+03) (63, 6.73381274116903671967e+00) (39, -3.71222540423216287309e+01) (16, 6.03800490456733740530e+01) (25, -3.35920278544466199833e+01) (23, 1.17367210944842081943e+01) (52, 1.49996755815074561724e+03) (7, -2.78886157251713484584e+00) (35, 1.52668053473350351368e+01) (22, -1.50000000000000000000e+03) (5, 1.75796304828306233503e+01) (57, 4.15428592023144105383e+00) (3, -3.19629405096009193699e+01) (27, -5.78951452227288925201e+01) (66, -2.47380825723687927109e+01) (59, -1.36435804283570032425e+01) (13, -3.60189278167711748324e+01) (4, -4.57119493227355562226e+01) (70, -1.25920475450933917472e+01) (22, 1.50000000000000000000e+03) (9, 2.07144339484535535689e+01) (3, 2.45237466367259209221e+01) (56, -3.06345406485835326293e+02) (49, -1.76344152053858636009e+01) (60, -9.27218874368783531281e+02) (31, 2.23723174960290194235e+01) (18, -1.84244421370377757796e+01) (64, 1.50000000000000000000e+03) (7, 1.96178990241312711795e+00) (8, -4.41834749308421521619e+02) (68, 1.50000000000000000000e+03) (17, -2.75153119177277645235e+01) (20, -6.86413757724125844106e+02) (34, -2.82803812474325695803e+02) (58, -5.74667706495786845267e+01) (35, 1.36350146165643284490e+01) (5, -2.12062053650711135333e+01) (21, -2.12592142855017041114e+00) (15, 1.62310163352462533126e+00) (33, -2.62233521722904896478e+01) (53, 2.07631527715997243888e+01) (47, 1.98561769241877890124e+01) (16, -7.85052573510038627091e+01) (28, 4.93178103344781015860e-01) (40, 2.83187517901935557063e+01) (1, 2.35412675412669365471e+01) (32, -1.58414168246113504779e+01) (62, 1.50000000000000000000e+03) (43, -1.69112076467494887311e+01) (27, -2.92516206589617855371e+00) (12, -1.50000000000000000000e+03) (30, -1.65340263330645669271e+01) (42, -1.44261189031148617801e+01) (13, -2.48943778971876668038e+01) (70, -1.52159722868520077554e+01) (5, 8.88207352026508445419e+00) (35, 2.67269404905901097891e+01) (7, 3.35919174628505690094e+00) (55, -1.32499318188599914947e+01) (36, 1.50000000000000000000e+03) (24, -1.50000000000000000000e+03) (39, 1.49557860728572622477e+00) (4, -3.70194349031795937321e+01) (8, 5.37364736016009373998e+02) (61, -2.15270984670813412265e+01) (15, -1.43892292526824068233e+01) (47, -3.80369889971596251144e+01) (56, 6.58896683142041155179e+01) (6, -6.90388688024849361824e+00) (60, 5.41011626670733747346e+01) (1, 6.55613769849895611230e+00) (44, 2.82175463828426380530e+01) (58, 2.49072614971386805394e+01) (29, -1.47623447976767820933e+01) (23, -1.96261081244459809625e+01) (46, -1.49988090945721364733e+03) (41, -5.13228105074350438031e+01) (26, 1.50000000000000000000e+03) (27, 2.90389625874369876612e+01) (42, 3.62352214425496228500e+01) (62, -1.50000000000000000000e+03) (32, 1.90480922290942402242e+02) (17, 2.68980212331152168659e+00) (63, 5.27105793932816126812e+01) (22, -1.50000000000000000000e+03) (64, 1.50000000000000000000e+03) (3, 3.47459837373186601894e+01) (2, 1.50000000000000000000e+03) (54, -1.95200215494838431596e+01) (12, 1.50000000000000000000e+03) (70, -2.90763778638903147566e+00) (56, 2.99604553824292565878e+02) (38, 3.38825963174780724785e+02) (7, 1.13896815828948252403e+01) (8, 4.79104347078654143388e+02) (29, 8.65594110442854969278e+00) (22, -1.50000000000000000000e+03) (57, 2.43388565341246092544e+01) (49, -2.18065558205319653950e+01) (39, -2.61598236122787763946e+00) (54, 1.55339700825672917261e+01) (67, -2.39409447045138605858e+01) (59, 2.41361595738670189348e+01) (19, 2.30301671432580903343e+01) (52, 1.49996755815074561724e+03) (25, -1.71936947011735661306e+01) (36, 2.67249432584576481986e+02) (43, -2.35876147447639450405e+00) (11, 2.06918168772138848510e+01) (10, -6.26571291255599703618e+02) (58, 3.91631378734016166732e+01) (9, 2.36134567677270084118e+01) (5, -1.12380101233591371823e+01) (26, 1.50000000000000000000e+03) (24, -1.50000000000000000000e+03) (16, 2.03075424546215188570e+01) (6, 3.39863008836102675758e+00) (2, 1.50000000000000000000e+03) (42, -5.71050598806868325852e+00) (61, -2.44762445124668992502e-01) (4, -3.12343311052669001526e+01) (37, 1.66148145532792490542e+01) (0, -5.43178037218302506517e+02) (17, 7.09987605947734135015e+00) (62, -1.50000000000000000000e+03) (51, 8.59616268230062630096e+00) (70, -1.17264832531292508833e+01) (59, 2.64729726679852817028e+01) (24, 1.50000000000000000000e+03) (34, -5.04371921171436881082e+01) (54, -2.40843690202087969965e+01) (53, 2.50328432201052706318e+01) (16, 5.44938551133165027807e+00) (56, -1.00381213573010086293e+02) (36, -2.70011857747341650793e+02) (58, 1.88552584027127103639e+01) (28, -4.87170750696893473108e-01) (38, -3.77299351088107812302e+02) (48, 1.43554158403712790459e+01) (7, 3.48760379537772458036e+00) (6, -4.71446636604101243506e+01) (55, -2.99314308705876577221e+01) (9, -3.14984764556319838391e+01) (47, 3.34377186527943592864e+00) (19, -6.94427897989656806033e+00) (26, -3.51479259909348172641e+02) (42, 2.71533563958502099922e+00) (41, 4.41249437964915558474e-01) (33, 2.94207435561375234556e+01) (37, 1.97065654060954442706e+00) (68, 1.50000000000000000000e+03) (50, -5.35749605595828143123e+02) (57, -4.85453807923493485532e+00) (11, 2.33289601514955835526e+00) (10, 3.86367637776306310116e+02) (60, -2.25160007358120594745e+02) (4, 1.35879786025492421686e+02) (1, 9.18817338596987021049e+00) (12, -1.50000000000000000000e+03) (18, -6.59560050640332651284e+00) (31, 1.00576745224304016091e+01) (17, -2.42459346193270306458e+01) (70, 9.17499864996126568428e+00) (3, -3.30681329876095944087e+01) (32, 5.97210670726635584060e+01) (58, 5.23979749155028962093e+00) (26, -4.76749243178748486116e+02) (34, -5.10506523149925754979e+01) (14, 1.50000000000000000000e+03) (28, -6.35476222719709493703e+00) (11, 3.50080470597792867693e+01) (62, 1.50000000000000000000e+03) (10, 3.20192504000160980127e+01) (56, -6.33811152948458342848e+01) (5, 1.82561134085511547198e+01) (53, -3.84176107515262321712e+00) (9, 3.29793786909921615713e-01) (46, 2.39745911379773630756e+01) (64, 1.50000000000000000000e+03) (15, 2.07140525850089218807e+01) (67, -4.06775842889064236374e+01) (21, -3.58322015409374827755e+01) (49, -4.08867322556065893036e-01) (45, 6.28762296974280321393e+00) (6, -5.09032355688326489940e+01) (66, -2.22706136151741667106e+01) (31, 2.54460627359226130295e+01) (44, -1.50000000000000000000e+03) (4, 9.56018299942839888672e+00) (30, -2.67426063655953463183e+01) (19, -1.16914948850288915594e+01) (12, -1.50000000000000000000e+03) (23, -1.28293550012586443643e+01) (60, -8.87592157091936400093e+01) (40, -9.77130258773213142831e+01) (2, 1.50000000000000000000e+03) (55, 6.67290443291121437852e+00) (33, 2.63047393786964427420e+01) (70, -1.65886921170414254334e+01) (67, -1.06534918512220286857e+01) (7, -1.69346272444140950597e+01) (2, 1.50000000000000000000e+03) (21, 3.71614829164242337356e+01) (37, 7.50085467991907073326e+00) (30, -1.80083135068757478336e+01) (44, -7.97692786401089559689e+00) (38, -7.78832566685563989495e+01) (16, -2.14777912587628101448e+01) (33, 2.17598143356576052554e+01) (42, 2.02380684376343005226e+01) (4, -1.87846484958731885229e+01) (64, 1.50000000000000000000e+03) (1, -2.48153398882498699152e+00) (6, -3.44442336742470658351e+01) (43, -2.05995013397809394462e+01) (45, -5.58192444828220324382e+00) (19, 1.71248789668134726583e+01) (15, -2.08232129939478696201e+01) (52, 4.46659771363820183865e+01) (13, -3.81747023515274008787e+01) (26, 2.21071639793080976233e+02) (59, -2.10467353232092300175e+01) (39, -3.12162666520078317944e+01) (48, 1.09367217605649713619e+01) (47, -3.63841016905200520526e+00) (17, -8.78021585894095757396e+00) (11, 2.16396810617108705799e+01) (54, 1.67117607266056431570e+01) (58, 3.43308302818703054982e+01) (55, 8.67013181858907167054e+00) (5, -1.77165122881475376460e+01) (31, -1.39218178184780949636e+01) (8, -7.85369601385164770591e+01) (57, 1.49326836507977329660e+01) (70, 2.69147053766939947650e+01) (45, 5.14505744000380538239e+00) (42, -4.21045966405344387340e+01) (33, 1.82730798614077016850e+01) (31, 2.58612689009686746999e+01) (35, 5.76501758591118518282e-01) (17, -2.36895078386019619643e+01) (57, -2.41177879152750707092e+00) (38, 3.48390768682440409520e+02) (14, -1.50000000000000000000e+03) (0, -5.47033139280527393566e+02) (13, -2.78171330567377275145e+01) (68, -1.50000000000000000000e+03) (29, -1.60255919774152766344e+00) (62, -1.50000000000000000000e+03) (50, 5.52525125068554189056e+02) (19, 1.95275826180402205523e+01) (43, -7.11190279340392983443e+00) (8, 4.48377671091410036297e+02) (63, 2.60750202951449105981e+00) (47, -1.39602158804080378474e+01) (12, 1.50000000000000000000e+03) (11, 1.23403814877324986554e+01) (25, 1.54451041454351294391e+01) (9, 9.86352079836722417383e+00) (39, -2.03500897224389873941e+01) (32, -2.81233143203120716791e+00) (18, -1.19453990109607168790e+01) (27, 2.74119305613210322292e+01) (56, 2.73771533614026338910e+02) (52, 1.49996755815074561724e+03) (21, -8.00081798548814582261e+00) (69, 2.17282182632176450454e+01) (54, 3.77626542121908386207e+01) (24, -1.50000000000000000000e+03) (58, 4.03601178666343258783e+01) (70, -1.70290454444699754788e+01) (8, -2.71535195753181824330e+02) (62, 6.00866923812483548772e+01) (33, 3.00147666531842176596e+01) (35, 3.12805396635901971081e+01) (42, 4.55395165511361810218e+00) (9, -8.90352207286291985611e+00) (28, 8.67894201168082986442e+02) (20, -1.62219930635116099893e+02) (59, 1.50657022844768970771e+01) (32, -5.58801972455165483211e+01) (6, -2.65779903584041008457e+01) (60, -5.00270295254947594543e+00) (57, -3.01040569464961116353e+01) (39, 1.12482793746734390794e+01) (68, 1.50000000000000000000e+03) (27, 4.65568004537837365486e-01) (14, 1.50000000000000000000e+03) (47, 1.34170829810114238256e+01) (24, 1.50000000000000000000e+03) (1, 2.87202869835085401462e+01) (40, 3.05755258704170458373e+01) (17, 1.04545914231598935373e+01) (44, 6.39427473427558190622e+00) (10, 1.50000000000000000000e+03) (0, 1.50000000000000000000e+03) (3, -2.88863433418088426663e+01) (43, 2.06901081972381710727e+01) (63, 2.06791070878410927492e+01) (21, 8.58571092782405997923e+00) (48, 1.36644117818441230838e+02) (64, 1.50000000000000000000e+03) (38, -1.89470916637392747361e+02) (26, -3.60443798098043046707e+01) (66, -5.93894147321177001686e+01) (12, -1.50000000000000000000e+03) (70, -1.79069185725157282718e+01) (44, -8.76874170872065050730e+00) (47, 1.14801145650610294524e+01) (35, -1.66536025816640957942e+01) (41, -2.90412756935454616780e+01) (60, -2.39042664194945785994e+02) (3, -1.16959988168941553255e+00) (20, -1.63149352911683642731e+01) (50, -2.11332703705205091183e+02) (66, -2.23162685350444753851e+01) (2, 1.50000000000000000000e+03) (14, 1.49978287382943767625e+03) (29, 4.34698087538748296765e+01) (26, -1.49978284046610656333e+03) (39, 1.41968644738839202546e+01) (17, -1.07472777182862611056e+01) (23, -1.11398202679561268980e+01) (53, -2.70744260321037018002e+01) (67, -1.11514814095626277890e+01) (25, -4.93447197511293378369e+00) (64, 1.50000000000000000000e+03) (11, 1.41512338239065513790e+01) (8, -3.47504303287242706233e+01) (46, -1.37904128314988696502e+01) (19, -3.62927916856408430135e+01) (54, 5.30298203005597379445e+00) (24, 1.49978287382943767625e+03) (30, -5.04055172320522544283e+01) (68, 1.49978287382943767625e+03) (48, 2.28967376974085397023e+01) (5, 1.89028449037816201894e+01) (6, -4.09528905948202037735e+01) (55, -2.15875833375452153007e+01) (45, 1.31310190135875792805e+01) (28, 1.93256579463911837280e+00) (32, 3.52167703918611678660e+01) (70, -1.25755420603350902553e+01) (13, -1.08148317408009599916e+01) (55, 8.01482366602564333391e+00) (15, 2.80213824757594949233e+01) (36, 2.98182904264263584082e+02) (7, -3.85846409442667015455e+00) (59, -1.56923738327544040061e+01) (10, -6.18455436992293812182e+02) (50, 5.52973827512360855962e+01) (0, -5.18406492761820118176e+02) (53, -2.43793656912952414473e+01) (16, 6.32228974771244409681e+01) (22, -1.50000000000000000000e+03) (52, 4.51894923968575170647e+01) (42, 7.91638165330679015597e+01) (31, 2.57219781874261279597e+01) (3, -1.46516242899493480678e+01) (64, 1.50000000000000000000e+03) (26, 1.50000000000000000000e+03) (47, -3.26711728823456759585e+00) (43, -7.04355769478392845784e-01) (35, -7.98471098379921362387e-01) (51, -5.68645868831160825607e+01) (2, 1.50000000000000000000e+03) (57, 5.18691454656847312776e+01) (4, -2.56919498186459982492e+01) (40, 1.36744077906312089254e+01) (44, 1.06351835437341648571e+01) (27, -1.53292499162797888346e+01) (9, -2.45343081062239534162e+01) (67, 3.79988469668010111491e+01) (1, -3.17449003138187535455e+01) (24, -1.50000000000000000000e+03) (6, 1.33132640776952975159e+01) (20, 1.08582959690961033061e+02) (38, 3.85140946542699964539e+02) (70, -3.45945355166762666954e+01) (59, -2.01291606840612367080e+01) (68, -1.50000000000000000000e+03) (9, 1.21635872800353599388e+01) (37, -2.16248642090041833796e+01) (30, 3.92633149458854830982e+01) (58, 1.37959652026566672589e+01) (35, -1.40557755557640149391e+01) (8, 1.19337112933238842061e+02) (25, 2.16525979762673181916e-01) (46, -2.91787397179307390616e+01) (3, -2.56724318174331571640e+01) (63, 1.37076638433913693405e+01) (65, -5.99068181413890421538e+00) (33, -6.51834455636608800511e-01) (41, 1.72775077670679308994e+01) (54, 4.62906311468863194136e+01) (18, 3.05940852574391328744e+01) (34, 5.56876260800411273522e+01) (47, 2.69912960861583428596e+01) (49, -1.42833756921642596183e+01) (27, -1.62042642089296506924e+01) (36, 1.07726527644605440059e+02) (60, 2.93634294698798328227e+02) (16, 2.57811318427491187322e+00) (23, -8.04189638032496922904e+00) (24, -1.50000000000000000000e+03) (50, 1.75589197624764665306e+02) (15, -2.27708302038161614078e+00) (22, -1.50000000000000000000e+03) (39, 1.45209553999498481858e+01) (4, 1.34256207091053347824e+00) (38, 9.23476401692944648403e+01) (26, 1.50000000000000000000e+03) (42, -3.81530293922400574047e+01) (62, -1.50000000000000000000e+03) (70, -9.64026709445196701154e+01) (31, -3.12888323172312752263e+01) (5, -1.67867935543221058481e+01) (62, -1.50000000000000000000e+03) (7, -8.26347575265661404842e+00) (40, -2.08055292876689641446e+01) (58, 5.60104573074593901083e+01) (3, 3.07640750124347590599e+01) (42, 3.12637005922578019579e+01) (66, 1.39203635368869118594e+01) (37, -4.22303925780991029626e+00) (16, -1.47381357699057442545e+01) (25, 2.24398104859858760207e+00) (41, 3.17533445449736682065e+01) (14, -1.50000000000000000000e+03) (36, 4.98759815342637082836e+01) (33, -1.06255186475916865163e+01) (9, -3.07850564338609657966e+01) (68, -1.50000000000000000000e+03) (23, -1.76679587515343570203e+01) (12, 1.50000000000000000000e+03) (61, -5.82054769306562480580e+00) (51, -2.93911090331164039924e+01) (48, -2.48918781411015501703e+01) (29, 3.44992563647585059883e+00) (63, -1.28731372123128338103e+01) (15, 3.87584123425149869036e+01) (18, 5.84291677498606887298e+00) (57, -4.17129256573185855927e+01) (4, -1.51109698223664885575e+01) (27, -1.91409791906948179019e+01) (39, 5.84607925085126680642e+01) (54, 9.89821830393547408278e+00) (38, 5.57106727599719278032e+01) (8, 1.31492157246838758056e+02) (55, -9.64680159739007514474e+00) (70, -1.83314658392335587678e+01) (5, 3.55747917165711129428e+01) (7, 1.27991723998696951270e+01) (42, -3.35761063388132328100e+01) (26, -1.39132746932171301069e+02) (67, 1.72503303120536060078e+01) (10, 4.53020405732235076357e+01) (23, -2.08457643923862292468e+01) (14, 1.33195299035479365557e+03) (51, 2.44956319566986309155e+01) (53, 2.81527467716121400088e+01) (59, -2.66855320297300835364e+01) (38, 2.05029374046594403680e+00) (25, 1.38496290220523188275e+00) (62, 3.84659029220131287730e+01) (55, 1.23925710640284520991e+01) (44, 8.16200017762683671663e+00) (47, -3.30279576289685294910e+01) (4, 4.15712075205610460671e+01) (66, 1.49444491187981443048e+00) (11, 1.04113096551764421349e+01) (21, 1.68588546803518601891e+00) (3, -4.05127764929156413132e+01) (17, -4.77661469867450563243e+01) (31, 2.40017038217275358036e+00) (35, -2.62630593054795085095e+01) (64, 1.50000000000000000000e+03) (49, 3.26495602166551250889e+01) (36, -1.03809066028881442634e+01) (19, 7.83496348661783770240e+00) (16, 1.01784218829011958718e+01) (20, -3.48178919281116563411e+01) (0, 1.50000000000000000000e+03) (58, 9.00106477311096142557e+00) (22, 2.02127738449166471923e+00) (15, -9.95393366721117800466e+00) (70, -8.80248344092219348056e+00) (21, 1.07724727308397483228e+01) (62, -4.16348914953933388006e+02) (61, -2.28863452810396417192e+01) (26, 1.36265097056588928126e+02) (39, -1.09696231271767103976e+01) (18, 7.45608611041047542045e+00) (40, 2.05241399571999600937e+01) (38, 2.60084752064657720894e+02) (59, -1.50379282681329140559e+01) (35, 2.66707800600318423179e+00) (30, 8.55340301713045221277e+01) (29, 1.77060073472590815413e+01) (34, 2.73201755684747666919e+01) (49, 1.74812048369425099281e+01) (52, 1.77103441141807650183e+02) (17, 8.27255056397822308156e+00) (10, -6.42702954483704615996e+02) (33, 5.59283330706293213552e+00) (1, 1.17107096895709705819e+01) (2, 1.50000000000000000000e+03) (22, -1.50000000000000000000e+03) (24, -1.50000000000000000000e+03) (11, 1.12464035974933533879e+01) (41, 1.18556479374934964355e+00) (46, -3.25826404257021167155e+01) (9, 2.33360677985929321210e+01) (32, -1.39560788228477274941e+01) (54, 6.33909462812127610931e+00) (67, 2.63721370048277101716e+01) (65, 5.75194275231414309246e+00) (7, -1.52752565733486953548e+01) (20, 2.39001098505262632443e+02) (60, 1.02084638925334184023e+03) (8, 1.50000000000000000000e+03) (44, 4.28242214714082138016e+02) (70, -1.02782758799193274513e+01) (41, -3.52756789449578178619e+01) (61, -1.83113406132152789496e+01) (29, -1.13473731067204059997e+01) (55, 1.18556065159929637787e+01) (17, -1.11413049614579353630e+01) (64, 1.50000000000000000000e+03) (12, 1.50000000000000000000e+03) (15, -4.41841372416372557552e+00) (0, -5.73021248392312827491e+02) (52, 4.13849727723161208814e+02) (18, -1.94090154074398224537e+00) (11, -2.23693857394410073880e+01) (62, -1.50000000000000000000e+03) (44, 1.50000000000000000000e+03) (57, 8.32245530836877733805e+00) (28, -2.36831005168970740726e+01) (19, 2.73754132923329898119e+01) (63, -2.04844909217302557636e+01) (36, -1.70164190989657875264e+01) (60, 2.83975836741356708615e+01) (25, -1.48567273657930676301e+00) (27, -1.99568481677579150357e+01) (37, 1.96870499984827134199e+01) (9, 7.30758343613976402153e-01) (66, 6.16242259298287393676e+01) (8, 1.58024640106905252424e+02) (51, 1.99160858498136192907e+01) (13, 1.34665669028129553197e+00) (58, -2.93497734136817989281e+01) (54, 7.07514744326488767001e+02) (35, 2.29485134100344367880e+01) (67, 7.30345726352216129129e+00) (47, 3.04904972395417424025e+01) (38, 1.50000000000000000000e+03) (24, -1.50000000000000000000e+03) (70, -1.04484206720461951790e+01) (32, -1.34419754447398940300e+01) (54, -1.17201054740600454807e+02) (30, 1.31544309149749025778e+01) (34, -1.30161082090549573564e+01) (66, -6.69433221265270077538e+01) (17, -2.82782442957375401704e+01) (44, -1.50000000000000000000e+03) (6, 3.68051468494033144907e+02) (31, 2.61847340002635071698e+01) (50, 3.02956419773788816485e+01) (64, 1.50000000000000000000e+03) (27, 1.78386708579743817893e+01) (14, 1.50000000000000000000e+03) (12, -1.23532317458803345289e+03) (60, -2.56447048521834403800e+02) (11, -1.03295749898914368536e+00) (29, 2.73961799769924709835e+01) (65, -8.66733565770293346020e+00) (47, -3.64808118068570896853e+00) (8, -1.50000000000000000000e+03) (2, 1.50000000000000000000e+03) (23, -2.53553062269532318851e+01) (55, -6.62290129515317005371e+00) (10, 1.48863831719702466216e+03) (20, -4.30535477629688216439e+02) (15, -6.24783207387770644914e+00) (41, 2.82833585147152781758e+01) (38, -1.50178810951920411298e+02) (52, -2.62261468393472529925e-01) (36, -4.46668770363721634453e+01) (59, 3.32863667982836419768e+00) (37, -8.64259444106421703680e+00) (61, -2.41884043464882054764e+01) (57, 1.90177786489755007437e+01) (67, 1.13964994960700529703e+01) (70, 1.00494632947106197207e+01) (16, 1.75315239923944652389e+01) (34, -3.50373961636784770235e+02) (28, 1.43134178869774295606e+01) (19, -2.86642593458615335678e+00) (44, -2.21479526273100084666e+01) (66, 