FANN_FLO_2.1
num_layers=3
learning_rate=0.700000
connection_rate=0.500000
network_type=0
learning_momentum=0.000000
training_algorithm=2
train_error_function=1
train_stop_function=0
cascade_output_change_fraction=0.010000
quickprop_decay=-0.000100
quickprop_mu=1.750000
rprop_increase_factor=1.001000
rprop_decrease_factor=0.500000
rprop_delta_min=0.000000
rprop_delta_max=50.000000
rprop_delta_zero=0.100000
cascade_output_stagnation_epochs=12
cascade_candidate_change_fraction=0.010000
cascade_candidate_stagnation_epochs=12
cascade_max_out_epochs=150
cascade_max_cand_epochs=150
cascade_num_candidate_groups=2
bit_fail_limit=3.49999999999999977796e-01
cascade_candidate_limit=1.00000000000000000000e+03
cascade_weight_multiplier=4.00000000000000022204e-01
cascade_activation_functions_count=10
cascade_activation_functions=3 5 7 8 10 11 14 15 16 17 
cascade_activation_steepnesses_count=4
cascade_activation_steepnesses=2.50000000000000000000e-01 5.00000000000000000000e-01 7.50000000000000000000e-01 1.00000000000000000000e+00 
layer_sizes=71 101 2 
scale_included=0
neurons (num_inputs, activation_function, activation_steepness)=(0, 0, 0.00000000000000000000e+00) (0, 0, 0.00000000000000000000e+00) (0, 0, 0.00000000000000000000e+00) (0, 0, 0.00000000000000000000e+00) (0, 0, 0.00000000000000000000e+00) (0, 0, 0.00000000000000000000e+00) (0, 0, 0.00000000000000000000e+00) (0, 0, 0.00000000000000000000e+00) (0, 0, 0.00000000000000000000e+00) (0, 0, 0.00000000000000000000e+00) (0, 0, 0.00000000000000000000e+00) (0, 0, 0.00000000000000000000e+00) (0, 0, 0.00000000000000000000e+00) (0, 0, 0.00000000000000000000e+00) (0, 0, 0.00000000000000000000e+00) (0, 0, 0.00000000000000000000e+00) (0, 0, 0.00000000000000000000e+00) (0, 0, 0.00000000000000000000e+00) (0, 0, 0.00000000000000000000e+00) (0, 0, 0.00000000000000000000e+00) (0, 0, 0.00000000000000000000e+00) (0, 0, 0.00000000000000000000e+00) (0, 0, 0.00000000000000000000e+00) (0, 0, 0.00000000000000000000e+00) (0, 0, 0.00000000000000000000e+00) (0, 0, 0.00000000000000000000e+00) (0, 0, 0.00000000000000000000e+00) (0, 0, 0.00000000000000000000e+00) (0, 0, 0.00000000000000000000e+00) (0, 0, 0.00000000000000000000e+00) (0, 0, 0.00000000000000000000e+00) (0, 0, 0.00000000000000000000e+00) (0, 0, 0.00000000000000000000e+00) (0, 0, 0.00000000000000000000e+00) (0, 0, 0.00000000000000000000e+00) (0, 0, 0.00000000000000000000e+00) (0, 0, 0.00000000000000000000e+00) (0, 0, 0.00000000000000000000e+00) (0, 0, 0.00000000000000000000e+00) (0, 0, 0.00000000000000000000e+00) (0, 0, 0.00000000000000000000e+00) (0, 0, 0.00000000000000000000e+00) (0, 0, 0.00000000000000000000e+00) (0, 0, 0.00000000000000000000e+00) (0, 0, 0.00000000000000000000e+00) (0, 0, 0.00000000000000000000e+00) (0, 0, 0.00000000000000000000e+00) (0, 0, 0.00000000000000000000e+00) (0, 0, 0.00000000000000000000e+00) (0, 0, 0.00000000000000000000e+00) (0, 0, 0.00000000000000000000e+00) (0, 0, 0.00000000000000000000e+00) (0, 0, 0.00000000000000000000e+00) (0, 0, 0.00000000000000000000e+00) (0, 0, 0.00000000000000000000e+00) (0, 0, 0.00000000000000000000e+00) (0, 0, 0.00000000000000000000e+00) (0, 0, 0.00000000000000000000e+00) (0, 0, 0.00000000000000000000e+00) (0, 0, 0.00000000000000000000e+00) (0, 0, 0.00000000000000000000e+00) (0, 0, 0.00000000000000000000e+00) (0, 0, 0.00000000000000000000e+00) (0, 0, 0.00000000000000000000e+00) (0, 0, 0.00000000000000000000e+00) (0, 0, 0.00000000000000000000e+00) (0, 0, 0.00000000000000000000e+00) (0, 0, 0.00000000000000000000e+00) (0, 0, 0.00000000000000000000e+00) (0, 0, 0.00000000000000000000e+00) (0, 0, 0.00000000000000000000e+00) (36, 4, 5.00000000000000000000e-01) (36, 4, 5.00000000000000000000e-01) (36, 4, 5.00000000000000000000e-01) (36, 4, 5.00000000000000000000e-01) (36, 4, 5.00000000000000000000e-01) (36, 4, 5.00000000000000000000e-01) (36, 4, 5.00000000000000000000e-01) (36, 4, 5.00000000000000000000e-01) (36, 4, 5.00000000000000000000e-01) (36, 4, 5.00000000000000000000e-01) (36, 4, 5.00000000000000000000e-01) (36, 4, 5.00000000000000000000e-01) (36, 4, 5.00000000000000000000e-01) (36, 4, 5.00000000000000000000e-01) (36, 4, 5.00000000000000000000e-01) (36, 4, 5.00000000000000000000e-01) (36, 4, 5.00000000000000000000e-01) (36, 4, 5.00000000000000000000e-01) (36, 4, 5.00000000000000000000e-01) (36, 4, 5.00000000000000000000e-01) (36, 4, 5.00000000000000000000e-01) (36, 4, 5.00000000000000000000e-01) (36, 4, 5.00000000000000000000e-01) (36, 4, 5.00000000000000000000e-01) (36, 4, 5.00000000000000000000e-01) (36, 4, 5.00000000000000000000e-01) (36, 4, 5.00000000000000000000e-01) (36, 4, 5.00000000000000000000e-01) (36, 4, 5.00000000000000000000e-01) (36, 4, 5.00000000000000000000e-01) (36, 4, 5.00000000000000000000e-01) (36, 4, 5.00000000000000000000e-01) (36, 4, 5.00000000000000000000e-01) (36, 4, 5.00000000000000000000e-01) (36, 4, 5.00000000000000000000e-01) (36, 4, 5.00000000000000000000e-01) (36, 4, 5.00000000000000000000e-01) (36, 4, 5.00000000000000000000e-01) (36, 4, 5.00000000000000000000e-01) (36, 4, 5.00000000000000000000e-01) (36, 4, 5.00000000000000000000e-01) (36, 4, 5.00000000000000000000e-01) (36, 4, 5.00000000000000000000e-01) (36, 4, 5.00000000000000000000e-01) (36, 4, 5.00000000000000000000e-01) (36, 4, 5.00000000000000000000e-01) (36, 4, 5.00000000000000000000e-01) (36, 4, 5.00000000000000000000e-01) (36, 4, 5.00000000000000000000e-01) (36, 4, 5.00000000000000000000e-01) (36, 4, 5.00000000000000000000e-01) (36, 4, 5.00000000000000000000e-01) (36, 4, 5.00000000000000000000e-01) (36, 4, 5.00000000000000000000e-01) (36, 4, 5.00000000000000000000e-01) (36, 4, 5.00000000000000000000e-01) (36, 4, 5.00000000000000000000e-01) (36, 4, 5.00000000000000000000e-01) (36, 4, 5.00000000000000000000e-01) (36, 4, 5.00000000000000000000e-01) (36, 4, 5.00000000000000000000e-01) (36, 4, 5.00000000000000000000e-01) (36, 4, 5.00000000000000000000e-01) (36, 4, 5.00000000000000000000e-01) (36, 4, 5.00000000000000000000e-01) (36, 4, 5.00000000000000000000e-01) (36, 4, 5.00000000000000000000e-01) (36, 4, 5.00000000000000000000e-01) (36, 4, 5.00000000000000000000e-01) (36, 4, 5.00000000000000000000e-01) (36, 4, 5.00000000000000000000e-01) (36, 4, 5.00000000000000000000e-01) (36, 4, 5.00000000000000000000e-01) (36, 4, 5.00000000000000000000e-01) (36, 4, 5.00000000000000000000e-01) (36, 4, 5.00000000000000000000e-01) (36, 4, 5.00000000000000000000e-01) (36, 4, 5.00000000000000000000e-01) (36, 4, 5.00000000000000000000e-01) (36, 4, 5.00000000000000000000e-01) (36, 4, 5.00000000000000000000e-01) (36, 4, 5.00000000000000000000e-01) (36, 4, 5.00000000000000000000e-01) (36, 4, 5.00000000000000000000e-01) (36, 4, 5.00000000000000000000e-01) (36, 4, 5.00000000000000000000e-01) (36, 4, 5.00000000000000000000e-01) (36, 4, 5.00000000000000000000e-01) (36, 4, 5.00000000000000000000e-01) (36, 4, 5.00000000000000000000e-01) (36, 4, 5.00000000000000000000e-01) (36, 4, 5.00000000000000000000e-01) (36, 4, 5.00000000000000000000e-01) (36, 4, 5.00000000000000000000e-01) (36, 4, 5.00000000000000000000e-01) (36, 4, 5.00000000000000000000e-01) (36, 4, 5.00000000000000000000e-01) (36, 4, 5.00000000000000000000e-01) (36, 4, 5.00000000000000000000e-01) (36, 4, 5.00000000000000000000e-01) (0, 4, 5.00000000000000000000e-01) (101, 4, 9.00000000000000022204e-01) (0, 4, 9.00000000000000022204e-01) 
connections (connected_to_neuron, weight)=(70, -2.45600343168793564530e+01) (51, 1.01873532690369494880e+00) (8, 1.05197224374994874552e+02) (48, 2.62167606008633597980e+01) (62, 6.39279687134542768945e+02) (17, -1.08482457665071372332e+01) (64, 1.17163694312707002609e+03) (49, -2.77682271876107513719e+01) (19, 1.06938956279939088034e+01) (45, -1.24087914679788600125e+01) (2, 1.50000000000000000000e+03) (65, -1.32443718906148042436e+01) (61, 1.43522621796793110605e+01) (63, 3.02841480029697507348e+01) (3, -1.06973332267608009505e-01) (50, 2.91803789198042018427e+01) (60, 2.57085969293434786209e+01) (5, 6.19021469585820494075e+00) (54, -2.83898187354696815987e+01) (37, -7.41764093399349122571e-01) (10, 2.81000122894333458134e+02) (7, 2.02179333384985504551e+01) (4, -1.79292274540164520147e+01) (1, 9.27920766462698232147e+00) (32, 2.60756459453922957437e+01) (12, -1.10929410393116677369e+03) (39, -1.27399213213444131299e+01) (67, 7.95046984523915778453e+00) (66, 9.41634467478237624505e+00) (38, 3.07253200640639192898e+02) (53, -6.05257881368095063124e+00) (44, 9.90838264290495516207e+01) (29, 1.92727877961994238376e+01) (52, 3.67055210821748945094e+00) (31, 1.24398652635847484227e+00) (22, 1.64142978033881405509e+02) (70, 1.85722696069581090228e+01) (50, -3.18246454885259844048e+01) (37, -2.98422850771684409210e+01) (32, -2.59870258987783557814e+01) (69, 3.51630932970154130857e-01) (5, 1.05049152139724966126e+00) (66, -4.51763710590581766269e+01) (9, -1.17583479750691761723e+01) (17, 1.25484144349482011904e+01) (8, -7.67134142012538546851e+01) (10, 5.20114071371385648490e+02) (48, -1.94713915675730987687e+02) (11, -4.77561478461942101603e+00) (41, 2.47181257022350102659e+01) (47, 6.31077078562906201853e+00) (19, 9.52140018789803477262e+00) (36, -5.49898922614441175938e+02) (31, -2.27964411864825535758e+01) (38, -6.19661170588307868456e+02) (20, -2.81089614086010044502e+01) (22, 6.51977670504527395678e+02) (55, -1.88770912030090598499e+00) (14, 6.45973321510107552967e+02) (44, -1.01503364142976963080e+02) (46, 2.26884168030573398767e+01) (13, 3.35477271745659066937e+01) (54, -2.86638328716778474359e+01) (64, 1.50000000000000000000e+03) (52, -2.01531931990048640557e+01) (24, 1.36900155869350805915e+03) (26, -1.50000000000000000000e+03) (59, 1.30097210467583179749e+00) (28, 1.74501427338414516477e+00) (56, -2.92587767529145253320e+02) (27, 1.63465764041700261089e+01) (40, -5.68215946584304489875e+01) (70, -1.99916773473813655926e+01) (1, 1.54474677408144245305e+01) (64, 1.50000000000000000000e+03) (14, 6.66375833583624626044e+02) (8, -1.56041317086676798453e+02) (35, -2.43179989112976696619e-01) (34, -1.62297830136413558932e+01) (49, 1.73067471839781923393e+01) (25, -5.79701271504997528439e+00) (51, -1.14754536697586750904e+00) (22, 6.50919165446238707773e+02) (60, -1.50000000000000000000e+03) (41, -2.11606651000590453293e+01) (52, -2.79987023415158198247e+01) (0, 1.50000000000000000000e+03) (3, 1.74895428979799625324e+01) (50, -9.63734354906077896885e+01) (15, 1.43179503292736640674e+01) (53, 1.36920895038919665510e+00) (55, 9.56890958419142911850e+00) (45, 2.11575426580197927251e+01) (30, 2.70469498855695405837e+02) (37, -1.14341572611557715788e+01) (39, 6.88753749082249733249e+00) (4, -8.61143622214806292448e+00) (5, -2.41523693842244284724e+01) (40, -1.44733911988138231663e+02) (43, 2.39031853589022347251e+01) (13, -2.53093448258178943533e+00) (20, -9.40530441894081192800e+00) (48, -9.38391113739909883407e+01) (21, -4.90958708369317164966e+00) (9, -2.32361303149179114769e+01) (29, 1.20518106403805695948e+01) (19, 4.87082807839317055709e+00) (12, -1.50000000000000000000e+03) (70, -3.42954215770352845993e+01) (53, 6.61976930033310662083e+00) (49, -1.42858257489789757244e+01) (68, -1.50000000000000000000e+03) (50, 2.36858155094529720941e+00) (26, 1.50000000000000000000e+03) (31, -4.24904877560672034065e+01) (52, -5.70618004689195075230e+01) (37, -4.44162345783262395571e+01) (19, -1.12643682218773832915e+01) (32, 4.46135809262274136699e+01) (38, 6.41753829797533853707e+02) (34, 2.50340223016072656037e+01) (64, -1.50000000000000000000e+03) (21, -3.58239557001938857539e+00) (7, 6.61555278638969124216e+00) (5, 2.07446274299481423498e+01) (18, 3.29706390699652587273e+01) (46, 1.86060596377485198971e+00) (9, -1.87583614492227712667e+00) (33, 1.81153967675266756032e+01) (3, 5.25465013927304713803e+00) (25, 2.12708838588503574840e+01) (13, 2.34812026750982130729e-02) (12, 1.50000000000000000000e+03) (27, -1.96890765956583635443e+01) (44, 1.54785200775767521009e+02) (45, -4.52207512007440826096e+00) (69, -3.01475796238819739870e+01) (48, 1.56235886317790686917e+02) (67, -3.88284400276678276498e+00) (30, -6.78170787231042936583e+02) (63, 1.19038194377394841439e+01) (66, -1.24829039280393017108e+00) (4, 1.76216281389156712578e+01) (43, 6.24319288601229516189e+01) (70, -2.21270196132269596490e+01) (20, 1.98174856179437277603e+01) (22, -3.39172322059959014950e+02) (26, 1.50000000000000000000e+03) (63, -1.03776804533772648576e+00) (18, 3.46419558881839551034e+00) (10, -2.78445368985155027985e+02) (12, 1.50000000000000000000e+03) (21, 1.55832295745377766849e+01) (41, -1.28414592777964227110e+01) (57, 1.19734890443459427445e+01) (6, 2.71939806107945152291e+01) (29, -4.58020399230655517187e+00) (30, -3.26795238679344436150e+02) (61, 5.60014453551831259404e+00) (16, -6.41453070278945869376e+00) (48, 1.04097877699710494426e+02) (24, -1.33779026313861413655e+03) (8, 4.57118154474610776106e+01) (1, -2.19833161525336002740e+01) (11, -1.31722572004165749959e+00) (43, -9.04711899704993349758e+00) (59, 1.02678503201589617078e+01) (14, -3.30690787227657892799e+02) (25, 1.64412088563106344452e+01) (31, -6.43976792178048818016e-01) (69, -6.29814500245083674912e+00) (62, 1.50000000000000000000e+03) (35, -2.18911905508233637363e+01) (45, -1.23958761608074414795e+01) (19, 6.96351696815530107898e+00) (53, -2.92928564111069711373e+00) (33, -1.82622016577510493107e+00) (52, -1.47189584177030479140e+01) (67, -4.61330122442280732287e+00) (47, -2.15023389450335926654e+01) (70, -7.86689246363758787339e+00) (49, 8.73036669572120338501e+00) (52, -9.79161373096411580264e+00) (35, -3.18838013880304131931e+01) (30, -6.65302094510848718301e+01) (44, -1.50000000000000000000e+03) (19, -4.75672101389431460916e+01) (2, 1.50000000000000000000e+03) (57, 5.36347174051223785085e-01) (34, -1.20073985249236145023e+02) (8, 2.26546250874845824796e+01) (67, 2.85308548460352220388e+01) (18, 5.59747690860476225794e+01) (50, -7.88746927595089264429e+00) (48, -1.50000000000000000000e+03) (25, -8.94543598287525121293e+00) (6, -1.82841668983928435921e+01) (58, 1.48118089531696277561e+01) (1, 1.24811061554419833186e+01) (5, -1.38941009849535319631e+01) (16, -1.01159988155983313618e+01) (55, 1.71317480873801422092e+01) (43, 3.93869332541000787273e+01) (20, -2.67517856403162888057e+01) (15, 2.47015306253318840390e+01) (13, -6.18163124609893088746e+00) (64, 1.50000000000000000000e+03) (40, -2.76736191935175270373e+02) (17, -1.78165416049579192759e+01) (36, -1.48651112435741720219e+03) (53, 1.81133523054227119076e+01) (4, 1.41745111223933889733e+02) (23, 4.65208379354521781579e+01) (9, -1.41006681078736662016e+01) (28, -9.14910274432675578282e+02) (41, 2.88511910251719747578e+01) (70, -6.82435282981690605197e+00) (20, 3.41412732800998099947e+01) (19, -9.76851051794606917156e+00) (42, -1.86468651065644197562e-01) (5, -8.70851368118779056715e+00) (39, 3.91936662960606270190e+01) (50, 5.85353288672399756365e+01) (49, 2.85360582676741820762e+01) (52, -1.97600409947132469313e+01) (16, -6.23109723787429636843e+00) (55, 3.88904690515662299077e+00) (18, -7.07534710220700162608e+01) (23, 4.04079314603662638206e+01) (57, -5.81142067037174525623e-01) (22, -1.32119892932110792572e+03) (47, 1.71741247498121230031e+00) (7, -1.65675152045154638891e+00) (66, 3.73444086585803347589e+01) (61, -1.51257215468205661324e+01) (12, 1.50000000000000000000e+03) (26, 5.35394307366877228560e+02) (6, -3.72875313268106509668e+01) (31, 1.22086031995867845268e+01) (43, 1.53005733380033142055e+01) (38, 2.26160333572605622976e+02) (36, 1.40733630534889311292e+01) (56, 4.97181982953107990397e+02) (2, 1.50000000000000000000e+03) (65, -6.66806727154006395608e+00) (11, 2.16376007119146329671e+00) (68, -1.50000000000000000000e+03) (29, -4.00140570758340885504e+00) (67, -1.58732339755583922170e+01) (15, -2.89385630102077762160e+01) (35, 7.19870457793624485276e+00) (25, -1.93965915287603940520e+00) (70, 1.43253076631394105078e+01) (64, 1.50000000000000000000e+03) (34, -1.89619201750170418563e+02) (54, -3.58243350415362939998e+01) (14, 1.41972499540389151207e+02) (49, -1.67528372445827571369e+01) (43, -1.67829022088461563555e+01) (69, 2.18056663369669436747e+01) (35, -2.18655334789621704772e+01) (66, -4.38434700580815999160e+01) (24, 1.32518316498623198640e+03) (30, 9.59807839654087473491e+01) (28, -7.66786413100209784943e+01) (58, 4.14916351431755714430e+00) (60, -4.21700901689898500990e+02) (51, 1.23886317970446864223e+01) (31, 1.45151340643494055627e+01) (55, 1.28620391037454808725e+01) (10, 5.29599521043130948783e+02) (57, -2.11163534794768494862e+01) (3, -2.36628686826855734182e+01) (45, -1.33932323856776847038e+01) (15, -4.13741230660435661548e+01) (52, 1.01685138399718226765e+01) (4, -3.51760179530261822833e+01) (46, -1.11853782294438826028e+01) (68, 1.50000000000000000000e+03) (2, 1.50000000000000000000e+03) (37, 4.23476664449500095344e+00) (67, -1.83588840335070657694e+00) (7, 2.86899849856661539604e+01) (36, -5.47749111823425550938e+02) (25, -2.58178905876463282709e+01) (11, -4.40108858681969152826e+01) (26, -1.50000000000000000000e+03) (6, -4.22029688184418461105e+01) (70, -7.11433336078817646353e+00) (65, 2.52596833074980580136e+01) (57, -3.00996498648509058782e+00) (55, -1.12427141716365994739e+01) (30, 9.19806148225635809013e+01) (64, -1.50000000000000000000e+03) (44, -1.50000000000000000000e+03) (27, 4.02909468071148069157e+01) (43, -2.01547735313380940170e+01) (56, 9.32429025274382610178e+01) (3, 8.90557506740406346069e+00) (48, 6.91384299960782442440e+01) (21, 2.74195270424527670627e+01) (47, 3.83962507117781404187e-01) (61, 9.57774071701266116463e+00) (58, -1.19950541217121671167e+01) (26, -2.86682155318858178816e+02) (52, -1.28049006044792523795e+01) (41, 3.48007646166497792706e+01) (31, -3.02802490876852488100e+01) (20, 3.45995274922201545564e+01) (51, 6.89776435539694254828e+00) (39, 3.88245373585849318232e+00) (45, -1.24812456357797110229e+01) (24, -6.45942600536225654650e+02) (14, -6.66204623493277040325e+02) (66, 6.00013371101945907071e+01) (22, -6.32236567351280882576e+02) (29, 1.96315047125939372563e+01) (8, 9.07994284359425876119e+01) (25, -2.75149551943112840036e+01) (50, 4.74910878163170746546e+00) (62, 1.50000000000000000000e+03) (11, -9.66261507621056914275e+00) (34, -5.16012705393054375236e+02) (63, 1.15021933646684804131e+01) (70, 5.83245686478027014488e+00) (44, 1.31359050619955269212e+02) (39, 7.09591968048606158703e+00) (3, -2.45691139321862053180e+01) (64, -1.50000000000000000000e+03) (29, 1.55162729146742819353e+01) (10, -5.02334820169321062622e+02) (36, 3.88663125395832054210e+01) (28, 3.59004410225666958922e+01) (62, 6.47362428459667285097e+02) (50, 2.90464252276521328611e+00) (65, 1.21492979807799006409e+01) (12, 1.50000000000000000000e+03) (30, -3.17551972359311037053e+02) (16, 2.09808254808466720931e+01) (51, -1.14340710691203018001e+01) (5, 1.73999955694161698716e+01) (45, -5.14505014554439643604e+00) (34, -7.08376615236209801196e+01) (54, 8.53132390048391897608e+00) (52, -5.32018883389263841366e+00) (14, -8.20871760912213943584e+01) (46, -6.45199366326860854315e+02) (42, -1.12039679169776338341e+01) (69, -2.85169883781071487050e+00) (21, 8.79774671112168604736e+00) (67, -1.80697722144611780948e+01) (49, -1.03367241535033027588e+01) (6, -1.08986618252959772235e+02) (27, -1.45117285418642918415e+01) (17, -1.46229040842253628085e+01) (47, -2.02725090701703045681e+01) (23, -1.40207283934010398241e+01) (24, -1.33410009516381114736e+03) (1, 1.43830707449377506180e+01) (31, -3.76591481810050066059e+00) (70, -1.63584003333694871785e+00) (4, -5.95103902922861838221e+00) (2, 1.50000000000000000000e+03) (50, 3.89459977457268848866e+01) (32, -6.80103451431631782498e+01) (37, 2.73522635520523564878e+01) (52, -5.47365113433821637301e+00) (40, -3.91286022433163864775e+01) (51, -1.79475509699976250033e+01) (54, -6.66883966183896959024e+00) (14, 6.47242784095556885404e+02) (1, 1.22666272174864658950e+01) (43, 1.71655556160212761085e+01) (39, 3.71366342813624257246e+01) (25, -1.49000020071038079550e+01) (65, 1.04589760576788926016e+01) (33, 6.84069190085598854978e+00) (22, 6.64763930036502301846e+02) (10, 5.04869377496073127531e+02) (0, 1.50000000000000000000e+03) (24, 1.31991540375576323640e+03) (44, -1.52832805213533163169e+02) (23, 5.35013031200801876253e+01) (27, 1.06117690505114676824e+01) (5, 1.21908440472009420574e+01) (41, 2.54692619263251067707e+01) (11, -4.88621269333974428406e+00) (20, -1.42491977863169463348e+01) (42, -6.00868154619659300408e+00) (9, 3.03991844491055829280e+01) (13, -6.98203267171458530349e-01) (7, -3.99999744955466169927e+01) (53, 8.41205016557034568336e+00) (29, 1.54884347058730398317e+01) (38, -5.78468606577687523895e+02) (48, -1.96797060817332550187e+02) (70, 6.49454497608367642414e+00) (54, 2.17924517229751330660e+02) (17, -2.68591801070376412497e+01) (53, 1.60553103321096273248e+01) (26, 2.75791472313018232398e+02) (63, -3.79106144973354730610e+01) (39, 1.72819224785651215370e+01) (11, -3.90479425277693881213e+00) (56, 9.06832167287923994081e+02) (57, -4.57895192511709083760e+01) (62, 1.50000000000000000000e+03) (5, -2.45225383895918691568e-02) (2, 1.50000000000000000000e+03) (59, 1.21030737617325234723e+00) (38, 6.33687694391040167829e+02) (3, 2.74923252376743088021e+00) (50, -1.81525873343826944506e+01) (67, 6.86196732135608389314e-01) (51, 2.71715503789954091474e+01) (14, -6.43463639552244444531e+02) (16, -2.10860669370889546315e+01) (19, -3.76658426053031281100e+00) (28, 3.06891301904394282474e+01) (10, -5.09439347642770655966e+02) (12, 1.50000000000000000000e+03) (49, 1.78950456100660595382e+01) (66, 1.63891493349792405354e+01) (46, 8.19637768072448835710e+01) (44, 1.06826628059693135242e+02) (36, 8.90083452232289118911e+02) (34, -1.78610797210533462476e+02) (65, -1.12783973118524354362e+01) (29, 2.76538343776689110598e+01) (30, -3.12910753946068354026e+01) (33, -3.91616846385185297663e+01) (35, -5.14935546624613138533e+01) (70, 3.73188337816430859561e+00) (1, 4.82825757400803579067e-01) (47, -1.97529649792687216348e+01) (27, -5.67817778275311511038e+01) (62, 1.28959550319120012318e+03) (19, 3.39926144846548305978e+00) (68, -1.50000000000000000000e+03) (8, 4.91323216754847464927e+01) (59, -2.68269227945018542414e+01) (69, -2.90639041719319450863e+01) (3, -3.35613688515257919676e+01) (33, -1.25091018031714860115e+01) (42, -3.93048511703765086622e+01) (10, -5.13320832343158485855e+02) (57, 1.37329397998501678835e+00) (39, -8.69864174590125216469e+00) (64, -1.50000000000000000000e+03) (9, -1.76925842889699111993e+01) (11, -4.41051272003966854385e+00) (29, -3.72771803553916996066e+01) (22, -3.55972827026517677496e+02) (45, -1.39688323113203836101e+01) (26, 1.50000000000000000000e+03) (12, 1.50000000000000000000e+03) (49, -2.53916738837160451681e+01) (18, 2.80528597904554688469e+00) (36, 2.94031313423004291963e+02) (23, -1.10526406516249355860e+01) (56, 1.24320202710921336120e+02) (24, -1.32853018804629846272e+03) (5, -2.03630915365519129523e+01) (61, 5.05540005578579876300e+00) (44, 1.23195588657758356987e+01) (2, 1.50000000000000000000e+03) (65, 1.15216056242808733145e+01) (38, 3.13627550540764900688e+02) (70, -1.56835401253496531382e+01) (49, 4.09475439307839721437e+01) (11, -1.85744071603405878079e+01) (57, 3.05299848551761510151e+00) (47, 7.83222866258301486653e+00) (41, -6.71856834889369203268e+00) (34, 6.81495138120815113325e+02) (36, 5.79024329915059638552e+02) (55, 1.37718617553029645251e+01) (3, -4.82257640557090567768e+01) (23, -1.71336249128742856840e+01) (44, 8.51158873449826103297e+01) (18, -3.79153292109117998621e+01) (43, -1.71111201953723135460e+00) (56, 2.79532319729653409013e+02) (33, -3.44610368360619911954e+00) (39, -7.70446652401278431199e+00) (26, 1.50000000000000000000e+03) (14, -5.99716011211950785764e+02) (9, -3.10893375064737469415e+01) (51, -9.35866401575668760415e+00) (29, 3.84934250383067038115e+01) (32, 4.04658006270407426541e+01) (40, 8.54827069737697655682e+01) (12, 1.50000000000000000000e+03) (8, 1.17705139100354031712e+02) (63, -6.62059101971131447328e+00) (4, -1.76725708509525603063e+01) (27, 1.55628271927272834319e+01) (53, 3.58140537317805396356e+01) (1, -1.58074004845415476694e+01) (19, 2.08105465502780830889e+01) (61, -2.25787357174312006691e+01) (21, -1.44886839907013555973e+01) (66, 4.30237165957215736967e+01) (24, -1.33347993890392194771e+03) (70, 5.72800431086096129008e-01) (8, 7.48654347075554085222e+01) (67, 1.43262549158426484297e+01) (22, -3.12888770332033118393e+02) (10, -2.68876206812950556468e+02) (42, -4.08709743154914129093e+00) (37, -1.10957300624342245499e+01) (16, 1.37628482072693181237e+01) (65, -6.37996290562615708808e+00) (9, -5.81328021626079327611e-01) (4, 9.37649545108816262484e+00) (7, 2.53962789405133300136e+01) (36, 2.82715870604092344820e+02) (33, -2.19917557899292575030e+01) (19, -2.17041815893483018840e+01) (15, -1.37121859822940574958e+01) (2, 1.50000000000000000000e+03) (17, -1.67779914830964109740e+01) (51, 1.81713489622524271283e+01) (34, 3.33304689491899921450e+01) (56, 1.16947900398753986906e+02) (3, -1.51601681973204804876e+01) (5, -2.44621550501320434989e+01) (32, 2.41050012210419524195e+01) (25, -9.29851702880819885877e+00) (27, -9.69176942312757461195e+00) (48, 6.52801814808941145429e+01) (39, -1.97007947827965992360e+01) (68, -1.50000000000000000000e+03) (35, -2.06375672394305702539e+01) (26, 1.50000000000000000000e+03) (53, 9.56577909219893207649e+00) (40, 4.42485615565973144925e+00) (43, -1.54198520418271307619e+01) (63, -7.89667036206561867573e+00) (58, 9.31061199446678422476e+00) (70, 3.82251136493705656605e+00) (13, 1.62126886797989904210e+01) (26, 1.50000000000000000000e+03) (50, 1.60079957466081346240e+01) (2, 1.50000000000000000000e+03) (18, -3.98386347727376444183e+00) (9, 3.14092503673072371839e+01) (36, 5.89129774787858764284e+02) (33, 5.56529753741456989502e+00) (31, 3.99465148433953842755e+01) (65, -4.51673243223911953237e+01) (42, -4.40519680145578860220e+01) (52, -1.62906681060036930830e+01) (49, 1.27755484183587819658e+00) (56, 3.06609988336270305354e+02) (45, 6.06677545721877642393e+00) (0, -1.50000000000000000000e+03) (57, -1.51468331945698668761e+01) (7, -2.53227179815220075909e+01) (25, -2.71820247225670819091e+01) (11, 9.63630233401880609279e+00) (27, 3.88182037326969364699e+01) (30, -3.24546226950326058613e+02) (3, 1.31882397432327351794e+01) (17, -5.76218664543796421640e+01) (47, -1.31129693777744122940e+01) (58, -1.91664431894084259511e+01) (15, 3.95563075194967872505e+00) (67, 6.20740569999058493522e+01) (34, 1.29084456276890676918e+02) (8, 1.12793006360333350813e+02) (10, -5.22656890767923187013e+02) (21, 2.14625224296118801703e+01) (35, 2.87868585672412677923e+01) (62, 1.50000000000000000000e+03) (32, 1.24825206637114220598e+02) (70, -2.88948447360650151339e+00) (0, 1.50000000000000000000e+03) (22, 6.34733861758189618740e+02) (41, -4.87545017560502671472e+01) (48, -3.40479544195597497946e+02) (28, 6.05708744450645308888e+00) (6, -1.24893144392766632933e+01) (61, -5.78443683604669303122e+01) (50, 1.42431731926770055452e+01) (59, 3.72893057748094207682e+01) (67, 3.33006575396526756094e+01) (7, -3.39198512816161334982e+00) (58, -1.99060814854219820802e+01) (37, -2.59170754694490099723e+01) (4, -1.13675615321278460357e+01) (46, -2.53450328469478129989e+01) (25, 3.63896972619957431716e-02) (16, -9.81293569754500771829e-01) (69, 4.67660307203328287073e+01) (27, -5.86222362219436821107e+00) (34, 7.67625747690899970621e+02) (51, 5.82257466601707704967e+01) (13, 7.63166859455552692992e+00) (42, 3.70645260827724456476e+01) (54, -1.62778989119483696868e+02) (10, 4.68486696603128621064e+02) (24, 1.38236865845547094978e+03) (5, 1.91286422522866494944e+01) (20, -1.69318405012398528697e+02) (45, -3.97939312292854481257e+01) (8, -9.12083906205060515049e+01) (3, 1.46312909469948571051e+00) (35, 3.09955184843824582686e+01) (43, 3.43644108745376897218e+01) (9, -2.39848721128547346382e+01) (19, 1.89435134616982878697e+01) (70, 1.02799306857610179833e+01) (15, -6.62280635257480643219e+00) (60, 1.16032114055028714006e+02) (59, -6.51189814374800874930e+01) (69, -3.11920609121755347815e+01) (37, -2.92847089206001882644e+01) (17, -1.76669271609811602275e+01) (29, -4.57659853141769161766e+01) (48, 1.65186810520590569240e+02) (33, -5.85988610520535502246e+00) (62, 1.50000000000000000000e+03) (67, 2.59587606133239496842e+01) (44, 1.06826775969173951353e+02) (51, -5.49961641497292763603e+00) (35, 4.45834393382316562793e+01) (10, -5.17500928181520293947e+02) (43, -1.56470941992726686465e+01) (18, -5.43086730638238037727e+01) (57, 7.27333325491790390060e+01) (40, 5.89436025120996305304e+01) (8, 1.08176552951138361891e+02) (36, 1.54140976233358031777e+02) (7, -3.68204707356721741007e+01) (54, -6.52427747754631415233e+00) (39, -1.52346543072909810235e+01) (12, 1.50000000000000000000e+03) (20, 4.55846614229751807557e+01) (1, 2.17030893313912720544e+01) (3, -6.51997846615192884201e+01) (9, -1.76567334727703446617e+01) (19, -3.20210179458536003949e+01) (41, 5.53180427468923863188e+00) (13, -1.12222473189992811626e+02) (25, -2.47487193978405919381e+01) (63, -3.31621386655005423449e+00) (64, -1.50000000000000000000e+03) (70, -1.70312226960052015556e+01) (3, 1.10181509307036016310e+01) (24, -3.52620820525814906432e+02) (44, 1.11375941861920773590e+03) (40, -2.01784164518308628544e+01) (42, -2.94983785588561815416e+01) (58, 6.02136367994262844405e+00) (20, 2.29514221122463652591e+02) (63, -7.98682820290236428207e+00) (39, 1.04515928716042143520e+01) (59, 4.32923433720793582324e+00) (25, -5.47641428904136873257e+00) (67, 3.85661385904679887560e+00) (52, 3.29932813598902052732e+00) (14, -6.75330382506894920880e+02) (18, 8.36708010435163629381e+01) (33, 1.71436265048149549806e+00) (38, 5.26867380474399169543e+02) (55, 1.96234203452622857355e+01) (28, -2.48927548644786655885e+00) (47, 2.00307187661854442240e+01) (66, 2.12213002067769842540e+01) (37, 2.27399266876525523173e+01) (22, -6.89336627886828409828e+02) (57, -5.14968449468929456714e+00) (7, 1.00050720550084246696e+01) (45, -1.96247871020898791983e+01) (34, 1.47875382870844146055e+03) (8, 2.06109921402610218877e+01) (68, -1.50000000000000000000e+03) (49, -5.96824621675171673729e+00) (31, -5.43562523879933645610e-01) (27, 1.79052040773921490313e+01) (2, 1.50000000000000000000e+03) (11, 2.53887669721236193254e+01) (46, 6.96671386470964790760e+01) (70, 2.02885250169148143584e+01) (31, -8.43461898028988699139e+00) (43, -2.71702795937109691238e+01) (68, -1.50000000000000000000e+03) (12, 1.50000000000000000000e+03) (26, 1.50000000000000000000e+03) (34, 4.80040578545856320147e+01) (59, 4.59380643050183756770e+00) (39, -2.76490953397628871357e+01) (22, -6.83685943530138956703e+02) (62, 1.50000000000000000000e+03) (28, 2.10475069888014303388e+01) (23, -4.46216767925701329744e+00) (8, 8.14529246685913363990e+01) (45, -2.75825598060644550102e+00) (42, 9.52034845253918682317e+00) (55, 1.94666918280658940432e+01) (38, 7.98528044308755397651e+02) (41, -9.79062817181566913405e+00) (57, 2.29125756353958820455e-01) (36, 5.93106232480073344959e+02) (35, 6.89396823619515064507e+00) (54, 1.51979008206571766237e+01) (24, -1.33322793294796792907e+03) (30, -2.76545262544240472380e+02) (50, 8.89044782241840714221e+00) (67, 2.20976777592368165415e+01) (58, -1.49672779641634896564e+01) (13, -2.35938474411237919526e+01) (65, 2.26821963161154442901e+01) (63, -9.23279881053464102081e+00) (3, 2.16940273362507518584e+01) (40, 3.98624254445140024927e+01) (7, 8.06441760664195506081e+00) (61, -4.25496625291799990265e+00) (10, -5.33123558420052972906e+02) (70, -3.79983745831899177858e+00) (27, 1.43796144160243528631e+01) (41, -3.03285729389083620333e+01) (54, -1.86669965150575372093e+01) (56, -6.87193140896231966508e+01) (3, -1.32890316130583201470e+01) (65, -9.15174216394444428602e+00) (4, -1.46726385070382665532e+01) (23, -7.73749813690179077952e+00) (61, -1.27570483279651281094e+01) (51, -1.20761234675669175687e+01) (19, -2.52820555648353959555e+01) (8, -8.17021372272760970645e+01) (25, 1.10571263480097794485e+01) (17, 3.76872133675351648208e+01) (43, -2.32441760320240291549e+01) (40, -2.97210066466427100806e+01) (26, 1.50000000000000000000e+03) (11, -1.78005146447210158556e+01) (42, -1.07769909893987986038e+02) (21, -2.16286004647552623226e+01) (44, -1.36494655070872255465e+02) (67, 9.89288979898034348537e+00) (53, 2.93635948442161520688e+01) (29, 1.58185882150774776989e+01) (55, 5.83466450042084971983e+00) (57, -4.38501056586470809862e+01) (9, 2.02026733987866116138e+01) (20, -1.58646301203878863362e+02) (60, -1.43785129945993368494e+01) (14, -2.86399865793067760933e+02) (6, 1.79067295543113225165e+00) (2, 1.50000000000000000000e+03) (33, 1.57389678113271020976e+01) (48, 4.73001880967821293211e+01) (59, -1.30397367036810951646e+01) (70, 3.66499058621609137276e+01) (4, -4.21516071821293465405e+01) (16, -1.60171740781615490334e+01) (14, -7.15811063105711355092e+02) (61, 1.60721360510715278735e+01) (45, -3.92078484002248828233e+00) (60, 4.30556695427553563604e+02) (47, -3.14977937198466406699e+01) (19, -2.55397659982744329454e+01) (29, 2.80708088546260583485e+01) (18, -3.20709563294401718281e+01) (24, -1.32282733251461809232e+03) (69, 4.94879410949553455445e-01) (49, -7.34872847404267748317e+00) (57, 2.84896104136077390478e+01) (48, 1.37969516498149431527e+02) (23, 3.98108252357349812200e+01) (53, -5.07194251374110010033e+01) (44, 9.47900034796262787040e+01) (38, 5.90742005189685187361e+02) (9, -2.80464507952788295597e+01) (41, 6.57482909061074582979e+00) (51, -4.12283505278703543695e+01) (21, -2.07792261940638418594e+01) (13, 2.69591246840083265113e+01) (37, -3.82218058202794352951e+01) (36, 5.39101324867864832413e+02) (35, -1.65386533773120554258e+01) (27, 1.90926797430091390595e+01) (8, 9.23240222332887299217e+01) (3, -1.10833542925623547148e+01) (2, 1.50000000000000000000e+03) (22, -6.70505784915026310955e+02) (64, -1.50000000000000000000e+03) (55, 7.72857162463022984156e+00) (67, 5.98676141148052494145e+01) (70, -6.09426642987342531699e-02) (59, -1.24723446452092421310e+01) (68, 1.50000000000000000000e+03) (34, -3.51308526244502683511e+00) (24, 7.01240149647544285472e+02) (14, 3.40451059304446971510e+02) (42, 2.53821689356751463151e+01) (65, -3.47004116640221411672e+01) (63, -5.72524900971062233879e+00) (19, 1.76873315640239336943e+00) (31, 4.16418433906234941588e+00) (38, -2.54709545626100720028e+02) (2, 1.50000000000000000000e+03) (55, -1.27726338163738741827e+01) (16, -3.28000247013748875702e+01) (36, -3.20812453696394982217e+02) (35, -9.11315567685748106896e+00) (3, 8.38563920601854739800e+00) (26, -1.50000000000000000000e+03) (17, -1.34345532728740764128e+01) (66, 1.03808384732344016754e+01) (8, -3.38731420080766838510e+01) (23, 2.11135084076192818259e+01) (48, -8.08741110497082900110e+01) (11, -1.20446508678569230710e+01) (4, 1.86601108232649330887e+01) (40, -1.11594563536009587779e+01) (47, 2.30150224690087412682e+01) (13, -7.27966065728068567608e+00) (22, 3.20480904928327348102e+01) (44, -9.50885930301499797679e+01) (50, -3.45292095648176129430e+01) (21, 3.09523188328462346419e+01) (30, 5.97866235135521506550e+01) (32, -4.29626291069994863392e+01) (49, -4.39391091994918454589e+01) (70, -3.82060115412530132417e+00) (9, -1.26764362540725041839e+01) (43, -3.48197522427438883597e+01) (39, -2.19771137428094860411e+01) (5, 1.53208763575598823081e+01) (64, -1.50000000000000000000e+03) (14, -6.72551986987242116811e+02) (48, 5.82851309527550597522e+02) (44, 1.17936321959002128779e+02) (6, 1.31311139572472569625e+02) (56, 5.44413368946005789439e+02) (22, -2.27266470504079940440e+01) (53, -7.30473399480239482529e+00) (38, 1.01614244316275048163e+02) (4, 2.17577032644102210668e+01) (33, 2.30345397430550624662e+00) (1, 2.65120621435278316369e+01) (12, 1.50000000000000000000e+03) (42, 3.88145866728070245699e+01) (67, -3.03514671149435155684e+00) (18, 9.66227516174843081842e+00) (31, 1.87596710278516134451e+01) (52, -4.23206915059601118667e-01) (59, -1.12520055599708701521e+01) (50, 3.24551987161856345665e+01) (34, 2.73000130755749879086e+01) (17, 3.08237607509148237028e+00) (23, -1.46097106975093193881e+01) (40, 1.65193709253899392309e+01) (61, -3.05886186206634320683e+01) (65, 1.44394892223944530940e+01) (51, 2.03141152798028450377e+01) (13, -9.48932072530811510092e+00) (26, 1.50000000000000000000e+03) (10, -5.12549832242837851481e+02) (11, -3.91198782103248854369e+00) (70, -1.82335686922001549704e+01) (48, 1.10116518301977464489e+02) (47, 1.13849534372446861141e+01) (28, -2.49927751726375930730e+01) (5, 1.63933340064776196243e+01) (25, 1.09994995219049975788e+01) (68, -1.50000000000000000000e+03) (32, -1.24011398712566283109e+01) (20, -1.60223197021249355032e+01) (11, 2.12276810224941172578e+01) (16, -3.45226064073457479253e+01) (30, -3.37200041056783334170e+02) (24, -6.49231674552060781025e+02) (56, 1.23089960772062042338e+02) (46, 2.83330639218120197143e+01) (59, 9.54156537675823201994e+00) (40, 3.57984052336492482027e+01) (43, -3.96325206782492633906e+00) (35, 2.53741414570058374522e+01) (44, 2.45066300258240161725e+01) (61, -4.50321928368582931057e+01) (65, 3.91212012190868785311e+00) (18, -2.01662815144830851466e+01) (23, -7.86980889850874820723e+00) (33, -5.16056024804382715843e+01) (27, 3.56314615140867374521e+00) (2, 1.50000000000000000000e+03) (8, 1.13036028498759737460e+01) (34, 2.83705177962106036560e+00) (54, -2.94233737676891600188e+01) (45, -3.70657993361801318954e+00) (38, 2.54853741421271706713e+02) (7, -3.45364917859942721634e+01) (1, -2.20023007631230065329e+01) (62, 1.50000000000000000000e+03) (52, 9.33988962049382465125e+00) (70, 2.32197753573607066357e+01) (68, 1.50000000000000000000e+03) (28, -2.75642431913561480883e+01) (33, -1.69705425733261421328e+01) (22, 6.56073609187083434335e+02) (59, -3.44665967784987259392e+01) (26, -1.50000000000000000000e+03) (3, -3.72504738186647514908e+01) (66, -1.98090462299564613602e+01) (45, 4.87263277657385387442e+01) (1, -7.44021304595997179376e+00) (4, 1.31953695286632157746e+01) (11, -2.14950209066091808552e+01) (12, -1.50000000000000000000e+03) (5, 3.14243055432439000185e+01) (56, -2.71876880097047148865e+02) (37, 1.75953723014420049253e+01) (20, 8.79033297177436701020e+00) (55, 2.36192374437713290547e+01) (60, -4.83132806005846759945e+02) (47, -1.26326185431884354671e+01) (13, 1.65469823464607337371e+01) (38, -5.48004804240040584773e+02) (39, -1.26300268623357836439e+00) (27, -2.60813093381503975365e+01) (44, -2.52960938627130715872e+01) (16, -4.20089032377952591446e+01) (67, 6.20545511950034196502e+01) (35, 1.85542394160156440819e+01) (24, 1.36452927437649145759e+03) (46, -4.14390614234895249268e+00) (42, 3.21696698560861733540e+01) (62, 3.62279517901800716118e+01) (52, 6.16773594031335825605e+00) (65, 8.35253420793056733373e+00) (34, -6.57394380176015715733e+01) (70, 2.36622071522753563144e+00) (37, -2.24133487598447374012e+01) (35, 1.34634160058030438734e+01) (38, 5.77750324090746744332e+02) (55, 3.76525077095281579531e+00) (36, 5.58566486191412536755e+02) (13, 1.87715681319964495799e+01) (47, 5.76454425854482792602e+01) (50, 1.38663144083883338453e+01) (23, -1.70447886610724097523e+00) (32, 5.60874422629353333036e+01) (44, 1.21623336495068073759e+02) (53, -3.35882799969999155110e+01) (45, 5.90652445520893376596e+00) (9, 1.69162359128018309207e+01) (17, 4.05284709087605765632e+00) (67, -7.10817699889435505867e+00) (2, 1.50000000000000000000e+03) (42, -3.72266594201668112873e+01) (6, 4.83910814914222910943e+01) (19, -2.12721587873680881842e+01) (15, 5.73705366421101481400e-01) (1, 1.24727470900447059421e+01) (8, 1.12093892037670983086e+02) (52, -1.54854321370102283595e+01) (41, -2.71445384813883539010e+00) (21, -1.07713208362852501665e+01) (3, 3.64577829863462028470e+01) (18, -5.74191281828400619247e+01) (33, 2.07492640313206209157e+01) (26, 1.50000000000000000000e+03) (31, 4.92523699826588945427e+00) (60, 4.04004368748323827276e+02) (0, -1.50000000000000000000e+03) (7, 3.69844227855631046964e+01) (34, 7.67515725793169849567e+01) (70, -2.25198724244203170031e+01) (25, -9.23292013031963421099e+00) (11, -2.47598433813787970337e+01) (38, 6.12706698259143195173e+02) (63, -7.41813745594078621792e+00) (45, 9.07714298929687224415e+00) (46, -3.17945685264107735790e+00) (61, -1.33776072411062436629e+01) (22, -6.49685855792101506267e+02) (20, 2.59384721399074535952e+00) (50, -3.49203586606117966085e+01) (5, -8.10138446785208543588e+00) (33, -1.27022874388113682365e+00) (48, 1.41055904132426832120e+02) (52, -4.80494561085679450230e+01) (6, 4.11665460261818694221e+01) (30, -6.51197196857050244034e+02) (36, 5.32124544930120805475e+02) (15, -9.08714182062128195128e+00) (40, 4.13729342915796607372e+01) (49, -5.91260614591230222459e+01) (44, 1.08320222676899447833e+02) (64, -1.50000000000000000000e+03) (47, 2.20111995739729877641e+01) (17, -3.45959461296443464562e+01) (42, -3.72749673158272045725e+01) (43, 5.55427192347699705266e+00) (10, -5.25873190301767181154e+02) (32, 7.36082790930746284630e+01) (18, -1.39821302095147519395e+01) (68, -1.50000000000000000000e+03) (57, -1.74996562369292476546e+01) (51, 4.39418106494776239401e+01) (26, 1.50000000000000000000e+03) (27, -2.34366027644816057318e+01) (2, 1.50000000000000000000e+03) (70, 7.34720108915093117474e+00) (19, -7.13491261431127110626e+00) (55, -8.53872708827283233290e+00) (61, -2.18924070768071672433e+01) (67, 7.13368279994562204394e+00) (10, 5.24860042455026814423e+02) (2, 1.50000000000000000000e+03) (41, -2.08432312688625316355e+01) (27, 6.84536886618497764090e+00) (12, -1.50000000000000000000e+03) (15, 1.53311431357559904143e+01) (40, 6.34439281541478017346e+00) (20, -5.58917960275854994734e+01) (28, -5.10892106250684108204e+01) (16, -9.77871211653330085767e+00) (17, 1.95613405714577623939e+01) (51, 6.27057772240190480773e+00) (8, -1.11997223186225667746e+02) (6, -7.96833624674485889727e+01) (48, -2.07376467648785265396e+01) (39, 3.67813283354272329007e+01) (53, -5.71644700532051253106e+00) (66, -5.05435406274282286176e+01) (26, -1.24430098858746760015e+03) (52, -2.88401892086902762458e+01) (23, -5.86575529625970126801e+00) (68, 1.50000000000000000000e+03) (13, 1.25907779173360125924e+01) (47, -1.15034795383581709416e+01) (24, 1.33463189223633116853e+03) (64, 1.50000000000000000000e+03) (25, 9.94250564535679970390e+00) (21, 7.04030919616417794060e+00) (49, -3.18028921225625431646e+01) (35, -4.58909858098047429564e+00) (54, 6.11992353707425706943e+00) (70, -1.40092118989448728428e+01) (68, -1.50000000000000000000e+03) (36, 5.88072491478583174285e+02) (64, -1.50000000000000000000e+03) (4, 2.07004798387447728203e+01) (54, 9.48416857807295166083e+00) (38, 6.14919889291552863142e+02) (8, 1.02966706216137822594e+02) (57, -1.96205617942743693050e+01) (17, -2.21164768303274641426e+01) (15, 2.64948911222306815461e+00) (21, 1.39740019027702757626e+01) (56, 2.91969811915391119328e+02) (45, 2.26151072548894944703e+01) (63, 2.42218395132409547443e+01) (13, -3.05317172315765184010e+01) (16, 3.16318909224877558017e+01) (59, -1.96360619877460180760e+01) (12, 1.50000000000000000000e+03) (66, 4.03364216356994731427e+01) (35, -1.71202527726049851253e+01) (48, 3.39587495586784825718e+02) (41, -1.12397018004918951561e+01) (55, 1.29273142555753306482e+01) (69, -6.16491351344913596222e+00) (3, 1.69678302992366667468e+01) (31, -4.98719907123093175727e+00) (2, 1.50000000000000000000e+03) (18, -8.00991243110240169756e+00) (5, -8.99293926732946324876e+00) (10, -5.37880135911813340499e+02) (46, -1.61732696254772427835e+01) (62, 1.50000000000000000000e+03) (26, 1.50000000000000000000e+03) (14, -6.70790011698851003530e+02) (30, -1.63182943485623212609e+02) (70, -7.76595390439451804809e+00) (36, 1.50000000000000000000e+03) (44, 1.50000000000000000000e+03) (7, -1.71585458075034864578e+01) (3, 2.30987416446168154494e+01) (50, 1.43211028743223266702e+02) (28, 2.87989657240415120043e+01) (5, 1.73872218220295025048e+01) (47, 3.53264545493049197944e+01) (49, 2.10726152440893095275e+01) (63, -3.43763480337993030389e+01) (55, -1.46822577894302774837e+01) (39, 1.76794318090955115963e+01) (0, -1.50000000000000000000e+03) (26, 4.83620556641076404958e+02) (61, -3.01362549818054965556e+01) (14, -1.34651917808664234144e+03) (32, -8.42089556633203955016e+01) (48, 6.42738645395659915494e+01) (30, -1.92224441033893747033e+01) (9, 5.58277210817807656440e+00) (2, 1.50000000000000000000e+03) (41, -2.03198452152629194245e+01) (27, -1.29338441189290982436e+01) (58, 2.20730489612646962883e+01) (20, -3.09136065646016167108e+00) (17, 2.91218301083237136595e+01) (52, 7.25913175806135235746e+00) (15, 5.22551829541516621447e+00) (13, 1.22923791719956252422e+01) (59, 2.22886358046098287389e+01) (4, -1.95220858140309516671e+01) (51, 1.96826946734320351595e+01) (23, 4.89268005346834122804e+00) (46, 1.60991364458117828917e+02) (54, 2.44812439107065671351e+01) (70, 4.56705190595880772264e+00) (32, 7.87772573359855385888e+01) (47, -3.77433229953062436834e+01) (67, -3.35255410573313454847e+01) (68, -1.50000000000000000000e+03) (16, 1.82956245499968481738e+01) (8, 9.76590461132936127342e+01) (15, -1.14669567686429676456e+01) (46, 7.53782044357691347614e+01) (50, -1.93863534082712192230e+01) (30, 4.34548580398625645671e+01) (41, -1.31147816988691445772e+00) (35, 1.17154616570336518322e+01) (59, -3.61823910359164742090e+01) (33, 1.54863251630182627849e+01) (48, 1.91426544957944315684e+02) (25, 1.69674774872073363952e+01) (53, 1.80247686246883276340e+00) (54, 1.20119293667042552443e+03) (12, 1.50000000000000000000e+03) (27, 1.78373470934910116625e+01) (62, 1.50000000000000000000e+03) (22, -6.89397340701159464516e+02) (61, -1.53769693254251471615e+00) (14, -1.35205165260446506181e+03) (69, 4.08254863676324930566e+00) (17, 6.73852185352381294337e+00) (57, -3.50620046022518678797e+01) (56, 9.57664191985877124580e+01) (39, 1.01558991117446346664e+01) (38, 3.16972356914673639494e+02) (42, 1.95267433647387292694e+02) (58, 7.16610814401496782011e+02) (66, 2.04577995806457835215e+01) (6, 5.74506339462931450157e+01) (21, -2.86861623970140788842e+00) (70, -8.34238051205325348292e+00) (26, 1.50000000000000000000e+03) (59, -2.75403160667210968882e+01) (58, 5.88664990544303421416e+01) (43, 1.33962785238100057228e+01) (20, 1.97987543872036368953e+01) (28, 1.80584308809444671340e+01) (17, -4.76707630500781434080e+01) (5, -2.52530638197577728121e+00) (50, 7.93790112966742640310e+01) (12, 1.50000000000000000000e+03) (24, -1.32335839011082498473e+03) (13, 4.92447052825854747482e+00) (10, -5.02025521654001181560e+02) (15, 1.11512845649648113522e+01) (46, -1.72845828387698965400e+01) (32, 3.36710917040438815206e+01) (8, 8.79854468701295076016e+01) (60, 4.42559250797884260464e+02) (48, 1.25760183246410349511e+02) (53, 1.81688302462784605495e+01) (29, -3.45020518597423553331e+00) (44, 5.48570288624498971330e+02) (21, 2.67682802539905537742e+01) (23, 3.64007556383523223076e+01) (61, 1.65160061449704826941e+01) (9, 1.06298919818124364411e+01) (67, 2.52470966306623871844e+01) (16, 7.28452675291627684828e+01) (34, 6.25409602980144985196e+00) (66, 1.76312115740972275013e-01) (4, 1.24446462129513459871e+01) (64, -1.50000000000000000000e+03) (39, 1.27755227425974151600e+01) (33, 6.12697633497977989236e+00) (41, 2.00357602169251585167e+01) (70, 2.18371310599877421765e+00) (9, 8.27187494021463365357e+00) (44, -7.15005978292655754558e+02) (30, 4.16379923300009124887e+01) (61, -8.38608658953720897955e+00) (69, 2.36645975387916891464e+01) (19, 1.10606758000627785066e+01) (68, 1.50000000000000000000e+03) (13, -1.32717012899301547435e+01) (45, 6.79942413840890669263e+00) (15, -1.20501095681052099451e+01) (2, 1.50000000000000000000e+03) (6, -6.90195867898758876890e+01) (38, -6.48034686833106434278e+02) (66, -4.62457642170171610019e+01) (40, -4.42500127216869998392e+01) (14, 1.29638112408946813048e+03) (18, -4.36369283760617747703e+01) (65, -1.89738042738303853696e+01) (16, -5.51073901117226228052e+01) (43, -4.08148171192044628697e+00) (0, 1.50000000000000000000e+03) (35, 3.56226049307594578863e+01) (20, 9.93577188451329895713e+00) (49, -1.71927868743279752550e+01) (23, 1.49850626640701349856e+01) (27, -1.08544522468699167206e+01) (1, 2.52398786819801657089e+01) (41, -3.88645852072505704200e+01) (64, 1.50000000000000000000e+03) (59, 4.36153254042608509167e+01) (5, 1.72738941498677043285e+01) (34, -1.17225782828327353968e+01) (48, -2.76016492656993406296e-01) (12, -1.21908892330970479634e+03) (31, -1.12515917925418147405e+01) (70, -1.88470164814897280792e+01) (57, -2.60947229281552530722e+01) (44, -5.49028354259359403500e+01) (12, -1.50000000000000000000e+03) (9, 3.25693918339080141777e+01) (41, 4.58644142626414819119e+00) (55, 4.06722874345270994922e+01) (33, 1.00705109999048065816e+01) (49, -2.45695209745621312436e+01) (2, 1.50000000000000000000e+03) (48, -3.81269476644705775925e+02) (58, 2.90610406572339385889e+01) (65, -3.44431023957679371961e+01) (52, -3.82583884778842033825e+01) (68, 1.50000000000000000000e+03) (47, -2.50266116289700590869e+00) (42, 8.13113535330762857711e+01) (51, -2.24424851478502702662e+01) (61, -1.09856343714630604325e+01) (0, 1.50000000000000000000e+03) (14, 6.65727976871283317450e+02) (15, 2.78491647993911044523e+01) (4, -8.78058452712291348519e+00) (8, -1.10812203654760423888e+02) (64, 1.50000000000000000000e+03) (1, -1.58767966360670170767e-01) (17, 8.59467932171847870393e+00) (26, -1.50000000000000000000e+03) (3, -1.99586764851518374542e+01) (38, -5.88479526148610375458e+02) (5, 6.55399933549220392592e+00) (67, 1.42175461591751322032e+01) (27, 9.83734931282499758254e+00) (40, -8.43362124357648355044e+01) (39, 2.61975187479719124894e+01) (59, -1.43141919326790501010e+00) (70, 1.16324802843462893343e+00) (48, 8.65448791062492119863e+01) (27, -2.00522035905566866631e+01) (63, 3.14957479443154895193e+01) (34, 1.27610647342033036722e+01) (11, 5.49325011248144363663e+01) (8, -1.26750659112046264454e+02) (51, 8.34497489168030703865e+00) (6, -6.93923297973329056276e+01) (32, -9.06548700130212949944e+01) (54, 1.02206436571143655101e+01) (14, 6.74154624534399772529e+02) (61, -1.38393042005446069709e+01) (29, -4.39434534303461443727e+00) (67, 6.06652363876693456746e+00) (49, -8.93172788968099951035e+00) (43, -1.35276407940591631984e+01) (16, -6.99745559387309299382e+01) (64, 1.50000000000000000000e+03) (12, -1.50000000000000000000e+03) (1, -5.01175198348630512868e+00) (18, 6.43542388462727910081e+00) (3, 5.33660187927614604320e+00) (46, 1.72050285368169788569e+01) (17, -5.73237987566624163094e+00) (41, -2.91061663187701604727e+01) (39, 3.82749799493413433993e+00) (59, -1.11750747114265429616e+01) (50, -3.30513223859848892516e+01) (66, -4.47267880054693094394e+01) (5, 3.06690766479690140045e+01) (25, -3.85686629670470040310e+01) (33, -2.77024065624078161818e+01) (40, -5.89628868400199976918e+01) (53, -1.88094266116597665928e+01) (44, -7.13550686633601799258e+02) (70, 2.10290336500516623630e+01) (45, 1.60235809603835939186e+01) (39, 3.83864274783469241470e+01) (16, -2.28863888935678616576e+00) (68, -1.50000000000000000000e+03) (18, -1.31338626170372201329e+01) (35, 9.65339410748898707482e+00) (48, -1.19036317175406495039e+02) (29, 2.04868639337404729872e+01) (31, -5.86813763792322795609e+00) (9, -2.31660135938252373933e+01) (5, 2.01649464094451502660e+01) (32, 1.23702049716488147624e+02) (65, -1.55266868964962760913e+01) (11, -2.00296976299418822975e+01) (1, -2.23396263230928688870e+01) (17, -1.38957076886084465173e+01) (33, -6.32235475652461875740e+00) (27, -2.28893992933410928003e+01) (26, 1.50000000000000000000e+03) (7, 1.63567222794248827711e+01) (49, 3.83278142746957639631e+00) (54, 1.40716560557023440126e+00) (59, -1.41311311494760882823e+01) (63, 1.20771198164333242175e+01) (64, -1.50000000000000000000e+03) (58, 1.33123061173881112040e+01) (3, -1.56523729454381221871e+00) (41, -3.73394673191868022855e+01) (38, 8.56703355626597954142e+02) (23, -2.35810778826117939388e+01) (51, -3.67978809726123667900e+00) (22, -1.40013446367723076946e+02) (12, 1.50000000000000000000e+03) (10, -7.91914555150028860453e+01) (4, 2.16112466345014730962e+00) (70, -6.49767758337846057515e+00) (6, -9.82408119630220966201e+01) (2, 1.50000000000000000000e+03) (24, 1.33239044872150770971e+03) (28, -2.98581433814539991545e+01) (65, -1.10472837677766690945e+01) (41, 4.69901541209353439399e+01) (47, 3.79862269889053152383e+01) (31, 1.12090098117791026056e+01) (44, -1.49524645115433372666e+03) (33, -4.80464969604987235385e+00) (9, 4.49071753541498992490e+01) (61, 3.06452174342575389687e+01) (11, -2.39895277665768063002e+01) (46, 2.02991122168015436955e+02) (22, 6.94333095385509068365e+02) (15, 7.44368057095014012958e+00) (52, -1.66542152797182652080e+01) (45, -2.07583530404539082781e+01) (64, 1.50000000000000000000e+03) (12, -1.50000000000000000000e+03) (26, -1.50000000000000000000e+03) (69, 2.70505093090395014599e+01) (67, -1.27078770817988617736e+00) (66, 2.18509402660152787234e+01) (59, 2.83746381972402517135e+01) (4, 3.06769448677282881022e+01) (58, -1.99425666034439696972e+00) (17, -3.36578184937365989526e+01) (50, -7.58294781254123108738e+02) (38, -8.68224384359147279611e+02) (7, -7.04141716236734982459e+00) (37, -2.06177872499059873235e+01) (49, -8.45212356743369142009e+00) (16, -1.58531278354994640267e+01) (54, -4.44902108509450613383e+01) (70, 1.80612268562667432903e+00) (11, 7.97627653014048032531e+00) (55, -5.43942445827998266594e+00) (12, -1.50000000000000000000e+03) (42, 4.36332571401742654871e+01) (24, 1.32727019158230132234e+03) (48, -1.53070974200816436905e+02) (25, 2.68093981698984755724e+01) (27, -3.31198975144295957307e+01) (10, 4.67051458718607193532e+02) (35, 2.19821454523925972069e+01) (66, -1.02295355411746786700e+01) (3, 2.11969517719302125158e+01) (13, 6.82005489453529492039e+01) (37, -1.26818360268052323647e+01) (29, 2.01187924481827131729e+01) (0, 1.50000000000000000000e+03) (26, -1.50000000000000000000e+03) (15, -5.93623128790026743928e+00) (31, 1.35840085823516716346e+01) (56, -2.59071665691987334412e+02) (19, 1.26484917275013231119e+01) (36, -5.16275166205749428627e+02) (45, -3.18958089907210258218e+01) (1, 1.40022810812346998333e+00) (16, 2.43900358948952735716e+01) (63, 4.29050784650789083230e+01) (52, 1.93060849076845890693e+01) (5, 2.81848797680264020471e+01) (34, -5.98763792121358946474e+01) (53, -2.73577912863406247368e+00) (65, -2.69394795621327460822e+01) (2, 1.50000000000000000000e+03) (47, 2.33983630714467736311e+01) (28, -3.59392995007248501338e+01) (17, 1.12164660275027703307e+01) (70, -4.58755681489077034030e+01) (65, 8.38436250365675306284e+00) (7, 2.06166859691558990164e+01) (44, 9.81768576513791657590e+01) (66, 2.66739102869750333014e+01) (27, -1.61491252711954764720e+01) (16, -1.05590181714087041343e+01) (36, 5.80070509743353454724e+02) (38, 5.81385803064135643581e+02) (62, 1.50000000000000000000e+03) (55, -7.24219861755108684775e+00) (1, 9.90801358479568250459e+00) (47, 2.36897407574446674516e+01) (67, 5.26418835594249756582e+01) (58, -4.93246655552186386018e+00) (12, 1.50000000000000000000e+03) (33, -2.22310769263209806468e+01) (29, -1.56044260299908259526e+01) (41, -1.77568915678598426844e+00) (46, -1.25837332236432484223e+01) (6, 6.76601146850103560837e+01) (30, -6.53847439900949552793e+02) (11, -2.51494536719061407837e+01) (20, 3.20629519808364804589e+01) (45, -1.69578806999728080029e+01) (26, 1.50000000000000000000e+03) (42, -4.34173349172218863146e+01) (15, -1.55319364754674733575e+01) (37, -3.40890136615781926821e+01) (8, 1.18949891984265192946e+02) (49, -1.59787321286786809793e+01) (24, -1.30671017934689325557e+03) (35, -3.69572716696726359942e+01) (4, -3.50883518720706888416e+01) (51, -1.35963000835547056511e+01) (69, -1.48426835240985655062e-01) (70, -1.20761425192893536718e+01) (19, 1.86990002096718388458e+00) (15, 5.33960254884944340859e+00) (37, -9.35353266509692815589e+00) (27, -1.74182562739643636007e+01) (49, -2.06470059183271814618e+01) (51, -1.78545034424827053776e+00) (66, -9.40312086983321115952e+00) (48, 1.05552809065828341772e+03) (20, -3.83177427392486347202e+00) (63, -1.22098543341697247655e+01) (13, -2.84101490590594423225e+01) (25, 4.18159558684274212936e+00) (3, 3.65537069146101316619e+01) (64, -1.50000000000000000000e+03) (46, 1.21335917968667725830e+01) (32, -7.53385548678765957220e+01) (34, -5.95994074525368233708e+00) (43, -4.18440636220407000678e+01) (39, 2.31497326815239112818e+01) (67, -3.01164576180147030016e+01) (26, 1.50000000000000000000e+03) (30, -5.41175089454791987009e+02) (29, 1.19434509516169793386e+01) (4, -1.89208780611604154842e+01) (62, 1.50000000000000000000e+03) (52, -2.87000404569025775459e+01) (22, -1.42129840916388843652e+02) (24, -6.07143530583461370043e+02) (12, 1.50000000000000000000e+03) (1, 3.82591512505476316619e+01) (58, 1.68616097595253009445e+01) (28, -4.33170216403487700063e+01) (35, 1.07538590099209496742e+01) (31, -6.04209506144490204882e-01) (60, -7.51530625765332729316e+01) (70, -1.34370091361764263382e+01) (55, -2.27180567366567025545e+01) (67, 3.24906267326534914375e+00) (11, -2.73823681959034601618e+01) (45, -3.16210118681854410738e+01) (20, 4.14703307521589170648e+00) (51, -1.37688822525838236999e+01) (17, 2.83019224837886582691e+01) (32, 6.76969555457113330021e+01) (39, -8.73508469388289832125e+00) (61, 4.27784358929316610443e+01) (49, -2.77490696761826107775e+01) (43, -2.01964993424869820871e+00) (14, -6.46200530345091237905e+02) (37, 9.38680985193749606310e+00) (65, 3.15947259404641833669e+01) (30, -6.73663527862146452208e+02) (42, -2.39695729047401933087e+01) (2, 1.50000000000000000000e+03) (8, 1.13235422074597252617e+02) (6, 8.04669326954940622443e+00) (57, -1.90256258354355551887e+01) (3, -1.77492506904364404363e+01) (35, -4.94709615617178677383e+00) (21, -1.30166542435338250527e+01) (13, 7.73792297828908548496e+00) (36, 5.44878054451605066788e+02) (1, -2.23941139409579959008e+00) (33, -3.87081668432431236226e+00) (62, 1.50000000000000000000e+03) (38, 6.20925672372607778016e+02) (9, -1.23555946673627570220e+01) (26, 1.50000000000000000000e+03) (68, -1.50000000000000000000e+03) (47, 3.01472413918834440949e+01) (50, -4.74078181180756119684e-01) (70, -2.27560903000250043249e+01) (8, -7.05608549208583752943e+01) (22, 6.63970776154475629482e+02) (27, 1.52669377221083060192e+01) (66, -6.68975681873536558442e+01) (53, 1.98396826659601704934e-01) (34, -8.65132177450700794452e+01) (4, 1.46540887822032619425e+01) (25, 2.13111294424087338584e+00) (28, -3.50168252896260367990e+00) (55, -6.17778519804551340400e+00) (24, 1.32450928250179595125e+03) (17, -1.97464171993821366868e+01) (19, -2.75065236968857114164e+01) (20, -3.77113784380117920136e+01) (61, 1.66522365208141600590e+01) (29, -4.57892254121804942457e+00) (7, -1.05929512265990499742e+01) (65, -1.95940819666770984497e+01) (45, 3.16302873340481838227e+01) (33, -5.75954942521841317671e-01) (38, -6.22774926768117438769e+02) (21, -1.28039642201205730032e+01) (6, -5.35170075719513462786e+01) (49, 1.84717751806414547389e+01) (51, -6.55191323636013933651e+00) (39, 3.98655307258223459144e+01) (44, -8.82084956737386107761e+01) (48, -1.99339435680239169812e+01) (36, -5.97795479468689677560e+02) (63, 1.49914623972288030274e+00) (40, -6.59998552883080833453e+01) (35, 2.36156309487469329156e+00) (62, 9.61116760028265844085e+01) (1, 2.24038065505609331751e+01) (2, 1.50000000000000000000e+03) (70, 2.12431625981266520853e+01) (43, 1.97849985359251832051e+01) (53, 3.00515340734630989061e+01) (0, -1.50000000000000000000e+03) (52, 2.34180683392679149790e+01) (51, 3.29695796363716482347e+01) (66, 3.21165401011229931783e+01) (23, -5.11120152103945173394e+01) (5, -1.45080006986978684580e+01) (40, 7.47257471503755965614e+01) (45, 2.08252017236172086712e+01) (14, -6.33853255564817800405e+02) (8, 8.38924979565552177974e+01) (39, -3.26329379236911307771e+01) (29, -3.66631259569603571435e+01) (15, 2.90279765957931878972e+01) (46, -1.99083448874615953628e+01) (55, 1.86191156926535872351e+00) (13, -1.02047691308753378792e+01) (33, -2.55362814162417741670e+01) (17, 2.40988905162092903467e+00) (26, 1.50000000000000000000e+03) (67, 2.68726965716260490780e+00) (41, 2.12207504553859287455e+01) (12, 1.50000000000000000000e+03) (19, 1.22513624408116399422e+01) (9, 2.77351344841172631206e-01) (68, -1.50000000000000000000e+03) (62, 1.50000000000000000000e+03) (25, -5.44181559037172757343e+00) (30, -2.93923533179727655806e+02) (24, -1.31917240669140619502e+03) (37, 1.24853583766543407840e+00) (20, 3.33413152491134070488e+01) (59, -1.50014345061297955652e+01) (11, 1.57440436909303187463e+01) (70, -5.81630667578278526264e+00) (6, -4.17308938329377099308e+01) (14, 6.42924322677405029935e+02) (9, -1.79321051919520435547e+01) (18, 5.83084639885373867685e+00) (7, 1.72999443010094999806e+00) (49, -3.23923664880999284676e+00) (59, -1.97411087702521959031e+00) (8, -1.06743466863149677692e+02) (32, -6.79177302438801149265e+01) (41, 1.37324714238573530878e+01) (38, -5.93324291334920189911e+02) (61, -8.91681505400180363097e+00) (23, 2.19772317511840986626e+00) (62, 6.36448133242984965818e+01) (16, -1.65907499374396287806e+01) (58, 6.80317564826264931099e+00) (26, -1.50000000000000000000e+03) (22, 6.45138362719493102304e+02) (65, -1.21471928512145641577e+01) (12, -1.50000000000000000000e+03) (20, -1.66590321712352924521e+01) (69, -1.63654514206556456202e+01) (35, 1.11637604413893498645e+01) (31, -2.11142095001615288652e+01) (13, 1.95298239545063232470e+01) (57, 1.12034102400588366777e+01) (27, -1.11552400639128066473e+01) (60, -3.88956342238522324806e+02) (53, -2.07006533390049582977e+01) (50, -4.86887424255994960554e-01) (39, 1.39712092746109721730e+01) (52, 9.11416914472086148180e+00) (29, 2.18334562333074728713e+01) (55, -6.04493632639948419438e+00) (25, -1.28864313904606930805e+01) (70, -2.21667304199290846611e+01) (58, 2.61863159647722376633e+01) (43, 3.87097501851574961051e+01) (69, -3.73383855146278209602e+00) (42, -7.04564865857705484586e+01) (62, 1.50000000000000000000e+03) (41, -4.97214293101468562952e+00) (20, 2.82623957979751878611e+01) (33, 1.86048624810276521657e+01) (6, 2.89720615539070429634e+01) (50, 2.45919122668172924762e+01) (10, -4.90562278169504054404e+02) (13, -1.78544527795959808714e+01) (47, 1.38880366737914306974e+00) (30, -6.73538258925989225645e+02) (8, 1.17940040528576687962e+02) (36, 5.30812224220892289850e+02) (11, 4.56104160378759360128e+00) (12, 1.50000000000000000000e+03) (54, 1.04377036580289992429e+01) (5, -2.59408631926341080032e+01) (39, -2.49377019567434139447e+01) (68, -1.50000000000000000000e+03) (45, -3.50608160111767261924e+01) (66, 2.17384566336395437247e+01) (25, 2.21579850868414709453e+01) (3, -2.78588366668773268486e+01) (37, -1.59571282734645016887e+01) (55, -4.08862116541482034648e+00) (17, -1.66316145375400168405e+01) (9, 1.12219765621971276914e+01) (32, 6.10001467307087850145e+01) (38, 5.99897077699927649519e+02) (49, -8.66157393314995118772e+01) (60, 4.54362826313631330777e+02) (22, -6.66217126236494891600e+02) (70, 2.03967934239475852110e+01) (50, 4.22412322740230621321e+01) (15, 1.04661649682983508569e+01) (17, -2.55581730313080228711e+01) (28, -1.35787973766707104062e+01) (4, 1.14936442393543973850e+01) (3, -3.49078902613553267997e+01) (69, -2.47467826984607093266e+01) (34, 5.25819115493251842963e+01) (10, -2.38540399087836618719e+02) (5, -1.34666949502897121960e+01) (24, -6.68072966374256111521e+02) (7, -1.16699499752499775695e+01) (48, 9.03730723701630722644e+01) (59, -2.48893779306137252760e+00) (21, 7.74377589977886748862e-01) (20, -3.09368292240135822624e+01) (1, 1.10635748494232704076e+01) (61, -3.06160625763665841248e+01) (52, 7.78806493495840168606e+00) (54, 1.69133098153951628717e+01) (32, -1.44433196692602177080e+01) (30, -3.84732503390339786620e+02) (0, -1.50000000000000000000e+03) (19, 5.31186367617197685576e+00) (27, 6.11308582009239209754e+00) (9, -1.44495591427077663127e+01) (66, -1.50798144454848213059e+01) (63, -2.74347907028347997027e+01) (14, -3.37434049470183197172e+02) (62, 1.50000000000000000000e+03) (56, 8.83769194914383433570e+01) (12, 1.50000000000000000000e+03) (42, -2.20764285604991101764e+01) (45, -3.65254662884553198410e+01) (51, -1.39237921994353364141e+01) (70, -3.70122119453174436288e+00) (26, 1.50000000000000000000e+03) (40, 1.48552342846740202731e+02) (56, 2.80455776750081440696e+02) (59, 2.28852950635236034316e+01) (65, -2.06895000837760107970e+01) (3, 1.01374838683346819579e+01) (67, 3.22994681799270040301e+01) (5, 5.61128070889444519054e+00) (38, 1.15150795654955004466e+03) (36, 4.77371508272169876363e+02) (32, 1.06835754642410485360e+01) (24, -1.32620010049948496089e+03) (12, 1.50000000000000000000e+03) (45, 2.02730270702208192901e+00) (51, -1.37863563005116525062e+01) (41, 1.99534539044647729611e+01) (28, 9.60407992087637474299e+00) (44, 7.21102156099312423976e+02) (66, 3.99134316737672012465e+00) (21, 2.54572746872041433264e+00) (31, -1.32309033103479922744e+01) (48, 1.95967742663921029589e+02) (39, 2.10724915432122479331e+01) (17, 3.86877599687285709251e+01) (50, 3.52544528783544308226e+02) (64, -1.50000000000000000000e+03) (27, -3.83668915469719395972e+00) (47, -3.94293607713230631617e+00) (13, 4.50975452384201425104e+00) (53, -1.14508893818379053897e+01) (35, -2.41309453212359770191e+00) (18, 5.76822608612223319824e+01) (62, 1.50000000000000000000e+03) (30, -1.86986305099849772660e+02) (1, -1.18323323395510602296e+01) (70, 4.63633359890985197183e+00) (53, -1.23672625303242575967e+01) (68, 1.50000000000000000000e+03) (61, 2.39822310656669834827e+01) (52, -1.07369251528497393622e+01) (46, -1.92182322501811313487e+02) (66, -9.19668635962294533925e-01) (37, -2.47830936861200434862e+01) (58, 3.53055878772666886789e+01) (64, 1.50000000000000000000e+03) (8, -1.32627816723933079857e+02) (23, 4.49599164834675661950e+01) (34, -1.55602666349030528181e+02) (33, 3.50615153021756214002e+01) (1, -1.47417520143408733446e+01) (28, -2.56566422762336614483e+01) (62, 7.00566262465528382108e+01) (54, 1.71985874317062865657e+01) (49, 1.25948772968758948565e-01) (45, 2.26498731372181936194e+01) (13, 8.00165896146519983745e+00) (51, -3.11670535499532981305e+01) (47, 7.08758933167181037760e+00) (31, 2.95076519604868572344e+01) (41, -2.80532155277147481343e+01) (55, -1.53187260449292939057e+01) (6, -5.94833535636000618751e+01) (40, -1.00371535106013087812e+01) (67, -1.07521492467050130415e+01) (5, -7.87885123149681998456e+00) (26, -2.97252695418202733890e+02) (44, 1.70985250235350122239e+02) (50, 2.13344262176615462323e+00) (17, -1.01812373536741329616e+00) (18, -8.62993322867034073909e+00) (39, -2.32354677146972292689e+01) (70, -2.05047716641551716066e+01) (32, -2.49406952377036716939e+01) (45, 6.05617653104636444183e-01) (48, 3.18389151478436815523e+02) (50, -8.41845470497980841174e+00) (16, 3.30376049453920828114e+01) (39, -5.58248989807503459559e+00) (57, 2.01087066911755094623e+01) (54, 1.31591321440551564592e+03) (9, 1.59814732679924609293e+00) (46, 7.11596178155505754148e+01) (60, 1.21102041039065125005e+03) (0, -1.50000000000000000000e+03) (19, 3.00191178675142680277e+01) (67, 1.58366141339619233008e+01) (47, -3.17995429942523415434e+01) (36, -8.62766612389152953710e+01) (13, 1.62407089894863858603e+01) (33, 3.74864280866192771668e+01) (1, -2.03571466946727497316e+01) (59, -3.63005648387977117864e+01) (37, 1.32935482824976780591e+01) (31, 1.70703904389008656040e+01) (8, 1.42360908479502597856e+02) (58, 1.62662048325989729847e+01) (23, 2.70187634667244260811e+01) (40, 4.55236593530754234393e+01) (18, 2.65993721744014059993e+01) (52, 2.48168284783320046927e+02) (51, -4.13269170273857184839e+01) (14, -1.28912977915669989670e+03) (12, 1.50000000000000000000e+03) (62, 1.50000000000000000000e+03) (17, 8.84523447723538502885e+00) (11, 1.05531451164206533377e+01) (35, -2.26936198116497394039e+01) (70, -4.54409768825312028184e+01) (6, -2.67149607961334574213e+01) (38, -5.72624726877979810524e+02) (12, -1.50000000000000000000e+03) (55, 4.08342413523280178822e+00) (36, -5.36880860022888214189e+02) (39, -1.85409963641479169638e+00) (32, -6.98618581392892536996e+01) (17, 4.25439517770552555476e+01) (33, 6.30471227621100770155e-03) (9, 1.58799069535588106561e+01) (42, 6.11974837675241474244e+01) (54, 5.32789976832912071103e-01) (18, 1.38250416585732640584e+01) (10, 4.96534345986673656625e+02) (50, 4.27712968084658129442e+00) (28, -2.47812739412777673920e+01) (7, -1.77143995523139423653e+01) (26, -1.50000000000000000000e+03) (15, 2.58241655163340677603e+00) (65, 4.31725906217676538290e+01) (8, -6.79451704115810457552e+01) (20, -2.58027354076197124044e+00) (29, -1.43197192832631081671e+00) (24, 1.31568952408657355591e+03) (2, 1.50000000000000000000e+03) (53, -2.94391223149850667085e+01) (63, 2.89866955342700443055e+01) (34, -6.14439120259497641996e+01) (37, 9.30305093148285600080e+00) (64, 1.50000000000000000000e+03) (31, 2.40602508216615547099e+01) (13, 1.96023487535013458682e+01) (57, 2.57172308201831576469e+01) (25, -7.94691021106074124702e+00) (43, -2.25625136806883794804e+01) (70, 6.65315514695880061424e+00) (16, -1.91619088188906125936e+01) (6, -3.66750905339875146183e+01) (47, 2.15214430112297101516e+01) (21, -4.96503570752222689322e+00) (23, 1.01334684906290721784e+01) (24, 1.33730166545734687134e+03) (5, 3.17712000714753486363e+01) (59, -7.63839416303053830859e+00) (3, -1.85688082586502432036e+01) (27, 3.74992055901457943534e+00) (52, -5.60622921306261989827e+00) (40, -3.13042115892206354033e+01) (22, 6.36540880038218801928e+02) (63, -4.36172009584848141550e-01) (26, -1.50000000000000000000e+03) (30, 6.88771474774828789123e+02) (66, -3.20729490244178094827e+00) (31, -2.40158339022821074593e+01) (10, 5.40492061974832495252e+02) (9, 1.79694693674657628435e+01) (42, 8.11767566133588758248e+00) (25, 2.91131696376553428252e+01) (28, -3.73881171092383084442e+01) (49, 8.90527081200791670312e+00) (13, 3.96454679325698648995e+01) (62, 7.78001525653264991433e+01) (29, -2.76315932594461166616e+01) (54, -1.12382042580015180988e+02) (11, -2.54508562300458578420e+01) (33, 1.27622974284721717453e+01) (32, -5.52142198524066500909e+01) (51, -9.83226315588416355240e+00) (44, -1.18794580993257639534e+02) (45, 1.90057565243707067282e+01) (46, 1.39221523811628400402e+00) (70, 2.60931345553406845994e+00) (7, 6.63439472552064302135e+00) (46, 4.82752985428259240308e+00) (69, -1.73335097399418458508e+01) (15, -1.19356330277775892768e+01) (48, -1.77477186716315344484e+02) (17, 5.41057457483606718540e+00) (33, 1.00679534824082566047e+01) (66, 3.88300205736877046547e+01) (26, 7.07213540168223971705e+02) (23, 1.66314451342763369723e+01) (22, -1.24231182459905639348e+02) (38, 6.76236003134329052955e+02) (40, 7.86539733021978122451e+01) (6, 4.21816513218641944150e+01) (43, 3.95652347707546692135e+00) (10, -4.98520129579416220622e+02) (16, 5.55877244115286899273e+01) (64, -1.50000000000000000000e+03) (4, 4.43151858781733878345e+01) (24, -1.29081468870053072351e+03) (45, 4.99345626740655124109e+00) (21, 1.42402649235386746795e+01) (2, 1.50000000000000000000e+03) (35, 1.01291921653585905716e+01) (37, -4.12303067322339913403e+01) (12, 1.50000000000000000000e+03) (55, 1.57356717429881332038e+01) (51, 3.20438522262146463504e+01) (61, -2.11469091465683369790e+01) (52, 3.33584145140776939797e+01) (60, 9.41351494743824900979e+02) (59, -1.49522323871377356141e+01) (0, -1.50000000000000000000e+03) (1, -8.54857596444892231524e-01) (27, 1.36498853108784476973e+01) (70, 3.16175945068218702261e+01) (63, -7.63054156409488282264e+00) (1, 5.16007735975786996363e+00) (27, 1.88800406830244149603e+01) (40, -6.23512069438734002347e+01) (57, 1.42087954350713268070e+01) (64, 1.50000000000000000000e+03) (32, -9.87440574827617751907e+01) (26, -1.50000000000000000000e+03) (19, -2.87484699004372963316e+01) (6, -5.22847293162341131278e+01) (56, -3.20910774686962042779e+02) (25, -3.71779942717254101581e+01) (15, -3.52013268327368464838e+01) (7, -2.26980623385351591992e+01) (52, 1.67435463400906350273e+01) (29, 2.36089922563197163186e+01) (68, 1.50000000000000000000e+03) (28, -2.78416268429147208963e+01) (0, 1.50000000000000000000e+03) (33, -2.50893432818091959291e+01) (51, 2.19922835908794915838e+01) (5, -5.81395298338243726732e+00) (20, -3.93254324156983914307e+00) (12, -1.50000000000000000000e+03) (8, -9.09487600417080841453e+01) (34, -5.89535231910502801611e+01) (54, -2.04803716726303299822e+01) (38, -2.03332223482639506074e+02) (65, -3.00566713017662543450e+01) (46, -1.61910025149555769630e+00) (36, -2.87436143732140180873e+02) (2, 1.50000000000000000000e+03) (14, 6.68718320918829476796e+02) (41, 6.01545553804913613050e+00) (17, -6.26876483970451925387e+00) (70, 1.74383754879291830164e+00) (18, 1.18294241026249089543e+01) (5, 7.96325056307020950896e+00) (39, 4.11578076821104943406e+01) (37, -3.08900748477400668435e+01) (41, 8.73310979059222525223e+00) (48, -1.94867628902049347062e+02) (25, -1.77915677186018861278e-01) (54, -1.11114628002667004125e+01) (9, 2.79900540458075646200e+01) (2, 1.50000000000000000000e+03) (42, 1.34364936247018693649e+01) (30, 6.65333835061541208233e+02) (58, 1.82539125304474314504e+00) (63, 1.73168346689859014020e+01) (7, -7.50869787957707224280e+00) (44, -9.67526116939412901274e+01) (3, 1.76314520373943963705e+01) (12, -1.50000000000000000000e+03) (60, -4.21513621154200563979e+02) (16, 2.85478350787442014536e+00) (43, 3.06884712460210309359e+01) (55, 1.41255518889140869732e+01) (45, -1.77084952424369994617e+01) (23, 4.96895513761222762383e+00) (50, 1.65754056284173643121e+01) (24, 1.33053046694622366886e+03) (35, -2.76599654746289829177e+01) (47, 3.01943206467627192069e+01) (65, 1.79339794330366153474e+01) (20, 2.94715973682544465362e+01) (28, -5.98849669768518388935e+00) (38, -6.19562886820607673144e+02) (14, 6.67911345554144418202e+02) (40, -6.60185803800183208523e+01) (22, 6.76463775469737583990e+02) (70, 1.70549877019235651687e+01) (62, 1.31688393281809157997e+03) (4, 2.25801918403275403424e-01) (38, 3.54393339476721962455e+01) (42, -5.64161221485341712878e+01) (29, -3.15559147124563637021e+01) (50, 3.80096183344990237174e+01) (45, -2.42484149345174806456e+01) (48, 1.35798686603094142811e+03) (31, 1.01797979034204466586e+01) (8, 1.44201232850354699622e+02) (27, 4.13375329248527201287e+00) (61, -2.70186001040448502408e+01) (66, 4.97391687899354622004e+01) (15, -4.01829201428340265778e+00) (11, -4.34669033478766877465e+01) (26, 1.50000000000000000000e+03) (24, -1.32618877466330332027e+03) (30, -6.91795363799646679581e+02) (58, 8.99998008165607110698e+00) (65, 7.97330854090714424842e+00) (46, 3.47629449262611558424e+01) (69, -3.16460301319105106188e+01) (40, 5.67097801663659737414e+01) (54, 6.34731661975602818870e+01) (18, -1.76736165882089473200e+01) (37, -3.48877249949854189026e+01) (7, 1.65925344211187244525e+01) (33, -7.74607643922802058256e+00) (59, 9.88029690768246871002e-01) (20, 7.52072754316777003503e-01) (47, -1.93346504800626988185e+01) (43, -1.03853587656894212898e+01) (39, 9.20609956388462657983e-01) (60, 2.36940717506702611672e+02) (5, -3.86913242261045953185e+00) (70, -3.16104977022229221006e+01) (52, -3.26813117999315272399e+00) (62, 8.78141362918279071437e+01) (66, 1.16341548351071857326e+01) (49, 2.03998822628264768753e+01) (18, -2.42699082472917693210e+00) (12, -1.50000000000000000000e+03) (48, -2.41015663125829338043e+00) (28, 7.68337715817550019892e+01) (44, -9.99674383483390869287e+01) (6, -9.64034341026915875261e+00) (64, 1.50000000000000000000e+03) (38, -7.61810170372955326457e+02) (14, 6.74011255813391471747e+02) (5, 1.61091918805879217302e+01) (41, 2.78701904046290138695e+01) (60, -4.33783919515978595882e+02) (63, -2.55244915376721195344e+01) (67, 9.08012438870983196182e+00) (56, -2.61754887509004277035e+02) (54, -7.07442076764449101489e+00) (51, 8.26417048199485648752e+00) (35, -4.05470051996196048094e+01) (43, 4.91206894224947099303e+00) (16, -3.16694460385974707606e+01) (1, 3.15962732924838807236e+00) (25, 1.55630498688145397779e+01) (23, 2.99470944054813017488e+01) (36, -6.71087406751324920151e+02) (61, 5.04056153479675650431e+00) (59, 1.36499914677696896348e+01) (55, 2.70628399068688594298e+01) (30, 2.15758265001487558266e+02) (42, 1.73102817699965534359e+01) (33, -2.05250136817792032673e+01) (20, 1.70862561747692254244e+00) (70, -2.09302236328513195929e+01) (48, 3.22523880875587281025e+02) (14, -6.78021209056028965279e+02) (26, 1.50000000000000000000e+03) (1, 6.94320089717779875826e+00) (51, -3.51087574576534544590e+00) (34, 6.91049842538166245731e+01) (36, 5.91567732643744534471e+02) (15, 1.14756399070944752339e+01) (61, 2.68275968486041946903e+01) (12, 1.50000000000000000000e+03) (56, 9.21075790394713749265e+01) (29, 1.81376978668449262422e+00) (4, 9.25869211901818367494e+00) (6, 6.26567463073250721095e+01) (13, -2.16362586381206334352e+01) (18, -2.09792776917782255452e+01) (5, 2.58349760922894162718e+01) (59, 1.05090981338477384988e+00) (22, -6.48632751391466740642e+02) (24, -1.30878987028012079463e+03) (23, -1.63194746905748289123e+01) (33, -6.98405289956169728072e+00) (7, 8.04906231610406130983e+00) (2, 1.50000000000000000000e+03) (43, 6.80273058686661213912e-01) (66, 2.00163370638611084473e+01) (65, -7.18290609826033765728e+00) (40, 5.33806567338876831741e+01) (9, -2.21322491653085400287e+01) (42, -3.01979006558998719356e+01) (11, 2.25505235030845980759e+01) (21, -1.27505968047829512102e+01) (30, -6.68575259582117041646e+02) (63, 8.15615830225170057588e+00) (32, 3.06127384741781227717e+01) (70, -6.71295147923070878448e+00) (33, 1.79515403044159036483e+01) (65, 2.45501548224589427605e+01) (55, -8.28491162349099674600e+00) (62, 1.05145925622633711782e+02) (46, 1.85963270154837907455e+01) (42, 6.94261965005171344245e+00) (61, 1.13593491477418133684e+01) (18, 8.89639508121827837783e+00) (1, -1.68314312079294019497e+01) (15, -1.85551075168705992269e+01) (5, -1.46348622133296935033e+01) (51, 2.31236560746784576281e+01) (12, -1.50000000000000000000e+03) (0, 1.50000000000000000000e+03) (6, 6.20641626914763477885e+01) (59, 5.47232615899909724533e+00) (9, -6.94271957770078884664e+00) (36, -6.13097392622114600869e+00) (7, 2.34712599845520450970e+01) (67, -1.96733710963567602903e+01) (60, -1.26127325512763988513e+02) (41, 3.45682213708628367499e+01) (32, -4.01073573329860550984e+01) (38, -6.31047240025799283103e+02) (64, 1.50000000000000000000e+03) (27, 4.28584153722069132186e+01) (29, 2.71289668159777086487e+01) (54, -1.05163236284139884447e+03) (23, 1.97970080019224314860e+00) (28, 1.72393296091511132317e+02) (31, -2.14558249918784689214e+01) (20, -1.40746911560056311430e+01) (11, -5.74604158283258392714e+00) (19, -1.51444101431827675697e+01) (35, -1.34575550208050653822e+01) (70, 3.40911897017133558307e+00) (57, 1.07042178822768576651e+01) (9, -4.20283750309758552532e+00) (13, -1.11851754248248234092e+01) (49, 1.53003394359417121962e+01) (68, 1.50000000000000000000e+03) (4, 4.03641490830186633332e+00) (27, -1.87025663113257500925e+01) (24, 1.34013265076504058015e+03) (31, -1.31287713544697552948e+01) (33, -2.42228465268198611682e+00) (45, -2.75296568528774132645e+00) (62, 9.72228019488714494400e+01) (47, -2.38860895641311010706e+01) (2, 1.50000000000000000000e+03) (46, 1.53029549958064006177e+01) (36, -6.74692735311200294746e+02) (51, 1.80785385156302358389e+00) (58, -2.10545043740396984333e+01) (29, -8.28956227606671092190e+00) (1, -2.54186467330300800427e+01) (38, -9.01736704564940964701e+02) (60, -2.59845472035687919288e+02) (14, 6.54344138217718636952e+02) (25, -1.73366984188716592996e+01) (50, -3.69956926992193402270e+01) (6, -4.19982781236329003605e+01) (11, 1.25100849052129738936e+01) (26, -1.50000000000000000000e+03) (61, 2.36985752769381399219e+01) (5, 2.11951219665905057354e+01) (67, -3.99974715927974031615e+01) (15, 4.77067362111907211641e+00) (30, 1.89804843496733440134e+02) (54, -2.61239878819011970279e+01) (8, -9.66549530119839914732e+01) (70, 3.80935378022369830475e+00) (31, 1.44375600722744081850e+01) (60, -4.02069289389025698256e+02) (53, -9.73521996958252699983e+00) (11, 2.83994911763986017661e+01) (59, -8.83474105682463672906e+00) (2, 1.50000000000000000000e+03) (14, 6.87003155303748030747e+02) (45, 5.39672064560345443596e+00) (5, 5.25211668546997429985e+01) (25, -2.15613644275333493638e+00) (43, 1.89609276252986198585e+01) (50, -2.97763571431890490260e+01) (4, 9.39325885666613658032e+00) (9, -4.07436360615048158706e+01) (13, 4.29801719769691672468e+01) (21, 4.97538122800481161789e+01) (62, 1.06845684791889027565e+02) (52, -5.51380755537412383660e+01) (7, 1.32531146397484889121e+01) (18, 5.64061007618358867255e-01) (61, 2.37265066126056822782e+01) (27, -5.05328181321388902880e-01) (58, 1.73693716130759590044e+01) (34, -8.16411068046039787305e+01) (40, -3.11670896777034904801e+01) (65, 1.06972165597846835539e+01) (42, 5.04299695387032897997e+01) (64, 1.50000000000000000000e+03) (30, 6.23100122388353383940e+02) (26, -1.50000000000000000000e+03) (3, -2.18543453698618037606e+01) (16, -1.38261387076133317464e+01) (69, -3.05617621795027574194e+01) (54, -4.56757576153302196076e+01) (0, 1.50000000000000000000e+03) (70, 1.65768376872245255527e+01) (31, -1.43618361296726160248e+01) (63, 7.77402313591449445340e+00) (6, 7.60414337310309349505e+01) (51, -3.05807971320787679304e+01) (67, -9.03093479250741637543e+00) (12, 1.50000000000000000000e+03) (40, 6.68776826360010261396e+01) (22, -6.53932199404772404705e+02) (48, 1.99713235599101693651e+02) (57, 1.94906413303912309232e+01) (15, -3.02184386916536347201e+01) (64, -1.50000000000000000000e+03) (5, -3.34477248022162925167e+01) (45, -1.76435485819409656472e+01) (2, 1.50000000000000000000e+03) (19, 6.45830122085155355904e+00) (10, -5.33334926027169672125e+02) (35, 6.79992341457539595240e+00) (3, 8.60211291763187979598e+00) (65, -9.26777034723633796887e+00) (8, 1.27093344341199653513e+02) (34, 8.70665788354205858468e+01) (26, 1.50000000000000000000e+03) (16, -1.42558546429663870470e+01) (21, -3.28506287403384220625e+01) (24, -1.32025697519192522122e+03) (38, 5.88486556848315558454e+02) (42, -3.21281892112132112516e+01) (59, -2.83233629442281937827e+01) (25, -2.55840432162649733527e+00) (4, 2.34853042100826634453e+01) (36, 5.57772822212835762912e+02) (1, -4.39078939869694622189e+01) (17, -2.77980840481871327441e+00) (9, 1.98025547675192790109e+01) (70, 3.45762187823656574892e+01) (4, -1.30345416041482326364e+03) (10, -5.26914859852549625430e+02) (6, 1.22703585177696332664e+01) (69, 2.93106109485037933382e+01) (49, -2.22458203094205275718e+00) (43, -7.39536272602719702007e-01) (18, -6.72466101887162039930e+01) (29, -2.12075716989962081982e+01) (1, -4.98471325054761393858e+01) (2, 1.50000000000000000000e+03) (44, 8.45167652931674666661e+01) (40, 1.54525632865379066061e+02) (54, 1.66130820367576063745e+02) (46, -2.02916361868500283450e+00) (26, 1.50000000000000000000e+03) (65, -1.80340170005082747196e+01) (3, -2.91736210003487457243e+01) (25, 3.24823136011324180572e+01) (68, -1.50000000000000000000e+03) (67, -9.21522379027102900295e+00) (8, 1.19903867450712553477e+02) (12, 1.50000000000000000000e+03) (33, 1.61460707295183105714e+01) (7, -8.62783072061351852255e+00) (19, -5.82220818276638283351e+01) (21, 2.88628195428586238336e+01) (60, 1.29308810095716523847e+02) (56, 4.83405615306218479077e+01) (32, 9.07478529523519057420e+01) (9, -1.91163840943924796534e+01) (14, -3.47662113072497277244e+02) (41, -3.94640388829380341917e+01) (39, -3.52993739313924663747e+01) (28, -3.65614765353639370460e+01) (61, 1.61803684898708617368e+01) (70, -5.27048652893097457905e+00) (21, -6.71351185410992279401e+00) (22, -3.11747068737193409049e+01) (69, 5.32101425295760144252e+00) (1, 1.57558587240597383072e+01) (46, -1.62134389110163539272e+01) (23, -2.53576426589413514989e+01) (43, -5.11582826031770979136e-02) (47, -3.42230165491683493428e+01) (58, -1.43528937547259793917e+01) (59, -1.85614884588241864094e+01) (2, 1.50000000000000000000e+03) (52, 4.38700821577941102447e+00) (16, -1.64619830436079901403e+01) (13, 2.71032825765588576417e+01) (55, -3.74979980417398977011e+01) (6, 9.39727589763363369002e+00) (34, 2.20555016305876563365e+01) (53, 5.02180383821920184317e+00) (56, 3.01689027609241442462e+01) (10, -4.34842196611149915952e+01) (26, 2.02215478339389761686e+02) (64, -3.61406044489629891814e+02) (41, -8.86713941352870271828e+00) (51, -3.11546861026798538319e+00) (33, 1.17741995155918282023e+01) (27, 2.56331266768313303928e+00) (38, 6.96102451897912288814e+01) (20, -8.11971170349149318213e+00) (9, -2.44843273985565872408e+01) (12, 1.83472236552433059842e+02) (67, -4.89935833360060328801e+01) (19, -9.78213565453474664935e+00) (28, 3.04020295485057587825e+01) (60, 5.27477841947415910795e+01) (31, 4.16175718303620314487e+01) (70, -5.11390917267584654837e+00) (37, 2.52682348731270494113e+01) (27, 1.37583745832099797468e+01) (25, 8.72381724329472163504e+00) (47, -6.15173252933848591084e+00) (19, -1.24670631131377920298e+01) (26, -1.37262575029219692624e+03) (31, 2.16402935317437226104e+01) (52, 2.15989728393335518319e+01) (63, 5.78010748385141859274e+00) (18, 2.18607861057462677934e+01) (40, -5.41469939128913537729e+01) (11, -3.65895418012219408865e+01) (66, -1.12270208322791908984e+00) (9, -7.92960161714554878643e+00) (14, 1.50000000000000000000e+03) (6, -3.54161546760741359208e+01) (67, 1.62497817976643013083e+01) (2, 1.50000000000000000000e+03) (22, 6.81786825652892844118e+02) (65, -9.30514730709779136486e-02) (46, 3.32808910674392555151e+00) (33, 7.54769529908382885708e+00) (24, 1.34675232258663481844e+03) (64, 1.50000000000000000000e+03) (44, -1.35074904540895289529e+02) (17, -7.30085343366465355786e+00) (38, -7.28695754722307071916e+01) (10, 5.07542179467508390189e+02) (20, -2.30713387662466296035e+01) (58, 3.52896537988087288795e+01) (55, 3.20098192644967838305e+01) (62, 8.48437040103338517838e+01) (29, 2.55154268254931935189e+01) (15, -5.54281818765274447713e+00) (32, -1.05693224397795759728e+02) (70, -1.23137615489901826038e+01) (56, 7.23992216302487712198e+00) (17, -1.78737713608359705120e+01) (48, -6.16531936549928687441e+01) (7, -6.52214243776531787944e+00) (59, 1.21699237563626971870e+00) (0, 1.50000000000000000000e+03) (4, 3.34848173130870279124e+01) (52, -1.53824161809870929574e+01) (10, 5.18261876287290760956e+02) (21, 9.43113193034604613274e+00) (23, -3.87414305860790690872e+01) (51, -1.11387738960908890817e+01) (29, 8.12603602149255266340e+00) (58, -4.57897383777716715514e+00) (55, 2.17588319044513021083e+01) (43, 4.02300211333710677764e+00) (50, -4.89979641584225902307e+01) (24, 1.33345270839557997533e+03) (14, 6.63039579225332886381e+02) (32, -1.56538972002334730860e+02) (69, 3.45677797031460229960e+01) (34, 1.08719096382166835468e+01) (41, 1.84729362428579868549e+01) (5, 1.96041552414403028592e+01) (63, 1.04235465942356384517e+01) (45, 7.34601307445516660266e+00) (46, 1.22653183811171162532e+00) (27, 1.57746681891583495627e+01) (53, 1.59758814980541643536e+01) (57, 1.52985491559397477346e+01) (36, -1.50000000000000000000e+03) (6, -4.20384138448734887561e+01) (25, 1.06981193456571013201e+01) (2, 1.50000000000000000000e+03) (54, 8.48945845633636864136e+00) (70, 2.28768988980020147039e+01) (17, 6.34504145733112689953e+00) (58, -3.00901390012123357565e+01) (12, 1.50000000000000000000e+03) (35, 1.19992512102747319602e+01) (66, -7.86042151157845214726e+00) (30, -3.58013194124866515722e+02) (63, -4.16281594467877358312e+00) (8, 1.25874755799572866977e+02) (27, -1.71327631017223005472e+01) (40, 4.10448890463800211137e+01) (20, -8.17734316736827437921e+00) (65, -1.75106636243265647579e+01) (24, -1.33383426477322427672e+03) (0, -1.50000000000000000000e+03) (51, 1.28898070955037038487e+01) (62, 1.50000000000000000000e+03) (43, 2.84371903188024681697e+01) (10, -5.10269059079995997763e+02) (34, 7.62799453439043873004e+01) (64, -1.50000000000000000000e+03) (5, 1.52158842803190168524e+01) (4, 7.62587389697228257290e+00) (31, 2.12661097628533752868e+01) (44, 7.07793068009872712310e+01) (21, -4.39881799448439081424e-01) (37, -5.91437595374660176617e+01) (9, 1.81391353828758603584e+01) (2, 1.50000000000000000000e+03) (22, -6.83746223376330362953e+02) (32, 1.99134802357902955805e+01) (68, -1.50000000000000000000e+03) (33, -2.32498563437857761471e+01) (29, 5.59275296720759573788e+00) (42, 1.47845340237959472773e+01) (26, 1.50000000000000000000e+03) (70, -2.70120542023744185656e+01) (23, 6.46937453126193595665e+00) (37, -2.06306377307920030262e+01) (41, 1.51945069711053317718e+01) (14, -6.41676764781126280468e+02) (33, 3.83876498040263314238e+01) (2, 1.50000000000000000000e+03) (45, 9.51406315531249724415e+00) (11, -1.73195376715399298462e+01) (62, 1.50000000000000000000e+03) (68, -1.50000000000000000000e+03) (5, -1.70177205274223233289e+01) (64, -1.50000000000000000000e+03) (22, -6.59059642241533879314e+02) (67, -2.41649344489977764283e+01) (34, 4.35894422234821306006e+01) (60, 4.17566990818636440963e+02) (48, 1.38252822619975603402e+02) (3, -2.09037740204896529406e+01) (36, 5.64704631876608573293e+02) (47, 9.45629279116127818838e-01) (18, 7.49328597395690376715e+00) (42, -1.55595635205849465166e+01) (61, -1.51987799553396421004e+01) (0, -1.50000000000000000000e+03) (35, -4.05828858359324016192e+01) (7, -3.01643003769508055711e+00) (25, -1.02860455117893607735e+01) (4, -5.21926310165757301185e-01) (32, 4.07321227629660356229e+01) (39, -1.66131655962148911954e+01) (55, 2.03238321231870777694e+01) (31, -9.46998757296228887981e+00) (10, -5.31971746820321641280e+02) (28, -1.16811943651868421767e+01) (12, 1.50000000000000000000e+03) (70, -5.71426751960739487401e+00) (55, 3.65003545702228748837e+01) (32, 1.73461010584511683419e+02) (39, -5.50505292661165483992e+01) (67, -6.32430798704452623582e+00) (65, 3.92672800018091834318e+01) (41, 1.34602960439536527559e+01) (59, 2.53417598797413070599e+01) (33, 1.01584324739004365767e+01) (45, -2.29146870770080397506e+01) (8, -4.63892469366084441162e+01) (63, 4.69868677146470474781e+01) (61, 9.01146204381385729221e+00) (25, -7.50116684995108684575e+00) (43, -2.76421234057889719793e+01) (64, -1.50000000000000000000e+03) (7, -2.79651972933297798818e+00) (46, 7.64059293754698103385e+01) (4, -9.27328978668094521254e+01) (58, -4.36489217464212870823e+01) (2, 1.50000000000000000000e+03) (10, -2.94304176342281266443e+02) (12, 1.50000000000000000000e+03) (50, 1.72145894330229296543e+01) (56, 5.23381660840258433609e+01) (40, 3.50287943197223450298e+00) (24, -1.33202192573765637462e+03) (3, -2.54288175453173703744e+00) (54, -2.78796664514605687657e+01) (5, -1.19757886250562961550e+01) (66, 3.36632010017198908258e+01) (1, 2.51630191636114481923e+01) (60, 3.76069095062237295224e+02) (35, -8.42407539393054793919e-01) (31, -9.77667184795190635782e+00) (57, 1.00899955564211829540e+01) (70, 7.05254295605554215598e+00) (38, 5.81654701074389549831e+02) (62, 1.50000000000000000000e+03) (48, 3.15920641633645914226e+02) (59, -1.60473203076364967501e+01) (13, -3.04116637625275672008e+01) (52, 8.06667181382864917349e-02) (61, -1.63425625141205976831e+01) (8, 1.08359688401024698123e+02) (65, 2.56067113652993647577e+01) (55, 1.05203835591060261834e+01) (46, 1.21903003551560598083e+01) (22, -6.99608947680529240642e+02) (9, 3.05434690839869169565e+01) (43, -9.25788109253459268189e+00) (56, 2.71194695948594642232e+02) (33, 1.48276661662952342624e+01) (64, -1.50000000000000000000e+03) (36, 5.53928718399664262506e+02) (21, 3.70797389040727836118e+01) (7, 1.99469280949177552031e+01) (20, -4.10865658343956408061e+00) (42, 1.46313022587219858650e+01) (63, 1.07277195437170487224e+01) (58, -1.94772596351206672693e+01) (44, 1.09905691739750650981e+02) (39, 1.64832639247229550961e+00) (10, -5.09784604925027736044e+02) (60, 4.28348845448152928839e+02) (27, 4.73742855092683967655e+00) (17, -2.54163420715228793867e+00) (49, -1.15752277043234670373e+01) (1, -1.29998242543326583132e+01) (3, 9.73916080731284949934e+00) (30, 1.21338544102727865948e+02) (31, 4.81873162890363637700e+00) (70, -8.64029417683396872008e+00) (66, -3.66757538022872395800e+01) (51, 3.17649833866379349701e+00) (33, -3.20556354019074376538e+01) (57, -1.52228989633368900769e+01) (67, 1.86334043542150737949e+01) (29, 1.57072881141819920003e+01) (38, -1.72112691687673930119e+02) (46, 4.64989905771552187730e+01) (20, -6.56838936950475442700e+01) (42, -2.95144740185353064987e+01) (63, 2.44894913608859958742e+01) (14, 2.10647874452458658823e+01) (10, -7.64154498333424356815e+01) (58, 1.15077183601192400975e-01) (17, -6.05881210016962246101e+00) (8, -5.43394337903655241462e+02) (60, -2.44162887314537648820e+01) (53, -8.19765843512911906998e+00) (43, 1.39785573235563340688e+01) (21, 2.58222281893229137495e+01) (59, 8.61577918233351347510e+00) (5, 3.13580321562696262561e+01) (4, -1.70102557138019108152e+02) (68, 1.50000000000000000000e+03) (64, 1.50000000000000000000e+03) (3, 9.75912751506056252992e+00) (27, -2.06945448310118180757e+01) (28, -1.03941321745334136040e+02) (48, -3.69704589789482085394e+01) (54, 1.03063938293048664718e+01) (45, -2.58403464935897320132e+00) (39, 3.49359193472030993277e+00) (13, -1.54812378942347681487e+01) (47, 4.17504524323692223220e+01) (16, -8.59852212829686912698e+00) (70, -2.52097569145219395637e+01) (53, 3.72739670229128705614e+01) (17, 3.96311965392775222838e+00) (55, 2.22556427236228167033e+01) (64, 1.50000000000000000000e+03) (40, -2.07840491300339209602e+01) (48, -1.50000000000000000000e+03) (1, 1.14366607032756579798e+01) (23, 2.61593962428656894303e+01) (43, 1.31013430576983420650e+01) (22, 6.76215316607432896490e+02) (30, -3.38504803482622591559e+01) (31, -1.69230131674923391927e+01) (33, 3.05230203945676903388e-01) (21, 1.84076268741263824325e+01) (62, 1.00163795874696234023e+02) (67, 1.54007446090956321427e+01) (45, -1.48106015863527140652e+01) (19, 2.17376162771628056447e+00) (35, 1.35492735321921191627e+01) (6, -3.69238736455597731378e+01) (44, -1.46127858835450894048e+02) (27, -1.01940019494833027380e+01) (2, 1.50000000000000000000e+03) (25, 3.03476786089060794893e+01) (9, 6.77319394070660663054e-01) (60, -3.97757260504137889257e+02) (7, 1.25786665262717427538e+01) (37, 1.36407745497114092359e+01) (11, 2.99436945213726879444e+00) (68, 1.50000000000000000000e+03) (69, -4.37370068206969619951e+00) (18, 1.40690783993846594058e+02) (5, 9.11440463121610022768e+00) (28, -1.41268348315586345088e+00) (51, 1.98621752909530044917e+01) (70, -2.14682665384083151139e+01) (24, 1.36863509980068579353e+03) (58, -2.55253847040627057652e+01) (12, -1.50000000000000000000e+03) (18, 3.15180015783063751655e+01) (2, 1.50000000000000000000e+03) (60, -4.12278410139453285410e+02) (66, -3.59253897281863956437e+01) (27, 6.35076519687977558704e+00) (63, -2.07776016734019748355e+01) (22, 6.81009699656444126958e+02) (26, -1.50000000000000000000e+03) (48, -1.81543489737217583979e+02) (29, 2.47584897195986961549e+01) (39, -8.19202487445943461353e+00) (50, -1.11625977813688792573e+00) (33, 1.10304712352961722388e+01) (45, 2.03328998835273395684e+01) (15, -1.07455361966221492054e+01) (32, -6.93924709976553941715e+01) (23, -2.43184764784870175447e+01) (47, 9.45958392299896466682e+00) (41, -1.94225209069498028214e+01) (56, -2.77030793952599708518e+02) (31, -1.68550960187089309272e+01) (20, -3.21478467920661117319e+01) (49, 1.01737144312355667353e+01) (51, 5.26450503953945769808e+00) (7, 9.78190517899367684151e+00) (8, -1.18572417268270513091e+02) (65, 2.56537949917690362156e+01) (54, -1.19463150188946212182e+01) (14, 6.36879664016516358060e+02) (61, -2.82150136890224700892e+00) (67, -1.06116829300795512125e+01) (57, 3.01712082337459825965e+01) (70, -1.22838416912859305086e+01) (30, -1.60113799555618555814e+02) (31, 1.85044568378986582502e+01) (20, 8.64581012600005749391e+00) (10, -5.42300914186349586998e+02) (22, -6.61534904406603459392e+02) (50, 9.68252202590960919792e+00) (57, 1.66018514656826852161e+01) (15, 1.82182359131627933380e+01) (41, 4.31253381165764793082e+00) (18, -1.51662416858078845650e+01) (19, 1.66088344228092710253e+00) (33, 1.76878618912143252828e+01) (7, 6.33044512753769073043e+00) (11, 1.56377888565780143182e+01) (26, 1.50000000000000000000e+03) (1, 1.24377864978009835539e+01) (58, -1.64396274102582999888e+01) (67, -4.89489900694402457759e+00) (45, 1.55385637200270831926e+01) (24, -1.34224031640896600948e+03) (14, -6.55528556162962331655e+02) (56, 2.98304318903916623640e+02) (29, 2.33874541359224039638e+01) (28, 2.68499708007327626547e+01) (5, 7.14456601620634579319e+00) (42, -3.06832145840808312443e+00) (17, -4.48969873389994145185e+00) (43, -1.13906799509267191439e+01) (39, 4.23514837737862404055e+00) (40, 4.26311772837549014525e+01) (48, 1.69656491023601319057e+02) (3, 2.34571448776063329333e+00) (54, 5.57556473693949428139e+00) (62, 1.50000000000000000000e+03) (4, 1.99694312547603978203e+01) (70, -5.77911358628541371729e+00) (24, 1.32607049027309722078e+03) (29, -4.54090632834973462195e+01) (33, 3.95760250249591010174e+01) (28, -1.20557064890067337615e+02) (37, 3.64693419426496348024e+01) (62, 3.79650008929632463150e+01) (65, -5.51978007339106380158e+00) (42, 2.47249637047173713711e+01) (50, -7.69094962392894387904e+01) (8, -3.25798673720304492463e+01) (35, -1.44747410344391891357e+01) (6, -3.66904785459198876651e+01) (1, 5.02703372880435068737e+01) (15, -1.08758408108693451766e+01) (69, -2.49430034712339541159e+01) (25, 4.12120826501922437046e+01) (49, 7.00734542346353919129e+01) (18, -1.93128240251146650053e+01) (36, -3.34638457202856272943e+02) (61, 2.69368127620812423118e+01) (2, 1.50000000000000000000e+03) (3, 2.67704574510072568216e+01) (23, -1.72883002283809759092e+01) (4, 1.31220853794932867942e+01) (10, 4.81934915902444913627e+02) (63, -4.30161235884213368763e+01) (19, 5.33117332782133743763e+01) (17, -4.14292303263569205996e+00) (44, -1.18616956907503620755e+02) (0, 1.50000000000000000000e+03) (64, 1.50000000000000000000e+03) (58, -5.14199025335103172551e+01) (21, 2.48194046028507386836e+01) (39, -6.01857282210866131322e+01) (20, -1.22746010485089186659e+02) (70, -2.63649295515244963539e+00) (37, -9.55583467782967410642e+00) (11, 8.51880880474206669817e+00) (29, 1.87338145357005885216e+01) (55, 2.26725591215504209686e+01) (56, 1.43982919672605277128e+02) (5, 3.30400488614715257540e+01) (12, 1.49967783247276906877e+03) (10, -5.10267883676401027060e+02) (35, -3.50833630509695737487e+01) (31, -2.44078800201650203405e+01) (68, -1.50000000000000000000e+03) (27, -2.78228016197612717519e+01) (8, -2.21345451330881047625e+02) (23, 3.04241333247798841910e+01) (52, 3.59760594206321968613e+02) (42, 1.21711582242074413784e+02) (26, 1.43438444418244148437e+03) (54, 5.58506327998024687531e+01) (58, 1.24886166642852515452e+02) (2, 1.50000000000000000000e+03) (21, -2.37213127679043154217e+01) (0, -1.50000000000000000000e+03) (62, 1.50000000000000000000e+03) (45, 4.96562093088818601316e-01) (20, 1.28540959622585493349e+01) (48, 1.50714047742542103236e+01) (34, 9.30749174518753534358e+02) (3, -1.18928778047008503194e+01) (64, -1.50000000000000000000e+03) (13, 2.18433383782196628431e+01) (28, -2.91154677120617805031e+02) (38, -4.65270966500632567886e+01) (63, 3.96188474946791080455e+00) (65, 1.43121046270450835713e+00) (69, -2.81418239945811485825e+01) (70, 9.11418628124868845930e+00) (5, 2.11142257699077395827e+00) (1, -2.88053894610723171255e+00) (9, 2.91775547831940729182e+00) (18, 2.69648085620089439374e+00) (46, -1.43643881308698144750e+01) (27, -1.93369897356598166027e+01) (54, 1.08210511693205049255e+01) (28, 5.73852049367417933468e+01) (48, 1.64129442555011536342e+02) (41, 2.41713318790625137922e+01) (33, -7.75557830754567412157e-01) (35, -1.32397239164852518201e+01) (63, 1.93034514995868384801e+01) (23, -7.27298620848664167937e+00) (22, -6.84694131777819734452e+02) (67, 1.31164904479672674853e+01) (61, -6.45048258534368912365e+00) (57, -2.98088567890112354775e+00) (15, 2.81609400430486678246e+00) (17, 2.81305869312984277997e+01) (59, 3.06383631720519069574e+01) (38, 6.09586524709977993552e+02) (34, 2.53761739354860367257e+01) (0, -1.50000000000000000000e+03) (65, -5.96677532302889890303e+00) (37, 2.54605520532660456468e+00) (2, 1.50000000000000000000e+03) (50, 1.02750777920744118532e+00) (56, 2.61719039439195569230e+02) (64, -1.50000000000000000000e+03) (8, 1.29562997758191499997e+02) (40, 4.24858274066141987646e+01) (30, -2.23338093148326521487e+02) (55, -1.53002696535245719112e+00) (45, -7.28366892839960744510e+00) (70, -9.23663973042177843809e+00) (33, 4.65592073769904590819e+00) (4, 2.14692766770134795706e+02) (8, 2.86605453203573517840e+02) (2, 1.50000000000000000000e+03) (20, 3.94659498593011948131e+00) (26, 