FANN_FLO_2.1
num_layers=3
learning_rate=0.700000
connection_rate=1.000000
network_type=0
learning_momentum=0.000000
training_algorithm=2
train_error_function=1
train_stop_function=0
cascade_output_change_fraction=0.010000
quickprop_decay=-0.000100
quickprop_mu=1.750000
rprop_increase_factor=1.001000
rprop_decrease_factor=0.500000
rprop_delta_min=0.000000
rprop_delta_max=50.000000
rprop_delta_zero=0.100000
cascade_output_stagnation_epochs=12
cascade_candidate_change_fraction=0.010000
cascade_candidate_stagnation_epochs=12
cascade_max_out_epochs=150
cascade_max_cand_epochs=150
cascade_num_candidate_groups=2
bit_fail_limit=3.49999999999999977796e-01
cascade_candidate_limit=1.00000000000000000000e+03
cascade_weight_multiplier=4.00000000000000022204e-01
cascade_activation_functions_count=10
cascade_activation_functions=3 5 7 8 10 11 14 15 16 17 
cascade_activation_steepnesses_count=4
cascade_activation_steepnesses=2.50000000000000000000e-01 5.00000000000000000000e-01 7.50000000000000000000e-01 1.00000000000000000000e+00 
layer_sizes=71 11 2 
scale_included=0
neurons (num_inputs, activation_function, activation_steepness)=(0, 0, 0.00000000000000000000e+00) (0, 0, 0.00000000000000000000e+00) (0, 0, 0.00000000000000000000e+00) (0, 0, 0.00000000000000000000e+00) (0, 0, 0.00000000000000000000e+00) (0, 0, 0.00000000000000000000e+00) (0, 0, 0.00000000000000000000e+00) (0, 0, 0.00000000000000000000e+00) (0, 0, 0.00000000000000000000e+00) (0, 0, 0.00000000000000000000e+00) (0, 0, 0.00000000000000000000e+00) (0, 0, 0.00000000000000000000e+00) (0, 0, 0.00000000000000000000e+00) (0, 0, 0.00000000000000000000e+00) (0, 0, 0.00000000000000000000e+00) (0, 0, 0.00000000000000000000e+00) (0, 0, 0.00000000000000000000e+00) (0, 0, 0.00000000000000000000e+00) (0, 0, 0.00000000000000000000e+00) (0, 0, 0.00000000000000000000e+00) (0, 0, 0.00000000000000000000e+00) (0, 0, 0.00000000000000000000e+00) (0, 0, 0.00000000000000000000e+00) (0, 0, 0.00000000000000000000e+00) (0, 0, 0.00000000000000000000e+00) (0, 0, 0.00000000000000000000e+00) (0, 0, 0.00000000000000000000e+00) (0, 0, 0.00000000000000000000e+00) (0, 0, 0.00000000000000000000e+00) (0, 0, 0.00000000000000000000e+00) (0, 0, 0.00000000000000000000e+00) (0, 0, 0.00000000000000000000e+00) (0, 0, 0.00000000000000000000e+00) (0, 0, 0.00000000000000000000e+00) (0, 0, 0.00000000000000000000e+00) (0, 0, 0.00000000000000000000e+00) (0, 0, 0.00000000000000000000e+00) (0, 0, 0.00000000000000000000e+00) (0, 0, 0.00000000000000000000e+00) (0, 0, 0.00000000000000000000e+00) (0, 0, 0.00000000000000000000e+00) (0, 0, 0.00000000000000000000e+00) (0, 0, 0.00000000000000000000e+00) (0, 0, 0.00000000000000000000e+00) (0, 0, 0.00000000000000000000e+00) (0, 0, 0.00000000000000000000e+00) (0, 0, 0.00000000000000000000e+00) (0, 0, 0.00000000000000000000e+00) (0, 0, 0.00000000000000000000e+00) (0, 0, 0.00000000000000000000e+00) (0, 0, 0.00000000000000000000e+00) (0, 0, 0.00000000000000000000e+00) (0, 0, 0.00000000000000000000e+00) (0, 0, 0.00000000000000000000e+00) (0, 0, 0.00000000000000000000e+00) (0, 0, 0.00000000000000000000e+00) (0, 0, 0.00000000000000000000e+00) (0, 0, 0.00000000000000000000e+00) (0, 0, 0.00000000000000000000e+00) (0, 0, 0.00000000000000000000e+00) (0, 0, 0.00000000000000000000e+00) (0, 0, 0.00000000000000000000e+00) (0, 0, 0.00000000000000000000e+00) (0, 0, 0.00000000000000000000e+00) (0, 0, 0.00000000000000000000e+00) (0, 0, 0.00000000000000000000e+00) (0, 0, 0.00000000000000000000e+00) (0, 0, 0.00000000000000000000e+00) (0, 0, 0.00000000000000000000e+00) (0, 0, 0.00000000000000000000e+00) (0, 0, 0.00000000000000000000e+00) (71, 4, 5.00000000000000000000e-01) (71, 4, 5.00000000000000000000e-01) (71, 4, 5.00000000000000000000e-01) (71, 4, 5.00000000000000000000e-01) (71, 4, 5.00000000000000000000e-01) (71, 4, 5.00000000000000000000e-01) (71, 4, 5.00000000000000000000e-01) (71, 4, 5.00000000000000000000e-01) (71, 4, 5.00000000000000000000e-01) (71, 4, 5.00000000000000000000e-01) (0, 4, 5.00000000000000000000e-01) (11, 4, 9.00000000000000022204e-01) (0, 4, 9.00000000000000022204e-01) 
connections (connected_to_neuron, weight)=(0, -6.30514764629356818659e+02) (1, -1.41130488432880714100e+01) (2, -6.39931315367734555366e+02) (3, 1.47119668359718129835e+01) (4, 1.01430008778848961271e+01) (5, 1.53049857572278700246e+01) (6, 2.80568477170810588461e+01) (7, 2.12196348504205323238e+00) (8, 4.52795519706162341578e+00) (9, 1.75006534226175460844e+01) (10, -6.07018547539203581209e+01) (11, -1.71911080683802417468e+01) (12, 6.43123792510605312600e+02) (13, -1.60807441678078077985e+01) (14, -8.47412599233210954708e+01) (15, -9.79352131861031516280e+00) (16, -1.86653869011223214613e+01) (17, -1.00472758902391632319e+01) (18, 1.00153334958579502967e+01) (19, 3.56407247043495623018e+00) (20, -4.77435936027095664258e+00) (21, 2.37431771741412127597e+01) (22, -6.47363128524399030539e+02) (23, -1.23824742860578052017e+01) (24, -6.29082503019187811333e+02) (25, 1.43104230113811041747e+01) (26, 6.57279252868271328225e+02) (27, 9.25191967038865570316e+00) (28, 1.39943167569015486151e+02) (29, -5.61556339698902995394e+00) (30, -2.63589648137051657528e+00) (31, -7.51758236314317707105e-01) (32, 6.63049562316513515725e+02) (33, -2.04507939264520324230e+01) (34, 6.40051610689736094173e+02) (35, -1.52081625180061337232e+01) (36, 6.35639484744644619241e+02) (37, 1.91086994274010208983e+01) (38, 5.44342931620917340751e+01) (39, -3.89766710114112102659e+00) (40, 5.12785617086494482919e+01) (41, -1.13985819028093686711e+01) (42, 3.78559657871115973649e+02) (43, 2.45151165717205188344e+01) (44, 6.55868364196396328225e+02) (45, -1.76127554030668846963e+01) (46, -2.18785806908715834140e+01) (47, 2.07157961989318586404e+01) (48, 4.78608614099132353203e+02) (49, 7.61818440306596134093e+00) (50, 4.94515050022302204979e+00) (51, -1.56335301425168129441e+01) (52, 6.43316026073074795022e+02) (53, -1.12403324871631795645e+01) (54, 6.40875998836136318459e+02) (55, -1.01724631093972401885e+01) (56, 6.27300379615402903255e+02) (57, 6.94620782706562245323e+00) (58, -1.55441470833452996203e+02) (59, -1.63422191178023261671e+01) (60, 6.38581917505837168392e+02) (61, 5.03750700451479271891e+00) (62, 2.60242672639032335269e+01) (63, 3.94323493194615659618e+00) (64, -6.49258874738890312983e+02) (65, -7.20935026455310357107e+00) (66, -9.26964067312312351987e+01) (67, -2.31897756018969474212e+01) (68, -6.23199866104605121109e+02) (69, -1.40885165251728370350e+01) (70, 2.31559912644391303616e+01) (0, -5.97131414257042251847e+02) (1, 6.32014830283194761762e+00) (2, -6.43036318724668149116e+02) (3, 1.21976853888897718292e+01) (4, -9.80760335232145941120e+00) (5, -5.25234255157337148745e+00) (6, 2.80198817649043689926e+01) (7, -1.72715066591262456086e+01) (8, 2.54828896071686102687e+02) (9, -1.46878717251746024886e+01) (10, -1.24101867849490659523e+02) (11, 2.70512767773527720294e+01) (12, 6.59360452514267649349e+02) (13, 1.93428159379312667454e+01) (14, -3.03629790518858726500e+02) (15, 2.06074470300049270577e+01) (16, -6.90737836773580227145e+01) (17, 2.60896669026237546518e+01) (18, 2.40491570838260848575e+01) (19, -2.36472627803177104511e+01) (20, 5.72577879058438998783e+00) (21, 1.91414605392376060422e+01) (22, -6.46581080298996198508e+02) (23, 1.16273128943097354693e+01) (24, -6.62381113706443670708e+02) (25, -9.62019847812980266610e+00) (26, 6.55531444411850429788e+02) (27, -4.18272096073825139229e+00) (28, -1.84997222658767697112e+02) (29, -7.63057186074879600923e-01) (30, 1.06356540961798856415e+02) (31, -2.56471355002298260217e+01) (32, 1.29199674437162684626e+02) (33, -5.23917550385358765652e+00) (34, 3.59579365151610431894e+02) (35, 1.06892100614057277141e+01) (36, 2.72085787941064900508e+01) (37, 2.33310031650873348497e+01) (38, -2.73646186350939274234e+02) (39, 1.24168411943874410497e+01) (40, 6.66809807766400695073e+01) (41, -2.86309833442747141419e+00) (42, 2.47159051483341158928e+02) (43, -5.38442365417460155896e+00) (44, 6.19341804366684641536e+02) (45, -1.73240620013095139029e+01) (46, 7.69210480377925165385e-01) (47, 4.18176773084734065833e+00) (48, 2.14317764612782866607e+02) (49, 2.51940663843152243828e+01) (50, 5.40798310443125771485e+01) (51, -1.67677641098195948643e+01) (52, 4.56593593521501190935e+02) (53, 6.35254252196654989326e-01) (54, 6.35740028005218960061e+02) (55, 1.31280218828017396504e+01) (56, 6.51622373443222272726e+02) (57, -1.70919513234758859710e+01) (58, -1.02736651380029030634e+02) (59, -5.63667360691041974263e+00) (60, 6.44520330291366803976e+02) (61, -1.09184048655420729013e+00) (62, 6.24273568969345774349e+02) (63, 3.86187136430206034987e+00) (64, -6.51116676176268242671e+02) (65, 3.14564576562924047565e+00) (66, -2.26560683081741814249e+02) (67, -2.95890620643882940044e+00) (68, -6.15820689487936419937e+02) (69, -2.04333959929195145833e+01) (70, -1.37757603389831917440e+01) (0, 6.55480195861435390725e+02) (1, 7.94358429391882481241e+00) (2, 6.48946402412033307883e+02) (3, 1.81503435782359652251e+01) (4, 4.09133515478873821536e+00) (5, 2.29275421552535227931e+01) (6, -4.34996761330506909182e-01) (7, 1.08295130424880312603e+01) (8, -8.33199922223799376297e+01) (9, 1.18819416202662697657e+01) (10, 6.17116725082654085099e+01) (11, 2.22107847317621782679e+01) (12, -6.54861221175766445413e+02) (13, 2.57565492464010219464e+01) (14, 2.98549672508948390259e+02) (15, 2.02421282480225599443e+01) (16, -1.58804836873001931963e+02) (17, -3.60312581528034092671e+00) (18, -1.28562094628252822304e+02) (19, 1.71770974167126444510e-01) (20, -3.72242209280257270620e+02) (21, -5.28071929301051845584e+00) (22, 1.85217172076111751267e+02) (23, 1.33677716122386023301e+01) (24, 6.41839210610962368264e+02) (25, -1.31969743144410802671e+01) (26, -6.52749113898849714133e+02) (27, -5.35873791410489541676e+00) (28, 1.94289644380963153480e+02) (29, -2.29043986061325917092e+01) (30, 2.08149926394648701944e+02) (31, -1.03568953801566205897e+01) (32, 4.86338451246540657280e+01) (33, -1.97840376253548662078e+01) (34, -3.50969801368162066524e+01) (35, 5.07788485453084170729e+00) (36, -6.28127042632675852474e+02) (37, 2.17479030684774166104e+01) (38, -4.20234029501749901669e+01) (39, -2.89965854423941893359e+00) (40, -1.10038165762080993204e+02) (41, -1.43448904570383213297e+01) (42, -6.31414975505448069271e+02) (43, -1.56330650612369623786e+01) (44, -6.15814559798813547786e+02) (45, -1.90750214610087587275e+00) (46, -5.41064564343073817199e-01) (47, 2.71138944550112004350e+00) (48, -6.16497869992983510201e+02) (49, 1.55152075851983557442e+01) (50, -1.03205628926188111905e+02) (51, -8.53426748066226181777e+00) (52, -1.40973998132170322606e+02) (53, 1.20680514515909251827e+01) (54, -6.26492158752060618099e+02) (55, -1.50867986918314223033e+01) (56, -6.63071609359360195413e+02) (57, 9.21962773329575746573e+00) (58, 1.59623243204643785020e+02) (59, 1.63012652949877470121e+01) (60, -6.26184723716355051693e+02) (61, -1.93026316130311386132e+01) (62, 3.01496177560907597126e+02) (63, 5.85770870448056246715e+00) (64, 6.31370290618515696224e+02) (65, -1.13101409264638466112e+01) (66, -5.39630182893427985391e+01) (67, 9.67405381919647133770e+00) (68, 6.24851805549240793880e+02) (69, 2.09192427106669462944e+01) (70, -1.38790523103902856406e+01) (0, 3.07964203026857489931e+02) (1, -6.86591803073852813277e-01) (2, 2.93756975277466551688e+02) (3, 2.18523390765780405331e+01) (4, -9.89641332367990855801e+00) (5, 1.70763184612795271278e+01) (6, -1.00228804578473322806e+01) (7, -1.79439539740114248900e+01) (8, 2.92229078481790658373e+01) (9, -2.09424107986522187730e+01) (10, 1.27461000342092162896e+02) (11, -1.94065052181686610311e+01) (12, -2.84786257715437500337e+02) (13, 2.89962874288817618051e+00) (14, 1.28349775024083157859e+02) (15, 2.32024665448740492479e+01) (16, -8.29779644936220606155e+00) (17, 2.12627103913045658601e+01) (18, 1.87314107095519055690e+01) (19, 1.98999000795657607910e+01) (20, 1.17204604335701834117e+01) (21, -7.97232364722536335222e+00) (22, 2.91585373052102966085e+02) (23, 6.58731509084779798258e+00) (24, 2.89911267569765641383e+02) (25, 7.80585094333813600542e+00) (26, -2.80793658973190645156e+02) (27, -6.31155150009045851078e+00) (28, -2.72097324134323400813e+02) (29, -5.74973437706756462795e-01) (30, 5.75325429340967318126e+01) (31, -1.08220461526463207491e+01) (32, -2.97412723304245503186e+02) (33, -2.17766363477573428042e+01) (34, -2.78641842128250573296e+02) (35, -2.03737715745079626117e+01) (36, -2.91572949649307986419e+02) (37, -1.77146562526445414676e+01) (38, 3.54350623645358666636e+01) (39, -6.02536768749974793735e+00) (40, -2.46982749484070865265e+02) (41, 2.87521628662586214986e+00) (42, -2.64187981368515238501e+02) (43, -1.10051006358022629428e+01) (44, -2.79766624213669274468e+02) (45, -1.72073360884129145099e+00) (46, -9.02258640032894199123e+00) (47, -1.86154488020445931795e+01) (48, -1.77555668188587389977e+02) (49, 1.38749816397210992136e+01) (50, -1.24132555441358064741e+02) (51, 2.16156076962884036163e+01) (52, -2.95838259459946300467e+02) (53, 2.25444641271178873865e+01) (54, -3.19675800108530694388e+01) (55, 1.03560702328900191560e+01) (56, -3.01523609878037120779e+02) (57, 5.42445173832717042472e+00) (58, 1.00571840125155702594e+02) (59, -1.50960452287394470972e+01) (60, -2.67073363067123636938e+02) (61, -5.66574392230942613935e+00) (62, -3.45527444857905408071e+01) (63, -1.20747052889263688513e+01) (64, 2.80088860655665598642e+02) (65, 1.12727575260351442488e+00) (66, 5.57775107700295436075e+01) (67, 1.52062764903826987961e+01) (68, 3.25156671227054744122e+02) (69, 2.58432835435871588459e+00) (70, -1.54180238833427019074e+01) (0, 6.35071351390457607522e+02) (1, -9.57465622714926212211e+00) (2, 6.17053842406846001722e+02) (3, 2.04583414300041006584e+01) (4, 1.56982053644903842837e+01) (5, -5.59122218046398877789e+00) (6, 1.42870301543292139712e+01) (7, 9.89017001877970436396e+00) (8, -1.63105799736203742611e+01) (9, 2.60744915728574149227e+01) (10, 7.45187463009327046848e+01) (11, -4.80661781512147001649e+00) (12, -6.35856074195480800881e+02) (13, -6.78648172638484936670e+00) (14, 3.13684779728167768553e+02) (15, 1.30709030729075017518e+01) (16, 2.12433278088564669872e+01) (17, 1.19193403497967693738e+01) (18, 5.14806308401018242193e+00) (19, -1.49696092610633546549e+00) (20, -1.43881747286083494508e-01) (21, 1.64537819954752961848e+01) (22, 6.47424425941086042258e+02) (23, 1.81240082729791254224e+01) (24, 6.43329520087814785256e+02) (25, -1.84285516414857042378e+01) (26, -6.58112262588119961038e+02) (27, -1.84897376740557106700e+01) (28, -1.31545915821536624435e+02) (29, 2.14603146940526592346e+01) (30, -1.65024073017313135381e+01) (31, -8.90245244788979306350e+00) (32, -5.64816870014882852047e+02) (33, -2.49450157345065157699e+01) (34, -6.53526764731979824319e+02) (35, 4.44421650125564848821e+00) (36, -6.29704481940842356380e+02) (37, 2.30786905450466939271e+01) (38, -1.89219647628926885830e+01) (39, -2.16812954428201720702e+01) (40, -2.02178219209323444261e+01) (41, -1.49912970302344579210e+01) (42, -6.33599505286789622005e+02) (43, 7.21585875622534800300e+00) (44, -6.15476022582627024349e+02) (45, -1.23639815584267740434e+01) (46, 5.41500916196179247208e+01) (47, -3.42851390787735343935e+00) (48, -2.48357637785260209284e+02) (49, 1.79948004786343211947e+01) (50, -2.26049328914070116525e+02) (51, -7.18323601933459254809e+00) (52, -6.52746280532455671164e+02) (53, -1.93092226133521407405e+01) (54, -6.17004951339341118910e+02) (55, 3.71576621251127647838e+00) (56, -5.13938771863221859348e+02) (57, 1.94655272579440747904e+01) (58, 1.27045719425152370263e+02) (59, -5.96654837230266732462e+00) (60, -6.40743040781593776956e+02) (61, -1.94062924573056037048e+01) (62, -1.76562865150755044397e+02) (63, -9.93103770194175972108e+00) (64, 6.23254632812119211849e+02) (65, -9.89255922002055676501e+00) (66, 7.19465026843099764164e+01) (67, 1.23672869714715769618e+01) (68, 6.53464744430160976663e+02) (69, 5.66761996456226491148e+00) (70, 2.26561224670038114937e+01) (0, 6.24765670638657297786e+02) (1, 4.08199813872590855368e+00) (2, 6.34843889098740078225e+02) (3, -3.73271486252519979487e+00) (4, -8.46580754444513772228e+00) (5, 4.83999616456155568045e+00) (6, -2.41422984890744380948e+01) (7, -1.66835416992036584816e+01) (8, -2.98294326030780787562e+01) (9, -7.60663786270958475200e+00) (10, 7.13094395840137877940e+01) (11, -1.42080166555398035300e+00) (12, -6.43356907706833339944e+02) (13, 4.00356882396646407418e-01) (14, 3.09895749235861899251e+02) (15, 2.83956014350390084644e+00) (16, -4.73888576605887656967e+00) (17, -1.85801306965600976362e+00) (18, 1.13620018055314613292e+01) (19, -1.92662471591741457644e+01) (20, -3.44914689404856602550e+01) (21, 6.39514614373545864368e+00) (22, 6.34422560077286448177e+02) (23, 1.99459281698547137296e+01) (24, 6.58814758163071132913e+02) (25, -2.64807482917537733158e+01) (26, -6.30883153300858225521e+02) (27, -1.27883766671907856960e+01) (28, -1.09361082249036229541e+02) (29, -8.07214333827444541214e+00) (30, 7.55825154158434031615e+01) (31, -1.24341191616784545459e+01) (32, -6.27929523330307688411e+02) (33, 7.62866858841801764868e+00) (34, -6.14736230712509723162e+02) (35, -2.04368328850965710330e+01) (36, -6.55127998214340664163e+02) (37, 1.25544934656718574217e+01) (38, -1.79424166097476984305e+02) (39, -1.44578958125791832146e+01) (40, -3.75997077794943095341e+01) (41, -2.07472681112267274273e+01) (42, -2.36040504784571567143e+02) (43, -2.17663219608492113366e+01) (44, -6.60804845672226633724e+02) (45, -2.30480968812367628118e+01) (46, 2.71913272338447669085e+01) (47, 1.23635914723048867536e+00) (48, -4.79962521619206938794e+02) (49, 2.23897741189001742157e+01) (50, -1.63754614514701955841e+02) (51, -9.03273990644174773479e+00) (52, -3.16606632822535289051e+02) (53, -7.23572114281514000567e+00) (54, -6.37148586969948269143e+02) (55, 2.18789266359385159433e+01) (56, -6.56420739989853359475e+02) (57, 1.29488722071430384375e+01) (58, 1.38165725819086901538e+02) (59, -1.28626542509468180242e+01) (60, -6.47472686629867780539e+02) (61, -6.53401141577031818741e+00) (62, -1.48441829098051243818e+02) (63, -9.69256022620329105166e+00) (64, 6.59894225936508860286e+02) (65, 2.64375030100573671366e-01) (66, 1.02634748457625434526e+02) (67, 1.27169731334190139194e+01) (68, 6.42551759820557094827e+02) (69, -2.07788026043770805984e+01) (70, 1.26961424639821984783e+01) (0, -5.95704407535545442443e+02) (1, -1.58509275184356788202e+01) (2, -6.07256593649900082710e+02) (3, 2.39545498111572534583e+01) (4, 7.77373415994305094756e-01) (5, -5.91362925132270156325e+00) (6, 2.22679961145580307402e+01) (7, 1.62708563726007078287e+01) (8, -1.70212937367304881775e+01) (9, -2.33079677569155769845e+01) (10, -5.56125860695331226680e+01) (11, 1.80872023980887774997e+01) (12, 6.56405616622543789163e+02) (13, 7.46711558640980488377e+00) (14, -3.37444993231871421813e+02) (15, 5.46564512971741467418e-01) (16, -1.86112456377151751497e+01) (17, 1.91156353440351125528e+01) (18, 8.83544091781206475389e+00) (19, 2.04670504101746324466e+01) (20, -9.52688698039943915319e+00) (21, -6.14567118537897627562e+00) (22, -6.24937908988571848568e+02) (23, -1.51006161768318527550e+01) (24, -6.18326422391746632456e+02) (25, -1.18797498597851003410e+01) (26, 6.51230069976425397726e+02) (27, 3.73540269345911113419e+01) (28, 1.10492368755598249663e+02) (29, -1.02640834002729182117e+01) (30, -9.57234414925686252218e+01) (31, -2.61405922216094843691e+01) (32, 6.37870160501575924172e+02) (33, 2.30271013420960990459e+01) (34, 6.23412626128769602474e+02) (35, 1.42860524425502219970e+01) (36, 6.52291099410629726663e+02) (37, 1.16783158723704403315e+01) (38, 5.24257882945380160322e+01) (39, 7.62170510800616174407e+00) (40, 7.02658444119851139931e+01) (41, -2.19783915936151323933e+01) (42, 2.87554805709745608056e+02) (43, 9.47960695383103768563e+00) (44, 6.22702590804672922786e+02) (45, 1.89155783276151296945e+01) (46, -3.44211178632204664041e+01) (47, -1.00817020709286619962e+01) (48, 4.48343011349842072377e+02) (49, -2.67617860583476740999e+00) (50, 1.76747011816973980558e+02) (51, 9.83829746920051650960e-01) (52, 6.55668876510239101663e+02) (53, 1.94788357119061465994e+01) (54, 6.27125070434189524349e+02) (55, -4.07938168162446146425e+00) (56, 6.16328914504624094661e+02) (57, 4.62609204385688954630e+00) (58, -1.47745193830185343131e+02) (59, -2.04397711558711279167e+01) (60, 6.64588340621567226663e+02) (61, 1.79529282972192767431e+01) (62, 1.45440617404200509100e+02) (63, 1.66691268702949493274e+01) (64, -6.09436832273680465732e+02) (65, 6.92189122086803809708e+00) (66, -8.84629301225502047146e+01) (67, -6.00122687828045719982e+00) (68, -5.97570795345785086283e+02) (69, 1.67910307182588098840e+01) (70, 2.10028376983327369487e+01) (0, 6.32026904922104563411e+02) (1, 6.65790118663145524813e-01) (2, 6.14340320449448199724e+02) (3, -1.64247025783755553618e+01) (4, -1.37913442760898181660e+01) (5, 1.25201647676097032047e+01) (6, -2.84912884749473178658e+01) (7, -5.92915567175422530966e+00) (8, -1.41942845174235031891e+02) (9, -1.66646787293921754269e+01) (10, 3.07308499020845999894e+02) (11, 1.11188179339317958494e+01) (12, -6.26027450423813547786e+02) (13, -9.89222510740459348710e+00) (14, 3.23170150350607855216e+02) (15, 1.45006847898146666864e+01) (16, 1.16835811570390024627e+01) (17, 1.26712848239824715790e+01) (18, 3.71676816651142303272e+01) (19, -2.04534533877164399485e+01) (20, -4.46393654842993186094e+01) (21, 1.80941988978984191760e+01) (22, 6.48638702254867780539e+02) (23, -9.70977113307924710739e+00) (24, 6.15249885421372141536e+02) (25, -1.15877717749039135242e+01) (26, -6.57789998870468593850e+02) (27, 1.45526295054285270680e+01) (28, -7.28510928249055922379e+01) (29, 1.83660794164497396253e+01) (30, -3.66683199131853314157e+02) (31, 2.01465127846530123179e+00) (32, -4.84460561630803567823e+01) (33, 4.48077393361810827344e+00) (34, -9.26596107023953123871e+01) (35, 1.55378274573370394052e+01) (36, 2.83833146619349001583e+01) (37, -1.72482024730785319377e+01) (38, 2.21576965774418738420e+02) (39, 2.07376743363242219687e+01) (40, -1.17475159104233085827e+02) (41, 6.62351270358041066544e+00) (42, 3.01974030775155499740e+00) (43, -1.16389515666605873889e+01) (44, -6.26677348952866282161e+02) (45, 6.80340188475186558037e+00) (46, 2.94293701133133083658e+02) (47, -1.67232337526980963105e+01) (48, -3.99886959932125478190e+02) (49, -1.80339517548270400482e+01) (50, -2.29369166814065472693e+01) (51, 1.79065815312361653611e+00) (52, -1.24803427001527381890e+02) (53, 3.85992474304690036391e+00) (54, -2.22795857639546746043e+00) (55, 9.82984975946334671448e+00) (56, -2.65552215387077922060e+02) (57, -2.52084696968841761588e+01) (58, 7.06304990115448205756e+00) (59, -8.90802048697991821768e+00) (60, -4.63078611011213240545e+02) (61, -8.11206068308285788149e-01) (62, -9.05475149734924684708e+01) (63, 2.25300462761505215781e+01) (64, 6.55354389052963711038e+02) (65, -1.10722369487978689051e+01) (66, -2.28576912328001995434e+01) (67, 1.11013974776965529401e+01) (68, 6.19255487304306711849e+02) (69, -4.55979218295355259727e+00) (70, 2.86368808933956175977e+00) (0, 6.54450036864853359475e+02) (1, 2.15202276368996336942e+01) (2, 6.26515839439011301693e+02) (3, 1.11960478171183428486e+01) (4, -5.27368675396358632668e+00) (5, 1.29092071742887490871e+01) (6, 8.31390183554263728638e+00) (7, 1.42541313880505597922e+01) (8, -5.08580334798702526911e+00) (9, 2.77356557612607410590e+01) (10, 7.28381928646534362315e+01) (11, -4.93048422470112246430e+00) (12, -6.44877072196579433694e+02) (13, -1.64822222551794439482e+01) (14, 3.39451114083045126790e+02) (15, -4.49195854885509238130e+00) (16, -5.15964486287569190637e-01) (17, 9.85043248427268025580e+00) (18, -8.63940725114163754483e+00) (19, 7.51779415749563195703e+00) (20, -5.25101300662338132952e+00) (21, -3.08963364133205420359e+00) (22, 6.16618877273178782161e+02) (23, 1.30618731600510535884e+01) (24, 6.55315414291000820413e+02) (25, 1.47085115582283769697e+01) (26, -6.53820746284103620383e+02) (27, -8.79992313950925364452e+00) (28, -1.22736615465306925898e+02) (29, 2.77203180148674448446e+01) (30, 9.81137708881647796488e+01) (31, 1.52463231173989512968e+01) (32, -6.19842897277451243099e+02) (33, 1.98698490404814300803e+01) (34, -6.31591393809891428646e+02) (35, 1.57721929304899610713e+01) (36, -6.50285071235275495383e+02) (37, 1.72835523340913610468e+01) (38, -5.46474388370327375242e+01) (39, -2.48867024502238098904e+00) (40, -5.10111552714633305072e+01) (41, 1.90903125103873669843e+01) (42, -2.76987766039599421219e+02) (43, -2.30356129170873842327e+01) (44, -6.17949081283188547786e+02) (45, -1.15923916612347746025e+01) (46, 2.25286707090852296176e+01) (47, 2.09849736049637911606e+01) (48, -4.87990298337346928292e+02) (49, 1.41166765095215520631e+01) (50, -1.53959454221122797435e+02) (51, 2.56458646453888938765e+00) (52, -6.58858072143173671975e+02) (53, 1.05651821605221698519e+01) (54, -6.59414939742661204036e+02) (55, 1.40876480655545019971e+01) (56, -6.28841523032761301693e+02) (57, -1.74547694224848513045e+01) (58, 1.69660846457667616960e+02) (59, 6.93812887924099186421e+00) (60, -6.22409757476425852474e+02) (61, 1.89395937284363462538e+01) (62, -1.65201951874082681115e+02) (63, 9.37197451934919989469e+00) (64, 6.49850242477035749289e+02) (65, -1.01354333929449147433e+01) (66, 8.23479448768048882812e+01) (67, -1.70673175925165026001e+01) (68, 6.45211091857528913351e+02) (69, -1.42989738325218773696e+01) (70, 1.01872348812736017720e+01) (0, 6.56893848281479336038e+02) (1, -1.95472504402485860453e+01) (2, 6.39501062195873942073e+02) (3, -1.92551171089497579203e+01) (4, 1.56958450152957018631e+00) (5, -4.81921837689571219698e+00) (6, 6.58541189998499282288e-02) (7, 1.43006934198408242054e+01) (8, -2.13041565044784952931e+01) (9, -1.34553131405824721867e+01) (10, 5.33293012821643515053e+01) (11, 9.06943065400861669900e-01) (12, -6.55620822768784023538e+02) (13, 1.61158105244259814981e+01) (14, 6.55665874343491054788e+02) (15, -6.57092662245492764583e+00) (16, -3.01302187814763513529e+01) (17, 1.39822211701144318852e+01) (18, -1.80718675334634255591e+01) (19, -2.01030018428324463997e+00) (20, -5.71095730788210165230e+00) (21, 2.72841932434816456521e+01) (22, 6.35170982938385463967e+02) (23, -1.05912698353293048825e+01) (24, 6.36905127268410183206e+02) (25, 2.48190929928823607042e+01) (26, -6.62906568389511562600e+02) (27, -2.52518661944124964691e+01) (28, -1.52325588479248636986e+02) (29, 4.35373573286644344194e+00) (30, 4.29578678722492597331e+01) (31, 2.12994341448576420817e+01) (32, -6.67639072280502773538e+02) (33, 1.48135606427459105561e+01) (34, -6.43998877387619472756e+02) (35, -7.71000727950877795536e+00) (36, -6.62977773528671718850e+02) (37, -2.74153528493669673693e+00) (38, -5.90120324373904807658e+01) (39, -1.55800017001209791800e+01) (40, -3.84364170011226349288e+01) (41, -5.69465956786178728599e-01) (42, -1.13695102014206611329e+02) (43, 1.53907112763339313233e+01) (44, -6.24471139666358325826e+01) (45, -5.59461790812038106679e+00) (46, 2.92451438780444270549e+01) (47, 1.03252275878907525453e+02) (48, -4.61657030171758208326e+02) (49, 1.12583608700140818115e+01) (50, 7.84897987017811615829e+00) (51, -8.86873844324624904800e-01) (52, -2.94335421107385570849e+02) (53, 1.87793673404941010574e+01) (54, 1.93740860017466474119e+01) (55, 1.47391296150614383720e+01) (56, -6.26087585311508860286e+02) (57, -2.31140377294404925079e-01) (58, 8.17111191967895678090e+01) (59, 4.45041468193937639342e+00) (60, -6.33473986964798655208e+02) (61, 2.09233769401188141046e+01) (62, -6.55790267806625820413e+02) (63, -2.09845972227249895070e+01) (64, 6.30769176345444407161e+02) (65, 9.41193229900898309381e+00) (66, 9.92626667010336944941e+01) (67, 1.73096949130827830743e+01) (68, 6.63766614776230312600e+02) (69, 2.16078799461039530172e+01) (70, -7.44083183062956621256e+00) (71, 1.32533065518835684315e+01) (72, 3.81112138635823249899e+00) (73, -4.22724007121579603563e+00) (74, -2.60274222166718294247e+00) (75, -7.08865917843350157312e+00) (76, -1.34612247388484522759e+01) (77, 1.35842414306323906459e+01) (78, -3.09088807983649616062e+00) (79, -4.19286866916012890272e+00) (80, -2.05624783503560983888e+01) (81, 9.23697904812506642713e+00) 
